{"learner":{"attributes":{"best_iteration":"16","best_score":"11.302484954794249","scikit_learn":"{\"_estimator_type\": \"regressor\"}"},"feature_names":[],"feature_types":[],"gradient_booster":{"model":{"cats":{"enc":[],"feature_segments":[],"sorted_idx":[]},"gbtree_model_param":{"num_parallel_tree":"1","num_trees":"67"},"iteration_indptr":[0,1,2,3,4,5,6,7,8,9,10,11,12,13,14,15,16,17,18,19,20,21,22,23,24,25,26,27,28,29,30,31,32,33,34,35,36,37,38,39,40,41,42,43,44,45,46,47,48,49,50,51,52,53,54,55,56,57,58,59,60,61,62,63,64,65,66,67],"tree_info":[0,0,0,0,0,0,0,0,0,0,0,0,0,0,0,0,0,0,0,0,0,0,0,0,0,0,0,0,0,0,0,0,0,0,0,0,0,0,0,0,0,0,0,0,0,0,0,0,0,0,0,0,0,0,0,0,0,0,0,0,0,0,0,0,0,0,0],"trees":[{"base_weights":[1.9030972E-1,-1.0404673E1,6.656459E0,-1.3856275E0,-6.4775767E0,3.2064986E0,1.2899035E0,-7.992861E-1,-1.474332E-1,4.699686E-3,5.0304446E0,1.491549E-1,6.105961E-1],"categories":[],"categories_nodes":[],"categories_segments":[],"categories_sizes":[],"default_left":[0,0,0,0,0,0,0,0,0,0,0,0,0],"id":0,"left_children":[1,3,5,-1,7,9,-1,-1,-1,-1,11,-1,-1],"loss_changes":[1.4273528E4,2.2329365E3,4.434083E3,0E0,9.24219E2,5.582397E2,0E0,0E0,0E0,0E0,5.351029E2,0E0,0E0],"parents":[2147483647,0,0,1,1,2,2,4,4,5,5,10,10],"right_children":[2,4,6,-1,8,10,-1,-1,-1,-1,12,-1,-1],"split_conditions":[-3.7E-2,-2.2E-1,1.86E-1,-1.3856275E0,1.02924E2,5.3491855E-1,1.2899035E0,-7.992861E-1,-1.474332E-1,4.699686E-3,3.5313773E-1,1.491549E-1,6.105961E-1],"split_indices":[65,65,65,0,23,40,0,0,0,0,45,0,0],"split_type":[0,0,0,0,0,0,0,0,0,0,0,0,0],"sum_hessian":[2.0658171E2,7.808895E1,1.2849275E2,2.568172E1,5.240723E1,9.6502106E1,3.1990648E1,2.7769049E1,2.4638182E1,3.57599E1,6.0742207E1,2.9937895E1,3.0804314E1],"tree_param":{"num_deleted":"0","num_feature":"274","num_nodes":"13","size_leaf_vector":"1"}},{"base_weights":[-1.8822843E-1,-9.735254E0,5.960256E0,-6.389518E0,-1.1880707E0,3.375863E0,1.1143849E0,-7.0725095E-1,-2.6284465E-1,2.4849746E-2,5.4130445E0,2.2864947E-1,5.4714125E-1],"categories":[],"categories_nodes":[],"categories_segments":[],"categories_sizes":[],"default_left":[0,0,0,0,0,0,0,0,0,0,0,0,0],"id":1,"left_children":[1,3,5,7,-1,9,-1,-1,-1,-1,11,-1,-1],"loss_changes":[1.2518541E4,1.490459E3,2.794942E3,4.1791138E2,0E0,6.2379626E2,0E0,0E0,0E0,0E0,2.2796863E2,0E0,0E0],"parents":[2147483647,0,0,1,1,2,2,3,3,5,5,10,10],"right_children":[2,4,6,8,-1,10,-1,-1,-1,-1,12,-1,-1],"split_conditions":[-2.4E-2,3.667234E-1,2.43E-1,3.522E1,-1.1880707E0,1.7906977E0,1.1143849E0,-7.0725095E-1,-2.6284465E-1,2.4849746E-2,3.5973158E-1,2.2864947E-1,5.4714125E-1],"split_indices":[65,45,65,69,0,123,0,0,0,0,38,0,0],"split_type":[0,0,0,0,0,0,0,0,0,0,0,0,0],"sum_hessian":[2.115143E2,8.2659515E1,1.2885478E2,5.307942E1,2.95801E1,9.966419E1,2.9190586E1,2.6608606E1,2.6470812E1,4.0293507E1,5.9370686E1,2.5043554E1,3.4327133E1],"tree_param":{"num_deleted":"0","num_feature":"274","num_nodes":"13","size_leaf_vector":"1"}},{"base_weights":[2.4329726E-1,-8.358399E0,4.7609816E0,-9.4103736E-1,-3.6147317E-1,1.9717281E0,9.034792E0,-3.892377E-2,3.3987005E0,4.5469773E-1,9.595571E-1,5.9166823E-2,4.2393187E-1],"categories":[],"categories_nodes":[],"categories_segments":[],"categories_sizes":[],"default_left":[0,0,0,0,0,0,0,0,0,0,0,0,0],"id":2,"left_children":[1,3,5,-1,-1,7,9,-1,11,-1,-1,-1,-1],"loss_changes":[8.942471E3,1.0640527E3,1.7821836E3,0E0,0E0,3.2807938E2,5.67626E2,0E0,3.1917627E2,0E0,0E0,0E0,0E0],"parents":[2147483647,0,0,1,1,2,2,5,5,6,6,8,8],"right_children":[2,4,6,-1,-1,8,10,-1,12,-1,-1,-1,-1],"split_conditions":[-3.7E-2,-1.8E-1,1.53E-1,-9.4103736E-1,-3.6147317E-1,-6.5223354E-1,1.162E2,-3.892377E-2,-8.259397E-3,4.5469773E-1,9.595571E-1,5.9166823E-2,4.2393187E-1],"split_indices":[65,65,65,0,0,54,17,0,259,0,0,0,0],"split_type":[0,0,0,0,0,0,0,0,0,0,0,0,0],"sum_hessian":[2.2834734E2,7.8371445E1,1.4997589E2,3.7428326E1,4.094312E1,9.153217E1,5.844371E1,3.3665585E1,5.7866592E1,3.1541498E1,2.6902212E1,2.6143375E1,3.1723217E1],"tree_param":{"num_deleted":"0","num_feature":"274","num_nodes":"13","size_leaf_vector":"1"}},{"base_weights":[1.6061649E-1,-5.3405523E0,5.6554427E0,-9.0255666E-1,-3.016464E0,3.6786563E0,9.9250895E-1,3.450578E-2,-4.3999043E0,2.1359155E0,5.2812487E-1,-1.7915444E-1,-5.759733E-1,3.0707794E-1,-5.8539003E-2],"categories":[],"categories_nodes":[],"categories_segments":[],"categories_sizes":[],"default_left":[0,0,0,0,0,0,0,0,0,0,0,0,0,0,0],"id":3,"left_children":[1,3,5,-1,7,9,-1,-1,11,13,-1,-1,-1,-1,-1],"loss_changes":[7.1114863E3,1.70175E3,1.6312197E3,0E0,4.1984583E2,4.4260962E2,0E0,0E0,3.813656E2,3.441618E2,0E0,0E0,0E0,0E0,0E0],"parents":[2147483647,0,0,1,1,2,2,4,4,5,5,8,8,9,9],"right_children":[2,4,6,-1,8,10,-1,-1,12,14,-1,-1,-1,-1,-1],"split_conditions":[2.4E-2,-2.32E-1,2.92E-1,-9.0255666E-1,-4.3314498E-2,7.994017E-1,9.9250895E-1,3.450578E-2,1.1308576E2,1.15E2,5.2812487E-1,-1.7915444E-1,-5.759733E-1,3.0707794E-1,-5.8539003E-2],"split_indices":[65,65,65,0,258,25,0,0,60,14,0,0,0,0,0],"split_type":[0,0,0,0,0,0,0,0,0,0,0,0,0,0,0],"sum_hessian":[2.3350499E2,1.1669366E2,1.1681133E2,3.033636E1,8.635729E1,9.267584E1,2.413549E1,2.481145E1,6.1545845E1,6.3259792E1,2.9416052E1,3.7545036E1,2.4000809E1,3.8484222E1,2.4775566E1],"tree_param":{"num_deleted":"0","num_feature":"274","num_nodes":"15","size_leaf_vector":"1"}},{"base_weights":[-3.278443E-2,-6.0762444E0,4.0795946E0,-4.6463466E0,-7.7422E-1,2.667024E0,8.3222586E-1,-5.2069616E-1,-1.2559159E-1,1.6066196E0,5.248215E-1,2.9728813E0,-8.379267E-2,3.6860406E-1,-8.319966E-3],"categories":[],"categories_nodes":[],"categories_segments":[],"categories_sizes":[],"default_left":[0,0,0,0,0,0,0,0,0,0,0,0,0,0,0],"id":4,"left_children":[1,3,5,7,-1,9,-1,-1,-1,11,-1,13,-1,-1,-1],"loss_changes":[6.1777056E3,5.264492E2,1.3728245E3,4.6780286E2,0E0,5.297145E2,0E0,0E0,0E0,3.6791776E2,0E0,3.6686548E2,0E0,0E0,0E0],"parents":[2147483647,0,0,1,1,2,2,3,3,5,5,9,9,11,11],"right_children":[2,4,6,8,-1,10,-1,-1,-1,12,-1,14,-1,-1,-1],"split_conditions":[-2.4E-2,7.2862887E0,2.94E-1,5.758211E-1,-7.7422E-1,3.144E0,8.3222586E-1,-5.2069616E-1,-1.2559159E-1,1.14888885E2,5.248215E-1,1.2891299E-1,-8.379267E-2,3.6860406E-1,-8.319966E-3],"split_indices":[65,57,65,41,0,254,0,0,0,14,0,49,0,0,0],"split_type":[0,0,0,0,0,0,0,0,0,0,0,0,0,0,0],"sum_hessian":[2.4681161E2,9.977508E1,1.4703653E2,7.46504E1,2.5124674E1,1.22434875E2,2.4601658E1,4.3437046E1,3.1213354E1,9.838611E1,2.4048767E1,6.520738E1,3.3178726E1,4.0872124E1,2.4335258E1],"tree_param":{"num_deleted":"0","num_feature":"274","num_nodes":"15","size_leaf_vector":"1"}},{"base_weights":[2.4164134E-1,-3.3649364E0,3.9043918E0,-5.81773E-1,-1.5637987E0,-3.378056E-2,4.970238E0,-3.001719E0,7.832491E-2,6.6233835E0,1.4451933E-1,-3.558071E-1,-5.8274657E-2,3.5764885E-1,6.9296134E-1],"categories":[],"categories_nodes":[],"categories_segments":[],"categories_sizes":[],"default_left":[0,0,0,0,0,0,0,0,0,0,0,0,0,0,0],"id":5,"left_children":[1,3,5,-1,7,-1,9,11,-1,13,-1,-1,-1,-1,-1],"loss_changes":[3.4277812E3,9.7059094E2,5.977506E2,0E0,3.453061E2,0E0,5.186797E2,2.1145276E2,0E0,2.7689233E2,0E0,0E0,0E0,0E0,0E0],"parents":[2147483647,0,0,1,1,2,2,4,4,6,6,7,7,9,9],"right_children":[2,4,6,-1,8,-1,10,12,-1,14,-1,-1,-1,-1,-1],"split_conditions":[3.7234914E-1,-1.0369442E1,4.4444445E-1,-5.81773E-1,1.02168E2,-3.378056E-2,1.14666664E2,1.885E4,7.832491E-2,1.00888E2,1.4451933E-1,-3.558071E-1,-5.8274657E-2,3.5764885E-1,6.9296134E-1],"split_indices":[58,58,66,0,37,0,12,177,0,22,0,0,0,0,0],"split_type":[0,0,0,0,0,0,0,0,0,0,0,0,0,0,0],"sum_hessian":[2.577299E2,1.2989093E2,1.2783895E2,3.8353573E1,9.153736E1,2.5291872E1,1.0254708E2,5.8677612E1,3.2859745E1,6.621618E1,3.6330902E1,3.3687454E1,2.4990158E1,3.722875E1,2.8987429E1],"tree_param":{"num_deleted":"0","num_feature":"274","num_nodes":"15","size_leaf_vector":"1"}},{"base_weights":[-1.1260764E-1,-5.7374015E0,3.2802427E0,-7.1056795E0,-1.6205254E-1,1.2036495E0,5.9324746E0,-6.961732E-1,-2.706454E-1,2.1267025E-1,-4.1715436E-2,6.785881E-1,2.7706617E-1],"categories":[],"categories_nodes":[],"categories_segments":[],"categories_sizes":[],"default_left":[0,0,0,0,0,0,0,0,0,0,0,0,0],"id":6,"left_children":[1,3,5,7,-1,9,11,-1,-1,-1,-1,-1,-1],"loss_changes":[4.841025E3,4.6179028E2,8.649343E2,4.4549756E2,0E0,2.441806E2,4.3513916E2,0E0,0E0,0E0,0E0,0E0,0E0],"parents":[2147483647,0,0,1,1,2,2,3,3,5,5,6,6],"right_children":[2,4,6,8,-1,10,12,-1,-1,-1,-1,-1,-1],"split_conditions":[-3.7E-2,1.4428572E1,1.53E-1,1.3013241E1,-1.6205254E-1,2.823E3,4.195712E-1,-6.961732E-1,-2.706454E-1,2.1267025E-1,-4.1715436E-2,6.785881E-1,2.7706617E-1],"split_indices":[65,122,65,15,0,160,46,0,0,0,0,0,0],"split_type":[0,0,0,0,0,0,0,0,0,0,0,0,0],"sum_hessian":[2.5191782E2,9.455925E1,1.5735857E2,6.810661E1,2.6452639E1,8.898216E1,6.83764E1,4.366388E1,2.4442732E1,4.685844E1,4.2123722E1,2.9760973E1,3.8615433E1],"tree_param":{"num_deleted":"0","num_feature":"274","num_nodes":"13","size_leaf_vector":"1"}},{"base_weights":[-2.2410062E-1,-3.49977E0,2.469769E0,-1.8230768E0,-5.825616E-1,5.047621E0,-5.3271866E-1,-2.9001322E-1,5.4861393E-2,2.1310282E-1,5.4145294E-1,-2.1006644E-1,1.8527529E-1],"categories":[],"categories_nodes":[],"categories_segments":[],"categories_sizes":[],"default_left":[0,0,0,0,0,0,0,0,0,0,0,0,0],"id":7,"left_children":[1,3,5,7,-1,9,11,-1,-1,-1,-1,-1,-1],"loss_changes":[2.3212703E3,7.9185645E2,1.1200511E3,4.18596E2,0E0,3.3182666E2,4.3828763E2,0E0,0E0,0E0,0E0,0E0,0E0],"parents":[2147483647,0,0,1,1,2,2,3,3,5,5,6,6],"right_children":[2,4,6,8,-1,10,12,-1,-1,-1,-1,-1,-1],"split_conditions":[5E-1,1.1604224E2,1.1E0,-3E0,-5.825616E-1,6.5582655E-2,5.9727836E-1,-2.9001322E-1,5.4861393E-2,2.1310282E-1,5.4145294E-1,-2.1006644E-1,1.8527529E-1],"split_indices":[61,55,252,36,0,264,41,0,0,0,0,0,0],"split_type":[0,0,0,0,0,0,0,0,0,0,0,0,0],"sum_hessian":[2.613125E2,1.1781075E2,1.4350175E2,8.4176056E1,3.3634697E1,7.689632E1,6.6605446E1,4.7532413E1,3.664364E1,3.6474182E1,4.0422134E1,3.81919E1,2.8413546E1],"tree_param":{"num_deleted":"0","num_feature":"274","num_nodes":"13","size_leaf_vector":"1"}},{"base_weights":[3.607346E-2,-2.850007E0,3.5140102E0,-1.3953793E0,-6.974171E-1,1.8484255E0,6.018236E-1,-2.9249763E0,1.621896E-1,-4.221652E-2,3.45952E0,-1.2702954E0,-4.9598515E-1,4.4912332E-1,8.066559E-2,-2.487549E-1,8.793448E-2],"categories":[],"categories_nodes":[],"categories_segments":[],"categories_sizes":[],"default_left":[0,0,0,0,0,0,0,0,0,0,0,0,0,0,0,0,0],"id":8,"left_children":[1,3,5,7,-1,9,-1,11,-1,-1,13,15,-1,-1,-1,-1,-1],"loss_changes":[2.560932E3,1.2415681E3,8.111592E2,6.1434357E2,0E0,3.275655E2,0E0,4.529665E2,0E0,0E0,2.8217706E2,2.6225085E2,0E0,0E0,0E0,0E0,0E0],"parents":[2147483647,0,0,1,1,2,2,3,3,5,5,7,7,10,10,11,11],"right_children":[2,4,6,8,-1,10,-1,12,-1,-1,14,16,-1,-1,-1,-1,-1],"split_conditions":[2.2E0,6.46E-1,1.1799565E2,5.869666E-1,-6.974171E-1,-3.5E0,6.018236E-1,2.3649992E-2,1.621896E-1,-4.221652E-2,9.97E2,5.7685165E1,-4.9598515E-1,4.4912332E-1,8.066559E-2,-2.487549E-1,8.793448E-2],"split_indices":[253,62,52,41,0,36,0,258,0,0,157,70,0,0,0,0,0],"split_type":[0,0,0,0,0,0,0,0,0,0,0,0,0,0,0,0,0],"sum_hessian":[2.5337585E2,1.3855003E2,1.1482582E2,1.1302363E2,2.5526405E1,8.355439E1,3.1271431E1,7.872476E1,3.4298862E1,3.382581E1,4.9728577E1,5.425406E1,2.4470703E1,2.4545824E1,2.5182755E1,2.9827953E1,2.4426107E1],"tree_param":{"num_deleted":"0","num_feature":"274","num_nodes":"17","size_leaf_vector":"1"}},{"base_weights":[-6.1297208E-2,-3.8198357E0,2.1606185E0,-4.968389E-1,-2.1461637E0,4.7127624E0,6.7366466E-2,-3.7891912E-1,-1.3681996E-4,2.1949127E-1,5.802836E-1,-1.4572856E0,2.7249393E-1,-2.7825603E-1,1.1341674E-1],"categories":[],"categories_nodes":[],"categories_segments":[],"categories_sizes":[],"default_left":[0,0,0,0,0,0,0,0,0,0,0,0,0,0,0],"id":9,"left_children":[1,3,5,-1,7,9,11,-1,-1,-1,-1,13,-1,-1,-1],"loss_changes":[2.2017307E3,4.157079E2,8.8471216E2,0E0,3.6085294E2,3.7181653E2,4.895989E2,0E0,0E0,0E0,0E0,4.0900555E2,0E0,0E0,0E0],"parents":[2147483647,0,0,1,1,2,2,4,4,5,5,6,6,11,11],"right_children":[2,4,6,-1,8,10,12,-1,-1,-1,-1,14,-1,-1,-1],"split_conditions":[-2.5E0,3.66E-1,4.51E-1,-4.968389E-1,1.2666667E1,3.5E0,5.555556E-1,-3.7891912E-1,-1.3681996E-4,2.1949127E-1,5.802836E-1,5.4664197E0,2.7249393E-1,-2.7825603E-1,1.1341674E-1],"split_indices":[253,61,62,0,33,251,67,0,0,0,0,54,0,0,0],"split_type":[0,0,0,0,0,0,0,0,0,0,0,0,0,0,0],"sum_hessian":[2.618887E2,9.707169E1,1.64817E2,3.6924274E1,6.0147415E1,7.3763374E1,9.105362E1,2.5800346E1,3.434707E1,4.527898E1,2.84844E1,6.3548714E1,2.7504908E1,3.6557518E1,2.6991196E1],"tree_param":{"num_deleted":"0","num_feature":"274","num_nodes":"15","size_leaf_vector":"1"}},{"base_weights":[1.851749E-1,-1.8133516E0,2.7768734E0,-9.0974087E-1,-4.8601764E-1,8.94657E-1,4.919618E0,1.4257623E-1,-2.0461543E0,2.656571E-1,-1.17358126E-1,2.1433082E-1,5.0708544E-1,-5.90381E-1,-3.509119E-1,-1.9692768E-1,7.7394724E-2],"categories":[],"categories_nodes":[],"categories_segments":[],"categories_sizes":[],"default_left":[0,0,0,0,0,0,0,0,0,0,0,0,0,0,0,0,0],"id":10,"left_children":[1,3,5,7,-1,9,11,-1,13,-1,-1,-1,-1,15,-1,-1,-1],"loss_changes":[1.4248187E3,6.233281E2,4.788498E2,4.1134988E2,0E0,4.0287888E2,1.8045312E2,0E0,3.342752E2,0E0,0E0,0E0,0E0,1.8810355E2,0E0,0E0,0E0],"parents":[2147483647,0,0,1,1,2,2,3,3,5,5,6,6,8,8,13,13],"right_children":[2,4,6,8,-1,10,12,-1,14,-1,-1,-1,-1,16,-1,-1,-1],"split_conditions":[2.2E0,6.46E-1,6E-1,-2.536E0,-4.8601764E-1,-6.68E0,1.139551E2,1.4257623E-1,1.01484E2,2.656571E-1,-1.17358126E-1,2.1433082E-1,5.0708544E-1,1.140419E1,-3.509119E-1,-1.9692768E-1,7.7394724E-2],"split_indices":[253,62,61,254,0,74,56,0,30,0,0,0,0,20,0,0,0],"split_type":[0,0,0,0,0,0,0,0,0,0,0,0,0,0,0,0,0],"sum_hessian":[2.7334344E2,1.5447293E2,1.1887051E2,1.2942493E2,2.5048014E1,6.3955833E1,5.4914673E1,3.7620773E1,9.1804146E1,3.0963238E1,3.2992596E1,2.4869066E1,3.0045605E1,5.868645E1,3.3117695E1,2.608878E1,3.259767E1],"tree_param":{"num_deleted":"0","num_feature":"274","num_nodes":"17","size_leaf_vector":"1"}},{"base_weights":[-1.9386418E-2,-3.4293423E0,3.4355862E0,-5.011509E-1,-2.1281416E0,1.0595814E0,5.11572E0,1.0488974E-1,-3.3321018E0,-6.0427383E-2,2.1416661E-1,6.547983E0,1.5870388E-1,-4.368276E-1,-1.4851214E-1,3.2252195E-1,6.585402E-1],"categories":[],"categories_nodes":[],"categories_segments":[],"categories_sizes":[],"default_left":[0,0,0,0,0,0,0,0,0,0,0,0,0,0,0,0,0],"id":11,"left_children":[1,3,5,-1,7,9,11,-1,13,-1,-1,15,-1,-1,-1,-1,-1],"loss_changes":[3.1317085E3,5.198966E2,5.220619E2,0E0,4.034878E2,1.7806294E2,3.2587866E2,0E0,2.2260132E2,0E0,0E0,2.1268652E2,0E0,0E0,0E0,0E0,0E0],"parents":[2147483647,0,0,1,1,2,2,4,4,5,5,6,6,8,8,11,11],"right_children":[2,4,6,-1,8,10,12,-1,14,-1,-1,16,-1,-1,-1,-1,-1],"split_conditions":[1.2E-2,-1.05E1,7.676812E-1,-5.011509E-1,1.0981439E2,1.13665535E2,5.4E0,1.0488974E-1,1.1E1,-6.0427383E-2,2.1416661E-1,1.153E2,1.5870388E-1,-4.368276E-1,-1.4851214E-1,3.2252195E-1,6.585402E-1],"split_indices":[65,253,25,0,52,52,116,0,34,0,0,19,0,0,0,0,0],"split_type":[0,0,0,0,0,0,0,0,0,0,0,0,0,0,0,0,0],"sum_hessian":[2.6406305E2,1.3290674E2,1.3115633E2,3.861469E1,9.4292046E1,5.4931362E1,7.622497E1,2.4168005E1,7.012404E1,2.668759E1,2.8243773E1,5.123782E1,2.4987148E1,2.547212E1,4.465192E1,2.4540722E1,2.6697096E1],"tree_param":{"num_deleted":"0","num_feature":"274","num_nodes":"17","size_leaf_vector":"1"}},{"base_weights":[-1.6786364E-1,-3.9207942E0,8.067175E-1,-5.282638E-1,-1.0420103E-1,1.3425577E0,-2.676567E-1,5.0678873E-3,2.554771E0,-1.1910738E0,2.1878724E-1,6.574134E-1,4.0269938E-1,3.760844E-2,-2.1133734E-1,-1.0725379E-1,1.9321E-1],"categories":[],"categories_nodes":[],"categories_segments":[],"categories_sizes":[],"default_left":[0,0,0,0,0,0,0,0,0,0,0,0,0,0,0,0,0],"id":12,"left_children":[1,3,5,-1,-1,7,-1,9,11,13,-1,15,-1,-1,-1,-1,-1],"loss_changes":[1.0677925E3,4.431488E2,5.3467725E2,0E0,0E0,3.3492313E2,0E0,3.3831384E2,5.434039E2,1.8342401E2,0E0,2.4548477E2,0E0,0E0,0E0,0E0,0E0],"parents":[2147483647,0,0,1,1,2,2,5,5,7,7,8,8,9,9,11,11],"right_children":[2,4,6,-1,-1,8,-1,10,12,14,-1,16,-1,-1,-1,-1,-1],"split_conditions":[3.66E-1,-1.05E1,2.350365E0,-5.282638E-1,-1.0420103E-1,4.605626E-2,-2.676567E-1,1.56E1,5.98E-1,1.2055274E-1,2.1878724E-1,1.156E2,4.0269938E-1,3.760844E-2,-2.1133734E-1,-1.0725379E-1,1.9321E-1],"split_indices":[61,253,135,0,0,264,0,26,61,49,0,11,0,0,0,0,0],"split_type":[0,0,0,0,0,0,0,0,0,0,0,0,0,0,0,0,0],"sum_hessian":[2.9026904E2,5.930062E1,2.3096843E2,2.709134E1,3.2209282E1,2.0576884E2,2.5199583E1,9.826526E1,1.07503586E2,6.9397964E1,2.886729E1,6.337921E1,4.412437E1,3.354069E1,3.5857273E1,3.0135202E1,3.324401E1],"tree_param":{"num_deleted":"0","num_feature":"274","num_nodes":"17","size_leaf_vector":"1"}},{"base_weights":[-1.1287034E-1,-2.8179638E0,2.7274017E0,-5.466293E-1,-1.9095004E0,1.9483427E0,4.5217478E-1,-3.2900565E0,5.0227635E-2,3.2570493E-1,8.3475286E-1,-4.6047203E-2,-4.4733734E0,-2.503263E-1,2.1284142E-1,-4.867553E-1,-1.839646E-1,9.5800094E-2,-1.3039902E-1],"categories":[],"categories_nodes":[],"categories_segments":[],"categories_sizes":[],"default_left":[0,0,0,0,0,0,0,0,0,0,0,0,0,0,0,0,0,0,0],"id":13,"left_children":[1,3,5,-1,7,9,-1,11,-1,-1,13,-1,15,17,-1,-1,-1,-1,-1],"loss_changes":[2.24261E3,5.6606396E2,3.3645325E2,0E0,4.4165857E2,2.8794635E2,0E0,2.555935E2,0E0,0E0,1.6419846E2,0E0,2.0103638E2,1.1097713E2,0E0,0E0,0E0,0E0,0E0],"parents":[2147483647,0,0,1,1,2,2,4,4,5,5,7,7,10,10,12,12,13,13],"right_children":[2,4,6,-1,8,10,-1,12,-1,-1,14,-1,16,18,-1,-1,-1,-1,-1],"split_conditions":[2.4E-2,9.73E-1,8.216123E-1,-5.466293E-1,-9.7E-2,1.1245323E2,4.5217478E-1,3.94E2,5.0227635E-2,3.2570493E-1,1.03032E2,-4.6047203E-2,1.188E2,2.99E1,2.1284142E-1,-4.867553E-1,-1.839646E-1,9.5800094E-2,-1.3039902E-1],"split_indices":[65,179,25,0,65,59,0,159,0,0,29,0,16,68,0,0,0,0,0],"split_type":[0,0,0,0,0,0,0,0,0,0,0,0,0,0,0,0,0,0,0],"sum_hessian":[2.9012692E2,1.4861076E2,1.4151614E2,2.5072628E1,1.2353814E2,1.14437485E2,2.7078669E1,8.010185E1,4.3436283E1,3.6866264E1,7.757122E1,2.4860582E1,5.524127E1,5.0041218E1,2.753E1,2.8526623E1,2.6714647E1,2.4614758E1,2.542646E1],"tree_param":{"num_deleted":"0","num_feature":"274","num_nodes":"19","size_leaf_vector":"1"}},{"base_weights":[-2.85154E-1,-3.3697515E0,1.8384299E0,-4.9883475E0,-1.8793045E0,3.5100916E-1,1.0568756E0,-5.685841E-1,-2.0740445E-1,-3.1234643E-1,-1.7045528E-2,-1.233278E-1,1.8803388E0,-1.2000548E-1,3.1635E0,1.3753042E-1,4.4755363E-1],"categories":[],"categories_nodes":[],"categories_segments":[],"categories_sizes":[],"default_left":[0,0,0,0,0,0,0,0,0,0,0,0,0,0,0,0,0],"id":14,"left_children":[1,3,5,7,9,-1,11,-1,-1,-1,-1,-1,13,-1,15,-1,-1],"loss_changes":[1.8521578E3,2.6954626E2,3.4978467E2,2.8117627E2,2.1954927E2,0E0,2.8917996E2,0E0,0E0,0E0,0E0,0E0,4.4717944E2,0E0,2.5784406E2,0E0,0E0],"parents":[2147483647,0,0,1,1,2,2,3,3,4,4,6,6,12,12,14,14],"right_children":[2,4,6,8,10,-1,12,-1,-1,-1,-1,-1,14,-1,16,-1,-1],"split_conditions":[-2.5E-2,4.235462E-1,3.4808334E1,4E-1,-8.2E0,3.5100916E-1,9.351173E0,-5.685841E-1,-2.0740445E-1,-3.1234643E-1,-1.7045528E-2,-1.233278E-1,4.55614E-1,-1.2000548E-1,1.2496108E-3,1.3753042E-1,4.4755363E-1],"split_indices":[65,46,70,36,253,0,20,0,0,0,0,0,24,0,259,0,0],"split_type":[0,0,0,0,0,0,0,0,0,0,0,0,0,0,0,0,0],"sum_hessian":[2.8103558E2,1.14387314E2,1.6664827E2,5.3834274E1,6.0553043E1,3.6390553E1,1.3025772E2,2.5561745E1,2.827253E1,2.5713787E1,3.4839256E1,3.0642845E1,9.9614876E1,2.7038744E1,7.257613E1,4.854065E1,2.4035486E1],"tree_param":{"num_deleted":"0","num_feature":"274","num_nodes":"17","size_leaf_vector":"1"}},{"base_weights":[-2.571069E-1,-3.4570014E0,1.6942645E0,-1.5486094E0,-5.537792E0,3.8099858E-1,3.3666353E0,-2.359079E-1,-3.853514E-5,-2.0095217E-1,-6.535805E-1,1.6172842E0,-2.3803556E-1,4.280533E-1,1.3902731E-1,4.3340564E-1,2.9648992E-1,1.5051106E-1,-8.445385E-2],"categories":[],"categories_nodes":[],"categories_segments":[],"categories_sizes":[],"default_left":[0,0,0,0,0,0,0,0,0,0,0,0,0,0,0,0,0,0,0],"id":15,"left_children":[1,3,5,7,9,11,13,-1,-1,-1,-1,15,-1,-1,-1,17,-1,-1,-1],"loss_changes":[1.7867891E3,4.2253687E2,3.8924725E2,1.3447787E2,4.2220398E2,4.3497327E2,2.5701227E2,0E0,0E0,0E0,0E0,1.9482181E2,0E0,0E0,0E0,1.1696123E2,0E0,0E0,0E0],"parents":[2147483647,0,0,1,1,2,2,3,3,4,4,5,5,6,6,11,11,15,15],"right_children":[2,4,6,8,10,12,14,-1,-1,-1,-1,16,-1,-1,-1,18,-1,-1,-1],"split_conditions":[-3.7E-2,1.13402855E2,3.5839555E-1,7.8680557E-1,1.12691765E2,8.3695E1,1.1E1,-2.359079E-1,-3.853514E-5,-2.0095217E-1,-6.535805E-1,1.0259E2,-2.3803556E-1,4.280533E-1,1.3902731E-1,3.3394644E-1,2.9648992E-1,1.5051106E-1,-8.445385E-2],"split_indices":[65,53,45,32,60,71,27,0,0,0,0,37,0,0,0,45,0,0,0],"split_type":[0,0,0,0,0,0,0,0,0,0,0,0,0,0,0,0,0,0,0],"sum_hessian":[2.8443808E2,1.07500496E2,1.7693759E2,5.6883003E1,5.061749E1,9.9727905E1,7.720969E1,2.8393036E1,2.848997E1,2.6086857E1,2.4530632E1,7.3842545E1,2.5885357E1,3.1388838E1,4.5820847E1,4.8863995E1,2.4978554E1,2.4417765E1,2.4446228E1],"tree_param":{"num_deleted":"0","num_feature":"274","num_nodes":"19","size_leaf_vector":"1"}},{"base_weights":[1.1201144E-1,-3.136588E0,1.6835936E0,-1.7351171E0,-4.2894745E-1,2.2903461E0,-5.861788E-2,-3.9109156E-1,1.0344663E-1,1.0882566E0,4.0285772E-1,1.454571E-1,2.8986785E-1,-1.0086001E-1,1.6581947E-1],"categories":[],"categories_nodes":[],"categories_segments":[],"categories_sizes":[],"default_left":[0,0,0,0,0,0,0,0,0,0,0,0,0,0,0],"id":16,"left_children":[1,3,5,7,-1,9,-1,-1,-1,11,-1,13,-1,-1,-1],"loss_changes":[1.4955458E3,3.146773E2,2.9412762E2,6.3774286E2,0E0,5.514976E2,0E0,0E0,0E0,2.840642E2,0E0,2.48305E2,0E0,0E0,0E0],"parents":[2147483647,0,0,1,1,2,2,3,3,5,5,9,9,11,11],"right_children":[2,4,6,8,-1,10,-1,-1,-1,12,-1,14,-1,-1,-1],"split_conditions":[-9.7E-2,7.1E0,2.1666667E0,1.1328289E2,-4.2894745E-1,5.25E0,-5.861788E-2,-3.9109156E-1,1.0344663E-1,8.051157E-1,4.0285772E-1,4.625E0,2.8986785E-1,-1.0086001E-1,1.6581947E-1],"split_indices":[65,252,135,55,0,128,0,0,0,32,0,128,0,0,0],"split_type":[0,0,0,0,0,0,0,0,0,0,0,0,0,0,0],"sum_hessian":[2.9115646E2,9.463529E1,1.9652116E2,6.0862045E1,3.3773247E1,1.5747327E2,3.9047886E1,2.895994E1,3.1902105E1,1.12468864E2,4.500441E1,8.376776E1,2.8701097E1,4.872159E1,3.5046177E1],"tree_param":{"num_deleted":"0","num_feature":"274","num_nodes":"15","size_leaf_vector":"1"}},{"base_weights":[-1.9405712E-1,-2.5426517E0,9.996189E-1,-4.0912733E0,-3.5051085E-2,3.0038956E-1,4.8091432E-1,-4.7137424E-1,-1.1119705E-1,-3.698321E-2,2.6443616E-1,-7.8179586E-1,2.0613712E-1,-1.6287917E-1,8.2507186E-2],"categories":[],"categories_nodes":[],"categories_segments":[],"categories_sizes":[],"default_left":[0,0,0,0,0,0,0,0,0,0,0,0,0,0,0],"id":17,"left_children":[1,3,5,7,-1,-1,9,-1,-1,11,-1,13,-1,-1,-1],"loss_changes":[8.237868E2,3.1844775E2,2.9024545E2,2.944898E2,0E0,0E0,2.535887E2,0E0,0E0,2.8834918E2,0E0,2.7743256E2,0E0,0E0,0E0],"parents":[2147483647,0,0,1,1,2,2,3,3,6,6,9,9,11,11],"right_children":[2,4,6,8,-1,-1,10,-1,-1,12,-1,14,-1,-1,-1],"split_conditions":[-9.7E-2,-8.093938E-3,2E0,1.2072619E1,-3.5051085E-2,3.0038956E-1,8.3072615E-1,-4.7137424E-1,-1.1119705E-1,1.525E1,2.6443616E-1,1.53E-1,2.0613712E-1,-1.6287917E-1,8.2507186E-2],"split_indices":[65,257,2,74,0,0,25,0,0,26,0,65,0,0,0],"split_type":[0,0,0,0,0,0,0,0,0,0,0,0,0,0,0],"sum_hessian":[2.9214813E2,9.812552E1,1.9402263E2,5.585483E1,4.2270683E1,2.8651579E1,1.6537105E2,3.1107054E1,2.474778E1,1.413452E2,2.4025848E1,1.1133545E2,3.0009748E1,6.477703E1,4.6558422E1],"tree_param":{"num_deleted":"0","num_feature":"274","num_nodes":"15","size_leaf_vector":"1"}},{"base_weights":[-8.285154E-2,-1.544928E0,1.5325849E0,-3.945433E-1,-3.508103E0,5.410225E-1,2.9416302E-1,-1.460265E0,1.4338522E-1,-1.2049122E-1,-4.3701488E-1,-5.400735E-1,3.095302E-1,5.9527537E-4,-2.8318733E-1,-2.4709372E-1,7.035769E-1,1.9701144E-1,-7.639194E-2],"categories":[],"categories_nodes":[],"categories_segments":[],"categories_sizes":[],"default_left":[0,0,0,0,0,0,0,0,0,0,0,0,0,0,0,0,0,0,0],"id":18,"left_children":[1,3,5,7,9,11,-1,13,-1,-1,-1,15,-1,-1,-1,-1,17,-1,-1],"loss_changes":[7.4219147E2,3.7111325E2,3.3486417E2,2.5422229E2,2.4659839E2,3.9556995E2,0E0,2.3254257E2,0E0,0E0,0E0,2.6929984E2,0E0,0E0,0E0,0E0,1.7660622E2,0E0,0E0],"parents":[2147483647,0,0,1,1,2,2,3,3,4,4,5,5,7,7,11,11,16,16],"right_children":[2,4,6,8,10,12,-1,14,-1,-1,-1,16,-1,-1,-1,-1,18,-1,-1],"split_conditions":[2.4E-2,1.1310198E2,9.1E0,1.12543884E2,1.01424E2,4.4444445E-1,2.9416302E-1,7.972528E-1,1.4338522E-1,-1.2049122E-1,-4.3701488E-1,1.0309112E1,3.095302E-1,5.9527537E-4,-2.8318733E-1,-2.4709372E-1,1.108E2,1.9701144E-1,-7.639194E-2],"split_indices":[65,60,115,60,29,67,0,25,0,0,0,20,0,0,0,0,18,0,0],"split_type":[0,0,0,0,0,0,0,0,0,0,0,0,0,0,0,0,0,0,0],"sum_hessian":[3.124766E2,1.6405782E2,1.4841876E2,1.0412123E2,5.9936596E1,1.04143295E2,4.4275463E1,7.088455E1,3.3236675E1,3.2243534E1,2.769306E1,7.9938644E1,2.420465E1,4.307396E1,2.7810593E1,2.5046724E1,5.4891922E1,2.6048222E1,2.88437E1],"tree_param":{"num_deleted":"0","num_feature":"274","num_nodes":"19","size_leaf_vector":"1"}},{"base_weights":[-1.769115E-1,-9.538815E-1,1.8040435E0,-4.075083E-1,-3.9506292E-1,2.9036605E-1,3.5438612E-1,-9.087203E-1,2.3732929E-1,1.7302978E-1,-1.0679589E-1,-2.4026458E-1,-2.4220462E-1,1.9698997E-1,-7.598581E-2],"categories":[],"categories_nodes":[],"categories_segments":[],"categories_sizes":[],"default_left":[0,0,0,0,0,0,0,0,0,0,0,0,0,0,0],"id":19,"left_children":[1,3,5,-1,7,9,-1,11,-1,-1,-1,13,-1,-1,-1],"loss_changes":[4.6887537E2,5.261066E2,3.6031732E2,0E0,3.4900363E2,1.8719705E2,0E0,2.525393E2,0E0,0E0,0E0,2.7569217E2,0E0,0E0,0E0],"parents":[2147483647,0,0,1,1,2,2,4,4,5,5,7,7,11,11],"right_children":[2,4,6,-1,8,10,-1,12,-1,-1,-1,14,-1,-1,-1],"split_conditions":[6.1E-1,9.41E-1,1.14447365E2,-4.075083E-1,2.9333334E1,1.0998198E2,3.5438612E-1,9.4357E1,2.3732929E-1,1.7302978E-1,-1.0679589E-1,3.8771254E-1,-2.4220462E-1,1.9698997E-1,-7.598581E-2],"split_indices":[61,179,56,0,117,53,0,71,0,0,0,39,0,0,0],"split_type":[0,0,0,0,0,0,0,0,0,0,0,0,0,0,0],"sum_hessian":[3.027965E2,2.178343E2,8.496221E1,2.4085371E1,1.9374893E2,5.567355E1,2.9288666E1,1.6932559E2,2.4423347E1,2.5584602E1,3.0088947E1,1.3099387E2,3.833173E1,2.709615E1,1.0389771E2],"tree_param":{"num_deleted":"0","num_feature":"274","num_nodes":"15","size_leaf_vector":"1"}},{"base_weights":[2.513091E-2,-1.5467615E0,1.6850095E0,-8.734358E-1,-3.7856957E-1,6.934186E-1,3.183437E0,2.8558308E-1,-3.0455184E0,1.8347155E-1,-5.75979E-1,1.0015394E-1,4.2839497E-1,-9.573791E-1,2.3952258E-1,-7.5614065E-2,-3.8914657E-1,8.567873E-2,-1.660266E-1,-2.0171405E-1,1.10317856E-1],"categories":[],"categories_nodes":[],"categories_segments":[],"categories_sizes":[],"default_left":[0,0,0,0,0,0,0,0,0,0,0,0,0,0,0,0,0,0,0,0,0],"id":20,"left_children":[1,3,5,7,-1,9,11,13,15,-1,17,-1,-1,19,-1,-1,-1,-1,-1,-1,-1],"loss_changes":[8.600216E2,3.7830582E2,2.3611627E2,3.5852676E2,0E0,2.096733E2,2.7682324E2,3.296054E2,1.9928485E2,0E0,1.5146202E2,0E0,0E0,2.616331E2,0E0,0E0,0E0,0E0,0E0,0E0,0E0],"parents":[2147483647,0,0,1,1,2,2,3,3,5,5,6,6,7,7,8,8,10,10,13,13],"right_children":[2,4,6,8,-1,10,12,14,16,-1,18,-1,-1,20,-1,-1,-1,-1,-1,-1,-1],"split_conditions":[2.5E-2,1.0418E2,5.9105796E-1,2.1463416E0,-3.7856957E-1,1.325E1,3.5761255E-1,1.9571428E0,5.69151E-1,1.8347155E-1,2.5555555E1,1.0015394E-1,4.2839497E-1,6.3076668E1,2.3952258E-1,-7.5614065E-2,-3.8914657E-1,8.567873E-2,-1.660266E-1,-2.0171405E-1,1.10317856E-1],"split_indices":[65,23,44,135,0,26,45,135,44,0,117,0,0,70,0,0,0,0,0,0,0],"split_type":[0,0,0,0,0,0,0,0,0,0,0,0,0,0,0,0,0,0,0,0,0],"sum_hessian":[3.2785907E2,1.6841032E2,1.5944876E2,1.4118648E2,2.722385E1,9.67423E1,6.2706455E1,9.254717E1,4.86393E1,4.1298218E1,5.5444088E1,3.5627544E1,2.7078909E1,6.459259E1,2.7954576E1,2.4526659E1,2.4112642E1,2.6882946E1,2.856114E1,3.8106953E1,2.6485641E1],"tree_param":{"num_deleted":"0","num_feature":"274","num_nodes":"21","size_leaf_vector":"1"}},{"base_weights":[-1.3296446E-1,-1.7008418E0,7.739293E-1,2.5911905E-2,-3.18887E0,2.2457318E0,-4.9099046E-1,-3.7989697E-1,-1.1758598E-1,8.421947E-3,3.6413295E0,1.2851527E-1,-1.918428E0,8.364168E-2,4.6618474E-1,-3.173168E-1,-1.5804008E-2],"categories":[],"categories_nodes":[],"categories_segments":[],"categories_sizes":[],"default_left":[0,0,0,0,0,0,0,0,0,0,0,0,0,0,0,0,0],"id":21,"left_children":[1,3,5,-1,7,9,11,-1,-1,-1,13,-1,15,-1,-1,-1,-1],"loss_changes":[4.3702625E2,3.4228925E2,3.6366052E2,0E0,1.8093597E2,2.6846603E2,3.2716205E2,0E0,0E0,0E0,3.2787067E2,0E0,2.3867015E2,0E0,0E0,0E0,0E0],"parents":[2147483647,0,0,1,1,2,2,4,4,5,5,6,6,10,10,12,12],"right_children":[2,4,6,-1,8,10,12,-1,-1,-1,14,-1,16,-1,-1,-1,-1],"split_conditions":[4.5695174E-1,2.722E1,4.8E-1,2.5911905E-2,2.175E1,1.13379875E2,1.0559882E1,-3.7989697E-1,-1.1758598E-1,8.421947E-3,1.120481E2,1.2851527E-1,1.01396E2,8.364168E-2,4.6618474E-1,-3.173168E-1,-1.5804008E-2],"split_indices":[24,69,62,0,260,56,15,0,0,0,60,0,30,0,0,0,0],"split_type":[0,0,0,0,0,0,0,0,0,0,0,0,0,0,0,0,0],"sum_hessian":[3.056348E2,1.11736725E2,1.9389807E2,4.7452667E1,6.4284065E1,8.932067E1,1.045774E2,3.0697893E1,3.3586166E1,3.5676342E1,5.364433E1,4.1603394E1,6.2974007E1,2.6554163E1,2.7090164E1,2.7101252E1,3.5872757E1],"tree_param":{"num_deleted":"0","num_feature":"274","num_nodes":"17","size_leaf_vector":"1"}},{"base_weights":[-1.7975445E-1,-1.754266E0,9.415082E-1,4.0636994E-2,-2.2953038E0,4.113778E-1,3.1679535E-1,-1.333108E0,-3.1495687E-1,-8.0020237E-1,1.7096237E0,8.563842E-2,-2.1059713E-1,4.6876162E-2,-1.8366446E-1,3.4538072E-1,3.294654E-1,1.5672825E-1,-1.0856306E-1],"categories":[],"categories_nodes":[],"categories_segments":[],"categories_sizes":[],"default_left":[0,0,0,0,0,0,0,0,0,0,0,0,0,0,0,0,0,0,0],"id":22,"left_children":[1,3,5,-1,7,9,-1,11,-1,13,15,-1,-1,-1,-1,17,-1,-1,-1],"loss_changes":[5.432095E2,1.5899442E2,2.9944846E2,0E0,1.72617E2,2.4494069E2,0E0,2.3605035E2,0E0,1.8050656E2,2.6029123E2,0E0,0E0,0E0,0E0,1.4967337E2,0E0,0E0,0E0],"parents":[2147483647,0,0,1,1,2,2,4,4,5,5,7,7,9,9,10,10,15,15],"right_children":[2,4,6,-1,8,10,-1,12,-1,14,16,-1,-1,-1,-1,18,-1,-1,-1],"split_conditions":[-3.7E-2,9.7944E1,3.53E-1,4.0636994E-2,2.688889E1,3.5800126E-1,3.1679535E-1,4.3288288E-1,-3.1495687E-1,5.6110644E-1,5.944822E-1,8.563842E-2,-2.1059713E-1,4.6876162E-2,-1.8366446E-1,3.68E-1,3.294654E-1,1.5672825E-1,-1.0856306E-1],"split_indices":[65,22,65,0,117,45,0,57,0,48,41,0,0,0,0,254,0,0,0],"split_type":[0,0,0,0,0,0,0,0,0,0,0,0,0,0,0,0,0,0,0],"sum_hessian":[3.059707E2,1.2707275E2,1.7889795E2,2.4357784E1,1.02714966E2,1.5405568E2,2.4842278E1,6.771204E1,3.5002922E1,7.984524E1,7.421044E1,2.465303E1,4.305901E1,4.2473385E1,3.737185E1,4.9042522E1,2.5167917E1,2.4942469E1,2.4100052E1],"tree_param":{"num_deleted":"0","num_feature":"274","num_nodes":"19","size_leaf_vector":"1"}},{"base_weights":[2.4508716E-1,-2.2883418E0,8.626217E-1,1.8264093E-2,-3.185654E-1,3.1045052E-1,4.0036178E-1,-2.1219073E-1,9.2146814E-1,4.4523653E-1,3.1696618E-1,-3.3307668E-2,1.4858806E-1],"categories":[],"categories_nodes":[],"categories_segments":[],"categories_sizes":[],"default_left":[0,0,0,0,0,0,0,0,0,0,0,0,0],"id":23,"left_children":[1,3,5,-1,-1,-1,7,-1,9,11,-1,-1,-1],"loss_changes":[5.0555286E2,2.9461017E2,3.7717102E2,0E0,0E0,0E0,3.751426E2,0E0,2.9487946E2,2.2272668E2,0E0,0E0,0E0],"parents":[2147483647,0,0,1,1,2,2,6,6,8,8,9,9],"right_children":[2,4,6,-1,-1,-1,8,-1,10,12,-1,-1,-1],"split_conditions":[0E0,4.71E-1,4.28E0,1.8264093E-2,-3.185654E-1,3.1045052E-1,-5.1593345E-2,-2.1219073E-1,4.6307546E-1,7.9088795E-1,3.1696618E-1,-3.3307668E-2,1.4858806E-1],"split_indices":[10,62,68,0,0,0,257,0,46,32,0,0,0],"split_type":[0,0,0,0,0,0,0,0,0,0,0,0,0],"sum_hessian":[3.2119562E2,6.2469604E1,2.58726E2,2.661077E1,3.5858833E1,3.2176353E1,2.2654967E2,3.1637745E1,1.9491191E2,1.7041931E2,2.44926E1,1.07362625E2,6.3056694E1],"tree_param":{"num_deleted":"0","num_feature":"274","num_nodes":"13","size_leaf_vector":"1"}},{"base_weights":[-2.4756688E-1,-2.5215474E-1,2.8153926E-1,9.011934E-1,-1.5876071E0,3.2735714E-1,2.369499E-1,6.6915736E-2,-2.4763417E-1,2.0844531E-1,-5.477435E-1,1.036878E-1,-1.5599775E-1],"categories":[],"categories_nodes":[],"categories_segments":[],"categories_sizes":[],"default_left":[0,0,0,0,0,0,0,0,0,0,0,0,0],"id":24,"left_children":[1,-1,3,5,7,9,-1,-1,-1,-1,11,-1,-1],"loss_changes":[5.1618994E2,0E0,3.2024896E2,2.5683374E2,2.7603406E2,3.4373926E2,0E0,0E0,0E0,0E0,3.3962903E2,0E0,0E0],"parents":[2147483647,0,0,2,2,3,3,4,4,5,5,10,10],"right_children":[2,-1,4,6,8,10,-1,-1,-1,-1,12,-1,-1],"split_conditions":[2E0,-2.5215474E-1,1.8147592E-2,2.19E-1,1.1221092E2,9.89332E0,2.369499E-1,6.6915736E-2,-2.4763417E-1,2.0844531E-1,2.516E3,1.036878E-1,-1.5599775E-1],"split_indices":[0,0,259,65,59,15,0,0,0,0,160,0,0],"split_type":[0,0,0,0,0,0,0,0,0,0,0,0,0],"sum_hessian":[3.219346E2,4.7373524E1,2.7456107E2,2.0656026E2,6.800081E1,1.6411635E2,4.2443913E1,2.717404E1,4.0826767E1,4.376203E1,1.2035432E2,5.271044E1,6.764387E1],"tree_param":{"num_deleted":"0","num_feature":"274","num_nodes":"13","size_leaf_vector":"1"}},{"base_weights":[6.3346505E-2,2.7326277E-1,-2.2382088E-1,1.7768084E0,-6.6200143E-1,3.0640924E-1,-1.5559145E-2,-2.4338906E-1,-2.0353435E-1,-6.7694587E-1,2.2582714E-1,-9.494591E-3,-2.2266206E-1],"categories":[],"categories_nodes":[],"categories_segments":[],"categories_sizes":[],"default_left":[0,0,0,0,0,0,0,0,0,0,0,0,0],"id":25,"left_children":[1,-1,3,5,7,-1,-1,9,-1,11,-1,-1,-1],"loss_changes":[3.261618E2,0E0,2.6573727E2,2.3687498E2,2.0446043E2,0E0,0E0,2.8435345E2,0E0,2.2175372E2,0E0,0E0,0E0],"parents":[2147483647,0,0,2,2,3,3,4,4,7,7,9,9],"right_children":[2,-1,4,6,8,-1,-1,10,-1,12,-1,-1,-1],"split_conditions":[1.0614898E2,2.7326277E-1,3.17E-1,5E0,1.1627262E2,3.0640924E-1,-1.5559145E-2,1.144896E2,-2.0353435E-1,2.2985075E0,2.2582714E-1,-9.494591E-3,-2.2266206E-1],"split_indices":[53,0,62,116,56,0,0,56,0,135,0,0,0],"split_type":[0,0,0,0,0,0,0,0,0,0,0,0,0],"sum_hessian":[3.252097E2,2.408089E1,3.011288E2,5.360429E1,2.4752452E2,2.5032671E1,2.8571619E1,2.0502827E2,4.249624E1,1.8095805E2,2.4070225E1,1.4538362E2,3.5574436E1],"tree_param":{"num_deleted":"0","num_feature":"274","num_nodes":"13","size_leaf_vector":"1"}},{"base_weights":[-6.783949E-2,-1.2041368E0,1.3229369E0,-6.8023336E-1,-3.3239797E-1,-1.4047754E-1,2.0725396E0,1.723844E-1,-1.3874555E0,8.006396E-1,3.0332616E-1,-3.1208453E-1,-5.1034325E-1,2.0863606E-1,-6.3125715E-2,1.313546E-1,-1.2911505E-1],"categories":[],"categories_nodes":[],"categories_segments":[],"categories_sizes":[],"default_left":[0,0,0,0,0,0,0,0,0,0,0,0,0,0,0,0,0],"id":26,"left_children":[1,3,5,7,-1,-1,9,-1,11,13,-1,-1,15,-1,-1,-1,-1],"loss_changes":[5.106695E2,2.8593204E2,3.4549487E2,3.1810788E2,0E0,0E0,2.7469E2,0E0,2.860145E2,2.2013278E2,0E0,0E0,2.439115E2,0E0,0E0,0E0,0E0],"parents":[2147483647,0,0,1,1,2,2,3,3,6,6,8,8,9,9,12,12],"right_children":[2,4,6,8,-1,-1,10,-1,12,14,-1,-1,16,-1,-1,-1,-1],"split_conditions":[1.156E2,2.2920353E0,9.78E-1,2E0,-3.3239797E-1,-1.4047754E-1,1.16E2,1.723844E-1,3.66E-1,4.1294622E-1,3.0332616E-1,-3.1208453E-1,1E0,2.0863606E-1,-6.3125715E-2,1.313546E-1,-1.2911505E-1],"split_indices":[11,135,179,2,0,0,17,0,61,39,0,0,181,0,0,0,0],"split_type":[0,0,0,0,0,0,0,0,0,0,0,0,0,0,0,0,0],"sum_hessian":[3.2137894E2,1.769526E2,1.4442635E2,1.5229106E2,2.4661537E1,2.7571045E1,1.168553E2,2.9378544E1,1.2291252E2,7.0069786E1,4.6785515E1,2.974372E1,9.31688E1,3.1963936E1,3.810585E1,3.1929564E1,6.123924E1],"tree_param":{"num_deleted":"0","num_feature":"274","num_nodes":"17","size_leaf_vector":"1"}},{"base_weights":[-8.512976E-2,-1.7305907E0,4.371553E-1,3.9827786E-2,-2.9870555E0,2.2863819E-1,-1.06466845E-1,-3.940713E-2,-4.2104658E-1,-6.9114614E-1,1.956293E-1,-1.2159334E0,1.4727639E-1,2.4251869E-2,-1.8953066E-1],"categories":[],"categories_nodes":[],"categories_segments":[],"categories_sizes":[],"default_left":[0,0,0,0,0,0,0,0,0,0,0,0,0,0,0],"id":27,"left_children":[1,3,5,-1,7,-1,9,-1,-1,11,-1,13,-1,-1,-1],"loss_changes":[2.825314E2,2.2498799E2,3.4268274E2,0E0,3.0810205E2,0E0,3.1958157E2,0E0,0E0,2.3305731E2,0E0,2.6878128E2,0E0,0E0,0E0],"parents":[2147483647,0,0,1,1,2,2,4,4,6,6,9,9,11,11],"right_children":[2,4,6,-1,8,-1,10,-1,-1,12,-1,14,-1,-1,-1],"split_conditions":[1.0762798E-1,3.6529335E1,1.1492699E-1,3.9827786E-2,1.8064E4,2.2863819E-1,6.042241E-1,-3.940713E-2,-4.2104658E-1,8.2806903E-1,1.956293E-1,-2.95E0,1.4727639E-1,2.4251869E-2,-1.8953066E-1],"split_indices":[49,70,49,0,177,0,51,0,0,25,0,260,0,0,0],"split_type":[0,0,0,0,0,0,0,0,0,0,0,0,0,0,0],"sum_hessian":[3.270391E2,7.832473E1,2.4871436E2,2.8270395E1,5.0054337E1,4.3416E1,2.0529836E2,2.5496922E1,2.4557415E1,1.6860693E2,3.6691418E1,1.4067194E2,2.7935001E1,6.31862E1,7.748573E1],"tree_param":{"num_deleted":"0","num_feature":"274","num_nodes":"15","size_leaf_vector":"1"}},{"base_weights":[-1.288482E-1,-1.6092448E0,7.580941E-1,-2.6633665E-1,-4.2715648E-1,2.2042605E-1,2.0123792E-1,1.3530833E-1,-1.9014408E-1,8.9387095E-1,-1.7012379E-1,2.4452202E0,-3.9353734E-1,3.3094063E-1,1.9587297E-2,7.346088E-2,-1.876819E-1],"categories":[],"categories_nodes":[],"categories_segments":[],"categories_sizes":[],"default_left":[0,0,0,0,0,0,0,0,0,0,0,0,0,0,0,0,0],"id":28,"left_children":[1,3,5,-1,7,9,-1,-1,-1,11,-1,13,15,-1,-1,-1,-1],"loss_changes":[4.2068265E2,2.593936E2,1.9839667E2,0E0,3.321217E2,2.5652676E2,0E0,0E0,0E0,2.4631586E2,0E0,2.239748E2,1.8793167E2,0E0,0E0,0E0,0E0],"parents":[2147483647,0,0,1,1,2,2,4,4,5,5,9,9,11,11,12,12],"right_children":[2,4,6,-1,8,10,-1,-1,-1,12,-1,14,16,-1,-1,-1,-1],"split_conditions":[-5.2E-2,1.00864E2,8.216123E-1,-2.6633665E-1,1.01424E2,4.921486E-2,2.0123792E-1,1.3530833E-1,-1.9014408E-1,1.1205653E1,-1.7012379E-1,6.508234E1,1.9448819E0,3.3094063E-1,1.9587297E-2,7.346088E-2,-1.876819E-1],"split_indices":[65,23,25,0,29,256,0,0,0,15,0,71,135,0,0,0,0],"split_type":[0,0,0,0,0,0,0,0,0,0,0,0,0,0,0,0,0],"sum_hessian":[3.1866953E2,1.1914177E2,1.9952776E2,4.595096E1,7.319081E1,1.5532014E2,4.420761E1,3.538976E1,3.780105E1,1.21984314E2,3.3335827E1,5.4977737E1,6.700658E1,2.9427784E1,2.5549955E1,4.0626564E1,2.638001E1],"tree_param":{"num_deleted":"0","num_feature":"274","num_nodes":"17","size_leaf_vector":"1"}},{"base_weights":[2.875239E-1,-7.767612E-1,1.4798272E0,-2.4808525E-1,-2.605274E-1,2.2521532E0,-1.0125201E-1,1.992621E-1,-1.2246289E0,3.908533E-1,1.2836441E0,-2.0838232E-1,-4.474327E-2,2.3687157E-1,-2.3651217E-1,1.2857679E-1,-1.2995961E-1,-1.3128279E-1,9.52244E-2],"categories":[],"categories_nodes":[],"categories_segments":[],"categories_sizes":[],"default_left":[0,0,0,0,0,0,0,0,0,0,0,0,0,0,0,0,0,0,0],"id":29,"left_children":[1,3,5,-1,7,9,-1,-1,11,-1,13,-1,15,-1,17,-1,-1,-1,-1],"loss_changes":[4.051719E2,2.1132672E2,3.2705252E2,0E0,3.8678342E2,3.1552277E2,0E0,0E0,1.8282713E2,0E0,2.4221248E2,0E0,1.686991E2,0E0,1.0695448E2,0E0,0E0,0E0,0E0],"parents":[2147483647,0,0,1,1,2,2,4,4,5,5,8,8,10,10,12,12,14,14],"right_children":[2,4,6,-1,8,10,-1,-1,12,-1,14,-1,16,-1,18,-1,-1,-1,-1],"split_conditions":[2.4E-2,3.3333334E-1,3E0,-2.4808525E-1,4.4444445E-1,1.32E1,-1.0125201E-1,1.992621E-1,-1.2321316E-2,3.908533E-1,5E0,-2.0838232E-1,1.16E1,2.3687157E-1,1.1412329E2,1.2857679E-1,-1.2995961E-1,-1.3128279E-1,9.52244E-2],"split_indices":[65,67,2,0,67,33,0,0,258,0,116,0,34,0,52,0,0,0,0],"split_type":[0,0,0,0,0,0,0,0,0,0,0,0,0,0,0,0,0,0,0],"sum_hessian":[3.1759918E2,1.6795157E2,1.4964761E2,2.8563526E1,1.3938805E2,1.1735327E2,3.2294342E1,3.4941437E1,1.044466E2,2.913605E1,8.821722E1,4.593524E1,5.8511364E1,4.0203106E1,4.801411E1,2.8610329E1,2.9901035E1,2.4003431E1,2.401068E1],"tree_param":{"num_deleted":"0","num_feature":"274","num_nodes":"19","size_leaf_vector":"1"}},{"base_weights":[-3.1338736E-1,-2.1660654E-1,-9.9640535E-3,8.827392E-1,-8.2860416E-1,-1.08904235E-1,1.6431532E0,6.130987E-1,-2.304345E0,6.449582E-1,3.6305207E-1,1.8591576E0,-1.4071962E-1,-9.277857E-1,-3.8807148E-1,-9.904353E-2,1.7568779E-1,2.8280005E-1,7.0759566E-3,9.707952E-2,-2.2862872E-1],"categories":[],"categories_nodes":[],"categories_segments":[],"categories_sizes":[],"default_left":[0,0,0,0,0,0,0,0,0,0,0,0,0,0,0,0,0,0,0,0,0],"id":30,"left_children":[1,-1,3,5,7,-1,9,11,13,15,-1,17,-1,19,-1,-1,-1,-1,-1,-1,-1],"loss_changes":[2.5088718E2,0E0,2.1768448E2,2.5041351E2,3.3194128E2,0E0,3.2482544E2,2.4352307E2,2.838733E2,2.600674E2,0E0,1.679993E2,0E0,2.3506665E2,0E0,0E0,0E0,0E0,0E0,0E0,0E0],"parents":[2147483647,0,0,2,2,3,3,4,4,6,6,7,7,8,8,9,9,11,11,13,13],"right_children":[2,-1,4,6,8,-1,10,12,14,16,-1,18,-1,20,-1,-1,-1,-1,-1,-1,-1],"split_conditions":[2.56E-1,-2.1660654E-1,2.695E3,9.76E-1,4.1635156E-1,-1.08904235E-1,2.273E3,2.74E1,5.285714E0,3.5492063E-1,3.6305207E-1,1.14E2,-1.4071962E-1,1.1271216E2,-3.8807148E-1,-9.904353E-2,1.7568779E-1,2.8280005E-1,7.0759566E-3,9.707952E-2,-2.2862872E-1],"split_indices":[61,0,160,179,39,0,160,117,128,45,0,12,0,60,0,0,0,0,0,0,0],"split_type":[0,0,0,0,0,0,0,0,0,0,0,0,0,0,0,0,0,0,0,0,0],"sum_hessian":[3.312905E2,3.5174904E1,2.961156E2,1.415927E2,1.5452289E2,3.5066387E1,1.0652631E2,7.840822E1,7.611467E1,8.1115166E1,2.5411142E1,5.2013798E1,2.6394424E1,5.132687E1,2.4787802E1,3.7236378E1,4.387879E1,2.5279486E1,2.6734312E1,2.4886116E1,2.6440756E1],"tree_param":{"num_deleted":"0","num_feature":"274","num_nodes":"21","size_leaf_vector":"1"}},{"base_weights":[1.9610627E-1,-9.256321E-1,9.4971657E-1,1.5078503E-1,-2.1073568E0,2.290593E0,-1.0778367E-1,-3.4415063E-1,-7.052616E-1,2.2853922E-2,3.0247357E-1,1.3828791E0,-1.5538181E0,1.3647524E-1,-2.3199056E-1,-4.405973E-3,2.3591292E-1,2.3157472E-2,-2.6596117E-1],"categories":[],"categories_nodes":[],"categories_segments":[],"categories_sizes":[],"default_left":[0,0,0,0,0,0,0,0,0,0,0,0,0,0,0,0,0,0,0],"id":31,"left_children":[1,3,5,-1,7,9,11,-1,13,-1,-1,15,17,-1,-1,-1,-1,-1,-1],"loss_changes":[2.752082E2,4.4867987E2,2.763019E2,0E0,3.0386185E2,2.771837E2,2.3822836E2,0E0,3.4221967E2,0E0,0E0,1.3126947E2,1.9742067E2,0E0,0E0,0E0,0E0,0E0,0E0],"parents":[2147483647,0,0,1,1,2,2,4,4,5,5,6,6,8,8,11,11,12,12],"right_children":[2,4,6,-1,8,10,12,-1,14,-1,-1,16,18,-1,-1,-1,-1,-1,-1],"split_conditions":[1.132E2,5.6110644E-1,4.7777777E0,1.5078503E-1,4.7E0,4.8E-1,1.175E2,-3.4415063E-1,2.823E3,2.2853922E-2,3.0247357E-1,6.3076668E1,5.7636195E-1,1.3647524E-1,-2.3199056E-1,-4.405973E-3,2.3591292E-1,2.3157472E-2,-2.6596117E-1],"split_indices":[17,48,116,0,252,61,17,0,160,0,0,70,51,0,0,0,0,0,0],"split_type":[0,0,0,0,0,0,0,0,0,0,0,0,0,0,0,0,0,0,0],"sum_hessian":[3.2376056E2,1.3000041E2,1.9376015E2,3.766773E1,9.233267E1,8.499921E1,1.0876093E2,3.37967E1,5.8535976E1,3.863707E1,4.6362137E1,5.355863E1,5.52023E1,2.8289146E1,3.024683E1,2.9211744E1,2.4346888E1,2.8225258E1,2.6977045E1],"tree_param":{"num_deleted":"0","num_feature":"274","num_nodes":"19","size_leaf_vector":"1"}},{"base_weights":[7.793259E-2,-2.004468E0,5.8441997E-1,-2.7159232E-1,1.7470088E-2,-1.4718264E-1,9.177449E-1,2.407158E-1,5.212978E-1,1.2602398E0,-1.078777E0,3.9437853E-2,2.8534773E-1,-2.9633048E-1,7.971079E-2],"categories":[],"categories_nodes":[],"categories_segments":[],"categories_sizes":[],"default_left":[0,0,0,0,0,0,0,0,0,0,0,0,0,0,0],"id":32,"left_children":[1,3,5,-1,-1,-1,7,-1,9,11,13,-1,-1,-1,-1],"loss_changes":[3.3845493E2,2.1250172E2,2.156716E2,0E0,0E0,0E0,1.9732022E2,0E0,2.3107327E2,2.4159784E2,3.63702E2,0E0,0E0,0E0,0E0],"parents":[2147483647,0,0,1,1,2,2,6,6,8,8,9,9,10,10],"right_children":[2,4,6,-1,-1,-1,8,-1,10,12,14,-1,-1,-1,-1],"split_conditions":[0E0,8.857142E0,1.6182E4,-2.7159232E-1,1.7470088E-2,-1.4718264E-1,-7E0,2.407158E-1,1.224E0,2.1363637E0,1.3333333E1,3.9437853E-2,2.8534773E-1,-2.9633048E-1,7.971079E-2],"split_indices":[10,115,177,0,0,0,36,0,254,123,122,0,0,0,0],"split_type":[0,0,0,0,0,0,0,0,0,0,0,0,0,0,0],"sum_hessian":[3.1910092E2,6.1903988E1,2.5719693E2,3.66104E1,2.5293589E1,2.9863392E1,2.2733354E2,3.37952E1,1.9353835E2,1.3254135E2,6.0996998E1,1.0215334E2,3.0388004E1,2.6144224E1,3.4852776E1],"tree_param":{"num_deleted":"0","num_feature":"274","num_nodes":"15","size_leaf_vector":"1"}},{"base_weights":[-6.840558E-2,-1.5963908E0,6.138968E-1,1.613151E-2,-2.9197001E0,-6.951842E-2,2.2661445E0,-4.0830433E-1,-8.443269E-2,2.3079522E-1,-6.1813647E-1,-1.8695733E-2,3.480733E-1,-1.4705467E0,9.8185724E-1,-3.9245002E-2,-2.90784E-1,-3.161988E-2,1.8037404E-1],"categories":[],"categories_nodes":[],"categories_segments":[],"categories_sizes":[],"default_left":[0,0,0,0,0,0,0,0,0,0,0,0,0,0,0,0,0,0,0],"id":33,"left_children":[1,3,5,-1,7,9,11,-1,-1,-1,13,-1,-1,15,17,-1,-1,-1,-1],"loss_changes":[3.4693112E2,2.4603543E2,2.6001324E2,0E0,2.5113348E2,2.758943E2,3.7956116E2,0E0,0E0,0E0,1.914556E2,0E0,0E0,1.9979312E2,9.3114944E1,0E0,0E0,0E0,0E0],"parents":[2147483647,0,0,1,1,2,2,4,4,5,5,6,6,10,10,13,13,14,14],"right_children":[2,4,6,-1,8,10,12,-1,-1,-1,14,-1,-1,16,18,-1,-1,-1,-1],"split_conditions":[-1.12E-1,5.17375E1,1.032E2,1.613151E-2,1.1147994E1,9.862E1,-4.025151E0,-4.0830433E-1,-8.443269E-2,2.3079522E-1,5.941677E-1,-1.8695733E-2,3.480733E-1,5.4441106E-1,4.651163E-1,-3.9245002E-2,-2.90784E-1,-3.161988E-2,1.8037404E-1],"split_indices":[65,70,30,0,20,30,57,0,0,0,44,0,0,43,31,0,0,0,0],"split_type":[0,0,0,0,0,0,0,0,0,0,0,0,0,0,0,0,0,0,0],"sum_hessian":[3.3102832E2,1.0184212E2,2.2918619E2,4.3376827E1,5.8465286E1,1.6270363E2,6.648257E1,2.4737652E1,3.3727634E1,2.414866E1,1.3855496E2,3.172331E1,3.4759254E1,9.045934E1,4.8095623E1,6.448991E1,2.5969437E1,2.4001417E1,2.4094204E1],"tree_param":{"num_deleted":"0","num_feature":"274","num_nodes":"19","size_leaf_vector":"1"}},{"base_weights":[-3.8390708E-1,-7.72771E-1,1.4036979E-1,1.462446E0,-1.3442945E0,1.0460047E-3,2.4278858E-1,-3.4497088E-1,-8.5571456E-1,-3.8616532E-1,-2.6835117E-1,2.0486731E-2,-1.9058868E-1],"categories":[],"categories_nodes":[],"categories_segments":[],"categories_sizes":[],"default_left":[0,0,0,0,0,0,0,0,0,0,0,0,0],"id":34,"left_children":[1,3,-1,5,7,-1,-1,-1,9,11,-1,-1,-1],"loss_changes":[2.759007E2,3.509848E2,0E0,1.3637541E2,3.2919885E2,0E0,0E0,0E0,2.3195688E2,2.2015204E2,0E0,0E0,0E0],"parents":[2147483647,0,0,1,1,3,3,4,4,8,8,9,9],"right_children":[2,4,-1,6,8,-1,-1,-1,10,12,-1,-1,-1],"split_conditions":[6.09295E-1,2E0,1.4036979E-1,8.571428E0,-2.69E-1,1.0460047E-3,2.4278858E-1,-3.4497088E-1,1.9711E4,1.26E1,-2.6835117E-1,2.0486731E-2,-1.9058868E-1],"split_indices":[44,2,0,127,65,0,0,0,177,34,0,0,0],"split_type":[0,0,0,0,0,0,0,0,0,0,0,0,0],"sum_hessian":[3.2007886E2,2.725213E2,4.755757E1,5.5198387E1,2.173229E2,3.0131205E1,2.5067184E1,2.8432411E1,1.8889049E2,1.6103473E2,2.785576E1,1.2321511E2,3.781962E1],"tree_param":{"num_deleted":"0","num_feature":"274","num_nodes":"13","size_leaf_vector":"1"}},{"base_weights":[-2.6465282E-1,-6.3403094E-1,1.707304E-1,-3.380757E-1,-2.3348829E-1,1.8441185E-1,-6.623749E-1,-2.6241522E0,-1.0138008E-1,-2.9203665E-2,-3.5327238E-1,7.064753E-2,-1.211224E-1],"categories":[],"categories_nodes":[],"categories_segments":[],"categories_sizes":[],"default_left":[0,0,0,0,0,0,0,0,0,0,0,0,0],"id":35,"left_children":[1,3,-1,5,-1,-1,7,9,11,-1,-1,-1,-1],"loss_changes":[3.0739023E2,2.0550436E2,0E0,2.3197194E2,0E0,0E0,2.5709283E2,2.2577292E2,2.737072E2,0E0,0E0,0E0,0E0],"parents":[2147483647,0,0,1,1,3,3,6,6,7,7,8,8],"right_children":[2,4,-1,6,-1,-1,8,10,12,-1,-1,-1,-1],"split_conditions":[2.338983E0,2.2222223E0,1.707304E-1,1.89E2,-2.3348829E-1,1.8441185E-1,1.07333336E2,4.3360674E-1,1.6E0,-2.9203665E-2,-3.5327238E-1,7.064753E-2,-1.211224E-1],"split_indices":[123,123,0,159,0,0,11,24,35,0,0,0,0],"split_type":[0,0,0,0,0,0,0,0,0,0,0,0,0],"sum_hessian":[3.3410565E2,2.9129868E2,4.280697E1,2.6009256E2,3.1206114E1,2.7049944E1,2.3304262E2,5.108708E1,1.8195554E2,2.4232643E1,2.6854435E1,1.0767148E2,7.4284065E1],"tree_param":{"num_deleted":"0","num_feature":"274","num_nodes":"13","size_leaf_vector":"1"}},{"base_weights":[6.427278E-2,1.036761E0,-6.2834805E-1,2.0663154E0,-8.016638E-2,1.4114375E0,-1.7176032E0,6.4436316E-1,3.6194897E-1,2.8298354E-1,-0E0,-2.7464042E0,1.660831E-1,-6.6836216E-2,2.0868857E-1,-2.4079153E-2,-3.5543582E0,-4.2523757E-1,-1.4298224E-1],"categories":[],"categories_nodes":[],"categories_segments":[],"categories_sizes":[],"default_left":[0,0,0,0,0,0,0,0,0,0,0,0,0,0,0,0,0,0,0],"id":36,"left_children":[1,3,5,7,-1,9,11,13,-1,-1,-1,15,-1,-1,-1,-1,17,-1,-1],"loss_changes":[2.206105E2,2.928978E2,4.2717917E2,3.373687E2,0E0,2.1315268E2,5.0304745E2,1.892043E2,0E0,0E0,0E0,1.940437E2,0E0,0E0,0E0,0E0,2.379378E2,0E0,0E0],"parents":[2147483647,0,0,1,1,2,2,3,3,5,5,6,6,7,7,11,11,16,16],"right_children":[2,4,6,8,-1,10,12,14,-1,-1,-1,16,-1,-1,-1,-1,18,-1,-1],"split_conditions":[2.516E3,3.4583762E-2,1.12330215E2,-1.0004875E-2,-8.016638E-2,1.2555555E1,3.988186E-1,1.12691765E2,3.6194897E-1,2.8298354E-1,-0E0,1.29E1,1.660831E-1,-6.6836216E-2,2.0868857E-1,-2.4079153E-2,1.1375E2,-4.2523757E-1,-1.4298224E-1],"split_indices":[160,258,60,258,0,122,264,60,0,0,0,68,0,0,0,0,12,0,0],"split_type":[0,0,0,0,0,0,0,0,0,0,0,0,0,0,0,0,0,0,0],"sum_hessian":[3.257726E2,1.3535246E2,1.9042015E2,9.047528E1,4.487718E1,6.618355E1,1.24236595E2,5.9360397E1,3.1114883E1,2.495963E1,4.122392E1,9.834267E1,2.5893934E1,3.4518852E1,2.4841543E1,2.4819904E1,7.352276E1,3.334945E1,4.017331E1],"tree_param":{"num_deleted":"0","num_feature":"274","num_nodes":"19","size_leaf_vector":"1"}},{"base_weights":[6.0345892E-2,2.1109544E-1,-1.9154197E-1,-7.4776703E-1,1.2740729E0,1.2368048E-1,-1.225734E0,2.3935845E0,-1.1418853E-1,-1.6798427E0,1.138877E-1,3.9642837E-2,3.1718716E-1,-5.889496E-2,-2.3107918E-1],"categories":[],"categories_nodes":[],"categories_segments":[],"categories_sizes":[],"default_left":[0,0,0,0,0,0,0,0,0,0,0,0,0,0,0],"id":37,"left_children":[1,-1,3,5,7,-1,9,11,-1,13,-1,-1,-1,-1,-1],"loss_changes":[2.2919872E2,0E0,2.5450922E2,2.556148E2,2.678796E2,0E0,2.3322708E2,1.9574695E2,0E0,1.924418E2,0E0,0E0,0E0,0E0,0E0],"parents":[2147483647,0,0,2,2,3,3,4,4,6,6,7,7,9,9],"right_children":[2,-1,4,6,8,-1,10,12,-1,14,-1,-1,-1,-1,-1],"split_conditions":[7.18599E-1,2.1109544E-1,1.0278E2,2E0,4.0095843E-2,1.2368048E-1,1.5E1,3.054E1,-1.1418853E-1,1E0,1.138877E-1,3.9642837E-2,3.1718716E-1,-5.889496E-2,-2.3107918E-1],"split_indices":[32,0,37,2,258,0,122,68,0,35,0,0,0,0,0],"split_type":[0,0,0,0,0,0,0,0,0,0,0,0,0,0,0],"sum_hessian":[3.3877188E2,2.8449905E1,3.10322E2,2.2528255E2,8.5039444E1,3.7727337E1,1.875552E2,6.0543E1,2.4496443E1,1.6085019E2,2.670501E1,2.9413261E1,3.1129738E1,9.548305E1,6.536715E1],"tree_param":{"num_deleted":"0","num_feature":"274","num_nodes":"15","size_leaf_vector":"1"}},{"base_weights":[5.8270574E-2,-2.1352382E-1,3.9112407E-1,-2.1001653E-1,7.0002985E-1,2.6186478E-1,3.5968935E-1,-1.5024115E-1,7.265614E-1,-8.1934184E-2,1.0257819E-1],"categories":[],"categories_nodes":[],"categories_segments":[],"categories_sizes":[],"default_left":[0,0,0,0,0,0,0,0,0,0,0],"id":38,"left_children":[1,-1,3,-1,5,-1,7,-1,9,-1,-1],"loss_changes":[3.1397897E2,0E0,2.8875806E2,0E0,2.483628E2,0E0,2.0665451E2,0E0,2.2726343E2,0E0,0E0],"parents":[2147483647,0,0,2,2,4,4,6,6,8,8],"right_children":[2,-1,4,-1,6,-1,8,-1,10,-1,-1],"split_conditions":[-5.680042E-2,-2.1352382E-1,-3.05E-1,-2.1001653E-1,1.0728043E2,2.6186478E-1,2E0,-1.5024115E-1,1.12E2,-8.1934184E-2,1.0257819E-1],"split_indices":[257,0,65,0,56,0,0,0,19,0,0],"split_type":[0,0,0,0,0,0,0,0,0,0,0],"sum_hessian":[3.3243048E2,3.4378082E1,2.980524E2,2.629907E1,2.7175333E2,2.9623613E1,2.4212971E2,3.2716534E1,2.0941318E2,5.2535805E1,1.5687737E2],"tree_param":{"num_deleted":"0","num_feature":"274","num_nodes":"11","size_leaf_vector":"1"}},{"base_weights":[1.17239594E-1,-1.6718777E0,5.5157083E-1,-2.720979E-1,2.977843E-2,2.3177768E-1,2.1669677E-1,1.0339059E0,-6.4907587E-1,-6.4009145E-2,2.2849889E0,7.669239E-1,-1.9978128E-1,3.072102E-2,3.4242296E-1,-1.2194627E-1,1.9502975E-1],"categories":[],"categories_nodes":[],"categories_segments":[],"categories_sizes":[],"default_left":[0,0,0,0,0,0,0,0,0,0,0,0,0,0,0,0,0],"id":39,"left_children":[1,3,5,-1,-1,-1,7,9,11,-1,13,15,-1,-1,-1,-1,-1],"loss_changes":[2.4789763E2,2.3860968E2,2.0971402E2,0E0,0E0,0E0,1.6098868E2,2.7430106E2,3.0516217E2,0E0,2.8289554E2,2.6969666E2,0E0,0E0,0E0,0E0,0E0],"parents":[2147483647,0,0,1,1,2,2,6,6,7,7,8,8,10,10,11,11],"right_children":[2,4,6,-1,-1,-1,8,10,12,-1,14,16,-1,-1,-1,-1,-1],"split_conditions":[0E0,2E0,-7.8151025E-2,-2.720979E-1,2.977843E-2,2.3177768E-1,1.38E1,3E0,2.947E3,-6.4009145E-2,-1.8559928E-1,4.71E-1,-1.9978128E-1,3.072102E-2,3.4242296E-1,-1.2194627E-1,1.9502975E-1],"split_indices":[10,0,258,0,0,0,33,188,160,0,264,61,0,0,0,0,0],"split_type":[0,0,0,0,0,0,0,0,0,0,0,0,0,0,0,0,0],"sum_hessian":[3.1715552E2,6.144565E1,2.5570988E2,3.2030216E1,2.9415434E1,2.9904339E1,2.2580554E2,1.1609788E2,1.09707664E2,4.675503E1,6.934284E1,6.3673756E1,4.603391E1,3.747468E1,3.1868162E1,2.7304825E1,3.6368927E1],"tree_param":{"num_deleted":"0","num_feature":"274","num_nodes":"17","size_leaf_vector":"1"}},{"base_weights":[-2.182514E-2,3.8470775E-1,-1.7577881E0,-1.3406974E-1,2.209228E0,-1.4179829E-2,-2.9101467E-1,1.320727E-1,-6.105849E-1,5.0990847E-3,3.588785E-1,1.8204178E-1,-1.1912166E0,-4.957887E-2,-2.8029853E-1],"categories":[],"categories_nodes":[],"categories_segments":[],"categories_sizes":[],"default_left":[0,0,0,0,0,0,0,0,0,0,0,0,0,0,0],"id":40,"left_children":[1,3,5,7,9,-1,-1,-1,11,-1,-1,-1,13,-1,-1],"loss_changes":[2.307359E2,2.5104608E2,1.9548512E2,1.8277354E2,3.0610474E2,0E0,0E0,0E0,2.8700342E2,0E0,0E0,0E0,1.8356583E2,0E0,0E0],"parents":[2147483647,0,0,1,1,2,2,3,3,4,4,8,8,12,12],"right_children":[2,4,6,8,10,-1,-1,-1,12,-1,-1,-1,14,-1,-1],"split_conditions":[1.04456E2,1E0,5.4242927E-1,1.078E2,1.9390244E0,-1.4179829E-2,-2.9101467E-1,1.320727E-1,2.52E2,5.0990847E-3,3.588785E-1,1.8204178E-1,5.129E1,-4.957887E-2,-2.8029853E-1],"split_indices":[29,10,47,16,123,0,0,0,159,0,0,0,68,0,0],"split_type":[0,0,0,0,0,0,0,0,0,0,0,0,0,0,0],"sum_hessian":[3.2514606E2,2.6398492E2,6.1161133E1,2.0615773E2,5.782719E1,3.48444E1,2.6316732E1,4.185269E1,1.6430504E2,3.125511E1,2.657208E1,2.6438261E1,1.3786678E2,1.1342688E2,2.4439896E1],"tree_param":{"num_deleted":"0","num_feature":"274","num_nodes":"15","size_leaf_vector":"1"}},{"base_weights":[-1.1617678E-1,1.93914E-1,-3.6505976E-1,-2.7200595E-1,-8.183209E-2,-8.0450165E-1,1.7164463E0,-1.9479479E0,3.663008E-1,2.829737E-1,1.8562002E-2,-3.7801462E-1,-7.554264E-2,-4.942214E-2,2.6055175E-1],"categories":[],"categories_nodes":[],"categories_segments":[],"categories_sizes":[],"default_left":[0,0,0,0,0,0,0,0,0,0,0,0,0,0,0],"id":41,"left_children":[1,-1,3,-1,5,7,9,11,13,-1,-1,-1,-1,-1,-1],"loss_changes":[2.174977E2,0E0,2.7108496E2,0E0,3.645452E2,2.6853745E2,2.3016331E2,2.8520636E2,3.032192E2,0E0,0E0,0E0,0E0,0E0,0E0],"parents":[2147483647,0,0,2,2,4,4,5,5,6,6,7,7,8,8],"right_children":[2,-1,4,-1,6,8,10,12,14,-1,-1,-1,-1,-1,-1],"split_conditions":[1.1126297E2,1.93914E-1,-3.25E0,-2.7200595E-1,1.4E1,1.8186E4,9.4E0,-7.873837E0,3.033E1,2.829737E-1,1.8562002E-2,-3.7801462E-1,-7.554264E-2,-4.942214E-2,2.6055175E-1],"split_indices":[59,0,263,0,134,177,127,58,74,0,0,0,0,0,0],"split_type":[0,0,0,0,0,0,0,0,0,0,0,0,0,0,0],"sum_hessian":[3.3075302E2,2.7923445E1,3.028296E2,2.4098051E1,2.7873154E2,1.9919176E2,7.953979E1,1.0049633E2,9.869543E1,3.372829E1,4.5811493E1,2.4004787E1,7.649154E1,7.445783E1,2.423759E1],"tree_param":{"num_deleted":"0","num_feature":"274","num_nodes":"15","size_leaf_vector":"1"}},{"base_weights":[9.9008836E-2,-1.0484366E0,7.761618E-1,1.6706835E-1,-2.2035983E0,-1.3414079E0,1.5025584E0,-1.4690106E-3,-4.185646E0,-2.1701474E-1,3.0115716E-2,4.0449044E-1,8.011473E-1,-1.7231044E-1,-4.6147966E-1,2.2180324E0,-4.169819E-1,4.533858E-2,3.2476866E-1,8.51879E-2,-1.768365E-1],"categories":[],"categories_nodes":[],"categories_segments":[],"categories_sizes":[],"default_left":[0,0,0,0,0,0,0,0,0,0,0,0,0,0,0,0,0,0,0,0,0],"id":42,"left_children":[1,3,5,-1,7,9,11,-1,13,-1,-1,-1,15,-1,-1,17,19,-1,-1,-1,-1],"loss_changes":[2.6611038E2,4.7573462E2,3.3301202E2,0E0,4.064814E2,1.4198665E2,4.170931E2,0E0,1.6009338E2,0E0,0E0,0E0,2.3628903E2,0E0,0E0,2.0240225E2,2.1300317E2,0E0,0E0,0E0,0E0],"parents":[2147483647,0,0,1,1,2,2,4,4,5,5,6,6,8,8,12,12,15,15,16,16],"right_children":[2,4,6,-1,8,10,12,-1,14,-1,-1,-1,16,-1,-1,18,20,-1,-1,-1,-1],"split_conditions":[4.5548955E-1,4.305527E-1,9.91E-1,1.6706835E-1,-1.6264367E-1,1.02256E2,4.6611568E-1,-1.4690106E-3,1.1101642E2,-2.1701474E-1,3.0115716E-2,4.0449044E-1,2.688889E1,-1.7231044E-1,-4.6147966E-1,5.44852E-1,2.823E3,4.533858E-2,3.2476866E-1,8.51879E-2,-1.768365E-1],"split_indices":[24,24,179,0,264,37,24,0,55,0,0,0,117,0,0,47,160,0,0,0,0],"split_type":[0,0,0,0,0,0,0,0,0,0,0,0,0,0,0,0,0,0,0,0,0],"sum_hessian":[3.4070218E2,1.26241066E2,2.1446112E2,3.3185814E1,9.305526E1,5.4572186E1,1.5988893E2,4.469802E1,4.8357235E1,2.9249094E1,2.532309E1,2.437832E1,1.3551062E2,2.4057E1,2.4300238E1,6.2327183E1,7.318343E1,3.4859665E1,2.7467518E1,4.0580883E1,3.260255E1],"tree_param":{"num_deleted":"0","num_feature":"274","num_nodes":"21","size_leaf_vector":"1"}},{"base_weights":[-9.107755E-3,-1.5286372E0,4.3826786E-1,-4.385063E-1,-2.8409705E-1,3.17817E-2,1.7576896E-1,7.518625E-2,-1.519417E-1,1.6599365E-1,-3.5367715E-1,-1.2781954E0,7.808043E-1,-1.741702E-1,5.6621376E-2,2.1212551E-1,-9.951173E-3],"categories":[],"categories_nodes":[],"categories_segments":[],"categories_sizes":[],"default_left":[0,0,0,0,0,0,0,0,0,0,0,0,0,0,0,0,0],"id":43,"left_children":[1,3,5,7,-1,9,-1,-1,-1,-1,11,13,15,-1,-1,-1,-1],"loss_changes":[2.2962888E2,1.78422E2,1.946709E2,1.1390821E2,0E0,1.75818E2,0E0,0E0,0E0,0E0,1.9203236E2,1.9940613E2,1.4763332E2,0E0,0E0,0E0,0E0],"parents":[2147483647,0,0,1,1,2,2,3,3,5,5,10,10,11,11,12,12],"right_children":[2,4,6,8,-1,10,-1,-1,-1,-1,12,14,16,-1,-1,-1,-1],"split_conditions":[7.461949E-1,5.9121233E-1,4.6307546E-1,1.7927E4,-2.8409705E-1,3.643851E-1,1.7576896E-1,7.518625E-2,-1.519417E-1,1.6599365E-1,6.7058E1,1.1482294E2,1.108E2,-1.741702E-1,5.6621376E-2,2.1212551E-1,-9.951173E-3],"split_indices":[25,51,46,177,0,46,0,0,0,0,70,55,18,0,0,0,0],"split_type":[0,0,0,0,0,0,0,0,0,0,0,0,0,0,0,0,0],"sum_hessian":[3.3597684E2,7.595687E1,2.6001996E2,5.1109325E1,2.4847548E1,2.1366168E2,4.6358273E1,2.6719807E1,2.4389519E1,3.230746E1,1.8135423E2,9.988287E1,8.147135E1,6.717914E1,3.2703735E1,2.5231379E1,5.623998E1],"tree_param":{"num_deleted":"0","num_feature":"274","num_nodes":"17","size_leaf_vector":"1"}},{"base_weights":[-1.5863271E-1,1.665315E0,-5.626285E-1,-1.00990646E-1,3.3296418E-1,-2.5003415E-1,-2.1368055E-1,7.708133E-1,-9.6551484E-1,-3.676003E-1,1.8886349E-1,-2.834403E-1,-3.0591542E-1,9.979064E-2,-1.5990768E-1,8.262915E-2,-1.3208371E-1],"categories":[],"categories_nodes":[],"categories_segments":[],"categories_sizes":[],"default_left":[0,0,0,0,0,0,0,0,0,0,0,0,0,0,0,0,0],"id":44,"left_children":[1,3,5,-1,-1,-1,7,9,11,13,-1,-1,15,-1,-1,-1,-1],"loss_changes":[2.440798E2,4.7744824E2,2.5211908E2,0E0,0E0,0E0,1.787955E2,2.0036398E2,2.4293869E2,1.8051642E2,0E0,0E0,2.1600288E2,0E0,0E0,0E0,0E0],"parents":[2147483647,0,0,1,1,2,2,6,6,7,7,8,8,9,9,12,12],"right_children":[2,4,6,-1,-1,-1,8,10,12,14,-1,-1,16,-1,-1,-1,-1],"split_conditions":[2E0,3.5641545E-1,2E0,-1.00990646E-1,3.3296418E-1,-2.5003415E-1,1.1170534E2,7.1499E1,1.143E2,1.35E1,1.8886349E-1,-2.834403E-1,2E0,9.979064E-2,-1.5990768E-1,8.262915E-2,-1.3208371E-1],"split_indices":[2,45,0,0,0,0,53,70,14,33,0,0,187,0,0,0,0],"split_type":[0,0,0,0,0,0,0,0,0,0,0,0,0,0,0,0,0],"sum_hessian":[3.293071E2,5.9197414E1,2.7010968E2,2.8074192E1,3.1123222E1,3.0324646E1,2.3978505E2,1.0379368E2,1.3599136E2,6.2174652E1,4.161903E1,2.587118E1,1.10120186E2,3.158012E1,3.059453E1,5.5712803E1,5.4407387E1],"tree_param":{"num_deleted":"0","num_feature":"274","num_nodes":"17","size_leaf_vector":"1"}},{"base_weights":[-1.11929126E-1,1.998162E-1,-3.598202E-1,1.7788331E-1,-6.3000274E-1,-2.4071269E-1,-2.5004968E-1,-7.0076996E-1,1.4526665E-1,5.181526E-2,-1.1680572E-1],"categories":[],"categories_nodes":[],"categories_segments":[],"categories_sizes":[],"default_left":[0,0,0,0,0,0,0,0,0,0,0],"id":45,"left_children":[1,-1,3,-1,5,-1,7,9,-1,-1,-1],"loss_changes":[2.2716351E2,0E0,2.2478912E2,0E0,2.6637708E2,0E0,2.3766931E2,2.279143E2,0E0,0E0,0E0],"parents":[2147483647,0,0,2,2,4,4,6,6,7,7],"right_children":[2,-1,4,-1,6,-1,8,10,-1,-1,-1],"split_conditions":[1.0672538E2,1.998162E-1,7.1623087E-1,1.7788331E-1,1.094E2,-2.4071269E-1,3.988186E-1,1.0688E1,1.4526665E-1,5.181526E-2,-1.1680572E-1],"split_indices":[53,0,32,0,14,0,264,15,0,0,0],"split_type":[0,0,0,0,0,0,0,0,0,0,0],"sum_hessian":[3.3761227E2,2.7691658E1,3.099206E2,2.7928232E1,2.8199237E2,3.6530003E1,2.4546237E2,2.0310533E2,4.235704E1,7.552759E1,1.2757774E2],"tree_param":{"num_deleted":"0","num_feature":"274","num_nodes":"11","size_leaf_vector":"1"}},{"base_weights":[1.350794E-1,-9.82076E-2,2.1598704E-1,-1.7307323E-1,2.5915605E-1,-2.612005E-1,2.161593E0,1.6494618E-1,-2.600213E-1,3.4703648E-1,-5.022583E-3,4.9352344E-2,-1.366702E-1],"categories":[],"categories_nodes":[],"categories_segments":[],"categories_sizes":[],"default_left":[0,0,0,0,0,0,0,0,0,0,0,0,0],"id":46,"left_children":[1,3,-1,-1,5,7,9,11,-1,-1,-1,-1,-1],"loss_changes":[2.2210661E2,2.5267018E2,0E0,0E0,2.8069104E2,2.9562082E2,3.1644247E2,1.8141757E2,0E0,0E0,0E0,0E0,0E0],"parents":[2147483647,0,0,1,1,4,4,5,5,6,6,7,7],"right_children":[2,4,-1,-1,6,8,10,12,-1,-1,-1,-1,-1],"split_conditions":[1.48E1,2E0,2.1598704E-1,-1.7307323E-1,2E0,1.0422E2,1.0304E2,3E0,-2.600213E-1,3.4703648E-1,-5.022583E-3,4.9352344E-2,-1.366702E-1],"split_indices":[34,0,0,0,180,23,22,2,0,0,0,0,0],"split_type":[0,0,0,0,0,0,0,0,0,0,0,0,0],"sum_hessian":[3.563428E2,3.2838373E2,2.7959085E1,4.6302227E1,2.820815E2,2.2207512E2,6.0006393E1,1.9599332E2,2.6081797E1,2.8888786E1,3.1117605E1,1.5791032E2,3.8082993E1],"tree_param":{"num_deleted":"0","num_feature":"274","num_nodes":"13","size_leaf_vector":"1"}},{"base_weights":[-2.2296357E-1,1.7984714E-1,-5.114272E-1,-2.1431582E-1,-2.2867821E-1,-2.121974E-1,9.3770735E-2,1.3031875E0,-5.481575E-1,-2.0014485E-2,3.71853E-1,6.1210124E-3,-2.932615E-1],"categories":[],"categories_nodes":[],"categories_segments":[],"categories_sizes":[],"default_left":[0,0,0,0,0,0,0,0,0,0,0,0,0],"id":47,"left_children":[1,-1,3,-1,5,-1,7,9,11,-1,-1,-1,-1],"loss_changes":[2.5045699E2,0E0,1.9467178E2,0E0,2.2151363E2,0E0,1.8876573E2,4.6360706E2,3.2420166E2,0E0,0E0,0E0,0E0],"parents":[2147483647,0,0,2,2,4,4,6,6,7,7,8,8],"right_children":[2,-1,4,-1,6,-1,8,10,12,-1,-1,-1,-1],"split_conditions":[1.89E2,1.7984714E-1,8.0387945E0,-2.1431582E-1,9.44E-1,-2.121974E-1,6.62E2,4.695494E-1,1.9711E4,-2.0014485E-2,3.71853E-1,6.1210124E-3,-2.932615E-1],"split_indices":[159,0,15,0,179,0,157,31,177,0,0,0,0],"split_type":[0,0,0,0,0,0,0,0,0,0,0,0,0],"sum_hessian":[3.3813663E2,3.3703747E1,3.0443286E2,3.2936283E1,2.7149658E2,3.0082026E1,2.4141457E2,8.341607E1,1.5799849E2,5.828151E1,2.5134565E1,1.3312886E2,2.486963E1],"tree_param":{"num_deleted":"0","num_feature":"274","num_nodes":"13","size_leaf_vector":"1"}},{"base_weights":[4.692581E-2,-9.6859425E-1,5.658407E-1,-2.566564E0,4.370474E-1,2.5427407E-1,1.496022E-1,-5.2335646E-2,-3.162031E-1,1.7993535E-1,-6.218188E-2,-2.575774E-1,1.777294E-1,-1.468931E0,8.526647E-1,-3.4165907E-1,-2.6704106E-3,6.829436E-4,2.2629035E-1],"categories":[],"categories_nodes":[],"categories_segments":[],"categories_sizes":[],"default_left":[0,0,0,0,0,0,0,0,0,0,0,0,0,0,0,0,0,0,0],"id":48,"left_children":[1,3,5,7,9,-1,11,-1,-1,-1,-1,13,-1,15,17,-1,-1,-1,-1],"loss_changes":[1.8107788E2,2.6209018E2,2.5744763E2,1.5462277E2,1.4874242E2,0E0,1.7423276E2,0E0,0E0,0E0,0E0,2.263257E2,0E0,3.4041742E2,1.5390529E2,0E0,0E0,0E0,0E0],"parents":[2147483647,0,0,1,1,2,2,3,3,4,4,6,6,11,11,13,13,14,14],"right_children":[2,4,6,8,10,-1,12,-1,-1,-1,-1,14,-1,16,18,-1,-1,-1,-1],"split_conditions":[4.55614E-1,1.3222222E1,1.107E2,1.3333333E1,5.048821E-1,2.5427407E-1,1.3963224E-1,-5.2335646E-2,-3.162031E-1,1.7993535E-1,-6.218188E-2,3.3235729E0,1.777294E-1,1.132E2,1.1430521E2,-3.4165907E-1,-2.6704106E-3,6.829436E-4,2.2629035E-1],"split_indices":[24,134,13,33,40,0,49,0,0,0,0,54,0,17,56,0,0,0,0],"split_type":[0,0,0,0,0,0,0,0,0,0,0,0,0,0,0,0,0,0,0],"sum_hessian":[3.4186166E2,1.15325836E2,2.2653583E2,5.3645065E1,6.1680775E1,2.919228E1,1.9734355E2,2.4557417E1,2.9087648E1,2.415058E1,3.7530193E1,1.665689E2,3.0774656E1,7.953957E1,8.702932E1,2.539011E1,5.4149467E1,6.252635E1,2.4502975E1],"tree_param":{"num_deleted":"0","num_feature":"274","num_nodes":"19","size_leaf_vector":"1"}},{"base_weights":[7.2717406E-2,-1.5180495E-1,2.0898376E-1,-1.8464601E-1,1.0640865E-1,-5.2556205E-1,1.488258E0,1.0556062E0,-1.3483045E0,9.876163E-2,2.9922506E-1,1.6971417E-1,-6.8632424E-2,-3.184111E-1,-3.371665E-2,1.2721157E-1,-1.5963843E-1],"categories":[],"categories_nodes":[],"categories_segments":[],"categories_sizes":[],"default_left":[0,0,0,0,0,0,0,0,0,0,0,0,0,0,0,0,0],"id":49,"left_children":[1,3,-1,-1,5,7,9,11,13,15,-1,-1,-1,-1,-1,-1,-1],"loss_changes":[2.0839607E2,1.8814177E2,0E0,0E0,2.5586897E2,2.6287875E2,3.0420956E2,1.5555559E2,3.3378842E2,2.007682E2,0E0,0E0,0E0,0E0,0E0,0E0,0E0],"parents":[2147483647,0,0,1,1,4,4,5,5,6,6,7,7,8,8,9,9],"right_children":[2,4,-1,-1,6,8,10,12,14,16,-1,-1,-1,-1,-1,-1,-1],"split_conditions":[4.514E3,1.1E1,2.0898376E-1,-1.8464601E-1,5.375E0,1.32E1,4.07E1,3.2E0,4.5462635E-1,5.0185E1,2.9922506E-1,1.6971417E-1,-6.8632424E-2,-3.184111E-1,-3.371665E-2,1.2721157E-1,-1.5963843E-1],"split_indices":[160,33,0,0,128,33,68,255,24,70,0,0,0,0,0,0,0],"split_type":[0,0,0,0,0,0,0,0,0,0,0,0,0,0,0,0,0],"sum_hessian":[3.5088995E2,3.240646E2,2.6825348E1,3.278157E1,2.9128305E2,2.002262E2,9.105685E1,6.8425156E1,1.3180104E2,5.8128616E1,3.292823E1,4.3054283E1,2.5370874E1,3.1832243E1,9.9968796E1,3.4029873E1,2.4098745E1],"tree_param":{"num_deleted":"0","num_feature":"274","num_nodes":"17","size_leaf_vector":"1"}},{"base_weights":[8.315746E-2,-1.5170178E-1,4.13815E-1,2.0855156E-1,3.9908115E-2,-1.7550566E0,5.857918E-1,2.3113828E-2,-2.8127056E-1,1.454658E0,-1.6718726E0,2.0405088E-2,2.3294798E-1,-2.55926E-1,-3.5765765E-3],"categories":[],"categories_nodes":[],"categories_segments":[],"categories_sizes":[],"default_left":[0,0,0,0,0,0,0,0,0,0,0,0,0,0,0],"id":50,"left_children":[1,-1,3,-1,5,7,9,-1,-1,11,13,-1,-1,-1,-1],"loss_changes":[2.276875E2,0E0,2.4726048E2,0E0,2.4555435E2,2.2752802E2,3.790962E2,0E0,0E0,2.5793643E2,1.432577E2,0E0,0E0,0E0,0E0],"parents":[2147483647,0,0,2,2,4,4,5,5,6,6,9,9,10,10],"right_children":[2,-1,4,-1,6,8,10,-1,-1,12,14,-1,-1,-1,-1],"split_conditions":[3.48E2,-1.5170178E-1,9.12E0,2.0855156E-1,-1.8E-1,1.13402855E2,7.1428573E-1,2.3113828E-2,-2.8127056E-1,1.62543E-3,1.1079558E2,2.0405088E-2,2.3294798E-1,-2.55926E-1,-3.5765765E-3],"split_indices":[157,0,68,0,65,53,66,0,0,259,53,0,0,0,0],"split_type":[0,0,0,0,0,0,0,0,0,0,0,0,0,0,0],"sum_hessian":[3.3455237E2,4.5904522E1,2.8864786E2,3.9791965E1,2.4885588E2,5.756118E1,1.9129471E2,2.7895473E1,2.9665705E1,1.383728E2,5.292191E1,7.909952E1,5.9273277E1,2.5867659E1,2.705425E1],"tree_param":{"num_deleted":"0","num_feature":"274","num_nodes":"15","size_leaf_vector":"1"}},{"base_weights":[7.714605E-2,-3.6284176E-1,1.7225991E0,-9.818472E-2,-1.7599992E-1,-6.409993E-2,3.0589214E-1,-2.1438988E-1,2.3227802E-1,-5.428454E-1,2.4549817E-1,4.574857E-2,-1.242253E-1],"categories":[],"categories_nodes":[],"categories_segments":[],"categories_sizes":[],"default_left":[0,0,0,0,0,0,0,0,0,0,0,0,0],"id":51,"left_children":[1,3,5,7,-1,-1,-1,-1,9,11,-1,-1,-1],"loss_changes":[2.5286531E2,1.3943652E2,4.2380206E2,2.1575124E2,0E0,0E0,0E0,0E0,4.9755252E2,2.0969284E2,0E0,0E0,0E0],"parents":[2147483647,0,0,1,1,2,2,3,3,8,8,9,9],"right_children":[2,4,6,8,-1,-1,-1,-1,10,12,-1,-1,-1],"split_conditions":[9.333333E0,6.46E-1,4.134374E-1,-4.9901024E-2,-1.7599992E-1,-6.409993E-2,3.0589214E-1,-2.1438988E-1,5.922677E-1,5.6110644E-1,2.4549817E-1,4.574857E-2,-1.242253E-1],"split_indices":[115,62,46,257,0,0,0,0,48,48,0,0,0],"split_type":[0,0,0,0,0,0,0,0,0,0,0,0,0],"sum_hessian":[3.4755542E2,2.747481E2,7.280733E1,2.4222704E2,3.2521072E1,3.4258224E1,3.85491E1,2.5914299E1,2.1631273E2,1.7180768E2,4.4505054E1,8.3349556E1,8.845813E1],"tree_param":{"num_deleted":"0","num_feature":"274","num_nodes":"13","size_leaf_vector":"1"}},{"base_weights":[2.351866E-1,1.9195873E-1,-6.3382336E-3,1.9129491E-1,-2.2044334E-1,-6.2013096E-1,1.4054723E0,-1.2510456E0,4.7241476E-1,2.5491232E-1,-4.6841167E-3,-4.8515625E-2,-2.82586E-1,2.5952575E-1,-5.271296E-2],"categories":[],"categories_nodes":[],"categories_segments":[],"categories_sizes":[],"default_left":[0,0,0,0,0,0,0,0,0,0,0,0,0,0,0],"id":52,"left_children":[1,-1,3,-1,5,7,9,11,13,-1,-1,-1,-1,-1,-1],"loss_changes":[1.9083388E2,0E0,1.6932274E2,0E0,1.9140295E2,1.633237E2,1.618017E2,2.2268619E2,2.923977E2,0E0,0E0,0E0,0E0,0E0,0E0],"parents":[2147483647,0,0,2,2,4,4,5,5,6,6,7,7,8,8],"right_children":[2,-1,4,-1,6,8,10,12,14,-1,-1,-1,-1,-1,-1],"split_conditions":[1.89E2,1.9195873E-1,1.058E3,1.9129491E-1,1.3665615E-1,5.2E0,1.4344881E-1,1.1326282E2,6.62E2,2.5491232E-1,-4.6841167E-3,-4.8515625E-2,-2.82586E-1,2.5952575E-1,-5.271296E-2],"split_indices":[159,0,160,0,42,128,42,59,157,0,0,0,0,0,0],"split_type":[0,0,0,0,0,0,0,0,0,0,0,0,0,0,0],"sum_hessian":[3.5009998E2,3.316662E1,3.1693338E2,2.4409117E1,2.9252426E2,2.35261E2,5.7263256E1,1.4908159E2,8.617941E1,2.4515102E1,3.2748154E1,1.19324684E2,2.9756905E1,2.415239E1,6.202702E1],"tree_param":{"num_deleted":"0","num_feature":"274","num_nodes":"15","size_leaf_vector":"1"}},{"base_weights":[1.0861054E-1,-9.587408E-2,1.880234E-1,-8.966528E-1,6.0680485E-1,-2.4634922E0,2.0535177E-1,2.0087807E0,-4.0096614E-1,-3.260007E-1,-5.798157E-2,1.3565688E0,-1.5503803E-1,3.2469073E-1,3.363226E-2,-1.6354526E0,1.0085486E-1,2.071301E-1,-3.276184E-2,4.547634E-2,-2.6124066E-1],"categories":[],"categories_nodes":[],"categories_segments":[],"categories_sizes":[],"default_left":[0,0,0,0,0,0,0,0,0,0,0,0,0,0,0,0,0,0,0,0,0],"id":53,"left_children":[1,3,-1,5,7,9,11,13,15,-1,-1,17,-1,-1,-1,19,-1,-1,-1,-1,-1],"loss_changes":[1.70954E2,1.8657022E2,0E0,2.680725E2,2.503354E2,1.8977414E2,2.3607025E2,2.5381686E2,2.1989397E2,0E0,0E0,1.4474097E2,0E0,0E0,0E0,2.3667009E2,0E0,0E0,0E0,0E0,0E0],"parents":[2147483647,0,0,1,1,3,3,4,4,5,5,6,6,7,7,8,8,11,11,15,15],"right_children":[2,4,-1,6,8,10,12,14,16,-1,-1,18,-1,-1,-1,20,-1,-1,-1,-1,-1],"split_conditions":[1.238E2,-7.2570583E-3,1.880234E-1,7.9E0,3.4583762E-2,6.4706665E1,3E0,2.596E3,1.156E3,-3.260007E-1,-5.798157E-2,1.1444877E2,-1.5503803E-1,3.2469073E-1,3.363226E-2,-1.2114465E-2,1.0085486E-1,2.071301E-1,-3.276184E-2,4.547634E-2,-2.6124066E-1],"split_indices":[16,258,0,127,258,71,36,160,157,0,0,53,0,0,0,259,0,0,0,0,0],"split_type":[0,0,0,0,0,0,0,0,0,0,0,0,0,0,0,0,0,0,0,0,0],"sum_hessian":[3.5799646E2,3.2981845E2,2.8177994E1,1.5406361E2,1.7575485E2,6.3182682E1,9.0880936E1,7.315427E1,1.0260058E2,3.054523E1,3.263745E1,6.001233E1,3.0868605E1,2.9923506E1,4.323076E1,5.957039E1,4.3030193E1,3.4169575E1,2.5842754E1,2.6446999E1,3.312339E1],"tree_param":{"num_deleted":"0","num_feature":"274","num_nodes":"21","size_leaf_vector":"1"}},{"base_weights":[3.826558E-2,3.6318344E-1,-1.6316715E0,2.7744386E-1,5.289074E-2,1.944482E-2,-2.415979E-1,-2.3044646E-1,3.7055725E-1,-1.0728928E-1,7.651127E-1,-2.5808688E-2,1.4389968E-1],"categories":[],"categories_nodes":[],"categories_segments":[],"categories_sizes":[],"default_left":[0,0,0,0,0,0,0,0,0,0,0,0,0],"id":54,"left_children":[1,3,5,-1,7,-1,-1,-1,9,-1,11,-1,-1],"loss_changes":[1.862151E2,2.8750162E2,1.582984E2,0E0,2.545425E2,0E0,0E0,0E0,1.6675735E2,0E0,2.3678928E2,0E0,0E0],"parents":[2147483647,0,0,1,1,2,2,4,4,8,8,10,10],"right_children":[2,4,6,-1,8,-1,-1,-1,10,-1,12,-1,-1],"split_conditions":[2.2985075E0,4.9982774E-1,2.5666666E1,2.7744386E-1,5.475206E-1,1.944482E-2,-2.415979E-1,-2.3044646E-1,1.08234055E2,-1.0728928E-1,3.288E1,-2.5808688E-2,1.4389968E-1],"split_indices":[135,40,117,0,41,0,0,0,53,0,68,0,0],"split_type":[0,0,0,0,0,0,0,0,0,0,0,0,0],"sum_hessian":[3.4145544E2,2.8643646E2,5.501897E1,2.4289507E1,2.6214694E2,2.4666245E1,3.0352726E1,2.4119429E1,2.3802753E2,4.317483E1,1.9485269E2,9.7646675E1,9.7206024E1],"tree_param":{"num_deleted":"0","num_feature":"274","num_nodes":"13","size_leaf_vector":"1"}},{"base_weights":[1.8159918E-1,-1.0648897E0,7.547295E-1,-3.574871E-1,-2.503344E-1,2.5195146E-1,1.9299103E0,-1.1199738E0,1.1313386E-1,1.0469244E0,-1.0532898E0,2.4397406E-1,3.314592E-2,-2.0408463E-1,1.4636937E-2,2.1892083E0,-3.5706796E-2,2.0826098E-2,-2.3102008E-1,6.4595655E-2,3.0359668E-1],"categories":[],"categories_nodes":[],"categories_segments":[],"categories_sizes":[],"default_left":[0,0,0,0,0,0,0,0,0,0,0,0,0,0,0,0,0,0,0,0,0],"id":55,"left_children":[1,3,5,7,-1,9,11,13,-1,15,17,-1,-1,-1,-1,19,-1,-1,-1,-1,-1],"loss_changes":[2.53998E2,1.7124986E2,1.4331133E2,1.2026444E2,0E0,1.7894627E2,1.3284592E2,1.2175022E2,0E0,1.8551971E2,1.6829169E2,0E0,0E0,0E0,0E0,1.4084763E2,0E0,0E0,0E0,0E0,0E0],"parents":[2147483647,0,0,1,1,2,2,3,3,5,5,6,6,7,7,9,9,10,10,15,15],"right_children":[2,4,6,8,-1,10,12,14,-1,16,18,-1,-1,-1,-1,20,-1,-1,-1,-1,-1],"split_conditions":[-1.09E-1,1.20375E2,1.03328E2,1E0,-2.503344E-1,1.0146E2,1.5E1,2E0,1.1313386E-1,1.3E0,1.01992E2,2.4397406E-1,3.314592E-2,-2.0408463E-1,1.4636937E-2,3.3235729E0,-3.5706796E-2,2.0826098E-2,-2.3102008E-1,6.4595655E-2,3.0359668E-1],"split_indices":[65,14,30,7,0,30,33,72,0,263,22,0,0,0,0,54,0,0,0,0,0],"split_type":[0,0,0,0,0,0,0,0,0,0,0,0,0,0,0,0,0,0,0,0,0],"sum_hessian":[3.5369135E2,1.1114256E2,2.4254878E2,8.465989E1,2.6482674E1,1.7064455E2,7.190423E1,5.9938606E1,2.4721285E1,1.0618027E2,6.446428E1,3.899119E1,3.291304E1,2.732113E1,3.2617474E1,6.0226738E1,4.5953526E1,3.874357E1,2.572071E1,3.4635082E1,2.5591658E1],"tree_param":{"num_deleted":"0","num_feature":"274","num_nodes":"21","size_leaf_vector":"1"}},{"base_weights":[2.2289762E-2,-2.2819255E-1,2.3641357E-1,1.7061737E-1,-1.8926624E0,-7.8486204E-1,1.0303887E0,-6.1314106E-3,-2.8357458E-1,1.3968502E-1,-1.4715468E0,2.6305756E-1,1.3367304E-1,-3.0948865E-1,-4.6844974E-2,-1.6223459E-1,9.346265E-2],"categories":[],"categories_nodes":[],"categories_segments":[],"categories_sizes":[],"default_left":[0,0,0,0,0,0,0,0,0,0,0,0,0,0,0,0,0],"id":56,"left_children":[1,3,-1,5,7,9,11,-1,-1,-1,13,-1,15,-1,-1,-1,-1],"loss_changes":[2.7042535E2,2.1821747E2,0E0,2.1886667E2,2.044489E2,2.2713185E2,2.9798758E2,0E0,0E0,0E0,2.1766031E2,0E0,2.4906801E2,0E0,0E0,0E0,0E0],"parents":[2147483647,0,0,1,1,3,3,4,4,5,5,6,6,10,10,12,12],"right_children":[2,4,-1,6,8,10,12,-1,-1,-1,14,-1,16,-1,-1,-1,-1],"split_conditions":[4.514E3,6E0,2.3641357E-1,1.1247229E2,1.1189549E2,-2.646E1,-1.7429814E-1,-6.1314106E-3,-2.8357458E-1,1.3968502E-1,9.624044E0,2.6305756E-1,4E-3,-3.0948865E-1,-4.6844974E-2,-1.6223459E-1,9.346265E-2],"split_indices":[160,188,0,56,56,74,264,0,0,0,20,0,65,0,0,0,0],"split_type":[0,0,0,0,0,0,0,0,0,0,0,0,0,0,0,0,0],"sum_hessian":[3.5350836E2,3.273212E2,2.6187166E1,2.6466922E2,6.265198E1,1.2537043E2,1.3929878E2,3.148724E1,3.1164742E1,2.593504E1,9.943539E1,3.7492603E1,1.0180618E2,2.447664E1,7.495875E1,3.2816532E1,6.8989655E1],"tree_param":{"num_deleted":"0","num_feature":"274","num_nodes":"17","size_leaf_vector":"1"}},{"base_weights":[-1.5903562E-1,-3.750107E-1,1.28623E-1,-1.4733663E-1,-2.0940046E-1,-8.73624E-1,6.3774216E-1,5.528313E-1,-2.1195564E0,1.8759134E0,-1.3311005E0,-1.0920045E-1,1.6472216E-1,1.2615448E-4,-2.5195688E-1,-5.0196912E-2,2.2470476E-1,-2.1899784E-1,8.202027E-3],"categories":[],"categories_nodes":[],"categories_segments":[],"categories_sizes":[],"default_left":[0,0,0,0,0,0,0,0,0,0,0,0,0,0,0,0,0,0,0],"id":57,"left_children":[1,3,-1,5,-1,7,9,11,13,15,17,-1,-1,-1,-1,-1,-1,-1,-1],"loss_changes":[1.4103854E2,1.6955145E2,0E0,1.6714665E2,0E0,2.7162268E2,3.4576562E2,2.2522946E2,1.9746057E2,2.284715E2,1.1907141E2,0E0,0E0,0E0,0E0,0E0,0E0,0E0,0E0],"parents":[2147483647,0,0,1,1,3,3,5,5,6,6,7,7,8,8,9,9,10,10],"right_children":[2,4,-1,6,-1,8,10,12,14,16,18,-1,-1,-1,-1,-1,-1,-1,-1],"split_conditions":[8E-1,6.175928E-1,1.28623E-1,9.42E2,-2.0940046E-1,1.01448E2,1.217283E1,1.125E2,3.96E-1,5.1738894E-1,1.136E2,-1.0920045E-1,1.6472216E-1,1.2615448E-4,-2.5195688E-1,-5.0196912E-2,2.2470476E-1,-2.1899784E-1,8.202027E-3],"split_indices":[67,48,0,157,0,29,20,17,62,40,14,0,0,0,0,0,0,0,0],"split_type":[0,0,0,0,0,0,0,0,0,0,0,0,0,0,0,0,0,0,0],"sum_hessian":[3.5586563E2,3.1883643E2,3.7029194E1,2.9138617E2,2.7450262E1,1.5133682E2,1.4004933E2,7.076904E1,8.056778E1,8.601734E1,5.4031994E1,3.155296E1,3.9216087E1,2.8492174E1,5.2075607E1,2.5050957E1,6.096638E1,2.6000648E1,2.8031347E1],"tree_param":{"num_deleted":"0","num_feature":"274","num_nodes":"19","size_leaf_vector":"1"}},{"base_weights":[8.7734126E-2,2.1006925E-1,-1.9406612E-1,1.0789765E0,-6.448099E-1,-9.9448144E-2,2.14443E0,-1.7868645E0,2.3555854E-1,6.463094E-2,2.725643E-1,-9.180943E-1,-3.2673338E-1,1.9564403E0,-1.0600569E0,-1.5011649E-1,5.5235844E-2,1.1054852E-2,2.7903327E-1,-2.4931212E-1,4.891467E-2],"categories":[],"categories_nodes":[],"categories_segments":[],"categories_sizes":[],"default_left":[0,0,0,0,0,0,0,0,0,0,0,0,0,0,0,0,0,0,0,0,0],"id":58,"left_children":[1,-1,3,5,7,-1,9,11,13,-1,-1,15,-1,17,19,-1,-1,-1,-1,-1,-1],"loss_changes":[2.5086328E2,0E0,1.759856E2,2.0474158E2,2.2797253E2,0E0,9.79718E1,2.0570432E2,2.8847766E2,0E0,0E0,1.2499804E2,0E0,1.6613419E2,2.7309256E2,0E0,0E0,0E0,0E0,0E0,0E0],"parents":[2147483647,0,0,2,2,3,3,4,4,6,6,7,7,8,8,11,11,13,13,14,14],"right_children":[2,-1,4,6,8,-1,10,12,14,-1,-1,16,-1,18,20,-1,-1,-1,-1,-1,-1],"split_conditions":[4.3360674E-1,2.1006925E-1,1.1205268E2,2.388E1,1.12850784E2,-9.9448144E-2,5.50441E-1,8.0322796E-1,2.682E3,6.463094E-2,2.725643E-1,1.15333336E2,-3.2673338E-1,1.1169515E2,1.31E1,-1.5011649E-1,5.5235844E-2,1.1054852E-2,2.7903327E-1,-2.4931212E-1,4.891467E-2],"split_indices":[24,0,59,69,59,0,50,25,160,0,0,11,0,55,122,0,0,0,0,0,0],"split_type":[0,0,0,0,0,0,0,0,0,0,0,0,0,0,0,0,0,0,0,0,0],"sum_hessian":[3.3661935E2,3.1837912E1,3.0478143E2,7.9351105E1,2.2543034E2,2.4566448E1,5.4784653E1,9.775769E1,1.2767265E2,2.8908983E1,2.587567E1,7.3016205E1,2.474148E1,5.4658146E1,7.30145E1,4.4770092E1,2.8246117E1,2.6555496E1,2.8102648E1,3.1685677E1,4.132883E1],"tree_param":{"num_deleted":"0","num_feature":"274","num_nodes":"21","size_leaf_vector":"1"}},{"base_weights":[1.3646822E-1,-1.312398E0,5.354043E-1,3.645998E-2,-2.434569E-1,1.3186494E-1,2.4053888E0,1.3663671E0,-3.9883986E-1,2.8146684E-1,8.1016116E-2,2.5033322E-1,7.3804194E-3,1.8339618E-1,-1.0196838E0,-1.0602235E-2,-2.6424336E-1],"categories":[],"categories_nodes":[],"categories_segments":[],"categories_sizes":[],"default_left":[0,0,0,0,0,0,0,0,0,0,0,0,0,0,0,0,0],"id":59,"left_children":[1,3,5,-1,-1,7,9,11,13,-1,-1,-1,-1,-1,15,-1,-1],"loss_changes":[2.0612564E2,2.5414897E2,2.1051132E2,0E0,0E0,1.5174202E2,7.966168E1,1.654104E2,2.8110544E2,0E0,0E0,0E0,0E0,0E0,2.8135648E2,0E0,0E0],"parents":[2147483647,0,0,1,1,2,2,5,5,6,6,7,7,8,8,14,14],"right_children":[2,4,6,-1,-1,8,10,12,14,-1,-1,-1,-1,-1,16,-1,-1],"split_conditions":[7.449185E-1,1.1239939E2,6.042241E-1,3.645998E-2,-2.434569E-1,6.29E2,9.1E0,0E0,3.65E2,2.8146684E-1,8.1016116E-2,2.5033322E-1,7.3804194E-3,1.8339618E-1,1.172E2,-1.0602235E-2,-2.6424336E-1],"split_indices":[25,59,51,0,0,157,252,253,159,0,0,0,0,0,12,0,0],"split_type":[0,0,0,0,0,0,0,0,0,0,0,0,0,0,0,0,0],"sum_hessian":[3.547256E2,7.6127335E1,2.7859827E2,3.895991E1,3.716742E1,2.299405E2,4.865776E1,6.8738914E1,1.612016E2,2.4647263E1,2.4010498E1,2.7211098E1,4.1527817E1,2.9022875E1,1.3217873E2,9.73479E1,3.483082E1],"tree_param":{"num_deleted":"0","num_feature":"274","num_nodes":"17","size_leaf_vector":"1"}},{"base_weights":[-2.0716798E-1,1.5142299E-1,-4.545447E-1,-1.8162776E0,6.629854E-2,-1.6966939E-2,-2.8988783E0,2.502694E-1,-3.230054E-1,-3.6112624E-1,-8.981706E-2,-7.6841944E-1,1.07323304E-1,7.17443E-2,-1.1475289E-1],"categories":[],"categories_nodes":[],"categories_segments":[],"categories_sizes":[],"default_left":[0,0,0,0,0,0,0,0,0,0,0,0,0,0,0],"id":60,"left_children":[1,-1,3,5,7,-1,9,-1,11,-1,-1,13,-1,-1,-1],"loss_changes":[1.9115196E2,0E0,2.2679904E2,1.522027E2,2.8760492E2,0E0,1.572467E2,0E0,1.5908826E2,0E0,0E0,2.0224966E2,0E0,0E0,0E0],"parents":[2147483647,0,0,2,2,3,3,4,4,6,6,8,8,11,11],"right_children":[2,-1,4,6,8,-1,10,-1,12,-1,-1,14,-1,-1,-1],"split_conditions":[4.3360674E-1,1.5142299E-1,4.55614E-1,1.1128262E2,4.612743E-1,-1.6966939E-2,1.176E2,2.502694E-1,1.21E2,-3.6112624E-1,-8.981706E-2,7.6112026E-1,1.07323304E-1,7.17443E-2,-1.1475289E-1],"split_indices":[24,0,24,56,24,0,19,0,13,0,0,32,0,0,0],"split_type":[0,0,0,0,0,0,0,0,0,0,0,0,0,0,0],"sum_hessian":[3.5429636E2,3.5654484E1,3.1864188E2,8.75749E1,2.3106699E2,3.5829193E1,5.17457E1,2.455701E1,2.0650998E2,2.4831839E1,2.6913864E1,1.6428525E2,4.222473E1,4.8702576E1,1.15582664E2],"tree_param":{"num_deleted":"0","num_feature":"274","num_nodes":"15","size_leaf_vector":"1"}},{"base_weights":[-1.01556145E-1,1.7866191E-1,-2.858665E-1,-1.1819994E0,8.593545E-2,-2.7360916E-1,-2.6096082E-1,-1.9634739E-1,1.896505E-1,-1.0983467E-1,1.24066286E-1,-6.314107E-1,1.2535723E-1,-4.4688154E-3,-1.9336154E-1],"categories":[],"categories_nodes":[],"categories_segments":[],"categories_sizes":[],"default_left":[0,0,0,0,0,0,0,0,0,0,0,0,0,0,0],"id":61,"left_children":[1,-1,3,5,7,9,-1,11,-1,-1,-1,13,-1,-1,-1],"loss_changes":[1.6366458E2,0E0,1.13905464E2,1.9898157E2,1.6244307E2,1.5711388E2,0E0,1.7271399E2,0E0,0E0,0E0,1.8858612E2,0E0,0E0,0E0],"parents":[2147483647,0,0,2,2,3,3,4,4,5,5,7,7,11,11],"right_children":[2,-1,4,6,8,10,-1,12,-1,-1,-1,14,-1,-1,-1],"split_conditions":[1.1116391E2,1.7866191E-1,7.571429E0,1.9399E4,5.068878E-1,7.906433E-1,-2.6096082E-1,3.5842457E-1,1.896505E-1,-1.0983467E-1,1.24066286E-1,1.1326282E2,1.2535723E-1,-4.4688154E-3,-1.9336154E-1],"split_indices":[59,0,127,177,31,32,0,264,0,0,0,59,0,0,0],"split_type":[0,0,0,0,0,0,0,0,0,0,0,0,0,0,0],"sum_hessian":[3.6579233E2,2.520747E1,3.4058484E2,9.934293E1,2.4124191E2,7.098855E1,2.835438E1,2.1626259E2,2.4979322E1,4.4215252E1,2.6773298E1,1.7500548E2,4.125711E1,1.3466733E2,4.0338158E1],"tree_param":{"num_deleted":"0","num_feature":"274","num_nodes":"15","size_leaf_vector":"1"}},{"base_weights":[-1.5304765E-1,1.7034099E-1,-3.809939E-1,-2.4012692E-1,-1.4812076E-1,2.800133E-1,-1.64271E0,1.1243014E0,-6.088398E-1,2.460073E-2,-3.2643178E-1,-1.5629493E-2,2.0544176E-1,-1.1651E-1,1.0377476E-1],"categories":[],"categories_nodes":[],"categories_segments":[],"categories_sizes":[],"default_left":[0,0,0,0,0,0,0,0,0,0,0,0,0,0,0],"id":62,"left_children":[1,-1,3,-1,5,7,9,11,13,-1,-1,-1,-1,-1,-1],"loss_changes":[1.9240807E2,0E0,2.0654802E2,0E0,1.9327527E2,1.7694702E2,3.4200946E2,2.4667473E2,2.0372449E2,0E0,0E0,0E0,0E0,0E0,0E0],"parents":[2147483647,0,0,2,2,4,4,5,5,6,6,7,7,8,8],"right_children":[2,-1,4,-1,6,8,10,12,14,-1,-1,-1,-1,-1,-1],"split_conditions":[2.96E0,1.7034099E-1,-6.3811935E-2,-2.4012692E-1,1.1629668E2,6E-1,-8.6E0,3.054E1,1.2875651E-1,2.460073E-2,-3.2643178E-1,-1.5629493E-2,2.0544176E-1,-1.1651E-1,1.0377476E-1],"split_indices":[68,0,257,0,56,66,252,68,42,0,0,0,0,0,0],"split_type":[0,0,0,0,0,0,0,0,0,0,0,0,0,0,0],"sum_hessian":[3.5583316E2,3.067582E1,3.2515732E2,2.4709929E1,3.0044742E2,2.3407968E2,6.636772E1,1.19954254E2,1.14125435E2,3.8153866E1,2.8213854E1,6.474331E1,5.5210945E1,7.828131E1,3.584412E1],"tree_param":{"num_deleted":"0","num_feature":"274","num_nodes":"15","size_leaf_vector":"1"}},{"base_weights":[8.255543E-2,-1.8361688E-1,2.502564E-1,1.5129095E-1,-1.8960238E-1,-1.7076531E-1,1.700099E-1,1.5313205E-1,-6.002672E-1,3.2681216E-2,-1.2548152E-1],"categories":[],"categories_nodes":[],"categories_segments":[],"categories_sizes":[],"default_left":[0,0,0,0,0,0,0,0,0,0,0],"id":63,"left_children":[1,3,-1,5,-1,7,-1,-1,9,-1,-1],"loss_changes":[2.887114E2,2.4147873E2,0E0,1.8327667E2,0E0,2.2312584E2,0E0,0E0,2.1126172E2,0E0,0E0],"parents":[2147483647,0,0,1,1,3,3,5,5,8,8],"right_children":[2,4,-1,6,-1,8,-1,-1,10,-1,-1],"split_conditions":[1.48E1,5.495158E-2,2.502564E-1,5.740336E-1,-1.8960238E-1,1.1170836E2,1.700099E-1,1.5313205E-1,3.6080295E-1,3.2681216E-2,-1.2548152E-1],"split_indices":[34,257,0,40,0,59,0,0,45,0,0],"split_type":[0,0,0,0,0,0,0,0,0,0,0],"sum_hessian":[3.419122E2,3.1607825E2,2.5833952E1,2.761527E2,3.992552E1,2.3933052E2,3.6822193E1,3.9257133E1,2.0007338E2,1.0031344E2,9.975995E1],"tree_param":{"num_deleted":"0","num_feature":"274","num_nodes":"11","size_leaf_vector":"1"}},{"base_weights":[7.547647E-3,1.4409785E-1,-2.67256E-1,-5.091276E-1,1.7822453E-1,-2.6443756E-1,-2.142906E-1,1.310896E0,-7.9563594E-1,7.6308227E-3,2.4648742E-1,-2.052461E-1,-1.385441E-2],"categories":[],"categories_nodes":[],"categories_segments":[],"categories_sizes":[],"default_left":[0,0,0,0,0,0,0,0,0,0,0,0,0],"id":64,"left_children":[1,-1,3,5,-1,-1,7,9,11,-1,-1,-1,-1],"loss_changes":[1.9006541E2,0E0,2.0282817E2,2.5445789E2,0E0,0E0,2.4095015E2,1.705579E2,2.2497716E2,0E0,0E0,0E0,0E0],"parents":[2147483647,0,0,2,2,3,3,6,6,7,7,8,8],"right_children":[2,-1,4,6,-1,-1,8,10,12,-1,-1,-1,-1],"split_conditions":[1.0073664E-1,1.4409785E-1,1.4666667E1,5.352423E-1,1.7822453E-1,-2.6443756E-1,3.9110264E-1,9.99E2,1.1446134E-1,7.6308227E-3,2.4648742E-1,-2.052461E-1,-1.385441E-2],"split_indices":[42,0,34,48,0,0,39,157,42,0,0,0,0],"split_type":[0,0,0,0,0,0,0,0,0,0,0,0,0],"sum_hessian":[3.7040982E2,4.7093464E1,3.2331638E2,2.962085E2,2.710788E1,2.6345757E1,2.6986273E2,7.415052E1,1.957122E2,4.565916E1,2.8491358E1,4.794041E1,1.477718E2],"tree_param":{"num_deleted":"0","num_feature":"274","num_nodes":"13","size_leaf_vector":"1"}},{"base_weights":[8.585879E-2,-1.674397E-1,2.529853E-1,-1.6273423E-1,4.5083064E-1,1.9297679E-1,1.9920044E-1,-1.4133053E-1,5.1426566E-1,2.9829428E-1,9.144025E-3],"categories":[],"categories_nodes":[],"categories_segments":[],"categories_sizes":[],"default_left":[0,0,0,0,0,0,0,0,0,0,0],"id":65,"left_children":[1,-1,3,-1,5,-1,7,-1,9,-1,-1],"loss_changes":[1.3684279E2,0E0,1.5859576E2,0E0,1.6052615E2,0E0,1.7937431E2,0E0,3.2086346E2,0E0,0E0],"parents":[2147483647,0,0,2,2,4,4,6,6,8,8],"right_children":[2,-1,4,-1,6,-1,8,-1,10,-1,-1],"split_conditions":[9.21E-1,-1.674397E-1,-3.4E0,-1.6273423E-1,7.201046E-1,1.9297679E-1,7.482309E-1,-1.4133053E-1,7.6401466E-1,2.9829428E-1,9.144025E-3],"split_indices":[179,0,263,0,32,0,32,0,32,0,0],"split_type":[0,0,0,0,0,0,0,0,0,0,0],"sum_hessian":[3.6141083E2,2.4209951E1,3.3720087E2,2.5413363E1,3.117875E2,3.3249443E1,2.7853806E2,3.685602E1,2.4168204E2,2.4736547E1,2.1694548E2],"tree_param":{"num_deleted":"0","num_feature":"274","num_nodes":"11","size_leaf_vector":"1"}},{"base_weights":[5.715884E-2,3.5511544E-1,-1.660829E0,2.6172606E-2,2.606166E-1,-2.5803882E-1,3.771626E-2,5.277504E-1,-1.4719298E0,1.6481308E0,-3.137273E-1,-2.7272806E-1,-3.0300835E-2,5.3461056E-2,2.895742E-1,-2.0941049E-1,2.8606055E-2],"categories":[],"categories_nodes":[],"categories_segments":[],"categories_sizes":[],"default_left":[0,0,0,0,0,0,0,0,0,0,0,0,0,0,0,0,0],"id":66,"left_children":[1,3,5,7,-1,-1,-1,9,11,13,15,-1,-1,-1,-1,-1,-1],"loss_changes":[1.9196887E2,3.171017E2,2.0162701E2,2.178502E2,0E0,0E0,0E0,2.0530615E2,1.6024347E2,1.8497041E2,2.0557689E2,0E0,0E0,0E0,0E0,0E0,0E0],"parents":[2147483647,0,0,1,1,2,2,3,3,7,7,8,8,9,9,10,10],"right_children":[2,4,6,8,-1,-1,-1,10,12,14,16,-1,-1,-1,-1,-1,-1],"split_conditions":[1.225E2,1.1944444E2,6.2291956E-1,5.66348E-1,2.606166E-1,-2.5803882E-1,3.771626E-2,3.517184E-1,7.518889E-1,1.13024475E2,3.615217E-1,-2.7272806E-1,-3.0300835E-2,5.3461056E-2,2.895742E-1,-2.0941049E-1,2.8606055E-2],"split_indices":[11,13,41,50,0,0,0,38,25,59,38,0,0,0,0,0,0],"split_type":[0,0,0,0,0,0,0,0,0,0,0,0,0,0,0,0,0],"sum_hessian":[3.732393E2,3.1868933E2,5.454997E1,2.8818604E2,3.0503277E1,3.0357157E1,2.4192812E1,2.1634798E2,7.1838066E1,9.24559E1,1.23892075E2,2.40148E1,4.782326E1,6.435353E1,2.810237E1,2.6940273E1,9.69518E1],"tree_param":{"num_deleted":"0","num_feature":"274","num_nodes":"17","size_leaf_vector":"1"}}]},"name":"gbtree"},"learner_model_param":{"base_score":"[2.137833E0]","boost_from_average":"1","num_class":"0","num_feature":"274","num_target":"1"},"objective":{"name":"reg:pseudohubererror","pseudo_huber_param":{"huber_slope":"3.65630865"}}},"version":[3,1,3]}