{"learner":{"attributes":{"scikit_learn":"{\"_estimator_type\": \"regressor\"}"},"feature_names":[],"feature_types":[],"gradient_booster":{"model":{"cats":{"enc":[],"feature_segments":[],"sorted_idx":[]},"gbtree_model_param":{"num_parallel_tree":"1","num_trees":"103"},"iteration_indptr":[0,1,2,3,4,5,6,7,8,9,10,11,12,13,14,15,16,17,18,19,20,21,22,23,24,25,26,27,28,29,30,31,32,33,34,35,36,37,38,39,40,41,42,43,44,45,46,47,48,49,50,51,52,53,54,55,56,57,58,59,60,61,62,63,64,65,66,67,68,69,70,71,72,73,74,75,76,77,78,79,80,81,82,83,84,85,86,87,88,89,90,91,92,93,94,95,96,97,98,99,100,101,102,103],"tree_info":[0,0,0,0,0,0,0,0,0,0,0,0,0,0,0,0,0,0,0,0,0,0,0,0,0,0,0,0,0,0,0,0,0,0,0,0,0,0,0,0,0,0,0,0,0,0,0,0,0,0,0,0,0,0,0,0,0,0,0,0,0,0,0,0,0,0,0,0,0,0,0,0,0,0,0,0,0,0,0,0,0,0,0,0,0,0,0,0,0,0,0,0,0,0,0,0,0,0,0,0,0,0,0],"trees":[{"base_weights":[-1.1582706E-3,1.4252081E0,-8.2249355E-1,1.1582413E0,1.6868706E0,-3.4488976E-1,-1.2101701E0,3.6060998E-1,1.2298347E0,9.093617E-1,1.7148676E0,-5.8398795E-1,-1.3092698E-1,-1.1420256E0,-6.845116E-2,3.0049523E-2,-3.8978688E-3,2.0214008E-2,6.368499E-2,7.001912E-2,2.4296455E-2,2.739122E-2,8.6286575E-2,-3.1049237E-2,1.4363829E-3,-2.0554759E-2,-1.4883896E-3,-5.7637423E-2,-2.930418E-2],"categories":[],"categories_nodes":[],"categories_segments":[],"categories_sizes":[],"default_left":[0,0,0,0,0,0,0,0,0,0,0,0,0,0,0,0,0,0,0,0,0,0,0,0,0,0,0,0,0],"id":0,"left_children":[1,3,5,7,9,11,13,15,17,19,21,23,25,27,-1,-1,-1,-1,-1,-1,-1,-1,-1,-1,-1,-1,-1,-1,-1],"loss_changes":[5.6458315E3,1.1181445E2,5.6345386E2,4.772534E1,9.989014E0,6.975273E1,9.174316E0,9.017189E0,2.6015625E1,4.3369102E0,4.7941895E0,1.5078964E1,2.0542048E1,2.9776611E0,0E0,0E0,0E0,0E0,0E0,0E0,0E0,0E0,0E0,0E0,0E0,0E0,0E0,0E0,0E0],"parents":[2147483647,0,0,1,1,2,2,3,3,4,4,5,5,6,6,7,7,8,8,9,9,10,10,11,11,12,12,13,13],"right_children":[2,4,6,8,10,12,14,16,18,20,22,24,26,28,-1,-1,-1,-1,-1,-1,-1,-1,-1,-1,-1,-1,-1,-1,-1],"split_conditions":[1.5E0,2.44E-1,2.5E0,1.91E-1,4.6E1,2.45E-1,3.5E0,3.8992086E-1,5.49E-1,4.2698696E-1,2.73E1,3.77E-1,8.8E1,7.61E-1,-6.845116E-2,3.0049523E-2,-3.8978688E-3,2.0214008E-2,6.368499E-2,7.001912E-2,2.4296455E-2,2.739122E-2,8.6286575E-2,-3.1049237E-2,1.4363829E-3,-2.0554759E-2,-1.4883896E-3,-5.7637423E-2,-2.930418E-2],"split_indices":[157,108,157,108,151,108,157,97,227,187,142,123,82,227,0,0,0,0,0,0,0,0,0,0,0,0,0,0,0],"split_type":[0,0,0,0,0,0,0,0,0,0,0,0,0,0,0,0,0,0,0,0,0,0,0,0,0,0,0,0,0],"sum_hessian":[4.8094697E3,1.7558683E3,3.0536018E3,8.835007E2,8.723676E2,1.372934E3,1.6806677E3,7.583066E1,8.0767E2,3.6760014E1,8.356076E2,6.431952E2,7.297388E2,1.2069888E3,4.7367902E2,4.8523216E1,2.7307438E1,4.390196E1,7.63768E2,1.1133033E1,2.562698E1,1.0502861E1,8.2510474E2,6.072754E2,3.5919785E1,1.8821126E2,5.415275E2,1.1780009E3,2.8987896E1],"tree_param":{"num_deleted":"0","num_feature":"234","num_nodes":"29","size_leaf_vector":"1"}},{"base_weights":[-4.9207937E-3,1.3215595E0,-8.031661E-1,1.0858915E0,1.5609193E0,-3.237791E-1,-1.1897707E0,3.424364E-1,1.1471823E0,1.1947107E0,1.6410258E0,-4.2105272E-1,2.7032658E-1,-1.1195974E0,-6.7326605E-2,2.4886377E-2,-1.6968869E-2,4.774263E-2,6.4476304E-2,1.1596351E-2,6.286114E-2,3.1329E-2,8.287415E-2,-2.9229304E-2,-1.2473332E-2,-1.8241731E-2,1.7678246E-2,-5.656899E-2,-2.6032602E-2],"categories":[],"categories_nodes":[],"categories_segments":[],"categories_sizes":[],"default_left":[0,0,0,0,0,0,0,0,0,0,0,0,0,0,0,0,0,0,0,0,0,0,0,0,0,0,0,0,0],"id":1,"left_children":[1,3,5,7,9,11,13,15,17,19,21,23,25,27,-1,-1,-1,-1,-1,-1,-1,-1,-1,-1,-1,-1,-1,-1,-1],"loss_changes":[5.139772E3,9.306494E1,5.5902527E2,3.99563E1,1.4952148E1,7.926816E1,9.658203E0,9.294695E0,1.6327393E1,8.6091E0,5.6447754E0,3.1733185E1,1.0882084E1,4.6203613E0,0E0,0E0,0E0,0E0,0E0,0E0,0E0,0E0,0E0,0E0,0E0,0E0,0E0,0E0,0E0],"parents":[2147483647,0,0,1,1,2,2,3,3,4,4,5,5,6,6,7,7,8,8,9,9,10,10,11,11,12,12,13,13],"right_children":[2,4,6,8,10,12,14,16,18,20,22,24,26,28,-1,-1,-1,-1,-1,-1,-1,-1,-1,-1,-1,-1,-1,-1,-1],"split_conditions":[1.5E0,2.45E-1,2.5E0,1.91E-1,3.3E0,7.06E-1,3.5E0,1.4444444E0,2.44E-1,-3.7777779E-1,4.9046323E-1,2.44E-1,3.7179E0,7.61E-1,-6.7326605E-2,2.4886377E-2,-1.6968869E-2,4.774263E-2,6.4476304E-2,1.1596351E-2,6.286114E-2,3.1329E-2,8.287415E-2,-2.9229304E-2,-1.2473332E-2,-1.8241731E-2,1.7678246E-2,-5.656899E-2,-2.6032602E-2],"split_indices":[157,108,157,108,14,227,157,31,121,160,152,108,86,227,0,0,0,0,0,0,0,0,0,0,0,0,0,0,0],"split_type":[0,0,0,0,0,0,0,0,0,0,0,0,0,0,0,0,0,0,0,0,0,0,0,0,0,0,0,0,0],"sum_hessian":[4.844309E3,1.8185079E3,3.0258013E3,9.313219E2,8.871861E2,1.3554872E3,1.6703141E3,7.4060844E1,8.5726105E2,1.7463776E2,7.1254834E2,1.1667516E3,1.887356E2,1.1841411E3,4.8617297E2,6.201867E1,1.2042172E1,3.8249725E2,4.747638E2,1.2571159E1,1.620666E2,1.4978853E1,6.9756946E2,5.8974E2,5.7701166E2,1.9212229E1,1.6952338E2,1.1561187E3,2.8022465E1],"tree_param":{"num_deleted":"0","num_feature":"234","num_nodes":"29","size_leaf_vector":"1"}},{"base_weights":[2.233691E-3,1.2369745E0,-7.7711517E-1,9.129745E-1,1.3771095E0,-3.1919163E-1,-1.1568326E0,3.3334297E-1,9.8517376E-1,1.2534542E0,1.5617492E0,-5.0879204E-1,-1.5425467E-2,-1.0898199E0,-6.562262E-2,2.9946987E-2,-1.0646316E-2,-0E0,5.081169E-2,6.346899E-2,1.4781657E-3,7.951209E-2,2.7070219E-2,-3.9001167E-2,-2.1106562E-2,-7.994328E-3,1.6640741E-2,-5.8677178E-2,-4.8458215E-2],"categories":[],"categories_nodes":[],"categories_segments":[],"categories_sizes":[],"default_left":[0,0,0,0,0,0,0,0,0,0,0,0,0,0,0,0,0,0,0,0,0,0,0,0,0,0,0,0,0],"id":2,"left_children":[1,3,5,7,9,11,13,15,17,19,21,23,25,27,-1,-1,-1,-1,-1,-1,-1,-1,-1,-1,-1,-1,-1,-1,-1],"loss_changes":[4.6306514E3,7.71189E1,5.1031018E2,2.1893982E1,1.8235352E1,7.714229E1,8.4375E0,1.1329603E1,1.568045E1,1.4735596E1,9.022217E0,1.718489E1,2.6485975E1,4.930908E0,0E0,0E0,0E0,0E0,0E0,0E0,0E0,0E0,0E0,0E0,0E0,0E0,0E0,0E0,0E0],"parents":[2147483647,0,0,1,1,2,2,3,3,4,4,5,5,6,6,7,7,8,8,9,9,10,10,11,11,12,12,13,13],"right_children":[2,4,6,8,10,12,14,16,18,20,22,24,26,28,-1,-1,-1,-1,-1,-1,-1,-1,-1,-1,-1,-1,-1,-1,-1],"split_conditions":[1.5E0,6.14E-1,2.5E0,1.91E-1,2.61E-1,2.57E-1,3.5E0,3.8940686E-1,2.78E1,5.0333333E-1,9.945219E-1,2.16E-1,7.04E-1,2.51E-1,-6.562262E-2,2.9946987E-2,-1.0646316E-2,-0E0,5.081169E-2,6.346899E-2,1.4781657E-3,7.951209E-2,2.7070219E-2,-3.9001167E-2,-2.1106562E-2,-7.994328E-3,1.6640741E-2,-5.8677178E-2,-4.8458215E-2],"split_indices":[157,227,157,108,108,108,157,97,142,18,53,108,227,108,0,0,0,0,0,0,0,0,0,0,0,0,0,0,0],"split_type":[0,0,0,0,0,0,0,0,0,0,0,0,0,0,0,0,0,0,0,0,0,0,0,0,0,0,0,0,0],"sum_hessian":[4.8018633E3,1.8571858E3,2.9446777E3,5.731572E2,1.2840286E3,1.3396431E3,1.6050347E3,6.7362946E1,5.057943E2,7.939576E2,4.90071E2,8.217279E2,5.179151E2,1.152134E3,4.529006E2,4.561708E1,2.1745869E1,1.5563155E1,4.9023114E2,7.831723E2,1.0785251E1,4.735643E2,1.6506706E1,1.8789124E2,6.338367E2,3.6898755E2,1.4892755E2,6.519595E2,5.0017456E2],"tree_param":{"num_deleted":"0","num_feature":"234","num_nodes":"29","size_leaf_vector":"1"}},{"base_weights":[8.715771E-4,-1.4723985E-1,1.0824753E-1,-2.0161873E-1,1.6317736E-1,7.267354E-2,4.7460893E-1,-1.4514416E-1,-4.5280817E-1,3.6840796E-2,4.9750876E-1,2.5174327E-2,3.2044324E-1,7.316617E-1,2.3704801E-1,-1.7250506E-2,-3.7822884E-3,-0E0,-2.532808E-2,-1.9372506E-2,8.069313E-3,-1.005076E-2,3.1887505E-2,7.275235E-3,-3.2477404E-3,3.406499E-2,5.3731888E-3,4.433129E-2,-0E0,-0E0,2.7547067E-2],"categories":[],"categories_nodes":[],"categories_segments":[],"categories_sizes":[],"default_left":[0,0,0,0,0,0,0,0,0,0,0,0,0,0,0,0,0,0,0,0,0,0,0,0,0,0,0,0,0,0,0],"id":3,"left_children":[1,3,5,7,9,11,13,15,17,19,21,23,25,27,29,-1,-1,-1,-1,-1,-1,-1,-1,-1,-1,-1,-1,-1,-1,-1,-1],"loss_changes":[7.643141E1,3.425453E1,3.5899326E1,2.378801E1,1.2408467E1,2.9786427E1,1.3589638E1,1.9302698E1,7.613312E0,1.2134711E1,8.834503E0,2.3362787E1,3.059193E1,1.2505089E1,9.999411E0,0E0,0E0,0E0,0E0,0E0,0E0,0E0,0E0,0E0,0E0,0E0,0E0,0E0,0E0,0E0,0E0],"parents":[2147483647,0,0,1,1,2,2,3,3,4,4,5,5,6,6,7,7,8,8,9,9,10,10,11,11,12,12,13,13,14,14],"right_children":[2,4,6,8,10,12,14,16,18,20,22,24,26,28,30,-1,-1,-1,-1,-1,-1,-1,-1,-1,-1,-1,-1,-1,-1,-1,-1],"split_conditions":[2.41E-1,2.76E-1,8E0,5.0830764E-1,8.54E1,4.63E1,8.4E0,2.23E-1,4.4924E0,2.415E-1,1.72E1,2.37E1,4.76E1,3.2E1,3.07E-1,-1.7250506E-2,-3.7822884E-3,-0E0,-2.532808E-2,-1.9372506E-2,8.069313E-3,-1.005076E-2,3.1887505E-2,7.275235E-3,-3.2477404E-3,3.406499E-2,5.3731888E-3,4.433129E-2,-0E0,-0E0,2.7547067E-2],"split_indices":[108,121,55,99,148,118,52,121,180,87,139,106,118,55,220,0,0,0,0,0,0,0,0,0,0,0,0,0,0,0,0],"split_type":[0,0,0,0,0,0,0,0,0,0,0,0,0,0,0,0,0,0,0,0,0,0,0,0,0,0,0,0,0,0,0],"sum_hessian":[4.797132E3,2.0133962E3,2.7837358E3,1.716128E3,2.9726813E2,2.544062E3,2.3967392E2,1.4091832E3,3.0694492E2,2.208574E2,7.641071E1,2.14112E3,4.029419E2,1.0910869E2,1.3056523E2,3.5661154E2,1.0525717E3,3.3021587E1,2.7392334E2,4.6812252E1,1.7404515E2,1.1817455E1,6.459326E1,9.1799335E2,1.2231267E3,1.4460013E2,2.5834177E2,8.861439E1,2.0494297E1,7.7525856E1,5.3039375E1],"tree_param":{"num_deleted":"0","num_feature":"234","num_nodes":"31","size_leaf_vector":"1"}},{"base_weights":[8.625527E-3,1.1622856E0,-7.4868953E-1,8.213903E-1,1.2801673E0,-3.003875E-1,-1.1310742E0,2.7655607E-1,9.1697454E-1,6.5868366E-1,1.3024952E0,-3.9045277E-1,2.0420311E-1,-1.0647837E0,-6.4235896E-2,4.1952666E-2,3.96485E-3,2.4074208E-2,5.316598E-2,-0E0,4.2611122E-2,5.9846368E-2,7.168466E-2,-2.989156E-2,-1.2946521E-2,1.5354377E-2,-1.935672E-2,-1.47178685E-2,-5.3571094E-2],"categories":[],"categories_nodes":[],"categories_segments":[],"categories_sizes":[],"default_left":[0,0,0,0,0,0,0,0,0,0,0,0,0,0,0,0,0,0,0,0,0,0,0,0,0,0,0,0,0],"id":4,"left_children":[1,3,5,7,9,11,13,15,17,19,21,23,25,27,-1,-1,-1,-1,-1,-1,-1,-1,-1,-1,-1,-1,-1,-1,-1],"loss_changes":[4.195523E3,7.017334E1,4.9448694E2,2.4385986E1,1.4214111E1,6.1468506E1,7.893921E0,8.436913E0,2.3810822E1,7.778221E0,8.796387E0,2.9920425E1,1.3066557E1,3.4816895E0,0E0,0E0,0E0,0E0,0E0,0E0,0E0,0E0,0E0,0E0,0E0,0E0,0E0,0E0,0E0],"parents":[2147483647,0,0,1,1,2,2,3,3,4,4,5,5,6,6,7,7,8,8,9,9,10,10,11,11,12,12,13,13],"right_children":[2,4,6,8,10,12,14,16,18,20,22,24,26,28,-1,-1,-1,-1,-1,-1,-1,-1,-1,-1,-1,-1,-1,-1,-1],"split_conditions":[1.5E0,2.26E-1,2.5E0,1.91E-1,4.025E-1,7.04E-1,3.5E0,2.6888888E0,2.29E-1,1.1533333E-1,2.6E-1,2.37E-1,7.1428575E-2,5.6E0,-6.4235896E-2,4.1952666E-2,3.96485E-3,2.4074208E-2,5.316598E-2,-0E0,4.2611122E-2,5.9846368E-2,7.168466E-2,-2.989156E-2,-1.2946521E-2,1.5354377E-2,-1.935672E-2,-1.47178685E-2,-5.3571094E-2],"split_indices":[157,108,157,108,175,227,157,37,121,221,108,108,206,136,0,0,0,0,0,0,0,0,0,0,0,0,0,0,0],"split_type":[0,0,0,0,0,0,0,0,0,0,0,0,0,0,0,0,0,0,0,0,0,0,0,0,0,0,0,0,0],"sum_hessian":[4.791888E3,1.8982164E3,2.8936719E3,4.9906915E2,1.3991472E3,1.3367369E3,1.5569349E3,7.81737E1,4.2089545E2,5.4588852E1,1.3445585E3,1.1360781E3,2.0065875E2,1.1176313E3,4.3930368E2,1.5414808E1,6.275889E1,1.12119514E2,3.0877594E2,1.328227E1,4.130658E1,7.75213E2,5.693454E2,4.3254004E2,7.0353815E2,1.736884E2,2.6970354E1,1.2127833E1,1.1055034E3],"tree_param":{"num_deleted":"0","num_feature":"234","num_nodes":"29","size_leaf_vector":"1"}},{"base_weights":[3.2797638E-5,1.0658243E0,-7.160191E-1,9.371111E-1,1.3418676E0,-2.613597E-1,-1.1129912E0,2.9065493E-1,9.7746783E-1,1.0654263E0,1.4352484E0,-3.920032E-1,6.490801E-2,-1.0462651E0,-6.3423835E-2,-7.6537454E-3,2.859934E-2,3.6060315E-2,5.2087486E-2,5.232549E-3,5.6703027E-2,7.3263906E-2,2.7918208E-2,-3.4592804E-2,-1.5451701E-2,-6.544391E-3,1.8852448E-2,-3.9764524E-2,-5.386726E-2],"categories":[],"categories_nodes":[],"categories_segments":[],"categories_sizes":[],"default_left":[0,0,0,0,0,0,0,0,0,0,0,0,0,0,0,0,0,0,0,0,0,0,0,0,0,0,0,0,0],"id":5,"left_children":[1,3,5,7,9,11,13,15,17,19,21,23,25,27,-1,-1,-1,-1,-1,-1,-1,-1,-1,-1,-1,-1,-1,-1,-1],"loss_changes":[3.667269E3,6.119165E1,5.165532E2,3.277246E1,6.627075E0,5.7694305E1,8.102783E0,1.1418548E1,1.6013184E1,1.0168533E1,6.3189087E0,2.2399948E1,2.4098646E1,3.3823242E0,0E0,0E0,0E0,0E0,0E0,0E0,0E0,0E0,0E0,0E0,0E0,0E0,0E0,0E0,0E0],"parents":[2147483647,0,0,1,1,2,2,3,3,4,4,5,5,6,6,7,7,8,8,9,9,10,10,11,11,12,12,13,13],"right_children":[2,4,6,8,10,12,14,16,18,20,22,24,26,28,-1,-1,-1,-1,-1,-1,-1,-1,-1,-1,-1,-1,-1,-1,-1],"split_conditions":[1.5E0,2.6E-1,2.5E0,1.91E-1,3.4285715E0,2.66E-1,3.5E0,7.532E0,5.92E-1,6.5E0,1.27E1,5.91E-1,4.28E1,2.74E1,-6.3423835E-2,-7.6537454E-3,2.859934E-2,3.6060315E-2,5.2087486E-2,5.232549E-3,5.6703027E-2,7.3263906E-2,2.7918208E-2,-3.4592804E-2,-1.5451701E-2,-6.544391E-3,1.8852448E-2,-3.9764524E-2,-5.386726E-2],"split_indices":[157,108,157,108,14,108,157,180,227,58,224,227,118,131,0,0,0,0,0,0,0,0,0,0,0,0,0,0,0],"split_type":[0,0,0,0,0,0,0,0,0,0,0,0,0,0,0,0,0,0,0,0,0,0,0,0,0,0,0,0,0],"sum_hessian":[4.7951323E3,1.926272E3,2.8688606E3,1.3299362E3,5.9633575E2,1.3417181E3,1.5271425E3,8.128412E1,1.2486521E3,1.675951E2,4.2874063E2,9.584589E2,3.8325922E2,1.0978597E3,4.292827E2,3.173399E1,4.9550133E1,2.6421716E2,9.8443494E2,1.2501508E1,1.5509358E2,4.107489E2,1.7991734E1,1.9846854E2,7.599904E2,2.3632303E2,1.4693619E2,1.3739731E2,9.604624E2],"tree_param":{"num_deleted":"0","num_feature":"234","num_nodes":"29","size_leaf_vector":"1"}},{"base_weights":[3.130943E-3,1.0031708E0,-6.9030225E-1,8.9505154E-1,1.2677543E0,-2.5807652E-1,-1.0755459E0,2.830047E-1,9.292229E-1,1.3137304E0,7.748525E-1,-4.0630624E-1,-1.596649E-2,-1.0041497E0,-6.218499E-2,-0E0,2.7355418E-2,2.412291E-3,4.7111742E-2,6.6668145E-2,1.8063199E-2,7.4499208E-3,5.129782E-2,-2.3670819E-2,3.333267E-4,-5.9518623E-3,1.7680394E-2,-1.1890851E-2,-5.058055E-2],"categories":[],"categories_nodes":[],"categories_segments":[],"categories_sizes":[],"default_left":[0,0,0,0,0,0,0,0,0,0,0,0,0,0,0,0,0,0,0,0,0,0,0,0,0,0,0,0,0],"id":6,"left_children":[1,3,5,7,9,11,13,15,17,19,21,23,25,27,-1,-1,-1,-1,-1,-1,-1,-1,-1,-1,-1,-1,-1,-1,-1],"loss_changes":[3.2849468E3,4.8738525E1,4.6366772E2,2.726477E1,6.3164062E0,4.731794E1,1.0359741E1,6.361265E0,1.4394409E1,5.98938E0,8.076107E0,2.298973E1,1.9510897E1,4.2593994E0,0E0,0E0,0E0,0E0,0E0,0E0,0E0,0E0,0E0,0E0,0E0,0E0,0E0,0E0,0E0],"parents":[2147483647,0,0,1,1,2,2,3,3,4,4,5,5,6,6,7,7,8,8,9,9,10,10,11,11,12,12,13,13],"right_children":[2,4,6,8,10,12,14,16,18,20,22,24,26,28,-1,-1,-1,-1,-1,-1,-1,-1,-1,-1,-1,-1,-1,-1,-1],"split_conditions":[1.5E0,2.62E-1,2.5E0,1.91E-1,1.6666667E-1,2.58E-1,3.5E0,3.4E-1,9.556998E-1,1.172381E-1,3.89E-1,2.76E-1,4.64E-1,1.81E1,-6.218499E-2,-0E0,2.7355418E-2,2.412291E-3,4.7111742E-2,6.6668145E-2,1.8063199E-2,7.4499208E-3,5.129782E-2,-2.3670819E-2,3.333267E-4,-5.9518623E-3,1.7680394E-2,-1.1890851E-2,-5.058055E-2],"split_indices":[157,108,157,108,17,108,157,79,153,207,122,121,122,131,0,0,0,0,0,0,0,0,0,0,0,0,0,0,0],"split_type":[0,0,0,0,0,0,0,0,0,0,0,0,0,0,0,0,0,0,0,0,0,0,0,0,0,0,0,0,0],"sum_hessian":[4.7268145E3,1.9348883E3,2.791926E3,1.3904852E3,5.4440314E2,1.32028E3,1.471646E3,7.675521E1,1.31373E3,4.8941168E2,5.4991444E1,8.1552563E2,5.0475436E2,1.0595883E3,4.1205774E2,3.8627953E1,3.8127262E1,2.0023159E1,1.2937068E3,4.7705408E2,1.2357604E1,1.8597326E1,3.639412E1,7.019364E2,1.13589226E2,3.983897E2,1.0636465E2,1.2448012E1,1.0471403E3],"tree_param":{"num_deleted":"0","num_feature":"234","num_nodes":"29","size_leaf_vector":"1"}},{"base_weights":[1.0677448E-3,9.4364005E-1,-6.7698246E-1,6.776315E-1,1.0564966E0,-2.5490358E-1,-1.0577159E0,2.674388E-1,7.4965996E-1,1.0150781E0,1.4781364E0,-3.7509847E-1,3.970779E-2,-9.876388E-1,-6.1275788E-2,2.5261715E-2,-7.5771953E-3,3.875963E-2,-0E0,6.5532075E-3,5.129686E-2,7.976387E-2,3.6582336E-2,-2.1455785E-2,-1.0445531E-3,-1.2699495E-2,1.1999722E-2,-5.3742345E-2,-4.3522775E-2],"categories":[],"categories_nodes":[],"categories_segments":[],"categories_sizes":[],"default_left":[0,0,0,0,0,0,0,0,0,0,0,0,0,0,0,0,0,0,0,0,0,0,0,0,0,0,0,0,0],"id":7,"left_children":[1,3,5,7,9,11,13,15,17,19,21,23,25,27,-1,-1,-1,-1,-1,-1,-1,-1,-1,-1,-1,-1,-1,-1,-1],"loss_changes":[3.024849E3,5.5006958E1,4.40286E2,1.636969E1,1.5354858E1,4.6718056E1,9.830811E0,1.0443754E1,9.960205E0,1.0977295E1,2.7431946E0,1.7597961E1,2.2863846E1,5.0493164E0,0E0,0E0,0E0,0E0,0E0,0E0,0E0,0E0,0E0,0E0,0E0,0E0,0E0,0E0,0E0],"parents":[2147483647,0,0,1,1,2,2,3,3,4,4,5,5,6,6,7,7,8,8,9,9,10,10,11,11,12,12,13,13],"right_children":[2,4,6,8,10,12,14,16,18,20,22,24,26,28,-1,-1,-1,-1,-1,-1,-1,-1,-1,-1,-1,-1,-1,-1,-1],"split_conditions":[1.5E0,6.14E-1,2.5E0,1.95E-1,2.92E-1,2.66E-1,3.5E0,3.9195812E-1,3.35E-1,7E1,4.5E-1,2.76E-1,8.2E0,2.49E-1,-6.1275788E-2,2.5261715E-2,-7.5771953E-3,3.875963E-2,-0E0,6.5532075E-3,5.129686E-2,7.976387E-2,3.6582336E-2,-2.1455785E-2,-1.0445531E-3,-1.2699495E-2,1.1999722E-2,-5.3742345E-2,-4.3522775E-2],"split_indices":[157,227,157,108,108,108,157,97,81,148,94,121,117,108,0,0,0,0,0,0,0,0,0,0,0,0,0,0,0],"split_type":[0,0,0,0,0,0,0,0,0,0,0,0,0,0,0,0,0,0,0,0,0,0,0,0,0,0,0,0,0],"sum_hessian":[4.722692E3,1.9754102E3,2.7472815E3,6.001885E2,1.3752217E3,1.3074788E3,1.4398029E3,9.4205696E1,5.0598276E2,1.2688074E3,1.064144E2,9.2885693E2,3.7862183E2,1.0420338E3,3.9776895E2,6.0201904E1,3.400379E1,4.894513E2,1.6531446E1,1.674839E1,1.252059E3,8.648759E1,1.9926817E1,8.038061E2,1.2505083E2,1.51957E2,2.2666484E2,5.7155365E2,4.704802E2],"tree_param":{"num_deleted":"0","num_feature":"234","num_nodes":"29","size_leaf_vector":"1"}},{"base_weights":[9.135745E-3,-1.5535086E-1,6.3374296E-2,-4.2363298E-1,-9.899611E-2,2.660249E-1,2.8110418E-2,9.039509E-3,-4.7518876E-1,1.8809484E-1,-1.4245212E-1,3.1921044E-1,-2.618966E-1,-5.483307E-3,3.3872095E-1,-5.5078035E-3,-2.7604623E-2,-1.4413268E-3,3.17903E-2,1.5084619E-2,-8.336199E-3,1.909001E-2,-2.7158298E-3,-3.338855E-2,1.6425105E-2,-4.846908E-3,4.1284463E-3,4.0361438E-2,1.2597839E-2],"categories":[],"categories_nodes":[],"categories_segments":[],"categories_sizes":[],"default_left":[0,0,0,0,0,0,0,0,0,0,0,0,0,0,0,0,0,0,0,0,0,0,0,0,0,0,0,0,0],"id":8,"left_children":[1,3,5,7,9,11,13,-1,15,17,19,21,23,25,27,-1,-1,-1,-1,-1,-1,-1,-1,-1,-1,-1,-1,-1,-1],"loss_changes":[4.1939022E1,1.7139257E1,2.5118572E1,6.7820206E0,1.2220764E1,1.5106628E1,3.1726112E1,0E0,4.575653E0,1.2850534E1,9.3191185E0,1.1429638E1,1.316946E1,2.2047401E1,1.051149E1,0E0,0E0,0E0,0E0,0E0,0E0,0E0,0E0,0E0,0E0,0E0,0E0,0E0,0E0],"parents":[2147483647,0,0,1,1,2,2,3,3,4,4,5,5,6,6,8,8,9,9,10,10,11,11,12,12,13,13,14,14],"right_children":[2,4,6,8,10,12,14,-1,16,18,20,22,24,26,28,-1,-1,-1,-1,-1,-1,-1,-1,-1,-1,-1,-1,-1,-1],"split_conditions":[2.27E-1,5.54E-1,1.99E1,7.3125E-1,2.1174603E0,1.1535952E1,9E0,9.039509E-3,5.555556E-1,5.135075E0,1.82E-2,2.7800777E0,4.1463003E0,4.15E-1,1E-1,-5.5078035E-3,-2.7604623E-2,-1.4413268E-3,3.17903E-2,1.5084619E-2,-8.336199E-3,1.909001E-2,-2.7158298E-3,-3.338855E-2,1.6425105E-2,-4.846908E-3,4.1284463E-3,4.0361438E-2,1.2597839E-2],"split_indices":[108,227,106,45,36,39,55,0,74,153,88,175,36,122,144,0,0,0,0,0,0,0,0,0,0,0,0,0,0],"split_type":[0,0,0,0,0,0,0,0,0,0,0,0,0,0,0,0,0,0,0,0,0,0,0,0,0,0,0,0,0],"sum_hessian":[4.695523E3,1.1597788E3,3.5357441E3,1.9413278E2,9.65646E2,5.171196E2,3.0186245E3,1.3510341E1,1.8062245E2,1.2325007E2,8.4239594E2,4.7244675E2,4.4672905E1,2.7269917E3,2.9163266E2,3.4678802E1,1.4594365E2,8.542293E1,3.7827145E1,3.9621597E1,8.0277435E2,4.0569473E2,6.6752014E1,2.6587051E1,1.8085855E1,1.3401882E3,1.3868036E3,3.8181175E1,2.5345149E2],"tree_param":{"num_deleted":"0","num_feature":"234","num_nodes":"29","size_leaf_vector":"1"}},{"base_weights":[-5.4794056E-3,8.806349E-1,-6.565006E-1,6.8125015E-1,9.7848606E-1,-2.3857293E-1,-1.0436234E0,1.0357124E-1,7.201395E-1,2.2372481E-1,9.9293506E-1,-4.8643145E-1,-1.1502521E-1,-9.7501975E-1,-6.034263E-2,-1.4505954E-2,1.7641526E-2,3.684093E-2,-2.9518378E-3,-2.2620566E-2,3.9675575E-2,1.9540219E-2,5.047034E-2,-2.6594264E-2,1.52980285E-2,-7.9887165E-3,1.6241986E-2,-4.9606483E-2,-2.4431909E-2],"categories":[],"categories_nodes":[],"categories_segments":[],"categories_sizes":[],"default_left":[0,0,0,0,0,0,0,0,0,0,0,0,0,0,0,0,0,0,0,0,0,0,0,0,0,0,0,0,0],"id":9,"left_children":[1,3,5,7,9,11,13,15,17,19,21,23,25,27,-1,-1,-1,-1,-1,-1,-1,-1,-1,-1,-1,-1,-1,-1,-1],"loss_changes":[2.709572E3,3.46438E1,4.3625073E2,1.4333374E1,1.2688477E1,3.9514145E1,8.744751E0,5.3610415E0,8.728912E0,1.4262949E1,1.0163452E1,1.650953E1,1.753149E1,5.295227E0,0E0,0E0,0E0,0E0,0E0,0E0,0E0,0E0,0E0,0E0,0E0,0E0,0E0,0E0,0E0],"parents":[2147483647,0,0,1,1,2,2,3,3,4,4,5,5,6,6,7,7,8,8,9,9,10,10,11,11,12,12,13,13],"right_children":[2,4,6,8,10,12,14,16,18,20,22,24,26,28,-1,-1,-1,-1,-1,-1,-1,-1,-1,-1,-1,-1,-1,-1,-1],"split_conditions":[1.5E0,2.34E-1,2.5E0,3.4444E0,4.9046323E-1,2.37E-1,3.5E0,-4.539905E-1,1.2352941E0,4.99E1,3E-1,3.78E-1,2.96E-1,4.251E1,-6.034263E-2,-1.4505954E-2,1.7641526E-2,3.684093E-2,-2.9518378E-3,-2.2620566E-2,3.9675575E-2,1.9540219E-2,5.047034E-2,-2.6594264E-2,1.52980285E-2,-7.9887165E-3,1.6241986E-2,-4.9606483E-2,-2.4431909E-2],"split_indices":[157,108,157,86,152,108,157,54,4,120,28,123,108,173,0,0,0,0,0,0,0,0,0,0,0,0,0,0,0],"split_type":[0,0,0,0,0,0,0,0,0,0,0,0,0,0,0,0,0,0,0,0,0,0,0,0,0,0,0,0,0],"sum_hessian":[4.687132E3,1.9840634E3,2.7030686E3,6.6794885E2,1.3161145E3,1.3043259E3,1.3987428E3,4.4096344E1,6.2385254E2,2.6920374E1,1.2891941E3,4.276505E2,8.7667535E2,1.0115336E3,3.872092E2,1.599989E1,2.8096453E1,6.1167255E2,1.2179972E1,1.2380981E1,1.4539392E1,3.8428005E1,1.2507661E3,4.066015E2,2.1049007E1,7.99645E2,7.703039E1,9.7114374E2,4.0389885E1],"tree_param":{"num_deleted":"0","num_feature":"234","num_nodes":"29","size_leaf_vector":"1"}},{"base_weights":[-5.432158E-3,8.2888037E-1,-6.3774896E-1,8.9095354E-1,5.669349E-1,-2.3755883E-1,-1.0131007E0,4.633653E-1,9.258753E-1,1.8610372E-1,6.798922E-1,-3.5669574E-1,-6.034592E-2,-9.448918E-1,-5.8699038E-2,3.5111208E-2,7.7426815E-3,4.1242167E-2,5.1700544E-2,-3.7568246E-4,3.256424E-2,3.9456677E-2,1.8591985E-2,-4.8584348E-4,-2.009674E-2,-8.41815E-3,1.2825442E-2,-4.81013E-2,-1.9194407E-2],"categories":[],"categories_nodes":[],"categories_segments":[],"categories_sizes":[],"default_left":[0,0,0,0,0,0,0,0,0,0,0,0,0,0,0,0,0,0,0,0,0,0,0,0,0,0,0,0,0],"id":10,"left_children":[1,3,5,7,9,11,13,15,17,19,21,23,25,27,-1,-1,-1,-1,-1,-1,-1,-1,-1,-1,-1,-1,-1,-1,-1],"loss_changes":[2.4540515E3,2.9351196E1,3.9573083E2,2.1213867E1,1.611792E1,2.6879448E1,8.356812E0,8.807812E0,1.10095215E1,9.287737E0,8.2222595E0,1.1823235E1,1.8159155E1,6.9521484E0,0E0,0E0,0E0,0E0,0E0,0E0,0E0,0E0,0E0,0E0,0E0,0E0,0E0,0E0,0E0],"parents":[2147483647,0,0,1,1,2,2,3,3,4,4,5,5,6,6,7,7,8,8,9,9,10,10,11,11,12,12,13,13],"right_children":[2,4,6,8,10,12,14,16,18,20,22,24,26,28,-1,-1,-1,-1,-1,-1,-1,-1,-1,-1,-1,-1,-1,-1,-1],"split_conditions":[1.5E0,1.17E2,2.5E0,3E0,1.67E-2,3.29E-1,3.5E0,1.476E-1,2.5E-1,3.45E-1,9E-1,2.02E1,1.05E1,5.9461E-1,-5.8699038E-2,3.5111208E-2,7.7426815E-3,4.1242167E-2,5.1700544E-2,-3.7568246E-4,3.256424E-2,3.9456677E-2,1.8591985E-2,-4.8584348E-4,-2.009674E-2,-8.41815E-3,1.2825442E-2,-4.81013E-2,-1.9194407E-2],"split_indices":[157,106,157,14,90,110,157,89,121,123,28,106,117,172,0,0,0,0,0,0,0,0,0,0,0,0,0,0,0],"split_type":[0,0,0,0,0,0,0,0,0,0,0,0,0,0,0,0,0,0,0,0,0,0,0,0,0,0,0,0,0],"sum_hessian":[4.641962E3,2.0003062E3,2.6416558E3,1.6058524E3,3.9445383E2,1.2831217E3,1.358534E3,1.2771759E2,1.4781348E3,9.427466E1,3.0017917E2,7.625728E2,5.205489E2,9.8036096E2,3.7817307E2,6.747495E1,6.0242638E1,7.888595E2,6.8927527E2,6.928238E1,2.4992277E1,2.1463423E2,8.554495E1,8.9931786E1,6.72641E2,3.911317E2,1.2941718E2,9.4697314E2,3.338776E1],"tree_param":{"num_deleted":"0","num_feature":"234","num_nodes":"29","size_leaf_vector":"1"}},{"base_weights":[-7.6844206E-4,7.948793E-1,-6.153099E-1,5.8681023E-1,8.8517106E-1,-2.1878721E-1,-1.0008053E0,1.5204856E-1,6.4427996E-1,8.929133E-1,6.919308E-4,-4.7570655E-1,-1.0037336E-1,-9.275749E-1,-5.898219E-2,-6.5147504E-3,2.1882027E-2,2.0674776E-2,3.8789943E-2,4.272291E-2,5.8921892E-2,-4.2567242E-2,-1.94862E-2,-8.643376E-3,1.0315265E-2,-6.423745E-3,-4.6758052E-2],"categories":[],"categories_nodes":[],"categories_segments":[],"categories_sizes":[],"default_left":[0,0,0,0,0,0,0,0,0,0,0,0,0,0,0,0,0,0,0,0,0,0,0,0,0,0,0],"id":11,"left_children":[1,3,5,7,9,11,13,15,17,19,-1,21,23,25,-1,-1,-1,-1,-1,-1,-1,-1,-1,-1,-1,-1,-1],"loss_changes":[2.2566873E3,3.444763E1,3.9640778E2,1.4730392E1,8.868042E0,3.874627E1,1.0743774E1,6.9333034E0,1.4481689E1,9.079346E0,0E0,1.0788414E1,1.9977535E1,4.6922607E0,0E0,0E0,0E0,0E0,0E0,0E0,0E0,0E0,0E0,0E0,0E0,0E0,0E0],"parents":[2147483647,0,0,1,1,2,2,3,3,4,4,5,5,6,6,7,7,8,8,9,9,11,11,12,12,13,13],"right_children":[2,4,6,8,10,12,14,16,18,20,-1,22,24,26,-1,-1,-1,-1,-1,-1,-1,-1,-1,-1,-1,-1,-1],"split_conditions":[1.5E0,6.14E-1,2.5E0,3.73E1,3E0,2.35E-1,3.5E0,6.6868204E-1,2.76E-1,2.86E-1,6.919308E-4,5.63E-1,7.08E-1,1.81E1,-5.898219E-2,-6.5147504E-3,2.1882027E-2,2.0674776E-2,3.8789943E-2,4.272291E-2,5.8921892E-2,-4.2567242E-2,-1.94862E-2,-8.643376E-3,1.0315265E-2,-6.423745E-3,-4.6758052E-2],"split_indices":[157,227,157,142,127,108,157,177,110,108,0,227,227,131,0,0,0,0,0,0,0,0,0,0,0,0,0],"split_type":[0,0,0,0,0,0,0,0,0,0,0,0,0,0,0,0,0,0,0,0,0,0,0,0,0,0,0],"sum_hessian":[4.605476E3,2.0060103E3,2.5994656E3,6.200938E2,1.3859165E3,1.2859081E3,1.3135575E3,7.554212E1,5.445517E2,1.3730189E3,1.2897551E1,3.9959924E2,8.863088E2,9.558768E2,3.5768073E2,3.8473927E1,3.7068195E1,2.0657799E2,3.379737E2,1.2291838E3,1.4383507E2,6.5057205E1,3.3454202E2,7.1993835E2,1.6637044E2,1.0452263E1,9.4542456E2],"tree_param":{"num_deleted":"0","num_feature":"234","num_nodes":"27","size_leaf_vector":"1"}},{"base_weights":[-6.1628483E-3,-1.6772728E-1,4.07688E-2,-4.0717825E-1,-1.1386374E-1,-8.287126E-3,2.0527025E-1,-4.815167E-2,-5.496267E-1,3.986052E-2,-1.9785163E-1,8.795126E-3,-3.8452408E-1,2.7116203E-1,-1.16436735E-1,1.6435666E-2,-1.4475572E-2,-0E0,-3.063885E-2,-6.8290285E-3,1.1822923E-2,2.5065703E-2,-1.1337037E-2,5.1155025E-3,-2.7397142E-3,6.7430697E-3,-2.4591815E-2,-1.2236496E-3,1.8113365E-2,-2.2385694E-2,9.639396E-3],"categories":[],"categories_nodes":[],"categories_segments":[],"categories_sizes":[],"default_left":[0,0,0,0,0,0,0,0,0,0,0,0,0,0,0,0,0,0,0,0,0,0,0,0,0,0,0,0,0,0,0],"id":12,"left_children":[1,3,5,7,9,11,13,15,17,19,21,23,25,27,29,-1,-1,-1,-1,-1,-1,-1,-1,-1,-1,-1,-1,-1,-1,-1,-1],"loss_changes":[3.504158E1,1.2930689E1,2.8938446E1,9.156607E0,1.1199406E1,1.7908138E1,1.7685959E1,5.8892903E0,4.9057846E0,1.0801534E1,1.1700953E1,1.5741935E1,7.25511E0,1.869188E1,1.51214905E1,0E0,0E0,0E0,0E0,0E0,0E0,0E0,0E0,0E0,0E0,0E0,0E0,0E0,0E0,0E0,0E0],"parents":[2147483647,0,0,1,1,2,2,3,3,4,4,5,5,6,6,7,7,8,8,9,9,10,10,11,11,12,12,13,13,14,14],"right_children":[2,4,6,8,10,12,14,16,18,20,22,24,26,28,30,-1,-1,-1,-1,-1,-1,-1,-1,-1,-1,-1,-1,-1,-1,-1,-1],"split_conditions":[2.25E-1,5.54E-1,3.5E-1,3.2464287E-1,6.5E-1,9.8768836E-1,2.3587983E0,-6.739E-1,9.3E0,3.7143E0,7.6E0,3.8032696E-1,2.7967792E0,8.104528E0,4.33E-1,1.6435666E-2,-1.4475572E-2,-0E0,-3.063885E-2,-6.8290285E-3,1.1822923E-2,2.5065703E-2,-1.1337037E-2,5.1155025E-3,-2.7397142E-3,6.7430697E-3,-2.4591815E-2,-1.2236496E-3,1.8113365E-2,-2.2385694E-2,9.639396E-3],"split_indices":[108,227,123,174,4,53,176,194,140,86,129,97,49,50,172,0,0,0,0,0,0,0,0,0,0,0,0,0,0,0,0],"split_type":[0,0,0,0,0,0,0,0,0,0,0,0,0,0,0,0,0,0,0,0,0,0,0,0,0,0,0,0,0,0,0],"sum_hessian":[4.6035044E3,1.0357319E3,3.5677722E3,1.8247174E2,8.5326025E2,2.749541E3,8.1823114E2,5.4730175E1,1.2774157E2,3.0029666E2,5.5296356E2,2.6335256E3,1.1601556E2,6.8107385E2,1.3715727E2,1.9851833E1,3.487834E1,1.2885003E1,1.1485657E2,1.5772557E2,1.4257109E2,1.8010317E1,5.3495325E2,1.0678937E3,1.5656318E3,1.8848225E1,9.716733E1,1.6001064E2,5.210632E2,6.5917015E1,7.1240265E1],"tree_param":{"num_deleted":"0","num_feature":"234","num_nodes":"31","size_leaf_vector":"1"}},{"base_weights":[1.4556652E-3,-1.656866E-1,5.8061603E-2,-1.9730121E-1,1.8695554E-1,1.24065585E-1,-8.307767E-2,-2.1163309E-1,2.3195805E-2,3.627219E-1,-2.3436041E-1,-8.075101E-2,1.7081733E-1,-1.3358909E-1,2.4172115E-1,8.180686E-3,-1.2009043E-2,2.9092694E-2,-3.2428594E-3,3.8188756E-3,-2.1820253E-2,1.5063024E-3,-2.218845E-2,3.0481532E-2,7.0828036E-3,1.5256563E-2,-8.5079055E-3,5.646965E-3,4.4388708E-2],"categories":[],"categories_nodes":[],"categories_segments":[],"categories_sizes":[],"default_left":[0,0,0,0,0,0,0,0,0,0,0,0,0,0,0,0,0,0,0,0,0,0,0,0,0,0,0,0,0],"id":13,"left_children":[1,3,5,7,9,11,13,15,-1,17,19,21,23,25,27,-1,-1,-1,-1,-1,-1,-1,-1,-1,-1,-1,-1,-1,-1],"loss_changes":[4.3528732E1,1.3157196E1,3.214794E1,1.0515873E1,7.6697283E0,2.2621033E1,1.8116585E1,1.151112E1,0E0,7.120261E0,2.276866E0,1.7912264E1,2.3726364E1,1.5506214E1,1.1327256E1,0E0,0E0,0E0,0E0,0E0,0E0,0E0,0E0,0E0,0E0,0E0,0E0,0E0,0E0],"parents":[2147483647,0,0,1,1,2,2,3,3,4,4,5,5,6,6,7,7,9,9,10,10,11,11,12,12,13,13,14,14],"right_children":[2,4,6,8,10,12,14,16,-1,18,20,22,24,26,28,-1,-1,-1,-1,-1,-1,-1,-1,-1,-1,-1,-1,-1,-1],"split_conditions":[6.08E-1,1E1,4.7565788E-1,7.02E1,6.4278764E-1,7.5E0,1.73E1,4.1666666E-1,2.3195805E-2,8.89E1,5.25E0,1.022E2,2.4997153E0,2.21E1,4.54E1,8.180686E-3,-1.2009043E-2,2.9092694E-2,-3.2428594E-3,3.8188756E-3,-2.1820253E-2,1.5063024E-3,-2.218845E-2,3.0481532E-2,7.0828036E-3,1.5256563E-2,-8.5079055E-3,5.646965E-3,4.4388708E-2],"split_indices":[227,55,99,137,54,58,141,4,0,102,59,105,49,135,118,0,0,0,0,0,0,0,0,0,0,0,0,0,0],"split_type":[0,0,0,0,0,0,0,0,0,0,0,0,0,0,0,0,0,0,0,0,0,0,0,0,0,0,0,0,0],"sum_hessian":[4.596344E3,1.1581543E3,3.4381897E3,1.0661901E3,9.196426E1,2.3454731E3,1.0927164E3,1.0476384E3,1.85517E1,6.622032E1,2.574394E1,4.3322208E2,1.9122511E3,9.495319E2,1.4318451E2,7.115602E1,9.7648236E2,4.3362564E1,2.2857758E1,1.0393803E1,1.5350138E1,3.3431845E2,9.890361E1,1.1188917E2,1.8003619E3,6.918024E1,8.803517E2,1.2492951E2,1.8254993E1],"tree_param":{"num_deleted":"0","num_feature":"234","num_nodes":"29","size_leaf_vector":"1"}},{"base_weights":[-5.9721065E-3,7.31279E-1,-5.9017706E-1,5.4751074E-1,8.22419E-1,-2.0938976E-1,-9.681336E-1,6.826405E-2,5.925453E-1,2.6641756E-1,8.421995E-1,-2.7947125E-1,1.8874039E-1,-8.920172E-1,-5.7566803E-2,3.4572147E-2,-5.4358174E-3,3.136169E-2,7.5650685E-3,-2.030466E-2,2.5220737E-2,5.7495113E-2,3.991853E-2,-2.0182066E-2,-6.659157E-3,-1.7339837E-2,1.4523411E-2,-3.3808183E-2,-4.7390766E-2],"categories":[],"categories_nodes":[],"categories_segments":[],"categories_sizes":[],"default_left":[0,0,0,0,0,0,0,0,0,0,0,0,0,0,0,0,0,0,0,0,0,0,0,0,0,0,0,0,0],"id":14,"left_children":[1,3,5,7,9,11,13,15,17,19,21,23,25,27,-1,-1,-1,-1,-1,-1,-1,-1,-1,-1,-1,-1,-1,-1,-1],"loss_changes":[1.9866584E3,3.1212158E1,3.6882587E2,1.4418243E1,1.3183899E1,3.627846E1,1.1827515E1,7.9583397E0,8.803864E0,9.812393E0,1.1988892E1,1.9430717E1,1.109214E1,7.247986E0,0E0,0E0,0E0,0E0,0E0,0E0,0E0,0E0,0E0,0E0,0E0,0E0,0E0,0E0,0E0],"parents":[2147483647,0,0,1,1,2,2,3,3,4,4,5,5,6,6,7,7,8,8,9,9,10,10,11,11,12,12,13,13],"right_children":[2,4,6,8,10,12,14,16,18,20,22,24,26,28,-1,-1,-1,-1,-1,-1,-1,-1,-1,-1,-1,-1,-1,-1,-1],"split_conditions":[1.5E0,2.34E-1,2.5E0,1.83E-1,9.4736844E-1,7.06E-1,3.5E0,3.87E1,4E-1,3.2E-2,-1.4E0,2.47E-1,3.27E-1,2.37E1,-5.7566803E-2,3.4572147E-2,-5.4358174E-3,3.136169E-2,7.5650685E-3,-2.030466E-2,2.5220737E-2,5.7495113E-2,3.991853E-2,-2.0182066E-2,-6.659157E-3,-1.7339837E-2,1.4523411E-2,-3.3808183E-2,-4.7390766E-2],"split_indices":[157,108,157,108,156,227,157,125,204,221,127,108,123,105,0,0,0,0,0,0,0,0,0,0,0,0,0,0,0],"split_type":[0,0,0,0,0,0,0,0,0,0,0,0,0,0,0,0,0,0,0,0,0,0,0,0,0,0,0,0,0],"sum_hessian":[4.6027188E3,2.0338895E3,2.5688293E3,6.8772723E2,1.3461624E3,1.2841523E3,1.284677E3,6.1108368E1,6.2661884E2,4.9599968E1,1.2965624E3,1.0942766E3,1.898757E2,9.302526E2,3.5442438E2,1.0926163E1,5.0182205E1,5.7794293E2,4.867591E1,1.1492678E1,3.810729E1,1.445006E2,1.1520618E3,5.852768E2,5.0899982E2,2.76028E1,1.622729E2,2.0638986E2,7.2386273E2],"tree_param":{"num_deleted":"0","num_feature":"234","num_nodes":"29","size_leaf_vector":"1"}},{"base_weights":[9.352122E-4,6.965464E-1,-5.612841E-1,6.1722654E-1,8.703163E-1,-1.9134955E-1,-9.396954E-1,8.1877404E-1,5.5593383E-1,6.988421E-1,9.9936056E-1,-3.1759262E-1,2.8445518E-3,-8.617577E-1,-5.6591243E-2,2.3337645E-3,4.3154214E-2,1.9778542E-2,3.1206777E-2,1.9393124E-2,4.34951E-2,3.761048E-3,5.187368E-2,-3.8081553E-2,-1.3610238E-2,-4.0317215E-3,1.6747763E-2,-3.1992305E-2,-4.5987513E-2],"categories":[],"categories_nodes":[],"categories_segments":[],"categories_sizes":[],"default_left":[0,0,0,0,0,0,0,0,0,0,0,0,0,0,0,0,0,0,0,0,0,0,0,0,0,0,0,0,0],"id":15,"left_children":[1,3,5,7,9,11,13,15,17,19,21,23,25,27,-1,-1,-1,-1,-1,-1,-1,-1,-1,-1,-1,-1,-1,-1,-1],"loss_changes":[1.7857699E3,2.4706299E1,3.519649E2,1.4587219E1,9.501617E0,3.163036E1,1.2785767E1,1.0251205E1,1.0361786E1,1.2947128E1,1.1157867E1,1.4156647E1,1.43766165E1,7.9797974E0,0E0,0E0,0E0,0E0,0E0,0E0,0E0,0E0,0E0,0E0,0E0,0E0,0E0,0E0,0E0],"parents":[2147483647,0,0,1,1,2,2,3,3,4,4,5,5,6,6,7,7,8,8,9,9,10,10,11,11,12,12,13,13],"right_children":[2,4,6,8,10,12,14,16,18,20,22,24,26,28,-1,-1,-1,-1,-1,-1,-1,-1,-1,-1,-1,-1,-1,-1,-1],"split_conditions":[1.5E0,2.6E-1,2.5E0,2.38E1,5.41E1,2.57E-1,3.5E0,4.61E1,2.56E1,3.376317E0,3.3E0,5.58E-1,4.66E-1,2.37E1,-5.6591243E-2,2.3337645E-3,4.3154214E-2,1.9778542E-2,3.1206777E-2,1.9393124E-2,4.34951E-2,3.761048E-3,5.187368E-2,-3.8081553E-2,-1.3610238E-2,-4.0317215E-3,1.6747763E-2,-3.1992305E-2,-4.5987513E-2],"split_indices":[157,108,157,106,120,108,157,51,120,36,117,227,122,105,0,0,0,0,0,0,0,0,0,0,0,0,0,0,0],"split_type":[0,0,0,0,0,0,0,0,0,0,0,0,0,0,0,0,0,0,0,0,0,0,0,0,0,0,0,0,0],"sum_hessian":[4.5560107E3,2.0362885E3,2.5197224E3,1.415706E3,6.2058246E2,1.2786069E3,1.2411154E3,3.138219E2,1.1018842E3,2.819196E2,3.386629E2,7.745073E2,5.040996E2,9.0430914E2,3.3680627E2,1.8202213E1,2.956197E2,3.4112543E2,7.6075867E2,1.0687864E2,1.7504092E2,1.4522289E1,3.2414062E2,6.348662E1,7.110207E2,4.0466415E2,9.943543E1,2.016134E2,7.0269574E2],"tree_param":{"num_deleted":"0","num_feature":"234","num_nodes":"29","size_leaf_vector":"1"}},{"base_weights":[4.433801E-3,6.845676E-1,-5.6012255E-1,6.036239E-1,8.572827E-1,-2.043339E-1,-9.346633E-1,1.3401352E-1,6.3034415E-1,6.552507E-1,9.944266E-1,-4.301702E-1,-9.301867E-2,-8.611885E-1,-5.582726E-2,1.7758995E-2,-1.5988568E-2,4.4082906E-2,2.9549642E-2,3.6060672E-2,-0E0,5.1580783E-2,1.5628658E-2,-3.0719403E-2,-1.4587096E-2,-1.3503948E-2,1.1865378E-4,-4.3498162E-2,-5.412054E-3],"categories":[],"categories_nodes":[],"categories_segments":[],"categories_sizes":[],"default_left":[0,0,0,0,0,0,0,0,0,0,0,0,0,0,0,0,0,0,0,0,0,0,0,0,0,0,0,0,0],"id":16,"left_children":[1,3,5,7,9,11,13,15,17,19,21,23,25,27,-1,-1,-1,-1,-1,-1,-1,-1,-1,-1,-1,-1,-1,-1,-1],"loss_changes":[1.7411517E3,2.5440308E1,3.2859955E2,1.700763E1,1.3720551E1,3.1654915E1,1.0303711E1,8.993685E0,9.917725E0,1.1603638E1,7.13855E0,9.334122E0,1.4723635E1,4.8670044E0,0E0,0E0,0E0,0E0,0E0,0E0,0E0,0E0,0E0,0E0,0E0,0E0,0E0,0E0,0E0],"parents":[2147483647,0,0,1,1,2,2,3,3,4,4,5,5,6,6,7,7,8,8,9,9,10,10,11,11,12,12,13,13],"right_children":[2,4,6,8,10,12,14,16,18,20,22,24,26,28,-1,-1,-1,-1,-1,-1,-1,-1,-1,-1,-1,-1,-1,-1,-1],"split_conditions":[1.5E0,2.6E-1,2.5E0,1.91E-1,3.700627E0,2.37E-1,3.5E0,6.25E-1,1.3E1,3.478261E-1,7.45584E1,4.05E1,5.740741E-1,4.2424E0,-5.582726E-2,1.7758995E-2,-1.5988568E-2,4.4082906E-2,2.9549642E-2,3.6060672E-2,-0E0,5.1580783E-2,1.5628658E-2,-3.0719403E-2,-1.4587096E-2,-1.3503948E-2,1.1865378E-4,-4.3498162E-2,-5.412054E-3],"split_indices":[157,108,157,108,153,108,157,73,129,95,218,118,232,86,0,0,0,0,0,0,0,0,0,0,0,0,0,0,0],"split_type":[0,0,0,0,0,0,0,0,0,0,0,0,0,0,0,0,0,0,0,0,0,0,0,0,0,0,0,0,0],"sum_hessian":[4.524403E3,2.0520613E3,2.4723416E3,1.4145133E3,6.375479E2,1.2725587E3,1.199783E3,7.877775E1,1.3357356E3,2.709443E2,3.6660358E2,4.139411E2,8.5861755E2,8.7694635E2,3.2283658E2,5.4435303E1,2.4342447E1,1.646274E2,1.1711082E3,2.4508487E2,2.5859455E1,3.4451526E2,2.2088324E1,1.6867197E2,2.4526913E2,2.992512E2,5.593664E2,8.6541974E2,1.1526579E1],"tree_param":{"num_deleted":"0","num_feature":"234","num_nodes":"29","size_leaf_vector":"1"}},{"base_weights":[5.0639254E-3,2.2922054E-1,-2.5550649E-2,2.7067474E-1,-3.345136E-1,2.8669937E-2,-1.5012239E-1,1.6490857E-1,4.8742813E-1,-6.107686E-1,1.0650985E-2,-2.7210691E-3,2.599837E-1,-2.1106611E-1,1.282434E-1,1.2375692E-2,-5.477883E-3,3.1021122E-2,-0E0,-8.026036E-3,-4.1273218E-2,1.7087022E-2,-1.0934719E-3,3.3488132E-2,6.1583244E-3,-6.5666283E-3,-1.8674543E-2,2.0681916E-2,-4.200763E-3],"categories":[],"categories_nodes":[],"categories_segments":[],"categories_sizes":[],"default_left":[0,0,0,0,0,0,0,0,0,0,0,0,0,0,0,0,0,0,0,0,0,0,0,0,0,0,0,0,0],"id":17,"left_children":[1,3,5,7,9,11,13,15,17,19,-1,21,23,25,27,-1,-1,-1,-1,-1,-1,-1,-1,-1,-1,-1,-1,-1,-1],"loss_changes":[3.0928932E1,1.3081001E1,2.6769505E1,1.0923187E1,6.6757116E0,2.0131645E1,2.0565126E1,8.15506E0,1.0709721E1,1.5029554E0,0E0,1.5893758E1,1.7752525E1,1.2314716E1,1.3513941E1,0E0,0E0,0E0,0E0,0E0,0E0,0E0,0E0,0E0,0E0,0E0,0E0,0E0,0E0],"parents":[2147483647,0,0,1,1,2,2,3,3,4,4,5,5,6,6,7,7,8,8,9,9,11,11,12,12,13,13,14,14],"right_children":[2,4,6,8,10,12,14,16,18,20,-1,22,24,26,28,-1,-1,-1,-1,-1,-1,-1,-1,-1,-1,-1,-1,-1,-1],"split_conditions":[2E1,3.2863605E-1,4.7565788E-1,1.2083334E0,3.9022222E0,8E0,4.77E-1,2.5833333E-1,1.8738E0,3.334812E0,1.0650985E-2,-2.3E0,3.97E1,9.713133E0,9.19925E-1,1.2375692E-2,-5.477883E-3,3.1021122E-2,-0E0,-8.026036E-3,-4.1273218E-2,1.7087022E-2,-1.0934719E-3,3.3488132E-2,6.1583244E-3,-6.5666283E-3,-1.8674543E-2,2.0681916E-2,-4.200763E-3],"split_indices":[106,38,99,1,36,55,122,16,169,153,0,127,125,39,174,0,0,0,0,0,0,0,0,0,0,0,0,0,0],"split_type":[0,0,0,0,0,0,0,0,0,0,0,0,0,0,0,0,0,0,0,0,0,0,0,0,0,0,0,0,0],"sum_hessian":[4.4828687E3,5.3674866E2,3.9461199E3,5.0322986E2,3.35188E1,2.7493044E3,1.1968154E3,3.4566925E2,1.575606E2,2.2501509E1,1.1017287E1,2.4232332E3,3.2607123E2,9.843195E2,2.1249593E2,2.674795E2,7.818976E1,1.2316005E2,3.4400543E1,1.0838602E1,1.1662908E1,1.2180089E2,2.3014324E3,7.582825E1,2.50243E2,6.683505E2,3.15969E2,8.961495E1,1.22880974E2],"tree_param":{"num_deleted":"0","num_feature":"234","num_nodes":"29","size_leaf_vector":"1"}},{"base_weights":[2.0314835E-3,6.341085E-1,-5.377878E-1,4.6149024E-1,7.0897144E-1,-1.8417747E-1,-9.1335976E-1,1.1029623E-1,5.2043813E-1,7.206644E-1,-6.789075E-2,-2.5342885E-1,1.4221235E-1,-8.367134E-1,-5.531704E-2,1.5416726E-2,-1.3118269E-2,2.1882083E-3,2.8080096E-2,3.6471814E-2,-0E0,2.0652212E-2,-2.8002992E-2,-1.9344488E-2,-5.974053E-3,-1.0243499E-2,1.386403E-2,-4.240447E-2,-1.0096802E-2],"categories":[],"categories_nodes":[],"categories_segments":[],"categories_sizes":[],"default_left":[0,0,0,0,0,0,0,0,0,0,0,0,0,0,0,0,0,0,0,0,0,0,0,0,0,0,0,0,0],"id":18,"left_children":[1,3,5,7,9,11,13,15,17,19,21,23,25,27,-1,-1,-1,-1,-1,-1,-1,-1,-1,-1,-1,-1,-1,-1,-1],"loss_changes":[1.5463395E3,2.4760803E1,3.2317236E2,1.2811539E1,1.36970215E1,2.8844154E1,1.1900818E1,7.858536E0,1.0410645E1,8.821472E0,7.2334657E0,1.8236458E1,1.0796945E1,4.895447E0,0E0,0E0,0E0,0E0,0E0,0E0,0E0,0E0,0E0,0E0,0E0,0E0,0E0,0E0,0E0],"parents":[2147483647,0,0,1,1,2,2,3,3,4,4,5,5,6,6,7,7,8,8,9,9,10,10,11,11,12,12,13,13],"right_children":[2,4,6,8,10,12,14,16,18,20,22,24,26,28,-1,-1,-1,-1,-1,-1,-1,-1,-1,-1,-1,-1,-1,-1,-1],"split_conditions":[1.5E0,6.14E-1,2.5E0,2.962963E-1,1.6428572E0,7E-1,3.5E0,5.06E1,-2E-1,5.0333333E-1,2.57E1,2.45E-1,8.936504E-1,7.67E-1,-5.531704E-2,1.5416726E-2,-1.3118269E-2,2.1882083E-3,2.8080096E-2,3.6471814E-2,-0E0,2.0652212E-2,-2.8002992E-2,-1.9344488E-2,-5.974053E-3,-1.0243499E-2,1.386403E-2,-4.240447E-2,-1.0096802E-2],"split_indices":[157,227,157,230,28,227,157,137,214,18,105,108,170,227,0,0,0,0,0,0,0,0,0,0,0,0,0,0,0],"split_type":[0,0,0,0,0,0,0,0,0,0,0,0,0,0,0,0,0,0,0,0,0,0,0,0,0,0,0,0,0],"sum_hessian":[4.5218257E3,2.0829465E3,2.4388794E3,6.42947E2,1.4399995E3,1.2606909E3,1.1781884E3,9.569028E1,5.472567E2,1.4196372E3,2.0362387E1,1.0422107E3,2.1848021E2,8.6421655E2,3.1397183E2,6.3924538E1,3.1765738E1,4.528798E1,5.0196875E2,1.4021582E3,1.7478945E1,1.019147E1,1.0170917E1,5.1545483E2,5.2675586E2,5.9443523E1,1.5903668E2,8.4657697E2,1.7639616E1],"tree_param":{"num_deleted":"0","num_feature":"234","num_nodes":"29","size_leaf_vector":"1"}},{"base_weights":[-1.203099E-2,5.8614445E-1,-5.233566E-1,4.3422127E-1,6.912336E-1,-1.7410322E-1,-9.100726E-1,3.1375927E-1,5.5709666E-1,4.8211608E-2,7.0590985E-1,-5.270339E-1,-1.2111713E-1,-7.2919977E-1,-9.8789364E-1,-1.4408427E-2,1.879297E-2,-0E0,3.048042E-2,-1.8450888E-2,1.9983547E-2,3.6277186E-2,1.3441292E-2,5.784852E-3,-3.0063702E-2,1.8845672E-2,-7.5992434E-3,-3.7853744E-2,-0E0,-4.6009224E-2,-5.5303343E-2],"categories":[],"categories_nodes":[],"categories_segments":[],"categories_sizes":[],"default_left":[0,0,0,0,0,0,0,0,0,0,0,0,0,0,0,0,0,0,0,0,0,0,0,0,0,0,0,0,0,0,0],"id":19,"left_children":[1,3,5,7,9,11,13,15,17,19,21,23,25,27,29,-1,-1,-1,-1,-1,-1,-1,-1,-1,-1,-1,-1,-1,-1,-1,-1],"loss_changes":[1.3658154E3,3.078717E1,3.2388745E2,1.1371597E1,1.0832764E1,2.314595E1,1.1597534E1,1.7260895E1,1.2391327E1,5.597044E0,8.635559E0,8.384216E0,1.7296328E1,7.7675476E0,1.5203857E-1,0E0,0E0,0E0,0E0,0E0,0E0,0E0,0E0,0E0,0E0,0E0,0E0,0E0,0E0,0E0,0E0],"parents":[2147483647,0,0,1,1,2,2,3,3,4,4,5,5,6,6,7,7,8,8,9,9,10,10,11,11,12,12,13,13,14,14],"right_children":[2,4,6,8,10,12,14,16,18,20,22,24,26,28,30,-1,-1,-1,-1,-1,-1,-1,-1,-1,-1,-1,-1,-1,-1,-1,-1],"split_conditions":[1.5E0,3.4285715E0,2.5E0,1.0069444E0,2.5E-1,2.15E-1,2.81E1,-9.702957E-1,2.74E-1,4.0425E-1,1.459E2,4.335E0,-2.4E0,4.04E1,3.5E0,-1.4408427E-2,1.879297E-2,-0E0,3.048042E-2,-1.8450888E-2,1.9983547E-2,3.6277186E-2,1.3441292E-2,5.784852E-3,-3.0063702E-2,1.8845672E-2,-7.5992434E-3,-3.7853744E-2,-0E0,-4.6009224E-2,-5.5303343E-2],"split_indices":[157,14,157,1,9,108,105,53,123,177,105,42,127,132,157,0,0,0,0,0,0,0,0,0,0,0,0,0,0,0,0],"split_type":[0,0,0,0,0,0,0,0,0,0,0,0,0,0,0,0,0,0,0,0,0,0,0,0,0,0,0,0,0,0,0],"sum_hessian":[4.455545E3,2.0525986E3,2.4029465E3,8.5171936E2,1.2008792E3,1.2671207E3,1.1358258E3,4.4110986E2,4.106095E2,2.8035442E1,1.1728438E3,1.5833179E2,1.108789E3,3.5921298E2,7.7661285E2,3.879753E1,4.0231235E2,3.5173634E1,3.7543588E2,1.2053678E1,1.5981766E1,1.1181715E3,5.467219E1,1.5408261E1,1.4292352E2,6.0494766E1,1.0482942E3,3.464386E2,1.2774395E1,5.243456E2,2.5226726E2],"tree_param":{"num_deleted":"0","num_feature":"234","num_nodes":"31","size_leaf_vector":"1"}},{"base_weights":[-1.2228796E-3,-1.0979553E-1,6.1388925E-2,-1.5116549E-1,1.2755473E-1,3.525312E-2,3.2102486E-1,4.234347E-2,-2.0338885E-1,2.2839192E-1,-1.6938923E-1,-3.300344E-2,1.4967003E-1,7.110285E-1,2.0856345E-1,9.216613E-3,-1.3670306E-2,2.3918033E-2,-1.0993128E-2,1.4415422E-2,-1.5737643E-2,-1.7912596E-2,1.1748527E-2,-1.7833749E-2,4.703324E-5,-5.081969E-4,1.2029685E-2,5.255239E-2,1.7103015E-2,1.3138902E-3,2.963981E-2],"categories":[],"categories_nodes":[],"categories_segments":[],"categories_sizes":[],"default_left":[0,0,0,0,0,0,0,0,0,0,0,0,0,0,0,0,0,0,0,0,0,0,0,0,0,0,0,0,0,0,0],"id":20,"left_children":[1,3,5,7,9,11,13,15,17,19,21,23,25,27,29,-1,-1,-1,-1,-1,-1,-1,-1,-1,-1,-1,-1,-1,-1,-1,-1],"loss_changes":[3.0049734E1,1.5999527E1,1.8755388E1,1.4092304E1,7.4432E0,1.9997255E1,9.920696E0,1.3471895E1,1.2654049E1,6.408716E0,5.2739706E0,1.7741867E1,1.4026966E1,4.240944E0,1.3963219E1,0E0,0E0,0E0,0E0,0E0,0E0,0E0,0E0,0E0,0E0,0E0,0E0,0E0,0E0,0E0,0E0],"parents":[2147483647,0,0,1,1,2,2,3,3,4,4,5,5,6,6,7,7,8,8,9,9,10,10,11,11,12,12,13,13,14,14],"right_children":[2,4,6,8,10,12,14,16,18,20,22,24,26,28,30,-1,-1,-1,-1,-1,-1,-1,-1,-1,-1,-1,-1,-1,-1,-1,-1],"split_conditions":[2.38E-1,2.76E-1,8E0,2.442857E0,5.263158E-2,2.58E-1,3.97E1,1.019E0,2.23E1,3.5066667E-1,1.08666666E-1,3.23E1,1.006E0,1.4084E0,2.83E-1,9.216613E-3,-1.3670306E-2,2.3918033E-2,-1.0993128E-2,1.4415422E-2,-1.5737643E-2,-1.7912596E-2,1.1748527E-2,-1.7833749E-2,4.703324E-5,-5.081969E-4,1.2029685E-2,5.255239E-2,1.7103015E-2,1.3138902E-3,2.963981E-2],"split_indices":[108,121,55,36,205,121,125,47,105,220,221,137,47,169,108,0,0,0,0,0,0,0,0,0,0,0,0,0,0,0,0],"split_type":[0,0,0,0,0,0,0,0,0,0,0,0,0,0,0,0,0,0,0,0,0,0,0,0,0,0,0,0,0,0,0],"sum_hessian":[4.4069062E3,1.6133967E3,2.7935098E3,1.3772631E3,2.3613364E2,2.544933E3,2.4857666E2,2.908641E2,1.0863989E3,1.7839261E2,5.7741028E1,1.5935016E3,9.514315E2,4.8684875E1,1.9989178E2,2.0316695E2,8.769716E1,2.1608526E1,1.0647904E3,1.6361057E2,1.4782054E1,4.058964E1,1.7151386E1,1.481376E2,1.4453639E3,3.4460147E2,6.068301E2,1.9820906E1,2.886397E1,1.4007935E2,5.981244E1],"tree_param":{"num_deleted":"0","num_feature":"234","num_nodes":"31","size_leaf_vector":"1"}},{"base_weights":[-1.4328198E-2,-9.7202286E-2,5.8817286E-2,-1.274019E-1,1.6182597E-1,2.9717185E-2,3.4191343E-1,-3.9670184E-2,-2.076192E-1,9.690622E-3,5.490677E-1,-1.2335694E-1,7.5161226E-2,2.3026949E-1,7.393963E-1,-1.7448407E-2,3.6954696E-4,-1.5446459E-2,-1.0168168E-3,-7.4936673E-3,1.5630163E-2,4.9125824E-2,6.1935103E-3,-1.1813618E-2,4.509051E-3,7.4052974E-3,-2.573386E-3,3.965802E-2,6.3262745E-3,4.9496513E-2,9.011096E-3],"categories":[],"categories_nodes":[],"categories_segments":[],"categories_sizes":[],"default_left":[0,0,0,0,0,0,0,0,0,0,0,0,0,0,0,0,0,0,0,0,0,0,0,0,0,0,0,0,0,0,0],"id":21,"left_children":[1,3,5,7,9,11,13,15,17,19,21,23,25,27,29,-1,-1,-1,-1,-1,-1,-1,-1,-1,-1,-1,-1,-1,-1,-1,-1],"loss_changes":[2.6869394E1,1.6352589E1,1.9124487E1,1.2973417E1,1.2513524E1,1.4896222E1,8.292925E0,1.3296028E1,1.822805E1,8.157375E0,9.962511E0,1.1966425E1,1.5367569E1,9.41236E0,4.734316E0,0E0,0E0,0E0,0E0,0E0,0E0,0E0,0E0,0E0,0E0,0E0,0E0,0E0,0E0,0E0,0E0],"parents":[2147483647,0,0,1,1,2,2,3,3,4,4,5,5,6,6,7,7,8,8,9,9,10,10,11,11,12,12,13,13,14,14],"right_children":[2,4,6,8,10,12,14,16,18,20,22,24,26,28,30,-1,-1,-1,-1,-1,-1,-1,-1,-1,-1,-1,-1,-1,-1,-1,-1],"split_conditions":[2.44E-1,2.85E-1,8E0,3.9925117E0,8.66E-1,3.3333333E0,1.73E1,5.49E-1,1.1E2,5.7735026E-1,6.5604E0,9.8E0,4.6925026E-1,-8E-1,6.666667E-1,-1.7448407E-2,3.6954696E-4,-1.5446459E-2,-1.0168168E-3,-7.4936673E-3,1.5630163E-2,4.9125824E-2,6.1935103E-3,-1.1813618E-2,4.509051E-3,7.4052974E-3,-2.573386E-3,3.965802E-2,6.3262745E-3,4.9496513E-2,9.011096E-3],"split_indices":[108,121,55,37,226,78,141,227,82,25,217,117,99,144,26,0,0,0,0,0,0,0,0,0,0,0,0,0,0,0,0],"split_type":[0,0,0,0,0,0,0,0,0,0,0,0,0,0,0,0,0,0,0,0,0,0,0,0,0,0,0,0,0,0,0],"sum_hessian":[4.419647E3,2.0744636E3,2.3451833E3,1.8618636E3,2.1260007E2,2.133198E3,2.1198528E2,8.958262E2,9.660375E2,1.5724117E2,5.5358906E1,4.8384274E2,1.6493553E3,1.7264711E2,3.933816E1,1.1547076E2,7.803554E2,6.230717E2,3.4296576E2,1.0356315E2,5.367802E1,2.3585817E1,3.1773088E1,3.1767206E2,1.6617068E2,1.0484788E3,6.0087665E2,2.0947023E1,1.5170009E2,2.3888987E1,1.5449174E1],"tree_param":{"num_deleted":"0","num_feature":"234","num_nodes":"31","size_leaf_vector":"1"}},{"base_weights":[-1.0154713E-2,5.57257E-1,-5.040691E-1,4.8289958E-1,7.183136E-1,-1.7394455E-1,-8.7212944E-1,3.5979456E-1,5.6009436E-1,-0E0,7.4853235E-1,-3.7114856E-1,-8.009688E-2,-7.910956E-1,-5.4053474E-2,7.920701E-3,2.2850497E-2,5.72646E-3,2.9717147E-2,2.1256385E-2,-1.9087458E-2,3.9473E-2,1.3973421E-2,-2.1805566E-2,6.154293E-3,-5.1652878E-3,2.8751021E-2,-2.5751755E-2,-4.170076E-2],"categories":[],"categories_nodes":[],"categories_segments":[],"categories_sizes":[],"default_left":[0,0,0,0,0,0,0,0,0,0,0,0,0,0,0,0,0,0,0,0,0,0,0,0,0,0,0,0,0],"id":22,"left_children":[1,3,5,7,9,11,13,15,17,19,21,23,25,27,-1,-1,-1,-1,-1,-1,-1,-1,-1,-1,-1,-1,-1,-1,-1],"loss_changes":[1.2420034E3,2.2359314E1,2.8666046E2,1.210379E1,1.3659821E1,2.2875008E1,1.3726074E1,1.0427925E1,1.2523987E1,5.8817797E0,1.0125946E1,1.3330887E1,1.312585E1,6.968506E0,0E0,0E0,0E0,0E0,0E0,0E0,0E0,0E0,0E0,0E0,0E0,0E0,0E0,0E0,0E0],"parents":[2147483647,0,0,1,1,2,2,3,3,4,4,5,5,6,6,7,7,8,8,9,9,10,10,11,11,12,12,13,13],"right_children":[2,4,6,8,10,12,14,16,18,20,22,24,26,28,-1,-1,-1,-1,-1,-1,-1,-1,-1,-1,-1,-1,-1,-1,-1],"split_conditions":[1.5E0,2.6E-1,2.5E0,6.14E-1,2.7E1,2.37E-1,3.5E0,3.6628E0,4.67E1,3.7472773E-1,4E-1,5.21E1,1.211E0,-5E-1,-5.4053474E-2,7.920701E-3,2.2850497E-2,5.72646E-3,2.9717147E-2,2.1256385E-2,-1.9087458E-2,3.9473E-2,1.3973421E-2,-2.1805566E-2,6.154293E-3,-5.1652878E-3,2.8751021E-2,-2.5751755E-2,-4.170076E-2],"split_indices":[157,108,157,227,179,108,157,86,51,97,95,142,47,144,0,0,0,0,0,0,0,0,0,0,0,0,0,0,0],"split_type":[0,0,0,0,0,0,0,0,0,0,0,0,0,0,0,0,0,0,0,0,0,0,0,0,0,0,0,0,0],"sum_hessian":[4.4218086E3,2.0570286E3,2.36478E3,1.4231006E3,6.339281E2,1.2512327E3,1.1135472E3,5.618622E2,8.612384E2,2.6167246E1,6.077608E2,3.9696997E2,8.542627E2,8.213319E2,2.922154E2,1.8888336E2,3.7297885E2,6.406673E1,7.971717E2,1.2457704E1,1.3709542E1,5.548655E2,5.289536E1,3.5226724E2,4.4702736E1,8.2983875E2,2.4423975E1,1.2082572E2,7.0050616E2],"tree_param":{"num_deleted":"0","num_feature":"234","num_nodes":"29","size_leaf_vector":"1"}},{"base_weights":[-2.8229454E-3,5.2537274E-1,-4.764096E-1,3.4430116E-1,5.8163625E-1,-1.5111348E-1,-8.54839E-1,1.23465896E-1,4.3513387E-1,4.862477E-1,6.892204E-1,-2.0736785E-1,1.6073376E-1,-7.721569E-1,-5.3406388E-2,4.930051E-4,3.407544E-2,-5.218824E-3,2.4322107E-2,1.6077282E-2,2.901401E-2,4.1789997E-2,2.7303716E-2,-3.0398343E-2,-7.7998885E-3,1.6435791E-3,3.5752643E-2,-4.308214E-2,-2.9523829E-2],"categories":[],"categories_nodes":[],"categories_segments":[],"categories_sizes":[],"default_left":[0,0,0,0,0,0,0,0,0,0,0,0,0,0,0,0,0,0,0,0,0,0,0,0,0,0,0,0,0],"id":23,"left_children":[1,3,5,7,9,11,13,15,17,19,21,23,25,27,-1,-1,-1,-1,-1,-1,-1,-1,-1,-1,-1,-1,-1,-1,-1],"loss_changes":[1.1032905E3,1.9773438E1,2.8519037E2,9.653137E0,1.3962158E1,2.2252024E1,1.3885986E1,9.5611925E0,1.032032E1,1.1896301E1,1.2314697E1,2.1141815E1,1.3233795E1,9.627167E0,0E0,0E0,0E0,0E0,0E0,0E0,0E0,0E0,0E0,0E0,0E0,0E0,0E0,0E0,0E0],"parents":[2147483647,0,0,1,1,2,2,3,3,4,4,5,5,6,6,7,7,8,8,9,9,10,10,11,11,12,12,13,13],"right_children":[2,4,6,8,10,12,14,16,18,20,22,24,26,28,-1,-1,-1,-1,-1,-1,-1,-1,-1,-1,-1,-1,-1,-1,-1],"split_conditions":[1.5E0,6.1538464E-1,2.5E0,9.965278E-1,1.1E2,2.76E-1,3.5E0,2.079E-1,-1.64E1,3.67992E-1,6.76E-2,2.14E-1,1.1084E0,2.59E-1,-5.3406388E-2,4.930051E-4,3.407544E-2,-5.218824E-3,2.4322107E-2,1.6077282E-2,2.901401E-2,4.1789997E-2,2.7303716E-2,-3.0398343E-2,-7.7998885E-3,1.6435791E-3,3.5752643E-2,-4.308214E-2,-2.9523829E-2],"split_indices":[157,28,157,1,82,121,157,89,225,172,88,108,83,108,0,0,0,0,0,0,0,0,0,0,0,0,0,0,0],"split_type":[0,0,0,0,0,0,0,0,0,0,0,0,0,0,0,0,0,0,0,0,0,0,0,0,0,0,0,0,0],"sum_hessian":[4.400674E3,2.0796348E3,2.3210388E3,5.0355127E2,1.5760835E3,1.2526149E3,1.068424E3,1.5179749E2,3.5175378E2,8.52483E2,7.236006E2,1.0639641E3,1.8865082E2,7.8828705E2,2.8013696E2,1.3109386E2,2.0703619E1,2.9251858E1,3.2250192E2,3.1978326E2,5.326997E2,3.4383344E2,3.7976715E2,1.13664734E2,9.502994E2,1.5832845E2,3.0322367E1,5.137676E2,2.7451944E2],"tree_param":{"num_deleted":"0","num_feature":"234","num_nodes":"29","size_leaf_vector":"1"}},{"base_weights":[1.0311745E-2,-1.7605074E-1,4.795037E-2,-8.28277E-2,-3.7305728E-1,1.4785638E-1,2.2157708E-3,2.869676E-1,-1.3925456E-1,1.0879037E-1,-4.536193E-1,1.7546394E-1,-2.4802098E-1,-3.5978984E-2,1.6483663E-1,2.1996103E-2,-1.7842362E-2,1.8474191E-2,-9.269449E-3,2.1638295E-2,-1.833535E-2,-2.764917E-2,-3.2820243E-3,5.0363867E-3,1.601475E-2,1.3690603E-2,-2.1331402E-2,-7.033057E-4,-1.7811984E-2,2.904864E-2,4.575635E-3],"categories":[],"categories_nodes":[],"categories_segments":[],"categories_sizes":[],"default_left":[0,0,0,0,0,0,0,0,0,0,0,0,0,0,0,0,0,0,0,0,0,0,0,0,0,0,0,0,0,0,0],"id":24,"left_children":[1,3,5,7,9,11,13,15,17,19,21,23,25,27,29,-1,-1,-1,-1,-1,-1,-1,-1,-1,-1,-1,-1,-1,-1,-1,-1],"loss_changes":[3.060113E1,1.3068548E1,1.6547344E1,1.0669774E1,9.42902E0,1.2629753E1,1.5648968E1,7.459357E0,1.0646523E1,6.43254E0,7.2468224E0,1.1197662E1,7.6641717E0,1.4033207E1,1.4034865E1,0E0,0E0,0E0,0E0,0E0,0E0,0E0,0E0,0E0,0E0,0E0,0E0,0E0,0E0,0E0,0E0],"parents":[2147483647,0,0,1,1,2,2,3,3,4,4,5,5,6,6,7,7,8,8,9,9,10,10,11,11,12,12,13,13,14,14],"right_children":[2,4,6,8,10,12,14,16,18,20,22,24,26,28,30,-1,-1,-1,-1,-1,-1,-1,-1,-1,-1,-1,-1,-1,-1,-1,-1],"split_conditions":[5.92E-1,1.018E0,2.37E1,1.0582011E0,-9.135454E-1,3.752E-1,7.04E-1,3.3628519E0,4.1666666E-1,1.0236284E0,1.4534E0,1.2083334E0,2.61E1,6.981809E0,1.6666667E-1,2.1996103E-2,-1.7842362E-2,1.8474191E-2,-9.269449E-3,2.1638295E-2,-1.833535E-2,-2.764917E-2,-3.2820243E-3,5.0363867E-3,1.601475E-2,1.3690603E-2,-2.1331402E-2,-7.033057E-4,-1.7811984E-2,2.904864E-2,4.575635E-3],"split_indices":[227,47,106,45,53,168,227,36,4,187,223,1,116,37,35,0,0,0,0,0,0,0,0,0,0,0,0,0,0,0,0],"split_type":[0,0,0,0,0,0,0,0,0,0,0,0,0,0,0,0,0,0,0,0,0,0,0,0,0,0,0,0,0,0,0],"sum_hessian":[4.360712E3,7.2740326E2,3.6333086E3,5.0030176E2,2.271015E2,1.1340059E3,2.4993027E3,6.235657E1,4.379452E2,3.1391024E1,1.9571046E2,1.0638615E3,7.0144356E1,2.0246034E3,4.7469937E2,5.2293114E1,1.0063455E1,3.259774E1,4.0534744E2,1.9562897E1,1.1828127E1,1.5308829E2,4.2622185E1,7.0961383E2,3.5424768E2,1.6492847E1,5.3651505E1,1.901294E3,1.2330947E2,6.4905365E1,4.09794E2],"tree_param":{"num_deleted":"0","num_feature":"234","num_nodes":"31","size_leaf_vector":"1"}},{"base_weights":[4.1110764E-4,5.2119285E-1,-4.7682774E-1,3.6731288E-1,5.870188E-1,-1.7326583E-1,-8.3505225E-1,-1.9166427E-2,3.8935247E-1,2.997881E-1,6.169459E-1,-2.6966095E-1,4.0264424E-2,-7.5186825E-1,-5.2753884E-2,-1.8126199E-2,2.0431314E-2,2.6238874E-2,1.3634043E-3,3.1336114E-2,-1.2788563E-2,-1.4674042E-2,1.1213856E-2,-1.8520646E-2,6.477104E-3,-3.0238358E-2,-4.163406E-2],"categories":[],"categories_nodes":[],"categories_segments":[],"categories_sizes":[],"default_left":[0,0,0,0,0,0,0,0,0,0,0,0,0,0,0,0,0,0,0,0,0,0,0,0,0,0,0],"id":25,"left_children":[1,3,5,7,9,11,13,-1,15,17,19,21,23,25,-1,-1,-1,-1,-1,-1,-1,-1,-1,-1,-1,-1,-1],"loss_changes":[1.0832583E3,1.9560608E1,2.460332E2,1.1340851E1,1.1076202E1,2.5648438E1,1.4181763E1,0E0,9.822098E0,8.7312975E0,1.2132843E1,1.04247055E1,1.4336015E1,5.9692383E0,0E0,0E0,0E0,0E0,0E0,0E0,0E0,0E0,0E0,0E0,0E0,0E0,0E0],"parents":[2147483647,0,0,1,1,2,2,3,3,4,4,5,5,6,6,8,8,9,9,10,10,11,11,12,12,13,13],"right_children":[2,4,6,8,10,12,14,-1,16,18,20,22,24,26,-1,-1,-1,-1,-1,-1,-1,-1,-1,-1,-1,-1,-1],"split_conditions":[1.5E0,6.14E-1,2.5E0,1.56E-1,3E0,2.66E-1,3.5E0,-1.9166427E-2,1.110936E0,1E0,3E0,3.8E-1,3.375E0,2.65E1,-5.2753884E-2,-1.8126199E-2,2.0431314E-2,2.6238874E-2,1.3634043E-3,3.1336114E-2,-1.2788563E-2,-1.4674042E-2,1.1213856E-2,-1.8520646E-2,6.477104E-3,-3.0238358E-2,-4.163406E-2],"split_indices":[157,227,157,108,14,108,157,0,153,228,127,123,78,106,0,0,0,0,0,0,0,0,0,0,0,0,0],"split_type":[0,0,0,0,0,0,0,0,0,0,0,0,0,0,0,0,0,0,0,0,0,0,0,0,0,0,0],"sum_hessian":[4.3484453E3,2.0796436E3,2.2688015E3,6.3521356E2,1.4444302E3,1.2328716E3,1.0359298E3,1.5133552E1,6.2008E2,1.4307143E2,1.3013586E3,8.5012317E2,3.8274847E2,7.694035E2,2.6652634E2,1.26240635E1,6.0745593E2,7.482982E1,6.824161E1,1.2889023E3,1.2456305E1,8.1391406E2,3.620913E1,6.453623E1,3.1821225E2,2.9004648E2,4.79357E2],"tree_param":{"num_deleted":"0","num_feature":"234","num_nodes":"27","size_leaf_vector":"1"}},{"base_weights":[-6.956856E-3,4.875652E-1,-4.5982534E-1,4.4919005E-1,7.219011E-1,-1.6519925E-1,-8.1962496E-1,3.9329785E-1,5.8781356E-1,7.636425E-1,-7.91677E-3,-4.6549043E-1,-1.109961E-1,-7.361813E-1,-5.2174922E-2,-1.3611133E-2,2.0235363E-2,3.132127E-2,2.8811737E-3,1.1801888E-2,4.1764542E-2,-2.6895983E-2,6.533139E-4,7.938186E-3,-8.206515E-3,-4.33226E-2,-3.0542163E-2],"categories":[],"categories_nodes":[],"categories_segments":[],"categories_sizes":[],"default_left":[0,0,0,0,0,0,0,0,0,0,0,0,0,0,0,0,0,0,0,0,0,0,0,0,0,0,0],"id":26,"left_children":[1,3,5,7,9,11,13,15,17,19,-1,21,23,25,-1,-1,-1,-1,-1,-1,-1,-1,-1,-1,-1,-1,-1],"loss_changes":[9.675653E2,1.6360748E1,2.3794806E2,1.2216797E1,1.1212555E1,1.9753624E1,1.4202148E1,1.0433746E1,9.742981E0,8.654068E0,0E0,6.804329E0,1.5390505E1,8.973846E0,0E0,0E0,0E0,0E0,0E0,0E0,0E0,0E0,0E0,0E0,0E0,0E0,0E0],"parents":[2147483647,0,0,1,1,2,2,3,3,4,4,5,5,6,6,7,7,8,8,9,9,11,11,12,12,13,13],"right_children":[2,4,6,8,10,12,14,16,18,20,-1,22,24,26,-1,-1,-1,-1,-1,-1,-1,-1,-1,-1,-1,-1,-1],"split_conditions":[1.5E0,4.69E1,2.5E0,2.62E-1,8.666667E0,5.92E-1,3.5E0,-9.9939084E-1,4.117647E-1,2.87E1,-7.91677E-3,3.95E1,1.3333334E-1,2.44E-1,-5.2174922E-2,-1.3611133E-2,2.0235363E-2,3.132127E-2,2.8811737E-3,1.1801888E-2,4.1764542E-2,-2.6895983E-2,6.533139E-4,7.938186E-3,-8.206515E-3,-4.33226E-2,-3.0542163E-2],"split_indices":[157,118,157,108,59,227,157,54,95,104,0,143,95,108,0,0,0,0,0,0,0,0,0,0,0,0,0],"split_type":[0,0,0,0,0,0,0,0,0,0,0,0,0,0,0,0,0,0,0,0,0,0,0,0,0,0,0],"sum_hessian":[4.3104424E3,2.0597527E3,2.25069E3,1.7842755E3,2.7547708E2,1.242192E3,1.0084979E3,1.2878248E3,4.9645065E2,2.6417984E2,1.1297255E1,1.8272307E2,1.0594689E3,7.5191437E2,2.5658353E2,1.9040737E1,1.268784E3,4.6102527E2,3.54254E1,3.498768E1,2.2919215E2,1.5907217E2,2.3650883E1,1.7115796E2,8.88311E2,3.52249E2,3.9966537E2],"tree_param":{"num_deleted":"0","num_feature":"234","num_nodes":"27","size_leaf_vector":"1"}},{"base_weights":[3.5308187E-3,4.7602051E-1,-4.374268E-1,4.4982162E-1,8.944988E-1,-1.407072E-1,-8.084039E-1,4.927037E-1,2.652478E-1,9.862915E-1,4.362403E-3,-2.9624173E-1,-2.3126027E-2,-7.2319984E-1,-5.200938E-2,1.898072E-2,2.9000243E-2,1.8266657E-2,-3.7420436E-3,1.4385319E-2,5.2086182E-2,-3.6774356E-2,-1.19170705E-2,-1.574572E-2,1.8977281E-3,-2.2121588E-2,-3.8090046E-2],"categories":[],"categories_nodes":[],"categories_segments":[],"categories_sizes":[],"default_left":[0,0,0,0,0,0,0,0,0,0,0,0,0,0,0,0,0,0,0,0,0,0,0,0,0,0,0],"id":27,"left_children":[1,3,5,7,9,11,13,15,17,19,-1,21,23,25,-1,-1,-1,-1,-1,-1,-1,-1,-1,-1,-1,-1,-1],"loss_changes":[8.9622614E2,2.0087921E1,2.4381705E2,1.4527039E1,7.642578E0,2.2533022E1,1.4843872E1,1.4089447E1,1.3340515E1,1.8363495E0,0E0,1.2186081E1,1.2940813E1,5.7272034E0,0E0,0E0,0E0,0E0,0E0,0E0,0E0,0E0,0E0,0E0,0E0,0E0,0E0],"parents":[2147483647,0,0,1,1,2,2,3,3,4,4,5,5,6,6,7,7,8,8,9,9,11,11,12,12,13,13],"right_children":[2,4,6,8,10,12,14,16,18,20,-1,22,24,26,-1,-1,-1,-1,-1,-1,-1,-1,-1,-1,-1,-1,-1],"split_conditions":[1.5E0,2.92E-1,2.5E0,1.29E2,4.7368422E-1,2.44E-1,3.5E0,2.56E1,9.285714E-1,2.13E1,4.362403E-3,5.58E-1,3.4E-1,2.74E1,-5.200938E-2,1.898072E-2,2.9000243E-2,1.8266657E-2,-3.7420436E-3,1.4385319E-2,5.2086182E-2,-3.6774356E-2,-1.19170705E-2,-1.574572E-2,1.8977281E-3,-2.2121588E-2,-3.8090046E-2],"split_indices":[157,108,157,105,93,108,157,120,28,120,0,227,230,131,0,0,0,0,0,0,0,0,0,0,0,0,0],"split_type":[0,0,0,0,0,0,0,0,0,0,0,0,0,0,0,0,0,0,0,0,0,0,0,0,0,0,0],"sum_hessian":[4.2914946E3,2.0720317E3,2.219463E3,1.9608422E3,1.1118959E2,1.2377301E3,9.8173267E2,1.5821945E3,3.7864777E2,9.828522E1,1.2904375E1,5.2776337E2,7.099668E2,7.3449066E2,2.4724202E2,7.034365E2,8.7875793E2,2.934012E2,8.524656E1,1.0164017E1,8.81212E1,5.3645706E1,4.7411765E2,1.20713425E2,5.8925336E2,9.7872025E1,6.3661865E2],"tree_param":{"num_deleted":"0","num_feature":"234","num_nodes":"27","size_leaf_vector":"1"}},{"base_weights":[-4.6178005E-3,4.308586E-1,-4.2077288E-1,3.1944132E-1,5.0407195E-1,-1.3345632E-1,-7.8888834E-1,3.601343E-1,-9.769698E-2,4.4042984E-1,6.877424E-1,-2.0884958E-1,4.8479345E-2,-7.024168E-1,-5.0944604E-2,1.3804748E-2,3.267237E-2,-1.3760993E-2,2.45186E-2,7.1107293E-3,2.4392262E-2,2.4677934E-2,4.385745E-2,-5.18443E-3,-1.6406478E-2,-4.14447E-3,1.821162E-2,-4.1968327E-2,-2.8713549E-2],"categories":[],"categories_nodes":[],"categories_segments":[],"categories_sizes":[],"default_left":[0,0,0,0,0,0,0,0,0,0,0,0,0,0,0,0,0,0,0,0,0,0,0,0,0,0,0,0,0],"id":28,"left_children":[1,3,5,7,9,11,13,15,17,19,21,23,25,27,-1,-1,-1,-1,-1,-1,-1,-1,-1,-1,-1,-1,-1,-1,-1],"loss_changes":[7.6905536E2,1.5694183E1,2.285798E2,1.45392685E1,1.2412384E1,1.6945208E1,1.4449158E1,1.7516777E1,8.64358E0,1.258165E1,8.481491E0,1.0521481E1,1.5276894E1,9.306122E0,0E0,0E0,0E0,0E0,0E0,0E0,0E0,0E0,0E0,0E0,0E0,0E0,0E0,0E0,0E0],"parents":[2147483647,0,0,1,1,2,2,3,3,4,4,5,5,6,6,7,7,8,8,9,9,10,10,11,11,12,12,13,13],"right_children":[2,4,6,8,10,12,14,16,18,20,22,24,26,28,-1,-1,-1,-1,-1,-1,-1,-1,-1,-1,-1,-1,-1,-1,-1],"split_conditions":[1.5E0,1.3494E0,2.5E0,1.7777778E0,4.7E1,2.67E-1,3.5E0,1.622958E0,1.3E0,3.3352607E-1,6.2E-2,8.2785225E0,1.02E1,2.44E-1,-5.0944604E-2,1.3804748E-2,3.267237E-2,-1.3760993E-2,2.45186E-2,7.1107293E-3,2.4392262E-2,2.4677934E-2,4.385745E-2,-5.18443E-3,-1.6406478E-2,-4.14447E-3,1.821162E-2,-4.1968327E-2,-2.8713549E-2],"split_indices":[157,169,157,31,142,108,157,187,27,97,221,39,117,108,0,0,0,0,0,0,0,0,0,0,0,0,0,0,0],"split_type":[0,0,0,0,0,0,0,0,0,0,0,0,0,0,0,0,0,0,0,0,0,0,0,0,0,0,0,0,0],"sum_hessian":[4.2336587E3,2.0681306E3,2.1655283E3,8.33437E2,1.2346935E3,1.2208319E3,9.446964E2,7.610741E2,7.236293E1,9.316034E2,3.0309012E2,8.645677E2,3.5626416E2,7.028852E2,2.4181123E2,6.004467E2,1.6062735E2,5.827993E1,1.4083E1,1.3199208E2,7.9961127E2,1.5986348E2,1.4322664E2,4.6667267E2,3.9789505E2,2.5307603E2,1.03188126E2,3.2447052E2,3.7841464E2],"tree_param":{"num_deleted":"0","num_feature":"234","num_nodes":"29","size_leaf_vector":"1"}},{"base_weights":[5.690426E-3,2.2243398E-1,-7.683477E-1,4.1522643E-1,-1.05367586E-1,-6.7986214E-1,-1.0146334E0,5.404152E-1,3.5540447E-1,-1.2726049E-1,4.0969265E-1,-7.037235E-1,-7.06556E-2,-2.5766755E-2,-5.228895E-2,2.8749092E-2,1.5798191E-3,-2.3295205E-2,1.8387295E-2,-8.257872E-3,6.901218E-3,5.1457826E-3,5.04208E-2,-2.1825412E-2,-3.7102204E-2,1.7968103E-2,-2.1751294E-2],"categories":[],"categories_nodes":[],"categories_segments":[],"categories_sizes":[],"default_left":[0,0,0,0,0,0,0,0,0,0,0,0,0,0,0,0,0,0,0,0,0,0,0,0,0,0,0],"id":29,"left_children":[1,3,5,7,9,11,13,15,17,19,21,23,25,-1,-1,-1,-1,-1,-1,-1,-1,-1,-1,-1,-1,-1,-1],"loss_changes":[7.1246674E2,2.1015202E2,1.5946472E1,1.4259491E1,1.4015164E1,9.539856E0,1.6168213E-1,1.128714E1,1.5332031E1,1.2059103E1,8.200626E0,4.6752014E0,5.9481645E0,0E0,0E0,0E0,0E0,0E0,0E0,0E0,0E0,0E0,0E0,0E0,0E0,0E0,0E0],"parents":[2147483647,0,0,1,1,2,2,3,3,4,4,5,5,6,6,7,7,8,8,9,9,10,10,11,11,12,12],"right_children":[2,4,6,8,10,12,14,16,18,20,22,24,26,-1,-1,-1,-1,-1,-1,-1,-1,-1,-1,-1,-1,-1,-1],"split_conditions":[2.5E0,1.5E0,3.5E0,-4E-1,7.61E-1,4.251E1,2.02E1,1.33E1,-9.9939084E-1,5.17E1,1.02528E1,2.75E1,2.104E-1,-2.5766755E-2,-5.228895E-2,2.8749092E-2,1.5798191E-3,-2.3295205E-2,1.8387295E-2,-8.257872E-3,6.901218E-3,5.1457826E-3,5.04208E-2,-2.1825412E-2,-3.7102204E-2,1.7968103E-2,-2.1751294E-2],"split_indices":[157,157,157,127,227,173,106,182,54,142,180,131,168,0,0,0,0,0,0,0,0,0,0,0,0,0,0],"split_type":[0,0,0,0,0,0,0,0,0,0,0,0,0,0,0,0,0,0,0,0,0,0,0,0,0,0,0],"sum_hessian":[4.2382773E3,3.3143994E3,9.238779E2,2.087093E3,1.2273063E3,6.9500806E2,2.2886987E2,6.5915643E2,1.4279366E3,1.1818083E3,4.5498024E1,6.672758E2,2.7732244E1,1.9532074E1,2.093378E2,6.1569635E2,4.346009E1,1.7819202E1,1.4101174E3,1.0373857E3,1.444225E2,3.4510117E1,1.0987906E1,9.309713E1,5.7417865E2,1.2122347E1,1.5609898E1],"tree_param":{"num_deleted":"0","num_feature":"234","num_nodes":"27","size_leaf_vector":"1"}},{"base_weights":[-3.0350205E-3,4.0561363E-1,-4.0573242E-1,2.9675433E-1,4.8208734E-1,-1.5112725E-1,-7.519148E-1,1.1497614E-1,3.7669286E-1,5.137014E-1,8.568552E-3,-2.4572702E-1,5.824984E-2,-6.675549E-1,-4.946275E-2,-2.2623993E-3,1.5530139E-2,-2.6002156E-3,2.0750038E-2,2.2112403E-2,3.541709E-2,-9.552936E-3,2.5845468E-2,1.7212337E-2,-1.3630225E-2,-5.0238697E-3,1.3813018E-2,-2.3296215E-2,-3.7219085E-2],"categories":[],"categories_nodes":[],"categories_segments":[],"categories_sizes":[],"default_left":[0,0,0,0,0,0,0,0,0,0,0,0,0,0,0,0,0,0,0,0,0,0,0,0,0,0,0,0,0],"id":30,"left_children":[1,3,5,7,9,11,13,15,17,19,21,23,25,27,-1,-1,-1,-1,-1,-1,-1,-1,-1,-1,-1,-1,-1,-1,-1],"loss_changes":[6.900903E2,1.6217468E1,1.8519586E2,1.2242012E1,1.785254E1,2.4418505E1,1.3754425E1,8.858614E0,1.0194481E1,1.3637909E1,8.96743E0,1.3848602E1,1.3496084E1,8.131531E0,0E0,0E0,0E0,0E0,0E0,0E0,0E0,0E0,0E0,0E0,0E0,0E0,0E0,0E0,0E0],"parents":[2147483647,0,0,1,1,2,2,3,3,4,4,5,5,6,6,7,7,8,8,9,9,10,10,11,11,12,12,13,13],"right_children":[2,4,6,8,10,12,14,16,18,20,22,24,26,28,-1,-1,-1,-1,-1,-1,-1,-1,-1,-1,-1,-1,-1,-1,-1],"split_conditions":[1.5E0,3.4285715E0,2.5E0,9.756944E-1,1.385E2,2.66E-1,3.5E0,1.2E0,3.4762E0,3.32E1,5.424603E0,5.1E0,9.3E0,2.5E1,-4.946275E-2,-2.2623993E-3,1.5530139E-2,-2.6002156E-3,2.0750038E-2,2.2112403E-2,3.541709E-2,-9.552936E-3,2.5845468E-2,1.7212337E-2,-1.3630225E-2,-5.0238697E-3,1.3813018E-2,-2.3296215E-2,-3.7219085E-2],"split_indices":[157,14,157,1,105,108,157,10,86,147,46,154,117,105,0,0,0,0,0,0,0,0,0,0,0,0,0,0,0],"split_type":[0,0,0,0,0,0,0,0,0,0,0,0,0,0,0,0,0,0,0,0,0,0,0,0,0,0,0,0,0],"sum_hessian":[4.183503E3,2.0757742E3,2.1077288E3,8.692909E2,1.2064833E3,1.2194745E3,8.882542E2,2.711497E2,5.981412E2,1.1295873E3,7.689604E1,8.4101227E2,3.7846222E2,6.709445E2,2.1730968E2,1.4977063E2,1.2137905E2,4.784755E1,5.5029364E2,8.4010913E2,2.8947812E2,5.674805E1,2.0147995E1,3.3261555E1,8.0775073E2,2.1924112E2,1.592211E2,1.9665569E2,4.7428885E2],"tree_param":{"num_deleted":"0","num_feature":"234","num_nodes":"29","size_leaf_vector":"1"}},{"base_weights":[-1.792922E-2,3.722988E-1,-4.0422767E-1,3.378708E-1,6.1695385E-1,-1.4555933E-1,-7.5992036E-1,3.7025726E-1,7.699671E-2,4.0845594E-1,8.044231E-1,-2.1892186E-1,4.196277E-2,-6.7287433E-1,-5.0402682E-2,1.6315801E-2,2.7047843E-2,-1.36574125E-2,1.1050432E-2,-4.40143E-3,2.5773237E-2,4.700915E-2,1.7352514E-2,9.201832E-4,-1.3988872E-2,-1.292739E-2,8.730703E-3,-2.5518594E-2,-3.85414E-2],"categories":[],"categories_nodes":[],"categories_segments":[],"categories_sizes":[],"default_left":[0,0,0,0,0,0,0,0,0,0,0,0,0,0,0,0,0,0,0,0,0,0,0,0,0,0,0,0,0],"id":31,"left_children":[1,3,5,7,9,11,13,15,17,19,21,23,25,27,-1,-1,-1,-1,-1,-1,-1,-1,-1,-1,-1,-1,-1,-1,-1],"loss_changes":[6.279868E2,1.5931335E1,1.916531E2,1.5087463E1,7.434059E0,1.6908873E1,1.47673645E1,1.0865555E1,1.0865801E1,7.2788105E0,5.426155E0,1.2853889E1,1.3943059E1,8.021057E0,0E0,0E0,0E0,0E0,0E0,0E0,0E0,0E0,0E0,0E0,0E0,0E0,0E0,0E0,0E0],"parents":[2147483647,0,0,1,1,2,2,3,3,4,4,5,5,6,6,7,7,8,8,9,9,10,10,11,11,12,12,13,13],"right_children":[2,4,6,8,10,12,14,16,18,20,22,24,26,28,-1,-1,-1,-1,-1,-1,-1,-1,-1,-1,-1,-1,-1,-1,-1],"split_conditions":[1.5E0,7.07E-1,2.5E0,1.508E2,5.44E1,2.68E-1,3.5E0,3.44E1,7.3472E0,3.7209454E-1,5.19271E0,7.0167665E0,6.7536E0,2.67E1,-5.0402682E-2,1.6315801E-2,2.7047843E-2,-1.36574125E-2,1.1050432E-2,-4.40143E-3,2.5773237E-2,4.700915E-2,1.7352514E-2,9.201832E-4,-1.3988872E-2,-1.292739E-2,8.730703E-3,-2.5518594E-2,-3.85414E-2],"split_indices":[157,227,157,106,149,108,157,147,180,99,153,154,180,106,0,0,0,0,0,0,0,0,0,0,0,0,0,0,0],"split_type":[0,0,0,0,0,0,0,0,0,0,0,0,0,0,0,0,0,0,0,0,0,0,0,0,0,0,0,0,0],"sum_hessian":[4.155805E3,2.0668335E3,2.0889714E3,1.8240946E3,2.4273906E2,1.2143317E3,8.746397E2,1.6190793E3,2.0501523E2,1.2371159E2,1.1902747E2,8.74168E2,3.4016357E2,6.6272675E2,2.1191298E2,1.301529E3,3.175503E2,5.7429047E1,1.4758618E2,2.1264742E1,1.0244685E2,8.6870735E1,3.2156734E1,1.7744336E2,6.967247E2,1.0156401E2,2.3859958E2,2.628393E2,3.9988745E2],"tree_param":{"num_deleted":"0","num_feature":"234","num_nodes":"29","size_leaf_vector":"1"}},{"base_weights":[-1.1630438E-2,1.76936E-1,-7.332009E-1,3.418525E-1,-1.0903589E-1,-6.465213E-1,-4.9382176E-2,3.1047806E-1,5.660921E-1,-2.3170479E-1,7.456059E-3,-6.715711E-1,-5.3333808E-2,1.7536378E-2,5.365318E-3,3.22734E-2,6.729433E-3,-2.2256246E-2,-6.152475E-3,1.8636245E-2,-3.327384E-3,-1.890519E-2,-3.569306E-2,-1.6485345E-2,1.6071668E-2],"categories":[],"categories_nodes":[],"categories_segments":[],"categories_sizes":[],"default_left":[0,0,0,0,0,0,0,0,0,0,0,0,0,0,0,0,0,0,0,0,0,0,0,0,0],"id":32,"left_children":[1,3,5,7,9,11,-1,13,15,17,19,21,23,-1,-1,-1,-1,-1,-1,-1,-1,-1,-1,-1,-1],"loss_changes":[5.6281195E2,1.5487271E2,1.4893677E1,1.3323715E1,1.7289312E1,9.195038E0,0E0,1.461821E1,7.6492233E0,1.3064629E1,1.7009195E1,5.891754E0,3.9302478E0,0E0,0E0,0E0,0E0,0E0,0E0,0E0,0E0,0E0,0E0,0E0,0E0],"parents":[2147483647,0,0,1,1,2,2,3,3,4,4,5,5,7,7,8,8,9,9,10,10,11,11,12,12],"right_children":[2,4,6,8,10,12,-1,14,16,18,20,22,24,-1,-1,-1,-1,-1,-1,-1,-1,-1,-1,-1,-1],"split_conditions":[2.5E0,1.5E0,3.5E0,5.09E1,6.46E-1,4.1342E0,-4.9382176E-2,2.8282827E-1,4E0,3.25E0,1.3333334E-1,2.75E1,9.01E1,1.7536378E-2,5.365318E-3,3.22734E-2,6.729433E-3,-2.2256246E-2,-6.152475E-3,1.8636245E-2,-3.327384E-3,-1.890519E-2,-3.569306E-2,-1.6485345E-2,1.6071668E-2],"split_indices":[157,157,157,142,227,86,0,216,55,13,95,131,119,0,0,0,0,0,0,0,0,0,0,0,0],"split_type":[0,0,0,0,0,0,0,0,0,0,0,0,0,0,0,0,0,0,0,0,0,0,0,0,0],"sum_hessian":[4.124566E3,3.2724617E3,8.5210425E2,2.0760186E3,1.1964431E3,6.50255E2,2.0184924E2,1.8336206E3,2.4239792E2,5.824528E2,6.1399023E2,6.224653E2,2.7789759E1,1.5253483E3,3.082724E2,2.0166351E2,4.0734413E1,1.8972029E2,3.9273254E2,1.01176285E2,5.1281396E2,8.61518E1,5.363135E2,1.7108435E1,1.0681324E1],"tree_param":{"num_deleted":"0","num_feature":"234","num_nodes":"25","size_leaf_vector":"1"}},{"base_weights":[-1.4111406E-2,1.6228436E-1,-7.071601E-1,3.2498032E-1,-1.19425856E-1,-6.1483794E-1,-9.7924775E-1,2.6502508E-1,4.7874E-1,-2.3959143E-2,-2.6321968E-1,-6.378981E-1,-2.9831946E-2,-1.5846891E-2,-5.0178137E-2,2.4053302E-2,1.127736E-2,6.5838615E-3,2.6385311E-2,-2.8640484E-2,9.59534E-4,-2.4411805E-2,-8.126336E-3,-3.6184758E-2,-2.302449E-2,-2.0376673E-2,1.9397857E-2],"categories":[],"categories_nodes":[],"categories_segments":[],"categories_sizes":[],"default_left":[0,0,0,0,0,0,0,0,0,0,0,0,0,0,0,0,0,0,0,0,0,0,0,0,0,0,0],"id":33,"left_children":[1,3,5,7,9,11,13,15,17,19,21,23,25,-1,-1,-1,-1,-1,-1,-1,-1,-1,-1,-1,-1,-1,-1],"loss_changes":[5.0195172E2,1.502109E2,1.7120483E1,1.8130646E1,1.629774E1,8.162506E0,9.905243E-1,1.1957611E1,9.074646E0,1.759119E1,1.0067699E1,7.051529E0,5.5690017E0,0E0,0E0,0E0,0E0,0E0,0E0,0E0,0E0,0E0,0E0,0E0,0E0,0E0,0E0],"parents":[2147483647,0,0,1,1,2,2,3,3,4,4,5,5,6,6,7,7,8,8,9,9,10,10,11,11,12,12],"right_children":[2,4,6,8,10,12,14,16,18,20,22,24,26,-1,-1,-1,-1,-1,-1,-1,-1,-1,-1,-1,-1,-1,-1],"split_conditions":[2.5E0,1.5E0,3.5E0,2.62E-1,5.2E0,4.251E1,1.87E1,7.914718E-2,3.47E1,2.52E-1,8.262985E0,3.11E1,5.3846157E-1,-1.5846891E-2,-5.0178137E-2,2.4053302E-2,1.127736E-2,6.5838615E-3,2.6385311E-2,-2.8640484E-2,9.59534E-4,-2.4411805E-2,-8.126336E-3,-3.6184758E-2,-2.302449E-2,-2.0376673E-2,1.9397857E-2],"split_indices":[157,157,157,108,59,173,106,186,118,133,50,147,215,0,0,0,0,0,0,0,0,0,0,0,0,0,0],"split_type":[0,0,0,0,0,0,0,0,0,0,0,0,0,0,0,0,0,0,0,0,0,0,0,0,0,0,0],"sum_hessian":[4.0939937E3,3.265868E3,8.2812573E2,2.0708804E3,1.1949877E3,6.3186383E2,1.9626189E2,1.5020563E3,5.6882416E2,7.2377423E2,4.7121338E2,6.06644E2,2.5219896E1,1.016327E1,1.8609862E2,2.214712E2,1.2805851E3,7.3874374E1,4.949498E2,4.91257E1,6.7464856E2,1.3819116E2,3.3302222E2,3.9661905E2,2.1002492E2,1.3938412E1,1.1281485E1],"tree_param":{"num_deleted":"0","num_feature":"234","num_nodes":"27","size_leaf_vector":"1"}},{"base_weights":[-3.4901705E-3,1.6740255E-1,-6.93768E-1,3.2123414E-1,-1.0089524E-1,-4.679856E-1,-8.0128634E-1,-3.142298E-2,3.4666517E-1,-2.32996E-1,-1.5461261E-2,-6.10765E-1,-2.797099E-1,-7.110264E-1,-4.9324457E-2,8.549011E-3,-1.848039E-2,1.6141837E-2,3.4657024E-2,1.8469319E-2,-1.354062E-2,-2.220013E-3,3.2611374E-2,-3.325848E-2,3.3024114E-3,-2.314402E-2,6.3673605E-4,-3.6487546E-2,-1.3276505E-3],"categories":[],"categories_nodes":[],"categories_segments":[],"categories_sizes":[],"default_left":[0,0,0,0,0,0,0,0,0,0,0,0,0,0,0,0,0,0,0,0,0,0,0,0,0,0,0,0,0],"id":34,"left_children":[1,3,5,7,9,11,13,15,17,19,21,23,25,27,-1,-1,-1,-1,-1,-1,-1,-1,-1,-1,-1,-1,-1,-1,-1],"loss_changes":[4.8080432E2,1.3501768E2,1.7128479E1,1.884311E1,1.3314592E1,6.079113E0,4.6622925E0,1.0203092E1,1.4384872E1,1.1057898E1,1.3979527E1,6.0559616E0,7.1708326E0,4.426361E0,0E0,0E0,0E0,0E0,0E0,0E0,0E0,0E0,0E0,0E0,0E0,0E0,0E0,0E0,0E0],"parents":[2147483647,0,0,1,1,2,2,3,3,4,4,5,5,6,6,7,7,8,8,9,9,10,10,11,11,12,12,13,13],"right_children":[2,4,6,8,10,12,14,16,18,20,22,24,26,28,-1,-1,-1,-1,-1,-1,-1,-1,-1,-1,-1,-1,-1,-1,-1],"split_conditions":[2.5E0,1.5E0,2.84E1,1.99E-1,6.32E-1,2.51E-1,3.5E0,3.9195812E-1,2.92E-1,5.172431E0,1.211E0,1.4666667E0,3.55E1,7.61E-1,-4.9324457E-2,8.549011E-3,-1.848039E-2,1.6141837E-2,3.4657024E-2,1.8469319E-2,-1.354062E-2,-2.220013E-3,3.2611374E-2,-3.325848E-2,3.3024114E-3,-2.314402E-2,6.3673605E-4,-3.6487546E-2,-1.3276505E-3],"split_indices":[157,157,105,108,227,121,157,97,108,154,47,161,104,227,0,0,0,0,0,0,0,0,0,0,0,0,0,0,0],"split_type":[0,0,0,0,0,0,0,0,0,0,0,0,0,0,0,0,0,0,0,0,0,0,0,0,0,0,0,0,0],"sum_hessian":[4.063721E3,3.2597617E3,8.0395917E2,2.072403E3,1.1873588E3,2.6947992E2,5.3447925E2,1.379926E2,1.9344105E3,4.6062976E2,7.26729E2,1.4536577E2,1.2411417E2,3.7743094E2,1.5704828E2,8.694795E1,5.104464E1,1.8203219E3,1.14088524E2,2.38387E1,4.3679105E2,7.017309E2,2.4998096E1,1.3531355E2,1.0052204E1,7.557443E1,4.853973E1,3.6634784E2,1.1083095E1],"tree_param":{"num_deleted":"0","num_feature":"234","num_nodes":"29","size_leaf_vector":"1"}},{"base_weights":[-1.926041E-3,1.6134672E-1,-6.724269E-1,3.0444965E-1,-8.503788E-2,-5.8494914E-1,-9.433937E-1,2.763749E-1,5.492191E-1,-2.6999113E-1,2.0199136E-3,-3.3649608E-1,-6.421286E-1,-1.7070396E-2,-4.8656795E-2,7.773801E-3,1.7075162E-2,3.9002538E-2,1.9128462E-2,-1.7078724E-2,4.4452674E-3,-4.9642674E-3,9.116375E-3,3.1508429E-3,-2.5287775E-2,-3.5047397E-2,-1.591386E-2],"categories":[],"categories_nodes":[],"categories_segments":[],"categories_sizes":[],"default_left":[0,0,0,0,0,0,0,0,0,0,0,0,0,0,0,0,0,0,0,0,0,0,0,0,0,0,0],"id":35,"left_children":[1,3,5,7,9,11,13,15,17,19,21,23,25,-1,-1,-1,-1,-1,-1,-1,-1,-1,-1,-1,-1,-1,-1],"loss_changes":[4.4583133E2,1.15623955E2,1.5383209E1,1.307048E1,1.953923E1,7.2030945E0,9.9572754E-1,1.4219635E1,5.864872E0,1.0234455E1,1.5155251E1,9.013954E0,7.801193E0,0E0,0E0,0E0,0E0,0E0,0E0,0E0,0E0,0E0,0E0,0E0,0E0,0E0,0E0],"parents":[2147483647,0,0,1,1,2,2,3,3,4,4,5,5,6,6,7,7,8,8,9,9,10,10,11,11,12,12],"right_children":[2,4,6,8,10,12,14,16,18,20,22,24,26,-1,-1,-1,-1,-1,-1,-1,-1,-1,-1,-1,-1,-1,-1],"split_conditions":[2.5E0,1.5E0,3.5E0,2.85E-1,8.8E1,-1E-1,1.665E1,1.1E0,4.2222223E0,2.20616E-1,2.66E-1,9.756944E-1,2.1111112E0,-1.7070396E-2,-4.8656795E-2,7.773801E-3,1.7075162E-2,3.9002538E-2,1.9128462E-2,-1.7078724E-2,4.4452674E-3,-4.9642674E-3,9.116375E-3,3.1508429E-3,-2.5287775E-2,-3.5047397E-2,-1.591386E-2],"split_indices":[157,157,157,121,82,144,155,30,60,222,108,1,211,0,0,0,0,0,0,0,0,0,0,0,0,0,0],"split_type":[0,0,0,0,0,0,0,0,0,0,0,0,0,0,0,0,0,0,0,0,0,0,0,0,0,0,0],"sum_hessian":[4.0601777E3,3.2675518E3,7.9262604E2,2.0675479E3,1.2000039E3,6.125214E2,1.8010461E2,1.8661869E3,2.0136084E2,3.825397E2,8.174642E2,1.2267024E2,4.8985117E2,1.22085085E1,1.678961E2,6.619712E2,1.2042157E3,7.5449425E1,1.2591142E2,3.202909E2,6.2248814E1,5.230589E2,2.9440527E2,3.655998E1,8.611026E1,4.083236E2,8.152755E1],"tree_param":{"num_deleted":"0","num_feature":"234","num_nodes":"27","size_leaf_vector":"1"}},{"base_weights":[-7.3048407E-3,1.505285E-1,-6.7624557E-1,2.9180878E-1,-9.286464E-2,-4.5731497E-1,-7.8552777E-1,2.547196E-1,5.2324533E-1,-1.9230929E-1,4.463104E-2,7.954641E-3,-5.050301E-1,-7.0020443E-1,-4.8326146E-2,-1.9696891E-2,1.3248912E-2,2.8467163E-2,-1.6079035E-2,-1.2007247E-2,3.1469872E-3,-1.3843101E-2,5.970169E-3,-2.7431747E-2,-8.6365093E-4,-3.8472287E-2,-1.9729272E-2],"categories":[],"categories_nodes":[],"categories_segments":[],"categories_sizes":[],"default_left":[0,0,0,0,0,0,0,0,0,0,0,0,0,0,0,0,0,0,0,0,0,0,0,0,0,0,0],"id":36,"left_children":[1,3,5,7,9,11,13,15,17,19,21,-1,23,25,-1,-1,-1,-1,-1,-1,-1,-1,-1,-1,-1,-1,-1],"loss_changes":[4.2625818E2,1.1247656E2,1.6024963E1,1.6694138E1,1.6542534E1,8.520363E0,3.5922546E0,1.2393951E1,1.1904961E1,8.713238E0,1.2253609E1,0E0,5.0440674E0,5.59639E0,0E0,0E0,0E0,0E0,0E0,0E0,0E0,0E0,0E0,0E0,0E0,0E0,0E0],"parents":[2147483647,0,0,1,1,2,2,3,3,4,4,5,5,6,6,7,7,8,8,9,9,10,10,12,12,13,13],"right_children":[2,4,6,8,10,12,14,16,18,20,22,-1,24,26,-1,-1,-1,-1,-1,-1,-1,-1,-1,-1,-1,-1,-1],"split_conditions":[2.5E0,1.5E0,2.65E1,4.69E1,2.57E-1,2.8E0,3.5E0,-9.9939084E-1,8.666667E0,3.97E-1,3.4E0,7.954641E-3,1.28601E1,3.38E-1,-4.8326146E-2,-1.9696891E-2,1.3248912E-2,2.8467163E-2,-1.6079035E-2,-1.2007247E-2,3.1469872E-3,-1.3843101E-2,5.970169E-3,-2.7431747E-2,-8.6365093E-4,-3.8472287E-2,-1.9729272E-2],"split_indices":[157,157,106,118,108,100,157,54,59,126,78,0,218,220,0,0,0,0,0,0,0,0,0,0,0,0,0],"split_type":[0,0,0,0,0,0,0,0,0,0,0,0,0,0,0,0,0,0,0,0,0,0,0,0,0,0,0],"sum_hessian":[4.024946E3,3.2591035E3,7.6584235E2,2.0627922E3,1.1963113E3,2.6515094E2,5.0069144E2,1.7887905E3,2.740018E2,6.9516895E2,5.0114227E2,1.7458838E1,2.4769211E2,3.5870105E2,1.4199039E2,2.4179367E1,1.7646112E3,2.6193176E2,1.2070043E1,5.873498E2,1.07819176E2,9.075012E1,4.1039215E2,2.2585207E2,2.1840042E1,2.8492407E2,7.377696E1],"tree_param":{"num_deleted":"0","num_feature":"234","num_nodes":"27","size_leaf_vector":"1"}},{"base_weights":[-5.8356044E-3,-3.2098044E-2,2.2417407E-1,3.7085526E-3,-1.7994961E-1,1.7356363E-1,4.8727714E-2,1.9450327E-2,-3.3639622E-1,1.4490044E-1,-2.5402683E-1,-7.255638E-2,2.8254384E-1,-1.9142894E-3,6.2628165E-3,-2.8937294E-3,-2.6768679E-2,2.5704248E-2,-6.075093E-3,-1.3982502E-2,3.3502128E-2,1.3882211E-2,-1.2494989E-2,2.41065E-2,4.126194E-3],"categories":[],"categories_nodes":[],"categories_segments":[],"categories_sizes":[],"default_left":[0,0,0,0,0,0,0,0,0,0,0,0,0,0,0,0,0,0,0,0,0,0,0,0,0],"id":37,"left_children":[1,3,5,7,9,11,-1,13,15,17,19,21,23,-1,-1,-1,-1,-1,-1,-1,-1,-1,-1,-1,-1],"loss_changes":[2.416534E1,1.9180582E1,1.413781E1,1.5426901E1,1.7223318E1,1.0681072E1,0E0,1.7065712E1,6.60756E0,1.3588766E1,1.4423107E1,7.935349E0,1.0420118E1,0E0,0E0,0E0,0E0,0E0,0E0,0E0,0E0,0E0,0E0,0E0,0E0],"parents":[2147483647,0,0,1,1,2,2,3,3,4,4,5,5,7,7,8,8,9,9,10,10,11,11,12,12],"right_children":[2,4,6,8,10,12,-1,14,16,18,20,22,24,-1,-1,-1,-1,-1,-1,-1,-1,-1,-1,-1,-1],"split_conditions":[2.85E-1,1.195E2,7.4E1,9.8768836E-1,2.6E0,4.9E-2,4.8727714E-2,3.1E1,2.71E1,2.2109005E0,2.4333334E-1,-5.2991927E-1,4.1742697E0,-1.9142894E-3,6.2628165E-3,-2.8937294E-3,-2.6768679E-2,2.5704248E-2,-6.075093E-3,-1.3982502E-2,3.3502128E-2,1.3882211E-2,-1.2494989E-2,2.41065E-2,4.126194E-3],"split_indices":[121,105,149,53,37,88,0,147,116,45,221,54,152,0,0,0,0,0,0,0,0,0,0,0,0],"split_type":[0,0,0,0,0,0,0,0,0,0,0,0,0,0,0,0,0,0,0,0,0,0,0,0,0],"sum_hessian":[4.0054197E3,3.6007617E3,4.046579E2,2.8999473E3,7.008145E2,3.854814E2,1.9176497E1,2.7775713E3,1.2237591E2,1.2799391E2,5.7282056E2,1.1740901E2,2.680724E2,1.795998E3,9.815733E2,5.4731625E1,6.764429E1,5.248608E1,7.5507835E1,5.6128485E2,1.153574E1,3.757072E1,7.983829E1,1.2940062E2,1.3867177E2],"tree_param":{"num_deleted":"0","num_feature":"234","num_nodes":"25","size_leaf_vector":"1"}},{"base_weights":[-8.987235E-3,1.391517E-1,-6.540901E-1,2.717914E-1,-9.0293504E-2,-4.3286514E-1,-7.6914245E-1,1.7700712E-1,3.3838403E-1,-1.9761832E-1,3.346455E-2,-4.6340898E-1,1.0248381E-2,-6.7782825E-1,-4.8217203E-2,1.1997114E-2,-4.180157E-3,1.0053436E-2,2.05121E-2,-1.9746754E-2,-5.669973E-3,1.6841335E-2,-1.4057186E-3,-3.7679788E-2,-1.6999047E-2,-3.537574E-2,-3.4831103E-3],"categories":[],"categories_nodes":[],"categories_segments":[],"categories_sizes":[],"default_left":[0,0,0,0,0,0,0,0,0,0,0,0,0,0,0,0,0,0,0,0,0,0,0,0,0,0,0],"id":38,"left_children":[1,3,5,7,9,11,13,15,17,19,21,23,-1,25,-1,-1,-1,-1,-1,-1,-1,-1,-1,-1,-1,-1,-1],"loss_changes":[3.8318878E2,9.937604E1,1.67966E1,1.2491867E1,1.6000402E1,5.8478813E0,4.5515747E0,1.4393448E1,1.1178558E1,1.0213772E1,1.061756E1,7.4538956E0,0E0,5.6632233E0,0E0,0E0,0E0,0E0,0E0,0E0,0E0,0E0,0E0,0E0,0E0,0E0,0E0],"parents":[2147483647,0,0,1,1,2,2,3,3,4,4,5,5,6,6,7,7,8,8,9,9,10,10,11,11,13,13],"right_children":[2,4,6,8,10,12,14,16,18,20,22,24,-1,26,-1,-1,-1,-1,-1,-1,-1,-1,-1,-1,-1,-1,-1],"split_conditions":[2.5E0,1.5E0,2.67E1,3.4285715E0,8.99E1,4.04E1,3.5E0,6.8E0,8.3076924E-1,3.375E0,1.3333334E-1,2.37E-1,1.0248381E-2,2.84852E-1,-4.8217203E-2,1.1997114E-2,-4.180157E-3,1.0053436E-2,2.05121E-2,-1.9746754E-2,-5.669973E-3,1.6841335E-2,-1.4057186E-3,-3.7679788E-2,-1.6999047E-2,-3.537574E-2,-3.4831103E-3],"split_indices":[157,157,106,14,119,132,157,225,184,78,95,121,0,222,0,0,0,0,0,0,0,0,0,0,0,0,0],"split_type":[0,0,0,0,0,0,0,0,0,0,0,0,0,0,0,0,0,0,0,0,0,0,0,0,0,0,0],"sum_hessian":[3.9972686E3,3.2533323E3,7.439363E2,2.062361E3,1.1909712E3,2.6416052E2,4.7977576E2,8.616851E2,1.200676E3,6.383986E2,5.5257263E2,2.5414171E2,1.0018831E1,3.438489E2,1.3592686E2,6.959373E2,1.6574782E2,4.213864E2,7.7928955E2,1.8367702E2,4.547216E2,9.0838196E1,4.6173444E2,6.7012535E1,1.8712917E2,3.2628305E2,1.7565845E1],"tree_param":{"num_deleted":"0","num_feature":"234","num_nodes":"27","size_leaf_vector":"1"}},{"base_weights":[-6.734844E-3,1.337138E-1,-6.3205236E-1,2.6484925E-1,-9.253712E-2,-5.4114926E-1,-9.166107E-1,3.2253572E-1,1.2806214E-1,-0E0,-2.3390424E-1,-5.754272E-1,-7.011824E-2,-1.813231E-2,-4.738596E-2,-1.9883754E-2,1.678408E-2,1.8997066E-2,2.1866483E-3,-1.8034558E-3,2.5550513E-2,5.890656E-3,-1.4590804E-2,-2.9783702E-2,5.408386E-3,-1.5961325E-2,2.3376772E-2],"categories":[],"categories_nodes":[],"categories_segments":[],"categories_sizes":[],"default_left":[0,0,0,0,0,0,0,0,0,0,0,0,0,0,0,0,0,0,0,0,0,0,0,0,0,0,0],"id":39,"left_children":[1,3,5,7,9,11,13,15,17,19,21,23,25,-1,-1,-1,-1,-1,-1,-1,-1,-1,-1,-1,-1,-1,-1],"loss_changes":[3.4891248E2,9.6379234E1,1.5642395E1,1.5781525E1,1.5696474E1,8.611984E0,5.1989746E-1,1.4264114E1,1.2881876E1,1.3641142E1,9.901611E0,7.8433075E0,6.7084107E0,0E0,0E0,0E0,0E0,0E0,0E0,0E0,0E0,0E0,0E0,0E0,0E0,0E0,0E0],"parents":[2147483647,0,0,1,1,2,2,3,3,4,4,5,5,6,6,7,7,8,8,9,9,10,10,11,11,12,12],"right_children":[2,4,6,8,10,12,14,16,18,20,22,24,26,-1,-1,-1,-1,-1,-1,-1,-1,-1,-1,-1,-1,-1,-1],"split_conditions":[2.5E0,1.5E0,3.5E0,4.12E1,5.2E0,3.64E-1,1.428E-1,2.5714285E0,1.7E-1,3.77E-1,-1.2E0,3.86E-1,4.2E-2,-1.813231E-2,-4.738596E-2,-1.9883754E-2,1.678408E-2,1.8997066E-2,2.1866483E-3,-1.8034558E-3,2.5550513E-2,5.890656E-3,-1.4590804E-2,-2.9783702E-2,5.408386E-3,-1.5961325E-2,2.3376772E-2],"split_indices":[157,157,157,124,59,133,87,14,16,123,127,123,90,0,0,0,0,0,0,0,0,0,0,0,0,0,0],"split_type":[0,0,0,0,0,0,0,0,0,0,0,0,0,0,0,0,0,0,0,0,0,0,0,0,0,0,0],"sum_hessian":[3.9601665E3,3.236392E3,7.237745E2,2.0497246E3,1.1866672E3,5.608688E2,1.6290567E2,1.4343706E3,6.153541E2,7.182566E2,4.6841068E2,5.2079944E2,4.0069355E1,1.2881338E1,1.5002432E2,2.2408459E1,1.4119622E3,1.4846225E2,4.6689188E2,6.7440283E2,4.3853745E1,6.427038E1,4.0414032E2,5.07153E2,1.3646436E1,2.9406065E1,1.066329E1],"tree_param":{"num_deleted":"0","num_feature":"234","num_nodes":"27","size_leaf_vector":"1"}},{"base_weights":[4.6165623E-3,1.3978451E-1,-6.152219E-1,2.6914167E-1,-8.713477E-2,-5.187464E-1,-9.2480755E-1,1.3184611E-1,3.1974807E-1,-1.1529094E-1,3.5558942E-1,-5.570618E-1,-2.3175815E-4,-1.6934939E-2,-4.7623944E-2,-4.76374E-3,1.0902836E-2,9.568679E-3,1.9491917E-2,-2.0823758E-2,-3.794549E-3,-9.83371E-3,2.8790716E-2,-2.881892E-2,1.0219525E-2,2.1732174E-2,-1.8073939E-2],"categories":[],"categories_nodes":[],"categories_segments":[],"categories_sizes":[],"default_left":[0,0,0,0,0,0,0,0,0,0,0,0,0,0,0,0,0,0,0,0,0,0,0,0,0,0,0],"id":40,"left_children":[1,3,5,7,9,11,13,15,17,19,21,23,25,-1,-1,-1,-1,-1,-1,-1,-1,-1,-1,-1,-1,-1,-1],"loss_changes":[3.3264832E2,9.597235E1,1.8105347E1,1.4018997E1,1.4880017E1,1.0735794E1,3.5624695E-1,1.13554535E1,1.2959259E1,1.2895515E1,9.407119E0,8.355713E0,7.669272E0,0E0,0E0,0E0,0E0,0E0,0E0,0E0,0E0,0E0,0E0,0E0,0E0,0E0,0E0],"parents":[2147483647,0,0,1,1,2,2,3,3,4,4,5,5,6,6,7,7,8,8,9,9,10,10,11,11,12,12],"right_children":[2,4,6,8,10,12,14,16,18,20,22,24,26,-1,-1,-1,-1,-1,-1,-1,-1,-1,-1,-1,-1,-1,-1],"split_conditions":[2.5E0,1.5E0,3.5E0,2.27E-1,3.78E-1,3.64E-1,2.09E1,2.29E-1,2.44E1,3.1E-1,5.1E-2,3.12E-1,4.2E0,-1.6934939E-2,-4.7623944E-2,-4.76374E-3,1.0902836E-2,9.568679E-3,1.9491917E-2,-2.0823758E-2,-3.794549E-3,-9.83371E-3,2.8790716E-2,-2.881892E-2,1.0219525E-2,2.1732174E-2,-1.8073939E-2],"split_indices":[157,157,157,108,123,133,105,121,120,230,88,108,59,0,0,0,0,0,0,0,0,0,0,0,0,0,0],"split_type":[0,0,0,0,0,0,0,0,0,0,0,0,0,0,0,0,0,0,0,0,0,0,0,0,0,0,0],"sum_hessian":[3.963094E3,3.257427E3,7.0566693E2,2.0755286E3,1.1818986E3,5.494394E2,1.5622751E2,5.665044E2,1.5090242E3,1.1157659E3,6.613266E1,5.1038852E2,3.905091E1,1.0842446E1,1.4538506E2,1.5412865E2,4.1237576E2,5.420369E2,9.6698724E2,1.22071884E2,9.93694E2,1.8358603E1,4.7774055E1,4.9958682E2,1.0801692E1,1.6630665E1,2.2420246E1],"tree_param":{"num_deleted":"0","num_feature":"234","num_nodes":"27","size_leaf_vector":"1"}},{"base_weights":[1.1683987E-3,1.3129133E-1,-6.000873E-1,2.4721628E-1,-7.188861E-2,-5.0816214E-1,-9.033816E-1,2.1741298E-1,5.072665E-1,7.958058E-2,-1.358657E-1,-5.365973E-1,9.214717E-2,-1.6514279E-2,-4.6537697E-2,4.603464E-3,1.3666791E-2,-0E0,2.9382689E-2,-1.2355997E-2,9.45629E-3,-1.6702747E-2,-2.2295534E-3,-2.7946575E-2,5.784366E-3,-1.3049207E-2,2.6255524E-2],"categories":[],"categories_nodes":[],"categories_segments":[],"categories_sizes":[],"default_left":[0,0,0,0,0,0,0,0,0,0,0,0,0,0,0,0,0,0,0,0,0,0,0,0,0,0,0],"id":41,"left_children":[1,3,5,7,9,11,13,15,17,19,21,23,25,-1,-1,-1,-1,-1,-1,-1,-1,-1,-1,-1,-1,-1,-1],"loss_changes":[3.0939993E2,7.682387E1,1.6611069E1,1.5165741E1,1.1560524E1,9.900894E0,2.7832794E-1,1.281221E1,8.533688E0,1.2822517E1,1.4875746E1,8.25238E0,5.168595E0,0E0,0E0,0E0,0E0,0E0,0E0,0E0,0E0,0E0,0E0,0E0,0E0,0E0,0E0],"parents":[2147483647,0,0,1,1,2,2,3,3,4,4,5,5,6,6,7,7,8,8,9,9,10,10,11,11,12,12],"right_children":[2,4,6,8,10,12,14,16,18,20,22,24,26,-1,-1,-1,-1,-1,-1,-1,-1,-1,-1,-1,-1,-1,-1],"split_conditions":[2.5E0,1.5E0,3.5E0,2.85E-1,1.99E1,5.85752E-1,2.09E1,-1.4815944E-1,2.89E-1,6.9006556E-1,3.7757E0,4.1736E0,4.3994144E-1,-1.6514279E-2,-4.6537697E-2,4.603464E-3,1.3666791E-2,-0E0,2.9382689E-2,-1.2355997E-2,9.45629E-3,-1.6702747E-2,-2.2295534E-3,-2.7946575E-2,5.784366E-3,-1.3049207E-2,2.6255524E-2],"split_indices":[157,157,157,121,139,172,105,185,133,5,86,86,97,0,0,0,0,0,0,0,0,0,0,0,0,0,0],"split_type":[0,0,0,0,0,0,0,0,0,0,0,0,0,0,0,0,0,0,0,0,0,0,0,0,0,0,0],"sum_hessian":[3.9476033E3,3.2491636E3,6.9843976E2,2.069679E3,1.1794846E3,5.475188E2,1.5092093E2,1.8668318E3,2.0284714E2,3.4756686E2,8.319178E2,5.2405896E2,2.345982E1,1.0690566E1,1.4023036E2,5.827799E2,1.2840519E3,2.8263779E1,1.7458336E2,8.45542E1,2.6301266E2,2.5640195E2,5.7551587E2,5.081424E2,1.5916607E1,1.3378971E1,1.0080849E1],"tree_param":{"num_deleted":"0","num_feature":"234","num_nodes":"27","size_leaf_vector":"1"}},{"base_weights":[-1.1016614E-2,1.1034485E-1,-5.896331E-1,2.2872615E-1,-9.791171E-2,-3.5322198E-1,-7.082616E-1,2.0561251E-1,6.0168684E-1,-1.5969133E-1,1.1917334E-1,1.6355252E-1,-4.1275874E-1,-6.142356E-1,-4.6532806E-2,1.8603991E-3,1.2420477E-2,5.8225407E-3,3.820057E-2,-1.1647131E-2,8.74176E-4,-7.715965E-3,1.2134849E-2,2.6121257E-2,-1.15193445E-2,-2.2799535E-2,1.1529046E-2,-3.4212716E-2,-1.1097088E-2],"categories":[],"categories_nodes":[],"categories_segments":[],"categories_sizes":[],"default_left":[0,0,0,0,0,0,0,0,0,0,0,0,0,0,0,0,0,0,0,0,0,0,0,0,0,0,0,0,0],"id":42,"left_children":[1,3,5,7,9,11,13,15,17,19,21,23,25,27,-1,-1,-1,-1,-1,-1,-1,-1,-1,-1,-1,-1,-1,-1,-1],"loss_changes":[2.745666E2,7.978241E1,1.7233475E1,1.675077E1,1.5836449E1,7.782469E0,5.67659E0,1.3866936E1,8.2877655E0,1.20220375E1,9.040716E0,4.6063275E0,6.6358185E0,7.8276978E0,0E0,0E0,0E0,0E0,0E0,0E0,0E0,0E0,0E0,0E0,0E0,0E0,0E0,0E0,0E0],"parents":[2147483647,0,0,1,1,2,2,3,3,4,4,5,5,6,6,7,7,8,8,9,9,10,10,11,11,12,12,13,13],"right_children":[2,4,6,8,10,12,14,16,18,20,22,24,26,28,-1,-1,-1,-1,-1,-1,-1,-1,-1,-1,-1,-1,-1,-1,-1],"split_conditions":[2.5E0,1.5E0,2.84E1,2.92E-1,4.65E-1,5.555556E-1,3.5E0,-3.0869746E-1,2.27E-1,3.9533E0,5.19E-2,3.28E-1,4.251E1,1.35E2,-4.6532806E-2,1.8603991E-3,1.2420477E-2,5.8225407E-3,3.820057E-2,-1.1647131E-2,8.74176E-4,-7.715965E-3,1.2134849E-2,2.6121257E-2,-1.15193445E-2,-2.2799535E-2,1.1529046E-2,-3.4212716E-2,-1.1097088E-2],"split_indices":[157,157,105,108,122,28,157,185,121,86,88,110,173,82,0,0,0,0,0,0,0,0,0,0,0,0,0,0,0],"split_type":[0,0,0,0,0,0,0,0,0,0,0,0,0,0,0,0,0,0,0,0,0,0,0,0,0,0,0,0,0],"sum_hessian":[3.8969487E3,3.2239304E3,6.7301843E2,2.056719E3,1.1672113E3,2.3292732E2,4.400911E2,1.9452617E3,1.1145731E2,9.114496E2,2.5576173E2,2.2292908E1,2.1063441E2,3.241161E2,1.15975E2,3.984414E2,1.5468203E3,3.0863728E1,8.059358E1,6.457278E2,2.657218E2,7.792789E1,1.7783385E2,1.1476472E1,1.0816435E1,1.9946385E2,1.1170562E1,2.7078854E2,5.3327564E1],"tree_param":{"num_deleted":"0","num_feature":"234","num_nodes":"29","size_leaf_vector":"1"}},{"base_weights":[-5.0617433E-3,1.1028757E-1,-5.5966383E-1,2.106095E-1,-6.471007E-2,-4.7337717E-1,-8.511957E-1,1.4551553E-1,3.0120897E-1,-1.1571771E-1,2.0421737E-1,-5.001788E-1,8.169431E-2,-1.31686E-2,-4.478341E-2,1.4157648E-3,1.1916507E-2,8.001984E-3,2.028678E-2,-6.7274733E-3,2.5223238E-2,-1.0894408E-2,1.9095657E-2,-1.2686998E-2,-2.853604E-2,-1.2938151E-2,2.3017537E-2],"categories":[],"categories_nodes":[],"categories_segments":[],"categories_sizes":[],"default_left":[0,0,0,0,0,0,0,0,0,0,0,0,0,0,0,0,0,0,0,0,0,0,0,0,0,0,0],"id":43,"left_children":[1,3,5,7,9,11,13,15,17,19,21,23,25,-1,-1,-1,-1,-1,-1,-1,-1,-1,-1,-1,-1,-1,-1],"loss_changes":[2.4938225E2,5.673479E1,1.421022E1,1.1658859E1,1.6214191E1,8.307037E0,2.0506363E0,1.2961887E1,1.1935295E1,1.1761071E1,1.4587099E1,7.6898727E0,4.2903523E0,0E0,0E0,0E0,0E0,0E0,0E0,0E0,0E0,0E0,0E0,0E0,0E0,0E0,0E0],"parents":[2147483647,0,0,1,1,2,2,3,3,4,4,5,5,6,6,7,7,8,8,9,9,10,10,11,11,12,12],"right_children":[2,4,6,8,10,12,14,16,18,20,22,24,26,-1,-1,-1,-1,-1,-1,-1,-1,-1,-1,-1,-1,-1,-1],"split_conditions":[2.5E0,1.5E0,3.5E0,1.1E2,2.76E-1,7.49E-1,2.02E1,3.70392E-1,2.43E-1,9.962846E0,6.5712E0,2.36E1,3.8903E0,-1.31686E-2,-4.478341E-2,1.4157648E-3,1.1916507E-2,8.001984E-3,2.028678E-2,-6.7274733E-3,2.5223238E-2,-1.0894408E-2,1.9095657E-2,-1.2686998E-2,-2.853604E-2,-1.2938151E-2,2.3017537E-2],"split_indices":[157,157,157,82,121,227,106,172,121,50,180,105,86,0,0,0,0,0,0,0,0,0,0,0,0,0,0],"split_type":[0,0,0,0,0,0,0,0,0,0,0,0,0,0,0,0,0,0,0,0,0,0,0,0,0,0,0],"sum_hessian":[3.884908E3,3.2185913E3,6.6631683E2,2.0469589E3,1.1716324E3,5.255887E2,1.4072816E2,1.2019387E3,8.4502014E2,9.887948E2,1.8283757E2,5.027105E2,2.2878153E1,1.31231985E1,1.2760496E2,5.364531E2,6.6548553E2,3.669167E2,4.7810342E2,9.6423737E2,2.4557484E1,5.299839E1,1.2983917E2,1.18567406E2,3.841431E2,1.2185036E1,1.0693118E1],"tree_param":{"num_deleted":"0","num_feature":"234","num_nodes":"27","size_leaf_vector":"1"}},{"base_weights":[1.6290353E-3,-5.2783128E-2,9.345653E-2,-7.640639E-2,2.1484607E-1,7.577032E-2,6.5182894E-1,-3.685612E-2,-2.4544352E-1,4.4349766E-1,-1.5113989E-1,1.6896312E-1,-3.0908E-2,9.196144E-1,-0E0,-3.3414648E-3,9.5069725E-3,1.5489625E-2,-1.43941045E-2,3.277809E-2,-2.2933173E-3,1.4427702E-3,-2.257952E-2,6.701283E-3,3.5394844E-2,-4.5201844E-3,9.388487E-3,1.4720956E-2,5.738123E-2],"categories":[],"categories_nodes":[],"categories_segments":[],"categories_sizes":[],"default_left":[0,0,0,0,0,0,0,0,0,0,0,0,0,0,0,0,0,0,0,0,0,0,0,0,0,0,0,0,0],"id":44,"left_children":[1,3,5,7,9,11,13,15,17,19,21,23,25,27,-1,-1,-1,-1,-1,-1,-1,-1,-1,-1,-1,-1,-1,-1,-1],"loss_changes":[1.932314E1,1.5328569E1,1.3617897E1,1.4731687E1,1.6890118E1,1.4044199E1,7.501995E0,1.2361618E1,1.0327332E1,1.3198515E1,4.5102177E0,1.3266966E1,8.570189E0,1.9129448E0,0E0,0E0,0E0,0E0,0E0,0E0,0E0,0E0,0E0,0E0,0E0,0E0,0E0,0E0,0E0],"parents":[2147483647,0,0,1,1,2,2,3,3,4,4,5,5,6,6,7,7,8,8,9,9,10,10,11,11,12,12,13,13],"right_children":[2,4,6,8,10,12,14,16,18,20,22,24,26,28,-1,-1,-1,-1,-1,-1,-1,-1,-1,-1,-1,-1,-1,-1,-1],"split_conditions":[2.58E-1,1E1,3.07E-1,1.068E2,5.2991927E-1,4.875E0,1.2E1,3.63E1,3.1781015E-1,1.1E1,3.5203393E0,4.81E-1,1.976244E0,4.0984745E0,-0E0,-3.3414648E-3,9.5069725E-3,1.5489625E-2,-1.43941045E-2,3.277809E-2,-2.2933173E-3,1.4427702E-3,-2.257952E-2,6.701283E-3,3.5394844E-2,-4.5201844E-3,9.388487E-3,1.4720956E-2,5.738123E-2],"split_indices":[121,55,108,106,54,60,115,147,99,52,49,126,178,37,0,0,0,0,0,0,0,0,0,0,0,0,0,0,0],"split_type":[0,0,0,0,0,0,0,0,0,0,0,0,0,0,0,0,0,0,0,0,0,0,0,0,0,0,0,0,0],"sum_hessian":[3.853303E3,2.4175002E3,1.435803E3,2.226418E3,1.9108206E2,1.3980929E3,3.7710064E1,1.8115992E3,4.1481876E2,1.17795784E2,7.3286285E1,7.4715533E2,6.5093756E2,2.532869E1,1.2381373E1,1.6053541E3,2.0624515E2,2.6381496E1,3.884373E2,8.171047E1,3.6085308E1,4.7615936E1,2.5670347E1,7.084029E2,3.875243E1,5.1581824E2,1.3511932E2,1.041642E1,1.4912271E1],"tree_param":{"num_deleted":"0","num_feature":"234","num_nodes":"29","size_leaf_vector":"1"}},{"base_weights":[-8.0819876E-4,1.0878185E-1,-5.490771E-1,2.141948E-1,-7.274825E-2,-4.3590465E-1,-4.7563087E-2,1.9274227E-1,5.554207E-1,-5.9842044E-1,-4.5906935E-2,-6.4145714E-1,-2.9593253E-1,-6.4937617E-3,1.069834E-2,3.4161136E-2,-3.6979355E-3,-2.8494603E-3,-3.972171E-2,-3.190424E-3,2.7273485E-2,4.599305E-3,-3.4577332E-2,1.8522863E-3,-1.9255929E-2],"categories":[],"categories_nodes":[],"categories_segments":[],"categories_sizes":[],"default_left":[0,0,0,0,0,0,0,0,0,0,0,0,0,0,0,0,0,0,0,0,0,0,0,0,0],"id":45,"left_children":[1,3,5,7,9,11,-1,13,15,17,19,21,23,-1,-1,-1,-1,-1,-1,-1,-1,-1,-1,-1,-1],"loss_changes":[2.331829E2,6.1968384E1,2.6666245E1,1.4073593E1,1.6314192E1,1.3395111E1,0E0,1.3429153E1,9.97097E0,5.3369465E0,1.1974053E1,8.069542E0,9.659657E0,0E0,0E0,0E0,0E0,0E0,0E0,0E0,0E0,0E0,0E0,0E0,0E0],"parents":[2147483647,0,0,1,1,2,2,3,3,4,4,5,5,7,7,8,8,9,9,10,10,11,11,12,12],"right_children":[2,4,6,8,10,12,-1,14,16,18,20,22,24,-1,-1,-1,-1,-1,-1,-1,-1,-1,-1,-1,-1],"split_conditions":[2.5E0,1.5E0,3.5E0,2.92E-1,5.56E-1,2.41E-1,-4.7563087E-2,2.75E0,1.7307693E-1,2.15025E1,4.86E-1,2.7E0,-1E-1,-6.4937617E-3,1.069834E-2,3.4161136E-2,-3.6979355E-3,-2.8494603E-3,-3.972171E-2,-3.190424E-3,2.7273485E-2,4.599305E-3,-3.4577332E-2,1.8522863E-3,-1.9255929E-2],"split_indices":[157,157,157,108,227,108,0,14,214,218,126,52,144,0,0,0,0,0,0,0,0,0,0,0,0],"split_type":[0,0,0,0,0,0,0,0,0,0,0,0,0,0,0,0,0,0,0,0,0,0,0,0,0],"sum_hessian":[3.8672617E3,3.2256106E3,6.4165125E2,2.0418062E3,1.1838044E3,5.0984595E2,1.3180527E2,1.9297728E3,1.120333E2,5.143218E1,1.1323723E3,1.978348E2,3.1201117E2,1.1608594E2,1.8136869E3,9.342838E1,1.8604918E1,1.6064152E1,3.5368027E1,1.1042515E3,2.8120775E1,1.1741642E1,1.8609315E2,6.534835E1,2.4666281E2],"tree_param":{"num_deleted":"0","num_feature":"234","num_nodes":"25","size_leaf_vector":"1"}},{"base_weights":[-6.3397377E-3,1.0265634E-1,-5.591485E-1,1.9001204E-1,-4.909739E-2,-4.695242E-1,-8.719112E-1,2.0368297E-1,-3.6859414E-1,-2.0635957E-1,1.867917E-2,-6.378367E-1,-3.261115E-1,-1.4213256E-2,-4.5533046E-2,7.7676508E-3,1.669841E-2,-3.6020044E-2,-4.4473773E-3,2.8014237E-2,-1.38813425E-2,-3.358261E-3,1.3262811E-2,-3.354476E-2,-0E0,-2.5603766E-2,-9.098484E-3],"categories":[],"categories_nodes":[],"categories_segments":[],"categories_sizes":[],"default_left":[0,0,0,0,0,0,0,0,0,0,0,0,0,0,0,0,0,0,0,0,0,0,0,0,0,0,0],"id":46,"left_children":[1,3,5,7,9,11,13,15,17,19,21,23,25,-1,-1,-1,-1,-1,-1,-1,-1,-1,-1,-1,-1,-1,-1],"loss_changes":[2.3253548E2,4.2802933E1,1.5102417E1,1.5923035E1,1.2671848E1,1.0696838E1,1.1713486E0,1.2101372E1,4.174264E0,2.016917E1,1.7667192E1,5.075157E0,6.830673E0,0E0,0E0,0E0,0E0,0E0,0E0,0E0,0E0,0E0,0E0,0E0,0E0,0E0,0E0],"parents":[2147483647,0,0,1,1,2,2,3,3,4,4,5,5,6,6,7,7,8,8,9,9,10,10,11,11,12,12],"right_children":[2,4,6,8,10,12,14,16,18,20,22,24,26,-1,-1,-1,-1,-1,-1,-1,-1,-1,-1,-1,-1,-1,-1],"split_conditions":[2.5E0,1.5E0,3.5E0,1.602E1,6.6198E0,2.44E-1,1.7E1,6.73E-1,6.1538464E-1,5.9909487E0,9E0,4.997E-1,7.4786E0,-1.4213256E-2,-4.5533046E-2,7.7676508E-3,1.669841E-2,-3.6020044E-2,-4.4473773E-3,2.8014237E-2,-1.38813425E-2,-3.358261E-3,1.3262811E-2,-3.354476E-2,-0E0,-2.5603766E-2,-9.098484E-3],"split_indices":[157,157,157,180,180,108,155,227,209,154,58,172,180,0,0,0,0,0,0,0,0,0,0,0,0,0,0],"split_type":[0,0,0,0,0,0,0,0,0,0,0,0,0,0,0,0,0,0,0,0,0,0,0,0,0,0,0],"sum_hessian":[3.8457036E3,3.21498E3,6.307235E2,2.0417177E3,1.1732625E3,5.0120465E2,1.2951884E2,1.9969183E3,4.479925E1,3.5250275E2,8.207597E2,2.2105045E2,2.8015424E2,1.1388796E1,1.1813004E2,1.4673844E3,5.295339E2,1.5558057E1,2.9241196E1,2.646678E1,3.2603598E2,6.1000146E2,2.1075824E2,2.1059756E2,1.0452877E1,1.1524274E2,1.6491148E2],"tree_param":{"num_deleted":"0","num_feature":"234","num_nodes":"27","size_leaf_vector":"1"}},{"base_weights":[-5.4854774E-3,9.972001E-2,-5.512889E-1,1.8610144E-1,-5.0477467E-2,-4.6799293E-1,-8.513232E-1,1.3039549E-1,3.2298023E-1,-1.04786634E-1,2.3306336E-1,-6.3677794E-1,-3.2441494E-1,-1.3275902E-2,-4.4836905E-2,-5.369669E-3,8.073456E-3,2.0514833E-2,5.312731E-3,-7.2166915E-3,8.086117E-3,1.7562404E-2,-1.1356751E-2,-3.6274504E-2,-1.2826036E-2,-2.7079899E-2,-8.334583E-3],"categories":[],"categories_nodes":[],"categories_segments":[],"categories_sizes":[],"default_left":[0,0,0,0,0,0,0,0,0,0,0,0,0,0,0,0,0,0,0,0,0,0,0,0,0,0,0],"id":47,"left_children":[1,3,5,7,9,11,13,15,17,19,21,23,25,-1,-1,-1,-1,-1,-1,-1,-1,-1,-1,-1,-1,-1,-1],"loss_changes":[2.2084561E2,4.1900547E1,1.28845825E1,1.5177834E1,1.8194328E1,1.0578796E1,1.6250992E0,1.0949743E1,1.0620228E1,1.0577871E1,1.0761963E1,6.0863647E0,8.834427E0,0E0,0E0,0E0,0E0,0E0,0E0,0E0,0E0,0E0,0E0,0E0,0E0,0E0,0E0],"parents":[2147483647,0,0,1,1,2,2,3,3,4,4,5,5,6,6,7,7,8,8,9,9,10,10,11,11,12,12],"right_children":[2,4,6,8,10,12,14,16,18,20,22,24,26,-1,-1,-1,-1,-1,-1,-1,-1,-1,-1,-1,-1,-1,-1],"split_conditions":[2.5E0,1.5E0,3.5E0,2.61E-1,7.08E-1,2.44E-1,2.02E1,2.58E1,1.186342E0,1.45E2,4.5454547E-2,1.31E2,7.2284E0,-1.3275902E-2,-4.4836905E-2,-5.369669E-3,8.073456E-3,2.0514833E-2,5.312731E-3,-7.2166915E-3,8.086117E-3,1.7562404E-2,-1.1356751E-2,-3.6274504E-2,-1.2826036E-2,-2.7079899E-2,-8.334583E-3],"split_indices":[157,157,157,108,227,108,106,145,170,82,206,82,180,0,0,0,0,0,0,0,0,0,0,0,0,0,0],"split_type":[0,0,0,0,0,0,0,0,0,0,0,0,0,0,0,0,0,0,0,0,0,0,0,0,0,0,0],"sum_hessian":[3.8323237E3,3.215664E3,6.1665985E2,2.0428918E3,1.1727722E3,4.9398456E2,1.226753E2,1.4615122E3,5.8137964E2,9.883752E2,1.8439696E2,2.1756517E2,2.764194E2,1.2081299E1,1.10594E2,1.6563437E2,1.2958778E3,4.095881E2,1.7179152E2,8.642915E2,1.240837E2,1.4852428E2,3.587268E1,1.7166275E2,4.5902416E1,1.09836525E2,1.6658289E2],"tree_param":{"num_deleted":"0","num_feature":"234","num_nodes":"27","size_leaf_vector":"1"}},{"base_weights":[-1.8463628E-3,9.347198E-2,-5.0633353E-1,1.7360039E-1,-4.7636554E-2,-4.1977525E-1,-8.251021E-1,-1.0708577E-1,1.96529E-1,-1.1025888E-1,1.1157665E-1,-4.5373085E-1,8.591715E-2,-9.934908E-3,-4.3945856E-2,-1.1199693E-2,1.7956676E-2,8.833627E-3,2.560543E-2,-2.2559924E-2,-3.400477E-3,-7.4844137E-3,1.1988588E-2,-9.553886E-3,-2.6413063E-2,3.3033986E-2,-1.872464E-2],"categories":[],"categories_nodes":[],"categories_segments":[],"categories_sizes":[],"default_left":[0,0,0,0,0,0,0,0,0,0,0,0,0,0,0,0,0,0,0,0,0,0,0,0,0,0,0],"id":48,"left_children":[1,3,5,7,9,11,13,15,17,19,21,23,25,-1,-1,-1,-1,-1,-1,-1,-1,-1,-1,-1,-1,-1,-1],"loss_changes":[1.8357074E2,3.635917E1,1.4388779E1,1.333337E1,1.1656227E1,8.769188E0,2.7401276E0,8.853074E0,1.1091545E1,1.1678909E1,1.1228052E1,8.132782E0,1.0383595E1,0E0,0E0,0E0,0E0,0E0,0E0,0E0,0E0,0E0,0E0,0E0,0E0,0E0,0E0],"parents":[2147483647,0,0,1,1,2,2,3,3,4,4,5,5,6,6,7,7,8,8,9,9,10,10,11,11,12,12],"right_children":[2,4,6,8,10,12,14,16,18,20,22,24,26,-1,-1,-1,-1,-1,-1,-1,-1,-1,-1,-1,-1,-1,-1],"split_conditions":[2.5E0,1.5E0,3.5E0,-2.857143E-1,9E0,3.77E-1,2.21E1,1.4E0,2.92E-1,2.14E-1,5.263158E-2,2.34E1,5.4366665E0,-9.934908E-3,-4.3945856E-2,-1.1199693E-2,1.7956676E-2,8.833627E-3,2.560543E-2,-2.2559924E-2,-3.400477E-3,-7.4844137E-3,1.1988588E-2,-9.553886E-3,-2.6413063E-2,3.3033986E-2,-1.872464E-2],"split_indices":[157,157,157,183,58,123,105,161,108,108,8,105,37,0,0,0,0,0,0,0,0,0,0,0,0,0,0],"split_type":[0,0,0,0,0,0,0,0,0,0,0,0,0,0,0,0,0,0,0,0,0,0,0,0,0,0,0],"sum_hessian":[3.803267E3,3.201462E3,6.018052E2,2.0434703E3,1.1579916E3,4.8363263E2,1.1817252E2,1.512876E2,1.8921827E3,8.344575E2,3.235341E2,4.5460956E2,2.902307E1,1.1940302E1,1.0623222E2,1.2389115E2,2.7396444E1,1.7890012E3,1.0318152E2,8.536398E1,7.4909357E2,1.0493508E2,2.18599E2,1.059075E2,3.4870206E2,1.2424172E1,1.6598896E1],"tree_param":{"num_deleted":"0","num_feature":"234","num_nodes":"27","size_leaf_vector":"1"}},{"base_weights":[-6.1272136E-3,8.2966566E-2,-4.8806927E-1,1.6846241E-1,-6.528168E-2,-3.9303923E-1,-8.477982E-1,-2.3807885E-1,1.8677926E-1,-2.1369354E-1,1.0482033E-2,-6.436159E-2,-4.651536E-1,-1.7737553E-2,-4.511891E-2,-2.8481474E-2,-5.588268E-4,1.5111446E-2,6.6315914E-3,-1.4013745E-2,1.2901597E-2,-7.6203095E-4,4.050964E-2,-9.817081E-3,3.18104E-2,-3.000457E-2,-1.35403825E-2],"categories":[],"categories_nodes":[],"categories_segments":[],"categories_sizes":[],"default_left":[0,0,0,0,0,0,0,0,0,0,0,0,0,0,0,0,0,0,0,0,0,0,0,0,0,0,0],"id":49,"left_children":[1,3,5,7,9,11,13,15,17,19,21,23,25,-1,-1,-1,-1,-1,-1,-1,-1,-1,-1,-1,-1,-1,-1],"loss_changes":[1.6337572E2,4.0750336E1,1.8011856E1,1.5367809E1,1.3317715E1,1.0965515E1,9.640274E-1,6.3624105E0,1.179393E1,1.2915922E1,1.6504545E1,9.044036E0,9.023689E0,0E0,0E0,0E0,0E0,0E0,0E0,0E0,0E0,0E0,0E0,0E0,0E0,0E0,