tree
version=v4
num_class=1
num_tree_per_iteration=1
label_index=0
max_feature_idx=166
objective=binary sigmoid:1
feature_names=is_home ip_avg_5 k_pct_5 k9_5 era_5 whip_5 fip_5 bb_pct_5 hr9_5 k_pct_10 k9_10 era_10 whip_10 fip_10 starts_in_window_5 starts_in_window_10 last_start_k last_start_ip last_start_bb sp_days_since_last_start is_short_rest era_home_10 era_away_10 k9_home_10 k9_away_10 fip_home_10 fip_away_10 opp_k_pct_avg_10 opp_k_pct_avg_5 opp_bb_pct_avg_10 opp_avg_avg_10 opp_hr_avg_10 opp_iso_avg_10 opp_slg_avg_10 opp_lineup_k_pct_std opp_lineup_k_pct_cv opp_lineup_pct_lhb park_run_factor park_hr_factor ump_k9_avg_10 ump_bb9_avg_10 temperature_f wind_speed_mph wind_sin wind_cos precip_prob_pct is_dome is_day_game market_total opp_lineup_avg_avg_10 opp_lineup_iso_avg_10 opp_top4_slg_avg_10 sc_barrel_rate sc_hard_hit_pct sc_avg_exit_velo sc_gb_pct sc_fb_pct sc_xba sc_xslg sc_xwoba sc_sp_fb_whiff_pct sc_sp_fb_k_pct sc_sp_fb_put_away sc_sp_sl_pct sc_sp_sl_whiff_pct sc_sp_sl_k_pct sc_sp_sl_run_value_per_100 sc_sp_ch_pct sc_sp_ch_whiff_pct sc_sp_ch_k_pct sc_sp_fb_pct sc_sp_fb_hard_hit_pct sc_sp_fb_xwoba sc_sp_fb_run_value_per_100 sc_sp_si_pct sc_sp_si_whiff_pct sc_sp_si_k_pct sc_sp_si_hard_hit_pct sc_sp_fastball_family_pct sc_sp_pitch_diversity sc_sp_oz_swing_pct sc_sp_iz_contact_pct sc_sp_oz_contact_pct sc_sp_disc_whiff_pct catcher_framing_rv catcher_framing_rate sp_fb_velo_avg_5 sp_fb_velo_trend_5 venue_n_starts venue_era venue_k9 venue_fip sp_k_pct_vs_lhb_25 sp_k_pct_vs_rhb_25 sp_k_pct_vs_lhb_10 sp_k_pct_vs_rhb_10 svt_games svt_era svt_k9 svt_k_pct svt_era_last3 svt_k9_last3 market_k_line book_line season_2025-regular season_2026-regular pitcher_hand_L pitcher_hand_R pitcher_hand_nan sc_xslg_x_park sp_k_pct_vs_opp_k_rate opp_team_k_trend_5v10 k9_trend_5v10 k_pct_trend_5v10 era_trend_5v10 fip_trend_5v10 sp_vs_team_reliability sp_vs_team_has_history sp_vs_team_era_adj sp_vs_team_era_delta sp_vs_team_k9_adj sp_vs_team_k9_delta k_pct_x_park_hr wind_x_park_hr is_cold_game temp_below_60 sp_k_pct_trend_5v10 sp_k9_trend_5v10 k_trend_x_ump_k9 contact_vs_ump_zone ump_k9_x_sp_k_pct ump_k9_x_opp_k_pct ump_k9_x_sp_whiff_pct ump_k9_x_sp_sl_whiff_pct ump_k9_x_sp_k9_5 ump_k9_x_sp_opp_k_triple market_k_line_filled market_k_line_vs_avg market_k_line_known sc_barrel_x_park_hr sc_hard_hit_x_fb sc_exit_velo_above_avg sc_barrel_vs_k_rate sc_hard_hit_vs_opp_k sp_days_from_optimal_rest sp_is_extended_rest cold_x_sp_sl_pct cold_x_sp_offspeed_pct k9_shrunk k_pct_shrunk framing_hand_benefit sp_k_pct_x_opp_cv venue_k9_adj venue_k9_delta venue_era_adj venue_era_delta venue_fip_adj last_start_dominated last_start_blowup last_start_k9 last_start_k_bb framing_x_sp_edge_work framing_x_ump_k9 sp_k_split_advantage sp_k_split_trend_lhb sp_k_split_trend_rhb lineup_lhb_pct_x_sp_lhb_adv
feature_infos=[0:1] [2.8866666666666667:8.1099999999999994] [0.064158281160064612:0.43214441061331016] [2.8031199854006328:16.705223880597014] [0.22500000000000001:65.02204492966618] [0.50119100899357516:7.0931310798516334] [0.52881115468099638:25.800782653323068] [0:0.35488224550981373] [0:9.7837497375603615] [0.064158281160064612:0.43214441061331016] [2.8031199854006328:16.705223880597014] [0.1875:65.02204492966618] [0.50119100899357516:7.0931310798516334] [0.52881115468099638:25.800782653323068] [3:5] [3:10] [0:14] [0.33000000000000002:9] [0:6] [5:52] none [0:111.01810395172279] [0:67.164179104477611] [0:20.25] [0:21.600000000000001] [-0.55000000000000004:37.226173979984601] [-1:21.110447761194031] [0.1405217674285569:0.35338711884457152] [0.12346590011063693:0.39253617915757133] [0.032233820101467157:0.1584813897316413] [0.16805689281982386:0.32169675548713789] [0.10000000000000001:2.7999999999999998] [0.054174159174159173:0.27270212630506746] [0.2386032430213465:0.55742922458379862] [0.030672755031698216:0.35091575211062426] [0.1171606982740182:1.0512350233113004] [0:0.77777777777777779] [0.89900000000000002:1.2110000000000001] [0.76400000000000001:1.226] [6.6797233666862867:11.378219723120703] [1.6549403956674502:5.2212232119234496] [32.899999999999999:110.8] [0.20000000000000001:19.300000000000001] [-1:1] [-1:1] [0:83] none [0:1] [1.5:24.5] [0.13768518518518516:0.36348484848484852] [0.044166666666666667:0.41425925925925927] [0.21431901826638669:0.83848096176269549] [3.5433035714285714:16.199999999999999] [29.5:51.100000000000001] [85.900000000000006:92.400000000000006] [16.529566854990584:100] [17.569962335216573:100] [0.185:0.30745000000000006] [0.29099999999999998:0.62300000000000011] [0.2471339285714286:0.40799999999999997] [4.5999999999999996:45.100000000000001] [4:55.600000000000001] [2.3999999999999999:34.799999999999997] [6:47.299999999999997] [10.6:52.899999999999999] [5:58.100000000000001] [-6.5999999999999996:4.4000000000000004] [7:38.399999999999999] [12.199999999999999:50.399999999999999] [3.5:50.700000000000003] [7.9000000000000004:61.899999999999999] [23.100000000000001:75] [0.13900000000000001:0.59799999999999998] [-7.4000000000000004:3.7000000000000002] [5.2000000000000002:54.399999999999999] [0:29] [0:34.299999999999997] [19.899999999999999:69.599999999999994] [16.899999999999999:72.799999999999997] [0.38100000000000001:0.88600000000000001] [20.199999999999999:39] [70.900000000000006:92.799999999999997] [36.5:78] [12.6:39.5] [-4.0760224701199324:4.0973909206479613] [0.375:0.56896551724137934] [86.203421717171707:100.01500519173102] [-4.0750000000000028:2.9854775713212973] [0:24] [0:218.18181818181819] [0:27.272727272727273] [-0.050000000000000003:69.86666666666666] [0.050000000000000003:0.51724137931034486] [0.066666666666666666:0.47368421052631576] [0.050000000000000003:0.51724137931034486] [0.066666666666666666:0.47368421052631576] [0:8] [0:40.5] [0:21.621621621621621] [0:1] [0:40.5] [0:21.621621621621621] [2.5:8.5] [1.5:10.5] [0:1] [0:1] [0:1] [0:1] none [0.23523704150943392:0.6605886323529413] [0.015137283581528344:0.12942929832725739] [-0.090079223163408773:0.10018393281271148] [-3.84781990521327:2.7745778611632277] [-0.11072126858639827:0.079027859827041247] [-12.542835820895522:19.309049363511051] [-4.0050300463054453:3.3753818444058457] [0:1] [0:1] [0:9.1454965357967666] [-42.396923043986604:6.8207217090069285] [0:11.52] [-5.0918209791946367:5.113265475182339] [0.057165028513617572:0.48340282352941183] [0.20680000000000001:22.313199999999998] [0:1] [0:27.100000000000001] [-0.11072126858639827:0.079027859827041247] [-3.84781990521327:2.7745778611632277] [-0.95119839592672117:0.66306607353336333] [0.28517190428849742:0.67082560628806798] [0.58300782809826901:3.9564788593284592] [1.0529472139128015:3.5471737107471926] [102.23364239486472:396.90529411764703] [89.193888276742996:505.5861918775725] [25.375071370860027:147.94192226441515] [0.12712890400589605:1.1807990750279531] [2.5:8.5] [-2:4] [0:1] [3.3236187499999996:17.409199999999998] [6.3860617117728911:51.100000000000001] [-2.0999999999999943:4.4000000000000057] [11.342174439776862:144.61379329758503] [5.1350850719721475:15.778160551751634] [1:5] [0:1] [0:593.01999999999998] [0:885.56000000000006] [5.1921591619762353:12.533587143973209] [0.13731863356692828:0.34452621330038874] [0:0.56896551724137934] [0.09581705120516619:0.72631136991966272] [1.8862771374966498:16.705223880597014] [-6.3447101693687085:6.3917810813753313] [0.1875:106.98439358947442] [-25.371287050506741:63.445249984203471] [0.52881115468099638:40.489410657770932] [0:1] [0:1] [0:27.272727272727273] [0:14] [-131.39378796801469:142.99894313061384] [-39.225722124212993:42.094235736568542] [-0.23286875725900116:0.24367816091954025] [-0.11523378582202112:0.12113839975285756] [-0.10975258503989171:0.12299421009098427] [-0.10376368271105113:0.094444444444444442]
tree_sizes=3383 3395 3405 3367

Tree=0
num_leaves=31
num_cat=0
split_feature=61 80 149 21 35 159 33 89 25 8 54 164 28 39 132 34 89 156 165 41 75 59 39 17 50 159 149 51 31 164
split_gain=22.9104 13.2069 12.3606 9.86189 9.51332 9.00305 8.66116 9.3883 7.97574 10.9709 7.62265 6.69697 6.66814 5.81113 8.299 5.76849 5.66708 7.36946 5.4751 5.00131 4.9767 4.89753 4.74587 5.11177 5.77785 4.71159 4.56943 4.46139 4.30046 4.93634
threshold=27.550000000000004 29.250000000000004 0.18056449150780493 4.2627014218009487 0.43408734644271357 4.2935657675392447 0.47006128108118578 6.5459391203207797 4.1249228649632812 1.6202702702702705 90.693131108272141 -0.018964225948469565 0.180510481801745 9.005423466196893 204.86185973116258 0.13360275806157121 3.5879712775194541 3.4114556683088382 -0.0090225494236258041 85.050000000000011 6.3500000000000005 0.31921762958071981 8.0510969269249522 4.5000000000000009 0.18974074074074079 15.694905213270145 0.27191911374251693 0.37974726827668009 0.55000000000000016 0.017584440570374092
decision_type=2 2 2 2 2 2 2 2 2 2 2 2 2 2 2 2 2 2 2 2 2 2 2 2 2 2 2 2 2 2
left_child=1 2 4 8 27 -2 7 10 13 -10 12 -6 -4 14 18 22 17 -14 -3 25 -18 -19 -5 -24 -25 28 -16 -1 -7 -30
right_child=5 3 6 15 11 19 -8 -9 9 -11 -12 -13 16 -15 26 -17 20 21 -20 -21 -22 -23 23 24 -26 -27 -28 -29 29 -31
leaf_value=0.026922351924024854 0.0074074954835590644 0.049124464199180297 0.042943427880203666 0.044467336127881202 0.051282686951372822 0.032636929313022527 0.049517280150642266 0.046225656975346349 0.087563015912387174 0.028167730220733919 0.036030810701600177 0.0028517476163456047 0.0017722990888653437 0.019112114594320946 0.065180312771092971 0.048169232177286123 0.036175396612080732 0.058619227096439817 0.009286899196750735 0.025862464869644497 -0.0037364736188625972 0.018168896597073166 0.036945859062505901 -0.0093892311279870008 0.03932196877580587 0.027443455654784909 0.027588800594107937 0.069419194614127197 0.075270390544052754 0.03881676399426618
leaf_weight=5.2486021667718914 5.2486021667718878 9.2475371509790438 8.2478034049272519 6.7482027858495703 6.4982693493366268 8.497736841440199 12.996538698673247 15.24593962728977 17.245407119393352 9.7474040240049344 21.494275540113449 14.246205881237982 15.24593962728977 23.743676468729973 34.740747675299644 11.496938079595564 6.2483359128236762 12.496671825647356 16.495606809854507 7.9978699684143058 114.21958048641682 7.9978699684143058 8.9976037144660932 25.743143960833553 4.9986687302589408 6.7482027858495703 7.2480696588754645 21.244342103600502 54.485489159822464 15.24593962728977
leaf_count=21 21 37 33 27 26 34 52 61 69 39 86 57 61 95 139 46 25 50 66 32 457 32 36 103 20 27 29 85 218 61
internal_value=0.0326369 0.0276928 0.0206199 0.0380764 0.042647 0.0538499 0.0155306 0.0128578 0.046257 0.0679869 0.00970692 0.0196688 0.00612026 0.038086 0.0455536 0.0220051 0.00376155 0.0238414 0.0247647 0.0578806 -0.00140859 0.0421115 0.0141689 0.00771796 -0.000942084 0.0613809 0.0583126 0.0606356 0.0647449 0.0685815
internal_weight=536.107 437.883 261.43 176.453 47.2374 98.2238 214.193 201.196 118.468 26.9928 185.95 20.7445 164.456 91.4756 67.732 57.9846 156.208 35.7405 25.7431 92.9752 120.468 20.4945 46.4876 39.7394 30.7418 84.9774 41.9888 26.4929 78.2292 69.7314
internal_count=2145 1752 1046 706 189 393 857 805 474 108 744 83 658 366 271 232 625 143 103 372 482 82 186 159 123 340 168 106 313 279
is_linear=0
shrinkage=1


Tree=1
num_leaves=31
num_cat=0
split_feature=61 83 32 111 103 165 50 82 67 91 8 68 88 83 71 86 29 39 72 126 87 111 34 34 33 21 87 166 101 154
split_gain=20.5933 12.2325 14.907 13.5669 10.5971 8.81985 11.0041 10.0857 8.5239 7.94582 9.74818 7.79771 7.72673 7.47472 7.38542 8.16945 7.38283 7.82939 7.15359 6.92106 6.86772 6.79013 6.46014 6.15796 7.14515 5.62133 5.58786 5.38125 5.2699 5.25274
threshold=27.550000000000004 29.550000000000001 0.11599470374070768 0.047273139542242527 5.0000000000000009 -0.0063056409190196941 0.18675925925925929 56.050000000000004 14.800000000000002 5.2009963168510902 1.3051436031515202 30.350000000000005 14.500000000000002 23.650000000000002 47.45000000000001 94.092862339724817 0.10715721569870036 9.0178856398729828 0.35600000000000004 0.0094213404593750816 0.21915496098104373 -0.013079751580454086 0.096510044469299186 0.10933930410324857 0.32610276442768132 4.3880276735459676 -0.59229331899983595 -0.015528036656899934 5.9694061187762459 3.8167190998848901
decision_type=2 2 2 2 2 2 2 2 2 2 2 2 2 2 2 2 2 2 2 2 2 2 2 2 2 2 2 2 2 2
left_child=1 3 -3 4 5 9 7 -7 -9 10 27 12 19 21 29 20 17 -4 -13 28 -16 22 -10 24 -2 -15 -26 -1 -6 -12
right_child=23 2 16 -5 11 6 -8 8 13 -11 14 18 -14 25 15 -17 -18 -19 -20 -21 -22 -23 -24 -25 26 -27 -28 -29 -30 -31
leaf_value=-0.0113782650832897 -0.01041298339129863 -0.030024235871760497 0.052428208668738221 0.028459467589150123 0.0018492919224514797 0.0082183704813545248 0.016945236854711689 0.0060137146660827895 0.015731317674082063 0.04184701170731784 0.003834602532506066 0.019909003031743023 0.0049282156613437399 0.010307057072624366 0.013841093707579267 0.037603697436422723 -0.010442220803875045 -0.0006874248077119524 -0.021488917375546954 0 -0.040111361594317385 -0.051802891472903616 -0.031096450745940085 0.005905165785162112 -0.0038891540371658998 -0.027615732945440022 0.044348754634916512 0.024095529144728518 -0.045345982830122943 -0.045228750464306126
leaf_weight=9.7441226392984372 5.7470248043537131 7.9955340027809134 23.98258171975613 19.492613404989243 4.9983038306236258 27.239359334111214 23.990908905863762 16.744199514389038 8.4960414469242114 9.4946317970752698 5.2472259849309948 16.242349013686184 11.744680538773535 16.741996780037883 6.9977067559957522 6.7479736208915702 5.7461246103048316 7.7482030242681494 15.495257884263991 12.994389057159422 6.9984235912561417 37.492209330201149 11.248628258705137 48.706750229001045 4.9956478625535956 12.49791434407234 38.712769076228142 38.980874806642532 57.483760446310043 15.245518460869787
leaf_count=39 23 32 96 78 20 109 96 67 34 38 21 65 47 67 28 27 23 31 62 52 28 150 45 195 20 50 155 156 230 61
internal_value=0 -0.00464309 0.0184922 -0.00758622 -0.00988841 -0.00383388 -0.0112343 -0.0170351 -0.0240022 0.00740698 0.00149692 -0.0219337 -0.0292923 -0.0300984 -0.0151358 0.0049159 0.0317473 0.0404495 0 -0.0349033 -0.0152774 -0.0400757 -0.0108292 0.0201621 0.0319128 -0.00683769 0.0384889 0.0161374 -0.0413428 -0.0333972
internal_weight=535.994 437.832 45.4724 392.359 372.866 253.908 154.451 130.46 103.221 99.4565 89.9618 118.959 87.2211 86.4768 41.2368 20.7441 37.4769 31.7308 31.7376 75.4765 13.9961 57.2369 19.7447 98.1622 49.4554 29.2399 43.7084 48.725 62.4821 20.4927
internal_count=2145 1752 182 1570 1492 1016 618 522 413 398 360 476 349 346 165 83 150 127 127 302 56 229 79 393 198 117 175 195 250 82
is_linear=0
shrinkage=0.05


Tree=2
num_leaves=31
num_cat=0
split_feature=61 80 90 6 92 7 33 164 149 93 159 94 156 121 70 95 15 67 142 114 83 85 12 152 139 23 67 34 62 95
split_gain=18.7242 11.5435 13.0273 10.3127 9.98613 9.51819 8.95478 9.97473 13.7347 8.79991 8.30161 7.84158 7.31614 7.0593 6.89473 6.21561 6.05036 6.0481 5.93209 5.85717 5.80945 5.7922 5.69699 5.16879 5.018 4.90958 4.48531 4.46793 4.39413 5.02374
threshold=27.550000000000004 29.250000000000004 6.4306994391290013 4.5140046504356164 0.29831635540464069 0.062093376287266987 0.47006128108118578 0.0049363521409527969 0.18056449150780493 0.28460753571250813 4.2935657675392447 0.22439443066946407 3.8732911326161052 0.61508069351221717 27.850000000000005 0.20436048238578985 6.5000000000000009 14.800000000000002 53.650031803153595 0.028633345529438085 21.250000000000004 0.5102696439856752 1.3525256093009659 10.948359431678368 9.4146848897207089 9.6685272045028157 23.050000000000001 0.13060826393919692 10.050000000000002 0.19036004645760746
decision_type=2 2 2 2 2 2 2 2 2 2 2 2 2 2 2 2 2 2 2 2 2 2 2 2 2 2 2 2 2 2
left_child=1 2 15 4 9 -6 7 8 16 13 -2 28 14 20 -13 -1 -4 -9 -5 -11 -3 26 -14 -7 -8 -22 -19 -16 -10 -30
right_child=10 3 6 18 5 23 24 17 11 19 -12 12 22 -15 27 -17 -18 21 -20 -21 25 -23 -24 -25 -26 -27 -28 -29 29 -31
leaf_value=0.040624614388036731 -0.025089826561074832 0 -0.0079906192498154054 -0.021146034925498831 -0.043228272845224326 0.024573281197001858 0.035538914349255102 0.0026411287793645967 0.0048125873319561372 -0.017520977604640813 0.023159689591704287 0.011617989864591879 0.027660447946189146 -0.0012318942957331134 -0.043799959635830853 -0.0040030969698061905 0.035668611616782663 -0.045592645283726974 0.011476431453918669 0.025443677101186037 0.061229156375230402 0.004427656305676808 -0.00574809537564306 -0.015667578804222742 -0.010234061140331567 0.019134322287169634 -0.00015130691181272445 0.0021530496028688904 0.0018388034070139416 -0.041968987481136227
leaf_weight=11.985603645443918 5.2485278546810141 9.2449514865875226 8.7443736493587512 40.474177062511444 8.4964468032121676 13.72885173559189 8.9901871234178525 9.2447957545518857 5.2488617897033683 17.986561149358753 92.838724493980408 7.7476028352975872 16.241778507828712 12.240616887807844 17.742227911949161 11.242837846279143 16.982225596904755 53.475567907094955 15.241640001535414 6.9906449019908896 21.967060178518295 5.7476236820220938 26.489406168460846 8.7420155107974988 6.2447876185178748 21.228866085410118 7.2466290891170493 4.9975075572729102 5.9973356127738944 36.986858516931534
leaf_count=48 21 37 35 162 34 55 36 37 21 72 372 31 65 49 71 45 68 214 61 28 88 23 106 35 25 85 29 20 24 148
internal_value=6.63044e-06 -0.00441654 -0.0110335 0.00528646 0.0134363 -0.0094114 -0.0146584 -0.0173151 -0.00895845 0.0216721 0.0192437 -0.0161131 -0.00472943 0.030842 -0.0218805 0.0212556 0.0211299 -0.0316882 -0.0115999 -0.00242387 0.0382194 -0.0366633 0.00799379 0.00800576 0.0176485 0.0451914 -0.0409741 -0.0342319 -0.0308568 -0.035781
internal_weight=535.785 437.698 261.356 176.342 120.626 30.9673 238.128 222.893 147.178 89.6587 98.0873 121.452 73.2185 64.6815 30.4873 23.2284 25.7266 75.7146 55.7158 24.9772 52.4409 66.4698 42.7312 22.4709 15.235 43.1959 60.7222 22.7397 48.2331 42.9842
internal_count=2145 1752 1046 706 483 124 953 892 589 359 393 486 293 259 122 93 103 303 223 100 210 266 171 90 61 173 243 91 193 172
is_linear=0
shrinkage=0.05


Tree=3
num_leaves=31
num_cat=0
split_feature=83 95 32 114 94 34 33 33 39 40 88 74 3 75 40 154 15 26 152 11 50 29 97 25 32 82 50 99 87 55
split_gain=16.9232 10.1726 8.70858 9.26892 8.55263 7.76082 8.8499 7.60095 7.73251 8.68394 7.29026 7.2157 7.16891 7.15022 6.72631 6.72369 6.71089 6.4379 6.49402 6.42563 5.40341 5.38914 8.33604 5.9478 6.94258 5.59245 5.33464 5.2293 5.75357 5.33563
threshold=24.250000000000004 0.22554997608799621 0.1446514690857458 0.45719848115761558 0.1978938130759105 0.089872705383807219 0.35554443214005732 0.3433508201526147 8.8212681014680943 3.3090928178862318 16.500000000000004 15.050000000000002 5.6718477481442662 11.350000000000003 2.9004424831805746 2.2876319183864919 3.5000000000000004 3.7605363359596002 7.2349492996281546 4.6153784936353413 0.12982407407407409 0.068291708026400166 3.4924975798644726 1.7149911816578485 0.094873310437685612 46.600000000000009 0.14338888888888893 0.66025641025641035 -0.8765292179423908 24.06045188743278
decision_type=2 2 2 2 2 2 2 2 2 2 2 2 2 2 2 2 2 2 2 2 2 2 2 2 2 2 2 2 2 2
left_child=1 7 4 27 -2 14 -7 11 17 26 15 -1 -13 -5 -3 -8 -6 18 -9 -16 -19 -18 23 -23 -25 -26 -10 28 -4 -30
right_child=2 5 3 13 16 6 10 8 9 -11 -12 12 -14 -15 19 -17 21 20 -20 -21 -22 22 -24 24 25 -27 -28 -29 29 -31
leaf_value=0.016697507572762643 -0.038022048411968622 -0.023724276269453677 -0.0073278986335647642 0.028243124077461192 -0.01925776005700415 -0.0022189149552125161 0.0034155862790448397 -0.027392944519767017 0.0038078903153724686 0.0139672917682621 0.011427313858866736 0.0089355982597357029 -0.046544999891426374 -0.021364539437533032 -0.0094826590247213266 -0.042196338791615516 -0.012214578916922085 0 0.019781665976132429 0.031969141055667082 0.037891224232687259 -0.012578597267247086 -0.0073317842841449724 -0.012300261011113577 0 0.042939086352372174 -0.04422971901599778 -0.010230521071294867 0.0026594889166493018 0.037456717494579059
leaf_weight=6.2433060556650188 8.2396884560585004 12.237430691719053 7.4888499826192847 5.2426233589649227 19.725721269845963 37.213163927197456 7.2400451600551596 9.739858955144884 6.2432049661874798 17.220130860805511 5.4949142336845389 5.2434993833303478 15.235366106033323 19.46649806201458 12.233712017536165 62.175755798816681 18.224395126104355 12.731752470135687 9.2317915111780149 16.230079352855682 31.948794275522232 5.9932920634746543 25.964572429656982 5.4956855326890937 9.7395982891321164 39.426853060722351 12.236108168959616 6.2403431683778754 15.723638027906416 69.611076474189758
leaf_count=25 33 49 30 21 79 149 29 39 25 69 22 21 61 78 49 249 73 51 37 65 128 24 104 22 39 158 49 25 63 279
internal_value=3.30125e-05 -0.00837482 0.00925307 0.0185198 7.68268e-05 -0.0168551 -0.0234069 0.001965 0.00857819 -0.00882519 -0.0328221 -0.019311 -0.0323925 -0.00701575 0.0012328 -0.0371932 0.00415981 0.0186349 -0.00405644 0.0146512 0.0282116 0.0094693 0.014722 0.0243826 0.0295687 0.0354136 -0.0295807 0.0251604 0.0281965 0.0318239
internal_weight=535.482 278.899 256.583 123.773 132.81 152.825 112.124 126.074 99.3516 35.6994 74.9107 26.7222 20.4789 24.7091 40.7012 69.4158 124.57 63.6522 18.9717 28.4638 44.6805 104.844 86.62 60.6554 54.6621 49.1665 18.4793 99.0639 92.8236 85.3347
internal_count=2145 1117 1028 496 532 612 449 505 398 143 300 107 82 99 163 278 499 255 76 114 179 420 347 243 219 197 74 397 372 342
is_linear=0
shrinkage=0.05


end of trees

feature_importances:
opp_slg_avg_10=5
opp_lineup_k_pct_std=5
ump_k9_avg_10=4
opp_lineup_iso_avg_10=4
sc_sp_disc_whiff_pct=4
opp_iso_avg_10=3
sc_sp_fb_k_pct=3
sc_sp_ch_pct=3
sp_fb_velo_trend_5=3
sp_k_pct_vs_rhb_10=3
k_pct_shrunk=3
last_start_k9=3
sp_k_split_trend_lhb=3
hr9_5=2
starts_in_window_10=2
era_home_10=2
fip_home_10=2
opp_bb_pct_avg_10=2
ump_bb9_avg_10=2
sc_sp_si_whiff_pct=2
sc_sp_oz_swing_pct=2
sc_sp_oz_contact_pct=2
venue_n_starts=2
venue_era=2
sp_k_pct_vs_lhb_10=2
opp_team_k_trend_5v10=2
era_trend_5v10=2
venue_k9_adj=2
venue_era_adj=2
venue_fip_adj=2
sp_k_split_trend_rhb=2
k9_5=1
fip_5=1
bb_pct_5=1
era_10=1
whip_10=1
last_start_ip=1
k9_home_10=1
fip_away_10=1
opp_k_pct_avg_5=1
opp_hr_avg_10=1
opp_lineup_k_pct_cv=1
temperature_f=1
opp_top4_slg_avg_10=1
sc_avg_exit_velo=1
sc_gb_pct=1
sc_xwoba=1
sc_sp_fb_put_away=1
sc_sp_ch_whiff_pct=1
sc_sp_fb_pct=1
sc_sp_fb_hard_hit_pct=1
sc_sp_fb_xwoba=1
sc_sp_si_pct=1
catcher_framing_rate=1
sp_fb_velo_avg_5=1
venue_k9=1
venue_fip=1
sp_k_pct_vs_lhb_25=1
sp_k_pct_vs_rhb_25=1
svt_era=1
svt_k_pct=1
svt_k9_last3=1
book_line=1
sp_vs_team_k9_delta=1
sp_k_pct_trend_5v10=1
ump_k9_x_sp_whiff_pct=1
sc_barrel_x_park_hr=1
sc_barrel_vs_k_rate=1
lineup_lhb_pct_x_sp_lhb_adv=1

parameters:
[boosting: gbdt]
[objective: binary]
[metric: binary_logloss]
[tree_learner: serial]
[device_type: cpu]
[data_sample_strategy: bagging]
[data: ]
[valid: ]
[num_iterations: 4]
[learning_rate: 0.05]
[num_leaves: 31]
[num_threads: 4]
[seed: 42]
[deterministic: 0]
[force_col_wise: 0]
[force_row_wise: 0]
[histogram_pool_size: -1]
[max_depth: -1]
[min_data_in_leaf: 20]
[min_sum_hessian_in_leaf: 0.001]
[bagging_fraction: 0.8]
[pos_bagging_fraction: 1]
[neg_bagging_fraction: 1]
[bagging_freq: 0]
[bagging_seed: 400]
[bagging_by_query: 0]
[feature_fraction: 0.8]
[feature_fraction_bynode: 1]
[feature_fraction_seed: 30056]
[extra_trees: 0]
[extra_seed: 12879]
[early_stopping_round: 0]
[early_stopping_min_delta: 0]
[first_metric_only: 0]
[max_delta_step: 0]
[lambda_l1: 0.5]
[lambda_l2: 5]
[linear_lambda: 0]
[min_gain_to_split: 0]
[drop_rate: 0.1]
[max_drop: 50]
[skip_drop: 0.5]
[xgboost_dart_mode: 0]
[uniform_drop: 0]
[drop_seed: 17869]
[top_rate: 0.2]
[other_rate: 0.1]
[min_data_per_group: 100]
[max_cat_threshold: 32]
[cat_l2: 10]
[cat_smooth: 10]
[max_cat_to_onehot: 4]
[top_k: 20]
[monotone_constraints: ]
[monotone_constraints_method: basic]
[monotone_penalty: 0]
[feature_contri: ]
[forcedsplits_filename: ]
[refit_decay_rate: 0.9]
[cegb_tradeoff: 1]
[cegb_penalty_split: 0]
[cegb_penalty_feature_lazy: ]
[cegb_penalty_feature_coupled: ]
[path_smooth: 0]
[interaction_constraints: ]
[verbosity: -1]
[saved_feature_importance_type: 0]
[use_quantized_grad: 0]
[num_grad_quant_bins: 4]
[quant_train_renew_leaf: 0]
[stochastic_rounding: 1]
[linear_tree: 0]
[max_bin: 255]
[max_bin_by_feature: ]
[min_data_in_bin: 3]
[bin_construct_sample_cnt: 200000]
[data_random_seed: 175]
[is_enable_sparse: 1]
[enable_bundle: 1]
[use_missing: 1]
[zero_as_missing: 0]
[feature_pre_filter: 1]
[pre_partition: 0]
[two_round: 0]
[header: 0]
[label_column: ]
[weight_column: ]
[group_column: ]
[ignore_column: ]
[categorical_feature: ]
[forcedbins_filename: ]
[precise_float_parser: 0]
[parser_config_file: ]
[objective_seed: 16083]
[num_class: 1]
[is_unbalance: 0]
[scale_pos_weight: 1]
[sigmoid: 1]
[boost_from_average: 1]
[reg_sqrt: 0]
[alpha: 0.9]
[fair_c: 1]
[poisson_max_delta_step: 0.7]
[tweedie_variance_power: 1.5]
[lambdarank_truncation_level: 30]
[lambdarank_norm: 1]
[label_gain: ]
[lambdarank_position_bias_regularization: 0]
[eval_at: ]
[multi_error_top_k: 1]
[auc_mu_weights: ]
[num_machines: 1]
[local_listen_port: 12400]
[time_out: 120]
[machine_list_filename: ]
[machines: ]
[gpu_platform_id: -1]
[gpu_device_id: -1]
[gpu_use_dp: 0]
[num_gpu: 1]

end of parameters

pandas_categorical:[]
