tree
version=v4
num_class=1
num_tree_per_iteration=1
label_index=0
max_feature_idx=115
objective=binary sigmoid:1
feature_names=is_home ip_avg_5 k_pct_5 k9_5 era_5 whip_5 fip_5 bb_pct_5 hr9_5 k_pct_10 k9_10 era_10 whip_10 fip_10 starts_in_window_5 starts_in_window_10 last_start_k last_start_ip last_start_bb sp_days_since_last_start is_short_rest era_home_10 era_away_10 k9_home_10 k9_away_10 fip_home_10 fip_away_10 opp_k_pct_avg_10 opp_bb_pct_avg_10 opp_avg_avg_10 opp_hr_avg_10 opp_iso_avg_10 opp_slg_avg_10 opp_lineup_k_pct_std opp_lineup_k_pct_cv park_run_factor park_hr_factor ump_k9_avg_10 ump_bb9_avg_10 temperature_f wind_speed_mph wind_sin wind_cos precip_prob_pct is_dome is_day_game market_total pitcher_hand opp_lineup_avg_avg_10 opp_lineup_iso_avg_10 opp_top4_slg_avg_10 sc_barrel_rate sc_hard_hit_pct sc_avg_exit_velo sc_gb_pct sc_fb_pct sc_xba sc_xslg sc_xwoba sc_sp_fb_whiff_pct sc_sp_fb_k_pct sc_sp_fb_put_away sc_sp_sl_pct sc_sp_sl_whiff_pct sc_sp_sl_k_pct sc_sp_sl_run_value_per_100 sc_sp_ch_pct sc_sp_ch_whiff_pct sc_sp_ch_k_pct sc_sp_fb_pct sc_sp_fb_hard_hit_pct sc_sp_fb_xwoba sc_sp_fb_run_value_per_100 sc_sp_si_pct sc_sp_si_whiff_pct sc_sp_si_k_pct sc_sp_si_hard_hit_pct sc_sp_fastball_family_pct sc_sp_pitch_diversity sc_sp_oz_swing_pct sc_sp_iz_contact_pct sc_sp_oz_contact_pct sc_sp_disc_whiff_pct catcher_framing_rv catcher_framing_rate book_line season_2025-regular season_2026-regular sc_xslg_x_park sp_k_pct_vs_opp_k_rate k9_trend_5v10 k_pct_trend_5v10 era_trend_5v10 fip_trend_5v10 k_pct_x_park_hr wind_x_park_hr is_cold_game temp_below_60 sp_k_pct_trend_5v10 sp_k9_trend_5v10 k_trend_x_ump_k9 ump_k9_x_sp_k_pct ump_k9_x_opp_k_pct ump_k9_x_sp_whiff_pct ump_k9_x_sp_sl_whiff_pct ump_k9_x_sp_k9_5 ump_k9_x_sp_opp_k_triple sc_barrel_x_park_hr sc_hard_hit_x_fb sc_exit_velo_above_avg sc_barrel_vs_k_rate sc_hard_hit_vs_opp_k k9_shrunk k_pct_shrunk framing_hand_benefit sp_k_pct_x_opp_cv
feature_infos=[0:1] [2.8866666666666667:8.1099999999999994] [0.064158281160064612:0.43214441061331016] [2.8031199854006328:16.705223880597014] [0.22500000000000001:65.02204492966618] [0.50119100899357516:7.0931310798516334] [0.52881115468099638:25.800782653323068] [0:0.21031109374845269] [0:9.7837497375603615] [0.064158281160064612:0.43214441061331016] [2.8031199854006328:16.705223880597014] [0.1875:65.02204492966618] [0.50119100899357516:7.0931310798516334] [0.52881115468099638:25.800782653323068] [3:5] [3:10] [0:14] [0.33000000000000002:9] [0:6] [5:52] none [0:111.01810395172279] [0:67.164179104477611] [0:20.25] [0:21.600000000000001] [-0.55000000000000004:37.226173979984601] [-1:21.110447761194031] [0.1405217674285569:0.35338711884457152] [0.032233820101467157:0.15543293964489618] [0.16805689281982386:0.32169675548713789] [0.10000000000000001:2.7999999999999998] [0.054174159174159173:0.27270212630506746] [0.2386032430213465:0.55742922458379862] [0.030672755031698216:0.35091575211062426] [0.11716069827401815:1.0512350233113006] [0.89900000000000002:1.2110000000000001] [0.76400000000000001:1.226] [6.746297649494581:11.378219723120703] [1.6549403956674502:5.2212232119234496] [32.899999999999999:110.8] [0.5:19.100000000000001] [-1:1] [-1:1] [0:64] none [0:1] [1.5:24.5] none [0.13768518518518516:0.35722222222222227] [0.04416666666666666:0.41425925925925927] [0.21431901826638669:0.83848096176269549] [3.3562500000000002:16.199999999999999] [28.38963963963964:50.731428571428566] [86.010237849017571:92.400000000000006] [16.529566854990584:100] [17.569962335216573:100] [0.18903278688524591:0.31064041095890416] [0.29662500000000003:0.62300000000000011] [0.24387500000000001:0.41599999999999998] [4.9000000000000004:47.100000000000001] [4:55.600000000000001] [3.6000000000000001:36.399999999999999] [6:47.299999999999997] [12.300000000000001:59.200000000000003] [5:62.5] [-5.7999999999999998:4.2000000000000002] [7:38.399999999999999] [12:51.700000000000003] [3.5:52.100000000000001] [7.9000000000000004:61.899999999999999] [23.800000000000001:76.200000000000003] [0.17000000000000001:0.63300000000000001] [-7.4000000000000004:4.2999999999999998] [5.2000000000000002:54.399999999999999] [2.6000000000000001:28.800000000000001] [0:33.299999999999997] [15.6:68.799999999999997] [11.699999999999999:72.799999999999997] [0.38100000000000001:0.89400000000000002] [20.199999999999999:39.700000000000003] [70.900000000000006:92.700000000000003] [36.5:78.5] [12.5:39.799999999999997] [-3.7045350772375385:4.7826598605629087] [0.375:0.56896551724137934] [1.5:10.5] [0:1] [0:1] [0.24829999999999997:0.64902004794520551] [0.015137283581528344:0.12942929832725739] [-3.84781990521327:2.7745778611632277] [-0.10945394775538173:0.079027859827041247] [-12.542835820895522:7.9476078740960965] [-4.0050300463054453:3.3753818444058457] [0.057165028513617572:0.48340282352941183] [0.46200000000000002:22.313199999999998] [0:1] [0:27.100000000000001] [-0.10945394775538173:0.079027859827041247] [-3.84781990521327:2.7745778611632277] [-0.96115607438733952:0.66306607353336333] [0.58214205111411566:3.9564788593284592] [1.0529472139128015:3.5471737107471926] [98.571387699048486:353.85803146989423] [103.49856847206972:533.09080830206392] [25.434191632238097:147.94192226441515] [0.12712890400589605:1.1792388025801721] [3.1481625000000002:17.409199999999998] [6.3860617117728911:49.538317757009352] [-1.989762150982429:4.4000000000000057] [11.078700358293441:144.61379329758503] [5.1764960340084993:15.29062142632392] [5.1921591619762353:12.533587143973209] [0.13731863356692828:0.34452621330038874] [0:0.56896551724137934] [0.095817051205166176:0.72631136991966272]
tree_sizes=3328 3355 3354 3416 3404 3408 3380 3403 3380 3351 3377 3374

Tree=0
num_leaves=31
num_cat=0
split_feature=103 59 115 38 74 82 106 95 103 54 72 78 28 28 31 52 58 26 21 65 58 93 68 65 16 38 107 71 4 38
split_gain=14.8312 11.4997 11.3104 9.86066 10.9246 9.72439 11.846 8.62856 7.85305 7.74703 7.60124 8.77963 7.6909 7.47943 9.92441 6.11312 5.95971 5.51004 5.73374 5.21042 5.00693 5.20793 4.98604 4.90772 4.90436 6.89261 5.76796 5.56276 4.76788 4.67418
threshold=248.74199811169606 24.850000000000005 0.19812457424454882 2.9192436339699204 9.9500000000000011 22.400000000000002 0.44468649271841082 5.3644500000000006 241.49181049513541 23.068650526026634 -0.14999999999999999 0.58250000000000013 0.087566358265660324 0.11709537765243351 0.13243828297971275 45.014184343745583 0.30055168100433832 3.6351503276486592 5.0144841269841285 -1.3499999999999999 0.30648430826620537 0.007624981915693497 19.650000000000002 1.0000000180025095e-35 4.5000000000000009 3.04768650859193 8.8862676097323376 0.32050000000000006 5.0006545361595114 3.2531843259952242
decision_type=2 2 2 2 2 2 2 2 2 2 2 2 2 2 2 2 2 2 2 2 2 2 2 2 2 2 2 2 2 2
left_child=1 2 7 4 -4 24 17 -1 22 28 12 29 -8 14 -2 16 -11 -7 20 -9 -19 -22 -3 -16 26 -26 27 -5 -6 -12
right_child=13 8 3 5 9 6 10 19 -10 15 11 -13 -14 -15 23 -17 -18 18 -20 -21 21 -23 -24 -25 25 -27 -28 -29 -30 -31
leaf_value=-0.015357099651806939 0.0010723861617527185 -0.0059799652468010434 0.015552194662219321 -0.023345325543739647 0.01426983340507448 0.044089225176225072 0.0021940266236725754 -0.006454425129049533 -0.022870968497530064 0.0010723861617527185 0.014375932620822639 0.033033071565249525 -0.039338377893100171 -0.018523141678191204 0.0043150354362730273 0.0035455763610668066 -0.054332008206312475 -0.0089597878352037485 -0.013440810958875509 0.0394212074145808 0.043384333192902011 0.0010375799704179674 0.028965206687563392 0.048005841065764318 0.010346032575297077 -0.039414535595012103 -0.023212831802933268 0.019449230047708103 -0.027218795316868924 -0.027135149978979409
leaf_weight=10.249996945261953 25.999992251396179 9.2499972432851774 10.499996870756148 5.2499984353780773 11.999996423721315 12.999996125698088 16.499995082616806 4.9999985098838833 6.4999980628490439 5.4999983608722678 6.2499981373548534 13.74999590218067 22.249993368983269 6.4999980628490439 10.249996945261953 4.9999985098838797 36.999988973140717 7.49999776482582 13.999995827674864 22.999993145465851 16.249995157122616 9.2499972432851774 45.999986290931702 32.24999038875103 5.7499982863664618 28.999991357326508 19.749994114041328 23.499992996454239 6.4999980628490439 12.749996200203894
leaf_count=41 104 37 42 21 48 52 66 20 26 22 25 55 89 26 41 20 148 30 56 92 65 37 184 129 23 116 79 94 26 51
internal_value=0.00107239 -0.00289223 -0.00667849 -0.0101196 -0.0250516 -0.00421324 0.00413428 0.0172099 0.0160041 -0.0324282 -0.00910845 0.00764839 -0.0229751 0.0207096 0.0258524 -0.0423095 -0.047923 0.019869 0.009197 0.0305724 0.0201048 0.0297161 0.0226 0.0394455 -0.0171085 -0.030421 -0.00505099 0.00843412 -0.00216132 -0.0125117
internal_weight=466.25 391.25 329.5 291.25 76.5 214.75 131.5 38.25 61.75 66 71.5 32.75 38.75 75 68.5 47.5 42.5 60 47 28 33 25.5 55.25 42.5 83.25 34.75 48.5 28.75 18.5 19
internal_count=1865 1565 1318 1165 306 859 526 153 247 264 286 131 155 300 274 190 170 240 188 112 132 102 221 170 333 139 194 115 74 76
is_linear=0
shrinkage=1


Tree=1
num_leaves=31
num_cat=0
split_feature=79 31 26 111 83 61 6 7 7 37 80 49 107 91 113 110 70 37 23 61 84 22 72 1 40 22 46 41 70 88
split_gain=13.5982 14.1376 15.6905 12.4385 12.1152 11.4641 11.1479 10.4296 8.2353 7.79018 7.59662 7.49499 7.08026 6.39659 6.38951 6.36091 6.32145 6.23418 6.1851 6.02432 5.90536 5.02363 4.95676 5.23355 4.9419 4.81671 5.09066 4.28973 4.00879 4.277
threshold=29.450000000000003 0.19158689793015726 5.1674378473198095 9.7089210833166693 0.30991615707954306 18.450000000000003 4.4934213656911739 0.072483398973039279 0.096277632303657892 9.0131230304117 87.15000000000002 0.13423611111111114 9.0988803766329394 0.013176087645070918 0.18033260901353462 58.667400408903184 46.750000000000007 8.7170921905602885 9.33202580850236 13.050000000000002 0.47196016771488475 4.7604961617568042 -0.54999999999999993 6.3990000000000009 4.6500000000000012 1.019630484988453 10.250000000000002 -0.43837114678907757 42.350000000000009 0.42563032221187741
decision_type=2 2 2 2 2 2 2 2 2 2 2 2 2 2 2 2 2 2 2 2 2 2 2 2 2 2 2 2 2 2
left_child=1 2 5 16 24 14 7 9 17 20 18 -8 13 -3 15 -1 -4 -7 -9 -18 -2 -10 -22 -24 -5 -16 -27 -20 -11 -30
right_child=6 12 3 4 -6 8 11 10 21 28 -12 -13 -14 -15 25 -17 19 -19 27 -21 22 -23 23 -25 -26 26 -28 -29 29 -31
leaf_value=0.028104838538593288 -0.0067618881934192569 0.04508577372749379 -0.030140931470724011 0 -0.010101291008390752 0.028762412262103534 -0.033558915174861564 0.064799990759474499 -0.040417526772776637 0.0085567901466415269 -0.0059991823463107948 0.0051040070992081892 -0.0044558959368030523 -0.0073447172140399938 0.0023714243508612225 -0.020332279859702911 -0.021070368405037836 -0.0095494337451690788 -0.00033346396434016609 0.029079293948666984 -0.0090899095058070423 0.0062653400164370369 0.039671405225404271 -0.0049363723235687678 0.04538705899443285 -0.040082899336301887 -0.0010087566216323463 0.034641031510999613 -0.044644900769142085 0.0026990856870137817
leaf_weight=6.4983994066715267 17.7456094622612 19.245534837245945 21.244646593928337 6.2486794888973227 16.995608821511269 20.744699895381927 14.996585592627524 15.99589668214321 10.497483029961588 6.2482920885086086 7.4982208013534537 28.493419259786606 16.74606765806675 4.9988188445568076 6.9978068172931662 11.497042700648306 5.4985496401786795 13.496596351265906 12.745929822325705 8.7477632015943509 5.7488742321729651 5.9986953288316718 27.993880391120911 5.7485675215721121 26.744020655751228 80.229762956500053 10.996855452656744 15.495257198810579 8.9979266375303251 4.9985958188772193
leaf_count=26 71 77 85 25 68 83 60 64 42 25 30 114 67 20 28 46 22 54 51 35 23 24 112 23 107 321 44 62 36 20
internal_value=0 -0.00654149 -0.0110705 0.00591146 0.0213197 -0.0198294 0.0109289 0.0181963 0 0.00548783 0.0346277 -0.00979817 0.0189777 0.0340131 -0.0281819 0 -0.0151261 0.0137316 0.0419317 0.00797903 0.0149324 -0.02477 0.0249071 0.0317702 0.037363 -0.0329761 -0.0359297 0.0204282 -0.0178928 -0.0301607
internal_weight=466.134 293.427 252.437 85.4793 49.9883 166.957 172.707 129.217 50.7375 77.4817 51.7353 43.49 40.9904 24.2444 116.22 17.9954 35.491 34.2413 44.2371 14.2463 57.2369 16.4962 39.4913 33.7424 32.9927 98.2244 91.2266 28.2412 20.2448 13.9965
internal_count=1865 1174 1010 342 200 668 691 517 203 310 207 174 164 97 465 72 142 137 177 57 229 66 158 135 132 393 365 113 81 56
is_linear=0
shrinkage=0.05


Tree=2
num_leaves=31
num_cat=0
split_feature=103 30 59 115 28 38 74 39 61 65 95 13 59 103 36 54 13 79 28 104 103 65 59 115 4 66 105 3 104 41
split_gain=13.0642 10.2198 9.96848 10.0207 9.15488 8.82714 9.97789 9.59212 9.72534 8.14799 8.0022 7.58739 10.758 7.30185 7.05306 6.87235 6.43484 6.23591 5.42432 5.01799 6.29327 4.86253 4.80886 6.67347 4.50698 4.40512 5.94494 5.25856 4.34774 4.33571
threshold=248.74199811169606 0.75000000000000011 24.850000000000005 0.19812457424454882 0.11709537765243351 2.9192436339699204 9.9500000000000011 84.200000000000003 16.950000000000003 1.0000000180025095e-35 5.3644500000000006 5.1279346449669791 17.300000000000001 240.05708373449855 0.93100000000000016 23.068650526026634 4.8444527946113274 27.650000000000002 0.10696924899753678 271.26881348408085 228.58460838779959 -1.3499999999999999 16.750000000000004 0.28905901036394382 5.0006545361595114 11.950000000000001 52.379047871453331 11.29469981238274 379.31089268844374 0.22495105434386511
decision_type=2 2 2 2 2 2 2 2 2 2 2 2 2 2 2 2 2 2 2 2 2 2 2 2 2 2 2 2 2 2
left_child=2 -2 3 10 9 6 -5 8 11 -3 -1 12 17 25 -10 24 19 -7 -17 -16 -21 -12 -13 -24 -8 -4 -27 -28 -11 -19
right_child=1 4 13 5 -6 7 15 -9 14 28 21 22 -14 -15 16 18 -18 29 -20 20 -22 -23 23 -25 -26 26 27 -29 -30 -31
leaf_value=-0.016051243146582631 -0.014058745470820398 -0.00014845338832107703 -0.01153480442302352 0.014058976304628962 -0.017470226156098008 -0.025596367731214154 0.012851505377831347 -0.033778303724072027 -0.013969266381668144 0.049421001271080678 -0.0074407567954277321 -0.0085061708873565064 -0.039913720710211473 -0.021715112344119252 -0.0029930148241425415 -0.047072337216879534 -0.0069183452903215552 0.025780683189377575 0 0.041749046232030566 0 0.036699281543446413 0.043501050010064032 -0.011766285084628195 -0.027484476081228684 -0.012383561394697339 0.037848965456835665 -0.0056348595575527512 0 -0.0080199800545124045
leaf_weight=10.247867420315741 14.994071483612059 12.246990248560904 5.4984661638736716 10.49658891558647 6.2485526353120795 12.993359893560408 11.995991706848146 20.490412458777428 17.990474224090576 35.716450735926628 4.9988419562578228 17.241843938827518 30.980020314455032 7.4970139414072028 10.245737642049788 40.954810976982117 16.740799397230148 15.491321071982386 6.4949218630790702 33.477280035614967 11.493449598550795 22.984830632805824 9.7451324313878995 4.9965919703245154 6.4965090304613105 5.4972061216831198 37.479090243577957 5.7473298758268347 5.74544534087181 12.741593316197394
leaf_count=41 60 49 22 42 25 52 48 82 72 143 20 69 124 30 41 164 67 62 26 134 46 92 39 20 26 22 150 23 23 51
internal_value=0 0.01843 -0.00372803 -0.00725738 0.0273963 -0.010501 -0.0246359 -0.00490687 -0.000962466 0.0340853 0.0152175 -0.0112287 -0.0198905 0.0138606 0.010631 -0.0317045 0.0176143 -0.00161319 -0.0410228 0.0254243 0.0320506 0.0281237 0.00769566 0.0252666 -0.00308828 0.0206197 0.0254495 0.0315642 0.0436631 0.0108625
internal_weight=465.969 74.9515 391.017 329.298 59.9574 291.067 76.4388 214.628 194.138 53.7089 38.2315 104.19 72.2063 61.7191 89.9477 65.9422 71.9573 41.2263 47.4497 55.2165 44.9707 27.9837 31.9836 14.7417 18.4925 54.2221 48.7236 43.2264 41.4619 28.2329
internal_count=1865 300 1565 1318 240 1165 306 859 777 215 153 417 289 247 360 264 288 165 190 221 180 112 128 59 74 217 195 173 166 113
is_linear=0
shrinkage=0.05


Tree=3
num_leaves=31
num_cat=0
split_feature=103 30 60 3 34 40 52 28 27 34 36 114 22 40 65 93 41 12 24 98 103 39 72 114 4 11 76 12 12 34
split_gain=11.9165 9.38131 9.14288 16.1963 9.04184 9.03855 8.801 8.50916 8.1379 9.92302 9.37626 9.20383 7.76774 7.74235 7.50165 7.42374 6.59894 6.49857 5.47731 5.47729 5.44369 5.35627 5.20419 4.95791 4.16543 9.57258 5.71007 5.37327 5.14204 4.26022
threshold=248.74199811169606 0.75000000000000011 19.750000000000004 7.6144187981229612 0.38393520361409478 3.7500000000000004 43.961802416590949 0.11709537765243351 0.23653927545206274 0.49022142595837087 1.0720000000000003 0.42769777834729544 3.111772486772487 10.050000000000002 1.0000000180025095e-35 0.40455339931472284 -0.97988739209073461 1.5547168890001983 8.4419470452285577 -0.00900367226247961 206.64424465637637 64.450000000000017 0.75000000000000011 0.40512074739996479 6.6629430902481213 4.3951614114114124 42.400000000000006 1.2622970421169573 1.9010238862556894 0.3765876327887599
decision_type=2 2 2 2 2 2 2 2 2 2 2 2 2 2 2 2 2 2 2 2 2 2 2 2 2 2 2 2 2 2
left_child=2 -2 3 5 12 -1 19 14 9 -6 15 20 21 -14 -3 16 -10 -13 24 -5 -11 -4 23 -21 25 26 -7 29 -26 -28
right_child=1 7 4 6 8 18 -8 -9 10 11 -12 17 13 -15 -16 -17 -18 -19 -20 22 -22 -23 -24 -25 28 -27 27 -29 -30 -31
leaf_value=-0.030842727300698564 -0.013531510126812649 -0.00014318234915618603 0.019719178243090614 0.0030890718032667397 -0.011803494214961159 -0.02644857163564664 0.0047252684045731227 -0.016986666939125639 0.012049316935674266 -0.034529432409988486 0.017532612872733024 0.049133866288399386 0.035017986901875457 -0.0068675767456987148 0.041823574229028659 0.012500040260738664 -0.035879364281227136 -0.0020294913439537553 -0.022574167930769981 -0.0011339503679134253 0.017037611016411488 -0.02200026639160646 -0.00064558373449818377 -0.052990941341950606 -0.027853214446072163 0.038015258080713293 -0.0050667689960770838 -0.013600622422487921 0.018173906251358136 0.038946721192798871
leaf_weight=12.987405017018316 14.994186490774153 12.246994137763975 7.2419091910123852 5.9924922138452521 30.961213827133179 8.9900790899991971 13.487855210900305 6.2474676072597495 4.9943354874849311 5.4918719679117185 12.984198376536368 20.478181406855587 42.950258925557137 11.233440205454825 41.396889925003052 8.4907441735267621 47.951768085360527 6.4905939549207678 7.7400998771190634 6.4884347766637793 4.9939058423042297 15.233550518751143 8.2398283332586271 40.189060091972351 8.7405666857957822 26.719980329275131 5.2421403080225053 8.7401937246322614 5.7454801201820365 11.987803637981413
leaf_count=52 60 49 29 24 124 36 54 25 20 22 52 82 172 45 166 34 192 26 31 26 20 61 33 161 35 107 21 35 23 48
internal_value=-1.94656e-05 0.0175427 -0.00362712 -0.0121447 0.00303095 0.00126471 -0.0289035 0.0261507 -0.00428485 0.00765568 -0.0153675 0.0238258 0.0163961 0.0260652 0.0326209 -0.0234932 -0.0302773 0.0376468 0.00797071 -0.0365231 -0.0107845 -0.00650555 -0.0411598 -0.0470735 0.0125821 0.0181264 0 0.012039 -0.00833579 0.0263035
internal_weight=465.673 74.8855 390.787 171.291 219.496 96.8937 74.3977 59.8914 142.837 68.4158 74.421 37.4546 76.6592 54.1837 53.6439 61.4368 52.9461 26.9688 83.9063 60.9098 10.4858 22.4755 54.9173 46.6775 76.1662 61.6802 34.9602 25.9701 14.486 17.2299
internal_count=1865 300 1565 686 879 388 298 240 572 274 298 150 307 217 215 246 212 108 336 244 42 90 220 187 305 247 140 104 58 69
is_linear=0
shrinkage=0.05


Tree=4
num_leaves=31
num_cat=0
split_feature=79 31 26 111 83 6 61 88 49 56 39 114 94 102 27 52 22 22 30 61 108 56 59 19 39 93 56 37 102 29
split_gain=11.3099 12.6636 13.7423 11.0814 11.6013 9.65977 9.54166 7.2981 6.82751 6.71206 7.15907 6.62743 6.30965 6.29777 6.959 6.02878 5.77658 5.30345 5.04702 5.14531 4.84202 4.74026 4.7112 4.3997 4.60353 4.38496 3.56057 3.34012 4.20794 3.33108
threshold=29.450000000000003 0.19158689793015726 5.1674378473198095 10.127771896497562 0.30991615707954306 4.5020935916981122 18.450000000000003 0.41948913659793813 0.13423611111111114 0.22082361323155222 61.95000000000001 0.45437996879411552 0.13439067919608569 2.0079294424972876 0.26573339093533971 40.878658172946601 1.1216753585397654 4.2566974487722034 0.55000000000000016 16.050000000000004 11.129047321379398 0.24117171464330414 28.650000000000002 6.5000000000000009 68.950000000000017 0.15879219263887115 0.26301390415161502 9.2154727904043856 1.7467437497789831 0.24027742120137635
decision_type=2 2 2 2 2 2 2 2 2 2 2 2 2 2 2 2 2 2 2 2 2 2 2 2 2 2 2 2 2 2
left_child=1 2 6 15 -5 13 12 9 -7 -8 -11 -3 -1 18 17 27 -14 20 -2 -20 -15 -16 -21 -18 -25 -9 -17 28 -4 -10
right_child=5 11 3 4 -6 8 7 25 29 10 -12 -13 16 14 21 26 23 -19 19 22 -22 -23 -24 24 -26 -27 -28 -29 -30 -31
leaf_value=0.008302991035584897 -0.0072182975773257795 -0.0024824886338968544 0.0030299568883929051 0.040807318104816914 -0.0093203607346880168 -0.032120296272725182 0.01775383037775537 0.036428289151866348 0.023355600107673756 0.012327974477614028 -0.037904677844838336 0.034332976428983718 0.0040914115888461711 0.0039868528590011635 0.003767058689143381 0.023191808853215243 -0.037352110574249121 0.012001642714516364 0.001237787846498359 0.050969344602170036 -0.034509913500339745 0.041129755926227071 0.0014897653682091891 -0.024567345545158076 0.018215249038476957 -0.0078095462180224028 -0.014180763273095118 0.0048654281445823302 -0.040967113004912882 -0.0068052657519982853
leaf_weight=8.9891737252473813 5.4913582205772391 19.224832326173782 4.9931736588478151 26.190965220332146 14.728775277733801 14.970484614372252 8.2412411868572217 11.477959975600244 9.7401618361473101 6.2350884377956417 19.727951049804688 21.712653636932373 9.2353918105363828 10.474536359310152 21.454919546842575 11.734726890921594 82.821485415101051 17.710340961813927 10.975176766514776 28.172888904809952 14.962667927145956 12.970595866441725 7.2258867919445029 8.2311658412218076 6.7399080246686927 4.9940511137247077 5.2432857304811469 5.2411394268274298 17.217157542705536 18.224911734461784
leaf_count=36 22 77 20 105 59 60 33 46 39 25 79 87 37 42 86 47 332 71 44 113 60 52 29 33 27 20 21 21 69 73
internal_value=-3.82227e-05 -0.00604041 -0.0103365 0.00555317 0.0231696 0.00990531 -0.0185426 0 -0.00949701 -0.0131036 -0.0249911 0.0181113 -0.0261709 0.016641 0.00646857 -0.0108683 -0.0295309 -0.00632751 0.0295093 0.0346243 -0.0197855 0.0219092 0.0429224 -0.0329939 -0.00431671 0.0231564 0.00991222 -0.0240379 -0.031418 0.00489044
internal_weight=465.354 292.98 252.043 85.3492 40.9197 172.374 166.693 50.6763 42.9356 34.2043 25.963 40.9375 116.017 129.438 77.5731 44.4295 107.028 43.1475 51.8653 46.374 25.4372 34.4255 35.3988 97.7926 14.9711 16.472 16.978 27.4515 22.2103 27.9651
internal_count=1865 1174 1010 342 164 691 668 203 172 137 104 164 465 519 311 178 429 173 208 186 102 138 142 392 60 66 68 110 89 112
is_linear=0
shrinkage=0.05


Tree=5
num_leaves=31
num_cat=0
split_feature=60 65 112 35 81 30 60 102 102 27 27 50 111 48 33 66 7 11 28 105 30 106 41 66 95 84 16 28 51 15
split_gain=10.7926 10.4105 8.86888 8.45563 8.22943 8.61586 7.80997 8.71918 8.44217 7.19541 6.68986 6.52047 7.41534 6.40234 6.34918 6.18298 6.6188 5.51808 5.42434 6.27167 5.24672 5.01541 4.89552 4.55537 4.5607 5.47566 4.47473 4.42248 4.29426 4.25769
threshold=27.650000000000002 1.3500000000000003 6.48269895638827 0.97350000000000014 56.500000000000007 0.75000000000000011 13.050000000000002 2.1348354364626982 2.3434808487895915 0.28314111118952717 0.3039798825428488 0.55258320433436547 11.627365452948748 0.21665734728234731 0.11496142853249906 15.500000000000002 0.11974573710903853 1.8386281535490292 0.077984600110450594 96.899314306487739 1.3500000000000003 0.44367660741913273 -0.64942331933852315 16.900000000000002 8.030400000000002 0.43633076181292191 6.5000000000000009 0.096428716736529238 8.7607281632967915 6.5000000000000009
decision_type=2 2 2 2 2 2 2 2 2 2 2 2 2 2 2 2 2 2 2 2 2 2 2 2 2 2 2 2 2 2
left_child=1 2 29 20 5 13 -7 15 14 11 -10 12 17 -4 -9 -8 -17 -6 22 -20 -2 23 -5 -19 25 -25 -23 -15 -26 -1
right_child=3 -3 4 18 9 6 7 8 10 -11 -12 -13 -14 27 -16 16 -18 21 19 -21 -22 26 -24 24 28 -27 -28 -29 -30 -31
leaf_value=-0.0029337756724603543 -0.024016511836547849 0.025017800211140764 0.009901980995473722 -0.026787554617425276 0.012743733823919882 -0.020582128876239551 -0.0063440048642520609 -0.036742791282628404 0.02965252565913808 0.0070044036032021369 -0.019411326210861019 0.0090795245889316294 0.013406082097082351 -0.044395805311761814 0.0085613642047428027 0.039517645771891201 -0.0084937372241965983 0.00089780932950067518 0.04078138632925786 -0.00093034361970199808 0.020344765555663259 -0.052905244316953953 0.016669613763536369 0.0047335306889679466 0.016529565453572505 -0.03707841263865199 -0.0041615223517573689 0.00061920449548750372 -0.020314579085594447 0.038195351912265321
leaf_weight=7.4888466000556972 14.977326884865763 24.156203746795654 8.4854628443717974 5.4887348413467434 5.4778912961482993 16.45640754699707 9.7255790382623655 16.208161905407909 18.435456067323688 27.908883988857269 5.2409490495920172 14.963253393769262 9.7156810015439969 15.962068974971773 8.4799747914075834 38.871886387467384 5.7369017750024787 19.697413891553879 36.903100445866585 9.7307113111019117 4.9827552884817115 26.161502599716187 11.958551704883574 6.7352763563394538 9.7297490239143389 48.640975326299667 7.9773352891206732 5.7416738569736472 11.728433802723883 11.225691258907316
leaf_count=30 60 97 34 22 22 66 39 65 74 112 21 60 39 64 34 156 23 79 148 39 20 105 48 27 39 195 32 23 47 45
internal_value=0 -0.00364227 -0.00597068 0.0156691 -0.00799598 0.000643532 0.00696522 0.0123621 -0.00267425 -0.0148015 0.0164292 -0.0188334 -0.0220686 -0.0210418 -0.0215184 0.0252653 0.0326055 -0.0251624 0.0242018 0.0323463 -0.0100837 -0.0273469 0 -0.0192802 -0.0244974 -0.031608 -0.0441406 -0.0336648 -0.00269689 0.0235344
internal_weight=464.993 380.952 356.795 84.0412 338.081 149.345 119.155 102.699 48.3645 188.736 23.6764 160.828 145.864 30.1892 24.6881 54.3344 44.6088 136.149 64.0811 46.6338 19.9601 130.671 17.4473 96.5318 76.8344 55.3763 34.1388 21.7037 21.4582 18.7145
internal_count=1865 1528 1431 337 1356 599 478 412 194 757 95 645 585 121 99 218 179 546 257 187 80 524 70 387 308 222 137 87 86 75
is_linear=0
shrinkage=0.05


Tree=6
num_leaves=31
num_cat=0
split_feature=82 30 24 82 55 104 28 28 109 76 11 73 32 32 109 12 17 105 107 21 111 37 34 94 56 9 5 113 28 81
split_gain=9.57073 10.9359 8.11368 8.80223 7.50089 7.32471 7.03126 6.82628 9.47315 6.16484 9.80036 7.73743 8.83599 7.99944 6.02368 5.88214 5.85123 5.84943 5.19416 5.01878 5.00077 4.67473 4.457 4.25627 5.84917 4.13473 4.71846 3.95578 3.87507 7.09495
threshold=24.550000000000004 0.8500000000000002 8.0748552353702596 23.050000000000004 24.796660818713452 216.50909890997355 0.10646429332570036 0.071181090025651386 0.51961145774248518 46.800000000000004 3.8548490024132427 19.200000000000006 0.41568845644301222 0.38774004455119276 0.17281662483389229 1.4368650986259348 5.8350000000000009 58.07090713027933 8.0139691962925905 1.922526001835424 9.733472404343285 8.890273628523973 0.44914069238866422 0.2175570906783737 0.21148446457474548 0.30674571801382383 0.98775727638057154 0.22688793639326649 0.087203909836378476 51.800000000000004
decision_type=2 2 2 2 2 2 2 2 2 2 2 2 2 2 2 2 2 2 2 2 2 2 2 2 2 2 2 2 2 2
left_child=2 4 5 20 -2 17 7 8 -3 10 14 12 -12 -13 -7 -11 -8 22 -17 -10 -4 -15 -1 27 -25 28 -27 -6 -9 -30
right_child=1 6 3 -5 23 9 16 25 19 15 11 13 -14 21 -16 18 -18 -19 -20 -21 -22 -23 -24 24 -26 26 -28 -29 29 -31
leaf_value=0.01736714264058134 0.021349665806459792 0.031031179715989222 -0.0065232730985502231 -0.00063254326940983131 -0.017228583478091832 0.0088005356244255633 -0.026835325759143588 0.040823319441104712 0.012573208971030942 0.028141169878394143 0.045279490603778998 -0.024253999007007261 -0.013470412197430318 0.028022541354427211 -0.03324682538342668 0.021008377628100643 0.01338329146974571 -0.042862083361048499 -0.019548697887908712 -0.031444291363594661 -0.049809105820725216 -0.011139829997390969 -0.023273677282718692 0.00636281927804919 -0.0410373819114511 -0.024552710436079223 0.020465515503189233 0.018314309219144932 0.036488449582505252 -0.00090081268377446844
leaf_weight=9.9779257476329857 10.222974076867102 9.6928092390298861 13.205351129174231 32.374830350279808 11.959450706839563 7.9816690832376471 13.212879851460459 40.35067817568779 5.2283961623907116 33.382125079631805 15.704986527562143 21.17647448182106 5.7320404499769202 14.960388183593752 27.664052799344063 8.2303657382726687 12.71626842021942 11.942589864134787 14.199503287672995 15.705384477972983 21.145251378417015 7.7258591651916495 7.2306075841188422 5.9846213459968594 20.444711029529572 5.7347181737422925 7.7134669125080109 9.4765509963035566 16.914330154657364 26.640597119927406
leaf_count=40 41 39 53 130 48 32 53 162 21 134 63 85 23 60 111 33 51 48 57 63 85 31 29 24 82 23 31 38 68 107
internal_value=0 0.00771706 -0.00653541 -0.0208388 -0.00992807 -0.00085943 0.0146368 0.0193831 -0.0004639 0.00347217 -0.00373864 0.00747711 0.0290481 -0.0044473 -0.0232923 0.0161603 -0.00732793 -0.0219824 -0.00263861 -0.019182 -0.0367473 0.0141795 0 -0.0184686 -0.030204 0.0255887 0 -7.78968e-05 0.0294974 0.0153665
internal_weight=464.632 211.998 252.634 66.7254 58.0883 185.909 153.91 127.98 30.6266 156.757 100.945 65.2997 21.437 43.8627 35.6457 55.812 25.9291 29.1511 22.4299 20.9338 34.3506 22.6862 17.2085 47.8653 26.4293 97.3538 13.4482 21.436 83.9056 43.5549
internal_count=1865 851 1014 268 233 746 618 514 123 629 405 262 86 176 143 224 104 117 90 84 138 91 69 192 106 391 54 86 337 175
is_linear=0
shrinkage=0.05


Tree=7
num_leaves=31
num_cat=0
split_feature=103 30 28 60 3 33 40 52 39 31 111 53 108 42 28 28 79 41 94 39 12 61 26 91 24 6 29 13 71 46
split_gain=9.79687 7.86269 7.42679 7.38517 13.8585 8.51348 8.00786 7.72735 6.71065 6.574 6.10643 5.7678 5.52694 7.31024 6.67127 10.405 8.62258 7.41432 7.16947 6.95291 5.54032 5.41964 5.1703 4.84952 4.83933 5.14612 5.99807 4.47366 5.67018 4.39511
threshold=248.74199811169606 0.75000000000000011 0.11709537765243351 19.750000000000004 7.6144187981229612 0.084065917133296322 3.7500000000000004 43.961802416590949 72.350000000000009 0.11605607552548407 7.3755146024102238 90.65318790744324 10.197627718119382 -0.99535829673000931 0.086374427352854541 0.077665348923483771 29.350000000000005 -0.97988739209073461 0.15650631788112551 63.150000000000013 1.1849129393343938 25.700000000000003 4.1148148148148156 -0.00900367226247961 8.4419470452285577 3.413133138176955 0.21547751888004762 6.1865144591824661 0.34150000000000008 9.2500000000000018
decision_type=2 2 2 2 2 2 2 2 2 2 2 2 2 2 2 2 2 2 2 2 2 2 2 2 2 2 2 2 2 2
left_child=3 -2 8 4 6 9 -1 23 22 -5 -7 12 20 -14 15 16 19 -16 -19 -15 -12 -20 -3 -6 25 -8 -27 28 -28 -11
right_child=1 2 -4 5 7 10 24 -9 -10 29 11 -13 13 14 17 -17 -18 18 21 -21 -22 -23 -24 -25 -26 26 27 -29 -30 -31
leaf_value=-0.028787023865859171 -0.012401494283432544 0.027228691070381728 -0.016191566413476868 -0.015249088983811141 0.0032501190519525873 0.028991036233184272 -0.016507094095401725 0.0048475417581034033 0.050784071493734484 0.03621178747840223 0.027915633854176215 0.023498242181128198 0.025020462147915618 0.0022640341398219503 0.016007341049475921 0.022519747925316549 0.018920841339835702 0.0037976202163787702 -0.04678328705541205 -0.046043360698052711 -0.0071399009675418004 0.0019765849441139714 -0.0074160173457102551 -0.03804221017967227 -0.0209555530978765 -0.010733729571481816 -0.0061592808989244935 -0.0057026475654560621 0.035828204023894791 -0.0010025853852188534
leaf_weight=12.947884619235991 14.974921405315397 18.875580638647079 6.2384883612394324 6.484673708677291 5.9813060462474814 9.2039788067340833 8.7136363238096219 13.470172479748724 19.588505446910858 30.62324857711792 14.44537380337715 10.949132114648817 6.725422114133834 8.9655598253011721 4.9884240031242362 19.42580483853817 7.2175589203834525 8.7176057398319227 38.599698260426521 17.924052953720093 21.430242106318474 4.9870965033769599 14.927252143621443 54.640487655997276 7.7074554264545432 11.714033395051954 6.9768520444631568 7.9757921546697608 40.620459347963333 8.2186804562807065
leaf_count=52 60 76 25 26 24 37 35 54 79 123 58 44 27 36 20 78 29 35 155 72 86 20 60 220 31 47 28 32 163 33
internal_value=0 0.0159706 0.0238908 -0.00325763 -0.0109283 0.00272431 0.00145589 -0.0264708 0.0299877 0.0208955 -0.00233288 -0.00503846 -0.00791009 -0.0131153 -0.0166255 -0.00286424 -0.0189918 -0.0278205 -0.0334687 -0.0313231 0.00805176 -0.0410605 0.0123012 -0.0336499 0.00777454 0.0121105 0.0170477 0.023719 0.0291979 0.0285509
internal_weight=464.259 74.6047 59.6298 389.655 170.748 218.907 96.6561 74.092 53.3913 45.3266 173.58 164.376 153.427 117.551 110.826 53.533 34.1072 57.2928 52.3044 26.8896 35.8756 43.5868 33.8028 60.6218 83.7082 76.0008 67.2871 55.5731 47.5973 38.8419
internal_count=1865 300 240 1565 686 879 388 298 215 182 697 660 616 472 445 215 137 230 210 108 144 175 136 244 336 305 270 223 191 156
is_linear=0
shrinkage=0.05


Tree=8
num_leaves=31
num_cat=0
split_feature=79 32 107 26 111 53 8 83 7 28 18 114 55 102 52 52 77 25 32 49 26 7 21 40 111 26 79 56 72 61
split_gain=9.09927 10.1274 9.39518 9.00113 11.8939 8.83301 8.72156 8.42281 7.96094 6.98527 7.60609 7.00064 6.65419 9.02595 5.84592 5.78863 5.67005 5.59872 5.55855 5.35923 5.3385 4.7796 4.76805 4.69802 4.63851 7.56709 5.67725 4.16846 3.95614 3.92094
threshold=29.450000000000003 0.45162155810215859 9.0835715820318352 5.1674378473198095 10.127771896497562 91.20233644859816 2.1297331380252635 0.30991615707954306 0.066067444054198302 0.083861564498896354 1.0000000180025095e-35 0.48129370629370632 24.576042906168627 1.8266797987618866 36.017696629213496 36.641491773906303 39.750000000000007 5.2412465940054505 0.41441749183879922 0.20034259259259263 2.8043901654467169 0.045188317259255546 3.0671987618242338 6.6500000000000012 9.6164828122946187 3.3780467494890067 24.950000000000003 0.24837264147408342 0.95000000000000007 18.550000000000004
decision_type=2 2 2 2 2 2 2 2 2 2 2 2 2 2 2 2 2 2 2 2 2 2 2 2 2 2 2 2 2 2
left_child=1 3 8 5 17 12 9 -6 -3 16 -11 15 18 22 -13 -12 27 -5 29 21 -18 -15 -14 -4 25 -23 -26 -2 -17 -1
right_child=6 2 23 4 7 -7 -8 -9 -10 10 11 14 13 19 -16 28 20 -19 -20 -21 -22 24 -24 -25 26 -27 -28 -29 -30 -31
leaf_value=-0.0028526417641617607 -0.018382312805159843 -0.0069583661265416701 -0.029833164397198433 -0.0014262356062792513 0.036649637397746605 0.023519637120376451 -0.02612840517088429 -0.0054717996802403687 0.048549714470469539 0.029599175706147327 -0.021232497591324749 0.010745182343835169 0.024786366529452819 -6.4275252664508826e-05 -0.033421092257414436 0.022016829358576864 0.003881816473741482 -0.03984962465406007 -0.031872835493727873 0.0072089201111617046 0.044251300945924388 0.022877557750448915 -0.013695513880282176 0.013214428574359583 0 -0.028462687831405677 -0.050313922113412117 0.019721733487983385 -0.0093479338705511235 0.028713195942462771
leaf_weight=23.1430474370718 9.2148687690496462 6.4675990045070675 8.4781384617090207 33.098639100790024 26.586383983492851 8.7073611319065076 11.177558243274687 15.679746821522711 17.412092000246048 16.891981065273285 9.2211754322051984 6.7122330665588406 9.2197215408086794 10.942707657814024 20.886257112026215 35.277220472693443 13.90493983030319 9.4502988308668119 5.9635216742753974 5.9778426587581626 30.0386992841959 5.7328649610281017 13.175648763775824 6.9749234914779654 6.7169104367494574 17.156950727105141 51.126584053039551 9.4436671584844571 8.9729116410016996 9.958016708493231
leaf_count=93 37 26 34 133 107 35 45 63 70 68 37 27 37 44 84 142 56 38 24 24 121 23 53 28 27 69 206 38 36 40
internal_value=0 -0.00534577 0.0166796 -0.00912906 0.00377773 -0.0157173 0.00898288 0.0215688 0.0340483 0.0122934 0.00328176 -0.0033123 -0.0186679 -0.0242979 -0.021912 0.00691292 0.0247395 -0.013779 -5.17628e-06 -0.0306074 0.0336896 -0.0335772 0.00286656 -0.0107003 -0.0375593 -0.0129117 -0.0451117 0 0.0148458 0.00850922
internal_weight=463.711 291.969 39.3328 252.636 84.8151 167.821 171.742 42.2661 23.8797 160.564 97.9618 81.0698 159.114 120.049 27.5985 53.4713 62.6022 42.5489 39.0646 97.6539 43.9436 91.676 22.3954 15.4531 80.7333 22.8898 57.8435 18.6585 44.2501 33.1011
internal_count=1865 1174 158 1016 341 675 691 170 96 646 394 326 640 483 111 215 252 171 157 393 177 369 90 62 325 92 233 75 178 133
is_linear=0
shrinkage=0.05


Tree=9
num_leaves=31
num_cat=0
split_feature=65 60 28 112 105 34 82 30 60 33 6 22 85 46 79 64 66 35 84 1 11 89 94 36 29 94 7 102 111 15
split_gain=8.90792 9.39115 7.75049 7.65964 7.04531 6.87394 6.53701 8.47818 7.50552 6.52983 7.83513 6.33718 6.04653 6.45843 6.16547 6.11887 6.68547 5.48475 5.40533 6.54809 5.52497 5.1178 4.91916 4.90841 4.58073 4.35367 4.2853 4.24407 5.00124 3.99053
threshold=1.3500000000000003 27.650000000000002 0.077984600110450594 6.48269895638827 96.899314306487739 0.57532575208622727 24.550000000000004 0.75000000000000011 12.550000000000002 0.11205075896945607 2.3277204585537925 4.0613583296510134 5.0000000000000009 6.7500000000000009 27.450000000000003 19.050000000000001 14.600000000000001 0.97350000000000014 0.48346714808304442 5.097500000000001 3.9262403898847462 0.050279335425870743 0.2175570906783737 0.88950000000000007 0.21861110676070605 0.18996373809798914 0.066926590924749493 1.7646813205530514 9.8568481320028898 6.5000000000000009
decision_type=2 2 2 2 2 2 2 2 2 2 2 2 2 2 2 2 2 2 2 2 2 2 2 2 2 2 2 2 2 2
left_child=1 3 11 29 17 -2 12 22 -9 27 -11 26 13 14 -5 -15 -17 -4 23 -20 -21 -16 -8 -18 -14 -12 -3 -10 -29 -1
right_child=5 2 4 6 -6 -7 7 8 9 10 25 -13 24 15 21 16 18 -19 19 20 -22 -23 -24 -25 -26 -27 -28 28 -30 -31
leaf_value=-0.0033429562743721372 0.034940189703180996 -0.011672883436929049 0 -0.012136436356826909 -0.0082731031943707647 -0.013850702449382074 0 -0.02608803504261158 0.024637457878764989 -0.017258100557954219 -0.0016875175514494013 -0.03174142235173006 0.0012496208431540352 -0.034814256042750895 0.045782567743295727 0.022877141575887796 0.014817121225612915 0.039259466651996207 0.027623030048080241 0.009735082288945783 -0.036864040230742211 -0.004077535978371705 -0.040706647953856902 -0.022583411573979178 -0.037008951246274936 0.039270579467365903 0.03444253915270188 -0.022984586334388903 0.0063229571833894231 0.036249106230783729
leaf_weight=7.4724448621273067 24.286851242184643 5.2322012037038821 10.451556846499441 10.421584621071817 11.454310953617094 5.7227159589529029 14.931319683790209 9.9298269599676114 9.1633117794990522 5.4855256378650656 5.9666248857974997 10.691963970661162 7.9332492798566809 20.838879704475403 9.7094482481479627 11.428686484694479 5.7096629440784445 34.740056782960892 12.939730226993563 8.9347552210092527 6.9548918008804312 5.4458937197923651 11.668882980942724 65.128725185990334 32.237753048539162 32.746225163340569 5.1822826862335205 19.883297100663185 29.278400480747223 11.182834133505819
leaf_count=30 98 21 42 42 46 23 60 40 37 22 24 43 32 84 39 46 23 140 52 36 28 22 47 262 130 132 21 80 118 45
internal_value=0 -0.00193688 0.013193 -0.00545346 0.0224438 0.0242725 -0.00734572 0.000807098 0.00712723 0.0116403 0.0250587 -0.0102205 -0.0130823 -0.0079354 0.0128751 -0.0124751 -0.00675058 0.030776 -0.0113173 0.0056312 -0.0134061 0.0300587 -0.0220205 -0.0184611 -0.0295979 0.032915 0.0133812 0 -0.0060964 0.021979
internal_weight=463.154 433.144 77.7524 355.392 56.6459 30.0096 336.737 139.053 112.453 102.523 44.1984 21.1064 197.683 157.512 25.5769 131.935 111.096 45.1916 99.6678 28.8294 15.8896 15.1553 26.6002 70.8384 40.171 38.7129 10.4145 58.325 49.1617 18.6553
internal_count=1865 1744 313 1431 228 121 1356 560 453 413 178 85 796 634 103 531 447 182 401 116 64 61 107 285 162 156 42 235 198 75
is_linear=0
shrinkage=0.05


Tree=10
num_leaves=31
num_cat=0
split_feature=103 30 60 3 37 33 32 40 40 39 48 51 93 42 26 49 97 37 26 80 24 6 29 7 11 1 13 1 40 90
split_gain=8.20167 6.99029 6.40771 12.1901 8.42834 7.4392 7.20437 7.11687 6.09984 5.91059 5.3587 7.05257 5.19851 6.90037 5.35849 5.12974 4.75661 4.69317 4.6294 5.39399 4.3511 4.74268 5.38976 4.10729 4.06644 4.69572 4.03261 4.02354 3.87455 3.62545
threshold=248.74199811169606 0.75000000000000011 19.750000000000004 7.6144187981229612 8.5171576949965075 0.084065917133296322 0.33941992810697447 3.7500000000000004 9.4500000000000011 73.050000000000011 0.27003787878787883 8.3207825319627648 -0.18818459333416479 -0.21643137258081238 3.7547861204532871 0.11772727272727275 2.4499999999999997 8.8322485621760514 5.1674378473198095 81.15000000000002 8.4419470452285577 3.413133138176955 0.21547751888004762 0.056751950947603123 5.1769137656852564 5.4670000000000014 6.1865144591824661 5.8773333333333344 8.1500000000000004 -0.059647518945875604
decision_type=2 2 2 2 2 2 2 2 2 2 2 2 2 2 2 2 2 2 2 2 2 2 2 2 2 2 2 2 2 2
left_child=2 -2 3 7 8 6 -4 -1 -5 17 12 -12 13 29 16 -8 23 -3 19 -16 21 -9 -23 -14 25 -20 -24 -6 -25 -7
right_child=1 9 5 4 27 10 15 20 -10 -11 11 -13 14 -15 18 -17 -18 -19 24 -21 -22 22 26 28 -26 -27 -28 -29 -30 -31
leaf_value=-0.027057594008929528 -0.011995360377039807 0.02450603695186003 -0.017278195153342977 -0.017776650868708745 -0.047906459047463178 0.011306346163365533 -0.0070334982709079237 -0.015871582321071526 0.020646705091079413 0.04080492935592319 0.0378784897437753 -0.0085469199480527145 -0.027220461593377616 0.03067447831673303 0.0025188638214090129 0.035082979915919958 0.02728890084598173 -0.0068187418240551849 0.03366821205311181 -0.040237780895512588 -0.019789805624504921 -0.010001302588658903 0.027871548305614627 0.016170590522194685 -0.017885487056497392 -0.011390560733723066 -0.0052390681115681414 0 -0.016133086278374367 -0.023875269790915855
leaf_weight=12.891247406601904 14.949278861284254 16.575033143162727 6.7297402620315543 30.494629696011543 28.64043228328228 8.1832561194896698 5.9707339555025092 8.6945042312145215 9.4219100028276426 21.420827552676201 12.643230497837068 11.155836686491964 10.694383800029753 15.367880016565321 7.4487705975770941 32.470167845487595 8.6772857308387739 21.33655858039856 6.9677410721778887 27.304229646921158 7.6778104901313773 11.684046328067778 47.480813696980476 18.848682120442394 18.124104484915733 6.4726292639970779 7.9638436883687964 5.2031389772891989 9.9017386734485608 11.198965087532997
leaf_count=52 60 67 27 123 116 33 24 35 38 87 51 45 43 62 30 131 35 86 28 110 31 47 191 76 73 26 32 21 40 45
internal_value=0 0.0146684 -0.00295986 -0.0101204 -0.024736 0.00261456 0.0196277 0.00148534 -0.00686185 0.0221853 -0.00211401 0.0175428 -0.00587904 0.00973768 -0.0110396 0.0279092 0.00124743 0.00755359 -0.0197683 -0.0312805 0.00745411 0.0115757 0.0163311 -0.00634432 -0.00386531 0.0134082 0.0226621 -0.041577 0.00356251 -0.00872358
internal_weight=462.593 74.2817 388.312 170.152 73.7601 218.159 45.1706 96.3923 39.9165 59.3324 172.989 23.7991 149.19 34.7501 114.44 38.4409 48.1221 37.9116 66.3175 34.753 83.501 75.8232 67.1287 39.4448 31.5645 13.4404 55.4447 33.8436 28.7504 19.3822
internal_count=1865 300 1565 686 298 879 182 388 161 240 697 96 601 140 461 155 194 153 267 140 336 305 270 159 127 54 223 137 116 78
is_linear=0
shrinkage=0.05


Tree=11
num_leaves=31
num_cat=0
split_feature=65 60 28 112 105 82 30 60 101 33 101 21 49 80 37 35 46 48 37 40 111 24 69 111 79 82 103 28 3 37
split_gain=8.00296 8.23135 6.96386 6.9165 6.51725 5.71595 7.5732 6.79893 6.79252 7.6802 5.99554 6.51093 5.32609 5.07921 5.00908 4.97492 4.91308 4.77219 4.70628 6.15418 5.23608 4.94915 6.47562 6.5136 6.97613 4.64865 4.17381 4.65931 4.00656 3.98985
threshold=1.3500000000000003 27.650000000000002 0.077984600110450594 6.48269895638827 96.899314306487739 24.550000000000004 0.75000000000000011 12.550000000000002 2.8256235560500209 0.11205075896945607 1.8508348894034765 1.2107142857142861 0.11107060185185187 81.15000000000002 9.1873617614710934 0.97350000000000014 8.7500000000000018 0.21665734728234731 8.9932328820516805 5.3500000000000005 11.037540075842863 8.0993479596941 44.750000000000007 10.106497182761492 28.050000000000004 27.650000000000002 221.87904225643032 0.08107363969638795 7.5014872390482159 8.1982318160896615
decision_type=2 2 2 2 2 2 2 2 2 2 2 2 2 2 2 2 2 2 2 2 2 2 2 2 2 2 2 2 2 2
left_child=1 3 13 -1 15 10 17 -8 9 25 14 -12 -2 -3 18 -4 -16 -7 19 20 -5 22 23 24 -21 26 27 -9 -17 -11
right_child=12 2 4 5 -6 6 7 8 -10 29 11 -13 -14 -15 16 28 -18 -19 -20 21 -22 -23 -24 -25 -26 -27 -28 -29 -30 -31
leaf_value=0.020913104723869851 -0.01132037935196622 0.01232862026035215 0 -0.031699417421796008 -0.0082974800446355586 0.0081936498242287971 -0.024971189314303973 0.030276586858766032 -0.02537899539673957 0.00042352104670355818 0.0098363396642148493 -0.034886436112133816 0.03217218191578676 -0.028134264471487942 0.029515237077954861 0.0020675829379211298 -0.013039024310725088 -0.031856563271951376 -0.03474296276996644 -0.020370928078451887 0.0048926115146181656 -0.020564667591987225 -0.023528023569921057 0.030127400147560063 0.021119494323539628 0.016923115493808791 -0.024064818666346358 -0.013333329111401386 0.045655142516323355 0.038463592100622702
leaf_weight=18.604951754212379 5.4722767621278789 9.636948227882387 10.441472038626669 27.717787429690361 11.44414661824703 6.9541432708501842 9.897211939096449 6.446768447756769 6.7203351706266394 10.426217302680014 6.6809048801660529 38.996111571788788 24.419727727770805 11.424240052700041 12.420332089066507 8.4235100597143155 6.4491719752550116 19.582993492484093 13.129929900169371 17.35933451354504 10.681116595864294 14.589671969413756 8.6892627924680692 27.077472656965256 13.40766693651676 24.004721418023109 17.09785969555378 7.9413717985153198 26.156322941184044 29.670740082859993
leaf_count=75 22 39 42 112 46 28 40 26 27 42 27 158 99 46 50 34 26 79 53 70 43 59 35 109 54 97 69 32 106 120
internal_value=0 -0.00187081 0.0123082 -0.00516884 0.0211076 -0.00697214 0.000650805 0.00664416 0.0109566 0.0148943 -0.0123425 -0.0275267 0.0230123 -0.00984723 -0.00687232 0.0291642 0.0142391 -0.0209335 -0.0104651 -0.00630938 -0.0215538 0.00144856 0.00772516 0.0143162 -0.00116643 0.00178683 -0.0098055 0.00768601 0.0372715 0.0302702
internal_weight=461.965 432.073 77.5266 354.546 56.4655 335.941 138.742 112.205 102.308 95.5877 197.199 45.677 29.892 21.0612 151.522 45.0213 18.8695 26.5371 132.652 119.522 38.3989 81.1234 66.5337 57.8445 30.767 55.4907 31.486 14.3881 34.5798 40.097
internal_count=1865 1744 313 1431 228 1356 560 453 413 386 796 185 121 85 611 182 76 107 535 482 155 327 268 233 124 224 127 58 140 162
is_linear=0
shrinkage=0.05


end of trees

feature_importances:
opp_bb_pct_avg_10=17
opp_hr_avg_10=10
ump_k9_x_sp_whiff_pct=10
sc_hard_hit_vs_opp_k=10
fip_away_10=9
ump_k9_avg_10=9
wind_speed_mph=9
sc_sp_fb_k_pct=9
sc_sp_sl_run_value_per_100=8
sc_sp_oz_swing_pct=8
bb_pct_5=7
temperature_f=7
sc_sp_fb_put_away=7
era_away_10=6
sc_hard_hit_pct=6
sc_sp_disc_whiff_pct=6
ump_k9_x_opp_k_pct=6
k9_5=5
fip_5=5
era_10=5
whip_10=5
k9_away_10=5
opp_slg_avg_10=5
opp_lineup_k_pct_std=5
opp_lineup_k_pct_cv=5
wind_sin=5
opp_lineup_iso_avg_10=5
sc_xba=5
sc_sp_fb_whiff_pct=5
k_pct_x_park_hr=5
ump_k9_x_sp_k9_5=5
ip_avg_5=4
fip_10=4
era_home_10=4
opp_k_pct_avg_10=4
opp_avg_avg_10=4
opp_iso_avg_10=4
ump_bb9_avg_10=4
market_total=4
sc_sp_ch_pct=4
sc_sp_fb_run_value_per_100=4
fip_trend_5v10=4
sc_barrel_x_park_hr=4
framing_hand_benefit=4
era_5=3
park_run_factor=3
park_hr_factor=3
opp_lineup_avg_avg_10=3
sc_sp_iz_contact_pct=3
catcher_framing_rv=3
catcher_framing_rate=3
wind_x_park_hr=3
ump_k9_x_sp_sl_whiff_pct=3
k9_shrunk=3
sp_k_pct_x_opp_cv=3
starts_in_window_10=2
last_start_k=2
wind_cos=2
sc_barrel_rate=2
sc_avg_exit_velo=2
sc_gb_pct=2
sc_fb_pct=2
sc_xwoba=2
sc_sp_fb_hard_hit_pct=2
sc_sp_fb_xwoba=2
sc_sp_si_whiff_pct=2
sc_sp_si_hard_hit_pct=2
sc_sp_oz_contact_pct=2
sc_xslg_x_park=2
k_pct_trend_5v10=2
ump_k9_x_sp_k_pct=2
ump_k9_x_sp_opp_k_triple=2
sc_hard_hit_x_fb=2
sc_exit_velo_above_avg=2
k_pct_shrunk=2
whip_5=1
hr9_5=1
k_pct_10=1
last_start_ip=1
last_start_bb=1
sp_days_since_last_start=1
k9_home_10=1
fip_home_10=1
opp_top4_slg_avg_10=1
sc_sp_sl_k_pct=1
sc_sp_ch_k_pct=1
sc_sp_fb_pct=1
sc_sp_si_pct=1
sc_sp_fastball_family_pct=1
sc_sp_pitch_diversity=1
book_line=1
sp_k_pct_vs_opp_k_rate=1
k9_trend_5v10=1
temp_below_60=1
sp_k_pct_trend_5v10=1
sc_barrel_vs_k_rate=1

parameters:
[boosting: gbdt]
[objective: binary]
[metric: binary_logloss]
[tree_learner: serial]
[device_type: cpu]
[data_sample_strategy: bagging]
[data: ]
[valid: ]
[num_iterations: 12]
[learning_rate: 0.05]
[num_leaves: 31]
[num_threads: 4]
[seed: 42]
[deterministic: 0]
[force_col_wise: 0]
[force_row_wise: 0]
[histogram_pool_size: -1]
[max_depth: -1]
[min_data_in_leaf: 20]
[min_sum_hessian_in_leaf: 0.001]
[bagging_fraction: 0.8]
[pos_bagging_fraction: 1]
[neg_bagging_fraction: 1]
[bagging_freq: 0]
[bagging_seed: 400]
[bagging_by_query: 0]
[feature_fraction: 0.8]
[feature_fraction_bynode: 1]
[feature_fraction_seed: 30056]
[extra_trees: 0]
[extra_seed: 12879]
[early_stopping_round: 0]
[early_stopping_min_delta: 0]
[first_metric_only: 0]
[max_delta_step: 0]
[lambda_l1: 0.5]
[lambda_l2: 5]
[linear_lambda: 0]
[min_gain_to_split: 0]
[drop_rate: 0.1]
[max_drop: 50]
[skip_drop: 0.5]
[xgboost_dart_mode: 0]
[uniform_drop: 0]
[drop_seed: 17869]
[top_rate: 0.2]
[other_rate: 0.1]
[min_data_per_group: 100]
[max_cat_threshold: 32]
[cat_l2: 10]
[cat_smooth: 10]
[max_cat_to_onehot: 4]
[top_k: 20]
[monotone_constraints: ]
[monotone_constraints_method: basic]
[monotone_penalty: 0]
[feature_contri: ]
[forcedsplits_filename: ]
[refit_decay_rate: 0.9]
[cegb_tradeoff: 1]
[cegb_penalty_split: 0]
[cegb_penalty_feature_lazy: ]
[cegb_penalty_feature_coupled: ]
[path_smooth: 0]
[interaction_constraints: ]
[verbosity: -1]
[saved_feature_importance_type: 0]
[use_quantized_grad: 0]
[num_grad_quant_bins: 4]
[quant_train_renew_leaf: 0]
[stochastic_rounding: 1]
[linear_tree: 0]
[max_bin: 255]
[max_bin_by_feature: ]
[min_data_in_bin: 3]
[bin_construct_sample_cnt: 200000]
[data_random_seed: 175]
[is_enable_sparse: 1]
[enable_bundle: 1]
[use_missing: 1]
[zero_as_missing: 0]
[feature_pre_filter: 1]
[pre_partition: 0]
[two_round: 0]
[header: 0]
[label_column: ]
[weight_column: ]
[group_column: ]
[ignore_column: ]
[categorical_feature: ]
[forcedbins_filename: ]
[precise_float_parser: 0]
[parser_config_file: ]
[objective_seed: 16083]
[num_class: 1]
[is_unbalance: 0]
[scale_pos_weight: 1]
[sigmoid: 1]
[boost_from_average: 1]
[reg_sqrt: 0]
[alpha: 0.9]
[fair_c: 1]
[poisson_max_delta_step: 0.7]
[tweedie_variance_power: 1.5]
[lambdarank_truncation_level: 30]
[lambdarank_norm: 1]
[label_gain: ]
[lambdarank_position_bias_regularization: 0]
[eval_at: ]
[multi_error_top_k: 1]
[auc_mu_weights: ]
[num_machines: 1]
[local_listen_port: 12400]
[time_out: 120]
[machine_list_filename: ]
[machines: ]
[gpu_platform_id: -1]
[gpu_device_id: -1]
[gpu_use_dp: 0]
[num_gpu: 1]

end of parameters

pandas_categorical:[]
