tree
version=v4
num_class=1
num_tree_per_iteration=1
label_index=0
max_feature_idx=452
objective=poisson
feature_names=game_month is_home rest_days hits_avg_5 hits_avg_10 hits_avg_20 hits_sd_10 hr_avg_5 hr_avg_10 hr_avg_20 tb_avg_5 tb_avg_10 tb_avg_20 tb_sd_10 ab_avg_5 ab_avg_10 avg_avg_10 k_rate_avg_10 bb_rate_avg_10 iso_avg_10 hr_rate_avg_5 hr_rate_avg_10 hr_rate_cumul_5 hr_rate_cumul_10 hr_rate_cumul_20 n_games_prev_10 obp_avg_10 hr_any_last1 hr_count_last3 hr_games_with_hr_last5 bb_avg_5 bb_avg_10 bb_avg_20 bb_sd_10 k_avg_5 k_avg_10 hits_home_avg_20 hits_away_avg_20 tb_home_avg_20 tb_away_avg_20 hr_home_avg_20 hr_away_avg_20 bb_home_avg_20 bb_away_avg_20 opp_sp_era_5 opp_sp_fip_5 opp_sp_k_pct_5 opp_sp_k9_5 opp_sp_bb_pct_5 opp_sp_whip_5 opp_sp_ip_avg_5 opp_sp_pitches_est opp_sp_last_start_ip opp_sp_hr9_5 opp_sp_hr9_10 opp_sp_fb_velo_avg_5 opp_sp_fb_velo_trend_5 opp_sp_days_since_last_start opp_sp_is_short_rest opp_sp_era_home_10 opp_sp_era_away_10 park_run_factor park_hr_factor ump_bb9_avg_10 ump_k9_avg_10 temperature_f wind_speed_mph wind_sin wind_cos precip_prob_pct is_dome is_day_game market_total line_move_total batting_order_avg_5 batting_order_avg_10 is_lhb_batter hits_avg_40_vs_hand tb_avg_40_vs_hand k_rate_avg_40_vs_hand iso_avg_40_vs_hand hr_avg_40_vs_hand hits_hand_split_40 tb_hand_split_40 hr_hand_split_40 n_games_vs_lhp_40 n_games_vs_rhp_40 hits_avg_10_vs_hand tb_avg_10_vs_hand hr_avg_10_vs_hand hits_avg_10_vs_lhp hits_avg_10_vs_rhp n_games_vs_lhp_10 n_games_vs_rhp_10 n_games_prev_10_cs hits_avg_10_cs hits_avg_20_cs tb_avg_10_cs tb_avg_20_cs hr_avg_10_cs hr_rate_avg_10_cs ab_avg_10_cs k_rate_avg_10_cs bb_rate_avg_10_cs iso_avg_10_cs prev_games prev_hits_avg prev_tb_avg prev_hr_avg prev_ab_avg prev_k_rate prev_bb_rate prev_iso prev_hr_rate h2h_games h2h_ba h2h_obp h2h_slg h2h_k_rate h2h_iso h2h_hr h2h_ab h2h_ba_last3 h2h_slg_last3 h2h_hr_rate_last3 h2h_ab_last3 own_lineup_slg_avg_10 own_lineup_iso_avg_10 own_top4_slg_avg_10 sc_barrel_rate sc_hard_hit_pct sc_avg_exit_velo sc_avg_launch_angle sc_sweet_spot_pct sc_fb_pct sc_gb_pct sc_ld_pct sc_xba sc_xslg sc_xwoba sc_xiso sc_pull_pct sc_opposite_pct sc_popup_pct sc_brl_pa sprint_speed opp_sp_sc_barrel_rate opp_sp_sc_hard_hit_pct opp_sp_sc_avg_exit_velo opp_sp_sc_gb_pct opp_sp_sc_fb_pct opp_sp_sc_xba opp_sp_sc_xslg opp_sp_sc_xwoba opp_sp_fb_pct opp_sp_fb_hard_hit_pct opp_sp_fb_xwoba opp_sp_fb_run_value_per_100 opp_sp_fb_whiff_pct opp_sp_fb_k_pct opp_sp_sl_pct opp_sp_sl_whiff_pct opp_sp_sl_k_pct opp_sp_sl_xwoba opp_sp_ch_pct opp_sp_ch_whiff_pct opp_sp_ch_k_pct opp_sp_fastball_family_pct opp_sp_pitch_diversity opp_sp_si_pct opp_sp_si_whiff_pct opp_sp_si_k_pct opp_sp_si_hard_hit_pct opp_sp_sl_hard_hit_pct opp_sp_sl_run_value_per_100 opp_sp_ch_hard_hit_pct opp_sp_ch_run_value_per_100 sc_b_oz_swing_pct sc_b_iz_contact_pct sc_b_oz_contact_pct sc_b_disc_whiff_pct sc_b_out_zone_pct opp_bp_era_5 opp_bp_era_10 opp_bp_k9_5 opp_bp_ip_last_7 opp_bp_era_7d opp_bp_relievers_last_1d opp_bp_relievers_last_2d batter_n_games_at_venue batter_venue_ba batter_venue_hr_rate batter_venue_slg sp_k_pct_vs_lhb_25 sp_k_pct_vs_rhb_25 sp_k_pct_vs_lhb_10 sp_k_pct_vs_rhb_10 sp_hr_rate_vs_lhb_25 sp_hr_rate_vs_rhb_25 sp_hr_rate_vs_lhb_10 sp_hr_rate_vs_rhb_10 opp_catcher_framing_rv opp_catcher_framing_rate confirmed_batting_order confirmed_lineup_source btu_games btu_ba btu_k_rate btu_bb_rate bvr_games_30 bvr_bp_games_30 bvr_ab_30 bvr_ba_30 bvr_hr_rate_30 bvr_slg_30 bvr_k_rate_30 opp_sp_lob_pct_career opp_sp_lob_pct_10 park_babip_avg own_runs_last3 own_runs_avg3 batter_babip_10 batter_babip_career babip_games_10 opp_team_def_der_20 opp_team_def_der_career market_hits_over_price market_tb_over_price market_hr_over_price season_2024-regular season_2025-regular season_2026-regular batter_hand_L batter_hand_R batter_hand_S batter_hand_nan opp_sp_hand_L opp_sp_hand_R opp_sp_hand_nan hits_trend_5v10 hits_hot_ratio hits_trend_sig hits_trend_accel hr_trend_5v10 hr_hot_ratio hr_trend_accel tb_trend_5v10 tb_hot_ratio tb_trend_sig tb_trend_accel early_season_weight hr_park_adj_10 tb_park_adj_10 hr_rate_cumul_trend_5v20 hr_rate_cumul_x_park tb_cv_10 tb_power_opportunity sc_xslg_x_park sc_brl_x_ab hits_vs_opp_era tb_vs_opp_fip opp_bp_era_adj hits_vs_opp_bp_era tb_vs_opp_bp_era opp_bp_era7_x_ip7 wind_x_park_hr is_cold_game temp_below_60 bb_trend_5v10 bb_hot_ratio bb_trend_sig batter_k_trend_5v10 batter_k_hot_ratio batter_k_rate_x_ump_k9 ump_bb9_x_batter_bb_rate ump_bb9_x_bb_avg_10 hits_vs_ump_k9 contact_vs_ump_zone btu_k_rate_adj btu_k_rate_delta btu_bb_rate_adj btu_bb_rate_delta bvr_reliability bvr_ba_delta bvr_hr_rate_delta bvr_k_rate_delta opp_sp_lob_pct_filled opp_sp_lob_vs_avg park_babip_factor park_babip_vs_avg own_runs_last3_filled own_hot_offense_flag own_runs_last3_vs_avg batter_babip_10_filled batter_babip_vs_avg batter_babip_luck_flag batter_babip_cold_flag batter_babip_career_filled batter_babip_trend opp_der_20_filled opp_der_vs_avg opp_good_defense opp_poor_defense opp_der_career_filled opp_der_trend line_move_total_filled line_moved_up line_moved_down line_move_abs market_hits_over_price_prob market_hits_over_price_prob_delta market_hits_over_price_known market_tb_over_price_prob market_tb_over_price_prob_delta market_tb_over_price_known market_hr_over_price_prob market_hr_over_price_prob_delta market_hr_over_price_known is_top_of_order is_cleanup hits_cs_delta tb_cs_delta hr_cs_delta hits_cs_vs_prev tb_cs_vs_prev hits_vs_hand_weighted tb_vs_hand_weighted k_rate_vs_hand_weighted iso_vs_hand_weighted hits_hand_split_weighted tb_hand_split_weighted hr_hand_split_weighted hr_vs_hand_weighted h2h_reliability h2h_ops h2h_ba_weighted h2h_ops_weighted h2h_k_rate_weighted h2h_iso_weighted h2h_ops_delta h2h_k_rate_delta h2h_has_history h2h_hr_rate h2h_hr_rate_weighted h2h_hr_vs_baseline hits_venue_adj hits_home_away_split tb_venue_adj tb_home_away_split hr_venue_adj hr_home_away_split bb_venue_adj bb_home_away_split sc_barrel_x_park_hr sc_hard_hit_x_fb hr_fb_rate hr_fb_x_park sc_exit_velo_above_avg sc_xslg_vs_iso sc_xwoba_vs_avg xba_vs_ba_delta xslg_vs_slg_delta sc_xiso_park_adj sc_pull_x_park_hr sc_oppo_x_park_hr sc_pull_x_sp_fb_pct sc_oppo_x_sp_breaking_pct sc_spray_arsenal_edge sc_sweet_spot_x_velo sc_barrel_matchup sc_hard_hit_matchup opp_sp_gb_tendency sc_hittability_combo sc_barrel_x_opp_fb sc_hard_hit_x_opp sc_xslg_x_opp_xwoba sc_xwoba_x_opp_xwoba opp_sp_hr9_vs_avg fb_x_opp_hr9 barrel_x_opp_hr9 xiso_x_opp_hr9 fb_batter_x_pitcher_fb hr_rate_cumul_x_opp_hr9 opp_sp_fb_velo_decline opp_sp_fb_velo_trend_clipped opp_sp_fb_velo_vs_league opp_sp_velo_decline_x_barrel opp_sp_velo_decline_x_hr9 sc_in_hr_la_zone sc_la_ev_composite hr_streak_score hr_recency_vs_avg opp_sp_high_workload opp_sp_fatigue_index hits_vs_tired_sp opp_sp_last_start_pitches_est opp_sp_is_pitch_limited opp_sp_short_outing_risk opp_bp_depth_depletion tb_vs_tired_bp is_b2b is_regular_starter ab_per_game_played is_bottom_of_order pa_frequency_factor pa_opp_x_total top_order_x_weak_bp cold_x_iso cold_x_hr_rate opp_catcher_framing_rv_filled opp_catcher_is_elite_framer opp_catcher_is_poor_framer opp_framing_x_ump_k9 day_after_night sp_k_split_advantage sp_k_split_trend_lhb sp_k_split_trend_rhb opp_sp_hr_rate_split sp_fb_hard_hit_vs_avg sp_fb_hard_hit_x_barrel sp_fb_hard_hit_x_xiso sp_fb_hard_hit_x_park sp_fb_xwoba_x_brl_pa sp_fb_xwoba_x_park_hr warm_x_barrel warm_x_park_hr warm_x_brl_pa hr_streak_x_brl_pa hr_streak_x_park hr_streak_x_opp_hr9 hr_count_last3_2plus hr_count_last3_3 hr_count_last3_x_brl_pa high_total_flag market_total_x_brl_pa opp_sp_very_slow_fb opp_sp_elite_velo is_summer_hr_peak is_spring_hr_trough season_hr_month_factor summer_peak_x_brl_pa platoon_hits_trend_10v40 platoon_tb_trend_10v40 h2h_recency_vs_career h2h_hot_vs_sp batter_venue_ba_adj batter_venue_ba_delta batter_venue_hr_adj batter_venue_hr_delta batting_order_effective is_confirmed_in_lineup batting_order_top4 batting_order_bottom3
feature_infos=[3:9] [0:1] [-0.017361111111111112:161.91458333333333] [0:3.2000000000000002] [0:3] [0:3] [0:2.3094010767585029] [0:1.3333333333333333] [0:1.3333333333333333] [0:1.3333333333333333] [0:6.666666666666667] [0:6.666666666666667] [0:6.666666666666667] [0:6.9282032302755088] [1:5.4000000000000004] [2.5:5.333333333333333] [0:0.875] [0:0.83333333333333337] [0:0.40000000000000008] [0:1.6388888888888891] [0:0.5] [0:0.5] [0:0.40000000000000002] [0:0.40000000000000002] [0:0.40000000000000002] [3:10] [0:0.88749999999999996] [0:1] [0:5] [0:5] [0:2] [0:2] [0:2] [0:2.0816659994661326] [0:3.3333333333333335] [0:3.3333333333333335] [0:4] [0:4] [0:9] [0:8] [0:2] [0:2] [0:3] [0:3] [0:190.90909090909091] [-1.1333333333333333:69.86666666666666] [0:0.68421052631578949] [0:27] [0:0.55617352614015569] [0:18.18181818181818] [0.33000000000000002:9] [5.4450000000000003:148.5] [0.33000000000000002:9] [0:27.272727272727273] [0:27.272727272727273] [85.13727272727273:102.03438596491229] [-4.9452245016611158:4.6000000000000085] [1:169] [0:1] [0:190.90909090909091] [0:136.36363636363637] [0.89900000000000002:1.2110000000000001] [0.76400000000000001:1.226] [0.5:7.5] [4.2352941176470589:14.294117647058824] [30.800000000000001:112.40000000000001] [0:32.899999999999999] [-1:1] [-1:1] [0:99] [0:1] [0:1] [1.5:24.5] [0:16] [1:9] [1:9] [0:1] [0:4] [0:14] [0:1] [0:3] [0:3] [-3:3.3333333333333335] [-12:12.25] [-3:2.75] [0:31] [0:39] [0:4] [0:14] [0:3] [0:4] [0:4] [0:10] [0:10] [3:10] [0:2.7000000000000002] [0:2.3333333333333335] [0:5.7000000000000002] [0:5.666666666666667] [0:1.3333333333333333] [0:0.5] [1.7:5.333333333333333] [0:0.8125] [0:0.3833333333333333] [0:1.625] [1:157] [0:2] [0:6] [0:1] [3:5] [0:0.6875] [0:0.25] [0:1] [0:0.25] [0:8] [0:1] [0:1] [0:4] [0:1] [0:3] [0:4] [0:34] [0:1] [0:4] [0:1] [0:16] [0.16261305869149006:0.89648622981956316] [0.027777777777777776:0.52253086419753081] [0.07198142414860681:1.1087121212121211] [0:25.219368879216539] [7.0999999999999996:75] [80.599999999999994:97.200000000000003] [-15.699999999999999:29.5] [12.5:55.299999999999997] [18.459541984732823:100] [17.744552394170714:100] none [0.098000000000000004:0.38300000000000001] [0.14399999999999999:0.70627312295973876] [0.127:0.46265723612622417] [0.016000000000000014:0.40841131664853098] none none none [0:14.132644178454841] [22.800000000000001:30.5] [0:25] [23.5:58.29999999999999] [82:97] [16.100000000000001:100] [17.569962335216573:100] [0.14099999999999999:0.34899999999999998] [0.22690526315789472:0.73499999999999999] [0.185:0.47299999999999998] [7.9000000000000004:76.799999999999997] [16.699999999999999:71.400000000000006] [0.16900000000000001:0.60899999999999999] [-7:4.2000000000000002] [6.5:45.200000000000003] [0:55.600000000000001] [6:66.900000000000006] [12.300000000000001:56.5] [3.5:54.5] [0.124:0.48199999999999998] [7:53.299999999999997] [10.5:51.200000000000003] [3.5:50] [7.7000000000000002:76.799999999999997] [0.23200000000000001:0.88600000000000001] [5.2000000000000002:72.599999999999994] [0:28.800000000000001] [0:36.5] [11.9:68.400000000000006] [8.3000000000000007:68.400000000000006] [-5:6.5] [7.4000000000000004:60] [-6.7000000000000002:5.0999999999999996] [8.0999999999999996:55.600000000000001] [51.5:97.200000000000003] [18.800000000000001:92.299999999999997] [5.2999999999999998:50] [37.299999999999997:68.900000000000006] [0:19.343283582089551] [0:18] [1.9318032786885246:17.821630350208888] [2:43.670000000000002] [0:18.727050183598532] [0:9] [0:11] [0:166] [0:1] none [0:4] [0:1] [0:0.66666666666666663] [0:1] [0:0.66666666666666663] [0:0.33333333333333331] [0:0.22222222222222221] [0:0.33333333333333331] [0:0.22222222222222221] [-5.2417444496368901:4.8561352177503547] [0.375:0.56896551724137934] none none [0:9] [0:1] [0:1] [0:0.83333333333333337] [3:30] [0:19] [0:77] [0:1] [0:1] [0:4] [0:1] [-16.666666666666668:100] [-16.666666666666668:100] [0.24521028037383169:0.3423423423423424] [0:45] [0:15] [0:1] [0:1] [3:10] [0.58181818181818179:0.8307692307692307] [0.58181818181818179:0.81868131868131866] [-650:430] [-310:1100] [124:7500] [0:1] [0:1] [0:1] [0:1] [0:1] [0:1] [0:1] [0:1] [0:1] [0:1] [-1.3:1.2000000000000002] [0:2] [-0.94868329805051377:0.94868329805051377] [-1.55:1.25] [-0.59999999999999998:0.59999999999999998] [0:2] [-0.79999999999999982:0.59999999999999998] [-2.9000000000000004:2.8000000000000003] [0:2] [-0.91669596470842352:0.94868329805051377] [-3.8000000000000003:2.5999999999999996] [0.29999999999999999:1] [0:1.5173333333333332] [0:6.8199999999999994] [-0.16279069767441862:0.29202279202279202] [0:0.42520000000000002] [0:3.1622776601683795] [0:6.0092592592592595] [0.129024:0.86589084874863975] [0:61.241458106637637] [0:66.818181818181813] [-0.84999999999999998:41.919999999999995] [-4.2000000000000002:15.143283582089552] [0:9] [0:19.984510777836718] [0:342] [0:40.3354] [0:1] [0:29.199999999999999] [-0.90000000000000002:1] [0:2] [-0.94868329805051377:0.94868329805051377] [-1.2999999999999998:1.2000000000000002] [0:2] [0:9.8088235294117627] [0:1.8562500000000002] [0:8.25] [0:3.4365681330711757] [0.13834711201149069:0.96494871794871817] [0:0.39705882352941174] [-0.35466666666666669:0.27352941176470591] [0:0.22647058823529412] [-0.28200000000000003:0.17461538461538462] [0:1] [-0.48749999999999999:0.45000000000000001] [-0.4375:0.21184210526315789] [-0.58102564102564103:0.38250000000000006] [-16.666666666666668:100] [-87.666666666666671:29] [0.24521028037383169:0.3423423423423424] [-0.049789719626168294:0.047342342342342414] [0:45] [0:1] [-12:33] [0:1] [-0.29999999999999999:0.69999999999999996] [0:1] [0:1] [0:1] [-0.35510204081632651:0.40574684171414421] [0.58181818181818179:0.8307692307692307] [-0.12318181818181817:0.12576923076923074] [0:1] [0:1] [0.58181818181818179:0.81868131868131866] [-0.10741059358485927:0.10490962697090123] [0:16] [0:1] none [0:16] [0.18867924528301888:0.8666666666666667] [-0.46132075471698114:0.21666666666666667] [0:1] [0.083333333333333329:0.75609756097560976] [-0.46666666666666673:0.20609756097560972] [0:1] [0.013157894736842105:0.44642857142857145] [-0.10684210526315789:0.32642857142857146] [0:1] [0:1] [0:1] [-1.1000000000000001:1.5666666666666664] [-2.3666666666666667:3.1333333333333329] [-0.5:0.73333333333333328] [-1.3999999999999999:1.3053000000000001] [-5.2000000000000002:3.1285999999999996] [0:1.9333333333333333] [0:3.6666666666666665] [0:0.62916666666666665] [0:0.63709677419354838] [-1.1499999999999999:1.1794871794871795] [-1.8074074074074076:2.5589743589743592] [-0.41449275362318844:0.49333333333333335] [0:0.53846153846153844] [0:1] [0:5] [0:0.66666666666666663] [0:1.9910714285714286] [0:0.625] [0:0.9285714285714286] [-0.64499999999999991:1.7124999999999999] [-0.39403508771929824:0.44876190476190481] [0:1] [0:1] [0:0.29999999999999999] [-0.097000000000000003:0.26921999999999996] [0:4] [-3.5:3.5] [0:9] [-8:8.5] [0:2] [-2:2] [0:3] [-2.8571428571428572:3] [0:30.918946245919475] [0:75] [0:1.338693176848214] [0:1.4230308469896513] [-7.4000000000000057:9.2000000000000028] [-1.246:0.68127312295973874] [-0.56275920679886682:0.37940052015604681] [-0.6410934844192635:0.29763497571131159] [-1.8085:0.55041482444733425] [0:0.50071227421109898] [0.30560000000000004:0.4904] [0.191:0.30649999999999999] [0.22000000000000003:30.719999999999999] [-18.949999999999999:0.11249999999999999] [0.10750000000000004:49.670000000000002] [-2.3672000000000026:4.6000000000000014] [-22.819672131147541:21.81936887921654] [-44.531621936989495:51.061096938775506] [0.161:1] [0.27357370095440087:0.88211301044634371] [0:21.159050489662675] [0:0.32018997656249992] [0:0.2901279145299146] [0:0.19443196771130103] [-1:26.272727272727273] [0:22.057377049180324] [0:437.76942355889719] [0:7.1275110854058221] [0.034778006173180602:1] [0:3.116883116883117] [0:1] [-4.9452245016611158:3] [-8.3627272727272697:8.5343859649122891] [0:25.219368879216539] [0:44.045454545454795] [0:1] [0:0.79605333333333339] [0:1] [-0.80000000000000004:1.1666666666666667] [0:1] [0.064058823529411765:2.0964705882352939] [0:3.0409305882352942] [5.4450000000000003:148.5] [0:1] [0.00094531250000000008:0.30000000000000004] [0:1] [0:5.2999999999999998] [0:1] [0:1] [0.25:1.7777777777777777] [0:1] [0.1111111111111111:1] [0.030864197530864196:2.7222222222222223] [0:4.8358208955223878] [0:34.949999999999996] [0:7.7666666666666657] [-5.2417444496368901:4.8561352177503547] [0:1] [0:1] [-51.817784363361419:49.486927318080646] [0:1] [-0.4916666666666667:0.625] [-0.14049444396588856:0.13468884290943817] [-0.10975258503989171:0.12299421009098427] [-0.22222222222222221:0.33333333333333331] [-0.17300000000000004:0.37400000000000005] [0:17.40136452665941] [0.0080000000000000071:0.28180380848748637] [0.15981899999999999:0.80793400000000004] [0:7.2736538461538469] [0.151424:0.69230700000000001] [0:39.24683950617284] [0:2.2535599999999998] [0:24.290000000000006] [0:14.132644178454841] [0:1.1379999999999999] [0:16.8595041322314] [0:1] [0:1] [0:60.940522243713744] [0:1] [0:273.59615384615387] [0:1] [0:1] [0:1] [0:1] [0:1] [0:14.132644178454841] [-0.49999999999999989:0.5] [-0.99999999999999978:1] [-0.31168831168831168:0.34999999999999998] [0:1] [0:2.2999999999999998] [-2.7000000000000002:0.16000000000000003] [0:0.35384615384615387] [-0.40000000000000002:0.20000000000000001] [1:9] none [0:1] [0:1]
tree_sizes=3389 3480 3459 3492 3484 3481 3474 3488 3491 3439 3463 3505 3486 3490 3496 3529 3446 3501 3478 3494 3479 3513 3493 3462 3493 3473 3504 3457 3492 3474 3454 3491 3516 3504 3511 3524 3537 3491 3517 3501 3509 3496 3502 3513 3484 3503 3526 3524 3488 3521 3501 3513 3529 3521 3492 3509 3461 3510 3522 3472 3491 3508 3472 3509 3513 3520 3502 3525 3499 3528 3471 3538 3535 3534 3502 3491 3486 3537 3521 3500 3525 3507 3534 3483 3544 3546 3498 3540 3515 3499 3509 3464 3555 3559 3538 3531 3540 3542 3544 3532 3541 3555 3480 3508 3517 3514 3517 3532 3447 3552 3527 3508 3490 3478 3555 3535 3530 3542 3494 3481 3493 3540 3531 3468 3545 3533 3476 3537 3523 3534 3564 3526 3502 3515 3457 3532 3514 3550 3533 3533 3483 3514 3530 3540 3536 3527 3515 3505 3512 3529 3549 3523 3487 3562 3499 3511 3530 3514 3477 3511 3538 3548 3521 3544 3501 3514 3520 3537 3555 3500 3535 3507 3557 3521 3521 3519 3516 3540 3537 3564 3509 3513 3484 3541 3561 3506 3504 3538 3555 3507 3451 3523 3534 3512 3536 3544 3534 3518 3501 3509 3513 3544 3559 3535 3529 3460 3542 3560 3543 3522 3530 3531 3549 3557 3559 3534 3512 3537 3525 3566 3537 3539 3549 3551 3514 3458 3533 3555 3525 3558 3493 3516 3514 3570 3543 3564 3556 3535 3523 3542 3551 3556 3535 3528 3534 3538 3535 3534 3561 3520 3508 3505 3544 3501 3568 3498 3515 3475 3504 3555 3530 3540 3492 3523 3465 3507 3566 3513 3519 3518 3490 3557 3538 3525 3515 3547 3515 3497 3512 3542 3551 3531 3511 3540 3536 3508 3525 3535 3532 3551 3524 3512 3526 3532 3509 3519 3508 3540 3516 3543 3542 3519 3515 3534 3554

Tree=0
num_leaves=31
num_cat=0
split_feature=434 228 362 217 41 422 148 351 48 405 279 185 298 260 381 103 416 166 167 268 424 272 285 285 434 69 359 60 305 109
split_gain=85.334 25.1199 18.9608 12.5847 12.8715 10.9658 13.0792 12.8662 13.3555 11.2042 8.64019 12.0247 8.26035 8.01682 7.69234 7.63316 11.3393 11.0392 9.93861 11.9896 7.61397 8.49827 7.32301 7.28625 7.73872 7.00352 7.72327 8.04171 8.68734 13.3851
threshold=63.961396861844641 345.00000000000006 0.13708737555147327 68.027777777777786 0.07417582417582419 2.8269235991654891 88.613693036876043 0.72077922077922085 0.10087285916881482 1.0012345679012349 -0.014166666666666661 19.335000000000004 -0.053795257934046888 1.0404606899944189 0.088030634907612315 0.18861111111111115 0.0028252333647940668 21.400000000000002 30.250000000000004 0.10000000000000001 2.9916155382981526 0.7029411764705884 0.044047619047619072 -0.033333333333333305 80.266621381305626 3.5000000000000004 0.08335048623556722 5.0657625431578079 3.2500000000000004 3.9613500000000004
decision_type=2 2 2 2 2 2 2 2 2 2 2 2 2 2 2 2 2 2 2 2 2 2 2 2 2 2 2 2 2 2
left_child=2 3 -1 4 -2 12 -7 10 9 -9 11 -8 -6 -3 15 18 17 22 19 -4 -15 23 -17 -22 -25 26 -23 28 -28 -30
right_child=1 13 14 -5 5 6 7 8 -10 -11 -12 -13 -14 20 -16 16 -18 -19 -20 -21 21 25 -24 24 -26 -27 27 -29 29 -31
leaf_value=-2.1936044076385977 -2.1909726532012188 -2.1843462397099183 -2.1742431187437581 -2.1863140639194305 -2.1268359230490734 -2.1711481300432451 -2.1889984298087022 -2.125350664343836 -2.1683221578313825 -2.0375564544934446 -2.1613347406699512 -2.1010200506475418 -2.1948791267718666 -2.1790469470203173 -2.1877160624066154 -2.0706241595284931 -2.1944010058711356 -2.1943851627258808 -2.1835890989148048 -2.0851304893999156 -2.1253850005259891 -2.1793613357225432 -2.1900860420116444 -2.1892253336221006 -2.143366579647886 -2.1858080854751072 -2.1627172922262172 -2.1784859196679451 -2.0987838780010817 -2.18023812741475
leaf_weight=727.8898353534579 8.6133618085295875 169.97314340281378 5.7528701775745494 15.395292910048736 1.8738701435795508 14.179179670871234 2.0402022784110105 5.568526195624143 3.1658312715298953 3.3755285642109811 18.96390607836657 6.8146893568336964 8.5451478621689585 289.6151529614275 670.96948687345025 2.6952181286544596 3.2560611214987603 1.3149966935500286 123.0448492849041 1.8984058066909026 7.5116665134376062 41.873836544366782 0.55228981062987248 7.6459540384760185 7.3972745918636065 34.933965049684048 23.631496879529436 17.93048926276731 6.4571524782247689 3.4632074179826304
leaf_count=32464 112 5531 312 213 47 157 39 84 44 29 252 107 111 8688 31028 166 129 69 10787 112 574 4148 33 635 473 219 2148 1748 406 79
internal_value=-2.18538 -2.17581 -2.18973 -2.15939 -2.15371 -2.14868 -2.14275 -2.13311 -2.10442 -2.08467 -2.14716 -2.12062 -2.18046 -2.17822 -2.18625 -2.17918 -2.14859 -2.11794 -2.18119 -2.14604 -2.17587 -2.16984 -2.08945 -2.15123 -2.16616 -2.17328 -2.16858 -2.16005 -2.15059 -2.12497
internal_weight=2236.34 698.969 1537.37 88.5355 73.1402 64.5269 54.1079 39.9287 12.1099 8.94405 27.8188 8.85489 10.419 610.433 809.484 138.515 7.81857 4.5625 130.696 7.65128 440.46 150.845 3.24751 22.5549 15.0432 128.29 93.3562 51.4823 33.5519 9.92036
internal_count=100944 25844 75100 1195 982 870 712 555 157 113 398 146 158 24649 42636 11608 397 268 11211 424 19118 10430 199 1682 1108 8748 8529 4381 2633 485
is_linear=0
shrinkage=1


Tree=1
num_leaves=31
num_cat=0
split_feature=434 228 362 422 41 148 2 2 62 171 195 372 424 168 362 420 339 422 285 206 312 381 167 32 103 414 49 249 39 37
split_gain=82.2163 23.427 18.6026 10.3836 10.248 11.9661 11.5213 9.11439 10.7082 10.7773 10.7633 7.75803 10.7909 13.4822 9.69544 8.76674 8.24403 7.76743 9.24086 7.63353 7.63016 7.44252 7.13868 10.2647 8.65841 9.65804 7.53373 6.24585 6.0391 10.7116
threshold=63.961396861844641 345.00000000000006 0.13708737555147327 2.8269235991654891 0.07417582417582419 88.613693036876043 0.90104166666666685 1.8340277777777778 1.0485000000000002 11.450000000000001 0.26936715766503005 0.64603025033988304 1.8733994956021498 0.5375000000000002 0.30603595525219468 0.0669486952819211 -0.10158902691511389 3.2707716707254559 -0.029166666666666646 0.28062500000000007 0.52934662236987828 0.088030634907612315 26.450000000000003 0.324561403508772 0.18861111111111115 -0.0014689623460210353 1.3235662036884162 -0.89999999999999947 1.8819444444444446 1.1055555555555558
decision_type=2 2 2 2 2 2 2 2 2 2 2 2 2 2 2 2 2 2 2 2 2 2 2 2 2 2 2 2 2 2
left_child=2 3 -1 -2 -5 -6 -7 8 9 -8 -10 16 -13 15 -15 19 28 -17 -19 -14 -11 22 23 -4 -24 -26 -27 -28 -3 -30
right_child=1 11 21 4 5 6 7 -9 10 20 -12 12 13 14 -16 17 -18 18 -20 -21 -22 -23 24 -25 25 26 27 -29 29 -31
leaf_value=-0.0081558678036118479 0.00055527608295198756 0.0066506128597100299 0.081322465015321463 -0.0043994866622100439 0.010494556418468927 0.015065501869790228 0.083416559956681818 0.018223308414552639 0.10387927641088775 0.04256741887622064 0.030552996001632006 0.0051323823240894068 0.017734618836443103 0.010754898921436173 0.060962196308157968 0.015570732239340751 -8.6573436432611417e-05 0.098039568032628727 0.014415702500903429 0.14476962052007214 -0.0099786189675299067 -0.0023022213197204495 0.0022080980073428623 -0.0021706133344556993 -0.011754350283658887 0.00073621540454516074 -0.0049285543214072514 0.1028344664322839 0.07665242939659174 -0.0030290642073850424
leaf_weight=721.92861136642568 16.006686293025268 11.102508138988471 2.6616181129177212 8.0604237770312448 17.866209780913778 13.148677431076065 3.9170430120138944 7.7229411476291707 8.8308294052549154 6.4478277802118047 3.9018358179309862 235.74865609944072 1.1435521080217115 139.22575753281956 3.8119125719235845 13.636522410469412 196.11139508721021 2.9150876005041937 3.0615328928927275 1.0334881089224834 4.79687747973367 669.40452688038556 125.87257780948732 2.9590974768885872 2.6486750658559686 1.7092367522791381 0.56909979587646864 2.8637995818951367 4.0885264718953058 2.8287598276219796
leaf_count=32464 235 247 117 97 208 133 53 134 110 65 47 6945 41 7542 573 1370 7089 266 379 13 113 31028 10978 125 150 133 8 97 77 107
internal_value=7.30634e-07 0.00933472 -0.00430059 0.0249839 0.0301253 0.0343572 0.0427942 0.0525144 0.0613015 0.0395075 0.0840528 0.00699787 0.0097122 0.0161987 0.0123657 0.0401988 0.00189052 0.0309678 0.0609481 0.09751 0.020475 -0.000850999 0.00607799 0.0407991 0.00441627 0.0369684 0.0613042 0.0859933 0.0229136 0.0459364
internal_weight=2236.02 705.407 1530.62 90.6994 74.6927 66.6322 48.766 35.6174 27.8944 15.1617 12.7327 614.708 400.577 164.828 143.038 21.7902 214.131 19.6131 5.97662 2.17704 11.2447 808.689 139.284 5.62072 133.663 7.79081 5.14214 3.4329 18.0198 6.91729
internal_count=100944 25844 75100 1195 960 863 655 522 388 231 157 24649 17129 10184 8115 2069 7520 2015 645 54 178 42636 11608 242 11366 388 238 105 431 184
is_linear=0
shrinkage=0.0330562


Tree=2
num_leaves=31
num_cat=0
split_feature=434 228 362 217 41 422 148 361 249 351 199 329 382 298 260 42 255 150 412 402 319 327 283 87 424 415 61 404 67 362
split_gain=79.2623 21.8323 18.2471 11.0862 10.8727 9.41637 10.1192 10.6824 8.97948 9.77053 12.3118 8.23159 9.1344 7.82803 7.46774 7.0856 6.93523 6.85688 11.6778 10.4286 9.87146 7.17024 7.02336 6.61498 6.57861 10.1696 9.39128 10.2483 7.43802 6.97095
threshold=63.961396861844641 345.00000000000006 0.13708737555147327 68.208556149732644 0.07417582417582419 2.8269235991654891 88.613693036876043 -0.22735662165712595 0.73137254901960791 0.55050505050505061 0.031031826279551259 0.027216610549943881 0.15641111111111114 -0.053795257934046888 1.0404606899944189 0.48333333333333339 1.2473413214533917 25.516579927034481 -11.902525509460347 0.37750000000000006 1.0000000180025095e-35 0.2672958214624882 0.015857142857142844 1.5277777777777779 3.0944736450683279 0.024195149646658799 1.0150000000000003 0.53209876543209889 -0.96359376111369355 0.23366058704284229
decision_type=2 2 2 2 2 2 2 2 2 2 2 2 2 2 2 2 2 2 2 2 2 2 2 2 2 2 2 2 2 2
left_child=2 3 -1 4 -2 13 -7 -8 9 11 16 12 15 -6 -3 -9 -11 18 19 20 21 -16 23 -20 -19 28 27 -27 29 -26
right_child=1 14 -4 -5 5 6 7 8 -10 10 -12 -13 -14 -15 17 -17 -18 24 22 -21 -22 -23 -24 -25 25 26 -28 -29 -30 -31
leaf_value=-0.0080882863044831037 -0.0055006368039394191 0.00093769958467260824 -0.00083628517354021777 -0.0017247765757062888 0.055212737879976895 0.013513794898326733 0 0.087210424690093463 0.017779419702656174 0.05745886583669773 0.10156410243749328 0.00046706235000144208 -0.0043884543707375309 -0.009673973255154223 -0.012170243201779958 0.014501937075302864 -0.011146449197114317 0.004056740422864173 0.015653261768279702 0.013279416366592682 0.094120181257975916 0.063940632464523695 0.00013837759315126738 0.063664767867413874 0.007706328484159853 -0.0085653804225463114 0.0070339171282884968 0.072992267818520723 0.006696064403032418 0.0679293678555387
leaf_weight=716.06459929129232 8.536519346322164 170.92673970245903 807.92429667210604 14.996943680540424 1.9888116989459366 14.534164575132307 4.7985829763347203 5.77083087680513 7.7854220320004961 4.6467654183798031 9.7283320271526446 4.7256187942693932 2.1816433756612232 8.783553910761837 2.5828550049537871 2.423424061271362 1.9636086430109569 248.4728852911777 22.93539851517642 8.919660718968542 4.9840664901136051 1.8216710458336818 32.50564349476349 3.2973940388578731 4.5934382524328594 1.8642585516063279 7.3094551588549157 7.8062198255565818 96.903317235989675 3.8572529443847543
leaf_count=32464 112 5531 42636 201 48 157 65 76 100 50 129 74 23 115 33 25 20 6646 1679 108 39 17 2882 282 307 141 340 490 5932 222
internal_value=3.60037e-06 0.00910922 -0.00424792 0.0240249 0.0290055 0.0333162 0.0385039 0.0463825 0.051997 0.0598689 0.0780262 0.0377755 0.0534901 0.00425873 0.00684392 0.0685605 0.0373453 0.00908581 0.0180676 0.0407925 0.0642152 0.0224633 0.0105848 0.0231041 0.00718385 0.0134556 0.0368605 0.0573355 0.00946305 0.0382597
internal_weight=2235.63 711.644 1523.99 92.8642 77.8673 69.3308 58.5584 44.0242 39.2256 31.4402 16.3387 15.1015 10.3759 10.7724 618.78 8.19425 6.61037 447.854 77.0467 18.3083 9.38859 4.40453 58.7384 26.2328 370.807 122.334 16.9799 9.67048 105.354 8.45069
internal_count=100944 25844 75100 1195 994 882 719 562 497 397 199 198 124 163 24649 101 70 19118 5040 197 89 50 4843 1961 14078 7432 971 631 6461 529
is_linear=0
shrinkage=0.0330562


Tree=3
num_leaves=31
num_cat=0
split_feature=434 228 362 217 41 422 279 298 372 424 168 362 339 221 5 185 247 351 381 412 133 224 399 13 348 161 421 126 285 159
split_gain=76.4216 20.3667 17.8895 10.2432 10.0026 8.44528 9.15697 7.33474 7.21711 9.78908 12.0473 8.57426 7.69149 7.59692 9.50583 8.68906 12.9432 7.53142 7.20313 7.09736 10.3349 12.6523 7.46431 7.09474 8.13481 8.83961 10.4575 9.96787 7.82885 8.45624
threshold=63.961396861844641 345.00000000000006 0.13708737555147327 68.208556149732644 0.07417582417582419 2.8269235991654891 0.028666666666666684 -0.053795257934046888 0.64603025033988304 1.8733994956021498 0.5375000000000002 0.30603595525219468 -0.10158902691511389 0.24068965517241384 1.1291666666666669 22.005000000000006 0.72111111111111115 0.44097222222222227 0.088030634907612315 13.535822882244384 38.457372134758138 0.72099960387165452 1.2670370370370372 2.9524000036343567 1.58459595959596 30.500000000000004 0.35540450000000007 0.34525306395519201 -0.0014583333333333308 18.950000000000003
decision_type=2 2 2 2 2 2 2 2 2 2 2 2 2 2 2 2 2 2 2 2 2 2 2 2 2 2 2 2 2 2
left_child=2 3 -1 4 -2 7 23 -6 12 -10 13 -12 17 -11 15 16 -15 -3 19 20 -4 22 -22 24 25 -7 -27 -28 29 -29
right_child=1 8 18 -5 5 6 -8 -9 9 10 11 -13 -14 14 -16 -17 -18 -19 -20 -21 21 -23 -24 -25 -26 26 27 28 -30 -31
leaf_value=-0.008020719074618524 -0.0054443882494012441 0.0026915422459278899 0.0075833161567231012 -0.0017003889005218404 0.052216098150653679 0.010694345643912473 0.011721284063964972 -0.0096126496044004386 0.0049190711677820154 0.004992657076030923 0.010199111897063838 0.055891965495450627 -0.0001538103915786709 0.00012246872973572961 0.00039649615317454426 0.02842477099260745 0.1094898842524657 0.04492746528508032 -0.0022578976251644697 -0.0045770800629857267 0.11456779396794907 0.0058759767079948804 0.0067656186433076634 -8.571542347452792e-05 0.10290006462470817 0.0032345401830731705 0.0042913862809621922 0.0061262695448986056 0.085388968633986401 0.063030035168450571
leaf_weight=710.29622841089065 8.4896918439771962 10.645100815714729 85.887770762332707 14.971099558228159 2.1017074356204821 8.4834419915277959 13.674431445600929 8.6989916838356276 238.11175526849195 6.231066524174028 142.14567007207575 4.1210553248398574 196.92473585087009 1.5693352665686022 3.6596241178240225 6.2612533053577408 5.2103889709885607 7.9384223157702527 667.3068957938018 45.964217939673404 2.4383791647207986 4.5407280774425089 1.1109349916191602 3.613097748020663 2.4738436866318798 4.726631847996031 3.5916059058217824 4.7815113731194216 11.668463228503249 7.7297167392680421
leaf_count=32464 112 292 10026 201 48 109 151 115 6945 506 7542 573 7089 124 434 548 457 139 31028 786 305 410 81 51 25 54 49 68 130 82
internal_value=5.55058e-06 0.00888971 -0.00419627 0.0231197 0.0277854 0.0317908 0.0365482 0.00420734 0.00669326 0.0092809 0.0153592 0.0117329 0.00177388 0.0374522 0.048765 0.0614634 0.0867197 0.0217577 -0.000823261 0.00597269 0.0111669 0.0456631 0.0875238 0.0434485 0.0471019 0.0422185 0.0499978 0.0575946 0.065073 0.0428261
internal_weight=2235.37 717.823 1517.55 95.0042 80.0331 71.5434 60.7427 10.8007 622.818 407.31 169.198 146.267 215.508 22.9317 16.7006 13.041 6.77972 18.5835 807.249 139.942 93.9778 8.09004 3.54931 47.0683 43.4552 40.9814 32.4979 27.7713 24.1797 12.5112
internal_count=100944 25844 75100 1195 994 882 719 163 24649 17129 10184 8115 7520 2069 1563 1129 581 431 42636 11608 10822 796 386 568 517 492 383 329 280 150
is_linear=0
shrinkage=0.0330562


Tree=4
num_leaves=31
num_cat=0
split_feature=434 228 362 217 41 422 148 361 249 351 199 381 260 329 351 298 412 133 299 331 150 412 97 43 249 49 254 336 441 370
split_gain=73.6711 19.049 17.5423 9.49108 9.23277 7.61089 8.45043 8.84758 7.30897 7.22081 8.87089 6.9639 6.96259 6.92652 6.91306 6.88356 6.79948 9.54884 10.9661 6.43252 6.38134 8.84456 8.72109 9.1389 9.05601 6.87136 11.1953 7.2308 6.84316 7.08799
threshold=63.961396861844641 345.00000000000006 0.13708737555147327 68.208556149732644 0.07417582417582419 2.8269235991654891 88.613693036876043 -0.22735662165712595 0.73137254901960791 0.55050505050505061 0.029498781761225203 0.088030634907612315 1.0404606899944189 0.027216610549943881 0.36038961038961043 -0.053795257934046888 13.535822882244384 38.457372134758138 0.72099960387165452 0.034617283950617299 24.011680382223592 4.9637655501195654 1.3166666666666669 0.2752525252525253 0.53923076923076962 3.4637581347663748 0.028869932432432438 0.13589743589743594 0.24886840757808501 5.3938863822280299
decision_type=2 2 2 2 2 2 2 2 2 2 2 2 2 2 2 2 2 2 2 2 2 2 2 2 2 2 2 2 2 2
left_child=2 3 -1 4 -2 15 -7 -8 9 13 -11 16 -3 14 -9 -6 17 -4 19 -19 21 22 23 24 -14 27 -27 -22 -23 -30
right_child=1 12 11 -5 5 6 7 8 -10 10 -12 -13 20 -15 -16 -17 -18 18 -20 -21 25 28 -24 -25 -26 26 -28 -29 29 -31
leaf_value=-0.0079531755836528256 -0.0053884495232501941 0.00084745026169154552 0.0074032576334497214 -0.0016763082506443957 0.049465679398410747 0.012312767791833101 0 0.072986051093875362 0.016141775273768422 0.029816311219496579 0.083768482290173238 -0.0022259243794171563 0.11678610472893974 0.00014214648096413994 0.01884655061365299 -0.0095511999717406478 -0.0045234707119929341 0.097177584450752086 0.0057604707131245769 -0.0053277764101075627 0.0093839718670580899 -0.0029813708356043879 0.019677720932294817 0.019101455499545075 -0.0040876817907119509 0.082969577034803829 0.00023300325628437842 -0.0005248431605788885 0.061323406537486344 0.0020692309239857308
leaf_weight=704.62192698316767 8.4435962529096269 171.82346421185935 86.541560985711953 14.945664431783369 2.2143660843139505 15.166742897446964 4.8947338460129606 5.520760563580561 8.2070552823715825 6.0729223846283302 12.352037537377326 665.80187900130727 3.0196861378653952 4.830064241134095 5.8218335774727166 8.6157719887269177 45.75431660384254 3.1921049947439983 4.5674877589152629 0.66074243744560579 277.90266357844496 22.635711281778075 19.589090391735226 3.6876497274718076 0.71531812204523237 2.8017410682635946 3.9617458229773774 112.14536380722052 3.7544817035428633 4.8291743539070922
leaf_count=32464 112 5531 10026 201 48 157 65 71 100 65 134 31028 182 74 53 115 786 281 410 105 12333 755 2183 313 66 54 90 2915 85 142
internal_value=7.57869e-06 0.00867566 -0.0041445 0.0222773 0.0266599 0.0303939 0.0347761 0.0416038 0.0463555 0.0530252 0.0676681 -0.000809143 0.00654419 0.0343141 0.0478301 0.00415421 0.00585004 0.0108828 0.0433892 0.0804336 0.00868345 0.0189032 0.0325856 0.0622027 0.0954328 0.00714855 0.0389433 0.00652937 0.00656267 0.0306803
internal_weight=2235.09 723.952 1511.14 97.0855 82.1399 73.6963 62.8662 47.6994 42.8047 34.5976 18.425 806.518 626.866 16.1727 11.3426 10.8301 140.716 94.9619 8.42034 3.85285 455.043 58.2311 27.0117 7.42265 3.735 396.812 6.76349 390.048 31.2194 8.58366
internal_count=100944 25844 75100 1195 994 882 719 562 497 397 199 42636 24649 198 124 163 11608 10822 796 386 19118 3726 2744 561 248 15392 144 15248 982 227
is_linear=0
shrinkage=0.0330562


Tree=5
num_leaves=31
num_cat=0
split_feature=434 228 362 428 351 11 49 39 79 254 139 381 412 133 300 271 181 421 240 425 239 6 174 151 255 205 197 39 216 170
split_gain=71.0314 18.1429 17.1975 8.88985 14.6349 13.4365 8.40976 8.24297 7.6402 7.49244 6.89673 6.72793 6.51123 8.7881 9.47595 6.26818 5.9976 5.97559 6.03584 5.69296 8.43469 7.29864 6.8633 6.38471 5.65576 5.63925 7.37615 5.47562 8.47455 5.81529
threshold=63.961396861844641 415.00000000000006 0.13708737555147327 0.72454000000000007 0.45804195804195807 2.1547619047619051 3.4637581347663748 1.8944444444444446 0.27012691570881237 0.028869932432432438 0.3164012834180745 0.088030634907612315 13.535822882244384 38.457372134758138 0.015885389988790747 0.40000000000000002 54.250000000000007 0.361427 0.59411764705882375 0.25599500000000014 0.20000000000000001 0.75435079936376781 1.7500000000000002 0.19653571428571431 1.4391906886263548 5.5000000000000009 0.038852104703420362 1.6201923076923079 67.337696547252406 15.850000000000003
decision_type=2 2 2 2 2 2 2 2 2 2 2 2 2 2 2 2 2 2 2 2 2 2 2 2 2 2 2 2 2 2
left_child=2 3 -1 17 -5 8 10 -7 -6 -8 -3 12 13 -4 24 -16 19 18 -2 22 -21 -22 23 -12 -15 -14 -27 29 -29 -19
right_child=1 6 11 4 5 7 9 -9 -10 -11 16 -13 25 14 15 -17 -18 27 -20 20 21 -23 -24 -25 -26 26 -28 28 -30 -31
leaf_value=-0.0078856646128423226 0.038383340863705172 -0.0037768855556126846 0.0072287686806945953 0.0046491098980404868 0.12288869907840355 0.059336838639290006 0.072870365301877071 0.00189078476449585 0.043315679853051597 0.0030029719434475702 0.052725468591601765 -0.0021943333123063693 -0.0089392246411403621 0.088807153171414188 -0.011549989862175569 0.073792745776086077 0.00092956692008904331 0.0055692015350128094 -0.0036686526292513885 0.010525225352757545 0.068780170017978634 0.021453953772538389 -0.014241308852004657 0.0069787686405268232 -0.0053360206427457814 -0.0085346527058719375 0.061804585589007074 0.026595071217631886 -0.0061650930161687156 0.037636593860664945
leaf_weight=699.04017018031834 3.6329264323285306 86.809430297521203 87.184627807471202 12.238025992381155 3.1561548768368111 4.1767189850215782 3.1861590265943951 6.7882427553995512 3.9445328868750948 3.3115130149319612 2.8465351491280435 664.3215076972042 40.025174238709837 3.4856582397526363 4.0267547569142152 0.57903164024048681 146.63739080190282 56.155371824657777 30.613907814142294 67.625076159280979 4.8768957197338549 14.20507743955295 16.073861787293481 178.45417350980199 0.67754004058997441 3.0746112768538287 2.4480301248840988 69.357227016735123 9.4174089687003271 6.4808382235059971
leaf_count=32464 30 3950 10026 139 35 32 65 82 36 100 148 31028 744 328 392 21 1797 704 293 7379 495 1570 265 7683 55 24 18 844 141 56
internal_value=9.34986e-06 0.00846837 -0.00409334 0.0167766 0.033306 0.0517566 0.00518069 0.0260172 0.0859375 0.0410176 0.00467708 -0.00079569 0.005727 0.0106024 0.0411629 0.00572231 0.00639215 0.0138015 0.00127009 0.00919133 0.0162568 0.0354512 0.00602964 0.00788743 0.0739824 -0.00447025 0.0250439 0.016793 0.0226164 0.00926792
internal_weight=2234.85 729.987 1504.86 205.961 30.3037 18.0656 524.026 10.965 7.10069 6.49767 517.528 805.823 141.501 95.9536 8.76898 4.60579 430.719 175.658 34.2468 284.082 86.707 19.082 197.375 181.301 4.1632 45.5478 5.52264 141.411 78.7746 62.6362
internal_count=100944 25844 75100 2392 324 185 23452 114 71 165 23287 42636 11608 10822 796 413 19337 2068 323 17540 9444 2065 8096 7831 383 786 42 1745 985 760
is_linear=0
shrinkage=0.0330562


Tree=6
num_leaves=31
num_cat=0
split_feature=434 228 362 428 32 39 65 49 84 22 63 254 381 103 193 167 268 254 15 181 67 194 83 133 254 379 83 387 82 36
split_gain=68.4962 17.0745 16.8613 8.19373 11.3181 8.56243 7.95269 7.83077 7.64325 7.61371 6.66022 6.56833 6.5111 6.39459 9.0549 8.27602 8.73767 6.70001 6.37808 6.64195 5.93409 6.53845 7.16076 5.97738 7.04031 6.39451 5.84245 6.08224 5.81113 5.69706
threshold=63.961396861844641 415.00000000000006 0.13708737555147327 0.72454000000000007 0.53137254901960795 2.1055555555555561 67.850000000000009 3.4637581347663748 -0.056980519480519472 0.093073593073593086 2.8660077615822495 0.028869932432432438 0.088030634907612315 0.18861111111111115 0.27681093623890241 30.250000000000004 0.10000000000000001 0.089385353095030526 3.1180555555555558 54.250000000000007 -0.95878322595067689 0.21058466565526901 -0.83263305322128833 37.602678404632918 0.052140661938534283 3.8269588632754723 -1.499287749287749 0.037805134213238285 -0.34021561523159988 0.72077922077922085
decision_type=2 2 2 2 2 2 2 2 2 2 2 2 2 2 2 2 2 2 2 2 2 2 2 2 2 2 2 2 2 2
left_child=2 3 -1 10 8 6 -6 18 9 -5 28 -9 13 15 -15 16 -4 -16 -3 20 21 -20 -23 24 25 -24 27 -12 -2 -26
right_child=1 7 12 4 5 -7 -8 11 -10 -11 26 -13 -14 14 17 -17 -18 -19 19 -21 -22 22 23 -25 29 -27 -28 -29 -30 -31
leaf_value=-0.0078181953425841087 -0.00801980717001766 -0.0027191890200815722 0.0097637416169839338 0.087784475034967488 0.021511424232941855 0.015678999563064774 0.089105927994762787 0.067526180975584299 -0.0064252871816158881 0.0086860462324927761 0.0047549342255142051 0.0029536156765022927 -0.0021631216115919542 0 0.086401715747913138 0.0014854501186723019 0.080793115118693512 -0.0073550124843855579 -0.012090503331343948 0.0007282312330731545 0.0075924741109118232 -0.0074979447845897789 -0.0083072479457021123 0.0042090060113559981 0.065345477884954539 0.069152005837497046 0.0094975274128567058 0.070525249908581417 0.037725920776570943 0.00018744282708649509
leaf_weight=693.54945621987474 3.2488358650589388 103.64657390640548 6.0861550332969028 1.7091597219696257 3.4392931474721973 5.7080451518413602 6.6406506357889157 3.4270042362674067 9.9338436193065736 3.7852014761301689 3.0448416056169654 3.3214723427722674 662.86535782835688 4.7121740372040204 2.987030016782001 125.16121199395161 2.3978516291391543 0.88148001585568625 4.6308441802582356 147.0600545312268 236.09009209921703 4.6836952212272562 1.0849330725824362 5.5154859483393457 1.3986936582732585 9.8055020974271638 150.56787351099774 3.030029305111384 18.169753690075595 5.9690687136832139
leaf_count=32464 96 3577 312 21 33 70 51 65 95 54 56 100 31028 273 101 10787 112 23 348 1854 16106 314 42 227 72 456 1559 41 316 291
internal_value=1.15464e-05 0.00826824 -0.0040422 0.0162522 0.0318798 0.0511308 0.068871 0.00507389 0.0107849 0.0400722 0.013395 0.0390566 -0.000781505 0.00561468 0.0323739 0.00373354 0.0342254 0.0661053 0.00458159 0.00640945 0.00949147 0.0225598 0.0284547 0.0356955 0.044582 0.0610916 0.0109132 0.0414731 0.0305944 0.0169781
internal_weight=2234.55 735.911 1498.64 209.278 31.2162 15.788 10.0799 526.633 15.4282 5.49436 178.061 6.74848 805.091 142.226 8.58068 133.645 8.48401 3.86851 519.885 416.238 269.178 33.0882 28.4574 23.7737 18.2582 10.8904 156.643 6.07487 21.4186 7.36776
internal_count=100944 25844 75100 2392 324 154 84 23452 170 75 2068 165 42636 11608 397 11211 424 124 23287 19710 17856 1750 1402 1088 861 498 1656 97 412 363
is_linear=0
shrinkage=0.0330562


Tree=7
num_leaves=31
num_cat=0
split_feature=434 362 228 217 63 415 169 415 256 309 376 424 168 405 362 272 45 285 381 326 412 133 224 271 249 434 42 294 222 205
split_gain=66.0537 16.5297 16.1164 8.29929 7.26707 8.31203 8.5043 9.37252 7.76352 6.73637 6.44435 8.83596 9.97434 8.01285 9.79761 6.64589 7.54202 7.38578 6.3023 6.177 6.17488 7.96555 7.91203 5.81692 5.57185 6.26964 5.97196 5.67908 5.93889 5.36765
threshold=63.961396861844641 0.13708737555147327 345.00000000000006 68.208556149732644 3.3918497374637142 -0.024445884435323164 16.050000000000004 0.01475587098639833 1.0851666666666671 0.71825396825396837 0.1052313045882062 1.8733994956021498 0.5375000000000002 0.63981481481481495 0.20115608952991457 0.7029411764705884 5.543036393081807 -0.029166666666666646 0.088030634907612315 1.802777777777778 13.535822882244384 38.457372134758138 0.72099960387165452 0.40000000000000002 0.69473684210526343 82.086611111111111 0.89444444444444449 -0.039935587761674711 0.28636888515641407 5.5000000000000009
decision_type=2 2 2 2 2 2 2 2 2 2 2 2 2 2 2 2 2 2 2 2 2 2 2 2 2 2 2 2 2 2
left_child=1 -1 3 4 5 8 7 -7 -2 -8 -4 -12 13 -13 19 16 17 -14 20 -15 21 -3 -23 -24 25 -6 27 -27 -29 -22
right_child=2 18 10 -5 24 6 9 -9 -10 -11 11 12 15 14 -16 -17 -18 -19 -20 -21 29 22 23 -25 -26 26 -28 28 -30 -31
leaf_value=-0.0077507771641408462 0.083984338407976242 0.0069485634341700494 0.0019100984889099922 -0.001980905885675047 -0.0034798677146898344 0.071765549429431197 0.028402087320674736 -0.0048085932505960403 0.0077136242217617414 -0.0048910856789775477 0.0044847012932767898 -0.0016664746658653434 0.045786788536321212 0.097401829968048845 0.027269791466863959 0.0079580791205554283 0.059743148319610043 0.00088454155940092389 -0.002132287107203105 -0.004202074517122561 -0.0088952924397192965 0.066741345095338606 -0.011637202116475162 0.068846051034477315 -0.0066684783727215683 0.063867806261828072 -0.009259274052255238 0.057518419733932208 0.010964049756023371 0.023853315188337273
leaf_weight=688.14827975707681 5.4774627226288422 88.237402671667951 248.13665807483403 15.273646327434106 8.4380193401884735 6.5976270191313215 17.213181655533848 2.0989775973721407 2.2326060375198722 10.080046139424665 227.22568799397936 4.8144001740665798 5.4096734778125954 4.0839265887095761 12.329860684603544 118.54846028627503 5.429427101453256 12.585714397278592 661.43305157997781 0.62643560787591912 39.787857124158222 4.5855122233065213 3.9749506541596702 0.64725175371938792 10.212471268227089 5.3756971370312412 3.4800938702828708 3.674434502143419 12.41742508849711 5.7035755722317836
leaf_count=32464 62 10026 8489 201 119 74 309 34 28 78 6545 600 353 155 1135 6372 296 656 31028 48 744 386 389 21 87 35 30 23 115 42
internal_value=1.35444e-05 -0.00399146 0.00807369 0.0202198 0.024132 0.033694 0.026058 0.0537751 0.0644724 0.0161356 0.00610193 0.00874564 0.0145959 0.0352168 0.0455451 0.0112622 0.0272211 0.0156127 -0.000767489 0.0842589 0.00550561 0.0101914 0.0385864 0.00552799 0.0141407 0.0206173 0.0287993 0.0352154 0.0234866 -0.00445564
internal_weight=2234.28 1492.52 741.762 102.572 87.298 43.6999 35.9898 8.6966 7.71007 27.2932 639.19 391.054 163.828 21.8546 17.0402 141.973 23.4248 17.9954 804.37 4.71036 142.937 97.4451 9.20771 4.6222 43.5981 33.3857 24.9477 21.4676 16.0919 45.4914
internal_count=100944 75100 25844 1195 994 585 495 108 90 387 24649 16160 9615 1938 1338 7677 1305 1009 42636 203 11608 10822 796 410 409 322 203 173 138 786
is_linear=0
shrinkage=0.0330562


Tree=8
num_leaves=31
num_cat=0
split_feature=434 140 228 381 428 351 11 49 77 412 139 384 375 77 279 63 64 139 73 69 181 83 172 375 448 36 369 265 155 360
split_gain=63.7068 15.8982 15.3885 8.07114 7.23649 11.655 9.38485 7.02495 6.77954 6.601 6.41356 5.9962 6.84425 5.95118 7.38538 5.83226 6.17365 5.60049 5.59754 7.5264 5.43292 5.36708 5.49198 9.09437 5.25369 5.23708 5.39935 5.42341 7.22324 5.63678
threshold=63.961396861844641 0.12525277185501069 415.00000000000006 0.088613598154634668 0.72454000000000007 0.45804195804195807 2.1547619047619051 3.4637581347663748 0.94519519519519524 13.535822882244384 0.3164012834180745 -0.61139315446834519 0.16034233145258706 0.67117117117117131 -0.0016666666666666655 2.8660077615822495 8.3450292273345319 0.32840778157995459 1.0000000180025095e-35 21.500000000000004 54.250000000000007 -1.499287749287749 43.95000000000001 0.13875755104890655 -0.023669467787114842 0.75735294117647067 1.293168895569375 7.4866000000000019 42.45000000000001 0.025555118969657318
decision_type=2 2 2 2 2 2 2 2 2 2 2 2 2 2 2 2 2 2 2 2 2 2 2 2 2 2 2 2 2 2
left_child=1 24 4 9 15 -6 -7 10 -8 11 -4 13 -13 14 -3 16 -2 -9 19 -11 -12 22 -17 -24 -1 26 -23 29 -29 -28
right_child=2 3 7 -5 5 6 8 17 -10 18 20 12 -14 -15 -16 21 -18 -19 -20 -21 -22 25 23 -25 -26 -27 27 28 -30 -31
leaf_value=-0.0011199137291394645 0.0027712236167872538 0.0049995533193519593 -0.0037854201464320864 -0.0028093063520651584 0.0040720428790325929 0.07090339932469486 0.053352387030194473 0.066805098340638566 0.002557021009334907 -0.0017710034074462167 0.0086245340549144876 0.0043087424382202292 0.056179684000732186 0.014556014241398107 0.088307542985322229 0.0011283765432425355 0.04013002720239929 0.0079195975802231876 -0.0083367865939231647 0.073236917043960181 0.00080857869380360854 -0.011223746074782779 -0.0087528686334564128 0.093110462489652587 -0.010194768198217083 0.0052422772731923655 0.029862581560488041 0.0026288558610714921 0.05029169574269745 -0.0060445630170058405
leaf_weight=84.738927143542128 7.4311694569478304 2.0913363826659861 86.868494567781113 818.17543346667821 12.59954619509517 8.4260097442893329 4.3610866532835626 2.9802064770202596 7.3566447028133553 3.8168662367686457 290.52559267494291 87.332075883338689 2.2991758275716156 15.357037574586455 2.6175726197242311 2.75963307879283 15.09167446408537 4.1690655118889026 45.901285258813346 1.6616260111331937 147.67163363593033 5.0645348261168683 1.16949351967196 2.4471127879514825 422.52184601678618 113.37559775757836 8.0983905195607822 5.1089203769806799 12.058012425055493 9.963099596265236
leaf_count=5389 161 91 3950 38035 139 71 34 58 80 250 17540 10080 213 1661 197 34 251 107 604 14 1797 40 14 49 18566 1180 78 44 110 107
internal_value=1.53143e-05 -0.0039413 0.00788501 -0.0014745 0.0153393 0.0296677 0.0449261 0.00484878 0.0234234 0.00526866 0.00437465 0.00984151 0.00604196 0.0259747 0.0567104 0.0126616 0.0283491 0.0361864 -0.00442623 0.0253467 0.00600345 0.0103344 0.0389712 0.0627437 -0.00868897 0.00897669 0.0191667 0.0237503 0.0368744 0.0103029
internal_weight=2234.04 1486.51 747.526 979.252 215.311 32.7433 20.1437 532.215 11.7177 161.077 525.066 109.697 89.6313 20.0659 4.70891 182.568 22.5228 7.14927 51.3798 5.47849 438.197 160.045 6.37624 3.61661 507.261 153.669 40.293 35.2284 17.1669 18.0615
internal_count=100944 75100 25844 51145 2392 324 185 23452 114 13110 23287 12242 10293 1949 288 2068 412 165 868 264 19337 1656 97 63 23955 1559 379 339 154 185
is_linear=0
shrinkage=0.0330562


Tree=9
num_leaves=31
num_cat=0
split_feature=434 362 228 351 299 36 49 83 60 344 380 213 15 181 381 103 193 167 34 373 254 254 67 194 83 337 38 273 382 65
split_gain=61.4371 15.9547 14.5267 6.82618 7.89309 7.48149 6.57777 6.24315 8.90617 10.2204 7.0621 6.00051 5.96414 6.01692 5.88814 5.84492 7.93439 7.44631 7.30542 7.23577 5.52692 5.42123 5.40742 6.0071 6.45686 5.29115 5.19529 5.34568 5.20838 5.23689
threshold=63.961396861844641 0.13708737555147327 415.00000000000006 0.72077922077922085 0.75150907876358786 1.2928571428571431 3.4637581347663748 -0.34600925390399068 3.0863405551794183 0.066677179487179508 0.37606479283326605 0.098199935711989719 3.1180555555555558 54.250000000000007 0.088030634907612315 0.18861111111111115 0.27681093623890241 30.250000000000004 0.63333333333333341 5.1132566517024882 0.089385353095030526 0.028869932432432438 -0.95878322595067689 0.21058466565526901 -0.83263305322128833 0.30602006688963218 1.2182539682539684 2.6877736680261362 0.088248118671974143 59.45000000000001
decision_type=2 2 2 2 2 2 2 2 2 2 2 2 2 2 2 2 2 2 2 2 2 2 2 2 2 2 2 2 2 2
left_child=1 -1 3 7 5 11 12 8 10 -10 -2 -5 -4 22 15 17 -17 18 19 -3 -18 -8 23 -14 -25 -9 -26 28 29 -28
right_child=2 14 6 4 -6 -7 21 25 9 -11 -12 -13 13 -15 -16 16 20 -19 -20 -21 -22 -23 -24 24 26 -27 27 -29 -30 -31
leaf_value=-0.0076223667432235064 0.051819227855115349 0.085670225194627525 -0.0027711085838727752 0.0056366328591636178 0.060900859871435016 0.054047299100700691 0.058626607159821341 0.0052390904425096748 0.0072383264587214773 0.07433654450707862 -0.0035712055481556706 0.030781828083630666 -0.01209447059864327 0.00062123972238923642 -0.002061082697645265 0 0.07713434968293531 0.0013167388749705572 0.00089674094291197022 0 -0.0072406422626489306 0.0021817221393199341 0.0071057784826795752 -0.0075362747610040462 0.057825581874926035 0.054910002594597614 0 -0.0015143880469249823 -0.010032273830679934 0.056837502944419499
leaf_weight=678.08990074900885 12.378841180761809 2.870850365407021 104.04324737309867 28.981374866736587 5.5738133185368488 5.815015898901037 3.9042079649042298 103.46833430460538 39.160784139618045 2.0902883287635623 2.8809257749235249 16.289850239787484 4.63564416501083 147.98736043417716 658.14903101356413 4.7817163947260024 3.3420584981590764 126.35773941778382 4.6372181595520487 1.4715714233999504 0.86305170599950987 3.4841063114857889 240.98760532874212 4.7064910194394569 6.662193756313175 1.8305477261892509 2.3692984157039536 6.3662805941885372 1.9885224830145478 7.6268020279873099
leaf_count=32464 143 53 3577 267 44 69 65 1119 537 14 42 144 348 1854 31028 273 101 10787 253 118 23 100 16106 314 292 13 40 240 138 378
internal_value=1.71116e-05 -0.00389119 0.00770109 0.0148814 0.0247944 0.0201276 0.00474762 0.0113097 0.0201565 0.0117359 0.0413944 0.0150458 0.00428378 0.00602762 -0.000730539 0.00529571 0.0303063 0.00348272 0.0316045 0.0595982 0.0603209 0.0346117 0.00891271 0.0211469 0.0265865 0.00644114 0.0331735 0.0224945 0.0350007 0.0443591
internal_weight=2233.79 1480.56 753.232 218.47 56.6601 51.0862 534.762 161.81 56.5108 41.2511 15.2598 45.2712 527.373 423.33 802.473 144.324 8.98683 135.337 8.97964 4.34242 4.20511 7.38831 275.343 34.3552 29.7196 105.299 25.0131 18.3509 11.9846 9.9961
internal_count=100944 75100 25844 2392 524 480 23452 1868 736 551 185 411 23287 19710 42636 11608 397 11211 424 171 124 165 17856 1750 1402 1132 1088 796 556 418
is_linear=0
shrinkage=0.0330562


Tree=10
num_leaves=31
num_cat=0
split_feature=434 362 228 217 63 415 169 268 193 260 150 412 394 446 16 441 441 370 157 40 217 337 202 2 205 381 259 278 139 67
split_gain=59.2704 15.6338 13.7867 7.3648 6.13206 6.4355 8.9474 6.88436 7.30871 5.93702 5.75831 7.83446 7.65753 8.42132 7.09754 5.94281 5.91235 5.87248 5.7055 6.91791 12.1504 6.67328 7.33107 6.56871 6.43928 10.1688 8.2958 5.87674 5.59259 5.45882
threshold=63.961396861844641 0.13708737555147327 345.00000000000006 68.208556149732644 3.3918497374637142 0.013512687302122394 16.950000000000003 0.10000000000000001 0.23227076454152912 1.0404606899944189 24.011680382223592 4.9637655501195654 0.82841647058823542 -0.14142857142857138 0.21511904761904765 0.076923076923076913 0.24886840757808501 5.3938863822280299 0.35000000000000003 0.43650793650793657 73.046398046398068 0.23904761904761906 0.46965614709301923 0.89409722222222243 5.5000000000000009 0.11501597408312124 1.3094660573785377 0.05577777777777778 0.32757641922242881 -0.96359376111369355
decision_type=2 2 2 2 2 2 2 2 2 2 2 2 2 2 2 2 2 2 2 2 2 2 2 2 2 2 2 2 2 2
left_child=1 -1 3 4 5 6 -2 -8 -9 28 11 12 13 15 -15 -11 -13 -18 21 24 -21 -3 23 -23 -20 26 -26 -25 -4 -12
right_child=2 18 9 -5 -6 -7 7 8 -10 10 29 16 -14 14 -16 -17 17 -19 19 20 -22 22 -24 27 25 -27 -28 -29 -30 -31
leaf_value=-0.0075551477970375739 0.062857733073912694 0.0007433022085631619 -0.0076530844980488514 -0.0022663846544606729 0.012944038519248103 0.0060968651941739425 0.013277702935511945 0.0019158242446385494 0.07015790578821833 0.0061271573880297518 0.016714907529179552 -0.0033066578001105262 0.014964565367054346 0.11132358129790096 0.0075659657284496574 0.073676077954731439 0.052898946640684154 0.001233807944008075 -0.0063950740549757086 0 0.097745931892068913 -0.0091326621980536184 0.00036777492109771114 0.10095900710953218 0.015511332316313431 -0.012012041491286977 0.083838088989283188 0.025233212706715972 0.0047333781647214655 0.0047822701782247144
leaf_weight=672.940902426609 10.227681784977902 488.30322172180604 59.933396461610982 15.59386178315617 45.399532477953471 10.032883350242626 18.483272860903529 2.5986469299532455 5.432462858967483 5.6669985298054826 47.290646854997362 23.2122219754649 17.898176718455034 2.7815233688915009 1.1306367104887156 1.4356288768508418 4.2833386494517054 5.0860150427323561 273.83862037721258 4.6489562444437516 1.3769082603320155 1.5320786216052491 7.9378337396638017 2.0578680157850613 7.8010470944573189 8.8299683005898242 2.2785934838466346 3.2022345481327648 115.69708336366682 366.6222242864477
leaf_count=32464 113 29730 2032 201 409 141 239 42 50 432 1413 755 2047 120 44 101 85 142 12049 251 50 36 211 59 84 82 20 64 3499 13979
internal_value=1.88783e-05 -0.00384182 0.00752405 0.018463 0.0220007 0.0304413 0.0367888 0.025438 0.0501533 0.00569253 0.00760966 0.0170469 0.0294286 0.0506448 0.087105 0.0249002 0.00561926 0.0269674 -0.000717522 -0.0043341 0.0290284 0.00142598 0.022912 0.0466144 -0.00509074 0.0132313 0.0351171 0.0627415 0.000474527 0.00617638
internal_weight=2233.55 1474.75 758.806 107.768 92.1745 46.7749 36.7421 26.5144 8.03111 651.038 475.407 61.4945 28.913 11.0148 3.91216 7.10263 32.5816 9.36935 801.807 298.774 6.02586 503.033 14.73 6.79218 292.748 18.9096 10.0796 5.2601 175.63 413.913
internal_count=100944 75100 25844 1195 994 585 444 331 92 24649 19118 3726 2744 697 164 533 982 227 42636 12536 301 30100 370 159 12235 186 104 123 5531 15392
is_linear=0
shrinkage=0.0330562


Tree=11
num_leaves=31
num_cat=0
split_feature=434 362 228 49 428 351 11 139 39 381 412 133 252 12 176 348 22 197 63 205 197 227 181 384 67 56 200 255 446 365
split_gain=57.1781 15.324 13.1719 6.11731 6.09978 9.62404 7.20342 5.9233 5.89794 5.6248 5.58934 6.79256 6.33336 8.97429 5.13044 6.38005 8.88422 5.17928 5.06602 5.03067 6.33284 4.96984 4.90468 4.94552 6.29275 5.67825 5.44459 6.87668 8.11493 6.5281
threshold=63.961396861844641 0.13708737555147327 415.00000000000006 3.4637581347663748 0.72454000000000007 0.45804195804195807 2.1547619047619051 0.3164012834180745 1.8944444444444446 0.088030634907612315 13.535822882244384 38.457372134758138 1.3240500000000004 1.5590277777777779 -1.7499999999999998 0.12599206349206352 0.051315789473684217 0.018278761554738839 2.7718732306532057 5.5000000000000009 0.038852104703420362 132.50000000000003 54.250000000000007 0.36310150515642908 -0.96359376111369355 0.11164720713395583 0.028422554933218443 1.4391906886263548 -0.039999999999999987 14.460000000000003
decision_type=2 2 2 2 2 2 2 2 2 2 2 2 2 2 2 2 2 2 2 2 2 2 2 2 2 2 2 2 2 2
left_child=1 -1 4 7 14 -6 -7 -4 -8 10 11 -3 -13 -14 15 16 -2 -16 -19 -12 -21 -5 23 24 25 -9 -26 -28 -29 -30
right_child=2 9 3 21 5 6 8 22 -10 -11 19 12 13 -15 17 -17 -18 18 -20 20 -22 -23 -24 -25 26 -27 27 28 29 -31
leaf_value=-0.0074880149890654045 0.063566626782751601 0.006482780519338119 -0.0037704605647200843 0.051077191968131125 0.0035735855191753626 0.061038106742829584 0.046121481941072552 0.016253518103677235 0.0007880674314571719 -0.0020110371567151589 -0.0088016552244555412 -0.010668117786776281 0.08227216094518551 0.010469548891201136 -0.0067221829013047142 0.0089652676609868129 0.00018435934878513233 0.03392773773740046 0.0097783013111362969 -0.0087132496678706175 0.054267570703092807 -0.0016248639854889967 0.00069490094994249254 0.00085684329369805333 0.0024049361645836847 0.053095514570433738 0.0090051046944183543 0.017677969641314989 0.002924932042300829 0.088055709881064051
leaf_weight=667.87588945956827 7.3229417431866768 90.044435416677288 86.765017770318423 4.8988336566544604 12.928620981925631 9.575253539253028 5.1854687536542752 20.407576978181513 7.2616182827041484 655.86029643814823 39.291177794604437 2.2505287458521916 3.6313501739377898 4.0611577993798846 18.468935460638022 12.688365954556501 3.6472359584004153 9.919040810200384 137.17625016972306 3.1597457746975115 2.7727061912883073 2.7793247303926583 148.65671150869559 77.778190637722332 89.269068713905654 5.9445198322798651 81.715726845387621 17.070000051428909 1.4866391723072627 3.3483068892254551
leaf_count=32464 63 10026 3950 31 139 71 32 976 82 31028 744 217 176 403 237 95 46 244 1383 24 18 134 1797 4510 5017 239 5550 1108 24 116
internal_value=2.11849e-05 -0.00379219 0.00735231 0.00453791 0.0140872 0.0268058 0.0398315 0.00408696 0.0211958 -0.000703112 0.00516365 0.00951892 0.0347492 0.0482817 0.0116422 0.0259947 0.0439017 0.00948358 0.0115616 -0.00438574 0.0224417 0.0328244 0.00562771 0.00807813 0.0106143 0.0256896 0.0084633 0.0136044 0.0299083 0.0657393
internal_weight=2233.24 1468.95 764.294 540.12 224.174 34.951 22.0223 532.442 12.4471 801.071 145.211 99.9875 9.94304 7.69251 189.223 23.6585 10.9702 165.564 147.095 45.2236 5.93245 7.67816 445.677 297.02 219.242 26.3521 192.89 103.621 21.9049 4.83495
internal_count=100944 75100 25844 23452 2392 324 185 23287 114 42636 11608 10822 796 579 2068 204 109 1864 1627 786 42 165 19337 17540 13030 1215 11815 6798 1248 140
is_linear=0
shrinkage=0.0330562


Tree=12
num_leaves=31
num_cat=0
split_feature=434 362 228 351 214 224 259 49 139 82 226 67 279 347 86 180 337 224 197 369 63 279 424 362 397 161 132 60 387 258
split_gain=55.1797 15.0101 12.4353 5.75895 6.59143 7.92467 6.34849 5.71015 5.70431 5.6566 5.5742 7.36063 8.18894 7.56659 7.07301 6.42939 6.02141 7.31118 5.69726 5.63756 5.4042 5.33293 4.9818 5.60285 5.21554 5.06808 5.11971 5.00278 4.97965 4.9193
threshold=63.961396861844641 0.13708737555147327 415.00000000000006 0.72077922077922085 0.71535181236673784 0.75023992322456823 1.5725850639415679 3.4637581347663748 0.3164012834180745 0.34758596523302415 -254.99999999999997 -0.92384435400961384 0.00099999999999999287 0.63068181818181823 25.500000000000004 26.750000000000004 0.23904761904761906 0.76340617012212453 0.026711894352957167 -0.082078325616193645 2.6019553816910497 0.051346491228070161 1.8733994956021498 0.26775638819293118 0.12218402777777779 21.650000000000002 13.983129770992369 6.0924391127898572 1.7935204272805716 19.309950956267929
decision_type=2 2 2 2 2 2 2 2 2 2 2 2 2 2 2 2 2 2 2 2 2 2 2 2 2 2 2 2 2 2
left_child=1 -1 3 9 5 21 -6 8 -4 20 11 12 14 -13 -3 28 -12 19 -17 -18 -2 -5 24 25 -10 26 27 -24 -15 -27
right_child=2 10 7 4 6 -7 -8 -9 22 -11 16 13 -14 15 -16 18 17 -19 -20 -21 -22 -23 23 -25 -26 29 -28 -29 -30 -31
leaf_value=-0.0074209772539450018 0.045446268176053163 0 -0.0037230214452627954 0.0012693147233979272 0.043965275862353388 0.050376524582393944 -0.0069276359052744515 0.031368023127104461 -0.0085396169930640666 -0.0063628133155800171 -0.0020531926196276904 0.057748024081637192 0.0014948759767685086 -0.0074331932930673233 0.093286444983508215 0.06387268478071112 0.028536223446571789 0.06834746640147342 0.0028516396149830393 -0.0032640696659112381 0.011278333680234797 0.035654653856408779 0.064139291216136401 0.031722377152537486 0.0045486461541331792 0.028822949591663712 0.0061055658949914363 -0.0017671682865401056 0.033501077756063931 0.0047488607941099572
leaf_weight=662.89350370513807 4.8151182804140253 1.2433397086861071 86.438489705598386 28.123923794279108 18.633098666352456 5.0173038737266316 2.8004910674644625 7.9303650771587391 37.983711690479936 18.823997370927827 715.90805764857146 2.1293074426357625 3.9074213599378709 37.773399789555697 2.7034854516969062 2.4954088348022188 8.7715691305315939 1.8625285362068087 4.0576106560474727 16.663248755499808 143.56284635706106 5.4584310466889283 4.5346826592672169 11.548232426268099 236.48192885891103 9.472305168171486 6.5958930026358757 1.4875264848910772 2.9371752209262914 139.97216834243136
leaf_count=32464 146 29 3950 257 165 35 37 165 1090 251 41327 25 56 405 36 35 171 44 100 388 1471 30 159 1703 6698 331 268 100 20 8988
internal_value=2.27624e-05 -0.00374389 0.00718609 0.0136773 0.0225017 0.0138371 0.0371449 0.00444819 0.00400753 0.0104188 -0.000690973 0.00918571 0.037766 0.00417245 0.0679706 0.000993638 -0.00146334 0.0135903 0.0299835 0.0079674 0.0125889 0.00748845 0.00550982 0.00989155 0.00270967 0.00820314 0.0279504 0.0486252 -0.00395148 0.0064073
internal_weight=2233.03 1463.35 769.681 227.235 60.0332 38.5997 21.4336 542.445 534.515 167.202 800.453 57.2471 7.85425 49.3929 3.94683 47.2636 743.205 27.2973 6.55302 25.4348 148.378 33.5824 448.076 173.611 274.466 162.063 12.6181 6.02221 40.7106 149.444
internal_count=100944 75100 25844 2392 524 322 202 23452 23287 1868 42636 706 121 585 65 560 41930 603 135 559 1617 287 19337 11549 7788 9846 527 259 425 9319
is_linear=0
shrinkage=0.0330562


Tree=13
num_leaves=31
num_cat=0
split_feature=434 140 228 381 412 133 252 12 421 351 200 369 50 273 15 181 133 196 417 167 239 287 407 130 126 83 84 420 283 53
split_gain=53.2223 14.8033 11.7433 7.2598 5.9958 5.76249 5.75279 7.40749 5.61485 6.41534 8.16254 8.7517 6.33687 6.0948 5.57045 5.61647 6.69539 8.38316 6.41941 6.81102 9.04153 7.27415 6.71047 6.21526 5.7727 6.79463 7.32138 8.37537 8.03397 5.78946
threshold=63.961396861844641 0.12525277185501069 415.00000000000006 0.088613598154634668 13.535822882244384 38.457372134758138 1.3240500000000004 1.5590277777777779 0.361427 0.55050505050505061 0.045258179245107354 3.1359281289518823 6.1330000000000009 2.5589619143020967 3.1180555555555558 54.050000000000004 37.984168865435358 0.27021578029642551 0.016656145862957449 44.050000000000004 0.10000000000000007 -13.693343846507654 2.5093333333333341 44.385352976941093 0.43164361603930734 -0.83263305322128833 0.12010230179028135 0.093857230603448291 0.11200000000000004 1.7156727108170529
decision_type=2 2 2 2 2 2 2 2 2 2 2 2 2 2 2 2 2 2 2 2 2 2 2 2 2 2 2 2 2 2
left_child=1 -1 8 4 5 -3 -7 -8 12 -10 13 -12 -2 -11 -4 16 17 18 19 -16 24 -22 23 -23 25 -21 27 28 -27 -29
right_child=2 3 14 -5 -6 6 7 -9 9 10 11 -13 -14 -15 15 -17 -18 -19 -20 20 21 22 -24 -25 -26 26 -28 29 -30 -31
leaf_value=-0.008387124119077348 -0.002751823601446891 0.0067187154919771197 -0.0024144678159292231 -0.0026138467057357619 -0.0043089637866826815 -0.010790900626695497 0.073278377494348929 0.009855138757221096 0.010423409515255673 0.027430530631108226 -0.0050691525786898646 0.058350455995908976 0.033313557852146861 0.0067836488231609792 0.010145393422105582 0.0011079617019956788 -0.00042374214356569163 0.0031727969796535335 0.00163343881651151 -0.0071902378736680289 0.0018124519316516515 0.017325774506526618 -0.0089412954246235344 0.078108507179103281 -0.0024388752100367593 0.00678864890548974 0.00022414053775352403 0.077952816242950279 0.067195468658240096 0.014580895592327597
leaf_weight=488.1658105634998 36.955025559174828 101.52192762272102 105.81772222162317 806.57970941402903 50.876307619242766 2.3136606858486166 4.0553174885517347 4.1884552292350463 109.61121382954298 33.174934682087041 2.7428964104910838 11.107619166577932 5.5919991786067831 31.095550986618036 44.363856928944188 163.17255999417466 64.181900788140979 79.968042909994438 25.251484808358668 5.4870728347759714 3.2373734462981956 2.9501760677902658 1.2384225354277294 9.4148924353717103 10.09654491299227 10.727686809270045 6.5879332027967612 7.0761402561741971 2.6400409041585808 2.5737196585459969
leaf_count=23955 332 11372 3605 38035 868 243 208 419 1246 377 33 104 34 266 3192 2028 3503 4672 1792 474 372 302 32 808 940 564 389 485 109 185
internal_value=2.46802e-05 -0.00369484 0.00702226 -0.00132485 0.00501958 0.0092864 0.0319747 0.044302 0.0132806 0.0157349 0.0230061 0.0458516 0.0023002 0.0176508 0.00435866 0.00600064 0.00887371 0.0117038 0.0168211 0.0203629 0.0274467 0.0480333 0.0582413 0.0653493 0.01917 0.0254246 0.0316111 0.0402095 0.021338 0.0632355
internal_weight=2232.77 1457.7 775.065 969.535 162.956 112.079 10.5574 8.24377 230.279 187.732 78.121 13.8505 42.547 64.2705 544.786 438.968 275.795 211.613 131.645 106.394 62.03 16.8409 13.6035 12.3651 45.1891 35.0926 29.6055 23.0176 13.3677 9.64986
internal_count=100944 75100 25844 51145 13110 12242 870 627 2392 2026 780 137 366 643 23452 19847 17819 14316 9644 7852 4660 1514 1142 1110 3146 2206 1732 1343 673 670
is_linear=0
shrinkage=0.0330562


Tree=14
num_leaves=31
num_cat=0
split_feature=315 375 375 5 417 129 144 434 423 128 336 348 116 179 406 138 198 328 429 399 152 373 174 362 323 248 64 24 184 79
split_gain=51.4195 16.7416 11.1579 8.72202 8.87386 7.82258 8.00084 7.44551 7.2851 7.02201 7.9196 9.27503 6.98835 10.4283 6.41421 7.84977 6.38307 6.32602 6.17393 6.12349 5.93408 9.92163 8.72302 13.3602 10.3631 6.73761 5.84499 5.7046 5.72839 7.08239
threshold=0.13891568589619915 0.11944266601081184 0.14749808482599799 0.84807692307692317 0.022943376292728673 10.945852653612784 8.1879365079365094 85.307063699159428 0.37900400000000006 0.38194758753969288 0.66324675324675331 2.1005050505050513 0.069047619047619066 68.350000000000009 1.7819062250981237 0.43868709229359998 0.034806455402508159 0.17368693134822169 0.15049370714779384 1.2966742252456542 0.41111141156099534 7.9006154722993331 -0.74999999999999989 0.22569563899634651 -0.38889444444444438 -0.39852669849304284 8.8472665142578482 0.055867665418227221 10.806506309134235 0.25680415263748607
decision_type=2 2 2 2 2 2 2 2 2 2 2 2 2 2 2 2 2 2 2 2 2 2 2 2 2 2 2 2 2 2
left_child=1 -1 12 4 5 18 -7 -3 -9 -5 11 27 13 -2 -14 16 19 -12 -4 -16 -8 -22 -23 -24 -25 -26 -10 28 -11 -30
right_child=2 7 3 9 -6 6 20 8 26 10 17 -13 14 -15 15 -17 -18 -19 -20 -21 21 22 23 24 25 -27 -28 -29 29 -31
leaf_value=-0.0076714140349662891 0.010404307664675816 -0.0014088415068082292 0.050720735374130993 -0.0020844903355718043 -0.0091139500999903519 -0.001342147667775251 0.008201542105598222 0.0008158516142448268 0.009803985397987016 -0.00065243306185077852 0.0027028165966439498 0.05169786185106847 0.00058673207893253528 0.069199533344933659 0.092035814633767032 -0.0017471290156098221 0.007546301737985768 0.050150446150736501 -0.010523808153300999 0.0058463418896510773 0.0071311830041261978 -0.0016810167211487631 0.095661425487790899 -0.001105616053266743 -0.00084844430670035246 0.056789086707508096 0.043056039126865953 0.013231947599502497 -0.0022431572732217915 0.057188939484020054
leaf_weight=641.00604860734234 33.590042304422241 739.51021868014652 13.373570898867909 63.138764836039627 11.05450040422147 19.154785384715069 22.877660948171979 35.016185340197126 14.481796214101111 89.992942522832891 4.9031998642021781 4.7633895692997603 352.51729330670787 3.1501427447365122 2.9053815606457629 7.7089350957830902 3.5767393437563442 8.8374258607509528 1.7451261245587364 1.4525378023099618 15.7503487712529 4.5425408346345604 4.6745791114517585 6.3446479967387885 2.4648603705863943 13.468608820723599 10.050335875924018 92.751000797259621 4.1013440910319323 3.7563194917456713
leaf_count=33320 495 51515 181 661 146 295 214 3634 1139 1120 47 59 5329 38 66 108 59 62 41 27 124 64 55 70 22 145 574 1161 118 55
internal_value=2.54512e-05 -0.00369427 0.00678602 0.0107939 0.0184171 0.0214019 0.0173921 -0.00049596 0.0106825 0.00751473 0.010428 0.00863226 0.00292933 0.0165673 0.00153398 0.0218521 0.0437198 0.0342873 0.0432914 0.0681983 0.0225286 0.0292021 0.0397895 0.0467944 0.0341552 0.0479465 0.0242688 0.00737917 0.00174832 0.0277742
internal_weight=2232.66 1440.06 792.597 387.696 115.451 104.397 89.278 799.059 59.5483 272.244 209.106 195.365 404.901 36.7402 368.161 15.6436 7.93466 13.7406 15.1187 4.35792 70.1232 47.2456 31.4952 26.9527 22.2781 15.9335 24.5321 190.602 97.8506 7.85766
internal_count=100944 90182 10762 4640 1357 1211 989 56862 5347 3283 2622 2513 6122 533 5589 260 152 109 222 93 694 480 356 292 237 167 1713 2454 1293 173
is_linear=0
shrinkage=0.0330562


Tree=15
num_leaves=31
num_cat=0
split_feature=434 140 228 217 41 105 44 50 269 311 422 448 128 260 67 253 369 255 105 48 385 150 258 412 133 336 15 416 415 281
split_gain=49.8922 14.3217 10.685 6.33377 6.31691 5.61772 6.73083 9.6361 7.90316 8.56986 5.74022 5.42803 5.30843 5.22242 5.20672 7.42355 9.24368 9.87992 7.65788 6.22974 5.34598 5.18958 6.93249 7.71876 5.59679 5.14745 6.18929 6.64931 5.95093 6.18139
threshold=63.961396861844641 0.12525277185501069 345.00000000000006 68.208556149732644 0.07417582417582419 124.50000000000001 7.9243344000610518 4.8495000000000008 0.73863636363636365 1.0000000180025095e-35 2.1287450273296096 -0.023669467787114842 0.3667756430904297 1.0404606899944189 -0.92384435400961384 -0.043431875811738511 -1.9329548789435076 1.1452803192247398 141.50000000000003 0.070022138280549748 0.16923493566255135 24.011680382223592 29.207742557593189 -10.787570486831749 34.077940320754017 0.13589743589743594 3.2361111111111116 -0.047051643052923593 0.032430195882541625 0.070075268817204314
decision_type=2 2 2 2 2 2 2 2 2 2 2 2 2 2 2 2 2 2 2 2 2 2 2 2 2 2 2 2 2 2
left_child=1 11 3 4 -2 -3 14 10 -9 -10 -8 -1 -12 -4 15 18 17 -17 -7 -19 -16 22 23 24 -15 26 -23 -28 29 -29
right_child=2 5 13 -5 -6 6 7 8 9 -11 12 -13 -14 21 20 16 -18 19 -20 -21 -22 25 -24 -25 -26 -27 27 28 -30 -31
leaf_value=-0.00041152218763824646 -0.0062837659288088894 -0.0028705971521087109 0.00024312331942546525 -0.0028438566150081205 0.021756944350507415 0.078622673387222897 -0.0068190230967892776 -0.0069788745221727178 -0.0017615335439078617 0.12729384526797344 -0.01171888062769132 -0.0098458185711512054 0.037543065639195308 0.017452253202719398 0.0054656085564614675 -0.0063599945264593933 -0.00098173585831061927 -0.0064593721251523543 -0.0089387180442516943 0.085835774105453247 -0.0054858939603304041 -0.0018754221314075082 0.0051928924294516602 0.015990938242562151 0.077276388582038003 -0.00017713958148773794 0.038036123059635947 0.0064097883674258107 0.026131447072039522 0.041978116873593846
leaf_weight=80.961608349395533 9.2424955066817329 692.84390801044106 178.07847572693095 16.282786667667096 90.506156401796034 2.6804847427119958 10.99725040479098 0.96038540254812632 0.66320389215252373 1.5807714150287211 2.7458633048809125 400.04692757796022 8.8837965996644908 3.5386182178110657 78.840096236643149 2.9312347846280309 33.379972364200512 0.81367272092029441 1.3663153060770126 3.3619862076884601 124.86493218690157 57.479511062093707 34.277895956475618 21.996994303436168 4.424986705104061 122.19555784451177 8.5096226530595214 213.18067563881323 19.905335275639118 4.9495008142366705
leaf_count=5389 112 43143 5531 201 882 43 307 41 104 20 58 18566 224 40 2695 105 788 31 50 65 3471 2052 2153 1498 35 2937 204 9387 747 65
internal_value=2.67047e-05 -0.00360897 0.00673857 0.0159918 0.019101 -0.00128396 0.00271147 0.0185794 0.0675882 0.0955291 0.00992551 -0.00826782 0.0256135 0.00511437 0.00100523 0.0111728 0.00642869 0.0390807 0.0509358 0.0685389 -0.00122614 0.00687328 0.0156307 0.0271203 0.0541837 0.00552495 0.00782443 0.0100995 0.00899306 0.00734563
internal_weight=2232.49 1447.92 784.569 116.031 99.7487 966.914 274.07 25.8313 3.20436 2.24398 22.6269 481.009 11.6297 668.537 248.239 44.5337 40.4869 7.10689 4.0468 4.17566 203.705 490.459 64.2385 29.9606 7.9636 426.22 304.025 246.545 238.036 218.13
internal_count=100944 75100 25844 1195 994 51145 8002 754 165 124 589 23955 282 24649 7248 1082 989 201 93 96 6166 19118 3726 1573 75 15392 12455 10403 10199 9452
is_linear=0
shrinkage=0.0330562


Tree=16
num_leaves=31
num_cat=0
split_feature=228 375 375 5 417 385 278 148 195 269 346 180 434 128 116 179 423 368 345 362 217 128 264 165 348 67 348 325 225 216
split_gain=48.2911 16.1321 10.1324 8.06107 8.59659 8.65525 9.73649 8.64037 8.23254 8.62476 7.6695 7.57301 7.03295 7.01904 6.93294 11.8696 6.74876 6.68011 5.97209 5.89655 6.35139 5.82268 5.70787 5.64915 5.6235 5.59969 5.37523 5.32178 6.00809 5.22085
threshold=620.00000000000011 0.11944266601081184 0.14294978776099487 0.84807692307692317 0.022943376292728673 -0.98288683656728881 0.06870629370629372 90.708349563109678 0.22866479925303457 0.42222222222222233 0.70119047619047636 20.150000000000002 85.307063699159428 0.40622869452960991 0.069047619047619066 64.550000000000011 0.37900400000000006 2.0849830278333621 0.44097222222222227 0.30603595525219468 62.805605247465714 0.39299786115575591 76.500000000000028 35.150000000000013 1.2236111111111116 0.99140711019144634 -0.56487956487956492 1.2265395894428155 0.73103649458817854 57.301320429754782
decision_type=2 2 2 2 2 2 2 2 2 2 2 2 2 2 2 2 2 2 2 2 2 2 2 2 2 2 2 2 2 2
left_child=2 -2 14 4 5 6 8 19 26 -10 11 -5 -3 -12 15 23 -14 -9 -11 -7 -21 27 -17 -1 -15 -18 -4 -13 -29 -19
right_child=1 12 3 10 -6 7 -8 17 9 18 13 21 16 24 -16 22 25 29 -20 20 -22 -23 -24 -25 -26 -27 -28 28 -30 -31
leaf_value=-0.0015785292658350087 -0.0075518926881056169 -0.0013750667185850804 0.047205511352915688 -0.012696812503050183 -0.0097308230934070906 0.0065286886527834752 0.010799233575078421 0.0097863187509394656 0.00090335078415361132 0.0096525980749031827 0 -0.0035654112554190319 0.00075175599125380452 0 0.00058603238344747842 0.081696155119546435 0.017783571646210659 0.0077332305717262842 0.084071270351705044 0.059726452937772394 0.0043662284210691975 0.0096975752672960915 0.014471130478880085 0.038215533909535242 0.051769703551477815 0.075677356788846212 -0.0095087057078616245 0.065993369331658919 -0.0034536422157069083 0.077582647130695112
leaf_weight=20.142509353841895 632.35408486925019 737.84820643741818 2.5239443384343758 22.749961575784255 12.231442770018473 77.243898034095764 13.589271303877466 5.4459544448181969 2.2076917944650623 1.6560492524004065 7.3852706408069961 68.396957617223961 35.149152408863301 3.0795619217387857 304.69335034940741 3.3902565291500641 23.715536311644545 1.8408782434125894 9.2447367479035147 4.4802990971365926 4.5444585249642842 206.97381749987835 2.8122370121709537 4.1828395877382709 9.8997975641104841 1.5433769272844973 3.838738865946655 2.0567999174236311 2.4920414357329719 4.6711266880447511
leaf_count=327 33320 51515 34 258 180 844 149 84 22 27 75 759 3634 28 4705 31 1654 23 119 29 32 2613 35 48 137 59 106 33 16 48
internal_value=2.74908e-05 -0.00361024 0.00652066 0.00966994 0.016199 0.0186751 0.0333003 0.0135449 0.0480369 0.0626665 0.00673357 0.00536747 -0.000479973 0.0261349 0.00211746 0.0169825 0.0103006 0.039338 0.0741662 0.0096825 0.0342233 0.00687232 0.0556905 0.00587123 0.0402435 0.0231252 0.0145908 -0.00110872 0.0312608 0.0606497
internal_weight=2232.38 1430.61 801.774 466.553 143.518 131.287 33.0604 98.2266 19.4712 13.1085 323.034 302.67 798.256 20.3646 335.221 30.5278 60.4081 11.958 10.9008 86.2687 9.02476 279.92 6.20249 24.3253 12.9794 25.2589 6.36268 72.9458 4.54884 6.512
internal_count=100944 90182 10762 5616 1697 1517 457 1060 308 168 3919 3679 56862 240 5146 441 5347 155 146 905 61 3421 66 375 165 1713 140 808 49 71
is_linear=0
shrinkage=0.0330562


Tree=17
num_leaves=31
num_cat=0
split_feature=434 140 228 381 412 448 73 69 251 133 63 421 50 351 200 369 273 49 139 55 165 216 225 152 24 64 432 155 420 414
split_gain=46.7155 13.8671 9.76015 6.77693 5.62802 5.38308 5.34925 6.54708 5.03513 8.09732 5.99219 5.01295 5.6982 5.38066 6.84578 7.14914 5.39698 4.95809 5.13056 4.90327 5.02754 5.32245 4.66958 5.32892 5.03892 8.16615 9.78528 6.35301 4.59733 4.51785
threshold=63.961396861844641 0.12525277185501069 415.00000000000006 0.088613598154634668 13.535822882244384 -0.023669467787114842 1.0000000180025095e-35 21.500000000000004 0.095950000000000021 36.131810029413884 3.2828675611344686 0.361427 6.1330000000000009 0.55050505050505061 0.045258179245107354 3.1359281289518823 2.5589619143020967 3.4637581347663748 0.3164012834180745 96.886778613199667 27.650000000000002 68.758202099737545 0.70903906001313055 0.39981599312123822 0.05486978774650008 8.404078005471197 10.520600708685585 60.150000000000006 0.073637313126880974 0.10836092715231789
decision_type=2 2 2 2 2 2 2 2 2 2 2 2 2 2 2 2 2 2 2 2 2 2 2 2 2 2 2 2 2 2
left_child=1 5 11 4 8 29 7 -6 -3 28 -11 12 -2 22 16 -16 19 18 -4 20 -15 -22 -13 -24 27 -26 -27 -25 -10 -1
right_child=2 3 17 -5 6 -7 -8 -9 9 10 -12 13 -14 14 15 -17 -18 -19 -20 -21 21 -23 23 24 25 26 -28 -29 -30 -31
leaf_value=-0.0015701790615759864 -0.0030386284481411091 7.0254871311362181e-05 -0.0037276494665652114 -0.0024987414583395127 -0.0016101287694041946 -0.0097390596932307484 -0.0081690442622486953 0.066840847245522056 0.018410525518100622 0.0083684533667226727 0.052467792964770693 -0.0069092985309317451 0.030170968079689272 0.00020064034191809524 -0.0052023626111341453 0.051041775369170317 0.0058293791687625369 0.028284392455807456 0.0050102968051004681 -0.0081696990747062367 0.039615911463970963 -0.011291182575858951 -4.9990591655584986e-05 0.002302533157014783 0.0045519012735922527 0.051702593402396954 0.0039711951594700364 0.04660598368528051 -0.00051801127003036902 0.049123358925351725
leaf_weight=79.058479864601168 37.760165614250582 43.909378740706643 86.470236449866775 799.90344849688859 3.7689066087283427 393.64021872639262 44.955430224966676 1.8351283371448515 25.497517954089517 6.0127965371779046 8.7491645493695369 15.722865139367057 6.0094809657020951 5.6771947541274157 2.7825722674606359 12.375744503369786 32.455118725949433 8.5186174544503483 458.53693468034646 3.966485074692172 23.64040373716853 2.1003189646289675 27.571650658122962 30.977086511964444 13.453147620224625 15.52441076008836 7.0083574764430514 3.4421575636952175 29.465460060511077 1.370753419976835
leaf_count=5141 332 4237 3950 38035 250 18566 604 14 3135 1022 551 221 34 70 33 104 266 165 19337 30 242 35 296 355 131 157 66 20 3297 248
internal_value=2.9145e-05 -0.00352214 0.00646395 -0.00123978 0.00485853 -0.00814871 -0.00423398 0.0245012 0.00893654 0.014421 0.0357627 0.0120256 0.00178446 0.0142739 0.0207063 0.040683 0.0158743 0.00403099 0.00361479 0.0247381 0.0290799 0.0351639 0.00946337 0.0121532 0.016943 0.0255546 0.0374977 0.0075547 0.00830172 -0.000306371
internal_weight=2232.16 1438.17 793.993 964.097 164.194 474.069 50.5595 5.60403 113.634 69.7249 14.762 240.467 43.7696 196.698 82.9978 15.1583 67.8395 553.526 545.007 35.3844 31.4179 25.7407 113.7 97.9768 70.4052 35.9859 22.5328 34.4192 54.963 80.4292
internal_count=100944 75100 25844 51145 13110 23955 868 264 12242 8005 1573 2392 366 2026 780 137 643 23452 23287 377 347 277 1246 1025 729 354 223 375 6432 5389
is_linear=0
shrinkage=0.0330562


Tree=18
num_leaves=31
num_cat=0
split_feature=228 362 375 5 417 152 37 216 128 348 180 149 195 65 116 179 14 348 348 263 206 347 41 127 137 422 285 165 285 264
split_gain=45.3253 15.5636 9.18758 7.55969 8.04159 7.95749 9.22245 8.16162 7.12639 7.05935 7.18395 6.97861 6.77792 6.68691 6.60036 10.825 6.20296 6.13864 6.37291 11.1217 6.02365 5.88189 6.20502 5.42354 5.29828 5.27226 5.2691 5.23409 4.91345 4.81764
threshold=620.00000000000011 0.13708737555147327 0.14294978776099487 0.84807692307692317 0.022943376292728673 0.41111141156099534 0.89444444444444449 56.858791903858325 0.39299786115575591 1.4974747474747478 20.150000000000002 52.346158705817565 0.19104701925141346 62.550000000000004 0.069047619047619066 64.550000000000011 3.1000000000000005 1.0488095238095243 0.59999999999999998 2.1277844668785231 0.41522988505747133 1.0871212121212122 0.27922077922077926 0.1657453703703704 0.24079493920662826 3.3011313506723807 0.01295875420875421 35.150000000000013 0.063348694316436277 76.500000000000028
decision_type=2 2 2 2 2 2 2 2 2 2 2 2 2 2 2 2 2 2 2 2 2 2 2 2 2 2 2 2 2 2
left_child=2 -2 14 4 5 -4 12 -8 -5 10 -10 21 -7 -3 15 27 -15 18 19 20 -14 -9 -23 -11 -20 -18 -26 -1 -27 -17
right_child=1 13 3 8 -6 6 7 11 9 23 -12 -13 17 16 -16 29 25 -19 24 -21 -22 22 -24 -25 26 28 -28 -29 -30 -31
leaf_value=-0.0015768135376460534 -0.007409393360928323 -0.0043852267198460264 0.0040630056402030656 -0.001698630343204848 -0.0096960778256615938 -0.007479442182048433 0.0017269432185026115 0.017683974772404947 -0.013254996132239197 0.043426581234548303 0.009271077470852488 0.0003859324621965573 0.0069089397245418885 -0.0038166505057109176 0.00056152239077570569 0.075189713206625416 0.0030815401298462312 -0.0033622392692879981 0.0094419151020097361 0.057951353755886698 0.042775960238442469 0.095796344333003963 0.034314526577758152 0.0068289340000813733 0.079104320300119144 0.025249443219533041 0.01569857972157988 0.036121383008688619 -0.0091555696213950696 0.014098935468820795
leaf_weight=20.140111399989117 628.414937476511 294.8069633828236 35.124079614557559 86.545280785765499 12.165107010019709 10.124150891322641 4.4754639814200372 3.2373931650363366 16.0768585226906 10.716902157990264 206.36168106558034 2.4713434392178888 36.437700340989977 145.96176095969463 305.13410913967527 3.6734467743954147 325.56751754797267 9.4677280751056951 3.4593643171247077 6.3666548302862784 5.5236963145434848 5.9985494673601334 4.1326725634862669 8.1235173563181871 5.2591215857828502 21.314667828045348 2.5697273554687854 4.3733602498832616 5.2124238752563761 2.8538186876685359
leaf_count=327 32338 10315 344 940 180 198 41 38 188 107 2554 22 415 9880 4705 31 34155 119 40 63 73 47 35 130 54 3053 28 48 441 35
internal_value=2.9657e-05 -0.0035262 0.00626518 0.0092262 0.0154701 0.0178032 0.0225633 0.0423786 0.00639595 0.00931131 0.00759576 0.0531659 0.0171571 -0.000440628 0.00206498 0.0164411 0.00188948 0.0208523 0.0247527 0.0189763 0.0122485 0.062232 0.0743563 0.0285258 0.0469859 0.00426762 0.061305 0.00570426 0.0183038 0.0524033
internal_weight=2232.09 1421.28 810.812 474.637 146.813 134.648 99.5236 20.3154 327.824 241.279 222.439 15.84 79.2081 792.863 336.175 31.0407 498.056 69.084 59.6163 48.3281 41.9614 13.3686 10.1312 18.8404 11.2882 352.095 7.82885 24.5135 26.5271 6.52727
internal_count=100944 90182 10762 5616 1697 1517 1173 183 3919 2979 2742 142 990 57844 5146 441 47529 792 673 551 488 120 82 237 122 37649 82 375 3494 66
is_linear=0
shrinkage=0.0330562


Tree=19
num_leaves=31
num_cat=0
split_feature=375 140 434 381 330 351 242 169 415 448 423 18 387 132 405 273 205 353 67 423 22 65 346 424 405 78 326 218 354 21
split_gain=43.8657 12.3481 11.4189 5.9315 5.08536 6.91329 6.15135 6.14401 5.25474 4.91491 4.65984 7.90612 5.69299 4.88006 8.42159 6.35529 6.15452 4.65892 5.13364 4.58349 4.63781 4.88083 5.82303 4.56379 7.59873 9.82026 5.66962 6.03031 5.36712 5.79248
threshold=0.13875755104890655 0.12525277185501069 83.692582987551887 0.18799143549325609 -0.21201298701298696 0.75961538461538469 -0.39999999999999997 15.4 -0.010699842416313192 -0.023669467787114842 0.4428760000000001 0.1972916666666667 0.70447704017646984 5.9409586784219437 0.64070644718792868 1.4790573771078905 1.0000000180025095e-35 13.50798695967015 -0.94260559819261247 0.46908900000000009 0.054093567251461992 67.65000000000002 0.28679653679653694 5.6866749731103026 1.0558641975308645 1.4428104575163401 1.2419017763845352 0.28945907658765241 13.893602544394556 0.048809523809523817
decision_type=2 2 2 2 2 2 2 2 2 2 2 2 2 2 2 2 2 2 2 2 2 2 2 2 2 2 2 2 2 2
left_child=1 9 23 10 6 -6 7 -4 -7 -1 13 12 19 14 -3 -16 -17 -5 -19 20 21 -12 -23 -2 26 -26 -25 28 -28 -30
right_child=2 3 4 17 5 8 -8 -9 -10 -11 11 -13 -14 -15 15 16 -18 18 -20 -21 -22 22 -24 24 25 -27 27 -29 29 -31
leaf_value=-0.00046050060240115015 0.0021423391969827856 -0.0034858143434506267 -0.0058146089301499603 -0.0051478221640223953 0.0046910950934418438 0.038261832426050801 0.014181539337795718 0.04901802660919511 0.011574052611865403 -0.0095489928907425917 -0.006622015582413052 0.066876712369858357 0.032437761166637671 -0.00052245820028375318 -0.0072477664068840864 -0.0051801539094686235 0.099003594725277644 0.047010698177604213 0.0032768174531773464 -0.0055158408075658858 -0.0093926842133291999 0.062279622562605629 -0.0091637670786956921 -0.0013611010928111019 0.091093832679546419 -0.0097020738150170836 0.0071792856155791654 -6.8278142130856427e-05 0.059185983926854792 0.017328533213455292
leaf_weight=79.38534483557396 498.41915445774987 5.6346175366185189 2.4912459830416074 397.29211452344236 135.93690474719665 12.140314402430247 77.250895515834827 10.76951456305221 26.040855000514284 382.75754725098113 2.31974910823544 2.01997376289762 7.6179778235049289 441.77032957279118 1.0845632544925368 0.63749610582260663 2.2482663840427222 2.8299542877338153 22.981985844505289 27.021713547549439 3.9960493520152331 4.6623203998103691 1.3427228383449117 36.710413528629715 2.1540574118141644 1.4479837565788782 11.479513126422491 15.599285885736434 7.0279120768120711 8.8718812497093023
leaf_count=5357 19439 407 43 11941 3444 178 2197 275 581 18393 88 27 185 29511 83 69 87 80 592 442 145 194 59 2580 27 112 608 2774 480 546
internal_value=3.07431e-05 -0.003589 0.00595948 -0.00137481 0.0116509 0.00826109 0.0180356 0.0386506 0.0206109 -0.00799818 0.00105542 0.0106753 0.00737328 0 0.0226024 0.0560311 0.0780122 -0.00425468 0.00916188 0.00201777 0.0183101 0.0317497 0.046376 0.00335489 0.0105011 0.0540988 0.00809819 0.0161684 0.0253518 0.0375199
internal_weight=2231.94 1385.6 846.34 923.46 264.63 174.118 90.5117 13.2608 38.1812 462.143 500.356 48.9805 46.9605 451.375 9.60494 3.97033 2.88576 423.104 25.8119 39.3426 12.3208 8.32479 6.00504 581.71 83.291 3.60204 79.689 42.9786 27.3793 15.8998
internal_count=100944 67660 33284 43910 6718 4203 2515 318 759 23750 31297 1140 1113 30157 646 239 156 12613 672 928 486 341 253 26566 7127 139 6988 4408 1634 1026
is_linear=0
shrinkage=0.0330562


Tree=20
num_leaves=31
num_cat=0
split_feature=228 375 434 55 189 134 351 95 347 108 55 370 198 83 157 251 87 166 132 252 13 14 108 337 369 247 298 285 109 286
split_gain=42.6361 15.0862 8.46627 7.24875 7.30492 9.13064 7.2134 7.19174 9.28437 7.25618 7.04625 6.66945 6.58791 5.01746 6.92623 7.30381 5.20168 7.07031 5.43361 5.01488 4.88038 4.84991 4.79093 4.78241 9.66713 4.70898 7.54856 11.7207 7.46915 9.1814
threshold=620.00000000000011 0.11944266601081184 82.086611111111111 91.606340098498009 14.500000000000002 32.34693590503899 0.70294117647058829 0.84523809523809534 0.82085561497326209 0.15035000000000001 92.227063033959226 9.0674591820489123 0.036300635508196927 -0.33855799373040751 -1.8499999999999999 0.33883333333333338 0.61250000000000016 21.950000000000003 13.983129770992369 1.5182000000000002 1.7518696176555775 3.1000000000000005 0.16465000000000005 0.23669467787114848 -0.082078325616193645 0.35424836601307197 -0.018424563555122352 -0.037499999999999929 3.6688000000000005 64.18257549461994
decision_type=2 2 2 2 2 2 2 2 2 2 2 2 2 2 2 2 2 2 2 2 2 2 2 2 2 2 2 2 2 2
left_child=2 -2 3 4 7 -6 13 8 -1 -10 19 21 -7 14 -4 -16 17 18 -15 -8 -20 -3 -12 -23 -25 26 27 -5 -29 -30
right_child=1 11 6 25 5 12 10 -9 9 -11 22 -13 -14 16 15 -17 -18 -19 20 -21 -22 23 -24 24 -26 -27 -28 28 29 -31
leaf_value=-0.012082191311440317 -0.007325176592422186 -0.0060084417375853129 0.043424037803934966 -0.00239729072536094 0.0058359464902429528 0.081850456724462603 0.013443868630284459 -0.0023795490383361258 0.053345849825894728 0.013397468365966949 0.031547922177355789 0.0075312136628810393 0.013184480963833083 0.00073878288763325076 0.0050012148274024108 0.032808816051379475 -0.00013242924662509271 -0.01191973074003525 0.015687290723660149 0.056389695248566747 0.058635693794968448 -0.00042095844966905793 0.0080661920475685808 0.052607670526896667 -0.0021972746181427778 0.0015450081787683611 -0.0084110794542640518 -0.0092981349875585033 0.092584145654593011 0.0033392815039841694
leaf_weight=6.8975722294999313 616.56759945900581 194.4215234333609 7.6404658702376755 6.241231628722745 7.0577663518488389 4.431447570794262 5.4768991601886219 32.907255996076856 8.6289232567360177 12.700589616375508 12.77753467086586 99.691411752269573 2.7737809764803387 6.3908460066595643 51.576535362080904 12.562075781374004 93.246762947004754 6.5929058014007742 6.592601792624917 8.5486882731784117 6.1929304728400894 487.8843195239192 37.533707706286805 5.0634643791240714 8.8607497510811264 467.02812414430082 7.7200423606554969 1.3237354759185116 4.6493826968362555 1.8302960871660614
leaf_count=106 33320 9906 51 85 246 92 51 452 111 156 69 8753 74 45 526 123 855 44 45 47 35 37780 337 97 326 6960 132 17 75 28
internal_value=3.17118e-05 -0.00344603 0.00602977 0.00375363 0.0132629 0.0341773 0.0110286 0.00804193 0.0201138 0.0307348 0.0206003 -0.000433262 0.0589077 0.00772801 0.0146118 0.0107554 0.0034941 0.0164591 0.026463 0.0410987 0.0384461 -0.00158431 0.0144004 0.000127728 0.0188277 0.00226507 0.0171019 0.0311426 0.0566606 0.0702912
internal_weight=2231.81 1412.49 819.322 564.19 75.3973 14.263 255.132 61.1343 28.2271 21.3295 64.3368 795.921 7.20523 190.795 71.7791 64.1386 119.016 25.7693 19.1764 14.0256 12.7855 696.23 50.3112 501.809 13.9242 488.793 21.7647 14.0446 7.80341 6.47968
internal_count=100944 90182 10762 8534 1237 412 2228 825 373 267 504 56862 166 1724 700 649 1024 169 125 98 80 48109 406 38203 423 7297 337 205 120 103
is_linear=0
shrinkage=0.0330562


Tree=21
num_leaves=31
num_cat=0
split_feature=434 140 228 381 412 448 73 69 384 86 280 24 421 50 420 181 280 446 67 201 149 205 404 242 131 298 415 110 252 421
split_gain=41.3398 12.8568 8.13941 6.33219 5.30501 5.30346 5.09917 5.81177 4.76377 5.09727 5.91029 5.70901 4.55021 5.0932 4.54138 4.54082 4.86963 6.53893 4.62224 5.85233 7.61909 6.1578 7.40126 5.78071 5.65973 6.13205 6.19058 5.64754 5.16331 5.01883
threshold=63.961396861844641 0.12525277185501069 415.00000000000006 0.088613598154634668 13.535822882244384 -0.023669467787114842 1.0000000180025095e-35 21.500000000000004 -0.61139315446834519 24.500000000000004 0.048380355276907011 0.044610281923714766 0.361427 6.1330000000000009 0.069457345831458864 54.45000000000001 0.087867647058823536 -0.44222222222222218 -0.98897820466835384 -1.7784705892881416 24.35514300793908 3.5000000000000004 0.57592592592592606 -0.099999999999999881 90.973012679548972 -0.042499359959037357 0.0061958438703369765 0.47825000000000006 2.2117125000000004 0.39496100000000006
decision_type=2 2 2 2 2 2 2 2 2 2 2 2 2 2 2 2 2 2 2 2 2 2 2 2 2 2 2 2 2 2
left_child=1 5 12 4 8 -1 7 -6 -3 -10 -11 14 13 -2 -12 18 -17 -18 23 20 21 22 -20 28 -22 -26 -27 -21 -4 -29
right_child=2 3 15 -5 6 -7 -8 -9 9 10 11 -13 -14 -15 -16 16 17 -19 19 27 24 -23 -24 -25 25 26 -28 29 -30 -31
leaf_value=-7.8252186307291964e-05 -0.0032870039486713408 0.0222579930696616 0.047693630064142505 -0.0024092727788676991 -0.0016081625375002247 -0.0095196611987664534 -0.0081023775133274838 0.061546231230167107 -0.00063495697545141116 0.0062980634306736413 0.042416468260072976 0.06799451865273172 0.013036005165835701 0.027205165285608752 -0.010905866100128879 -0.0019086402484924598 0.05602608371932901 -0.0016345760396061348 0.0056123261557318336 0.0020719497485507258 -0.0012827419055283975 0.003448811753107408 0.059381376044714183 0.0053974486713219832 -0.0023865413544156343 0.049957243919432508 0.00046032233610333119 -0.0073147192308997385 -0.0095346610546151248 0.080561920334879397
leaf_weight=79.297838981119526 38.485848788666772 22.051767034858017 8.6121422022785072 794.78993052064732 3.7683268749132131 381.09666387338382 44.59011427201574 2.0002891942858696 59.153614654371268 24.728579861631033 2.5931615178199063 3.4114956573619111 204.99032062597689 6.4586504860199048 3.2771395300333097 166.27985409149528 3.2004241117974743 4.6103675125632426 4.3880764096975353 282.49865696545305 36.613408617675304 6.7939705327153197 8.8408009186387044 14.946017515862875 7.8000696972012546 8.1849426105618459 4.2595057114958754 0.88234802416991387 1.7784911466133042 1.2853246326267251
leaf_count=5389 332 1949 356 38035 250 18566 604 14 2982 6725 139 213 2026 34 234 1999 21 29 27 19738 219 39 44 730 52 48 32 15 74 29
internal_value=3.27656e-05 -0.00336423 0.00598702 -0.00118083 0.00468177 -0.00790349 -0.004186 0.0234432 0.00859035 0.00519581 0.0152771 0.0370094 0.0109508 0.00131495 0.0138335 0.0037598 -0.000654167 0.0238638 0.00575323 0.0047639 0.0128328 0.0301206 0.0428182 0.0192976 0.00643257 0.0201958 0.0340875 0.00254982 0.0375852 0.0496343
internal_weight=2231.67 1420.76 810.909 960.364 165.574 460.395 50.3587 5.76862 115.216 93.164 34.0104 9.2818 249.935 44.9445 5.8703 560.974 174.091 7.81079 386.884 361.547 76.8808 20.0228 13.2289 25.3367 56.8579 20.2445 12.4444 284.666 10.3906 2.16767
internal_count=100944 75100 25844 51145 13110 23955 868 264 12242 10293 7311 586 2392 366 373 23452 2049 50 21403 20243 461 110 71 1160 351 132 80 19782 430 44
is_linear=0
shrinkage=0.0330562


Tree=22
num_leaves=31
num_cat=0
split_feature=375 362 434 424 405 78 169 334 64 63 326 274 329 248 32 116 198 159 226 331 365 87 84 197 391 146 6 273 362 140
split_gain=40.1244 11.9346 10.0963 5.17397 6.40474 8.15717 5.26394 5.84759 5.50831 5.16772 5.11923 5.00965 5.84041 7.25802 8.86369 7.08027 7.27573 8.56246 7.0621 9.52436 5.02791 5.27192 6.02819 5.56943 4.85586 8.13547 6.51191 4.9277 4.84948 6.31497
threshold=0.13829578236604709 0.13708737555147327 83.692582987551887 5.6866749731103026 1.0558641975308645 1.4428104575163401 46.100000000000009 1.1005050505050507 8.2292816307316539 2.7837191791905442 1.2419017763845352 0.35095417722296218 1.0000000180025095e-35 0.32028944043937374 0.68990384615384626 0.27097902097902099 0.036595511545797661 22.250000000000004 -232.49999999999997 -0.030940170940170937 13.760000000000003 0.5634920634920636 -0.066421568627450966 0.050662077816018204 -0.19523809523809521 9.4493716729786286 0.83996703462282174 3.7723819073564218 0.22003744872584316 0.17095782073813712
decision_type=2 2 2 2 2 2 2 2 2 2 2 2 2 2 2 2 2 2 2 2 2 2 2 2 2 2 2 2 2 2
left_child=1 -1 3 6 10 -6 9 8 -8 -2 -5 20 -13 18 15 16 17 -15 19 -14 21 22 23 -3 25 -20 -27 -26 29 -12
right_child=2 11 -4 4 5 -7 7 -9 -10 -11 28 12 13 14 -16 -17 -18 -19 24 -21 -22 -23 -24 -25 27 26 -28 -29 -30 -31
leaf_value=-0.006932850066083171 0.011032236846118098 0.057299284570044962 0.010806314290453471 -0.00052849611207918452 0.080051258088835037 -0.0096958996149248827 0.035965019446223268 0.05954239169421361 -0.0058090471477621683 8.4528982673842391e-05 0.044612980711457327 -0.0010343278652976808 0.073824840997196176 0.092666423366839529 -0.013230591785587888 -0.0057650917977509182 -0.0033678378922986237 0.021231681158916379 0.0049171639616659713 -0.0040622525003120302 -0.0039340130048450186 -5.4924823079516013e-05 0.0051790240893733602 -0.0097855420512914116 -0.0050252157042293792 0.092573765639882788 0 0.027364625796296518 0.024815620567361193 -0.0053331358467351023
leaf_weight=615.09982847369417 52.144279569378114 5.5263694694705263 273.54563321143235 37.889471369658622 2.4689508484316316 1.4461048112730166 4.8247389266401823 2.7483201039942733 8.8219483919181112 448.3928229155855 2.7003168841068854 143.4880865183535 3.0507785031222738 4.7996242509331086 3.7935863000978989 2.523739588028092 1.8707718390784283 3.69225445779648 12.276909129917383 2.9722842178307465 428.23607742927277 49.528552906655818 12.328360515734287 1.4235081465536721 55.067443809666656 1.8691708415054784 1.2410258018653619 5.0430388414243899 26.38989759002402 16.34594992268876
leaf_count=31857 4412 256 6768 2636 27 114 140 38 310 15140 367 4992 21 150 72 87 110 127 399 26 22915 2706 613 48 2245 37 42 155 1857 2277
internal_value=3.36373e-05 -0.00353325 0.00553811 0.00313862 0.0105661 0.0492068 0.00186742 0.0199772 0.00959571 0.00124398 0.00837074 -0.000694417 0.00319774 0.00938681 0.0289147 0.0416248 0.0531798 0.0654361 0.00516631 0.0379446 -0.00259578 0.00564344 0.0200263 0.043395 0.00222697 0.0184468 0.0614928 -0.0020063 0.0157806 0.00270533
internal_weight=2231.55 1353.83 877.718 604.173 87.2407 3.91506 516.932 16.395 13.6467 500.537 83.3256 738.732 241.689 98.2006 16.68 12.8864 10.3627 8.49188 81.5207 6.02306 497.043 68.8068 19.2782 6.94988 75.4976 15.3871 3.1102 60.1105 45.4362 19.0463
internal_count=100944 66858 34086 27318 7278 141 20040 488 450 19552 7137 35001 8463 3471 546 474 387 277 2925 47 26538 3623 917 304 2878 478 79 2400 4501 2644
is_linear=0
shrinkage=0.0330562


Tree=23
num_leaves=31
num_cat=0
split_feature=228 375 375 376 197 387 210 374 370 285 116 179 37 362 406 138 418 423 65 272 279 447 286 272 36 80 149 270 275 178
split_gain=39.0016 14.3063 7.53497 6.54593 8.08869 7.0254 7.29317 6.63463 6.26618 6.15025 5.93714 7.60645 6.54479 6.35254 5.51654 6.50972 5.45964 5.41887 6.19895 8.37345 5.37433 8.19467 7.42096 5.57104 6.3784 5.01799 5.01496 5.16839 4.88883 4.81788
threshold=620.00000000000011 0.11944266601081184 0.14749808482599799 0.11370900643183844 0.044382560600676697 0.61776848117966432 7.5000000000000009 0.20925765427845736 9.2088117878446436 -0.10769230769230763 0.069047619047619066 64.550000000000011 1.1055555555555558 0.21720947617655251 1.7819062250981237 0.43868709229359998 0.098499999999999963 0.37800700000000004 66.65000000000002 0.82085561497326209 -0.02699206349206348 0.020761494252873564 62.487911025145074 1.2480769230769233 0.70294117647058829 0.18895975056689346 26.595627022363622 0.39741868359508076 1.8488061399155351 85.65000000000002
decision_type=2 2 2 2 2 2 2 2 2 2 2 2 2 2 2 2 2 2 2 2 2 2 2 2 2 2 2 2 2 2
