tree
version=v4
num_class=1
num_tree_per_iteration=1
label_index=0
max_feature_idx=166
objective=binary sigmoid:1
feature_names=is_home ip_avg_5 k_pct_5 k9_5 era_5 whip_5 fip_5 bb_pct_5 hr9_5 k_pct_10 k9_10 era_10 whip_10 fip_10 starts_in_window_5 starts_in_window_10 last_start_k last_start_ip last_start_bb sp_days_since_last_start is_short_rest era_home_10 era_away_10 k9_home_10 k9_away_10 fip_home_10 fip_away_10 opp_k_pct_avg_10 opp_k_pct_avg_5 opp_bb_pct_avg_10 opp_avg_avg_10 opp_hr_avg_10 opp_iso_avg_10 opp_slg_avg_10 opp_lineup_k_pct_std opp_lineup_k_pct_cv opp_lineup_pct_lhb park_run_factor park_hr_factor ump_k9_avg_10 ump_bb9_avg_10 temperature_f wind_speed_mph wind_sin wind_cos precip_prob_pct is_dome is_day_game market_total opp_lineup_avg_avg_10 opp_lineup_iso_avg_10 opp_top4_slg_avg_10 sc_barrel_rate sc_hard_hit_pct sc_avg_exit_velo sc_gb_pct sc_fb_pct sc_xba sc_xslg sc_xwoba sc_sp_fb_whiff_pct sc_sp_fb_k_pct sc_sp_fb_put_away sc_sp_sl_pct sc_sp_sl_whiff_pct sc_sp_sl_k_pct sc_sp_sl_run_value_per_100 sc_sp_ch_pct sc_sp_ch_whiff_pct sc_sp_ch_k_pct sc_sp_fb_pct sc_sp_fb_hard_hit_pct sc_sp_fb_xwoba sc_sp_fb_run_value_per_100 sc_sp_si_pct sc_sp_si_whiff_pct sc_sp_si_k_pct sc_sp_si_hard_hit_pct sc_sp_fastball_family_pct sc_sp_pitch_diversity sc_sp_oz_swing_pct sc_sp_iz_contact_pct sc_sp_oz_contact_pct sc_sp_disc_whiff_pct catcher_framing_rv catcher_framing_rate sp_fb_velo_avg_5 sp_fb_velo_trend_5 venue_n_starts venue_era venue_k9 venue_fip sp_k_pct_vs_lhb_25 sp_k_pct_vs_rhb_25 sp_k_pct_vs_lhb_10 sp_k_pct_vs_rhb_10 svt_games svt_era svt_k9 svt_k_pct svt_era_last3 svt_k9_last3 market_k_line book_line season_2025-regular season_2026-regular pitcher_hand_L pitcher_hand_R pitcher_hand_nan sc_xslg_x_park sp_k_pct_vs_opp_k_rate opp_team_k_trend_5v10 k9_trend_5v10 k_pct_trend_5v10 era_trend_5v10 fip_trend_5v10 sp_vs_team_reliability sp_vs_team_has_history sp_vs_team_era_adj sp_vs_team_era_delta sp_vs_team_k9_adj sp_vs_team_k9_delta k_pct_x_park_hr wind_x_park_hr is_cold_game temp_below_60 sp_k_pct_trend_5v10 sp_k9_trend_5v10 k_trend_x_ump_k9 contact_vs_ump_zone ump_k9_x_sp_k_pct ump_k9_x_opp_k_pct ump_k9_x_sp_whiff_pct ump_k9_x_sp_sl_whiff_pct ump_k9_x_sp_k9_5 ump_k9_x_sp_opp_k_triple market_k_line_filled market_k_line_vs_avg market_k_line_known sc_barrel_x_park_hr sc_hard_hit_x_fb sc_exit_velo_above_avg sc_barrel_vs_k_rate sc_hard_hit_vs_opp_k sp_days_from_optimal_rest sp_is_extended_rest cold_x_sp_sl_pct cold_x_sp_offspeed_pct k9_shrunk k_pct_shrunk framing_hand_benefit sp_k_pct_x_opp_cv venue_k9_adj venue_k9_delta venue_era_adj venue_era_delta venue_fip_adj last_start_dominated last_start_blowup last_start_k9 last_start_k_bb framing_x_sp_edge_work framing_x_ump_k9 sp_k_split_advantage sp_k_split_trend_lhb sp_k_split_trend_rhb lineup_lhb_pct_x_sp_lhb_adv
feature_infos=[0:1] [2.8866666666666667:8.1099999999999994] [0.064158281160064612:0.43214441061331016] [2.8031199854006328:16.705223880597014] [0.22500000000000001:65.02204492966618] [0.50119100899357516:7.0931310798516334] [0.52881115468099638:25.800782653323068] [0:0.35488224550981373] [0:9.7837497375603615] [0.064158281160064612:0.43214441061331016] [2.8031199854006328:16.705223880597014] [0.1875:65.02204492966618] [0.50119100899357516:7.0931310798516334] [0.52881115468099638:25.800782653323068] [3:5] [3:10] [0:14] [0.33000000000000002:9] [0:8] [5:52] none [0:111.01810395172279] [0:67.164179104477611] [0:20.25] [0:19.057835820895523] [-0.55000000000000004:37.226173979984601] [-0.69805097451274356:21.110447761194031] [0.1405217674285569:0.35338711884457152] [0.12346590011063693:0.39253617915757133] [0.032233820101467157:0.1584813897316413] [0.16805689281982386:0.32169675548713789] [0.10000000000000001:2.7999999999999998] [0.054174159174159173:0.27270212630506746] [0.2386032430213465:0.55742922458379862] [0.030672755031698216:0.35091575211062426] [0.1171606982740182:1.0512350233113004] [0:0.77777777777777779] [0.89900000000000002:1.2110000000000001] [0.76400000000000001:1.226] [6.6797233666862867:11.378219723120703] [1.6549403956674502:5.2212232119234496] [32.899999999999999:110.8] [0.20000000000000001:19.300000000000001] [-1:1] [-1:1] [0:83] none [0:1] [1.5:24.5] [0.15105555555555555:0.36348484848484852] [0.044166666666666667:0.41425925925925927] [0.21431901826638669:0.83848096176269549] [3.5433035714285714:16.199999999999999] [29.5:51.100000000000001] [85.900000000000006:92.400000000000006] [16.529566854990584:100] [17.569962335216573:100] [0.185:0.30745000000000006] [0.29099999999999998:0.62300000000000011] [0.2471339285714286:0.40799999999999997] [4.5999999999999996:45.100000000000001] [4:55.600000000000001] [2.3999999999999999:34.799999999999997] [6:47.299999999999997] [10.6:52.899999999999999] [5:58.100000000000001] [-6.5999999999999996:4.4000000000000004] [7:38.399999999999999] [12.199999999999999:50.399999999999999] [3.5:50.700000000000003] [7.9000000000000004:61.899999999999999] [23.100000000000001:75] [0.13900000000000001:0.59799999999999998] [-7.4000000000000004:3.7000000000000002] [5.2000000000000002:54.399999999999999] [0:29] [0:34.299999999999997] [19.899999999999999:69.599999999999994] [16.899999999999999:72.799999999999997] [0.38100000000000001:0.88600000000000001] [20.199999999999999:39] [70.900000000000006:92.799999999999997] [36.5:78] [12.6:39.5] [-4.0760224701199324:4.0973909206479613] [0.375:0.56896551724137934] [86.203421717171707:100.01500519173102] [-4.0750000000000028:2.9854775713212973] [0:24] [0:218.18181818181819] [0:27.272727272727273] [-0.050000000000000003:69.86666666666666] [0.050000000000000003:0.51724137931034486] [0.10000000000000001:0.45238095238095238] [0.050000000000000003:0.51724137931034486] [0.10000000000000001:0.45238095238095238] [0:8] [0:40.5] [0:21.621621621621621] [0:1] [0:40.5] [0:21.621621621621621] [2.5:8.5] [2.5:8.5] [0:1] [0:1] [0:1] [0:1] none [0.23523704150943392:0.6605886323529413] [0.013211246539919733:0.12942929832725739] [-0.090079223163408773:0.10018393281271148] [-3.84781990521327:2.7745778611632277] [-0.11072126858639827:0.079027859827041247] [-12.542835820895522:19.309049363511051] [-4.0050300463054453:3.3753818444058457] [0:1] [0:1] [0:9.1454965357967666] [-42.396923043986604:6.8207217090069285] [0:11.52] [-5.0918209791946367:5.113265475182339] [0.057165028513617572:0.48340282352941183] [0.20680000000000001:22.313199999999998] [0:1] [0:27.100000000000001] [-0.11072126858639827:0.079027859827041247] [-3.84781990521327:2.7745778611632277] [-0.95119839592672117:0.66306607353336333] [0.28517190428849742:0.67082560628806798] [0.58300782809826901:3.9564788593284592] [1.0529472139128015:3.5471737107471926] [102.23364239486472:396.90529411764703] [89.193888276742996:505.5861918775725] [25.375071370860027:147.94192226441515] [0.1119070295146142:1.1807990750279531] [2.5:8.5] [-2:4] none [3.3236187499999996:17.409199999999998] [6.3860617117728911:51.100000000000001] [-2.0999999999999943:4.4000000000000057] [11.342174439776862:143.25072086763367] [5.1350850719721475:15.778160551751634] [1:5] [0:1] [0:593.01999999999998] [0:885.56000000000006] [5.1921591619762353:12.533587143973209] [0.13731863356692828:0.34452621330038874] [0:0.56896551724137934] [0.09581705120516619:0.72631136991966272] [1.8862771374966498:16.705223880597014] [-6.3447101693687085:6.3917810813753313] [0.1875:106.98439358947442] [-25.371287050506741:63.445249984203471] [0.52881115468099638:40.489410657770932] [0:1] [0:1] [0:27.272727272727273] [0:14] [-131.39378796801469:142.99894313061384] [-39.225722124212993:42.094235736568542] [-0.23286875725900116:0.23653962492437997] [-0.1117314969911285:0.12113839975285756] [-0.10975258503989171:0.12299421009098427] [-0.10376368271105113:0.094444444444444442]
tree_sizes=3429 3370 3390 3428 3400 3356 3378 3384 3393 3394 3408 3421 3358 3408

Tree=0
num_leaves=31
num_cat=0
split_feature=83 130 60 136 87 70 90 51 164 62 29 15 83 70 36 95 86 39 9 121 25 115 53 34 166 159 129 101 136 150
split_gain=24.4111 12.6477 11.1007 15.2559 9.86382 12.5061 11.3439 9.63243 8.8733 8.6427 8.48847 10.569 9.1903 7.67607 7.55292 7.28519 8.63196 6.94062 7.33506 8.63612 6.8259 6.7945 6.21744 5.95589 5.80353 6.60312 5.39546 5.29832 5.21786 5.09331
threshold=24.550000000000004 1.8537026848981524 20.150000000000002 5.0000000000000009 0.16485521875496548 19.500000000000004 6.4445667026556652 0.46168077418077424 -1.0000000180025095e-35 17.250000000000004 0.067375372808335554 3.5000000000000004 27.750000000000004 35.750000000000007 0.34523809523809529 0.36070261437908502 92.662490933545598 9.2185516674187244 0.20178425494031835 0.79457299165448758 4.2932169786838603 -0.12947961049174814 42.692515496153639 0.083494229946180401 0.00577643794118771 7.0747109746226151 0.41152642216223873 9.0795393679700069 5.0000000000000009 0.47900426874536012
decision_type=2 2 2 2 2 2 2 2 2 2 2 2 2 2 2 2 2 2 2 2 2 2 2 2 2 2 2 2 2 2
left_child=1 4 3 27 8 -6 -7 21 24 26 12 13 -4 -12 20 16 -13 18 19 -8 -10 -5 23 -16 25 29 -3 -2 -11 -1
right_child=2 9 10 7 5 6 17 -9 14 28 11 15 -14 -15 22 -17 -18 -19 -20 -21 -22 -23 -24 -25 -26 -27 -28 -29 -30 -31
leaf_value=0.023172962804719005 0.023545644074648382 -0.017579365372685032 -0.041096879201078421 -0.010442148792321509 0.0079118868177284977 0.0071711660922617135 -0.068708098687408625 -0.0057329906096604995 0.020489211176862247 -0.0016237341519221935 0.0072286663991873324 -0.018953493601829467 0.0098335875225800135 -0.043153102066240519 -0.0050061809384630007 -0.018738644044619824 0.024639316938370404 -0.0062027376406912022 -0.012827013559754538 -0.010204403865294583 -0.023320598782478573 -0.059623207024472845 -0.0065742827990186419 -0.054506583962557462 0.02468729625773957 -0.028807666153106919 -0.066690147888635865 -0.022254817327465599 -0.03703613546838181 -0.017579365372685032
leaf_weight=13.999424219131472 17.999259710311893 9.4996092915534955 14.999383091926576 7.49969154596329 13.499444782733915 7.7496812641620627 35.748529702425003 17.749269992113113 12.499485909938814 15.999341964721681 8.9996298551559466 10.249578446149824 10.749557882547377 11.249537318944929 4.9997943639755276 10.749557882547377 96.746020942926407 6.999712109565734 9.4996092915534955 5.999753236770629 13.249455064535139 22.999054074287415 12.249496191740034 22.249084919691086 19.9991774559021 16.249331682920456 26.248920410871506 5.2497840821743003 15.249372810125349 9.4996092915534955
leaf_count=56 72 38 60 30 54 31 143 71 50 64 36 41 43 45 20 43 387 28 38 24 53 92 49 89 80 65 105 21 61 38
internal_value=-0.012827 -0.0229572 -0.00116837 -0.0171297 -0.0163777 -0.0296799 -0.0386403 -0.0329039 -0.00778706 -0.0410507 0.00587015 0.0106949 -0.0187942 -0.0202337 -0.0200608 0.0163026 0.0201531 -0.0462297 -0.0522442 -0.0603844 -0.000907429 -0.0481927 -0.033045 -0.0448444 0.00552612 -0.00778787 -0.0564377 0.0124804 -0.0191709 0.00787795
internal_weight=506.729 271.489 235.24 71.4971 204.492 79.4967 65.9973 48.248 124.995 66.9972 163.743 137.994 25.7489 20.2492 65.2473 117.745 106.996 58.2476 51.2479 41.7483 25.7489 30.4987 39.4984 27.2489 59.7475 39.7484 35.7485 23.249 31.2487 23.499
internal_count=2027 1086 941 286 818 318 264 193 500 268 655 552 103 81 261 471 428 233 205 167 103 122 158 109 239 159 143 93 125 94
is_linear=0
shrinkage=1


Tree=1
num_leaves=31
num_cat=0
split_feature=83 93 60 102 50 34 22 2 50 82 85 164 36 150 135 69 65 121 42 132 114 51 97 34 165 78 109 53 75 89
split_gain=22.0499 12.0238 10.0309 13.982 10.1421 9.72064 9.30117 9.08319 8.25812 7.94653 6.96212 6.6629 7.11043 6.91564 6.26203 6.17568 8.7301 8.39402 6.07892 5.66898 5.69521 5.53199 5.23145 5.12805 5.05364 4.68221 4.64711 4.63694 5.17123 4.47517
threshold=24.550000000000004 0.27077653937511426 20.150000000000002 5.0000000000000009 0.18177083333333335 0.088895830413612417 6.7079628957416979 0.15073587176779832 0.15649074074074076 61.550000000000004 0.48887949138814629 0.017444842759641119 0.32051282051282054 0.47127506557238352 0.49706568593260991 25.100000000000005 29.750000000000004 0.82094781112994475 10.850000000000003 208.21741498606556 -0.2155209302037133 0.49754542165686266 3.40611259900033 0.10898140207728882 -0.0038012982700086346 53.600000000000009 0.50229156657105045 36.196270182970636 13.450000000000001 5.1548695018314223
decision_type=2 2 2 2 2 2 2 2 2 2 2 2 2 2 2 2 2 2 2 2 2 2 2 2 2 2 2 2 2 2
left_child=1 5 3 23 25 10 7 22 -3 11 18 13 -13 14 -4 16 17 29 21 20 -8 26 -7 -2 -17 -5 -1 -14 -29 -9
right_child=2 8 9 4 -6 6 19 15 -10 -11 -12 12 27 -15 -16 24 -18 -19 -20 -21 -22 -23 -24 -25 -26 -27 -28 28 -30 -31
leaf_value=0.04733822708156038 0 -0.046146773276844098 0.032063808582855582 -0.035713995297778467 0.021543551963938354 -0.0091788864831904484 0.00026454131680411005 -0.034405868259474552 -0.002047433505644407 -0.022517504648646703 -0.016240137114535324 0.025888506234414316 0.016079065922073088 0.042319705865169428 0.0013079168900679077 0.033095688950211227 0.015008438523187215 0.015498004742573721 -0.01163886571962322 0.0048917213746280655 -0.048341986928604787 -0.0032252202273202208 0.030907591625951331 0.042547761151196704 -0.0085299449238531288 0.0053558299205683666 0 -0.034667025102816912 0.00742709430057472 0.0008149790587693317
leaf_weight=22.744143709540371 11.998385071754457 28.73802524805069 24.995791509747505 34.48202109336853 7.9990494400262824 7.9974179863929775 6.2481858581304577 54.473909631371498 17.991215899586678 6.9980292916297904 10.995556071400641 16.99720311164856 7.2488442212343243 42.492524400353432 41.993119910359383 8.7477251291275042 13.995595276355742 8.2482947260141355 7.2474698275327674 6.7475039213895789 24.238447815179825 7.7468271404504767 20.492663025856018 11.248470529913901 10.74479505419731 5.7481499165296546 5.2488073110580435 15.247183397412302 7.7488123923540106 8.7463672459125501
leaf_count=91 48 115 100 138 32 32 25 218 72 28 44 68 29 170 168 35 56 33 29 27 97 31 82 45 43 23 21 61 31 35
internal_value=0 -0.00963935 0.0110715 -0.00409014 -0.0192084 -0.00439893 -0.0102933 -0.00346941 -0.0314904 0.0177639 0.0131065 0.0203577 0.00352593 0.0269311 0.0145612 -0.0104491 -0.0162455 -0.023274 0.0220439 -0.0308519 -0.039042 0.0300781 0.0192181 0.0242382 0.0120726 -0.0293498 0.0391443 -0.010222 -0.0207967 -0.0294641
internal_weight=506.591 271.393 235.198 71.4761 48.2292 224.664 170.681 133.447 46.7292 163.722 53.9828 156.723 47.242 109.481 66.9889 104.957 85.4642 71.4686 42.9872 37.2341 30.4866 35.7398 28.4901 23.2469 19.4925 40.2302 27.993 30.2448 22.996 63.2203
internal_count=2027 1086 941 286 193 899 683 534 187 655 216 627 189 438 268 420 342 286 172 149 122 143 114 93 78 161 112 121 92 253
is_linear=0
shrinkage=0.05


Tree=2
num_leaves=31
num_cat=0
split_feature=83 135 60 103 50 1 35 151 62 38 15 6 23 50 48 9 65 86 162 139 155 111 87 135 112 132 159 35 2 12
split_gain=20.2409 11.8567 9.03448 12.8484 9.39472 7.78475 19.0596 10.2758 10.0671 7.97175 7.61315 7.48927 7.02748 7.92855 6.6809 6.2918 6.14791 5.87545 5.6806 5.59069 5.57849 5.50913 5.34959 6.4957 8.72428 7.07636 7.04728 6.54782 5.57033 5.88815
threshold=24.550000000000004 0.46831141757869271 20.150000000000002 5.0000000000000009 0.18177083333333335 5.3000000000000007 0.37454579764147905 0.1963660813627319 18.350000000000005 1.0275000000000001 3.5000000000000004 2.633500678866517 5.2344720063804431 0.096944444444444458 7.7500000000000009 0.1945760978422286 22.700000000000006 94.530067472975375 -10.867646395832754 10.543679189807008 -2.287349866579047 0.0018146666023916155 -0.90096344145027973 0.5805029420299529 -1.0521119622146478 206.56105911093201 10.960960960960962 0.39333029737145264 0.27746893125574751 1.0155858543259331
decision_type=2 2 2 2 2 2 2 2 2 2 2 2 2 2 2 2 2 2 2 2 2 2 2 2 2 2 2 2 2 2
left_child=1 5 3 -2 -5 6 16 -7 9 17 21 -3 -8 -14 -15 -12 -1 -9 -13 -20 -16 -4 -17 24 -24 -26 28 -28 -25 -30
right_child=2 11 10 4 -6 7 12 8 -10 -11 15 18 13 14 20 22 -18 -19 19 -21 -22 -23 23 26 25 -27 27 -29 29 -31
leaf_value=-0.0090303038200377373 0.023398513517744579 0.0080584932591007512 -0.024735725586884656 -0.028043996009787794 0.020880427754027989 0.036962726685601639 0.0027013994147346036 -0.032920556466176719 0.027641885075598473 0.011686726758067234 -0.0071995272389194136 0.0055935329181140379 0.0095679893976177224 -0.0076500687398131919 0 -0.0081533021672048813 0.032700693576661742 0.0019834187110662521 -0.045025771132507796 0.00089709824127825024 -0.057640681841799761 0.017381714285194094 -0.0045441568678087716 -0.030553904929439313 -0.00053669849519205387 0.04973121285531576 0.047456929176485037 0.00035812344485335816 -0.018953184537922538 0.029680555187024272
leaf_weight=9.7403521835804003 23.23808465898037 9.7426579743623716 13.994922101497652 40.196395918726921 7.9992081969976416 16.992148578166962 14.985102593898771 30.471645087003708 17.991752713918686 22.734888941049576 13.991542637348173 5.7443887442350379 6.7434793859720221 16.232770845293999 5.2440900951623908 8.2474407553672773 19.739531427621841 15.489128738641737 42.706454545259476 6.2458724230527869 30.46461233496666 7.9968528896570197 8.7444067746400815 8.9978914707899111 6.7466041445732108 51.972250446677208 12.993859857320787 14.49410307407379 5.747722551226615 9.7460227310657483
leaf_count=39 93 39 56 161 32 68 60 122 72 91 56 23 27 65 21 33 79 62 171 25 122 32 35 36 27 208 52 58 23 39
internal_value=0 -0.00919472 0.0106524 -0.00373303 -0.0182545 -0.00297969 -0.0124978 0.00639906 -0.00100823 -0.0102174 0.0170035 -0.027132 -0.0257725 -0.0330771 -0.0394066 0.0212159 0.0188774 -0.0216266 -0.0339689 -0.0391629 -0.050516 -0.00811157 0.0246719 0.0273758 0.0374609 0.0439743 0.0117093 0.027269 -0.00656877 0.0101966
internal_weight=506.376 271.269 235.107 71.4337 48.1956 206.83 103.15 103.68 86.6874 68.6957 163.674 64.4394 73.6701 58.685 51.9415 141.682 29.4799 45.9608 54.6967 48.9523 35.7087 21.9918 127.69 119.443 67.4633 58.7189 51.9796 27.488 24.4916 15.4937
internal_count=2027 1086 941 286 193 828 413 415 347 275 655 258 295 235 208 567 118 184 219 196 143 88 511 478 270 235 208 110 98 62
is_linear=0
shrinkage=0.05


Tree=3
num_leaves=31
num_cat=0
split_feature=83 130 87 70 90 88 77 44 139 62 36 50 111 7 32 21 22 102 139 82 9 59 119 62 33 121 12 129 6 109
split_gain=18.3726 10.835 8.72861 11.0897 10.1387 8.7074 8.34728 8.3977 9.64827 7.99412 7.31048 8.36647 8.24018 6.99117 7.75377 6.9763 10.1709 8.72247 7.02853 6.63636 8.23849 6.53752 6.37141 6.25003 6.05397 5.9735 5.75779 5.40778 4.89319 6.7151
threshold=24.550000000000004 1.8537026848981524 0.16485521875496548 19.500000000000004 6.4445667026556652 5.5000000000000009 41.100000000000009 0.68832836526074803 6.8759010239603606 18.450000000000003 0.44949494949494956 0.16315740740740745 -0.0052648893563269758 0.11548239823004708 0.13251983613582288 4.0489880059970025 3.8664558307906103 6.0000000000000009 6.170404242760104 55.550000000000004 0.20178425494031835 0.31118879523986259 -0.31415336120543197 12.850000000000003 0.35028520102405308 0.066690653377858594 1.2978226098245924 0.41425504457747503 4.8713947570667653 0.39229531710407245
decision_type=2 2 2 2 2 2 2 2 2 2 2 2 2 2 2 2 2 2 2 2 2 2 2 2 2 2 2 2 2 2
left_child=1 2 5 -4 -5 10 22 13 -9 27 11 12 -1 15 -15 17 -17 28 -19 -6 -21 -12 -2 -13 -14 -18 -20 -3 29 -8
right_child=6 9 3 4 19 -7 7 8 -10 -11 21 23 24 14 -16 16 25 18 26 20 -22 -23 -24 -25 -26 -27 -28 -29 -30 -31
leaf_value=0.015905372159713421 -0.0067231713234586548 -0.0043048691091710318 0.020083463879860101 0.019416799044922092 0.0076763954342141593 0.030730493276692819 0.014223240070483797 0.025734821840175993 -0.028538639945567813 -0.0018947700000648418 0.016476349997189731 -0.0059047931189405269 0.0052308649768260489 -0.042349681154628255 0.0080147629293057868 -0.024811614542072868 0.033050547010671776 0.037269322041234176 -0.020688667096575613 -0.045272497035660671 0.0029815348238847262 -0.030760380830390451 0.038633181204976962 0.045163650239359268 -0.036023220537394561 -0.014804081075987019 0.022082806522564086 -0.048319025128346349 -0.0021227486161759751 0.052718049225353704
leaf_weight=24.225596562027931 6.9933754801750174 11.737218305468557 13.49259904026985 7.7460281997919074 6.9902063757181159 21.981239318847656 28.458780437707901 6.2415258139371863 26.961762592196465 25.964363187551498 5.4940007030963924 5.9918434619903591 11.487426683306696 7.7411334216594723 14.484844818711279 20.472924783825874 15.729464471340181 5.2414083033800116 24.220248922705654 42.153270319104195 8.9915856271982175 24.213575467467308 31.959709689021111 14.488619744777678 16.978370398283005 5.2431895285844794 5.7428373247385016 29.15501581132412 7.4901554882526389 27.963053345680237
leaf_count=97 28 47 54 31 28 88 114 25 108 104 22 24 46 31 58 82 63 21 97 169 36 97 128 58 68 21 23 117 30 112
internal_value=1.73039e-05 -0.0087294 -0.00264798 -0.0151956 -0.0236805 0.00541394 0.0101855 0.00545652 -0.0156491 -0.0254821 -0.000937059 0.00735084 -0.00330455 0.0102484 -0.0131645 0.0144473 -0.00212174 0.0213849 0.000358028 -0.0309018 -0.0368338 -0.0201892 0.0300829 0.0310148 -0.0203338 0.0195775 -0.00979021 -0.0380759 0.031738 0.036447
internal_weight=506.035 271.091 204.234 79.3737 65.8811 124.861 234.944 195.991 33.2033 66.8566 102.879 73.1719 52.6914 162.788 22.226 140.562 41.4456 99.1165 35.2045 58.1351 51.1449 29.7076 38.9531 20.4805 28.4658 20.9727 29.9631 40.8922 63.912 56.4218
internal_count=2027 1086 818 318 264 500 941 785 133 268 412 293 211 652 89 563 166 397 141 233 205 119 156 82 114 84 120 164 256 226
is_linear=0
shrinkage=0.05


Tree=4
num_leaves=31
num_cat=0
split_feature=80 90 35 33 22 44 6 131 163 60 100 61 40 50 93 119 8 88 36 6 39 3 163 16 57 54 7 14 1 132
split_gain=18.3559 11.9627 10.4639 17.7512 11.6656 10.5415 10.2038 9.57902 8.74751 8.16301 11.7726 7.76148 7.5993 10.0139 7.42533 7.30838 6.84464 6.57246 6.49627 6.45709 6.17747 6.01642 5.99675 6.51573 5.8742 7.18621 5.8674 7.04928 6.18283 6.16856
threshold=29.250000000000004 7.6742657650833674 0.36617450504066845 0.47018015931640728 2.3106755863774278 -0.96811077628253217 4.6440534534354425 2.6396644714033228 0.014714967300641786 20.150000000000002 3.1755368814192346 24.600000000000005 3.7392300045885878 0.19180555555555559 0.24670462048116018 0.54289202483250454 1.2669963236018016 5.5000000000000009 0.37412587412587422 4.1433879003425682 7.5191961738603874 10.290136679562645 -0.0084307495796285669 4.5000000000000009 0.22082361323155222 90.598826291079831 0.12031468811943721 3.5000000000000004 6.6673333333333344 179.76458411016367
decision_type=2 2 2 2 2 2 2 2 2 2 2 2 2 2 2 2 2 2 2 2 2 2 2 2 2 2 2 2 2 2
left_child=1 8 4 5 -3 -4 7 9 16 10 -2 14 13 22 19 21 -1 20 -19 -6 -7 -12 -8 -24 -22 -26 27 -11 29 -29
right_child=6 2 3 -5 11 17 12 -9 -10 26 15 -13 -14 -15 -16 -17 -18 18 -20 -21 24 -23 23 -25 25 -27 -28 28 -30 -31
leaf_value=0.016905708194871357 -0.027196623851325222 -0.037703276559054894 0.010589500814954911 0.032695068380006347 -0.016953623091743194 0.0048636619659243154 -0.046808075326941159 -0.019390839246683125 0.034225895488923186 -0.010460613395486852 0.043309066268264126 0.03630837100628629 0.022667323376186283 0.026050591236048595 -0.022367942078451799 -0.011435278002026329 -0.022698756474744852 -0.025371370376235349 0.021986308850781514 0.029867447624801015 0.0016348287170288548 -0.0055214622273977009 0.015413956691080061 -0.031603350950710166 -0.044239546777970158 -0.0038534061920514357 -0.012431674171537746 -0.0030940597240808831 -0.0078155838215684878 0.041304451940308469
leaf_weight=15.720162615180014 15.959361046552656 9.2366134226322156 15.712297260761259 10.236191838979719 6.2400143593549755 7.730385795235633 15.963891074061388 12.225058123469351 20.462075099349022 6.4904345571994773 19.215399667620662 16.976224213838577 10.729214161634443 6.2396144270896903 16.957105606794357 10.23029240965843 17.71064718067646 8.9810042381286639 9.9794165045022947 17.968852087855339 7.9909246116876593 5.9843097925186148 11.732752621173864 7.987717628479003 88.244424790143967 15.206471890211104 4.9944496601819983 6.7385676950216284 5.4939309358596793 80.336900562047958
leaf_count=63 64 37 63 41 25 31 64 49 82 26 77 68 43 25 68 41 71 36 40 72 32 24 47 32 354 61 20 27 22 322
internal_value=6.16247e-05 -0.00820025 -0.0131617 -0.0198289 0.00297712 -0.0244002 0.0108176 0.0167773 0.0119921 0.0202933 0.00299543 0.0123095 -0.00753608 -0.0173902 0 0.0188952 -0.00364849 -0.0287857 -1.56574e-05 0.0161068 -0.0329768 0.0318909 -0.0278686 -0.00515918 -0.0359125 -0.038985 0.0280779 0.0308598 0.0344007 0.0376156
internal_weight=505.675 285.353 231.46 164.081 67.3788 153.845 220.322 167.669 53.8929 155.444 51.3894 58.1422 52.6532 41.924 41.166 35.43 33.4308 138.133 18.9604 24.2089 119.172 25.1997 35.6844 19.7205 111.442 103.451 104.054 99.0598 92.5694 87.0755
internal_count=2027 1144 928 658 270 617 883 672 216 623 206 233 211 168 165 142 134 554 76 97 478 101 143 79 447 415 417 397 371 349
is_linear=0
shrinkage=0.05


Tree=5
num_leaves=31
num_cat=0
split_feature=80 50 35 22 83 95 153 164 152 79 50 111 61 134 78 99 42 55 5 139 41 57 118 58 111 69 90 45 22 152
split_gain=16.4181 11.2622 10.9644 11.0513 10.3329 11.4534 9.02985 13.043 7.41862 7.88838 7.38631 7.30721 8.25529 6.79963 6.65186 6.543 7.92603 6.34859 6.1818 6.15338 5.87348 5.86801 5.48694 5.2366 5.09082 4.77107 4.48858 4.34491 4.26036 3.99807
threshold=29.250000000000004 0.19354938271604941 0.36617450504066845 2.3106755863774278 26.300000000000001 0.25247621849563601 -0.034207270744864619 -0.01285825207574781 10.93416578104822 0.64750000000000008 0.17543560606060607 -0.016464321239034695 22.250000000000004 86.74660470953863 41.250000000000007 0.54606060606060614 6.4500000000000011 26.705922118380066 1.6527944179361882 10.237086839266453 70.750000000000014 0.23770395882647918 1.0797301349325339 0.41746410824585223 0.035481548409402743 28.500000000000004 9.0127735658855119 2.5000000000000004 1.7463435834415553 11.299574372511984
decision_type=2 2 2 2 2 2 2 2 2 2 2 2 2 2 2 2 2 2 2 2 2 2 2 2 2 2 2 2 2 2
left_child=1 2 3 -1 5 15 13 26 14 29 25 -5 24 18 20 16 -2 -3 22 -16 -6 -19 -4 -14 -13 28 -8 -18 -7 -10
right_child=4 17 6 11 8 10 7 -9 9 -11 -12 12 23 -15 19 -17 27 21 -20 -21 -22 -23 -24 -25 -26 -27 -28 -29 -30 -31
leaf_value=-0.03556573458189103 -0.0036461284543444121 -0.0072370379288561274 0.044017362298050575 0.037248412544799048 -0.013273745340568372 0.0048291712434538267 -0.006946529668133034 -0.032405155521906474 -0.010665164847152332 -0.028978277923664638 0.012840033107667424 -0.024959612765558289 0.043176157065665674 -0.031074232813683357 0.046864134361238076 -0.022457811252831972 0.043729437449364091 -0.0046027205780879458 -0.015751962122380614 0 0.026326595312625947 0.042930904625557556 -0.0029436498790279715 -0.0039669946478615324 0.017303345511778204 0.010773617279192457 0.03001360805129101 0 -0.035517312903155088 0.027589167557856027
leaf_weight=8.9763099551200849 17.708036676049232 14.953313544392584 12.723144769668588 16.463245645165443 13.706976249814035 5.2409414052963248 36.391703754663467 104.57131883502007 5.7387907058000627 9.7175470888614637 13.716618970036505 21.948698922991756 9.2249197661876696 4.9833311289548865 39.854782626032829 5.2318361550569525 24.186891436576847 6.7243966311216381 6.7360266894102088 7.4851959049701682 13.458426818251608 16.720423877239227 7.2267969697713843 7.2368249148130408 4.9946905225515357 4.9835684895515433 5.2397463470697394 7.4879631251096717 35.394008055329323 16.198779568076134
leaf_count=36 71 60 51 66 55 21 146 420 23 39 55 88 37 20 160 21 97 27 27 30 54 67 29 29 20 20 21 30 142 65
internal_value=4.31627e-05 -0.00777063 -0.0117731 0.0046495 0.0102234 -0.000134238 -0.0182194 -0.0233519 0.0210719 0 -0.0149584 0.0133411 0.000845911 0.00474634 0.0292248 0.0154556 0.0216275 0.0157636 0.0160724 0.0398528 0.0066107 0.0300059 0.0288231 0.0251906 -0.0148603 -0.0242534 0 0.0350094 -0.0298068 0.0165318
internal_weight=505.225 285.115 246.717 68.8447 220.11 113.95 177.872 146.203 106.16 31.6551 59.3351 59.8684 43.4051 31.6693 74.5054 54.6147 49.3829 38.3981 26.686 47.34 27.1654 23.4448 19.9499 16.4617 26.9434 45.6185 41.6315 31.6749 40.6349 21.9376
internal_count=2027 1144 990 276 883 457 714 587 426 127 238 240 174 127 299 219 198 154 107 190 109 94 80 66 108 183 167 127 163 88
is_linear=0
shrinkage=0.05


Tree=6
num_leaves=31
num_cat=0
split_feature=66 111 111 50 56 166 50 59 29 130 56 68 93 17 123 56 42 166 22 86 164 111 86 94 54 163 27 87 114 42
split_gain=15.5854 12.3269 12.2972 12.3429 9.1686 7.94614 10.2327 7.84347 11.308 10.8527 9.2008 8.45886 9.05603 8.10738 8.01472 7.53205 7.4526 7.23756 7.16529 6.74666 6.48744 6.4242 6.29999 5.76293 5.61138 5.39818 5.3977 5.55287 5.01538 4.84785
threshold=1.0500000000000003 0.048047153986843512 -0.045799438897816215 0.1870138888888889 27.083690804570512 -0.016432155521639739 0.10476851851851852 0.31108621741451248 0.084102838868281002 2.525800346976681 41.487105556717566 30.350000000000005 0.27425869638635603 6.1650000000000009 8.4340000000000011 41.487105556717566 8.6500000000000004 0.014481590525041483 2.3332010582010585 95.221906199960813 -0.016786941049391432 -0.027681802237627503 92.729166666666671 0.25937646507266765 90.725193548387111 0.016586638622338268 0.27622607605233324 0.80766443497965679 0.32076713889235769 12.550000000000002
decision_type=2 2 2 2 2 2 2 2 2 2 2 2 2 2 2 2 2 2 2 2 2 2 2 2 2 2 2 2 2 2
left_child=1 2 -1 7 -5 -2 -7 8 9 15 29 12 14 24 19 -4 -3 25 -6 20 -9 -8 -12 -21 -13 -16 27 -22 -14 -10
right_child=5 16 3 4 18 6 21 11 10 -11 22 13 28 -15 17 -17 -18 -19 -20 23 26 -23 -24 -25 -26 -27 -28 -29 -30 -31
leaf_value=0.02428474650717715 -0.008626103587729245 0.047181901978814611 0.038643476999251657 -0.011910378791146141 -0.0093642540134726369 -0.013852891819366352 0 -0.0018852700092994558 -0.031571104825092268 -0.020384023873138323 -0.017537102754615345 -0.019006804407345833 -0.052638399192717046 0.036410915780064487 0.00059505192030086913 -0.008246729333556085 -0.0039989499693554257 -0.025219922378365824 0.03433641607365303 0.019644413509599244 -0.047188893420196922 0.047745281949204882 0.033809505647405751 -0.020759166994392689 0.023503015736192671 0.0457871785149499 0 0 -0.0023799062572539983 0.0061122726268525015
leaf_weight=27.159009769558907 12.94968521595001 13.712879046797754 30.142183393239975 22.678149491548538 8.9730628132820112 7.4752512574195853 7.4709353595972052 20.683542728424072 39.581293910741806 10.96217769384384 5.2316528260707846 26.645090416073803 27.075521737337112 8.224642947316168 18.66199849545956 8.2219229489564878 8.9590004086494428 8.451172783970831 32.884554371237755 13.963369950652124 45.282144948840141 35.344638019800186 9.9611527323722822 11.453366473317145 5.2372100800275794 6.4796497076749793 9.2129780948162061 6.4689017683267585 7.7154970169067374 7.4694522619247428
leaf_count=109 52 55 121 91 36 30 30 83 159 44 21 107 109 33 75 33 36 34 132 56 182 142 40 46 21 26 37 26 31 30
internal_value=8.32274e-05 -0.00327014 -0.00539658 -0.00779798 0.0113656 0.0223843 0.0308794 -0.0117681 -0.000697121 0.0160807 -0.0145719 -0.0172392 -0.0218781 0.00267486 -0.0149611 0.0282256 0.0289857 0.00519432 0.0244351 -0.0214578 -0.0281095 0.0398441 0.0149259 0.000196145 -0.00910645 0.0187349 -0.0358104 -0.0415734 -0.0438206 -0.025096
internal_weight=504.732 441.492 418.82 391.661 64.5358 63.2405 50.2908 327.125 111.57 49.3263 62.2436 215.555 175.448 40.1069 140.657 38.3641 22.6719 33.5928 41.8576 107.064 81.6476 42.8156 15.1928 25.4167 31.8823 25.1416 60.964 51.751 34.791 47.0507
internal_count=2027 1773 1682 1573 259 254 202 1314 448 198 250 866 705 161 565 154 91 135 168 430 328 172 61 102 128 101 245 208 140 189
is_linear=0
shrinkage=0.05


Tree=7
num_leaves=31
num_cat=0
split_feature=80 90 164 83 23 54 33 61 2 68 6 163 66 131 68 152 79 88 95 94 98 29 22 78 41 35 116 41 34 16
split_gain=14.2003 10.2223 9.76655 8.90086 10.7043 8.70857 8.94564 8.63745 14.6171 8.17634 7.94924 7.88622 7.02012 7.01307 8.43833 6.6881 7.14562 6.64461 6.42901 8.05981 6.26065 6.11903 6.83562 6.03125 5.90623 5.84563 5.66352 5.322 5.09201 4.80255
threshold=29.250000000000004 7.6742657650833674 0.00067281909787389471 26.300000000000001 8.2713658858462562 90.966671283289159 0.4645304137666772 20.750000000000004 0.16757790534567144 31.750000000000004 6.1791071163336788 0.014714967300641786 0.8500000000000002 1.7580264476439427 22.600000000000005 10.93416578104822 0.64750000000000008 11.500000000000002 0.20518418990034712 0.24333214793741112 6.2427829099307166 0.077556429520712164 3.3048040938284844 41.250000000000007 84.600000000000009 0.34028179452860435 0.3000000000000001 70.750000000000014 0.11858688144784316 5.5000000000000009
decision_type=2 2 2 2 2 2 2 2 2 2 2 2 2 2 2 2 2 2 2 2 2 2 2 2 2 2 2 2 2 2
left_child=1 11 7 4 24 6 13 8 10 20 -3 18 -10 -4 -15 23 -17 -16 -1 -20 -6 -9 -23 27 29 -25 -24 -5 -13 -2
right_child=3 2 5 15 9 -7 -8 21 12 -11 -12 28 -14 14 17 16 -18 -19 19 -21 -22 22 26 25 -26 -27 -28 -29 -30 -31
leaf_value=0.021268347269640098 0.028272900179170453 0.030552660410614198 0.0028162760531684526 -0.01293049731536235 0.012868695673899767 0.016685788052673817 0.015699105955540919 -0.01062660787614924 -0.036525765257824222 0.01535148064748651 -0.020953698105223118 0.045175125311431301 0.013088466627960175 0.0075802389848719917 -0.048798192274313451 0.015477555049160789 -0.027874640113660649 0.0036572848555711046 -0.034907295231651737 0.018421286855758667 -0.034293976464685398 -0.0050145300839955923 0.041247471306522086 0 -0.017390161150562439 0.044515457673010655 -0.0052341772532604018 0.024766342194753457 -0.002255429131849731 -0.0012506826929629573
leaf_weight=11.218082100152968 37.620582535862923 17.431415572762493 9.6861274391412717 13.689088881015779 4.9827220737934104 7.9678891748189917 6.7224289029836646 20.911864727735519 41.967264264822006 10.950777396559713 6.4713397920131674 14.453038021922113 4.9913941472768775 6.4745081961154929 57.114398032426834 21.891596958041195 9.7002698779106122 4.9796789586544028 15.936772093176844 6.2237709462642661 34.080436170101166 16.170525476336479 23.908302232623104 7.7005982995033255 8.7136280983686429 39.48355470597744 5.9693711400032035 13.422036483883856 5.9783848375082007 17.430604070425034
leaf_count=45 151 70 39 55 20 32 27 84 169 44 26 58 20 26 230 88 39 20 64 25 137 65 96 31 35 159 24 54 24 70
internal_value=9.67972e-05 -0.00717342 -0.0117791 0.00957665 -2.87862e-05 -0.0238993 -0.0286984 -0.00287987 -0.0146948 -0.0166665 0.0145305 0.0114755 -0.0300189 -0.0335264 -0.0388426 0.0196593 0 -0.0442598 -0.00336536 -0.0183755 -0.0269331 0.00942833 0.0191744 0.0274104 0.0129204 0.0375387 0.0318249 0.0059041 0.0325987 0.0191829
internal_weight=504.242 284.577 230.767 219.666 113.779 92.945 84.9771 137.821 70.8614 50.0139 23.9028 53.81 46.9587 78.2547 68.5686 105.887 31.5919 62.0941 33.3786 22.1605 39.0632 66.9601 46.0482 74.2953 63.7648 47.1842 29.8777 27.1111 20.4314 55.0512
internal_count=2027 1144 928 883 457 374 342 554 285 201 96 216 189 315 276 426 127 250 134 89 157 269 185 299 256 190 120 109 82 221
is_linear=0
shrinkage=0.05


Tree=8
num_leaves=31
num_cat=0
split_feature=60 93 82 59 4 34 153 78 37 90 23 9 75 41 77 33 69 155 60 88 32 165 165 40 16 44 19 123 8 4
split_gain=13.4076 9.98072 11.7584 11.1202 9.86461 9.79729 9.19106 8.2047 7.67494 7.65599 7.20594 6.92057 6.27146 5.78081 7.93026 8.87677 8.85895 5.7424 5.54292 5.26485 5.10427 4.90366 4.7051 5.25749 4.48273 4.31852 4.54191 5.72018 5.19152 4.82564
threshold=22.850000000000005 0.27648414204391442 55.550000000000004 0.30422606920266498 3.2365957061282793 0.1314791500195881 -0.034207270744864619 32.750000000000007 1.0150000000000003 6.3762039494025569 13.260918738658477 0.22433150060580989 13.550000000000002 80.300000000000026 46.225000000000009 0.3805798949095005 25.250000000000004 -1.0629306398718896 25.350000000000005 14.500000000000002 0.18244206620637846 -0.0047589219429420007 0.010655497350260433 3.1998106178190127 7.5000000000000009 0.97233289553061597 6.5000000000000009 8.6156000000000006 1.6372609217524474 4.5313120927740522
decision_type=2 2 2 2 2 2 2 2 2 2 2 2 2 2 2 2 2 2 2 2 2 2 2 2 2 2 2 2 2 2
left_child=1 2 7 5 11 21 19 -1 12 -6 13 -4 -9 14 -8 16 24 -5 -15 -2 -19 -3 23 -10 -16 26 27 -11 -28 -29
right_child=6 3 4 17 9 -7 10 8 22 25 -12 -13 -14 18 15 -17 -18 20 -20 -21 -22 -23 -24 -25 -26 -27 28 29 -30 -31
leaf_value=-0.017718691059511561 0.046146601788256386 0.0097818644861230476 0.020363337262253915 0.0052789276523715857 0.015526309624009055 0.036065195491009214 0.035308706119735772 0.045065232026886393 -0.036833640577006374 -0.030296148771116495 -0.02859949037788553 -0.019444227150775636 0 -0.027825794276167787 -0.037123703696148175 0.020406314243415803 0.026341363439279106 -0.049155587470751001 0.012854237877257632 -0.0011979637384739355 -0.00096674832520667444 -0.029123390590368881 0.024288060743393021 0.0091854764092882749 0.0031849710398271975 0.012543335405916926 0.023095987253254815 0.017964218621474778 -0.01917455794174187 -0.018054087308453936
leaf_weight=10.687298774719237 21.114275649189953 8.9435103982686996 40.320951491594315 5.4588582366704932 15.452491983771322 8.9571441411972028 27.832810491323471 29.574582502245903 7.4605695903301257 77.717470437288284 8.6987717002630216 9.4434686452150327 11.176600888371466 13.681126967072489 18.381788507103927 35.795978993177414 5.9492368251085272 31.896073237061501 10.173905849456785 5.9550682604312888 7.956516981124877 15.41725093126297 6.7109971046447745 7.9625127762556076 7.2055192440748206 6.9582417756319037 9.4608145058155078 10.948758870363237 9.437894478440283 16.87124739587307
leaf_count=43 85 36 162 22 62 36 112 119 30 313 35 38 45 55 74 144 24 129 41 24 32 62 27 32 29 28 38 44 38 68
internal_value=0.000145885 -0.00523517 -0.00045951 -0.0203376 -0.00693235 0.00117807 0.0122128 0.0158604 0.0228201 -0.0134325 0.00572266 0.0112672 0.0345262 0.00948461 0.0149858 0.00437934 -0.0134311 -0.0352 -0.0103888 0.0363887 -0.0412724 -0.0147553 -0.000201366 -0.0154189 -0.0262901 -0.0174658 -0.0197567 -0.0236515 0.00134512 -0.00253987
internal_weight=503.602 348.813 270.184 78.6294 196.611 33.3179 154.788 73.5726 62.8853 146.847 127.719 49.7644 40.7512 119.02 95.1653 67.3325 31.5365 45.3114 23.855 27.0693 39.8526 24.3608 22.1341 15.4231 25.5873 131.394 124.436 105.537 18.8987 27.82
internal_count=2027 1404 1087 317 791 134 623 296 253 591 514 200 164 479 383 271 127 183 96 109 161 98 89 62 103 529 501 425 76 112
is_linear=0
shrinkage=0.05


Tree=9
num_leaves=31
num_cat=0
split_feature=66 111 111 50 56 59 29 120 130 135 120 56 22 166 50 39 139 34 1 50 160 121 40 91 33 17 111 57 33 24
split_gain=12.9353 11.0509 11.0297 10.8835 9.48909 8.07639 8.85249 9.75299 9.69651 8.74664 7.99408 7.59338 7.52083 7.03294 8.31874 7.00637 6.96943 6.5723 8.92909 8.83419 6.19793 8.53609 6.12781 6.13009 5.83245 5.39367 5.37151 5.07413 5.04663 4.79591
threshold=1.0500000000000003 0.048047153986843512 -0.041344581182828764 0.1870138888888889 27.083690804570512 0.31108621741451248 0.084102838868281002 2.4932670101261327 2.525800346976681 0.47678090445738258 1.146878837391031 41.487105556717566 2.3332010582010585 -0.025913681006170575 0.095666666666666678 8.886952512139116 8.0714078472958679 0.086858326338315694 5.9025000000000007 0.096125000000000002 3.8333333333333335 -1.3204113236243258 3.8108374098007327 6.4250000000000016 0.41819535027127658 6.5000000000000009 -0.027681802237627503 0.26331310487757859 0.36144203295769634 5.1879284671967607
decision_type=2 2 2 2 2 2 2 2 2 2 2 2 2 2 2 2 2 2 2 2 2 2 2 2 2 2 2 2 2 2
left_child=1 2 10 5 24 6 8 16 11 17 -1 -4 -6 -2 -15 -3 -8 29 19 -19 21 -11 23 -21 -5 -23 -16 -20 -22 -7
right_child=13 15 3 4 12 9 7 -9 -10 20 -12 -13 -14 14 26 -17 -18 18 27 22 28 25 -24 -25 -26 -27 -28 -29 -30 -31
leaf_value=-0.0058460773468935016 -0.020658840113860596 0.046390398626414919 0.037037579449637745 0.01720033621684736 -0.010803255740799149 -0.018601932456368861 -0.01163314911792975 -0.033436513677398333 -0.019581142319560048 0.010468248353603325 0.035230758922324558 -0.010070443690833861 0.034202113293510424 -0.017944874511902069 0 -0.0028473629527956137 0.028981101513404474 0.015038741882620367 0.028813680751712624 -0.035551540798509487 0.026955840316300363 -0.050386347256600121 0.0052198747297624842 0.0098981456188590097 -0.027726219697999391 0 0.038996321218420983 -0.015550724648158499 -0.022142506699403944 0.019397362290611696
leaf_weight=16.880420371890068 4.9650007784366599 12.915365234017374 29.556219980120659 6.230480536818507 8.7060094028711301 6.4793534725904491 21.362636208534241 25.537554398179054 10.930370151996611 5.2207654714584342 22.873367577791214 7.9600141644477835 32.282695695757866 5.7151167243719092 9.4564630538225156 9.6912215799093229 12.416716009378431 10.689427539706228 12.423146411776544 68.105887547135353 4.9720209538936597 42.272772118449211 10.398752510547636 5.2181067317724219 15.917294993996618 4.9424835592508307 42.843530833721161 5.4708925485610953 5.9543788880109787 24.623839139938354
leaf_count=68 20 52 119 25 35 26 86 103 44 21 92 32 130 23 38 39 50 43 50 275 20 171 42 21 64 20 173 22 24 99
internal_value=0.000171558 -0.00288398 -0.00490674 -0.00764838 0.0104979 -0.0114764 -9.36776e-05 -0.0127959 0.014733 -0.0171484 0.0185255 0.0264456 0.0239641 0.0205298 0.025811 0.0276843 0.00446307 -0.00947566 -0.0150662 -0.0211901 -0.0321853 -0.0387651 -0.0266843 -0.0315725 -0.0133267 -0.0451689 0.0321774 0.0137239 7.82849e-05 0.00930904
internal_weight=503.012 440.032 417.426 377.672 63.1365 314.535 107.764 59.3169 48.4466 206.772 39.7538 37.5162 40.9887 62.9801 58.0151 22.6066 33.7794 143.409 112.306 94.4122 63.3624 52.436 83.7227 73.324 22.1478 47.2153 52.3 17.894 10.9264 31.1032
internal_count=2027 1773 1682 1522 254 1268 434 239 195 834 160 151 165 254 234 91 136 578 453 381 256 212 338 296 89 191 211 72 44 125
is_linear=0
shrinkage=0.05


Tree=10
num_leaves=31
num_cat=0
split_feature=83 130 87 35 93 52 112 131 146 39 88 41 94 140 10 60 35 77 81 23 123 72 25 44 123 152 142 63 51 43
split_gain=12.0095 9.30834 7.42032 8.87863 10.4656 9.43095 7.27426 7.50257 6.95032 7.05504 6.8239 7.5846 6.46184 6.21912 5.99638 8.38613 6.72864 5.85515 5.72323 5.53685 5.50828 9.30081 4.95263 4.85567 6.36299 5.43115 4.88665 6.01436 4.83428 4.79691
threshold=24.550000000000004 1.8537026848981524 0.16485521875496548 0.37454579764147905 0.24630506006552605 8.4772262396289566 -0.19060017821242023 1.7077525530546025 192.35999999999999 9.9994448472970188 1.5000000000000002 77.250000000000014 0.25992125984251974 13.464501607498789 10.94214285714286 20.250000000000004 0.38273906277586106 41.100000000000009 88.950000000000017 6.5022728153208424 8.8366500000000006 0.35150000000000003 5.3833333333333346 0.078456108245891568 7.4912000000000019 9.0150309994448659 25.619777696129304 28.950000000000003 0.4209810957875974 -0.5948001377222607
decision_type=2 2 2 2 2 2 2 2 2 2 2 2 2 2 2 2 2 2 2 2 2 2 2 2 2 2 2 2 2 2
left_child=1 2 6 4 -4 19 12 -8 9 14 22 18 -1 -3 17 -16 -17 -2 -12 -5 23 -22 -9 24 26 -25 -19 -28 -23 -15
right_child=8 13 3 5 -6 -7 7 10 -10 -11 11 -13 -14 29 15 16 -18 20 -20 -21 21 28 -24 25 -26 -27 27 -29 -30 -31
leaf_value=0.032966524642148047 0.036539007822540069 -0.036450588027373491 0.030777262111590251 0.024361396460122909 -0.0268665169476364 -0.040320593139383583 -0.033201096401424643 0.040916562276968188 -0.028019790160100196 -0.031010259681279559 0.017429554401572945 -0.029544511150628873 -0.0081271025826230147 0.012822686916750226 -0.034937115333404038 0.035065697687452692 -0.0059311115054757786 -0.0069786810086093776 -0.020543708798733289 -0.016237274024533756 0.040135700737908619 -0.028035561897979101 -0.0044224934769534407 0.010471256413554611 -0.015682612394327857 -0.024055969604474529 0.032369461020996061 -0.008066633450365665 0.018041654786030138 -0.020435976428946324
leaf_weight=29.826388388872147 26.455356776714325 33.10217809677124 16.414009556174282 8.9532162249088305 7.4519057720899573 29.872545927762985 11.148858308792112 12.425337478518488 7.4031774699687949 4.9480541050434104 30.043686091899872 15.885634005069731 9.6541846096515638 15.108489274978636 10.36716668307781 10.161965087056158 24.086653217673302 11.395892187952994 8.6969174891710264 16.093165054917336 28.206515789031982 6.913157641887663 6.448564037680625 15.390637159347532 12.153156101703642 20.603826269507408 41.191498190164566 8.172382712364195 5.7040439695119858 17.999787196516991
leaf_count=120 107 134 66 36 30 121 45 50 30 20 121 64 39 61 42 41 97 46 35 65 114 28 26 62 49 83 166 33 23 73
internal_value=0.00018329 -0.00690415 -0.00128214 -0.0129395 0.0103764 -0.0235094 0.00613769 -0.0020798 0.00844237 0.0103277 0.0041364 -0.00482414 0.0225719 -0.022483 0.0120309 -0.00358224 0.00851364 0.0161124 0.00695945 0 0.0112776 0.0260104 0.0266967 0.00463622 0.0119429 -0.00920635 0.018621 0.025089 -0.00657729 -0.00491175
internal_weight=502.278 269.125 202.914 78.7848 23.8659 54.9189 124.13 84.649 233.153 225.75 73.5001 54.6262 39.4806 66.2105 220.802 44.6158 34.2486 176.186 38.7406 25.0464 149.731 40.8237 18.8739 108.907 72.9129 35.9945 60.7598 49.3639 12.6172 33.1083
internal_count=2027 1086 818 318 96 222 500 341 941 911 296 220 159 268 891 180 138 711 156 101 604 165 76 439 294 145 245 199 51 134
is_linear=0
shrinkage=0.05


Tree=11
num_leaves=31
num_cat=0
split_feature=62 64 90 15 80 123 29 93 87 66 2 60 31 76 28 23 80 131 34 132 114 16 34 76 1 161 42 132 41 111
split_gain=11.9582 9.10581 7.75852 7.5581 11.3901 8.37697 7.69905 7.44505 8.56241 7.36065 7.94753 8.18466 7.15841 6.98243 6.53606 6.50334 6.02863 5.93423 7.1017 6.59824 5.28156 5.24848 5.12112 5.65497 5.69935 5.0777 4.56985 4.06496 3.98179 3.96963
threshold=16.850000000000005 30.300000000000001 7.7161523245718842 5.5000000000000009 30.850000000000005 9.264300000000004 0.07803440785333586 0.28297284859641053 -0.6398451522901637 0.75000000000000011 0.16819656301362682 11.550000000000002 1.4500000000000002 16.100000000000005 0.23357123381105785 5.3043650793650796 28.450000000000003 2.2619345627432126 0.11098992343595564 190.66316247019873 0.47388335487261429 4.5000000000000009 0.11197651533457502 21.550000000000001 5.097500000000001 10.778829063567253 5.8500000000000005 227.72604317845992 81.050000000000011 0.021639789299743393
decision_type=2 2 2 2 2 2 2 2 2 2 2 2 2 2 2 2 2 2 2 2 2 2 2 2 2 2 2 2 2 2
left_child=1 12 21 7 5 6 25 8 -2 10 11 -4 15 -9 -8 -1 -16 19 -19 -10 -6 -3 23 24 -12 -5 -13 29 -28 -24
right_child=3 2 9 4 20 -7 14 13 17 -11 22 26 -14 -15 16 -17 -18 18 -20 -21 -22 -23 27 -25 -26 -27 28 -29 -30 -31
leaf_value=0.0048810714038120748 -0.022810867348695592 0.032776463561824336 -0.025839186034375145 -0.034087987528456695 0.040893788804614049 0.028345229475649176 0.028809266480561303 -0.030561971821156549 -0.0035853904142468564 0.023584132610330075 -0.0058561466663032968 -0.0060771755528843015 0.008547181134210333 0.013360803452288742 0.016187873086219974 -0.039426770874364248 -0.020436909986737046 0.0190045149479433 -0.027746138131769821 0.036100415320423108 0.0065586880955330164 -0.0035079599447666119 -0.025062574408335349 0.0096440016821270971 -0.046306809910852238 0.0018516187447292457 0.042435149688032164 0.019421279313792603 -0.0018539053109553894 0.012987905906696599
leaf_weight=7.6876396536827079 15.106029853224753 18.385977298021317 8.6726834923028928 20.537396281957626 37.516550004482269 21.065536454319954 17.832970559597015 28.949495851993561 12.377706333994864 11.64054700732231 15.837070330977438 8.4066378772258776 10.172133713960646 8.1810172051191312 14.622121274471281 40.710706785321236 20.788735255599022 10.656871840357782 11.636969447135924 28.920665681362152 20.798047304153442 13.883876532316206 16.267134770751007 5.2177745103836051 29.650530278682709 13.144143298268316 13.883881896734239 8.6725361049175245 4.9637483507394782 5.4366057962179175
leaf_count=31 61 74 35 83 152 85 72 117 50 47 64 34 41 33 59 165 84 43 47 117 84 56 66 21 120 53 56 35 20 22
internal_value=0.000111544 -0.00848484 -0.00192347 0.00691756 0.01362 0.0033216 -0.00368258 -0.00266416 0.00584896 -0.00762748 -0.0117767 0.00667294 -0.0245494 -0.0198539 0.00769866 -0.0321226 -0.00456317 0.014188 -0.00509494 0.0245634 0.0305279 0.0181183 -0.0201548 -0.0292259 -0.0346933 -0.0209899 0.0201956 -0.00231571 0.0317796 -0.0139478
internal_weight=501.624 219.489 160.919 282.134 166.306 107.991 86.9254 115.829 78.6982 128.649 117.009 35.927 58.5705 37.1305 53.2438 48.3983 35.4109 63.5922 22.2938 41.2984 58.3146 32.2699 81.0817 50.7054 45.4876 33.6815 27.2543 30.3763 18.8476 21.7037
internal_count=2027 887 650 1140 672 436 351 468 318 520 473 145 237 150 215 196 143 257 90 167 236 130 328 205 184 136 110 123 76 88
is_linear=0
shrinkage=0.05


Tree=12
num_leaves=31
num_cat=0
split_feature=61 164 83 134 22 83 56 22 131 103 7 41 22 34 30 58 85 44 41 64 25 148 50 4 55 68 119 2 1 29
split_gain=10.9102 8.3602 7.78766 9.29939 11.1013 10.2278 8.29823 7.7879 7.68907 6.84341 6.54292 5.80042 5.7027 5.95206 5.67012 5.71482 5.50951 5.49653 5.44928 5.34574 7.39725 6.61066 5.31707 5.31626 5.29738 5.24024 5.23325 4.92458 6.38462 5.85499
threshold=26.900000000000002 0.014620782737039264 28.950000000000003 58.897892205304792 7.0610747751772704 20.150000000000002 28.041349095358797 4.9319803424248709 2.1384282390121419 5.0000000000000009 0.097122957730174694 71.050000000000011 4.0489245510586978 0.10791289605500599 0.24233958701524641 0.42338212387028179 0.49564030631586936 -0.7933231318270072 85.050000000000011 26.650000000000002 3.4806278393242995 8.9280976035055009 0.14016835016835019 7.5843304373327483 40.027395705521478 30.250000000000004 -0.22890443305236194 0.15471076114285817 5.3336666666666668 0.092090295373901301
decision_type=2 2 2 2 2 2 2 2 2 2 2 2 2 2 2 2 2 2 2 2 2 2 2 2 2 2 2 2 2 2
left_child=2 18 3 4 5 27 11 10 -4 16 12 17 13 25 -13 -16 24 -5 -2 -9 21 -21 -6 26 -7 -8 -22 28 -1 -29
right_child=1 -3 8 6 22 9 7 19 -10 -11 -12 14 -14 -15 15 -17 -18 -19 -20 20 23 -23 -24 -25 -26 -27 -28 29 -30 -31
leaf_value=-0.020099702969415947 0.027841906709020859 -0.0077689286124351751 0.030585193151464074 0 -0.042207722021907673 0.04394713498197575 -0.026056753752010466 -0.018735744685303795 -0.007369543450899481 -0.0086523834623177445 -0.032904802982043721 0.014706582901461191 -0.026217591158505929 0.021334232831185768 0.0077779061097258302 -0.042731560065194921 -0.0024777311873921564 -0.041090423115549328 -0.011381044875339445 0.015118685277611028 0 -0.029547721614144817 0 -0.0063903959932568605 0.0012553551366377711 0.014988448445463277 0.047538773128599943 -0.044733757700591681 0.026818144494628146 0.0064307616766851421
leaf_weight=7.6809319704771069 64.151346772909164 25.701961025595665 26.135229974985123 8.645869240164755 10.819020897150041 36.991976007819176 15.276082932949068 10.36267441511154 19.051197171211243 10.869500234723089 26.386598214507103 14.126055255532266 15.301066413521765 22.771081835031509 6.1887640953063956 8.3224023878574354 9.165026590228079 41.473798751831055 6.429619535803794 12.374754115939142 7.1762068420648601 10.615509957075117 13.615591958165167 6.3965912312269202 10.632783591747282 7.674183025956153 19.58345627784729 9.1593185514211637 11.662218034267424 6.1730303764343253
leaf_count=31 260 104 106 35 44 149 62 42 77 44 107 57 62 92 25 34 37 168 26 50 29 43 55 26 43 31 79 37 47 25
internal_value=0.000136678 0.0148762 -0.00344836 -0.00600252 0.00463737 0.0120936 -0.0118803 -0.0046177 0.0149449 0.0229516 -0.0141859 -0.0246525 -0.00383404 0.00500996 -0.00448857 -0.0234359 0.0296158 -0.0342678 0.0234216 0.00772022 0.0141447 -0.00620642 -0.0224906 0.0278753 0.0359156 -0.0112114 0.0365698 -0.008685 0.00685888 -0.0263889
internal_weight=500.914 96.2829 404.631 359.444 126.769 102.335 232.675 153.918 45.1864 67.6593 87.409 78.7569 61.0224 45.7213 28.6372 14.5112 56.7898 50.1197 70.581 66.5092 56.1465 22.9903 24.4346 33.1563 47.6248 22.9503 26.7597 34.6755 19.3432 15.3323
internal_count=2027 390 1637 1454 512 413 942 623 183 273 354 319 247 185 116 59 229 203 286 269 227 93 99 134 192 93 108 140 78 62
is_linear=0
shrinkage=0.05


Tree=13
num_leaves=31
num_cat=0
split_feature=66 111 111 50 161 1 55 39 50 163 131 115 59 68 93 30 77 11 162 38 43 13 162 114 110 8 82 10 121 27
split_gain=10.3522 10.0046 9.84104 9.04954 7.4691 6.63548 6.32747 6.1933 6.16426 6.30719 6.41766 5.95255 5.63894 7.04725 7.12836 6.49912 6.60659 6.24743 6.88259 5.50346 5.31502 5.10296 4.98783 4.94781 4.37683 4.66178 4.34052 5.26109 4.77513 4.32834
threshold=1.0500000000000003 0.048047153986843512 -0.045799438897816215 0.1870138888888889 -38.448228094837923 5.408500000000001 24.83229909538532 8.886952512139116 0.10476851851851852 -0.047033000918292329 2.6098826243890314 -1.2815088523258942 0.31108621741451248 30.350000000000005 0.27425869638635603 0.23852662401193819 46.225000000000009 5.6227322556680184 -0.11331870795773359 0.93950000000000011 -0.66259481767468265 3.3361000645797225 -15.954989406281536 0.32076713889235769 0.072482825263506009 1.040277304435872 56.050000000000004 7.118049872797747 -0.44845906397125918 0.2422175953642472
decision_type=2 2 2 2 2 2 2 2 2 2 2 2 2 2 2 2 2 2 2 2 2 2 2 2 2 2 2 2 2 2
left_child=1 2 5 11 -5 20 -6 -3 -2 -10 -11 -4 17 14 22 16 -15 18 29 -20 -1 -8 -14 -16 -21 -26 27 -24 -29 -13
right_child=8 7 3 4 6 -7 21 -9 9 10 -12 12 13 15 23 -17 -18 -19 19 24 -22 -23 26 -25 25 -27 -28 28 -30 -31
leaf_value=0.024237745834738093 -0.011886922240944821 0.044096077027166031 0.023523598603724768 -0.025156180451488472 -0.0049908767044042415 0.042060872883682994 -0.0019201368849734056 -0.0022923811415269759 -0.0068221879982504011 0.039231957588025279 -0.0097350506986019752 0.035595933732940621 0.01781504384736806 -0.014574519890684751 -0.049733851455989402 -0.017927016574388763 0.033675813672113843 -0.028915159956816722 -0.028818738428430347 0.010725592728054864 -0.023166728696386491 0.036930130258193875 0.029050542488340408 -0.00073774613805131046 -0.037727346376990399 0.0092533412592059588 -0.021528630816304437 0.01383301993026673 -0.024554370426875929 0
leaf_weight=5.4518231004476538 9.9015076309442502 12.829512491822245 7.6593409776687613 7.9258421957492819 19.075783774256706 13.09348553419113 9.1401395350694639 9.6551142334938032 9.6552297919988614 38.025472357869148 4.9515137970447531 15.816776037216188 6.6820595562458029 6.4317653179168728 25.274871334433556 16.561109483242035 15.834940940141676 13.07871291041374 14.326491102576254 38.321761325001717 8.4225163906812686 27.901160806417465 6.2052713036537197 7.6592727750539771 6.90478867292404 5.4409824162721634 98.812423780560493 7.9473768919706407 16.821477070450779 14.343737840652464
leaf_count=22 40 52 31 32 77 53 37 39 39 155 20 64 27 26 104 67 64 53 58 155 34 113 25 31 28 22 401 32 68 58
internal_value=6.48976e-05 -0.00266866 -0.00460285 -0.00677122 0.0096689 0.0220034 0.0166522 0.0264736 0.0183461 0.0250054 0.0326426 -0.0101931 -0.0114401 -0.0161775 -0.0204873 0.00224731 0.0187049 -0.00179304 0.00294262 -0.00599816 -0.00172865 0.0276607 -0.0141941 -0.0405973 0.00201427 -0.018882 -0.0166273 0 -0.0111429 0.0210336
internal_weight=500.152 437.619 415.134 388.166 64.0429 26.9678 56.1171 22.4846 62.5337 52.6322 42.977 324.123 316.464 208.231 169.403 38.8278 22.2667 108.233 95.1545 64.994 13.8743 37.0413 136.469 32.9341 50.6675 12.3458 129.787 30.9741 24.7689 30.1605
internal_count=2027 1773 1682 1573 259 109 227 91 254 214 175 1314 1283 845 688 157 90 438 385 263 56 150 553 135 205 50 526 125 100 122
is_linear=0
shrinkage=0.05


end of trees

feature_importances:
opp_lineup_iso_avg_10=16
opp_team_k_trend_5v10=13
era_away_10=11
sc_sp_disc_whiff_pct=10
opp_lineup_k_pct_std=9
temperature_f=8
sc_sp_fb_whiff_pct=8
opp_lineup_k_pct_cv=7
venue_k9=7
sp_k_pct_vs_rhb_25=7
ip_avg_5=6
opp_bb_pct_avg_10=6
opp_slg_avg_10=6
sc_fb_pct=6
sp_fb_velo_trend_5=6
ump_k9_x_opp_k_pct=6
sp_k_split_trend_lhb=6
k_pct_5=5
fip_5=5
k9_home_10=5
ump_k9_avg_10=5
wind_speed_mph=5
wind_cos=5
sc_xwoba=5
sc_sp_fb_put_away=5
sc_sp_sl_run_value_per_100=5
sc_sp_ch_whiff_pct=5
sc_sp_oz_swing_pct=5
venue_n_starts=5
sp_vs_team_k9_delta=5
wind_x_park_hr=5
ump_k9_x_sp_k_pct=5
ump_k9_x_sp_whiff_pct=5
sc_barrel_x_park_hr=5
sp_k_split_advantage=5
k_pct_10=4
last_start_k=4
opp_lineup_pct_lhb=4
sc_sp_fb_k_pct=4
sc_sp_si_hard_hit_pct=4
sc_sp_fastball_family_pct=4
sc_sp_oz_contact_pct=4
sp_fb_velo_avg_5=4
era_trend_5v10=4
ump_k9_x_sp_opp_k_triple=4
venue_k9_adj=4
lineup_lhb_pct_x_sp_lhb_adv=4
era_5=3
bb_pct_5=3
hr9_5=3
starts_in_window_10=3
fip_home_10=3
ump_bb9_avg_10=3
opp_top4_slg_avg_10=3
sc_avg_exit_velo=3
sc_gb_pct=3
sc_xba=3
sc_sp_ch_k_pct=3
sc_sp_fb_pct=3
sp_k_pct_vs_lhb_10=3
sp_k_pct_vs_rhb_10=3
sp_vs_team_era_delta=3
framing_x_ump_k9=3
sp_k_split_trend_rhb=3
k9_10=2
whip_10=2
last_start_ip=2
opp_k_pct_avg_10=2
opp_avg_avg_10=2
opp_iso_avg_10=2
park_hr_factor=2
wind_sin=2
sc_hard_hit_pct=2
sc_xslg=2
sc_sp_sl_whiff_pct=2
sc_sp_sl_k_pct=2
sc_sp_si_whiff_pct=2
sc_sp_si_k_pct=2
sc_sp_pitch_diversity=2
catcher_framing_rate=2
market_k_line=2
book_line=2
sc_xslg_x_park=2
k9_trend_5v10=2
fip_trend_5v10=2
sp_vs_team_k9_adj=2
contact_vs_ump_zone=2
ump_k9_x_sp_k9_5=2
market_k_line_filled=2
framing_hand_benefit=2
venue_k9_delta=2
venue_era_delta=2
last_start_k9=2
framing_x_sp_edge_work=2
k9_5=1
whip_5=1
era_10=1
fip_10=1
starts_in_window_5=1
sp_days_since_last_start=1
era_home_10=1
k9_away_10=1
opp_k_pct_avg_5=1
opp_hr_avg_10=1
park_run_factor=1
precip_prob_pct=1
market_total=1
sc_barrel_rate=1
sc_sp_sl_pct=1
sc_sp_fb_xwoba=1
sc_sp_iz_contact_pct=1
venue_era=1
venue_fip=1
svt_era=1
svt_k9=1
svt_k_pct=1
svt_era_last3=1
svt_k9_last3=1
sp_k_pct_vs_opp_k_rate=1
sp_vs_team_reliability=1
sp_vs_team_era_adj=1
sc_hard_hit_x_fb=1
sc_barrel_vs_k_rate=1
cold_x_sp_sl_pct=1
k9_shrunk=1
sp_k_pct_x_opp_cv=1
last_start_k_bb=1

parameters:
[boosting: gbdt]
[objective: binary]
[metric: binary_logloss]
[tree_learner: serial]
[device_type: cpu]
[data_sample_strategy: bagging]
[data: ]
[valid: ]
[num_iterations: 14]
[learning_rate: 0.05]
[num_leaves: 31]
[num_threads: 4]
[seed: 42]
[deterministic: 0]
[force_col_wise: 0]
[force_row_wise: 0]
[histogram_pool_size: -1]
[max_depth: -1]
[min_data_in_leaf: 20]
[min_sum_hessian_in_leaf: 0.001]
[bagging_fraction: 0.8]
[pos_bagging_fraction: 1]
[neg_bagging_fraction: 1]
[bagging_freq: 0]
[bagging_seed: 400]
[bagging_by_query: 0]
[feature_fraction: 0.8]
[feature_fraction_bynode: 1]
[feature_fraction_seed: 30056]
[extra_trees: 0]
[extra_seed: 12879]
[early_stopping_round: 0]
[early_stopping_min_delta: 0]
[first_metric_only: 0]
[max_delta_step: 0]
[lambda_l1: 0.5]
[lambda_l2: 5]
[linear_lambda: 0]
[min_gain_to_split: 0]
[drop_rate: 0.1]
[max_drop: 50]
[skip_drop: 0.5]
[xgboost_dart_mode: 0]
[uniform_drop: 0]
[drop_seed: 17869]
[top_rate: 0.2]
[other_rate: 0.1]
[min_data_per_group: 100]
[max_cat_threshold: 32]
[cat_l2: 10]
[cat_smooth: 10]
[max_cat_to_onehot: 4]
[top_k: 20]
[monotone_constraints: ]
[monotone_constraints_method: basic]
[monotone_penalty: 0]
[feature_contri: ]
[forcedsplits_filename: ]
[refit_decay_rate: 0.9]
[cegb_tradeoff: 1]
[cegb_penalty_split: 0]
[cegb_penalty_feature_lazy: ]
[cegb_penalty_feature_coupled: ]
[path_smooth: 0]
[interaction_constraints: ]
[verbosity: -1]
[saved_feature_importance_type: 0]
[use_quantized_grad: 0]
[num_grad_quant_bins: 4]
[quant_train_renew_leaf: 0]
[stochastic_rounding: 1]
[linear_tree: 0]
[max_bin: 255]
[max_bin_by_feature: ]
[min_data_in_bin: 3]
[bin_construct_sample_cnt: 200000]
[data_random_seed: 175]
[is_enable_sparse: 1]
[enable_bundle: 1]
[use_missing: 1]
[zero_as_missing: 0]
[feature_pre_filter: 1]
[pre_partition: 0]
[two_round: 0]
[header: 0]
[label_column: ]
[weight_column: ]
[group_column: ]
[ignore_column: ]
[categorical_feature: ]
[forcedbins_filename: ]
[precise_float_parser: 0]
[parser_config_file: ]
[objective_seed: 16083]
[num_class: 1]
[is_unbalance: 0]
[scale_pos_weight: 1]
[sigmoid: 1]
[boost_from_average: 1]
[reg_sqrt: 0]
[alpha: 0.9]
[fair_c: 1]
[poisson_max_delta_step: 0.7]
[tweedie_variance_power: 1.5]
[lambdarank_truncation_level: 30]
[lambdarank_norm: 1]
[label_gain: ]
[lambdarank_position_bias_regularization: 0]
[eval_at: ]
[multi_error_top_k: 1]
[auc_mu_weights: ]
[num_machines: 1]
[local_listen_port: 12400]
[time_out: 120]
[machine_list_filename: ]
[machines: ]
[gpu_platform_id: -1]
[gpu_device_id: -1]
[gpu_use_dp: 0]
[num_gpu: 1]

end of parameters

pandas_categorical:[]
