{"learner":{"attributes":{"scikit_learn":"{\"_estimator_type\": \"regressor\"}"},"feature_names":[],"feature_types":[],"gradient_booster":{"model":{"cats":{"enc":[],"feature_segments":[],"sorted_idx":[]},"gbtree_model_param":{"num_parallel_tree":"1","num_trees":"4"},"iteration_indptr":[0,1,2,3,4],"tree_info":[0,0,0,0],"trees":[{"base_weights":[-1.5088495E-2,2.6212958E-1,-1.6028334E-1,4.0270787E-2,1.4056645E-1,-4.5351177E-2,-5.691981E-1,-2.6553083E-2,2.56164E-1,-4.7489622E-1,4.5716327E-2,-8.6655664E-1,-0E0,1.922121E-2,-1.7365204E-2,1.8289393E-3,-3.4992885E-2,-1.7467026E-2,7.224119E-3,-5.78376E-2,-8.136701E-3,-1.3826216E-2,1.3401801E-2],"categories":[],"categories_nodes":[],"categories_segments":[],"categories_sizes":[],"default_left":[0,0,0,0,0,0,0,0,0,0,0,0,0,0,0,0,0,0,0,0,0,0,0],"id":0,"left_children":[1,3,5,-1,7,9,11,-1,13,15,17,19,21,-1,-1,-1,-1,-1,-1,-1,-1,-1,-1],"loss_changes":[1.7401917E1,8.732818E0,1.2977848E1,0E0,1.0458482E1,9.288466E0,1.0190458E1,0E0,9.430155E0,5.2335787E0,7.668706E0,6.5669384E0,2.3174772E0,0E0,0E0,0E0,0E0,0E0,0E0,0E0,0E0,0E0,0E0],"parents":[2147483647,0,0,1,1,2,2,4,4,5,5,6,6,8,8,9,9,10,10,11,11,12,12],"right_children":[2,4,6,-1,8,10,12,-1,14,16,18,20,22,-1,-1,-1,-1,-1,-1,-1,-1,-1,-1],"split_conditions":[8.23E1,8.898769E0,2.7602905E-1,4.0270787E-2,3.2816687E-1,4.4E0,1.5666667E-1,-2.6553083E-2,4.249372E-1,-6.156615E-1,-5E-1,2.9677418E-1,3.4588985E1,1.922121E-2,-1.7365204E-2,1.8289393E-3,-3.4992885E-2,-1.7467026E-2,7.224119E-3,-5.78376E-2,-8.136701E-3,-1.3826216E-2,1.3401801E-2],"split_indices":[81,90,93,0,33,42,50,0,58,44,66,93,55,0,0,0,0,0,0,0,0,0,0],"split_type":[0,0,0,0,0,0,0,0,0,0,0,0,0,0,0,0,0,0,0,0,0,0,0],"sum_hessian":[4.233849E2,1.4296114E2,2.8042377E2,2.0244495E1,1.2271664E2,2.2418906E2,5.623471E1,1.4745991E1,1.0797064E2,3.6490078E1,1.8769897E2,3.4990486E1,2.1244225E1,9.12252E1,1.6745447E1,1.1746806E1,2.4743273E1,3.399076E1,1.537082E2,2.199402E1,1.2996467E1,1.0747078E1,1.0497147E1],"tree_param":{"num_deleted":"0","num_feature":"167","num_nodes":"23","size_leaf_vector":"1"}},{"base_weights":[-1.742389E-2,-1.3233934E-1,4.0157732E-1,-2.997693E-1,1.2186158E-1,-8.5109726E-2,5.631432E-1,-1.7914619E-1,-7.179091E-1,-4.497834E-2,5.9664196E-1,-2.082464E-2,1.1065344E-2,-5.9509445E-3,7.076778E-1,-1.792968E-2,4.5598852E-3,-3.9191425E-4,-4.6642777E-2,7.719221E-3,-2.099624E-2,4.4830557E-2,-4.3713977E-3,5.3046546E-3,4.3091156E-2],"categories":[],"categories_nodes":[],"categories_segments":[],"categories_sizes":[],"default_left":[0,0,0,0,0,0,0,0,0,0,0,0,0,0,0,0,0,0,0,0,0,0,0,0,0],"id":1,"left_children":[1,3,5,7,9,11,13,15,17,19,21,-1,-1,-1,23,-1,-1,-1,-1,-1,-1,-1,-1,-1,-1],"loss_changes":[2.0634827E1,1.469452E1,7.7092886E0,9.345915E0,1.125715E1,3.2483366E0,7.6630135E0,8.456968E0,6.169157E0,8.320657E0,8.33507E0,0E0,0E0,0E0,4.573595E0,0E0,0E0,0E0,0E0,0E0,0E0,0E0,0E0,0E0,0E0],"parents":[2147483647,0,0,1,1,2,2,3,3,4,4,5,5,6,6,7,7,8,8,9,9,10,10,14,14],"right_children":[2,4,6,8,10,12,14,16,18,20,22,-1,-1,-1,24,-1,-1,-1,-1,-1,-1,-1,-1,-1,-1],"split_conditions":[2.49E1,2.43E1,1.1979798E-1,2.6960784E-1,4.2404484E1,2.4001055E0,1.3E1,2.87E1,-3.835104E-2,1.90809E-1,9.174094E-3,-2.082464E-2,1.1065344E-2,-5.9509445E-3,-6.718755E-3,-1.792968E-2,4.5598852E-3,-3.9191425E-4,-4.6642777E-2,7.719221E-3,-2.099624E-2,4.4830557E-2,-4.3713977E-3,5.3046546E-3,4.3091156E-2],"split_indices":[60,83,50,93,53,21,67,80,128,44,166,0,0,0,113,0,0,0,0,0,0,0,0,0,0],"split_type":[0,0,0,0,0,0,0,0,0,0,0,0,0,0,0,0,0,0,0,0,0,0,0,0,0],"sum_hessian":[4.2083273E2,3.3387744E2,8.6955284E1,2.0193993E2,1.3193752E2,2.1490509E1,6.5464775E1,1.6319896E2,3.874097E1,1.00200005E2,3.1737514E1,1.0245645E1,1.1244865E1,1.09949665E1,5.4469803E1,9.82202E1,6.497876E1,1.0746997E1,2.7993973E1,6.646671E1,3.3733288E1,2.149099E1,1.0246525E1,1.3493519E1,4.0976284E1],"tree_param":{"num_deleted":"0","num_feature":"167","num_nodes":"25","size_leaf_vector":"1"}},{"base_weights":[-2.0421539E-2,-1.987128E-1,2.364476E-1,2.2947175E-2,-2.6652408E-1,-3.030473E-1,3.4287882E-1,-9.228777E-2,-5.0577104E-1,5.570279E-3,-3.5937417E-2,4.941619E-1,-3.0565253E-1,-2.9021068E-2,1.3250764E-4,-3.4679722E-2,-7.7398727E-3,2.9111935E-2,-8.662941E-3,6.471322E-3,-3.0494085E-2],"categories":[],"categories_nodes":[],"categories_segments":[],"categories_sizes":[],"default_left":[0,0,0,0,0,0,0,0,0,0,0,0,0,0,0,0,0,0,0,0,0],"id":2,"left_children":[1,3,5,-1,7,9,11,13,15,-1,-1,17,19,-1,-1,-1,-1,-1,-1,-1,-1],"loss_changes":[1.9497215E1,1.1770719E1,1.0508986E1,0E0,9.165432E0,5.956971E0,1.5383566E1,6.8742085E0,5.3480988E0,0E0,0E0,7.919012E0,4.669888E0,0E0,0E0,0E0,0E0,0E0,0E0,0E0,0E0],"parents":[2147483647,0,0,1,1,2,2,4,4,5,5,6,6,7,7,8,8,11,11,12,12],"right_children":[2,4,6,-1,8,10,12,14,16,-1,-1,18,20,-1,-1,-1,-1,-1,-1,-1,-1],"split_conditions":[2.94E1,6.3492064E0,-1E-1,2.2947175E-2,5.374768E-4,2.1797366E-1,5.9249797E0,1.8947369E0,1.77E1,5.570279E-3,-3.5937417E-2,6.5E0,-9.827107E-2,-2.9021068E-2,1.3250764E-4,-3.4679722E-2,-7.7398727E-3,2.9111935E-2,-8.662941E-3,6.471322E-3,-3.0494085E-2],"split_indices":[80,90,66,0,164,9,4,97,62,0,0,1,87,0,0,0,0,0,0,0,0],"split_type":[0,0,0,0,0,0,0,0,0,0,0,0,0,0,0,0,0,0,0,0,0],"sum_hessian":[4.1600873E2,2.4738141E2,1.6862733E2,1.9738432E1,2.2764297E2,2.5489187E1,1.4313814E2,1.3693556E2,9.0707405E1,1.3994223E1,1.1494966E1,1.1765407E2,2.5484077E1,1.8990746E1,1.1794482E2,5.4979534E1,3.5727875E1,1.0516338E2,1.2490685E1,1.0992728E1,1.4491348E1],"tree_param":{"num_deleted":"0","num_feature":"167","num_nodes":"21","size_leaf_vector":"1"}},{"base_weights":[-5.2473387E-3,-9.062634E-2,4.2603645E-1,-1.8783726E-1,1.6678615E-1,-1.6877118E-2,6.2509406E-1,-3.6983714E-2,-5.219447E-1,-8.334058E-2,4.7482625E-1,-3.2909827E-3,8.3847743E-1,2.8123511E-2,-5.6055584E-3,-3.541886E-2,7.418997E-3,-2.2894459E-2,8.574332E-3,-0E0,3.216015E-2,5.582728E-2,1.1407293E-2],"categories":[],"categories_nodes":[],"categories_segments":[],"categories_sizes":[],"default_left":[0,0,0,0,0,0,0,0,0,0,0,0,0,0,0,0,0,0,0,0,0,0,0],"id":3,"left_children":[1,3,5,7,9,-1,11,13,15,17,19,-1,21,-1,-1,-1,-1,-1,-1,-1,-1,-1,-1],"loss_changes":[1.5956823E1,9.331936E0,1.2052185E1,1.3212858E1,8.224586E0,0E0,9.347782E0,8.744062E0,1.1109886E1,6.2098837E0,3.5112753E0,0E0,5.848652E0,0E0,0E0,0E0,0E0,0E0,0E0,0E0,0E0,0E0,0E0],"parents":[2147483647,0,0,1,1,2,2,3,3,4,4,6,6,7,7,8,8,9,9,10,10,12,12],"right_children":[2,4,6,8,10,-1,12,14,16,18,20,-1,22,-1,-1,-1,-1,-1,-1,-1,-1,-1,-1],"split_conditions":[2.4996289E2,2.25E1,-1E-1,5.5E0,2.1356018E-1,-1.6877118E-2,9E-1,2.2222222E-1,4.69E1,3.795228E0,5E0,-3.2909827E-3,1.02E1,2.8123511E-2,-5.6055584E-3,-3.541886E-2,7.418997E-3,-2.2894459E-2,8.574332E-3,-0E0,3.216015E-2,5.582728E-2,1.1407293E-2],"split_indices":[132,60,66,103,122,0,31,36,77,13,14,0,98,0,0,0,0,0,0,0,0,0,0],"split_type":[0,0,0,0,0,0,0,0,0,0,0,0,0,0,0,0,0,0,0,0,0,0,0],"sum_hessian":[4.2765515E2,3.612492E2,6.6405945E1,2.646129E2,9.66363E1,1.2492968E1,5.391298E1,1.8715855E2,7.745435E1,5.444851E1,4.2187786E1,1.2984616E1,4.0928364E1,1.6490274E1,1.7066829E2,6.0961617E1,1.6492737E1,2.122683E1,3.322168E1,1.2984533E1,2.9203255E1,2.4706E1,1.6222364E1],"tree_param":{"num_deleted":"0","num_feature":"167","num_nodes":"23","size_leaf_vector":"1"}}]},"name":"gbtree"},"learner_model_param":{"base_score":"[5.08243E-1]","boost_from_average":"1","num_class":"0","num_feature":"167","num_target":"1"},"objective":{"name":"binary:logistic","reg_loss_param":{"scale_pos_weight":"1"}}},"version":[3,1,3]}