{"learner":{"attributes":{"scikit_learn":"{\"_estimator_type\": \"regressor\"}"},"feature_names":[],"feature_types":[],"gradient_booster":{"model":{"cats":{"enc":[],"feature_segments":[],"sorted_idx":[]},"gbtree_model_param":{"num_parallel_tree":"1","num_trees":"7"},"iteration_indptr":[0,1,2,3,4,5,6,7],"tree_info":[0,0,0,0,0,0,0],"trees":[{"base_weights":[-1.3052533E-2,-9.267463E-2,3.7723204E-1,-1.7164132E-1,2.2145866E-1,5.5089974E-1,-1.0435802E-2,-2.4674546E-2,-4.6059057E-1,4.960569E-1,-1.0571351E-1,2.488611E-3,7.889212E-1,-6.1587514E-3,2.0483363E-2,8.85072E-3,-2.8345276E-2,-0E0,3.6100674E-2,1.7779417E-2,-2.1880448E-2,1.8169543E-2,5.7137754E-2],"categories":[],"categories_nodes":[],"categories_segments":[],"categories_sizes":[],"default_left":[0,0,0,0,0,0,0,0,0,0,0,0,0,0,0,0,0,0,0,0,0,0,0],"id":0,"left_children":[1,3,5,7,9,11,-1,13,15,17,19,-1,21,-1,-1,-1,-1,-1,-1,-1,-1,-1,-1],"loss_changes":[1.2104103E1,8.294558E0,7.4361343E0,1.0995404E1,6.4537125E0,5.6757393E0,0E0,7.9268875E0,6.6783466E0,4.072546E0,5.985885E0,0E0,2.402359E0,0E0,0E0,0E0,0E0,0E0,0E0,0E0,0E0,0E0,0E0],"parents":[2147483647,0,0,1,1,2,2,3,3,4,4,5,5,7,7,8,8,9,9,10,10,12,12],"right_children":[2,4,6,8,10,12,-1,14,16,18,20,-1,22,-1,-1,-1,-1,-1,-1,-1,-1,-1,-1],"split_conditions":[2.48744E2,2.37E1,1.0354615E-1,5.5E0,4E-1,1.3248648E-1,-1.0435802E-2,2.128371E2,9.256271E0,2.3857012E-1,2.3985599E-1,2.488611E-3,7.24E1,-6.1587514E-3,2.0483363E-2,8.85072E-3,-2.8345276E-2,-0E0,3.6100674E-2,1.7779417E-2,-2.1880448E-2,1.8169543E-2,5.7137754E-2],"split_indices":[103,59,28,85,72,31,0,103,108,27,27,0,39,0,0,0,0,0,0,0,0,0,0],"split_type":[0,0,0,0,0,0,0,0,0,0,0,0,0,0,0,0,0,0,0,0,0,0,0],"sum_hessian":[3.8346265E2,3.2271857E2,6.0744083E1,2.6097458E2,6.1743984E1,4.774535E1,1.29987335E1,1.7773268E2,8.324189E1,3.2996784E1,2.87472E1,1.7998247E1,2.9747103E1,1.4873552E2,2.8997175E1,1.0748953E1,7.2492935E1,1.2248807E1,2.0747978E1,1.1248904E1,1.7498295E1,1.8748175E1,1.0998929E1],"tree_param":{"num_deleted":"0","num_feature":"116","num_nodes":"23","size_leaf_vector":"1"}},{"base_weights":[-4.7861612E-3,-1.5082951E-1,2.531301E-1,1.9632494E-1,-2.9296562E-1,3.7133658E-1,-2.8398174E-1,6.950092E-1,-7.2790414E-2,-3.5675827E-1,2.3753747E-2,1.9588165E-2,6.1288226E-1,4.15839E-3,-3.0255822E-2,2.6256924E-3,5.309161E-2,2.1498708E-2,-1.4294316E-2,-2.4428008E-2,1.9665987E-3,2.8829286E-2,-8.858098E-3,2.684512E-3,3.935797E-2],"categories":[],"categories_nodes":[],"categories_segments":[],"categories_sizes":[],"default_left":[0,0,0,0,0,0,0,0,0,0,0,0,0,0,0,0,0,0,0,0,0,0,0,0,0],"id":1,"left_children":[1,3,5,7,9,11,13,15,17,19,-1,21,23,-1,-1,-1,-1,-1,-1,-1,-1,-1,-1,-1,-1],"loss_changes":[1.4761305E1,1.278086E1,9.520995E0,1.0661285E1,9.704162E0,9.689308E0,3.754748E0,5.6444197E0,6.1931725E0,9.272646E0,0E0,6.6545763E0,6.114996E0,0E0,0E0,0E0,0E0,0E0,0E0,0E0,0E0,0E0,0E0,0E0,0E0],"parents":[2147483647,0,0,1,1,2,2,3,3,4,4,5,5,6,6,7,7,8,8,9,9,11,11,12,12],"right_children":[2,4,6,8,10,12,14,16,18,20,-1,22,24,-1,-1,-1,-1,-1,-1,-1,-1,-1,-1,-1,-1],"split_conditions":[2.97E1,3.6621487E-1,6.25E1,5.085E0,5.626551E-1,4.22831E-1,-5.8778524E-1,1E0,6.413133E0,8.6426E0,2.3753747E-2,-8.09017E-1,2.112617E2,4.15839E-3,-3.0255822E-2,2.6256924E-3,5.309161E-2,2.1498708E-2,-1.4294316E-2,-2.4428008E-2,1.9665987E-3,2.8829286E-2,-8.858098E-3,2.684512E-3,3.935797E-2],"split_indices":[79,34,81,1,50,50,41,0,3,95,0,42,103,0,0,0,0,0,0,0,0,0,0,0,0],"split_type":[0,0,0,0,0,0,0,0,0,0,0,0,0,0,0,0,0,0,0,0,0,0,0,0,0],"sum_hessian":[3.8317996E2,2.472123E2,1.3596768E2,7.023812E1,1.7697417E2,1.1346963E2,2.2498053E1,2.249635E1,4.774177E1,1.6647539E2,1.0498786E1,4.923994E1,6.422969E1,1.1499231E1,1.0998821E1,1.0748703E1,1.1747646E1,1.1998406E1,3.5743366E1,1.2498183E2,4.1493557E1,1.0996765E1,3.8243176E1,1.7497126E1,4.6732563E1],"tree_param":{"num_deleted":"0","num_feature":"116","num_nodes":"25","size_leaf_vector":"1"}},{"base_weights":[-5.336034E-2,-2.0025355E-1,1.8022394E-1,1.06110156E-1,-3.2368684E-1,2.9904398E-1,-2.1430016E-1,-1.7922033E-2,2.896985E-1,-3.917554E-1,1.9620627E-2,4.47051E-1,-1.6747649E-1,-2.8867785E-2,3.1891272E-3,-6.2798634E-3,2.6808223E-2,2.8040514E-3,-2.373625E-2,-6.653346E-3,3.0303026E-2,-2.6794016E-2,5.9812954E-3],"categories":[],"categories_nodes":[],"categories_segments":[],"categories_sizes":[],"default_left":[0,0,0,0,0,0,0,0,0,0,0,0,0,0,0,0,0,0,0,0,0,0,0],"id":2,"left_children":[1,3,5,7,9,11,13,-1,15,17,-1,19,21,-1,-1,-1,-1,-1,-1,-1,-1,-1,-1],"loss_changes":[1.3241802E1,9.250453E0,7.3086324E0,6.5166373E0,9.126831E0,8.588352E0,4.099139E0,0E0,6.0925627E0,6.277607E0,0E0,9.0292E0,3.806171E0,0E0,0E0,0E0,0E0,0E0,0E0,0E0,0E0,0E0,0E0],"parents":[2147483647,0,0,1,1,2,2,3,3,4,4,5,5,6,6,8,8,9,9,11,11,12,12],"right_children":[2,4,6,8,10,12,14,-1,16,18,-1,20,22,-1,-1,-1,-1,-1,-1,-1,-1,-1,-1],"split_conditions":[2.94E1,3.6395195E-1,1E0,3.0847967E0,5.626551E-1,4.526264E0,3E0,-1.7922033E-2,1.58E1,5.4728284E-2,1.9620627E-2,2.464022E0,1.3820513E-1,-2.8867785E-2,3.1891272E-3,-6.2798634E-3,2.6808223E-2,2.8040514E-3,-2.373625E-2,-6.653346E-3,3.0303026E-2,-2.6794016E-2,5.9812954E-3],"split_indices":[79,34,43,22,50,6,43,0,61,7,0,13,49,0,0,0,0,0,0,0,0,0,0],"split_type":[0,0,0,0,0,0,0,0,0,0,0,0,0,0,0,0,0,0,0,0,0,0,0],"sum_hessian":[3.75373E2,2.3220265E2,1.4317032E2,6.57244E1,1.6647824E2,1.11935715E2,3.123461E1,1.6496416E1,4.922799E1,1.5473303E2,1.174521E1,8.5948395E1,2.5987324E1,1.199342E1,1.924119E1,1.8492104E1,3.0735886E1,2.349743E1,1.312356E2,1.798922E1,6.7959175E1,1.0247245E1,1.574008E1],"tree_param":{"num_deleted":"0","num_feature":"116","num_nodes":"23","size_leaf_vector":"1"}},{"base_weights":[1.5433862E-2,-6.406706E-2,5.002406E-1,4.080041E-1,-1.2342497E-1,-4.788331E-3,7.690364E-1,-0E0,3.9058547E-2,4.1209328E-1,-1.8736164E-1,4.7915246E-2,6.265327E-3,3.265158E-2,-0E0,-1.3745065E-2,9.989012E-3],"categories":[],"categories_nodes":[],"categories_segments":[],"categories_sizes":[],"default_left":[0,0,0,0,0,0,0,0,0,0,0,0,0,0,0,0,0],"id":3,"left_children":[1,3,5,7,9,-1,11,-1,-1,13,15,-1,-1,-1,-1,-1,-1],"loss_changes":[1.5488204E1,9.646409E0,9.785867E0,5.9887223E0,1.078895E1,0E0,3.7553425E0,0E0,0E0,3.1589208E0,9.754893E0,0E0,0E0,0E0,0E0,0E0,0E0],"parents":[2147483647,0,0,1,1,2,2,3,3,4,4,6,6,9,9,10,10],"right_children":[2,4,6,8,10,-1,12,-1,-1,14,16,-1,-1,-1,-1,-1,-1],"split_conditions":[2.94E1,1.9623135E-1,2.32807E-1,5.2525E0,2.86E-1,-4.788331E-3,3.090054E-1,-0E0,3.9058547E-2,3.31508E0,9.047357E1,4.7915246E-2,6.265327E-3,3.265158E-2,-0E0,-1.3745065E-2,9.989012E-3],"split_indices":[82,115,29,1,71,0,9,0,0,25,53,0,0,0,0,0,0],"split_type":[0,0,0,0,0,0,0,0,0,0,0,0,0,0,0,0,0],"sum_hessian":[3.8703058E2,3.3534674E2,5.168384E1,3.3235386E1,3.0211136E2,1.6486464E1,3.5197376E1,1.7991047E1,1.5244339E1,2.8484566E1,2.736268E2,2.4711609E1,1.0485769E1,1.5741688E1,1.2742878E1,2.254008E2,4.8225994E1],"tree_param":{"num_deleted":"0","num_feature":"116","num_nodes":"17","size_leaf_vector":"1"}},{"base_weights":[3.7100464E-3,3.9072233E-1,-9.63534E-2,5.9978247E-1,-2.5324758E-2,-2.3717342E-1,1.6363886E-1,7.500286E-1,-0E0,-2.7002452E-2,1.815313E-2,-3.3838576E-1,4.2975715E-1,3.518357E-1,-2.8854182E-1,6.158069E-3,4.8581604E-2,4.4406214E-4,-2.5222426E-2,-0E0,3.406527E-2,2.6524348E-2,-6.8086507E-3,-2.901915E-2,1.7748233E-3],"categories":[],"categories_nodes":[],"categories_segments":[],"categories_sizes":[],"default_left":[0,0,0,0,0,0,0,0,0,0,0,0,0,0,0,0,0,0,0,0,0,0,0,0,0],"id":4,"left_children":[1,3,5,7,9,11,13,15,-1,-1,-1,17,19,21,23,-1,-1,-1,-1,-1,-1,-1,-1,-1,-1],"loss_changes":[1.5301531E1,7.4440928E0,1.1582558E1,5.292927E0,7.310939E0,1.44794035E1,9.954979E0,5.063719E0,0E0,0E0,0E0,1.0703751E1,3.0898728E0,7.634285E0,3.6364284E0,0E0,0E0,0E0,0E0,0E0,0E0,0E0,0E0,0E0,0E0],"parents":[2147483647,0,0,1,1,2,2,3,3,4,4,5,5,6,6,7,7,11,11,12,12,13,13,14,14],"right_children":[2,4,6,8,10,12,14,16,-1,-1,-1,18,20,22,24,-1,-1,-1,-1,-1,-1,-1,-1,-1,-1],"split_conditions":[3.09E-1,3.4650846E0,2.95E1,2.5E1,2.3247267E-1,2.0068783E-1,4.5082865E0,9E-1,-0E0,-2.7002452E-2,1.815313E-2,3.7632355E-1,2.7610224E1,2.4564612E0,5.0926223E0,6.158069E-3,4.8581604E-2,4.4406214E-4,-2.5222426E-2,-0E0,3.406527E-2,2.6524348E-2,-6.8086507E-3,-2.901915E-2,1.7748233E-3],"split_indices":[71,38,79,64,2,49,6,30,0,0,0,34,54,101,6,0,0,0,0,0,0,0,0,0,0],"split_type":[0,0,0,0,0,0,0,0,0,0,0,0,0,0,0,0,0,0,0,0,0,0,0,0,0],"sum_hessian":[3.8146368E2,7.640962E1,3.0505405E2,5.018551E1,2.6224115E1,1.9940953E2,1.0564453E2,3.969936E1,1.0486151E1,1.0991781E1,1.5232334E1,1.7592435E2,2.348519E1,7.6161545E1,2.9482986E1,1.298965E1,2.670971E1,5.7468697E1,1.1845564E2,1.049456E1,1.2990629E1,5.6183224E1,1.9978321E1,1.4242872E1,1.5240114E1],"tree_param":{"num_deleted":"0","num_feature":"116","num_nodes":"25","size_leaf_vector":"1"}},{"base_weights":[4.9033727E-2,1.717754E-1,-1.6219075E-1,-3.5821047E-1,2.4328814E-1,3.1435832E-1,-3.2147732E-1,5.9402264E-3,-3.4061708E-2,9.422189E-3,3.8170367E-1,5.365927E-1,-6.041953E-3,-5.77016E-1,1.0492347E-2,1.4239361E-2,-1.5546826E-2,4.47044E-2,1.0982521E-2,3.934085E-2,5.93257E-3,-2.9215764E-3,-3.8805634E-2,1.454218E-2,-3.128254E-2],"categories":[],"categories_nodes":[],"categories_segments":[],"categories_sizes":[],"default_left":[0,0,0,0,0,0,0,0,0,0,0,0,0,0,0,0,0,0,0,0,0,0,0,0,0],"id":5,"left_children":[1,3,5,7,9,11,13,-1,-1,15,17,19,-1,21,23,-1,-1,-1,-1,-1,-1,-1,-1,-1,-1],"loss_changes":[1.0340538E1,9.954672E0,1.15625E1,5.498225E0,7.1164417E0,4.228705E0,9.84836E0,0E0,0E0,8.427341E0,1.0150541E1,1.9021139E0,0E0,6.010376E0,1.0185261E1,0E0,0E0,0E0,0E0,0E0,0E0,0E0,0E0,0E0,0E0],"parents":[2147483647,0,0,1,1,2,2,3,3,4,4,5,5,6,6,9,9,10,10,11,11,13,13,14,14],"right_children":[2,4,6,8,10,12,14,-1,-1,16,18,20,-1,22,24,-1,-1,-1,-1,-1,-1,-1,-1,-1,-1],"split_conditions":[4.378522E0,-8E-1,7.3795857E0,1.2368082E0,2.08E1,1.7449591E0,4.491337E0,5.9402264E-3,-3.4061708E-2,8.196428E0,8.421918E-2,2.3296297E-1,-6.041953E-3,5.11E0,7.4563785E0,1.4239361E-2,-1.5546826E-2,4.47044E-2,1.0982521E-2,3.934085E-2,5.93257E-3,-2.9215764E-3,-3.8805634E-2,1.454218E-2,-3.128254E-2],"split_indices":[21,65,112,5,60,5,22,0,0,23,33,48,0,1,11,0,0,0,0,0,0,0,0,0,0],"split_type":[0,0,0,0,0,0,0,0,0,0,0,0,0,0,0,0,0,0,0,0,0,0,0,0,0],"sum_hessian":[3.8828955E2,2.4767032E2,1.4061923E2,2.6231306E1,2.2143903E2,3.3221474E1,1.0739776E2,1.1242493E1,1.4988813E1,8.5660416E1,1.357786E2,2.198087E1,1.1240605E1,5.9450336E1,4.7947426E1,4.720295E1,3.8457466E1,2.6456402E1,1.093222E2,1.0240479E1,1.1740391E1,1.8983366E1,4.046697E1,3.57099E1,1.2237527E1],"tree_param":{"num_deleted":"0","num_feature":"116","num_nodes":"25","size_leaf_vector":"1"}},{"base_weights":[-1.1068583E-2,-1.0818148E-1,3.1163585E-1,-1.5604834E-1,3.9570275E-1,-1.1294287E-1,5.745946E-1,-2.4508126E-3,-3.8802245E-1,3.319217E-2,-0E0,-2.266811E-2,1.132716E-2,1.1387275E-3,7.893841E-1,-1.3254273E-2,9.219839E-3,3.1453588E-3,-2.6213987E-2,4.98741E-2,1.51790725E-2],"categories":[],"categories_nodes":[],"categories_segments":[],"categories_sizes":[],"default_left":[0,0,0,0,0,0,0,0,0,0,0,0,0,0,0,0,0,0,0,0,0],"id":6,"left_children":[1,3,5,7,9,11,13,15,17,-1,-1,-1,-1,-1,19,-1,-1,-1,-1,-1,-1],"loss_changes":[1.218501E1,7.4762793E0,1.0552787E1,9.791475E0,2.9706974E0,4.9837775E0,6.2417393E0,8.874339E0,7.177582E0,0E0,0E0,0E0,0E0,0E0,1.8911152E0,0E0,0E0,0E0,0E0,0E0,0E0],"parents":[2147483647,0,0,1,1,2,2,3,3,4,4,5,5,6,6,7,7,8,8,14,14],"right_children":[2,4,6,8,10,12,14,16,18,-1,-1,-1,-1,-1,20,-1,-1,-1,-1,-1,-1],"split_conditions":[2.37E1,4.523743E1,2.34272E-1,9.055616E0,8E0,8.2700795E-1,2.83E1,9.62E-1,5.576758E-2,3.319217E-2,-0E0,-2.266811E-2,1.132716E-2,1.1387275E-3,4.689492E-1,-1.3254273E-2,9.219839E-3,3.1453588E-3,-2.6213987E-2,4.98741E-2,1.51790725E-2],"split_indices":[59,52,29,107,40,8,79,36,7,0,0,0,0,0,34,0,0,0,0,0,0],"split_type":[0,0,0,0,0,0,0,0,0,0,0,0,0,0,0,0,0,0,0,0,0],"sum_hessian":[3.8168317E2,2.9713748E2,8.454568E1,2.754178E2,2.1719685E1,3.2699467E1,5.1846214E1,1.7003824E2,1.05379555E2,1.1234805E1,1.04848795E1,1.6225245E1,1.647422E1,1.6727997E1,3.5118217E1,7.092615E1,9.911208E1,2.4226498E1,8.115305E1,2.0178867E1,1.493935E1],"tree_param":{"num_deleted":"0","num_feature":"116","num_nodes":"21","size_leaf_vector":"1"}}]},"name":"gbtree"},"learner_model_param":{"base_score":"[5.049351E-1]","boost_from_average":"1","num_class":"0","num_feature":"116","num_target":"1"},"objective":{"name":"binary:logistic","reg_loss_param":{"scale_pos_weight":"1"}}},"version":[3,1,3]}