{"learner":{"attributes":{"scikit_learn":"{\"_estimator_type\": \"regressor\"}"},"feature_names":[],"feature_types":[],"gradient_booster":{"model":{"cats":{"enc":[],"feature_segments":[],"sorted_idx":[]},"gbtree_model_param":{"num_parallel_tree":"1","num_trees":"18"},"iteration_indptr":[0,1,2,3,4,5,6,7,8,9,10,11,12,13,14,15,16,17,18],"tree_info":[0,0,0,0,0,0,0,0,0,0,0,0,0,0,0,0,0,0],"trees":[{"base_weights":[1.3087035E-2,3.1382686E-1,-1.35072E-1,4.2872152E-1,-1.617361E-2,-2.176872E-1,3.2760432E-1,5.4513335E-1,-1.3019922E-2,-3.6563924E-1,3.8880706E-2,-4.1412795E-3,2.9599426E-2,-2.300511E-3,3.3584338E-2,-2.3692654E-2,1.335942E-2,-6.1219833E-3,2.9173225E-2],"categories":[],"categories_nodes":[],"categories_segments":[],"categories_sizes":[],"default_left":[0,0,0,0,0,0,0,0,0,0,0,0,0,0,0,0,0,0,0],"id":0,"left_children":[1,3,5,7,-1,9,11,13,-1,15,17,-1,-1,-1,-1,-1,-1,-1,-1],"loss_changes":[1.5466627E1,9.163099E0,9.108544E0,8.891047E0,0E0,7.8042355E0,4.404689E0,7.0480614E0,0E0,9.515377E0,7.2837515E0,0E0,0E0,0E0,0E0,0E0,0E0,0E0,0E0],"parents":[2147483647,0,0,1,1,2,2,3,3,5,5,6,6,7,7,9,9,10,10],"right_children":[2,4,6,8,-1,10,12,14,-1,16,18,-1,-1,-1,-1,-1,-1,-1,-1],"split_conditions":[3.95E-1,8.069571E-2,1.9370371E-1,4.7851534E0,-1.617361E-2,5.171381E0,3.8543897E0,9.38E-1,-1.3019922E-2,7.482833E-1,2.742137E-1,-4.1412795E-3,2.9599426E-2,-2.300511E-3,3.3584338E-2,-2.3692654E-2,1.335942E-2,-6.1219833E-3,2.9173225E-2],"split_indices":[57,89,49,6,0,26,22,36,0,92,27,0,0,0,0,0,0,0,0],"split_type":[0,0,0,0,0,0,0,0,0,0,0,0,0,0,0,0,0,0,0],"sum_hessian":[3.353549E2,1.0995242E2,2.2540247E2,9.520881E1,1.4743621E1,1.9441588E2,3.0986593E1,8.29641E1,1.2244702E1,1.2319669E2,7.1219185E1,1.2744486E1,1.8242107E1,1.4493729E1,6.8470375E1,1.0695372E2,1.6242971E1,5.722524E1,1.3993945E1],"tree_param":{"num_deleted":"0","num_feature":"113","num_nodes":"19","size_leaf_vector":"1"}},{"base_weights":[2.3275036E-3,-7.058805E-2,3.899215E-2,-1.8576299E-1,3.1427982E-1,6.747127E-2,-3.0497053E-1,5.7459795E-1,-5.877284E-2,-5.9550735E-3,2.7214536E-2,-3.747426E-3,-3.0699128E-2,-2.7935457E-4,4.2325467E-2,1.950867E-2,-3.2269616E-2],"categories":[],"categories_nodes":[],"categories_segments":[],"categories_sizes":[],"default_left":[0,0,0,0,0,0,0,0,0,0,0,0,0,0,0,0,0],"id":1,"left_children":[1,3,-1,5,7,9,11,13,15,-1,-1,-1,-1,-1,-1,-1,-1],"loss_changes":[1.979578E1,1.4105434E1,0E0,7.620816E0,7.5129113E0,7.7607083E0,1.1431108E1,7.4220314E0,1.0271675E1,0E0,0E0,0E0,0E0,0E0,0E0,0E0,0E0],"parents":[2147483647,0,0,1,1,3,3,4,4,5,5,6,6,7,7,8,8],"right_children":[2,4,-1,6,8,10,12,14,16,-1,-1,-1,-1,-1,-1,-1,-1],"split_conditions":[1.4E0,2.4E1,3.899215E-2,3.6314383E-1,3.781768E-1,2.077377E0,4.27E-1,3.209524E0,9.773883E0,-5.9550735E-3,2.7214536E-2,-3.747426E-3,-3.0699128E-2,-2.7935457E-4,4.2325467E-2,1.950867E-2,-3.2269616E-2],"split_indices":[65,59,0,103,112,99,57,26,108,0,0,0,0,0,0,0,0],"split_type":[0,0,0,0,0,0,0,0,0,0,0,0,0,0,0,0,0],"sum_hessian":[3.33065E2,3.0807654E2,2.4988483E1,2.40108E2,6.796852E1,7.620349E1,1.6390451E2,3.923154E1,2.873698E1,5.6714405E1,1.9489082E1,9.845068E1,6.5453835E1,1.3495097E1,2.5736443E1,1.6744377E1,1.1992603E1],"tree_param":{"num_deleted":"0","num_feature":"113","num_nodes":"17","size_leaf_vector":"1"}},{"base_weights":[2.0807896E-2,3.431799E-1,-1.08786345E-1,4.995359E-1,-3.8801968E-2,-2.0706484E-1,2.0765066E-1,7.1063626E-1,-0E0,1.6984388E-2,-1.5756043E-2,5.088717E-2,-3.7558994E-1,5.8537555E-1,-9.589453E-2,3.6072226E-3,4.4689983E-2,2.1278402E-2,-2.24228E-2,-1.1674992E-2,1.7594524E-2,-4.8185023E-3,-2.9932022E-2,4.08916E-2,8.586499E-3,-2.0730406E-2,1.070665E-2],"categories":[],"categories_nodes":[],"categories_segments":[],"categories_sizes":[],"default_left":[0,0,0,0,0,0,0,0,0,0,0,0,0,0,0,0,0,0,0,0,0,0,0,0,0,0,0],"id":2,"left_children":[1,3,5,7,9,11,13,15,17,-1,-1,19,21,23,25,-1,-1,-1,-1,-1,-1,-1,-1,-1,-1,-1,-1],"loss_changes":[1.42786E1,6.1936855E0,7.71825E0,7.657667E0,3.894612E0,8.422327E0,7.229258E0,5.0699654E0,5.8732758E0,0E0,0E0,7.099494E0,6.549011E0,1.4461803E0,4.0993195E0,0E0,0E0,0E0,0E0,0E0,0E0,0E0,0E0,0E0,0E0,0E0,0E0],"parents":[2147483647,0,0,1,1,2,2,3,3,4,4,5,5,6,6,7,7,8,8,11,11,12,12,13,13,14,14],"right_children":[2,4,6,8,10,12,14,16,18,-1,-1,20,22,24,26,-1,-1,-1,-1,-1,-1,-1,-1,-1,-1,-1,-1],"split_conditions":[3.86E-1,2.4564612E0,2.31E1,3.282915E1,-4.707035E-2,5.879464E1,5E0,6.942602E1,4.2036912E-1,1.6984388E-2,-1.5756043E-2,6.56E-1,8.723336E-2,9.016402E0,1.2775463E0,3.6072226E-3,4.4689983E-2,2.1278402E-2,-2.24228E-2,-1.1674992E-2,1.7594524E-2,-4.8185023E-3,-2.9932022E-2,4.08916E-2,8.586499E-3,-2.0730406E-2,1.070665E-2],"split_indices":[57,98,59,107,93,102,16,102,34,0,0,78,28,23,5,0,0,0,0,0,0,0,0,0,0,0,0],"split_type":[0,0,0,0,0,0,0,0,0,0,0,0,0,0,0,0,0,0,0,0,0,0,0,0,0,0,0],"sum_hessian":[3.2950345E2,9.322337E1,2.3628006E2,6.5984344E1,2.7239027E1,1.8281114E2,5.3468918E1,4.5238865E1,2.074548E1,1.0246984E1,1.6992044E1,7.2445755E1,1.10365395E2,2.2488997E1,3.0979921E1,1.2246795E1,3.299207E1,1.0498045E1,1.0247436E1,3.6973503E1,3.5472256E1,5.3186802E1,5.717859E1,1.0496086E1,1.199291E1,1.5239539E1,1.5740381E1],"tree_param":{"num_deleted":"0","num_feature":"113","num_nodes":"27","size_leaf_vector":"1"}},{"base_weights":[-1.1720411E-2,-1.3218962E-1,4.1060236E-1,-4.5810804E-1,-3.1870296E-3,6.251149E-1,-1.0343565E-2,1.5510405E-2,-6.2103546E-1,-1.7475176E-1,2.4133946E-1,5.0896904E-3,8.205987E-1,-3.979452E-2,-5.5368687E-3,7.720498E-4,-3.4332667E-2,2.3873752E-2,-1.1158992E-2,1.0666277E-2,5.0207805E-2],"categories":[],"categories_nodes":[],"categories_segments":[],"categories_sizes":[],"default_left":[0,0,0,0,0,0,0,0,0,0,0,0,0,0,0,0,0,0,0,0,0],"id":3,"left_children":[1,3,5,7,9,11,-1,-1,13,15,17,-1,19,-1,-1,-1,-1,-1,-1,-1,-1],"loss_changes":[1.7476095E1,1.1111607E1,1.0916665E1,1.0558958E1,8.548234E0,5.0767975E0,0E0,0E0,4.854286E0,1.220421E1,9.782721E0,0E0,2.888319E0,0E0,0E0,0E0,0E0,0E0,0E0,0E0,0E0],"parents":[2147483647,0,0,1,1,2,2,3,3,4,4,5,5,8,8,9,9,10,10,12,12],"right_children":[2,4,6,8,10,12,-1,-1,14,16,18,-1,20,-1,-1,-1,-1,-1,-1,-1,-1],"split_conditions":[2.49E1,2.921533E0,2.726191E2,1.01E1,2.45E1,1.2630989E-1,-1.0343565E-2,1.5510405E-2,7.77E1,1.8548602E0,2.419219E-1,5.0896904E-3,6.378E0,-3.979452E-2,-5.5368687E-3,7.720498E-4,-3.4332667E-2,2.3873752E-2,-1.1158992E-2,1.0666277E-2,5.0207805E-2],"split_indices":[59,38,101,74,82,31,0,0,39,98,42,0,95,0,0,0,0,0,0,0,0],"split_type":[0,0,0,0,0,0,0,0,0,0,0,0,0,0,0,0,0,0,0,0,0],"sum_hessian":[3.3589966E2,2.6494266E2,7.0957016E1,7.0413895E1,1.9452875E2,5.3217087E1,1.7739933E1,1.0991699E1,5.9422195E1,1.1635984E2,7.8168915E1,1.72362E1,3.598089E1,4.1443398E1,1.7978798E1,8.766213E1,2.8697704E1,5.2445496E1,2.572342E1,1.1492948E1,2.448794E1],"tree_param":{"num_deleted":"0","num_feature":"113","num_nodes":"21","size_leaf_vector":"1"}},{"base_weights":[-4.3905E-2,1.902708E-1,-1.8078144E-1,4.0040988E-1,-2.434915E-2,1.5880902E-1,-3.6060366E-1,5.9685326E-1,-1.7249495E-2,-2.6212803E-1,2.7639195E-2,-3.5901162E-1,3.9645916E-1,-5.7835853E-1,-6.163968E-2,-1.8381119E-3,3.8275816E-2,1.9998278E-3,-2.6128655E-2,-2.9068058E-2,-0E0,-2.2223964E-3,3.3626355E-2,-8.848312E-3,-3.92032E-2,2.4284242E-2,-1.12858405E-2],"categories":[],"categories_nodes":[],"categories_segments":[],"categories_sizes":[],"default_left":[0,0,0,0,0,0,0,0,0,0,0,0,0,0,0,0,0,0,0,0,0,0,0,0,0,0,0],"id":4,"left_children":[1,3,5,7,9,11,13,15,-1,17,-1,19,21,23,25,-1,-1,-1,-1,-1,-1,-1,-1,-1,-1,-1,-1],"loss_changes":[1.1034472E1,5.9263873E0,1.3692429E1,1.0703631E1,9.629284E0,1.0321728E1,8.937622E0,6.2725945E0,0E0,4.3360796E0,0E0,2.0751495E0,7.335868E0,5.6208553E0,6.492947E0,0E0,0E0,0E0,0E0,0E0,0E0,0E0,0E0,0E0,0E0,0E0,0E0],"parents":[2147483647,0,0,1,1,2,2,3,3,4,4,5,5,6,6,7,7,9,9,11,11,12,12,13,13,14,14],"right_children":[2,4,6,8,10,12,14,16,-1,18,-1,20,22,24,26,-1,-1,-1,-1,-1,-1,-1,-1,-1,-1,-1,-1],"split_conditions":[3.99E-1,2.4454054E-1,1.4858688E0,4.3988037E0,3.9809E-1,5E0,4.964412E0,1.3928572E0,-1.7249495E-2,4.022378E-1,2.7639195E-2,2.4117082E-1,5.2E0,5E0,4.9444E0,-1.8381119E-3,3.8275816E-2,1.9998278E-3,-2.6128655E-2,-2.9068058E-2,-0E0,-2.2223964E-3,3.3626355E-2,-8.848312E-3,-3.92032E-2,2.4284242E-2,-1.12858405E-2],"split_indices":[57,27,98,6,88,14,22,21,0,34,0,29,1,14,95,0,0,0,0,0,0,0,0,0,0,0,0],"split_type":[0,0,0,0,0,0,0,0,0,0,0,0,0,0,0,0,0,0,0,0,0,0,0,0,0,0,0],"sum_hessian":[3.3403784E2,1.2115529E2,2.1288257E2,6.020682E1,6.0948463E1,7.294023E1,1.3994234E2,4.896875E1,1.1238069E1,4.5710953E1,1.5237514E1,2.1479918E1,5.1460316E1,7.729686E1,6.264547E1,1.0493515E1,3.8475235E1,2.2232687E1,2.3478264E1,1.123799E1,1.0241927E1,2.0732439E1,3.0727877E1,3.0166058E1,4.7130802E1,1.1485285E1,5.1160187E1],"tree_param":{"num_deleted":"0","num_feature":"113","num_nodes":"27","size_leaf_vector":"1"}},{"base_weights":[-8.570125E-3,3.0994824E-1,-1.1730399E-1,5.010038E-1,-6.072138E-2,-5.234176E-1,-1.5303216E-2,-2.4603866E-3,6.826476E-1,1.3239234E-2,-1.7067617E-2,-7.134717E-1,5.1349364E-3,3.3152413E-2,-9.5511936E-2,6.371127E-3,4.2854194E-2,-6.134221E-3,-4.407672E-2,2.7233798E-2,-8.138509E-3],"categories":[],"categories_nodes":[],"categories_segments":[],"categories_sizes":[],"default_left":[0,0,0,0,0,0,0,0,0,0,0,0,0,0,0,0,0,0,0,0,0],"id":5,"left_children":[1,3,5,7,9,11,13,-1,15,-1,-1,17,-1,-1,19,-1,-1,-1,-1,-1,-1],"loss_changes":[1.2021352E1,6.597887E0,1.0532131E1,6.425288E0,3.5475507E0,6.7886696E0,1.1748236E1,0E0,3.3884544E0,0E0,0E0,2.9958382E0,0E0,0E0,8.759705E0,0E0,0E0,0E0,0E0,0E0,0E0],"parents":[2147483647,0,0,1,1,2,2,3,3,4,4,5,5,6,6,8,8,11,11,14,14],"right_children":[2,4,6,8,10,12,14,-1,16,-1,-1,18,-1,-1,20,-1,-1,-1,-1,-1,-1],"split_conditions":[2.29E-1,2.4564612E0,-4E-1,2E1,7.82E1,1.5E0,1.932716E-1,-2.4603866E-3,4.7126436E-1,1.3239234E-2,-1.7067617E-2,-1.0985204E-1,5.1349364E-3,3.3152413E-2,-9.781476E-1,6.371127E-3,4.2854194E-2,-6.134221E-3,-4.407672E-2,2.7233798E-2,-8.138509E-3],"split_indices":[56,98,65,59,80,30,112,0,84,0,0,93,0,0,41,0,0,0,0,0,0],"split_type":[0,0,0,0,0,0,0,0,0,0,0,0,0,0,0,0,0,0,0,0,0],"sum_hessian":[3.3963168E2,8.290979E1,2.567219E2,5.4440273E1,2.8469519E1,4.640441E1,2.1031749E2,1.37334795E1,4.0706795E1,1.2486714E1,1.5982805E1,3.5676105E1,1.0728304E1,1.7737684E1,1.925798E2,1.2485293E1,2.82215E1,1.0475794E1,2.5200312E1,1.4227923E1,1.7835188E2],"tree_param":{"num_deleted":"0","num_feature":"113","num_nodes":"21","size_leaf_vector":"1"}},{"base_weights":[5.657966E-3,1.8871759E-1,-2.5095767E-1,-1.495319E-1,3.3893982E-1,-3.8980758E-1,1.4854407E-1,-3.3469704E-1,1.5749393E-2,-0E0,4.816501E-1,-5.072294E-1,8.9285625E-3,4.1520762E-1,-1.7090157E-2,-3.2720383E-2,1.1013977E-2,2.3876453E-2,-1.0332345E-2,2.829588E-2,-4.868484E-3,-3.55376E-2,-2.6108203E-3,3.6202405E-2,-0E0],"categories":[],"categories_nodes":[],"categories_segments":[],"categories_sizes":[],"default_left":[0,0,0,0,0,0,0,0,0,0,0,0,0,0,0,0,0,0,0,0,0,0,0,0,0],"id":6,"left_children":[1,3,5,7,9,11,13,15,-1,17,19,21,-1,23,-1,-1,-1,-1,-1,-1,-1,-1,-1,-1,-1],"loss_changes":[1.6155281E1,1.0620155E1,8.307614E0,6.094761E0,6.846304E0,7.822468E0,5.899675E0,9.701806E0,0E0,5.202195E0,5.393799E0,7.9069157E0,0E0,3.343719E0,0E0,0E0,0E0,0E0,0E0,0E0,0E0,0E0,0E0,0E0,0E0],"parents":[2147483647,0,0,1,1,2,2,3,3,4,4,5,5,6,6,7,7,9,9,10,10,11,11,13,13],"right_children":[2,4,6,8,10,12,14,16,-1,18,20,22,-1,24,-1,-1,-1,-1,-1,-1,-1,-1,-1,-1,-1],"split_conditions":[4.3E-1,9.38E-1,9.5E0,2.79E1,4.6586347E-1,9.232466E0,5.17556E-1,4.3697098E1,1.5749393E-2,-1.1659043E0,9.248761E0,6.81E-1,8.9285625E-3,6.3279823E1,-1.7090157E-2,-3.2720383E-2,1.1013977E-2,2.3876453E-2,-1.0332345E-2,2.829588E-2,-4.868484E-3,-3.55376E-2,-2.6108203E-3,3.6202405E-2,-0E0],"split_indices":[88,36,46,82,84,37,88,107,0,83,37,78,0,102,0,0,0,0,0,0,0,0,0,0,0],"split_type":[0,0,0,0,0,0,0,0,0,0,0,0,0,0,0,0,0,0,0,0,0,0,0,0,0],"sum_hessian":[3.3452692E2,1.9715535E2,1.3737158E2,5.961567E1,1.3753967E2,1.0295994E2,3.441164E1,4.4393475E1,1.5222195E1,4.2442223E1,9.509746E1,8.650618E1,1.6453754E1,2.3446629E1,1.0965013E1,2.817028E1,1.6223194E1,1.0986305E1,3.145592E1,8.386836E1,1.1229092E1,5.707018E1,2.9436005E1,1.0732781E1,1.2713847E1],"tree_param":{"num_deleted":"0","num_feature":"113","num_nodes":"25","size_leaf_vector":"1"}},{"base_weights":[1.9421978E-2,-6.811688E-2,6.740421E-1,5.292603E-1,-1.3835981E-1,6.303677E-3,9.1402066E-1,4.7230977E-3,3.8604915E-2,-2.4393387E-1,2.659007E-1,5.791117E-2,1.9248629E-2,-8.2243895E-3,-4.169047E-2,2.6910378E-2,-9.487475E-3],"categories":[],"categories_nodes":[],"categories_segments":[],"categories_sizes":[],"default_left":[0,0,0,0,0,0,0,0,0,0,0,0,0,0,0,0,0],"id":7,"left_children":[1,3,5,7,9,-1,11,-1,-1,13,15,-1,-1,-1,-1,-1,-1],"loss_changes":[1.9993382E1,1.290239E1,4.3202114E0,2.6030293E0,1.2101515E1,0E0,5.1438713E-1,0E0,0E0,9.246709E0,7.956532E0,0E0,0E0,0E0,0E0,0E0,0E0],"parents":[2147483647,0,0,1,1,2,2,3,3,4,4,6,6,9,9,10,10],"right_children":[2,4,6,8,10,-1,12,-1,-1,14,16,-1,-1,-1,-1,-1,-1],"split_conditions":[1.1E0,1.932716E-1,2.3663536E-1,-4.2261827E-1,1.8053141E-1,6.303677E-3,2.5237527E-1,4.7230977E-3,3.8604915E-2,8.43E1,4.51178E-1,5.791117E-2,1.9248629E-2,-8.2243895E-3,-4.169047E-2,2.6910378E-2,-9.487475E-3],"split_indices":[65,112,29,41,31,0,29,0,0,39,88,0,0,0,0,0,0],"split_type":[0,0,0,0,0,0,0,0,0,0,0,0,0,0,0,0,0],"sum_hessian":[3.3460306E2,2.984137E2,3.618935E1,2.7210632E1,2.7120306E2,1.3979274E1,2.2210077E1,1.2977872E1,1.423276E1,2.1759671E2,5.3606358E1,1.0480847E1,1.172923E1,1.9815106E2,1.9445646E1,3.3673637E1,1.9932718E1],"tree_param":{"num_deleted":"0","num_feature":"113","num_nodes":"17","size_leaf_vector":"1"}},{"base_weights":[5.186254E-2,3.2326683E-1,-7.960328E-2,-1.23461604E-1,4.4832507E-1,-3.0327886E-1,1.3992523E-1,-3.6000587E-2,2.0168412E-2,-0E0,6.1801946E-1,-3.9823475E-1,1.0184594E-2,-2.4364488E-3,5.653381E-1,-1.7088277E-2,1.9924082E-2,3.952914E-2,-0E0,-2.462178E-2,1.029098E-2,-2.0788215E-2,1.2438971E-2,5.8712056E-3,3.7581842E-2],"categories":[],"categories_nodes":[],"categories_segments":[],"categories_sizes":[],"default_left":[0,0,0,0,0,0,0,0,0,0,0,0,0,0,0,0,0,0,0,0,0,0,0,0,0],"id":8,"left_children":[1,3,5,7,9,11,13,-1,-1,15,17,19,-1,21,23,-1,-1,-1,-1,-1,-1,-1,-1,-1,-1],"loss_changes":[1.2337724E1,6.739622E0,1.1636119E1,1.0319688E1,6.5749493E0,6.1410074E0,7.4872885E0,0E0,0E0,4.8538885E0,7.1271915E0,6.406704E0,0E0,1.027404E1,1.6865101E0,0E0,0E0,0E0,0E0,0E0,0E0,0E0,0E0,0E0,0E0],"parents":[2147483647,0,0,1,1,2,2,3,3,4,4,5,5,6,6,9,9,10,10,11,11,13,13,14,14],"right_children":[2,4,6,8,10,12,14,-1,-1,16,18,20,-1,22,24,-1,-1,-1,-1,-1,-1,-1,-1,-1,-1],"split_conditions":[3.95E-1,7.6471254E-2,1E0,2.4213831E-1,6.1E0,1.9145629E-1,2.3E1,-3.6000587E-2,2.0168412E-2,2.3E1,6.220545E-1,5E-1,1.0184594E-2,1.3274832E-1,7.9674473E0,-1.7088277E-2,1.9924082E-2,3.952914E-2,-0E0,-2.462178E-2,1.029098E-2,-2.0788215E-2,1.2438971E-2,5.8712056E-3,3.7581842E-2],"split_indices":[57,28,0,29,40,31,59,0,0,59,103,65,0,31,10,0,0,0,0,0,0,0,0,0,0],"split_type":[0,0,0,0,0,0,0,0,0,0,0,0,0,0,0,0,0,0,0,0,0,0,0,0,0],"sum_hessian":[3.3376385E2,1.0777551E2,2.2598836E2,2.271161E1,8.50639E1,1.121202E2,1.1386815E2,1.0236292E1,1.2475319E1,2.545465E1,5.9609253E1,9.616677E1,1.595343E1,8.816151E1,2.5706646E1,1.3480174E1,1.1974478E1,4.5885593E1,1.3723662E1,8.470837E1,1.1458409E1,3.284182E1,5.5319683E1,1.0734144E1,1.4972501E1],"tree_param":{"num_deleted":"0","num_feature":"113","num_nodes":"25","size_leaf_vector":"1"}},{"base_weights":[2.749854E-3,2.4825048E-1,-1.3277873E-1,-2.9153132E-1,3.9719328E-1,-2.2169022E-1,3.605806E-1,-3.5884086E-2,1.2817996E-2,5.408396E-1,-9.932612E-3,-3.209295E-1,2.6164803E-1,-3.0654606E-5,3.5978276E-2,-4.140695E-3,3.2649018E-2,9.736505E-3,-2.3486529E-2,-9.6886745E-3,3.192913E-2],"categories":[],"categories_nodes":[],"categories_segments":[],"categories_sizes":[],"default_left":[0,0,0,0,0,0,0,0,0,0,0,0,0,0,0,0,0,0,0,0,0],"id":9,"left_children":[1,3,5,7,9,11,13,-1,-1,15,-1,17,19,-1,-1,-1,-1,-1,-1,-1,-1],"loss_changes":[1.141131E1,1.04937E1,9.9197445E0,7.848096E0,9.180132E0,9.524007E0,4.8255424E0,0E0,0E0,6.2744083E0,0E0,1.2876583E1,6.6988077E0,0E0,0E0,0E0,0E0,0E0,0E0,0E0,0E0],"parents":[2147483647,0,0,1,1,2,2,3,3,4,4,5,5,6,6,9,9,11,11,12,12],"right_children":[2,4,6,8,10,12,14,-1,-1,16,-1,18,20,-1,-1,-1,-1,-1,-1,-1,-1],"split_conditions":[3.98E-1,9.38E-1,1.9370371E-1,6E0,2.7137247E-1,5.998E0,4.3956637E0,-3.5884086E-2,1.2817996E-2,6.0574408E0,-9.932612E-3,8.534019E-2,1.8160107E2,-3.0654606E-5,3.5978276E-2,-4.140695E-3,3.2649018E-2,9.736505E-3,-2.3486529E-2,-9.6886745E-3,3.192913E-2],"split_indices":[57,36,49,15,110,1,25,0,0,24,0,33,100,0,0,0,0,0,0,0,0],"split_type":[0,0,0,0,0,0,0,0,0,0,0,0,0,0,0,0,0,0,0,0,0],"sum_hessian":[3.3127805E2,1.176656E2,2.1361243E2,2.3685085E1,9.398052E1,1.8418582E2,2.9426609E1,1.2964434E1,1.0720652E1,7.677286E1,1.7207663E1,1.5506279E2,2.912303E1,1.6461983E1,1.2964625E1,1.1220524E1,6.555233E1,3.3627064E1,1.2143572E2,1.3687991E1,1.54350395E1],"tree_param":{"num_deleted":"0","num_feature":"113","num_nodes":"21","size_leaf_vector":"1"}},{"base_weights":[-2.113753E-2,-1.16728686E-1,3.4286547E-1,-4.849451E-1,-4.256876E-2,-1.4902941E-2,5.057717E-1,-0E0,-4.0628094E-2,1.6986799E-1,-2.1339472E-1,-4.414731E-3,7.719881E-1,-0E0,3.2226365E-2,-0E0,-2.3905417E-2,-0E0,5.2951124E-2],"categories":[],"categories_nodes":[],"categories_segments":[],"categories_sizes":[],"default_left":[0,0,0,0,0,0,0,0,0,0,0,0,0,0,0,0,0,0,0],"id":10,"left_children":[1,3,5,7,9,-1,11,-1,-1,13,15,-1,17,-1,-1,-1,-1,-1,-1],"loss_changes":[1.1771775E1,7.0273046E0,8.169231E0,7.0970173E0,8.622273E0,0E0,9.90466E0,0E0,0E0,8.162718E0,7.639124E0,0E0,9.43144E0,0E0,0E0,0E0,0E0,0E0,0E0],"parents":[2147483647,0,0,1,1,2,2,3,3,4,4,6,6,9,9,10,10,12,12],"right_children":[2,4,6,8,10,-1,12,-1,-1,14,16,-1,18,-1,-1,-1,-1,-1,-1],"split_conditions":[2.49E1,2.78E1,9.38E-1,7.671571E0,8.421949E-2,-1.4902941E-2,3.9167684E-1,-0E0,-4.0628094E-2,1.068E0,5.5E0,-4.414731E-3,-4E-1,-0E0,3.2226365E-2,-0E0,-2.3905417E-2,-0E0,5.2951124E-2],"split_indices":[59,63,36,109,28,0,50,0,0,36,85,0,65,0,0,0,0,0,0],"split_type":[0,0,0,0,0,0,0,0,0,0,0,0,0,0,0,0,0,0,0],"sum_hessian":[3.308119E2,2.6578427E2,6.502763E1,3.8782852E1,2.270014E2,1.17159605E1,5.3311676E1,1.7439304E1,2.1343548E1,9.988585E1,1.27115555E2,1.6950298E1,3.6361378E1,7.795085E1,2.1934998E1,7.237779E1,5.4737766E1,1.0973028E1,2.538835E1],"tree_param":{"num_deleted":"0","num_feature":"113","num_nodes":"19","size_leaf_vector":"1"}},{"base_weights":[7.1429145E-3,-3.821793E-2,5.4094416E-1,-2.6467744E-1,9.9439524E-2,3.756728E-2,4.967489E-3,1.7635925E-2,-3.9481932E-1,-1.1117239E-2,3.9175493E-1,-2.647599E-2,-1.9100778E-3,6.4673717E-3,-2.6035307E-2,2.9208034E-2,-9.592948E-3],"categories":[],"categories_nodes":[],"categories_segments":[],"categories_sizes":[],"default_left":[0,0,0,0,0,0,0,0,0,0,0,0,0,0,0,0,0],"id":11,"left_children":[1,3,5,7,9,-1,-1,-1,11,13,15,-1,-1,-1,-1,-1,-1],"loss_changes":[8.531697E0,1.0035779E1,1.7697392E0,1.0507797E1,6.6177006E0,0E0,0E0,0E0,4.594652E0,1.1085874E1,7.0191917E0,0E0,0E0,0E0,0E0,0E0,0E0],"parents":[2147483647,0,0,1,1,2,2,3,3,4,4,8,8,9,9,10,10],"right_children":[2,4,6,8,10,-1,-1,-1,12,14,16,-1,-1,-1,-1,-1,-1],"split_conditions":[1.4E0,1.9E1,7.5768E0,-4.7325397E-1,1.48E1,3.756728E-2,4.967489E-3,1.7635925E-2,8.778E0,5.7252365E-1,4.9407625E-1,-2.647599E-2,-1.9100778E-3,6.4673717E-3,-2.6035307E-2,2.9208034E-2,-9.592948E-3],"split_indices":[65,60,95,90,75,0,0,0,95,103,50,0,0,0,0,0,0],"split_type":[0,0,0,0,0,0,0,0,0,0,0,0,0,0,0,0,0],"sum_hessian":[3.3270032E2,3.1005786E2,2.264245E1,1.1684892E2,1.9320892E2,1.2193367E1,1.0449084E1,1.8185108E1,9.866381E1,1.4243709E2,5.0771847E1,6.883676E1,2.9827053E1,1.1381457E2,2.862252E1,3.88243E1,1.1947545E1],"tree_param":{"num_deleted":"0","num_feature":"113","num_nodes":"17","size_leaf_vector":"1"}},{"base_weights":[7.325584E-3,-6.722684E-2,3.97243E-1,-1.06998496E-1,3.2074325E-2,-2.8234583E-3,5.494418E-1,-1.5145391E-1,2.4178645E-2,7.7786636E-1,-2.5395313E-3,1.7776867E-2,-1.0767766E-2,5.2925963E-2,7.921175E-3],"categories":[],"categories_nodes":[],"categories_segments":[],"categories_sizes":[],"default_left":[0,0,0,0,0,0,0,0,0,0,0,0,0,0,0],"id":12,"left_children":[1,3,5,7,-1,-1,9,11,-1,13,-1,-1,-1,-1,-1],"loss_changes":[1.0072942E1,8.122514E0,4.252865E0,7.4267883E0,0E0,0E0,6.4640083E0,8.754984E0,0E0,4.1327496E0,0E0,0E0,0E0,0E0,0E0],"parents":[2147483647,0,0,1,1,2,2,3,3,6,6,7,7,9,9],"right_children":[2,4,6,8,-1,-1,10,12,-1,14,-1,-1,-1,-1,-1],"split_conditions":[2.4996289E2,2.861483E-1,2.215059E-1,1.75E1,3.2074325E-2,-2.8234583E-3,2.9939032E-1,1.932716E-1,2.4178645E-2,4.366667E0,-2.5395313E-3,1.7776867E-2,-1.0767766E-2,5.2925963E-2,7.921175E-3],"split_indices":[100,29,29,74,0,0,94,112,0,26,0,0,0,0,0],"split_type":[0,0,0,0,0,0,0,0,0,0,0,0,0,0,0],"sum_hessian":[3.312451E2,2.8047394E2,5.077116E1,2.7025818E2,1.0215753E1,1.2717973E1,3.805319E1,2.5558344E2,1.4674737E1,2.7095154E1,1.0958034E1,2.5178051E1,2.3040538E2,1.5652243E1,1.1442911E1],"tree_param":{"num_deleted":"0","num_feature":"113","num_nodes":"15","size_leaf_vector":"1"}},{"base_weights":[-1.6483003E-2,5.95855E-2,-4.4214413E-1,-2.6207749E-2,3.7378845E-1,2.512192E-3,-6.3594085E-1,-1.0453955E-1,4.0852076E-1,5.876835E-1,-8.376932E-3,-7.087736E-3,-4.3694474E-2,1.5671156E-2,-9.114401E-3,-5.564478E-3,3.41186E-2,4.187994E-2,3.943511E-3],"categories":[],"categories_nodes":[],"categories_segments":[],"categories_sizes":[],"default_left":[0,0,0,0,0,0,0,0,0,0,0,0,0,0,0,0,0,0,0],"id":13,"left_children":[1,3,5,7,9,-1,11,13,15,17,-1,-1,-1,-1,-1,-1,-1,-1,-1],"loss_changes":[1.1340757E1,8.096514E0,5.527176E0,7.9912767E0,8.139003E0,0E0,3.4888268E0,6.792963E0,5.732487E0,5.2906857E0,0E0,0E0,0E0,0E0,0E0,0E0,0E0,0E0,0E0],"parents":[2147483647,0,0,1,1,2,2,3,3,4,4,6,6,7,7,8,8,9,9],"right_children":[2,4,6,8,10,-1,12,14,16,18,-1,-1,-1,-1,-1,-1,-1,-1,-1],"split_conditions":[4.95358E-1,1.762522E-1,1.71E1,7E0,9E0,2.512192E-3,7.6754384E-2,2.79E-1,5.8E0,3.83E1,-8.376932E-3,-7.087736E-3,-4.3694474E-2,1.5671156E-2,-9.114401E-3,-5.564478E-3,3.41186E-2,4.187994E-2,3.943511E-3],"split_indices":[88,49,73,19,15,0,7,58,40,69,0,0,0,0,0,0,0,0,0],"split_type":[0,0,0,0,0,0,0,0,0,0,0,0,0,0,0,0,0,0,0],"sum_hessian":[3.352704E2,2.8709076E2,4.817961E1,2.2786401E2,5.9226746E1,1.3924552E1,3.425506E1,1.9726712E2,3.0596899E1,4.2807617E1,1.6419127E1,1.4409179E1,1.9845879E1,2.7554039E1,1.6971309E2,1.0951528E1,1.9645372E1,2.588166E1,1.6925957E1],"tree_param":{"num_deleted":"0","num_feature":"113","num_nodes":"19","size_leaf_vector":"1"}},{"base_weights":[2.3789056E-2,5.0849146E-1,-4.2063206E-2,7.4295163E-1,-4.7334903E-3,-1.501183E-1,3.7810415E-1,4.503508E-2,1.24667995E-2,2.0558506E-1,-2.5751033E-1,6.185477E-1,-2.3866884E-2,2.4158796E-2,-6.762344E-3,-2.2072459E-2,2.7230994E-3,5.733841E-3,4.981001E-2,1.6848184E-2,-2.1340258E-2],"categories":[],"categories_nodes":[],"categories_segments":[],"categories_sizes":[],"default_left":[0,0,0,0,0,0,0,0,0,0,0,0,0,0,0,0,0,0,0,0,0],"id":14,"left_children":[1,3,5,7,-1,9,11,-1,-1,13,15,17,19,-1,-1,-1,-1,-1,-1,-1,-1],"loss_changes":[1.1062277E1,6.540352E0,1.3765179E1,7.178612E-1,0E0,9.562441E0,6.3375235E0,0E0,0E0,5.9869766E0,1.1201218E1,6.406909E0,4.7100496E0,0E0,0E0,0E0,0E0,0E0,0E0,0E0,0E0],"parents":[2147483647,0,0,1,1,2,2,3,3,5,5,6,6,9,9,10,10,11,11,12,12],"right_children":[2,4,6,8,-1,10,12,-1,-1,14,16,18,20,-1,-1,-1,-1,-1,-1,-1,-1],"split_conditions":[2.78E-1,6.268E0,1.8103601E-1,9.38104E1,-4.7334903E-3,4.5E0,4.45E-1,4.503508E-2,1.24667995E-2,3.51E-1,7.3E1,1.24496E1,1.552544E0,2.4158796E-2,-6.762344E-3,-2.2072459E-2,2.7230994E-3,5.733841E-3,4.981001E-2,1.6848184E-2,-2.1340258E-2],"split_indices":[58,1,31,102,0,85,57,0,0,58,39,105,98,0,0,0,0,0,0,0,0],"split_type":[0,0,0,0,0,0,0,0,0,0,0,0,0,0,0,0,0,0,0,0,0],"sum_hessian":[3.3091913E2,3.6469723E1,2.944494E2,2.6023895E1,1.0445828E1,2.3771854E2,5.6730858E1,1.5828856E1,1.0195039E1,5.2987164E1,1.8473137E2,3.459025E1,2.2140612E1,2.8860512E1,2.4126654E1,1.15915306E2,6.881606E1,1.8178463E1,1.6411785E1,1.1457881E1,1.068273E1],"tree_param":{"num_deleted":"0","num_feature":"113","num_nodes":"21","size_leaf_vector":"1"}},{"base_weights":[-0E0,1.5767077E-1,-2.1484296E-1,-0E0,3.7023985E-1,-3.0339158E-1,1.8142892E-2,-1.438003E-1,4.4558957E-1,-1.1322691E-2,5.1792604E-1,9.556307E-2,-4.6529078E-1,-1.3430453E-2,1.7354948E-2,4.1994255E-2,1.2411884E-3,3.5667215E-2,-0E0,3.2213714E-2,-1.1329932E-2,-2.8805202E-2,2.5577897E-3],"categories":[],"categories_nodes":[],"categories_segments":[],"categories_sizes":[],"default_left":[0,0,0,0,0,0,0,0,0,0,0,0,0,0,0,0,0,0,0,0,0,0,0],"id":15,"left_children":[1,3,5,7,9,11,-1,13,15,-1,17,19,21,-1,-1,-1,-1,-1,-1,-1,-1,-1,-1],"loss_changes":[1.1658906E1,6.555065E0,7.9769897E0,8.056814E0,8.116245E0,8.794969E0,0E0,6.170392E0,4.5758247E0,0E0,6.8251553E0,8.141083E0,5.7961235E0,0E0,0E0,0E0,0E0,0E0,0E0,0E0,0E0,0E0,0E0],"parents":[2147483647,0,0,1,1,2,2,3,3,4,4,5,5,7,7,8,8,10,10,11,11,12,12],"right_children":[2,4,6,8,10,12,-1,14,16,-1,18,20,22,-1,-1,-1,-1,-1,-1,-1,-1,-1,-1],"split_conditions":[4.27E-1,4.765625E-1,5.5263156E-1,2.18E1,8E-1,3.6680195E-1,1.8142892E-2,2.92E1,2.7250752E-1,-1.1322691E-2,8.9210615E0,1.7647265E-1,2.37E1,-1.3430453E-2,1.7354948E-2,4.1994255E-2,1.2411884E-3,3.5667215E-2,-0E0,3.2213714E-2,-1.1329932E-2,-2.8805202E-2,2.5577897E-3],"split_indices":[57,111,50,61,30,34,0,82,2,0,37,94,59,0,0,0,0,0,0,0,0,0,0],"split_type":[0,0,0,0,0,0,0,0,0,0,0,0,0,0,0,0,0,0,0,0,0,0,0],"sum_hessian":[3.3410995E2,1.9335019E2,1.4075977E2,1.14557724E2,7.8792465E1,1.24861015E2,1.5898751E1,8.8742546E1,2.5815182E1,1.4431773E1,6.4360695E1,3.5742966E1,8.911804E1,7.337098E1,1.5371566E1,1.0142243E1,1.5672939E1,4.4976376E1,1.9384317E1,1.1947153E1,2.3795813E1,7.369581E1,1.5422236E1],"tree_param":{"num_deleted":"0","num_feature":"113","num_nodes":"23","size_leaf_vector":"1"}},{"base_weights":[6.385145E-4,-1.4409423E-1,2.0201702E-1,6.5430716E-2,-3.200193E-1,-1.3285935E-1,4.6705505E-1,-4.7480114E-2,3.111031E-2,-4.6203766E-2,-1.5403593E-1,1.62901E-2,-3.6685535E-1,-6.435767E-3,5.718851E-1,-1.1485795E-2,1.4475526E-2,-1.6831229E-2,1.6973054E-2,5.977414E-3,-3.1809486E-2,-0E0,3.4227576E-2],"categories":[],"categories_nodes":[],"categories_segments":[],"categories_sizes":[],"default_left":[0,0,0,0,0,0,0,0,0,0,0,0,0,0,0,0,0,0,0,0,0,0,0],"id":16,"left_children":[1,3,5,7,9,11,13,15,-1,-1,17,-1,19,-1,21,-1,-1,-1,-1,-1,-1,-1,-1],"loss_changes":[9.940924E0,7.4727907E0,1.3226857E1,6.250856E0,9.670535E0,7.757609E0,5.7187977E0,5.265442E0,0E0,0E0,8.868465E0,0E0,6.811955E0,0E0,4.6522255E0,0E0,0E0,0E0,0E0,0E0,0E0,0E0,0E0],"parents":[2147483647,0,0,1,1,2,2,3,3,4,4,5,5,6,6,7,7,10,10,12,12,14,14],"right_children":[2,4,6,8,10,12,14,16,-1,-1,18,-1,20,-1,22,-1,-1,-1,-1,-1,-1,-1,-1],"split_conditions":[2.5E1,1.9988638E-1,4.221503E-1,1.9370371E-1,4.17E1,8.633133E0,2.201007E0,2.6239762E-1,3.111031E-2,-4.6203766E-2,1.9E1,1.62901E-2,2.82E-1,-6.435767E-3,4.7E0,-1.1485795E-2,1.4475526E-2,-1.6831229E-2,1.6973054E-2,5.977414E-3,-3.1809486E-2,-0E0,3.4227576E-2],"split_indices":[82,110,50,49,76,10,11,27,0,0,61,0,58,0,40,0,0,0,0,0,0,0,0],"split_type":[0,0,0,0,0,0,0,0,0,0,0,0,0,0,0,0,0,0,0,0,0,0,0],"sum_hessian":[3.3008517E2,1.9143695E2,1.3864822E2,8.751077E1,1.0392617E2,6.152202E1,7.7126205E1,7.581211E1,1.1698667E1,1.6829733E1,8.7096436E1,1.9399023E1,4.2122997E1,1.0656173E1,6.647004E1,5.1199905E1,2.46122E1,6.5474236E1,2.1622198E1,1.5341428E1,2.6781569E1,1.1662008E1,5.480803E1],"tree_param":{"num_deleted":"0","num_feature":"113","num_nodes":"23","size_leaf_vector":"1"}},{"base_weights":[-4.8655453E-3,7.0866E-2,-2.777995E-1,4.308443E-1,-2.868911E-2,1.3825568E-2,-4.2766812E-1,-5.717091E-4,6.410032E-1,-3.2117616E-2,3.204953E-2,-5.935902E-1,3.2894108E-3,6.795078E-3,4.8758414E-2,1.3384764E-2,-8.697703E-3,-3.948256E-2,-3.4822713E-4],"categories":[],"categories_nodes":[],"categories_segments":[],"categories_sizes":[],"default_left":[0,0,0,0,0,0,0,0,0,0,0,0,0,0,0,0,0,0,0],"id":17,"left_children":[1,3,5,7,9,-1,11,-1,13,-1,15,17,-1,-1,-1,-1,-1,-1,-1],"loss_changes":[7.1530557E0,9.7885895E0,6.938536E0,5.833967E0,8.303156E0,0E0,5.5437164E0,0E0,5.6748962E0,0E0,9.831248E0,5.0640163E0,0E0,0E0,0E0,0E0,0E0,0E0,0E0],"parents":[2147483647,0,0,1,1,2,2,3,3,4,4,6,6,8,8,10,10,11,11],"right_children":[2,4,6,8,10,-1,12,-1,14,-1,16,18,-1,-1,-1,-1,-1,-1,-1],"split_conditions":[3.47E-1,5.896242E1,5E0,2.965057E0,2.1162021E2,1.3825568E-2,7.77E1,-5.717091E-4,2.055951E0,-3.2117616E-2,2.0971212E0,5.7711225E0,3.2894108E-3,6.795078E-3,4.8758414E-2,1.3384764E-2,-8.697703E-3,-3.948256E-2,-3.4822713E-4],"split_indices":[58,102,23,38,101,0,39,0,99,0,99,13,0,0,0,0,0,0,0],"split_type":[0,0,0,0,0,0,0,0,0,0,0,0,0,0,0,0,0,0,0],"sum_hessian":[3.3129678E2,2.6080148E2,7.04953E1,5.398448E1,2.0681699E2,1.3394057E1,5.7101242E1,1.8145716E1,3.5838768E1,1.50558815E1,1.9176111E2,4.2731606E1,1.4369635E1,1.7665894E1,1.8172874E1,8.9879036E1,1.0188207E2,3.0091646E1,1.2639961E1],"tree_param":{"num_deleted":"0","num_feature":"113","num_nodes":"19","size_leaf_vector":"1"}}]},"name":"gbtree"},"learner_model_param":{"base_score":"[4.896019E-1]","boost_from_average":"1","num_class":"0","num_feature":"113","num_target":"1"},"objective":{"name":"binary:logistic","reg_loss_param":{"scale_pos_weight":"1"}}},"version":[3,1,3]}