{"learner":{"attributes":{"scikit_learn":"{\"_estimator_type\": \"regressor\"}"},"feature_names":[],"feature_types":[],"gradient_booster":{"model":{"cats":{"enc":[],"feature_segments":[],"sorted_idx":[]},"gbtree_model_param":{"num_parallel_tree":"1","num_trees":"25"},"iteration_indptr":[0,1,2,3,4,5,6,7,8,9,10,11,12,13,14,15,16,17,18,19,20,21,22,23,24,25],"tree_info":[0,0,0,0,0,0,0,0,0,0,0,0,0,0,0,0,0,0,0,0,0,0,0,0,0],"trees":[{"base_weights":[-1.0155692E-2,-1.0456015E-1,4.7790092E-1,3.7080336E-1,-1.7405175E-1,4.0061097E-3,7.1510917E-1,6.805597E-1,-1.1189683E-2,-2.7448162E-1,2.7267706E-1,-2.023962E-2,1.794075E-2,9.0256655E-1,1.8725004E-3,8.6681275E-3,4.1927584E-2,-3.1915836E-2,-9.208392E-3,2.1903308E-2,-1.706436E-2,1.522684E-2,5.2803613E-2],"categories":[],"categories_nodes":[],"categories_segments":[],"categories_sizes":[],"default_left":[0,0,0,0,0,0,0,0,0,0,0,0,0,0,0,0,0,0,0,0,0,0,0],"id":0,"left_children":[1,3,5,7,9,11,13,15,-1,17,19,-1,-1,21,-1,-1,-1,-1,-1,-1,-1,-1,-1],"loss_changes":[2.0940289E1,1.2930262E1,7.8860493E0,1.0150375E1,1.5624646E1,5.0897512E0,5.4886246E0,1.5310516E0,0E0,8.231697E0,7.292859E0,0E0,0E0,1.1073761E0,0E0,0E0,0E0,0E0,0E0,0E0,0E0,0E0,0E0],"parents":[2147483647,0,0,1,1,2,2,3,3,4,4,5,5,6,6,7,7,9,9,10,10,13,13],"right_children":[2,4,6,8,10,12,14,16,-1,18,20,-1,-1,22,-1,-1,-1,-1,-1,-1,-1,-1,-1],"split_conditions":[2.5003928E2,5.911418E0,-1.22891115E-2,7.3103374E-4,2.71E1,1E0,3.6E0,3.9391008E-1,-1.1189683E-2,2.0588236E-1,2.9262674E-1,-2.023962E-2,1.794075E-2,5E-1,1.8725004E-3,8.6681275E-3,4.1927584E-2,-3.1915836E-2,-9.208392E-3,2.1903308E-2,-1.706436E-2,1.522684E-2,5.2803613E-2],"split_indices":[147,196,124,208,62,31,135,52,0,95,94,0,0,176,0,0,0,0,0,0,0,0,0],"split_type":[0,0,0,0,0,0,0,0,0,0,0,0,0,0,0,0,0,0,0,0,0,0,0],"sum_hessian":[4.4811426E2,3.7963498E2,6.8479256E1,4.4736446E1,3.3489856E2,2.5242353E1,4.32369E1,2.9491066E1,1.5245381E1,2.759164E2,5.8982132E1,1.0746744E1,1.4495608E1,3.1990309E1,1.12465925E1,1.0246896E1,1.924417E1,4.773554E1,2.2818088E2,4.8235386E1,1.0746744E1,1.0246896E1,2.1743414E1],"tree_param":{"num_deleted":"0","num_feature":"211","num_nodes":"23","size_leaf_vector":"1"}},{"base_weights":[-1.3022986E-2,-1.06669486E-1,4.612788E-1,-1.9063807E-1,2.8256074E-1,6.6233444E-1,3.7619274E-2,-2.72896E-1,2.2599494E-1,-1.0470858E-2,4.5563662E-1,2.274951E-3,8.866975E-1,2.0669872E-2,-1.8231072E-2,-6.916662E-4,-2.2689862E-2,-1.3807776E-2,2.1128688E-2,3.296292E-2,-4.2616613E-3,1.4047255E-2,5.3733386E-2],"categories":[],"categories_nodes":[],"categories_segments":[],"categories_sizes":[],"default_left":[0,0,0,0,0,0,0,0,0,0,0,0,0,0,0,0,0,0,0,0,0,0,0],"id":1,"left_children":[1,3,5,7,9,11,13,15,17,-1,19,-1,21,-1,-1,-1,-1,-1,-1,-1,-1,-1,-1],"loss_changes":[2.0037321E1,1.2655609E1,5.8446302E0,1.1193448E1,6.4292803E0,6.14254E0,5.3092523E0,1.2291805E1,5.9860344E0,0E0,6.401457E0,0E0,1.8228073E0,0E0,0E0,0E0,0E0,0E0,0E0,0E0,0E0,0E0,0E0],"parents":[2147483647,0,0,1,1,2,2,3,3,4,4,5,5,6,6,7,7,8,8,10,10,12,12],"right_children":[2,4,6,8,10,12,14,16,18,-1,20,-1,22,-1,-1,-1,-1,-1,-1,-1,-1,-1,-1],"split_conditions":[2.5003928E2,2.71E1,3.95E0,7E-1,7.764815E-2,9E-1,2.9353234E-1,1.8494807E-1,7.4682094E-2,-1.0470858E-2,1.4E0,2.274951E-3,2.1192777E0,2.0669872E-2,-1.8231072E-2,-6.916662E-4,-2.2689862E-2,-1.3807776E-2,2.1128688E-2,3.296292E-2,-4.2616613E-3,1.4047255E-2,5.3733386E-2],"split_indices":[147,62,26,74,29,31,96,9,29,0,74,0,22,0,0,0,0,0,0,0,0,0,0],"split_type":[0,0,0,0,0,0,0,0,0,0,0,0,0,0,0,0,0,0,0,0,0,0,0],"sum_hessian":[4.4457422E2,3.753872E2,6.9187035E1,3.119302E2,6.345699E1,4.420954E1,2.4977495E1,2.6294144E2,4.8988758E1,1.5489227E1,4.7967762E1,1.3989916E1,3.0219625E1,1.3484482E1,1.1493012E1,1.1146392E2,1.5147752E2,1.24973545E1,3.64914E1,3.4724873E1,1.3242891E1,1.0740485E1,1.947914E1],"tree_param":{"num_deleted":"0","num_feature":"211","num_nodes":"23","size_leaf_vector":"1"}},{"base_weights":[-2.6711024E-2,-1.2774593E-1,4.5888883E-1,1.0559995E-1,-2.6504442E-1,8.063304E-2,7.691311E-1,5.1180003E-3,3.8537834E-2,-3.4865838E-1,2.9147714E-1,2.0874467E-2,-1.4930653E-2,1.1517941E-2,4.935643E-2,1.140981E-2,-1.4260921E-2,2.3058804E-2,-2.0270519E-2,2.8538112E-2,-2.735602E-3],"categories":[],"categories_nodes":[],"categories_segments":[],"categories_sizes":[],"default_left":[0,0,0,0,0,0,0,0,0,0,0,0,0,0,0,0,0,0,0,0,0],"id":2,"left_children":[1,3,5,7,9,11,13,15,-1,17,19,-1,-1,-1,-1,-1,-1,-1,-1,-1,-1],"loss_changes":[2.1960272E1,1.2173716E1,8.28669E0,8.978969E0,1.1596605E1,5.9146333E0,3.0608768E0,8.567572E0,0E0,1.0544277E1,3.6035833E0,0E0,0E0,0E0,0E0,0E0,0E0,0E0,0E0,0E0,0E0],"parents":[2147483647,0,0,1,1,2,2,3,3,4,4,5,5,6,6,7,7,9,9,10,10],"right_children":[2,4,6,8,10,12,14,16,-1,18,20,-1,-1,-1,-1,-1,-1,-1,-1,-1,-1],"split_conditions":[2.4942595E2,2.2727273E-1,1.415E-1,6.340842E0,5.335243E0,2.777778E-1,1.84E1,1.4357044E0,3.8537834E-2,3.56E1,7.253669E-1,2.0874467E-2,-1.4930653E-2,1.1517941E-2,4.935643E-2,1.140981E-2,-1.4260921E-2,2.3058804E-2,-2.0270519E-2,2.8538112E-2,-2.735602E-3],"split_indices":[147,96,51,90,130,168,63,8,0,78,113,0,0,0,0,0,0,0,0,0,0],"split_type":[0,0,0,0,0,0,0,0,0,0,0,0,0,0,0,0,0,0,0,0,0],"sum_hessian":[4.399982E2,3.681206E2,7.187761E1,1.3544223E2,2.3267838E2,3.5953407E1,3.5924202E1,1.2269714E2,1.2745078E1,2.0469078E2,2.7987583E1,1.947204E1,1.6481367E1,1.3971443E1,2.1952759E1,7.0964386E1,5.173276E1,1.0494615E1,1.9419617E2,1.4494814E1,1.349277E1],"tree_param":{"num_deleted":"0","num_feature":"211","num_nodes":"21","size_leaf_vector":"1"}},{"base_weights":[-7.1866596E-3,-2.051889E-1,2.141799E-1,2.8513288E-1,-3.0529624E-1,2.789895E-3,4.051952E-1,-9.0534315E-2,3.327778E-2,-1.4947632E-1,-5.5375284E-1,-1.4469433E-1,4.2836633E-1,5.5361515E-1,-3.5475187E-2,-2.422702E-2,1.5019088E-2,-1.4553216E-2,1.0691951E-2,-3.546564E-2,2.3701328E-3,2.0305336E-2,-1.3580647E-2,2.7906555E-3,3.507175E-2,3.2915832E-3,3.5602216E-2,-2.4062669E-2,1.2946955E-2],"categories":[],"categories_nodes":[],"categories_segments":[],"categories_sizes":[],"default_left":[0,0,0,0,0,0,0,0,0,0,0,0,0,0,0,0,0,0,0,0,0,0,0,0,0,0,0,0,0],"id":3,"left_children":[1,3,5,7,9,11,13,15,-1,17,19,21,23,25,27,-1,-1,-1,-1,-1,-1,-1,-1,-1,-1,-1,-1,-1,-1],"loss_changes":[2.0219185E1,1.2454072E1,8.541815E0,6.7653832E0,7.226486E0,7.303107E0,7.720274E0,4.7451987E0,0E0,7.2919683E0,7.651146E0,6.3515234E0,2.5008035E0,5.973486E0,4.96206E0,0E0,0E0,0E0,0E0,0E0,0E0,0E0,0E0,0E0,0E0,0E0,0E0,0E0,0E0],"parents":[2147483647,0,0,1,1,2,2,3,3,4,4,5,5,6,6,7,7,9,9,10,10,11,11,12,12,13,13,14,14],"right_children":[2,4,6,8,10,12,14,16,-1,18,20,22,24,26,28,-1,-1,-1,-1,-1,-1,-1,-1,-1,-1,-1,-1,-1,-1],"split_conditions":[2.43E1,1.988813E-1,1.4445326E-1,5.268E0,2.5882354E-1,1.52E1,2.4680738E-1,1.1627907E-1,3.327778E-2,8.3722E0,3.91E-1,6.2696495E0,4.7553325E-1,4.6402878E-1,7.1775246E-1,-2.422702E-2,1.5019088E-2,-1.4553216E-2,1.0691951E-2,-3.546564E-2,2.3701328E-3,2.0305336E-2,-1.3580647E-2,2.7906555E-3,3.507175E-2,3.2915832E-3,3.5602216E-2,-2.4062669E-2,1.2946955E-2],"split_indices":[84,195,32,1,95,77,127,112,0,138,73,53,86,86,114,0,0,0,0,0,0,0,0,0,0,0,0,0,0],"split_type":[0,0,0,0,0,0,0,0,0,0,0,0,0,0,0,0,0,0,0,0,0,0,0,0,0,0,0,0,0],"sum_hessian":[4.5138724E2,2.3965286E2,2.1173439E2,3.8219467E1,2.014334E2,1.0415752E2,1.0757688E2,2.0485653E1,1.7733812E1,1.2995343E2,7.1479965E1,7.8929504E1,2.522801E1,8.0363266E1,2.7213612E1,1.0243117E1,1.0242536E1,9.5216896E1,3.473653E1,5.673175E1,1.4748215E1,1.1983838E1,6.694566E1,1.3991762E1,1.1236247E1,2.2211246E1,5.815202E1,1.0237717E1,1.6975895E1],"tree_param":{"num_deleted":"0","num_feature":"211","num_nodes":"29","size_leaf_vector":"1"}},{"base_weights":[1.3703775E-2,-9.713461E-2,4.5353997E-1,-1.5924819E-1,4.6157566E-1,-2.608483E-2,6.296981E-1,-2.1323308E-1,2.83552E-2,-2.4593102E-3,6.9222325E-1,1.8570827E-2,-2.2880327E-2,7.7670664E-1,5.03885E-3,-1.5049479E-2,7.991172E-3,9.2855655E-3,4.6204936E-2,1.1467471E-2,4.410098E-2],"categories":[],"categories_nodes":[],"categories_segments":[],"categories_sizes":[],"default_left":[0,0,0,0,0,0,0,0,0,0,0,0,0,0,0,0,0,0,0,0,0],"id":4,"left_children":[1,3,5,7,9,11,13,15,-1,-1,17,-1,-1,19,-1,-1,-1,-1,-1,-1,-1],"loss_changes":[2.2447504E1,1.2864294E1,8.22661E0,1.3466316E1,4.8436522E0,5.8627067E0,4.523432E0,1.0583888E1,0E0,0E0,1.6941099E0,0E0,0E0,1.4528828E0,0E0,0E0,0E0,0E0,0E0,0E0,0E0],"parents":[2147483647,0,0,1,1,2,2,3,3,4,4,5,5,6,6,7,7,10,10,13,13],"right_children":[2,4,6,8,10,12,14,16,-1,-1,18,-1,-1,20,-1,-1,-1,-1,-1,-1,-1],"split_conditions":[2.71E1,1.4E0,1.1954545E-1,4.7527075E-2,-1.4141795E-2,3.1514292E0,4.9537718E-1,1.8449736E-1,2.83552E-2,-2.4593102E-3,3.276076E-1,1.8570827E-2,-2.2880327E-2,-4.8785266E-3,5.03885E-3,-1.5049479E-2,7.991172E-3,9.2855655E-3,4.6204936E-2,1.1467471E-2,4.410098E-2],"split_indices":[62,67,51,124,124,13,52,51,0,0,195,0,0,210,0,0,0,0,0,0,0],"split_type":[0,0,0,0,0,0,0,0,0,0,0,0,0,0,0,0,0,0,0,0,0],"sum_hessian":[4.4728094E2,3.5945703E2,8.7823906E1,3.2751584E2,3.1941189E1,2.3973272E1,6.385063E1,3.0878638E2,1.8729488E1,1.0486062E1,2.1455126E1,1.2237913E1,1.1735359E1,4.7391056E1,1.6459574E1,2.5184859E2,5.6937786E1,1.0242388E1,1.1212739E1,1.097676E1,3.64143E1],"tree_param":{"num_deleted":"0","num_feature":"211","num_nodes":"21","size_leaf_vector":"1"}},{"base_weights":[3.2463897E-2,-7.855877E-2,3.111558E-1,5.1508176E-1,-1.2940255E-1,6.60995E-1,1.4832322E-1,-0E0,4.071178E-2,4.2046428E-2,-3.3340433E-1,1.12797115E-2,4.3919288E-2,2.801518E-1,-2.0523332E-2,9.88759E-3,-1.7741991E-2,-2.0578643E-2,1.47464825E-2,5.3250273E-3,4.054375E-2],"categories":[],"categories_nodes":[],"categories_segments":[],"categories_sizes":[],"default_left":[0,0,0,0,0,0,0,0,0,0,0,0,0,0,0,0,0,0,0,0,0],"id":5,"left_children":[1,3,5,7,9,11,13,-1,-1,15,17,-1,-1,19,-1,-1,-1,-1,-1,-1,-1],"loss_changes":[1.4375767E1,1.0084259E1,6.65051E0,3.6361518E0,1.0996514E1,2.209999E0,7.714755E0,0E0,0E0,1.08141575E1,7.671444E0,0E0,0E0,6.7435036E0,0E0,0E0,0E0,0E0,0E0,0E0,0E0],"parents":[2147483647,0,0,1,1,2,2,3,3,4,4,5,5,6,6,9,9,10,10,13,13],"right_children":[2,4,6,8,10,12,14,-1,-1,16,18,-1,-1,20,-1,-1,-1,-1,-1,-1,-1],"split_conditions":[2.31E1,1.5384616E-1,-1.5181904E-2,3.8659096E-1,1.2928406E0,-3.4057002E0,1.3786316E-1,-0E0,4.071178E-2,7E0,3.3540374E-1,1.12797115E-2,4.3919288E-2,3E-1,-2.0523332E-2,9.88759E-3,-1.7741991E-2,-2.0578643E-2,1.47464825E-2,5.3250273E-3,4.054375E-2],"split_indices":[61,36,208,33,8,154,34,0,0,16,109,0,0,67,0,0,0,0,0,0,0],"split_type":[0,0,0,0,0,0,0,0,0,0,0,0,0,0,0,0,0,0,0,0,0],"sum_hessian":[4.5190814E2,3.2445233E2,1.27455795E2,2.1218811E1,3.0323352E2,3.464818E1,9.2807625E1,1.0242083E1,1.09767275E1,1.6558751E2,1.3764601E2,1.5697378E1,1.8950798E1,7.783335E1,1.4974272E1,1.2163608E2,4.395143E1,1.24658394E2,1.2987617E1,6.387807E1,1.3955278E1],"tree_param":{"num_deleted":"0","num_feature":"211","num_nodes":"21","size_leaf_vector":"1"}},{"base_weights":[2.1707416E-2,-6.411238E-2,3.823383E-1,-2.555922E-1,6.085814E-2,5.049498E-1,-9.672839E-3,-7.9019696E-2,-7.0990056E-1,-3.2940254E-2,4.2879376E-1,-0E0,6.747309E-1,-1.7002149E-2,9.1210045E-3,-5.201206E-3,-4.557468E-2,2.1259813E-2,-6.9447025E-3,6.1893056E-4,4.2621166E-2,4.842293E-2,-0E0],"categories":[],"categories_nodes":[],"categories_segments":[],"categories_sizes":[],"default_left":[0,0,0,0,0,0,0,0,0,0,0,0,0,0,0,0,0,0,0,0,0,0,0],"id":6,"left_children":[1,3,5,7,9,11,-1,13,15,17,19,-1,21,-1,-1,-1,-1,-1,-1,-1,-1,-1,-1],"loss_changes":[1.4264956E1,8.984112E0,6.905504E0,1.119087E1,8.040789E0,6.213331E0,0E0,8.096051E0,3.9014664E0,9.036008E0,7.8391924E0,0E0,1.1048613E1,0E0,0E0,0E0,0E0,0E0,0E0,0E0,0E0,0E0,0E0],"parents":[2147483647,0,0,1,1,2,2,3,3,4,4,5,5,7,7,8,8,9,9,10,10,12,12],"right_children":[2,4,6,8,10,12,-1,14,16,18,20,-1,22,-1,-1,-1,-1,-1,-1,-1,-1,-1,-1],"split_conditions":[2.71E1,2.31E1,4.3618903E-1,7.9238424E0,9.043201E1,5E0,-9.672839E-3,1E0,-1.3681845E-2,-4.404762E0,2.4459077E-1,-0E0,5.142865E-1,-1.7002149E-2,9.1210045E-3,-5.201206E-3,-4.557468E-2,2.1259813E-2,-6.9447025E-3,6.1893056E-4,4.2621166E-2,4.842293E-2,-0E0],"split_indices":[62,84,59,192,55,14,0,179,124,153,58,0,142,0,0,0,0,0,0,0,0,0,0],"split_type":[0,0,0,0,0,0,0,0,0,0,0,0,0,0,0,0,0,0,0,0,0,0,0],"sum_hessian":[4.468129E2,3.6312436E2,8.368852E1,1.429189E2,2.2020546E2,7.021937E1,1.3469159E1,1.079378E2,3.4981102E1,1.780168E2,4.2188667E1,1.9444124E1,5.077524E1,5.421669E1,5.3721104E1,1.1245046E1,2.3736053E1,2.972103E1,1.4829578E2,2.446585E1,1.7722818E1,3.385327E1,1.692197E1],"tree_param":{"num_deleted":"0","num_feature":"211","num_nodes":"23","size_leaf_vector":"1"}},{"base_weights":[9.0879925E-2,-9.255963E-3,4.082814E-1,-6.458689E-2,5.0764376E-1,-1.7949566E-2,5.6530523E-1,-3.4344386E-2,-1.1864973E-2,1.2058556E-3,3.9200332E-2,1.8282605E-2,-1.5647626E-2,-5.5283774E-3,6.90464E-1,8.929952E-3,-7.7064834E-3,4.07872E-2,8.459452E-3],"categories":[],"categories_nodes":[],"categories_segments":[],"categories_sizes":[],"default_left":[0,0,0,0,0,0,0,0,0,0,0,0,0,0,0,0,0,0,0],"id":7,"left_children":[1,3,5,7,9,11,13,-1,15,-1,-1,-1,-1,-1,17,-1,-1,-1,-1],"loss_changes":[1.4667367E1,9.931831E0,7.708952E0,1.01353245E1,3.9730272E0,4.358657E0,7.5778465E0,0E0,8.297186E0,0E0,0E0,0E0,0E0,0E0,3.4018784E0,0E0,0E0,0E0,0E0],"parents":[2147483647,0,0,1,1,2,2,3,3,4,4,5,5,6,6,8,8,14,14],"right_children":[2,4,6,8,10,12,14,-1,16,-1,-1,-1,-1,-1,18,-1,-1,-1,-1],"split_conditions":[2.41E1,6.1194057E0,1.19935066E-1,1.35E1,2.04E1,2.7664115E0,7.1133035E-1,-3.4344386E-2,5.74E1,1.2058556E-3,3.9200332E-2,1.8282605E-2,-1.5647626E-2,-5.5283774E-3,2.2123913E-1,8.929952E-3,-7.7064834E-3,4.07872E-2,8.459452E-3],"split_indices":[61,90,51,66,61,22,114,0,83,0,0,0,0,0,128,0,0,0,0],"split_type":[0,0,0,0,0,0,0,0,0,0,0,0,0,0,0,0,0,0,0],"sum_hessian":[4.4960886E2,3.4427396E2,1.053349E2,3.1581088E2,2.8463058E1,2.8693232E1,7.664167E1,1.9227985E1,2.9658292E2,1.29868E1,1.5476258E1,1.12161665E1,1.7477066E1,1.1441912E1,6.519975E1,1.2476111E2,1.718218E2,4.9515755E1,1.5684003E1],"tree_param":{"num_deleted":"0","num_feature":"211","num_nodes":"19","size_leaf_vector":"1"}},{"base_weights":[5.2197445E-3,-8.779713E-2,3.7783825E-1,3.8231972E-1,-1.5250699E-1,6.453288E-1,9.53855E-3,6.982308E-1,-2.1533694E-3,-2.2058557E-1,3.1108856E-1,5.417459E-3,8.718554E-1,-2.8342336E-1,2.4406174E-2,1.3361295E-2,4.330777E-2,-1.3416273E-2,2.5307178E-2,-1.1091384E-2,2.705248E-2,1.4625266E-2,5.1667728E-2,6.3632526E-3,-3.734876E-2],"categories":[],"categories_nodes":[],"categories_segments":[],"categories_sizes":[],"default_left":[0,0,0,0,0,0,0,0,0,0,0,0,0,0,0,0,0,0,0,0,0,0,0,0,0],"id":8,"left_children":[1,3,5,7,9,11,13,15,-1,17,19,-1,21,23,-1,-1,-1,-1,-1,-1,-1,-1,-1,-1,-1],"loss_changes":[1.5914515E1,1.1226972E1,8.700281E0,6.450078E0,1.0517422E1,5.4118233E0,7.0397816E0,1.915865E-1,0E0,1.0489851E1,5.9798217E0,0E0,1.1464272E0,6.5244102E0,0E0,0E0,0E0,0E0,0E0,0E0,0E0,0E0,0E0,0E0,0E0],"parents":[2147483647,0,0,1,1,2,2,3,3,4,4,5,5,6,6,7,7,9,9,10,10,12,12,13,13],"right_children":[2,4,6,8,10,12,14,16,-1,18,20,-1,22,24,-1,-1,-1,-1,-1,-1,-1,-1,-1,-1,-1],"split_conditions":[2.71E1,6.899004E0,4.478453E-1,4.446031E-1,2.95E1,1.351309E-1,1.034E0,4.3423262E-1,-2.1533694E-3,4.7527075E-2,1.2829112E-1,5.417459E-3,2.7641428E0,9.568248E1,2.4406174E-2,1.3361295E-2,4.330777E-2,-1.3416273E-2,2.5307178E-2,-1.1091384E-2,2.705248E-2,1.4625266E-2,5.1667728E-2,6.3632526E-3,-3.734876E-2],"split_indices":[62,192,35,35,84,32,38,59,0,124,32,0,11,87,0,0,0,0,0,0,0,0,0,0,0],"split_type":[0,0,0,0,0,0,0,0,0,0,0,0,0,0,0,0,0,0,0,0,0,0,0,0,0],"sum_hessian":[4.4519376E2,3.58245E2,8.694878E1,3.944069E1,3.188043E2,4.740252E1,3.9546253E1,2.1466854E1,1.7973833E1,2.8120853E2,3.7595768E1,1.6911858E1,3.0490662E1,2.514695E1,1.4399305E1,1.0486317E1,1.0980537E1,2.6747934E2,1.3729199E1,1.0730729E1,2.6865038E1,1.0385698E1,2.0104965E1,1.4685147E1,1.0461802E1],"tree_param":{"num_deleted":"0","num_feature":"211","num_nodes":"25","size_leaf_vector":"1"}},{"base_weights":[-2.317404E-2,-1.0187205E-1,3.6759943E-1,1.44154E-1,-2.2971338E-1,6.097873E-1,-0E0,2.2821674E-2,3.9334543E-2,-5.2856505E-1,-6.277345E-2,8.323354E-1,1.4931029E-3,-1.7308926E-2,2.1083696E-2,1.3426236E-2,-1.5912144E-2,-3.243978E-2,4.225196E-3,4.052434E-3,-1.900366E-2,1.4918315E-2,4.9831897E-2],"categories":[],"categories_nodes":[],"categories_segments":[],"categories_sizes":[],"default_left":[0,0,0,0,0,0,0,0,0,0,0,0,0,0,0,0,0,0,0,0,0,0,0],"id":9,"left_children":[1,3,5,7,9,11,13,15,-1,17,19,21,-1,-1,-1,-1,-1,-1,-1,-1,-1,-1,-1],"loss_changes":[1.380886E1,1.207409E1,6.75342E0,9.69777E0,1.2087069E1,5.305994E0,5.767921E0,1.0104393E1,0E0,7.072157E0,7.975893E0,6.741123E-1,0E0,0E0,0E0,0E0,0E0,0E0,0E0,0E0,0E0,0E0,0E0],"parents":[2147483647,0,0,1,1,2,2,3,3,4,4,5,5,6,6,7,7,9,9,10,10,11,11],"right_children":[2,4,6,8,10,12,14,16,-1,18,20,22,-1,-1,-1,-1,-1,-1,-1,-1,-1,-1,-1],"split_conditions":[2.5003928E2,2.254902E-1,9.168081E0,5.30904E0,1.86E1,4.802319E0,3.115942E-1,4.751144E0,3.9334543E-2,6.33E0,4.3131536E-1,3.8261268E-1,1.4931029E-3,-1.7308926E-2,2.1083696E-2,1.3426236E-2,-1.5912144E-2,-3.243978E-2,4.225196E-3,4.052434E-3,-1.900366E-2,1.4918315E-2,4.9831897E-2],"split_indices":[147,96,99,92,62,206,95,25,0,17,122,144,0,0,0,0,0,0,0,0,0,0,0],"split_type":[0,0,0,0,0,0,0,0,0,0,0,0,0,0,0,0,0,0,0,0,0,0,0],"sum_hessian":[4.4225525E2,3.722614E2,6.999381E1,1.2573666E2,2.4652477E2,4.04154E1,2.9578415E1,1.10774506E2,1.4962154E1,8.339932E1,1.6312544E2,2.701131E1,1.3404089E1,1.6899044E1,1.2679371E1,6.585905E1,4.491545E1,7.016356E1,1.3235763E1,1.1372464E2,4.940081E1,1.0384741E1,1.6626572E1],"tree_param":{"num_deleted":"0","num_feature":"211","num_nodes":"23","size_leaf_vector":"1"}},{"base_weights":[2.9961754E-2,-1.3094363E-1,2.1179548E-1,-2.1013957E-2,-6.2522197E-1,-0E0,3.7895787E-1,-5.2738875E-1,5.402667E-2,-8.506711E-1,1.3701007E-3,5.557119E-1,-2.1831347E-1,8.118504E-2,6.50103E-1,-1.8231593E-3,-3.950302E-2,-1.6808657E-2,7.815693E-3,-5.0651994E-2,-1.5087654E-2,2.4414423E-3,3.984074E-2,-3.264844E-2,3.5630935E-3,-8.087193E-3,3.752769E-2,8.960861E-3,4.0124636E-2],"categories":[],"categories_nodes":[],"categories_segments":[],"categories_sizes":[],"default_left":[0,0,0,0,0,0,0,0,0,0,0,0,0,0,0,0,0,0,0,0,0,0,0,0,0,0,0,0,0],"id":10,"left_children":[1,3,5,7,9,11,13,15,17,19,-1,21,23,25,27,-1,-1,-1,-1,-1,-1,-1,-1,-1,-1,-1,-1,-1,-1],"loss_changes":[1.3325026E1,1.2652014E1,7.607953E0,8.067763E0,6.805624E0,1.2646115E1,9.052515E0,2.98109E0,7.3530397E0,7.0508957E-1,0E0,2.972311E0,9.965516E0,1.12668295E1,3.1796646E0,0E0,0E0,0E0,0E0,0E0,0E0,0E0,0E0,0E0,0E0,0E0,0E0,0E0,0E0],"parents":[2147483647,0,0,1,1,2,2,3,3,4,4,5,5,6,6,7,7,8,8,9,9,11,11,12,12,13,13,14,14],"right_children":[2,4,6,8,10,12,14,16,18,20,-1,22,24,26,28,-1,-1,-1,-1,-1,-1,-1,-1,-1,-1,-1,-1,-1,-1],"split_conditions":[2.43E1,2.7078384E-1,4.2083332E-1,3.143941E1,1.5E0,-1.16566606E-1,4.1791163E-3,-2.1280102E-3,2.55E1,1.94E1,1.3701007E-3,3.3950913E-1,1.149196E0,1.53E1,2.4841971E0,-1.8231593E-3,-3.950302E-2,-1.6808657E-2,7.815693E-3,-5.0651994E-2,-1.5087654E-2,2.4414423E-3,3.984074E-2,-3.264844E-2,3.5630935E-3,-8.087193E-3,3.752769E-2,8.960861E-3,4.0124636E-2],"split_indices":[84,94,52,186,31,127,207,169,81,75,0,33,5,77,130,0,0,0,0,0,0,0,0,0,0,0,0,0,0],"split_type":[0,0,0,0,0,0,0,0,0,0,0,0,0,0,0,0,0,0,0,0,0,0,0,0,0,0,0,0,0],"sum_hessian":[4.4431033E2,2.3500397E2,2.0930635E2,1.9733905E2,3.766492E1,9.438938E1,1.1491697E2,2.243956E1,1.7489949E2,2.743598E1,1.0228943E1,2.4372742E1,7.001665E1,5.8744545E1,5.6172424E1,1.0469666E1,1.1969894E1,3.293599E1,1.419635E2,1.7207539E1,1.0228442E1,1.0462759E1,1.3909983E1,2.6176918E1,4.3839725E1,4.5335957E1,1.34085865E1,1.719647E1,3.8975956E1],"tree_param":{"num_deleted":"0","num_feature":"211","num_nodes":"29","size_leaf_vector":"1"}},{"base_weights":[3.77289E-4,-3.919623E-1,7.4600734E-2,-5.9915227E-1,1.0081546E-2,5.7053403E-3,5.058863E-1,-5.147949E-4,-7.656578E-1,7.511674E-2,-5.5446476E-1,-1.577512E-4,6.8613666E-1,-5.061425E-3,-4.7821768E-2,-4.2867702E-3,1.2834196E-2,-4.7663618E-2,6.41831E-3,4.690282E-2,1.0204088E-2],"categories":[],"categories_nodes":[],"categories_segments":[],"categories_sizes":[],"default_left":[0,0,0,0,0,0,0,0,0,0,0,0,0,0,0,0,0,0,0,0,0],"id":11,"left_children":[1,3,5,7,-1,9,11,-1,13,15,17,-1,19,-1,-1,-1,-1,-1,-1,-1,-1],"loss_changes":[1.2990706E1,9.505774E0,1.1043584E1,4.9003277E0,0E0,1.2969701E1,5.067585E0,0E0,4.2640324E0,9.03616E0,1.1009368E1,0E0,3.171379E0,0E0,0E0,0E0,0E0,0E0,0E0,0E0,0E0],"parents":[2147483647,0,0,1,1,2,2,3,3,5,5,6,6,8,8,9,9,10,10,12,12],"right_children":[2,4,6,8,-1,10,12,-1,14,16,18,-1,20,-1,-1,-1,-1,-1,-1,-1,-1],"split_conditions":[2.67E1,6.3965885E1,1.1E0,-6.455994E-2,1.0081546E-2,8.43E1,-1.5676249E-2,-5.147949E-4,3.8152132E0,2.93E1,4.71E1,-1.577512E-4,3E0,-5.061425E-3,-4.7821768E-2,-4.2867702E-3,1.2834196E-2,-4.7663618E-2,6.41831E-3,4.690282E-2,1.0204088E-2],"split_indices":[65,103,67,128,0,41,124,0,200,81,72,0,204,0,0,0,0,0,0,0,0],"split_type":[0,0,0,0,0,0,0,0,0,0,0,0,0,0,0,0,0,0,0,0,0],"sum_hessian":[4.4152573E2,6.57636E1,3.7576215E2,4.933799E1,1.6425615E1,3.2937228E2,4.638986E1,1.2707888E1,3.6630104E1,2.9770532E2,3.1666946E1,1.2690222E1,3.3699635E1,1.0463237E1,2.6166866E1,1.577968E2,1.3990852E2,1.9203241E1,1.2463706E1,1.8345413E1,1.5354221E1],"tree_param":{"num_deleted":"0","num_feature":"211","num_nodes":"21","size_leaf_vector":"1"}},{"base_weights":[-4.995001E-4,-1.5843205E-1,1.917452E-1,-3.145331E-1,1.3233322E-1,3.6118025E-1,-8.456302E-2,2.1886533E-1,-4.3412396E-1,3.2837033E-1,-2.7949303E-1,-1.3219139E-1,4.9728945E-1,-2.3774393E-1,2.52879E-2,-1.0424429E-2,2.6837856E-2,4.982061E-3,-2.8553262E-2,-1.6664275E-3,2.9166797E-2,-3.1471863E-2,6.015896E-3,-2.7559549E-2,2.1672972E-2,3.3417176E-2,1.8922448E-3,-1.9810604E-2,1.120951E-2],"categories":[],"categories_nodes":[],"categories_segments":[],"categories_sizes":[],"default_left":[0,0,0,0,0,0,0,0,0,0,0,0,0,0,0,0,0,0,0,0,0,0,0,0,0,0,0,0,0],"id":12,"left_children":[1,3,5,7,9,11,13,15,17,19,21,23,25,27,-1,-1,-1,-1,-1,-1,-1,-1,-1,-1,-1,-1,-1,-1,-1],"loss_changes":[1.377176E1,1.1679901E1,9.813358E0,1.1155745E1,7.748439E0,9.11702E0,7.7234173E0,5.1951485E0,1.0595165E1,6.2825503E0,4.956509E0,8.568818E0,7.5591965E0,5.4922085E0,0E0,0E0,0E0,0E0,0E0,0E0,0E0,0E0,0E0,0E0,0E0,0E0,0E0,0E0,0E0],"parents":[2147483647,0,0,1,1,2,2,3,3,4,4,5,5,6,6,7,7,8,8,9,9,10,10,11,11,12,12,13,13],"right_children":[2,4,6,8,10,12,14,16,18,20,22,24,26,28,-1,-1,-1,-1,-1,-1,-1,-1,-1,-1,-1,-1,-1,-1,-1],"split_conditions":[2.94E1,5.1751137E0,4.137116E0,7.647303E0,5.964397E0,9.38E-1,5.5500835E1,2.2695035E-1,2.54E1,3.5E-1,1.88E1,1.224967E1,4E0,1.48E1,2.52879E-2,-1.0424429E-2,2.6837856E-2,4.982061E-3,-2.8553262E-2,-1.6664275E-3,2.9166797E-2,-3.1471863E-2,6.015896E-3,-2.7559549E-2,2.1672972E-2,3.3417176E-2,1.8922448E-3,-1.9810604E-2,1.120951E-2],"split_indices":[81,26,200,91,6,38,186,95,81,73,61,184,98,77,0,0,0,0,0,0,0,0,0,0,0,0,0,0,0],"split_type":[0,0,0,0,0,0,0,0,0,0,0,0,0,0,0,0,0,0,0,0,0,0,0,0,0,0,0,0,0],"sum_hessian":[4.441358E2,2.457379E2,1.9839792E2,1.6074875E2,8.498914E1,1.2315299E2,7.524493E1,2.7914248E1,1.328345E2,5.9089005E1,2.590014E1,2.5865513E1,9.7287476E1,6.2786045E1,1.2458879E1,1.19701805E1,1.5944067E1,2.665403E1,1.0618047E2,2.5417143E1,3.367186E1,1.294693E1,1.2953211E1,1.5440148E1,1.04253645E1,6.844378E1,2.8843695E1,4.8084328E1,1.47017145E1],"tree_param":{"num_deleted":"0","num_feature":"211","num_nodes":"29","size_leaf_vector":"1"}},{"base_weights":[1.2894646E-2,-6.6642374E-2,3.549079E-1,-8.467686E-3,-5.517173E-1,-5.550061E-2,5.051596E-1,-5.719128E-2,5.328025E-1,-0E0,-7.540652E-1,-2.1293579E-2,1.3797934E-2,-3.1817395E-3,6.5395397E-1,-1.3233057E-2,3.8914226E-3,-0E0,4.52154E-2,-1.3302359E-2,-4.6630334E-2,2.37257E-3,3.9489415E-2],"categories":[],"categories_nodes":[],"categories_segments":[],"categories_sizes":[],"default_left":[0,0,0,0,0,0,0,0,0,0,0,0,0,0,0,0,0,0,0,0,0,0,0],"id":13,"left_children":[1,3,5,7,9,11,13,15,17,-1,19,-1,-1,-1,21,-1,-1,-1,-1,-1,-1,-1,-1],"loss_changes":[1.2574674E1,1.0144323E1,5.7529144E0,8.7912855E0,4.1171875E0,3.980696E0,6.0336437E0,8.996683E0,5.8772287E0,0E0,5.937109E-1,0E0,0E0,0E0,3.7550755E0,0E0,0E0,0E0,0E0,0E0,0E0,0E0,0E0],"parents":[2147483647,0,0,1,1,2,2,3,3,4,4,5,5,6,6,7,7,8,8,10,10,14,14],"right_children":[2,4,6,8,10,12,14,16,18,-1,20,-1,-1,-1,22,-1,-1,-1,-1,-1,-1,-1,-1],"split_conditions":[2.78E1,1.2264E2,7.693404E-2,6.6692986E0,6.8543897E0,2.95E1,2.9178693E0,2.31E1,2.04E1,-0E0,2.830924E-1,-2.1293579E-2,1.3797934E-2,-3.1817395E-3,9.41E-1,-1.3233057E-2,3.8914226E-3,-0E0,4.52154E-2,-1.3302359E-2,-4.6630334E-2,2.37257E-3,3.9489415E-2],"split_indices":[62,191,29,90,23,81,40,84,61,0,105,0,0,0,38,0,0,0,0,0,0,0,0],"split_type":[0,0,0,0,0,0,0,0,0,0,0,0,0,0,0,0,0,0,0,0,0,0,0],"sum_hessian":[4.4761224E2,3.65238E2,8.237426E1,3.3158884E2,3.3649162E1,2.2028727E1,6.0345528E1,3.0915503E2,2.2433802E1,1.0718665E1,2.2930496E1,1.0443501E1,1.1585226E1,1.2409435E1,4.7936092E1,1.2144551E2,1.8770952E2,1.0723668E1,1.1710134E1,1.0227126E1,1.270337E1,1.0679511E1,3.7256584E1],"tree_param":{"num_deleted":"0","num_feature":"211","num_nodes":"23","size_leaf_vector":"1"}},{"base_weights":[7.5593335E-3,-5.4868143E-2,4.770218E-1,3.38125E-1,-1.1192193E-1,6.9593936E-1,-4.7228015E-3,5.2592963E-1,-1.2222702E-2,-2.3853122E-1,5.3149007E-2,1.5104013E-2,4.412226E-2,-0E0,3.7216917E-2,-1.821394E-2,6.4120176E-3,2.2185165E-2,-3.9188964E-3],"categories":[],"categories_nodes":[],"categories_segments":[],"categories_sizes":[],"default_left":[0,0,0,0,0,0,0,0,0,0,0,0,0,0,0,0,0,0,0],"id":14,"left_children":[1,3,5,7,9,11,-1,13,-1,15,17,-1,-1,-1,-1,-1,-1,-1,-1],"loss_changes":[1.3576117E1,9.092107E0,7.442175E0,6.3754573E0,7.5963087E0,1.0574665E0,0E0,4.5752935E0,0E0,9.76468E0,8.416417E0,0E0,0E0,0E0,0E0,0E0,0E0,0E0,0E0],"parents":[2147483647,0,0,1,1,2,2,3,3,4,4,5,5,7,7,9,9,10,10],"right_children":[2,4,6,8,10,12,-1,14,-1,16,18,-1,-1,-1,-1,-1,-1,-1,-1],"split_conditions":[3.17E1,5.911418E0,5.0928086E-1,2.360515E-1,2.95E1,1E0,-4.7228015E-3,3E0,-1.2222702E-2,5.1119046E0,-1.3560091E-1,1.5104013E-2,4.412226E-2,-0E0,3.7216917E-2,-1.821394E-2,6.4120176E-3,2.2185165E-2,-3.9188964E-3],"split_indices":[62,196,35,96,81,179,0,16,0,200,127,0,0,0,0,0,0,0,0],"split_type":[0,0,0,0,0,0,0,0,0,0,0,0,0,0,0,0,0,0,0],"sum_hessian":[4.4656485E2,3.9710922E2,4.9455612E1,4.6109035E1,3.5100018E2,3.560304E1,1.3852573E1,3.5885242E1,1.0223792E1,1.9909691E2,1.5190329E2,1.6512201E1,1.909084E1,1.2215394E1,2.3669847E1,1.4930493E2,4.979196E1,3.6236683E1,1.156666E2],"tree_param":{"num_deleted":"0","num_feature":"211","num_nodes":"19","size_leaf_vector":"1"}},{"base_weights":[2.4606073E-2,-3.6493193E-2,3.9885974E-1,-1.5585342E-1,1.6325927E-1,-5.068582E-3,5.8449525E-1,-3.004223E-1,1.6634233E-1,-4.641383E-2,4.5871234E-1,7.9522496E-1,2.7620874E-3,-5.2356054E-3,-2.9272199E-2,1.4018962E-2,-1.8226441E-2,-2.0836538E-2,8.819491E-3,3.140117E-2,-6.273032E-3,1.1229235E-2,4.934189E-2],"categories":[],"categories_nodes":[],"categories_segments":[],"categories_sizes":[],"default_left":[0,0,0,0,0,0,0,0,0,0,0,0,0,0,0,0,0,0,0,0,0,0,0],"id":15,"left_children":[1,3,5,7,9,-1,11,13,15,17,19,21,-1,-1,-1,-1,-1,-1,-1,-1,-1,-1,-1],"loss_changes":[1.0598192E1,9.477338E0,6.5789165E0,1.1947823E1,9.457235E0,0E0,4.8106575E0,9.122183E0,5.2809234E0,7.904596E0,6.8490324E0,1.996851E0,0E0,0E0,0E0,0E0,0E0,0E0,0E0,0E0,0E0,0E0,0E0],"parents":[2147483647,0,0,1,1,2,2,3,3,4,4,6,6,7,7,8,8,9,9,10,10,11,11],"right_children":[2,4,6,8,10,-1,12,14,16,18,20,22,-1,-1,-1,-1,-1,-1,-1,-1,-1,-1,-1],"split_conditions":[1.1E0,6.408046E1,8E-1,4.2590065E1,2.95E1,-5.068582E-3,9.548909E1,3.2272995E-1,8.480481E-1,-2.480373E0,1.0943941E1,2.4745476E0,2.7620874E-3,-5.2356054E-3,-2.9272199E-2,1.4018962E-2,-1.8226441E-2,-2.0836538E-2,8.819491E-3,3.140117E-2,-6.273032E-3,1.1229235E-2,4.934189E-2],"split_indices":[67,103,31,54,81,0,87,60,43,154,196,21,0,0,0,0,0,0,0,0,0,0,0],"split_type":[0,0,0,0,0,0,0,0,0,0,0,0,0,0,0,0,0,0,0,0,0,0,0],"sum_hessian":[4.4737247E2,3.87317E2,6.0055477E1,2.4470045E2,1.4261655E2,1.6139791E1,4.3915688E1,1.7021494E2,7.448551E1,8.489303E1,5.772351E1,2.89367E1,1.4978987E1,1.0601255E2,6.4202385E1,6.403187E1,1.0453644E1,3.1097963E1,5.3795063E1,4.5125393E1,1.2598119E1,1.0660017E1,1.8276684E1],"tree_param":{"num_deleted":"0","num_feature":"211","num_nodes":"23","size_leaf_vector":"1"}},{"base_weights":[1.1787093E-2,-1.2517342E-1,1.8308382E-1,-2.0568538E-1,3.992456E-1,3.314691E-1,-1.0143608E-1,-3.8749644E-1,1.20322116E-1,-1.1834659E-3,3.6765143E-2,5.1469445E-1,-1.9726511E-2,-2.545523E-1,2.3992717E-2,7.884704E-3,-2.7869975E-2,1.376594E-2,-2.717965E-2,3.3732526E-2,-0E0,1.4743887E-2,-3.1414505E-2,-2.1435864E-2,1.1162843E-2],"categories":[],"categories_nodes":[],"categories_segments":[],"categories_sizes":[],"default_left":[0,0,0,0,0,0,0,0,0,0,0,0,0,0,0,0,0,0,0,0,0,0,0,0,0],"id":16,"left_children":[1,3,5,7,9,11,13,15,17,-1,-1,19,21,23,-1,-1,-1,-1,-1,-1,-1,-1,-1,-1,-1],"loss_changes":[1.0543857E1,1.0771753E1,8.752814E0,1.3338342E1,5.252188E0,8.932301E0,6.8563867E0,1.3854418E1,8.968404E0,0E0,0E0,7.2658443E0,1.0643374E1,5.6152444E0,0E0,0E0,0E0,0E0,0E0,0E0,0E0,0E0,0E0,0E0,0E0],"parents":[2147483647,0,0,1,1,2,2,3,3,4,4,5,5,6,6,7,7,8,8,11,11,12,12,13,13],"right_children":[2,4,6,8,10,12,14,16,18,-1,-1,20,22,24,-1,-1,-1,-1,-1,-1,-1,-1,-1,-1,-1],"split_conditions":[2.94E1,1.932983E-1,4.236823E0,5.1751137E0,4.5801526E-1,2.9896906E-1,5.5833416E1,8.805769E0,8.0471945E0,-1.1834659E-3,3.6765143E-2,2.857143E-1,3.8817272E-1,1.48E1,2.3992717E-2,7.884704E-3,-2.7869975E-2,1.376594E-2,-2.717965E-2,3.3732526E-2,-0E0,1.4743887E-2,-3.1414505E-2,-2.1435864E-2,1.1162843E-2],"split_indices":[81,32,200,26,194,93,186,91,4,0,0,94,144,77,0,0,0,0,0,0,0,0,0,0,0],"split_type":[0,0,0,0,0,0,0,0,0,0,0,0,0,0,0,0,0,0,0,0,0,0,0,0,0],"sum_hessian":[4.3830447E2,2.4268932E2,1.9561514E2,2.1385011E2,2.8839197E1,1.2917761E2,6.643753E1,1.376659E2,7.618422E1,1.4168585E1,1.4670612E1,8.429519E1,4.4882427E1,5.5491318E1,1.0946217E1,3.209496E1,1.0557093E2,6.4747925E1,1.14363E1,6.2935497E1,2.1359692E1,3.0744398E1,1.4138029E1,4.1811043E1,1.3680274E1],"tree_param":{"num_deleted":"0","num_feature":"211","num_nodes":"25","size_leaf_vector":"1"}},{"base_weights":[1.9066656E-2,1.8073885E-1,-1.1059049E-1,-1.436941E-1,3.213011E-1,1.3432015E-2,-4.5444503E-1,2.0702165E-2,-3.7250268E-1,-1.8874105E-2,3.9665136E-1,2.9116267E-1,-2.56361E-1,1.8041767E-2,-6.8060714E-1,3.924627E-3,-3.4986433E-2,-7.319355E-3,2.602963E-2,-2.680105E-4,2.7207723E-2,-3.0777002E-2,4.146419E-3,1.690346E-2,-1.429143E-2,-5.2364226E-2,-0E0],"categories":[],"categories_nodes":[],"categories_segments":[],"categories_sizes":[],"default_left":[0,0,0,0,0,0,0,0,0,0,0,0,0,0,0,0,0,0,0,0,0,0,0,0,0,0,0],"id":17,"left_children":[1,3,5,7,9,11,13,-1,15,-1,17,19,21,23,25,-1,-1,-1,-1,-1,-1,-1,-1,-1,-1,-1,-1],"loss_changes":[9.472417E0,9.525135E0,1.0852065E1,8.841157E0,8.311976E0,1.43634E1,7.563489E0,0E0,7.7020497E0,0E0,9.491535E0,7.4213133E0,1.2261656E1,3.0258434E0,1.1039495E1,0E0,0E0,0E0,0E0,0E0,0E0,0E0,0E0,0E0,0E0,0E0,0E0],"parents":[2147483647,0,0,1,1,2,2,3,3,4,4,5,5,6,6,8,8,10,10,11,11,12,12,13,13,14,14],"right_children":[2,4,6,8,10,12,14,-1,16,-1,18,20,22,24,26,-1,-1,-1,-1,-1,-1,-1,-1,-1,-1,-1,-1],"split_conditions":[3.49E-1,2.33E1,2.712264E-1,7.9171133E0,1.5789472E0,4E-1,3.0407795E-1,2.0702165E-2,2.2818792E-1,-1.8874105E-2,2.327044E-1,3.2418501E0,4.38E1,9.221795E0,1.5666667E-1,3.924627E-3,-3.4986433E-2,-7.319355E-3,2.602963E-2,-2.680105E-4,2.7207723E-2,-3.0777002E-2,4.146419E-3,1.690346E-2,-1.429143E-2,-5.2364226E-2,-0E0],"split_indices":[73,84,94,91,25,36,60,0,95,0,109,40,79,192,51,0,0,0,0,0,0,0,0,0,0,0,0],"split_type":[0,0,0,0,0,0,0,0,0,0,0,0,0,0,0,0,0,0,0,0,0,0,0,0,0,0,0],"sum_hessian":[4.4044525E2,1.9686128E2,2.4358398E2,5.8399757E1,1.3846152E2,1.8147838E2,6.2105595E1,1.5175454E1,4.32243E1,1.0879843E1,1.2758168E2,9.014177E1,9.133661E1,2.0878204E1,4.122739E1,1.9130526E1,2.4093777E1,2.27899E1,1.0479178E2,4.2843784E1,4.729799E1,4.310616E1,4.8230453E1,1.06961E1,1.0182105E1,2.4588882E1,1.6638508E1],"tree_param":{"num_deleted":"0","num_feature":"211","num_nodes":"27","size_leaf_vector":"1"}},{"base_weights":[-1.727721E-2,-2.3870665E-1,1.11764945E-1,-6.591796E-2,-4.6722156E-1,2.8231737E-1,-5.0796185E-2,2.5282634E-2,-1.6624665E-1,3.1415166E-3,-6.48761E-1,9.795176E-2,5.5953014E-1,2.3479572E-1,-2.7248186E-1,1.670165E-2,-1.3092871E-2,-6.0087196E-3,-3.9612513E-2,1.5799945E-2,-1.1233857E-2,-1.2686081E-3,3.6590356E-2,2.1887427E-2,-1.0193161E-2,1.6653877E-2,-2.1428345E-2],"categories":[],"categories_nodes":[],"categories_segments":[],"categories_sizes":[],"default_left":[0,0,0,0,0,0,0,0,0,0,0,0,0,0,0,0,0,0,0,0,0,0,0,0,0,0,0],"id":18,"left_children":[1,3,5,7,9,11,13,-1,15,-1,17,19,21,23,25,-1,-1,-1,-1,-1,-1,-1,-1,-1,-1,-1,-1],"loss_changes":[1.3105881E1,6.2667522E0,8.1560955E0,6.186305E0,7.314887E0,6.6813784E0,9.828605E0,0E0,4.828579E0,0E0,3.1576385E0,6.924778E0,5.9662724E0,6.546142E0,9.0495615E0,0E0,0E0,0E0,0E0,0E0,0E0,0E0,0E0,0E0,0E0,0E0,0E0],"parents":[2147483647,0,0,1,1,2,2,3,3,4,4,5,5,6,6,8,8,10,10,11,11,12,12,13,13,14,14],"right_children":[2,4,6,8,10,12,14,-1,16,-1,18,20,22,24,26,-1,-1,-1,-1,-1,-1,-1,-1,-1,-1,-1,-1],"split_conditions":[2.33E1,5E0,3.49E-1,-4.1189224E-2,2.4165298E-1,1.3470376E1,5.21648E-2,2.5282634E-2,1.48E1,3.1415166E-3,2.4375E0,6.975647E-2,2.4096386E-1,2.1497219E0,2.3786408E-1,1.670165E-2,-1.3092871E-2,-6.0087196E-3,-3.9612513E-2,1.5799945E-2,-1.1233857E-2,-1.2686081E-3,3.6590356E-2,2.1887427E-2,-1.0193161E-2,1.6653877E-2,-2.1428345E-2],"split_indices":[84,16,73,197,195,184,123,0,68,0,21,44,109,146,94,0,0,0,0,0,0,0,0,0,0,0,0],"split_type":[0,0,0,0,0,0,0,0,0,0,0,0,0,0,0,0,0,0,0,0,0,0,0,0,0,0,0],"sum_hessian":[4.4677908E2,1.6436429E2,2.824148E2,9.850859E1,6.585569E1,1.3752335E2,1.4489146E2,1.0948988E1,8.75596E1,1.6932404E1,4.892329E1,8.774036E1,4.9782986E1,6.220423E1,8.268723E1,1.1209327E1,7.635028E1,1.3150722E1,3.5772568E1,5.3341965E1,3.439839E1,1.163659E1,3.8146397E1,4.3314346E1,1.8889883E1,1.51268425E1,6.756039E1],"tree_param":{"num_deleted":"0","num_feature":"211","num_nodes":"27","size_leaf_vector":"1"}},{"base_weights":[1.9675152E-2,-5.1554143E-2,3.9496386E-1,-1.5159245E-2,-3.3926383E-2,-9.964206E-3,5.5035555E-1,4.1636688E-1,-6.3176215E-2,3.938558E-3,7.633352E-1,4.583646E-2,-4.4354433E-4,2.316838E-3,-1.3492415E-2,4.94806E-2,9.8703755E-3],"categories":[],"categories_nodes":[],"categories_segments":[],"categories_sizes":[],"default_left":[0,0,0,0,0,0,0,0,0,0,0,0,0,0,0,0,0],"id":19,"left_children":[1,3,5,7,-1,-1,9,11,13,-1,15,-1,-1,-1,-1,-1,-1],"loss_changes":[1.2214761E1,8.244351E0,7.4608536E0,7.4939237E0,0E0,0E0,5.2875023E0,8.164566E0,7.7064776E0,0E0,3.5404491E0,0E0,0E0,0E0,0E0,0E0,0E0],"parents":[2147483647,0,0,1,1,2,2,3,3,6,6,7,7,8,8,10,10],"right_children":[2,4,6,8,-1,-1,10,12,14,-1,16,-1,-1,-1,-1,-1,-1],"split_conditions":[2.5003928E2,1.075E2,-1.0641666E-2,-4.0936917E-2,-3.3926383E-2,-9.964206E-3,-1.22891115E-2,3.6392465E0,4.721538E-1,3.938558E-3,1.0131332E1,4.583646E-2,-4.4354433E-4,2.316838E-3,-1.3492415E-2,4.94806E-2,9.8703755E-3],"split_indices":[147,190,210,124,0,0,124,11,150,0,99,0,0,0,0,0,0],"split_type":[0,0,0,0,0,0,0,0,0,0,0,0,0,0,0,0,0],"sum_hessian":[4.4170984E2,3.7375287E2,6.795696E1,3.5884106E2,1.4911825E1,1.3126952E1,5.483001E1,3.10477E1,3.2779337E2,1.9919876E1,3.4910133E1,1.2149088E1,1.8898613E1,2.1521388E2,1.12579475E2,2.1633543E1,1.3276589E1],"tree_param":{"num_deleted":"0","num_feature":"211","num_nodes":"17","size_leaf_vector":"1"}},{"base_weights":[7.804383E-3,-5.5094384E-2,3.2090482E-1,1.944108E-2,-3.4975007E-1,4.9923462E-1,-3.2322425E-2,3.384834E-1,-7.2615184E-2,-5.0388354E-1,4.5458726E-3,-4.2260294E-3,6.670431E-1,-2.2289043E-2,1.4130697E-2,2.5216151E-2,-5.2822526E-3,-8.508514E-3,1.7296098E-2,-0E0,-3.3529203E-2,6.540519E-3,4.1415796E-2],"categories":[],"categories_nodes":[],"categories_segments":[],"categories_sizes":[],"default_left":[0,0,0,0,0,0,0,0,0,0,0,0,0,0,0,0,0,0,0,0,0,0,0],"id":20,"left_children":[1,3,5,7,9,11,13,15,17,19,-1,-1,21,-1,-1,-1,-1,-1,-1,-1,-1,-1,-1],"loss_changes":[9.184115E0,8.586915E0,5.239748E0,9.307449E0,5.782481E0,5.7852373E0,4.61644E0,5.70347E0,1.0090753E1,5.356907E0,0E0,0E0,2.6587658E0,0E0,0E0,0E0,0E0,0E0,0E0,0E0,0E0,0E0,0E0],"parents":[2147483647,0,0,1,1,2,2,3,3,4,4,5,5,6,6,7,7,8,8,9,9,12,12],"right_children":[2,4,6,8,10,12,14,16,18,20,-1,-1,22,-1,-1,-1,-1,-1,-1,-1,-1,-1,-1],"split_conditions":[2.4888663E2,1E0,1.0957456E1,4.5E0,2.27E1,-1.0952417E-2,1.1474789E1,7.0686755E0,3.15E1,6.1714286E-1,4.5458726E-3,-4.2260294E-3,2.5776964E-1,-2.2289043E-2,1.4130697E-2,2.5216151E-2,-5.2822526E-3,-8.508514E-3,1.7296098E-2,-0E0,-3.3529203E-2,6.540519E-3,4.1415796E-2],"split_indices":[147,45,10,115,61,210,196,22,81,8,0,0,94,0,0,0,0,0,0,0,0,0,0],"split_type":[0,0,0,0,0,0,0,0,0,0,0,0,0,0,0,0,0,0,0,0,0,0,0],"sum_hessian":[4.5011206E2,3.7691653E2,7.319554E1,3.0319437E2,7.372218E1,4.8206722E1,2.498882E1,6.611262E1,2.3708174E2,5.492743E1,1.8794752E1,1.0652371E1,3.7554348E1,1.0592697E1,1.4396121E1,4.8464046E1,1.764857E1,1.9564206E2,4.143968E1,1.4178751E1,4.0748676E1,1.149369E1,2.606066E1],"tree_param":{"num_deleted":"0","num_feature":"211","num_nodes":"23","size_leaf_vector":"1"}},{"base_weights":[-5.0478443E-3,-2.9715803E-1,8.6351685E-2,1.640278E-2,-4.5158723E-1,5.253545E-3,4.2785746E-1,-7.1563214E-1,-5.0085224E-2,3.0823922E-1,-1.3932523E-1,5.6576407E-1,-7.1745156E-3,-4.7928188E-2,-1.0453429E-2,-1.9766228E-2,1.5197796E-2,2.166577E-2,-1.3068018E-2,1.3977672E-2,-1.3175701E-2,3.7209984E-2,-0E0],"categories":[],"categories_nodes":[],"categories_segments":[],"categories_sizes":[],"default_left":[0,0,0,0,0,0,0,0,0,0,0,0,0,0,0,0,0,0,0,0,0,0,0],"id":21,"left_children":[1,3,5,-1,7,9,11,13,15,17,19,21,-1,-1,-1,-1,-1,-1,-1,-1,-1,-1,-1],"loss_changes":[1.2184434E1,1.1336885E1,9.285811E0,0E0,9.0047245E0,1.2732589E1,5.7128925E0,4.97468E0,5.7714205E0,7.3748713E0,1.0476737E1,5.215372E0,0E0,0E0,0E0,0E0,0E0,0E0,0E0,0E0,0E0,0E0,0E0],"parents":[2147483647,0,0,1,1,2,2,4,4,5,5,6,6,7,7,8,8,9,9,10,10,11,11],"right_children":[2,4,6,-1,8,10,12,14,16,18,20,22,-1,-1,-1,-1,-1,-1,-1,-1,-1,-1,-1],"split_conditions":[1E-1,8.331385E0,2.4888663E2,1.640278E-2,9E0,-1.0416666E0,4.3500752E0,2.429293E-1,7.0699615E0,2.0508802E0,1.48E1,1.5417559E0,-7.1745156E-3,-4.7928188E-2,-1.0453429E-2,-1.9766228E-2,1.5197796E-2,2.166577E-2,-1.3068018E-2,1.3977672E-2,-1.3175701E-2,3.7209984E-2,-0E0],"split_indices":[67,91,147,0,48,153,200,50,154,8,68,133,0,0,0,0,0,0,0,0,0,0,0],"split_type":[0,0,0,0,0,0,0,0,0,0,0,0,0,0,0,0,0,0,0,0,0,0,0],"sum_hessian":[4.426142E2,1.0410672E2,3.3850748E2,1.8866316E1,8.52404E1,2.7883334E2,5.9674152E1,4.831146E1,3.692894E1,8.936161E1,1.8947173E2,4.8815506E1,1.0858647E1,2.896993E1,1.9341528E1,1.9116718E1,1.7812223E1,7.4972755E1,1.4388852E1,4.0977306E1,1.4849442E2,3.551965E1,1.3295855E1],"tree_param":{"num_deleted":"0","num_feature":"211","num_nodes":"23","size_leaf_vector":"1"}},{"base_weights":[-2.232854E-2,-7.995762E-2,3.3292183E-1,-1.4435694E-1,2.0120236E-1,-9.485542E-3,4.9095577E-1,-5.8681905E-1,-6.7078255E-2,3.8154757E-1,-1.7229663E-2,6.821992E-2,3.7746053E-2,-3.9231356E-2,-0E0,1.6428294E-2,-8.430392E-3,2.9584983E-2,-6.477324E-3,-8.068598E-3,1.5248331E-2],"categories":[],"categories_nodes":[],"categories_segments":[],"categories_sizes":[],"default_left":[0,0,0,0,0,0,0,0,0,0,0,0,0,0,0,0,0,0,0,0,0],"id":22,"left_children":[1,3,5,7,9,-1,11,13,15,17,-1,19,-1,-1,-1,-1,-1,-1,-1,-1,-1],"loss_changes":[9.139131E0,7.161336E0,5.7388353E0,1.0449164E1,7.875965E0,0E0,4.882312E0,5.321372E0,1.1436641E1,6.848523E0,0E0,1.695668E0,0E0,0E0,0E0,0E0,0E0,0E0,0E0,0E0,0E0],"parents":[2147483647,0,0,1,1,2,2,3,3,4,4,6,6,7,7,8,8,9,9,11,11],"right_children":[2,4,6,8,10,-1,12,14,16,18,-1,20,-1,-1,-1,-1,-1,-1,-1,-1,-1],"split_conditions":[1.1E0,4.2731818E-2,2.0802955E-1,2.62E1,1.0670266E-1,-9.485542E-3,2.1E1,1.695E-1,8.769593E0,7.7819556E-2,-1.7229663E-2,3.3114038E0,3.7746053E-2,-3.9231356E-2,-0E0,1.6428294E-2,-8.430392E-3,2.9584983E-2,-6.477324E-3,-8.068598E-3,1.5248331E-2],"split_indices":[67,169,28,65,7,0,108,51,91,169,0,40,0,0,0,0,0,0,0,0,0],"split_type":[0,0,0,0,0,0,0,0,0,0,0,0,0,0,0,0,0,0,0,0,0],"sum_hessian":[4.4108145E2,3.840608E2,5.7020645E1,3.159126E2,6.814818E1,1.2271517E1,4.4749126E1,4.11082E1,2.748044E2,5.3042355E1,1.5105827E1,2.0348215E1,2.4400911E1,2.943415E1,1.1674047E1,5.2829815E1,2.219746E2,3.772166E1,1.5320692E1,1.0066177E1,1.0282039E1],"tree_param":{"num_deleted":"0","num_feature":"211","num_nodes":"21","size_leaf_vector":"1"}},{"base_weights":[-1.1156304E-2,-7.614162E-2,2.5373554E-1,2.9804823E-1,-1.2929194E-1,7.3577516E-2,5.540084E-1,5.2270603E-1,-1.0102736E-2,-4.838856E-1,-4.941837E-2,3.6533418E-1,-1.359225E-1,8.710919E-3,4.342213E-2,8.735162E-3,3.9022014E-2,-4.8088785E-2,-6.591274E-3,2.6620433E-3,-1.34610925E-2,-3.6661793E-3,3.827187E-2,-2.1570299E-2,1.5853342E-2],"categories":[],"categories_nodes":[],"categories_segments":[],"categories_sizes":[],"default_left":[0,0,0,0,0,0,0,0,0,0,0,0,0,0,0,0,0,0,0,0,0,0,0,0,0],"id":23,"left_children":[1,3,5,7,9,11,13,15,-1,17,19,21,23,-1,-1,-1,-1,-1,-1,-1,-1,-1,-1,-1,-1],"loss_changes":[7.7560043E0,7.4033165E0,4.2596116E0,5.8524723E0,8.842327E0,4.1526375E0,2.4610367E0,1.8722649E0,0E0,8.608319E0,6.3320355E0,5.5876536E0,5.9256697E0,0E0,0E0,0E0,0E0,0E0,0E0,0E0,0E0,0E0,0E0,0E0,0E0],"parents":[2147483647,0,0,1,1,2,2,3,3,4,4,5,5,6,6,7,7,9,9,10,10,11,11,12,12],"right_children":[2,4,6,8,10,12,14,16,-1,18,20,22,24,-1,-1,-1,-1,-1,-1,-1,-1,-1,-1,-1,-1],"split_conditions":[2.71E1,5.911418E0,1.052E0,2.278481E-1,2.16E1,9.960513E-2,1.1267325E-2,1.2E0,-1.0102736E-2,1.001E0,8.864546E0,2.2172748E-1,9.3E0,8.710919E-3,4.342213E-2,8.735162E-3,3.9022014E-2,-4.8088785E-2,-6.591274E-3,2.6620433E-3,-1.34610925E-2,-3.6661793E-3,3.827187E-2,-2.1570299E-2,1.5853342E-2],"split_indices":[62,196,38,96,66,34,169,31,0,37,39,129,42,0,0,0,0,0,0,0,0,0,0,0,0],"split_type":[0,0,0,0,0,0,0,0,0,0,0,0,0,0,0,0,0,0,0,0,0,0,0,0,0],"sum_hessian":[4.451084E2,3.6179935E2,8.330907E1,4.096329E1,3.2083606E2,5.7000298E1,2.6308767E1,2.8799639E1,1.2163654E1,5.3182976E1,2.6765308E2,2.326631E1,3.373399E1,1.615564E1,1.0153127E1,1.6648874E1,1.2150764E1,1.8284262E1,3.4898712E1,1.8347513E2,8.417795E1,1.2450298E1,1.0816011E1,2.1228632E1,1.2505357E1],"tree_param":{"num_deleted":"0","num_feature":"211","num_nodes":"25","size_leaf_vector":"1"}},{"base_weights":[2.4341993E-2,-2.8958738E-1,8.820806E-2,-6.3014466E-1,-4.346894E-3,2.409083E-1,-3.2362256E-2,-4.343732E-2,-9.257995E-4,2.545887E-1,-2.1528346E-2,5.0112527E-2,5.5914813E-1,-9.308202E-2,3.1519607E-2,-3.4646862E-3,2.5990153E-2,-1.3214181E-2,1.5685093E-2,3.4012354E-3,4.118262E-2,1.6805394E-2,-8.083485E-3],"categories":[],"categories_nodes":[],"categories_segments":[],"categories_sizes":[],"default_left":[0,0,0,0,0,0,0,0,0,0,0,0,0,0,0,0,0,0,0,0,0,0,0],"id":24,"left_children":[1,3,5,7,9,11,13,-1,-1,15,-1,17,19,21,-1,-1,-1,-1,-1,-1,-1,-1,-1],"loss_changes":[9.025666E0,7.0242696E0,7.1045976E0,4.390813E0,5.8274355E0,9.8317175E0,8.630904E0,0E0,0E0,3.1260989E0,0E0,9.74441E0,7.3231697E0,6.1000986E0,0E0,0E0,0E0,0E0,0E0,0E0,0E0,0E0,0E0],"parents":[2147483647,0,0,1,1,2,2,3,3,4,4,5,5,6,6,9,9,11,11,12,12,13,13],"right_children":[2,4,6,8,10,12,14,-1,-1,16,-1,18,20,22,-1,-1,-1,-1,-1,-1,-1,-1,-1],"split_conditions":[-5E-1,1.3550925E-1,8.435803E-2,2.5779377E-3,4.508622E-1,7.764815E-2,1.8698447E0,-4.343732E-2,-9.257995E-4,9.417144E1,-2.1528346E-2,3.7263036E-1,2.4607826E1,7.4928274E0,3.1519607E-2,-3.4646862E-3,2.5990153E-2,-1.3214181E-2,1.5685093E-2,3.4012354E-3,4.118262E-2,1.6805394E-2,-8.083485E-3],"split_indices":[67,51,29,210,35,29,197,0,0,87,0,33,56,91,0,0,0,0,0,0,0,0,0],"split_type":[0,0,0,0,0,0,0,0,0,0,0,0,0,0,0,0,0,0,0,0,0,0,0],"sum_hessian":[4.4382245E2,7.071707E1,3.7310538E2,2.8678356E1,4.203872E1,1.6424654E2,2.0885884E2,1.8530172E1,1.0148185E1,2.6674088E1,1.5364632E1,1.07284355E2,5.696219E1,1.959579E2,1.2900941E1,1.2822943E1,1.3851144E1,4.805577E1,5.9228584E1,2.280142E1,3.4160767E1,2.3309004E1,1.726489E2],"tree_param":{"num_deleted":"0","num_feature":"211","num_nodes":"23","size_leaf_vector":"1"}}]},"name":"gbtree"},"learner_model_param":{"base_score":"[5.0870144E-1]","boost_from_average":"1","num_class":"0","num_feature":"211","num_target":"1"},"objective":{"name":"binary:logistic","reg_loss_param":{"scale_pos_weight":"1"}}},"version":[3,1,3]}