{"learner":{"attributes":{"scikit_learn":"{\"_estimator_type\": \"regressor\"}"},"feature_names":[],"feature_types":[],"gradient_booster":{"model":{"cats":{"enc":[],"feature_segments":[],"sorted_idx":[]},"gbtree_model_param":{"num_parallel_tree":"1","num_trees":"14"},"iteration_indptr":[0,1,2,3,4,5,6,7,8,9,10,11,12,13,14],"tree_info":[0,0,0,0,0,0,0,0,0,0,0,0,0,0],"trees":[{"base_weights":[-3.2224995E-3,-1.6201627E-1,2.5562656E-1,-5.504732E-1,-3.4875955E-2,4.0335897E-1,-2.3560064E-1,-2.0399399E-1,-4.6322625E-2,1.2878267E-1,-2.9044527E-1,9.503833E-4,6.1018205E-1,1.5333332E-2,-3.0487929E-2,5.3172983E-4,-2.9077932E-2,2.0478783E-2,-2.553793E-3,1.0125673E-2,-2.1630844E-2,1.9086946E-2,-2.6252821E-2,6.2122058E-2,1.7062277E-2],"categories":[],"categories_nodes":[],"categories_segments":[],"categories_sizes":[],"default_left":[0,0,0,0,0,0,0,0,0,0,0,0,0,0,0,0,0,0,0,0,0,0,0,0,0],"id":0,"left_children":[1,3,5,7,9,11,13,15,-1,17,19,21,23,-1,-1,-1,-1,-1,-1,-1,-1,-1,-1,-1,-1],"loss_changes":[1.6970972E1,1.2340716E1,1.1897676E1,6.5987625E0,8.653654E0,9.907291E0,8.897634E0,3.517199E0,0E0,6.571224E0,6.229752E0,1.0444288E1,1.0733255E1,0E0,0E0,0E0,0E0,0E0,0E0,0E0,0E0,0E0,0E0,0E0,0E0],"parents":[2147483647,0,0,1,1,2,2,3,3,4,4,5,5,6,6,7,7,9,9,10,10,11,11,12,12],"right_children":[2,4,6,8,10,12,14,16,-1,18,20,22,24,-1,-1,-1,-1,-1,-1,-1,-1,-1,-1,-1,-1],"split_conditions":[1.78E1,2.33E1,1.0933263E1,7.473533E0,5.2335955E-2,-3.7356757E-3,3.9743784E-1,1.5754222E0,-4.6322625E-2,1.8351737E-1,3.326874E0,-2.9808778E-2,3.738033E0,1.5333332E-2,-3.0487929E-2,5.3172983E-4,-2.9077932E-2,2.0478783E-2,-2.553793E-3,1.0125673E-2,-2.1630844E-2,1.9086946E-2,-2.6252821E-2,6.2122058E-2,1.7062277E-2],"split_indices":[62,65,152,10,43,166,35,8,0,2,26,163,91,0,0,0,0,0,0,0,0,0,0,0,0],"split_type":[0,0,0,0,0,0,0,0,0,0,0,0,0,0,0,0,0,0,0,0,0,0,0,0,0],"sum_hessian":[4.039834E2,2.5273962E2,1.5124379E2,5.724765E1,1.9549197E2,1.1774516E2,3.3498623E1,3.4498585E1,2.2749065E1,1.19495094E2,7.599688E1,4.2498253E1,7.524691E1,1.3499446E1,1.9999178E1,2.4249004E1,1.0249579E1,4.5248142E1,7.424695E1,1.5749353E1,6.0247524E1,2.5998932E1,1.6499323E1,1.6499323E1,5.874759E1],"tree_param":{"num_deleted":"0","num_feature":"167","num_nodes":"25","size_leaf_vector":"1"}},{"base_weights":[1.00200055E-2,-1.9891268E-1,2.4440043E-1,-7.647838E-2,-6.7324305E-1,-1.9613322E-2,3.245116E-1,9.490914E-2,-3.20542E-1,-5.1914867E-2,1.9789152E-3,-7.6251207E-3,4.633284E-1,-7.849957E-3,1.7307695E-2,-2.2440411E-2,1.4837757E-2,1.6416365E-2,-1.3856075E-2,1.2676294E-2,3.9602406E-2],"categories":[],"categories_nodes":[],"categories_segments":[],"categories_sizes":[],"default_left":[0,0,0,0,0,0,0,0,0,0,0,0,0,0,0,0,0,0,0,0,0],"id":1,"left_children":[1,3,5,7,9,-1,11,13,15,-1,-1,17,19,-1,-1,-1,-1,-1,-1,-1,-1],"loss_changes":[2.0303106E1,1.202565E1,1.0610412E1,7.7826123E0,1.195643E1,0E0,8.439476E0,7.216571E0,6.798091E0,0E0,0E0,5.5213127E0,7.195904E0,0E0,0E0,0E0,0E0,0E0,0E0,0E0,0E0],"parents":[2147483647,0,0,1,1,2,2,3,3,4,4,6,6,7,7,8,8,11,11,12,12],"right_children":[2,4,6,8,10,-1,12,14,16,-1,-1,18,20,-1,-1,-1,-1,-1,-1,-1,-1],"split_conditions":[2.45E1,2.7055702E-1,-7.9864717E-1,1.4053759E-1,1.565E-1,-1.9613322E-2,3.0438907E0,-3.4943888E-1,8.688113E0,-5.1914867E-2,1.9789152E-3,-6.156615E-1,2.13E1,-7.849957E-3,1.7307695E-2,-2.2440411E-2,1.4837757E-2,1.6416365E-2,-1.3856075E-2,1.2676294E-2,3.9602406E-2],"split_indices":[83,93,87,87,50,0,40,87,148,0,0,44,62,0,0,0,0,0,0,0,0],"split_type":[0,0,0,0,0,0,0,0,0,0,0,0,0,0,0,0,0,0,0,0,0],"sum_hessian":[4.0417712E2,2.1296132E2,1.912158E2,1.7472224E2,3.823907E1,1.84963E1,1.727195E2,1.0323505E2,7.1487206E1,2.424236E1,1.3996713E1,5.124142E1,1.2147808E2,5.149227E1,5.1742775E1,6.098917E1,1.0498035E1,2.1496819E1,2.9744604E1,8.048594E1,4.0992138E1],"tree_param":{"num_deleted":"0","num_feature":"167","num_nodes":"21","size_leaf_vector":"1"}},{"base_weights":[4.6516307E-2,-2.351957E-1,2.6477844E-1,1.9227189E-1,-3.7560937E-1,7.051266E-2,5.7284325E-1,4.6688628E-1,-2.0045426E-2,-4.486853E-1,1.524462E-2,1.9607532E-1,-3.9410222E-1,-1.0364605E-2,6.9958776E-1,3.847326E-2,-5.2980687E-3,8.5784225E-3,-2.7177835E-2,-7.4227317E-3,2.2688998E-2,7.6170745E-3,-3.5798438E-2,-0E0,4.0868737E-2],"categories":[],"categories_nodes":[],"categories_segments":[],"categories_sizes":[],"default_left":[0,0,0,0,0,0,0,0,0,0,0,0,0,0,0,0,0,0,0,0,0,0,0,0,0],"id":2,"left_children":[1,3,5,7,9,11,13,15,-1,17,-1,19,21,-1,23,-1,-1,-1,-1,-1,-1,-1,-1,-1,-1],"loss_changes":[2.5050524E1,1.1087891E1,1.3236277E1,8.500783E0,7.5163975E0,8.903963E0,9.595335E0,6.7179246E0,0E0,8.034422E0,0E0,1.1185023E1,6.4972334E0,0E0,6.362156E0,0E0,0E0,0E0,0E0,0E0,0E0,0E0,0E0,0E0,0E0],"parents":[2147483647,0,0,1,1,2,2,3,3,4,4,5,5,6,6,7,7,9,9,11,11,12,12,14,14],"right_children":[2,4,6,8,10,12,14,16,-1,18,-1,20,22,-1,24,-1,-1,-1,-1,-1,-1,-1,-1,-1,-1],"split_conditions":[1.69E1,1.5943943E-1,3.09E1,1.5873016E-3,3.4073785E2,1.050713E1,1.8388272E2,1.5225322E0,-2.0045426E-2,4.6666665E0,1.524462E-2,2.8845486E-1,4.019535E-1,-1.0364605E-2,1.07962966E-1,3.847326E-2,-5.2980687E-3,8.5784225E-3,-2.7177835E-2,-7.4227317E-3,2.2688998E-2,7.6170745E-3,-3.5798438E-2,-0E0,4.0868737E-2],"split_indices":[62,9,80,164,133,152,132,8,0,1,0,151,35,0,50,0,0,0,0,0,0,0,0,0,0],"split_type":[0,0,0,0,0,0,0,0,0,0,0,0,0,0,0,0,0,0,0,0,0,0,0,0,0],"sum_hessian":[3.9710666E2,1.7218626E2,2.249204E2,4.1237522E1,1.3094875E2,1.4270073E2,8.221966E1,2.9491718E1,1.1745802E1,1.20451996E2,1.0496749E1,1.1546285E2,2.7237883E1,1.0495494E1,7.172416E1,1.874649E1,1.0745229E1,1.4744223E1,1.0570777E2,4.9484974E1,6.597788E1,1.0496925E1,1.6740957E1,1.0996525E1,6.0727634E1],"tree_param":{"num_deleted":"0","num_feature":"167","num_nodes":"25","size_leaf_vector":"1"}},{"base_weights":[-2.7360018E-2,-1.6883229E-1,2.6788962E-1,-5.735433E-1,-5.659208E-2,7.025708E-1,1.3844337E-1,-9.2639245E-2,-9.1315687E-1,-1.341683E-1,4.8753968E-1,4.5970585E-2,8.812345E-3,2.9959437E-1,-2.5463232E-1,-2.4323663E-2,1.9184167E-2,-5.4415505E-2,-1.602949E-2,1.39947375E-2,-1.3103363E-2,3.5818927E-2,3.017184E-3,-9.917652E-3,2.077302E-2,-2.6585078E-2,7.4705905E-3],"categories":[],"categories_nodes":[],"categories_segments":[],"categories_sizes":[],"default_left":[0,0,0,0,0,0,0,0,0,0,0,0,0,0,0,0,0,0,0,0,0,0,0,0,0,0,0],"id":3,"left_children":[1,3,5,7,9,11,13,15,17,19,21,-1,-1,23,25,-1,-1,-1,-1,-1,-1,-1,-1,-1,-1,-1,-1],"loss_changes":[1.7405718E1,1.238115E1,6.655961E0,8.864586E0,9.779965E0,1.9206429E0,7.4148273E0,6.797303E0,1.0757847E0,1.1181763E1,2.2051086E0,0E0,0E0,5.2340884E0,4.3926373E0,0E0,0E0,0E0,0E0,0E0,0E0,0E0,0E0,0E0,0E0,0E0,0E0],"parents":[2147483647,0,0,1,1,2,2,3,3,4,4,5,5,6,6,7,7,8,8,9,9,10,10,13,13,14,14],"right_children":[2,4,6,8,10,12,14,16,18,20,22,-1,-1,24,26,-1,-1,-1,-1,-1,-1,-1,-1,-1,-1,-1,-1],"split_conditions":[2.29E1,2.83E1,-2.3422224E-2,7.042725E0,7E-1,4.047708E-1,1.25379935E-2,1.2754129E0,2.4123457E-1,8.829492E0,3.54E1,4.5970585E-2,8.812345E-3,4E0,1.36E1,-2.4323663E-2,1.9184167E-2,-5.4415505E-2,-1.602949E-2,1.39947375E-2,-1.3103363E-2,3.5818927E-2,3.017184E-3,-9.917652E-3,2.077302E-2,-2.6585078E-2,7.4705905E-3],"split_indices":[60,64,153,3,66,151,164,130,49,90,65,0,0,14,75,0,0,0,0,0,0,0,0,0,0,0,0],"split_type":[0,0,0,0,0,0,0,0,0,0,0,0,0,0,0,0,0,0,0,0,0,0,0,0,0,0,0],"sum_hessian":[4.0747916E2,2.7807208E2,1.2940709E2,5.4945896E1,2.2312617E2,2.3728048E1,1.0567904E2,2.598559E1,2.8960306E1,1.9938599E2,2.3740192E1,1.3487185E1,1.0240864E1,7.669653E1,2.8982506E1,1.474076E1,1.124483E1,1.8473146E1,1.048716E1,4.472875E1,1.5465724E2,1.2492937E1,1.1247255E1,1.2991057E1,6.370548E1,1.698972E1,1.1992787E1],"tree_param":{"num_deleted":"0","num_feature":"167","num_nodes":"27","size_leaf_vector":"1"}},{"base_weights":[-3.5160724E-2,-2.1255976E-1,1.5509756E-1,-8.575834E-2,-6.253449E-1,2.5778666E-1,-2.4626772E-1,3.1645727E-1,-2.1045446E-1,-2.5764515E-3,-7.6775557E-1,4.2118606E-1,-3.023852E-2,-4.644934E-1,1.165445E-2,3.486847E-2,-1.1537509E-2,1.7505166E-3,-2.3297548E-2,-1.4833725E-2,-4.8347063E-2,9.933146E-3,4.0797234E-2,-1.9244341E-2,3.165018E-2,-3.7895165E-2,-0E0],"categories":[],"categories_nodes":[],"categories_segments":[],"categories_sizes":[],"default_left":[0,0,0,0,0,0,0,0,0,0,0,0,0,0,0,0,0,0,0,0,0,0,0,0,0,0,0],"id":4,"left_children":[1,3,5,7,9,11,13,15,17,-1,19,21,23,25,-1,-1,-1,-1,-1,-1,-1,-1,-1,-1,-1,-1,-1],"loss_changes":[1.3959836E1,1.060554E1,8.497632E0,8.848563E0,3.371727E0,7.8533554E0,5.047518E0,9.683662E0,8.723713E0,0E0,1.4952183E0,7.8527718E0,1.5669305E1,4.3125505E0,0E0,0E0,0E0,0E0,0E0,0E0,0E0,0E0,0E0,0E0,0E0,0E0,0E0],"parents":[2147483647,0,0,1,1,2,2,3,3,4,4,5,5,6,6,7,7,8,8,10,10,11,11,12,12,13,13],"right_children":[2,4,6,8,10,12,14,16,18,-1,20,22,24,26,-1,-1,-1,-1,-1,-1,-1,-1,-1,-1,-1,-1,-1],"split_conditions":[2.44E1,4.7682056E-1,1.0922366E1,7.7087793E0,3.9872727E-1,3.53E-1,9E-1,4.5126468E-1,8.796201E0,-2.5764515E-3,2.4418604E-1,8.7234E0,1.665E-1,1.0071429E0,1.165445E-2,3.486847E-2,-1.1537509E-2,1.7505166E-3,-2.3297548E-2,-1.4833725E-2,-4.8347063E-2,9.933146E-3,4.0797234E-2,-1.9244341E-2,3.165018E-2,-3.7895165E-2,-0E0],"split_indices":[83,135,10,90,58,72,66,35,139,0,93,123,50,8,0,0,0,0,0,0,0,0,0,0,0,0,0],"split_type":[0,0,0,0,0,0,0,0,0,0,0,0,0,0,0,0,0,0,0,0,0,0,0,0,0,0,0],"sum_hessian":[4.0286966E2,2.0953693E2,1.9333273E2,1.658426E2,4.3694313E1,1.5636198E2,3.697076E1,3.6478832E1,1.2936377E2,1.0739947E1,3.2954365E1,9.93973E1,5.696468E1,2.6228441E1,1.0742318E1,2.1237219E1,1.5241613E1,6.717969E1,6.218409E1,1.423812E1,1.8716244E1,6.918242E1,3.0214876E1,3.8975857E1,1.7988821E1,1.4237256E1,1.1991185E1],"tree_param":{"num_deleted":"0","num_feature":"167","num_nodes":"27","size_leaf_vector":"1"}},{"base_weights":[-0E0,3.256161E-1,-1.1229664E-1,4.5719987E-1,-1.2526068E-2,-2.7412027E-2,-5.227818E-1,-6.9012456E-3,5.8738226E-1,-4.8082763E-1,6.3180484E-2,-0E0,-6.901161E-1,-0E0,3.525692E-2,-3.5224102E-2,1.9415831E-3,-1.644903E-4,3.1200701E-2,-8.52521E-3,-4.314923E-2],"categories":[],"categories_nodes":[],"categories_segments":[],"categories_sizes":[],"default_left":[0,0,0,0,0,0,0,0,0,0,0,0,0,0,0,0,0,0,0,0,0],"id":5,"left_children":[1,3,5,7,-1,9,11,-1,13,15,17,-1,19,-1,-1,-1,-1,-1,-1,-1,-1],"loss_changes":[1.5299749E1,8.814826E0,1.0476505E1,7.594118E0,0E0,1.119168E1,4.4778233E0,0E0,5.1451607E0,5.7473364E0,8.643883E0,0E0,2.2693996E0,0E0,0E0,0E0,0E0,0E0,0E0,0E0,0E0],"parents":[2147483647,0,0,1,1,2,2,3,3,5,5,6,6,8,8,9,9,10,10,12,12],"right_children":[2,4,6,8,-1,10,12,-1,14,16,18,-1,20,-1,-1,-1,-1,-1,-1,-1,-1],"split_conditions":[8.12E1,6.1E1,3.018868E-1,1.07962966E-1,-1.2526068E-2,2.1638063E2,1.24259256E-1,-6.9012456E-3,2.365343E0,1.6083333E-1,7E-1,-0E0,2.3950617E-1,-0E0,3.525692E-2,-3.5224102E-2,1.9415831E-3,-1.644903E-4,3.1200701E-2,-8.52521E-3,-4.314923E-2],"split_indices":[81,82,94,50,0,133,50,0,6,50,66,0,93,0,0,0,0,0,0,0,0],"split_type":[0,0,0,0,0,0,0,0,0,0,0,0,0,0,0,0,0,0,0,0,0],"sum_hessian":[4.079788E2,1.0235729E2,3.056215E2,8.4873184E1,1.7484106E1,2.5868063E2,4.6940853E1,1.4488112E1,7.038507E1,4.0409973E1,2.1827068E2,1.2732667E1,3.4208187E1,1.2727996E1,5.7657078E1,2.7680513E1,1.2729458E1,1.9878922E2,1.9481462E1,1.1740953E1,2.2467234E1],"tree_param":{"num_deleted":"0","num_feature":"167","num_nodes":"21","size_leaf_vector":"1"}},{"base_weights":[-2.99289E-2,-2.2678086E-1,1.8051055E-1,-4.2406663E-2,-4.3481216E-1,4.352577E-1,-5.9171813E-3,3.3626154E-1,-2.6825076E-1,-5.331087E-1,1.1168541E-2,9.2951715E-2,8.8459724E-1,-2.6915944E-1,2.4760629E-1,3.427976E-2,-6.959007E-3,-2.4969604E-2,2.0170247E-2,-3.1204892E-2,1.6548671E-3,2.7367314E-2,-1.082171E-2,1.3152658E-2,5.4368503E-2,1.0054187E-2,-2.5465352E-2,2.3792906E-2,-1.275216E-2],"categories":[],"categories_nodes":[],"categories_segments":[],"categories_sizes":[],"default_left":[0,0,0,0,0,0,0,0,0,0,0,0,0,0,0,0,0,0,0,0,0,0,0,0,0,0,0,0,0],"id":6,"left_children":[1,3,5,7,9,11,13,15,17,19,-1,21,23,25,27,-1,-1,-1,-1,-1,-1,-1,-1,-1,-1,-1,-1,-1,-1],"loss_changes":[1.716327E1,7.903063E0,9.685386E0,1.0732549E1,7.1585445E0,1.2228506E1,8.27198E0,8.465997E0,1.3345591E1,4.948761E0,0E0,8.442855E0,2.3924618E0,7.6273174E0,7.8477335E0,0E0,0E0,0E0,0E0,0E0,0E0,0E0,0E0,0E0,0E0,0E0,0E0,0E0,0E0],"parents":[2147483647,0,0,1,1,2,2,3,3,4,4,5,5,6,6,7,7,8,8,9,9,11,11,12,12,13,13,14,14],"right_children":[2,4,6,8,10,12,14,16,18,20,-1,22,24,26,28,-1,-1,-1,-1,-1,-1,-1,-1,-1,-1,-1,-1,-1,-1],"split_conditions":[2.0956764E2,2.375E-1,2.0979342E0,0E0,7E0,8.9E0,2.98E1,4.444868E-1,2.92E1,1.1042945E1,1.1168541E-2,3.10436E0,1.3150147E-1,2.4786325E-1,4.26E0,3.427976E-2,-6.959007E-3,-2.4969604E-2,2.0170247E-2,-3.1204892E-2,1.6548671E-3,2.7367314E-2,-1.082171E-2,1.3152658E-2,5.4368503E-2,1.0054187E-2,-2.5465352E-2,2.3792906E-2,-1.275216E-2],"split_indices":[132,95,131,127,19,42,80,35,80,101,0,4,32,92,21,0,0,0,0,0,0,0,0,0,0,0,0,0,0],"split_type":[0,0,0,0,0,0,0,0,0,0,0,0,0,0,0,0,0,0,0,0,0,0,0,0,0,0,0,0,0],"sum_hessian":[4.0381793E2,2.0967178E2,1.9414615E2,1.1562144E2,9.4050354E1,8.035379E1,1.1379236E2,4.1455452E1,7.4165985E1,8.331715E1,1.07332115E1,4.9665653E1,3.068814E1,5.6642406E1,5.7149952E1,2.3229214E1,1.8226238E1,5.6685303E1,1.748068E1,7.210219E1,1.1214952E1,1.9215014E1,3.045064E1,1.0981031E1,1.970711E1,1.8719072E1,3.7923332E1,4.0170067E1,1.6979887E1],"tree_param":{"num_deleted":"0","num_feature":"167","num_nodes":"29","size_leaf_vector":"1"}},{"base_weights":[3.2388887E-4,-8.552715E-2,5.5581075E-1,-1.9803496E-1,2.0613256E-1,-2.2685282E-4,7.3555905E-1,-4.5579225E-1,-5.512211E-2,1.2791265E-2,5.975358E-1,4.5572337E-2,6.4568706E-3,7.1274075E-3,-2.803571E-2,-2.155012E-2,2.3617693E-3,1.5454711E-2,-1.4280632E-2,2.4298748E-3,4.5172974E-2],"categories":[],"categories_nodes":[],"categories_segments":[],"categories_sizes":[],"default_left":[0,0,0,0,0,0,0,0,0,0,0,0,0,0,0,0,0,0,0,0,0],"id":7,"left_children":[1,3,5,7,9,-1,11,13,15,17,19,-1,-1,-1,-1,-1,-1,-1,-1,-1,-1],"loss_changes":[2.0029219E1,1.1971747E1,6.0569305E0,9.294666E0,7.3054085E0,0E0,3.5164337E0,6.3688755E0,7.0617514E0,6.9624543E0,4.7547503E0,0E0,0E0,0E0,0E0,0E0,0E0,0E0,0E0,0E0,0E0],"parents":[2147483647,0,0,1,1,2,2,3,3,4,4,6,6,7,7,8,8,9,9,10,10],"right_children":[2,4,6,8,10,-1,12,14,16,18,20,-1,-1,-1,-1,-1,-1,-1,-1,-1,-1],"split_conditions":[1.1E0,1.6962963E-1,2.38E1,1.83E1,6.92E-1,-2.2685282E-4,9.946073E-2,9.592593E-2,-5.686752E-1,8.58752E0,2.824229E1,4.5572337E-2,6.4568706E-3,7.1274075E-3,-2.803571E-2,-2.155012E-2,2.3617693E-3,1.5454711E-2,-1.4280632E-2,2.4298748E-3,4.5172974E-2],"split_indices":[66,50,83,61,79,0,29,50,87,39,56,0,0,0,0,0,0,0,0,0,0],"split_type":[0,0,0,0,0,0,0,0,0,0,0,0,0,0,0,0,0,0,0,0,0],"sum_hessian":[4.0508072E2,3.537399E2,5.13408E1,2.5766495E2,9.607496E1,1.2977337E1,3.8363464E1,8.675275E1,1.709122E2,6.861974E1,2.7455212E1,2.7149506E1,1.1213961E1,1.1964435E1,7.4788315E1,3.4189938E1,1.3672226E2,3.5181953E1,3.343779E1,1.2483661E1,1.4971551E1],"tree_param":{"num_deleted":"0","num_feature":"167","num_nodes":"21","size_leaf_vector":"1"}},{"base_weights":[4.9618367E-2,-4.2997874E-2,4.3917716E-1,-0E0,-3.7624422E-2,-0E0,6.795579E-1,1.23109296E-1,-2.172601E-1,2.5000086E-2,-2.3198042E-2,8.46678E-1,5.3709703E-3,-0E0,2.2028392E-2,-1.6920585E-2,2.800569E-2,1.1852548E-2,5.081979E-2],"categories":[],"categories_nodes":[],"categories_segments":[],"categories_sizes":[],"default_left":[0,0,0,0,0,0,0,0,0,0,0,0,0,0,0,0,0,0,0],"id":8,"left_children":[1,3,5,7,-1,9,11,13,15,-1,-1,17,-1,-1,-1,-1,-1,-1,-1],"loss_changes":[1.4991722E1,1.0400199E1,8.197855E0,8.613623E0,0E0,8.985335E0,3.949957E0,8.285553E0,1.1754692E1,0E0,0E0,2.1117363E0,0E0,0E0,0E0,0E0,0E0,0E0,0E0],"parents":[2147483647,0,0,1,1,2,2,3,3,5,5,6,6,7,7,8,8,11,11],"right_children":[2,4,6,8,-1,10,12,14,16,-1,-1,18,-1,-1,-1,-1,-1,-1,-1],"split_conditions":[2.76E1,1.3156E2,6.7E0,4.764371E-1,-3.7624422E-2,3.947192E-1,2.318907E0,2.0849625E2,1.4E0,2.5000086E-2,-2.3198042E-2,5E0,5.3709703E-3,-0E0,2.2028392E-2,-1.6920585E-2,2.800569E-2,1.1852548E-2,5.081979E-2],"split_indices":[61,146,42,135,0,129,131,132,66,0,0,14,0,0,0,0,0,0,0],"split_type":[0,0,0,0,0,0,0,0,0,0,0,0,0,0,0,0,0,0,0],"sum_hessian":[4.0241214E2,3.2767352E2,7.473862E1,3.1322015E2,1.4453365E1,2.8682705E1,4.605591E1,2.0229544E2,1.1092472E2,1.3954255E1,1.472845E1,3.311109E1,1.2944818E1,1.4842218E2,5.387327E1,9.896747E1,1.1957249E1,1.0461844E1,2.2649248E1],"tree_param":{"num_deleted":"0","num_feature":"167","num_nodes":"19","size_leaf_vector":"1"}},{"base_weights":[-0E0,-1.6971414E-1,2.06282E-1,-2.4101737E-1,3.0624226E-2,4.7065687E-1,1.3531748E-2,-4.7954634E-1,2.885407E-3,6.671976E-1,-3.4045946E-2,1.2884441E-1,-2.7666777E-2,-1.1717428E-2,-4.18735E-2,1.6235225E-2,-1.5451607E-2,3.1236885E-3,3.9652456E-2,-2.006508E-2,1.5614326E-2,-8.745488E-3,1.834929E-2],"categories":[],"categories_nodes":[],"categories_segments":[],"categories_sizes":[],"default_left":[0,0,0,0,0,0,0,0,0,0,0,0,0,0,0,0,0,0,0,0,0,0,0],"id":9,"left_children":[1,3,5,7,-1,9,11,13,15,17,19,21,-1,-1,-1,-1,-1,-1,-1,-1,-1,-1,-1],"loss_changes":[1.4328273E1,1.3164011E1,9.085205E0,1.2544434E1,0E0,7.98888E0,7.4955096E0,7.956442E0,1.1396834E1,3.5711613E0,3.9019835E0,7.5233383E0,0E0,0E0,0E0,0E0,0E0,0E0,0E0,0E0,0E0,0E0,0E0],"parents":[2147483647,0,0,1,1,2,2,3,3,5,5,6,6,7,7,8,8,9,9,10,10,11,11],"right_children":[2,4,6,8,-1,10,12,14,16,18,20,22,-1,-1,-1,-1,-1,-1,-1,-1,-1,-1,-1],"split_conditions":[2.93E1,4.7100234E-1,3.10436E0,1E0,3.0624226E-2,6.2131786E-1,8.51E1,8.325E0,4.21452E-1,2.9177718E0,2.76E1,-3.504218E-3,-2.7666777E-2,-1.1717428E-2,-4.18735E-2,1.6235225E-2,-1.5451607E-2,3.1236885E-3,3.9652456E-2,-2.006508E-2,1.5614326E-2,-8.745488E-3,1.834929E-2],"split_indices":[80,33,4,0,0,135,41,24,58,40,61,163,0,0,0,0,0,0,0,0,0,0,0],"split_type":[0,0,0,0,0,0,0,0,0,0,0,0,0,0,0,0,0,0,0,0,0,0,0],"sum_hessian":[3.9978616E2,2.2112344E2,1.786627E2,2.0640654E2,1.47169075E1,7.120096E1,1.0746175E2,1.02947014E2,1.0345952E2,5.079955E1,2.0401413E1,9.32403E1,1.4221445E1,6.68332E1,3.611382E1,5.160962E1,5.1849903E1,1.0724189E1,4.007536E1,1.0217135E1,1.01842785E1,4.063612E1,5.260418E1],"tree_param":{"num_deleted":"0","num_feature":"167","num_nodes":"23","size_leaf_vector":"1"}},{"base_weights":[-1.6404768E-2,-8.522195E-2,4.664673E-1,-1.3413122E-1,3.007458E-2,7.252525E-4,6.582261E-1,4.8878652E-1,-1.9091336E-1,4.509403E-4,4.6831276E-2,3.9694708E-2,-0E0,-1.4491129E-2,2.7108928E-3],"categories":[],"categories_nodes":[],"categories_segments":[],"categories_sizes":[],"default_left":[0,0,0,0,0,0,0,0,0,0,0,0,0,0,0],"id":10,"left_children":[1,3,5,7,-1,-1,9,11,13,-1,-1,-1,-1,-1,-1],"loss_changes":[1.3493121E1,1.2271735E1,3.9914227E0,1.2383747E1,0E0,0E0,5.730818E0,4.349448E0,7.8814573E0,0E0,0E0,0E0,0E0,0E0,0E0],"parents":[2147483647,0,0,1,1,2,2,3,3,6,6,7,7,8,8],"right_children":[2,4,6,8,-1,-1,10,12,14,-1,-1,-1,-1,-1,-1],"split_conditions":[1.2E0,4.7091108E-2,-1.40307015E-2,-4.4756968E-2,3.007458E-2,7.252525E-4,2.316631E-1,1.419973E0,8.3538E0,4.509403E-4,4.6831276E-2,3.9694708E-2,-0E0,-1.4491129E-2,2.7108928E-3],"split_indices":[66,111,111,111,0,0,2,12,123,0,0,0,0,0,0],"split_type":[0,0,0,0,0,0,0,0,0,0,0,0,0,0,0],"sum_hessian":[4.008086E2,3.5532236E2,4.548624E1,3.3613367E2,1.9188698E1,1.5928801E1,2.9557438E1,2.4167091E1,3.1196658E2,1.0959241E1,1.8598196E1,1.2957162E1,1.120993E1,2.2308218E2,8.8884384E1],"tree_param":{"num_deleted":"0","num_feature":"167","num_nodes":"15","size_leaf_vector":"1"}},{"base_weights":[6.063233E-3,-7.347717E-2,3.451757E-1,-1.3988183E-1,4.956623E-1,5.292673E-1,-7.6153534E-3,6.339037E-2,-2.8628397E-1,3.667495E-2,3.624069E-3,6.714545E-1,-2.6771429E-3,-2.0809142E-2,9.113242E-3,2.4098773E-2,-1.7884854E-2,6.1293137E-3,4.3890253E-2],"categories":[],"categories_nodes":[],"categories_segments":[],"categories_sizes":[],"default_left":[0,0,0,0,0,0,0,0,0,0,0,0,0,0,0,0,0,0,0],"id":11,"left_children":[1,3,5,7,9,11,-1,13,15,-1,-1,17,-1,-1,-1,-1,-1,-1,-1],"loss_changes":[1.12666855E1,1.2768423E1,7.8797636E0,9.2262745E0,2.868659E0,5.455612E0,0E0,7.651947E0,1.0599193E1,0E0,0E0,4.538803E0,0E0,0E0,0E0,0E0,0E0,0E0,0E0],"parents":[2147483647,0,0,1,1,2,2,3,3,4,4,5,5,7,7,8,8,11,11],"right_children":[2,4,6,8,10,12,-1,14,16,-1,-1,18,-1,-1,-1,-1,-1,-1,-1],"split_conditions":[2.7E1,5.534722E-1,1.4327243E-2,-3.841721E-4,1.8E0,5.077138E-1,-7.6153534E-3,-1.619128E-2,6.375E0,3.667495E-2,3.624069E-3,5E0,-2.6771429E-3,-2.0809142E-2,9.113242E-3,2.4098773E-2,-1.7884854E-2,6.1293137E-3,4.3890253E-2],"split_indices":[61,51,164,164,160,112,0,166,90,0,0,14,0,0,0,0,0,0,0],"split_type":[0,0,0,0,0,0,0,0,0,0,0,0,0,0,0,0,0,0,0],"sum_hessian":[4.0296216E2,3.2838104E2,7.458111E1,2.9823407E2,3.0146997E1,5.493736E1,1.9643751E1,1.2462212E2,1.7361194E2,1.6196306E1,1.3950691E1,4.4241306E1,1.0696053E1,2.1435202E1,1.0318692E2,1.1725232E1,1.618867E2,1.4927995E1,2.931331E1],"tree_param":{"num_deleted":"0","num_feature":"167","num_nodes":"19","size_leaf_vector":"1"}},{"base_weights":[1.4437836E-2,-6.011575E-2,4.5981583E-1,3.3967716E-1,-1.4570853E-1,6.289329E-1,-5.2132746E-3,-4.852956E-2,6.3492566E-1,1.3173239E-2,-3.5530674E-1,4.4942913E-3,4.1193306E-2,1.2145759E-2,-2.2521785E-2,4.37531E-2,1.6484526E-4,1.9328434E-2,-6.49817E-3,-2.1677274E-2,1.0938705E-2],"categories":[],"categories_nodes":[],"categories_segments":[],"categories_sizes":[],"default_left":[0,0,0,0,0,0,0,0,0,0,0,0,0,0,0,0,0,0,0,0,0],"id":12,"left_children":[1,3,5,7,9,11,-1,13,15,17,19,-1,-1,-1,-1,-1,-1,-1,-1,-1,-1],"loss_changes":[1.3843593E1,1.219144E1,6.300828E0,7.6131945E0,9.99688E0,4.1585693E0,0E0,4.272829E0,5.097559E0,9.513455E0,6.3512745E0,0E0,0E0,0E0,0E0,0E0,0E0,0E0,0E0,0E0,0E0],"parents":[2147483647,0,0,1,1,2,2,3,3,4,4,5,5,7,7,8,8,9,9,10,10],"right_children":[2,4,6,8,10,12,-1,14,16,18,20,-1,-1,-1,-1,-1,-1,-1,-1,-1,-1],"split_conditions":[2.9E1,0E0,1.3490364E1,2.4324325E-1,2.5882354E-1,3.7756668E1,-5.2132746E-3,1.3816301E0,9.830277E0,3.5948542E-1,7E0,4.4942913E-3,4.1193306E-2,1.2145759E-2,-2.2521785E-2,4.37531E-2,1.6484526E-4,1.9328434E-2,-6.49817E-3,-2.1677274E-2,1.0938705E-2],"split_indices":[83,153,159,94,94,53,0,8,3,35,88,0,0,0,0,0,0,0,0,0,0],"split_type":[0,0,0,0,0,0,0,0,0,0,0,0,0,0,0,0,0,0,0,0,0],"sum_hessian":[4.017376E2,3.4687524E2,5.4862347E1,5.752043E1,2.8935483E2,4.2447678E1,1.241467E1,2.5921837E1,3.1598595E1,1.6589879E2,1.2345604E2,1.3894866E1,2.855281E1,1.5451196E1,1.0470641E1,2.092469E1,1.0673905E1,4.458394E1,1.2131484E2,1.1049251E2,1.296353E1],"tree_param":{"num_deleted":"0","num_feature":"167","num_nodes":"21","size_leaf_vector":"1"}},{"base_weights":[-4.026885E-2,-1.840779E-1,1.4852296E-1,-2.7195233E-1,3.2259095E-1,-2.1949337E-1,2.622811E-1,4.8764613E-2,-4.0745378E-1,3.955097E-2,-0E0,-4.0326297E-2,1.8959518E-1,3.516144E-1,-2.0224808E-2,2.5545938E-2,-1.1291101E-2,-5.5919343E-4,-2.74452E-2,-1.5859399E-2,1.4682434E-2,2.6320655E-2,-8.1644915E-3,-1.15901595E-2,2.2918997E-2],"categories":[],"categories_nodes":[],"categories_segments":[],"categories_sizes":[],"default_left":[0,0,0,0,0,0,0,0,0,0,0,0,0,0,0,0,0,0,0,0,0,0,0,0,0],"id":13,"left_children":[1,3,5,7,9,11,13,15,17,-1,19,-1,21,23,-1,-1,-1,-1,-1,-1,-1,-1,-1,-1,-1],"loss_changes":[1.128529E1,1.0940723E1,7.7832804E0,9.189845E0,5.7343235E0,1.160084E1,9.005331E0,8.875718E0,7.860655E0,0E0,2.9107924E0,0E0,4.1035633E0,8.525424E0,0E0,0E0,0E0,0E0,0E0,0E0,0E0,0E0,0E0,0E0,0E0],"parents":[2147483647,0,0,1,1,2,2,3,3,4,4,5,5,6,6,7,7,8,8,10,10,12,12,13,13],"right_children":[2,4,6,8,10,12,14,16,18,-1,20,-1,22,24,-1,-1,-1,-1,-1,-1,-1,-1,-1,-1,-1],"split_conditions":[2.94E1,1.9314815E-1,-5.338803E-1,3.7067845E-1,2.1518987E-1,9.3858925E1,6.415E0,5.085E0,8.829492E0,3.955097E-2,2.41E1,-4.0326297E-2,9.168081E0,-3E-1,-2.0224808E-2,2.5545938E-2,-1.1291101E-2,-5.5919343E-4,-2.74452E-2,-1.5859399E-2,1.4682434E-2,2.6320655E-2,-8.1644915E-3,-1.15901595E-2,2.2918997E-2],"split_indices":[80,50,119,35,94,86,1,1,90,0,83,0,98,66,0,0,0,0,0,0,0,0,0,0,0],"split_type":[0,0,0,0,0,0,0,0,0,0,0,0,0,0,0,0,0,0,0,0,0,0,0,0,0],"sum_hessian":[4.0497513E2,2.3144725E2,1.7352788E2,2.000539E2,3.139336E1,3.883877E1,1.346891E2,5.927265E1,1.4078123E2,1.0217222E1,2.1176138E1,1.4457388E1,2.4381384E1,1.2152118E2,1.3167923E1,2.1165949E1,3.8106705E1,3.9382397E1,1.0139884E2,1.0473501E1,1.0702637E1,1.1941641E1,1.2439743E1,1.7168034E1,1.0435314E2],"tree_param":{"num_deleted":"0","num_feature":"167","num_nodes":"25","size_leaf_vector":"1"}}]},"name":"gbtree"},"learner_model_param":{"base_score":"[4.967933E-1]","boost_from_average":"1","num_class":"0","num_feature":"167","num_target":"1"},"objective":{"name":"binary:logistic","reg_loss_param":{"scale_pos_weight":"1"}}},"version":[3,1,3]}