{"learner":{"attributes":{"scikit_learn":"{\"_estimator_type\": \"regressor\"}"},"feature_names":[],"feature_types":[],"gradient_booster":{"model":{"cats":{"enc":[],"feature_segments":[],"sorted_idx":[]},"gbtree_model_param":{"num_parallel_tree":"1","num_trees":"37"},"iteration_indptr":[0,1,2,3,4,5,6,7,8,9,10,11,12,13,14,15,16,17,18,19,20,21,22,23,24,25,26,27,28,29,30,31,32,33,34,35,36,37],"tree_info":[0,0,0,0,0,0,0,0,0,0,0,0,0,0,0,0,0,0,0,0,0,0,0,0,0,0,0,0,0,0,0,0,0,0,0,0,0],"trees":[{"base_weights":[-1.4970354E-3,4.138902E-1,-1.0018684E-1,-9.170889E-3,5.175438E-1,-5.8279973E-2,-3.9219834E-2,6.316404E-1,-6.4992406E-3,-1.24547675E-1,3.951633E-1,4.8775617E-3,4.2405423E-2,1.4782217E-2,-9.31449E-3,3.0896593E-2,-1.1231731E-2],"categories":[],"categories_nodes":[],"categories_segments":[],"categories_sizes":[],"default_left":[0,0,0,0,0,0,0,0,0,0,0,0,0,0,0,0,0],"id":0,"left_children":[1,3,5,-1,7,9,-1,11,-1,13,15,-1,-1,-1,-1,-1,-1],"loss_changes":[1.9215387E1,6.1983957E0,1.0324705E1,0E0,6.4609833E0,1.1131105E1,0E0,7.004097E0,0E0,8.645859E0,7.380048E0,0E0,0E0,0E0,0E0,0E0,0E0],"parents":[2147483647,0,0,1,1,2,2,4,4,5,5,7,7,9,9,10,10],"right_children":[2,4,6,-1,8,10,-1,12,-1,14,16,-1,-1,-1,-1,-1,-1],"split_conditions":[8.06E1,7E-1,1.2626E2,-9.170889E-3,2.1E1,1E0,-3.9219834E-2,6.743E0,-6.4992406E-3,6.8791456E0,4.770058E0,4.8775617E-3,4.2405423E-2,1.4782217E-2,-9.31449E-3,3.0896593E-2,-1.1231731E-2],"split_indices":[82,31,191,0,110,67,0,139,0,193,25,0,0,0,0,0,0],"split_type":[0,0,0,0,0,0,0,0,0,0,0,0,0,0,0,0,0],"sum_hessian":[4.624996E2,8.474993E1,3.777497E2,1.124999E1,7.349994E1,3.617497E2,1.5999987E1,6.3249947E1,1.0249991E1,3.1974973E2,4.1999966E1,2.0999983E1,4.2249966E1,3.749997E1,2.8224976E2,3.1499973E1,1.0499991E1],"tree_param":{"num_deleted":"0","num_feature":"220","num_nodes":"17","size_leaf_vector":"1"}},{"base_weights":[1.659931E-3,-1.2853327E-1,4.43771E-1,-2.1494845E-1,2.3129165E-1,-2.322871E-2,5.8537793E-1,9.146295E-2,-3.647109E-1,-2.184547E-2,4.6929118E-1,-2.6624506E-2,1.8524416E-2,6.6109496E-1,-0E0,-3.7732199E-3,2.8686527E-2,-2.1188619E-2,1.7783858E-2,3.7408512E-2,3.1143327E-3,1.5110641E-3,3.8105916E-2],"categories":[],"categories_nodes":[],"categories_segments":[],"categories_sizes":[],"default_left":[0,0,0,0,0,0,0,0,0,0,0,0,0,0,0,0,0,0,0,0,0,0,0],"id":1,"left_children":[1,3,5,7,9,11,13,15,17,-1,19,-1,-1,21,-1,-1,-1,-1,-1,-1,-1,-1,-1],"loss_changes":[2.713372E1,1.147236E1,7.4570885E0,1.38398485E1,1.2370659E1,6.881366E0,3.4004993E0,8.495419E0,9.307243E0,0E0,5.6603622E0,0E0,0E0,4.1564674E0,0E0,0E0,0E0,0E0,0E0,0E0,0E0,0E0,0E0],"parents":[2147483647,0,0,1,1,2,2,3,3,4,4,5,5,6,6,7,7,8,8,10,10,13,13],"right_children":[2,4,6,8,10,12,14,16,18,-1,20,-1,-1,22,-1,-1,-1,-1,-1,-1,-1,-1,-1],"split_conditions":[2.4E1,2.77E1,-4.4046694E-1,5.6448235E1,2.7663988E-1,5.41E1,7.48062E-1,1.7757575E-1,9.086313E1,-2.184547E-2,-1.2879458E-3,-2.6624506E-2,1.8524416E-2,-3.0746343E-2,-0E0,-3.7732199E-3,2.8686527E-2,-2.1188619E-2,1.7783858E-2,3.7408512E-2,3.1143327E-3,1.5110641E-3,3.8105916E-2],"split_indices":[61,84,88,150,109,83,117,51,55,0,170,0,0,210,0,0,0,0,0,0,0,0,0],"split_type":[0,0,0,0,0,0,0,0,0,0,0,0,0,0,0,0,0,0,0,0,0,0,0],"sum_hessian":[4.5870694E2,3.5622186E2,1.02485054E2,2.8998267E2,6.623921E1,2.399659E1,7.848847E1,9.4744606E1,1.9523805E2,1.5747453E1,5.0491756E1,1.0248307E1,1.3748282E1,6.823996E1,1.0248511E1,7.27459E1,2.1998709E1,1.8298842E2,1.2249626E1,2.6745855E1,2.3745901E1,1.0998883E1,5.7241074E1],"tree_param":{"num_deleted":"0","num_feature":"220","num_nodes":"23","size_leaf_vector":"1"}},{"base_weights":[6.0016613E-2,-1.4159474E-1,3.2141045E-1,2.1985939E-1,-2.807764E-1,3.8479158E-1,-2.675644E-2,4.9240237E-1,-3.0283993E-1,-0E0,-4.5403177E-1,4.8760933E-1,-9.8261915E-2,-7.939993E-3,3.5061233E-2,-3.9652873E-2,1.40720755E-2,-8.7943E-3,3.2475438E-2,-1.20929545E-2,-4.3204896E-2,3.196494E-2,3.7142092E-3,-2.9469216E-2,1.487375E-2],"categories":[],"categories_nodes":[],"categories_segments":[],"categories_sizes":[],"default_left":[0,0,0,0,0,0,0,0,0,0,0,0,0,0,0,0,0,0,0,0,0,0,0,0,0],"id":2,"left_children":[1,3,5,7,9,11,-1,13,15,17,19,21,23,-1,-1,-1,-1,-1,-1,-1,-1,-1,-1,-1,-1],"loss_changes":[2.4499765E1,1.3492035E1,1.1943388E1,1.1452196E1,9.495771E0,9.966448E0,0E0,7.830474E0,9.39069E0,9.58757E0,8.796848E0,9.433182E0,8.211758E0,0E0,0E0,0E0,0E0,0E0,0E0,0E0,0E0,0E0,0E0,0E0,0E0],"parents":[2147483647,0,0,1,1,2,2,3,3,4,4,5,5,7,7,8,8,9,9,10,10,11,11,12,12],"right_children":[2,4,6,8,10,12,-1,14,16,18,20,22,24,-1,-1,-1,-1,-1,-1,-1,-1,-1,-1,-1,-1],"split_conditions":[2.47E1,6.392763E0,1.1767E2,8.7351503E-4,4.1877145E-1,1.1513372E-1,-2.675644E-2,-7.880108E-1,3.7037037E-2,3.196597E-1,2.559524E-1,1.0654222E1,-4.1580633E-3,-7.939993E-3,3.5061233E-2,-3.9652873E-2,1.40720755E-2,-8.7943E-3,3.2475438E-2,-1.20929545E-2,-4.3204896E-2,3.196494E-2,3.7142092E-3,-2.9469216E-2,1.487375E-2],"split_indices":[84,10,191,210,59,7,0,44,97,60,96,198,125,0,0,0,0,0,0,0,0,0,0,0,0],"split_type":[0,0,0,0,0,0,0,0,0,0,0,0,0,0,0,0,0,0,0,0,0,0,0,0,0],"sum_hessian":[4.5386758E2,2.564489E2,1.9741866E2,6.9490845E1,1.8695808E2,1.869244E2,1.0494261E1,4.6494385E1,2.299646E1,7.2484505E1,1.1447358E2,1.5493457E2,3.198983E1,1.0998726E1,3.549566E1,1.1998638E1,1.0997821E1,5.9486607E1,1.2997894E1,8.148217E1,3.2991417E1,1.1045464E2,4.447993E1,1.374662E1,1.824321E1],"tree_param":{"num_deleted":"0","num_feature":"220","num_nodes":"25","size_leaf_vector":"1"}},{"base_weights":[-1.3169961E-2,-1.2996006E-1,3.523774E-1,-2.0717843E-1,3.4446257E-1,4.7413015E-1,-1.5399533E-2,2.2131557E-2,-3.5070008E-1,-1.3397722E-1,7.0926464E-1,-4.3484676E-3,6.1822104E-1,-5.8560125E-3,2.0943519E-2,1.6975034E-3,-2.3405235E-2,-2.5323257E-2,1.30924955E-2,4.751599E-2,1.0263189E-2,-2.5395746E-3,3.646988E-2],"categories":[],"categories_nodes":[],"categories_segments":[],"categories_sizes":[],"default_left":[0,0,0,0,0,0,0,0,0,0,0,0,0,0,0,0,0,0,0,0,0,0,0],"id":3,"left_children":[1,3,5,7,9,11,-1,13,15,17,19,-1,21,-1,-1,-1,-1,-1,-1,-1,-1,-1,-1],"loss_changes":[2.0278187E1,1.3570759E1,1.0031442E1,1.0597992E1,9.790511E0,8.571899E0,0E0,7.2991395E0,9.143366E0,4.6173134E0,2.1809044E0,0E0,6.506464E0,0E0,0E0,0E0,0E0,0E0,0E0,0E0,0E0,0E0,0E0],"parents":[2147483647,0,0,1,1,2,2,3,3,4,4,5,5,7,7,8,8,9,9,10,10,12,12],"right_children":[2,4,6,8,10,12,-1,14,16,18,20,-1,22,-1,-1,-1,-1,-1,-1,-1,-1,-1,-1],"split_conditions":[2.78E1,1.9416666E-1,1.6325009E0,-6.279762E-3,2.761741E1,8E-1,-1.5399533E-2,5.886667E0,5.59E1,1.727767E-2,9.072543E0,-4.3484676E-3,2.4187726E-1,-5.8560125E-3,2.0943519E-2,1.6975034E-3,-2.3405235E-2,-2.5323257E-2,1.30924955E-2,4.751599E-2,1.0263189E-2,-2.5395746E-3,3.646988E-2],"split_indices":[84,51,130,211,57,31,0,1,83,170,184,0,114,0,0,0,0,0,0,0,0,0,0],"split_type":[0,0,0,0,0,0,0,0,0,0,0,0,0,0,0,0,0,0,0,0,0,0,0],"sum_hessian":[4.6722595E2,3.575736E2,1.09652336E2,3.1084933E2,4.672428E1,9.441264E1,1.52396965E1,1.199484E2,1.9090094E2,2.0989517E1,2.5734764E1,1.8987223E1,7.542542E1,9.046106E1,2.9487339E1,4.447707E1,1.4642387E2,1.0744329E1,1.0245188E1,1.3742256E1,1.1992508E1,1.0494208E1,6.493121E1],"tree_param":{"num_deleted":"0","num_feature":"220","num_nodes":"23","size_leaf_vector":"1"}},{"base_weights":[-1.33495685E-2,-1.2340672E-1,3.1951246E-1,9.108342E-2,-2.9404786E-1,6.7332405E-1,8.7827176E-2,-1.057919E-1,5.393312E-1,8.789549E-2,-4.455291E-1,8.117136E-1,6.004503E-3,-1.3082087E-1,4.6894118E-1,1.0936328E-2,-2.6226461E-2,-6.6228756E-3,3.80737E-2,-1.1218405E-2,2.0462262E-2,1.7977184E-4,-2.8582651E-2,5.16101E-2,1.1733664E-2,2.3117779E-2,-1.9754712E-2,9.406488E-4,4.0664744E-2],"categories":[],"categories_nodes":[],"categories_segments":[],"categories_sizes":[],"default_left":[0,0,0,0,0,0,0,0,0,0,0,0,0,0,0,0,0,0,0,0,0,0,0,0,0,0,0,0,0],"id":4,"left_children":[1,3,5,7,9,11,13,15,17,19,21,23,-1,25,27,-1,-1,-1,-1,-1,-1,-1,-1,-1,-1,-1,-1,-1,-1],"loss_changes":[1.7210232E1,1.3256485E1,8.859348E0,1.4634803E1,1.1981522E1,2.4481258E0,6.8837876E0,1.6310013E1,8.350259E0,6.5932226E0,8.530777E0,2.4744377E0,0E0,9.021995E0,4.1511035E0,0E0,0E0,0E0,0E0,0E0,0E0,0E0,0E0,0E0,0E0,0E0,0E0,0E0,0E0],"parents":[2147483647,0,0,1,1,2,2,3,3,4,4,5,5,6,6,7,7,8,8,9,9,10,10,11,11,13,13,14,14],"right_children":[2,4,6,8,10,12,14,16,18,20,22,24,-1,26,28,-1,-1,-1,-1,-1,-1,-1,-1,-1,-1,-1,-1,-1,-1],"split_conditions":[2.77E1,-3.569644E-4,5.984457E-2,1.83E1,5.753425E1,4.0673664E-1,8.9964E0,1.581866E0,1.8518519E-2,2.33E1,4.5E0,3.2608695E-2,6.004503E-3,4.41E1,2.4E1,1.0936328E-2,-2.6226461E-2,-6.6228756E-3,3.80737E-2,-1.1218405E-2,2.0462262E-2,1.7977184E-4,-2.8582651E-2,5.16101E-2,1.1733664E-2,2.3117779E-2,-1.9754712E-2,9.406488E-4,4.0664744E-2],"split_indices":[84,210,124,63,108,44,139,146,100,84,120,98,0,78,61,0,0,0,0,0,0,0,0,0,0,0,0,0,0],"split_type":[0,0,0,0,0,0,0,0,0,0,0,0,0,0,0,0,0,0,0,0,0,0,0,0,0,0,0,0,0],"sum_hessian":[4.6208545E2,3.507592E2,1.11326256E2,1.5514641E2,1.9561278E2,3.9427128E1,7.1899124E1,1.0967878E2,4.5467632E1,5.520855E1,1.4040424E2,2.8946424E1,1.0480703E1,4.6940666E1,2.4958462E1,6.2463894E1,4.721488E1,1.1241057E1,3.4226578E1,2.7976307E1,2.7232244E1,3.0979607E1,1.0942463E2,1.7463253E1,1.1483172E1,1.2729324E1,3.421134E1,1.3732687E1,1.1225774E1],"tree_param":{"num_deleted":"0","num_feature":"220","num_nodes":"29","size_leaf_vector":"1"}},{"base_weights":[-1.2581011E-2,-1.1000894E-1,2.908086E-1,-3.4500774E-2,-5.6920624E-1,4.16736E-1,-1.7939466E-1,-3.6837032E-1,5.2394655E-2,-7.6048356E-1,-0E0,6.526835E-1,1.131323E-1,-2.7539743E-2,1.2093077E-2,-3.8356986E-2,-2.2216185E-3,9.958506E-3,-1.0579157E-2,-4.7264695E-2,-1.12209525E-2,4.487322E-2,1.2447802E-2,-1.8978776E-2,2.153644E-2],"categories":[],"categories_nodes":[],"categories_segments":[],"categories_sizes":[],"default_left":[0,0,0,0,0,0,0,0,0,0,0,0,0,0,0,0,0,0,0,0,0,0,0,0,0],"id":5,"left_children":[1,3,5,7,9,11,13,15,17,19,-1,21,23,-1,-1,-1,-1,-1,-1,-1,-1,-1,-1,-1,-1],"loss_changes":[1.404032E1,1.2173603E1,7.3025227E0,9.471004E0,5.770706E0,5.9142323E0,5.0373054E0,8.1326E0,1.00948305E1,2.1153355E0,0E0,3.2893925E0,8.302668E0,0E0,0E0,0E0,0E0,0E0,0E0,0E0,0E0,0E0,0E0,0E0,0E0],"parents":[2147483647,0,0,1,1,2,2,3,3,4,4,5,5,6,6,7,7,8,8,9,9,11,11,12,12],"right_children":[2,4,6,8,10,12,14,16,18,20,-1,22,24,-1,-1,-1,-1,-1,-1,-1,-1,-1,-1,-1,-1],"split_conditions":[2.78E1,3.0872482E-1,4.5E0,-5E-1,4.863333E0,2.0979342E0,8.2E0,7.2058314E-1,2.1313996E0,7.6536E0,-0E0,3.326731E0,-6.819984E-1,-2.7539743E-2,1.2093077E-2,-3.8356986E-2,-2.2216185E-3,9.958506E-3,-1.0579157E-2,-4.7264695E-2,-1.12209525E-2,4.487322E-2,1.2447802E-2,-1.8978776E-2,2.153644E-2],"split_indices":[84,95,105,67,6,147,42,118,154,139,0,11,43,0,0,0,0,0,0,0,0,0,0,0,0],"split_type":[0,0,0,0,0,0,0,0,0,0,0,0,0,0,0,0,0,0,0,0,0,0,0,0,0],"sum_hessian":[4.6764597E2,3.576336E2,1.1001234E2,3.126822E2,4.4951412E1,8.806039E1,2.1951952E1,6.241793E1,2.5026427E2,3.296198E1,1.1989434E1,4.5389683E1,4.26707E1,1.1480009E1,1.0471943E1,2.4219385E1,3.8198547E1,1.628429E2,8.742137E1,2.0979511E1,1.1982469E1,2.3679539E1,2.1710146E1,1.5725166E1,2.6945534E1],"tree_param":{"num_deleted":"0","num_feature":"220","num_nodes":"25","size_leaf_vector":"1"}},{"base_weights":[-1.7251357E-2,-1.4253336E-1,3.6642662E-1,8.424907E-2,-2.3926125E-1,7.2382873E-1,1.3372593E-1,3.8317904E-1,-2.466158E-1,-3.4752703E-1,4.077432E-2,9.057394E-3,4.293983E-2,3.181558E-2,-8.1127346E-2,-5.5064163E-3,2.7669985E-2,9.429313E-3,-2.6056005E-2,-4.8449013E-4,-2.3399739E-2,1.3878199E-2,-1.5390508E-2,2.2628814E-2,-1.5379525E-2],"categories":[],"categories_nodes":[],"categories_segments":[],"categories_sizes":[],"default_left":[0,0,0,0,0,0,0,0,0,0,0,0,0,0,0,0,0,0,0,0,0,0,0,0,0],"id":6,"left_children":[1,3,5,7,9,11,13,15,17,19,21,-1,-1,-1,23,-1,-1,-1,-1,-1,-1,-1,-1,-1,-1],"loss_changes":[2.251394E1,7.9728203E0,8.647071E0,1.1261462E1,7.8624306E0,1.8771458E0,8.8070135E0,5.539153E0,7.072516E0,7.2067623E0,6.4731674E0,0E0,0E0,0E0,7.560824E0,0E0,0E0,0E0,0E0,0E0,0E0,0E0,0E0,0E0,0E0],"parents":[2147483647,0,0,1,1,2,2,3,3,4,4,5,5,6,6,7,7,8,8,9,9,10,10,14,14],"right_children":[2,4,6,8,10,12,14,16,18,20,22,-1,-1,-1,24,-1,-1,-1,-1,-1,-1,-1,-1,-1,-1],"split_conditions":[2.77E1,-1.24508515E-2,5.984457E-2,4.1983807E-1,4.2790302E1,-9.503839E-3,-7.313537E-1,3.5618126E-1,1.5905543E-1,-4.9467745E0,3.9619958E-1,9.057394E-3,4.293983E-2,3.181558E-2,3.3575186E-1,-5.5064163E-3,2.7669985E-2,9.429313E-3,-2.6056005E-2,-4.8449013E-4,-2.3399739E-2,1.3878199E-2,-1.5390508E-2,2.2628814E-2,-1.5379525E-2],"split_indices":[84,210,124,59,54,212,44,35,9,155,33,0,0,0,123,0,0,0,0,0,0,0,0,0,0],"split_type":[0,0,0,0,0,0,0,0,0,0,0,0,0,0,0,0,0,0,0,0,0,0,0,0,0],"sum_hessian":[4.6027362E2,3.503273E2,1.0994632E2,1.0339336E2,2.4693396E2,3.8347466E1,7.1598854E1,5.4696636E1,4.869672E1,1.7850269E2,6.8431274E1,1.0707988E1,2.7639477E1,1.9201574E1,5.2397278E1,1.3731084E1,4.0965553E1,1.8735985E1,2.9960735E1,4.943128E1,1.2907141E2,4.2210922E1,2.622035E1,1.3464791E1,3.8932487E1],"tree_param":{"num_deleted":"0","num_feature":"220","num_nodes":"25","size_leaf_vector":"1"}},{"base_weights":[4.178886E-3,-2.0215122E-1,1.8193504E-1,4.279602E-1,-2.9637063E-1,4.7922152E-1,3.454555E-2,-1.2621633E-3,3.847982E-2,-3.640933E-1,2.6959652E-2,9.171878E-2,7.781906E-1,5.444209E-1,-8.0682494E-2,-2.1446746E-2,1.8815797E-2,3.0071814E-2,-9.432321E-3,1.1370774E-2,4.6263885E-2,4.222138E-2,2.2169382E-3,6.814353E-3,-2.142398E-2],"categories":[],"categories_nodes":[],"categories_segments":[],"categories_sizes":[],"default_left":[0,0,0,0,0,0,0,0,0,0,0,0,0,0,0,0,0,0,0,0,0,0,0,0,0],"id":7,"left_children":[1,3,5,7,9,11,13,-1,-1,15,-1,17,19,21,23,-1,-1,-1,-1,-1,-1,-1,-1,-1,-1],"loss_changes":[1.7375423E1,1.3518241E1,1.0872412E1,5.0722575E0,1.1837713E1,8.858709E0,1.08848715E1,0E0,0E0,9.591993E0,0E0,6.87229E0,2.06777E0,4.4963646E0,1.1636816E1,0E0,0E0,0E0,0E0,0E0,0E0,0E0,0E0,0E0,0E0],"parents":[2147483647,0,0,1,1,2,2,3,3,4,4,5,5,6,6,9,9,11,11,12,12,13,13,14,14],"right_children":[2,4,6,8,10,12,14,-1,-1,16,-1,18,20,22,24,-1,-1,-1,-1,-1,-1,-1,-1,-1,-1],"split_conditions":[1.725E1,1.8984553E-1,0E0,5.2525E0,3.563896E2,7.317538E1,2.7272728E-1,-1.2621633E-3,3.847982E-2,4.427696E-2,2.6959652E-2,1.78E1,9.432182E-2,1.9272111E-1,6.873977E-3,-2.1446746E-2,1.8815797E-2,3.0071814E-2,-9.432321E-3,1.1370774E-2,4.6263885E-2,4.222138E-2,2.2169382E-3,6.814353E-3,-2.142398E-2],"split_indices":[63,197,128,1,149,150,36,0,0,125,0,75,34,214,210,0,0,0,0,0,0,0,0,0,0],"split_type":[0,0,0,0,0,0,0,0,0,0,0,0,0,0,0,0,0,0,0,0,0,0,0,0,0],"sum_hessian":[4.6401053E2,2.1312596E2,2.5088457E2,2.4728893E1,1.8839706E2,7.830104E1,1.7258353E2,1.1990153E1,1.2738739E1,1.7743555E2,1.0961527E1,3.76753E1,4.062574E1,2.9179968E1,1.4340356E2,1.6570276E2,1.1732783E1,1.197025E1,2.570505E1,1.1962293E1,2.8663448E1,1.5461601E1,1.3718367E1,8.9298645E1,5.4104923E1],"tree_param":{"num_deleted":"0","num_feature":"220","num_nodes":"25","size_leaf_vector":"1"}},{"base_weights":[3.9707176E-2,-6.3465916E-2,3.7341163E-1,4.1756067E-1,-1.7153321E-1,6.689837E-1,1.1270388E-1,6.679256E-1,-5.3719018E-2,-3.3757424E-1,2.8550262E-2,8.785696E-1,9.038947E-3,-2.679568E-1,3.7881222E-1,-0E0,4.3939818E-2,-1.878691E-2,1.2690869E-2,9.256751E-3,-2.1042263E-2,-6.719876E-3,2.6190264E-2,1.52985845E-2,5.216027E-2,3.0296447E-5,-2.5110373E-2,3.2284953E-2,-9.32477E-3],"categories":[],"categories_nodes":[],"categories_segments":[],"categories_sizes":[],"default_left":[0,0,0,0,0,0,0,0,0,0,0,0,0,0,0,0,0,0,0,0,0,0,0,0,0,0,0,0,0],"id":8,"left_children":[1,3,5,7,9,11,13,15,17,19,21,23,-1,25,27,-1,-1,-1,-1,-1,-1,-1,-1,-1,-1,-1,-1,-1,-1],"loss_changes":[1.6293594E1,1.8873573E1,7.843958E0,8.31898E0,1.0075169E1,3.839779E0,7.2782E0,6.203953E0,3.2082295E0,7.6524715E0,1.168437E1,8.6821175E-1,0E0,2.103859E0,7.1474943E0,0E0,0E0,0E0,0E0,0E0,0E0,0E0,0E0,0E0,0E0,0E0,0E0,0E0,0E0],"parents":[2147483647,0,0,1,1,2,2,3,3,4,4,5,5,6,6,7,7,8,8,9,9,10,10,11,11,13,13,14,14],"right_children":[2,4,6,8,10,12,14,16,18,20,22,24,-1,26,28,-1,-1,-1,-1,-1,-1,-1,-1,-1,-1,-1,-1,-1,-1],"split_conditions":[2.77E1,-1.2851782E-2,5.296581E-1,2.8723404E-1,6.54E-1,3.196347E-2,4.49E1,-3.8310114E-1,-2.5881904E-1,-3.6903873E-2,2.9378794E-2,6E0,9.038947E-3,2.9591838E-1,9E0,-0E0,4.3939818E-2,-1.878691E-2,1.2690869E-2,9.256751E-3,-2.1042263E-2,-6.719876E-3,2.6190264E-2,1.52985845E-2,5.216027E-2,3.0296447E-5,-2.5110373E-2,3.2284953E-2,-9.32477E-3],"split_indices":[84,199,151,114,80,98,79,135,44,125,170,15,0,93,15,0,0,0,0,0,0,0,0,0,0,0,0,0,0],"split_type":[0,0,0,0,0,0,0,0,0,0,0,0,0,0,0,0,0,0,0,0,0,0,0,0,0,0,0,0,0],"sum_hessian":[4.6030478E2,3.5354745E2,1.06757324E2,6.1381477E1,2.92166E2,4.5464676E1,6.129265E1,3.9416374E1,2.1965103E1,1.5915387E2,1.3301212E2,2.8295372E1,1.7169304E1,2.4431044E1,3.6861607E1,1.0725113E1,2.869126E1,1.0982446E1,1.0982657E1,2.0204597E1,1.3894928E2,1.02064606E2,3.094752E1,1.0188719E1,1.8106653E1,1.2710901E1,1.1720143E1,2.515781E1,1.17037945E1],"tree_param":{"num_deleted":"0","num_feature":"220","num_nodes":"29","size_leaf_vector":"1"}},{"base_weights":[-3.7500607E-3,-1.8521328E-1,1.4313012E-1,-1.1855752E-2,-4.145618E-1,-1.5368752E-1,2.5242093E-1,4.7902617E-1,-1.5541928E-1,6.777499E-3,-5.507983E-1,-3.6106925E-2,5.7733662E-2,3.3613274E-1,-3.1756067E-1,3.985627E-2,6.6667487E-4,-3.344792E-2,-5.8299466E-4,-4.3597635E-2,-1.33931935E-2,1.7037176E-2,-1.8720575E-2,8.423448E-4,2.5173727E-2,2.2434813E-3,-2.9733524E-2],"categories":[],"categories_nodes":[],"categories_segments":[],"categories_sizes":[],"default_left":[0,0,0,0,0,0,0,0,0,0,0,0,0,0,0,0,0,0,0,0,0,0,0,0,0,0,0],"id":9,"left_children":[1,3,5,7,9,11,13,15,17,-1,19,-1,21,23,25,-1,-1,-1,-1,-1,-1,-1,-1,-1,-1,-1,-1],"loss_changes":[1.2442439E1,8.109781E0,8.551385E0,9.087237E0,7.250455E0,9.049599E0,9.623459E0,3.8286037E0,7.152521E0,0E0,4.8994064E0,0E0,7.420414E0,8.734148E0,3.0373597E0,0E0,0E0,0E0,0E0,0E0,0E0,0E0,0E0,0E0,0E0,0E0,0E0],"parents":[2147483647,0,0,1,1,2,2,3,3,4,4,5,5,6,6,7,7,8,8,10,10,12,12,13,13,14,14],"right_children":[2,4,6,8,10,12,14,16,18,-1,20,-1,22,24,26,-1,-1,-1,-1,-1,-1,-1,-1,-1,-1,-1,-1],"split_conditions":[1.725E1,2.4937657E-1,5E0,-2.1587368E-2,-7.1598067E0,9.6E0,8.43E1,-1.0404705E-2,2.132749E-1,6.777499E-3,3.0509598E0,-3.6106925E-2,2.8292683E-1,2.89E1,-5.047619E-2,3.985627E-2,6.6667487E-4,-3.344792E-2,-5.8299466E-4,-4.3597635E-2,-1.33931935E-2,1.7037176E-2,-1.8720575E-2,8.423448E-4,2.5173727E-2,2.2434813E-3,-2.9733524E-2],"split_indices":[63,94,14,125,208,77,41,170,30,0,40,0,94,81,130,0,0,0,0,0,0,0,0,0,0,0,0],"split_type":[0,0,0,0,0,0,0,0,0,0,0,0,0,0,0,0,0,0,0,0,0,0,0,0,0,0,0],"sum_hessian":[4.5606207E2,2.0495255E2,2.5110953E2,1.2096064E2,8.3991905E1,6.58001E1,1.8530943E2,2.3939367E1,9.702127E1,1.5948458E1,6.804344E1,1.5204991E1,5.059511E1,1.6413231E2,2.117712E1,1.1471443E1,1.2467924E1,1.6463938E1,8.0557335E1,2.6166256E1,4.187719E1,3.191118E1,1.8683931E1,5.9361897E1,1.0477041E2,1.0209819E1,1.09673E1],"tree_param":{"num_deleted":"0","num_feature":"220","num_nodes":"27","size_leaf_vector":"1"}},{"base_weights":[-3.1383015E-2,-1.3046408E-1,2.7037656E-1,-6.369774E-3,-3.6884707E-1,-1.630074E-1,3.95761E-1,-2.4236967E-1,1.6451536E-1,1.3769345E-2,-5.071615E-1,-2.25015E-2,9.048058E-3,-1.23588955E-2,5.0710416E-1,1.6853578E-2,-1.845465E-2,2.0385351E-2,-2.6526898E-3,-3.2878157E-2,3.0765927E-3,3.1768616E-2,-3.895579E-3],"categories":[],"categories_nodes":[],"categories_segments":[],"categories_sizes":[],"default_left":[0,0,0,0,0,0,0,0,0,0,0,0,0,0,0,0,0,0,0,0,0,0,0],"id":10,"left_children":[1,3,5,7,9,11,13,15,17,-1,19,-1,-1,-1,21,-1,-1,-1,-1,-1,-1,-1,-1],"loss_changes":[1.3946755E1,1.0246192E1,6.6772966E0,9.864262E0,1.1455223E1,3.3463264E0,7.2993994E0,8.237574E0,7.70316E0,0E0,9.114281E0,0E0,0E0,0E0,6.544779E0,0E0,0E0,0E0,0E0,0E0,0E0,0E0,0E0],"parents":[2147483647,0,0,1,1,2,2,3,3,4,4,5,5,6,6,7,7,8,8,10,10,14,14],"right_children":[2,4,6,8,10,12,14,16,18,-1,20,-1,-1,-1,22,-1,-1,-1,-1,-1,-1,-1,-1],"split_conditions":[2.77E1,4.693114E-1,8E-1,6.8E0,-3.6903873E-2,8.904958E-2,-7.1948534E-1,5.46E1,4.392857E0,1.3769345E-2,5.946305E0,-2.25015E-2,9.048058E-3,-1.23588955E-2,3E1,1.6853578E-2,-1.845465E-2,2.0385351E-2,-2.6526898E-3,-3.2878157E-2,3.0765927E-3,3.1768616E-2,-3.895579E-3],"split_indices":[84,151,31,42,125,29,88,83,22,0,22,0,0,0,112,0,0,0,0,0,0,0,0],"split_type":[0,0,0,0,0,0,0,0,0,0,0,0,0,0,0,0,0,0,0,0,0,0,0],"sum_hessian":[4.579084E2,3.4810522E2,1.0980316E2,2.336867E2,1.144185E2,2.3407722E1,8.639544E1,9.849505E1,1.3519165E2,1.8708576E1,9.570992E1,1.2712084E1,1.0695638E1,1.1189936E1,7.5205505E1,1.5477807E1,8.301724E1,6.2858746E1,7.233291E1,7.5769196E1,1.9940733E1,6.202947E1,1.3176038E1],"tree_param":{"num_deleted":"0","num_feature":"220","num_nodes":"23","size_leaf_vector":"1"}},{"base_weights":[1.6713474E-2,-6.975305E-2,3.0523553E-1,-5.9928143E-1,-1.9593343E-2,-0E0,5.076888E-1,-7.3467814E-3,-4.5874547E-2,2.9627317E-1,-1.6863754E-1,-2.9882556E-2,2.3848692E-1,2.0799343E-3,6.9548756E-1,2.4635928E-2,-2.097672E-3,-1.2111264E-2,1.8697256E-2,2.7851267E-2,-1.6584696E-2,4.6312187E-2,8.03227E-3],"categories":[],"categories_nodes":[],"categories_segments":[],"categories_sizes":[],"default_left":[0,0,0,0,0,0,0,0,0,0,0,0,0,0,0,0,0,0,0,0,0,0,0],"id":11,"left_children":[1,3,5,7,9,11,13,-1,-1,15,17,-1,19,-1,21,-1,-1,-1,-1,-1,-1,-1,-1],"loss_changes":[1.1734851E1,9.133811E0,6.7244987E0,3.1009188E0,1.5854415E1,7.602567E0,5.2082577E0,0E0,0E0,7.4670563E0,9.585621E0,0E0,7.950177E0,0E0,4.3292236E0,0E0,0E0,0E0,0E0,0E0,0E0,0E0,0E0],"parents":[2147483647,0,0,1,1,2,2,3,3,4,4,5,5,6,6,9,9,10,10,12,12,14,14],"right_children":[2,4,6,8,10,12,14,-1,-1,16,18,-1,20,-1,22,-1,-1,-1,-1,-1,-1,-1,-1],"split_conditions":[2.4E1,-1.5499707E0,-9.660028E-3,-9.383839E0,-1.108871E0,5E0,4.1E1,-7.3467814E-3,-4.5874547E-2,5.4237056E0,5.52005E-1,-2.9882556E-2,4.3142533E0,2.0799343E-3,6.616077E-2,2.4635928E-2,-2.097672E-3,-1.2111264E-2,1.8697256E-2,2.7851267E-2,-1.6584696E-2,4.6312187E-2,8.03227E-3],"split_indices":[61,135,125,153,154,14,72,0,0,200,52,0,26,0,124,0,0,0,0,0,0,0,0],"split_type":[0,0,0,0,0,0,0,0,0,0,0,0,0,0,0,0,0,0,0,0,0,0,0],"sum_hessian":[4.5639508E2,3.5274112E2,1.03653946E2,2.492337E1,3.2781775E2,4.3289116E1,6.0364834E1,1.3959517E1,1.0963855E1,1.0243513E2,2.2538263E2,1.0223207E1,3.306591E1,1.985571E1,4.0509125E1,6.428956E1,3.814557E1,2.0171448E2,2.3668144E1,2.185091E1,1.1214998E1,2.509015E1,1.5418972E1],"tree_param":{"num_deleted":"0","num_feature":"220","num_nodes":"23","size_leaf_vector":"1"}},{"base_weights":[-0E0,-1.7685288E-1,1.5155877E-1,2.1445496E-1,-2.907107E-1,4.347361E-1,1.7521404E-2,-1.1303496E-2,5.176133E-1,-3.692552E-1,1.6325636E-2,1.1775738E-1,7.650297E-1,3.466814E-1,-2.0917454E-1,3.969182E-2,3.101818E-4,-2.3111781E-2,1.3315292E-2,-1.981903E-2,1.7541168E-2,4.989786E-3,4.9317934E-2,-6.0480735E-3,2.7976945E-2,-1.7409569E-2,1.1832397E-2],"categories":[],"categories_nodes":[],"categories_segments":[],"categories_sizes":[],"default_left":[0,0,0,0,0,0,0,0,0,0,0,0,0,0,0,0,0,0,0,0,0,0,0,0,0,0,0],"id":12,"left_children":[1,3,5,7,9,11,13,-1,15,17,-1,19,21,23,25,-1,-1,-1,-1,-1,-1,-1,-1,-1,-1,-1,-1],"loss_changes":[1.2551244E1,9.982552E0,9.3016815E0,7.490764E0,8.894222E0,7.437627E0,1.3673649E1,0E0,4.120618E0,9.837404E0,0E0,6.3379498E0,4.45352E0,8.038934E0,7.118378E0,0E0,0E0,0E0,0E0,0E0,0E0,0E0,0E0,0E0,0E0,0E0,0E0],"parents":[2147483647,0,0,1,1,2,2,3,3,4,4,5,5,6,6,8,8,9,9,11,11,12,12,13,13,14,14],"right_children":[2,4,6,8,10,12,14,-1,16,18,-1,20,22,24,26,-1,-1,-1,-1,-1,-1,-1,-1,-1,-1,-1,-1],"split_conditions":[1.725E1,8.057143E0,0E0,1.3537146E-1,1.1E0,1.5E0,-1.4088114E-3,-1.1303496E-2,1.4175795E-1,5.51E1,1.6325636E-2,1.9480519E-2,4.36E1,-8.832539E-3,2.5847635E-1,3.969182E-2,3.101818E-4,-2.3111781E-2,1.3315292E-2,-1.981903E-2,1.7541168E-2,4.989786E-3,4.9317934E-2,-6.0480735E-3,2.7976945E-2,-1.7409569E-2,1.1832397E-2],"split_indices":[63,91,129,32,67,49,210,0,128,72,0,100,79,209,30,0,0,0,0,0,0,0,0,0,0,0,0],"split_type":[0,0,0,0,0,0,0,0,0,0,0,0,0,0,0,0,0,0,0,0,0,0,0,0,0,0,0],"sum_hessian":[4.5822906E2,2.1120546E2,2.4702362E2,4.561752E1,1.6558794E2,7.4558495E1,1.7246512E2,1.8441687E1,2.7175833E1,1.4939551E2,1.619244E1,4.2279655E1,3.2278843E1,7.015706E1,1.0230806E2,1.5217561E1,1.1958273E1,1.3220468E2,1.7190826E1,1.1425764E1,3.085389E1,1.0433397E1,2.1845446E1,2.1885275E1,4.8271786E1,7.967896E1,2.2629093E1],"tree_param":{"num_deleted":"0","num_feature":"220","num_nodes":"27","size_leaf_vector":"1"}},{"base_weights":[-2.2824228E-2,-1.15413226E-1,3.2773978E-1,-1.8234573E-1,3.2399145E-1,4.9588463E-1,-1.1217313E-1,-8.3294526E-2,-5.0243914E-1,6.3750964E-1,-5.531574E-3,-4.2923405E-3,6.2836415E-1,-2.1836242E-2,6.7719794E-3,-1.2376416E-2,9.615115E-3,5.1745554E-3,-3.261613E-2,-0E0,4.9054116E-2,3.798091E-2,2.64268E-4],"categories":[],"categories_nodes":[],"categories_segments":[],"categories_sizes":[],"default_left":[0,0,0,0,0,0,0,0,0,0,0,0,0,0,0,0,0,0,0,0,0,0,0],"id":13,"left_children":[1,3,5,7,9,11,13,15,17,19,-1,-1,21,-1,-1,-1,-1,-1,-1,-1,-1,-1,-1],"loss_changes":[1.525354E1,1.1240543E1,7.7060757E0,9.936446E0,7.4736214E0,6.1298313E0,2.8819497E0,1.1971195E1,7.479433E0,6.493368E0,0E0,0E0,4.534504E0,0E0,0E0,0E0,0E0,0E0,0E0,0E0,0E0,0E0,0E0],"parents":[2147483647,0,0,1,1,2,2,3,3,4,4,5,5,6,6,7,7,8,8,9,9,12,12],"right_children":[2,4,6,8,10,12,14,16,18,20,-1,-1,22,-1,-1,-1,-1,-1,-1,-1,-1,-1,-1],"split_conditions":[2.71E1,1.995088E-2,1.4253237E-2,2.423726E-1,1.860582E-1,-3.4048032E-2,2.585505E-2,2.082785E2,-3.1447405E-1,3.2921326E0,-5.531574E-3,-4.2923405E-3,4.8737473E0,-2.1836242E-2,6.7719794E-3,-1.2376416E-2,9.615115E-3,5.1745554E-3,-3.261613E-2,-0E0,4.9054116E-2,3.798091E-2,2.64268E-4],"split_indices":[62,213,210,138,130,210,210,148,128,40,0,0,25,0,0,0,0,0,0,0,0,0,0],"split_type":[0,0,0,0,0,0,0,0,0,0,0,0,0,0,0,0,0,0,0,0,0,0,0],"sum_hessian":[4.6238568E2,3.6955978E2,9.28259E1,3.2423373E2,4.532606E1,6.7519E1,2.53069E1,2.5361656E2,7.0617165E1,2.5643972E1,1.9682089E1,1.215054E1,5.5368458E1,1.0173211E1,1.5133688E1,1.6037143E2,9.324513E1,1.3649273E1,5.6967896E1,1.0958564E1,1.4685409E1,4.4166466E1,1.1201989E1],"tree_param":{"num_deleted":"0","num_feature":"220","num_nodes":"23","size_leaf_vector":"1"}},{"base_weights":[1.792175E-2,-7.520441E-2,3.288995E-1,4.6366796E-2,-3.176346E-1,5.6903195E-1,-1.6593364E-1,3.3544397E-1,-1.1614655E-1,-3.361364E-2,-6.6478497E-1,1.9615352E-1,8.1081617E-1,-4.131291E-2,1.9382094E-1,3.7757006E-2,3.3883054E-3,5.9736874E-5,-3.1440843E-2,-3.2286834E-2,9.669769E-3,-7.0377253E-3,-4.2098E-2,2.5952825E-2,-8.278645E-3,5.0861027E-2,1.85928E-2,-3.6438094E-3,2.2832554E-2],"categories":[],"categories_nodes":[],"categories_segments":[],"categories_sizes":[],"default_left":[0,0,0,0,0,0,0,0,0,0,0,0,0,0,0,0,0,0,0,0,0,0,0,0,0,0,0,0,0],"id":14,"left_children":[1,3,5,7,9,11,13,15,17,19,21,23,25,-1,27,-1,-1,-1,-1,-1,-1,-1,-1,-1,-1,-1,-1,-1,-1],"loss_changes":[1.376659E1,1.0878042E1,1.371145E1,1.1771073E1,1.1657756E1,5.5245113E0,1.0391075E1,9.469429E0,9.873583E0,1.1086213E1,3.9529305E0,4.9491096E0,1.3556538E0,0E0,2.3792503E0,0E0,0E0,0E0,0E0,0E0,0E0,0E0,0E0,0E0,0E0,0E0,0E0,0E0,0E0],"parents":[2147483647,0,0,1,1,2,2,3,3,4,4,5,5,6,6,7,7,8,8,9,9,10,10,11,11,12,12,14,14],"right_children":[2,4,6,8,10,12,14,16,18,20,22,24,26,-1,28,-1,-1,-1,-1,-1,-1,-1,-1,-1,-1,-1,-1,-1,-1],"split_conditions":[2.78E1,5.5E0,1.0933263E1,-6.2744063E-3,3.52E-1,-4.8244046E-3,3.53E1,4.201934E-1,7.0985794E0,-3.0996685E0,7.2114326E-2,2.8328612E-1,2.6737225E-1,-4.131291E-2,-5.86952E-4,3.7757006E-2,3.3883054E-3,5.9736874E-5,-3.1440843E-2,-3.2286834E-2,9.669769E-3,-7.0377253E-3,-4.2098E-2,2.5952825E-2,-8.278645E-3,5.0861027E-2,1.85928E-2,-3.6438094E-3,2.2832554E-2],"split_indices":[84,120,198,210,73,125,71,59,22,208,7,94,28,0,170,0,0,0,0,0,0,0,0,0,0,0,0,0,0],"split_type":[0,0,0,0,0,0,0,0,0,0,0,0,0,0,0,0,0,0,0,0,0,0,0,0,0,0,0,0,0],"sum_hessian":[4.6171246E2,3.569903E2,1.0472218E2,2.3908023E2,1.1791006E2,7.0682236E1,3.4039944E1,8.5230034E1,1.538502E2,6.866019E1,4.924987E1,3.21795E1,3.8502735E1,1.0208529E1,2.3831415E1,2.8917128E1,5.631291E1,1.2846082E2,2.5389378E1,1.6675377E1,5.1984806E1,1.5424146E1,3.3825726E1,1.6583462E1,1.559604E1,2.09337E1,1.7569036E1,1.267807E1,1.1153345E1],"tree_param":{"num_deleted":"0","num_feature":"220","num_nodes":"29","size_leaf_vector":"1"}},{"base_weights":[-3.1377317E-3,-1.4859441E-1,1.8499526E-1,-2.2278158E-1,2.8666994E-1,5.387011E-1,1.1232326E-2,-4.4112813E-2,-1.5336686E-1,-9.739148E-3,3.46101E-2,-2.4558268E-3,7.5514203E-1,-3.3867642E-1,1.3539682E-1,-2.7303433E-3,-2.6576027E-2,6.252979E-3,4.492865E-2,-3.1906385E-2,1.4194061E-2,-2.1150475E-3,2.8181354E-2],"categories":[],"categories_nodes":[],"categories_segments":[],"categories_sizes":[],"default_left":[0,0,0,0,0,0,0,0,0,0,0,0,0,0,0,0,0,0,0,0,0,0,0],"id":15,"left_children":[1,3,5,7,9,11,13,-1,15,-1,-1,-1,17,19,21,-1,-1,-1,-1,-1,-1,-1,-1],"loss_changes":[1.2873113E1,8.912771E0,1.2229579E1,9.426493E0,8.75268E0,8.952238E0,6.3324485E0,0E0,7.6530824E0,0E0,0E0,0E0,3.3782215E0,8.125711E0,8.753244E0,0E0,0E0,0E0,0E0,0E0,0E0,0E0,0E0],"parents":[2147483647,0,0,1,1,2,2,3,3,4,4,5,5,6,6,8,8,12,12,13,13,14,14],"right_children":[2,4,6,8,10,12,14,-1,16,-1,-1,-1,18,20,22,-1,-1,-1,-1,-1,-1,-1,-1],"split_conditions":[1.76E1,1.9685185E-1,-4.573918E-3,1.4E1,2.7619669E1,-5.423443E-1,1.7316017E-2,-4.4112813E-2,2.423726E-1,-9.739148E-3,3.46101E-2,-2.4558268E-3,2.4691358E-2,1.5796296E-1,3.05E1,-2.7303433E-3,-2.6576027E-2,6.252979E-3,4.492865E-2,-3.1906385E-2,1.4194061E-2,-2.1150475E-3,2.8181354E-2],"split_indices":[63,51,128,66,57,126,100,0,138,0,0,0,97,51,62,0,0,0,0,0,0,0,0],"split_type":[0,0,0,0,0,0,0,0,0,0,0,0,0,0,0,0,0,0,0,0,0,0,0],"sum_hessian":[4.610615E2,2.6211417E2,1.9894734E2,2.2701152E2,3.5102642E1,6.113155E1,1.378158E2,1.5357242E1,2.1165427E2,1.6673328E1,1.8429312E1,1.6870186E1,4.4261364E1,3.2778202E1,1.050376E2,1.7341008E2,3.8244186E1,1.058922E1,3.3672146E1,2.2590315E1,1.0187887E1,7.6593124E1,2.8444468E1],"tree_param":{"num_deleted":"0","num_feature":"220","num_nodes":"23","size_leaf_vector":"1"}},{"base_weights":[-3.4407137E-3,-1.5573785E-1,1.6160853E-1,7.011576E-2,-3.6281553E-1,2.2818194E-1,-2.710492E-2,5.0609565E-1,-1.1296362E-1,-4.660205E-1,1.548431E-2,-1.809848E-2,2.9839224E-1,4.3577727E-2,-9.931886E-3,8.703976E-3,-2.9419228E-2,-3.214362E-2,-5.9357537E-3,1.8520167E-2,-1.6157908E-2],"categories":[],"categories_nodes":[],"categories_segments":[],"categories_sizes":[],"default_left":[0,0,0,0,0,0,0,0,0,0,0,0,0,0,0,0,0,0,0,0,0],"id":16,"left_children":[1,3,5,7,9,11,-1,13,15,17,-1,-1,19,-1,-1,-1,-1,-1,-1,-1,-1],"loss_changes":[1.1629636E1,1.1601233E1,1.0794612E1,9.9717E0,9.705795E0,9.03015E0,0E0,1.0700277E1,1.2592697E1,6.2327423E0,0E0,0E0,9.005449E0,0E0,0E0,0E0,0E0,0E0,0E0,0E0,0E0],"parents":[2147483647,0,0,1,1,2,2,3,3,4,4,5,5,7,7,8,8,9,9,12,12],"right_children":[2,4,6,8,10,12,-1,14,16,18,-1,-1,20,-1,-1,-1,-1,-1,-1,-1,-1],"split_conditions":[2.94E1,4.2152327E-1,2.3E1,2.090909E-1,1.9806878E-1,-1.3E0,-2.710492E-2,8.840261E0,2.078522E0,3.883495E-2,1.548431E-2,-1.809848E-2,2.584419E0,4.3577727E-2,-9.931886E-3,8.703976E-3,-2.9419228E-2,-3.214362E-2,-5.9357537E-3,1.8520167E-2,-1.6157908E-2],"split_indices":[81,35,110,96,51,74,0,39,136,99,0,0,147,0,0,0,0,0,0,0,0],"split_type":[0,0,0,0,0,0,0,0,0,0,0,0,0,0,0,0,0,0,0,0,0],"sum_hessian":[4.5276923E2,2.3720383E2,2.155654E2,1.1388512E2,1.2331872E2,2.0067044E2,1.4894967E1,3.187891E1,8.20062E1,1.0888711E2,1.4431611E1,1.8369219E1,1.8230122E2,2.0680422E1,1.119849E1,5.2453846E1,2.9552357E1,6.837499E1,4.0512115E1,1.6590472E2,1.6396502E1],"tree_param":{"num_deleted":"0","num_feature":"220","num_nodes":"21","size_leaf_vector":"1"}},{"base_weights":[-4.9684793E-3,3.0468669E-2,-3.679029E-2,-5.717108E-2,3.1452662E-1,1.7346399E-1,-1.7009461E-1,5.656305E-1,7.6916665E-2,2.3810076E-2,-1.4455077E-2,7.279468E-3,-1.4498939E-2,-0E0,3.7302736E-2,-7.8116483E-3,2.3516547E-2],"categories":[],"categories_nodes":[],"categories_segments":[],"categories_sizes":[],"default_left":[0,0,0,0,0,0,0,0,0,0,0,0,0,0,0,0,0],"id":17,"left_children":[1,3,-1,5,7,9,11,13,15,-1,-1,-1,-1,-1,-1,-1,-1],"loss_changes":[1.2354506E1,1.1222141E1,0E0,9.018346E0,5.8053894E0,1.6605246E1,9.089069E0,4.773016E0,6.1603045E0,0E0,0E0,0E0,0E0,0E0,0E0,0E0,0E0],"parents":[2147483647,0,0,1,1,3,3,4,4,5,5,6,6,7,7,8,8],"right_children":[2,4,-1,6,8,10,12,14,16,-1,-1,-1,-1,-1,-1,-1,-1],"split_conditions":[2.429E2,2.4E1,-3.679029E-2,5.46E1,2.7295285E-1,2.457346E-1,2.0967741E-1,7.162162E-1,3E-1,2.3810076E-2,-1.4455077E-2,7.279468E-3,-1.4498939E-2,-0E0,3.7302736E-2,-7.8116483E-3,2.3516547E-2],"split_indices":[192,61,0,83,94,138,96,118,116,0,0,0,0,0,0,0,0],"split_type":[0,0,0,0,0,0,0,0,0,0,0,0,0,0,0,0,0],"sum_hessian":[4.5408484E2,4.3700266E2,1.7082169E1,3.35672E2,1.0133065E2,1.0799487E2,2.2767714E2,4.488735E1,5.6443306E1,6.583865E1,4.2156216E1,6.1222008E1,1.6645512E2,1.2636264E1,3.2251083E1,3.6534992E1,1.9908312E1],"tree_param":{"num_deleted":"0","num_feature":"220","num_nodes":"17","size_leaf_vector":"1"}},{"base_weights":[2.9908707E-2,-5.3002194E-2,2.719609E-1,1.4945865E-1,-1.7050932E-1,-3.865314E-2,4.4802025E-1,2.572659E-1,-2.0067595E-2,-2.4831389E-1,3.0893266E-1,2.106035E-2,-3.3701667E-1,6.57469E-1,-0E0,2.5018869E-2,1.7023092E-3,-1.7034208E-2,1.2351865E-2,3.470129E-2,-5.79234E-4,1.233719E-3,-2.9641584E-2,-0E0,4.124744E-2,1.6569518E-2,-1.9019468E-2],"categories":[],"categories_nodes":[],"categories_segments":[],"categories_sizes":[],"default_left":[0,0,0,0,0,0,0,0,0,0,0,0,0,0,0,0,0,0,0,0,0,0,0,0,0,0,0],"id":18,"left_children":[1,3,5,7,9,11,13,15,-1,17,19,-1,21,23,25,-1,-1,-1,-1,-1,-1,-1,-1,-1,-1,-1,-1],"loss_changes":[9.542187E0,8.466312E0,6.9279337E0,8.143835E0,8.76152E0,7.1819415E0,7.688593E0,5.7388673E0,0E0,9.509115E0,4.4302244E0,0E0,3.3395512E0,6.300007E0,4.365993E0,0E0,0E0,0E0,0E0,0E0,0E0,0E0,0E0,0E0,0E0,0E0,0E0],"parents":[2147483647,0,0,1,1,2,2,3,3,4,4,5,5,6,6,7,7,9,9,10,10,12,12,13,13,14,14],"right_children":[2,4,6,8,10,12,14,16,-1,18,20,-1,22,24,26,-1,-1,-1,-1,-1,-1,-1,-1,-1,-1,-1,-1],"split_conditions":[2.77E1,2.2560975E-1,7E0,7.547008E0,7E0,7.9778485E-2,3.189066E-2,-3.569644E-4,-2.0067595E-2,1.9655481E-2,-2.7777778E-3,2.106035E-2,2.7027028E-2,1.1600203E-1,2.806604E-1,2.5018869E-2,1.7023092E-3,-1.7034208E-2,1.2351865E-2,3.470129E-2,-5.79234E-4,1.233719E-3,-2.9641584E-2,-0E0,4.124744E-2,1.6569518E-2,-1.9019468E-2],"split_indices":[84,96,42,4,19,29,98,210,0,213,213,0,99,32,94,0,0,0,0,0,0,0,0,0,0,0,0],"split_type":[0,0,0,0,0,0,0,0,0,0,0,0,0,0,0,0,0,0,0,0,0,0,0,0,0,0,0],"sum_hessian":[4.6142804E2,3.450697E2,1.1635833E2,1.2466371E2,2.2040599E2,4.2478188E1,7.388014E1,1.0724552E2,1.7418186E1,1.9260332E2,2.7802685E1,1.5245797E1,2.723239E1,4.9414677E1,2.446547E1,4.7291553E1,5.9953968E1,1.6449904E2,2.8104275E1,1.0691027E1,1.7111658E1,1.2343453E1,1.4888935E1,1.0594216E1,3.882046E1,1.2806407E1,1.1659061E1],"tree_param":{"num_deleted":"0","num_feature":"220","num_nodes":"27","size_leaf_vector":"1"}},{"base_weights":[3.5813693E-3,1.7022504E-1,-1.17626116E-1,6.589696E-2,5.737849E-1,-5.319061E-1,-2.1898208E-2,-2.8340092E-1,2.1187909E-1,3.731439E-2,2.8881428E-3,-7.851818E-1,7.0075416E-3,1.0311914E-1,-3.795001E-1,1.244357E-2,-2.4171917E-2,1.8960534E-2,-7.997288E-3,-1.2734196E-2,-5.050987E-2,-2.7981404E-2,9.3171885E-3,3.0772702E-3,-3.5954464E-2],"categories":[],"categories_nodes":[],"categories_segments":[],"categories_sizes":[],"default_left":[0,0,0,0,0,0,0,0,0,0,0,0,0,0,0,0,0,0,0,0,0,0,0,0,0],"id":19,"left_children":[1,3,5,7,9,11,13,15,17,-1,-1,19,-1,21,23,-1,-1,-1,-1,-1,-1,-1,-1,-1,-1],"loss_changes":[9.42999E0,7.8161287E0,1.0288348E1,8.614174E0,2.852603E0,9.227781E0,1.03387785E1,5.9780006E0,7.838881E0,0E0,0E0,2.4915848E0,0E0,9.640641E0,9.547764E0,0E0,0E0,0E0,0E0,0E0,0E0,0E0,0E0,0E0,0E0],"parents":[2147483647,0,0,1,1,2,2,3,3,4,4,5,5,6,6,7,7,8,8,11,11,13,13,14,14],"right_children":[2,4,6,8,10,12,14,16,18,-1,-1,20,-1,22,24,-1,-1,-1,-1,-1,-1,-1,-1,-1,-1],"split_conditions":[8.293001E0,8.133569E0,2.4305556E-2,1.2651241E-1,1.041E0,4.9855503E-1,1.772152E0,2.6764104E0,5.6666665E0,3.731439E-2,2.8881428E-3,9.3408104E1,7.0075416E-3,6.0095165E-2,-6.279762E-3,1.244357E-2,-2.4171917E-2,1.8960534E-2,-7.997288E-3,-1.2734196E-2,-5.050987E-2,-2.7981404E-2,9.3171885E-3,3.0772702E-3,-3.5954464E-2],"split_indices":[53,184,97,32,37,35,134,4,111,0,0,87,0,29,211,0,0,0,0,0,0,0,0,0,0],"split_type":[0,0,0,0,0,0,0,0,0,0,0,0,0,0,0,0,0,0,0,0,0,0,0,0,0],"sum_hessian":[4.556082E2,1.9273167E2,2.6287653E2,1.5874773E2,3.3983955E1,4.4085056E1,2.1879146E2,4.439355E1,1.1435417E2,2.3071268E1,1.0912688E1,3.1947477E1,1.2137579E1,1.6371634E2,5.5075127E1,1.1110326E1,3.3283222E1,7.9722305E1,3.4631866E1,1.33514185E1,1.859606E1,1.4401634E1,1.493147E2,2.5098984E1,2.9976143E1],"tree_param":{"num_deleted":"0","num_feature":"220","num_nodes":"25","size_leaf_vector":"1"}},{"base_weights":[2.6139895E-2,-7.826302E-2,2.5814825E-1,8.896516E-2,-3.197448E-1,3.6440378E-1,-2.0366608E-1,-1.6466762E-1,2.9545495E-1,1.03194505E-1,-4.482208E-1,-1.2062977E-1,4.9157014E-1,1.126058E-2,-3.0484289E-2,-3.4090884E-2,-3.0595536E-5,2.9151374E-2,3.8016804E-3,-1.621768E-2,2.0914234E-2,9.008761E-3,-2.6850319E-2,-2.2582976E-2,1.4713963E-2,3.8910113E-2,2.9155377E-3],"categories":[],"categories_nodes":[],"categories_segments":[],"categories_sizes":[],"default_left":[0,0,0,0,0,0,0,0,0,0,0,0,0,0,0,0,0,0,0,0,0,0,0,0,0,0,0],"id":20,"left_children":[1,3,5,7,9,11,13,15,17,19,21,23,25,-1,-1,-1,-1,-1,-1,-1,-1,-1,-1,-1,-1,-1,-1],"loss_changes":[1.15577135E1,1.3421683E1,7.7277613E0,1.0536611E1,7.776931E0,8.082178E0,6.1137486E0,7.2725296E0,6.423011E0,5.4097776E0,6.5716724E0,4.697953E0,1.1702276E1,0E0,0E0,0E0,0E0,0E0,0E0,0E0,0E0,0E0,0E0,0E0,0E0,0E0,0E0],"parents":[2147483647,0,0,1,1,2,2,3,3,4,4,5,5,6,6,7,7,8,8,9,9,10,10,11,11,12,12],"right_children":[2,4,6,8,10,12,14,16,18,20,22,24,26,-1,-1,-1,-1,-1,-1,-1,-1,-1,-1,-1,-1,-1,-1],"split_conditions":[8.3928E0,3.292181E-2,1.1087649E-1,2.0408163E-2,4.9128E0,3.393012E-1,3.5831146E1,-5.671904E-1,-4.539905E-1,3.9622642E-2,6.5E0,3.2153847E1,1.6808135E-3,1.126058E-2,-3.0484289E-2,-3.4090884E-2,-3.0595536E-5,2.9151374E-2,3.8016804E-3,-1.621768E-2,2.0914234E-2,9.008761E-3,-2.6850319E-2,-2.2582976E-2,1.4713963E-2,3.8910113E-2,2.9155377E-3],"split_indices":[139,98,7,100,139,35,56,88,44,98,77,57,211,0,0,0,0,0,0,0,0,0,0,0,0,0,0],"split_type":[0,0,0,0,0,0,0,0,0,0,0,0,0,0,0,0,0,0,0,0,0,0,0,0,0,0,0],"sum_hessian":[4.6426715E2,3.2098386E2,1.432833E2,1.9029224E2,1.3069162E2,1.182202E2,2.5063093E1,8.476549E1,1.0552675E2,2.9772736E1,1.00918884E2,2.3793396E1,9.44268E1,1.2672396E1,1.23906975E1,1.5879861E1,6.888563E1,4.10987E1,6.442805E1,1.1896478E1,1.7876259E1,1.1159229E1,8.975965E1,1.3658417E1,1.0134979E1,5.3739468E1,4.068734E1],"tree_param":{"num_deleted":"0","num_feature":"220","num_nodes":"27","size_leaf_vector":"1"}},{"base_weights":[6.9857715E-3,-3.500275E-1,6.0173705E-2,8.873202E-3,-5.543615E-1,-1.9323837E-2,2.918527E-1,-7.458546E-1,-0E0,2.6832324E-1,-1.4405881E-1,4.9871728E-1,-1.6803218E-2,-1.5291479E-2,-4.5540612E-2,-0E0,2.787262E-2,-1.4038684E-2,7.1690637E-3,-6.128361E-3,3.245225E-2,-2.6169134E-2,1.513342E-2],"categories":[],"categories_nodes":[],"categories_segments":[],"categories_sizes":[],"default_left":[0,0,0,0,0,0,0,0,0,0,0,0,0,0,0,0,0,0,0,0,0,0,0],"id":21,"left_children":[1,3,5,-1,7,9,11,13,-1,15,17,19,21,-1,-1,-1,-1,-1,-1,-1,-1,-1,-1],"loss_changes":[8.725886E0,7.0793867E0,7.665075E0,0E0,4.7760487E0,1.1120627E1,7.0482683E0,4.140091E-1,0E0,7.2107306E0,8.841093E0,6.6918526E0,8.409295E0,0E0,0E0,0E0,0E0,0E0,0E0,0E0,0E0,0E0,0E0],"parents":[2147483647,0,0,1,1,2,2,4,4,5,5,6,6,7,7,9,9,10,10,11,11,12,12],"right_children":[2,4,6,-1,8,10,12,14,-1,16,18,20,22,-1,-1,-1,-1,-1,-1,-1,-1,-1,-1],"split_conditions":[1.24E1,1.9607843E-1,3.17E1,8.873202E-3,7.302527E-1,-1.4122534E-2,3.189066E-2,1.9E1,-0E0,-2.9008819E-2,5.595228E-1,1.44E1,6.930504E-2,-1.5291479E-2,-4.5540612E-2,-0E0,2.787262E-2,-1.4038684E-2,7.1690637E-3,-6.128361E-3,3.245225E-2,-2.6169134E-2,1.513342E-2],"split_indices":[62,96,69,0,118,210,98,75,0,210,85,63,7,0,0,0,0,0,0,0,0,0,0],"split_type":[0,0,0,0,0,0,0,0,0,0,0,0,0,0,0,0,0,0,0,0,0,0,0],"sum_hessian":[4.5661432E2,5.4368866E1,4.0224545E2,1.4680764E1,3.9688103E1,3.012875E2,1.0095796E2,2.8272476E1,1.1415626E1,8.817829E1,2.131092E2,5.957274E1,4.1385227E1,1.2426302E1,1.5846175E1,4.838608E1,3.979221E1,1.4567662E2,6.743258E1,1.1138026E1,4.843471E1,1.5376591E1,2.6008635E1],"tree_param":{"num_deleted":"0","num_feature":"220","num_nodes":"23","size_leaf_vector":"1"}},{"base_weights":[9.289795E-3,-5.9156876E-2,3.8714105E-1,1.8217209E-1,-1.7594889E-1,-1.0460398E-2,5.361528E-1,6.73472E-1,5.684288E-3,-3.1260923E-1,2.2815123E-1,6.990344E-1,-4.5484225E-3,4.3041598E-2,6.661698E-3,-2.1495247E-2,1.1090751E-2,-2.1136468E-2,7.986067E-3,2.231435E-2,-1.6027521E-2,5.1105223E-3,4.1425783E-2],"categories":[],"categories_nodes":[],"categories_segments":[],"categories_sizes":[],"default_left":[0,0,0,0,0,0,0,0,0,0,0,0,0,0,0,0,0,0,0,0,0,0,0],"id":22,"left_children":[1,3,5,7,9,-1,11,13,15,17,19,21,-1,-1,-1,-1,-1,-1,-1,-1,-1,-1,-1],"loss_changes":[1.2162639E1,1.1212933E1,7.1451864E0,1.082527E1,1.5213889E1,0E0,6.73901E0,2.299841E0,9.85179E0,1.1054127E1,9.128144E0,2.878233E0,0E0,0E0,0E0,0E0,0E0,0E0,0E0,0E0,0E0,0E0,0E0],"parents":[2147483647,0,0,1,1,2,2,3,3,4,4,6,6,7,7,8,8,9,9,10,10,11,11],"right_children":[2,4,6,8,10,-1,12,14,16,18,20,22,-1,-1,-1,-1,-1,-1,-1,-1,-1,-1,-1],"split_conditions":[1E0,0E0,-1.7546307E-2,8.55E0,6.621984E1,-1.0460398E-2,4.2713568E-2,4.9613013E0,3.4666667E0,9.052457E1,1.4363044E-2,2.1271582E-1,-4.5484225E-3,4.3041598E-2,6.661698E-3,-2.1495247E-2,1.1090751E-2,-2.1136468E-2,7.986067E-3,2.231435E-2,-1.6027521E-2,5.1105223E-3,4.1425783E-2],"split_indices":[67,126,212,91,107,0,98,6,26,55,212,28,0,0,0,0,0,0,0,0,0,0,0],"split_type":[0,0,0,0,0,0,0,0,0,0,0,0,0,0,0,0,0,0,0,0,0,0,0],"sum_hessian":[4.5450943E2,3.8725348E2,6.7255936E1,1.2398383E2,2.6326965E2,1.2371115E1,5.4884823E1,2.8297487E1,9.568635E1,1.9850702E2,6.476263E1,4.3746517E1,1.1138308E1,1.812046E1,1.0177027E1,2.9325312E1,6.636104E1,1.6226085E2,3.6246174E1,4.7659954E1,1.7102674E1,1.008228E1,3.3664238E1],"tree_param":{"num_deleted":"0","num_feature":"220","num_nodes":"23","size_leaf_vector":"1"}},{"base_weights":[1.9923382E-2,3.50047E-1,-3.4847975E-2,5.632252E-1,-6.369063E-3,-1.3514866E-1,2.3528744E-1,7.810222E-1,-6.3335374E-3,-1.8739146E-1,4.3860272E-1,5.75418E-1,-5.834141E-3,1.2478011E-2,5.5020418E-2,1.379885E-2,-1.2849959E-2,-1.5940825E-3,3.9603483E-2,3.9908696E-2,5.996578E-3,-1.6064048E-2,1.4328758E-2],"categories":[],"categories_nodes":[],"categories_segments":[],"categories_sizes":[],"default_left":[0,0,0,0,0,0,0,0,0,0,0,0,0,0,0,0,0,0,0,0,0,0,0],"id":23,"left_children":[1,3,5,7,-1,9,11,13,-1,15,17,19,21,-1,-1,-1,-1,-1,-1,-1,-1,-1,-1],"loss_changes":[8.647588E0,7.50655E0,1.1030352E1,8.141967E0,0E0,9.231739E0,9.291377E0,4.4490223E0,0E0,9.307276E0,4.764798E0,3.7683353E0,6.7714577E0,0E0,0E0,0E0,0E0,0E0,0E0,0E0,0E0,0E0,0E0],"parents":[2147483647,0,0,1,1,2,2,3,3,5,5,6,6,7,7,9,9,10,10,11,11,12,12],"right_children":[2,4,6,8,-1,10,12,14,-1,16,18,20,22,-1,-1,-1,-1,-1,-1,-1,-1,-1,-1],"split_conditions":[7.5256853E0,1.8760563E-1,2.78E1,5.6406417E0,-6.369063E-3,4.7053832E-1,2.3559408E-1,3.8099965E-1,-6.3335374E-3,-3.6903873E-2,2.673611E-1,2.9832935E-1,2.734255E-1,1.2478011E-2,5.5020418E-2,1.379885E-2,-1.2849959E-2,-1.5940825E-3,3.9603483E-2,3.9908696E-2,5.996578E-3,-1.6064048E-2,1.4328758E-2],"split_indices":[91,143,84,6,0,33,27,33,0,125,50,94,114,0,0,0,0,0,0,0,0,0,0],"split_type":[0,0,0,0,0,0,0,0,0,0,0,0,0,0,0,0,0,0,0,0,0,0,0],"sum_hessian":[4.6117148E2,6.3088924E1,3.9808255E2,4.37173E1,1.9371622E1,2.9346796E2,1.0461458E2,3.3276405E1,1.0440897E1,2.7286108E2,2.0606884E1,4.1381958E1,6.323262E1,1.6422146E1,1.6854258E1,3.276205E1,2.4009904E2,1.0184798E1,1.0422086E1,2.4527344E1,1.6854616E1,3.100314E1,3.222948E1],"tree_param":{"num_deleted":"0","num_feature":"220","num_nodes":"23","size_leaf_vector":"1"}},{"base_weights":[2.9447768E-2,5.602654E-2,-3.256389E-2,1.6056286E-1,-1.2152956E-1,3.5046446E-1,3.0767174E-2,1.4028813E-2,-4.664434E-1,2.835835E-3,3.5555992E-2,1.0346469E-2,-2.0946734E-2,-2.4427243E-2,7.882393E-3,-3.612617E-2,-0E0],"categories":[],"categories_nodes":[],"categories_segments":[],"categories_sizes":[],"default_left":[0,0,0,0,0,0,0,0,0,0,0,0,0,0,0,0,0],"id":24,"left_children":[1,3,-1,5,7,9,11,13,15,-1,-1,-1,-1,-1,-1,-1,-1],"loss_changes":[8.229163E0,8.454264E0,0E0,6.8209176E0,8.091796E0,1.1527068E1,1.4374511E1,9.175255E0,5.6323137E0,0E0,0E0,0E0,0E0,0E0,0E0,0E0,0E0],"parents":[2147483647,0,0,1,1,3,3,4,4,5,5,6,6,7,7,8,8],"right_children":[2,4,-1,6,8,10,12,14,16,-1,-1,-1,-1,-1,-1,-1,-1],"split_conditions":[1.8666E2,1.7521367E0,-3.256389E-2,2.1286912E-1,8.971391E0,4.205049E1,4.2620444E-1,9.38E-1,2.99E1,2.835835E-3,3.5555992E-2,1.0346469E-2,-2.0946734E-2,-2.4427243E-2,7.882393E-3,-3.612617E-2,-0E0],"split_indices":[191,154,0,138,39,54,59,38,81,0,0,0,0,0,0,0,0],"split_type":[0,0,0,0,0,0,0,0,0,0,0,0,0,0,0,0,0],"sum_hessian":[4.5619568E2,4.4417593E2,1.2019756E1,2.8164923E2,1.6252669E2,1.0933314E2,1.7231609E2,1.190748E2,4.3451897E1,6.420881E1,4.5124332E1,1.26552605E2,4.576348E1,2.3022202E1,9.60526E1,2.5982233E1,1.7469664E1],"tree_param":{"num_deleted":"0","num_feature":"220","num_nodes":"17","size_leaf_vector":"1"}},{"base_weights":[-1.6643284E-2,-4.9000376E-1,1.91219E-2,1.4082836E-3,-4.0896E-2,-2.4633192E-1,9.159696E-2,-6.9432124E-2,-6.7440915E-1,4.6545595E-1,3.548157E-2,-1.4379921E-2,1.7228773E-2,-1.0029069E-2,-4.4101667E-2,-2.6250132E-3,3.2722063E-2,-4.0840893E-3,1.3089989E-2],"categories":[],"categories_nodes":[],"categories_segments":[],"categories_sizes":[],"default_left":[0,0,0,0,0,0,0,0,0,0,0,0,0,0,0,0,0,0,0],"id":25,"left_children":[1,3,5,-1,-1,7,9,11,13,15,17,-1,-1,-1,-1,-1,-1,-1,-1],"loss_changes":[8.166437E0,6.2675304E0,8.439171E0,0E0,0E0,6.4787917E0,6.973053E0,7.024532E0,1.1276684E0,4.767481E0,8.400535E0,0E0,0E0,0E0,0E0,0E0,0E0,0E0,0E0],"parents":[2147483647,0,0,1,1,2,2,5,5,6,6,7,7,8,8,9,9,10,10],"right_children":[2,4,6,-1,-1,8,10,12,14,16,18,-1,-1,-1,-1,-1,-1,-1,-1],"split_conditions":[2.17E1,6.415666E0,-9E-1,1.4082836E-3,-4.0896E-2,2.2948344E-1,4.33E0,9.713663E-2,2.3636363E-1,-2.9501686E0,3.07E1,-1.4379921E-2,1.7228773E-2,-1.0029069E-2,-4.4101667E-2,-2.6250132E-3,3.2722063E-2,-4.0840893E-3,1.3089989E-2],"split_indices":[65,3,74,0,0,138,17,29,116,208,81,0,0,0,0,0,0,0,0],"split_type":[0,0,0,0,0,0,0,0,0,0,0,0,0,0,0,0,0,0,0],"sum_hessian":[4.6069574E2,2.8884174E1,4.3181155E2,1.2375037E1,1.6509138E1,8.855794E1,3.4325363E2,6.760122E1,2.0956718E1,3.887466E1,3.0437897E2,4.606242E1,2.1538795E1,1.0113917E1,1.0842801E1,1.0650335E1,2.8224325E1,2.0120348E2,1.0317548E2],"tree_param":{"num_deleted":"0","num_feature":"220","num_nodes":"19","size_leaf_vector":"1"}},{"base_weights":[5.4154642E-2,-1.3251504E-2,3.1758085E-1,-6.4008765E-2,4.4331244E-1,6.399899E-1,4.1993704E-2,2.8010282E-1,-1.17500864E-1,-2.6445014E-3,6.853144E-1,9.608356E-3,4.5299973E-2,-1.4773992E-1,3.1657457E-2,2.803872E-2,-1.2831429E-2,-2.2197193E-2,-1.021277E-3,4.329529E-2,1.2217088E-2,-2.1109236E-2,2.4662979E-2],"categories":[],"categories_nodes":[],"categories_segments":[],"categories_sizes":[],"default_left":[0,0,0,0,0,0,0,0,0,0,0,0,0,0,0,0,0,0,0,0,0,0,0],"id":26,"left_children":[1,3,5,7,9,11,13,15,17,-1,19,-1,-1,21,-1,-1,-1,-1,-1,-1,-1,-1,-1],"loss_changes":[8.293833E0,8.467254E0,7.9559183E0,6.2686925E0,4.869326E0,3.6484146E0,7.1426744E0,7.715228E0,9.090029E0,0E0,4.1832256E-1,0E0,0E0,9.243589E0,0E0,0E0,0E0,0E0,0E0,0E0,0E0,0E0,0E0],"parents":[2147483647,0,0,1,1,2,2,3,3,4,4,5,5,6,6,7,7,8,8,10,10,13,13],"right_children":[2,4,6,8,10,12,14,16,18,-1,20,-1,-1,22,-1,-1,-1,-1,-1,-1,-1,-1,-1],"split_conditions":[2.71E1,5.5396825E-1,4.0845254E-1,5.913351E0,2.6407387E1,2.2539683E-2,2.1301532E-2,2.8592592E-1,9.227995E1,-2.6445014E-3,3.3898305E-2,9.608356E-3,4.5299973E-2,3.9E0,3.1657457E-2,2.803872E-2,-1.2831429E-2,-2.2197193E-2,-1.021277E-3,4.329529E-2,1.2217088E-2,-2.1109236E-2,2.4662979E-2],"split_indices":[62,52,35,198,57,130,125,114,87,0,98,0,0,136,0,0,0,0,0,0,0,0,0],"split_type":[0,0,0,0,0,0,0,0,0,0,0,0,0,0,0,0,0,0,0,0,0,0,0],"sum_hessian":[4.523314E2,3.6243982E2,8.989157E1,3.3103235E2,3.1407475E1,3.754363E1,5.2347942E1,4.04286E1,2.9060373E2,1.0899732E1,2.0507742E1,1.7900347E1,1.9643284E1,4.182777E1,1.0520171E1,2.7011261E1,1.3417339E1,6.133409E1,2.2926965E2,1.0326673E1,1.0181069E1,3.1029364E1,1.0798407E1],"tree_param":{"num_deleted":"0","num_feature":"220","num_nodes":"23","size_leaf_vector":"1"}},{"base_weights":[-1.4367066E-2,-2.3407936E-1,5.7273775E-2,-4.9887735E-1,9.809631E-3,2.0041586E-1,-7.171389E-2,-6.5084827E-1,2.9915993E-4,-1.742208E-1,1.9545084E-2,-2.6020294E-1,2.9079735E-1,-3.3811325E-1,5.2537795E-2,-2.5027308E-3,-4.1481324E-2,1.288631E-2,-2.0023009E-2,-2.7855042E-2,5.258163E-3,1.9338615E-2,-9.287031E-3,-2.8937122E-2,2.8369145E-3,1.355351E-2,-1.2066404E-2],"categories":[],"categories_nodes":[],"categories_segments":[],"categories_sizes":[],"default_left":[0,0,0,0,0,0,0,0,0,0,0,0,0,0,0,0,0,0,0,0,0,0,0,0,0,0,0],"id":27,"left_children":[1,3,5,7,9,11,13,15,-1,17,-1,19,21,23,25,-1,-1,-1,-1,-1,-1,-1,-1,-1,-1,-1,-1],"loss_changes":[7.562172E0,7.9157004E0,6.7305183E0,4.780243E0,5.046478E0,7.5726657E0,6.5111E0,4.2149754E0,0E0,5.159091E0,0E0,3.7750878E0,7.2023163E0,6.3437214E0,8.845709E0,0E0,0E0,0E0,0E0,0E0,0E0,0E0,0E0,0E0,0E0,0E0,0E0],"parents":[2147483647,0,0,1,1,2,2,3,3,4,4,5,5,6,6,7,7,9,9,11,11,12,12,13,13,14,14],"right_children":[2,4,6,8,10,12,14,16,-1,18,-1,20,22,24,26,-1,-1,-1,-1,-1,-1,-1,-1,-1,-1,-1,-1],"split_conditions":[1E-1,7E0,7.9365077E0,1.5E0,5.2219797E-3,-1.0086551E0,2.41E1,-5.9958496E-3,2.9915993E-4,4.1666666E-1,1.9545084E-2,2.94E1,4.9404117E-1,9.1E0,6.5E0,-2.5027308E-3,-4.1481324E-2,1.288631E-2,-2.0023009E-2,-2.7855042E-2,5.258163E-3,1.9338615E-2,-9.287031E-3,-2.8937122E-2,2.8369145E-3,1.355351E-2,-1.2066404E-2],"split_indices":[67,15,205,31,212,135,84,213,0,104,0,81,86,42,119,0,0,0,0,0,0,0,0,0,0,0,0],"split_type":[0,0,0,0,0,0,0,0,0,0,0,0,0,0,0,0,0,0,0,0,0,0,0,0,0,0,0],"sum_hessian":[4.6555652E2,1.134042E2,3.5215234E2,5.284801E1,6.0556187E1,1.674428E2,1.8470953E2,4.0270508E1,1.2577501E1,4.1781807E1,1.8774382E1,2.501745E1,1.4242535E2,5.7291958E1,1.2741758E2,1.1344243E1,2.8926264E1,1.3362866E1,2.841894E1,1.3109359E1,1.1908091E1,1.2020674E2,2.2218603E1,3.49379E1,2.2354055E1,7.427358E1,5.3143997E1],"tree_param":{"num_deleted":"0","num_feature":"220","num_nodes":"27","size_leaf_vector":"1"}},{"base_weights":[-1.2584986E-2,1.2886418E-1,-1.8877469E-1,-1.6204612E-1,2.8068885E-1,-2.9831448E-1,1.7960772E-1,-4.9775216E-1,8.945719E-2,4.109533E-1,-3.0281216E-1,1.2906521E-2,-4.7533745E-1,-1.4249444E-2,4.4589087E-1,-4.229841E-2,-1.739312E-3,-8.412381E-3,2.1455174E-2,2.6607577E-2,-5.5123973E-3,-3.29078E-2,2.6894927E-3,-1.6183062E-2,1.7998362E-2,7.9732697E-4,-3.0713124E-2,-1.5560641E-4,3.6191273E-2],"categories":[],"categories_nodes":[],"categories_segments":[],"categories_sizes":[],"default_left":[0,0,0,0,0,0,0,0,0,0,0,0,0,0,0,0,0,0,0,0,0,0,0,0,0,0,0,0,0],"id":28,"left_children":[1,3,5,7,9,11,13,15,17,19,21,23,25,-1,27,-1,-1,-1,-1,-1,-1,-1,-1,-1,-1,-1,-1,-1,-1],"loss_changes":[1.1579066E1,1.1582035E1,8.712243E0,8.003603E0,1.3673807E1,9.247185E0,6.864546E0,5.8688517E0,5.278398E0,9.512953E0,4.709757E0,7.956914E0,7.522482E0,0E0,4.642935E0,0E0,0E0,0E0,0E0,0E0,0E0,0E0,0E0,0E0,0E0,0E0,0E0,0E0,0E0],"parents":[2147483647,0,0,1,1,2,2,3,3,4,4,5,5,6,6,7,7,8,8,9,9,10,10,11,11,12,12,14,14],"right_children":[2,4,6,8,10,12,14,16,18,20,22,24,26,-1,28,-1,-1,-1,-1,-1,-1,-1,-1,-1,-1,-1,-1,-1,-1],"split_conditions":[3.2019705E-2,9.62E-1,1.300771E-1,1.923077E-2,1.11635596E-1,9.155172E-2,3.440878E0,2.734255E-1,1.2914912E1,2.989821E2,5.1E0,4.4846306E0,-3.5561225E-1,-1.4249444E-2,-9.771456E-4,-4.229841E-2,-1.739312E-3,-8.412381E-3,2.1455174E-2,2.6607577E-2,-5.5123973E-3,-3.29078E-2,2.6894927E-3,-1.6183062E-2,1.7998362E-2,7.9732697E-4,-3.0713124E-2,-1.5560641E-4,3.6191273E-2],"split_indices":[98,38,34,100,7,34,21,114,185,149,22,11,201,0,209,0,0,0,0,0,0,0,0,0,0,0,0,0,0],"split_type":[0,0,0,0,0,0,0,0,0,0,0,0,0,0,0,0,0,0,0,0,0,0,0,0,0,0,0,0,0],"sum_hessian":[4.5353186E2,2.5073843E2,2.0279344E2,8.473957E1,1.6599886E2,1.5809242E2,4.4701027E1,3.5048893E1,4.9690678E1,1.3761276E2,2.8386093E1,5.7976284E1,1.00116135E2,1.5473956E1,2.922707E1,1.7026306E1,1.8022587E1,2.885112E1,2.0839558E1,1.1234317E2,2.5269594E1,1.2802613E1,1.5583479E1,2.887283E1,2.9103455E1,2.2252192E1,7.7863945E1,1.23770275E1,1.6850042E1],"tree_param":{"num_deleted":"0","num_feature":"220","num_nodes":"29","size_leaf_vector":"1"}},{"base_weights":[4.2904535E-4,4.3373677E-1,-4.1226003E-2,-5.4103476E-3,6.381483E-1,-1.017767E-1,2.3280546E-1,7.6088295E-3,4.470348E-2,-5.589214E-1,-4.929014E-2,3.7156902E-2,6.843971E-2,-4.2642523E-2,3.1505066E-3,7.4113244E-3,-8.379812E-3,-2.5088316E-2,1.178949E-2],"categories":[],"categories_nodes":[],"categories_segments":[],"categories_sizes":[],"default_left":[0,0,0,0,0,0,0,0,0,0,0,0,0,0,0,0,0,0,0],"id":29,"left_children":[1,3,5,-1,7,9,11,-1,-1,13,15,-1,17,-1,-1,-1,-1,-1,-1],"loss_changes":[8.659223E0,5.2821994E0,7.133927E0,0E0,2.778677E0,8.063822E0,5.8203354E0,0E0,0E0,7.06983E0,7.715416E0,0E0,6.6310267E0,0E0,0E0,0E0,0E0,0E0,0E0],"parents":[2147483647,0,0,1,1,2,2,4,4,5,5,6,6,9,9,10,10,12,12],"right_children":[2,4,6,-1,8,10,12,-1,-1,14,16,-1,18,-1,-1,-1,-1,-1,-1],"split_conditions":[3.48541E1,1.905199E2,1.8378788E-1,-5.4103476E-3,2.6768643E-1,2.6410642E0,6E1,7.6088295E-3,4.470348E-2,8E0,-6.004867E-3,3.7156902E-2,-2.6701007E-2,-4.2642523E-2,3.1505066E-3,7.4113244E-3,-8.379812E-3,-2.5088316E-2,1.178949E-2],"split_indices":[54,148,51,0,114,40,41,0,0,15,211,0,211,0,0,0,0,0,0],"split_type":[0,0,0,0,0,0,0,0,0,0,0,0,0,0,0,0,0,0,0],"sum_hessian":[4.5892325E2,3.717357E1,4.2174966E2,1.0155658E1,2.701791E1,3.494925E2,7.225717E1,1.2744355E1,1.4273555E1,3.004424E1,3.1944827E2,1.2572647E1,5.968453E1,1.9687347E1,1.0356894E1,1.1760736E2,2.018409E2,1.0597335E1,4.9087193E1],"tree_param":{"num_deleted":"0","num_feature":"220","num_nodes":"19","size_leaf_vector":"1"}},{"base_weights":[5.334905E-3,1.8033521E-1,-8.259261E-2,5.061478E-1,-0E0,-2.959104E-1,4.6223532E-2,-2.055994E-3,6.649734E-1,-2.3870572E-1,2.1812558E-1,-4.0839854E-1,1.6939046E-2,2.636544E-1,-8.71213E-2,8.455049E-4,4.1946795E-2,-2.4761638E-2,7.1316212E-3,2.132189E-2,-7.5944513E-3,1.7062014E-2,-2.561566E-2,2.1001872E-2,-1.0910511E-2,1.816597E-2,-1.0985588E-2],"categories":[],"categories_nodes":[],"categories_segments":[],"categories_sizes":[],"default_left":[0,0,0,0,0,0,0,0,0,0,0,0,0,0,0,0,0,0,0,0,0,0,0,0,0,0,0],"id":30,"left_children":[1,3,5,7,9,11,13,-1,15,17,19,21,-1,23,25,-1,-1,-1,-1,-1,-1,-1,-1,-1,-1,-1,-1],"loss_changes":[7.2898555E0,9.45133E0,8.753337E0,5.4121943E0,5.8417063E0,9.253011E0,5.9174433E0,0E0,4.6036053E0,5.8070126E0,4.9447637E0,9.090857E0,0E0,6.4060316E0,7.763056E0,0E0,0E0,0E0,0E0,0E0,0E0,0E0,0E0,0E0,0E0,0E0,0E0],"parents":[2147483647,0,0,1,1,2,2,3,3,4,4,5,5,6,6,8,8,9,9,10,10,11,11,13,13,14,14],"right_children":[2,4,6,8,10,12,14,-1,16,18,20,22,-1,24,26,-1,-1,-1,-1,-1,-1,-1,-1,-1,-1,-1,-1],"split_conditions":[-1.0135674E0,9.9771106E-1,-9.377801E-3,2.736111E-1,-1E-1,1.82E1,-7.327541E-4,-2.055994E-3,2.173913E-2,1.32116005E-2,5.7134504E0,-1.246258E0,1.6939046E-2,4.6402824E-1,-1.2851782E-2,8.455049E-4,4.1946795E-2,-2.4761638E-2,7.1316212E-3,2.132189E-2,-7.5944513E-3,1.7062014E-2,-2.561566E-2,2.1001872E-2,-1.0910511E-2,1.816597E-2,-1.0985588E-2],"split_indices":[154,8,209,109,74,77,210,0,98,168,26,201,0,126,199,0,0,0,0,0,0,0,0,0,0,0,0],"split_type":[0,0,0,0,0,0,0,0,0,0,0,0,0,0,0,0,0,0,0,0,0,0,0,0,0,0,0],"sum_hessian":[4.607408E2,1.542239E2,3.065169E2,5.210475E1,1.02119156E2,1.1442552E2,1.920914E2,1.1845595E1,4.0259155E1,4.894951E1,5.3169643E1,9.938222E1,1.5043309E1,7.25901E1,1.1950129E2,1.0289151E1,2.9970005E1,2.9154818E1,1.9794691E1,3.4394787E1,1.8774857E1,1.01231365E1,8.925908E1,5.6071877E1,1.6518232E1,2.4340185E1,9.51611E1],"tree_param":{"num_deleted":"0","num_feature":"220","num_nodes":"27","size_leaf_vector":"1"}},{"base_weights":[3.1988684E-2,-5.31947E-2,2.3296618E-1,-9.636788E-2,2.7515119E-2,6.566744E-1,6.1189838E-2,-1.576729E-1,3.0754423E-1,4.261915E-2,1.5458066E-3,-1.8101092E-1,3.5806674E-1,-1.1530261E-2,1.1995894E-2,3.1767227E-2,-8.243944E-3,6.4821313E-3,-2.2749556E-2,3.537151E-2,-7.709324E-3],"categories":[],"categories_nodes":[],"categories_segments":[],"categories_sizes":[],"default_left":[0,0,0,0,0,0,0,0,0,0,0,0,0,0,0,0,0,0,0,0,0],"id":31,"left_children":[1,3,5,7,-1,9,11,13,15,-1,-1,17,19,-1,-1,-1,-1,-1,-1,-1,-1],"loss_changes":[8.145867E0,8.643272E0,9.751652E0,7.9240737E0,0E0,4.2657967E0,8.11779E0,8.285284E0,7.2474356E0,0E0,0E0,5.684204E0,9.904695E0,0E0,0E0,0E0,0E0,0E0,0E0,0E0,0E0],"parents":[2147483647,0,0,1,1,2,2,3,3,5,5,6,6,7,7,8,8,11,11,12,12],"right_children":[2,4,6,8,-1,10,12,14,16,-1,-1,18,20,-1,-1,-1,-1,-1,-1,-1,-1],"split_conditions":[8.3928E0,4.6698913E-2,-3.1135704E-3,8.0238897E-1,2.7515119E-2,6.5945946E1,-3.4899496E-2,7E0,3.4188235E0,4.261915E-2,1.5458066E-3,1.018E0,8.641081E0,-1.1530261E-2,1.1995894E-2,3.1767227E-2,-8.243944E-3,6.4821313E-3,-2.2749556E-2,3.537151E-2,-7.709324E-3],"split_indices":[139,125,129,88,0,107,44,19,40,0,0,37,3,0,0,0,0,0,0,0,0],"split_type":[0,0,0,0,0,0,0,0,0,0,0,0,0,0,0,0,0,0,0,0,0],"sum_hessian":[4.6194186E2,3.252675E2,1.3667436E2,3.0824615E2,1.7021326E1,3.4514637E1,1.0215973E2,2.713476E2,3.689856E1,2.4303713E1,1.0210924E1,5.6407814E1,4.5751915E1,2.3212514E2,3.9222466E1,2.1390434E1,1.5508126E1,2.6813904E1,2.959391E1,2.664837E1,1.9103542E1],"tree_param":{"num_deleted":"0","num_feature":"220","num_nodes":"21","size_leaf_vector":"1"}},{"base_weights":[-2.6039295E-2,-1.7011544E-1,1.226744E-1,-6.0360476E-2,-6.153685E-1,-3.8347474E-1,1.9316366E-1,-1.23045325E-1,3.3098355E-2,-1.0336017E-3,-7.7836716E-1,-3.1523235E-2,-0E0,3.285731E-1,-4.338643E-2,-1.0407339E-2,1.811762E-2,-1.0698709E-2,-5.02959E-2,-6.3046017E-3,2.1578742E-2,-2.2131003E-2,6.4595747E-3],"categories":[],"categories_nodes":[],"categories_segments":[],"categories_sizes":[],"default_left":[0,0,0,0,0,0,0,0,0,0,0,0,0,0,0,0,0,0,0,0,0,0,0],"id":32,"left_children":[1,3,5,7,9,11,13,15,-1,-1,17,-1,-1,19,21,-1,-1,-1,-1,-1,-1,-1,-1],"loss_changes":[1.000934E1,1.1109357E1,8.414621E0,9.076556E0,3.943121E0,2.974936E0,6.7622914E0,8.004141E0,0E0,0E0,2.8110523E0,0E0,0E0,6.6038456E0,5.7821116E0,0E0,0E0,0E0,0E0,0E0,0E0,0E0,0E0],"parents":[2147483647,0,0,1,1,2,2,3,3,4,4,5,5,6,6,7,7,10,10,13,13,14,14],"right_children":[2,4,6,8,10,12,14,16,-1,-1,18,-1,-1,20,22,-1,-1,-1,-1,-1,-1,-1,-1],"split_conditions":[2.0915776E2,2.706767E-1,-8.020696E-1,4.7718722E-2,2.2222222E-1,1.5055555E-1,5.8020246E-1,1.48E1,3.3098355E-2,-1.0336017E-3,-1.3454448E-1,-3.1523235E-2,-0E0,-5E-1,4.31E1,-1.0407339E-2,1.811762E-2,-1.0698709E-2,-5.02959E-2,-6.3046017E-3,2.1578742E-2,-2.2131003E-2,6.4595747E-3],"split_indices":[148,94,88,125,50,51,151,76,0,0,88,0,0,67,79,0,0,0,0,0,0,0,0],"split_type":[0,0,0,0,0,0,0,0,0,0,0,0,0,0,0,0,0,0,0,0,0,0,0],"sum_hessian":[4.5617944E2,2.3304471E2,2.2313475E2,1.9241512E2,4.062959E1,2.3695398E1,1.9943935E2,1.8150433E2,1.0910785E1,1.0612346E1,3.0017242E1,1.3100467E1,1.0594933E1,1.26941986E2,7.249736E1,1.5773563E2,2.376871E1,1.20438795E1,1.7973362E1,2.2342718E1,1.04599266E2,2.039349E1,5.2103874E1],"tree_param":{"num_deleted":"0","num_feature":"220","num_nodes":"23","size_leaf_vector":"1"}},{"base_weights":[1.2682125E-3,-1.2363037E-1,1.6374224E-1,6.414585E-2,-3.3297476E-1,2.1715872E-1,-2.1690922E-2,-4.6994686E-2,4.160662E-1,-4.069141E-1,1.5968204E-2,-1.696755E-1,3.0117115E-1,9.650586E-3,-2.1351928E-2,3.770994E-2,-3.0881807E-3,-3.7121512E-2,-1.0192041E-2,-2.7948579E-2,5.613265E-3,2.1512369E-3,2.5056964E-2],"categories":[],"categories_nodes":[],"categories_segments":[],"categories_sizes":[],"default_left":[0,0,0,0,0,0,0,0,0,0,0,0,0,0,0,0,0,0,0,0,0,0,0],"id":33,"left_children":[1,3,5,7,9,11,-1,13,15,17,-1,19,21,-1,-1,-1,-1,-1,-1,-1,-1,-1,-1],"loss_changes":[9.544923E0,1.06057205E1,6.929294E0,5.8333206E0,6.8065405E0,6.5916624E0,0E0,1.0678692E1,6.339219E0,6.7229576E0,0E0,4.5501785E0,7.950695E0,0E0,0E0,0E0,0E0,0E0,0E0,0E0,0E0,0E0,0E0],"parents":[2147483647,0,0,1,1,2,2,3,3,4,4,5,5,7,7,8,8,9,9,11,11,12,12],"right_children":[2,4,6,8,10,12,-1,14,16,18,-1,20,22,-1,-1,-1,-1,-1,-1,-1,-1,-1,-1],"split_conditions":[2.97E1,2.5316456E-1,2.3E1,8.746959E0,6.165E0,1E-1,-2.1690922E-2,6.0689377E1,2.69E1,7.823376E-2,1.5968204E-2,6.94E1,6.768775E-2,9.650586E-3,-2.1351928E-2,3.770994E-2,-3.0881807E-3,-3.7121512E-2,-1.0192041E-2,-2.7948579E-2,5.613265E-3,2.1512369E-3,2.5056964E-2],"split_indices":[81,93,110,23,1,67,0,150,81,29,0,41,7,0,0,0,0,0,0,0,0,0,0],"split_type":[0,0,0,0,0,0,0,0,0,0,0,0,0,0,0,0,0,0,0,0,0,0,0],"sum_hessian":[4.5938446E2,2.5866162E2,2.0072284E2,1.3692403E2,1.2173759E2,1.8794221E2,1.2780628E1,1.0627324E2,3.065079E1,1.11722046E2,1.001554E1,3.1562654E1,1.5637956E2,6.5839264E1,4.0433975E1,1.6868443E1,1.3782346E1,3.6188927E1,7.553312E1,1.1938627E1,1.9624027E1,7.2003586E1,8.437598E1],"tree_param":{"num_deleted":"0","num_feature":"220","num_nodes":"23","size_leaf_vector":"1"}},{"base_weights":[1.2064504E-3,-1.06674716E-1,2.5188386E-1,-2.0193642E-1,1.8977313E-1,4.5527515E-1,-4.368091E-2,3.0427495E-1,-2.7068368E-1,3.5426623E-1,-1.54464785E-2,-1.2981097E-2,6.008403E-1,2.2998632E-1,-4.0821183E-1,-4.689142E-3,3.1132994E-2,1.0210691E-2,-1.719974E-2,-5.605336E-3,2.8676746E-2,4.1438736E-2,1.3267449E-2,2.3346372E-2,-6.259192E-3,7.151655E-4,-3.5104908E-2],"categories":[],"categories_nodes":[],"categories_segments":[],"categories_sizes":[],"default_left":[0,0,0,0,0,0,0,0,0,0,0,0,0,0,0,0,0,0,0,0,0,0,0,0,0,0,0],"id":34,"left_children":[1,3,5,7,9,11,13,15,17,19,-1,-1,21,23,25,-1,-1,-1,-1,-1,-1,-1,-1,-1,-1,-1,-1],"loss_changes":[1.2633588E1,9.329742E0,8.789676E0,9.04047E0,7.1278944E0,9.800604E0,6.653081E0,4.509121E0,8.158459E0,7.014887E0,0E0,0E0,3.916319E0,3.6029084E0,3.968049E0,0E0,0E0,0E0,0E0,0E0,0E0,0E0,0E0,0E0,0E0,0E0,0E0],"parents":[2147483647,0,0,1,1,2,2,3,3,4,4,5,5,6,6,7,7,8,8,9,9,12,12,13,13,14,14],"right_children":[2,4,6,8,10,12,14,16,18,20,-1,-1,22,24,26,-1,-1,-1,-1,-1,-1,-1,-1,-1,-1,-1,-1],"split_conditions":[8.3928E0,3.15E1,2.7228916E-1,8.06E1,4.265403E0,1.8164212E0,3.46E-1,6.5372035E-2,5.913351E0,-3.12E-1,-1.54464785E-2,-1.2981097E-2,4.443506E-1,2.9787233E-1,3.9246482E-1,-4.689142E-3,3.1132994E-2,1.0210691E-2,-1.719974E-2,-5.605336E-3,2.8676746E-2,4.1438736E-2,1.3267449E-2,2.3346372E-2,-6.259192E-3,7.151655E-4,-3.5104908E-2],"split_indices":[139,69,94,82,105,147,73,7,198,135,0,0,151,95,59,0,0,0,0,0,0,0,0,0,0,0,0],"split_type":[0,0,0,0,0,0,0,0,0,0,0,0,0,0,0,0,0,0,0,0,0,0,0,0,0,0,0],"sum_hessian":[4.545076E2,3.183714E2,1.3613617E2,2.4342801E2,7.4943405E1,8.0044136E1,5.6092037E1,2.6188616E1,2.172394E2,5.8197987E1,1.6745419E1,1.2297286E1,6.774685E1,3.2309723E1,2.3782316E1,1.2507729E1,1.3680887E1,2.6945124E1,1.9029427E2,1.8663984E1,3.9534004E1,3.507483E1,3.2672024E1,1.9281279E1,1.3028443E1,1.1009486E1,1.2772829E1],"tree_param":{"num_deleted":"0","num_feature":"220","num_nodes":"27","size_leaf_vector":"1"}},{"base_weights":[2.9811006E-2,1.486199E-1,-1.3036135E-1,-3.6647043E-1,2.1114275E-1,-2.800296E-1,1.068221E-1,7.445413E-3,-3.740202E-2,-5.2657407E-2,3.5909924E-1,-2.0850018E-2,-5.362434E-1,-2.5969145E-1,3.984845E-1,-1.3347763E-2,1.7965822E-2,2.897552E-3,2.501801E-2,8.722221E-3,-2.7786184E-2,-3.4444742E-2,6.22032E-3,1.9623598E-3,-2.8710559E-2,3.0478233E-2,-5.7991636E-3],"categories":[],"categories_nodes":[],"categories_segments":[],"categories_sizes":[],"default_left":[0,0,0,0,0,0,0,0,0,0,0,0,0,0,0,0,0,0,0,0,0,0,0,0,0,0,0],"id":35,"left_children":[1,3,5,7,9,11,13,-1,-1,15,17,19,21,23,25,-1,-1,-1,-1,-1,-1,-1,-1,-1,-1,-1,-1],"loss_changes":[9.040701E0,9.123353E0,7.3650303E0,6.871564E0,9.931418E0,8.019214E0,9.140968E0,0E0,0E0,8.581849E0,6.4165897E0,7.8525977E0,6.972336E0,3.927433E0,5.73607E0,0E0,0E0,0E0,0E0,0E0,0E0,0E0,0E0,0E0,0E0,0E0,0E0],"parents":[2147483647,0,0,1,1,2,2,3,3,4,4,5,5,6,6,9,9,10,10,11,11,12,12,13,13,14,14],"right_children":[2,4,6,8,10,12,14,-1,-1,16,18,20,22,24,26,-1,-1,-1,-1,-1,-1,-1,-1,-1,-1,-1,-1],"split_conditions":[3.292181E-2,-8.020696E-1,2.0967769E2,2.1209665E-1,1.8518519E-2,2.278481E-1,4.1474327E-1,7.445413E-3,-3.740202E-2,1.6092592E-1,4.6305418E-1,6E0,4.7146402E-2,2.2853887E-1,4.923948E-1,-1.3347763E-2,1.7965822E-2,2.897552E-3,2.501801E-2,8.722221E-3,-2.7786184E-2,-3.4444742E-2,6.22032E-3,1.9623598E-3,-2.8710559E-2,3.0478233E-2,-5.7991636E-3],"split_indices":[98,88,148,2,100,96,145,0,0,51,86,16,98,58,52,0,0,0,0,0,0,0,0,0,0,0,0],"split_type":[0,0,0,0,0,0,0,0,0,0,0,0,0,0,0,0,0,0,0,0,0,0,0,0,0,0,0],"sum_hessian":[4.645085E2,2.6868896E2,1.9581955E2,2.5587126E1,2.4310184E2,1.20798035E2,7.502151E1,1.1624509E1,1.3962617E1,8.729669E1,1.5580515E2,6.370948E1,5.708856E1,3.272804E1,4.229347E1,5.938165E1,2.7915041E1,5.31301E1,1.0267505E2,4.8452774E1,1.5256706E1,4.6814537E1,1.0274022E1,1.8208206E1,1.4519832E1,3.0023024E1,1.2270445E1],"tree_param":{"num_deleted":"0","num_feature":"220","num_nodes":"27","size_leaf_vector":"1"}},{"base_weights":[-4.272842E-3,4.8548228E-1,-3.5499744E-2,2.0441907E-3,3.5793714E-2,-4.0990915E-3,-2.9099343E-2,2.48118E-1,-6.19547E-2,2.0383108E-2,-2.4135906E-2,1.5051901E-2,-5.9205587E-3],"categories":[],"categories_nodes":[],"categories_segments":[],"categories_sizes":[],"default_left":[0,0,0,0,0,0,0,0,0,0,0,0,0],"id":36,"left_children":[1,3,5,-1,-1,7,-1,9,11,-1,-1,-1,-1],"loss_changes":[6.8554792E0,2.219749E0,7.1689825E0,0E0,0E0,6.080073E0,0E0,9.964132E0,7.166114E0,0E0,0E0,0E0,0E0],"parents":[2147483647,0,0,1,1,2,2,5,5,7,7,8,8],"right_children":[2,4,6,-1,-1,8,-1,10,12,-1,-1,-1,-1],"split_conditions":[7.83E1,1.6079039E-3,1.2626E2,2.0441907E-3,3.5793714E-2,-4.318182E0,-2.9099343E-2,8.301007E0,3.4893093E-1,2.0383108E-2,-2.4135906E-2,1.5051901E-2,-5.9205587E-3],"split_indices":[82,209,191,0,0,154,0,4,52,0,0,0,0],"split_type":[0,0,0,0,0,0,0,0,0,0,0,0,0],"sum_hessian":[4.5233685E2,2.179308E1,4.305438E2,1.0188781E1,1.1604299E1,4.1277835E2,1.7765432E1,7.2338615E1,3.4043973E2,6.175288E1,1.0585739E1,4.171451E1,2.9872522E2],"tree_param":{"num_deleted":"0","num_feature":"220","num_nodes":"13","size_leaf_vector":"1"}}]},"name":"gbtree"},"learner_model_param":{"base_score":"[4.9956748E-1]","boost_from_average":"1","num_class":"0","num_feature":"220","num_target":"1"},"objective":{"name":"binary:logistic","reg_loss_param":{"scale_pos_weight":"1"}}},"version":[3,1,3]}