{"learner":{"attributes":{"scikit_learn":"{\"_estimator_type\": \"regressor\"}"},"feature_names":[],"feature_types":[],"gradient_booster":{"model":{"cats":{"enc":[],"feature_segments":[],"sorted_idx":[]},"gbtree_model_param":{"num_parallel_tree":"1","num_trees":"17"},"iteration_indptr":[0,1,2,3,4,5,6,7,8,9,10,11,12,13,14,15,16,17],"tree_info":[0,0,0,0,0,0,0,0,0,0,0,0,0,0,0,0,0],"trees":[{"base_weights":[-1.2091562E-2,2.3100296E-1,-1.4527519E-1,-2.0951226E-2,4.7395244E-1,3.5566822E-1,-2.2312361E-1,-2.4164744E-1,2.3585001E-2,6.37356E-1,-2.0261598E-3,-1.3871905E-2,3.4048583E-2,-3.2854363E-1,1.5027073E-1,-2.0878565E-2,1.2853587E-2,3.9439786E-2,-0E0,-2.1593776E-2,5.73827E-3,2.7388072E-2,-7.7733407E-3],"categories":[],"categories_nodes":[],"categories_segments":[],"categories_sizes":[],"default_left":[0,0,0,0,0,0,0,0,0,0,0,0,0,0,0,0,0,0,0,0,0,0,0],"id":0,"left_children":[1,3,5,7,9,11,13,15,-1,17,-1,-1,-1,19,21,-1,-1,-1,-1,-1,-1,-1,-1],"loss_changes":[1.292003E1,8.875407E0,1.0458902E1,8.363804E0,6.542719E0,8.559857E0,9.339215E0,5.3761415E0,0E0,5.61499E0,0E0,0E0,0E0,8.696598E0,7.031801E0,0E0,0E0,0E0,0E0,0E0,0E0,0E0,0E0],"parents":[2147483647,0,0,1,1,2,2,3,3,4,4,5,5,6,6,7,7,9,9,13,13,14,14],"right_children":[2,4,6,8,10,12,14,16,-1,18,-1,-1,-1,20,22,-1,-1,-1,-1,-1,-1,-1,-1],"split_conditions":[8.23E1,1.4638703E-1,1.9845548E-1,4.1824137E-3,1.2470065E-1,-3E-1,2.4089553E0,4.64E1,2.3585001E-2,5.3999823E-1,-2.0261598E-3,-1.3871905E-2,3.4048583E-2,1.5E0,1.3355058E0,-2.0878565E-2,1.2853587E-2,3.9439786E-2,-0E0,-2.1593776E-2,5.73827E-3,2.7388072E-2,-7.7733407E-3],"split_indices":[79,31,118,95,33,64,112,68,0,49,0,0,0,30,12,0,0,0,0,0,0,0,0],"split_type":[0,0,0,0,0,0,0,0,0,0,0,0,0,0,0,0,0,0,0,0,0,0,0],"sum_hessian":[3.9020065E2,1.3548286E2,2.5471777E2,6.774143E1,6.774143E1,3.0996078E1,2.237217E2,4.924377E1,1.849766E1,5.124352E1,1.6497913E1,1.0248704E1,2.0747375E1,1.7597774E2,4.774396E1,3.7745224E1,1.1498546E1,4.0744846E1,1.0498672E1,1.4373181E2,3.2245922E1,1.9747501E1,2.7996458E1],"tree_param":{"num_deleted":"0","num_feature":"119","num_nodes":"23","size_leaf_vector":"1"}},{"base_weights":[-7.7667264E-3,-1.9742367E-1,2.1213306E-1,-2.6040345E-1,1.9316297E-2,-1.4515825E-1,4.5954674E-1,1.0603961E-1,-4.0445346E-1,1.7552409E-1,-3.6196074E-1,5.4848194E-1,-6.6371793E-3,2.9846286E-2,-8.271662E-3,-2.6620885E-2,2.2636936E-3,-5.3571775E-3,2.3812113E-2,-3.026143E-2,8.945901E-3,3.304833E-2,-5.3646765E-3],"categories":[],"categories_nodes":[],"categories_segments":[],"categories_sizes":[],"default_left":[0,0,0,0,0,0,0,0,0,0,0,0,0,0,0,0,0,0,0,0,0,0,0],"id":1,"left_children":[1,3,5,7,-1,9,11,13,15,17,19,21,-1,-1,-1,-1,-1,-1,-1,-1,-1,-1,-1],"loss_changes":[1.666146E1,8.370531E0,1.6751415E1,1.0839816E1,0E0,5.850109E0,6.403742E0,8.5698805E0,8.678783E0,3.329276E0,7.2335715E0,7.8579445E0,0E0,0E0,0E0,0E0,0E0,0E0,0E0,0E0,0E0,0E0,0E0],"parents":[2147483647,0,0,1,1,2,2,3,3,5,5,6,6,7,7,8,8,9,9,10,10,11,11],"right_children":[2,4,6,8,-1,10,12,14,16,18,20,22,-1,-1,-1,-1,-1,-1,-1,-1,-1,-1,-1],"split_conditions":[2.46E1,5.5396825E-1,4.201117E-1,3.661929E-1,1.9316297E-2,8.920709E0,7.508285E0,5.085E0,1.9341737E-2,7.8733134E0,1.45E1,1.12804644E-1,-6.6371793E-3,2.9846286E-2,-8.271662E-3,-2.6620885E-2,2.2636936E-3,-5.3571775E-3,2.3812113E-2,-3.026143E-2,8.945901E-3,3.304833E-2,-5.3646765E-3],"split_indices":[81,49,49,34,0,10,22,1,102,24,74,7,0,0,0,0,0,0,0,0,0,0,0],"split_type":[0,0,0,0,0,0,0,0,0,0,0,0,0,0,0,0,0,0,0,0,0,0,0],"sum_hessian":[3.896579E2,2.107109E2,1.7894699E2,1.9346443E2,1.724647E1,7.3234406E1,1.05712585E2,5.3984283E1,1.3948015E2,2.8993925E1,4.4240482E1,9.296713E1,1.2745452E1,1.7744926E1,3.623936E1,1.0873377E2,3.0746384E1,1.574751E1,1.3246415E1,3.0742958E1,1.3497522E1,7.99724E1,1.2994736E1],"tree_param":{"num_deleted":"0","num_feature":"119","num_nodes":"23","size_leaf_vector":"1"}},{"base_weights":[-5.7357933E-2,-1.625243E-1,2.7709618E-1,-2.4108963E-1,2.8993407E-1,4.30346E-1,-1.1347352E-2,-9.135683E-2,-5.5791575E-1,5.3066695E-1,-1.09114E-2,-8.051019E-3,5.838897E-1,-2.637953E-2,-3.0925093E-4,-3.2838896E-2,2.4685895E-3,-5.9391917E-3,4.5253158E-2,-0E0,3.7484705E-2],"categories":[],"categories_nodes":[],"categories_segments":[],"categories_sizes":[],"default_left":[0,0,0,0,0,0,0,0,0,0,0,0,0,0,0,0,0,0,0,0,0],"id":2,"left_children":[1,3,5,7,9,11,-1,13,15,17,-1,-1,19,-1,-1,-1,-1,-1,-1,-1,-1],"loss_changes":[1.3765647E1,1.09324875E1,7.7886157E0,1.1656225E1,6.298519E0,7.3963375E0,0E0,6.4863644E0,5.3123646E0,8.950573E0,0E0,0E0,6.064707E0,0E0,0E0,0E0,0E0,0E0,0E0,0E0,0E0],"parents":[2147483647,0,0,1,1,2,2,3,3,4,4,5,5,7,7,8,8,9,9,12,12],"right_children":[2,4,6,8,10,12,-1,14,16,18,-1,-1,20,-1,-1,-1,-1,-1,-1,-1,-1],"split_conditions":[2.37E1,2.4420744E2,2.3716173E0,5.5E0,3.0178118E-1,9.38E-1,-1.1347352E-2,2.43E1,3.43E1,3.2621496E0,-1.09114E-2,-8.051019E-3,1.1974154E-1,-2.637953E-2,-3.0925093E-4,-3.2838896E-2,2.4685895E-3,-5.9391917E-3,4.5253158E-2,-0E0,3.7484705E-2],"split_indices":[58,106,105,84,96,36,0,62,62,25,0,0,31,0,0,0,0,0,0,0,0],"split_type":[0,0,0,0,0,0,0,0,0,0,0,0,0,0,0,0,0,0,0,0,0],"sum_hessian":[3.815929E2,2.9340073E2,8.8192184E1,2.5292366E2,4.047706E1,6.895122E1,1.9240961E1,1.7719891E2,7.572474E1,2.7983072E1,1.2493986E1,1.3491079E1,5.546014E1,2.3744009E1,1.5345491E2,6.548079E1,1.0243952E1,1.0992678E1,1.6990396E1,1.2995277E1,4.2464863E1],"tree_param":{"num_deleted":"0","num_feature":"119","num_nodes":"21","size_leaf_vector":"1"}},{"base_weights":[-1.3009238E-3,-7.74746E-2,4.185755E-1,-1.8628989E-1,1.9841437E-1,-1.1383474E-2,6.4154625E-1,-3.6115414E-1,-1.1834982E-2,-0E0,6.7182857E-1,5.1790297E-2,2.4522635E-1,7.908087E-3,-2.341905E-2,-1.5107076E-2,1.4360021E-2,-7.941093E-3,2.9466126E-2,2.252991E-3,5.0288476E-2,-3.0511036E-3,2.7466753E-2],"categories":[],"categories_nodes":[],"categories_segments":[],"categories_sizes":[],"default_left":[0,0,0,0,0,0,0,0,0,0,0,0,0,0,0,0,0,0,0,0,0,0,0],"id":3,"left_children":[1,3,5,7,9,-1,11,13,15,17,19,-1,21,-1,-1,-1,-1,-1,-1,-1,-1,-1,-1],"loss_changes":[1.2729374E1,1.0455835E1,9.716876E0,7.399681E0,9.1133E0,0E0,5.462267E0,7.3715343E0,1.1851606E1,7.470511E0,5.262247E0,0E0,3.2722886E0,0E0,0E0,0E0,0E0,0E0,0E0,0E0,0E0,0E0,0E0],"parents":[2147483647,0,0,1,1,2,2,3,3,4,4,6,6,7,7,8,8,9,9,10,10,12,12],"right_children":[2,4,6,8,10,-1,12,14,16,18,20,-1,22,-1,-1,-1,-1,-1,-1,-1,-1,-1,-1],"split_conditions":[2.94E1,4.2796284E1,9E-1,1E0,8.5008E0,-1.1383474E-2,2.3545755E-1,2.2818275E-1,1.4445326E-1,5.089125E-1,9.7E0,5.1790297E-2,1.0374603E0,7.908087E-3,-2.341905E-2,-1.5107076E-2,1.4360021E-2,-7.941093E-3,2.9466126E-2,2.252991E-3,5.0288476E-2,-3.0511036E-3,2.7466753E-2],"split_indices":[81,51,30,0,97,0,27,55,31,49,74,0,8,0,0,0,0,0,0,0,0,0,0],"split_type":[0,0,0,0,0,0,0,0,0,0,0,0,0,0,0,0,0,0,0,0,0,0,0],"sum_hessian":[3.9326056E2,3.3733054E2,5.5930027E1,2.4437933E2,9.295121E1,1.3744881E1,4.2185146E1,1.179428E2,1.2643653E2,6.9216606E1,2.3734604E1,1.6470678E1,2.5714466E1,1.8980295E1,9.896251E1,6.4976654E1,6.1459877E1,5.722586E1,1.1990741E1,1.0743057E1,1.2991548E1,1.3984315E1,1.1730151E1],"tree_param":{"num_deleted":"0","num_feature":"119","num_nodes":"23","size_leaf_vector":"1"}},{"base_weights":[5.3836517E-3,5.097553E-1,-7.2838925E-2,-5.9776544E-4,7.009047E-1,-1.4146554E-1,3.6477488E-1,7.8295795E-3,4.3942638E-2,-6.5495455E-1,-8.0344915E-2,-0E0,3.8558546E-2,-6.1716978E-3,-4.53667E-2,3.054688E-3,-1.5652252E-2,2.165243E-2,-1.8188823E-2],"categories":[],"categories_nodes":[],"categories_segments":[],"categories_sizes":[],"default_left":[0,0,0,0,0,0,0,0,0,0,0,0,0,0,0,0,0,0,0],"id":4,"left_children":[1,3,5,-1,7,9,11,-1,-1,13,15,17,-1,-1,-1,-1,-1,-1,-1],"loss_changes":[1.5885693E1,5.788432E0,1.0454335E1,0E0,2.7101727E0,8.825307E0,7.1168113E0,0E0,0E0,3.013257E0,9.299466E0,5.4158564E0,0E0,0E0,0E0,0E0,0E0,0E0,0E0],"parents":[2147483647,0,0,1,1,2,2,4,4,5,5,6,6,9,9,10,10,11,11],"right_children":[2,4,6,-1,8,10,12,-1,-1,14,16,18,-1,-1,-1,-1,-1,-1,-1],"split_conditions":[3.6258835E-1,2.257959E-1,1.950435E-1,-5.9776544E-4,5E0,2.34E1,1.4140853E1,7.8295795E-3,4.3942638E-2,1.3161926E0,4.7682056E-1,8.38E1,3.8558546E-2,-6.1716978E-3,-4.53667E-2,3.054688E-3,-1.5652252E-2,2.165243E-2,-1.8188823E-2],"split_indices":[56,29,31,0,14,62,111,0,0,5,109,79,0,0,0,0,0,0,0],"split_type":[0,0,0,0,0,0,0,0,0,0,0,0,0,0,0,0,0,0,0],"sum_hessian":[3.874033E2,4.916976E1,3.3823352E2,1.3740064E1,3.54297E1,2.962948E2,4.1938736E1,1.1737227E1,2.369247E1,2.5479134E1,2.7081564E2,2.4469574E1,1.7469164E1,1.123801E1,1.4241123E1,1.69394E2,1.0142165E2,1.0478588E1,1.3990986E1],"tree_param":{"num_deleted":"0","num_feature":"119","num_nodes":"19","size_leaf_vector":"1"}},{"base_weights":[4.3218337E-2,-5.0905563E-2,3.6304748E-1,-1.3987E-1,2.9004094E-1,4.9400228E-1,-1.1942552E-2,-7.5166635E-2,-6.306568E-1,5.6920546E-1,-0E0,5.9542906E-1,-3.9124596E-3,8.139103E-3,-9.55037E-3,-5.4586586E-2,3.6275405E-3,8.970625E-3,3.984001E-2,1.4182225E-2,-1.5832242E-2,1.444681E-3,3.4243386E-2],"categories":[],"categories_nodes":[],"categories_segments":[],"categories_sizes":[],"default_left":[0,0,0,0,0,0,0,0,0,0,0,0,0,0,0,0,0,0,0,0,0,0,0],"id":5,"left_children":[1,3,5,7,9,11,-1,13,15,17,19,21,-1,-1,-1,-1,-1,-1,-1,-1,-1,-1,-1],"loss_changes":[1.2261099E1,9.575805E0,8.012979E0,7.39865E0,5.0595036E0,5.0379086E0,0E0,6.4773397E0,9.895107E0,1.6779194E0,3.8011212E0,2.9826088E0,0E0,0E0,0E0,0E0,0E0,0E0,0E0,0E0,0E0,0E0,0E0],"parents":[2147483647,0,0,1,1,2,2,3,3,4,4,5,5,7,7,8,8,9,9,10,10,11,11],"right_children":[2,4,6,8,10,12,-1,14,16,18,20,22,-1,-1,-1,-1,-1,-1,-1,-1,-1,-1,-1],"split_conditions":[2.37E1,1.5E0,9.139607E0,7.175983E0,1.6742624E0,3.0556685E-1,-1.1942552E-2,1.8375497E-1,4.279471E1,5.332E0,8.892619E0,9.38E-1,-3.9124596E-3,8.139103E-3,-9.55037E-3,-5.4586586E-2,3.6275405E-3,8.970625E-3,3.984001E-2,1.4182225E-2,-1.5832242E-2,1.444681E-3,3.4243386E-2],"split_indices":[58,30,37,11,104,9,0,9,51,1,110,36,0,0,0,0,0,0,0,0,0,0,0],"split_type":[0,0,0,0,0,0,0,0,0,0,0,0,0,0,0,0,0,0,0,0,0,0,0],"sum_hessian":[3.9404312E2,3.064867E2,8.755645E1,2.465649E2,5.9921795E1,7.332924E1,1.4227204E1,2.2383936E2,2.2725536E1,2.7472641E1,3.2449154E1,6.28592E1,1.0470041E1,7.1214714E1,1.5262463E2,1.248679E1,1.0238747E1,1.4233623E1,1.32390175E1,1.7968388E1,1.4480764E1,1.0234701E1,5.26245E1],"tree_param":{"num_deleted":"0","num_feature":"119","num_nodes":"23","size_leaf_vector":"1"}},{"base_weights":[-1.1491592E-2,-1.6713667E-1,2.1819787E-1,2.9029652E-1,-2.3970248E-1,3.4416315E-1,-1.7699863E-1,-8.012553E-3,3.5155535E-2,-3.0737418E-1,1.6362235E-2,-1.808834E-2,4.5494923E-1,-2.8484067E-2,1.0759938E-1,-1.8240165E-2,2.0753933E-2,2.9081076E-2,-8.146459E-5,-1.6760295E-2,2.5158951E-2],"categories":[],"categories_nodes":[],"categories_segments":[],"categories_sizes":[],"default_left":[0,0,0,0,0,0,0,0,0,0,0,0,0,0,0,0,0,0,0,0,0],"id":6,"left_children":[1,3,5,7,9,11,13,-1,-1,15,-1,-1,17,-1,19,-1,-1,-1,-1,-1,-1],"loss_changes":[1.4213554E1,8.239529E0,8.337763E0,7.153552E0,8.531911E0,1.0547763E1,5.1128507E0,0E0,0E0,8.638018E0,0E0,0E0,6.644623E0,0E0,5.6925373E0,0E0,0E0,0E0,0E0,0E0,0E0],"parents":[2147483647,0,0,1,1,2,2,3,3,4,4,5,5,6,6,9,9,12,12,14,14],"right_children":[2,4,6,8,10,12,14,-1,-1,16,-1,-1,18,-1,20,-1,-1,-1,-1,-1,-1],"split_conditions":[2.94E1,1.7692514E-1,1E0,5.268E0,4.523743E1,2.5298645E2,4.1831687E-1,-8.012553E-3,3.5155535E-2,2.7730197E-1,1.6362235E-2,-1.808834E-2,5.3828144E0,-2.8484067E-2,2.5E1,-1.8240165E-2,2.0753933E-2,2.9081076E-2,-8.146459E-5,-1.6760295E-2,2.5158951E-2],"split_indices":[78,116,43,1,51,107,49,0,0,29,0,0,26,0,81,0,0,0,0,0,0],"split_type":[0,0,0,0,0,0,0,0,0,0,0,0,0,0,0,0,0,0,0,0,0],"sum_hessian":[3.881952E2,2.3350388E2,1.5469131E2,2.897316E1,2.0453072E2,1.1875128E2,3.594002E1,1.4736982E1,1.4236177E1,1.8555385E2,1.8976864E1,1.395967E1,1.0479162E2,1.3735872E1,2.2204151E1,1.748241E2,1.0729758E1,8.1817955E1,2.2973661E1,1.0240378E1,1.1963772E1],"tree_param":{"num_deleted":"0","num_feature":"119","num_nodes":"21","size_leaf_vector":"1"}},{"base_weights":[7.110627E-2,-1.2943529E-1,2.2424456E-1,-3.8429167E-2,-4.2588115E-2,3.660185E-1,-3.45701E-2,-1.8825918E-1,2.2453688E-1,-0E0,5.023798E-1,-2.92463E-1,3.4492335E-1,8.087118E-4,-2.7484773E-2,2.3440382E-2,-7.174946E-3,-1.43281445E-2,2.3774426E-2,-2.257259E-3,3.1173004E-2,1.2028893E-2,-2.8517738E-2,3.550155E-2,-4.5187175E-3],"categories":[],"categories_nodes":[],"categories_segments":[],"categories_sizes":[],"default_left":[0,0,0,0,0,0,0,0,0,0,0,0,0,0,0,0,0,0,0,0,0,0,0,0,0],"id":7,"left_children":[1,3,5,-1,7,9,11,13,15,17,19,21,23,-1,-1,-1,-1,-1,-1,-1,-1,-1,-1,-1,-1],"loss_changes":[1.233929E1,9.034359E0,8.577092E0,0E0,6.352962E0,7.65222E0,8.6834345E0,8.170655E0,5.6171002E0,6.6486673E0,7.67165E0,8.762094E0,6.2619214E0,0E0,0E0,0E0,0E0,0E0,0E0,0E0,0E0,0E0,0E0,0E0,0E0],"parents":[2147483647,0,0,1,1,2,2,4,4,5,5,6,6,7,7,8,8,9,9,10,10,11,11,12,12],"right_children":[2,4,6,-1,8,10,12,14,16,18,20,22,24,-1,-1,-1,-1,-1,-1,-1,-1,-1,-1,-1,-1],"split_conditions":[1.3574074E-1,2.0417569E2,8.808824E0,-3.8429167E-2,1.2424215E-1,-6E-1,3.4515827E1,4.275E0,3.89E1,5.3333335E0,2.7E0,1.2225394E0,3.2191312E-1,8.087118E-4,-2.7484773E-2,2.3440382E-2,-7.174946E-3,-1.43281445E-2,2.3774426E-2,-2.257259E-3,3.1173004E-2,1.2028893E-2,-2.8517738E-2,3.550155E-2,-4.5187175E-3],"split_indices":[48,107,37,0,33,71,54,21,68,26,26,5,57,0,0,0,0,0,0,0,0,0,0,0,0],"split_type":[0,0,0,0,0,0,0,0,0,0,0,0,0,0,0,0,0,0,0,0,0,0,0,0,0],"sum_hessian":[3.905234E2,1.680124E2,2.22511E2,1.471459E1,1.5329782E2,1.4367131E2,7.883968E1,1.0136726E2,5.1930553E1,3.943502E1,1.0423629E2,4.8407528E1,3.043216E1,6.691313E1,3.445413E1,3.1207315E1,2.0723238E1,2.6451208E1,1.2983813E1,1.8696583E1,8.55397E1,1.6201866E1,3.220566E1,1.5458896E1,1.4973265E1],"tree_param":{"num_deleted":"0","num_feature":"119","num_nodes":"25","size_leaf_vector":"1"}},{"base_weights":[2.3003435E-2,-1.0017392E-1,2.0594417E-1,4.6154746E-1,-1.9414775E-1,4.8299128E-1,-0E0,-4.317039E-3,3.863805E-2,-2.9464832E-1,3.256593E-1,-1.1211892E-2,6.434784E-1,-2.9147355E-2,1.0477084E-1,-2.234964E-2,6.1398237E-3,-1.7268151E-3,3.82174E-2,4.0572863E-2,1.064565E-3,1.2699458E-2,-1.3852524E-2],"categories":[],"categories_nodes":[],"categories_segments":[],"categories_sizes":[],"default_left":[0,0,0,0,0,0,0,0,0,0,0,0,0,0,0,0,0,0,0,0,0,0,0],"id":8,"left_children":[1,3,5,7,9,11,13,-1,-1,15,17,-1,19,-1,21,-1,-1,-1,-1,-1,-1,-1,-1],"loss_changes":[9.031869E0,1.2831283E1,9.358058E0,6.5938573E0,1.1300035E1,8.822275E0,6.3714447E0,0E0,0E0,1.1708494E1,6.054942E0,0E0,5.6149464E0,0E0,5.2557993E0,0E0,0E0,0E0,0E0,0E0,0E0,0E0,0E0],"parents":[2147483647,0,0,1,1,2,2,3,3,4,4,5,5,6,6,9,9,10,10,12,12,14,14],"right_children":[2,4,6,8,10,12,14,-1,-1,16,18,-1,20,-1,22,-1,-1,-1,-1,-1,-1,-1,-1],"split_conditions":[2.94E1,6.899004E0,3.1113849E0,5.2525E0,2.91E1,3.4035388E-1,2.5894284E2,-4.317039E-3,3.863805E-2,5.544397E0,1.5830599E-1,-1.1211892E-2,9.006154E0,-2.9147355E-2,9.479991E0,-2.234964E-2,6.1398237E-3,-1.7268151E-3,3.82174E-2,4.0572863E-2,1.064565E-3,1.2699458E-2,-1.3852524E-2],"split_indices":[78,115,4,1,59,32,107,0,0,26,31,0,37,0,110,0,0,0,0,0,0,0,0],"split_type":[0,0,0,0,0,0,0,0,0,0,0,0,0,0,0,0,0,0,0,0,0,0,0],"sum_hessian":[3.8888354E2,2.3212112E2,1.5676242E2,2.9701977E1,2.0241914E2,6.452523E1,9.223719E1,1.1486442E1,1.8215536E1,1.7224469E2,3.017446E1,1.0990592E1,5.3534637E1,1.0962256E1,8.127493E1,1.2680988E2,4.5434814E1,1.8473207E1,1.1701251E1,4.032344E1,1.3211197E1,6.0582417E1,2.069252E1],"tree_param":{"num_deleted":"0","num_feature":"119","num_nodes":"23","size_leaf_vector":"1"}},{"base_weights":[-2.468768E-2,-1.6664954E-1,1.7043072E-1,2.5040284E-1,-2.51468E-1,-1.3790277E-1,2.9033133E-1,-4.043292E-3,3.0881286E-2,-3.3110648E-1,1.9792948E-2,1.1174992E-1,-3.386795E-2,8.0097306E-1,8.7366514E-2,-1.0278433E-2,-3.847069E-2,-2.0803591E-2,2.3023197E-2,5.0188985E-2,1.3413801E-2,-1.1237304E-2,1.2977286E-2],"categories":[],"categories_nodes":[],"categories_segments":[],"categories_sizes":[],"default_left":[0,0,0,0,0,0,0,0,0,0,0,0,0,0,0,0,0,0,0,0,0,0,0],"id":9,"left_children":[1,3,5,7,9,11,13,-1,-1,15,-1,17,-1,19,21,-1,-1,-1,-1,-1,-1,-1,-1],"loss_changes":[1.096921E1,8.462395E0,6.3999386E0,5.4367456E0,1.0669442E1,7.206438E0,1.1854348E1,0E0,0E0,8.457714E0,0E0,7.7685695E0,0E0,1.6256256E0,5.341282E0,0E0,0E0,0E0,0E0,0E0,0E0,0E0,0E0],"parents":[2147483647,0,0,1,1,2,2,3,3,4,4,5,5,6,6,9,9,11,11,13,13,14,14],"right_children":[2,4,6,8,10,12,14,-1,-1,16,-1,18,-1,20,22,-1,-1,-1,-1,-1,-1,-1,-1],"split_conditions":[2.24E1,5.7527585E0,7.80274E-2,7E0,2.95E1,1.1344075E-1,8.564353E-2,-4.043292E-3,3.0881286E-2,2.4261354E-1,1.9792948E-2,2.3046744E-1,-3.386795E-2,4.78E1,5E0,-1.0278433E-2,-3.847069E-2,-2.0803591E-2,2.3023197E-2,5.0188985E-2,1.3413801E-2,-1.1237304E-2,1.2977286E-2],"split_indices":[59,3,28,15,81,95,28,0,0,96,0,29,0,69,14,0,0,0,0,0,0,0,0],"split_type":[0,0,0,0,0,0,0,0,0,0,0,0,0,0,0,0,0,0,0,0,0,0,0],"sum_hessian":[3.8595074E2,2.2531262E2,1.6063812E2,3.543292E1,1.898797E2,4.359904E1,1.1703908E2,1.9962395E1,1.5470525E1,1.7194125E2,1.793844E1,3.188192E1,1.1717121E1,2.8397684E1,8.8641396E1,1.4025569E2,3.1685566E1,1.1728994E1,2.0152925E1,1.6685097E1,1.1712587E1,2.9939325E1,5.870207E1],"tree_param":{"num_deleted":"0","num_feature":"119","num_nodes":"23","size_leaf_vector":"1"}},{"base_weights":[2.2675365E-2,-8.217652E-2,2.921157E-1,-2.8013316E-1,9.363785E-2,5.960517E-1,5.208481E-2,6.0280744E-2,-4.535592E-1,-4.7335982E-2,4.7534204E-1,-0E0,4.095203E-2,-2.2434646E-2,2.4795498E-1,2.503472E-2,-8.72856E-3,-2.4667846E-3,-3.271084E-2,-2.9788697E-2,6.981774E-3,3.4153514E-2,-0E0,4.0512543E-2,-1.4418686E-3],"categories":[],"categories_nodes":[],"categories_segments":[],"categories_sizes":[],"default_left":[0,0,0,0,0,0,0,0,0,0,0,0,0,0,0,0,0,0,0,0,0,0,0,0,0],"id":10,"left_children":[1,3,5,7,9,11,13,15,17,19,21,-1,-1,-1,23,-1,-1,-1,-1,-1,-1,-1,-1,-1,-1],"loss_changes":[1.127309E1,1.0111438E1,7.6903925E0,8.375087E0,8.552191E0,6.2823353E0,7.2207885E0,5.711151E0,6.932909E0,1.2459486E1,4.332716E0,0E0,0E0,0E0,8.836549E0,0E0,0E0,0E0,0E0,0E0,0E0,0E0,0E0,0E0,0E0],"parents":[2147483647,0,0,1,1,2,2,3,3,4,4,5,5,6,6,7,7,8,8,9,9,10,10,14,14],"right_children":[2,4,6,8,10,12,14,16,18,20,22,-1,-1,-1,24,-1,-1,-1,-1,-1,-1,-1,-1,-1,-1],"split_conditions":[2.31E1,2.87E1,3.940462E-1,6.528266E0,4.63E1,3.9639357E-1,7.6558314E-2,4.4238095E0,5.5E1,2.9189687E0,4.7682056E-1,-0E0,4.095203E-2,-2.2434646E-2,8.58496E-2,2.503472E-2,-8.72856E-3,-2.4667846E-3,-3.271084E-2,-2.9788697E-2,6.981774E-3,3.4153514E-2,-0E0,4.0512543E-2,-1.4418686E-3],"split_indices":[58,78,34,3,75,49,28,13,80,38,109,0,0,0,28,0,0,0,0,0,0,0,0,0,0],"split_type":[0,0,0,0,0,0,0,0,0,0,0,0,0,0,0,0,0,0,0,0,0,0,0,0,0],"sum_hessian":[3.8606467E2,2.7908066E2,1.0698403E2,1.3121616E2,1.478645E2,4.3016163E1,6.396787E1,4.441465E1,8.68015E1,1.10225296E2,3.7639202E1,1.322122E1,2.9794945E1,1.5452975E1,4.8514893E1,1.421908E1,3.0195572E1,3.1687794E1,5.511371E1,2.5924297E1,8.4301E1,2.4934624E1,1.27045765E1,1.3420828E1,3.5094063E1],"tree_param":{"num_deleted":"0","num_feature":"119","num_nodes":"25","size_leaf_vector":"1"}},{"base_weights":[2.2233177E-2,-2.505063E-1,1.0875011E-1,-4.4794807E-1,3.7755698E-3,3.5141543E-2,5.313174E-1,5.05857E-3,-5.9702086E-1,2.3962931E-1,-2.429994E-2,-1.0055429E-1,2.3282672E-1,8.0954164E-1,-8.814722E-3,-4.0217545E-2,-8.971432E-3,2.5659231E-2,-6.050324E-3,-1.4573105E-2,1.9916119E-2,2.7545407E-2,-0E0,1.526099E-2,4.8512083E-2],"categories":[],"categories_nodes":[],"categories_segments":[],"categories_sizes":[],"default_left":[0,0,0,0,0,0,0,0,0,0,0,0,0,0,0,0,0,0,0,0,0,0,0,0,0],"id":11,"left_children":[1,3,5,7,9,11,13,-1,15,17,-1,19,21,23,-1,-1,-1,-1,-1,-1,-1,-1,-1,-1,-1],"loss_changes":[9.350872E0,4.9944854E0,9.067499E0,5.016362E0,5.6949015E0,7.2902894E0,9.629954E0,0E0,2.6265907E0,3.9230723E0,0E0,1.5679189E1,8.346865E0,5.361786E-1,0E0,0E0,0E0,0E0,0E0,0E0,0E0,0E0,0E0,0E0,0E0],"parents":[2147483647,0,0,1,1,2,2,3,3,4,4,5,5,6,6,8,8,9,9,11,11,12,12,13,13],"right_children":[2,4,6,8,10,12,14,-1,16,18,-1,20,22,24,-1,-1,-1,-1,-1,-1,-1,-1,-1,-1,-1],"split_conditions":[0E0,2.4308641E-1,3.13E1,3.034485E-1,2.690019E-1,2.94E1,7E0,5.05857E-3,4.6586347E-1,3.4515827E1,-2.429994E-2,5.692253E0,3.1488698E0,4.173705E-1,-8.814722E-3,-4.0217545E-2,-8.971432E-3,2.5659231E-2,-6.050324E-3,-1.4573105E-2,1.9916119E-2,2.7545407E-2,-0E0,1.526099E-2,4.8512083E-2],"split_indices":[64,47,59,57,29,78,17,0,117,54,0,26,4,49,0,0,0,0,0,0,0,0,0,0,0],"split_type":[0,0,0,0,0,0,0,0,0,0,0,0,0,0,0,0,0,0,0,0,0,0,0,0,0],"sum_hessian":[3.8851187E2,8.988819E1,2.9862366E2,4.956262E1,4.032557E1,2.5994238E2,3.868128E1,1.0209146E1,3.9353474E1,2.9631096E1,1.0694474E1,1.540952E2,1.0584719E2,2.77548E1,1.0926477E1,2.2402645E1,1.6950829E1,1.6435568E1,1.3195528E1,1.1367547E2,4.0419735E1,4.230053E1,6.354666E1,1.0961739E1,1.6793062E1],"tree_param":{"num_deleted":"0","num_feature":"119","num_nodes":"25","size_leaf_vector":"1"}},{"base_weights":[-4.021857E-3,-1.3237455E-1,1.85505E-1,-2.9761523E-1,1.763877E-1,-1.6978357E-2,2.4626638E-1,-3.9524487E-1,1.5946286E-2,3.0337483E-1,-1.91748E-2,-0E0,4.1165906E-1,-2.4161113E-2,1.821318E-2,-7.2242976E-3,2.6515812E-2,1.5629295E-2,-1.6209858E-2,-0E0,2.7391592E-2],"categories":[],"categories_nodes":[],"categories_segments":[],"categories_sizes":[],"default_left":[0,0,0,0,0,0,0,0,0,0,0,0,0,0,0,0,0,0,0,0,0],"id":12,"left_children":[1,3,5,7,9,-1,11,13,-1,15,-1,17,19,-1,-1,-1,-1,-1,-1,-1,-1],"loss_changes":[9.621564E0,1.2463381E1,5.4319367E0,1.0173765E1,6.587542E0,0E0,5.910118E0,1.0244917E1,0E0,7.978771E0,0E0,6.973242E0,4.9664116E0,0E0,0E0,0E0,0E0,0E0,0E0,0E0,0E0],"parents":[2147483647,0,0,1,1,2,2,3,3,4,4,6,6,7,7,9,9,11,11,12,12],"right_children":[2,4,6,8,10,-1,12,14,-1,16,-1,18,20,-1,-1,-1,-1,-1,-1,-1,-1],"split_conditions":[2.94E1,5.1646676E0,-9E-1,1.950435E-1,2.03448E0,-1.6978357E-2,4.201117E-1,4.564072E1,1.5946286E-2,4.57E1,-1.91748E-2,3.18E1,4.34E1,-2.4161113E-2,1.821318E-2,-7.2242976E-3,2.6515812E-2,1.5629295E-2,-1.6209858E-2,-0E0,2.7391592E-2],"split_indices":[78,26,64,31,5,0,49,51,0,69,0,78,75,0,0,0,0,0,0,0,0],"split_type":[0,0,0,0,0,0,0,0,0,0,0,0,0,0,0,0,0,0,0,0,0],"sum_hessian":[3.865661E2,2.3295119E2,1.5361491E2,1.5291524E2,8.003596E1,1.2699557E1,1.4091536E2,1.3426062E2,1.8654612E1,6.783426E1,1.2201699E1,5.881994E1,8.209542E1,1.2254305E2,1.1717566E1,2.2683208E1,4.5151047E1,3.0163715E1,2.8656223E1,2.1368727E1,6.0726696E1],"tree_param":{"num_deleted":"0","num_feature":"119","num_nodes":"21","size_leaf_vector":"1"}},{"base_weights":[7.5824265E-3,-1.8435778E-1,1.3536577E-1,-3.2145184E-1,2.4576806E-1,5.12055E-2,5.033133E-1,-4.5464715E-1,1.9581301E-2,4.7277272E-1,-4.940906E-3,-1.887205E-2,4.884455E-1,-8.6759607E-4,8.2756513E-1,-3.4805734E-2,-7.252401E-3,-1.1237165E-3,4.3085925E-2,8.946996E-3,-1.0416422E-2,3.4391385E-2,3.371056E-3,5.0935585E-2,1.5798917E-2],"categories":[],"categories_nodes":[],"categories_segments":[],"categories_sizes":[],"default_left":[0,0,0,0,0,0,0,0,0,0,0,0,0,0,0,0,0,0,0,0,0,0,0,0,0],"id":13,"left_children":[1,3,5,7,9,11,13,15,-1,17,-1,19,21,-1,23,-1,-1,-1,-1,-1,-1,-1,-1,-1,-1],"loss_changes":[9.758677E0,9.74612E0,7.052224E0,1.2586421E1,3.559252E0,6.491414E0,7.7638865E0,7.0279675E0,0E0,5.510948E0,0E0,6.891409E0,1.8391514E0,0E0,3.9208984E-1,0E0,0E0,0E0,0E0,0E0,0E0,0E0,0E0,0E0,0E0],"parents":[2147483647,0,0,1,1,2,2,3,3,4,4,5,5,6,6,7,7,9,9,11,11,12,12,14,14],"right_children":[2,4,6,8,10,12,14,16,-1,18,-1,20,22,-1,24,-1,-1,-1,-1,-1,-1,-1,-1,-1,-1],"split_conditions":[1.972655E2,2.7146247E-1,6.0825E0,5.3999823E-1,4.3715945E-1,9.048425E1,7.130466E0,6.64E-1,1.9581301E-2,3.8631228E-1,-4.940906E-3,3.941969E-1,9.619842E0,-8.6759607E-4,2.3777778E-1,-3.4805734E-2,-7.252401E-3,-1.1237165E-3,4.3085925E-2,8.946996E-3,-1.0416422E-2,3.4391385E-2,3.371056E-3,5.0935585E-2,1.5798917E-2],"split_indices":[106,27,1,49,49,52,110,77,0,49,0,90,10,0,47,0,0,0,0,0,0,0,0,0,0],"split_type":[0,0,0,0,0,0,0,0,0,0,0,0,0,0,0,0,0,0,0,0,0,0,0,0,0],"sum_hessian":[3.8879E2,1.5293842E2,2.358516E2,1.1781345E2,3.512497E1,1.9768909E2,3.8162506E1,1.0138844E2,1.642501E1,2.0928688E1,1.4196281E1,1.7351936E2,2.416973E1,1.5869916E1,2.2292591E1,5.2547543E1,4.88409E1,1.07131405E1,1.0215548E1,8.373247E1,8.9786896E1,1.3446068E1,1.0723661E1,1.190917E1,1.0383421E1],"tree_param":{"num_deleted":"0","num_feature":"119","num_nodes":"25","size_leaf_vector":"1"}},{"base_weights":[2.3511196E-2,-7.957099E-2,2.8313845E-1,-3.6890668E-1,1.9433163E-2,4.346891E-1,-1.641331E-1,-6.253806E-1,8.282708E-2,1.7849962E-1,-1.8413475E-1,5.500489E-1,-3.1628348E-3,-2.681523E-2,8.69501E-3,-0E0,-4.0188488E-2,2.16006E-2,-1.4020274E-2,2.0203276E-2,-3.0444236E-3,-1.9877838E-2,1.20448535E-2,-0E0,3.3227704E-2],"categories":[],"categories_nodes":[],"categories_segments":[],"categories_sizes":[],"default_left":[0,0,0,0,0,0,0,0,0,0,0,0,0,0,0,0,0,0,0,0,0,0,0,0,0],"id":14,"left_children":[1,3,5,7,9,11,13,15,17,19,21,23,-1,-1,-1,-1,-1,-1,-1,-1,-1,-1,-1,-1,-1],"loss_changes":[1.0701951E1,8.317898E0,8.208866E0,9.068093E0,7.101731E0,5.428564E0,4.6238065E0,5.0718803E0,4.5368447E0,7.002967E0,9.183513E0,4.769676E0,0E0,0E0,0E0,0E0,0E0,0E0,0E0,0E0,0E0,0E0,0E0,0E0,0E0],"parents":[2147483647,0,0,1,1,2,2,3,3,4,4,5,5,6,6,7,7,8,8,9,9,10,10,11,11],"right_children":[2,4,6,8,10,12,14,16,18,20,22,24,-1,-1,-1,-1,-1,-1,-1,-1,-1,-1,-1,-1,-1],"split_conditions":[2.31E1,2.9156795E0,9.006154E0,6.65E-1,3.4261842E0,1.5E0,4.2413554E-1,6.263976E0,9.068691E-2,4.311111E0,2.631598E-1,-4E-1,-3.1628348E-3,-2.681523E-2,8.69501E-3,-0E0,-4.0188488E-2,2.16006E-2,-1.4020274E-2,2.0203276E-2,-3.0444236E-3,-1.9877838E-2,1.20448535E-2,-0E0,3.3227704E-2],"split_indices":[58,38,37,77,38,71,49,24,28,26,27,64,0,0,0,0,0,0,0,0,0,0,0,0,0],"split_type":[0,0,0,0,0,0,0,0,0,0,0,0,0,0,0,0,0,0,0,0,0,0,0,0,0],"sum_hessian":[3.8686722E2,2.7802298E2,1.08844246E2,6.869219E1,2.0933078E2,8.223784E1,2.6606403E1,4.32957E1,2.539649E1,1.1923406E2,9.009671E1,6.715979E1,1.5078052E1,1.197189E1,1.4634513E1,1.1207971E1,3.208773E1,1.316775E1,1.222874E1,6.0693813E1,5.854025E1,6.0977543E1,2.911917E1,1.1924371E1,5.523542E1],"tree_param":{"num_deleted":"0","num_feature":"119","num_nodes":"25","size_leaf_vector":"1"}},{"base_weights":[1.8178478E-2,-1.0840922E-1,1.7262146E-1,-1.9201657E-1,3.608365E-1,2.6619524E-1,-2.2879885E-1,-2.860868E-1,2.0000125E-1,-1.5444296E-3,3.0985633E-2,3.696877E-1,-2.2225608E-1,-2.4746256E-2,1.0030824E-2,-2.0282452E-3,-2.6080478E-2,-1.3115239E-2,2.6729345E-2,7.83066E-4,2.4413176E-2,8.548246E-3,-2.6122758E-2],"categories":[],"categories_nodes":[],"categories_segments":[],"categories_sizes":[],"default_left":[0,0,0,0,0,0,0,0,0,0,0,0,0,0,0,0,0,0,0,0,0,0,0],"id":15,"left_children":[1,3,5,7,9,11,13,15,17,-1,-1,19,21,-1,-1,-1,-1,-1,-1,-1,-1,-1,-1],"loss_changes":[7.851574E0,8.8328905E0,7.1487226E0,7.3208222E0,3.8248482E0,8.101646E0,4.7609997E0,8.633308E0,6.8087673E0,0E0,0E0,5.0436134E0,4.001068E0,0E0,0E0,0E0,0E0,0E0,0E0,0E0,0E0,0E0,0E0],"parents":[2147483647,0,0,1,1,2,2,3,3,4,4,5,5,6,6,7,7,8,8,11,11,12,12],"right_children":[2,4,6,8,10,12,14,16,18,-1,-1,20,22,-1,-1,-1,-1,-1,-1,-1,-1,-1,-1],"split_conditions":[2.46E1,1.9440477E-1,9.9042816E1,5.932E0,2.6194769E1,6.691306E-1,1.2E0,4.2845184E-1,6.6E0,-1.5444296E-3,3.0985633E-2,9E-1,3.18E0,-2.4746256E-2,1.0030824E-2,-2.0282452E-3,-2.6080478E-2,-1.3115239E-2,2.6729345E-2,7.83066E-4,2.4413176E-2,8.548246E-3,-2.6122758E-2],"split_indices":[81,48,108,1,53,42,30,49,40,0,0,30,4,0,0,0,0,0,0,0,0,0,0],"split_type":[0,0,0,0,0,0,0,0,0,0,0,0,0,0,0,0,0,0,0,0,0,0,0],"sum_hessian":[3.9017493E2,2.1346405E2,1.7671088E2,1.8459378E2,2.8870272E1,1.4568146E2,3.1029419E1,1.509885E2,3.360528E1,1.2471177E1,1.6399096E1,1.2205908E2,2.362237E1,1.9404963E1,1.16244545E1,7.7834076E1,7.315443E1,1.3935708E1,1.9669575E1,3.310277E1,8.8956314E1,1.0437518E1,1.3184853E1],"tree_param":{"num_deleted":"0","num_feature":"119","num_nodes":"23","size_leaf_vector":"1"}},{"base_weights":[1.0720429E-2,4.6402085E-1,-3.6903095E-2,-0E0,6.5505105E-1,-9.8009676E-2,3.6431026E-1,4.1705225E-2,1.0493672E-2,2.0571249E-2,-3.0527684E-1,-3.9544953E-3,5.5469936E-1,-9.015939E-3,1.1639844E-2,-2.459215E-2,1.5605604E-3,3.9493617E-2,2.4843335E-3],"categories":[],"categories_nodes":[],"categories_segments":[],"categories_sizes":[],"default_left":[0,0,0,0,0,0,0,0,0,0,0,0,0,0,0,0,0,0,0],"id":16,"left_children":[1,3,5,-1,7,9,11,-1,-1,13,15,-1,17,-1,-1,-1,-1,-1,-1],"loss_changes":[8.669917E0,3.6027555E0,8.737142E0,0E0,8.011608E-1,7.858927E0,4.411085E0,0E0,0E0,8.850107E0,7.5667067E0,0E0,3.4434109E0,0E0,0E0,0E0,0E0,0E0,0E0],"parents":[2147483647,0,0,1,1,2,2,4,4,5,5,6,6,9,9,10,10,12,12],"right_children":[2,4,6,-1,8,10,12,-1,-1,14,16,-1,18,-1,-1,-1,-1,-1,-1],"split_conditions":[3.4849476E1,5.67E0,1.9558187E-1,-0E0,2.2768964E-1,8.808824E0,4.5788667E-1,4.1705225E-2,1.0493672E-2,-1.90809E-1,2.96E1,-3.9544953E-3,8.915283E0,-9.015939E-3,1.1639844E-2,-2.459215E-2,1.5605604E-3,3.9493617E-2,2.4843335E-3],"split_indices":[51,17,31,0,96,37,83,0,0,42,78,0,110,0,0,0,0,0,0],"split_type":[0,0,0,0,0,0,0,0,0,0,0,0,0,0,0,0,0,0,0],"sum_hessian":[3.8275388E2,3.3230797E1,3.4952307E2,1.0650613E1,2.2580183E1,3.0768594E2,4.1837135E1,1.2187085E1,1.0393097E1,1.9704482E2,1.10641136E2,1.2656939E1,2.9180197E1,1.0040165E2,9.664316E1,7.0647835E1,3.9993298E1,1.730927E1,1.1870927E1],"tree_param":{"num_deleted":"0","num_feature":"119","num_nodes":"19","size_leaf_vector":"1"}}]},"name":"gbtree"},"learner_model_param":{"base_score":"[5.056237E-1]","boost_from_average":"1","num_class":"0","num_feature":"119","num_target":"1"},"objective":{"name":"binary:logistic","reg_loss_param":{"scale_pos_weight":"1"}}},"version":[3,1,3]}