{"learner":{"attributes":{"scikit_learn":"{\"_estimator_type\": \"regressor\"}"},"feature_names":[],"feature_types":[],"gradient_booster":{"model":{"cats":{"enc":[],"feature_segments":[],"sorted_idx":[]},"gbtree_model_param":{"num_parallel_tree":"1","num_trees":"40"},"iteration_indptr":[0,1,2,3,4,5,6,7,8,9,10,11,12,13,14,15,16,17,18,19,20,21,22,23,24,25,26,27,28,29,30,31,32,33,34,35,36,37,38,39,40],"tree_info":[0,0,0,0,0,0,0,0,0,0,0,0,0,0,0,0,0,0,0,0,0,0,0,0,0,0,0,0,0,0,0,0,0,0,0,0,0,0,0,0],"trees":[{"base_weights":[3.9806254E-3,4.2497376E-1,-2.079511E-1,1.3779102E-1,5.088308E-1,-1.5460059E-1,-9.7337544E-1,-4.7361526E-1,1.9856699E-1,1.8298204E-1,5.517344E-1,-1.7967539E-1,1.326676E0,-6.9844884E-1,-6.982603E-2,-3.7636243E-2,-4.4104727E-3,5.6814644E-3,3.1047497E-2,2.6936531E-2,-3.0102541E-3,3.6727455E-2,2.3396201E-2,-1.2901169E-2,2.5268618E-3,8.311511E-2,5.4725055E-3,-9.696633E-3,-4.3323476E-2],"categories":[],"categories_nodes":[],"categories_segments":[],"categories_sizes":[],"default_left":[0,0,0,0,0,0,0,0,0,0,0,0,0,0,0,0,0,0,0,0,0,0,0,0,0,0,0,0,0],"id":0,"left_children":[1,3,5,7,9,11,13,15,17,19,21,23,25,27,-1,-1,-1,-1,-1,-1,-1,-1,-1,-1,-1,-1,-1,-1,-1],"loss_changes":[3.7619073E2,3.3334976E1,1.1314601E2,1.2497297E1,1.4363678E1,9.818883E1,1.5141876E1,2.5104198E0,1.0115812E1,1.2135772E1,1.2376648E1,4.684639E1,1.6176643E1,8.843124E0,0E0,0E0,0E0,0E0,0E0,0E0,0E0,0E0,0E0,0E0,0E0,0E0,0E0,0E0,0E0],"parents":[2147483647,0,0,1,1,2,2,3,3,4,4,5,5,6,6,7,7,8,8,9,9,10,10,11,11,12,12,13,13],"right_children":[2,4,6,8,10,12,14,16,18,20,22,24,26,28,-1,-1,-1,-1,-1,-1,-1,-1,-1,-1,-1,-1,-1,-1,-1],"split_conditions":[1E0,8.840522E-2,2E2,5E-1,5E0,2.8333333E0,1.7E2,-2.8571429E-2,8.88E1,3.33E1,1.2995508E1,1.5514821E-1,4.1666665E0,2.7967966E1,-6.982603E-2,-3.7636243E-2,-4.4104727E-3,5.6814644E-3,3.1047497E-2,2.6936531E-2,-3.0102541E-3,3.6727455E-2,2.3396201E-2,-1.2901169E-2,2.5268618E-3,8.311511E-2,5.4725055E-3,-9.696633E-3,-4.3323476E-2],"split_indices":[229,370,227,392,93,229,226,264,178,154,348,369,229,149,0,0,0,0,0,0,0,0,0,0,0,0,0,0,0],"split_type":[0,0,0,0,0,0,0,0,0,0,0,0,0,0,0,0,0,0,0,0,0,0,0,0,0,0,0,0,0],"sum_hessian":[4.205186E3,1.4071925E3,2.7979934E3,3.223678E2,1.0848247E3,2.6219082E3,1.7608533E2,2.5332445E1,2.9703534E2,1.3063594E2,9.541888E2,2.582916E3,3.8992096E1,1.1548615E2,6.0599182E1,1.1176079E1,1.4156366E1,2.5357281E2,4.346253E1,5.140996E1,7.922598E1,2.8585925E2,6.683295E2,1.9282462E3,6.5466986E2,2.8809448E1,1.018265E1,3.228645E1,8.31997E1],"tree_param":{"num_deleted":"0","num_feature":"459","num_nodes":"29","size_leaf_vector":"1"}},{"base_weights":[9.250032E-3,4.21019E-1,-1.9917037E-1,1.1505402E-1,5.109662E-1,-1.5060873E-1,-1.0153902E0,-3.6380623E-2,3.8918242E-1,4.0276912E-1,6.476082E-1,-1.7917013E-1,7.8391373E-1,-7.2320735E-1,-1.2828614E0,-1.3158286E-2,1.1933078E-2,2.5616843E-2,-9.526724E-3,2.1520484E-2,-1.1697645E-2,3.3860955E-2,-3.5471562E-3,-1.294025E-2,8.3654514E-4,7.390907E-2,1.0882024E-2,2.5610249E-3,-4.4015367E-2,-6.833091E-2,-2.6221886E-2],"categories":[],"categories_nodes":[],"categories_segments":[],"categories_sizes":[],"default_left":[0,0,0,0,0,0,0,0,0,0,0,0,0,0,0,0,0,0,0,0,0,0,0,0,0,0,0,0,0,0,0],"id":1,"left_children":[1,3,5,7,9,11,13,15,17,19,21,23,25,27,29,-1,-1,-1,-1,-1,-1,-1,-1,-1,-1,-1,-1,-1,-1,-1,-1],"loss_changes":[3.6390646E2,3.8619003E1,1.10182434E2,1.401007E1,1.4415436E1,7.145822E1,6.5932465E0,1.3859126E1,9.186205E0,1.1662727E1,1.0656296E1,4.051487E1,2.8744572E1,1.1246246E1,1.9587708E-1,0E0,0E0,0E0,0E0,0E0,0E0,0E0,0E0,0E0,0E0,0E0,0E0,0E0,0E0,0E0,0E0],"parents":[2147483647,0,0,1,1,2,2,3,3,4,4,5,5,6,6,7,7,8,8,9,9,10,10,11,11,12,12,13,13,14,14],"right_children":[2,4,6,8,10,12,14,16,18,20,22,24,26,28,30,-1,-1,-1,-1,-1,-1,-1,-1,-1,-1,-1,-1,-1,-1,-1,-1],"split_conditions":[1E0,5.959934E-1,2.3E2,9E-1,2.4364875E-1,2.5E0,4.2E2,7.292219E-1,6.32E1,1.6339198E-2,9.042857E-2,1.5248616E-1,1.25E2,8.23044E-2,6.75E0,-1.3158286E-2,1.1933078E-2,2.5616843E-2,-9.526724E-3,2.1520484E-2,-1.1697645E-2,3.3860955E-2,-3.5471562E-3,-1.294025E-2,8.3654514E-4,7.390907E-2,1.0882024E-2,2.5610249E-3,-4.4015367E-2,-6.833091E-2,-2.6221886E-2],"split_indices":[229,366,227,339,137,229,227,225,135,416,334,369,227,375,186,0,0,0,0,0,0,0,0,0,0,0,0,0,0,0,0],"split_type":[0,0,0,0,0,0,0,0,0,0,0,0,0,0,0,0,0,0,0,0,0,0,0,0,0,0,0,0,0,0,0],"sum_hessian":[4.2291157E3,1.4203259E3,2.8087898E3,3.265354E2,1.0937905E3,2.657231E3,1.5155885E2,2.119577E2,1.1457769E2,6.2349036E2,4.7030014E2,2.5828684E3,7.4362656E1,8.2177605E1,6.938125E1,1.1728476E2,9.467294E1,9.5692505E1,1.8885183E1,5.998556E2,2.3634771E1,4.5263104E2,1.76691E1,1.8370458E3,7.458226E2,2.939218E1,4.4970474E1,1.3890618E1,6.828699E1,5.8276596E1,1.1104649E1],"tree_param":{"num_deleted":"0","num_feature":"459","num_nodes":"31","size_leaf_vector":"1"}},{"base_weights":[-6.3216654E-3,-2.69291E-1,1.4968096E-1,-1.872355E-1,-9.9684966E-1,8.852946E-2,3.7431234E-1,-2.477451E-1,1.8161565E-1,-6.531193E-2,-7.3053354E-1,1.4454177E-1,-8.482431E-2,-2.1098021E-2,4.0529335E-1,1.7202209E-4,-1.5073891E-2,-6.4912313E-3,2.4699828E-2,-3.2903205E-3,-4.5216154E-2,4.9646595E-3,2.0748908E-2,1.0006727E-2,-8.528075E-3,1.5057491E-2,3.1785335E-2],"categories":[],"categories_nodes":[],"categories_segments":[],"categories_sizes":[],"default_left":[0,0,0,0,0,0,0,0,0,0,0,0,0,0,0,0,0,0,0,0,0,0,0,0,0,0,0],"id":2,"left_children":[1,3,5,7,9,11,13,15,17,-1,19,21,23,-1,25,-1,-1,-1,-1,-1,-1,-1,-1,-1,-1,-1,-1],"loss_changes":[1.7273738E2,9.211017E1,3.5879086E1,3.1867123E1,7.1619415E0,2.0327316E1,1.4705704E1,1.6619453E1,2.0087831E1,0E0,1.0386997E1,1.8860748E1,1.2613784E1,0E0,1.16259E1,0E0,0E0,0E0,0E0,0E0,0E0,0E0,0E0,0E0,0E0,0E0,0E0],"parents":[2147483647,0,0,1,1,2,2,3,3,4,4,5,5,6,6,7,7,8,8,10,10,11,11,12,12,14,14],"right_children":[2,4,6,8,10,12,14,16,18,-1,20,22,24,-1,26,-1,-1,-1,-1,-1,-1,-1,-1,-1,-1,-1,-1],"split_conditions":[1E0,2.3E2,1.35E2,1.037037E0,3.649635E-1,5E-1,1.8529077E0,1.412E1,2.4516523E0,-6.531193E-2,2.5464685E1,4.4404198E1,6.25E-1,-2.1098021E-2,2.951456E-1,1.7202209E-4,-1.5073891E-2,-6.4912313E-3,2.4699828E-2,-3.2903205E-3,-4.5216154E-2,4.9646595E-3,2.0748908E-2,1.0006727E-2,-8.528075E-3,1.5057491E-2,3.1785335E-2],"split_indices":[230,227,227,399,303,67,347,359,423,0,149,147,87,0,218,0,0,0,0,0,0,0,0,0,0,0,0],"split_type":[0,0,0,0,0,0,0,0,0,0,0,0,0,0,0,0,0,0,0,0,0,0,0,0,0,0,0],"sum_hessian":[4.1992812E3,1.5634279E3,2.6358533E3,1.4112394E3,1.5218842E2,2.079065E3,5.567883E2,1.2149291E3,1.9631038E2,6.0500786E1,9.168762E1,1.5741553E3,5.0490973E2,1.7884434E1,5.389039E2,2.1327988E2,1.0016492E3,9.896489E1,9.73455E1,2.1028E1,7.065962E1,1.3559642E3,2.1819107E2,1.1388725E2,3.9102246E2,3.8058838E2,1.583155E2],"tree_param":{"num_deleted":"0","num_feature":"459","num_nodes":"27","size_leaf_vector":"1"}},{"base_weights":[-8.752545E-3,3.6101413E-1,-1.9752444E-1,5.074235E-1,2.0164837E-1,-2.2217876E-1,1.1016515E0,5.7503253E-1,2.311286E-1,-2.3012814E-1,2.490547E-1,-1.703221E-1,-8.707602E-1,7.735206E-2,-5.982961E-3,3.4116846E-2,1.6291974E-2,2.741736E-2,2.442147E-3,4.5254384E-4,-3.0629361E-2,2.4249372E-3,1.7371912E-2,-9.490583E-3,1.8817678E-2,-3.2074504E-2,-6.423639E-2],"categories":[],"categories_nodes":[],"categories_segments":[],"categories_sizes":[],"default_left":[0,0,0,0,0,0,0,0,0,0,0,0,0,0,0,0,0,0,0,0,0,0,0,0,0,0,0],"id":3,"left_children":[1,3,5,7,9,11,13,15,17,19,21,23,25,-1,-1,-1,-1,-1,-1,-1,-1,-1,-1,-1,-1,-1,-1],"loss_changes":[2.948837E2,3.2437744E1,9.041489E1,1.2736588E1,1.4488541E1,9.1254196E1,3.023835E1,1.413089E1,8.535649E0,6.746663E0,1.2113377E1,2.7475594E1,1.4061523E1,0E0,0E0,0E0,0E0,0E0,0E0,0E0,0E0,0E0,0E0,0E0,0E0,0E0,0E0],"parents":[2147483647,0,0,1,1,2,2,3,3,4,4,5,5,6,6,7,7,8,8,9,9,10,10,11,11,12,12],"right_children":[2,4,6,8,10,12,14,16,18,20,22,24,26,-1,-1,-1,-1,-1,-1,-1,-1,-1,-1,-1,-1,-1,-1],"split_conditions":[1E0,3.6507885E1,2.8333333E0,1.6878518E0,6.3205166E0,1.65E2,4.5E0,1.8583533E0,2.7808988E-1,6.363636E-2,2.8280282E-1,2.3370463E-1,1.7E2,7.735206E-2,-5.982961E-3,3.4116846E-2,1.6291974E-2,2.741736E-2,2.442147E-3,4.5254384E-4,-3.0629361E-2,2.4249372E-3,1.7371912E-2,-9.490583E-3,1.8817678E-2,-3.2074504E-2,-6.423639E-2],"split_indices":[229,135,229,54,251,227,229,363,222,80,218,368,226,0,0,0,0,0,0,0,0,0,0,0,0,0,0],"split_type":[0,0,0,0,0,0,0,0,0,0,0,0,0,0,0,0,0,0,0,0,0,0,0,0,0,0,0],"sum_hessian":[4.2156636E3,1.4223506E3,2.7933132E3,7.339828E2,6.883678E2,2.7457375E3,4.7575768E1,5.8388983E2,1.5009297E2,6.51513E1,6.232165E2,2.5490173E3,1.967201E2,3.4184998E1,1.3390772E1,4.0066364E2,1.8322618E2,5.0108658E1,9.998431E1,4.228304E1,2.2868265E1,2.0923512E2,4.1398135E2,2.4653052E3,8.371212E1,1.3558443E2,6.1135662E1],"tree_param":{"num_deleted":"0","num_feature":"459","num_nodes":"27","size_leaf_vector":"1"}},{"base_weights":[-7.2618495E-3,3.3718252E-1,-1.8506101E-1,5.962151E-2,4.2064038E-1,-1.4279653E-1,-9.380266E-1,-5.9693474E-2,4.1125613E-1,1.3980372E-1,4.624207E-1,-1.6359283E-1,9.8545605E-1,-9.937408E-1,-7.0162015E-3,1.7089253E-2,-9.246897E-3,2.8273419E-2,-8.982741E-3,1.6309949E-2,-8.088074E-3,2.4553493E-2,-1.5668878E-3,-1.835602E-4,-1.1465417E-2,7.026175E-2,-4.045756E-3,-1.1200489E-2,-5.2925427E-2],"categories":[],"categories_nodes":[],"categories_segments":[],"categories_sizes":[],"default_left":[0,0,0,0,0,0,0,0,0,0,0,0,0,0,0,0,0,0,0,0,0,0,0,0,0,0,0,0,0],"id":4,"left_children":[1,3,5,7,9,11,13,15,17,19,21,23,25,27,-1,-1,-1,-1,-1,-1,-1,-1,-1,-1,-1,-1,-1,-1,-1],"loss_changes":[2.5713925E2,3.273622E1,8.697065E1,1.4460607E1,1.2240494E1,6.2108246E1,5.2129517E0,1.3076756E1,8.648299E0,8.81742E0,1.3755432E1,2.7070053E1,2.2663471E1,4.894348E0,0E0,0E0,0E0,0E0,0E0,0E0,0E0,0E0,0E0,0E0,0E0,0E0,0E0,0E0,0E0],"parents":[2147483647,0,0,1,1,2,2,3,3,4,4,5,5,6,6,7,7,8,8,9,9,10,10,11,11,12,12,13,13],"right_children":[2,4,6,8,10,12,14,16,18,20,22,24,26,28,-1,-1,-1,-1,-1,-1,-1,-1,-1,-1,-1,-1,-1,-1,-1],"split_conditions":[1E0,5.959934E-1,2.3E2,1.5454545E0,1.23E1,2.8333333E0,4.6666667E-1,9.78E-1,2.2541302E1,3.1438908E-1,8E-1,-7E-1,4.5E0,1.801E1,-7.0162015E-3,1.7089253E-2,-9.246897E-3,2.8273419E-2,-8.982741E-3,1.6309949E-2,-8.088074E-3,2.4553493E-2,-1.5668878E-3,-1.835602E-4,-1.1465417E-2,7.026175E-2,-4.045756E-3,-1.1200489E-2,-5.2925427E-2],"split_indices":[229,366,227,341,164,229,206,61,348,267,340,157,229,185,0,0,0,0,0,0,0,0,0,0,0,0,0,0,0],"split_type":[0,0,0,0,0,0,0,0,0,0,0,0,0,0,0,0,0,0,0,0,0,0,0,0,0,0,0,0,0],"sum_hessian":[4.189894E3,1.4239769E3,2.765917E3,3.3255176E2,1.0914252E3,2.6251765E3,1.4074068E2,2.5033766E2,8.221411E1,1.4570844E2,9.457167E2,2.5822969E3,4.2879528E1,1.2981818E2,1.09225E1,5.6520603E1,1.9381705E2,6.6040665E1,1.617344E1,9.0821754E1,5.4886684E1,8.948358E2,5.0880848E1,7.558324E2,1.8264645E3,2.9964119E1,1.2915411E1,1.2404955E1,1.1741322E2],"tree_param":{"num_deleted":"0","num_feature":"459","num_nodes":"29","size_leaf_vector":"1"}},{"base_weights":[-1.0150234E-2,3.282676E-1,-1.8379991E-1,4.785111E-1,1.6637328E-1,-1.5145542E-1,-1.1005756E0,4.1936108E-1,8.171159E-1,-3.4611428E-1,2.162423E-1,-1.7931558E-1,7.1000576E-1,-6.1236113E-2,-5.8092517E-1,2.3202239E-2,-5.215974E-3,4.7511872E-2,-1.315515E-3,1.0056125E-2,-3.0455116E-2,5.1223966E-3,2.2088304E-2,-1.5235021E-2,-3.6397073E-3,6.841327E-2,1.1202266E-2,-4.308306E-2,-3.7062566E-3],"categories":[],"categories_nodes":[],"categories_segments":[],"categories_sizes":[],"default_left":[0,0,0,0,0,0,0,0,0,0,0,0,0,0,0,0,0,0,0,0,0,0,0,0,0,0,0,0,0],"id":5,"left_children":[1,3,5,7,9,11,13,15,17,19,21,23,25,-1,27,-1,-1,-1,-1,-1,-1,-1,-1,-1,-1,-1,-1,-1,-1],"loss_changes":[2.4898688E2,3.4215256E1,8.161868E1,1.250325E1,1.8214897E1,6.547385E1,1.6139145E0,1.5446236E1,1.2221054E1,9.906651E0,1.5988903E1,3.4855606E1,2.4997025E1,0E0,3.259737E0,0E0,0E0,0E0,0E0,0E0,0E0,0E0,0E0,0E0,0E0,0E0,0E0,0E0,0E0],"parents":[2147483647,0,0,1,1,2,2,3,3,4,4,5,5,6,6,7,7,8,8,9,9,10,10,11,11,12,12,14,14],"right_children":[2,4,6,8,10,12,14,16,18,20,22,24,26,-1,28,-1,-1,-1,-1,-1,-1,-1,-1,-1,-1,-1,-1,-1,-1],"split_conditions":[1E0,3.6507885E1,1.32E2,3.4946766E1,5.595672E-1,2.5E0,1.9197619E-1,3.4071827E1,1.1483512E1,6E0,2.8571429E-2,4.1851866E-1,1.25E2,-6.1236113E-2,2.42E1,2.3202239E-2,-5.215974E-3,4.7511872E-2,-1.315515E-3,1.0056125E-2,-3.0455116E-2,5.1223966E-3,2.2088304E-2,-1.5235021E-2,-3.6397073E-3,6.841327E-2,1.1202266E-2,-4.308306E-2,-3.7062566E-3],"split_indices":[229,135,226,135,366,229,391,135,184,93,323,152,227,0,180,0,0,0,0,0,0,0,0,0,0,0,0,0,0],"split_type":[0,0,0,0,0,0,0,0,0,0,0,0,0,0,0,0,0,0,0,0,0,0,0,0,0,0,0,0,0],"sum_hessian":[4.2280054E3,1.431293E3,2.7967124E3,7.356851E2,6.956079E2,2.7075593E3,8.915316E1,6.3706665E2,9.861842E1,5.8162495E1,6.3744543E2,2.6271357E3,8.0423454E1,6.570877E1,2.3444391E1,5.883861E2,4.8680588E1,8.514004E1,1.3478386E1,1.8643427E1,3.9519066E1,4.2997687E2,2.0746855E2,1.2002926E3,1.4268431E3,2.9864088E1,5.0559364E1,1.21992035E1,1.1245188E1],"tree_param":{"num_deleted":"0","num_feature":"459","num_nodes":"29","size_leaf_vector":"1"}},{"base_weights":[-1.1201486E-2,3.198702E-1,-1.8066184E-1,6.265699E-2,3.969953E-1,-1.4220026E-1,-8.302431E-1,-1.862679E-1,2.1926138E-1,4.1913608E-1,-6.169743E-2,-1.6249587E-1,9.727447E-1,-7.80499E-3,-9.094019E-1,1.357465E-2,-1.5586428E-2,2.6229525E-2,8.224851E-4,2.844589E-2,1.6270325E-2,1.5395151E-2,-2.9117925E-2,-1.6249958E-2,-5.716944E-3,6.426791E-2,-1.627722E-3,-5.260417E-2,-2.0041551E-2],"categories":[],"categories_nodes":[],"categories_segments":[],"categories_sizes":[],"default_left":[0,0,0,0,0,0,0,0,0,0,0,0,0,0,0,0,0,0,0,0,0,0,0,0,0,0,0,0,0],"id":6,"left_children":[1,3,5,7,9,11,13,15,17,19,21,23,25,-1,27,-1,-1,-1,-1,-1,-1,-1,-1,-1,-1,-1,-1,-1,-1],"loss_changes":[2.350086E2,2.7768707E1,6.8185684E1,1.3258768E1,1.1359573E1,5.9763733E1,6.9334183E0,7.94542E0,1.2617902E1,1.3224533E1,1.1314993E1,1.9799416E1,1.5665298E1,0E0,6.9908676E0,0E0,0E0,0E0,0E0,0E0,0E0,0E0,0E0,0E0,0E0,0E0,0E0,0E0,0E0],"parents":[2147483647,0,0,1,1,2,2,3,3,4,4,5,5,6,6,7,7,8,8,9,9,10,10,11,11,12,12,14,14],"right_children":[2,4,6,8,10,12,14,16,18,20,22,24,26,-1,28,-1,-1,-1,-1,-1,-1,-1,-1,-1,-1,-1,-1,-1,-1],"split_conditions":[1E0,5.959934E-1,2.2E2,3.2098764E-1,1.600074E-2,2.8333333E0,3.460387E-1,1.4583333E-1,3.36924E-1,5.266E0,2.9166666E-1,1.500704E-1,4.5E0,-7.80499E-3,4.06E1,1.357465E-2,-1.5586428E-2,2.6229525E-2,8.224851E-4,2.844589E-2,1.6270325E-2,1.5395151E-2,-2.9117925E-2,-1.6249958E-2,-5.716944E-3,6.426791E-2,-1.627722E-3,-5.260417E-2,-2.0041551E-2],"split_indices":[229,366,227,396,416,229,268,215,250,50,212,368,229,0,154,0,0,0,0,0,0,0,0,0,0,0,0,0,0],"split_type":[0,0,0,0,0,0,0,0,0,0,0,0,0,0,0,0,0,0,0,0,0,0,0,0,0,0,0,0,0],"sum_hessian":[4.1799287E3,1.4126572E3,2.7672715E3,3.2945746E2,1.0831997E3,2.6190618E3,1.4820987E2,1.2562882E2,2.0382863E2,1.0347732E3,4.842652E1,2.576874E3,4.2187695E1,1.7799505E1,1.3041035E2,2.4915596E1,1.0071323E2,7.720288E1,1.2662575E2,3.8648273E2,6.482905E2,2.895508E1,1.9471441E1,5.8012964E2,1.9967444E3,3.1497505E1,1.0690191E1,9.689845E1,3.3511906E1],"tree_param":{"num_deleted":"0","num_feature":"459","num_nodes":"29","size_leaf_vector":"1"}},{"base_weights":[1.7259564E-2,3.2508752E-1,-1.4068912E-1,4.4887754E-1,1.91856E-1,-9.998761E-1,-1.1061926E-1,3.3337498E-1,6.491743E-1,-8.316165E-2,2.903368E-1,-1.6706768E-2,-5.6210365E-2,-1.3184369E-1,5.4765046E-1,1.8419204E-2,-1.3880392E-2,3.607889E-2,1.7093416E-5,8.250455E-3,-1.6066398E-2,-1.2426368E-2,1.6625283E-2,-9.718213E-3,1.7202523E-3,-2.1185153E-3,5.5201918E-2],"categories":[],"categories_nodes":[],"categories_segments":[],"categories_sizes":[],"default_left":[0,0,0,0,0,0,0,0,0,0,0,0,0,0,0,0,0,0,0,0,0,0,0,0,0,0,0],"id":7,"left_children":[1,3,5,7,9,11,13,15,17,19,21,-1,-1,23,25,-1,-1,-1,-1,-1,-1,-1,-1,-1,-1,-1,-1],"loss_changes":[2.0480624E2,2.281337E1,7.076459E1,1.5429535E1,1.9151144E1,5.0809937E0,3.7792656E1,1.078125E1,1.1943344E1,1.1384663E1,1.2203419E1,0E0,0E0,2.7290085E1,2.8466478E1,0E0,0E0,0E0,0E0,0E0,0E0,0E0,0E0,0E0,0E0,0E0,0E0],"parents":[2147483647,0,0,1,1,2,2,3,3,4,4,5,5,6,6,7,7,8,8,9,9,10,10,13,13,14,14],"right_children":[2,4,6,8,10,12,14,16,18,20,22,-1,-1,24,26,-1,-1,-1,-1,-1,-1,-1,-1,-1,-1,-1,-1],"split_conditions":[1E0,3.6507885E1,4.347826E-1,3.2142067E-1,2.7882197E-1,6.998051E-1,2.5E0,2.7461538E-1,2.9004424E0,6.2E1,1.6610462E1,-1.6706768E-2,-5.6210365E-2,4.8107266E-1,6.503497E-1,1.8419204E-2,-1.3880392E-2,3.607889E-2,1.7093416E-5,8.250455E-3,-1.6066398E-2,-1.2426368E-2,1.6625283E-2,-9.718213E-3,1.7202523E-3,-2.1185153E-3,5.5201918E-2],"split_indices":[229,135,303,153,218,224,229,333,253,105,433,0,0,250,303,0,0,0,0,0,0,0,0,0,0,0,0],"split_type":[0,0,0,0,0,0,0,0,0,0,0,0,0,0,0,0,0,0,0,0,0,0,0,0,0,0,0],"sum_hessian":[4.200699E3,1.4237709E3,2.7769282E3,7.2995013E2,6.938207E2,8.788552E1,2.6890427E3,4.7300607E2,2.569441E2,1.8180693E2,5.1201373E2,1.736455E1,7.052097E1,2.6096582E3,7.938443E1,4.5002353E2,2.2982527E1,2.299524E2,2.6991692E1,8.8757515E1,9.304941E1,3.4523403E1,4.7749036E2,1.8980334E3,7.116249E2,4.0333454E1,3.9050976E1],"tree_param":{"num_deleted":"0","num_feature":"459","num_nodes":"27","size_leaf_vector":"1"}},{"base_weights":[6.3950936E-3,2.85437E-1,-1.3714169E-1,3.1855416E-2,3.6584097E-1,-1.0808953E-1,-1.0158545E0,1.5262808E-1,-2.648779E-1,3.7911782E-1,-2.4868807E-2,-1.2949243E-1,5.9155256E-1,-1.9088546E-2,-5.4593097E-2,1.8222151E-2,-6.6736243E-3,-2.5560334E-2,3.962186E-3,1.3721523E-2,2.5308771E-2,-7.802476E-3,1.0385643E-2,-1.7839188E-2,3.9949503E-2],"categories":[],"categories_nodes":[],"categories_segments":[],"categories_sizes":[],"default_left":[0,0,0,0,0,0,0,0,0,0,0,0,0,0,0,0,0,0,0,0,0,0,0,0,0],"id":8,"left_children":[1,3,5,7,9,11,13,15,17,19,-1,21,23,-1,-1,-1,-1,-1,-1,-1,-1,-1,-1,-1,-1],"loss_changes":[1.6837328E2,2.8866722E1,6.969577E1,1.271956E1,1.3290726E1,4.044824E1,1.4018936E0,1.5734804E1,9.075075E0,1.314183E1,0E0,2.3562408E1,1.740028E1,0E0,0E0,0E0,0E0,0E0,0E0,0E0,0E0,0E0,0E0,0E0,0E0],"parents":[2147483647,0,0,1,1,2,2,3,3,4,4,5,5,6,6,7,7,8,8,9,9,11,11,12,12],"right_children":[2,4,6,8,10,12,14,16,18,20,-1,22,24,-1,-1,-1,-1,-1,-1,-1,-1,-1,-1,-1,-1],"split_conditions":[1E0,5.9775716E-1,1.32E2,2.0020833E0,1.3214285E0,2.5E0,7.777778E-1,5.357277E-1,8.124769E-2,4.9E-1,-2.4868807E-2,2.1990246E-1,6E0,-1.9088546E-2,-5.4593097E-2,1.8222151E-2,-6.6736243E-3,-2.5560334E-2,3.962186E-3,1.3721523E-2,2.5308771E-2,-7.802476E-3,1.0385643E-2,-1.7839188E-2,3.9949503E-2],"split_indices":[229,366,226,2,340,229,2,372,353,393,0,368,85,0,0,0,0,0,0,0,0,0,0,0,0],"split_type":[0,0,0,0,0,0,0,0,0,0,0,0,0,0,0,0,0,0,0,0,0,0,0,0,0],"sum_hessian":[4.1920474E3,1.4234119E3,2.7686357E3,3.458511E2,1.0775608E3,2.6860142E3,8.2621414E1,2.4872955E2,9.712157E1,1.0645702E3,1.2990531E1,2.610932E3,7.508236E1,1.2771239E1,6.985018E1,1.4313664E2,1.055929E2,5.6035534E1,4.108603E1,5.944862E2,4.7008405E2,2.424181E3,1.8675096E2,1.2397033E1,6.268533E1],"tree_param":{"num_deleted":"0","num_feature":"459","num_nodes":"25","size_leaf_vector":"1"}},{"base_weights":[-0E0,2.7436635E-1,-1.4193581E-1,1.0816702E-2,3.383447E-1,-1.0636955E-1,-7.4765295E-1,-7.317382E-2,4.9274936E-1,1.2632707E-1,4.0693685E-1,-1.2370079E-1,8.815067E-1,-8.116118E-1,-0E0,-7.6716947E-3,1.9130792E-2,3.868867E-2,-5.0170836E-3,-1.2558451E-3,2.3062607E-2,3.8458478E-2,1.7906005E-2,-8.85996E-3,1.5803755E-3,5.9048068E-2,-0E0,-0E0,-4.3899503E-2],"categories":[],"categories_nodes":[],"categories_segments":[],"categories_sizes":[],"default_left":[0,0,0,0,0,0,0,0,0,0,0,0,0,0,0,0,0,0,0,0,0,0,0,0,0,0,0,0,0],"id":9,"left_children":[1,3,5,7,9,11,13,15,17,19,21,23,25,27,-1,-1,-1,-1,-1,-1,-1,-1,-1,-1,-1,-1,-1,-1,-1],"loss_changes":[1.6317561E2,2.3891136E1,5.868979E1,1.1954587E1,1.616623E1,4.495465E1,7.545288E0,9.20616E0,8.047152E0,1.4963301E1,1.3320984E1,2.1502052E1,1.2304146E1,7.6032867E0,0E0,0E0,0E0,0E0,0E0,0E0,0E0,0E0,0E0,0E0,0E0,0E0,0E0,0E0,0E0],"parents":[2147483647,0,0,1,1,2,2,3,3,4,4,5,5,6,6,7,7,8,8,9,9,10,10,11,11,12,12,13,13],"right_children":[2,4,6,8,10,12,14,16,18,20,22,24,26,28,-1,-1,-1,-1,-1,-1,-1,-1,-1,-1,-1,-1,-1,-1,-1],"split_conditions":[1E0,8.7310724E-2,2.2E2,1.125E0,2.7415198E-1,2.8333333E0,1.0092683E1,8.89E1,7.027027E1,3.5444763E1,-5.3635707E0,1.5514821E-1,4.5E0,1.61E1,-0E0,-7.6716947E-3,1.9130792E-2,3.868867E-2,-5.0170836E-3,-1.2558451E-3,2.3062607E-2,3.8458478E-2,1.7906005E-2,-8.85996E-3,1.5803755E-3,5.9048068E-2,-0E0,-0E0,-4.3899503E-2],"split_indices":[229,370,227,339,218,229,146,178,217,133,363,369,229,162,0,0,0,0,0,0,0,0,0,0,0,0,0,0,0],"split_type":[0,0,0,0,0,0,0,0,0,0,0,0,0,0,0,0,0,0,0,0,0,0,0,0,0,0,0,0,0],"sum_hessian":[4.180922E3,1.4233451E3,2.7575767E3,2.807004E2,1.1426447E3,2.6109702E3,1.466064E2,2.4176866E2,3.8931747E1,2.8456265E2,8.58082E2,2.5707493E3,4.0221027E1,1.351079E2,1.1498508E1,2.093228E2,3.2445854E1,2.5953861E1,1.2977887E1,1.9811336E2,8.644929E1,9.192824E1,7.6615375E2,1.9139674E3,6.567818E2,2.9017607E1,1.1203421E1,1.0520902E1,1.2458699E2],"tree_param":{"num_deleted":"0","num_feature":"459","num_nodes":"29","size_leaf_vector":"1"}},{"base_weights":[4.539938E-3,2.6535445E-1,-1.3100867E-1,3.843922E-1,1.3847499E-1,-9.461177E-2,-7.4574953E-1,-1.6660692E-2,4.065188E-1,-1.593734E-1,2.0973167E-1,-1.1684682E-1,6.839225E-1,2.6271825E-3,-8.1641954E-1,3.983834E-2,1.8019307E-2,-2.3115722E-2,3.4248084E-3,6.965413E-3,2.5509665E-2,-9.142852E-3,1.4389232E-3,-9.6084615E-3,4.5443125E-2,-9.504206E-3,-4.683521E-2],"categories":[],"categories_nodes":[],"categories_segments":[],"categories_sizes":[],"default_left":[0,0,0,0,0,0,0,0,0,0,0,0,0,0,0,0,0,0,0,0,0,0,0,0,0,0,0],"id":10,"left_children":[1,3,5,7,9,11,13,-1,15,17,19,21,23,-1,25,-1,-1,-1,-1,-1,-1,-1,-1,-1,-1,-1,-1],"loss_changes":[1.4769441E2,2.1059425E1,6.0681442E1,1.2345932E1,1.5084944E1,4.511658E1,9.17347E0,0E0,1.0832642E1,9.80913E0,1.1375471E1,2.4445599E1,1.54772415E1,0E0,9.134949E0,0E0,0E0,0E0,0E0,0E0,0E0,0E0,0E0,0E0,0E0,0E0,0E0],"parents":[2147483647,0,0,1,1,2,2,3,3,4,4,5,5,6,6,8,8,9,9,10,10,11,11,12,12,14,14],"right_children":[2,4,6,8,10,12,14,-1,16,18,20,22,24,-1,26,-1,-1,-1,-1,-1,-1,-1,-1,-1,-1,-1,-1],"split_conditions":[1E0,3.6507885E1,-1.38E2,4.152E-1,-2.1430809E-2,2.5E0,1.61E1,-1.6660692E-2,2.257325E0,2.8427312E-1,4.3348676E-1,1.5129253E-1,6E0,2.6271825E-3,8.75E-1,3.983834E-2,1.8019307E-2,-2.3115722E-2,3.4248084E-3,6.965413E-3,2.5509665E-2,-9.142852E-3,1.4389232E-3,-9.6084615E-3,4.5443125E-2,-9.504206E-3,-4.683521E-2],"split_indices":[229,135,226,245,409,229,162,0,144,218,270,369,0,0,106,0,0,0,0,0,0,0,0,0,0,0,0],"split_type":[0,0,0,0,0,0,0,0,0,0,0,0,0,0,0,0,0,0,0,0,0,0,0,0,0,0,0],"sum_hessian":[4.1658833E3,1.4242765E3,2.741607E3,7.2757764E2,6.9669885E2,2.594573E3,1.4703375E2,1.898438E1,7.0859326E2,1.3195122E2,5.647476E2,2.5272852E3,6.728781E1,1.148669E1,1.3554707E2,6.516353E1,6.4342975E2,5.53784E1,7.657282E1,4.647905E2,9.995713E1,1.7404946E3,7.867906E2,1.344155E1,5.3846264E1,2.4585571E1,1.109615E2],"tree_param":{"num_deleted":"0","num_feature":"459","num_nodes":"27","size_leaf_vector":"1"}},{"base_weights":[-8.505593E-3,2.5573882E-1,-1.4679934E-1,1.5025282E-1,3.7841886E-1,-1.21106066E-1,-9.092858E-1,2.2070344E-1,-6.375128E-2,4.314036E-1,6.542458E-2,-1.375663E-1,7.291591E-1,-9.776994E-1,-1.3653407E-2,1.5749358E-2,2.0120086E-3,-1.07002165E-2,1.5547218E-2,2.3064597E-2,-1.1525996E-2,1.4177859E-2,-1.8302416E-2,-2.31115E-2,-5.2194004E-3,5.8697946E-2,-1.4060696E-2,-1.6818022E-2,-5.2208353E-2],"categories":[],"categories_nodes":[],"categories_segments":[],"categories_sizes":[],"default_left":[0,0,0,0,0,0,0,0,0,0,0,0,0,0,0,0,0,0,0,0,0,0,0,0,0,0,0,0,0],"id":11,"left_children":[1,3,5,7,9,11,13,15,17,19,21,23,25,27,-1,-1,-1,-1,-1,-1,-1,-1,-1,-1,-1,-1,-1,-1,-1],"loss_changes":[1.5212073E2,1.7950043E1,5.250795E1,1.1894705E1,1.0479309E1,3.7320576E1,1.8587723E0,9.780689E0,1.1266754E1,1.16912E1,1.0091315E1,2.7550152E1,2.4828249E1,8.179474E-1,0E0,0E0,0E0,0E0,0E0,0E0,0E0,0E0,0E0,0E0,0E0,0E0,0E0,0E0,0E0],"parents":[2147483647,0,0,1,1,2,2,3,3,4,4,5,5,6,6,7,7,8,8,9,9,10,10,11,11,12,12,13,13],"right_children":[2,4,6,8,10,12,14,16,18,20,22,24,26,28,-1,-1,-1,-1,-1,-1,-1,-1,-1,-1,-1,-1,-1,-1,-1],"split_conditions":[1E0,3.5E0,1.32E2,6E-1,2.3333333E-2,2.8333333E0,4.1100544E-1,3.75E-1,4.375E-1,2.1513515E0,3.5E-2,1.1485828E-1,4.5E0,2.0689656E-1,-1.3653407E-2,1.5749358E-2,2.0120086E-3,-1.07002165E-2,1.5547218E-2,2.3064597E-2,-1.1525996E-2,1.4177859E-2,-1.8302416E-2,-2.31115E-2,-5.2194004E-3,5.8697946E-2,-1.4060696E-2,-1.6818022E-2,-5.2208353E-2],"split_indices":[229,15,226,157,334,229,374,342,32,371,333,369,229,221,0,0,0,0,0,0,0,0,0,0,0,0,0,0,0],"split_type":[0,0,0,0,0,0,0,0,0,0,0,0,0,0,0,0,0,0,0,0,0,0,0,0,0,0,0,0,0],"sum_hessian":[4.154101E3,1.4244587E3,2.7296423E3,7.7407367E2,6.503851E2,2.6469006E3,8.274189E1,5.839996E2,1.9007408E2,5.5324146E2,9.71436E1,2.6013208E3,4.55797E1,7.1575645E1,1.1166241E1,3.79323E2,2.0467657E2,1.3815327E2,5.1920795E1,5.315126E2,2.1728899E1,6.643172E1,3.0711882E1,2.3379623E2,2.3675247E3,3.142896E1,1.4150739E1,1.02734375E1,6.1302208E1],"tree_param":{"num_deleted":"0","num_feature":"459","num_nodes":"29","size_leaf_vector":"1"}},{"base_weights":[-9.546709E-4,2.2095464E-1,-1.1643207E-1,2.661524E-2,2.964665E-1,-8.410321E-2,-7.243507E-1,-4.5176446E-1,1.0947677E-1,6.15065E-2,3.581282E-1,-1.0426567E-1,5.8301187E-1,-6.356438E-3,-8.099899E-1,-4.4345155E-2,7.854066E-4,-1.041534E-2,1.0509936E-2,-2.5864173E-2,8.629582E-3,1.5248318E-2,3.272231E-2,-3.6357522E-3,-1.7679634E-2,5.6369927E-2,7.835387E-3,-4.401832E-2,-3.5469297E-3],"categories":[],"categories_nodes":[],"categories_segments":[],"categories_sizes":[],"default_left":[0,0,0,0,0,0,0,0,0,0,0,0,0,0,0,0,0,0,0,0,0,0,0,0,0,0,0,0,0],"id":12,"left_children":[1,3,5,7,9,11,13,15,17,19,21,23,25,-1,27,-1,-1,-1,-1,-1,-1,-1,-1,-1,-1,-1,-1,-1,-1],"loss_changes":[1.0716247E2,2.0792244E1,5.3403316E1,1.6235247E1,1.457225E1,3.531536E1,6.0537033E0,1.2765173E1,1.149889E1,1.4509062E1,1.130571E1,1.9708454E1,1.6324583E1,0E0,5.384392E0,0E0,0E0,0E0,0E0,0E0,0E0,0E0,0E0,0E0,0E0,0E0,0E0,0E0,0E0],"parents":[2147483647,0,0,1,1,2,2,3,3,4,4,5,5,6,6,7,7,8,8,9,9,10,10,11,11,12,12,14,14],"right_children":[2,4,6,8,10,12,14,16,18,20,22,24,26,-1,28,-1,-1,-1,-1,-1,-1,-1,-1,-1,-1,-1,-1,-1,-1],"split_conditions":[1E0,3.0483186E-1,2.3E2,3.0561E1,2.7415198E-1,2.5E0,2.7314815E-1,7.4E1,5.4648E0,1.8888889E-1,8.88E1,4.663299E1,1.25E2,-6.356438E-3,7.6660748E0,-4.4345155E-2,7.854066E-4,-1.041534E-2,1.0509936E-2,-2.5864173E-2,8.629582E-3,1.5248318E-2,3.272231E-2,-3.6357522E-3,-1.7679634E-2,5.6369927E-2,7.835387E-3,-4.401832E-2,-3.5469297E-3],"split_indices":[229,153,227,133,218,229,222,105,258,399,178,134,227,0,425,0,0,0,0,0,0,0,0,0,0,0,0,0,0],"split_type":[0,0,0,0,0,0,0,0,0,0,0,0,0,0,0,0,0,0,0,0,0,0,0,0,0,0,0,0,0],"sum_hessian":[4.173886E3,1.4255514E3,2.7483345E3,4.0265387E2,1.0228975E3,2.6157446E3,1.3258998E2,5.527035E1,3.473835E2,2.1640169E2,8.0649585E2,2.5438296E3,7.191502E1,1.8918556E1,1.1367143E2,2.6855661E1,2.841469E1,8.11249E1,2.662586E2,3.1176691E1,1.85225E2,6.938474E2,1.1264846E2,2.2655974E3,2.782322E2,2.7456944E1,4.4458076E1,1.0229751E2,1.137392E1],"tree_param":{"num_deleted":"0","num_feature":"459","num_nodes":"29","size_leaf_vector":"1"}},{"base_weights":[-1.959325E-4,2.3377323E-1,-1.2287591E-1,-2.6458537E-3,3.0622345E-1,-9.9555425E-2,-8.633093E-1,-1.1005435E-1,2.8415552E-1,3.683395E-1,1.1804498E-1,-1.1612218E-1,7.9306185E-1,-4.2039916E-1,-1.0287182E0,4.184381E-3,-1.7131336E-2,2.2575492E-2,-1.1125209E-2,2.8800217E-2,1.4572501E-2,8.4118275E-3,-2.4304776E-2,-1.0925948E-2,-1.3886916E-3,5.9862603E-2,-6.0016136E-3,-3.648283E-2,-2.758585E-3,-5.6136884E-2,-2.016547E-2],"categories":[],"categories_nodes":[],"categories_segments":[],"categories_sizes":[],"default_left":[0,0,0,0,0,0,0,0,0,0,0,0,0,0,0,0,0,0,0,0,0,0,0,0,0,0,0,0,0,0,0],"id":13,"left_children":[1,3,5,7,9,11,13,15,17,19,21,23,25,27,29,-1,-1,-1,-1,-1,-1,-1,-1,-1,-1,-1,-1,-1,-1,-1,-1],"loss_changes":[1.2015777E2,2.4807854E1,4.655472E1,1.0571706E1,1.2435738E1,3.962406E1,3.166542E0,1.166884E1,8.504124E0,1.1902E1,8.8362465E0,2.3616436E1,1.9253916E1,2.9918747E0,2.588997E-1,0E0,0E0,0E0,0E0,0E0,0E0,0E0,0E0,0E0,0E0,0E0,0E0,0E0,0E0,0E0,0E0],"parents":[2147483647,0,0,1,1,2,2,3,3,4,4,5,5,6,6,7,7,8,8,9,9,10,10,11,11,12,12,13,13,14,14],"right_children":[2,4,6,8,10,12,14,16,18,20,22,24,26,28,30,-1,-1,-1,-1,-1,-1,-1,-1,-1,-1,-1,-1,-1,-1,-1,-1],"split_conditions":[1E0,8.8637084E-2,1.32E2,7.3880595E-1,6.7291176E-1,2.8333333E0,2.448409E-1,-1.04528464E-1,3.0769232E-1,3E0,8E-1,2.1578383E0,4.5E0,-6.067642E-3,2.3111111E-1,4.184381E-3,-1.7131336E-2,2.2575492E-2,-1.1125209E-2,2.8800217E-2,1.4572501E-2,8.4118275E-3,-2.4304776E-2,-1.0925948E-2,-1.3886916E-3,5.9862603E-2,-6.0016136E-3,-3.648283E-2,-2.758585E-3,-5.6136884E-2,-2.016547E-2],"split_indices":[229,370,226,224,372,229,137,68,328,189,340,421,229,410,80,0,0,0,0,0,0,0,0,0,0,0,0,0,0,0,0],"split_type":[0,0,0,0,0,0,0,0,0,0,0,0,0,0,0,0,0,0,0,0,0,0,0,0,0,0,0,0,0,0,0],"sum_hessian":[4.178124E3,1.4342294E3,2.7438945E3,3.3593256E2,1.0982968E3,2.666266E3,7.762841E1,2.4791275E2,8.8019806E1,8.201338E2,2.7816296E2,2.622503E3,4.376331E1,2.6744965E1,5.088345E1,1.3582016E2,1.120926E2,6.7315865E1,2.0703941E1,2.1108133E2,6.090525E2,2.6092108E2,1.7241882E1,1.2086439E3,1.4138589E3,2.9636147E1,1.4127163E1,1.1039314E1,1.570565E1,4.0082264E1,1.0801183E1],"tree_param":{"num_deleted":"0","num_feature":"459","num_nodes":"31","size_leaf_vector":"1"}},{"base_weights":[-3.932604E-3,1.0807399E-2,-9.3895215E-1,-1.0923607E-1,7.8325495E-2,-1.057163E-2,-5.2134793E-2,-1.7285742E-1,2.3002669E-1,1.2099854E-1,-1.3309377E-1,1.6768046E-3,-1.1748656E-2,2.7901784E-2,-0E0,3.2626528E-3,1.1194283E-2,7.514839E-3,-1.1469631E-2],"categories":[],"categories_nodes":[],"categories_segments":[],"categories_sizes":[],"default_left":[0,0,0,0,0,0,0,0,0,0,0,0,0,0,0,0,0,0,0],"id":14,"left_children":[1,3,5,7,9,-1,-1,11,13,15,17,-1,-1,-1,-1,-1,-1,-1,-1],"loss_changes":[5.8036293E1,3.336568E1,3.2034683E0,3.2117317E1,2.38756E1,0E0,0E0,1.6171478E1,1.7426575E1,1.2398613E1,1.2314365E1,0E0,0E0,0E0,0E0,0E0,0E0,0E0,0E0],"parents":[2147483647,0,0,1,1,2,2,3,3,4,4,7,7,8,8,9,9,10,10],"right_children":[2,4,6,8,10,-1,-1,12,14,16,18,-1,-1,-1,-1,-1,-1,-1,-1],"split_conditions":[1.7E2,1E0,-2.8846154E-1,1.25E1,9.2719483E-1,-1.057163E-2,-5.2134793E-2,4.6E2,1.15E2,8.3E0,2.1212122E-1,1.6768046E-3,-1.1748656E-2,2.7901784E-2,-0E0,3.2626528E-3,1.1194283E-2,7.514839E-3,-1.1469631E-2],"split_indices":[226,230,440,72,371,0,0,228,227,66,196,0,0,0,0,0,0,0,0],"split_type":[0,0,0,0,0,0,0,0,0,0,0,0,0,0,0,0,0,0,0],"sum_hessian":[4.16861E3,4.1082534E3,6.03566E1,1.4751042E3,2.633149E3,1.0029917E1,5.0326687E1,1.2454697E3,2.2963452E2,2.194677E3,4.3847205E2,2.8679126E2,9.5867847E2,9.082933E1,1.3880519E2,1.4318916E3,7.627854E2,1.0917967E2,3.292924E2],"tree_param":{"num_deleted":"0","num_feature":"459","num_nodes":"19","size_leaf_vector":"1"}},{"base_weights":[1.2893334E-2,2.2411166E-1,-9.609435E-2,1.459164E-1,3.645191E-1,-7.597153E-2,-8.223648E-1,-3.832296E-1,1.7394273E-1,3.964947E-1,-2.3625891E-1,-4.927799E-2,-4.3839705E-1,-9.111947E-3,-9.059993E-1,4.8655807E-3,-3.667927E-2,9.9738585E-3,-1.5886737E-2,1.6622024E-2,4.1612133E-2,1.2921619E-2,-3.7947074E-2,-3.09386E-3,3.7215274E-2,-4.040332E-2,-1.382704E-2,-1.76491E-2,-5.0181385E-2],"categories":[],"categories_nodes":[],"categories_segments":[],"categories_sizes":[],"default_left":[0,0,0,0,0,0,0,0,0,0,0,0,0,0,0,0,0,0,0,0,0,0,0,0,0,0,0,0,0],"id":15,"left_children":[1,3,5,7,9,11,13,15,17,19,21,23,25,-1,27,-1,-1,-1,-1,-1,-1,-1,-1,-1,-1,-1,-1,-1,-1],"loss_changes":[9.5881516E1,1.5049408E1,3.9347614E1,1.3894823E1,1.0185661E1,2.5543133E1,2.5284424E0,8.590864E0,1.1299681E1,1.1403198E1,8.391732E0,2.4884834E1,9.212059E0,0E0,9.21978E-1,0E0,0E0,0E0,0E0,0E0,0E0,0E0,0E0,0E0,0E0,0E0,0E0,0E0,0E0],"parents":[2147483647,0,0,1,1,2,2,3,3,4,4,5,5,6,6,7,7,8,8,9,9,10,10,11,11,12,12,14,14],"right_children":[2,4,6,8,10,12,14,16,18,20,22,24,26,-1,28,-1,-1,-1,-1,-1,-1,-1,-1,-1,-1,-1,-1,-1,-1],"split_conditions":[1E0,3.859E0,3.8E2,1.9315703E-1,1.4166666E0,5.1672886E1,1.5384616E-1,6.25E-1,2.7333334E-1,4.05652E-1,3.2332562E-2,2.8333333E0,-7.099567E-1,-9.111947E-3,-4.5454547E-1,4.8655807E-3,-3.667927E-2,9.9738585E-3,-1.5886737E-2,1.6622024E-2,4.1612133E-2,1.2921619E-2,-3.7947074E-2,-3.09386E-3,3.7215274E-2,-4.040332E-2,-1.382704E-2,-1.76491E-2,-5.0181385E-2],"split_indices":[229,109,227,137,36,135,32,38,323,422,198,229,83,0,340,0,0,0,0,0,0,0,0,0,0,0,0,0,0],"split_type":[0,0,0,0,0,0,0,0,0,0,0,0,0,0,0,0,0,0,0,0,0,0,0,0,0,0,0,0,0],"sum_hessian":[4.152646E3,1.4131891E3,2.7394568E3,9.1652057E2,4.966685E2,2.671645E3,6.781194E1,4.2016956E1,8.745036E2,4.7397424E2,2.2694235E1,2.4949456E3,1.7669948E2,1.036363E1,5.7448315E1,1.8637815E1,2.337914E1,8.351214E2,3.938221E1,4.2191544E2,5.2058815E1,1.2466539E1,1.0227695E1,2.461112E3,3.3833294E1,4.6787712E1,1.2991177E2,1.2851289E1,4.4597027E1],"tree_param":{"num_deleted":"0","num_feature":"459","num_nodes":"29","size_leaf_vector":"1"}},{"base_weights":[3.3998287E-3,2.0418882E-1,-1.00334175E-1,1.425571E-1,3.8875523E-1,-7.9600915E-2,-8.606811E-1,5.4159254E-2,2.9440942E-1,-1.8449552E-1,4.5222515E-1,-9.306726E-2,6.365634E-1,-4.682565E-2,-1.7637433E-2,-1.8501411E-3,1.0266759E-2,-0E0,1.9798735E-2,-2.7873555E-2,1.7615436E-2,2.5568804E-2,-1.5443622E-3,-6.880302E-3,4.449244E-3,5.405104E-2,-1.6076578E-2],"categories":[],"categories_nodes":[],"categories_segments":[],"categories_sizes":[],"default_left":[0,0,0,0,0,0,0,0,0,0,0,0,0,0,0,0,0,0,0,0,0,0,0,0,0,0,0],"id":16,"left_children":[1,3,5,7,9,11,13,15,17,19,21,23,25,-1,-1,-1,-1,-1,-1,-1,-1,-1,-1,-1,-1,-1,-1],"loss_changes":[8.658172E1,1.5573269E1,4.234527E1,1.4136353E1,1.3276051E1,2.5785372E1,4.5837402E-1,9.573479E0,1.1877033E1,8.618465E0,9.381172E0,2.1385439E1,2.3090883E1,0E0,0E0,0E0,0E0,0E0,0E0,0E0,0E0,0E0,0E0,0E0,0E0,0E0,0E0],"parents":[2147483647,0,0,1,1,2,2,3,3,4,4,5,5,6,6,7,7,8,8,9,9,10,10,11,11,12,12],"right_children":[2,4,6,8,10,12,14,16,18,20,22,24,26,-1,-1,-1,-1,-1,-1,-1,-1,-1,-1,-1,-1,-1,-1],"split_conditions":[1E0,6.16E1,3.8E2,1.3146105E-1,-3.6128692E-2,2.8333333E0,6.655052E1,8.333333E-1,2.34E1,1.4285714E-2,1.1537242E1,9.181567E1,4.5E0,-4.682565E-2,-1.7637433E-2,-1.8501411E-3,1.0266759E-2,-0E0,1.9798735E-2,-2.7873555E-2,1.7615436E-2,2.5568804E-2,-1.5443622E-3,-6.880302E-3,4.449244E-3,5.405104E-2,-1.6076578E-2],"split_indices":[229,179,227,369,409,229,216,5,177,441,184,131,229,0,0,0,0,0,0,0,0,0,0,0,0,0,0],"split_type":[0,0,0,0,0,0,0,0,0,0,0,0,0,0,0,0,0,0,0,0,0,0,0,0,0,0,0],"sum_hessian":[4.1444473E3,1.4117745E3,2.7326726E3,1.0670339E3,3.447405E2,2.6661526E3,6.652002E1,6.8079724E2,3.8623676E2,3.262894E1,3.1211157E2,2.6219001E3,4.4252304E1,5.335162E1,1.31684E1,4.2498914E2,2.5580809E2,9.921244E1,2.8702432E2,1.9688301E1,1.294064E1,2.7872742E2,3.338415E1,2.109726E3,5.1217413E2,3.014738E1,1.4104923E1],"tree_param":{"num_deleted":"0","num_feature":"459","num_nodes":"27","size_leaf_vector":"1"}},{"base_weights":[-1.1450319E-3,1.9289187E-1,-1.0248728E-1,2.1406771E-1,-2.3605286E-1,-8.10448E-2,-8.721722E-1,1.5078107E-1,3.7394E-1,2.913388E-1,-5.204419E-1,-2.0205554E-1,-2.311066E-3,-1.2638084E-2,-4.8585437E-2,4.5726537E-3,1.9030724E-2,1.213478E-2,3.119789E-2,3.2431435E-2,-5.729837E-3,-3.8682103E-2,4.1385135E-3,-2.0642161E-2,-7.0860568E-3,-1.739731E-3,2.4321064E-2],"categories":[],"categories_nodes":[],"categories_segments":[],"categories_sizes":[],"default_left":[0,0,0,0,0,0,0,0,0,0,0,0,0,0,0,0,0,0,0,0,0,0,0,0,0,0,0],"id":17,"left_children":[1,3,5,7,9,11,13,15,17,19,21,23,25,-1,-1,-1,-1,-1,-1,-1,-1,-1,-1,-1,-1,-1,-1],"loss_changes":[8.147951E1,1.3146519E1,4.4144936E1,1.319186E1,1.1087364E1,2.5214071E1,2.6429482E0,1.2996777E1,1.1258789E1,4.474698E0,7.7915926E0,1.271904E1,2.5537529E1,0E0,0E0,0E0,0E0,0E0,0E0,0E0,0E0,0E0,0E0,0E0,0E0,0E0,0E0],"parents":[2147483647,0,0,1,1,2,2,3,3,4,4,5,5,6,6,7,7,8,8,9,9,10,10,11,11,12,12],"right_children":[2,4,6,8,10,12,14,16,18,20,22,24,26,-1,-1,-1,-1,-1,-1,-1,-1,-1,-1,-1,-1,-1,-1],"split_conditions":[1E0,1.600074E-2,3.8E2,6.44615E-1,4.2123017E0,4.125927E-1,6.998051E-1,8.74E1,2.8571429E-2,4.6902654E-1,4.8076924E-2,2.444489E-1,1.0702231E2,-1.2638084E-2,-4.8585437E-2,4.5726537E-3,1.9030724E-2,1.213478E-2,3.119789E-2,3.2431435E-2,-5.729837E-3,-3.8682103E-2,4.1385135E-3,-2.0642161E-2,-7.0860568E-3,-1.739731E-3,2.4321064E-2],"split_indices":[229,416,227,366,60,152,224,178,323,202,440,137,433,0,0,0,0,0,0,0,0,0,0,0,0,0,0],"split_type":[0,0,0,0,0,0,0,0,0,0,0,0,0,0,0,0,0,0,0,0,0,0,0,0,0,0,0],"sum_hessian":[4.1358306E3,1.4157284E3,2.7201023E3,1.3526234E3,6.3105015E1,2.6523862E3,6.7716156E1,9.782277E2,3.7439566E2,2.144868E1,4.1656334E1,1.0399069E3,1.6124792E3,1.2520706E1,5.5195454E1,7.848068E2,1.9342093E2,2.5328804E2,1.2110763E2,1.0473073E1,1.0975609E1,2.8929356E1,1.2726976E1,2.2307155E2,8.168353E2,1.5172992E3,9.518006E1],"tree_param":{"num_deleted":"0","num_feature":"459","num_nodes":"27","size_leaf_vector":"1"}},{"base_weights":[6.1855135E-3,-6.802842E-1,2.1866437E-2,-5.1606866E-3,-7.801621E-1,-9.055881E-2,8.3360665E-2,-8.884672E-1,-1.2249376E-2,-1.4417073E-1,2.2541852E-1,1.2746762E-1,-5.430364E-2,-1.7196082E-2,-4.802874E-2,-9.241484E-3,7.922294E-3,3.5993585E-3,2.8466782E-2,4.7921436E-3,1.7614981E-2,3.975735E-3,-9.983315E-3],"categories":[],"categories_nodes":[],"categories_segments":[],"categories_sizes":[],"default_left":[0,0,0,0,0,0,0,0,0,0,0,0,0,0,0,0,0,0,0,0,0,0,0],"id":18,"left_children":[1,3,5,-1,7,9,11,13,-1,15,17,19,21,-1,-1,-1,-1,-1,-1,-1,-1,-1,-1],"loss_changes":[4.480625E1,4.5118866E0,2.836679E1,0E0,2.8496704E0,2.4660416E1,1.6189898E1,1.2872696E-1,0E0,1.5451412E1,1.0593645E1,1.393224E1,1.2684184E1,0E0,0E0,0E0,0E0,0E0,0E0,0E0,0E0,0E0,0E0],"parents":[2147483647,0,0,1,1,2,2,4,4,5,5,6,6,7,7,9,9,10,10,11,11,12,12],"right_children":[2,4,6,-1,8,10,12,14,-1,16,18,20,22,-1,-1,-1,-1,-1,-1,-1,-1,-1,-1],"split_conditions":[4.587156E-1,-4.8351648E-1,1E0,-5.1606866E-3,2.9946437E-1,1.037037E0,5E-1,8.125E-1,-1.2249376E-2,-7.625E0,3.96E1,3.0270684E-1,1.2820514E-1,-1.7196082E-2,-4.802874E-2,-9.241484E-3,7.922294E-3,3.5993585E-3,2.8466782E-2,4.7921436E-3,1.7614981E-2,3.975735E-3,-9.983315E-3],"split_indices":[303,340,230,0,218,399,67,2,0,360,173,218,309,0,0,0,0,0,0,0,0,0,0],"split_type":[0,0,0,0,0,0,0,0,0,0,0,0,0,0,0,0,0,0,0,0,0,0,0],"sum_hessian":[4.1810903E3,8.7930336E1,4.0931602E3,1.5212026E1,7.271831E1,1.4435438E3,2.6496165E3,5.695678E1,1.5761531E1,1.2378232E3,2.0572057E2,2.0097158E3,6.399005E2,1.0844286E1,4.611249E1,1.0943826E3,1.4344067E2,1.4744258E2,5.8277985E1,1.7700912E3,2.396247E2,3.3256876E2,3.0733176E2],"tree_param":{"num_deleted":"0","num_feature":"459","num_nodes":"23","size_leaf_vector":"1"}},{"base_weights":[6.1542466E-3,1.7970674E-1,-8.443966E-2,1.1840314E-1,3.6881816E-1,-6.429854E-2,-7.686972E-1,1.7320922E-1,-7.3364705E-2,1.3145426E-1,4.983027E-1,-8.14576E-2,4.900031E-1,-8.843094E-1,-5.9786774E-3,-9.826324E-3,1.0527139E-2,-9.171064E-3,1.1718295E-2,-4.378768E-3,2.3294998E-2,2.8840346E-2,-9.148376E-3,-3.4277604E-3,-3.6239963E-2,3.5224594E-2,-1.5506317E-2,-5.085454E-2,-8.750882E-3],"categories":[],"categories_nodes":[],"categories_segments":[],"categories_sizes":[],"default_left":[0,0,0,0,0,0,0,0,0,0,0,0,0,0,0,0,0,0,0,0,0,0,0,0,0,0,0,0,0],"id":19,"left_children":[1,3,5,7,9,11,13,15,17,19,21,23,25,27,-1,-1,-1,-1,-1,-1,-1,-1,-1,-1,-1,-1,-1,-1,-1],"loss_changes":[6.537885E1,1.6080814E1,3.69388E1,1.1537579E1,9.960068E0,2.526282E1,4.7365913E0,1.1931524E1,8.422252E0,9.909892E0,1.249342E1,2.078693E1,1.4951479E1,4.522175E0,0E0,0E0,0E0,0E0,0E0,0E0,0E0,0E0,0E0,0E0,0E0,0E0,0E0,0E0,0E0],"parents":[2147483647,0,0,1,1,2,2,3,3,4,4,5,5,6,6,7,7,8,8,9,9,10,10,11,11,12,12,13,13],"right_children":[2,4,6,8,10,12,14,16,18,20,22,24,26,28,-1,-1,-1,-1,-1,-1,-1,-1,-1,-1,-1,-1,-1,-1,-1],"split_conditions":[1E0,6.19E1,1.32E2,2.42E1,1.1E1,2.5E0,3.19E-1,1.2457373E0,3.12E1,2.4560377E-1,6.6071427E-1,3.3E3,4.5E0,9.634408E-2,-5.9786774E-3,-9.826324E-3,1.0527139E-2,-9.171064E-3,1.1718295E-2,-4.378768E-3,2.3294998E-2,2.8840346E-2,-9.148376E-3,-3.4277604E-3,-3.6239963E-2,3.5224594E-2,-1.5506317E-2,-5.085454E-2,-8.750882E-3],"split_indices":[229,179,226,166,219,229,163,266,177,151,82,228,229,276,0,0,0,0,0,0,0,0,0,0,0,0,0,0,0],"split_type":[0,0,0,0,0,0,0,0,0,0,0,0,0,0,0,0,0,0,0,0,0,0,0,0,0,0,0,0,0],"sum_hessian":[4.145365E3,1.421936E3,2.7234292E3,1.0819716E3,3.3996448E2,2.6515806E3,7.18487E1,8.4388544E2,2.380861E2,1.24914894E2,2.1504958E2,2.5769746E3,7.460602E1,5.8795155E1,1.3053547E1,7.421165E1,7.6967377E2,1.780522E2,6.0033905E1,7.680849E1,4.810641E1,1.9417499E2,2.0874588E1,2.5324946E3,4.4479866E1,5.979851E1,1.4807506E1,4.710271E1,1.1692446E1],"tree_param":{"num_deleted":"0","num_feature":"459","num_nodes":"29","size_leaf_vector":"1"}},{"base_weights":[2.233983E-3,1.8486993E-1,-9.2810385E-2,3.5377804E-3,2.4010918E-1,-7.3704176E-2,-7.8069085E-1,-6.8589866E-2,3.91784E-1,4.0363598E-1,1.6637272E-1,8.3959654E-2,-1.2885861E-1,-8.5979867E-1,-8.062892E-3,-2.0233583E-2,2.7800065E-3,-7.440768E-3,3.2537345E-2,2.6031384E-2,1.5071882E-3,-5.5312905E-3,1.1608103E-2,2.9589913E-3,4.834193E-2,-8.554868E-3,2.6843303E-3,-4.847858E-2,-1.126943E-2],"categories":[],"categories_nodes":[],"categories_segments":[],"categories_sizes":[],"default_left":[0,0,0,0,0,0,0,0,0,0,0,0,0,0,0,0,0,0,0,0,0,0,0,0,0,0,0,0,0],"id":20,"left_children":[1,3,5,7,9,11,13,15,17,19,21,23,25,27,-1,-1,-1,-1,-1,-1,-1,-1,-1,-1,-1,-1,-1,-1,-1],"loss_changes":[7.186656E1,1.407711E1,3.5027992E1,9.768912E0,1.2458122E1,2.3140694E1,2.33749E0,1.2326362E1,8.411104E0,1.4130386E1,1.4006189E1,1.4253942E1,1.5288555E1,2.6424904E0,0E0,0E0,0E0,0E0,0E0,0E0,0E0,0E0,0E0,0E0,0E0,0E0,0E0,0E0,0E0],"parents":[2147483647,0,0,1,1,2,2,3,3,4,4,5,5,6,6,7,7,8,8,9,9,10,10,11,11,12,12,13,13],"right_children":[2,4,6,8,10,12,14,16,18,20,22,24,26,28,-1,-1,-1,-1,-1,-1,-1,-1,-1,-1,-1,-1,-1,-1,-1],"split_conditions":[1E0,8.8637084E-2,1.32E2,8.88E1,3.02E1,4.5E2,1.25E0,1.6949153E-2,6.6033E0,3.2777777E-1,2.7331054E-1,2.8333333E0,3.0022046E-1,3.19E-1,-8.062892E-3,-2.0233583E-2,2.7800065E-3,-7.440768E-3,3.2537345E-2,2.6031384E-2,1.5071882E-3,-5.5312905E-3,1.1608103E-2,2.9589913E-3,4.834193E-2,-8.554868E-3,2.6843303E-3,-4.847858E-2,-1.126943E-2],"split_indices":[229,370,226,178,154,228,34,199,258,79,218,229,218,163,0,0,0,0,0,0,0,0,0,0,0,0,0,0,0],"split_type":[0,0,0,0,0,0,0,0,0,0,0,0,0,0,0,0,0,0,0,0,0,0,0,0,0,0,0,0,0],"sum_hessian":[4.1275386E3,1.4129564E3,2.7145823E3,3.332801E2,1.0796763E3,2.6473145E3,6.726781E1,2.834501E2,4.982999E1,3.2648126E2,7.53195E2,6.830575E2,1.964257E3,5.721365E1,1.0054157E1,7.451958E1,2.0893053E2,1.6202433E1,3.3627556E1,2.4608865E2,8.03926E1,1.4244383E2,6.107512E2,6.7014984E2,1.2907662E1,1.597636E3,3.6662094E2,4.5850433E1,1.1363219E1],"tree_param":{"num_deleted":"0","num_feature":"459","num_nodes":"29","size_leaf_vector":"1"}},{"base_weights":[1.6724177E-2,1.7777571E-1,-6.8162836E-2,9.5052615E-2,3.239882E-1,-2.6498055E-1,-1.5578186E-3,-2.503175E-2,2.337487E-1,3.5379654E-1,-1.7763488E-1,-2.1361244E-1,-8.13446E-1,-1.5679091E-2,6.973554E-1,-5.7894113E-3,1.5967486E-2,1.4620532E-2,-1.5944967E-2,2.5375255E-3,2.06898E-2,1.486888E-2,-2.5238013E-2,6.5036835E-3,-1.31684365E-2,-5.792168E-3,-4.8135128E-2,3.2042188E-4,-1.5206491E-2,5.400073E-2,-1.1040699E-2],"categories":[],"categories_nodes":[],"categories_segments":[],"categories_sizes":[],"default_left":[0,0,0,0,0,0,0,0,0,0,0,0,0,0,0,0,0,0,0,0,0,0,0,0,0,0,0,0,0,0,0],"id":21,"left_children":[1,3,5,7,9,11,13,15,17,19,21,23,25,27,29,-1,-1,-1,-1,-1,-1,-1,-1,-1,-1,-1,-1,-1,-1,-1,-1],"loss_changes":[5.6576054E1,1.6918976E1,3.533808E1,1.5486897E1,8.058731E0,1.7839863E1,1.9736662E1,1.5605773E1,1.43992195E1,8.498356E0,5.6881886E0,1.1036289E1,4.714573E0,1.286374E1,1.5530752E1,0E0,0E0,0E0,0E0,0E0,0E0,0E0,0E0,0E0,0E0,0E0,0E0,0E0,0E0,0E0,0E0],"parents":[2147483647,0,0,1,1,2,2,3,3,4,4,5,5,6,6,7,7,8,8,9,9,10,10,11,11,12,12,13,13,14,14],"right_children":[2,4,6,8,10,12,14,16,18,20,22,24,26,28,30,-1,-1,-1,-1,-1,-1,-1,-1,-1,-1,-1,-1,-1,-1,-1,-1],"split_conditions":[1.5E0,3.859E0,4.5454547E-1,2.4483551E-1,1.4112638E0,1.7E2,2.5E0,1.1764706E-2,3.6879754E0,1.2682353E0,6.884877E0,1.624529E0,1.5E-1,2.2758406E1,1E0,-5.7894113E-3,1.5967486E-2,1.4620532E-2,-1.5944967E-2,2.5375255E-3,2.06898E-2,1.486888E-2,-2.5238013E-2,6.5036835E-3,-1.31684365E-2,-5.792168E-3,-4.8135128E-2,3.2042188E-4,-1.5206491E-2,5.400073E-2,-1.1040699E-2],"split_indices":[229,109,306,151,372,226,229,446,266,266,47,182,206,348,437,0,0,0,0,0,0,0,0,0,0,0,0,0,0,0,0],"split_type":[0,0,0,0,0,0,0,0,0,0,0,0,0,0,0,0,0,0,0,0,0,0,0,0,0,0,0,0,0,0,0],"sum_hessian":[4.1249023E3,1.4238767E3,2.7010256E3,9.1682947E2,5.070473E2,6.772763E2,2.0237493E3,4.9164835E2,4.251811E2,4.809384E2,2.6108934E1,6.264622E2,5.0814114E1,1.9891622E3,3.4587032E1,3.928813E2,9.8767075E1,3.8732672E2,3.7854385E1,8.238581E1,3.9855255E2,1.020976E1,1.5899175E1,7.693337E1,5.495288E2,1.1111453E1,3.9702663E1,1.850611E3,1.3855127E2,2.4174997E1,1.0412033E1],"tree_param":{"num_deleted":"0","num_feature":"459","num_nodes":"31","size_leaf_vector":"1"}},{"base_weights":[-7.825465E-3,1.439123E-1,-8.783157E-2,2.3149182E-1,3.7058687E-3,-6.670465E-2,-5.971846E-1,5.5337656E-2,3.1551704E-1,-2.6012096E-1,1.03364944E-1,-8.000271E-2,6.5804166E-1,-7.005462E-1,2.3399377E-3,-3.5561465E-3,2.2116745E-2,4.1003306E-3,2.1125747E-2,-2.110294E-2,1.54765E-2,7.923196E-3,-2.3506925E-2,-2.1239563E-3,-1.4593733E-2,5.047943E-2,-9.114246E-3,-4.4185173E-2,-3.4883965E-3],"categories":[],"categories_nodes":[],"categories_segments":[],"categories_sizes":[],"default_left":[0,0,0,0,0,0,0,0,0,0,0,0,0,0,0,0,0,0,0,0,0,0,0,0,0,0,0,0,0],"id":22,"left_children":[1,3,5,7,9,11,13,15,17,19,21,23,25,27,-1,-1,-1,-1,-1,-1,-1,-1,-1,-1,-1,-1,-1,-1,-1],"loss_changes":[5.0070187E1,1.7346891E1,2.8565596E1,1.2654488E1,1.4628852E1,2.5059017E1,7.554077E0,1.45376215E1,1.42741165E1,1.4731973E1,1.3085316E1,2.0131388E1,1.5147747E1,9.892426E0,0E0,0E0,0E0,0E0,0E0,0E0,0E0,0E0,0E0,0E0,0E0,0E0,0E0,0E0,0E0],"parents":[2147483647,0,0,1,1,2,2,3,3,4,4,5,5,6,6,7,7,8,8,9,9,10,10,11,11,12,12,13,13],"right_children":[2,4,6,8,10,12,14,16,18,20,22,24,26,28,-1,-1,-1,-1,-1,-1,-1,-1,-1,-1,-1,-1,-1,-1,-1],"split_conditions":[1.5E0,5.357277E-1,2.7E2,2.0547945E-2,2.7882197E-1,2.8333333E0,9.238348E0,3.7122E-1,7.1428573E-1,7.11E-1,6.703297E-1,1.9174702E-2,4.5E0,2.9166666E-1,2.3399377E-3,-3.5561465E-3,2.2116745E-2,4.1003306E-3,2.1125747E-2,-2.110294E-2,1.54765E-2,7.923196E-3,-2.3506925E-2,-2.1239563E-3,-1.4593733E-2,5.047943E-2,-9.114246E-3,-4.4185173E-2,-3.4883965E-3],"split_indices":[229,372,227,199,218,229,64,422,77,168,340,415,229,79,0,0,0,0,0,0,0,0,0,0,0,0,0,0,0],"split_type":[0,0,0,0,0,0,0,0,0,0,0,0,0,0,0,0,0,0,0,0,0,0,0,0,0,0,0,0,0],"sum_hessian":[4.116519E3,1.4176304E3,2.6988887E3,8.683787E2,5.4925165E2,2.597775E3,1.0111395E2,2.8504382E2,5.833349E2,1.4700873E2,4.022429E2,2.5560137E3,4.1761227E1,8.741999E1,1.3693958E1,2.1694194E2,6.810187E1,1.87545E2,3.957899E2,1.1616037E2,3.0848362E1,3.7108173E2,3.1161154E1,2.1785447E3,3.774688E2,2.915306E1,1.2608168E1,6.558014E1,2.1839851E1],"tree_param":{"num_deleted":"0","num_feature":"459","num_nodes":"29","size_leaf_vector":"1"}},{"base_weights":[9.30954E-3,1.6025198E-1,-6.98224E-2,2.6342826E-2,2.4298076E-1,-2.4649774E-1,-1.0822877E-2,-1.6202113E-2,5.921129E-1,-5.9789125E-2,2.966634E-1,-2.0399062E-1,-7.3067456E-1,2.9487522E-2,-2.5332022E-1,-1.13605475E-2,3.9310292E-3,4.4281207E-2,-0E0,1.2119049E-2,-1.505926E-2,-1.6390972E-2,1.6207775E-2,1.1517716E-3,-1.3953226E-2,-9.163884E-3,-4.4076134E-2,-6.2671797E-3,5.32308E-3,-2.050547E-2,4.331749E-3],"categories":[],"categories_nodes":[],"categories_segments":[],"categories_sizes":[],"default_left":[0,0,0,0,0,0,0,0,0,0,0,0,0,0,0,0,0,0,0,0,0,0,0,0,0,0,0,0,0,0,0],"id":23,"left_children":[1,3,5,7,9,11,13,15,17,19,21,23,25,27,29,-1,-1,-1,-1,-1,-1,-1,-1,-1,-1,-1,-1,-1,-1,-1,-1],"loss_changes":[4.9461033E1,1.5619892E1,2.8132057E1,1.362524E1,1.4476433E1,1.2714432E1,2.0098104E1,1.0518535E1,7.014883E0,1.0239918E1,1.3370476E1,1.0897129E1,2.9311714E0,2.0944672E1,1.5965885E1,0E0,0E0,0E0,0E0,0E0,0E0,0E0,0E0,0E0,0E0,0E0,0E0,0E0,0E0,0E0,0E0],"parents":[2147483647,0,0,1,1,2,2,3,3,4,4,5,5,6,6,7,7,8,8,9,9,10,10,11,11,12,12,13,13,14,14],"right_children":[2,4,6,8,10,12,14,16,18,20,22,24,26,28,30,-1,-1,-1,-1,-1,-1,-1,-1,-1,-1,-1,-1,-1,-1,-1,-1],"split_conditions":[1E0,3.7377E0,4.5454547E-1,3.902439E-2,1.29E1,1.7E2,1.9174702E-2,2.1978378E-1,1.7364818E-1,3.3924736E1,1.744953E0,-1.7777778E-1,8.2E1,5.1176342E1,1.7766184E-1,-1.13605475E-2,3.9310292E-3,4.4281207E-2,-0E0,1.2119049E-2,-1.505926E-2,-1.6390972E-2,1.6207775E-2,1.1517716E-3,-1.3953226E-2,-9.163884E-3,-4.4076134E-2,-6.2671797E-3,5.32308E-3,-2.050547E-2,4.331749E-3],"split_indices":[229,109,306,446,164,226,415,137,68,134,45,264,178,433,349,0,0,0,0,0,0,0,0,0,0,0,0,0,0,0,0],"split_type":[0,0,0,0,0,0,0,0,0,0,0,0,0,0,0,0,0,0,0,0,0,0,0,0,0,0,0,0,0,0,0],"sum_hessian":[4.127481E3,1.4200189E3,2.707462E3,5.4709625E2,8.7292267E2,6.7169434E2,2.0357675E3,5.125281E2,3.456817E1,1.2997597E2,7.4294666E2,6.249662E2,4.6728123E1,1.7475945E3,2.8817297E2,1.5837921E2,3.541489E2,2.1630869E1,1.2937301E1,5.6793015E1,7.3182945E1,2.8257986E1,7.146887E2,1.5451453E2,4.704517E2,1.3203787E1,3.3524338E1,5.771123E2,1.1704822E3,1.9751636E2,9.065663E1],"tree_param":{"num_deleted":"0","num_feature":"459","num_nodes":"31","size_leaf_vector":"1"}},{"base_weights":[-6.8753455E-3,1.3164692E-1,-7.921212E-2,3.2551998E-1,8.670453E-2,-4.3915772E-1,-5.2312963E-2,-1.8150723E-2,3.7251404E-1,9.769268E-3,2.1628042E-1,-5.2442724E-1,1.0824699E-2,-1.1495373E-1,9.3887225E-2,2.7085213E-2,7.2227316E-3,-1.2816995E-2,3.2737963E-3,1.5198124E-2,-2.1357273E-3,1.2611729E-3,-3.175817E-2,-6.463408E-3,2.8561458E-2,2.7174404E-2,1.1224494E-3],"categories":[],"categories_nodes":[],"categories_segments":[],"categories_sizes":[],"default_left":[0,0,0,0,0,0,0,0,0,0,0,0,0,0,0,0,0,0,0,0,0,0,0,0,0,0,0],"id":24,"left_children":[1,3,5,7,9,11,13,-1,15,17,19,21,-1,23,25,-1,-1,-1,-1,-1,-1,-1,-1,-1,-1,-1,-1],"loss_changes":[4.1433403E1,1.2000568E1,2.5977276E1,9.1837635E0,1.1434094E1,1.1186424E1,2.3308153E1,0E0,8.87886E0,1.0885731E1,9.943739E0,1.0596943E1,0E0,1.7645838E1,2.4118649E1,0E0,0E0,0E0,0E0,0E0,0E0,0E0,0E0,0E0,0E0,0E0,0E0],"parents":[2147483647,0,0,1,1,2,2,3,3,4,4,5,5,6,6,8,8,9,9,10,10,11,11,13,13,14,14],"right_children":[2,4,6,8,10,12,14,-1,16,18,20,22,-1,24,26,-1,-1,-1,-1,-1,-1,-1,-1,-1,-1,-1,-1],"split_conditions":[1.5E0,1.58E1,3.846154E-1,3.3333334E-1,2.4763013E-1,3.9868963E-1,4.788234E-1,-1.8150723E-2,2.7333334E-1,2.1875879E-1,1.721E-1,5.4E1,1.0824699E-2,2.5E0,4.877225E-1,2.7085213E-2,7.2227316E-3,-1.2816995E-2,3.2737963E-3,1.5198124E-2,-2.1357273E-3,1.2611729E-3,-3.175817E-2,-6.463408E-3,2.8561458E-2,2.7174404E-2,1.1224494E-3],"split_indices":[229,159,306,38,151,374,250,0,79,137,112,257,0,229,363,0,0,0,0,0,0,0,0,0,0,0,0],"split_type":[0,0,0,0,0,0,0,0,0,0,0,0,0,0,0,0,0,0,0,0,0,0,0,0,0,0,0],"sum_hessian":[4.1273784E3,1.4121504E3,2.7152278E3,2.5778284E2,1.1543676E3,1.8218172E2,2.5330461E3,1.3642116E1,2.4414073E2,7.301055E2,4.2426205E2,1.6277559E2,1.940614E1,1.7764143E3,7.5663184E2,1.3495387E2,1.0918686E2,1.21711136E2,6.0839435E2,3.1775082E2,1.06511246E2,2.718515E1,1.3559044E2,1.7448027E3,3.1611506E1,9.82502E1,6.583816E2],"tree_param":{"num_deleted":"0","num_feature":"459","num_nodes":"27","size_leaf_vector":"1"}},{"base_weights":[-5.6608072E-3,4.5006997E-3,-7.8654695E-1,-2.4510965E-2,1.6503996E-1,-4.699182E-2,-5.57368E-3,-4.2578393E-1,-1.4035387E-2,6.872431E-2,4.6207836E-1,6.8816566E-3,-3.0515239E-2,1.3929666E-3,-5.3289845E-3,1.7800448E-2,-2.5786394E-3,2.8208122E-2,-1.0648795E-2],"categories":[],"categories_nodes":[],"categories_segments":[],"categories_sizes":[],"default_left":[0,0,0,0,0,0,0,0,0,0,0,0,0,0,0,0,0,0,0],"id":25,"left_children":[1,3,5,7,9,-1,-1,11,13,15,17,-1,-1,-1,-1,-1,-1,-1,-1],"loss_changes":[3.3119022E1,1.906369E1,4.4985695E0,1.42604885E1,1.7507647E1,0E0,0E0,9.642542E0,1.3121878E1,1.6848238E1,1.1204651E1,0E0,0E0,0E0,0E0,0E0,0E0,0E0,0E0],"parents":[2147483647,0,0,1,1,2,2,3,3,4,4,7,7,8,8,9,9,10,10],"right_children":[2,4,6,8,10,-1,-1,12,14,16,18,-1,-1,-1,-1,-1,-1,-1,-1],"split_conditions":[1.7E2,3.0022046E-1,8.10592E0,2.65E1,5.5268887E-2,-4.699182E-2,-5.57368E-3,8.11E1,5.357277E-1,2.1686748E-1,5.06E1,6.8816566E-3,-3.0515239E-2,1.3929666E-3,-5.3289845E-3,1.7800448E-2,-2.5786394E-3,2.8208122E-2,-1.0648795E-2],"split_indices":[226,218,423,172,354,0,0,178,372,196,172,0,0,0,0,0,0,0,0],"split_type":[0,0,0,0,0,0,0,0,0,0,0,0,0,0,0,0,0,0,0],"sum_hessian":[4.1172915E3,4.0686775E3,4.861396E1,3.4468975E3,6.217799E2,3.741618E1,1.119778E1,8.143733E1,3.3654602E3,4.754529E2,1.4632701E2,1.9736032E1,6.1701298E1,2.3153813E3,1.0500789E3,1.3866432E2,3.367886E2,1.284625E2,1.7864515E1],"tree_param":{"num_deleted":"0","num_feature":"459","num_nodes":"19","size_leaf_vector":"1"}},{"base_weights":[4.4255503E-3,1.3810287E-1,-6.4265355E-2,2.2296323E-1,1.9611416E-2,-3.702111E-2,-4.2133057E-1,1.3463934E-1,4.206756E-1,-1.0897334E-1,2.1268547E-1,-5.8659434E-2,4.4167197E-1,-2.2395915E-1,-7.1509063E-1,2.3551447E-2,2.8805926E-3,2.5284473E-2,-3.6753272E-3,-2.401726E-2,-2.1810138E-3,-7.1603493E-3,1.6322467E-2,2.2774374E-2,-3.6478986E-3,2.9478734E-2,-7.6869093E-3,2.3336047E-2,-1.758131E-2,-2.9259692E-3,-4.0602956E-2],"categories":[],"categories_nodes":[],"categories_segments":[],"categories_sizes":[],"default_left":[0,0,0,0,0,0,0,0,0,0,0,0,0,0,0,0,0,0,0,0,0,0,0,0,0,0,0,0,0,0,0],"id":26,"left_children":[1,3,5,7,9,11,13,15,17,19,21,23,25,27,29,-1,-1,-1,-1,-1,-1,-1,-1,-1,-1,-1,-1,-1,-1,-1,-1],"loss_changes":[3.797004E1,1.3980881E1,2.621695E1,1.3680603E1,1.4917365E1,2.6248413E1,9.833359E0,1.4442238E1,1.0809406E1,8.330844E0,1.0072676E1,1.788057E1,1.0308702E1,1.1595119E1,4.017029E0,0E0,0E0,0E0,0E0,0E0,0E0,0E0,0E0,0E0,0E0,0E0,0E0,0E0,0E0,0E0,0E0],"parents":[2147483647,0,0,1,1,2,2,3,3,4,4,5,5,6,6,7,7,8,8,9,9,10,10,11,11,12,12,13,13,14,14],"right_children":[2,4,6,8,10,12,14,16,18,20,22,24,26,28,30,-1,-1,-1,-1,-1,-1,-1,-1,-1,-1,-1,-1,-1,-1,-1,-1],"split_conditions":[1E0,4.355975E1,1.65E2,2.333E1,3.747E0,1.1374355E2,2.8E1,-6.25E-1,5.650123E0,6.993166E-1,2.3041476E-2,-1.3E2,1.4726046E-1,3.460387E-1,1.12E3,2.3551447E-2,2.8805926E-3,2.5284473E-2,-3.6753272E-3,-2.401726E-2,-2.1810138E-3,-7.1603493E-3,1.6322467E-2,2.2774374E-2,-3.6478986E-3,2.9478734E-2,-7.6869093E-3,2.3336047E-2,-1.758131E-2,-2.9259692E-3,-4.0602956E-2],"split_indices":[229,134,227,185,109,433,145,56,418,224,197,227,376,268,228,0,0,0,0,0,0,0,0,0,0,0,0,0,0,0,0],"split_type":[0,0,0,0,0,0,0,0,0,0,0,0,0,0,0,0,0,0,0,0,0,0,0,0,0,0,0,0,0,0,0],"sum_hessian":[4.121228E3,1.3996458E3,2.7215825E3,8.105347E2,5.8911096E2,2.5350737E3,1.865086E2,5.678109E2,2.4272385E2,3.533637E2,2.3574728E2,2.4306338E3,1.0443993E2,1.1784497E2,6.8663635E1,9.981938E1,4.6799152E2,2.07861E2,3.486285E1,4.6982525E1,3.0638116E2,5.5726513E1,1.8002077E2,6.064687E1,2.369987E3,8.437063E1,2.0069307E1,1.5701953E1,1.0214302E2,1.0531161E1,5.8132477E1],"tree_param":{"num_deleted":"0","num_feature":"459","num_nodes":"31","size_leaf_vector":"1"}},{"base_weights":[-2.5906072E-3,1.4381418E-1,-7.9396375E-2,5.0000504E-2,2.6225498E-1,7.089009E-2,-1.4180277E-1,-2.4574551E-1,1.1770528E-1,2.962253E-1,-2.1485074E-1,-2.1577117E-1,1.2892585E-1,-1.2122236E-1,-5.388481E-1,-3.674211E-3,-4.227648E-2,1.5127869E-2,1.0464779E-3,6.667717E-3,2.0876963E-2,-3.2580305E-2,5.9997374E-3,3.4045246E-3,-2.4228849E-2,7.825103E-3,-2.6946811E-2,-6.64694E-3,2.9359883E-2,-3.5213724E-2,-0E0],"categories":[],"categories_nodes":[],"categories_segments":[],"categories_sizes":[],"default_left":[0,0,0,0,0,0,0,0,0,0,0,0,0,0,0,0,0,0,0,0,0,0,0,0,0,0,0,0,0,0,0],"id":27,"left_children":[1,3,5,7,9,11,13,15,17,19,21,23,25,27,29,-1,-1,-1,-1,-1,-1,-1,-1,-1,-1,-1,-1,-1,-1,-1,-1],"loss_changes":[4.6635258E1,1.5621384E1,2.5635937E1,1.6182907E1,1.0515644E1,1.3410021E1,1.5105392E1,1.4732679E1,1.1597826E1,1.1066082E1,7.0291758E0,1.0686792E1,1.2572542E1,1.5448151E1,8.039032E0,0E0,0E0,0E0,0E0,0E0,0E0,0E0,0E0,0E0,0E0,0E0,0E0,0E0,0E0,0E0,0E0],"parents":[2147483647,0,0,1,1,2,2,3,3,4,4,5,5,6,6,7,7,8,8,9,9,10,10,11,11,12,12,13,13,14,14],"right_children":[2,4,6,8,10,12,14,16,18,20,22,24,26,28,30,-1,-1,-1,-1,-1,-1,-1,-1,-1,-1,-1,-1,-1,-1,-1,-1],"split_conditions":[1E0,4.4444445E-1,-7E-1,2.941155E-1,5.4545456E-1,3.07E-1,-1.38E2,2.4564E1,4.5945945E-1,7.357143E-2,-1.6444986E-1,2.3801327E-1,1.3451854E0,2.8333333E0,3.1238096E-2,-3.674211E-3,-4.227648E-2,1.5127869E-2,1.0464779E-3,6.667717E-3,2.0876963E-2,-3.2580305E-2,5.9997374E-3,3.4045246E-3,-2.4228849E-2,7.825103E-3,-2.6946811E-2,-6.64694E-3,2.9359883E-2,-3.5213724E-2,-0E0],"split_indices":[229,393,157,153,346,139,226,348,202,103,56,137,6,229,333,0,0,0,0,0,0,0,0,0,0,0,0,0,0,0,0],"split_type":[0,0,0,0,0,0,0,0,0,0,0,0,0,0,0,0,0,0,0,0,0,0,0,0,0,0,0,0,0,0,0],"sum_hessian":[4.140086E3,1.4208442E3,2.7192415E3,7.991734E2,6.2167084E2,7.953048E2,1.9239366E3,1.4504756E2,6.5412585E2,5.8309735E2,3.8573452E1,1.3016484E2,6.6513995E2,1.8365281E3,8.7408585E1,1.1769199E2,2.7355568E1,2.1934831E2,4.3477753E2,2.5515492E2,3.2794244E2,1.5334798E1,2.3238653E1,6.422061E1,6.594423E1,6.4316064E2,2.1979288E1,1.8113383E3,2.518989E1,6.530315E1,2.210544E1],"tree_param":{"num_deleted":"0","num_feature":"459","num_nodes":"31","size_leaf_vector":"1"}},{"base_weights":[-6.4471946E-3,-7.469013E-1,3.4487548E-3,-4.2570252E-2,-1.04746E-2,1.1346476E-1,-5.530606E-2,3.5266772E-1,7.658903E-2,-9.983263E-2,1.293468E-1,-6.4594634E-3,2.3670131E-2,-1.4649572E-2,5.09816E-3,1.5955033E-2,-5.981415E-3,5.0858274E-4,1.6011458E-2],"categories":[],"categories_nodes":[],"categories_segments":[],"categories_sizes":[],"default_left":[0,0,0,0,0,0,0,0,0,0,0,0,0,0,0,0,0,0,0],"id":28,"left_children":[1,3,5,-1,-1,7,9,11,13,15,17,-1,-1,-1,-1,-1,-1,-1,-1],"loss_changes":[3.0460045E1,1.6565456E0,2.6269543E1,0E0,0E0,1.2141947E1,2.178442E1,1.12963505E1,1.1637323E1,1.779593E1,1.1501898E1,0E0,0E0,0E0,0E0,0E0,0E0,0E0,0E0],"parents":[2147483647,0,0,1,1,2,2,5,5,6,6,7,7,8,8,9,9,10,10],"right_children":[2,4,6,-1,-1,8,10,12,14,16,18,-1,-1,-1,-1,-1,-1,-1,-1],"split_conditions":[3.7037036E-1,4.3103565E1,1E0,-4.2570252E-2,-1.04746E-2,1.85E1,9.181567E1,4.6E1,1.0354378E0,-1.15E2,4.3063295E-1,-6.4594634E-3,2.3670131E-2,-1.4649572E-2,5.09816E-3,1.5955033E-2,-5.981415E-3,5.0858274E-4,1.6011458E-2],"split_indices":[303,147,229,0,0,180,131,181,266,227,152,0,0,0,0,0,0,0,0],"split_type":[0,0,0,0,0,0,0,0,0,0,0,0,0,0,0,0,0,0,0],"sum_hessian":[4.0994634E3,4.982082E1,4.0496423E3,3.8485264E1,1.1335556E1,1.4111588E3,2.6384834E3,1.8095764E2,1.2302012E3,2.1298928E3,5.085907E2,3.535665E1,1.4560098E2,7.4381325E1,1.15582E3,9.155111E1,2.0383417E3,3.179612E2,1.9062947E2],"tree_param":{"num_deleted":"0","num_feature":"459","num_nodes":"19","size_leaf_vector":"1"}},{"base_weights":[4.477062E-3,1.4007807E-2,-7.192051E-1,-3.94125E-1,2.3898954E-2,-4.2418078E-2,-7.948813E-3,9.45071E-2,-6.01473E-1,5.084608E-2,-9.6908934E-2,-1.327643E-2,2.1078385E-2,-4.4117052E-2,-3.673489E-3,1.266656E-3,1.1410221E-2,-8.9252945E-3,4.2875567E-3],"categories":[],"categories_nodes":[],"categories_segments":[],"categories_sizes":[],"default_left":[0,0,0,0,0,0,0,0,0,0,0,0,0,0,0,0,0,0,0],"id":29,"left_children":[1,3,5,7,9,-1,-1,11,13,15,17,-1,-1,-1,-1,-1,-1,-1,-1],"loss_changes":[2.8161734E1,1.632774E1,2.661047E0,1.022372E1,1.2984924E1,0E0,0E0,4.415758E0,9.358965E0,1.46296215E1,1.0939032E1,0E0,0E0,0E0,0E0,0E0,0E0,0E0,0E0],"parents":[2147483647,0,0,1,1,2,2,3,3,4,4,7,7,8,8,9,9,10,10],"right_children":[2,4,6,8,10,-1,-1,12,14,16,18,-1,-1,-1,-1,-1,-1,-1,-1],"split_conditions":[1.7E2,2.65E1,3.12E-1,2.8E1,6.4278764E-1,-4.2418078E-2,-7.948813E-3,1.2727273E0,1.0588236E0,3.0270684E-1,3.2E1,-1.327643E-2,2.1078385E-2,-4.4117052E-2,-3.673489E-3,1.266656E-3,1.1410221E-2,-8.9252945E-3,4.2875567E-3],"split_indices":[226,172,163,211,67,0,0,341,37,218,177,0,0,0,0,0,0,0,0],"split_type":[0,0,0,0,0,0,0,0,0,0,0,0,0,0,0,0,0,0,0],"sum_hessian":[4.121868E3,4.0738108E3,4.805712E1,9.060124E1,3.9832095E3,3.623855E1,1.1818573E1,2.7084377E1,6.3516865E1,3.262515E3,7.206946E2,1.2612342E1,1.4472036E1,3.8653145E1,2.4863718E1,2.8596833E3,4.028315E2,5.0013013E2,2.2056447E2],"tree_param":{"num_deleted":"0","num_feature":"459","num_nodes":"19","size_leaf_vector":"1"}},{"base_weights":[-2.6749615E-3,1.1962095E-1,-6.693134E-2,5.917929E-1,9.683958E-2,8.439935E-2,-1.2903537E-1,8.003345E-1,-1.5605655E-3,-9.3973644E-2,1.4100641E-1,1.4496934E-1,-2.9135045E-1,-4.4458735E-1,-1.0541267E-1,4.09158E-3,4.9864102E-2,-1.35540655E-2,8.422195E-3,-5.9545557E-3,9.201354E-3,-2.147238E-2,8.651392E-3,-2.0598804E-3,-3.5172787E-2,3.5128396E-4,-2.9285667E-2,-5.7516852E-3,3.252904E-2],"categories":[],"categories_nodes":[],"categories_segments":[],"categories_sizes":[],"default_left":[0,0,0,0,0,0,0,0,0,0,0,0,0,0,0,0,0,0,0,0,0,0,0,0,0,0,0,0,0],"id":30,"left_children":[1,3,5,7,9,11,13,15,-1,17,19,21,23,25,27,-1,-1,-1,-1,-1,-1,-1,-1,-1,-1,-1,-1,-1,-1],"loss_changes":[3.238887E1,1.4624004E1,2.5515049E1,8.731739E0,1.1550352E1,1.8078176E1,1.3828388E1,5.8735733E0,0E0,1.2199661E1,1.2544657E1,1.1256573E1,1.0816615E1,8.654974E0,1.3180481E1,0E0,0E0,0E0,0E0,0E0,0E0,0E0,0E0,0E0,0E0,0E0,0E0,0E0,0E0],"parents":[2147483647,0,0,1,1,2,2,3,3,4,4,5,5,6,6,7,7,9,9,10,10,11,11,12,12,13,13,14,14],"right_children":[2,4,6,8,10,12,14,16,-1,18,20,22,24,26,28,-1,-1,-1,-1,-1,-1,-1,-1,-1,-1,-1,-1,-1,-1],"split_conditions":[1E0,-1.1133333E-1,-7E-1,3.104027E-1,2.1875879E-1,1.06E3,3.846154E-1,-7.3333335E-1,-1.5605655E-3,3.217822E-2,1.29E1,3E0,4.45E1,4.5E-2,2.8333333E0,4.09158E-3,4.9864102E-2,-1.35540655E-2,8.422195E-3,-5.9545557E-3,9.201354E-3,-2.147238E-2,8.651392E-3,-2.0598804E-3,-3.5172787E-2,3.5128396E-4,-2.9285667E-2,-5.7516852E-3,3.252904E-2],"split_indices":[229,333,157,222,137,228,306,83,0,198,164,101,167,18,229,0,0,0,0,0,0,0,0,0,0,0,0,0,0],"split_type":[0,0,0,0,0,0,0,0,0,0,0,0,0,0,0,0,0,0,0,0,0,0,0,0,0,0,0,0,0],"sum_hessian":[4.1148755E3,1.4131704E3,2.7017053E3,5.828611E1,1.3548843E3,7.832621E2,1.9184432E3,4.3203674E1,1.5082434E1,2.514763E2,1.103408E3,6.7832007E2,1.04942E2,1.2593507E2,1.7925082E3,1.1363532E1,3.1840143E1,1.511824E2,1.002939E2,1.5369911E2,9.4970886E2,2.7429651E1,6.5089044E2,6.947996E1,3.5462044E1,3.0271685E1,9.5663376E1,1.7748218E3,1.768642E1],"tree_param":{"num_deleted":"0","num_feature":"459","num_nodes":"29","size_leaf_vector":"1"}},{"base_weights":[9.673854E-3,1.9353703E-2,-7.530494E-1,1.2014361E-1,-3.4035E-2,-8.7936115E-1,-8.495088E-3,1.7778039E-1,-2.4917582E-2,-4.551553E-2,5.953451E-1,-1.6942546E-2,-5.0942566E-2,1.1336778E-2,-1.932287E-3,-9.701681E-3,8.083584E-3,-7.644491E-3,1.0692197E-3,5.0365683E-2,-1.0514336E-2],"categories":[],"categories_nodes":[],"categories_segments":[],"categories_sizes":[],"default_left":[0,0,0,0,0,0,0,0,0,0,0,0,0,0,0,0,0,0,0,0,0],"id":31,"left_children":[1,3,5,7,9,11,-1,13,15,17,19,-1,-1,-1,-1,-1,-1,-1,-1,-1,-1],"loss_changes":[3.0099413E1,2.1967455E1,2.489952E0,1.1920002E1,1.9092844E1,6.163597E-1,0E0,1.0891338E1,1.292003E1,1.8898277E1,1.7141947E1,0E0,0E0,0E0,0E0,0E0,0E0,0E0,0E0,0E0,0E0],"parents":[2147483647,0,0,1,1,2,2,3,3,4,4,5,5,7,7,8,8,9,9,10,10],"right_children":[2,4,6,8,10,12,-1,14,16,18,20,-1,-1,-1,-1,-1,-1,-1,-1,-1,-1],"split_conditions":[1.78E2,1E0,1.9543333E-1,1.6783333E-1,2.8333333E0,2.1428572E-1,-8.495088E-3,3.23E1,4.9E-1,4.1116703E-1,4.5E0,-1.6942546E-2,-5.0942566E-2,1.1336778E-2,-1.932287E-3,-9.701681E-3,8.083584E-3,-7.644491E-3,1.0692197E-3,5.0365683E-2,-1.0514336E-2],"split_indices":[226,229,391,127,229,42,0,165,393,152,229,0,0,0,0,0,0,0,0,0,0],"split_type":[0,0,0,0,0,0,0,0,0,0,0,0,0,0,0,0,0,0,0,0,0],"sum_hessian":[4.111647E3,4.0655786E3,4.606826E1,1.4088997E3,2.656679E3,3.507393E1,1.0994332E1,1.00994135E3,3.989583E2,2.614422E3,4.2256855E1,1.1447304E1,2.3626627E1,8.2532623E2,1.8461513E2,2.1057913E2,1.883792E2,1.00401935E3,1.6104027E3,2.7541925E1,1.4714931E1],"tree_param":{"num_deleted":"0","num_feature":"459","num_nodes":"21","size_leaf_vector":"1"}},{"base_weights":[-5.7458375E-3,-1.00075975E-1,4.827441E-2,-1.2654926E-1,4.2676997E-1,-1.1174338E-1,7.76682E-2,-1.8120603E-1,8.1428126E-2,-2.0790016E-2,6.8479145E-1,-7.3659256E-2,-4.5602806E-2,1.342768E-1,-6.649934E-2,-1.1305582E-2,4.2212433E-3,-6.1794906E-3,1.48492055E-2,4.9616262E-2,2.8135537E-3,-1.3691996E-2,3.0552445E-3,9.388323E-3,-5.2469815E-3,-9.189106E-3,5.6008263E-3],"categories":[],"categories_nodes":[],"categories_segments":[],"categories_sizes":[],"default_left":[0,0,0,0,0,0,0,0,0,0,0,0,0,0,0,0,0,0,0,0,0,0,0,0,0,0,0],"id":32,"left_children":[1,3,5,7,9,11,13,15,17,-1,19,21,-1,23,25,-1,-1,-1,-1,-1,-1,-1,-1,-1,-1,-1,-1],"loss_changes":[2.0945768E1,2.1015797E1,1.2290472E1,1.6393524E1,1.7193764E1,1.1486166E1,1.8101433E1,1.3727219E1,1.3501951E1,0E0,1.029196E1,1.0757683E1,0E0,2.0483402E1,1.3193041E1,0E0,0E0,0E0,0E0,0E0,0E0,0E0,0E0,0E0,0E0,0E0,0E0],"parents":[2147483647,0,0,1,1,2,2,3,3,4,4,5,5,6,6,7,7,8,8,10,10,11,11,13,13,14,14],"right_children":[2,4,6,8,10,12,14,16,18,-1,20,22,-1,24,26,-1,-1,-1,-1,-1,-1,-1,-1,-1,-1,-1,-1],"split_conditions":[1E0,2.5E0,7.8000827E0,-8.975E0,6E0,1.8181819E-1,4.5974703E0,1.037037E0,4.878049E-1,-2.0790016E-2,5.25E0,6.2E0,-4.5602806E-2,5.0847456E-2,6E0,-1.1305582E-2,4.2212433E-3,-6.1794906E-3,1.48492055E-2,4.9616262E-2,2.8135537E-3,-1.3691996E-2,3.0552445E-3,9.388323E-3,-5.2469815E-3,-9.189106E-3,5.6008263E-3],"split_indices":[230,229,64,360,85,332,406,399,306,0,74,66,0,199,188,0,0,0,0,0,0,0,0,0,0,0,0],"split_type":[0,0,0,0,0,0,0,0,0,0,0,0,0,0,0,0,0,0,0,0,0,0,0,0,0,0,0],"sum_hessian":[4.0956255E3,1.4931975E3,2.6024282E3,1.4262771E3,6.692041E1,3.9904358E2,2.2033845E3,1.1318682E3,2.9440897E2,1.45176525E1,5.2402756E1,3.867256E2,1.2317994E1,1.5848794E3,6.185051E2,9.70439E2,1.614291E2,1.5079736E2,1.4361159E2,3.2708767E1,1.9693989E1,1.5501468E2,2.3171089E2,1.2978427E3,2.870367E2,3.7487207E2,2.4363307E2],"tree_param":{"num_deleted":"0","num_feature":"459","num_nodes":"27","size_leaf_vector":"1"}},{"base_weights":[-3.0468556E-4,1.05483964E-1,-5.5888254E-2,5.067015E-2,2.4255602E-1,-9.5704034E-2,1.15738265E-1,7.5731255E-2,-4.0482068E-1,8.4084354E-2,4.0976325E-1,-1.14299156E-1,3.020655E-1,3.0719893E-2,3.9268592E-1,-1.0013203E-2,6.1644986E-3,1.984148E-2,-3.916481E-2,1.5187064E-2,-6.048521E-3,4.529692E-3,2.920102E-2,-4.033189E-3,-1.6026657E-2,4.777205E-3,4.0803764E-2,-1.0341796E-2,8.285861E-3,2.588582E-2,-8.456074E-3],"categories":[],"categories_nodes":[],"categories_segments":[],"categories_sizes":[],"default_left":[0,0,0,0,0,0,0,0,0,0,0,0,0,0,0,0,0,0,0,0,0,0,0,0,0,0,0,0,0,0,0],"id":33,"left_children":[1,3,5,7,9,11,13,15,17,19,21,23,25,27,29,-1,-1,-1,-1,-1,-1,-1,-1,-1,-1,-1,-1,-1,-1,-1,-1],"loss_changes":[2.412787E1,1.03987665E1,1.8466915E1,1.160215E1,1.0162403E1,1.6301367E1,1.167813E1,1.2811497E1,1.7768446E1,9.862356E0,1.0048302E1,1.4238266E1,9.570618E0,1.2822352E1,8.858824E0,0E0,0E0,0E0,0E0,0E0,0E0,0E0,0E0,0E0,0E0,0E0,0E0,0E0,0E0,0E0,0E0],"parents":[2147483647,0,0,1,1,2,2,3,3,4,4,5,5,6,6,7,7,8,8,9,9,10,10,11,11,12,12,13,13,14,14],"right_children":[2,4,6,8,10,12,14,16,18,20,22,24,26,28,30,-1,-1,-1,-1,-1,-1,-1,-1,-1,-1,-1,-1,-1,-1,-1,-1],"split_conditions":[1E0,3.4590416E0,3.0022046E-1,2.1732083E-1,4.1075408E-1,1.1374355E2,5.5268887E-2,1E-2,9.0054053E-1,3.57E1,2.2222222E-1,2.0119743E-2,6.4367816E-2,6.8666376E-2,6.1904762E-2,-1.0013203E-2,6.1644986E-3,1.984148E-2,-3.916481E-2,1.5187064E-2,-6.048521E-3,4.529692E-3,2.920102E-2,-4.033189E-3,-1.6026657E-2,4.777205E-3,4.0803764E-2,-1.0341796E-2,8.285861E-3,2.588582E-2,-8.456074E-3],"split_indices":[229,63,218,353,152,433,354,417,53,154,43,415,325,349,402,0,0,0,0,0,0,0,0,0,0,0,0,0,0,0,0],"split_type":[0,0,0,0,0,0,0,0,0,0,0,0,0,0,0,0,0,0,0,0,0,0,0,0,0,0,0,0,0,0,0],"sum_hessian":[4.0975063E3,1.4067139E3,2.6907927E3,1.012372E3,3.943419E2,2.1882612E3,5.0253134E2,9.645679E2,4.7804123E1,2.0785281E2,1.8648907E2,2.095137E3,9.312426E1,3.9012836E2,1.12402985E2,1.3787521E2,8.266926E2,1.4829708E1,3.2974415E1,1.00368744E2,1.0748407E2,6.955707E1,1.1693201E2,1.8094138E3,2.857232E2,7.135645E1,2.1767807E1,1.3905962E2,2.5106876E2,9.299033E1,1.9412653E1],"tree_param":{"num_deleted":"0","num_feature":"459","num_nodes":"31","size_leaf_vector":"1"}},{"base_weights":[-4.9454505E-3,2.9360114E-3,-6.273051E-1,-2.030727E-2,1.7318371E-1,-5.1723057E-3,-4.153638E-2,-4.5257494E-2,1.345808E-1,2.855766E-1,-1.727072E-1,-3.0570347E-3,1.041667E-2,-2.029529E-2,8.358946E-3,1.714649E-3,2.2852099E-2,-1.8469889E-2,1.6852926E-2],"categories":[],"categories_nodes":[],"categories_segments":[],"categories_sizes":[],"default_left":[0,0,0,0,0,0,0,0,0,0,0,0,0,0,0,0,0,0,0],"id":34,"left_children":[1,3,5,7,9,-1,-1,11,13,15,17,-1,-1,-1,-1,-1,-1,-1,-1],"loss_changes":[2.0362656E1,1.6076359E1,4.6351643E0,1.3726388E1,1.9285404E1,0E0,0E0,1.2350836E1,8.884374E0,1.5682959E1,1.28486185E1,0E0,0E0,0E0,0E0,0E0,0E0,0E0,0E0],"parents":[2147483647,0,0,1,1,2,2,3,3,4,4,7,7,8,8,9,9,10,10],"right_children":[2,4,6,8,10,-1,-1,12,14,16,18,-1,-1,-1,-1,-1,-1,-1,-1],"split_conditions":[1.7E2,7.7068275E-3,-8.480481E-1,6.363636E-1,2E0,-5.1723057E-3,-4.153638E-2,1.35E1,3.571159E-2,5.26E-2,1.3333334E-2,-3.0570347E-3,1.041667E-2,-2.029529E-2,8.358946E-3,1.714649E-3,2.2852099E-2,-1.8469889E-2,1.6852926E-2],"split_indices":[226,282,67,43,38,0,0,72,352,111,272,0,0,0,0,0,0,0,0],"split_type":[0,0,0,0,0,0,0,0,0,0,0,0,0,0,0,0,0,0,0],"sum_hessian":[4.0807974E3,4.033886E3,4.691146E1,3.550602E3,4.8328375E2,1.5918443E1,3.0993017E1,3.0638306E3,4.8677148E2,3.6650876E2,1.16775E2,2.8886702E3,1.751604E2,2.355898E1,4.632125E2,1.5227086E2,2.142379E2,8.596389E1,3.0811111E1],"tree_param":{"num_deleted":"0","num_feature":"459","num_nodes":"19","size_leaf_vector":"1"}},{"base_weights":[3.9149523E-3,-6.3746643E-1,1.2696923E-2,-3.9775748E-2,-4.4115763E-3,1.0414486E-1,-3.56002E-2,-5.6979683E-5,1.9518593E-1,9.1177516E-2,-8.8482484E-2,9.715752E-3,-4.5574023E-3,-1.0026577E-2,1.1518769E-2,7.1856724E-3,-1.3237983E-2,-5.847277E-3,1.0596442E-2],"categories":[],"categories_nodes":[],"categories_segments":[],"categories_sizes":[],"default_left":[0,0,0,0,0,0,0,0,0,0,0,0,0,0,0,0,0,0,0],"id":35,"left_children":[1,3,5,-1,-1,7,9,11,13,15,17,-1,-1,-1,-1,-1,-1,-1,-1],"loss_changes":[2.2983822E1,3.9899502E0,1.8067017E1,0E0,0E0,1.3516297E1,1.7934113E1,1.1758138E1,1.0793825E1,1.4815363E1,1.6227299E1,0E0,0E0,0E0,0E0,0E0,0E0,0E0,0E0],"parents":[2147483647,0,0,1,1,2,2,5,5,6,6,7,7,8,8,9,9,10,10],"right_children":[2,4,6,-1,-1,8,10,12,14,16,18,-1,-1,-1,-1,-1,-1,-1,-1],"split_conditions":[1.9607843E-1,2.672E-1,1.5E0,-3.9775748E-2,-4.4115763E-3,3.07E-1,-7E-1,-4.9556214E-3,2E-2,1.00222225E1,1.1666666E0,9.715752E-3,-4.5574023E-3,-1.0026577E-2,1.1518769E-2,7.1856724E-3,-1.3237983E-2,-5.847277E-3,1.0596442E-2],"split_indices":[306,110,229,0,0,139,157,415,19,47,83,0,0,0,0,0,0,0,0],"split_type":[0,0,0,0,0,0,0,0,0,0,0,0,0,0,0,0,0,0,0],"sum_hessian":[4.123781E3,5.009741E1,4.0736833E3,3.6454758E1,1.3642651E1,1.4094807E3,2.6642026E3,6.5700494E2,7.5247577E2,7.803498E2,1.8838529E3,2.0609026E2,4.5091467E2,5.837107E1,6.941047E2,6.8380664E2,9.6543144E1,1.725121E3,1.58732E2],"tree_param":{"num_deleted":"0","num_feature":"459","num_nodes":"19","size_leaf_vector":"1"}},{"base_weights":[-1.1581329E-2,-2.1691568E-2,3.820316E-1,6.3472375E-2,-6.780111E-2,5.637819E-1,-1.3540548E-2,2.0950289E-1,1.0576701E-2,-7.836489E-2,5.331381E-1,-1.1460773E-2,7.8634137E-1,4.25394E-3,2.508815E-2,2.882219E-3,-1.1669923E-2,-2.9059078E-3,-1.7671853E-2,4.9192175E-2,-1.421789E-2,1.4416914E-3,4.5973144E-2],"categories":[],"categories_nodes":[],"categories_segments":[],"categories_sizes":[],"default_left":[0,0,0,0,0,0,0,0,0,0,0,0,0,0,0,0,0,0,0,0,0,0,0],"id":36,"left_children":[1,3,5,7,9,11,-1,13,15,17,19,-1,21,-1,-1,-1,-1,-1,-1,-1,-1,-1,-1],"loss_changes":[1.6196156E1,1.5762241E1,1.2991633E1,1.0743575E1,1.6527237E1,1.5629009E1,0E0,1.2992596E1,1.1925696E1,1.3985275E1,1.827295E1,0E0,6.00333E0,0E0,0E0,0E0,0E0,0E0,0E0,0E0,0E0,0E0,0E0],"parents":[2147483647,0,0,1,1,2,2,3,3,4,4,5,5,7,7,8,8,9,9,10,10,12,12],"right_children":[2,4,6,8,10,12,-1,14,16,18,20,-1,22,-1,-1,-1,-1,-1,-1,-1,-1,-1,-1],"split_conditions":[2.3370463E-1,1E0,6.4179504E-1,2.15E1,2.8333333E0,4.46E1,-1.3540548E-2,2.367E1,4.547455E-1,5.1672886E1,4.1666665E0,-1.1460773E-2,-6.4E-1,4.25394E-3,2.508815E-2,2.882219E-3,-1.1669923E-2,-2.9059078E-3,-1.7671853E-2,4.9192175E-2,-1.421789E-2,1.4416914E-3,4.5973144E-2],"split_indices":[368,229,372,180,229,172,0,185,126,135,229,0,371,0,0,0,0,0,0,0,0,0,0],"split_type":[0,0,0,0,0,0,0,0,0,0,0,0,0,0,0,0,0,0,0,0,0,0,0],"sum_hessian":[4.099738E3,4.0029146E3,9.6823105E1,1.4015453E3,2.6013694E3,7.687046E1,1.9952639E1,3.6622952E2,1.0353158E3,2.561521E3,3.984841E1,1.6321064E1,6.05494E1,2.6259927E2,1.0363023E2,8.7280273E2,1.6251305E2,2.3932402E3,1.6828072E2,2.5425123E1,1.4423287E1,1.0520882E1,5.002852E1],"tree_param":{"num_deleted":"0","num_feature":"459","num_nodes":"23","size_leaf_vector":"1"}},{"base_weights":[-1.4355207E-3,6.365543E-3,-6.353245E-1,-7.6582545E-4,6.3080835E-1,-3.709735E-3,-7.707596E-1,3.7789457E-2,-1.2595533E-1,5.065148E-2,-5.7221414E-3,-1.5936552E-2,-4.4958934E-2,6.6227517E-3,-5.2837736E-4,-5.1327306E-3,-3.1290803E-2],"categories":[],"categories_nodes":[],"categories_segments":[],"categories_sizes":[],"default_left":[0,0,0,0,0,0,0,0,0,0,0,0,0,0,0,0,0],"id":37,"left_children":[1,3,5,7,9,-1,11,13,15,-1,-1,-1,-1,-1,-1,-1,-1],"loss_changes":[2.0668673E1,1.8424765E1,3.153654E0,1.9492956E1,1.4334608E1,0E0,2.6189613E-1,1.4156763E1,1.0400416E1,0E0,0E0,0E0,0E0,0E0,0E0,0E0,0E0],"parents":[2147483647,0,0,1,1,2,2,3,3,4,4,6,6,7,7,8,8],"right_children":[2,4,6,8,10,-1,12,14,16,-1,-1,-1,-1,-1,-1,-1,-1],"split_conditions":[1.7E2,2.8333333E0,1.4814815E-1,6E-1,4.5E0,-3.709735E-3,3.5530992E0,1E0,1.3730153E-1,5.065148E-2,-5.7221414E-3,-1.5936552E-2,-4.4958934E-2,6.6227517E-3,-5.2837736E-4,-5.1327306E-3,-3.1290803E-2],"split_indices":[226,229,206,157,229,0,186,229,354,0,0,0,0,0,0,0,0],"split_type":[0,0,0,0,0,0,0,0,0,0,0,0,0,0,0,0,0],"sum_hessian":[4.10702E3,4.061201E3,4.5818863E1,4.01949E3,4.1710915E1,1.1131244E1,3.4687622E1,3.0726777E3,9.4681226E2,2.6826569E1,1.4884346E1,1.2387513E1,2.2300108E1,1.0394512E3,2.0332266E3,9.11357E2,3.5455273E1],"tree_param":{"num_deleted":"0","num_feature":"459","num_nodes":"17","size_leaf_vector":"1"}},{"base_weights":[-2.2402335E-2,-1.4220347E-2,-6.247962E-1,-9.187364E-2,4.0403765E-2,-0E0,-3.8856994E-2,-1.234492E-1,1.4694853E-1,8.035827E-3,2.876854E-1,-2.1899587E-2,-4.6683955E-3,3.2270767E-2,1.3366462E-4,-1.3739287E-2,1.7978108E-3,-3.8485283E-3,2.1780692E-2],"categories":[],"categories_nodes":[],"categories_segments":[],"categories_sizes":[],"default_left":[0,0,0,0,0,0,0,0,0,0,0,0,0,0,0,0,0,0,0],"id":38,"left_children":[1,3,5,7,9,-1,-1,11,13,15,17,-1,-1,-1,-1,-1,-1,-1,-1],"loss_changes":[1.982319E1,1.720984E1,5.241083E0,1.2720922E1,1.8853037E1,0E0,0E0,1.3583008E1,1.3777295E1,1.6570776E1,1.5073664E1,0E0,0E0,0E0,0E0,0E0,0E0,0E0,0E0],"parents":[2147483647,0,0,1,1,2,2,3,3,4,4,7,7,8,8,9,9,10,10],"right_children":[2,4,6,8,10,-1,-1,12,14,16,18,-1,-1,-1,-1,-1,-1,-1,-1],"split_conditions":[4.1E2,8.3333336E-2,6.998051E-1,6.363636E-1,4.696763E-1,-0E0,-3.8856994E-2,5E-1,-1.8680084E-2,2.24E-1,2.9249132E0,-2.1899587E-2,-4.6683955E-3,3.2270767E-2,1.3366462E-4,-1.3739287E-2,1.7978108E-3,-3.8485283E-3,2.1780692E-2],"split_indices":[227,343,224,43,152,0,0,392,410,137,182,0,0,0,0,0,0,0,0],"split_type":[0,0,0,0,0,0,0,0,0,0,0,0,0,0,0,0,0,0,0],"sum_hessian":[4.0907646E3,4.041815E3,4.8949722E1,1.6714442E3,2.3703706E3,1.0400404E1,3.8549316E1,1.4802446E3,1.9119951E2,2.102366E3,2.680048E2,1.2183753E2,1.3584071E3,3.8241867E1,1.5295764E2,1.8331787E2,1.919048E3,7.7061104E1,1.909437E2],"tree_param":{"num_deleted":"0","num_feature":"459","num_nodes":"19","size_leaf_vector":"1"}},{"base_weights":[-2.617447E-3,4.079147E-3,-7.039713E-1,-3.9528787E-1,1.3736178E-2,-4.288937E-2,-1.14593E-2,1.3820119E-2,-5.161545E-1,5.3979654E-2,-8.2255624E-2,2.457264E-3,-3.194075E-2,-3.6667698E-4,6.9359676E-3,-1.7478187E-2,-1.1878867E-3],"categories":[],"categories_nodes":[],"categories_segments":[],"categories_sizes":[],"default_left":[0,0,0,0,0,0,0,0,0,0,0,0,0,0,0,0,0],"id":39,"left_children":[1,3,5,7,9,-1,-1,-1,11,13,15,-1,-1,-1,-1,-1,-1],"loss_changes":[1.9517267E1,1.543161E1,1.3438778E0,8.498397E0,1.5283533E1,0E0,0E0,0E0,6.1648827E0,1.4581596E1,1.801055E1,0E0,0E0,0E0,0E0,0E0,0E0],"parents":[2147483647,0,0,1,1,2,2,3,3,4,4,8,8,9,9,10,10],"right_children":[2,4,6,8,10,-1,-1,-1,12,14,16,-1,-1,-1,-1,-1,-1],"split_conditions":[2E2,2.65E1,5.0847456E-2,9.691667E-2,5.707507E-1,-4.288937E-2,-1.14593E-2,1.3820119E-2,4.4444445E-1,4.2224836E-1,5.0072E0,2.457264E-3,-3.194075E-2,-3.6667698E-4,6.9359676E-3,-1.7478187E-2,-1.1878867E-3],"split_indices":[226,172,24,127,372,0,0,0,262,152,258,0,0,0,0,0,0],"split_type":[0,0,0,0,0,0,0,0,0,0,0,0,0,0,0,0,0],"sum_hessian":[4.0729775E3,4.038674E3,3.430363E1,8.9416374E1,3.9492576E3,2.20678E1,1.2235828E1,1.2024096E1,7.739228E1,2.7878713E3,1.1613864E3,1.36062355E1,6.3786045E1,1.6167458E3,1.1711254E3,2.0252336E2,9.5886304E2],"tree_param":{"num_deleted":"0","num_feature":"459","num_nodes":"17","size_leaf_vector":"1"}}]},"name":"gbtree"},"learner_model_param":{"base_score":"[4.5946968E-1]","boost_from_average":"1","num_class":"0","num_feature":"459","num_target":"1"},"objective":{"name":"binary:logistic","reg_loss_param":{"scale_pos_weight":"1"}}},"version":[3,1,3]}