{"learner":{"attributes":{"scikit_learn":"{\"_estimator_type\": \"regressor\"}"},"feature_names":[],"feature_types":[],"gradient_booster":{"model":{"cats":{"enc":[],"feature_segments":[],"sorted_idx":[]},"gbtree_model_param":{"num_parallel_tree":"1","num_trees":"43"},"iteration_indptr":[0,1,2,3,4,5,6,7,8,9,10,11,12,13,14,15,16,17,18,19,20,21,22,23,24,25,26,27,28,29,30,31,32,33,34,35,36,37,38,39,40,41,42,43],"tree_info":[0,0,0,0,0,0,0,0,0,0,0,0,0,0,0,0,0,0,0,0,0,0,0,0,0,0,0,0,0,0,0,0,0,0,0,0,0,0,0,0,0,0,0],"trees":[{"base_weights":[-1.0125146E-3,3.3808252E-1,-2.5454304E-1,1.0539945E-2,4.2951846E-1,-3.8423294E-1,-1.4099693E-1,1.6477372E-1,-2.621459E-1,6.023644E-1,3.2814667E-1,-4.014595E-1,3.2556087E-2,-2.930448E-1,3.852448E-2,2.7876869E-2,9.822872E-4,-0E0,-2.9823234E-2,-8.334341E-3,3.1945597E-2,-1.076311E-2,1.798891E-2,-2.106677E-2,9.966032E-3,-3.2149445E-2,-1.1094551E-2,-1.6575523E-2,7.6747336E-3],"categories":[],"categories_nodes":[],"categories_segments":[],"categories_sizes":[],"default_left":[0,0,0,0,0,0,0,0,0,0,0,0,0,0,0,0,0,0,0,0,0,0,0,0,0,0,0,0,0],"id":0,"left_children":[1,3,5,7,9,11,13,15,17,19,21,23,-1,25,27,-1,-1,-1,-1,-1,-1,-1,-1,-1,-1,-1,-1,-1,-1],"loss_changes":[2.8756036E2,4.2594543E1,2.7666473E1,1.3561202E1,1.8115738E1,1.703798E1,2.8325937E1,1.1493233E1,1.033547E1,1.2153915E1,1.2780319E1,1.1015381E1,0E0,1.2805752E1,2.0403147E1,0E0,0E0,0E0,0E0,0E0,0E0,0E0,0E0,0E0,0E0,0E0,0E0,0E0,0E0],"parents":[2147483647,0,0,1,1,2,2,3,3,4,4,5,5,6,6,7,7,8,8,9,9,10,10,11,11,13,13,14,14],"right_children":[2,4,6,8,10,12,14,16,18,20,22,24,-1,26,28,-1,-1,-1,-1,-1,-1,-1,-1,-1,-1,-1,-1,-1,-1],"split_conditions":[1.5E0,5.942902E-1,4.1896996E-1,1.7673612E0,1.4099917E1,1.8E0,4.5324916E-1,9.41E-1,4.4596443E-1,1.9653687E1,3.3333334E-1,1.55E2,3.2556087E-2,1.05E0,2.5057995E1,2.7876869E-2,9.822872E-4,-0E0,-2.9823234E-2,-8.334341E-3,3.1945597E-2,-1.076311E-2,1.798891E-2,-2.106677E-2,9.966032E-3,-3.2149445E-2,-1.1094551E-2,-1.6575523E-2,7.6747336E-3],"split_indices":[171,247,136,1,238,180,188,59,112,133,231,93,0,11,134,0,0,0,0,0,0,0,0,0,0,0,0,0,0],"split_type":[0,0,0,0,0,0,0,0,0,0,0,0,0,0,0,0,0,0,0,0,0,0,0,0,0,0,0,0,0],"sum_hessian":[3.3353362E3,1.4253297E3,1.9100066E3,3.134677E2,1.1118619E3,8.839989E2,1.0260077E3,2.0265587E2,1.1081183E2,4.0007065E2,7.117913E2,8.730175E2,1.0981353E1,5.55307E2,4.707007E2,4.9915237E1,1.5274063E2,6.4390656E1,4.6421173E1,1.6721605E1,3.8334903E2,3.6687702E1,6.7510364E2,8.4731116E2,2.5706348E1,8.585421E1,4.6945282E2,1.0831607E2,3.6238464E2],"tree_param":{"num_deleted":"0","num_feature":"273","num_nodes":"29","size_leaf_vector":"1"}},{"base_weights":[1.0760445E-2,-2.6662007E-1,8.300893E-2,7.14186E-2,-3.171523E-1,2.1131147E-2,2.0826298E-1,-3.0705115E-2,2.0201075E-1,-1.19668625E-1,-4.1377705E-1,2.1154291E-3,4.962684E-1,-1.8287623E-1,2.5095937E-1,2.2586854E-2,-1.437091E-2,-9.592531E-3,3.1055493E-2,5.432643E-3,-2.3690982E-2,1.4208662E-3,-1.5658995E-2,5.6948834E-3,4.1300204E-2,-4.2162884E-2,5.3452826E-3,1.5086934E-2,-6.863696E-4],"categories":[],"categories_nodes":[],"categories_segments":[],"categories_sizes":[],"default_left":[0,0,0,0,0,0,0,0,0,0,0,0,0,0,0,0,0,0,0,0,0,0,0,0,0,0,0,0,0],"id":1,"left_children":[1,3,5,7,9,11,13,-1,15,17,19,21,23,25,27,-1,-1,-1,-1,-1,-1,-1,-1,-1,-1,-1,-1,-1,-1],"loss_changes":[6.7168816E1,1.2059582E1,2.0507204E1,8.722726E0,1.1017933E1,1.592796E1,1.4918175E1,0E0,1.0794233E1,1.1464976E1,1.3052162E1,1.4233638E1,7.6192436E0,1.7678534E1,1.0842094E1,0E0,0E0,0E0,0E0,0E0,0E0,0E0,0E0,0E0,0E0,0E0,0E0,0E0,0E0],"parents":[2147483647,0,0,1,1,2,2,3,3,4,4,5,5,6,6,8,8,9,9,10,10,11,11,12,12,13,13,14,14],"right_children":[2,4,6,8,10,12,14,-1,16,18,20,22,24,26,28,-1,-1,-1,-1,-1,-1,-1,-1,-1,-1,-1,-1,-1,-1],"split_conditions":[1E0,-2.3E0,6E0,5.578125E-1,-8.3333336E-2,2.3295705E-1,8.024767E-2,-3.0705115E-2,4.8361167E-1,1.6023856E-1,-5.0031285E0,3E0,4.4180818E0,5.47E-1,4.5728785E-1,2.2586854E-2,-1.437091E-2,-9.592531E-3,3.1055493E-2,5.432643E-3,-2.3690982E-2,1.4208662E-3,-1.5658995E-2,5.6948834E-3,4.1300204E-2,-4.2162884E-2,5.3452826E-3,1.5086934E-2,-6.863696E-4],"split_indices":[172,141,70,194,236,249,251,0,112,47,244,9,167,152,110,0,0,0,0,0,0,0,0,0,0,0,0,0,0],"split_type":[0,0,0,0,0,0,0,0,0,0,0,0,0,0,0,0,0,0,0,0,0,0,0,0,0,0,0,0,0],"sum_hessian":[3.3457427E3,6.8716547E2,2.6585771E3,8.780782E1,5.993576E2,1.7860643E3,8.725128E2,1.0475832E1,7.733199E1,2.0228679E2,3.9707083E2,1.7231748E3,6.28895E1,8.310114E1,7.894117E2,5.213651E1,2.5195484E1,1.8831706E2,1.3969713E1,3.9655254E1,3.574156E2,1.5961587E3,1.2701619E2,3.2937603E1,2.9951899E1,2.2957975E1,6.014317E1,6.6334094E2,1.2607077E2],"tree_param":{"num_deleted":"0","num_feature":"273","num_nodes":"29","size_leaf_vector":"1"}},{"base_weights":[1.2923963E-2,3.3473805E-1,-2.2770423E-1,2.3604584E-1,5.8015925E-1,-3.039226E-1,-1.9386662E-2,-1.1269994E-1,2.854062E-1,-2.04491E-1,6.3843644E-1,-2.5956613E-1,-5.241943E-1,-2.0592462E-1,1.5079738E-1,-1.5157391E-2,2.1459041E-2,7.606783E-3,1.9360468E-2,8.363054E-3,-2.4019558E-2,-7.6746726E-3,3.4330186E-2,-1.6501814E-2,-4.8985146E-3,-1.5642336E-3,-3.1357184E-2,1.2500188E-2,-1.50815025E-2,-1.5866417E-2,1.2701034E-2],"categories":[],"categories_nodes":[],"categories_segments":[],"categories_sizes":[],"default_left":[0,0,0,0,0,0,0,0,0,0,0,0,0,0,0,0,0,0,0,0,0,0,0,0,0,0,0,0,0,0,0],"id":2,"left_children":[1,3,5,7,9,11,13,15,17,19,21,23,25,27,29,-1,-1,-1,-1,-1,-1,-1,-1,-1,-1,-1,-1,-1,-1,-1,-1],"loss_changes":[2.588502E2,3.3558197E1,3.0158577E1,1.7981125E1,1.9408371E1,1.2580582E1,1.6662788E1,1.4009703E1,1.1716026E1,3.7607586E0,1.5257904E1,1.3004005E1,1.1113445E1,1.1362927E1,1.3560521E1,0E0,0E0,0E0,0E0,0E0,0E0,0E0,0E0,0E0,0E0,0E0,0E0,0E0,0E0,0E0,0E0],"parents":[2147483647,0,0,1,1,2,2,3,3,4,4,5,5,6,6,7,7,8,8,9,9,10,10,11,11,12,12,13,13,14,14],"right_children":[2,4,6,8,10,12,14,16,18,20,22,24,26,28,30,-1,-1,-1,-1,-1,-1,-1,-1,-1,-1,-1,-1,-1,-1,-1,-1],"split_conditions":[1.5E0,2.4830857E-1,1.5564124E-1,2.8584832E-1,2.35E1,7.547096E-1,4.212759E1,1.59375E0,3.725E0,2.71E1,-1.5E-1,1.38E2,3.19E1,-2.2274678E0,4.534E0,-1.5157391E-2,2.1459041E-2,7.606783E-3,1.9360468E-2,8.363054E-3,-2.4019558E-2,-7.6746726E-3,3.4330186E-2,-1.6501814E-2,-4.8985146E-3,-1.5642336E-3,-3.1357184E-2,1.2500188E-2,-1.50815025E-2,-1.5866417E-2,1.2701034E-2],"split_indices":[171,121,250,137,159,64,131,194,97,129,207,93,159,192,49,0,0,0,0,0,0,0,0,0,0,0,0,0,0,0,0],"split_type":[0,0,0,0,0,0,0,0,0,0,0,0,0,0,0,0,0,0,0,0,0,0,0,0,0,0,0,0,0,0,0],"sum_hessian":[3.3320842E3,1.4256093E3,1.906475E3,1.0251913E3,4.0041788E2,1.3923522E3,5.141228E2,1.2505995E2,9.0013135E2,2.6223076E1,3.741948E2,1.1699247E3,2.224276E2,2.4617712E2,2.6794568E2,9.484982E1,3.0210125E1,3.9734726E2,5.027841E2,1.1237738E1,1.4985337E1,2.0232529E1,3.5396228E2,8.088766E2,3.6104803E2,4.0395374E1,1.8203221E2,4.0405422E1,2.057717E2,4.565984E1,2.2228584E2],"tree_param":{"num_deleted":"0","num_feature":"273","num_nodes":"31","size_leaf_vector":"1"}},{"base_weights":[-1.2550516E-2,2.9766935E-1,-2.4155967E-1,5.098209E-2,3.848067E-1,-3.3743054E-1,-1.3392353E-1,-5.0891425E-2,3.4808686E-1,5.5700934E-1,3.062907E-1,-4.6153384E-1,-2.5556517E-1,-2.6182273E-1,4.6177283E-2,-9.243417E-3,8.59204E-3,3.3198375E-2,4.9608564E-3,3.02141E-2,-1.3480707E-2,-6.1940183E-3,1.8399993E-2,-2.6819402E-2,-1.044529E-3,-2.840962E-2,-1.0363332E-2,-1.8843452E-2,2.1594057E-3,-7.29211E-3,1.2194223E-2],"categories":[],"categories_nodes":[],"categories_segments":[],"categories_sizes":[],"default_left":[0,0,0,0,0,0,0,0,0,0,0,0,0,0,0,0,0,0,0,0,0,0,0,0,0,0,0,0,0,0,0],"id":3,"left_children":[1,3,5,7,9,11,13,15,17,19,21,23,25,27,29,-1,-1,-1,-1,-1,-1,-1,-1,-1,-1,-1,-1,-1,-1,-1,-1],"loss_changes":[2.3842006E2,3.0306976E1,1.9472038E1,1.1712145E1,1.2918594E1,9.3734665E0,2.1377853E1,8.682823E0,7.0477343E0,1.3520554E1,1.9850716E1,1.2699684E1,8.472282E0,1.9224514E1,1.4842139E1,0E0,0E0,0E0,0E0,0E0,0E0,0E0,0E0,0E0,0E0,0E0,0E0,0E0,0E0,0E0,0E0],"parents":[2147483647,0,0,1,1,2,2,3,3,4,4,5,5,6,6,7,7,8,8,9,9,10,10,11,11,12,12,13,13,14,14],"right_children":[2,4,6,8,10,12,14,16,18,20,22,24,26,28,30,-1,-1,-1,-1,-1,-1,-1,-1,-1,-1,-1,-1,-1,-1,-1,-1],"split_conditions":[1.5E0,2.2482575E-1,1.0851606E-1,3.3367887E-1,2.13E1,6.7E0,1.565E-1,1.2857143E0,8.985591E1,1.2641756E1,2.836087E-1,1.8639E0,3.1140572E1,4.4003872E1,4.2177956E1,-9.243417E-3,8.59204E-3,3.3198375E-2,4.9608564E-3,3.02141E-2,-1.3480707E-2,-6.1940183E-3,1.8399993E-2,-2.6819402E-2,-1.044529E-3,-2.840962E-2,-1.0363332E-2,-1.8843452E-2,2.1594057E-3,-7.29211E-3,1.2194223E-2],"split_indices":[171,121,251,137,164,63,111,10,132,168,137,95,117,131,131,0,0,0,0,0,0,0,0,0,0,0,0,0,0,0,0],"split_type":[0,0,0,0,0,0,0,0,0,0,0,0,0,0,0,0,0,0,0,0,0,0,0,0,0,0,0,0,0,0,0],"sum_hessian":[3.346322E3,1.4196102E3,1.9267117E3,3.741236E2,1.0454867E3,1.0109472E3,9.157645E2,2.804287E2,9.369487E1,3.1587192E2,7.2961475E2,3.9017203E2,6.2077515E2,5.357835E2,3.7998102E2,1.7703453E2,1.0339419E2,3.6728317E1,5.6966557E1,3.0062936E2,1.5242528E1,8.9885826E1,6.3972894E2,3.3161746E2,5.8554558E1,7.448362E1,5.4629156E2,3.8937677E2,1.4640675E2,1.9214568E2,1.8783533E2],"tree_param":{"num_deleted":"0","num_feature":"273","num_nodes":"31","size_leaf_vector":"1"}},{"base_weights":[-1.002913E-2,-2.7959025E-1,6.0699545E-2,3.4787077E-2,-3.295664E-1,1.04842514E-1,-7.7443756E-2,2.8669119E-2,-1.0212015E-1,-4.0002164E-1,-1.18872285E-1,-2.6576036E-1,1.210476E-1,-3.1827527E-1,-0E0,6.033815E-3,-2.3398707E-2,-2.3432678E-2,-5.152723E-3,9.708494E-3,-1.7689789E-2,1.478412E-2,-2.3977594E-2,1.8578319E-2,4.79548E-3,-2.3034485E-2,1.0188783E-2,-6.4916085E-3,8.08556E-3],"categories":[],"categories_nodes":[],"categories_segments":[],"categories_sizes":[],"default_left":[0,0,0,0,0,0,0,0,0,0,0,0,0,0,0,0,0,0,0,0,0,0,0,0,0,0,0,0,0],"id":4,"left_children":[1,3,5,7,9,11,13,-1,15,17,19,21,23,25,27,-1,-1,-1,-1,-1,-1,-1,-1,-1,-1,-1,-1,-1,-1],"loss_changes":[6.3699394E1,1.1118992E1,1.616037E1,7.7867255E0,8.427895E0,1.2138548E1,1.1983224E1,0E0,7.1389594E0,8.576599E0,1.2157599E1,1.0923325E1,1.1724205E1,1.2208802E1,1.03675785E1,0E0,0E0,0E0,0E0,0E0,0E0,0E0,0E0,0E0,0E0,0E0,0E0,0E0,0E0],"parents":[2147483647,0,0,1,1,2,2,3,3,4,4,5,5,6,6,8,8,9,9,10,10,11,11,12,12,13,13,14,14],"right_children":[2,4,6,8,10,12,14,-1,16,18,20,22,24,26,28,-1,-1,-1,-1,-1,-1,-1,-1,-1,-1,-1,-1,-1,-1],"split_conditions":[1E0,-2E0,1.6714286E0,-2.8284273E-1,2.770409E-1,7.5E0,1.59E1,2.8669119E-2,7.304602E-2,3.7834858E1,-4.1666668E-2,-3.3333334E-1,8.3E0,5.453333E-1,9.413333E1,6.033815E-3,-2.3398707E-2,-2.3432678E-2,-5.152723E-3,9.708494E-3,-1.7689789E-2,1.478412E-2,-2.3977594E-2,1.8578319E-2,4.79548E-3,-2.3034485E-2,1.0188783E-2,-6.4916085E-3,8.08556E-3],"split_indices":[172,141,51,176,262,154,153,0,257,117,230,179,155,53,52,0,0,0,0,0,0,0,0,0,0,0,0,0,0],"split_type":[0,0,0,0,0,0,0,0,0,0,0,0,0,0,0,0,0,0,0,0,0,0,0,0,0,0,0,0,0],"sum_hessian":[3.3258557E3,6.8967413E2,2.6361816E3,9.3434525E1,5.962396E2,2.0014526E3,6.34729E2,1.6446253E1,7.698827E1,4.4167813E2,1.5456148E2,7.933119E1,1.9221215E3,1.5117133E2,4.835577E2,4.9082363E1,2.7905909E1,3.550487E2,8.6629425E1,6.572289E1,8.883858E1,2.0704556E1,5.862664E1,1.6718674E2,1.7549347E3,1.1998509E2,3.1186232E1,2.6820587E2,2.1535184E2],"tree_param":{"num_deleted":"0","num_feature":"273","num_nodes":"29","size_leaf_vector":"1"}},{"base_weights":[-9.90638E-3,2.7641317E-1,-2.2250532E-1,9.310962E-2,3.7461096E-1,-3.5867843E-1,-1.3277334E-1,3.29927E-1,-2.1381445E-2,1.6028684E-1,4.3955624E-1,-2.0055746E-1,-4.6589816E-1,-2.441278E-1,2.9232737E-3,5.542545E-3,3.3228785E-2,-1.02494E-2,1.1890963E-2,1.5940255E-2,-4.5515294E-3,-8.121894E-3,2.3558032E-2,-1.292634E-2,1.8478837E-2,-2.503365E-2,1.8931341E-3,-8.752074E-3,-2.7059466E-2,1.2440731E-2,-5.060588E-3],"categories":[],"categories_nodes":[],"categories_segments":[],"categories_sizes":[],"default_left":[0,0,0,0,0,0,0,0,0,0,0,0,0,0,0,0,0,0,0,0,0,0,0,0,0,0,0,0,0,0,0],"id":5,"left_children":[1,3,5,7,9,11,13,15,17,19,21,23,25,27,29,-1,-1,-1,-1,-1,-1,-1,-1,-1,-1,-1,-1,-1,-1,-1,-1],"loss_changes":[2.0453822E2,2.5351593E1,2.3092484E1,1.3953693E1,1.227124E1,1.2105652E1,1.785193E1,1.1499777E1,1.6669039E1,9.2455635E0,1.4004837E1,1.0941238E1,8.174004E0,1.2436047E1,1.3815019E1,0E0,0E0,0E0,0E0,0E0,0E0,0E0,0E0,0E0,0E0,0E0,0E0,0E0,0E0,0E0,0E0],"parents":[2147483647,0,0,1,1,2,2,3,3,4,4,5,5,6,6,7,7,8,8,9,9,10,10,11,11,12,12,13,13,14,14],"right_children":[2,4,6,8,10,12,14,16,18,20,22,24,26,28,30,-1,-1,-1,-1,-1,-1,-1,-1,-1,-1,-1,-1,-1,-1,-1,-1],"split_conditions":[1E0,3.7132E0,4.1508627E-1,1.6041096E1,9.1275E-2,-5.591929E-1,4.5324916E-1,2.96E-1,2.4830689E-1,1.5885422E1,5E-1,1.0285644E1,1.53E2,7.694742E-1,6.18851E0,5.542545E-3,3.3228785E-2,-1.02494E-2,1.1890963E-2,1.5940255E-2,-4.5515294E-3,-8.121894E-3,2.3558032E-2,-1.292634E-2,1.8478837E-2,-2.503365E-2,1.8931341E-3,-8.752074E-3,-2.7059466E-2,1.2440731E-2,-5.060588E-3],"split_indices":[171,97,136,238,251,65,188,123,135,189,10,128,93,253,248,0,0,0,0,0,0,0,0,0,0,0,0,0,0,0,0],"split_type":[0,0,0,0,0,0,0,0,0,0,0,0,0,0,0,0,0,0,0,0,0,0,0,0,0,0,0,0,0,0,0],"sum_hessian":[3.3505698E3,1.4261018E3,1.9244681E3,5.0264978E2,9.2345197E2,7.5625397E2,1.1682141E3,1.6217012E2,3.4047968E2,2.2057562E2,7.0287634E2,3.132736E2,4.4298035E2,6.41489E2,5.2672516E2,1.0293474E2,5.923538E1,2.0104375E2,1.3943591E2,1.3565695E2,8.4918655E1,3.3238415E1,6.6963794E2,2.8763733E2,2.563626E1,4.153329E2,2.7647457E1,5.2826263E2,1.1322638E2,1.560658E2,3.7065936E2],"tree_param":{"num_deleted":"0","num_feature":"273","num_nodes":"31","size_leaf_vector":"1"}},{"base_weights":[8.10358E-3,2.844406E-1,-1.954915E-1,1.922428E-2,3.615796E-1,-3.17249E-1,-1.1940217E-1,-1.1316976E-1,3.624784E-1,2.7903116E-1,5.113268E-1,-4.541407E-1,-1.8840608E-1,1.256183E-1,-1.8349311E-1,-8.620782E-3,3.4434784E-2,2.6202321E-2,-2.5496434E-3,-1.3818035E-2,1.5491723E-2,2.8334234E-2,-7.343907E-3,-3.3725705E-2,-1.3905297E-2,-4.2831814E-3,-2.9280702E-2,-8.213759E-3,1.2688926E-2,-1.6242731E-2,-3.6153577E-3],"categories":[],"categories_nodes":[],"categories_segments":[],"categories_sizes":[],"default_left":[0,0,0,0,0,0,0,0,0,0,0,0,0,0,0,0,0,0,0,0,0,0,0,0,0,0,0,0,0,0,0],"id":6,"left_children":[1,3,5,7,9,11,13,15,17,19,21,23,25,27,29,-1,-1,-1,-1,-1,-1,-1,-1,-1,-1,-1,-1,-1,-1,-1,-1],"loss_changes":[1.871537E2,2.8658524E1,1.732428E1,1.5092494E1,1.2389709E1,1.2135994E1,1.8806902E1,1.1603749E1,6.56024E0,1.2712677E1,1.4467766E1,1.211628E1,1.5197457E1,9.45818E0,1.4547554E1,0E0,0E0,0E0,0E0,0E0,0E0,0E0,0E0,0E0,0E0,0E0,0E0,0E0,0E0,0E0,0E0],"parents":[2147483647,0,0,1,1,2,2,3,3,4,4,5,5,6,6,7,7,8,8,9,9,10,10,11,11,12,12,13,13,14,14],"right_children":[2,4,6,8,10,12,14,16,18,20,22,24,26,28,30,-1,-1,-1,-1,-1,-1,-1,-1,-1,-1,-1,-1,-1,-1,-1,-1],"split_conditions":[1E0,5.9507203E-1,8.3333336E-2,5.2416664E-1,2.4714419E-1,2.5539094E-1,-1.1E0,8.232726E-1,2.8E-1,2.8590962E-1,1.2211085E1,7.91301E0,1.8125E0,4.1213056E-1,6.291412E-2,-8.620782E-3,3.4434784E-2,2.6202321E-2,-2.5496434E-3,-1.3818035E-2,1.5491723E-2,2.8334234E-2,-7.343907E-3,-3.3725705E-2,-1.3905297E-2,-4.2831814E-3,-2.9280702E-2,-8.213759E-3,1.2688926E-2,-1.6242731E-2,-3.6153577E-3],"split_indices":[171,247,233,187,121,121,141,32,92,137,168,113,86,136,241,0,0,0,0,0,0,0,0,0,0,0,0,0,0,0,0],"split_type":[0,0,0,0,0,0,0,0,0,0,0,0,0,0,0,0,0,0,0,0,0,0,0,0,0,0,0,0,0,0,0],"sum_hessian":[3.3158025E3,1.4068174E3,1.9089851E3,3.1984976E2,1.0869677E3,7.255492E2,1.1834359E3,2.321888E2,8.766097E1,7.1208514E2,3.7488248E2,3.4378427E2,3.8176492E2,2.4276E2,9.406759E2,2.2044934E2,1.1739455E1,6.2939037E1,2.472194E1,3.447106E1,6.776141E2,3.471413E2,2.7741182E1,1.4511707E2,1.986672E2,3.091395E2,7.262542E1,7.279352E1,1.6996648E2,4.079297E2,5.327462E2],"tree_param":{"num_deleted":"0","num_feature":"273","num_nodes":"31","size_leaf_vector":"1"}},{"base_weights":[-9.690847E-4,2.6598772E-1,-1.9956644E-1,1.5997894E-1,4.9124235E-1,-2.5563297E-1,-5.234885E-2,-1.512695E-1,2.06768E-1,7.731982E-1,3.9094958E-1,1.1861196E-1,-2.8481856E-1,-3.2641032E-1,2.8027479E-2,2.337244E-2,-1.6495695E-2,3.1988022E-3,1.5139629E-2,4.4767197E-2,3.6294106E-3,-3.398624E-4,2.294075E-2,-2.0680519E-2,2.083404E-2,-1.2698225E-2,-3.524297E-2,-2.8422683E-2,-0E0,-2.489279E-2,5.6370357E-3],"categories":[],"categories_nodes":[],"categories_segments":[],"categories_sizes":[],"default_left":[0,0,0,0,0,0,0,0,0,0,0,0,0,0,0,0,0,0,0,0,0,0,0,0,0,0,0,0,0,0,0],"id":7,"left_children":[1,3,5,7,9,11,13,15,17,19,21,23,25,27,29,-1,-1,-1,-1,-1,-1,-1,-1,-1,-1,-1,-1,-1,-1,-1,-1],"loss_changes":[1.7752618E2,3.3371193E1,1.56390915E1,1.4451189E1,1.0714508E1,1.5410271E1,1.2061519E1,1.5017925E1,1.1445305E1,8.811226E0,9.5681305E0,1.7153635E1,1.5345276E1,9.640621E0,1.8786964E1,0E0,0E0,0E0,0E0,0E0,0E0,0E0,0E0,0E0,0E0,0E0,0E0,0E0,0E0,0E0,0E0],"parents":[2147483647,0,0,1,1,2,2,3,3,4,4,5,5,6,6,7,7,8,8,9,9,10,10,11,11,12,12,13,13,14,14],"right_children":[2,4,6,8,10,12,14,16,18,20,22,24,26,28,30,-1,-1,-1,-1,-1,-1,-1,-1,-1,-1,-1,-1,-1,-1,-1,-1],"split_conditions":[1.5E0,2.4671961E-1,6.7911565E-1,2.8590962E-1,2.9E1,6.1E0,6.423983E-1,8.333333E-1,2.944717E-1,2.98E1,2.87E1,4.033814E-1,2.2866266E1,7.803474E-1,7.79508E0,2.337244E-2,-1.6495695E-2,3.1988022E-3,1.5139629E-2,4.4767197E-2,3.6294106E-3,-3.398624E-4,2.294075E-2,-2.0680519E-2,2.083404E-2,-1.2698225E-2,-3.524297E-2,-2.8422683E-2,-0E0,-2.489279E-2,5.6370357E-3],"split_indices":[171,121,247,137,138,155,51,48,123,149,149,188,238,272,61,0,0,0,0,0,0,0,0,0,0,0,0,0,0,0,0],"split_type":[0,0,0,0,0,0,0,0,0,0,0,0,0,0,0,0,0,0,0,0,0,0,0,0,0,0,0,0,0,0,0],"sum_hessian":[3.3391023E3,1.4226056E3,1.9164967E3,9.746765E2,4.4792902E2,1.3827935E3,5.3370325E2,1.24517136E2,8.5015936E2,1.0741576E2,3.4051324E2,9.768847E1,1.285105E3,1.189685E2,4.1473474E2,2.5459267E1,9.905787E1,3.472799E2,5.028795E2,8.967775E1,1.7738007E1,4.9213516E1,2.9129974E2,3.3771503E1,6.3916965E1,1.2057501E3,7.935484E1,6.5708405E1,5.3260094E1,5.333769E1,3.6139703E2],"tree_param":{"num_deleted":"0","num_feature":"273","num_nodes":"31","size_leaf_vector":"1"}},{"base_weights":[1.0283078E-2,2.5090814E-1,-1.6892137E-1,-5.3314376E-3,3.1784168E-1,-2.6126787E-1,-6.819894E-2,-1.9054769E-1,2.4321161E-1,-2.3105534E-2,3.6319774E-1,-3.864106E-1,-1.6879743E-1,-1.2823034E-2,-3.3352107E-1,1.3806959E-2,-1.5430676E-2,-1.7857712E-4,2.93598E-2,-8.632291E-3,2.3383467E-2,1.3800752E-2,2.661248E-2,2.6398005E-3,-2.2304447E-2,8.864859E-4,-1.2019104E-2,1.0627705E-2,-4.424644E-3,1.7412815E-2,-2.0741723E-2],"categories":[],"categories_nodes":[],"categories_segments":[],"categories_sizes":[],"default_left":[0,0,0,0,0,0,0,0,0,0,0,0,0,0,0,0,0,0,0,0,0,0,0,0,0,0,0,0,0,0,0],"id":8,"left_children":[1,3,5,7,9,11,13,15,17,19,21,23,25,27,29,-1,-1,-1,-1,-1,-1,-1,-1,-1,-1,-1,-1,-1,-1,-1,-1],"loss_changes":[1.4430862E2,2.4676857E1,1.7572544E1,1.3986915E1,1.7760849E1,1.0916E1,1.34113865E1,1.0112228E1,1.1242689E1,1.0284735E1,1.3646454E1,1.1240112E1,7.925785E0,1.3213335E1,9.522806E0,0E0,0E0,0E0,0E0,0E0,0E0,0E0,0E0,0E0,0E0,0E0,0E0,0E0,0E0,0E0,0E0],"parents":[2147483647,0,0,1,1,2,2,3,3,4,4,5,5,6,6,7,7,8,8,9,9,10,10,11,11,12,12,13,13,14,14],"right_children":[2,4,6,8,10,12,14,16,18,20,22,24,26,28,30,-1,-1,-1,-1,-1,-1,-1,-1,-1,-1,-1,-1,-1,-1,-1,-1],"split_conditions":[1E0,1.0682164E-1,1.0851606E-1,9.137E-1,1.22E1,7E0,7.193398E-1,9.69E-1,3.9260352E-1,2.2222222E-1,2.4725197E-1,3.3333334E-1,4.93E1,-1.1E0,3.101448E1,1.3806959E-2,-1.5430676E-2,-1.7857712E-4,2.93598E-2,-8.632291E-3,2.3383467E-2,1.3800752E-2,2.661248E-2,2.6398005E-3,-2.2304447E-2,8.864859E-4,-1.2019104E-2,1.0627705E-2,-4.424644E-3,1.7412815E-2,-2.0741723E-2],"split_indices":[171,250,251,94,148,63,64,58,136,39,121,269,165,141,117,0,0,0,0,0,0,0,0,0,0,0,0,0,0,0,0],"split_type":[0,0,0,0,0,0,0,0,0,0,0,0,0,0,0,0,0,0,0,0,0,0,0,0,0,0,0,0,0,0,0],"sum_hessian":[3.335726E3,1.4241935E3,1.9115326E3,2.9437582E2,1.1298176E3,9.904829E2,9.210497E2,1.7049788E2,1.23877945E2,1.3164607E2,9.981716E2,4.1183484E2,5.786481E2,7.679049E2,1.5314479E2,3.221807E1,1.3827982E2,7.416477E1,4.971317E1,1.0416625E2,2.7479822E1,6.691841E2,3.289875E2,4.8331837E1,3.6350302E2,1.5958817E2,4.190599E2,1.8908287E2,5.78822E2,1.3914478E1,1.3923032E2],"tree_param":{"num_deleted":"0","num_feature":"273","num_nodes":"31","size_leaf_vector":"1"}},{"base_weights":[-7.4422355E-3,2.179068E-1,-1.7668806E-1,-1.0937308E-2,2.8229704E-1,-2.05731E-1,1.8148254E-1,3.5372785E-1,-1.0711708E-1,2.0058903E-1,4.2919105E-1,-3.705487E-1,-1.5663199E-1,4.4575962E-1,-1.3156137E-1,-3.48521E-3,2.8621092E-2,1.8891095E-3,-2.4823606E-2,4.6474626E-3,1.7782724E-2,2.3934906E-2,-7.914816E-3,-2.1004403E-2,1.1049585E-2,-6.022562E-3,-2.163555E-2,-1.738783E-2,3.0347485E-2,-1.5179425E-2,1.32410675E-2],"categories":[],"categories_nodes":[],"categories_segments":[],"categories_sizes":[],"default_left":[0,0,0,0,0,0,0,0,0,0,0,0,0,0,0,0,0,0,0,0,0,0,0,0,0,0,0,0,0,0,0],"id":9,"left_children":[1,3,5,7,9,11,13,15,17,19,21,23,25,27,29,-1,-1,-1,-1,-1,-1,-1,-1,-1,-1,-1,-1,-1,-1,-1,-1],"loss_changes":[1.2710233E2,2.1199265E1,2.0011639E1,1.1176301E1,1.2657112E1,1.3732742E1,1.2382004E1,6.5799847E0,1.4742299E1,1.1780029E1,1.1956085E1,1.2262394E1,1.3159576E1,1.1444201E1,5.127404E0,0E0,0E0,0E0,0E0,0E0,0E0,0E0,0E0,0E0,0E0,0E0,0E0,0E0,0E0,0E0,0E0],"parents":[2147483647,0,0,1,1,2,2,3,3,4,4,5,5,6,6,7,7,8,8,9,9,10,10,11,11,12,12,13,13,14,14],"right_children":[2,4,6,8,10,12,14,16,18,20,22,24,26,28,30,-1,-1,-1,-1,-1,-1,-1,-1,-1,-1,-1,-1,-1,-1,-1,-1],"split_conditions":[1.5E0,5.942902E-1,2.2212215E-1,1.88E1,2.4696615E-1,2.7292588E0,4.580286E-2,2.86E1,2.0625E0,3.5714287E-1,1.2211085E1,2.768E1,4.4071968E1,3.238312E-2,3.33E1,-3.48521E-3,2.8621092E-2,1.8891095E-3,-2.4823606E-2,4.6474626E-3,1.7782724E-2,2.3934906E-2,-7.914816E-3,-2.1004403E-2,1.1049585E-2,-6.022562E-3,-2.163555E-2,-1.738783E-2,3.0347485E-2,-1.5179425E-2,1.32410675E-2],"split_indices":[171,247,249,143,121,167,181,161,1,42,168,169,119,241,164,0,0,0,0,0,0,0,0,0,0,0,0,0,0,0,0],"split_type":[0,0,0,0,0,0,0,0,0,0,0,0,0,0,0,0,0,0,0,0,0,0,0,0,0,0,0,0,0,0,0],"sum_hessian":[3.3230674E3,1.4234143E3,1.8996531E3,3.1176855E2,1.1116458E3,1.7604293E3,1.3922379E2,6.11878E1,2.5058075E2,7.2410345E2,3.8754227E2,3.9420996E2,1.3662194E3,7.5208725E1,6.401505E1,2.1220684E1,3.9967117E1,1.8497322E2,6.560753E1,4.340359E2,2.9006757E2,3.5906143E2,2.848083E1,3.6586456E2,2.8345375E1,1.2158695E3,1.5034982E2,1.1197229E1,6.40115E1,4.6337048E1,1.7678007E1],"tree_param":{"num_deleted":"0","num_feature":"273","num_nodes":"31","size_leaf_vector":"1"}},{"base_weights":[-4.5753582E-3,2.211605E-1,-1.7186019E-1,5.013271E-1,1.775531E-1,-2.2962046E-1,-2.0251613E-2,5.408694E-2,6.19173E-1,1.2868476E-1,4.4542417E-1,-2.4068747E-1,2.1822043E-2,-3.1584898E-1,6.1336707E-2,-1.1966475E-2,2.4996147E-2,3.392571E-3,3.656703E-2,-1.1415573E-2,7.941217E-3,3.0631715E-2,3.3447605E-3,-2.985244E-2,-1.0983477E-2,-3.5580718E-3,-3.70319E-2,-2.258425E-2,7.265817E-3],"categories":[],"categories_nodes":[],"categories_segments":[],"categories_sizes":[],"default_left":[0,0,0,0,0,0,0,0,0,0,0,0,0,0,0,0,0,0,0,0,0,0,0,0,0,0,0,0,0],"id":10,"left_children":[1,3,5,7,9,11,13,15,17,19,21,23,-1,25,27,-1,-1,-1,-1,-1,-1,-1,-1,-1,-1,-1,-1,-1,-1],"loss_changes":[1.25405235E2,1.6473259E1,1.656865E1,9.297249E0,1.5548481E1,1.0595795E1,1.3115229E1,6.634241E0,8.369808E0,1.1446312E1,1.1253803E1,9.128807E0,0E0,1.1570521E1,1.834576E1,0E0,0E0,0E0,0E0,0E0,0E0,0E0,0E0,0E0,0E0,0E0,0E0,0E0,0E0],"parents":[2147483647,0,0,1,1,2,2,3,3,4,4,5,5,6,6,7,7,8,8,9,9,10,10,11,11,13,13,14,14],"right_children":[2,4,6,8,10,12,14,16,18,20,22,24,-1,26,28,-1,-1,-1,-1,-1,-1,-1,-1,-1,-1,-1,-1,-1,-1],"split_conditions":[1E0,1.85E1,1.15134135E-1,3.125E-1,2.7869146E1,6.92E1,6.423983E-1,1.012E-1,4.6E1,7.8825556E-2,1E0,3.1E0,2.1822043E-2,5.64E-2,7.779412E0,-1.1966475E-2,2.4996147E-2,3.392571E-3,3.656703E-2,-1.1415573E-2,7.941217E-3,3.0631715E-2,3.3447605E-3,-2.985244E-2,-1.0983477E-2,-3.5580718E-3,-3.70319E-2,-2.258425E-2,7.265817E-3],"split_indices":[171,164,251,269,189,139,51,182,165,251,68,14,0,101,61,0,0,0,0,0,0,0,0,0,0,0,0,0,0],"split_type":[0,0,0,0,0,0,0,0,0,0,0,0,0,0,0,0,0,0,0,0,0,0,0,0,0,0,0,0,0],"sum_hessian":[3.3115413E3,1.4075626E3,1.9039786E3,1.8096434E2,1.2265983E3,1.3744615E3,5.295171E2,4.0145325E1,1.4081902E2,1.0451903E3,1.8140791E2,1.3558767E3,1.8584837E1,1.1275907E2,4.1675806E2,2.4931622E1,1.5213701E1,2.5916672E1,1.1490234E2,7.751992E1,9.676704E2,1.2276494E2,5.864298E1,6.655788E1,1.2893188E3,7.599753E1,3.6761543E1,5.4707844E1,3.620502E2],"tree_param":{"num_deleted":"0","num_feature":"273","num_nodes":"29","size_leaf_vector":"1"}},{"base_weights":[-6.655473E-3,1.9601144E-1,-1.5870045E-1,1.2609576E-1,3.7630427E-1,-2.2197022E-1,-3.102966E-2,-3.145593E-1,1.5505038E-1,-6.823001E-2,4.322315E-1,1.2964262E-1,-2.5337082E-1,-2.54944E-1,8.5533775E-2,1.3876942E-2,-2.585696E-2,-5.8073094E-3,9.830215E-3,-2.1532148E-2,1.1132404E-2,-4.717627E-3,2.422188E-2,-9.263956E-3,2.1717634E-2,-1.7954718E-2,-8.243703E-3,-1.8330764E-2,5.2112816E-3,-6.6410312E-3,9.721574E-3],"categories":[],"categories_nodes":[],"categories_segments":[],"categories_sizes":[],"default_left":[0,0,0,0,0,0,0,0,0,0,0,0,0,0,0,0,0,0,0,0,0,0,0,0,0,0,0,0,0,0,0],"id":11,"left_children":[1,3,5,7,9,11,13,15,17,19,21,23,25,27,29,-1,-1,-1,-1,-1,-1,-1,-1,-1,-1,-1,-1,-1,-1,-1,-1],"loss_changes":[1.02031235E2,1.738869E1,1.5134014E1,1.3324366E1,1.0069622E1,1.4166588E1,1.6789595E1,8.535875E0,1.1111147E1,5.548669E0,1.0036461E1,1.0652236E1,1.0314926E1,9.162651E0,1.0157306E1,0E0,0E0,0E0,0E0,0E0,0E0,0E0,0E0,0E0,0E0,0E0,0E0,0E0,0E0,0E0,0E0],"parents":[2147483647,0,0,1,1,2,2,3,3,4,4,5,5,6,6,7,7,8,8,9,9,10,10,11,11,12,12,13,13,14,14],"right_children":[2,4,6,8,10,12,14,16,18,20,22,24,26,28,30,-1,-1,-1,-1,-1,-1,-1,-1,-1,-1,-1,-1,-1,-1,-1,-1],"split_conditions":[1E0,2.4841778E-1,7.875E-1,1.1495232E-1,2.232798E1,6.3E0,6.21E1,-4.6017316E-1,2.8590962E-1,8E0,8.125E-1,3.4210236E1,1.6604E0,9E0,1.001E0,1.3876942E-2,-2.585696E-2,-5.8073094E-3,9.830215E-3,-2.1532148E-2,1.1132404E-2,-4.717627E-3,2.422188E-2,-9.263956E-3,2.1717634E-2,-1.7954718E-2,-8.243703E-3,-1.8330764E-2,5.2112816E-3,-6.6410312E-3,9.721574E-3],"split_indices":[171,121,272,193,133,155,62,53,137,69,1,117,95,69,58,0,0,0,0,0,0,0,0,0,0,0,0,0,0,0,0],"split_type":[0,0,0,0,0,0,0,0,0,0,0,0,0,0,0,0,0,0,0,0,0,0,0,0,0,0,0,0,0,0,0],"sum_hessian":[3.301703E3,1.4132245E3,1.8884784E3,1.0264486E3,3.8677585E2,1.2576273E3,6.3085114E2,5.918195E1,9.6726666E2,4.210071E1,3.4467514E2,1.005162E2,1.1571111E3,2.1540988E2,4.1544128E2,1.3985886E1,4.5196064E1,1.2572563E2,8.415411E2,1.8441015E1,2.3659695E1,2.9861279E1,3.1481387E2,4.9586628E1,5.092957E1,5.176987E2,6.3941235E2,1.653031E2,5.0106796E1,1.3635051E2,2.7909076E2],"tree_param":{"num_deleted":"0","num_feature":"273","num_nodes":"31","size_leaf_vector":"1"}},{"base_weights":[7.6019256E-3,2.1609941E-1,-1.4912201E-1,1.0127733E-1,3.313506E-1,-1.1321992E-1,-3.4999728E-1,2.7256167E-1,8.823347E-3,3.8432363E-1,-2.246618E-1,-1.9459589E-1,-1.2184419E-2,-3.8934645E-1,1.3626817E-2,1.8335968E-2,-5.982162E-3,-2.0610644E-3,2.3012612E-2,-1.3394584E-2,2.0408105E-2,2.1278054E-2,-2.0035421E-2,-1.808863E-2,-6.752846E-3,6.283449E-4,-3.297509E-2,-2.264584E-2,-0E0],"categories":[],"categories_nodes":[],"categories_segments":[],"categories_sizes":[],"default_left":[0,0,0,0,0,0,0,0,0,0,0,0,0,0,0,0,0,0,0,0,0,0,0,0,0,0,0,0,0],"id":12,"left_children":[1,3,5,7,9,11,13,15,17,19,21,23,25,27,-1,-1,-1,-1,-1,-1,-1,-1,-1,-1,-1,-1,-1,-1,-1],"loss_changes":[1.0892048E2,1.8556023E1,1.3280685E1,1.1349356E1,2.142099E1,1.3223419E1,7.5399246E0,9.669455E0,1.1120674E1,1.0735741E1,8.176147E0,8.420868E0,1.209011E1,6.678673E0,0E0,0E0,0E0,0E0,0E0,0E0,0E0,0E0,0E0,0E0,0E0,0E0,0E0,0E0,0E0],"parents":[2147483647,0,0,1,1,2,2,3,3,4,4,5,5,6,6,7,7,8,8,9,9,10,10,11,11,12,12,13,13],"right_children":[2,4,6,8,10,12,14,16,18,20,22,24,26,28,-1,-1,-1,-1,-1,-1,-1,-1,-1,-1,-1,-1,-1,-1,-1],"split_conditions":[1E0,6.237184E-1,7.77146E-1,1.4099917E1,5E-1,4.538739E-1,3.9850442E0,1.36E2,2.014E-1,4.164E-1,7.4407405E-1,1.1111112E0,1.3028571E1,3.8496992E-1,1.3626817E-2,1.8335968E-2,-5.982162E-3,-2.0610644E-3,2.3012612E-2,-1.3394584E-2,2.0408105E-2,2.1278054E-2,-2.0035421E-2,-1.808863E-2,-6.752846E-3,6.283449E-4,-3.297509E-2,-2.264584E-2,-0E0],"split_indices":[171,247,64,238,236,188,60,93,96,183,191,37,46,240,0,0,0,0,0,0,0,0,0,0,0,0,0,0,0],"split_type":[0,0,0,0,0,0,0,0,0,0,0,0,0,0,0,0,0,0,0,0,0,0,0,0,0,0,0,0,0],"sum_hessian":[3.3223362E3,1.4262382E3,1.896098E3,7.2132794E2,7.049102E2,1.6173407E3,2.7875732E2,2.4755257E2,4.7377536E2,6.458238E2,5.9086437E1,8.905197E2,7.26821E2,2.647021E2,1.4055258E1,2.0091751E2,4.6635067E1,4.2958783E2,4.4187534E1,2.0227968E1,6.255958E2,1.0474058E1,4.861238E1,2.2499313E2,6.655266E2,7.040316E2,2.2789373E1,2.2686343E2,3.7838642E1],"tree_param":{"num_deleted":"0","num_feature":"273","num_nodes":"29","size_leaf_vector":"1"}},{"base_weights":[7.056703E-3,2.077766E-1,-1.4433439E-1,5.1797897E-1,1.5931444E-1,-1.0752668E-1,-3.345342E-1,5.787627E-1,-8.981488E-3,-8.675375E-2,2.3111589E-1,-1.331063E-1,2.487872E-1,-3.8800812E-1,2.0996831E-1,2.1768722E-3,3.305612E-2,1.7082457E-3,-2.0908846E-2,-5.660331E-3,1.3048276E-2,1.9634445E-3,-9.477346E-3,-1.7146364E-2,2.0793315E-2,-3.189622E-2,-1.3219799E-2,2.756956E-2,-6.257181E-3],"categories":[],"categories_nodes":[],"categories_segments":[],"categories_sizes":[],"default_left":[0,0,0,0,0,0,0,0,0,0,0,0,0,0,0,0,0,0,0,0,0,0,0,0,0,0,0,0,0],"id":13,"left_children":[1,3,5,7,9,11,13,15,-1,17,19,21,23,25,27,-1,-1,-1,-1,-1,-1,-1,-1,-1,-1,-1,-1,-1,-1],"loss_changes":[1.01769424E2,2.090913E1,1.2951508E1,8.821384E0,2.2341923E1,1.4759844E1,9.36758E0,7.3325195E0,0E0,1.170476E1,1.0235176E1,1.47493E1,1.1437721E1,7.3562202E0,3.950996E0,0E0,0E0,0E0,0E0,0E0,0E0,0E0,0E0,0E0,0E0,0E0,0E0,0E0,0E0],"parents":[2147483647,0,0,1,1,2,2,3,3,4,4,5,5,6,6,7,7,9,9,10,10,11,11,12,12,13,13,14,14],"right_children":[2,4,6,8,10,12,14,16,-1,18,20,22,24,26,28,-1,-1,-1,-1,-1,-1,-1,-1,-1,-1,-1,-1,-1,-1],"split_conditions":[1E0,1.85E1,7.547096E-1,1.20626335E1,5.9507203E-1,2.2341533E-1,3.943E-1,-9.2050487E-1,-8.981488E-3,2.0868056E0,7.52E1,-9E-1,5.715108E-2,3.8581E0,4.25E1,2.1768722E-3,3.305612E-2,1.7082457E-3,-2.0908846E-2,-5.660331E-3,1.3048276E-2,1.9634445E-3,-9.477346E-3,-1.7146364E-2,2.0793315E-2,-3.189622E-2,-1.3219799E-2,2.756956E-2,-6.257181E-3],"split_indices":[171,164,64,168,247,249,209,65,0,1,162,141,241,97,151,0,0,0,0,0,0,0,0,0,0,0,0,0,0],"split_type":[0,0,0,0,0,0,0,0,0,0,0,0,0,0,0,0,0,0,0,0,0,0,0,0,0,0,0,0,0],"sum_hessian":[3.3381091E3,1.4358486E3,1.9022606E3,1.860701E2,1.2497786E3,1.6025823E3,2.9967828E2,1.7259975E2,1.34703455E1,2.8049594E2,9.692826E2,1.4994713E3,1.03111E2,2.7502432E2,2.4653982E1,2.484637E1,1.4775337E2,2.0769502E2,7.280093E1,7.487446E1,8.9440814E2,3.6805566E2,1.1314156E3,2.0886381E1,8.222462E1,8.279098E1,1.9223334E2,1.1352627E1,1.3301354E1],"tree_param":{"num_deleted":"0","num_feature":"273","num_nodes":"29","size_leaf_vector":"1"}},{"base_weights":[-1.14602E-2,1.753095E-1,-1.5179154E-1,1.01696834E-1,3.5722053E-1,-1.24237634E-1,-4.141486E-1,6.565593E-2,4.708848E-1,3.9752308E-1,-1.4953639E-1,-2.2676328E-1,-5.566386E-2,1.0416746E-2,-4.95794E-1,-6.7471876E-3,6.1039026E-3,2.9065866E-2,-1.0472394E-2,9.736436E-3,2.6173944E-2,1.2940662E-2,-2.2330737E-2,-1.2911166E-2,1.9680865E-2,-1.2631531E-2,5.313434E-5,-2.768818E-2,1.0178751E-2],"categories":[],"categories_nodes":[],"categories_segments":[],"categories_sizes":[],"default_left":[0,0,0,0,0,0,0,0,0,0,0,0,0,0,0,0,0,0,0,0,0,0,0,0,0,0,0,0,0],"id":14,"left_children":[1,3,5,7,9,11,13,15,17,19,21,23,25,-1,27,-1,-1,-1,-1,-1,-1,-1,-1,-1,-1,-1,-1,-1,-1],"loss_changes":[8.7198685E1,1.86861E1,1.3217354E1,1.3205378E1,8.731571E0,1.1954241E1,9.647163E0,1.07171E1,7.4851437E0,8.817253E0,4.6382723E0,1.3879265E1,1.1812392E1,0E0,7.1652794E0,0E0,0E0,0E0,0E0,0E0,0E0,0E0,0E0,0E0,0E0,0E0,0E0,0E0,0E0],"parents":[2147483647,0,0,1,1,2,2,3,3,4,4,5,5,6,6,7,7,8,8,9,9,10,10,11,11,12,12,14,14],"right_children":[2,4,6,8,10,12,14,16,18,20,22,24,26,-1,28,-1,-1,-1,-1,-1,-1,-1,-1,-1,-1,-1,-1,-1,-1],"split_conditions":[1E0,2.4830857E-1,9.1240174E-1,7.67E-1,1.2211085E1,9.090909E-2,2.87E1,3.0853113E1,3.015873E-1,3.3707864E0,6.021394E0,3.74E-1,2.5057995E1,1.0416746E-2,8.1059006E1,-6.7471876E-3,6.1039026E-3,2.9065866E-2,-1.0472394E-2,9.736436E-3,2.6173944E-2,1.2940662E-2,-2.2330737E-2,-1.2911166E-2,1.9680865E-2,-1.2631531E-2,5.313434E-5,-2.768818E-2,1.0178751E-2],"split_indices":[171,121,253,152,168,233,151,117,236,43,254,147,134,0,134,0,0,0,0,0,0,0,0,0,0,0,0,0,0],"split_type":[0,0,0,0,0,0,0,0,0,0,0,0,0,0,0,0,0,0,0,0,0,0,0,0,0,0,0,0,0],"sum_hessian":[3.3173416E3,1.421127E3,1.8962146E3,1.01922723E3,4.0189975E2,1.7243854E3,1.7182918E2,9.351769E2,8.40504E1,3.7420364E2,2.7696089E1,6.835597E2,1.0408257E3,1.8314287E1,1.535149E2,2.0181964E2,7.3335724E2,7.357091E1,1.0479493E1,1.4976888E2,2.2443477E2,1.1226142E1,1.6469948E1,6.541138E2,2.9445887E1,2.3084145E2,8.0998425E2,1.433858E2,1.0129103E1],"tree_param":{"num_deleted":"0","num_feature":"273","num_nodes":"29","size_leaf_vector":"1"}},{"base_weights":[-1.5370735E-3,4.4987366E-2,-1.7947473E-1,9.687409E-2,-6.520297E-2,-2.3395737E-1,4.788328E-2,3.45225E-1,5.214598E-2,-4.8035648E-1,-2.9023957E-2,7.6510906E-2,-2.7881533E-1,2.9250157E-1,-1.9163226E-1,1.1552976E-2,3.6948085E-2,-3.9339447E-3,5.506081E-3,-3.9323244E-2,-7.3246337E-3,1.5133555E-2,-3.7546244E-3,-3.8791255E-3,3.266003E-2,-1.5222642E-2,1.6820028E-2,-0E0,3.1202216E-2,-2.9874582E-2,-0E0],"categories":[],"categories_nodes":[],"categories_segments":[],"categories_sizes":[],"default_left":[0,0,0,0,0,0,0,0,0,0,0,0,0,0,0,0,0,0,0,0,0,0,0,0,0,0,0,0,0,0,0],"id":15,"left_children":[1,3,5,7,9,11,13,15,17,19,21,23,25,27,29,-1,-1,-1,-1,-1,-1,-1,-1,-1,-1,-1,-1,-1,-1,-1,-1],"loss_changes":[2.7564577E1,1.50899315E1,8.704554E0,1.9637508E1,1.2325033E1,8.003979E0,8.292594E0,1.0850533E1,1.1645744E1,5.7107687E0,1.1935629E1,7.044836E0,8.249958E0,7.107567E0,5.532013E0,0E0,0E0,0E0,0E0,0E0,0E0,0E0,0E0,0E0,0E0,0E0,0E0,0E0,0E0,0E0,0E0],"parents":[2147483647,0,0,1,1,2,2,3,3,4,4,5,5,6,6,7,7,8,8,9,9,10,10,11,11,12,12,13,13,14,14],"right_children":[2,4,6,8,10,12,14,16,18,20,22,24,26,28,30,-1,-1,-1,-1,-1,-1,-1,-1,-1,-1,-1,-1,-1,-1,-1,-1],"split_conditions":[1E0,5.622798E-1,6.363636E-1,-1.1E0,-6.605829E0,-2.4E0,9E0,8.09017E-1,-1.4815944E-1,5.85E-1,8.2E0,7.94E1,1.2383512E1,1.33E2,1.9385459E-1,1.1552976E-2,3.6948085E-2,-3.9339447E-3,5.506081E-3,-3.9323244E-2,-7.3246337E-3,1.5133555E-2,-3.7546244E-3,-3.8791255E-3,3.266003E-2,-1.5222642E-2,1.6820028E-2,-0E0,3.1202216E-2,-2.9874582E-2,-0E0],"split_indices":[173,253,42,141,244,141,63,65,201,152,155,62,168,93,240,0,0,0,0,0,0,0,0,0,0,0,0,0,0,0,0],"split_type":[0,0,0,0,0,0,0,0,0,0,0,0,0,0,0,0,0,0,0,0,0,0,0,0,0,0,0,0,0,0,0],"sum_hessian":[3.3116794E3,2.6259988E3,6.856805E2,1.7888175E3,8.371814E2,5.547885E2,1.30892E2,2.6616693E2,1.5226505E3,6.1080254E1,7.7610114E2,6.81864E1,4.866021E2,6.524175E1,6.565025E1,2.1347351E2,5.26934E1,4.6436908E2,1.0582815E3,2.7547262E1,3.3532993E1,8.9926155E1,6.86175E2,5.6539253E1,1.1647151E1,4.7034027E2,1.6261816E1,3.6558655E1,2.8683094E1,1.7763535E1,4.788672E1],"tree_param":{"num_deleted":"0","num_feature":"273","num_nodes":"31","size_leaf_vector":"1"}},{"base_weights":[6.100973E-3,4.7684446E-2,-1.5522791E-1,2.8041614E-2,3.821502E-1,-3.2771578E-1,-1.262974E-2,3.6348816E-2,-4.7300297E-1,-3.3130012E-2,5.2534527E-1,-3.8363048E-1,2.5228348E-1,2.6161173E-1,-1.3609514E-1,4.0735966E-3,-2.9400217E-3,-3.826805E-2,4.8481296E-3,-1.848644E-2,1.4755695E-2,3.0368999E-2,-3.8968236E-3,-1.0433254E-2,-2.9074464E-2,3.3187836E-2,-6.989483E-3,3.4734735E-3,3.7802808E-2,-2.4423836E-2,-1.384069E-3],"categories":[],"categories_nodes":[],"categories_segments":[],"categories_sizes":[],"default_left":[0,0,0,0,0,0,0,0,0,0,0,0,0,0,0,0,0,0,0,0,0,0,0,0,0,0,0,0,0,0,0],"id":16,"left_children":[1,3,5,7,9,11,13,15,17,19,21,23,25,27,29,-1,-1,-1,-1,-1,-1,-1,-1,-1,-1,-1,-1,-1,-1,-1,-1],"loss_changes":[2.2106443E1,1.700825E1,1.6400064E1,1.0228478E1,8.895163E0,1.0391659E1,1.28478365E1,1.0572444E1,7.366083E0,5.0824904E0,5.8590126E0,8.676422E0,5.3906546E0,1.0458472E1,9.754156E0,0E0,0E0,0E0,0E0,0E0,0E0,0E0,0E0,0E0,0E0,0E0,0E0,0E0,0E0,0E0,0E0],"parents":[2147483647,0,0,1,1,2,2,3,3,4,4,5,5,6,6,7,7,8,8,9,9,10,10,11,11,12,12,13,13,14,14],"right_children":[2,4,6,8,10,12,14,16,18,20,22,24,26,28,30,-1,-1,-1,-1,-1,-1,-1,-1,-1,-1,-1,-1,-1,-1,-1,-1],"split_conditions":[1E0,1.32E1,8.3333336E-2,1.4166666E0,3.5171697E-1,6.19E1,-1.1766968E-1,5.622798E-1,1.25E0,2.369E-1,2.3333333E0,3.8E0,8.46E1,6.9157237E-1,1.6402608E-1,4.0735966E-3,-2.9400217E-3,-3.826805E-2,4.8481296E-3,-1.848644E-2,1.4755695E-2,3.0368999E-2,-3.8968236E-3,-1.0433254E-2,-2.9074464E-2,3.3187836E-2,-6.989483E-3,3.4734735E-3,3.7802808E-2,-2.4423836E-2,-1.384069E-3],"split_indices":[173,63,233,105,110,139,176,253,107,98,231,89,162,247,45,0,0,0,0,0,0,0,0,0,0,0,0,0,0,0,0],"split_type":[0,0,0,0,0,0,0,0,0,0,0,0,0,0,0,0,0,0,0,0,0,0,0,0,0,0,0,0,0,0,0],"sum_hessian":[3.2927305E3,2.6232053E3,6.6952527E2,2.4842236E3,1.389818E2,2.9848193E2,3.710433E2,2.4492507E3,3.497281E1,3.5725544E1,1.0325625E2,2.7456723E2,2.3914701E1,1.12193886E2,2.5884943E2,1.6654225E3,7.8382825E2,2.2562668E1,1.2410141E1,1.8078363E1,1.764718E1,9.159581E1,1.1660438E1,1.525066E2,1.2206064E2,1.0600377E1,1.3314324E1,8.563115E1,2.6562733E1,5.5691803E1,2.0315762E2],"tree_param":{"num_deleted":"0","num_feature":"273","num_nodes":"31","size_leaf_vector":"1"}},{"base_weights":[8.674985E-4,1.7074664E-1,-1.2583067E-1,2.3845087E-1,5.6495808E-2,-8.358169E-2,-3.333828E-1,4.5337418E-1,1.6196294E-1,-3.435215E-1,1.1318486E-1,-1.576912E-1,6.144186E-2,-7.022333E-3,-4.419759E-1,2.8143777E-2,4.989147E-3,-3.8534065E-3,1.2871702E-2,3.8127804E-3,-3.0810535E-2,1.041378E-2,-5.882542E-3,-1.85951E-2,-6.047552E-3,-1.2674594E-2,8.181219E-3,-3.1234005E-2,5.918113E-3,-6.656152E-3,-2.8429452E-2],"categories":[],"categories_nodes":[],"categories_segments":[],"categories_sizes":[],"default_left":[0,0,0,0,0,0,0,0,0,0,0,0,0,0,0,0,0,0,0,0,0,0,0,0,0,0,0,0,0,0,0],"id":17,"left_children":[1,3,5,7,9,11,13,15,17,19,21,23,25,27,29,-1,-1,-1,-1,-1,-1,-1,-1,-1,-1,-1,-1,-1,-1,-1,-1],"loss_changes":[7.109891E1,1.071059E1,1.6224314E1,1.3833725E1,1.2207848E1,1.7066204E1,1.0957836E1,8.183041E0,1.5260307E1,8.120893E0,1.0557322E1,7.7814693E0,1.7388723E1,7.2145834E0,8.493435E0,0E0,0E0,0E0,0E0,0E0,0E0,0E0,0E0,0E0,0E0,0E0,0E0,0E0,0E0,0E0,0E0],"parents":[2147483647,0,0,1,1,2,2,3,3,4,4,5,5,6,6,7,7,8,8,9,9,10,10,11,11,12,12,13,13,14,14],"right_children":[2,4,6,8,10,12,14,16,18,20,22,24,26,28,30,-1,-1,-1,-1,-1,-1,-1,-1,-1,-1,-1,-1,-1,-1,-1,-1],"split_conditions":[1.5E0,5.622798E-1,7.193398E-1,-3.1779613E0,9.719974E-2,4.7516415E-1,2.6114286E1,1.068E0,9.181212E-2,4.58E1,8.962566E0,1.1639451E-1,6.423983E-1,3.3630517E-1,2.1666667E-1,2.8143777E-2,4.989147E-3,-3.8534065E-3,1.2871702E-2,3.8127804E-3,-3.0810535E-2,1.041378E-2,-5.882542E-3,-1.85951E-2,-6.047552E-3,-1.2674594E-2,8.181219E-3,-3.1234005E-2,5.918113E-3,-6.656152E-3,-2.8429452E-2],"split_indices":[171,253,64,244,250,188,119,59,251,151,61,250,51,112,15,0,0,0,0,0,0,0,0,0,0,0,0,0,0,0,0],"split_type":[0,0,0,0,0,0,0,0,0,0,0,0,0,0,0,0,0,0,0,0,0,0,0,0,0,0,0,0,0,0,0],"sum_hessian":[3.2922998E3,1.4074175E3,1.8848822E3,8.775663E2,5.2985126E2,1.5739202E3,3.109621E2,2.2215613E2,6.554101E2,6.1533195E1,4.6831805E2,1.0436224E3,5.302977E2,8.0115265E1,2.3084683E2,1.6628648E2,5.5869644E1,1.8584254E2,4.6956757E2,2.4927717E1,3.6605476E1,3.33564E2,1.3475404E2,1.4411995E2,8.9950244E2,1.26896545E2,4.0340118E2,1.0832145E1,6.928312E1,7.124993E1,1.595969E2],"tree_param":{"num_deleted":"0","num_feature":"273","num_nodes":"31","size_leaf_vector":"1"}},{"base_weights":[-6.7314E-3,3.114707E-2,-1.5519401E-1,-1.4423305E-1,5.901441E-2,-2.8022224E-1,-9.380691E-3,5.8541775E-2,-3.1157646E-1,2.8502515E-2,2.1212132E-1,-3.6124256E-1,6.791477E-2,-1.1133802E-1,2.6251054E-1,1.09314015E-2,-1.4158308E-2,-8.7020155E-3,-3.546108E-2,1.7742032E-2,6.3469185E-4,5.8204327E-3,2.382396E-2,-2.079959E-2,1.8564863E-2,-9.895661E-3,3.7364844E-2,-1.595835E-2,4.6215435E-3,-6.203217E-3,2.4041953E-2],"categories":[],"categories_nodes":[],"categories_segments":[],"categories_sizes":[],"default_left":[0,0,0,0,0,0,0,0,0,0,0,0,0,0,0,0,0,0,0,0,0,0,0,0,0,0,0,0,0,0,0],"id":18,"left_children":[1,3,5,7,9,11,13,15,17,19,21,23,25,27,29,-1,-1,-1,-1,-1,-1,-1,-1,-1,-1,-1,-1,-1,-1,-1,-1],"loss_changes":[1.8857939E1,1.3005279E1,1.2276623E1,1.2564013E1,1.0604188E1,1.0569794E1,8.993479E0,9.43256E0,9.960184E0,9.740784E0,9.017107E0,1.2754162E1,1.401489E1,1.0379928E1,7.898475E0,0E0,0E0,0E0,0E0,0E0,0E0,0E0,0E0,0E0,0E0,0E0,0E0,0E0,0E0,0E0,0E0],"parents":[2147483647,0,0,1,1,2,2,3,3,4,4,5,5,6,6,7,7,8,8,9,9,10,10,11,11,12,12,13,13,14,14],"right_children":[2,4,6,8,10,12,14,16,18,20,22,24,26,28,30,-1,-1,-1,-1,-1,-1,-1,-1,-1,-1,-1,-1,-1,-1,-1,-1],"split_conditions":[1E0,7.7617645E0,6.73E1,-2.020202E-2,1.15134135E-1,9.5E0,3.91E-1,2.7668343E0,2.2226603E0,8.143904E0,2.96E1,1.1910477E1,2.1421676E0,3.9669049E0,7.8842826E0,1.09314015E-2,-1.4158308E-2,-8.7020155E-3,-3.546108E-2,1.7742032E-2,6.3469185E-4,5.8204327E-3,2.382396E-2,-2.079959E-2,1.8564863E-2,-9.895661E-3,3.7364844E-2,-1.595835E-2,4.6215435E-3,-6.203217E-3,2.4041953E-2],"split_indices":[173,61,62,236,251,69,140,239,191,238,161,168,243,167,168,0,0,0,0,0,0,0,0,0,0,0,0,0,0,0,0],"split_type":[0,0,0,0,0,0,0,0,0,0,0,0,0,0,0,0,0,0,0,0,0,0,0,0,0,0,0,0,0,0,0],"sum_hessian":[3.3330679E3,2.6560034E3,6.770645E2,3.5884293E2,2.2971604E3,3.601847E2,3.168798E2,1.6236435E2,1.9647859E2,1.9231102E3,3.7405026E2,2.9319806E2,6.698664E1,2.3394392E2,8.293586E1,1.1278844E2,4.957591E1,1.5226091E2,4.421769E1,8.2440254E1,1.8406699E3,2.8129755E2,9.275271E1,2.754541E2,1.7743969E1,5.016543E1,1.6821213E1,1.1563107E2,1.1831285E2,2.9886726E1,5.304913E1],"tree_param":{"num_deleted":"0","num_feature":"273","num_nodes":"31","size_leaf_vector":"1"}},{"base_weights":[9.276532E-3,1.6898312E-1,-1.09937415E-1,1.1277215E-1,3.249799E-1,-2.1959727E-1,-3.8645864E-2,1.7585854E-1,-7.0520416E-2,4.1315043E-1,-4.8456006E-2,-5.218598E-1,-1.7493168E-1,-1.1794415E-1,8.793535E-2,-1.4429572E-2,1.0144651E-2,-2.1607712E-2,1.8249728E-3,2.4128212E-2,-2.855094E-3,-1.193426E-2,3.4632903E-2,9.260558E-3,-3.5284024E-2,4.702514E-4,-1.3059047E-2,-9.746535E-3,6.3181133E-3,1.4008484E-2,-3.3899122E-3],"categories":[],"categories_nodes":[],"categories_segments":[],"categories_sizes":[],"default_left":[0,0,0,0,0,0,0,0,0,0,0,0,0,0,0,0,0,0,0,0,0,0,0,0,0,0,0,0,0,0,0],"id":19,"left_children":[1,3,5,7,9,11,13,15,17,19,21,23,25,27,29,-1,-1,-1,-1,-1,-1,-1,-1,-1,-1,-1,-1,-1,-1,-1,-1],"loss_changes":[6.3242928E1,1.2056103E1,1.46786175E1,1.2307326E1,1.250872E1,9.247112E0,1.1710365E1,1.0142904E1,1.0785478E1,1.0208637E1,1.1077129E1,1.2857756E1,1.0594141E1,1.3657229E1,1.3589846E1,0E0,0E0,0E0,0E0,0E0,0E0,0E0,0E0,0E0,0E0,0E0,0E0,0E0,0E0,0E0,0E0],"parents":[2147483647,0,0,1,1,2,2,3,3,4,4,5,5,6,6,7,7,8,8,9,9,10,10,11,11,12,12,13,13,14,14],"right_children":[2,4,6,8,10,12,14,16,18,20,22,24,26,28,30,-1,-1,-1,-1,-1,-1,-1,-1,-1,-1,-1,-1,-1,-1,-1,-1],"split_conditions":[1.5E0,2.4E1,4.1508627E-1,1.023E0,1.0945714E1,1.4485E0,1.565E-1,2.8709558E-1,1.733E1,1.1446967E0,5.714286E-1,1.7476596E-1,-7.431448E-1,1.42E2,4.400093E-1,-1.4429572E-2,1.0144651E-2,-2.1607712E-2,1.8249728E-3,2.4128212E-2,-2.855094E-3,-1.193426E-2,3.4632903E-2,9.260558E-3,-3.5284024E-2,4.702514E-4,-1.3059047E-2,-9.746535E-3,6.3181133E-3,1.4008484E-2,-3.3899122E-3],"split_indices":[171,169,136,58,46,95,111,188,169,253,30,45,65,93,110,0,0,0,0,0,0,0,0,0,0,0,0,0,0,0,0],"split_type":[0,0,0,0,0,0,0,0,0,0,0,0,0,0,0,0,0,0,0,0,0,0,0,0,0,0,0,0,0,0,0],"sum_hessian":[3.310284E3,1.4157551E3,1.8945288E3,1.0494296E3,3.6632547E2,7.3954865E2,1.1549801E3,7.828989E2,2.665307E2,2.970074E2,6.93181E1,8.689525E1,6.526534E2,7.127566E2,4.4222354E2,3.9385742E1,7.435132E2,5.8461952E1,2.0806874E2,2.5961765E2,3.7389725E1,5.83939E1,1.0924202E1,1.736035E1,6.95349E1,2.0760538E2,4.45048E2,5.442942E2,1.6846242E2,1.9756673E2,2.446568E2],"tree_param":{"num_deleted":"0","num_feature":"273","num_nodes":"31","size_leaf_vector":"1"}},{"base_weights":[7.547424E-3,-1.1960452E-1,4.047114E-2,-2.9570597E-1,-3.0170778E-2,-5.051334E-2,1.01927765E-1,5.4300312E-2,-4.1487372E-1,2.9109168E-1,-9.514933E-2,-3.8455483E-1,-7.637336E-5,1.4399084E-1,-3.9263714E-2,2.6197925E-2,-1.0887124E-2,1.0219208E-3,-2.6544536E-2,-1.2725052E-2,2.3986137E-2,-1.17569E-2,5.590262E-3,-1.3368366E-3,-2.7728617E-2,-1.6259871E-2,2.106139E-3,5.4091546E-3,2.4592737E-2,7.6072523E-4,-3.6779355E-2],"categories":[],"categories_nodes":[],"categories_segments":[],"categories_sizes":[],"default_left":[0,0,0,0,0,0,0,0,0,0,0,0,0,0,0,0,0,0,0,0,0,0,0,0,0,0,0,0,0,0,0],"id":20,"left_children":[1,3,5,7,9,11,13,15,17,19,21,23,25,27,29,-1,-1,-1,-1,-1,-1,-1,-1,-1,-1,-1,-1,-1,-1,-1,-1],"loss_changes":[1.3816235E1,1.0465745E1,1.4764674E1,9.710936E0,9.578262E0,1.768121E1,9.437054E0,8.479999E0,8.899767E0,8.627195E0,1.1349739E1,8.022404E0,1.2942145E1,1.4600853E1,1.4179344E1,0E0,0E0,0E0,0E0,0E0,0E0,0E0,0E0,0E0,0E0,0E0,0E0,0E0,0E0,0E0,0E0],"parents":[2147483647,0,0,1,1,2,2,3,3,4,4,5,5,6,6,7,7,8,8,9,9,10,10,11,11,12,12,13,13,14,14],"right_children":[2,4,6,8,10,12,14,16,18,20,22,24,26,28,30,-1,-1,-1,-1,-1,-1,-1,-1,-1,-1,-1,-1,-1,-1,-1,-1],"split_conditions":[1E0,7.767066E0,6.2E0,2.49E1,5.268293E0,7.6814656E0,5.147264E0,3.7037036E-1,-2.581989E-1,3.4455064E-1,4.347826E-2,5.06E1,2.92E-1,4.06E-1,2.1166667E-1,2.6197925E-2,-1.0887124E-2,1.0219208E-3,-2.6544536E-2,-1.2725052E-2,2.3986137E-2,-1.17569E-2,5.590262E-3,-1.3368366E-3,-2.7728617E-2,-1.6259871E-2,2.106139E-3,5.4091546E-3,2.4592737E-2,7.6072523E-4,-3.6779355E-2],"split_indices":[172,130,63,138,237,61,44,269,201,110,23,163,140,140,111,0,0,0,0,0,0,0,0,0,0,0,0,0,0,0,0],"split_type":[0,0,0,0,0,0,0,0,0,0,0,0,0,0,0,0,0,0,0,0,0,0,0,0,0,0,0,0,0,0,0],"sum_hessian":[3.299004E3,6.7269476E2,2.626309E3,2.208003E2,4.5189444E2,1.0558754E3,1.5704337E3,5.570771E1,1.6509259E2,7.180201E1,3.8009244E2,1.3286716E2,9.2300824E2,1.2126184E3,3.5781522E2,1.9408497E1,3.6299213E1,3.470058E1,1.3039201E2,1.731725E1,5.4484756E1,2.2776335E2,1.5232909E2,4.5607983E1,8.725918E1,1.0354773E2,8.194605E2,1.1066921E3,1.0592625E2,3.3572205E2,2.2093174E1],"tree_param":{"num_deleted":"0","num_feature":"273","num_nodes":"31","size_leaf_vector":"1"}},{"base_weights":[1.48357535E-2,1.6047888E-1,-9.405344E-2,7.6253384E-2,3.0951455E-1,-6.050718E-2,-2.7002522E-1,2.737436E-1,-0E0,3.42471E-1,-3.2381222E-1,-4.522304E-1,-3.9615937E-2,-8.0177754E-2,-4.4045526E-1,-3.886699E-3,1.9531839E-2,-2.452869E-3,1.8024737E-2,1.9172778E-2,-4.982762E-3,-2.9873068E-2,2.00306E-3,-4.147885E-3,-3.6689516E-2,6.6041485E-3,-4.3062097E-3,-1.9072792E-2,4.278809E-3,-2.7652219E-2,4.0515284E-3],"categories":[],"categories_nodes":[],"categories_segments":[],"categories_sizes":[],"default_left":[0,0,0,0,0,0,0,0,0,0,0,0,0,0,0,0,0,0,0,0,0,0,0,0,0,0,0,0,0,0,0],"id":21,"left_children":[1,3,5,7,9,11,13,15,17,19,21,23,25,27,29,-1,-1,-1,-1,-1,-1,-1,-1,-1,-1,-1,-1,-1,-1,-1,-1],"loss_changes":[5.247565E1,1.7468987E1,1.09137E1,1.3837254E1,1.115987E1,1.2731515E1,9.2335415E0,1.0807983E1,1.1730074E1,9.1346245E0,3.0799136E0,7.5169926E0,1.2192346E1,7.7462163E0,9.560272E0,0E0,0E0,0E0,0E0,0E0,0E0,0E0,0E0,0E0,0E0,0E0,0E0,0E0,0E0,0E0,0E0],"parents":[2147483647,0,0,1,1,2,2,3,3,4,4,5,5,6,6,7,7,8,8,9,9,10,10,11,11,12,12,13,13,14,14],"right_children":[2,4,6,8,10,12,14,16,18,20,22,24,26,28,30,-1,-1,-1,-1,-1,-1,-1,-1,-1,-1,-1,-1,-1,-1,-1,-1],"split_conditions":[1.5E0,3.8605E0,7.547096E-1,1.388426E1,1.5024931E0,3.1E0,2.269E-1,2.2926576E-1,1.5056369E-1,9.4551855E-1,1.1E0,2.3166667E-1,-1.1E0,-1.2345679E-2,4.7E-1,-3.886699E-3,1.9531839E-2,-2.452869E-3,1.8024737E-2,1.9172778E-2,-4.982762E-3,-2.9873068E-2,2.00306E-3,-4.147885E-3,-3.6689516E-2,6.6041485E-3,-4.3062097E-3,-1.9072792E-2,4.278809E-3,-2.7652219E-2,4.0515284E-3],"split_indices":[171,97,64,238,253,14,98,135,250,64,180,16,141,184,136,0,0,0,0,0,0,0,0,0,0,0,0,0,0,0,0],"split_type":[0,0,0,0,0,0,0,0,0,0,0,0,0,0,0,0,0,0,0,0,0,0,0,0,0,0,0,0,0,0,0],"sum_hessian":[3.297043E3,1.4114294E3,1.8856135E3,9.0876587E2,5.0266354E2,1.5917349E3,2.938787E2,2.5055846E2,6.582074E2,4.8073334E2,2.1930206E1,7.415306E1,1.5175818E3,1.4388573E2,1.4999295E2,6.188338E1,1.8867508E2,5.838506E2,7.435681E1,4.4159265E2,3.9140694E1,1.146921E1,1.0460997E1,3.5648365E1,3.8504696E1,3.1920218E2,1.1983796E3,4.982767E1,9.405806E1,1.2389924E2,2.6093706E1],"tree_param":{"num_deleted":"0","num_feature":"273","num_nodes":"31","size_leaf_vector":"1"}},{"base_weights":[-1.06045855E-2,1.255608E-1,-1.12676084E-1,-1.1626584E-1,1.6427387E-1,-1.6708237E-1,2.8793724E-2,-4.082349E-2,-2.6598837E-2,2.7025044E-1,4.129945E-2,-5.197816E-1,-1.4405951E-1,-2.2992757E-1,1.00447364E-1,-5.7998085E-3,3.1851523E-2,-2.4773309E-2,1.4751221E-2,6.8975873E-3,-8.636328E-3,1.0480055E-3,-3.577018E-2,-5.3218026E-3,-1.7378582E-2,6.167703E-4,-3.2627974E-2,-3.0008513E-2,6.822438E-3],"categories":[],"categories_nodes":[],"categories_segments":[],"categories_sizes":[],"default_left":[0,0,0,0,0,0,0,0,0,0,0,0,0,0,0,0,0,0,0,0,0,0,0,0,0,0,0,0,0],"id":22,"left_children":[1,3,5,7,9,11,13,-1,15,17,19,21,23,25,27,-1,-1,-1,-1,-1,-1,-1,-1,-1,-1,-1,-1,-1,-1],"loss_changes":[4.5820503E1,1.332692E1,1.4612326E1,1.1764769E1,1.5687237E1,1.0383404E1,9.79576E0,0E0,1.0751906E1,1.3002266E1,1.1950186E1,8.930946E0,9.467381E0,1.2034332E1,1.0686904E1,0E0,0E0,0E0,0E0,0E0,0E0,0E0,0E0,0E0,0E0,0E0,0E0,0E0,0E0],"parents":[2147483647,0,0,1,1,2,2,3,3,4,4,5,5,6,6,8,8,9,9,10,10,11,11,12,12,13,13,14,14],"right_children":[2,4,6,8,10,12,14,-1,16,18,20,22,24,26,28,-1,-1,-1,-1,-1,-1,-1,-1,-1,-1,-1,-1,-1,-1],"split_conditions":[1E0,1.23E1,1.15134135E-1,2.4882E0,3.9906574E1,1.09279566E-1,6.423983E-1,-4.082349E-2,2.4855137E0,3.75E-1,1.045E0,2.1E0,7.547096E-1,5.64E-2,1.2142857E-1,-5.7998085E-3,3.1851523E-2,-2.4773309E-2,1.4751221E-2,6.8975873E-3,-8.636328E-3,1.0480055E-3,-3.577018E-2,-5.3218026E-3,-1.7378582E-2,6.167703E-4,-3.2627974E-2,-3.0008513E-2,6.822438E-3],"split_indices":[171,148,251,196,119,250,51,0,12,10,59,71,64,101,15,0,0,0,0,0,0,0,0,0,0,0,0,0,0],"split_type":[0,0,0,0,0,0,0,0,0,0,0,0,0,0,0,0,0,0,0,0,0,0,0,0,0,0,0,0,0],"sum_hessian":[3.2871436E3,1.4057698E3,1.8813737E3,1.9082466E2,1.2149451E3,1.3607047E3,5.20669E2,1.6428837E1,1.7439581E2,6.4717255E2,5.677726E2,7.543745E1,1.2852672E3,1.0901693E2,4.116521E2,1.579922E2,1.640361E1,1.6672659E1,6.304999E2,3.939717E2,1.7380084E2,2.0547638E1,5.4889812E1,1.0932323E3,1.9203494E2,7.162863E1,3.738829E1,1.5610788E1,3.960413E2],"tree_param":{"num_deleted":"0","num_feature":"273","num_nodes":"29","size_leaf_vector":"1"}},{"base_weights":[1.5728371E-2,1.5511388E-1,-8.899278E-2,-4.8565423E-1,1.7449827E-1,-1.486828E-1,2.5212675E-2,-6.745309E-1,1.9935395E-3,2.189828E-1,-5.4861784E-2,-5.554856E-1,-1.2390385E-1,4.1214344E-1,-1.7540345E-2,-4.2956915E-2,-7.7077947E-3,1.2252848E-2,-4.8644296E-3,1.9420767E-2,-8.501807E-3,-3.4278452E-2,1.099209E-3,1.9717987E-3,-8.588451E-3,-7.0169815E-3,3.155615E-2,-7.898648E-3,3.802182E-3],"categories":[],"categories_nodes":[],"categories_segments":[],"categories_sizes":[],"default_left":[0,0,0,0,0,0,0,0,0,0,0,0,0,0,0,0,0,0,0,0,0,0,0,0,0,0,0,0,0],"id":23,"left_children":[1,3,5,7,9,11,13,15,-1,17,19,21,23,25,27,-1,-1,-1,-1,-1,-1,-1,-1,-1,-1,-1,-1,-1,-1],"loss_changes":[4.8388054E1,1.7943184E1,1.2964606E1,4.6553106E0,1.4279953E1,1.1864607E1,1.0988585E1,1.9178448E0,0E0,9.787029E0,1.1823847E1,5.581299E0,9.33334E0,8.680021E0,7.8430753E0,0E0,0E0,0E0,0E0,0E0,0E0,0E0,0E0,0E0,0E0,0E0,0E0,0E0,0E0],"parents":[2147483647,0,0,1,1,2,2,3,3,4,4,5,5,6,6,7,7,9,9,10,10,11,11,12,12,13,13,14,14],"right_children":[2,4,6,8,10,12,14,16,-1,18,20,22,24,26,28,-1,-1,-1,-1,-1,-1,-1,-1,-1,-1,-1,-1,-1,-1],"split_conditions":[1E0,1.8908824E-1,1.38E2,3.09017E-1,1.2E0,9.03042E1,1.2E1,2.299E1,1.9935395E-3,5E-1,4.5E-1,1.8296297E-1,1.6666667E-1,4.0435976E-1,9.034322E1,-4.2956915E-2,-7.7077947E-3,1.2252848E-2,-4.8644296E-3,1.9420767E-2,-8.501807E-3,-3.4278452E-2,1.099209E-3,1.9717987E-3,-8.588451E-3,-7.0169815E-3,3.155615E-2,-7.898648E-3,3.802182E-3],"split_indices":[171,121,93,65,141,52,143,169,0,236,178,111,42,136,115,0,0,0,0,0,0,0,0,0,0,0,0,0,0],"split_type":[0,0,0,0,0,0,0,0,0,0,0,0,0,0,0,0,0,0,0,0,0,0,0,0,0,0,0,0,0],"sum_hessian":[3.3030266E3,1.4180063E3,1.8850201E3,3.7348724E1,1.3806576E3,1.2398667E3,6.451535E2,2.7131319E1,1.0217407E1,1.1583928E3,2.2226482E2,6.387912E1,1.1759875E3,6.1057247E1,5.8409625E2,1.691481E1,1.0216509E1,1.0726664E3,8.572635E1,4.2497875E1,1.7976694E2,5.2077732E1,1.180139E1,2.6434503E2,9.116425E2,1.7192654E1,4.3864594E1,2.3434282E2,3.4975345E2],"tree_param":{"num_deleted":"0","num_feature":"273","num_nodes":"29","size_leaf_vector":"1"}},{"base_weights":[-1.4804908E-3,1.2927797E-1,-9.744843E-2,3.6371836E-1,9.3068816E-2,-1.6416027E-1,3.4491874E-2,1.9499472E-1,7.792594E-1,1.1020455E-6,1.9656391E-1,2.6921415E-1,-1.843565E-1,-1.9682397E-1,1.2777755E-1,-1.2786898E-2,1.680299E-2,8.017275E-3,4.623218E-2,-1.0131157E-2,4.903283E-3,-1.07403165E-2,1.2260403E-2,3.665059E-2,-5.1949252E-3,-1.496584E-2,-5.431652E-3,-2.3745395E-2,2.019886E-3,-3.426959E-2,7.890063E-3],"categories":[],"categories_nodes":[],"categories_segments":[],"categories_sizes":[],"default_left":[0,0,0,0,0,0,0,0,0,0,0,0,0,0,0,0,0,0,0,0,0,0,0,0,0,0,0,0,0,0,0],"id":24,"left_children":[1,3,5,7,9,11,13,15,17,19,21,23,25,27,29,-1,-1,-1,-1,-1,-1,-1,-1,-1,-1,-1,-1,-1,-1,-1,-1],"loss_changes":[4.143397E1,1.1452518E1,1.6879938E1,1.1597109E1,1.1631319E1,1.132214E1,1.3946372E1,9.232552E0,3.2492237E0,1.2937468E1,1.1765526E1,1.0642712E1,1.0232849E1,1.2514067E1,1.1559589E1,0E0,0E0,0E0,0E0,0E0,0E0,0E0,0E0,0E0,0E0,0E0,0E0,0E0,0E0,0E0,0E0],"parents":[2147483647,0,0,1,1,2,2,3,3,4,4,5,5,6,6,7,7,8,8,9,9,10,10,11,11,12,12,13,13,14,14],"right_children":[2,4,6,8,10,12,14,16,18,20,22,24,26,28,30,-1,-1,-1,-1,-1,-1,-1,-1,-1,-1,-1,-1,-1,-1,-1,-1],"split_conditions":[1E0,1.85E1,7.875E-1,2.399E1,9.178847E-2,7.7910054E-1,6.03E1,-8.571673E-1,-1.4141414E-1,7.2727275E-1,8.6666666E-2,4.8274055E-1,8.3333336E-2,4.4921738E1,8.67372E1,-1.2786898E-2,1.680299E-2,8.017275E-3,4.623218E-2,-1.0131157E-2,4.903283E-3,-1.07403165E-2,1.2260403E-2,3.665059E-2,-5.1949252E-3,-1.496584E-2,-5.431652E-3,-2.3745395E-2,2.019886E-3,-3.426959E-2,7.890063E-3],"split_indices":[171,164,272,169,241,48,62,65,236,229,15,193,233,114,132,0,0,0,0,0,0,0,0,0,0,0,0,0,0,0,0],"split_type":[0,0,0,0,0,0,0,0,0,0,0,0,0,0,0,0,0,0,0,0,0,0,0,0,0,0,0,0,0,0,0],"sum_hessian":[3.293123E3,1.3909614E3,1.9021616E3,1.7819356E2,1.2127678E3,1.2650792E3,6.3708246E2,1.328155E2,4.5378048E1,6.437281E2,5.6903973E2,5.2482998E1,1.2125962E3,1.7995287E2,4.5712958E2,2.9845108E1,1.02970406E2,1.1286039E1,3.4092007E1,2.0653952E2,4.371886E2,5.728002E1,5.117597E2,2.1845322E1,3.0637674E1,4.7305557E2,7.3954065E2,8.150559E1,9.844727E1,1.1797885E1,4.4533167E2],"tree_param":{"num_deleted":"0","num_feature":"273","num_nodes":"31","size_leaf_vector":"1"}},{"base_weights":[2.0426212E-4,1.14699356E-1,-8.544231E-2,-5.7565663E-2,1.5892209E-1,-3.372464E-1,-5.9673376E-2,-3.6471984E-1,5.2904557E-2,7.923242E-1,1.4113581E-1,-4.5411998E-1,2.4583977E-2,-1.1690345E-1,5.947665E-2,-2.9596644E-3,-3.6994748E-2,-1.2772428E-2,1.04887E-2,5.127434E-2,1.2339623E-2,9.542305E-3,-7.052696E-4,-4.659356E-3,-3.0509045E-2,-1.897721E-2,1.5887175E-2,-1.0231323E-2,2.4478426E-4,3.630495E-4,1.928969E-2],"categories":[],"categories_nodes":[],"categories_segments":[],"categories_sizes":[],"default_left":[0,0,0,0,0,0,0,0,0,0,0,0,0,0,0,0,0,0,0,0,0,0,0,0,0,0,0,0,0,0,0],"id":25,"left_children":[1,3,5,7,9,11,13,15,17,19,21,23,25,27,29,-1,-1,-1,-1,-1,-1,-1,-1,-1,-1,-1,-1,-1,-1,-1,-1],"loss_changes":[3.2404346E1,1.0883183E1,1.1945554E1,1.0112928E1,1.1708502E1,7.5574055E0,1.1790404E1,8.402641E0,1.0736874E1,1.7900219E0,8.639448E0,6.773575E0,5.994418E0,1.2565925E1,9.305455E0,0E0,0E0,0E0,0E0,0E0,0E0,0E0,0E0,0E0,0E0,0E0,0E0,0E0,0E0,0E0,0E0],"parents":[2147483647,0,0,1,1,2,2,3,3,4,4,5,5,6,6,7,7,8,8,9,9,10,10,11,11,12,12,13,13,14,14],"right_children":[2,4,6,8,10,12,14,16,18,20,22,24,26,28,30,-1,-1,-1,-1,-1,-1,-1,-1,-1,-1,-1,-1,-1,-1,-1,-1],"split_conditions":[1.5E0,2.2097646E-1,3.561469E1,5.61E-1,6.666667E-1,1.25E0,8.25E-1,9.090909E-2,4.82E1,1.2371623E-1,4.9974814E-1,1.3E0,3.8629E0,9.157525E0,4.3E-1,-2.9596644E-3,-3.6994748E-2,-1.2772428E-2,1.04887E-2,5.127434E-2,1.2339623E-2,9.542305E-3,-7.052696E-4,-4.659356E-3,-3.0509045E-2,-1.897721E-2,1.5887175E-2,-1.0231323E-2,2.4478426E-4,3.630495E-4,1.928969E-2],"split_indices":[171,121,131,152,48,1,272,39,165,256,112,231,97,168,25,0,0,0,0,0,0,0,0,0,0,0,0,0,0,0,0],"split_type":[0,0,0,0,0,0,0,0,0,0,0,0,0,0,0,0,0,0,0,0,0,0,0,0,0,0,0,0,0,0,0],"sum_hessian":[3.2930159E3,1.4109519E3,1.882064E3,2.8560242E2,1.1253495E3,1.673124E2,1.7147516E3,7.370095E1,2.1190146E2,2.4022352E1,1.1013271E3,1.265443E2,4.076809E1,1.1612644E3,5.534872E2,4.4546097E1,2.915485E1,6.93173E1,1.4258417E2,1.3105501E1,1.0916851E1,8.3577496E2,2.6555215E2,4.157663E1,8.496767E1,1.5803562E1,2.4964527E1,6.754745E2,4.8578992E2,4.8286502E2,7.062218E1],"tree_param":{"num_deleted":"0","num_feature":"273","num_nodes":"31","size_leaf_vector":"1"}},{"base_weights":[-6.997636E-3,-7.447549E-2,4.9169235E-2,4.2188206E-1,-8.795906E-2,1.3836055E-1,-5.0910033E-2,6.704813E-1,-8.080519E-3,1.20245434E-1,-1.15836166E-1,8.476276E-2,3.7693214E-1,-8.899075E-2,2.7054316E-1,6.8991296E-3,4.4384252E-2,-2.5901373E-3,1.8067626E-2,-4.1336347E-3,-1.5815793E-2,-2.8692926E-3,9.3536E-3,2.4364837E-2,-5.4714903E-3,3.206554E-3,-8.426573E-3,-4.410304E-3,2.548234E-2],"categories":[],"categories_nodes":[],"categories_segments":[],"categories_sizes":[],"default_left":[0,0,0,0,0,0,0,0,0,0,0,0,0,0,0,0,0,0,0,0,0,0,0,0,0,0,0,0,0],"id":26,"left_children":[1,3,5,7,9,11,13,15,-1,17,19,21,23,25,27,-1,-1,-1,-1,-1,-1,-1,-1,-1,-1,-1,-1,-1,-1],"loss_changes":[1.2541443E1,1.0094398E1,1.6149687E1,6.5545406E0,8.604183E0,1.1833328E1,1.0427606E1,2.276226E0,0E0,7.466721E0,8.324844E0,1.1589595E1,9.699238E0,9.418786E0,8.13973E0,0E0,0E0,0E0,0E0,0E0,0E0,0E0,0E0,0E0,0E0,0E0,0E0,0E0,0E0],"parents":[2147483647,0,0,1,1,2,2,3,3,4,4,5,5,6,6,7,7,9,9,10,10,11,11,12,12,13,13,14,14],"right_children":[2,4,6,8,10,12,14,16,-1,18,20,22,24,26,28,-1,-1,-1,-1,-1,-1,-1,-1,-1,-1,-1,-1,-1,-1],"split_conditions":[4.1524288E-1,6.25E-1,4.545662E0,8.56E1,-5.7777777E-2,4.023E-1,8.37E1,6.98383E0,-8.080519E-3,4.5555553E0,2.857143E-1,5.38E1,3.9285713E-1,-1.4285714E-2,-1.7865321E-1,6.8991296E-3,4.4384252E-2,-2.5901373E-3,1.8067626E-2,-4.1336347E-3,-1.5815793E-2,-2.8692926E-3,9.3536E-3,2.4364837E-2,-5.4714903E-3,3.206554E-3,-8.426573E-3,-4.410304E-3,2.548234E-2],"split_indices":[136,48,44,162,223,210,62,130,0,71,106,163,15,184,53,0,0,0,0,0,0,0,0,0,0,0,0,0,0],"split_type":[0,0,0,0,0,0,0,0,0,0,0,0,0,0,0,0,0,0,0,0,0,0,0,0,0,0,0,0,0],"sum_hessian":[3.2959011E3,1.5005E3,1.795401E3,3.4697292E1,1.4658027E3,9.50972E2,8.44429E2,2.4409163E1,1.0288128E1,1.6901149E2,1.2967913E3,7.8376306E2,1.672089E2,7.596133E2,8.481578E1,1.0107601E1,1.4301561E1,9.971164E1,6.929985E1,1.1209233E3,1.7586794E2,3.2689E2,4.5687308E2,1.3711368E2,3.0095215E1,2.5787228E2,5.0174097E2,3.4346657E1,5.0469124E1],"tree_param":{"num_deleted":"0","num_feature":"273","num_nodes":"29","size_leaf_vector":"1"}},{"base_weights":[-1.1781638E-2,1.3022336E-1,-1.1890098E-1,7.063364E-3,2.0241563E-1,4.307984E-3,-1.6521238E-1,-4.767907E-2,3.515411E-1,-3.245336E-1,2.2855255E-1,-4.4377542E-1,5.3711936E-2,-2.592739E-1,-7.739507E-2,1.0572816E-2,-5.827622E-3,-8.600752E-3,2.7920533E-2,5.7410775E-3,-3.7916936E-2,2.5463928E-2,9.0099005E-3,-3.0481938E-2,4.914656E-3,6.8826885E-3,-1.23613225E-2,-1.633244E-2,-2.950328E-3,-7.1452856E-3,5.877089E-3],"categories":[],"categories_nodes":[],"categories_segments":[],"categories_sizes":[],"default_left":[0,0,0,0,0,0,0,0,0,0,0,0,0,0,0,0,0,0,0,0,0,0,0,0,0,0,0,0,0,0,0],"id":27,"left_children":[1,3,5,7,9,11,13,15,17,19,21,23,25,27,29,-1,-1,-1,-1,-1,-1,-1,-1,-1,-1,-1,-1,-1,-1,-1,-1],"loss_changes":[5.0466434E1,1.2557064E1,1.088571E1,1.0311441E1,1.2657558E1,1.1415226E1,1.112188E1,8.360433E0,8.809066E0,9.044966E0,1.0830959E1,5.1481924E0,1.206406E1,8.628765E0,9.330065E0,0E0,0E0,0E0,0E0,0E0,0E0,0E0,0E0,0E0,0E0,0E0,0E0,0E0,0E0,0E0,0E0],"parents":[2147483647,0,0,1,1,2,2,3,3,4,4,5,5,6,6,7,7,8,8,9,9,10,10,11,11,12,12,13,13,14,14],"right_children":[2,4,6,8,10,12,14,16,18,20,22,24,26,28,30,-1,-1,-1,-1,-1,-1,-1,-1,-1,-1,-1,-1,-1,-1,-1,-1],"split_conditions":[1E0,6.1110896E-1,-8E-1,2.511E-1,-1.1209E0,-1.0956581E1,3.9103E0,9.69E-1,1.1704245E0,4.78E1,1.1815183E-1,2.596E-1,4.2857143E-1,3.7370327E1,2.84E1,1.0572816E-2,-5.827622E-3,-8.600752E-3,2.7920533E-2,5.7410775E-3,-3.7916936E-2,2.5463928E-2,9.0099005E-3,-3.0481938E-2,4.914656E-3,6.8826885E-3,-1.23613225E-2,-1.633244E-2,-2.950328E-3,-7.1452856E-3,5.877089E-3],"split_indices":[171,247,141,209,210,245,97,58,191,139,250,209,269,117,129,0,0,0,0,0,0,0,0,0,0,0,0,0,0,0,0],"split_type":[0,0,0,0,0,0,0,0,0,0,0,0,0,0,0,0,0,0,0,0,0,0,0,0,0,0,0,0,0,0,0],"sum_hessian":[3.3079363E3,1.4198871E3,1.8880492E3,5.2930615E2,8.90581E2,5.1408704E2,1.3739622E3,4.5919064E2,7.011548E1,3.8484158E1,8.520968E2,4.6083736E1,4.6800333E2,6.559333E2,7.180288E2,9.272037E1,3.6647028E2,1.9412006E1,5.0703472E1,2.0373741E1,1.8110416E1,1.1668307E2,7.3541376E2,3.5515694E1,1.0568041E1,3.693528E2,9.865052E1,4.8658282E2,1.6935051E2,5.403409E2,1.7768793E2],"tree_param":{"num_deleted":"0","num_feature":"273","num_nodes":"31","size_leaf_vector":"1"}},{"base_weights":[-9.900567E-3,1.16006404E-1,-1.04805015E-1,3.4489298E-1,8.247918E-2,-1.3783702E-1,1.0320339E-1,1.7657612E-1,7.433109E-1,-2.6564074E-1,1.1721828E-1,-9.413135E-2,-2.7522585E-1,-3.462587E-1,2.0622182E-1,-3.9402554E-3,2.2571335E-2,-0E0,4.6523053E-2,-2.441662E-2,8.859566E-3,2.0151685E-3,1.3102193E-2,-9.76926E-3,-5.062979E-4,-1.5756529E-2,8.789044E-3,7.956198E-3,-3.163771E-2,-1.8648889E-2,1.4110058E-2],"categories":[],"categories_nodes":[],"categories_segments":[],"categories_sizes":[],"default_left":[0,0,0,0,0,0,0,0,0,0,0,0,0,0,0,0,0,0,0,0,0,0,0,0,0,0,0,0,0,0,0],"id":28,"left_children":[1,3,5,7,9,11,13,15,17,19,21,23,25,27,29,-1,-1,-1,-1,-1,-1,-1,-1,-1,-1,-1,-1,-1,-1,-1,-1],"loss_changes":[3.927109E1,1.046944E1,1.297995E1,1.0737171E1,1.5064079E1,9.4333725E0,1.2228671E1,9.608494E0,6.7809696E0,1.1696072E1,1.23975315E1,1.0450927E1,7.3011284E0,7.8423758E0,9.891907E0,0E0,0E0,0E0,0E0,0E0,0E0,0E0,0E0,0E0,0E0,0E0,0E0,0E0,0E0,0E0,0E0],"parents":[2147483647,0,0,1,1,2,2,3,3,4,4,5,5,6,6,7,7,8,8,9,9,10,10,11,11,12,12,13,13,14,14],"right_children":[2,4,6,8,10,12,14,16,18,20,22,24,26,28,30,-1,-1,-1,-1,-1,-1,-1,-1,-1,-1,-1,-1,-1,-1,-1,-1],"split_conditions":[1E0,1.85E1,1.6733012E-1,2.399E1,1.4166667E-1,1.74E0,3.528409E-1,3.6E0,-1.919192E-1,1.02375E0,3.8605E0,2.85E1,1.2756948E1,-7.313E-1,3.7863514E1,-3.9402554E-3,2.2571335E-2,-0E0,4.6523053E-2,-2.441662E-2,8.859566E-3,2.0151685E-3,1.3102193E-2,-9.76926E-3,-5.062979E-4,-1.5756529E-2,8.789044E-3,7.956198E-3,-3.163771E-2,-1.8648889E-2,1.4110058E-2],"split_indices":[171,164,250,169,16,50,112,13,236,193,97,161,43,210,131,0,0,0,0,0,0,0,0,0,0,0,0,0,0,0,0],"split_type":[0,0,0,0,0,0,0,0,0,0,0,0,0,0,0,0,0,0,0,0,0,0,0,0,0,0,0,0,0,0,0],"sum_hessian":[3.276904E3,1.4056666E3,1.8712373E3,1.7175645E2,1.2339102E3,1.6183341E3,2.5290315E2,1.2670093E2,4.505553E1,1.07638626E2,1.1262716E3,1.2369158E3,3.8141843E2,4.4051296E1,2.0885185E2,6.658229E1,6.0118637E1,1.0278576E1,3.4776955E1,7.203099E1,3.5607635E1,7.4203217E2,3.842394E2,5.551717E2,6.81744E2,3.5281653E2,2.8601921E1,1.6110249E1,2.794105E1,2.1190292E1,1.8766156E2],"tree_param":{"num_deleted":"0","num_feature":"273","num_nodes":"31","size_leaf_vector":"1"}},{"base_weights":[7.0459545E-3,-1.1384267E-1,3.849736E-2,-1.6315095E-1,1.3948576E-1,-3.6693037E-2,8.73554E-2,-1.9775333E-1,3.749994E-1,4.9670517E-1,-8.881852E-2,4.1933287E-2,-2.0337111E-1,6.835421E-2,5.1185274E-1,-1.5312992E-2,7.025644E-5,3.6920037E-2,-1.5247524E-2,3.7148684E-2,-1.8306024E-3,7.350774E-3,-2.6328012E-2,-1.1376897E-2,4.3405597E-3,7.7130417E-3,-1.4233688E-2,5.195262E-3,-6.4928005E-3,5.124394E-3,3.759903E-2],"categories":[],"categories_nodes":[],"categories_segments":[],"categories_sizes":[],"default_left":[0,0,0,0,0,0,0,0,0,0,0,0,0,0,0,0,0,0,0,0,0,0,0,0,0,0,0,0,0,0,0],"id":29,"left_children":[1,3,5,7,9,11,13,15,17,19,21,23,25,27,29,-1,-1,-1,-1,-1,-1,-1,-1,-1,-1,-1,-1,-1,-1,-1,-1],"loss_changes":[1.2509389E1,8.59587E0,9.67059E0,1.0925581E1,9.519926E0,1.3646264E1,1.2394444E1,1.1849657E1,1.0085915E1,6.412286E0,7.9506044E0,8.532824E0,9.985621E0,1.0856073E1,5.7152824E0,0E0,0E0,0E0,0E0,0E0,0E0,0E0,0E0,0E0,0E0,0E0,0E0,0E0,0E0,0E0,0E0],"parents":[2147483647,0,0,1,1,2,2,3,3,4,4,5,5,6,6,7,7,8,8,9,9,10,10,11,11,12,12,13,13,14,14],"right_children":[2,4,6,8,10,12,14,16,18,20,22,24,26,28,30,-1,-1,-1,-1,-1,-1,-1,-1,-1,-1,-1,-1,-1,-1,-1,-1],"split_conditions":[1E0,2.1E1,6.8032E0,4.81E-1,4.45E1,5.5834246E-1,5.48E1,5E-2,2.18E-1,2.467E1,3.9073113E-1,2.97E-1,2.1725163E-1,2.72E1,1.3109127E-1,-1.5312992E-2,7.025644E-5,3.6920037E-2,-1.5247524E-2,3.7148684E-2,-1.8306024E-3,7.350774E-3,-2.6328012E-2,-1.1376897E-2,4.3405597E-3,7.7130417E-3,-1.4233688E-2,5.195262E-3,-6.4928005E-3,5.124394E-3,3.759903E-2],"split_indices":[172,66,196,140,139,253,156,20,124,169,65,140,121,153,111,0,0,0,0,0,0,0,0,0,0,0,0,0,0,0,0],"split_type":[0,0,0,0,0,0,0,0,0,0,0,0,0,0,0,0,0,0,0,0,0,0,0,0,0,0,0,0,0,0,0],"sum_hessian":[3.2892563E3,6.73098E2,2.6161584E3,5.665729E2,1.0652513E2,1.0268666E3,1.5892917E3,5.361884E2,3.0384449E1,4.009768E1,6.642746E1,6.98234E2,3.2863263E2,1.5278842E3,6.1407593E1,3.469714E2,1.8921701E2,2.0000597E1,1.0383852E1,2.6727655E1,1.3370022E1,4.4585484E1,2.1841972E1,9.5187096E1,6.030469E2,5.8901524E1,2.697311E2,1.2996755E3,2.282086E2,2.611077E1,3.529682E1],"tree_param":{"num_deleted":"0","num_feature":"273","num_nodes":"31","size_leaf_vector":"1"}},{"base_weights":[2.3121291E-3,1.1029281E-1,-7.8082055E-2,5.362056E-1,9.110024E-2,-4.3963093E-1,-5.872914E-2,6.738707E-1,-2.4817202E-3,-2.8827596E-1,1.1323933E-1,-5.833242E-1,-0E0,1.7105359E-1,-8.67268E-2,4.8418543E-3,4.9324688E-2,1.2362129E-2,-2.8286833E-2,-1.6491516E-3,8.6000115E-3,-1.0499683E-3,-3.6001682E-2,-2.1361858E-2,2.2886608E-2,1.5684312E-2,-1.2768671E-2,-1.9276721E-2,-3.1348653E-3],"categories":[],"categories_nodes":[],"categories_segments":[],"categories_sizes":[],"default_left":[0,0,0,0,0,0,0,0,0,0,0,0,0,0,0,0,0,0,0,0,0,0,0,0,0,0,0,0,0],"id":30,"left_children":[1,3,5,7,9,11,13,15,-1,17,19,21,23,25,27,-1,-1,-1,-1,-1,-1,-1,-1,-1,-1,-1,-1,-1,-1],"loss_changes":[2.8701492E1,1.0991215E1,1.28571205E1,5.2194633E0,1.1490609E1,6.1668377E0,1.1628503E1,7.752327E0,0E0,1.2017757E1,1.1172897E1,5.052763E0,6.3663597E0,1.2321598E1,1.1229733E1,0E0,0E0,0E0,0E0,0E0,0E0,0E0,0E0,0E0,0E0,0E0,0E0,0E0,0E0],"parents":[2147483647,0,0,1,1,2,2,3,3,4,4,5,5,6,6,7,7,9,9,10,10,11,11,12,12,13,13,14,14],"right_children":[2,4,6,8,10,12,14,16,-1,18,20,22,24,26,28,-1,-1,-1,-1,-1,-1,-1,-1,-1,-1,-1,-1,-1,-1],"split_conditions":[1E0,-1.1333334E-1,3.1E0,1.2E-1,7.1613234E-1,3.42E1,1.21E1,1.3870971E1,-2.4817202E-3,-3.397646E-1,3.2E0,3.0677967E0,4.6296296E-1,4.2E-1,1.1385576E-1,4.8418543E-3,4.9324688E-2,1.2362129E-2,-2.8286833E-2,-1.6491516E-3,8.6000115E-3,-1.0499683E-3,-3.6001682E-2,-2.1361858E-2,2.2886608E-2,1.5684312E-2,-1.2768671E-2,-1.9276721E-2,-3.1348653E-3],"split_indices":[171,223,14,19,166,161,143,116,0,53,13,167,271,269,250,0,0,0,0,0,0,0,0,0,0,0,0,0,0],"split_type":[0,0,0,0,0,0,0,0,0,0,0,0,0,0,0,0,0,0,0,0,0,0,0,0,0,0,0,0,0],"sum_hessian":[3.29442E3,1.4078456E3,1.8865745E3,5.377404E1,1.3540715E3,8.902381E1,1.7975507E3,4.3624893E1,1.0149149E1,7.010254E1,1.283969E3,6.653006E1,2.2493755E1,1.9051851E2,1.6070321E3,1.8192917E1,2.5431974E1,2.3496035E1,4.66065E1,3.6625458E2,9.177145E2,1.4854541E1,5.1675518E1,1.1366671E1,1.1127085E1,1.4463501E2,4.5883503E1,1.1246741E2,1.4945647E3],"tree_param":{"num_deleted":"0","num_feature":"273","num_nodes":"29","size_leaf_vector":"1"}},{"base_weights":[-5.6105717E-3,2.8696917E-2,-1.00332744E-1,2.3086539E-1,6.1234417E-3,-1.7695026E-1,5.6009613E-2,-6.2365916E-2,3.5087094E-1,1.554521E-1,-2.289283E-2,-4.87202E-1,-1.24447756E-1,-4.456406E-1,1.2127394E-1,7.5798905E-3,-3.024446E-2,1.6953987E-4,2.3731126E-2,1.3541008E-2,-2.6530942E-3,5.4670456E-3,-3.7528377E-3,-3.3839554E-2,-2.9882959E-3,-3.6206567E-3,-2.6777616E-2,2.044968E-3,-3.4278203E-2,-1.8047709E-3,1.6226305E-2],"categories":[],"categories_nodes":[],"categories_segments":[],"categories_sizes":[],"default_left":[0,0,0,0,0,0,0,0,0,0,0,0,0,0,0,0,0,0,0,0,0,0,0,0,0,0,0,0,0,0,0],"id":31,"left_children":[1,3,5,7,9,11,13,15,17,19,21,23,25,27,29,-1,-1,-1,-1,-1,-1,-1,-1,-1,-1,-1,-1,-1,-1,-1,-1],"loss_changes":[1.0730801E1,1.088554E1,1.0637639E1,8.698537E0,9.520411E0,9.053165E0,9.625554E0,9.127382E0,7.160162E0,8.787157E0,1.2612674E1,6.1359253E0,1.0527651E1,4.391004E0,8.584544E0,0E0,0E0,0E0,0E0,0E0,0E0,0E0,0E0,0E0,0E0,0E0,0E0,0E0,0E0,0E0,0E0],"parents":[2147483647,0,0,1,1,2,2,3,3,4,4,5,5,6,6,7,7,8,8,9,9,10,10,11,11,12,12,13,13,14,14],"right_children":[2,4,6,8,10,12,14,16,18,20,22,24,26,28,30,-1,-1,-1,-1,-1,-1,-1,-1,-1,-1,-1,-1,-1,-1,-1,-1],"split_conditions":[1.6071131E0,-1.2E0,1.2909944E0,7.0409265E0,-8.9879405E-1,7.79508E0,2.7272728E-1,1.1333333E0,6.3325267E0,9.8213214E-1,1.96E1,3.0518959E0,9.53248E0,3.33E1,8.1E0,7.5798905E-3,-3.024446E-2,1.6953987E-4,2.3731126E-2,1.3541008E-2,-2.6530942E-3,5.4670456E-3,-3.7528377E-3,-3.3839554E-2,-2.9882959E-3,-3.6206567E-3,-2.6777616E-2,2.044968E-3,-3.4278203E-2,-1.8047709E-3,1.6226305E-2],"split_indices":[51,141,186,168,65,61,229,229,113,193,153,191,61,138,63,0,0,0,0,0,0,0,0,0,0,0,0,0,0,0,0],"split_type":[0,0,0,0,0,0,0,0,0,0,0,0,0,0,0,0,0,0,0,0,0,0,0,0,0,0,0,0,0,0,0],"sum_hessian":[3.2816582E3,2.4077869E3,8.7387134E2,2.3498352E2,2.1728032E3,5.881703E2,2.8570108E2,6.7727554E1,1.6725597E2,3.527685E2,1.8200348E3,7.775764E1,5.1041263E2,2.8653717E1,2.5704736E2,5.049446E1,1.7233095E1,4.633369E1,1.2092227E2,2.2769287E2,1.2507564E2,5.1060446E2,1.3094303E3,5.1034615E1,2.6723017E1,4.5936633E2,5.1046295E1,1.014479E1,1.8508928E1,1.458072E2,1.11240166E2],"tree_param":{"num_deleted":"0","num_feature":"273","num_nodes":"31","size_leaf_vector":"1"}},{"base_weights":[-8.059055E-3,9.278481E-2,-8.462203E-2,-0E0,1.9902317E-1,-9.662545E-2,4.5014116E-1,1.9550389E-1,-8.340922E-2,1.4147435E-1,4.717578E-1,-7.251199E-2,-3.554982E-1,6.8822074E-1,-4.279449E-3,1.3850855E-2,-1.4480128E-2,-6.4878324E-3,1.9000456E-2,2.7895017E-2,4.6717105E-3,2.9940382E-2,-1.6036674E-2,-1.5493591E-2,-2.2429551E-3,-2.2830073E-2,6.1076446E-3,9.963256E-3,4.664762E-2],"categories":[],"categories_nodes":[],"categories_segments":[],"categories_sizes":[],"default_left":[0,0,0,0,0,0,0,0,0,0,0,0,0,0,0,0,0,0,0,0,0,0,0,0,0,0,0,0,0],"id":32,"left_children":[1,3,5,7,9,11,13,15,17,19,21,23,25,27,-1,-1,-1,-1,-1,-1,-1,-1,-1,-1,-1,-1,-1,-1,-1],"loss_changes":[2.5379316E1,1.3869437E1,1.2052783E1,1.2578704E1,9.686562E0,1.1113518E1,5.831793E0,9.544049E0,1.1652545E1,1.0455827E1,1.2274059E1,1.0825708E1,7.8510933E0,2.048809E0,0E0,0E0,0E0,0E0,0E0,0E0,0E0,0E0,0E0,0E0,0E0,0E0,0E0,0E0,0E0],"parents":[2147483647,0,0,1,1,2,2,3,3,4,4,5,5,6,6,7,7,8,8,9,9,10,10,11,11,12,12,13,13],"right_children":[2,4,6,8,10,12,14,16,18,20,22,24,26,28,-1,-1,-1,-1,-1,-1,-1,-1,-1,-1,-1,-1,-1,-1,-1],"split_conditions":[1.5E0,3.4285715E0,2.4521191E-1,1.84E1,4.43031E0,3.77E1,1.3363062E-1,3.31E1,7.8834586E0,5.88E-2,1.6666666E0,3.561469E1,2E0,1E0,-4.279449E-3,1.3850855E-2,-1.4480128E-2,-6.4878324E-3,1.9000456E-2,2.7895017E-2,4.6717105E-3,2.9940382E-2,-1.6036674E-2,-1.5493591E-2,-2.2429551E-3,-2.2830073E-2,6.1076446E-3,9.963256E-3,4.664762E-2],"split_indices":[171,14,249,143,244,145,176,164,166,96,200,131,95,0,0,0,0,0,0,0,0,0,0,0,0,0,0,0,0],"split_type":[0,0,0,0,0,0,0,0,0,0,0,0,0,0,0,0,0,0,0,0,0,0,0,0,0,0,0,0,0],"sum_hessian":[3.2775344E3,1.4112009E3,1.8663336E3,7.582511E2,6.5294977E2,1.8302822E3,3.6051384E1,2.2637634E2,5.3187476E2,5.4696375E2,1.0598607E2,1.6819446E3,1.4833763E2,2.4620214E1,1.143117E1,1.9652878E2,2.9847563E1,4.8777075E2,4.410401E1,5.0007774E1,4.9695596E2,9.293924E1,1.3046828E1,1.6829205E2,1.5136525E3,1.23470146E2,2.486749E1,1.1919698E1,1.2700516E1],"tree_param":{"num_deleted":"0","num_feature":"273","num_nodes":"29","size_leaf_vector":"1"}},{"base_weights":[-6.960641E-3,9.848795E-2,-8.600858E-2,2.0310085E-2,1.8798691E-1,-6.317035E-2,-3.1870073E-1,1.1813207E-1,-1.3577574E-1,4.1821113E-1,1.15220726E-1,-1.0918462E-1,9.652662E-2,-5.55252E-1,-1.402065E-1,-8.798861E-3,1.0423447E-2,-1.8884437E-2,-0E0,-7.9938833E-4,2.8433103E-2,1.242673E-2,-9.874405E-4,-6.041783E-3,2.7184194E-2,-3.6743758E-4,2.1970082E-2,3.630147E-3,-3.469059E-2,1.5057779E-2,-1.4480211E-2],"categories":[],"categories_nodes":[],"categories_segments":[],"categories_sizes":[],"default_left":[0,0,0,0,0,0,0,0,0,0,0,0,0,0,0,0,0,0,0,0,0,0,0,0,0,0,0,0,0,0,0],"id":33,"left_children":[1,3,5,7,9,11,13,15,17,19,21,23,25,27,29,-1,-1,-1,-1,-1,-1,-1,-1,-1,-1,-1,-1,-1,-1,-1,-1],"loss_changes":[2.7394146E1,9.71326E0,9.7059555E0,1.1659832E1,1.0412952E1,1.2707848E1,6.2275677E0,1.2719183E1,9.783058E0,1.031683E1,9.205299E0,1.0317976E1,1.395348E1,6.481909E0,7.149666E0,0E0,0E0,0E0,0E0,0E0,0E0,0E0,0E0,0E0,0E0,0E0,0E0,0E0,0E0,0E0,0E0],"parents":[2147483647,0,0,1,1,2,2,3,3,4,4,5,5,6,6,7,7,8,8,9,9,10,10,11,11,12,12,13,13,14,14],"right_children":[2,4,6,8,10,12,14,16,18,20,22,24,26,28,30,-1,-1,-1,-1,-1,-1,-1,-1,-1,-1,-1,-1,-1,-1,-1,-1],"split_conditions":[1.5E0,3.5E0,3.77E1,3.4849207E0,2.08E1,1.7638889E-1,1.692E-1,2.84E-1,6.977951E-1,3.5171697E-1,3.0743092E1,1.8E0,2.9833335E-1,-4.2222223E-1,1.799E1,-8.798861E-3,1.0423447E-2,-1.8884437E-2,-0E0,-7.9938833E-4,2.8433103E-2,1.242673E-2,-9.874405E-4,-6.041783E-3,2.7184194E-2,-3.6743758E-4,2.1970082E-2,3.630147E-3,-3.469059E-2,1.5057779E-2,-1.4480211E-2],"split_indices":[171,14,145,56,164,111,100,147,190,110,134,180,90,179,169,0,0,0,0,0,0,0,0,0,0,0,0,0,0,0,0],"split_type":[0,0,0,0,0,0,0,0,0,0,0,0,0,0,0,0,0,0,0,0,0,0,0,0,0,0,0,0,0,0,0],"sum_hessian":[3.277113E3,1.4008491E3,1.8762638E3,7.5397174E2,6.4687744E2,1.7163171E3,1.599466E2,4.6620886E2,2.8776288E2,1.480033E2,4.988741E2,1.3360632E3,3.8025397E2,6.3043106E1,9.690349E1,1.0713502E2,3.5907385E2,1.0141631E2,1.8634657E2,3.8381172E1,1.0962212E2,2.5072359E2,2.4815053E2,1.3173936E3,1.8669651E1,2.944759E2,8.577809E1,1.1175441E1,5.1867664E1,2.2375204E1,7.452828E1],"tree_param":{"num_deleted":"0","num_feature":"273","num_nodes":"31","size_leaf_vector":"1"}},{"base_weights":[1.478776E-3,8.5460655E-2,-6.121114E-2,5.064543E-2,3.1167337E-1,-2.3032755E-2,-2.538855E-1,-4.1534963E-1,7.519498E-2,-1.2330796E-1,4.3287787E-1,-8.699284E-2,9.809321E-2,2.2125629E-1,-3.2531607E-1,7.2148815E-3,-2.9388472E-2,-1.3532273E-2,4.887585E-3,-2.4966484E-2,7.6926514E-3,3.785186E-2,1.5006891E-2,-3.3044007E-2,-3.5996549E-3,-1.4827329E-2,7.1434216E-3,-7.768053E-3,3.0777514E-2,8.594616E-3,-1.9426893E-2],"categories":[],"categories_nodes":[],"categories_segments":[],"categories_sizes":[],"default_left":[0,0,0,0,0,0,0,0,0,0,0,0,0,0,0,0,0,0,0,0,0,0,0,0,0,0,0,0,0,0,0],"id":34,"left_children":[1,3,5,7,9,11,13,15,17,19,21,23,25,27,29,-1,-1,-1,-1,-1,-1,-1,-1,-1,-1,-1,-1,-1,-1,-1,-1],"loss_changes":[1.7232838E1,1.0776928E1,1.358453E1,1.3970065E1,1.0124083E1,1.218484E1,1.081501E1,6.5244045E0,9.145397E0,5.048325E0,4.614723E0,8.275026E0,9.70343E0,6.9628963E0,8.91061E0,0E0,0E0,0E0,0E0,0E0,0E0,0E0,0E0,0E0,0E0,0E0,0E0,0E0,0E0,0E0,0E0],"parents":[2147483647,0,0,1,1,2,2,3,3,4,4,5,5,6,6,7,7,8,8,9,9,10,10,11,11,12,12,13,13,14,14],"right_children":[2,4,6,8,10,12,14,16,18,20,22,24,26,28,30,-1,-1,-1,-1,-1,-1,-1,-1,-1,-1,-1,-1,-1,-1,-1,-1],"split_conditions":[1.5E0,8.88E1,7.193398E-1,5.76E0,2.3322139E0,4.7516415E-1,8.91E-1,-1.974299E1,3.385048E-1,8.888889E-1,2.2727273E-1,-2E-1,3.5641785E1,7.1428575E-2,2.3882847E1,7.2148815E-3,-2.9388472E-2,-1.3532273E-2,4.887585E-3,-2.4966484E-2,7.6926514E-3,3.785186E-2,1.5006891E-2,-3.3044007E-2,-3.5996549E-3,-1.4827329E-2,7.1434216E-3,-7.768053E-3,3.0777514E-2,8.594616E-3,-1.9426893E-2],"split_indices":[171,162,64,189,167,188,59,245,136,36,106,177,131,236,119,0,0,0,0,0,0,0,0,0,0,0,0,0,0,0,0],"split_type":[0,0,0,0,0,0,0,0,0,0,0,0,0,0,0,0,0,0,0,0,0,0,0,0,0,0,0,0,0,0,0],"sum_hessian":[3.2609365E3,1.3964102E3,1.8645265E3,1.2173793E3,1.7903079E2,1.5630093E3,3.0151718E2,5.592175E1,1.1614575E3,3.809665E1,1.4093414E2,1.0265045E3,5.365047E2,3.7119358E1,2.643978E2,1.2680026E1,4.3241726E1,6.639093E1,1.0950667E3,1.5230137E1,2.2866512E1,3.301847E1,1.0791567E2,1.9813482E1,1.00669104E3,5.066568E1,4.8583905E2,1.988634E1,1.7233019E1,2.7964857E1,2.3643295E2],"tree_param":{"num_deleted":"0","num_feature":"273","num_nodes":"31","size_leaf_vector":"1"}},{"base_weights":[1.0672736E-2,2.8191578E-2,-1.9872257E-1,-8.623619E-2,6.1398875E-2,1.7779909E-1,-2.8909302E-1,-1.4650469E-2,-4.5018682E-1,3.729837E-1,4.578599E-2,-2.0100763E-1,3.2935694E-2,-1.00215234E-1,-5.3331554E-1,-2.401089E-3,2.4885647E-2,-2.9881934E-2,2.9843906E-3,1.1615612E-3,2.9650846E-2,6.345303E-3,-6.324557E-4,1.0930977E-2,-2.705136E-2,1.5290389E-2,-1.1379964E-2,-5.0458745E-3,-3.7764683E-2],"categories":[],"categories_nodes":[],"categories_segments":[],"categories_sizes":[],"default_left":[0,0,0,0,0,0,0,0,0,0,0,0,0,0,0,0,0,0,0,0,0,0,0,0,0,0,0,0,0],"id":35,"left_children":[1,3,5,7,9,11,13,15,17,19,21,23,-1,25,27,-1,-1,-1,-1,-1,-1,-1,-1,-1,-1,-1,-1,-1,-1],"loss_changes":[1.20623665E1,1.1623827E1,8.937956E0,1.7605433E1,1.125611E1,1.0198068E1,8.982937E0,9.803088E0,8.8243885E0,8.17077E0,1.0817667E1,5.2938795E0,0E0,6.7358546E0,7.650383E0,0E0,0E0,0E0,0E0,0E0,0E0,0E0,0E0,0E0,0E0,0E0,0E0,0E0,0E0],"parents":[2147483647,0,0,1,1,2,2,3,3,4,4,5,5,6,6,7,7,8,8,9,9,10,10,11,11,13,13,14,14],"right_children":[2,4,6,8,10,12,14,16,18,20,22,24,-1,26,28,-1,-1,-1,-1,-1,-1,-1,-1,-1,-1,-1,-1,-1,-1],"split_conditions":[4.4E0,3.439609E-1,3.5589218E-1,1.1538461E0,7.7910054E-1,2.4E-1,4.544422E1,4.66E1,2.9411766E-1,3.0002353E0,-2E-1,1.3060041E-1,3.2935694E-2,3.183233E-1,2.5136986E-1,-2.401089E-3,2.4885647E-2,-2.9881934E-2,2.9843906E-3,1.1615612E-3,2.9650846E-2,6.345303E-3,-6.324557E-4,1.0930977E-2,-2.705136E-2,1.5290389E-2,-1.1379964E-2,-5.0458745E-3,-3.7764683E-2],"split_indices":[13,110,110,229,48,90,114,131,233,60,141,250,0,203,121,0,0,0,0,0,0,0,0,0,0,0,0,0,0],"split_type":[0,0,0,0,0,0,0,0,0,0,0,0,0,0,0,0,0,0,0,0,0,0,0,0,0,0,0,0,0],"sum_hessian":[3.2988225E3,3.0503342E3,2.4848839E2,6.8092365E2,2.3694104E3,4.608959E1,2.0239879E2,5.7449994E2,1.0642373E2,1.0607189E2,2.2633386E3,2.6828108E1,1.9261482E1,1.1926228E2,8.313651E1,5.445401E2,2.995981E1,8.264377E1,2.3779957E1,4.397384E1,6.2098053E1,9.4884393E2,1.3144946E3,1.2149176E1,1.4678931E1,2.587141E1,9.339087E1,3.143294E1,5.170357E1],"tree_param":{"num_deleted":"0","num_feature":"273","num_nodes":"29","size_leaf_vector":"1"}},{"base_weights":[-5.824749E-3,7.094187E-2,-6.438117E-2,-1.5435815E-1,1.0741837E-1,-5.087194E-1,-5.250175E-2,-2.328765E-1,2.951877E-1,-4.4561356E-1,1.2568688E-1,-7.8541857E-1,1.7671159E-3,-1.8349957E-1,-1.558054E-2,2.3166489E-2,-1.480283E-2,2.8141165E-2,-6.7098564E-3,-3.448058E-2,-0E0,7.345892E-3,-1.6460968E-2,-5.0447155E-2,-1.2102742E-2,2.482611E-3,-1.6032334E-2,6.043552E-4,-1.1645498E-2],"categories":[],"categories_nodes":[],"categories_segments":[],"categories_sizes":[],"default_left":[0,0,0,0,0,0,0,0,0,0,0,0,0,0,0,0,0,0,0,0,0,0,0,0,0,0,0,0,0],"id":36,"left_children":[1,3,5,7,9,11,13,15,17,19,21,23,-1,25,27,-1,-1,-1,-1,-1,-1,-1,-1,-1,-1,-1,-1,-1,-1],"loss_changes":[1.4783316E1,1.1728197E1,9.453851E0,7.301136E0,1.2515385E1,7.590459E0,8.724903E0,8.18076E0,4.1196747E0,4.556027E0,1.1667274E1,2.0381222E0,0E0,1.2953534E1,8.7477E0,0E0,0E0,0E0,0E0,0E0,0E0,0E0,0E0,0E0,0E0,0E0,0E0,0E0,0E0],"parents":[2147483647,0,0,1,1,2,2,3,3,4,4,5,5,6,6,7,7,8,8,9,9,10,10,11,11,13,13,14,14],"right_children":[2,4,6,8,10,12,14,16,18,20,22,24,-1,26,28,-1,-1,-1,-1,-1,-1,-1,-1,-1,-1,-1,-1,-1,-1],"split_conditions":[1.5E0,1.29E1,8.67372E1,1.5384616E-1,7.404387E-2,5.263158E-2,2.7292588E0,8E-1,1.351361E0,3.3198795E0,1.3846154E0,9.579387E0,1.7671159E-3,-6.56059E-1,4.4071968E1,2.3166489E-2,-1.480283E-2,2.8141165E-2,-6.7098564E-3,-3.448058E-2,-0E0,7.345892E-3,-1.6460968E-2,-5.0447155E-2,-1.2102742E-2,2.482611E-3,-1.6032334E-2,6.043552E-4,-1.1645498E-2],"split_indices":[171,148,132,234,251,21,167,48,203,60,35,168,0,65,119,0,0,0,0,0,0,0,0,0,0,0,0,0,0],"split_type":[0,0,0,0,0,0,0,0,0,0,0,0,0,0,0,0,0,0,0,0,0,0,0,0,0,0,0,0,0],"sum_hessian":[3.2793542E3,1.414876E3,1.8644781E3,1.9299025E2,1.2218856E3,4.2007847E1,1.8224703E3,1.6729276E2,2.5697496E1,3.445701E1,1.1874287E3,2.698481E1,1.5023035E1,3.9337366E2,1.4290967E3,1.0625457E1,1.566673E2,1.5590539E1,1.0106958E1,2.1055504E1,1.34015045E1,1.1387656E3,4.866307E1,1.5432067E1,1.1552743E1,1.4552441E2,2.4784923E2,1.269856E3,1.592408E2],"tree_param":{"num_deleted":"0","num_feature":"273","num_nodes":"29","size_leaf_vector":"1"}},{"base_weights":[-4.159072E-3,-1.4749427E-2,3.4411728E-1,2.256859E-2,-1.14932925E-1,-1.6458716E-2,5.0441355E-1,5.5982154E-2,-1.2907341E-1,-4.411874E-2,-2.7915823E-1,-9.085377E-3,6.3793844E-1,4.8034745E-3,-4.0627485E-3,-1.888094E-2,-9.495307E-4,-7.2526573E-3,5.352484E-3,-1.9456884E-2,1.5174677E-2,3.987702E-2,-0E0],"categories":[],"categories_nodes":[],"categories_segments":[],"categories_sizes":[],"default_left":[0,0,0,0,0,0,0,0,0,0,0,0,0,0,0,0,0,0,0,0,0,0,0],"id":37,"left_children":[1,3,5,7,9,-1,11,13,15,17,19,-1,21,-1,-1,-1,-1,-1,-1,-1,-1,-1,-1],"loss_changes":[1.1981022E1,1.2005284E1,1.1255702E1,1.1798574E1,9.913801E0,0E0,8.131481E0,1.0578296E1,1.1237286E1,9.512573E0,1.7265543E1,0E0,6.752407E0,0E0,0E0,0E0,0E0,0E0,0E0,0E0,0E0,0E0,0E0],"parents":[2147483647,0,0,1,1,2,2,3,3,4,4,6,6,7,7,8,8,9,9,10,10,12,12],"right_children":[2,4,6,8,10,-1,12,14,16,18,20,-1,22,-1,-1,-1,-1,-1,-1,-1,-1,-1,-1],"split_conditions":[2.3295705E-1,4E-1,4.62E1,3.5046384E-1,1.202625E0,-1.6458716E-2,2.9244626E-2,2.38E1,6.3047E0,1.8761726E-2,2.7E0,-9.085377E-3,3.9493564E-1,4.8034745E-3,-4.0627485E-3,-1.888094E-2,-9.495307E-4,-7.2526573E-3,5.352484E-3,-1.9456884E-2,1.5174677E-2,3.987702E-2,-0E0],"split_indices":[249,141,156,255,51,0,241,153,196,257,50,0,53,0,0,0,0,0,0,0,0,0,0],"split_type":[0,0,0,0,0,0,0,0,0,0,0,0,0,0,0,0,0,0,0,0,0,0,0],"sum_hessian":[3.2810935E3,3.190307E3,9.078666E1,2.323641E3,8.666657E2,1.5845207E1,7.494145E1,1.9093718E3,4.1426926E2,6.121106E2,2.5455511E2,1.1304434E1,6.3637012E1,1.481705E3,4.276668E2,1.2203793E2,2.9223132E2,3.6914447E2,2.4296613E2,2.1625441E2,3.83007E1,4.9530575E1,1.410644E1],"tree_param":{"num_deleted":"0","num_feature":"273","num_nodes":"23","size_leaf_vector":"1"}},{"base_weights":[-1.697485E-2,-8.381881E-2,3.3971068E-2,-5.5939857E-2,-3.5139096E-1,-2.7286168E-3,2.409254E-1,-1.3060983E-1,4.912986E-2,1.7594507E-1,-4.9364796E-1,6.3854985E-2,-1.0593512E-1,3.244986E-1,-1.9317503E-1,-1.1628897E-2,8.2023704E-4,1.2279288E-2,-3.0029435E-3,2.932237E-2,-9.129161E-3,-3.2425206E-2,1.1852861E-3,-3.6042437E-4,1.1475739E-2,-9.826287E-3,2.7160905E-3,-7.1058114E-4,2.2500163E-2,1.9110182E-2,-2.5936633E-2],"categories":[],"categories_nodes":[],"categories_segments":[],"categories_sizes":[],"default_left":[0,0,0,0,0,0,0,0,0,0,0,0,0,0,0,0,0,0,0,0,0,0,0,0,0,0,0,0,0,0,0],"id":38,"left_children":[1,3,5,7,9,11,13,15,17,19,21,23,25,27,29,-1,-1,-1,-1,-1,-1,-1,-1,-1,-1,-1,-1,-1,-1,-1,-1],"loss_changes":[1.1223739E1,1.0337083E1,1.4273122E1,1.026635E1,1.0490856E1,1.0949441E1,1.0636517E1,1.1575041E1,1.1763103E1,5.2954264E0,8.879015E0,1.1466217E1,9.220442E0,1.0448919E1,1.0015895E1,0E0,0E0,0E0,0E0,0E0,0E0,0E0,0E0,0E0,0E0,0E0,0E0,0E0,0E0,0E0,0E0],"parents":[2147483647,0,0,1,1,2,2,3,3,4,4,5,5,6,6,7,7,8,8,9,9,10,10,11,11,12,12,13,13,14,14],"right_children":[2,4,6,8,10,12,14,16,18,20,22,24,26,28,30,-1,-1,-1,-1,-1,-1,-1,-1,-1,-1,-1,-1,-1,-1,-1,-1],"split_conditions":[8.3333336E-2,4.6662858E-1,4.6718037E-1,2.661924E-1,5.8080398E-2,1.8E0,4.7514343E-1,1.624E-1,9.0909094E-1,3.3278553E0,6.2608695E0,1.6073271E0,4.2170075E-1,4.085916E1,-9.086738E-2,-1.1628897E-2,8.2023704E-4,1.2279288E-2,-3.0029435E-3,2.932237E-2,-9.129161E-3,-3.2425206E-2,1.1852861E-3,-3.6042437E-4,1.1475739E-2,-9.826287E-3,2.7160905E-3,-7.1058114E-4,2.2500163E-2,1.9110182E-2,-2.5936633E-2],"split_indices":[233,110,136,202,47,37,202,100,38,170,170,260,136,131,176,0,0,0,0,0,0,0,0,0,0,0,0,0,0,0,0],"split_type":[0,0,0,0,0,0,0,0,0,0,0,0,0,0,0,0,0,0,0,0,0,0,0,0,0,0,0,0,0,0,0],"sum_hessian":[3.2793398E3,1.421214E3,1.858126E3,1.2942745E3,1.2693942E2,1.5803899E3,2.7773605E2,7.586603E2,5.3561426E2,2.5970373E1,1.00969055E2,9.588502E2,6.2153973E2,2.3492282E2,4.281323E1,4.482492E2,3.1041104E2,1.9074785E2,3.448664E2,1.1275907E1,1.4694466E1,7.747724E1,2.349181E1,6.722414E2,2.866088E2,3.9834836E2,2.2319136E2,6.363512E1,1.7128769E2,1.4601413E1,2.8211815E1],"tree_param":{"num_deleted":"0","num_feature":"273","num_nodes":"31","size_leaf_vector":"1"}},{"base_weights":[2.7818382E-3,7.567312E-2,-5.0538287E-2,1.0020322E-1,-2.3227291E-1,-1.222672E-1,2.9958062E-2,-5.980849E-2,1.4745246E-1,-3.348577E-1,1.7251356E-2,5.7374805E-2,-1.7004631E-1,5.844868E-2,-4.767094E-1,-9.660581E-3,1.4923793E-2,1.0179572E-2,-2.195019E-4,7.1233893E-3,-2.4879029E-2,-7.406808E-3,1.4166278E-2,-2.4446342E-2,-6.8672397E-3,5.8847386E-3,-9.718013E-3,6.066318E-3,-3.4019828E-2],"categories":[],"categories_nodes":[],"categories_segments":[],"categories_sizes":[],"default_left":[0,0,0,0,0,0,0,0,0,0,0,0,0,0,0,0,0,0,0,0,0,0,0,0,0,0,0,0,0],"id":39,"left_children":[1,3,5,7,9,11,13,15,17,19,-1,21,23,25,27,-1,-1,-1,-1,-1,-1,-1,-1,-1,-1,-1,-1,-1,-1],"loss_changes":[1.268929E1,1.0488637E1,1.0918961E1,9.802152E0,6.6105785E0,8.67422E0,1.2727825E1,1.4290593E1,8.59272E0,7.510354E0,0E0,1.0088655E1,7.610794E0,1.2728566E1,6.3943043E0,0E0,0E0,0E0,0E0,0E0,0E0,0E0,0E0,0E0,0E0,0E0,0E0,0E0,0E0],"parents":[2147483647,0,0,1,1,2,2,3,3,4,4,5,5,6,6,7,7,8,8,9,9,11,11,12,12,13,13,14,14],"right_children":[2,4,6,8,10,12,14,16,18,20,-1,22,24,26,28,-1,-1,-1,-1,-1,-1,-1,-1,-1,-1,-1,-1,-1,-1],"split_conditions":[1E0,5E-1,4.5242617E-1,5.291E0,4.5011772E1,1.6666667E-1,1.2355781E1,1.13E2,1.0198315E1,1.0133069E0,1.7251356E-2,4.0707235E0,2.1166667E-1,1.8181819E-1,2.3089638E-1,-9.660581E-3,1.4923793E-2,1.0179572E-2,-2.195019E-4,7.1233893E-3,-2.4879029E-2,-7.406808E-3,1.4166278E-2,-2.4446342E-2,-6.8672397E-3,5.8847386E-3,-9.718013E-3,6.066318E-3,-3.4019828E-2],"split_indices":[171,236,188,196,131,42,46,93,168,48,0,170,25,234,240,0,0,0,0,0,0,0,0,0,0,0,0,0,0],"split_type":[0,0,0,0,0,0,0,0,0,0,0,0,0,0,0,0,0,0,0,0,0,0,0,0,0,0,0,0,0],"sum_hessian":[3.251752E3,1.3768333E3,1.8749186E3,1.2798784E3,9.69548E1,9.93365E2,8.8155365E2,2.8905823E2,9.908202E2,8.484411E1,1.2110695E1,2.0628743E2,7.870776E2,8.397437E2,4.1809917E1,2.1332738E2,7.573084E1,7.245351E2,2.6628513E2,2.0947409E1,6.38967E1,1.0777288E2,9.851454E1,6.529772E1,7.2177985E2,6.84079E2,1.5566473E2,1.0512296E1,3.1297623E1],"tree_param":{"num_deleted":"0","num_feature":"273","num_nodes":"29","size_leaf_vector":"1"}},{"base_weights":[6.948104E-3,-1.174752E-1,3.9136257E-2,-2.4069239E-1,-3.0565247E-2,8.780781E-2,-6.446535E-2,-2.2900002E-2,-3.8560835E-1,1.8360982E-2,-5.3711843E-1,-6.624369E-2,1.2919721E-1,-1.3872186E-2,-3.0802363E-1,1.2199822E-2,-1.6391158E-2,-2.954126E-2,-7.749503E-3,-6.411552E-3,8.669999E-3,-3.897436E-2,1.6652488E-3,-6.3551115E-3,2.1632617E-2,7.834087E-3,-7.110752E-3,-8.488059E-3,3.8849749E-3,-2.2667833E-2,4.4474727E-3],"categories":[],"categories_nodes":[],"categories_segments":[],"categories_sizes":[],"default_left":[0,0,0,0,0,0,0,0,0,0,0,0,0,0,0,0,0,0,0,0,0,0,0,0,0,0,0,0,0,0,0],"id":40,"left_children":[1,3,5,7,9,11,13,15,17,19,21,23,25,27,29,-1,-1,-1,-1,-1,-1,-1,-1,-1,-1,-1,-1,-1,-1,-1,-1],"loss_changes":[1.3127871E1,7.0302296E0,1.3222733E1,8.433596E0,1.0284388E1,1.1450003E1,1.0109767E1,9.931079E0,6.9062805E0,8.565468E0,5.5516367E0,1.1616604E1,1.0640778E1,1.0083256E1,8.560253E0,0E0,0E0,0E0,0E0,0E0,0E0,0E0,0E0,0E0,0E0,0E0,0E0,0E0,0E0,0E0,0E0],"parents":[2147483647,0,0,1,1,2,2,3,3,4,4,5,5,6,6,7,7,8,8,9,9,10,10,11,11,12,12,13,13,14,14],"right_children":[2,4,6,8,10,12,14,16,18,20,22,24,26,28,30,-1,-1,-1,-1,-1,-1,-1,-1,-1,-1,-1,-1,-1,-1,-1,-1],"split_conditions":[1E0,4.1029012E-1,5.622798E-1,9E-1,3.650164E0,2.3095013E1,4.72E1,-7.925408E-3,2.235E1,1.6216217E-2,1.7219915E1,5.525157E-1,4.1E-2,-2.9166666E-1,1.8181819E-1,1.2199822E-2,-1.6391158E-2,-2.954126E-2,-7.749503E-3,-6.411552E-3,8.669999E-3,-3.897436E-2,1.6652488E-3,-6.3551115E-3,2.1632617E-2,7.834087E-3,-7.110752E-3,-8.488059E-3,3.8849749E-3,-2.2667833E-2,4.4474727E-3],"split_indices":[172,136,253,229,194,133,138,259,169,257,116,112,224,232,40,0,0,0,0,0,0,0,0,0,0,0,0,0,0,0,0],"split_type":[0,0,0,0,0,0,0,0,0,0,0,0,0,0,0,0,0,0,0,0,0,0,0,0,0,0,0,0,0,0,0],"sum_hessian":[3.2769463E3,6.675911E2,2.6093552E3,2.7008124E2,3.975099E2,1.7791208E3,8.302344E2,1.11599754E2,1.5848149E2,3.6599173E2,3.1518177E1,3.7357822E2,1.4055426E3,6.935122E2,1.3672218E2,5.9168983E1,5.2430767E1,7.8579475E1,7.990201E1,1.8690727E2,1.7908444E2,2.1448765E1,1.0069412E1,3.3717575E2,3.6402485E1,1.2798905E3,1.25652145E2,2.570717E2,4.3644052E2,1.0048405E2,3.623814E1],"tree_param":{"num_deleted":"0","num_feature":"273","num_nodes":"31","size_leaf_vector":"1"}},{"base_weights":[1.4162978E-2,2.116288E-2,-3.9506388E-1,4.6467125E-2,-1.0262432E-1,-6.016351E-1,9.540542E-3,6.797497E-2,-1.17447235E-1,-7.608447E-2,-3.8546886E-2,-8.139137E-1,-0E0,-1.0264917E-2,4.0662363E-3,-1.2491706E-3,-2.828738E-2,-2.956443E-2,-2.0639675E-3,-1.3873734E-2,-5.059203E-2],"categories":[],"categories_nodes":[],"categories_segments":[],"categories_sizes":[],"default_left":[0,0,0,0,0,0,0,0,0,0,0,0,0,0,0,0,0,0,0,0,0],"id":41,"left_children":[1,3,5,7,9,11,-1,13,15,17,-1,19,-1,-1,-1,-1,-1,-1,-1,-1,-1],"loss_changes":[9.27813E0,1.0145319E1,7.360278E0,9.5236435E0,9.005684E0,4.9726086E0,0E0,8.740938E0,1.2566149E1,9.127892E0,0E0,1.187252E0,0E0,0E0,0E0,0E0,0E0,0E0,0E0,0E0,0E0],"parents":[2147483647,0,0,1,1,2,2,3,3,4,4,5,5,7,7,8,8,9,9,11,11],"right_children":[2,4,6,8,10,12,-1,14,16,18,-1,20,-1,-1,-1,-1,-1,-1,-1,-1,-1],"split_conditions":[3.1E0,7.193398E-1,3.459882E-2,2.86E1,1.1758117E1,1.14285715E-1,9.540542E-3,4.2531333E0,7.431448E-1,4.11E1,-3.8546886E-2,2.3295822E0,-0E0,-1.0264917E-2,4.0662363E-3,-1.2491706E-3,-2.828738E-2,-2.956443E-2,-2.0639675E-3,-1.3873734E-2,-5.059203E-2],"split_indices":[85,64,241,150,248,220,0,46,65,163,0,244,0,0,0,0,0,0,0,0,0],"split_type":[0,0,0,0,0,0,0,0,0,0,0,0,0,0,0,0,0,0,0,0,0],"sum_hessian":[3.284621E3,3.2352449E3,4.9376225E1,2.6920962E3,5.4314874E2,3.703657E1,1.2339653E1,2.385113E3,3.069831E2,5.284793E2,1.4669417E1,2.547505E1,1.1561522E1,1.059961E2,2.279117E3,2.5979355E2,4.7189545E1,2.7474758E1,5.0100458E2,1.0783731E1,1.46913185E1],"tree_param":{"num_deleted":"0","num_feature":"273","num_nodes":"21","size_leaf_vector":"1"}},{"base_weights":[3.1837586E-3,9.6114606E-2,-6.541846E-2,3.4564865E-1,5.854503E-2,-3.7290875E-2,-2.3372613E-1,5.5894953E-1,5.9820723E-2,-1.524784E-1,1.07864715E-1,-1.4182976E-1,1.0586638E-2,-3.2716942E-1,1.13884725E-1,3.847986E-2,1.0264827E-2,-5.8585606E-3,3.374968E-2,-1.2155943E-2,1.5734982E-2,-1.5268325E-2,6.500173E-3,-1.7034233E-2,-1.6544381E-3,1.9326836E-3,-1.6765228E-2,-1.9400226E-2,1.0644938E-2,1.6541759E-2,-2.5618648E-2],"categories":[],"categories_nodes":[],"categories_segments":[],"categories_sizes":[],"default_left":[0,0,0,0,0,0,0,0,0,0,0,0,0,0,0,0,0,0,0,0,0,0,0,0,0,0,0,0,0,0,0],"id":42,"left_children":[1,3,5,7,9,11,13,15,17,19,21,23,25,27,29,-1,-1,-1,-1,-1,-1,-1,-1,-1,-1,-1,-1,-1,-1,-1,-1],"loss_changes":[2.0917694E1,1.2778977E1,8.736509E0,1.0488071E1,1.2763587E1,8.191862E0,8.938713E0,6.275566E0,9.761198E0,1.0144818E1,9.206418E0,1.0853334E1,1.0730724E1,7.472578E0,8.768508E0,0E0,0E0,0E0,0E0,0E0,0E0,0E0,0E0,0E0,0E0,0E0,0E0,0E0,0E0,0E0,0E0],"parents":[2147483647,0,0,1,1,2,2,3,3,4,4,5,5,6,6,7,7,8,8,9,9,10,10,11,11,12,12,13,13,14,14],"right_children":[2,4,6,8,10,12,14,16,18,20,22,24,26,28,30,-1,-1,-1,-1,-1,-1,-1,-1,-1,-1,-1,-1,-1,-1,-1,-1],"split_conditions":[1E0,1.85E1,2.58E1,8.1391865E-1,1.0682164E-1,2.4780442E-1,2.2330675E0,1.3418557E-1,4.7136227E1,1.3333334E0,2.3799157E0,1.4252E0,4.9050096E-1,1.2038E0,1.7672797E-1,3.847986E-2,1.0264827E-2,-5.8585606E-3,3.374968E-2,-1.2155943E-2,1.5734982E-2,-1.5268325E-2,6.500173E-3,-1.7034233E-2,-1.6544381E-3,1.9326836E-3,-1.6765228E-2,-1.9400226E-2,1.0644938E-2,1.6541759E-2,-2.5618648E-2],"split_indices":[171,164,150,193,250,121,243,249,134,33,60,183,110,94,241,0,0,0,0,0,0,0,0,0,0,0,0,0,0,0,0],"split_type":[0,0,0,0,0,0,0,0,0,0,0,0,0,0,0,0,0,0,0,0,0,0,0,0,0,0,0,0,0,0,0],"sum_hessian":[3.2687334E3,1.3904572E3,1.8782762E3,1.7484448E2,1.2156127E3,1.6171042E3,2.6117197E2,9.63876E1,7.845689E1,2.2638525E2,9.892274E2,5.0816824E2,1.108936E3,2.0720453E2,5.3967434E1,5.583556E1,4.0552044E1,6.343952E1,1.5017365E1,1.925044E2,3.3880856E1,4.590145E1,9.43326E2,1.7425137E2,3.3391687E2,1.031151E3,7.778505E1,1.8832465E2,1.887989E1,4.242681E1,1.1540622E1],"tree_param":{"num_deleted":"0","num_feature":"273","num_nodes":"31","size_leaf_vector":"1"}}]},"name":"gbtree"},"learner_model_param":{"base_score":"[4.7941354E-1]","boost_from_average":"1","num_class":"0","num_feature":"273","num_target":"1"},"objective":{"name":"binary:logistic","reg_loss_param":{"scale_pos_weight":"1"}}},"version":[3,1,3]}