{"learner":{"attributes":{"scikit_learn":"{\"_estimator_type\": \"regressor\"}"},"feature_names":[],"feature_types":[],"gradient_booster":{"model":{"cats":{"enc":[],"feature_segments":[],"sorted_idx":[]},"gbtree_model_param":{"num_parallel_tree":"1","num_trees":"100"},"iteration_indptr":[0,1,2,3,4,5,6,7,8,9,10,11,12,13,14,15,16,17,18,19,20,21,22,23,24,25,26,27,28,29,30,31,32,33,34,35,36,37,38,39,40,41,42,43,44,45,46,47,48,49,50,51,52,53,54,55,56,57,58,59,60,61,62,63,64,65,66,67,68,69,70,71,72,73,74,75,76,77,78,79,80,81,82,83,84,85,86,87,88,89,90,91,92,93,94,95,96,97,98,99,100],"tree_info":[0,0,0,0,0,0,0,0,0,0,0,0,0,0,0,0,0,0,0,0,0,0,0,0,0,0,0,0,0,0,0,0,0,0,0,0,0,0,0,0,0,0,0,0,0,0,0,0,0,0,0,0,0,0,0,0,0,0,0,0,0,0,0,0,0,0,0,0,0,0,0,0,0,0,0,0,0,0,0,0,0,0,0,0,0,0,0,0,0,0,0,0,0,0,0,0,0,0,0,0],"trees":[{"base_weights":[-8.17752E-3,4.766757E-1,-1.5965675E0,1.4584943E0,8.900029E-3,-6.3277483E-1,-2.217137E0,2.247724E0,8.6626095E-1,-3.517094E-1,1.2035964E0,-1.1746225E0,7.987347E-1,-1.5149451E0,-3.0945852E0,4.913948E0,1.7665298E0,5.129064E-1,2.5675309E0,-1.0477725E0,-2.5729343E-2,4.7739425E-1,1.9294815E0,-1.559518E0,9.257887E-1,5.6639826E-1,2.513573E-1,-1.7115462E0,1.5978931E0,-3.9110508E0,-1.4964485E0,4.8994702E-1,-3.8491362E-3,1.6765757E-1,-1.7628418E-1,2.322516E-1,2.1708608E-2,4.84477E-1,1.4233826E-1,-6.02843E-2,-2.917033E-1,2.2548048E-1,-8.549419E-3,1.7580383E-2,2.7732655E-1,1.2949672E-1,4.3503052E-1,-1.5024522E-1,1.6896586E-1,4.448082E-1,-6.9587305E-2,-1.1856416E-1,1.5896635E-1,-3.020146E-1,-1.1669817E-1,2.9000518E-1,-1.3751262E-2,-2.6461786E-1,-7.464196E-1,5.7836868E-2,-2.058654E-1],"categories":[],"categories_nodes":[],"categories_segments":[],"categories_sizes":[],"default_left":[0,0,0,0,0,0,0,0,0,0,0,0,0,0,0,0,0,0,0,0,0,0,0,0,0,0,0,0,0,0,0,0,0,0,0,0,0,0,0,0,0,0,0,0,0,0,0,0,0,0,0,0,0,0,0,0,0,0,0,0,0],"id":0,"left_children":[1,3,5,7,9,11,13,15,17,19,21,23,25,27,29,31,33,35,37,39,41,43,45,47,49,-1,51,53,55,57,59,-1,-1,-1,-1,-1,-1,-1,-1,-1,-1,-1,-1,-1,-1,-1,-1,-1,-1,-1,-1,-1,-1,-1,-1,-1,-1,-1,-1,-1,-1],"loss_changes":[1.6565458E3,7.561377E2,2.9834998E2,2.4512195E2,4.820799E2,1.554624E2,1.8123718E2,2.788451E2,1.812575E2,1.945028E2,1.349538E2,1.190141E2,1.729776E2,1.08520935E2,1.6689246E2,1.4594574E2,1.5938934E2,1.4384344E2,1.3235635E2,2.1654932E2,1.1727284E2,9.721748E1,1.5576599E2,9.543927E1,1.7970708E2,0E0,1.411235E2,9.394354E1,3.5971172E1,3.0637085E2,9.831262E1,0E0,0E0,0E0,0E0,0E0,0E0,0E0,0E0,0E0,0E0,0E0,0E0,0E0,0E0,0E0,0E0,0E0,0E0,0E0,0E0,0E0,0E0,0E0,0E0,0E0,0E0,0E0,0E0,0E0,0E0],"parents":[2147483647,0,0,1,1,2,2,3,3,4,4,5,5,6,6,7,7,8,8,9,9,10,10,11,11,12,12,13,13,14,14,15,15,16,16,17,17,18,18,19,19,20,20,21,21,22,22,23,23,24,24,26,26,27,27,28,28,29,29,30,30],"right_children":[2,4,6,8,10,12,14,16,18,20,22,24,26,28,30,32,34,36,38,40,42,44,46,48,50,-1,52,54,56,58,60,-1,-1,-1,-1,-1,-1,-1,-1,-1,-1,-1,-1,-1,-1,-1,-1,-1,-1,-1,-1,-1,-1,-1,-1,-1,-1,-1,-1,-1,-1],"split_conditions":[1.2222222E0,-1.8E-2,-9E-3,2.4444444E0,1.2222222E0,1.2222222E0,1.5E1,-7E-2,1.5351294E3,-2.6852089E1,-2.1969697E-1,9.5375E0,3.4184894E-1,2.761616E-1,2.66E0,3.7024338E0,6.3333335E0,1.3738514E0,-1.0518721E-1,1.5253029E0,-8.624387E0,7.2E1,1.040708E1,5.093651E0,-4.9E-2,5.6639826E-1,2.3722222E-1,-5.777694E-1,2.433E1,-7.5387746E-1,-3.6712405E-1,4.8994702E-1,-3.8491362E-3,1.6765757E-1,-1.7628418E-1,2.322516E-1,2.1708608E-2,4.84477E-1,1.4233826E-1,-6.02843E-2,-2.917033E-1,2.2548048E-1,-8.549419E-3,1.7580383E-2,2.7732655E-1,1.2949672E-1,4.3503052E-1,-1.5024522E-1,1.6896586E-1,4.448082E-1,-6.9587305E-2,-1.1856416E-1,1.5896635E-1,-3.020146E-1,-1.1669817E-1,2.9000518E-1,-1.3751262E-2,-2.6461786E-1,-7.464196E-1,5.7836868E-2,-2.058654E-1],"split_indices":[52,125,125,92,56,56,41,125,71,73,46,11,55,53,101,95,10,114,81,109,99,33,19,99,125,0,53,129,100,73,109,0,0,0,0,0,0,0,0,0,0,0,0,0,0,0,0,0,0,0,0,0,0,0,0,0,0,0,0,0,0],"split_type":[0,0,0,0,0,0,0,0,0,0,0,0,0,0,0,0,0,0,0,0,0,0,0,0,0,0,0,0,0,0,0,0,0,0,0,0,0,0,0,0,0,0,0,0,0,0,0,0,0,0,0,0,0,0,0,0,0,0,0,0,0],"sum_hessian":[2.1482092E3,1.6462898E3,5.019193E2,5.302352E2,1.1160546E3,1.9771246E2,3.0420685E2,2.2569196E2,3.0454324E2,8.5770953E2,2.583451E2,1.437379E2,5.3974564E1,1.7093553E2,1.3327133E2,3.2772606E1,1.9291934E2,2.535718E2,5.0971462E1,2.7243378E2,5.8527576E2,1.3032501E2,1.280201E2,1.2185876E2,2.1879143E1,3.4496288E0,5.0524933E1,1.6136821E2,9.567323E0,8.696545E1,4.630588E1,2.7849432E1,4.9231734E0,1.8365022E2,9.269122E0,2.5034676E1,2.2853711E2,9.81991E0,4.115155E1,2.4007202E2,3.2361767E1,1.4715294E1,5.705604E2,1.2004037E2,1.0284637E1,1.15221054E2,1.2799045E1,1.1570164E2,6.157125E0,5.689977E0,1.6189165E1,2.5034567E1,2.5490368E1,2.311078E1,1.3825743E2,4.2620926E0,5.3052297E0,7.645774E1,1.0507711E1,1.3819487E1,3.2486397E1],"tree_param":{"num_deleted":"0","num_feature":"130","num_nodes":"61","size_leaf_vector":"1"}},{"base_weights":[1.714483E-2,9.6200407E-1,-7.339218E-1,3.1122938E-1,1.4962635E0,-1.0756859E0,3.627619E-1,-8.3844894E-1,8.7476814E-1,-2.1552563E0,1.587192E0,-5.990881E-1,-1.7195793E0,-1.1747201E-1,1.695573E0,1.7013092E0,-1.2201355E0,2.7240136E-1,2.0088232E0,1.8095274E-1,-5.0892985E-1,4.6700564E-1,1.8344173E0,-6.6198844E-1,3.8765662E0,-7.067209E-1,-2.0616274E0,1.684389E0,-5.556957E-1,6.4551437E-1,4.8855343E0,-1.6011937E-1,2.5349092E-1,2.3668675E-1,-1.2723143E-1,-3.5346875E-1,3.6411047E-2,2.0027742E-1,-1.4111646E-1,-1.9205137E-1,3.2359248E-1,3.8138282E-1,3.8367903E-3,1.294012E-1,2.2257349E-1,-2.5997555E-1,-4.5491256E-2,-0E0,5.4599804E-1,-1.4892755E-1,2.1780027E-2,-1.9967975E-1,-4.0415566E-2,5.2935386E-1,4.1132692E-2,4.5453094E-2,-8.909963E-2,1.976568E-1,-1.0037559E-2,-7.341606E-2,5.4740787E-1],"categories":[],"categories_nodes":[],"categories_segments":[],"categories_sizes":[],"default_left":[0,0,0,0,0,0,0,0,0,0,0,0,0,0,0,0,0,0,0,0,0,0,0,0,0,0,0,0,0,0,0,0,0,0,0,0,0,0,0,0,0,0,0,0,0,0,0,0,0,0,0,0,0,0,0,0,0,0,0,0,0],"id":1,"left_children":[1,3,5,7,9,11,13,15,17,19,21,23,25,27,29,31,33,35,37,39,-1,41,43,45,47,49,51,53,55,57,59,-1,-1,-1,-1,-1,-1,-1,-1,-1,-1,-1,-1,-1,-1,-1,-1,-1,-1,-1,-1,-1,-1,-1,-1,-1,-1,-1,-1,-1,-1],"loss_changes":[1.5440057E3,3.339364E2,4.5492395E2,2.834696E2,1.7930127E2,2.8177283E2,1.8545271E2,1.4172917E2,1.9910896E2,1.2188373E2,1.4132141E2,1.5208092E2,1.3334448E2,1.689515E2,2.5146523E2,9.510342E1,1.4455737E2,1.3475133E2,1.3477332E2,9.294759E1,0E0,1.5984242E2,9.730481E1,1.5672253E2,7.2244896E1,1.0286931E2,1.3199084E2,2.2262416E2,9.35892E1,7.6941376E1,1.7630164E2,0E0,0E0,0E0,0E0,0E0,0E0,0E0,0E0,0E0,0E0,0E0,0E0,0E0,0E0,0E0,0E0,0E0,0E0,0E0,0E0,0E0,0E0,0E0,0E0,0E0,0E0,0E0,0E0,0E0,0E0],"parents":[2147483647,0,0,1,1,2,2,3,3,4,4,5,5,6,6,7,7,8,8,9,9,10,10,11,11,12,12,13,13,14,14,15,15,16,16,17,17,18,18,19,19,21,21,22,22,23,23,24,24,25,25,26,26,27,27,28,28,29,29,30,30],"right_children":[2,4,6,8,10,12,14,16,18,20,22,24,26,28,30,32,34,36,38,40,-1,42,44,46,48,50,52,54,56,58,60,-1,-1,-1,-1,-1,-1,-1,-1,-1,-1,-1,-1,-1,-1,-1,-1,-1,-1,-1,-1,-1,-1,-1,-1,-1,-1,-1,-1,-1,-1],"split_conditions":[1.1111112E0,1.1111112E0,3.1245537E1,-1.0647222E-1,1.4212114E3,1.2222222E0,1.2222222E0,5.81E1,3.35E-1,-4.2501286E-1,2.98E-1,3.97E-1,1E0,-1.9E0,3.41E-1,7.6191854E0,0E0,2.25E-1,8.4503925E-1,4.0060467E-1,-5.0892985E-1,-5.777694E-1,1.5234094E3,-2.6671426E0,2E0,7.659685E-1,5.1639813E-1,3.1413047E0,1.3235605E0,1.1203591E-1,7.3E0,-1.6011937E-1,2.5349092E-1,2.3668675E-1,-1.2723143E-1,-3.5346875E-1,3.6411047E-2,2.0027742E-1,-1.4111646E-1,-1.9205137E-1,3.2359248E-1,3.8138282E-1,3.8367903E-3,1.294012E-1,2.2257349E-1,-2.5997555E-1,-4.5491256E-2,-0E0,5.4599804E-1,-1.4892755E-1,2.1780027E-2,-1.9967975E-1,-4.0415566E-2,5.2935386E-1,4.1132692E-2,4.5453094E-2,-8.909963E-2,1.976568E-1,-1.0037559E-2,-7.341606E-2,5.4740787E-1],"split_indices":[52,56,73,45,71,52,56,49,69,95,69,69,93,127,69,122,112,8,86,51,0,129,71,46,24,119,51,23,120,7,68,0,0,0,0,0,0,0,0,0,0,0,0,0,0,0,0,0,0,0,0,0,0,0,0,0,0,0,0,0,0],"split_type":[0,0,0,0,0,0,0,0,0,0,0,0,0,0,0,0,0,0,0,0,0,0,0,0,0,0,0,0,0,0,0,0,0,0,0,0,0,0,0,0,0,0,0,0,0,0,0,0,0,0,0,0,0,0,0,0,0,0,0,0,0],"sum_hessian":[2.173309E3,9.6252875E2,1.2107804E3,4.350426E2,5.2748615E2,9.2334875E2,2.874316E2,1.4272772E2,2.923149E2,1.2091675E1,5.153945E2,5.3217596E2,3.911728E2,2.1189612E2,7.553548E1,1.8014431E1,1.2471329E2,1.9203328E2,1.0028162E2,8.148929E0,3.9427454E0,9.402209E1,4.2137238E2,5.25844E2,6.3319926E0,9.988546E1,2.9128732E2,4.066536E1,1.7123076E2,5.795173E1,1.7583752E1,4.5379105E0,1.3476521E1,7.3348837E0,1.173784E2,5.458401E0,1.8657489E2,9.2027245E1,8.254372E0,5.0787907E0,3.0701385E0,7.7906218E0,8.623147E1,3.0469257E2,1.1667984E2,2.4844198E1,5.009998E2,3.0177937E0,3.314199E0,4.7570988E1,5.2314476E1,2.4569295E2,4.559437E1,7.4206824E0,3.324468E1,5.3090694E1,1.1814006E2,1.7489992E1,4.0461735E1,3.817758E0,1.3765994E1],"tree_param":{"num_deleted":"0","num_feature":"130","num_nodes":"61","size_leaf_vector":"1"}},{"base_weights":[-3.3761308E-2,8.5279536E-1,-7.354568E-1,1.6768343E0,4.0121818E-1,1.0261863E0,-9.3915516E-1,2.4804556E0,9.467612E-1,1.0006629E0,-1.6345856E-1,-2.9130572E-1,1.7590517E0,-1.3168596E0,-2.2405453E-1,3.1804886E0,1.2292991E0,1.226029E0,-1.8365759E0,1.3446358E0,-1.62599E-1,1.9567217E0,-3.6235684E-1,7.844397E-1,-1.7066306E0,3.4733152E0,8.030456E-1,-1.1000235E0,-2.8379216E0,1.4415265E0,-5.423015E-1,4.9593392E-1,1.9551861E-1,5.6228332E-2,3.347893E-1,4.3768395E-2,1.8890063E-1,-3.8410044E-1,2.3914278E-2,2.39388E-1,9.387896E-2,2.5656298E-2,-3.394584E-1,3.4428188E-1,4.8613697E-2,1.4997225E-1,-4.6012007E-2,-6.0652476E-2,2.1320343E-1,-6.0000025E-2,-4.276161E-1,3.9663538E-1,4.6670694E-2,2.2652132E-2,6.060039E-1,-7.9174936E-2,-2.1051554E-1,-4.3391746E-1,-1.7890333E-1,1.5567003E-1,-3.0956426E-1,-5.6162607E-2,2.2862001E-1],"categories":[],"categories_nodes":[],"categories_segments":[],"categories_sizes":[],"default_left":[0,0,0,0,0,0,0,0,0,0,0,0,0,0,0,0,0,0,0,0,0,0,0,0,0,0,0,0,0,0,0,0,0,0,0,0,0,0,0,0,0,0,0,0,0,0,0,0,0,0,0,0,0,0,0,0,0,0,0,0,0,0,0],"id":2,"left_children":[1,3,5,7,9,11,13,15,17,19,21,23,25,27,29,31,33,35,37,39,41,43,45,47,49,51,53,55,57,59,61,-1,-1,-1,-1,-1,-1,-1,-1,-1,-1,-1,-1,-1,-1,-1,-1,-1,-1,-1,-1,-1,-1,-1,-1,-1,-1,-1,-1,-1,-1,-1,-1],"loss_changes":[1.3799674E3,3.631842E2,4.4549213E2,1.9933636E2,2.1532379E2,1.25376465E2,2.991985E2,1.3761505E2,1.4505873E2,1.24011536E2,1.3844995E2,7.318395E1,1.315025E2,2.3469336E2,2.0502434E2,2.2520117E2,8.914042E1,1.1666362E2,1.0007529E2,7.919281E1,1.2941507E2,7.750214E1,1.1546591E2,7.321592E1,6.3032383E1,9.773889E1,1.8200746E2,1.4379755E2,1.3426074E2,1.3058159E2,1.2633913E2,0E0,0E0,0E0,0E0,0E0,0E0,0E0,0E0,0E0,0E0,0E0,0E0,0E0,0E0,0E0,0E0,0E0,0E0,0E0,0E0,0E0,0E0,0E0,0E0,0E0,0E0,0E0,0E0,0E0,0E0,0E0,0E0],"parents":[2147483647,0,0,1,1,2,2,3,3,4,4,5,5,6,6,7,7,8,8,9,9,10,10,11,11,12,12,13,13,14,14,15,15,16,16,17,17,18,18,19,19,20,20,21,21,22,22,23,23,24,24,25,25,26,26,27,27,28,28,29,29,30,30],"right_children":[2,4,6,8,10,12,14,16,18,20,22,24,26,28,30,32,34,36,38,40,42,44,46,48,50,52,54,56,58,60,62,-1,-1,-1,-1,-1,-1,-1,-1,-1,-1,-1,-1,-1,-1,-1,-1,-1,-1,-1,-1,-1,-1,-1,-1,-1,-1,-1,-1,-1,-1,-1,-1],"split_conditions":[1.1111112E0,-1.5E-2,-5.2E-2,2.5234637E0,1.3009964E0,1.0306331E0,3.3755043E0,3.797708E-1,5.506023E-1,7.431608E-1,1.6747965E0,1.2222222E0,8.1E1,1.3333334E0,7.2349E0,-6.3E-2,1.0013279E1,4E1,2.95E-1,5.9581537E0,5.9155583E0,2.0833333E-1,-1.549556E0,8.416667E0,1.87E1,4.01E0,6.9E1,3.58E-1,-2.8878405E0,1.3052801E1,8.8E1,4.9593392E-1,1.9551861E-1,5.6228332E-2,3.347893E-1,4.3768395E-2,1.8890063E-1,-3.8410044E-1,2.3914278E-2,2.39388E-1,9.387896E-2,2.5656298E-2,-3.394584E-1,3.4428188E-1,4.8613697E-2,1.4997225E-1,-4.6012007E-2,-6.0652476E-2,2.1320343E-1,-6.0000025E-2,-4.276161E-1,3.9663538E-1,4.6670694E-2,2.2652132E-2,6.060039E-1,-7.9174936E-2,-2.1051554E-1,-4.3391746E-1,-1.7890333E-1,1.5567003E-1,-3.0956426E-1,-5.6162607E-2,2.2862001E-1],"split_indices":[52,125,125,92,12,16,106,129,55,90,92,52,103,52,123,125,11,33,67,19,21,60,90,118,126,101,33,67,98,28,33,0,0,0,0,0,0,0,0,0,0,0,0,0,0,0,0,0,0,0,0,0,0,0,0,0,0,0,0,0,0,0,0],"split_type":[0,0,0,0,0,0,0,0,0,0,0,0,0,0,0,0,0,0,0,0,0,0,0,0,0,0,0,0,0,0,0,0,0,0,0,0,0,0,0,0,0,0,0,0,0,0,0,0,0,0,0,0,0,0,0,0,0,0,0,0,0,0,0],"sum_hessian":[2.2160024E3,9.787252E2,1.2372772E3,3.4511172E2,6.3361346E2,1.2758985E2,1.1096874E3,1.6275023E2,1.8236151E2,3.0718765E2,3.2642584E2,4.569725E1,8.18926E1,7.252162E2,3.8447113E2,1.0305056E2,5.969966E1,1.6642622E2,1.5935291E1,2.3715704E2,7.00306E1,2.6980213E1,2.9944565E2,2.612737E1,1.956988E1,2.8107426E1,5.378518E1,6.366624E2,8.855378E1,6.085958E1,3.2361154E2,2.3880175E1,7.917039E1,5.0662746E1,9.036913E0,9.8419624E1,6.800659E1,6.513853E0,9.421438E0,3.1198795E1,2.0595825E2,6.3337E1,6.693602E0,9.749359E0,1.7230852E1,2.2343317E1,2.7710233E2,1.4247767E1,1.1879604E1,1.6200794E1,3.3690863E0,1.9376265E1,8.73116E0,5.0743996E1,3.041182E0,5.6950183E2,6.716062E1,1.9781143E1,6.877264E1,5.7258152E1,3.601428E0,3.131155E2,1.0496046E1],"tree_param":{"num_deleted":"0","num_feature":"130","num_nodes":"63","size_leaf_vector":"1"}},{"base_weights":[-1.1793132E-2,8.014171E-1,-6.671751E-1,4.724162E-1,1.7881687E0,-2.0160924E-1,-1.2559646E0,1.927475E-1,1.7241251E0,2.1497228E0,5.204983E-1,-1.4397473E0,1.7331386E-1,-1.5361245E0,-6.341959E-2,1.0848017E-2,2.4592369E0,-1.3457738E0,2.2159321E0,2.3520288E0,-4.4146073E-1,-2.5002262E-1,2.1789303E0,-8.794552E-1,-2.7370837E0,6.980875E-1,-3.716016E-1,-2.1754053E-1,-1.8555241E0,-6.759641E-1,3.1114273E0,-1.3086924E-1,1.6143255E-2,3.1180727E-1,-4.90419E-2,1.0420172E-1,-3.7606034E-1,2.690918E-1,7.730312E-2,1.8151528E-1,4.8558152E-1,1.4930671E-1,-1.6929586E-1,7.188919E-2,-1.5485531E-1,1.3914707E-2,4.5735845E-1,-9.3294576E-2,2.613772E-1,-2.745988E-1,9.81627E-2,4.2904694E-2,2.6582256E-1,7.3348437E-3,-1.1680996E-1,-6.950922E-2,2.373797E-1,-8.424824E-2,-1.9166903E-1,-2.4967033E-1,2.3657617E-3,-0E0,4.32653E-1],"categories":[],"categories_nodes":[],"categories_segments":[],"categories_sizes":[],"default_left":[0,0,0,0,0,0,0,0,0,0,0,0,0,0,0,0,0,0,0,0,0,0,0,0,0,0,0,0,0,0,0,0,0,0,0,0,0,0,0,0,0,0,0,0,0,0,0,0,0,0,0,0,0,0,0,0,0,0,0,0,0,0,0],"id":3,"left_children":[1,3,5,7,9,11,13,15,17,19,21,23,25,27,29,31,33,35,37,39,41,43,45,47,49,51,53,55,57,59,61,-1,-1,-1,-1,-1,-1,-1,-1,-1,-1,-1,-1,-1,-1,-1,-1,-1,-1,-1,-1,-1,-1,-1,-1,-1,-1,-1,-1,-1,-1,-1,-1],"loss_changes":[1.1898937E3,3.2168976E2,3.3819336E2,2.611573E2,1.11707825E2,3.2202014E2,1.8161835E2,2.5215991E2,2.0968369E2,1.0284729E2,7.39035E1,1.1323328E2,1.5257642E2,1.8478064E2,2.0622661E2,1.582332E2,1.7072311E2,1.6165173E2,1.42211E2,1.12828125E2,5.4701862E1,7.06236E1,1.1533526E2,1.02457634E2,9.7485535E1,1.2451021E2,1.2075986E2,1.6054346E2,1.1935303E2,1.4316891E2,1.0493616E2,0E0,0E0,0E0,0E0,0E0,0E0,0E0,0E0,0E0,0E0,0E0,0E0,0E0,0E0,0E0,0E0,0E0,0E0,0E0,0E0,0E0,0E0,0E0,0E0,0E0,0E0,0E0,0E0,0E0,0E0,0E0,0E0],"parents":[2147483647,0,0,1,1,2,2,3,3,4,4,5,5,6,6,7,7,8,8,9,9,10,10,11,11,12,12,13,13,14,14,15,15,16,16,17,17,18,18,19,19,20,20,21,21,22,22,23,23,24,24,25,25,26,26,27,27,28,28,29,29,30,30],"right_children":[2,4,6,8,10,12,14,16,18,20,22,24,26,28,30,32,34,36,38,40,42,44,46,48,50,52,54,56,58,60,62,-1,-1,-1,-1,-1,-1,-1,-1,-1,-1,-1,-1,-1,-1,-1,-1,-1,-1,-1,-1,-1,-1,-1,-1,-1,-1,-1,-1,-1,-1,-1,-1],"split_conditions":[1.1111112E0,1.2222222E0,1.2222222E0,3.45E-1,1.0289785E1,-6.828042E0,1.5E1,2.031E1,-2.713764E-1,5.8E0,5E0,5.004314E0,3.17E-1,-4E1,2.4479751E-1,1.4515878E3,5.06E0,7.2774017E-1,3.7101513E-1,9E1,7.07E1,3.618185E0,4.058453E-1,5.9661E0,7.15E-1,3.71E-1,4.667659E0,1.7442E0,7.9E0,1.8696485E-1,7E0,-1.3086924E-1,1.6143255E-2,3.1180727E-1,-4.90419E-2,1.0420172E-1,-3.7606034E-1,2.690918E-1,7.730312E-2,1.8151528E-1,4.8558152E-1,1.4930671E-1,-1.6929586E-1,7.188919E-2,-1.5485531E-1,1.3914707E-2,4.5735845E-1,-9.3294576E-2,2.613772E-1,-2.745988E-1,9.81627E-2,4.2904694E-2,2.6582256E-1,7.3348437E-3,-1.1680996E-1,-6.950922E-2,2.373797E-1,-8.424824E-2,-1.9166903E-1,-2.4967033E-1,2.3657617E-3,-0E0,4.32653E-1],"split_indices":[52,56,52,69,17,106,61,101,45,64,32,27,67,41,45,71,96,86,129,41,49,107,54,96,124,69,25,97,118,60,65,0,0,0,0,0,0,0,0,0,0,0,0,0,0,0,0,0,0,0,0,0,0,0,0,0,0,0,0,0,0,0,0],"split_type":[0,0,0,0,0,0,0,0,0,0,0,0,0,0,0,0,0,0,0,0,0,0,0,0,0,0,0,0,0,0,0,0,0,0,0,0,0,0,0,0,0,0,0,0,0,0,0,0,0,0,0,0,0,0,0,0,0,0,0,0,0,0,0],"sum_hessian":[2.2303616E3,9.949992E2,1.2353623E3,7.4773E2,2.472692E2,6.9104297E2,5.4431934E2,6.1247723E2,1.3525278E2,1.9157167E2,5.569752E1,1.6005406E2,5.309889E2,4.4028238E2,1.04036934E2,5.681821E2,4.4295105E1,1.8308132E1,1.1694464E2,1.7791216E2,1.3659513E1,3.8567738E1,1.7129787E1,1.1330857E2,4.67455E1,2.706285E2,2.603604E2,8.6428894E1,3.538535E2,8.80594E1,1.597753E1,5.773404E1,5.1044806E2,3.156253E1,1.2732576E1,1.0301381E1,8.006751E0,6.65282E1,5.0416447E1,1.6910138E2,8.810785E0,5.5013876E0,8.158126E0,2.2922518E1,1.5645219E1,1.1327079E1,5.802708E0,1.0823609E2,5.072479E0,4.1709934E1,5.035564E0,2.5215222E2,1.847628E1,1.7929182E2,8.106858E1,7.284849E1,1.3580405E1,1.1376415E2,2.4008934E2,2.0122297E1,6.793711E1,6.6982675E0,9.279263E0],"tree_param":{"num_deleted":"0","num_feature":"130","num_nodes":"63","size_leaf_vector":"1"}},{"base_weights":[-4.347676E-2,6.6968393E-1,-6.1949074E-1,9.419148E-1,-4.0356958E-1,1.1004143E-1,-1.1038667E0,-5.5488217E-1,1.0672678E0,-7.720409E-1,1.2668048E0,-2.7496943E-1,9.4010764E-1,2.5119674E0,-1.1780525E0,-1.4131624E0,1.4781598E0,2.134769E0,8.8548094E-1,-2.3157269E-1,-2.7292671E0,1.9744053E0,-3.7527603E-1,-3.6967192E-3,-1.8627138E0,4.845996E0,7.296435E-1,-6.365447E-2,4.658575E0,-7.1841884E-1,-1.7835199E0,-1.7782967E-1,5.0878085E-2,4.833267E-2,3.5591352E-1,1.3777895E-1,4.9585643E-1,9.140381E-2,-2.2030205E-2,-7.861166E-2,8.4810995E-2,-4.0768787E-1,-0E0,5.224319E-1,1.05618045E-1,-1.4937828E-1,1.9383918E-2,-1.03044175E-1,-6.369959E-1,7.0916694E-1,-1.5613495E-2,2.0366283E-2,2.2087763E-1,1.2269273E-1,6.4349115E-1,-1.3233484E-1,-2.4828916E-2,-1.7317452E-1,-1.3155734E-2],"categories":[],"categories_nodes":[],"categories_segments":[],"categories_sizes":[],"default_left":[0,0,0,0,0,0,0,0,0,0,0,0,0,0,0,0,0,0,0,0,0,0,0,0,0,0,0,0,0,0,0,0,0,0,0,0,0,0,0,0,0,0,0,0,0,0,0,0,0,0,0,0,0,0,0,0,0,0,0],"id":4,"left_children":[1,3,5,7,9,11,13,15,17,19,21,23,25,27,29,31,33,35,37,39,41,43,-1,45,47,49,51,-1,53,55,57,-1,-1,-1,-1,-1,-1,-1,-1,-1,-1,-1,-1,-1,-1,-1,-1,-1,-1,-1,-1,-1,-1,-1,-1,-1,-1,-1,-1],"loss_changes":[9.220877E2,2.9358563E2,4.393276E2,1.5103534E2,1.2619613E2,1.5914067E2,2.0330988E2,1.11311424E2,1.4028412E2,1.755664E2,1.5835945E2,1.457091E2,1.2383548E2,1.1238276E2,2.0159558E2,6.2999252E1,4.251678E1,1.8877118E2,1.3896616E2,1.1432863E2,2.028825E2,9.194382E1,0E0,1.19595215E2,1.6751888E2,1.4159343E2,1.3691418E2,0E0,7.2995804E1,1.4867888E2,1.2998694E2,0E0,0E0,0E0,0E0,0E0,0E0,0E0,0E0,0E0,0E0,0E0,0E0,0E0,0E0,0E0,0E0,0E0,0E0,0E0,0E0,0E0,0E0,0E0,0E0,0E0,0E0,0E0,0E0],"parents":[2147483647,0,0,1,1,2,2,3,3,4,4,5,5,6,6,7,7,8,8,9,9,10,10,11,11,12,12,13,13,14,14,15,15,16,16,17,17,18,18,19,19,20,20,21,21,23,23,24,24,25,25,26,26,28,28,29,29,30,30],"right_children":[2,4,6,8,10,12,14,16,18,20,22,24,26,28,30,32,34,36,38,40,42,44,-1,46,48,50,52,-1,54,56,58,-1,-1,-1,-1,-1,-1,-1,-1,-1,-1,-1,-1,-1,-1,-1,-1,-1,-1,-1,-1,-1,-1,-1,-1,-1,-1,-1,-1],"split_conditions":[1.1111112E0,3.3E-2,-8E-3,1.3E1,5.965417E0,3.1245537E1,1.2E0,7.9118244E-2,3.5389906E-1,1.26E2,3.165671E-1,2.25E0,5E0,2.1166667E-1,1.2222222E0,6.418169E-1,1.0013279E1,6.16E0,5.6666665E0,2.367E1,4.5E0,-7.903374E-1,-3.7527603E-1,1.2857143E0,6.5876156E-1,5.089136E-1,2E0,-6.365447E-2,1.668E1,-2.0833333E-1,1.7E1,-1.7782967E-1,5.0878085E-2,4.833267E-2,3.5591352E-1,1.3777895E-1,4.9585643E-1,9.140381E-2,-2.2030205E-2,-7.861166E-2,8.4810995E-2,-4.0768787E-1,-0E0,5.224319E-1,1.05618045E-1,-1.4937828E-1,1.9383918E-2,-1.03044175E-1,-6.369959E-1,7.0916694E-1,-1.5613495E-2,2.0366283E-2,2.2087763E-1,1.2269273E-1,6.4349115E-1,-1.3233484E-1,-2.4828916E-2,-1.7317452E-1,-1.3155734E-2],"split_indices":[52,125,125,100,21,73,14,88,55,102,60,99,65,50,52,79,11,9,10,100,27,90,0,20,129,90,105,0,104,84,61,0,0,0,0,0,0,0,0,0,0,0,0,0,0,0,0,0,0,0,0,0,0,0,0,0,0,0,0],"split_type":[0,0,0,0,0,0,0,0,0,0,0,0,0,0,0,0,0,0,0,0,0,0,0,0,0,0,0,0,0,0,0,0,0,0,0,0,0,0,0,0,0,0,0,0,0,0,0,0,0,0,0,0,0,0,0,0,0,0,0],"sum_hessian":[2.242379E3,1.00158E3,1.240799E3,7.9928314E2,2.0229692E2,4.9519797E2,7.4560095E2,6.1260494E1,7.3802264E2,1.6640446E2,3.5892456E1,3.3855304E2,1.5664493E2,1.4138053E1,7.314629E2,4.3434895E1,1.78256E1,1.0532444E2,6.326982E2,1.3153986E2,3.4864616E1,3.2641853E1,3.2506015E0,2.903144E2,4.823866E1,6.6274295E0,1.500175E2,5.8513856E0,8.286667E0,4.1754807E2,3.1391486E2,3.254148E1,1.08934145E1,1.448838E1,3.3372188E0,9.40573E1,1.126714E1,5.4266125E2,9.003694E1,8.4446465E1,4.7093384E1,1.9293825E1,1.5570788E1,3.5174127E0,2.9124441E1,3.315784E1,2.5715656E2,4.456747E1,3.671187E0,3.4937525E0,3.133677E0,1.2006054E2,2.9956964E1,4.8191023E0,3.4675646E0,1.3926868E2,2.782794E2,2.7093665E2,4.2978218E1],"tree_param":{"num_deleted":"0","num_feature":"130","num_nodes":"59","size_leaf_vector":"1"}},{"base_weights":[-2.3533965E-3,6.25947E-1,-5.0225383E-1,1.2348042E0,2.0385288E-1,-3.0622063E-2,-1.0437121E0,-3.2131988E-1,1.2897241E0,-4.355825E-1,7.0616245E-1,-4.1653425E-1,1.01991E0,-8.748017E-1,-3.0408475E0,-0E0,1.498291E0,-4.6136844E-1,-3.2830065E-1,5.60621E-1,2.7873127E0,-1.8861481E0,-1.2520047E-1,7.535925E-1,3.414434E0,1.0374339E0,-1.0309972E0,-1.2753627E0,-5.939547E0,5.3447187E-2,-3.0778447E-1,2.701832E-1,1.05118684E-1,1.5000026E-1,-4.588861E-2,5.4027505E-2,-2.4594976E-1,3.7733033E-1,-5.6760747E-2,-5.8164513E-1,-1.2961373E-1,-1.7892376E-2,4.4691622E-1,8.335597E-2,-1.7737006E-1,1.3633987E-1,6.991443E-1,2.1325E-2,3.0866376E-1,-9.8290585E-2,9.307138E-2,-3.060903E-1,-2.0810043E-2,-3.2010734E-1,-9.0794635E-1],"categories":[],"categories_nodes":[],"categories_segments":[],"categories_sizes":[],"default_left":[0,0,0,0,0,0,0,0,0,0,0,0,0,0,0,0,0,0,0,0,0,0,0,0,0,0,0,0,0,0,0,0,0,0,0,0,0,0,0,0,0,0,0,0,0,0,0,0,0,0,0,0,0,0,0],"id":5,"left_children":[1,3,5,7,9,11,13,-1,15,17,19,21,23,25,27,29,31,-1,33,35,37,39,41,43,45,47,49,51,53,-1,-1,-1,-1,-1,-1,-1,-1,-1,-1,-1,-1,-1,-1,-1,-1,-1,-1,-1,-1,-1,-1,-1,-1,-1,-1],"loss_changes":[7.128634E2,2.5763806E2,3.2248596E2,1.18141235E2,1.9171016E2,2.7486044E2,1.940957E2,0E0,1.0944299E2,1.3674779E2,9.834953E1,2.115874E2,1.1178035E2,1.6376086E2,2.2051068E2,1.3446956E2,1.4786761E2,0E0,1.15343025E2,8.332771E1,1.2711693E2,1.3146255E2,1.9101857E2,1.0913427E2,1.3643718E2,8.2458885E1,1.3676794E2,6.891906E1,1.2137805E2,0E0,0E0,0E0,0E0,0E0,0E0,0E0,0E0,0E0,0E0,0E0,0E0,0E0,0E0,0E0,0E0,0E0,0E0,0E0,0E0,0E0,0E0,0E0,0E0,0E0,0E0],"parents":[2147483647,0,0,1,1,2,2,3,3,4,4,5,5,6,6,8,8,9,9,10,10,11,11,12,12,13,13,14,14,15,15,16,16,18,18,19,19,20,20,21,21,22,22,23,23,24,24,25,25,26,26,27,27,28,28],"right_children":[2,4,6,8,10,12,14,-1,16,18,20,22,24,26,28,30,32,-1,34,36,38,40,42,44,46,48,50,52,54,-1,-1,-1,-1,-1,-1,-1,-1,-1,-1,-1,-1,-1,-1,-1,-1,-1,-1,-1,-1,-1,-1,-1,-1,-1,-1],"split_conditions":[1.1111112E0,-1.1E-2,1.5E0,5.38E-1,1.1111112E0,1.2222222E0,7.8E1,-3.2131988E-1,1.4790085E3,-2E0,2.031E1,1.33E0,1.8000007E0,2.000278E0,1.4566382E0,3.8769002E0,1.4808524E0,-4.6136844E-1,9.7323495E-1,1.02E-1,1.29E2,-1.0554113E-1,5E0,7.2E1,4.2242283E-1,3.9296493E-1,2.17E1,4.216705E0,9.379365E0,5.3447187E-2,-3.0778447E-1,2.701832E-1,1.05118684E-1,1.5000026E-1,-4.588861E-2,5.4027505E-2,-2.4594976E-1,3.7733033E-1,-5.6760747E-2,-5.8164513E-1,-1.2961373E-1,-1.7892376E-2,4.4691622E-1,8.335597E-2,-1.7737006E-1,1.3633987E-1,6.991443E-1,2.1325E-2,3.0866376E-1,-9.8290585E-2,9.307138E-2,-3.060903E-1,-2.0810043E-2,-3.2010734E-1,-9.0794635E-1],"split_indices":[52,125,0,124,56,56,34,0,71,4,101,66,8,13,12,92,114,0,12,125,42,58,105,34,95,6,126,23,28,0,0,0,0,0,0,0,0,0,0,0,0,0,0,0,0,0,0,0,0,0,0,0,0,0,0],"split_type":[0,0,0,0,0,0,0,0,0,0,0,0,0,0,0,0,0,0,0,0,0,0,0,0,0,0,0,0,0,0,0,0,0,0,0,0,0,0,0,0,0,0,0,0,0,0,0,0,0,0,0,0,0,0,0],"sum_hessian":[2.2674426E3,1.0042787E3,1.263164E3,4.0994934E2,5.9432935E2,6.760844E2,5.870795E2,3.5240793E0,4.0642526E2,2.612606E2,3.3306876E2,4.9518372E2,1.8090068E2,5.429817E2,4.409784E1,5.682338E1,3.4960187E2,4.2210712E0,2.5703952E2,3.1281638E2,2.0252378E1,8.0692986E1,4.1449072E2,1.6428511E2,1.661558E1,4.0354084E1,5.026276E2,2.8510778E1,1.5587061E1,4.926137E1,7.5620084E0,4.4981537E1,3.0462033E2,2.2705774E1,2.3433374E2,3.071457E2,5.670685E0,1.3532479E1,6.7199006E0,3.9882064E0,7.670478E1,4.0917157E2,5.3191504E0,1.5289873E2,1.1386386E1,1.3249458E1,3.3661215E0,3.2043674E1,8.310411E0,4.7510184E2,2.7525782E1,7.76327E0,2.0747507E1,1.2169788E1,3.417272E0],"tree_param":{"num_deleted":"0","num_feature":"130","num_nodes":"55","size_leaf_vector":"1"}},{"base_weights":[3.6009908E-2,3.133155E-1,-8.4471047E-1,7.1760255E-1,-2.3166402E-1,3.185317E-1,-1.2048292E0,9.528572E-1,-2.2908355E-1,-1.2000502E0,-4.6554532E-2,2.7812247E0,-5.607612E-2,-3.5373297E0,-1.0676576E0,4.4719133E-1,1.4270434E0,5.705679E-1,-8.410327E-1,-1.8022037E0,5.3779197E-1,-1.5026783E0,5.359489E-2,4.6298635E-1,6.42816E-1,-3.024655E-1,3.3679742E-1,-1.4002715E0,-7.285877E0,-8.684476E-1,-2.534499E0,5.3591307E-2,-7.507055E-2,2.4011506E-1,1.02944724E-1,2.60037E-2,4.1015506E-1,-4.879644E-2,-3.5821018E-1,-4.2620897E-1,-1.1819767E-1,-1.6845736E-1,1.3138045E-1,3.6835345E-3,-3.224165E-1,1.566448E-2,-1.1659968E-1,1.6943093E-1,-4.1499056E-2,1.9055859E-3,-2.4209855E-1,-3.245068E-2,-3.1975666E-1,-9.592126E-1,-4.2264134E-2,-6.595496E-2,-4.2769033E-1,-1.177516E-1,-3.86885E-1],"categories":[],"categories_nodes":[],"categories_segments":[],"categories_sizes":[],"default_left":[0,0,0,0,0,0,0,0,0,0,0,0,0,0,0,0,0,0,0,0,0,0,0,0,0,0,0,0,0,0,0,0,0,0,0,0,0,0,0,0,0,0,0,0,0,0,0,0,0,0,0,0,0,0,0,0,0,0,0],"id":6,"left_children":[1,3,5,7,9,11,13,15,17,19,21,23,25,27,29,31,33,35,37,39,41,43,45,47,-1,49,-1,51,53,55,57,-1,-1,-1,-1,-1,-1,-1,-1,-1,-1,-1,-1,-1,-1,-1,-1,-1,-1,-1,-1,-1,-1,-1,-1,-1,-1,-1,-1],"loss_changes":[5.583677E2,3.8360394E2,2.3002844E2,2.2303381E2,1.3243025E2,1.2108266E2,1.28026E2,1.9069E2,9.829417E1,1.256864E2,9.1539474E1,1.8550508E2,1.1311425E2,1.665238E2,1.1235889E2,9.586629E1,1.18876465E2,9.456549E1,9.8006325E1,1.06730194E2,8.3002E1,1.446239E2,1.0902078E2,2.0479767E1,0E0,9.081975E1,0E0,3.5252083E1,2.0407343E2,1.2820905E2,9.90499E1,0E0,0E0,0E0,0E0,0E0,0E0,0E0,0E0,0E0,0E0,0E0,0E0,0E0,0E0,0E0,0E0,0E0,0E0,0E0,0E0,0E0,0E0,0E0,0E0,0E0,0E0,0E0,0E0],"parents":[2147483647,0,0,1,1,2,2,3,3,4,4,5,5,6,6,7,7,8,8,9,9,10,10,11,11,12,12,13,13,14,14,15,15,16,16,17,17,18,18,19,19,20,20,21,21,22,22,23,23,25,25,27,27,28,28,29,29,30,30],"right_children":[2,4,6,8,10,12,14,16,18,20,22,24,26,28,30,32,34,36,38,40,42,44,46,48,-1,50,-1,52,54,56,58,-1,-1,-1,-1,-1,-1,-1,-1,-1,-1,-1,-1,-1,-1,-1,-1,-1,-1,-1,-1,-1,-1,-1,-1,-1,-1,-1,-1],"split_conditions":[1.2222222E0,8E-3,-2.7E-2,2.6120833E-1,3.4044423E0,-1.2117075E0,3.1233555E-1,1.8902804E0,1.0525E0,1.083006E0,-1.320459E-1,3.4860723E0,3E0,7.22E1,8.76E1,8.190845E0,3.0685338E-1,1E1,1.3E1,-5.564534E-1,1.867E1,1.2833704E-2,4.017287E-1,4.9685535E-1,6.42816E-1,1.8640488E0,3.3679742E-1,3.9556E0,4.8633184E0,1.4444444E0,3.462621E-3,5.3591307E-2,-7.507055E-2,2.4011506E-1,1.02944724E-1,2.60037E-2,4.1015506E-1,-4.879644E-2,-3.5821018E-1,-4.2620897E-1,-1.1819767E-1,-1.6845736E-1,1.3138045E-1,3.6835345E-3,-3.224165E-1,1.566448E-2,-1.1659968E-1,1.6943093E-1,-4.1499056E-2,1.9055859E-3,-2.4209855E-1,-3.245068E-2,-3.1975666E-1,-9.592126E-1,-4.2264134E-2,-6.595496E-2,-4.2769033E-1,-1.177516E-1,-3.86885E-1],"split_indices":[52,125,125,53,21,90,51,106,16,44,58,21,105,49,49,27,54,1,26,108,100,91,85,35,0,91,0,96,20,52,58,0,0,0,0,0,0,0,0,0,0,0,0,0,0,0,0,0,0,0,0,0,0,0,0,0,0,0,0],"split_type":[0,0,0,0,0,0,0,0,0,0,0,0,0,0,0,0,0,0,0,0,0,0,0,0,0,0,0,0,0,0,0,0,0,0,0,0,0,0,0,0,0,0,0,0,0,0,0,0,0,0,0,0,0,0,0,0,0,0,0],"sum_hessian":[2.284537E3,1.7383174E3,5.462196E2,9.981065E2,7.402109E2,1.2894545E2,4.1727417E2,7.997085E2,1.9839804E2,1.174895E2,6.227213E2,1.6156155E1,1.127893E2,2.1452589E1,3.9582156E2,3.8842484E2,4.1128366E2,8.581451E1,1.12583534E2,8.736141E1,3.0128092E1,3.9236897E1,5.8348444E2,1.1785535E1,4.3706193E0,1.0736183E2,5.42747E0,1.4730429E1,6.7221603E0,3.5030865E2,4.5512924E1,3.420477E2,4.637712E1,5.2678562E1,3.586051E2,8.203721E1,3.777303E0,1.0569085E2,6.8926826E0,8.3311405E0,7.903027E1,8.2010355E0,2.1927055E1,2.4031763E1,1.5205133E1,5.355915E2,4.789294E1,4.1591253E0,7.62641E0,9.612555E1,1.1236282E1,1.1331422E1,3.3990064E0,3.7138996E0,3.0082607E0,3.441684E2,6.140246E0,3.0368462E1,1.5144461E1],"tree_param":{"num_deleted":"0","num_feature":"130","num_nodes":"59","size_leaf_vector":"1"}},{"base_weights":[-1.1962134E-2,1.2954576E0,-1.7494935E-1,-8.0652094E-1,1.5457771E0,-5.976E-1,1.2192371E-1,1.318523E0,-2.8337307E0,9.2204267E-1,2.4367027E0,-4.9626005E-1,-1.9361849E0,-7.5294703E-1,3.293349E-1,3.23959E-1,-2.7752906E-1,-4.1557064E0,1.08119324E-1,1.2559577E0,-1.5684342E0,2.1049001E0,6.643847E-1,8.4616244E-1,-5.859996E-1,6.012052E-1,-2.3975086E0,-5.7402855E-1,-3.6282644E0,1.5544068E0,2.2558619E-1,9.94394E-2,-1.8912801E-1,-1.0007261E-1,-6.049933E-1,8.042894E-2,3.207462E-1,-3.2234287E-1,4.3814287E-2,4.0862527E-1,1.3874322E-1,-2.3494759E-3,3.5050303E-1,-5.235196E-2,2.743507E-1,-1.5307263E-1,1.9393308E-1,-2.8037217E-1,-6.10288E-2,-2.8545426E-2,-2.2864461E-1,-9.453499E-1,-1.6845534E-2,7.7345245E-2,3.4136677E-1,3.0471511E-2,-5.8746103E-2],"categories":[],"categories_nodes":[],"categories_segments":[],"categories_sizes":[],"default_left":[0,0,0,0,0,0,0,0,0,0,0,0,0,0,0,0,0,0,0,0,0,0,0,0,0,0,0,0,0,0,0,0,0,0,0,0,0,0,0,0,0,0,0,0,0,0,0,0,0,0,0,0,0,0,0,0,0],"id":7,"left_children":[1,3,5,7,9,11,13,15,17,19,21,23,25,27,29,-1,31,33,-1,35,37,39,-1,41,43,45,47,49,51,53,55,-1,-1,-1,-1,-1,-1,-1,-1,-1,-1,-1,-1,-1,-1,-1,-1,-1,-1,-1,-1,-1,-1,-1,-1,-1,-1],"loss_changes":[4.9848154E2,1.3809796E2,2.6142587E2,1.26354355E2,1.2535864E2,1.1470035E2,2.2212222E2,6.0068535E1,8.785664E1,1.17491196E2,1.4698694E2,9.696155E1,7.23264E1,1.1686789E2,1.2484254E2,0E0,3.1126759E1,9.001964E1,0E0,9.015581E1,8.126662E1,1.0471857E2,0E0,1.4600919E2,8.8601715E1,4.546249E1,7.332687E1,1.0997224E2,3.389508E2,1.1612048E2,1.1186402E2,0E0,0E0,0E0,0E0,0E0,0E0,0E0,0E0,0E0,0E0,0E0,0E0,0E0,0E0,0E0,0E0,0E0,0E0,0E0,0E0,0E0,0E0,0E0,0E0,0E0,0E0],"parents":[2147483647,0,0,1,1,2,2,3,3,4,4,5,5,6,6,7,7,8,8,9,9,10,10,11,11,12,12,13,13,14,14,16,16,17,17,19,19,20,20,21,21,23,23,24,24,25,25,26,26,27,27,28,28,29,29,30,30],"right_children":[2,4,6,8,10,12,14,16,18,20,22,24,26,28,30,-1,32,34,-1,36,38,40,-1,42,44,46,48,50,52,54,56,-1,-1,-1,-1,-1,-1,-1,-1,-1,-1,-1,-1,-1,-1,-1,-1,-1,-1,-1,-1,-1,-1,-1,-1,-1,-1],"split_conditions":[-5.2E-2,2.2619138E0,1.1111112E0,4.4666666E-1,1.5190585E3,6.8E-2,1.474734E3,1.58E1,5E-1,1.5096581E0,1.5384707E3,3.0685338E-1,-6.616083E-1,4.2776474E1,3.580247E-1,3.23959E-1,4.3257036E0,1.6934351E0,1.08119324E-1,1.00512E1,2.201E1,3.461767E-1,6.643847E-1,7.5506276E-1,9.949915E-1,3.0420182E0,2.516461E-1,2.748888E-2,6.364286E0,9.0602E0,4.4E-2,9.94394E-2,-1.8912801E-1,-1.0007261E-1,-6.049933E-1,8.042894E-2,3.207462E-1,-3.2234287E-1,4.3814287E-2,4.0862527E-1,1.3874322E-1,-2.3494759E-3,3.5050303E-1,-5.235196E-2,2.743507E-1,-1.5307263E-1,1.9393308E-1,-2.8037217E-1,-6.10288E-2,-2.8545426E-2,-2.2864461E-1,-9.453499E-1,-1.6845534E-2,7.7345245E-2,3.4136677E-1,3.0471511E-2,-5.8746103E-2],"split_indices":[125,23,56,40,71,125,71,126,127,120,72,54,129,107,40,0,32,23,0,123,104,55,0,119,119,48,50,43,19,123,125,0,0,0,0,0,0,0,0,0,0,0,0,0,0,0,0,0,0,0,0,0,0,0,0,0,0],"split_type":[0,0,0,0,0,0,0,0,0,0,0,0,0,0,0,0,0,0,0,0,0,0,0,0,0,0,0,0,0,0,0,0,0,0,0,0,0,0,0,0,0,0,0,0,0,0,0,0,0,0,0,0,0,0,0,0,0],"sum_hessian":[2.3385732E3,2.581089E2,2.0804644E3,2.7056208E1,2.3105267E2,8.583558E2,1.2221086E3,1.3329467E1,1.3726741E1,1.375034E2,9.354928E1,7.996442E2,5.871158E1,2.3332733E2,9.887813E2,4.650447E0,8.67902E0,1.0432843E1,3.293898E0,1.218668E2,1.5636601E1,8.969303E1,3.856241E0,4.926993E1,7.5037427E2,8.870982E0,4.9840595E1,2.2107146E2,1.2255864E1,7.569422E1,9.130871E2,5.1498656E0,3.5291545E0,6.068854E0,4.3639894E0,1.1009002E2,1.177678E1,7.1751313E0,8.46147E0,1.1623124E1,7.806991E1,3.9735622E1,9.534308E0,7.454937E2,4.8805733E0,3.539639E0,5.3313427E0,3.1551275E1,1.8289322E1,2.0008638E2,2.0985088E1,3.0005114E0,9.255353E0,6.137883E1,1.4315389E1,7.982421E2,1.1484498E2],"tree_param":{"num_deleted":"0","num_feature":"130","num_nodes":"57","size_leaf_vector":"1"}},{"base_weights":[-2.2291249E-2,3.7718746E-1,-4.7569054E-1,-1.9310455E-1,6.396402E-1,-1.161312E0,-3.058076E-1,-3.386081E-1,1.4723873E0,6.084582E-1,4.952126E-1,-3.3344827E0,-8.3829004E-1,2.1226302E-1,-5.471004E-1,3.156031E-1,-3.9628822E-1,5.6738603E-1,4.0425806E0,4.2795035E-1,1.4092201E0,-5.9411633E-1,-4.760649E0,-1.3791357E0,3.138043E-1,-1.797613E-1,1.2349349E0,-6.6355723E-1,1.2915965E0,-2.4714833E-2,-2.465654E-1,1.3624206E-1,-1.0906001E-1,6.0236853E-1,-1.3207946E-2,1.27851E-1,2.0809872E-2,4.5887116E-1,9.715088E-2,6.933914E-2,-2.4440642E-1,-2.1879639E-1,-7.577631E-1,-1.5229053E-2,-1.9415918E-1,-1.9017716E-1,8.868115E-2,-5.5357213E-3,-3.8164946E-1,-1.3952338E-2,1.3815553E-1,-1.4072103E-2,-9.158403E-2,-0E0,3.7950414E-1],"categories":[],"categories_nodes":[],"categories_segments":[],"categories_sizes":[],"default_left":[0,0,0,0,0,0,0,0,0,0,0,0,0,0,0,0,0,0,0,0,0,0,0,0,0,0,0,0,0,0,0,0,0,0,0,0,0,0,0,0,0,0,0,0,0,0,0,0,0,0,0,0,0,0,0],"id":8,"left_children":[1,3,5,7,9,11,13,15,17,19,-1,21,23,25,27,-1,29,31,33,35,37,39,41,43,45,47,49,51,53,-1,-1,-1,-1,-1,-1,-1,-1,-1,-1,-1,-1,-1,-1,-1,-1,-1,-1,-1,-1,-1,-1,-1,-1,-1,-1],"loss_changes":[4.2046542E2,1.8493492E2,1.2579607E2,9.455634E1,1.3067929E2,1.4647678E2,1.09445206E2,8.46288E1,6.8708786E1,1.2039029E2,0E0,1.0180905E2,1.186178E2,1.1204817E2,1.2856921E2,0E0,9.176321E1,4.9706554E1,1.04316895E2,1.34794E2,1.5397296E2,3.8019245E1,1.3088675E2,1.3913022E2,1.1630688E2,9.791397E1,4.3203568E1,1.154646E2,1.4574709E2,0E0,0E0,0E0,0E0,0E0,0E0,0E0,0E0,0E0,0E0,0E0,0E0,0E0,0E0,0E0,0E0,0E0,0E0,0E0,0E0,0E0,0E0,0E0,0E0,0E0,0E0],"parents":[2147483647,0,0,1,1,2,2,3,3,4,4,5,5,6,6,7,7,8,8,9,9,11,11,12,12,13,13,14,14,16,16,17,17,18,18,19,19,20,20,21,21,22,22,23,23,24,24,25,25,26,26,27,27,28,28],"right_children":[2,4,6,8,10,12,14,16,18,20,-1,22,24,26,28,-1,30,32,34,36,38,40,42,44,46,48,50,52,54,-1,-1,-1,-1,-1,-1,-1,-1,-1,-1,-1,-1,-1,-1,-1,-1,-1,-1,-1,-1,-1,-1,-1,-1,-1,-1],"split_conditions":[4E-3,-2.2379801E0,3.6651182E-1,1.52012E3,2.8E0,-1.4940053E1,1.1542726E0,-3.633E0,7.80974E-1,2.9777777E-1,4.952126E-1,6.9426E0,1.891232E0,4.107143E-1,9.405389E0,3.156031E-1,6.073546E-1,2.201E1,2.734E1,3.461767E-1,-1.1616E0,8.2E1,1.4929644E0,6.28E-1,3.4991832E0,9.6E-2,6.160864E-1,-5.7753795E-1,4.1275E0,-2.4714833E-2,-2.465654E-1,1.3624206E-1,-1.0906001E-1,6.0236853E-1,-1.3207946E-2,1.27851E-1,2.0809872E-2,4.5887116E-1,9.715088E-2,6.933914E-2,-2.4440642E-1,-2.1879639E-1,-7.577631E-1,-1.5229053E-2,-1.9415918E-1,-1.9017716E-1,8.868115E-2,-5.5357213E-3,-3.8164946E-1,-1.3952338E-2,1.3815553E-1,-1.4072103E-2,-9.158403E-2,-0E0,3.7950414E-1],"split_indices":[125,106,51,71,8,106,93,97,44,45,0,123,93,84,9,0,55,104,100,55,97,36,12,124,23,125,8,83,15,0,0,0,0,0,0,0,0,0,0,0,0,0,0,0,0,0,0,0,0,0,0,0,0,0,0],"split_type":[0,0,0,0,0,0,0,0,0,0,0,0,0,0,0,0,0,0,0,0,0,0,0,0,0,0,0,0,0,0,0,0,0,0,0,0,0,0,0,0,0,0,0,0,0,0,0,0,0,0,0,0,0,0,0],"sum_hessian":[2.318952E3,1.2325067E3,1.0864453E3,3.8815433E2,8.4435236E2,2.1402502E2,8.724203E2,3.5799393E2,3.0160395E1,8.4065765E2,3.6947136E0,2.6170807E1,1.8785422E2,2.7683813E2,5.9558215E2,3.9135647E0,3.5408035E2,2.3443707E1,6.716688E0,6.8779297E2,1.5286469E2,9.596477E0,1.6574331E1,1.27874916E2,5.99793E1,2.005863E2,7.625185E1,5.609671E2,3.4615055E1,3.4116907E2,1.2911301E1,1.5239032E1,8.204674E0,3.4726777E0,3.2440104E0,9.836808E1,5.894249E2,8.053751E0,1.4481093E2,6.3048363E0,3.2916408E0,1.2148037E1,4.4262934E0,5.579531E1,7.2079605E1,1.2711736E1,4.7267567E1,1.9661325E2,3.973059E0,1.6644375E1,5.9607468E1,2.560204E2,3.0494672E2,2.5483358E1,9.1317E0],"tree_param":{"num_deleted":"0","num_feature":"130","num_nodes":"55","size_leaf_vector":"1"}},{"base_weights":[-5.0905116E-2,1.2380551E0,-1.5646605E-1,4.5902327E-1,1.0816735E0,-2.4319584E-3,-6.871967E-1,1.6043683E0,-8.681074E-2,-3.744722E-2,2.5099192E0,-3.0760542E-1,-1.4195188E0,2.7555802E0,8.8119733E-1,-9.088672E-1,1.7502413E0,-3.2130805E-1,1.7515014E-1,3.9018674E0,-1.0673672E-1,-1.0589842E0,1.3354215E-1,-4.6056247E0,-1.0955808E0,3.8396958E-1,6.035171E-2,1.1713854E-1,-8.7107696E-2,2.0750141E-1,-1.1841381E-1,3.2811964E-1,1.2681861E-2,1.0999249E-1,-3.6774777E-2,2.5186287E-3,1.1540707E-1,1.17425814E-1,5.738053E-1,-1.300009E-1,1.09074734E-1,-2.0260535E-2,1.2903339E-1,-7.215886E-1,-1.0588568E-1,1.3318604E-2,-1.4037654E-1],"categories":[],"categories_nodes":[],"categories_segments":[],"categories_sizes":[],"default_left":[0,0,0,0,0,0,0,0,0,0,0,0,0,0,0,0,0,0,0,0,0,0,0,0,0,0,0,0,0,0,0,0,0,0,0,0,0,0,0,0,0,0,0,0,0,0,0],"id":9,"left_children":[1,3,5,-1,7,9,11,13,15,17,19,21,23,25,27,29,31,33,35,37,-1,39,41,43,45,-1,-1,-1,-1,-1,-1,-1,-1,-1,-1,-1,-1,-1,-1,-1,-1,-1,-1,-1,-1,-1,-1],"loss_changes":[3.1609406E2,1.0570389E2,1.7548898E2,0E0,1.0507884E2,1.460061E2,1.3320956E2,9.4579285E1,8.274761E1,9.943671E1,1.2612787E2,1.0649443E2,1.6188495E2,1.5689883E2,7.2570496E1,6.545263E1,5.5184795E1,1.27779205E2,1.6158763E2,1.0880997E2,0E0,1.3356978E2,1.0514112E2,1.7680795E2,1.0596599E2,0E0,0E0,0E0,0E0,0E0,0E0,0E0,0E0,0E0,0E0,0E0,0E0,0E0,0E0,0E0,0E0,0E0,0E0,0E0,0E0,0E0,0E0],"parents":[2147483647,0,0,1,1,2,2,4,4,5,5,6,6,7,7,8,8,9,9,10,10,11,11,12,12,13,13,14,14,15,15,16,16,17,17,18,18,19,19,21,21,22,22,23,23,24,24],"right_children":[2,4,6,-1,8,10,12,14,16,18,20,22,24,26,28,30,32,34,36,38,-1,40,42,44,46,-1,-1,-1,-1,-1,-1,-1,-1,-1,-1,-1,-1,-1,-1,-1,-1,-1,-1,-1,-1,-1,-1],"split_conditions":[-6.3E-2,1.1123998E0,3.4E-2,4.5902327E-1,-1.1E0,5E0,9.5E0,0E0,2.334E1,-4.6115372E-2,3.84E1,2.67E0,3.4836337E-1,1.1159827E1,5.077598E-1,-1.3885947E-1,1.2834584E0,-6.4059126E-1,2.6610007E0,4.285E0,-1.0673672E-1,1.2177426E1,5.638298E-1,2.1333334E-1,3.2270079E0,3.8396958E-1,6.035171E-2,1.1713854E-1,-8.7107696E-2,2.0750141E-1,-1.1841381E-1,3.2811964E-1,1.2681861E-2,1.0999249E-1,-3.6774777E-2,2.5186287E-3,1.1540707E-1,1.17425814E-1,5.738053E-1,-1.300009E-1,1.09074734E-1,-2.0260535E-2,1.2903339E-1,-7.215886E-1,-1.0588568E-1,1.3318604E-2,-1.4037654E-1],"split_indices":[125,114,125,0,127,105,118,105,104,80,128,66,6,122,55,110,16,85,93,15,0,122,35,50,9,0,0,0,0,0,0,0,0,0,0,0,0,0,0,0,0,0,0,0,0,0,0],"split_type":[0,0,0,0,0,0,0,0,0,0,0,0,0,0,0,0,0,0,0,0,0,0,0,0,0,0,0,0,0,0,0,0,0,0,0,0,0,0,0,0,0,0,0,0,0,0,0],"sum_hessian":[2.3228816E3,1.7466432E2,2.1482173E3,4.838997E0,1.6982533E2,1.6663585E3,4.8185892E2,1.1722903E2,5.2596306E1,1.6447041E3,2.1654379E1,3.1873105E2,1.6312788E2,4.3802406E1,7.342662E1,3.686128E1,1.5735027E1,7.047029E2,9.400012E2,1.5843322E1,5.811058E0,1.1757717E2,2.0115387E2,1.3551287E1,1.495766E2,2.267297E1,2.1129436E1,5.8609333E1,1.4817288E1,3.9876351E0,3.2873642E1,5.9910975E0,9.74393E0,4.456219E1,6.601407E2,8.384003E2,1.0160089E2,9.387578E0,6.4557433E0,9.832561E1,1.9251564E1,1.5914568E2,4.200819E1,5.4144583E0,8.136828E0,4.6134533E1,1.0344206E2],"tree_param":{"num_deleted":"0","num_feature":"130","num_nodes":"47","size_leaf_vector":"1"}},{"base_weights":[-6.703543E-3,2.774646E-1,-8.8204503E-1,7.21376E-1,-7.142978E-2,-3.0612028E-1,-1.3490225E0,1.271557E0,4.527609E-1,-2.9810753E-1,6.090021E-1,2.0053217E0,-5.2854544E-1,-3.025016E0,-1.1377006E0,1.1562539E0,4.398541E0,1.2693458E0,1.960819E-1,-1.2298489E0,-1.1966498E-1,-9.828258E-1,1.1046857E0,6.0795695E-1,4.7348562E-1,-1.4196988E0,2.148678E-3,-2.0793896E0,-5.6856966E-1,-8.802054E-1,-2.8412423E0,1.7144662E-1,6.2467486E-2,7.961959E-2,5.693115E-1,1.016718E-2,1.6032027E-1,-2.2680372E-1,2.2851052E-2,-2.0467177E-1,-2.5011284E-2,5.6236945E-3,-1.03044175E-1,-3.623963E-2,-4.396722E-1,-1.2460921E-1,1.16005145E-1,-9.416295E-2,2.5184292E-1,-6.8331376E-2,-3.1062517E-1,-2.4210651E-1,1.5920347E-2,-3.628162E-1,-7.095619E-2,1.8387434E-1,-8.360463E-2,-3.194826E-1,-1.5835617E-2],"categories":[],"categories_nodes":[],"categories_segments":[],"categories_sizes":[],"default_left":[0,0,0,0,0,0,0,0,0,0,0,0,0,0,0,0,0,0,0,0,0,0,0,0,0,0,0,0,0,0,0,0,0,0,0,0,0,0,0,0,0,0,0,0,0,0,0,0,0,0,0,0,0,0,0,0,0,0,0],"id":10,"left_children":[1,3,5,7,9,11,13,15,17,19,21,23,25,27,29,31,33,35,37,39,41,43,45,-1,47,49,51,53,-1,55,57,-1,-1,-1,-1,-1,-1,-1,-1,-1,-1,-1,-1,-1,-1,-1,-1,-1,-1,-1,-1,-1,-1,-1,-1,-1,-1,-1,-1],"loss_changes":[5.7340344E2,2.6966364E2,1.5095145E2,1.1198038E2,1.5042813E2,1.317547E2,1.04960754E2,8.255603E1,1.0757875E2,1.2112849E2,1.9347815E2,1.710724E2,1.10881E2,9.902582E1,1.1809158E2,8.5575714E1,5.716844E1,8.6589386E1,8.265618E1,1.27734985E2,1.2568736E2,1.3160233E2,1.2749182E2,0E0,7.779551E1,1.1542873E2,7.760527E1,7.2714005E1,0E0,7.940352E1,8.560559E1,0E0,0E0,0E0,0E0,0E0,0E0,0E0,0E0,0E0,0E0,0E0,0E0,0E0,0E0,0E0,0E0,0E0,0E0,0E0,0E0,0E0,0E0,0E0,0E0,0E0,0E0,0E0,0E0],"parents":[2147483647,0,0,1,1,2,2,3,3,4,4,5,5,6,6,7,7,8,8,9,9,10,10,11,11,12,12,13,13,14,14,15,15,16,16,17,17,18,18,19,19,20,20,21,21,22,22,24,24,25,25,26,26,27,27,29,29,30,30],"right_children":[2,4,6,8,10,12,14,16,18,20,22,24,26,28,30,32,34,36,38,40,42,44,46,-1,48,50,52,54,-1,56,58,-1,-1,-1,-1,-1,-1,-1,-1,-1,-1,-1,-1,-1,-1,-1,-1,-1,-1,-1,-1,-1,-1,-1,-1,-1,-1,-1,-1],"split_conditions":[1.2222222E0,3.15E-1,-2E-1,2.3542473E0,1.2222222E0,5.7327013E0,3.3E-1,5.515853E0,-1.8761727E0,1E0,1.55E1,-7.605249E-1,3.7500813E0,4.89508E-1,5.833333E-1,2.99E0,6.4755553E-1,5.94E-1,-3.334E1,6.68E-1,6.4E1,1.8762381E0,-1.4712587E-1,6.0795695E-1,7.466596E-3,6.48E-1,6.888779E0,-8.4963776E-2,-5.6856966E-1,1.33E0,2.534E1,1.7144662E-1,6.2467486E-2,7.961959E-2,5.693115E-1,1.016718E-2,1.6032027E-1,-2.2680372E-1,2.2851052E-2,-2.0467177E-1,-2.5011284E-2,5.6236945E-3,-1.03044175E-1,-3.623963E-2,-4.396722E-1,-1.2460921E-1,1.16005145E-1,-9.416295E-2,2.5184292E-1,-6.8331376E-2,-3.1062517E-1,-2.4210651E-1,1.5920347E-2,-3.628162E-1,-7.095619E-2,1.8387434E-1,-8.360463E-2,-3.194826E-1,-1.5835617E-2],"split_indices":[52,67,127,92,56,28,66,95,111,61,126,90,21,55,35,66,86,124,101,124,41,99,88,0,80,124,11,80,0,66,104,0,0,0,0,0,0,0,0,0,0,0,0,0,0,0,0,0,0,0,0,0,0,0,0,0,0,0,0],"split_type":[0,0,0,0,0,0,0,0,0,0,0,0,0,0,0,0,0,0,0,0,0,0,0,0,0,0,0,0,0,0,0,0,0,0,0,0,0,0,0,0,0,0,0,0,0,0,0,0,0,0,0,0,0,0,0,0,0,0,0],"sum_hessian":[2.3021155E3,1.7382415E3,5.6387415E2,7.648193E2,9.734222E2,2.5365082E2,3.102233E2,2.490968E2,5.157225E2,7.31016E2,2.4240622E2,2.1324316E1,2.323265E2,3.2839497E1,2.7738382E2,2.4186668E2,7.2301083E0,1.21947044E2,3.9377542E2,1.1611207E2,6.1490393E2,5.7135635E1,1.8527058E2,3.864378E0,1.7459938E1,8.62166E1,1.461099E2,2.762195E1,5.2175455E0,2.4265082E2,3.4732983E1,7.7624306E1,1.6424239E2,3.5964327E0,3.6336756E0,4.3310684E1,7.863636E1,8.642152E0,3.8513327E2,5.0385296E1,6.572677E1,5.2624835E2,8.865556E1,5.1639584E1,5.4960485E0,1.6471773E1,1.687988E2,1.0993054E1,6.4668837E0,6.897145E1,1.7245148E1,7.790335E0,1.3831956E2,8.885818E0,1.8736134E1,7.1645236E0,2.354863E2,2.5343822E1,9.389161E0],"tree_param":{"num_deleted":"0","num_feature":"130","num_nodes":"59","size_leaf_vector":"1"}},{"base_weights":[2.182351E-2,5.2019346E-1,-4.0030792E-1,7.521292E-1,-1.0530884E-1,-3.0638427E-1,-2.0582461E0,7.9228157E-1,-2.9284E0,-3.4224358E0,3.5481732E-2,-5.268627E-1,3.189526E-1,-9.506553E-1,-3.8604171E0,8.242655E-3,9.2539334E-1,-4.4936156E-1,1.6644962E-2,3.250241E-2,-5.6842786E-1,-5.705548E-1,5.783165E-1,-2.1916753E-1,-9.6694106E-1,1.1931869E0,-1.1143533E-1,-2.3553112E0,4.8019642E-1,-2.1087308E0,-7.2729635E-1,-5.2412555E-2,1.7319883E-1,2.4729824E-1,7.198572E-2,-2.9972909E-2,-3.6269164E-1,-9.8797E-2,7.797807E-2,1.0644437E-2,-7.0626125E-2,-8.896413E-2,3.157237E-1,7.8364775E-2,5.402928E-1,1.128457E-2,-2.057212E-1,-2.7449244E-1,2.187856E-2,-3.1662356E-2,3.7178764E-1,1.5233427E-1,-2.6902512E-1],"categories":[],"categories_nodes":[],"categories_segments":[],"categories_sizes":[],"default_left":[0,0,0,0,0,0,0,0,0,0,0,0,0,0,0,0,0,0,0,0,0,0,0,0,0,0,0,0,0,0,0,0,0,0,0,0,0,0,0,0,0,0,0,0,0,0,0,0,0,0,0,0,0],"id":11,"left_children":[1,3,5,7,9,11,13,15,17,19,21,23,25,27,29,31,33,-1,-1,-1,-1,35,37,39,41,43,45,47,49,51,-1,-1,-1,-1,-1,-1,-1,-1,-1,-1,-1,-1,-1,-1,-1,-1,-1,-1,-1,-1,-1,-1,-1],"loss_changes":[4.9302466E2,1.5625034E2,1.9602365E2,1.1796301E2,1.3732614E2,1.6597614E2,1.2917334E2,8.080621E1,6.652142E1,1.539384E2,9.2696175E1,1.19812805E2,1.185153E2,8.939148E1,1.8366116E2,1.471087E2,9.8613464E1,0E0,0E0,0E0,0E0,1.03778305E2,8.925271E1,1.1118106E2,1.4137714E2,1.3601503E2,1.2021183E2,5.2931084E1,7.767116E1,8.9574E1,0E0,0E0,0E0,0E0,0E0,0E0,0E0,0E0,0E0,0E0,0E0,0E0,0E0,0E0,0E0,0E0,0E0,0E0,0E0,0E0,0E0,0E0,0E0],"parents":[2147483647,0,0,1,1,2,2,3,3,4,4,5,5,6,6,7,7,8,8,9,9,10,10,11,11,12,12,13,13,14,14,15,15,16,16,21,21,22,22,23,23,24,24,25,25,26,26,27,27,28,28,29,29],"right_children":[2,4,6,8,10,12,14,16,18,20,22,24,26,28,30,32,34,-1,-1,-1,-1,36,38,40,42,44,46,48,50,52,-1,-1,-1,-1,-1,-1,-1,-1,-1,-1,-1,-1,-1,-1,-1,-1,-1,-1,-1,-1,-1,-1,-1],"split_conditions":[1.1111112E0,2.4E-2,7.8E1,4.8837066E-1,-6.8339825E-1,1.2222222E0,8.49946E0,1.474734E3,1.8224621E0,3.4294412E-1,1.1111112E0,1.2222222E0,-4.742477E0,-1.55E-1,3E0,1.3578625E1,-1.9507616E0,-4.4936156E-1,1.6644962E-2,3.250241E-2,-5.6842786E-1,2.2773347E0,-1.1525367E-1,3.6161166E-1,3.1713E0,5.625E0,3.3589287E0,5.1894355E0,3.53E1,-2.124296E0,-7.2729635E-1,-5.2412555E-2,1.7319883E-1,2.4729824E-1,7.198572E-2,-2.9972909E-2,-3.6269164E-1,-9.8797E-2,7.797807E-2,1.0644437E-2,-7.0626125E-2,-8.896413E-2,3.157237E-1,7.8364775E-2,5.402928E-1,1.128457E-2,-2.057212E-1,-2.7449244E-1,2.187856E-2,-3.1662356E-2,3.7178764E-1,1.5233427E-1,-2.6902512E-1],"split_indices":[52,125,34,82,85,56,28,71,114,6,56,52,107,85,37,122,113,0,0,0,0,113,88,83,97,10,98,30,128,44,0,0,0,0,0,0,0,0,0,0,0,0,0,0,0,0,0,0,0,0,0,0,0],"split_type":[0,0,0,0,0,0,0,0,0,0,0,0,0,0,0,0,0,0,0,0,0,0,0,0,0,0,0,0,0,0,0,0,0,0,0,0,0,0,0,0,0,0,0,0,0,0,0,0,0,0,0,0,0],"sum_hessian":[2.341036E3,1.0737983E3,1.2672374E3,7.835416E2,2.902567E2,1.2007777E3,6.645973E1,7.760709E2,7.4707437E0,1.0812418E1,2.794443E2,8.882863E2,3.124914E2,4.2367676E1,2.4092056E1,1.13165054E2,6.629058E2,3.8557823E0,3.6149614E0,5.4243665E0,5.3880515E0,1.317279E2,1.477164E2,5.2422327E2,3.6406302E2,1.02658966E2,2.0983243E2,2.1115578E1,2.1252098E1,1.8824917E1,5.26714E0,8.701918E1,2.6145878E1,2.3256119E1,6.396497E2,1.2568834E2,6.039562E0,2.3502821E1,1.24213585E2,3.3574408E2,1.8847922E2,3.5886264E2,5.200373E0,9.890787E1,3.7510986E0,1.9062985E2,1.9202576E1,1.5698368E1,5.4172106E0,1.8226982E1,3.025117E0,3.7811239E0,1.5043793E1],"tree_param":{"num_deleted":"0","num_feature":"130","num_nodes":"53","size_leaf_vector":"1"}},{"base_weights":[-6.047404E-2,3.9464432E-1,-4.2938697E-1,-3.1769805E-2,7.4659604E-1,2.3966242E-2,-7.3624724E-1,1.0011749E0,-3.2003236E-1,-1.542418E-1,9.41722E-1,3.1226718E-1,-7.191487E-1,-6.8984765E-1,-5.1072454E0,-1.9802281E-1,1.6685898E0,-7.142796E-1,6.076979E-1,-3.097272E-1,1.1667087E-1,-7.9069954E-1,1.0234424E0,-4.773657E-2,1.2046448E0,-2.7554288E0,-3.6532688E-1,-2.2056932E0,-5.9864765E-1,2.1639025E-2,-8.190301E-1,-1.3519105E-1,8.983036E-2,3.3441615E-1,9.247065E-2,-5.0175197E-2,-4.1768008E-1,9.640295E-2,-6.790809E-2,-4.5067683E-2,1.7459077E-1,1.7587602E-1,-1.5766084E-1,2.6076177E-2,1.0544259E-1,-1.22134155E-2,4.027259E-1,1.7737405E-1,-1.0843065E-4,-4.1482288E-1,-1.2459434E-1,1.267875E-1,-5.9065882E-2,-1.3755013E-1,-5.9154326E-1,-3.4813818E-2,-1.1406549E-1],"categories":[],"categories_nodes":[],"categories_segments":[],"categories_sizes":[],"default_left":[0,0,0,0,0,0,0,0,0,0,0,0,0,0,0,0,0,0,0,0,0,0,0,0,0,0,0,0,0,0,0,0,0,0,0,0,0,0,0,0,0,0,0,0,0,0,0,0,0,0,0,0,0,0,0,0,0],"id":12,"left_children":[1,3,5,7,9,11,13,15,17,19,21,23,25,27,29,31,33,35,37,-1,39,41,43,45,47,49,51,53,55,-1,-1,-1,-1,-1,-1,-1,-1,-1,-1,-1,-1,-1,-1,-1,-1,-1,-1,-1,-1,-1,-1,-1,-1,-1,-1,-1,-1],"loss_changes":[3.927649E2,1.5737982E2,1.8002505E2,1.4131693E2,1.0131912E2,1.1203196E2,1.5044711E2,8.367274E1,1.3651498E2,9.8984314E1,6.787274E1,1.2169548E2,1.03048805E2,1.0324652E2,1.966885E2,6.8376526E1,8.126425E1,1.3073608E2,8.3718445E1,0E0,1.2289929E2,7.069666E1,6.961075E1,1.2343954E2,1.166216E2,4.8103897E1,7.816093E1,1.03443756E2,1.003548E2,0E0,0E0,0E0,0E0,0E0,0E0,0E0,0E0,0E0,0E0,0E0,0E0,0E0,0E0,0E0,0E0,0E0,0E0,0E0,0E0,0E0,0E0,0E0,0E0,0E0,0E0,0E0,0E0],"parents":[2147483647,0,0,1,1,2,2,3,3,4,4,5,5,6,6,7,7,8,8,9,9,10,10,11,11,12,12,13,13,14,14,15,15,16,16,17,17,18,18,20,20,21,21,22,22,23,23,24,24,25,25,26,26,27,27,28,28],"right_children":[2,4,6,8,10,12,14,16,18,20,22,24,26,28,30,32,34,36,38,-1,40,42,44,46,48,50,52,54,56,-1,-1,-1,-1,-1,-1,-1,-1,-1,-1,-1,-1,-1,-1,-1,-1,-1,-1,-1,-1,-1,-1,-1,-1,-1,-1,-1,-1],"split_conditions":[1.1111112E0,1.1111112E0,-8E-3,-3.8E-2,2.98E-1,1.4566382E0,1.4444444E0,1.832E1,4.01E0,-5.7E1,-6.733146E0,1.2222222E0,1E0,6.8422246E0,3.977884E0,9.39394E-3,-1.6666666E0,4.53E1,8.295666E-1,-3.097272E-1,5.638298E-1,4E0,-5.401802E-1,6.8124585E0,2.4013889E-1,-1.9642857E-1,4.125E0,1.5445165E3,1.9666667E0,2.1639025E-2,-8.190301E-1,-1.3519105E-1,8.983036E-2,3.3441615E-1,9.247065E-2,-5.0175197E-2,-4.1768008E-1,9.640295E-2,-6.790809E-2,-4.5067683E-2,1.7459077E-1,1.7587602E-1,-1.5766084E-1,2.6076177E-2,1.0544259E-1,-1.22134155E-2,4.027259E-1,1.7737405E-1,-1.0843065E-4,-4.1482288E-1,-1.2459434E-1,1.267875E-1,-5.9065882E-2,-1.3755013E-1,-5.9154326E-1,-3.4813818E-2,-1.1406549E-1],"split_indices":[52,56,125,125,69,12,52,104,101,41,98,56,61,11,21,57,111,70,119,0,35,31,113,98,50,84,10,72,111,0,0,0,0,0,0,0,0,0,0,0,0,0,0,0,0,0,0,0,0,0,0,0,0,0,0,0,0],"split_type":[0,0,0,0,0,0,0,0,0,0,0,0,0,0,0,0,0,0,0,0,0,0,0,0,0,0,0,0,0,0,0,0,0,0,0,0,0,0,0,0,0,0,0,0,0,0,0,0,0,0,0,0,0,0,0,0,0],"sum_hessian":[2.3368997E3,1.0457869E3,1.2911128E3,4.729338E2,5.728531E2,5.2116547E2,7.6994727E2,1.0231726E2,3.7061655E2,1.0174077E2,4.711123E2,3.7628485E2,1.4488065E2,7.632588E2,6.6884646E0,3.6702744E1,6.561452E1,2.6051947E2,1.10097084E2,6.3711843E0,9.536958E1,2.0592232E1,4.5052008E2,2.6864362E2,1.07641235E2,2.0149948E1,1.2473069E2,4.1591892E1,7.2166693E2,3.5332634E0,3.1552012E0,1.7369892E1,1.933285E1,1.1879091E1,5.3735428E1,2.5443898E2,6.080493E0,8.041544E1,2.9681646E1,7.200606E1,2.3363527E1,5.209418E0,1.5382814E1,1.0610754E2,3.4441254E2,2.645278E2,4.1158237E0,6.1784115E1,4.585712E1,6.2858024E0,1.3864146E1,1.8054409E1,1.0667628E2,3.8472027E1,3.1198642E0,5.7745734E2,1.4420955E2],"tree_param":{"num_deleted":"0","num_feature":"130","num_nodes":"57","size_leaf_vector":"1"}},{"base_weights":[-1.6139898E-2,2.1217422E-1,-7.221273E-1,2.3619322E-2,8.008979E-1,-5.403887E-1,-1.7701578E0,1.1754934E0,-5.8216278E-2,4.1308153E-1,1.350281E0,-1.1623E0,-1.9294068E-1,-3.4934325E0,-1.083996E0,1.52465245E-2,1.835211E0,-9.473175E-2,2.315014E0,-4.1823196E-1,1.0233674E0,2.4472957E0,9.868131E-1,-8.248801E-1,-2.5257008E0,2.6133394E-1,-9.121711E-1,-2.0074503E0,-6.303424E-1,-1.5952462E0,2.8447404E0,-1.815088E-1,6.796047E-2,1.1690237E-1,3.854016E-1,-4.7815633E-3,-1.7510448E-1,3.494858E-1,2.5229925E-2,1.1439865E-1,-8.8948816E-2,2.4731144E-2,1.6267425E-1,4.4646093E-1,1.4600305E-1,1.15363285E-1,-5.9996407E-2,-2.806395E-1,-4.928185E-2,-2.7274206E-1,-0E0,-9.062268E-2,4.5071412E-2,-9.707463E-2,1.7262371E-1,-3.1762317E-1,-3.0676825E-2,-2.3667507E-1,-4.4884194E-2,-2.9014565E-2,4.36213E-1],"categories":[],"categories_nodes":[],"categories_segments":[],"categories_sizes":[],"default_left":[0,0,0,0,0,0,0,0,0,0,0,0,0,0,0,0,0,0,0,0,0,0,0,0,0,0,0,0,0,0,0,0,0,0,0,0,0,0,0,0,0,0,0,0,0,0,0,0,0,0,0,0,0,0,0,0,0,0,0,0,0],"id":13,"left_children":[1,3,5,7,9,11,13,15,17,19,21,23,25,27,29,31,33,35,37,39,41,43,45,47,49,51,53,55,-1,57,59,-1,-1,-1,-1,-1,-1,-1,-1,-1,-1,-1,-1,-1,-1,-1,-1,-1,-1,-1,-1,-1,-1,-1,-1,-1,-1,-1,-1,-1,-1],"loss_changes":[3.8501755E2,1.9995596E2,1.0934442E2,1.2938231E2,9.1924835E1,1.072269E2,9.5249756E1,6.906685E1,1.10290955E2,1.3171664E2,6.7886566E1,7.86077E1,1.05741425E2,1.1803854E2,1.3132385E2,5.957753E1,6.2611923E1,9.4428314E1,6.718116E1,1.2359722E2,9.626997E1,7.6915955E1,8.773233E1,8.445787E1,5.9926926E1,7.134281E1,8.750629E1,5.083809E1,0E0,6.907321E1,5.90111E1,0E0,0E0,0E0,0E0,0E0,0E0,0E0,0E0,0E0,0E0,0E0,0E0,0E0,0E0,0E0,0E0,0E0,0E0,0E0,0E0,0E0,0E0,0E0,0E0,0E0,0E0,0E0,0E0,0E0,0E0],"parents":[2147483647,0,0,1,1,2,2,3,3,4,4,5,5,6,6,7,7,8,8,9,9,10,10,11,11,12,12,13,13,14,14,15,15,16,16,17,17,18,18,19,19,20,20,21,21,22,22,23,23,24,24,25,25,26,26,27,27,29,29,30,30],"right_children":[2,4,6,8,10,12,14,16,18,20,22,24,26,28,30,32,34,36,38,40,42,44,46,48,50,52,54,56,-1,58,60,-1,-1,-1,-1,-1,-1,-1,-1,-1,-1,-1,-1,-1,-1,-1,-1,-1,-1,-1,-1,-1,-1,-1,-1,-1,-1,-1,-1,-1,-1],"split_conditions":[1.2222222E0,1.2222222E0,3.6352942E0,-1.16E2,1.75E1,1.1111112E0,7.1824926E-1,1.9528302E0,5E0,-1.4705883E-1,3.1E-1,7E1,5.6540745E-1,7.0211643E-1,1.3333334E0,4.335852E0,3.38E1,9.6E-2,2.1E1,-1.2175796E-1,3.8018012E-1,1.491478E3,2E0,1.36E1,2.1597649E-1,7.4314165E0,1.6061673E0,3.883912E-1,-6.303424E-1,3.9057333E0,-2.48448E0,-1.815088E-1,6.796047E-2,1.1690237E-1,3.854016E-1,-4.7815633E-3,-1.7510448E-1,3.494858E-1,2.5229925E-2,1.1439865E-1,-8.8948816E-2,2.4731144E-2,1.6267425E-1,4.4646093E-1,1.4600305E-1,1.15363285E-1,-5.9996407E-2,-2.806395E-1,-4.928185E-2,-2.7274206E-1,-0E0,-9.062268E-2,4.5071412E-2,-9.707463E-2,1.7262371E-1,-3.1762317E-1,-3.0676825E-2,-2.3667507E-1,-4.4884194E-2,-2.9014565E-2,4.36213E-1],"split_indices":[52,56,48,41,126,56,119,92,105,46,67,41,79,119,56,13,70,125,41,82,54,71,105,126,7,17,120,51,0,18,83,0,0,0,0,0,0,0,0,0,0,0,0,0,0,0,0,0,0,0,0,0,0,0,0,0,0,0,0,0,0],"split_type":[0,0,0,0,0,0,0,0,0,0,0,0,0,0,0,0,0,0,0,0,0,0,0,0,0,0,0,0,0,0,0,0,0,0,0,0,0,0,0,0,0,0,0,0,0,0,0,0,0,0,0,0,0,0,0,0,0,0,0,0,0],"sum_hessian":[2.3853652E3,1.8027241E3,5.8264124E2,1.3667388E3,4.3598535E2,4.9829355E2,8.434768E1,8.989437E1,1.2768444E3,2.5710498E2,1.7888037E2,1.7729887E2,3.209947E2,2.2538502E1,6.1809177E1,3.3191734E1,5.6702633E1,1.258724E3,1.8120409E1,1.0877381E2,1.4833116E2,4.264591E1,1.3623447E2,1.4380351E2,3.3495358E1,1.969123E2,1.2408239E2,1.768086E1,4.8576407E0,5.537283E1,6.4363465E0,8.227452E0,2.4964281E1,5.0068077E1,6.634555E0,1.2359275E3,2.2796436E1,8.858028E0,9.26238E0,2.809736E1,8.067645E1,8.25015E1,6.5829666E1,7.207011E0,3.5438896E1,1.1206794E2,2.4166529E1,1.1497074E1,1.3230644E2,2.6090899E1,7.4044604E0,3.241615E1,1.6449614E2,1.1582283E2,8.259558E0,7.803182E0,9.877679E0,2.5135498E1,3.0237331E1,3.04549E0,3.3908565E0],"tree_param":{"num_deleted":"0","num_feature":"130","num_nodes":"61","size_leaf_vector":"1"}},{"base_weights":[-1.4429353E-2,2.3533411E-1,-4.908299E-1,2.67792E-1,-2.303269E0,-4.4105363E-1,-3.1316855E0,9.0363157E-1,1.3455757E-1,-6.079904E-1,-5.0124454E-1,-3.1241855E-1,-1.3110603E0,-5.138614E-1,-6.1503804E-1,1.0066077E0,-2.2454853E0,7.824244E-1,-2.721604E-2,6.835026E-1,-2.5684956E-1,-2.1558408E-1,-2.0864713E0,-4.356222E-1,-2.5707185E0,-2.0009391E-1,7.889367E-2,-1.1724551E-1,9.710793E-2,1.1351906E-1,-4.2787683E-1,3.9038312E-1,5.8447946E-2,-7.6466496E-3,1.3142107E-1,-5.955585E-2,2.1872315E-1,-9.197374E-3,-1.4675593E-1,-5.3935487E-2,-3.0254444E-1,3.1627038E-1,-6.723933E-2,-2.9706195E-1,-2.819667E-2],"categories":[],"categories_nodes":[],"categories_segments":[],"categories_sizes":[],"default_left":[0,0,0,0,0,0,0,0,0,0,0,0,0,0,0,0,0,0,0,0,0,0,0,0,0,0,0,0,0,0,0,0,0,0,0,0,0,0,0,0,0,0,0,0,0],"id":14,"left_children":[1,3,5,7,9,11,13,15,17,19,-1,21,23,25,-1,27,29,31,33,35,-1,37,39,41,43,-1,-1,-1,-1,-1,-1,-1,-1,-1,-1,-1,-1,-1,-1,-1,-1,-1,-1,-1,-1],"loss_changes":[2.8353464E2,1.2880154E2,1.05014984E2,1.3031685E2,1.1404953E2,8.921596E1,1.5303275E2,8.87505E1,1.34233E2,4.9189987E1,0E0,1.1969574E2,1.1148396E2,3.0548906E1,0E0,8.637424E1,9.608977E1,8.6618515E1,1.0092335E2,3.012733E1,0E0,1.0776596E2,7.343199E1,9.487646E1,8.4377655E1,0E0,0E0,0E0,0E0,0E0,0E0,0E0,0E0,0E0,0E0,0E0,0E0,0E0,0E0,0E0,0E0,0E0,0E0,0E0,0E0],"parents":[2147483647,0,0,1,1,2,2,3,3,4,4,5,5,6,6,7,7,8,8,9,9,11,11,12,12,13,13,15,15,16,16,17,17,18,18,19,19,21,21,22,22,23,23,24,24],"right_children":[2,4,6,8,10,12,14,16,18,20,-1,22,24,26,-1,28,30,32,34,36,-1,38,40,42,44,-1,-1,-1,-1,-1,-1,-1,-1,-1,-1,-1,-1,-1,-1,-1,-1,-1,-1,-1,-1],"split_conditions":[1.7E-2,4.4316426E-1,1.35E1,-5.2E-2,3E1,7.3E-2,3.43E-1,1.5574226E3,-7.605249E-1,-1.2E-2,-5.0124454E-1,7.870902E0,4.061818E0,3.4038813E0,-6.1503804E-1,-2.1375E0,2.0820699E0,6E0,2.2507856E0,8.56E0,-2.5684956E-1,1.0058756E0,3.6E0,-5.979437E-1,1.6919461E-1,-2.0009391E-1,7.889367E-2,-1.1724551E-1,9.710793E-2,1.1351906E-1,-4.2787683E-1,3.9038312E-1,5.8447946E-2,-7.6466496E-3,1.3142107E-1,-5.955585E-2,2.1872315E-1,-9.197374E-3,-1.4675593E-1,-5.3935487E-2,-3.0254444E-1,3.1627038E-1,-6.723933E-2,-2.9706195E-1,-2.819667E-2],"split_indices":[125,82,3,125,70,125,67,71,90,125,0,29,13,25,0,91,20,39,8,11,0,108,9,110,45,0,0,0,0,0,0,0,0,0,0,0,0,0,0,0,0,0,0,0,0],"split_type":[0,0,0,0,0,0,0,0,0,0,0,0,0,0,0,0,0,0,0,0,0,0,0,0,0,0,0,0,0,0,0,0,0,0,0,0,0,0,0,0,0,0,0,0,0],"sum_hessian":[2.3799233E3,1.5612921E3,8.186311E2,1.5427294E3,1.8562817E1,8.049319E2,1.369918E1,2.6568484E2,1.2770446E3,1.3598553E1,4.9642634E0,7.0294116E2,1.0199073E2,9.211823E0,4.487356E0,2.581335E2,7.5513177E0,2.5467516E2,1.0223694E3,9.315865E0,4.2826877E0,6.679608E2,3.498036E1,6.1241913E1,4.074882E1,3.8221824E0,5.3896413E0,1.3286469E1,2.4484705E2,3.5217452E0,4.0295725E0,4.727325E0,2.4994783E2,9.843939E2,3.797545E1,5.701153E0,3.614712E0,6.2506604E2,4.289477E1,1.8579252E1,1.6401108E1,3.8944595E0,5.7347454E1,2.8256231E1,1.2492589E1],"tree_param":{"num_deleted":"0","num_feature":"130","num_nodes":"45","size_leaf_vector":"1"}},{"base_weights":[1.2220078E-3,4.3413544E-1,-3.4335238E-1,-1.58211E0,4.9324152E-1,-1.3483396E-1,-7.406866E-1,5.34238E-3,-3.4536502E0,4.6870008E-1,4.3864805E-1,1.238661E0,-2.2826588E-1,-2.0331194E0,-5.5018586E-1,-1.9515146E0,1.3928859E0,-4.9261336E0,3.1509887E-2,-3.2822735E0,4.9689502E-1,4.153181E-1,7.6089305E-1,5.378162E-2,-5.9236944E-1,-6.433519E-1,-1.4950535E0,1.4582502E0,-6.768038E-1,-3.2663518E-1,4.44818E-2,2.8383806E-1,-4.7486788E-3,-5.637254E-2,-6.056873E-1,-4.040681E-1,-7.589954E-2,7.121454E-2,1.8012002E-2,9.4801486E-2,-2.278148E-1,1.3178074E-1,-6.43356E-3,-6.7090616E-2,8.658861E-2,-2.0876113E-1,1.0009907E-2,-1.01755574E-1,2.0305334E-1,-4.7088202E-2,-2.3602076E-1],"categories":[],"categories_nodes":[],"categories_segments":[],"categories_sizes":[],"default_left":[0,0,0,0,0,0,0,0,0,0,0,0,0,0,0,0,0,0,0,0,0,0,0,0,0,0,0,0,0,0,0,0,0,0,0,0,0,0,0,0,0,0,0,0,0,0,0,0,0,0,0],"id":15,"left_children":[1,3,5,7,9,11,13,15,17,19,-1,21,23,25,27,29,31,33,-1,35,37,-1,39,41,43,-1,45,47,49,-1,-1,-1,-1,-1,-1,-1,-1,-1,-1,-1,-1,-1,-1,-1,-1,-1,-1,-1,-1,-1,-1],"loss_changes":[3.5501703E2,1.26290344E2,1.09352295E2,9.076207E1,1.13016815E2,1.1173628E2,1.0992975E2,5.0174152E1,8.208882E1,1.0908302E2,0E0,9.0547455E1,8.405284E1,1.5637784E2,1.02221085E2,3.9029842E1,3.2176632E1,8.795203E1,0E0,2.0366173E1,9.825461E1,0E0,6.468095E1,8.997351E1,1.1452082E2,0E0,8.525709E1,6.276497E1,9.382425E1,0E0,0E0,0E0,0E0,0E0,0E0,0E0,0E0,0E0,0E0,0E0,0E0,0E0,0E0,0E0,0E0,0E0,0E0,0E0,0E0,0E0,0E0],"parents":[2147483647,0,0,1,1,2,2,3,3,4,4,5,5,6,6,7,7,8,8,9,9,11,11,12,12,13,13,14,14,15,15,16,16,17,17,19,19,20,20,22,22,23,23,24,24,26,26,27,27,28,28],"right_children":[2,4,6,8,10,12,14,16,18,20,-1,22,24,26,28,30,32,34,-1,36,38,-1,40,42,44,-1,46,48,50,-1,-1,-1,-1,-1,-1,-1,-1,-1,-1,-1,-1,-1,-1,-1,-1,-1,-1,-1,-1,-1,-1],"split_conditions":[1.1111112E0,-4.7973585E0,8E-1,2.4240741E-1,9.1E1,6.4668E0,2.591551E0,-9.454221E-1,1.3246671E0,3.6177855E0,4.3864805E-1,-1.1233689E0,9E0,3.3354E0,-9.946405E-1,-4.3930605E-4,-3.4535453E-1,2.7624412E0,3.1509887E-2,1.0081199E1,2.5305696E0,4.153181E-1,5.6094278E-2,5.4615927E-1,7.6E1,-6.433519E-1,5.106383E-1,3.6694539E0,9E0,-3.2663518E-1,4.44818E-2,2.8383806E-1,-4.7486788E-3,-5.637254E-2,-6.056873E-1,-4.040681E-1,-7.589954E-2,7.121454E-2,1.8012002E-2,9.4801486E-2,-2.278148E-1,1.3178074E-1,-6.43356E-3,-6.7090616E-2,8.658861E-2,-2.0876113E-1,1.0009907E-2,-1.01755574E-1,2.0305334E-1,-4.7088202E-2,-2.3602076E-1],"split_indices":[52,83,127,50,38,123,48,98,16,122,0,91,68,96,108,57,45,48,0,116,92,0,57,86,39,0,46,21,65,0,0,0,0,0,0,0,0,0,0,0,0,0,0,0,0,0,0,0,0,0,0],"split_type":[0,0,0,0,0,0,0,0,0,0,0,0,0,0,0,0,0,0,0,0,0,0,0,0,0,0,0,0,0,0,0,0,0,0,0,0,0,0,0,0,0,0,0,0,0,0,0,0,0,0,0],"sum_hessian":[2.3774253E3,1.05393E3,1.3234952E3,2.9011557E1,1.0249185E3,8.695308E2,4.539644E2,1.6228672E1,1.2782885E1,1.0208976E3,4.020923E0,5.4259495E1,8.152713E2,5.666208E1,3.973023E2,6.4416876E0,9.7869835E0,9.049542E0,3.7333422E0,6.5347404E0,1.0143628E3,4.963626E0,4.9295868E1,4.5946036E2,3.5581094E2,3.6221268E0,5.3039955E1,2.2689184E1,3.7461313E2,3.359656E0,3.0820315E0,3.6228728E0,6.1641107E0,3.6486351E0,5.4009075E0,3.2469802E0,3.2877605E0,4.5969754E2,5.546653E2,4.5478794E1,3.8170743E0,3.5757835E1,4.237025E2,3.176682E2,3.8142757E1,3.295792E1,2.0082035E1,5.7200236E0,1.696916E1,3.555278E2,1.9085325E1],"tree_param":{"num_deleted":"0","num_feature":"130","num_nodes":"51","size_leaf_vector":"1"}},{"base_weights":[-1.2597867E-2,-1.8697962E-1,4.964642E-1,4.810226E-2,-4.9734977E-1,8.6386436E-1,5.5746973E-2,8.069377E-1,-1.3189672E-1,-1.0034256E0,-2.9578614E-1,9.242756E-1,-3.3873695E-1,3.436663E-1,-9.8864836E-1,3.663431E-1,1.9954991E0,-1.8071684E-1,2.8075292E0,-5.3581643E-1,-2.330538E0,-3.5701058E0,-2.4955758E-1,2.0564957E-1,1.2693385E0,-1.9628817E-1,1.0892099E0,-4.5350656E-1,-4.8378018E-1,-8.196243E-2,6.4597815E-2,1.02087356E-1,3.596086E-1,-1.0012819E-2,-1.9463567E-1,4.6288228E-1,-0E0,-2.682281E-2,-3.0710205E-1,-1.0371247E-1,-4.0866554E-1,-3.8985452E-1,-1.2298898E-1,-0E0,-7.269048E-2,-4.8477143E-2,7.938125E-2,1.2877873E-1,-5.5755325E-2,-3.185526E-1,1.5063921E-2,1.1040661E-1,-3.0287743E-1,2.1456645E-1,-9.7425014E-2],"categories":[],"categories_nodes":[],"categories_segments":[],"categories_sizes":[],"default_left":[0,0,0,0,0,0,0,0,0,0,0,0,0,0,0,0,0,0,0,0,0,0,0,0,0,0,0,0,0,0,0,0,0,0,0,0,0,0,0,0,0,0,0,0,0,0,0,0,0,0,0,0,0,0,0],"id":16,"left_children":[1,3,5,7,9,11,13,15,17,19,21,23,-1,25,27,29,31,33,35,37,39,41,43,45,47,49,51,-1,53,-1,-1,-1,-1,-1,-1,-1,-1,-1,-1,-1,-1,-1,-1,-1,-1,-1,-1,-1,-1,-1,-1,-1,-1,-1,-1],"loss_changes":[2.1008357E2,1.2887674E2,9.739267E1,1.3750342E2,7.685979E1,9.96407E1,8.320385E1,9.948224E1,1.16313E2,1.3155695E2,8.043103E1,7.998709E1,0E0,8.809898E1,1.2631778E2,7.554614E1,8.428143E1,1.05042595E2,9.778369E1,1.0668819E2,1.4458588E2,6.4281616E0,8.150163E1,6.148731E1,1.057944E2,1.7042801E2,9.467147E1,0E0,1.12418495E2,0E0,0E0,0E0,0E0,0E0,0E0,0E0,0E0,0E0,0E0,0E0,0E0,0E0,0E0,0E0,0E0,0E0,0E0,0E0,0E0,0E0,0E0,0E0,0E0,0E0,0E0],"parents":[2147483647,0,0,1,1,2,2,3,3,4,4,5,5,6,6,7,7,8,8,9,9,10,10,11,11,13,13,14,14,15,15,16,16,17,17,18,18,19,19,20,20,21,21,22,22,23,23,24,24,25,25,26,26,28,28],"right_children":[2,4,6,8,10,12,14,16,18,20,22,24,-1,26,28,30,32,34,36,38,40,42,44,46,48,50,52,-1,54,-1,-1,-1,-1,-1,-1,-1,-1,-1,-1,-1,-1,-1,-1,-1,-1,-1,-1,-1,-1,-1,-1,-1,-1,-1,-1],"split_conditions":[1.2222222E0,1.5E0,1.5E0,-4.9E-2,2.0279448E-1,7.6E-2,3.02E1,5.190387E-2,5E0,9.8E0,-3.976882E1,-1.3472214E0,-3.3873695E-1,9.3E0,7.2381926E0,-4.33E0,5.06E0,4.49E1,4.6758146E0,9.02E1,4.5666666E0,-4.6115372E-2,5.211687E0,-5E-1,1.866E1,2.1525E0,7.4E-2,-4.5350656E-1,2.505392E0,-8.196243E-2,6.4597815E-2,1.02087356E-1,3.596086E-1,-1.0012819E-2,-1.9463567E-1,4.6288228E-1,-0E0,-2.682281E-2,-3.0710205E-1,-1.0371247E-1,-4.0866554E-1,-3.8985452E-1,-1.2298898E-1,-0E0,-7.269048E-2,-4.8477143E-2,7.938125E-2,1.2877873E-1,-5.5755325E-2,-3.185526E-1,1.5063921E-2,1.1040661E-1,-3.0287743E-1,2.1456645E-1,-9.7425014E-2],"split_indices":[56,0,0,125,60,125,70,108,105,123,106,99,0,17,116,101,96,128,117,49,21,80,117,127,101,29,125,0,29,0,0,0,0,0,0,0,0,0,0,0,0,0,0,0,0,0,0,0,0,0,0,0,0,0,0],"split_type":[0,0,0,0,0,0,0,0,0,0,0,0,0,0,0,0,0,0,0,0,0,0,0,0,0,0,0,0,0,0,0,0,0,0,0,0,0,0,0,0,0,0,0,0,0,0,0,0,0,0,0,0,0,0,0],"sum_hessian":[2.3653284E3,1.7628273E3,6.025012E2,1.0030414E3,7.597859E2,3.2757773E2,2.749235E2,1.918787E2,8.1116266E2,2.1465088E2,5.45135E2,3.245403E2,3.0374026E0,2.1636143E2,5.856205E1,1.4128853E2,5.0590176E1,7.990866E2,1.2076051E1,1.6010495E2,5.454593E1,6.264105E0,5.388709E2,1.0618317E2,2.1835715E2,1.2572641E2,9.063502E1,4.8701973E0,5.3691853E1,3.1709145E1,1.0957938E2,3.8769165E1,1.1821008E1,7.7732513E2,2.176148E1,5.6466713E0,6.4293795E0,1.5071927E2,9.38568E0,3.8974434E1,1.5571496E1,3.2190678E0,3.0450373E0,3.8284253E2,1.5602841E2,5.132651E1,5.485666E1,1.9391154E2,2.4445597E1,1.1046541E1,1.1467987E2,8.757473E1,3.0602906E0,9.020408E0,4.4671448E1],"tree_param":{"num_deleted":"0","num_feature":"130","num_nodes":"55","size_leaf_vector":"1"}},{"base_weights":[2.7740913E-2,2.2225067E-1,-5.614415E-1,3.8255033E-1,-4.2274863E-1,-9.148662E-1,1.4833158E-1,4.432142E-1,-9.6718943E-1,-1.6341894E0,-1.5489164E-1,-1.111228E0,1.9383527E-1,-1.0086369E-1,3.0585346E0,5.8698905E-1,-1.00656345E-1,-2.0445495E0,2.8989708E-1,-3.4248347E0,-7.101647E-1,1.5256445E-1,-1.3109038E0,2.8078517E-1,-1.1658504E0,-1.3025041E0,9.3737316E-1,2.463788E0,-3.445683E-1,1.3405465E-1,5.8096843E0,-2.6457855E-1,5.208636E-2,-3.3430494E-2,8.122074E-2,-4.4665006E-1,-8.842532E-2,-4.3361217E-2,2.6472408E-1,-8.231897E-2,-5.46633E-1,-9.931003E-2,1.5880188E-1,-2.2326404E-2,8.958549E-2,-6.6858925E-2,-4.506642E-1,-1.922511E-2,-1.1950245E-1,-1.8134716E-1,8.422605E-2,-2.0410871E-2,2.0423976E-1,3.9603785E-2,6.067918E-1,5.1959615E-2,-7.0740856E-2,-9.42787E-2,1.3398178E-1,8.2770264E-1,-2.8253278E-2],"categories":[],"categories_nodes":[],"categories_segments":[],"categories_sizes":[],"default_left":[0,0,0,0,0,0,0,0,0,0,0,0,0,0,0,0,0,0,0,0,0,0,0,0,0,0,0,0,0,0,0,0,0,0,0,0,0,0,0,0,0,0,0,0,0,0,0,0,0,0,0,0,0,0,0,0,0,0,0,0,0],"id":17,"left_children":[1,3,5,7,9,11,13,15,17,19,21,23,25,27,29,31,33,35,37,39,41,43,45,-1,47,49,51,53,55,57,59,-1,-1,-1,-1,-1,-1,-1,-1,-1,-1,-1,-1,-1,-1,-1,-1,-1,-1,-1,-1,-1,-1,-1,-1,-1,-1,-1,-1,-1,-1],"loss_changes":[2.7076178E2,1.83929E2,1.4746236E2,1.1696471E2,1.1397662E2,8.584772E1,1.4313672E2,1.06900665E2,8.441333E1,1.0132919E2,1.0415042E2,8.4187744E1,6.7710556E1,1.13530876E2,1.22410995E2,1.0639142E2,8.873315E1,9.9193344E1,6.878529E1,1.477226E2,5.3977074E1,8.713415E1,1.21979546E2,0E0,7.39043E1,4.132224E1,7.1687256E1,1.4093295E2,7.844946E1,1.7954298E1,1.9861273E2,0E0,0E0,0E0,0E0,0E0,0E0,0E0,0E0,0E0,0E0,0E0,0E0,0E0,0E0,0E0,0E0,0E0,0E0,0E0,0E0,0E0,0E0,0E0,0E0,0E0,0E0,0E0,0E0,0E0,0E0],"parents":[2147483647,0,0,1,1,2,2,3,3,4,4,5,5,6,6,7,7,8,8,9,9,10,10,11,11,12,12,13,13,14,14,15,15,16,16,17,17,18,18,19,19,20,20,21,21,22,22,24,24,25,25,26,26,27,27,28,28,29,29,30,30],"right_children":[2,4,6,8,10,12,14,16,18,20,22,24,26,28,30,32,34,36,38,40,42,44,46,-1,48,50,52,54,56,58,60,-1,-1,-1,-1,-1,-1,-1,-1,-1,-1,-1,-1,-1,-1,-1,-1,-1,-1,-1,-1,-1,-1,-1,-1,-1,-1,-1,-1,-1,-1],"split_conditions":[1.2222222E0,3.4E-2,3.31E-1,3.4110615E-1,1E0,1.7E1,4.6369606E-1,2.6083332E-1,1.9336706E0,1.2759458E0,9.5E0,4E0,1.8181744E0,-1.275E0,8.5E0,2.5909624E-1,1.2222222E0,6.058157E-1,4.290719E0,-3.4854016E-3,1.5420574E3,5.337522E0,1.6373891E0,2.8078517E-1,6.8398995E0,3.1333333E-1,4.013633E0,-1.549556E0,6.55E-1,4.699642E0,3.41E-1,-2.6457855E-1,5.208636E-2,-3.3430494E-2,8.122074E-2,-4.4665006E-1,-8.842532E-2,-4.3361217E-2,2.6472408E-1,-8.231897E-2,-5.46633E-1,-9.931003E-2,1.5880188E-1,-2.2326404E-2,8.958549E-2,-6.6858925E-2,-4.506642E-1,-1.922511E-2,-1.1950245E-1,-1.8134716E-1,8.422605E-2,-2.0410871E-2,2.0423976E-1,3.9603785E-2,6.067918E-1,5.1959615E-2,-7.0740856E-2,-9.42787E-2,1.3398178E-1,8.2770264E-1,-2.8253278E-2],"split_indices":[52,125,69,82,66,61,6,53,114,94,3,42,115,90,1,6,56,86,18,113,72,21,16,0,19,85,21,90,124,25,67,0,0,0,0,0,0,0,0,0,0,0,0,0,0,0,0,0,0,0,0,0,0,0,0,0,0,0,0,0,0],"split_type":[0,0,0,0,0,0,0,0,0,0,0,0,0,0,0,0,0,0,0,0,0,0,0,0,0,0,0,0,0,0,0,0,0,0,0,0,0,0,0,0,0,0,0,0,0,0,0,0,0,0,0,0,0,0,0,0,0,0,0,0,0],"sum_hessian":[2.3611665E3,1.7760852E3,5.850813E2,1.4233213E3,3.5276395E2,3.9066965E2,1.9441162E2,1.3630737E3,6.0247513E1,6.2588577E1,2.9017538E2,3.321331E2,5.8536556E1,1.8000502E2,1.4406602E1,1.0784735E3,2.846002E2,3.2190254E1,2.8057259E1,2.0119226E1,4.246935E1,2.2978712E2,6.0388245E1,3.1434736E0,3.2898962E2,1.899905E1,3.953751E1,1.4590981E1,1.6541405E2,7.6284027E0,6.7781997E0,6.55271E0,1.0719208E3,2.23644E2,6.095619E1,6.4144206E0,2.5775833E1,2.2516548E1,5.5407104E0,1.1983428E1,8.135798E0,3.669665E1,5.772699E0,1.5765585E2,7.213127E1,5.4685642E1,5.7026005E0,6.7927734E1,2.610619E2,1.4101471E1,4.897579E0,2.2348774E1,1.7188734E1,1.1166823E1,3.4241571E0,5.559176E1,1.0982228E2,4.121057E0,3.5073457E0,3.7493176E0,3.028882E0],"tree_param":{"num_deleted":"0","num_feature":"130","num_nodes":"61","size_leaf_vector":"1"}},{"base_weights":[-1.837118E-2,3.5669383E-1,-3.1545874E-1,-1.5542275E-1,5.86104E-1,3.9253464E-1,-4.481325E-1,-3.133141E-2,-3.4241924E0,-3.5930136E-1,7.5014114E-1,5.817643E-1,-3.494318E0,-4.0927768E-1,-3.1242304E0,-2.8475575E0,1.015701E-1,-8.511E-6,-5.266043E0,-1.221785E-1,-3.9080384E-1,6.6454464E-1,2.598152E0,2.608088E0,3.848551E-1,-7.211751E-2,-5.3264296E-1,2.7664268E-1,-5.454538E-1,-6.914931E-2,-4.3009696E0,-3.5321528E-1,1.1249102E-1,5.149786E-2,-4.3391794E-2,-1.3292745E-1,-6.28332E-1,-9.141334E-2,5.596598E-2,1.4945476E-1,4.6993665E-2,-6.6390105E-2,2.7305105E-1,-2.5271539E-2,3.8769138E-1,3.3210963E-1,1.9255677E-2,1.1045834E-1,-1.8497173E-2,-3.57016E-2,-1.1372443E-1,-5.399386E-1,-1.5309955E-1],"categories":[],"categories_nodes":[],"categories_segments":[],"categories_sizes":[],"default_left":[0,0,0,0,0,0,0,0,0,0,0,0,0,0,0,0,0,0,0,0,0,0,0,0,0,0,0,0,0,0,0,0,0,0,0,0,0,0,0,0,0,0,0,0,0,0,0,0,0,0,0,0,0],"id":18,"left_children":[1,3,5,7,9,11,13,15,17,19,21,23,25,27,29,31,33,-1,35,37,-1,39,41,43,45,-1,-1,47,49,-1,51,-1,-1,-1,-1,-1,-1,-1,-1,-1,-1,-1,-1,-1,-1,-1,-1,-1,-1,-1,-1,-1,-1],"loss_changes":[2.6630923E2,1.2430319E2,1.2553943E2,1.3147298E2,1.1363924E2,1.5645168E2,1.1430859E2,1.1966518E2,7.310603E1,1.0688568E2,9.5450745E1,7.8502846E1,6.406166E1,1.0392873E2,3.725267E1,8.611288E1,9.4125305E1,0E0,4.4080856E1,7.841845E1,0E0,7.0842804E1,5.997026E1,1.02727875E2,1.0115971E2,0E0,0E0,9.3933395E1,9.079208E1,0E0,3.6024918E1,0E0,0E0,0E0,0E0,0E0,0E0,0E0,0E0,0E0,0E0,0E0,0E0,0E0,0E0,0E0,0E0,0E0,0E0,0E0,0E0,0E0,0E0],"parents":[2147483647,0,0,1,1,2,2,3,3,4,4,5,5,6,6,7,7,8,8,9,9,10,10,11,11,12,12,13,13,14,14,15,15,16,16,18,18,19,19,21,21,22,22,23,23,24,24,27,27,28,28,30,30],"right_children":[2,4,6,8,10,12,14,16,18,20,22,24,26,28,30,32,34,-1,36,38,-1,40,42,44,46,-1,-1,48,50,-1,52,-1,-1,-1,-1,-1,-1,-1,-1,-1,-1,-1,-1,-1,-1,-1,-1,-1,-1,-1,-1,-1,-1],"split_conditions":[1.1111112E0,7.5E0,1.4691058E3,8.8E-2,1.463074E3,6.01E0,1.2823988E1,-1.6089686E0,-3.2763E-1,9.16E1,2.1976125E0,-5.8000656E-3,8.6150465E0,2.95E0,2.6002998E0,9E0,9.619217E0,-8.511E-6,3.130984E0,4.6060576E0,-3.9080384E-1,-1.296015E0,-1.133E1,6E0,-2E0,-7.211751E-2,-5.3264296E-1,2.8013246E0,2.633274E0,-6.914931E-2,4.5323877E0,-3.5321528E-1,1.1249102E-1,5.149786E-2,-4.3391794E-2,-1.3292745E-1,-6.28332E-1,-9.141334E-2,5.596598E-2,1.4945476E-1,4.6993665E-2,-6.6390105E-2,2.7305105E-1,-2.5271539E-2,3.8769138E-1,3.3210963E-1,1.9255677E-2,1.1045834E-1,-1.8497173E-2,-3.57016E-2,-1.1372443E-1,-5.399386E-1,-1.5309955E-1],"split_indices":[52,68,72,125,71,66,29,110,129,49,8,112,116,15,32,1,121,0,25,23,0,113,101,61,5,0,0,92,98,0,107,0,0,0,0,0,0,0,0,0,0,0,0,0,0,0,0,0,0,0,0,0,0],"split_type":[0,0,0,0,0,0,0,0,0,0,0,0,0,0,0,0,0,0,0,0,0,0,0,0,0,0,0,0,0,0,0,0,0,0,0,0,0,0,0,0,0,0,0,0,0,0,0,0,0,0,0,0,0],"sum_hessian":[2.3877778E3,1.054803E3,1.332975E3,3.2601193E2,7.28791E2,2.0962923E2,1.1233457E3,3.1530893E2,1.0702984E1,1.07262146E2,6.215289E2,2.009148E2,8.714438E0,1.1087029E3,1.4642772E1,1.3252858E1,3.020561E2,4.2095E0,6.4934845E0,1.0278329E2,4.4788585E0,5.956856E2,2.584329E1,1.6394768E1,1.8452002E2,5.2964525E0,3.4179864E0,1.8306207E2,9.2564087E2,5.694824E0,8.947948E0,1.0145279E1,3.1075792E0,1.6588153E2,1.3617455E2,3.1620798E0,3.3314047E0,4.6256546E1,5.652674E1,5.308543E1,5.4260016E2,3.8596296E0,2.198366E1,6.926031E0,9.468737E0,6.6555743E0,1.7786444E2,5.921034E1,1.2385174E2,8.0145575E2,1.2418508E2,3.8570938E0,5.090854E0],"tree_param":{"num_deleted":"0","num_feature":"130","num_nodes":"53","size_leaf_vector":"1"}},{"base_weights":[9.646294E-3,3.020833E-1,-2.282349E-1,2.814741E-1,3.8149914E-1,2.1383151E-1,-4.3204346E-1,5.1244277E-1,-9.33447E-2,6.2416404E-1,-1.9909702E-1,-3.3996433E-1,-2.002887E0,1.7518945E0,4.0538502E-1,-7.353946E-1,3.6453915E-1,4.2030888E0,4.4202387E-1,-4.3698502E-1,1.4687369E0,-4.383954E-1,6.2650216E-1,-5.593821E-1,-1.4575251E0,6.589242E-2,2.5261992E-1,-2.7409896E-2,5.001782E-2,-1.5960568E-1,-7.0275454E-4,4.706473E-2,-1.906973E-1,6.6536975E-1,9.456025E-2,-7.754435E-2,6.225199E-2,-1.6389668E-2,-1.880981E-1,2.236871E-1,-1.1621062E-1,1.1016059E-2,-5.350978E-2,1.0355599E-1,-1.5032919E-1,-3.0339706E-1,-6.906596E-2],"categories":[],"categories_nodes":[],"categories_segments":[],"categories_sizes":[],"default_left":[0,0,0,0,0,0,0,0,0,0,0,0,0,0,0,0,0,0,0,0,0,0,0,0,0,0,0,0,0,0,0,0,0,0,0,0,0,0,0,0,0,0,0,0,0,0,0],"id":19,"left_children":[1,3,5,7,-1,9,11,13,15,17,19,21,23,25,27,29,31,33,35,37,39,41,43,-1,45,-1,-1,-1,-1,-1,-1,-1,-1,-1,-1,-1,-1,-1,-1,-1,-1,-1,-1,-1,-1,-1,-1],"loss_changes":[1.6590294E2,8.940713E1,1.18594E2,9.249834E1,0E0,7.0600365E1,1.2870369E2,8.611992E1,1.2007643E2,1.3248737E2,8.267549E1,8.132696E1,1.0985292E2,5.8076096E1,8.17696E1,1.408378E2,1.1867953E2,9.799791E1,7.959629E1,7.790378E1,9.043376E1,8.455609E1,1.1446142E2,0E0,5.7528366E1,0E0,0E0,0E0,0E0,0E0,0E0,0E0,0E0,0E0,0E0,0E0,0E0,0E0,0E0,0E0,0E0,0E0,0E0,0E0,0E0,0E0,0E0],"parents":[2147483647,0,0,1,1,2,2,3,3,5,5,6,6,7,7,8,8,9,9,10,10,11,11,12,12,13,13,14,14,15,15,16,16,17,17,18,18,19,19,20,20,21,21,22,22,24,24],"right_children":[2,4,6,8,-1,10,12,14,16,18,20,22,24,26,28,30,32,34,36,38,40,42,44,-1,46,-1,-1,-1,-1,-1,-1,-1,-1,-1,-1,-1,-1,-1,-1,-1,-1,-1,-1,-1,-1,-1,-1],"split_conditions":[1.1111112E0,9E1,3.07E-1,1.5E0,3.8149914E-1,4.4142857E0,2.4218348E-1,-4.45E0,1.1111112E0,1.4642214E0,6.775E0,1.6468617E0,3.5307589E0,3.0596027E0,-1.5145068E-1,8.727546E0,1.2927195E1,3E0,2.75E1,1.3333334E0,2.4381673E0,-3E1,5.1455026E0,-5.593821E-1,2.505621E-1,6.589242E-2,2.5261992E-1,-2.7409896E-2,5.001782E-2,-1.5960568E-1,-7.0275454E-4,4.706473E-2,-1.906973E-1,6.6536975E-1,9.456025E-2,-7.754435E-2,6.225199E-2,-1.6389668E-2,-1.880981E-1,2.236871E-1,-1.1621062E-1,1.1016059E-2,-5.350978E-2,1.0355599E-1,-1.5032919E-1,-3.0339706E-1,-6.906596E-2],"split_indices":[52,38,67,2,0,14,7,111,56,114,13,113,23,92,45,17,28,59,70,52,91,41,25,0,7,0,0,0,0,0,0,0,0,0,0,0,0,0,0,0,0,0,0,0,0,0,0],"split_type":[0,0,0,0,0,0,0,0,0,0,0,0,0,0,0,0,0,0,0,0,0,0,0,0,0,0,0,0,0,0,0,0,0,0,0,0,0,0,0,0,0,0,0,0,0,0,0],"sum_hessian":[2.3822068E3,1.0690364E3,1.3131704E3,1.0651091E3,3.9273462E0,4.1386053E2,8.993098E2,6.592827E2,4.0582635E2,2.0767642E2,2.061841E2,8.5103687E2,4.8273006E1,5.0765182E1,6.085176E2,1.68939E2,2.3688734E2,8.734308E0,1.9894211E2,1.8136285E2,2.4821249E1,7.7324945E2,7.778741E1,3.707183E0,4.4565823E1,2.94248E1,2.1340382E1,1.2196961E2,4.8654794E2,6.477322E1,1.0416579E2,2.2180856E2,1.5078781E1,3.1505735E0,5.583735E0,3.4530228E1,1.6441188E2,1.6075963E2,2.0603224E1,1.7735182E1,7.0860677E0,1.9470386E2,5.785456E2,6.2925873E1,1.4861534E1,9.063385E0,3.5502438E1],"tree_param":{"num_deleted":"0","num_feature":"130","num_nodes":"47","size_leaf_vector":"1"}},{"base_weights":[-9.021864E-3,-1.8250659E-1,4.8478565E-1,7.1645874E-1,-2.576997E-1,3.7791178E-1,2.5623918E0,2.850181E0,3.1700164E-1,-2.2768433E-1,-2.2397435E0,4.8013058E-1,-1.947401E0,5.1881156E0,5.5976546E-1,1.4222666E0,5.317686E0,-1.6233556E-1,1.6879901E0,-8.001111E-2,-6.8920356E-1,-5.131175E-1,-8.280074E-1,1.3749251E0,3.121735E-1,-5.4757565E-1,-2.939882E-1,1.4463398E0,8.6196256E-1,2.3624458E0,-8.001343E-1,-2.0430978E-2,1.6512254E-1,6.015881E-1,1.7666541E-1,2.1255648E-1,-3.563277E-2,5.033013E-1,6.369663E-2,9.6101016E-2,-1.4513359E-2,-7.110461E-2,2.9587155E-2,4.6103492E-2,-2.601889E-1,3.877939E-1,7.8482576E-2,3.1427372E-2,-2.8736025E-1,7.376601E-2,-2.5014326E-1,-3.632778E-2,2.4082188E-1,-8.599988E-3,3.8180462E-1,-1.9063392E-1,4.3008614E-2],"categories":[],"categories_nodes":[],"categories_segments":[],"categories_sizes":[],"default_left":[0,0,0,0,0,0,0,0,0,0,0,0,0,0,0,0,0,0,0,0,0,0,0,0,0,0,0,0,0,0,0,0,0,0,0,0,0,0,0,0,0,0,0,0,0,0,0,0,0,0,0,0,0,0,0,0,0],"id":20,"left_children":[1,3,5,7,9,11,13,15,17,19,21,23,25,27,29,31,33,35,37,39,41,-1,43,45,47,-1,49,51,-1,53,55,-1,-1,-1,-1,-1,-1,-1,-1,-1,-1,-1,-1,-1,-1,-1,-1,-1,-1,-1,-1,-1,-1,-1,-1,-1,-1],"loss_changes":[2.0768555E2,1.2142163E2,1.3784149E2,1.1602744E2,9.724826E1,1.4340916E2,1.5506172E2,6.5099976E1,7.844066E1,1.1109523E2,1.2317475E2,8.5606995E1,1.8456421E2,2.2017673E2,4.8430935E1,1.43918495E1,2.2316513E1,6.114455E1,1.1545668E2,1.3644273E2,6.122496E1,0E0,6.1650417E1,1.23517426E2,1.0463525E2,0E0,6.476038E1,2.5046782E1,0E0,4.6172108E1,2.3383965E1,0E0,0E0,0E0,0E0,0E0,0E0,0E0,0E0,0E0,0E0,0E0,0E0,0E0,0E0,0E0,0E0,0E0,0E0,0E0,0E0,0E0,0E0,0E0,0E0,0E0,0E0],"parents":[2147483647,0,0,1,1,2,2,3,3,4,4,5,5,6,6,7,7,8,8,9,9,10,10,11,11,12,12,13,13,14,14,15,15,16,16,17,17,18,18,19,19,20,20,22,22,23,23,24,24,26,26,27,27,29,29,30,30],"right_children":[2,4,6,8,10,12,14,16,18,20,22,24,26,28,30,32,34,36,38,40,42,-1,44,46,48,-1,50,52,-1,54,56,-1,-1,-1,-1,-1,-1,-1,-1,-1,-1,-1,-1,-1,-1,-1,-1,-1,-1,-1,-1,-1,-1,-1,-1,-1,-1],"split_conditions":[1.2222222E0,-6.3E-2,1.5509304E3,5.56327E-1,1.35E1,1.5449026E3,4.9809426E-1,9.002703E0,2.3831363E-1,1.2222222E0,2.168E1,1.34E0,8.3889E0,3.7934158E0,-1.7777778E-1,2.3405406E0,1.1626115E0,6.8E0,-2.636574E-2,3.1914893E-1,6.793493E0,-5.131175E-1,3.403346E-1,-1.1723205E-1,8.1E-2,-5.4757565E-1,2.3831363E-1,2.7777778E-3,8.6196256E-1,1.5E1,3.8543897E0,-2.0430978E-2,1.6512254E-1,6.015881E-1,1.7666541E-1,2.1255648E-1,-3.563277E-2,5.033013E-1,6.369663E-2,9.6101016E-2,-1.4513359E-2,-7.110461E-2,2.9587155E-2,4.6103492E-2,-2.601889E-1,3.877939E-1,7.8482576E-2,3.1427372E-2,-2.8736025E-1,7.376601E-2,-2.5014326E-1,-3.632778E-2,2.4082188E-1,-8.599988E-3,3.8180462E-1,-1.9063392E-1,4.3008614E-2],"split_indices":[56,125,72,86,3,72,55,19,113,52,100,66,121,25,111,9,16,68,57,40,9,0,95,88,125,0,113,85,0,33,27,0,0,0,0,0,0,0,0,0,0,0,0,0,0,0,0,0,0,0,0,0,0,0,0,0,0],"split_type":[0,0,0,0,0,0,0,0,0,0,0,0,0,0,0,0,0,0,0,0,0,0,0,0,0,0,0,0,0,0,0,0,0,0,0,0,0,0,0,0,0,0,0,0,0,0,0,0,0,0,0,0,0,0,0,0,0],"sum_hessian":[2.4230876E3,1.7941476E3,6.2893994E2,1.3739417E2,1.6567534E3,5.996179E2,2.9322006E1,2.0418894E1,1.1697527E2,1.6334695E3,2.3283943E1,5.753815E2,2.4236477E1,1.1821095E1,1.7500912E1,1.417249E1,6.246403E0,8.725447E1,2.9720802E1,1.23906E3,3.944095E2,5.215521E0,1.8068422E1,8.9316E1,4.8606546E2,5.558619E0,1.8677856E1,7.627436E0,4.1936593E0,7.260091E0,1.0240821E1,3.3872473E0,1.0785243E1,3.0883858E0,3.1580174E0,6.6803927E0,8.057408E1,4.2088375E0,2.5511965E1,8.527871E1,1.1537812E3,3.4564886E2,4.876064E1,1.1654256E1,6.414167E0,9.66192E0,7.965408E1,4.7968542E2,6.380026E0,1.3441118E1,5.236739E0,3.4893363E0,4.1380997E0,3.810404E0,3.449687E0,4.586049E0,5.654772E0],"tree_param":{"num_deleted":"0","num_feature":"130","num_nodes":"57","size_leaf_vector":"1"}},{"base_weights":[2.2945479E-3,-9.67333E-2,6.6721886E-1,1.6400485E-1,-3.0038098E-1,7.450519E-1,-3.562834E-1,-1.9790605E-1,4.491403E-1,9.2742515E-1,-3.6536524E-1,4.3830225E-1,2.0395675E0,1.1114115E0,-4.0026984E-1,6.740481E-1,-3.0940512E-1,1.9308956E0,-1.14263244E-1,4.2890477E-1,-4.7121343E-1,-5.7291273E-2,9.697759E-1,5.85366E-1,1.5711246E0,3.4696683E-1,3.8329095E-2,-5.915999E-2,4.978265E-2,3.640809E-1,5.0871186E-2,-4.976002E-2,1.692607E-1,-6.521405E-2,2.3994987E-1,9.6681975E-2,-1.1683384E-1,-9.573557E-2,8.543696E-2,2.958982E-1,-4.216805E-2,-2.4305806E-2,2.7331573E-1,1.22823074E-1,-0E0,-8.450581E-2,1.839264E-1],"categories":[],"categories_nodes":[],"categories_segments":[],"categories_sizes":[],"default_left":[0,0,0,0,0,0,0,0,0,0,0,0,0,0,0,0,0,0,0,0,0,0,0,0,0,0,0,0,0,0,0,0,0,0,0,0,0,0,0,0,0,0,0,0,0,0,0],"id":21,"left_children":[1,3,5,7,9,11,-1,13,15,17,19,21,23,25,27,29,31,33,35,37,39,41,43,-1,45,-1,-1,-1,-1,-1,-1,-1,-1,-1,-1,-1,-1,-1,-1,-1,-1,-1,-1,-1,-1,-1,-1],"loss_changes":[1.5873631E2,1.1136424E2,1.2078583E2,9.5014206E1,9.4170364E1,1.207404E2,0E0,1.07664734E2,8.819336E1,6.2797558E1,9.436545E1,6.652716E1,1.17979355E2,1.0308933E2,1.03399536E2,1.0338107E2,7.6136284E1,7.6565254E1,4.931447E1,1.1969829E2,9.9845505E1,9.8159195E1,5.624756E1,0E0,8.678035E1,0E0,0E0,0E0,0E0,0E0,0E0,0E0,0E0,0E0,0E0,0E0,0E0,0E0,0E0,0E0,0E0,0E0,0E0,0E0,0E0,0E0,0E0],"parents":[2147483647,0,0,1,1,2,2,3,3,4,4,5,5,7,7,8,8,9,9,10,10,11,11,12,12,13,13,14,14,15,15,16,16,17,17,18,18,19,19,20,20,21,21,22,22,24,24],"right_children":[2,4,6,8,10,12,-1,14,16,18,20,22,24,26,28,30,32,34,36,38,40,42,44,-1,46,-1,-1,-1,-1,-1,-1,-1,-1,-1,-1,-1,-1,-1,-1,-1,-1,-1,-1,-1,-1,-1,-1],"split_conditions":[3.54E-1,1.1111112E0,4.0885153E0,1.1111112E0,6.2744E0,1.3571429E-1,-3.562834E-1,1.0338389E0,1.430426E0,2.7171717E0,-3.0138966E-1,1.809308E-1,-2.4052441E-1,-8.55E-1,1.5E0,5.836139E0,4.8346502E-1,-6.408899E-1,1.9335039E0,2.0277777E-1,-5E0,2.85E0,5.94E0,5.85366E-1,0E0,3.4696683E-1,3.8329095E-2,-5.915999E-2,4.978265E-2,3.640809E-1,5.0871186E-2,-4.976002E-2,1.692607E-1,-6.521405E-2,2.3994987E-1,9.6681975E-2,-1.1683384E-1,-9.573557E-2,8.543696E-2,2.958982E-1,-4.216805E-2,-2.4305806E-2,2.7331573E-1,1.22823074E-1,-0E0,-8.450581E-2,1.839264E-1],"split_indices":[69,52,93,56,123,108,0,12,16,92,80,60,80,90,127,17,54,90,115,50,5,89,14,0,109,0,0,0,0,0,0,0,0,0,0,0,0,0,0,0,0,0,0,0,0,0,0],"split_type":[0,0,0,0,0,0,0,0,0,0,0,0,0,0,0,0,0,0,0,0,0,0,0,0,0,0,0,0,0,0,0,0,0,0,0,0,0,0,0,0,0,0,0,0,0,0,0],"sum_hessian":[2.405641E3,2.0942483E3,3.1139304E2,9.177995E2,1.1764487E3,3.0751648E2,3.876537E0,4.041079E2,5.136916E2,5.8115173E1,1.1183335E3,2.500599E2,5.7456577E1,5.3187775E1,3.5092014E2,3.9664093E2,1.17050644E2,2.9254564E1,2.886061E1,1.3073622E2,9.875973E2,1.2961911E2,1.204408E2,3.6005666E0,5.3856014E1,8.482703E0,4.4705074E1,2.7037744E2,8.0542694E1,6.668462E0,3.8997247E2,1.05396935E2,1.16537075E1,7.2322516E0,2.2022312E1,1.440917E1,1.4451439E1,3.4915646E1,9.582057E1,5.1823406E0,9.82415E2,1.222319E2,7.3872066E0,8.042568E1,4.0015118E1,9.880277E0,4.3975735E1],"tree_param":{"num_deleted":"0","num_feature":"130","num_nodes":"47","size_leaf_vector":"1"}},{"base_weights":[-1.0664946E-2,-3.2641742E-1,2.168242E-1,3.984061E-1,-4.6552426E-1,3.0505604E-1,-9.796483E-1,6.4263904E-1,-2.5426273E0,-1.0061965E0,-2.8859082E-1,4.3278107E-1,-3.8325167E-1,-1.3242819E0,3.2555553E-1,3.9431846E-1,2.8451667E0,-4.0401635E-1,-8.8961765E-2,-8.4918994E-1,-4.4731317E0,-1.0125228E0,-7.443396E-2,1.507973E0,3.6512092E-1,-2.017393E0,8.821067E-2,-2.7842468E-1,-2.7564728E0,9.933421E-2,-2.8708331E-2,9.35562E-2,4.8047262E-1,-7.790602E-2,5.7853315E-2,2.0045301E-1,-8.425145E-2,-7.5079486E-2,-5.4354626E-1,3.2833543E-2,-1.20078206E-1,1.8965013E-3,-1.6644035E-1,5.3682674E-2,2.7490985E-1,1.4713983E-1,2.646113E-2,-9.1172345E-2,-5.540119E-1,9.391423E-2,-6.374473E-2,1.975443E-2,-4.5582792E-1,-7.684483E-1,-1.4976959E-1],"categories":[],"categories_nodes":[],"categories_segments":[],"categories_sizes":[],"default_left":[0,0,0,0,0,0,0,0,0,0,0,0,0,0,0,0,0,0,0,0,0,0,0,0,0,0,0,0,0,0,0,0,0,0,0,0,0,0,0,0,0,0,0,0,0,0,0,0,0,0,0,0,0,0,0],"id":22,"left_children":[1,3,5,7,9,11,13,15,17,19,21,23,25,27,-1,29,31,-1,33,35,37,39,41,43,45,47,49,51,53,-1,-1,-1,-1,-1,-1,-1,-1,-1,-1,-1,-1,-1,-1,-1,-1,-1,-1,-1,-1,-1,-1,-1,-1,-1,-1],"loss_changes":[1.7336543E2,1.02180534E2,1.4813358E2,1.1839906E2,8.048248E1,1.1509792E2,1.6481282E2,8.056006E1,6.6594086E1,1.0736319E2,9.907645E1,7.9017975E1,1.5858574E2,1.3413983E2,0E0,7.889448E1,6.4352715E1,0E0,5.418454E0,9.434274E1,5.106848E1,8.298297E1,9.1323456E1,9.430554E1,7.487608E1,1.8529852E2,1.3751476E2,1.4323405E2,2.1585614E2,0E0,0E0,0E0,0E0,0E0,0E0,0E0,0E0,0E0,0E0,0E0,0E0,0E0,0E0,0E0,0E0,0E0,0E0,0E0,0E0,0E0,0E0,0E0,0E0,0E0,0E0],"parents":[2147483647,0,0,1,1,2,2,3,3,4,4,5,5,6,6,7,7,8,8,9,9,10,10,11,11,12,12,13,13,15,15,16,16,18,18,19,19,20,20,21,21,22,22,23,23,24,24,25,25,26,26,27,27,28,28],"right_children":[2,4,6,8,10,12,14,16,18,20,22,24,26,28,-1,30,32,-1,34,36,38,40,42,44,46,48,50,52,54,-1,-1,-1,-1,-1,-1,-1,-1,-1,-1,-1,-1,-1,-1,-1,-1,-1,-1,-1,-1,-1,-1,-1,-1,-1,-1],"split_conditions":[1.1111112E0,-4.5E-2,1.3333334E0,1.4188083E1,3.6E0,1.5894804E0,6.3916E0,1.775E0,1.2598805E-1,3.16341E-1,3.741228E-1,-2.9753095E-1,-1.18685156E-1,6E-3,3.2555553E-1,2.6870057E-1,3.0293975E0,-4.0401635E-1,-7.8474304E1,4.928571E0,1.5202043E0,4E0,8.8E-2,1.411326E0,1.4295356E0,4.374667E0,9.770393E0,4.7004703E-2,1.4E-2,9.933421E-2,-2.8708331E-2,9.35562E-2,4.8047262E-1,-7.790602E-2,5.7853315E-2,2.0045301E-1,-8.425145E-2,-7.5079486E-2,-5.4354626E-1,3.2833543E-2,-1.20078206E-1,1.8965013E-3,-1.6644035E-1,5.3682674E-2,2.7490985E-1,1.4713983E-1,2.646113E-2,-9.1172345E-2,-5.540119E-1,9.391423E-2,-6.374473E-2,1.975443E-2,-4.5582792E-1,-7.684483E-1,-1.4976959E-1],"split_indices":[56,125,52,107,23,12,96,8,91,82,51,82,108,125,0,129,20,0,73,28,9,31,125,120,117,15,122,57,125,0,0,0,0,0,0,0,0,0,0,0,0,0,0,0,0,0,0,0,0,0,0,0,0,0,0],"split_type":[0,0,0,0,0,0,0,0,0,0,0,0,0,0,0,0,0,0,0,0,0,0,0,0,0,0,0,0,0,0,0,0,0,0,0,0,0,0,0,0,0,0,0,0,0,0,0,0,0,0,0,0,0,0,0],"sum_hessian":[2.4107544E3,1.0099145E3,1.40084E3,1.6189299E2,8.480215E2,1.3056855E3,9.515437E1,1.5041591E2,1.1477086E1,2.0730307E2,6.4071844E2,1.1020769E3,2.0360873E2,8.964106E1,5.513318E0,1.3653342E2,1.3882487E1,5.392925E0,6.0841613E0,1.9978905E2,7.514017E0,1.4494206E2,4.9577634E2,6.350597E1,1.0385709E3,4.489259E1,1.5871614E2,5.2736977E1,3.6904083E1,6.620169E1,7.0331726E1,9.633792E0,4.2486954E0,3.026013E0,3.0581484E0,7.6478486E0,1.921412E2,3.272582E0,4.241435E0,3.2134975E1,1.1280709E2,4.724974E2,2.3278933E1,4.3322365E1,2.0183605E1,3.7564632E1,1.0010063E3,3.8360317E1,6.5322742E0,7.172127E1,8.699488E1,4.8870502E1,3.8664715E0,3.7073474E0,3.3196735E1],"tree_param":{"num_deleted":"0","num_feature":"130","num_nodes":"55","size_leaf_vector":"1"}},{"base_weights":[2.0360337E-3,3.501721E-1,-1.9557418E-1,1.3097879E0,2.4725291E-1,-6.957881E-1,-4.821979E-2,4.394405E0,8.3563066E-1,1.3407181E-1,1.1835458E0,-5.1495206E-1,-2.454312E0,-3.4502417E-1,1.6716158E-1,6.3410974E-1,1.8848614E0,1.1511065E0,-1.5945426E0,3.9051443E-2,1.3278148E0,2.119652E0,3.8494235E-1,-1.1932272E0,-5.392553E-2,-1.2308999E0,-5.230486E0,7.705036E-1,-5.439107E-1,3.8145304E-1,-4.065828E-1,2.0704888E-1,7.146907E-2,2.1300589E-1,3.6259253E-2,5.8428425E-2,-2.9652086E-1,-8.159007E-3,8.5353956E-2,-2.1563724E-1,1.4582127E-1,2.5464466E-1,2.2091005E-2,-4.5154374E-2,1.6873388E-1,-1.3235407E-1,5.472422E-2,1.570328E-1,-2.7497213E-2,-3.5458216E-1,5.3928806E-3,-5.9193486E-1,-1.0647986E-1,2.9927218E-1,2.3931902E-2,-6.9639795E-2,1.5368048E-2,9.994368E-2,1.7448604E-2,-5.459944E-2,1.4213891E-1],"categories":[],"categories_nodes":[],"categories_segments":[],"categories_sizes":[],"default_left":[0,0,0,0,0,0,0,0,0,0,0,0,0,0,0,0,0,0,0,0,0,0,0,0,0,0,0,0,0,0,0,0,0,0,0,0,0,0,0,0,0,0,0,0,0,0,0,0,0,0,0,0,0,0,0,0,0,0,0,0,0],"id":23,"left_children":[1,3,5,7,9,11,13,15,17,19,21,23,25,27,29,-1,31,33,35,37,39,41,43,45,47,49,51,53,55,57,59,-1,-1,-1,-1,-1,-1,-1,-1,-1,-1,-1,-1,-1,-1,-1,-1,-1,-1,-1,-1,-1,-1,-1,-1,-1,-1,-1,-1,-1,-1],"loss_changes":[1.6725911E2,8.610133E1,1.1396141E2,1.1799423E2,8.3860825E1,1.0954913E2,7.676776E1,6.49301E1,5.945189E1,8.034643E1,6.217424E1,9.986834E1,1.0036972E2,1.1249283E2,8.561112E1,0E0,9.6673775E-1,6.3784966E1,4.256147E1,8.675067E1,8.3408104E1,6.1634155E1,7.1781334E1,8.834218E1,9.9053474E1,9.328871E1,5.266626E1,1.00793106E2,8.633993E1,7.023938E1,9.385797E1,0E0,0E0,0E0,0E0,0E0,0E0,0E0,0E0,0E0,0E0,0E0,0E0,0E0,0E0,0E0,0E0,0E0,0E0,0E0,0E0,0E0,0E0,0E0,0E0,0E0,0E0,0E0,0E0,0E0,0E0],"parents":[2147483647,0,0,1,1,2,2,3,3,4,4,5,5,6,6,7,7,8,8,9,9,10,10,11,11,12,12,13,13,14,14,16,16,17,17,18,18,19,19,20,20,21,21,22,22,23,23,24,24,25,25,26,26,27,27,28,28,29,29,30,30],"right_children":[2,4,6,8,10,12,14,16,18,20,22,24,26,28,30,-1,32,34,36,38,40,42,44,46,48,50,52,54,56,58,60,-1,-1,-1,-1,-1,-1,-1,-1,-1,-1,-1,-1,-1,-1,-1,-1,-1,-1,-1,-1,-1,-1,-1,-1,-1,-1,-1,-1,-1,-1],"split_conditions":[3.1E-1,2.2951183E0,3.719664E-1,-2.5356334E-1,2.9520282E-1,3.3589287E0,1.1111112E0,2.3925926E-1,1.6E0,6.6E-1,-5E-1,-8.849018E-1,7.5997454E-1,-1.65E0,3.4583333E0,6.3410974E-1,1.5050436E3,4.0333333E0,3.24E1,5.6917E0,7.3174386E0,2.99E-1,4.414782E-2,3.1333333E-1,1.6723809E0,2.212963E-1,1.200333E0,2.7244544E0,5.061802E-1,3.175E0,9.053944E0,2.0704888E-1,7.146907E-2,2.1300589E-1,3.6259253E-2,5.8428425E-2,-2.9652086E-1,-8.159007E-3,8.5353956E-2,-2.1563724E-1,1.4582127E-1,2.5464466E-1,2.2091005E-2,-4.5154374E-2,1.6873388E-1,-1.3235407E-1,5.472422E-2,1.570328E-1,-2.7497213E-2,-3.5458216E-1,5.3928806E-3,-5.9193486E-1,-1.0647986E-1,2.9927218E-1,2.3931902E-2,-6.9639795E-2,1.5368048E-2,9.994368E-2,1.7448604E-2,-5.459944E-2,1.4213891E-1],"split_indices":[67,117,51,80,60,98,56,50,12,124,127,98,119,89,92,0,72,32,128,96,116,67,85,85,20,53,90,48,51,15,18,0,0,0,0,0,0,0,0,0,0,0,0,0,0,0,0,0,0,0,0,0,0,0,0,0,0,0,0,0,0],"split_type":[0,0,0,0,0,0,0,0,0,0,0,0,0,0,0,0,0,0,0,0,0,0,0,0,0,0,0,0,0,0,0,0,0,0,0,0,0,0,0,0,0,0,0,0,0,0,0,0,0,0,0,0,0,0,0,0,0,0,0,0,0],"sum_hessian":[2.4282273E3,8.795067E2,1.5487206E3,8.35733E1,7.959334E2,3.5093497E2,1.1977856E3,9.769525E0,7.380378E1,7.115826E2,8.4350876E1,3.1973474E2,3.1200237E1,5.0402078E2,6.937649E2,3.3073409E0,6.4621835E0,6.5980064E1,7.823711E0,6.604744E2,5.1108112E1,3.776549E1,4.658538E1,1.2835677E2,1.9137798E2,2.2896652E1,8.303584E0,7.551629E1,4.285045E2,5.057992E2,1.879657E2,3.0113723E0,3.4508114E0,2.1814812E1,4.4165257E1,3.808535E0,4.015176E0,5.800441E2,8.043033E1,4.0119934E0,4.709612E1,2.5049814E1,1.2715677E1,2.9993793E1,1.6591589E1,1.0737432E2,2.0982435E1,2.277825E1,1.6859973E2,6.281978E0,1.6614674E1,5.1151175E0,3.1884665E0,1.0201982E1,6.531431E1,3.1054425E2,1.1796023E2,9.0137474E1,4.156617E2,1.6965088E2,1.831483E1],"tree_param":{"num_deleted":"0","num_feature":"130","num_nodes":"61","size_leaf_vector":"1"}},{"base_weights":[7.273801E-2,3.7579924E-1,-1.7542021E-1,-2.5618017E0,4.103091E-1,-1.0990229E-1,-1.4278791E0,-4.2705977E-1,-4.116914E-1,-2.79295E-1,4.3448994E-1,3.7215862E0,-1.3796881E-1,-2.4675276E0,-4.876268E-1,-1.7496818E-1,9.52952E-2,4.7727105E-1,-1.3236488E0,6.0509916E-2,4.8402783E-1,-1.1681549E-2,-7.787143E-1,3.15351E-1,-3.18571E0,1.0459757E0,-1.4206756E0,3.863763E-2,3.2552212E-1,-4.700794E-1,3.972259E-2,-7.057403E-2,7.4345847E-3,-9.433882E-2,4.113207E-2,1.5912914E-1,-1.053964E-1,-3.384345E-1,-6.902936E-2,-8.567298E-2,1.8279037E-1,-2.4444637E-1,-8.126045E-3],"categories":[],"categories_nodes":[],"categories_segments":[],"categories_sizes":[],"default_left":[0,0,0,0,0,0,0,0,0,0,0,0,0,0,0,0,0,0,0,0,0,0,0,0,0,0,0,0,0,0,0,0,0,0,0,0,0,0,0,0,0,0,0],"id":24,"left_children":[1,3,5,7,9,11,13,15,-1,-1,17,19,21,23,25,-1,-1,27,29,-1,-1,31,33,35,37,39,41,-1,-1,-1,-1,-1,-1,-1,-1,-1,-1,-1,-1,-1,-1,-1,-1],"loss_changes":[1.8271005E2,1.1141342E2,1.0886186E2,5.8122528E1,9.752823E1,1.3601515E2,6.219113E1,2.3050728E1,0E0,0E0,8.141438E1,4.79395E1,1.018523E2,6.385141E1,5.3741592E1,0E0,0E0,7.550812E1,1.984599E2,0E0,0E0,8.614003E1,8.776883E1,2.05991E1,4.165265E1,3.5282497E1,4.347136E1,0E0,0E0,0E0,0E0,0E0,0E0,0E0,0E0,0E0,0E0,0E0,0E0,0E0,0E0,0E0,0E0],"parents":[2147483647,0,0,1,1,2,2,3,3,4,4,5,5,6,6,7,7,10,10,11,11,12,12,13,13,14,14,17,17,18,18,21,21,22,22,23,23,24,24,25,25,26,26],"right_children":[2,4,6,8,10,12,14,16,-1,-1,18,20,22,24,26,-1,-1,28,30,-1,-1,32,34,36,38,40,42,-1,-1,-1,-1,-1,-1,-1,-1,-1,-1,-1,-1,-1,-1,-1,-1],"split_conditions":[1.1111112E0,-6.212273E0,2.4550273E-1,-2.213062E0,3.6177855E0,-5E0,5.31642E-1,6.17E-1,-4.116914E-1,-2.79295E-1,1.9292907E0,1.832E1,3.164728E0,-4.6982524E-1,1.2759458E0,-1.7496818E-1,9.52952E-2,2.8019508E1,1.4811518E0,6.0509916E-2,4.8402783E-1,7.16E0,7.6499553E0,-5.602682E-1,7.5085306E-1,1.4771411E3,5.8E1,3.863763E-2,3.2552212E-1,-4.700794E-1,3.972259E-2,-7.057403E-2,7.4345847E-3,-9.433882E-2,4.113207E-2,1.5912914E-1,-1.053964E-1,-3.384345E-1,-6.902936E-2,-8.567298E-2,1.8279037E-1,-2.4444637E-1,-8.126045E-3],"split_indices":[52,83,7,111,122,5,55,124,0,0,12,104,111,129,94,0,0,27,94,0,0,11,27,98,79,71,33,0,0,0,0,0,0,0,0,0,0,0,0,0,0,0,0],"split_type":[0,0,0,0,0,0,0,0,0,0,0,0,0,0,0,0,0,0,0,0,0,0,0,0,0,0,0,0,0,0,0,0,0,0,0,0,0,0,0,0,0,0,0],"sum_hessian":[2.4263953E3,1.0926752E3,1.3337202E3,1.1594822E1,1.0810803E3,1.2688602E3,6.486004E1,6.7780633E0,4.8167586E0,5.920572E0,1.0751598E3,8.03605E0,1.2608241E3,2.9746618E1,3.5113422E1,3.2148187E0,3.5632446E0,1.050621E3,2.4538742E1,3.8754086E0,4.160641E0,1.054641E3,2.0618315E2,6.1433325E0,2.3603287E1,1.3098822E1,2.20146E1,1.0450675E3,5.553479E0,6.6550603E0,1.7883682E1,1.1335378E2,9.412872E2,1.6357658E2,4.2606564E1,3.0550914E0,3.088241E0,1.6968456E1,6.634829E0,4.5180054E0,8.580816E0,9.7218685E0,1.2292731E1],"tree_param":{"num_deleted":"0","num_feature":"130","num_nodes":"43","size_leaf_vector":"1"}},{"base_weights":[5.0750237E-2,1.6512005E-1,-3.0780834E-1,4.3080634E-1,1.9350326E-2,5.5648184E-1,-4.2010576E-1,3.9565328E-1,3.043501E-1,-6.465423E-1,1.5148103E-1,-4.0364078E-1,2.16102E0,-3.7710813E-1,-3.2239276E-1,4.5900634E-1,-1.156601E0,-3.2194915E0,-4.238059E-1,-1.562559E-2,7.274703E-1,2.3404582E0,-1.2857336E0,1.1779751E-1,5.4944205E0,-2.9144233E-1,-1.7147536E0,9.860202E-2,2.2569623E-2,-4.2930228E-1,-6.008782E-3,-4.1828597E-1,-9.607806E-2,2.5708413E-1,-4.8210345E-2,2.808717E-3,-2.536387E-1,-5.6019783E-2,9.045153E-2,7.442169E-2,3.368448E-1,-1.8926268E-2,-2.874141E-1,2.1229559E-1,-5.21575E-2,8.1871617E-1,-0E0,6.214497E-2,-3.375981E-2,-8.569389E-2,-4.1000202E-1],"categories":[],"categories_nodes":[],"categories_segments":[],"categories_sizes":[],"default_left":[0,0,0,0,0,0,0,0,0,0,0,0,0,0,0,0,0,0,0,0,0,0,0,0,0,0,0,0,0,0,0,0,0,0,0,0,0,0,0,0,0,0,0,0,0,0,0,0,0,0,0],"id":25,"left_children":[1,3,5,7,9,11,13,15,-1,17,19,21,23,25,-1,27,29,31,33,35,37,39,41,43,45,47,49,-1,-1,-1,-1,-1,-1,-1,-1,-1,-1,-1,-1,-1,-1,-1,-1,-1,-1,-1,-1,-1,-1,-1,-1],"loss_changes":[1.0085882E2,7.210951E1,5.7920723E1,7.024467E1,1.06137596E2,1.0713657E2,7.350303E1,6.4736755E1,0E0,1.1165816E2,9.7298294E1,1.0896946E2,1.7425558E2,5.857151E1,0E0,8.461087E1,1.0708787E2,4.7211594E1,9.309372E1,1.1422908E2,1.0730577E2,2.0498512E1,7.361654E1,3.2604927E1,2.231355E2,5.3610493E1,6.0464844E1,0E0,0E0,0E0,0E0,0E0,0E0,0E0,0E0,0E0,0E0,0E0,0E0,0E0,0E0,0E0,0E0,0E0,0E0,0E0,0E0,0E0,0E0,0E0,0E0],"parents":[2147483647,0,0,1,1,2,2,3,3,4,4,5,5,6,6,7,7,9,9,10,10,11,11,12,12,13,13,15,15,16,16,17,17,18,18,19,19,20,20,21,21,22,22,23,23,24,24,25,25,26,26],"right_children":[2,4,6,8,10,12,14,16,-1,18,20,22,24,26,-1,28,30,32,34,36,38,40,42,44,46,48,50,-1,-1,-1,-1,-1,-1,-1,-1,-1,-1,-1,-1,-1,-1,-1,-1,-1,-1,-1,-1,-1,-1,-1,-1],"split_conditions":[1.2222222E0,-1.6E-2,6.0914435E0,2.8E0,-1.1E0,3.48E-1,3.83E-1,3.1954987E0,3.043501E-1,5.435538E0,2.3158846E0,1.2756792E0,1.3844422E0,6.4285713E-1,-3.2239276E-1,2.1388888E-1,-3.0651588E-2,5.2596282E-2,5.1E0,1.325349E1,-1.0673683E0,-4E-1,3.29E-1,3.6168058E0,6.96E-1,3.1111112E0,9.864044E0,9.860202E-2,2.2569623E-2,-4.2930228E-1,-6.008782E-3,-4.1828597E-1,-9.607806E-2,2.5708413E-1,-4.8210345E-2,2.808717E-3,-2.536387E-1,-5.6019783E-2,9.045153E-2,7.442169E-2,3.368448E-1,-1.8926268E-2,-2.874141E-1,2.1229559E-1,-5.21575E-2,8.1871617E-1,-0E0,6.214497E-2,-3.375981E-2,-8.569389E-2,-4.1000202E-1],"split_indices":[52,125,28,8,127,69,69,114,0,28,93,120,120,35,0,50,43,58,68,18,110,127,69,14,124,10,17,0,0,0,0,0,0,0,0,0,0,0,0,0,0,0,0,0,0,0,0,0,0,0,0],"split_type":[0,0,0,0,0,0,0,0,0,0,0,0,0,0,0,0,0,0,0,0,0,0,0,0,0,0,0,0,0,0,0,0,0,0,0,0,0,0,0,0,0,0,0,0,0,0,0,0,0,0,0],"sum_hessian":[2.4580015E3,1.8647284E3,5.932731E2,6.590484E2,1.20568E3,6.736444E1,5.259086E2,6.531699E2,5.8784676E0,1.9847832E2,1.0072017E3,4.2562073E1,2.480237E1,5.206588E2,5.249764E0,6.2853937E2,2.4630531E1,1.4457259E1,1.8402106E2,7.811433E2,2.2605838E2,9.799267E0,3.2762806E1,1.6179794E1,8.622576E0,4.908724E2,2.978642E1,1.3409375E2,4.9444562E2,4.380161E0,2.025037E1,7.0080695E0,7.44919E0,6.344743E0,1.7767632E2,7.6956506E2,1.1578253E1,4.3836967E1,1.8222142E2,6.196679E0,3.602588E0,2.269827E1,1.0064535E1,3.2493854E0,1.29304085E1,4.4213924E0,4.201184E0,4.5171555E1,4.4570087E2,2.5614134E1,4.172287E0],"tree_param":{"num_deleted":"0","num_feature":"130","num_nodes":"51","size_leaf_vector":"1"}},{"base_weights":[-3.5320114E-2,-2.4036965E-1,2.1991608E-1,-9.0635496E-1,-1.19984895E-1,1.7150386E-1,2.24653E0,-1.1387258E0,9.878138E-1,3.9950375E-2,-6.185966E-1,6.5266097E-1,2.0135557E-2,5.6702584E-1,1.2257347E0,-1.2625026E0,1.712358E-1,1.3906084E-1,3.459261E-1,6.891381E-2,-3.2954606E-1,1.7880307E0,-7.987237E-1,6.1087985E-2,1.6340866E0,-8.477377E-1,1.5111624E-1,-2.3715894E-1,2.0970309E0,-2.1287085E-1,-8.272384E-2,1.4973629E-1,-8.508E-2,-1.5139901E-2,4.1805062E-2,-1.5135134E-2,2.7328074E-1,-2.4885176E-2,-1.24115236E-1,1.6010746E-1,-2.5105372E-2,2.1145214E-1,7.188139E-2,-1.09973945E-1,7.886917E-2,-1.1027721E-2,4.5761626E-2,5.4767963E-2,5.6723845E-1],"categories":[],"categories_nodes":[],"categories_segments":[],"categories_sizes":[],"default_left":[0,0,0,0,0,0,0,0,0,0,0,0,0,0,0,0,0,0,0,0,0,0,0,0,0,0,0,0,0,0,0,0,0,0,0,0,0,0,0,0,0,0,0,0,0,0,0,0,0],"id":26,"left_children":[1,3,5,7,9,11,13,15,17,19,21,23,25,-1,27,29,-1,31,-1,33,-1,35,37,39,41,43,45,-1,47,-1,-1,-1,-1,-1,-1,-1,-1,-1,-1,-1,-1,-1,-1,-1,-1,-1,-1,-1,-1],"loss_changes":[1.2847624E2,1.08724E2,1.0600545E2,9.285242E1,9.232475E1,7.761298E1,1.0214941E2,7.528145E1,5.8698456E1,9.844257E1,1.23180466E2,1.4752362E2,9.2540596E1,0E0,8.355989E1,6.0527496E1,0E0,3.834409E1,0E0,9.121851E1,0E0,5.731019E1,8.6876816E1,1.0567142E2,6.101088E1,8.623946E1,7.745917E1,0E0,1.1776337E2,0E0,0E0,0E0,0E0,0E0,0E0,0E0,0E0,0E0,0E0,0E0,0E0,0E0,0E0,0E0,0E0,0E0,0E0,0E0,0E0],"parents":[2147483647,0,0,1,1,2,2,3,3,4,4,5,5,6,6,7,7,8,8,9,9,10,10,11,11,12,12,14,14,15,15,17,17,19,19,21,21,22,22,23,23,24,24,25,25,26,26,28,28],"right_children":[2,4,6,8,10,12,14,16,18,20,22,24,26,-1,28,30,-1,32,-1,34,-1,36,38,40,42,44,46,-1,48,-1,-1,-1,-1,-1,-1,-1,-1,-1,-1,-1,-1,-1,-1,-1,-1,-1,-1,-1,-1],"split_conditions":[3.0555556E-2,-9.6376516E-2,1.4028566E1,1.5522599E3,1.2222222E0,2.4801996E0,-7.029662E-2,5.039962E-1,5.0108356E0,4.9E0,-2.9725E0,4.17974E-1,2.861247E0,5.6702584E-1,-8.523E-1,9E-1,1.712358E-1,2.390909E-1,3.459261E-1,1.3930511E0,-3.2954606E-1,-4.176074E-2,4.1E1,2.7714286E0,6.56E-1,3.2405624E0,1.6531479E0,-2.3715894E-1,3.961111E-1,-2.1287085E-1,-8.272384E-2,1.4973629E-1,-8.508E-2,-1.5139901E-2,4.1805062E-2,-1.5135134E-2,2.7328074E-1,-2.4885176E-2,-1.24115236E-1,1.6010746E-1,-2.5105372E-2,2.1145214E-1,7.188139E-2,-1.09973945E-1,7.886917E-2,-1.1027721E-2,4.5761626E-2,5.4767963E-2,5.6723845E-1],"split_indices":[45,58,27,72,52,117,88,51,14,127,44,6,117,0,97,8,0,91,0,8,0,58,33,32,124,92,95,0,85,0,0,0,0,0,0,0,0,0,0,0,0,0,0,0,0,0,0,0,0],"split_type":[0,0,0,0,0,0,0,0,0,0,0,0,0,0,0,0,0,0,0,0,0,0,0,0,0,0,0,0,0,0,0,0,0,0,0,0,0,0,0,0,0,0,0,0,0,0,0,0,0],"sum_hessian":[2.4523796E3,1.360622E3,1.0917577E3,2.067306E2,1.1538914E3,1.0676672E3,2.409052E1,1.8470322E2,2.2027388E1,8.739741E2,2.7991718E2,2.5407535E2,8.1359186E2,3.2518828E0,2.0838636E1,1.784963E2,6.2069073E0,1.8305237E1,3.7221496E0,8.6877423E2,5.1998973E0,1.8648037E1,2.6126913E2,1.5949434E2,9.4581E1,1.0553451E2,7.080573E2,3.192988E0,1.7645649E1,3.172443E1,1.4677188E2,7.409019E0,1.0896218E1,5.4843976E2,3.2033447E2,8.18219E0,1.0465846E1,1.4939545E2,1.1187368E2,2.542344E1,1.340709E2,4.3946438E1,5.063456E1,8.470925E1,2.082526E1,4.104999E2,2.9755743E2,1.4454616E1,3.1910334E0],"tree_param":{"num_deleted":"0","num_feature":"130","num_nodes":"49","size_leaf_vector":"1"}},{"base_weights":[-4.0334538E-2,1.396513E-2,-8.265085E-1,-9.9779524E-2,3.3738062E-1,-4.1307454E0,-6.161739E-1,-1.7304586E0,-6.327E-2,-2.7954695E-1,3.652965E-1,-5.6390446E-1,-3.0712403E-2,-3.7906376E-1,-2.9858012E0,2.6085305E-1,-2.5773807E0,-8.151198E-2,2.770613E0,3.1920743E-1,2.4612346E0,1.7748182E0,-6.055124E-1,-8.466397E-1,-5.154167E-1,2.4099354E-1,-1.1254332E-1,-3.228313E-1,-7.103768E-2,-2.735322E-4,-5.433342E-2,3.3792417E-2,4.2217726E-1,-5.5531394E-3,4.7646843E-2,4.3219784E-1,4.1695952E-2,-9.437345E-2,5.2226377E-1,-3.2043445E-1,-3.6474504E-2,6.6908635E-2,-2.4587235E-1],"categories":[],"categories_nodes":[],"categories_segments":[],"categories_sizes":[],"default_left":[0,0,0,0,0,0,0,0,0,0,0,0,0,0,0,0,0,0,0,0,0,0,0,0,0,0,0,0,0,0,0,0,0,0,0,0,0,0,0,0,0,0,0],"id":27,"left_children":[1,3,5,7,9,11,13,15,17,-1,19,-1,-1,21,23,25,27,29,31,33,35,37,39,41,-1,-1,-1,-1,-1,-1,-1,-1,-1,-1,-1,-1,-1,-1,-1,-1,-1,-1,-1],"loss_changes":[1.0549483E2,8.495754E1,1.06478584E2,1.0088736E2,6.13396E1,8.252086E1,8.275313E1,6.4144684E1,8.575025E1,0E0,5.5926666E1,0E0,0E0,6.87648E1,8.080219E1,5.3945393E1,5.079274E1,7.2379395E1,5.1339615E1,5.4713863E1,6.021089E1,1.7871918E2,6.757274E1,3.4691204E1,0E0,0E0,0E0,0E0,0E0,0E0,0E0,0E0,0E0,0E0,0E0,0E0,0E0,0E0,0E0,0E0,0E0,0E0,0E0],"parents":[2147483647,0,0,1,1,2,2,3,3,4,4,5,5,6,6,7,7,8,8,10,10,13,13,14,14,15,15,16,16,17,17,18,18,19,19,20,20,21,21,22,22,23,23],"right_children":[2,4,6,8,10,12,14,16,18,-1,20,-1,-1,22,24,26,28,30,32,34,36,38,40,42,-1,-1,-1,-1,-1,-1,-1,-1,-1,-1,-1,-1,-1,-1,-1,-1,-1,-1,-1],"split_conditions":[1.3333334E0,