{"learner":{"attributes":{"best_iteration":"499","best_score":"4.502769195751948","scikit_learn":"{\"_estimator_type\": \"regressor\"}"},"feature_names":[],"feature_types":[],"gradient_booster":{"model":{"cats":{"enc":[],"feature_segments":[],"sorted_idx":[]},"gbtree_model_param":{"num_parallel_tree":"1","num_trees":"550"},"iteration_indptr":[0,1,2,3,4,5,6,7,8,9,10,11,12,13,14,15,16,17,18,19,20,21,22,23,24,25,26,27,28,29,30,31,32,33,34,35,36,37,38,39,40,41,42,43,44,45,46,47,48,49,50,51,52,53,54,55,56,57,58,59,60,61,62,63,64,65,66,67,68,69,70,71,72,73,74,75,76,77,78,79,80,81,82,83,84,85,86,87,88,89,90,91,92,93,94,95,96,97,98,99,100,101,102,103,104,105,106,107,108,109,110,111,112,113,114,115,116,117,118,119,120,121,122,123,124,125,126,127,128,129,130,131,132,133,134,135,136,137,138,139,140,141,142,143,144,145,146,147,148,149,150,151,152,153,154,155,156,157,158,159,160,161,162,163,164,165,166,167,168,169,170,171,172,173,174,175,176,177,178,179,180,181,182,183,184,185,186,187,188,189,190,191,192,193,194,195,196,197,198,199,200,201,202,203,204,205,206,207,208,209,210,211,212,213,214,215,216,217,218,219,220,221,222,223,224,225,226,227,228,229,230,231,232,233,234,235,236,237,238,239,240,241,242,243,244,245,246,247,248,249,250,251,252,253,254,255,256,257,258,259,260,261,262,263,264,265,266,267,268,269,270,271,272,273,274,275,276,277,278,279,280,281,282,283,284,285,286,287,288,289,290,291,292,293,294,295,296,297,298,299,300,301,302,303,304,305,306,307,308,309,310,311,312,313,314,315,316,317,318,319,320,321,322,323,324,325,326,327,328,329,330,331,332,333,334,335,336,337,338,339,340,341,342,343,344,345,346,347,348,349,350,351,352,353,354,355,356,357,358,359,360,361,362,363,364,365,366,367,368,369,370,371,372,373,374,375,376,377,378,379,380,381,382,383,384,385,386,387,388,389,390,391,392,393,394,395,396,397,398,399,400,401,402,403,404,405,406,407,408,409,410,411,412,413,414,415,416,417,418,419,420,421,422,423,424,425,426,427,428,429,430,431,432,433,434,435,436,437,438,439,440,441,442,443,444,445,446,447,448,449,450,451,452,453,454,455,456,457,458,459,460,461,462,463,464,465,466,467,468,469,470,471,472,473,474,475,476,477,478,479,480,481,482,483,484,485,486,487,488,489,490,491,492,493,494,495,496,497,498,499,500,501,502,503,504,505,506,507,508,509,510,511,512,513,514,515,516,517,518,519,520,521,522,523,524,525,526,527,528,529,530,531,532,533,534,535,536,537,538,539,540,541,542,543,544,545,546,547,548,549,550],"tree_info":[0,0,0,0,0,0,0,0,0,0,0,0,0,0,0,0,0,0,0,0,0,0,0,0,0,0,0,0,0,0,0,0,0,0,0,0,0,0,0,0,0,0,0,0,0,0,0,0,0,0,0,0,0,0,0,0,0,0,0,0,0,0,0,0,0,0,0,0,0,0,0,0,0,0,0,0,0,0,0,0,0,0,0,0,0,0,0,0,0,0,0,0,0,0,0,0,0,0,0,0,0,0,0,0,0,0,0,0,0,0,0,0,0,0,0,0,0,0,0,0,0,0,0,0,0,0,0,0,0,0,0,0,0,0,0,0,0,0,0,0,0,0,0,0,0,0,0,0,0,0,0,0,0,0,0,0,0,0,0,0,0,0,0,0,0,0,0,0,0,0,0,0,0,0,0,0,0,0,0,0,0,0,0,0,0,0,0,0,0,0,0,0,0,0,0,0,0,0,0,0,0,0,0,0,0,0,0,0,0,0,0,0,0,0,0,0,0,0,0,0,0,0,0,0,0,0,0,0,0,0,0,0,0,0,0,0,0,0,0,0,0,0,0,0,0,0,0,0,0,0,0,0,0,0,0,0,0,0,0,0,0,0,0,0,0,0,0,0,0,0,0,0,0,0,0,0,0,0,0,0,0,0,0,0,0,0,0,0,0,0,0,0,0,0,0,0,0,0,0,0,0,0,0,0,0,0,0,0,0,0,0,0,0,0,0,0,0,0,0,0,0,0,0,0,0,0,0,0,0,0,0,0,0,0,0,0,0,0,0,0,0,0,0,0,0,0,0,0,0,0,0,0,0,0,0,0,0,0,0,0,0,0,0,0,0,0,0,0,0,0,0,0,0,0,0,0,0,0,0,0,0,0,0,0,0,0,0,0,0,0,0,0,0,0,0,0,0,0,0,0,0,0,0,0,0,0,0,0,0,0,0,0,0,0,0,0,0,0,0,0,0,0,0,0,0,0,0,0,0,0,0,0,0,0,0,0,0,0,0,0,0,0,0,0,0,0,0,0,0,0,0,0,0,0,0,0,0,0,0,0,0,0,0,0,0,0,0,0,0,0,0,0,0,0,0,0,0,0,0,0,0,0,0,0,0,0,0,0,0,0,0,0,0,0,0,0,0,0,0,0,0,0,0,0,0,0,0,0,0,0,0,0,0,0,0,0,0,0,0,0,0,0,0,0,0,0,0,0,0,0,0,0,0,0,0,0,0,0,0,0,0,0,0,0,0,0,0,0,0,0],"trees":[{"base_weights":[-6.3149457E0,-2.5142372E1,-2.5358324E0,-2.207309E1,-5.2929413E1,-6.932939E0,3.833724E0,-3.20757E1,-1.8196165E1,-3.0312805E1,-2.602037E0,-9.582976E0,-4.244401E0,1.3067642E0,9.893754E0,-3.688645E1,-1.7480827E1,-2.6709528E1,-1.690537E1,-1.7791145E1,-4.7617542E1,-1.40513315E1,-8.91026E0,-7.8556685E0,-3.71082E0,-2.1806511E-1,3.1397038E0,8.365583E0,1.7997007E1,-6.72335E-1,-4.4577178E-1,-4.178346E-1,-1.828374E-1,-3.9645985E-1,-1.3389948E-1,-4.4940364E-1,-2.1875948E-1,-3.653615E-1,-1.2939487E-1,-3.0519596E-1,-7.4215585E-1,-2.1586898E-1,-9.209925E-2,-1.3871634E-1,-9.772718E-2,-9.321433E-2,-1.8779144E-1,-5.7996616E-2,-2.333017E-2,-2.4025774E-2,7.0878346E-3,1.0340174E-2,4.9829427E-2,8.591738E-2,1.3334186E-1,5.2065915E-1,2.0997575E-1],"categories":[],"categories_nodes":[],"categories_segments":[],"categories_sizes":[],"default_left":[0,0,0,0,0,0,0,0,0,0,0,0,0,0,0,0,0,0,0,0,0,0,0,0,0,0,0,0,0,0,0,0,0,0,0,0,0,0,0,0,0,0,0,0,0,0,0,0,0,0,0,0,0,0,0,0,0],"id":0,"left_children":[1,3,5,7,9,11,13,15,17,19,-1,21,23,25,27,29,31,33,35,37,39,41,43,45,47,49,51,53,55,-1,-1,-1,-1,-1,-1,-1,-1,-1,-1,-1,-1,-1,-1,-1,-1,-1,-1,-1,-1,-1,-1,-1,-1,-1,-1,-1,-1],"loss_changes":[4.5633988E5,9.035444E4,1.4968816E5,3.693922E4,3.343665E5,2.247275E4,3.3398918E4,1.8260844E4,7.2390156E3,1.9219484E4,0E0,4.6457656E3,2.9869746E3,4.3131064E3,7.786746E3,8.0379062E3,3.158455E3,4.135379E3,5.006703E3,3.9813984E3,6.3004453E3,2.9708242E3,3.1605547E3,9.890342E2,1.6744141E3,9.9700714E2,9.644971E2,1.6124883E3,4.256711E3,0E0,0E0,0E0,0E0,0E0,0E0,0E0,0E0,0E0,0E0,0E0,0E0,0E0,0E0,0E0,0E0,0E0,0E0,0E0,0E0,0E0,0E0,0E0,0E0,0E0,0E0,0E0,0E0],"parents":[2147483647,0,0,1,1,2,2,3,3,4,4,5,5,6,6,7,7,8,8,9,9,11,11,12,12,13,13,14,14,15,15,16,16,17,17,18,18,19,19,20,20,21,21,22,22,23,23,24,24,25,25,26,26,27,27,28,28],"right_children":[2,4,6,8,10,12,14,16,18,20,-1,22,24,26,28,30,32,34,36,38,40,42,44,46,48,50,52,54,56,-1,-1,-1,-1,-1,-1,-1,-1,-1,-1,-1,-1,-1,-1,-1,-1,-1,-1,-1,-1,-1,-1,-1,-1,-1,-1,-1,-1],"split_conditions":[6.1E0,-9.3333334E-1,1.15E1,4.1E0,1.1E1,1.11E1,2.11E1,2.8216667E0,5.1E0,6.871843E-1,-2.602037E0,1.8173334E1,2.2996666E1,1.77E1,2.74E1,2.8E0,2.2076209E-1,1.1960121E2,-2.6E0,4.3011627E0,1E0,-8E-1,3.4986314E-1,8E-1,1.4375E1,2.1E0,4.5387495E-1,1.16E1,1.7142857E0,-6.72335E-1,-4.4577178E-1,-4.178346E-1,-1.828374E-1,-3.9645985E-1,-1.3389948E-1,-4.4940364E-1,-2.1875948E-1,-3.653615E-1,-1.2939487E-1,-3.0519596E-1,-7.4215585E-1,-2.1586898E-1,-9.209925E-2,-1.3871634E-1,-9.772718E-2,-9.321433E-2,-1.8779144E-1,-5.7996616E-2,-2.333017E-2,-2.4025774E-2,7.0878346E-3,1.0340174E-2,4.9829427E-2,8.591738E-2,1.3334186E-1,5.2065915E-1,2.0997575E-1],"split_indices":[13,140,13,13,54,5,5,123,5,124,0,2,2,5,5,13,17,18,120,6,53,140,17,29,5,14,17,140,15,0,0,0,0,0,0,0,0,0,0,0,0,0,0,0,0,0,0,0,0,0,0,0,0,0,0,0,0],"split_type":[0,0,0,0,0,0,0,0,0,0,0,0,0,0,0,0,0,0,0,0,0,0,0,0,0,0,0,0,0,0,0,0,0,0,0,0,0,0,0,0,0,0,0,0,0,0,0,0,0,0,0,0,0,0,0,0,0],"sum_hessian":[6.4141333E3,1.0713837E3,5.3427495E3,9.6622504E2,1.0515865E2,3.1608538E3,2.1818958E3,2.6807388E2,6.981511E2,9.157685E1,1.3581807E1,1.5904735E3,1.5703804E3,1.5406991E3,6.411966E2,2.0057391E2,6.7499985E1,8.9582466E1,6.0856866E2,5.4173172E1,3.740368E1,2.0564499E2,1.3848285E3,2.0033286E2,1.3700475E3,8.4103314E2,6.9966595E2,5.410512E2,1.0014537E2,3.9570297E1,1.6100362E2,1.3218724E1,5.428126E1,7.5533356E1,1.4049109E1,1.7499268E1,5.910694E2,2.3906664E1,3.0266506E1,9.866213E0,2.7537464E1,1.5816444E2,4.7480545E1,7.2044476E2,6.643837E2,1.7706215E2,2.3270695E1,1.0375426E3,3.3250494E2,2.7061713E2,5.70416E2,1.3993149E2,5.597345E2,2.4745715E2,2.935941E2,8.487945E0,9.1657425E1],"tree_param":{"num_deleted":"0","num_feature":"143","num_nodes":"57","size_leaf_vector":"1"}},{"base_weights":[-6.1397953E0,-2.0944187E1,-1.986864E0,-3.1269514E1,-1.5806414E1,-6.318059E0,3.836245E0,-2.556146E1,-4.3183884E1,-1.8645065E1,-1.1330333E1,-8.703953E0,-4.3343964E0,1.9076259E0,1.1344819E1,-2.8750847E1,-1.4106267E1,-3.458192E1,-6.8112045E1,-3.5820118E1,-1.8031546E1,-1.248651E1,-6.3101416E0,-1.0475994E1,-7.070735E0,-5.7261105E0,-3.2303069E0,2.030654E-1,4.0104265E0,9.131081E0,1.7071985E1,-4.404474E-1,-2.5828296E-1,-2.583429E-1,-1.403733E-1,-5.7036465E-1,-2.9306006E-1,-1.4473187E0,-3.9518812E-1,-6.518125E-1,-2.2689483E-1,-2.5934112E-1,-1.8432865E-1,-1.3369797E-1,-1.9041122E-1,-1.06837906E-1,-1.8284466E-2,-1.8301104E-1,-1.2693752E-1,-1.0660494E-1,-7.570034E-2,-1.6560605E-1,-7.217238E-2,-4.5695603E-2,5.6340363E-2,-1.6458593E-2,1.6975831E-2,4.2270303E-2,1.04652874E-1,1.2858349E-1,1.5177421E-2,2.0258677E-1,5.073325E-1],"categories":[],"categories_nodes":[],"categories_segments":[],"categories_sizes":[],"default_left":[0,0,0,0,0,0,0,0,0,0,0,0,0,0,0,0,0,0,0,0,0,0,0,0,0,0,0,0,0,0,0,0,0,0,0,0,0,0,0,0,0,0,0,0,0,0,0,0,0,0,0,0,0,0,0,0,0,0,0,0,0,0,0],"id":1,"left_children":[1,3,5,7,9,11,13,15,17,19,21,23,25,27,29,31,33,35,37,39,41,43,45,47,49,51,53,55,57,59,61,-1,-1,-1,-1,-1,-1,-1,-1,-1,-1,-1,-1,-1,-1,-1,-1,-1,-1,-1,-1,-1,-1,-1,-1,-1,-1,-1,-1,-1,-1,-1,-1],"loss_changes":[4.024519E5,7.559294E4,1.28998055E5,3.1310844E4,1.1969844E4,1.3831422E4,3.1555553E4,1.1422359E4,3.0613594E4,5.5494688E3,2.0819883E3,3.7633125E3,2.4358887E3,6.219243E3,5.4804688E3,9.3614375E3,1.1464648E3,1.0911906E4,5.631489E4,3.9036113E3,3.0139531E3,1.1701172E3,5.7637305E2,1.8640391E3,8.269922E2,1.4662266E3,1.2611416E3,1.470509E3,2.4823496E3,1.2316328E3,4.372617E3,0E0,0E0,0E0,0E0,0E0,0E0,0E0,0E0,0E0,0E0,0E0,0E0,0E0,0E0,0E0,0E0,0E0,0E0,0E0,0E0,0E0,0E0,0E0,0E0,0E0,0E0,0E0,0E0,0E0,0E0,0E0,0E0],"parents":[2147483647,0,0,1,1,2,2,3,3,4,4,5,5,6,6,7,7,8,8,9,9,10,10,11,11,12,12,13,13,14,14,15,15,16,16,17,17,18,18,19,19,20,20,21,21,22,22,23,23,24,24,25,25,26,26,27,27,28,28,29,29,30,30],"right_children":[2,4,6,8,10,12,14,16,18,20,22,24,26,28,30,32,34,36,38,40,42,44,46,48,50,52,54,56,58,60,62,-1,-1,-1,-1,-1,-1,-1,-1,-1,-1,-1,-1,-1,-1,-1,-1,-1,-1,-1,-1,-1,-1,-1,-1,-1,-1,-1,-1,-1,-1,-1,-1],"split_conditions":[6.6E0,4.5E0,1.15E1,-8.333333E-1,8.2E0,8.666667E0,1.71E1,3.0866666E0,2.6E0,3.2E0,2.721E1,1E1,1.24E1,1.4E1,7.766373E1,1.1687018E2,8.1E0,3.0670074E1,2.1E0,2E0,1.2E0,1.1E0,3.7E0,1.941E1,5.555556E-1,1.8836666E1,6.1E0,2.75E0,5.6E0,1E0,5.694444E-1,-4.404474E-1,-2.5828296E-1,-2.583429E-1,-1.403733E-1,-5.7036465E-1,-2.9306006E-1,-1.4473187E0,-3.9518812E-1,-6.518125E-1,-2.2689483E-1,-2.5934112E-1,-1.8432865E-1,-1.3369797E-1,-1.9041122E-1,-1.06837906E-1,-1.8284466E-2,-1.8301104E-1,-1.2693752E-1,-1.0660494E-1,-7.570034E-2,-1.6560605E-1,-7.217238E-2,-4.5695603E-2,5.6340363E-2,-1.6458593E-2,1.6975831E-2,4.2270303E-2,1.04652874E-1,1.2858349E-1,1.5177421E-2,2.0258677E-1,5.073325E-1],"split_indices":[13,13,13,142,4,13,13,123,56,4,2,4,4,13,127,18,48,127,11,11,31,120,134,2,29,2,14,14,14,107,35,0,0,0,0,0,0,0,0,0,0,0,0,0,0,0,0,0,0,0,0,0,0,0,0,0,0,0,0,0,0,0,0],"split_type":[0,0,0,0,0,0,0,0,0,0,0,0,0,0,0,0,0,0,0,0,0,0,0,0,0,0,0,0,0,0,0,0,0,0,0,0,0,0,0,0,0,0,0,0,0,0,0,0,0,0,0,0,0,0,0,0,0,0,0,0,0,0,0],"sum_hessian":[6.546131E3,1.4332216E3,5.112909E3,4.746833E2,9.5853827E2,2.9321548E3,2.1807546E3,3.2280707E2,1.518762E2,5.847276E2,3.7381067E2,1.3295029E3,1.6026519E3,1.7360781E3,4.4467645E2,2.5141058E2,7.13965E1,1.1445619E2,3.7420017E1,1.8414652E1,5.663129E2,3.025893E2,7.122136E1,6.350488E2,6.9445404E2,7.068587E2,8.9579315E2,9.597086E2,7.7636957E2,3.2246814E2,1.2220832E2,1.7252277E2,7.888782E1,2.7530336E1,4.3866165E1,6.85976E1,4.5858593E1,1.7567934E1,1.9852085E1,1.0083368E1,8.331284E0,4.2602667E2,1.4028627E2,1.2782764E2,1.7476167E2,5.255404E1,1.8667318E1,1.4585223E2,4.891966E2,4.203593E2,2.7409473E2,3.1552307E1,6.753064E2,8.7443616E2,2.1357006E1,4.0873477E2,5.509738E2,6.36653E2,1.3971655E2,3.0367664E2,1.8791489E1,1.1330909E2,8.899235E0],"tree_param":{"num_deleted":"0","num_feature":"143","num_nodes":"63","size_leaf_vector":"1"}},{"base_weights":[-5.982822E0,-1.9011473E1,-1.6050049E0,-2.7179409E1,-1.4149745E1,-4.9872093E0,5.276576E0,-2.3538456E1,-3.6832367E1,-1.6698164E1,-1.1802196E1,-8.024874E0,-2.9107795E0,2.768149E0,9.771677E0,-6.272225E-1,-2.274979E1,-6.7674774E1,-3.0460583E1,-1.5994264E1,-2.932178E1,-3.6008838E-1,-1.1381644E1,-9.578184E0,-7.0355196E0,-4.269623E0,-1.2429017E0,1.3183155E0,3.8071244E0,8.126101E0,1.4843808E1,-2.6876545E-1,-3.7410113E-1,-6.6253394E-1,-1.0849915E0,-6.450629E-1,-3.3933407E-1,-2.3839077E-1,-1.5973608E-1,-2.24343E-1,-5.281022E-1,-1.825133E-1,-1.3375796E-1,-1.225454E-1,-2.2853898E-1,-8.720635E-2,-1.3914198E-1,-7.684655E-2,-4.8329473E-2,2.471797E-3,-2.861814E-2,4.437455E-2,9.050057E-3,1.1515778E-2,5.752522E-2,8.905751E-2,1.3310955E-1,2.4882194E-1,1.1215685E-1],"categories":[],"categories_nodes":[],"categories_segments":[],"categories_sizes":[],"default_left":[0,0,0,0,0,0,0,0,0,0,0,0,0,0,0,0,0,0,0,0,0,0,0,0,0,0,0,0,0,0,0,0,0,0,0,0,0,0,0,0,0,0,0,0,0,0,0,0,0,0,0,0,0,0,0,0,0,0,0],"id":2,"left_children":[1,3,5,7,9,11,13,15,17,19,21,23,25,27,29,-1,31,33,35,37,39,-1,41,43,45,47,49,51,53,55,57,-1,-1,-1,-1,-1,-1,-1,-1,-1,-1,-1,-1,-1,-1,-1,-1,-1,-1,-1,-1,-1,-1,-1,-1,-1,-1,-1,-1],"loss_changes":[3.7829822E5,6.5861875E4,1.156076E5,2.1023594E4,6.0612812E3,2.0970414E4,1.841518E4,7.363203E3,3.1252547E4,3.9834844E3,3.177375E3,1.9968125E3,4.4745977E3,1.5731978E3,4.754797E3,0E0,5.560125E3,3.2872344E3,1.16321875E4,3.3108516E3,2.5891016E3,0E0,1.5246641E3,1.4539727E3,1.3542031E3,1.0247109E3,1.1439868E3,5.584515E2,8.822002E2,1.1119648E3,3.288543E3,0E0,0E0,0E0,0E0,0E0,0E0,0E0,0E0,0E0,0E0,0E0,0E0,0E0,0E0,0E0,0E0,0E0,0E0,0E0,0E0,0E0,0E0,0E0,0E0,0E0,0E0,0E0,0E0],"parents":[2147483647,0,0,1,1,2,2,3,3,4,4,5,5,6,6,7,7,8,8,9,9,10,10,11,11,12,12,13,13,14,14,16,16,17,17,18,18,19,19,20,20,22,22,23,23,24,24,25,25,26,26,27,27,28,28,29,29,30,30],"right_children":[2,4,6,8,10,12,14,16,18,20,22,24,26,28,30,-1,32,34,36,38,40,-1,42,44,46,48,50,52,54,56,58,-1,-1,-1,-1,-1,-1,-1,-1,-1,-1,-1,-1,-1,-1,-1,-1,-1,-1,-1,-1,-1,-1,-1,-1,-1,-1,-1,-1],"split_conditions":[8.7E0,5.8E0,1.68E1,-5E-1,7.3333335E0,1.15E1,2.17E1,1.8E0,1E0,4.6875E-1,-4.238333E0,9.8E0,1.4E1,3.3333333E0,2.69E1,-6.272225E-1,3.3619046E-1,2E0,-3E-1,1.745E0,2.7083334E-1,-3.6008838E-1,4.4293335E1,8.0812204E-1,4.475E-1,2.5483334E1,3.373263E-1,2.8933865E-1,5.2505676E1,1.0176E2,7.4E-1,-2.6876545E-1,-3.7410113E-1,-6.6253394E-1,-1.0849915E0,-6.450629E-1,-3.3933407E-1,-2.3839077E-1,-1.5973608E-1,-2.24343E-1,-5.281022E-1,-1.825133E-1,-1.3375796E-1,-1.225454E-1,-2.2853898E-1,-8.720635E-2,-1.3914198E-1,-7.684655E-2,-4.8329473E-2,2.471797E-3,-2.861814E-2,4.437455E-2,9.050057E-3,1.1515778E-2,5.752522E-2,8.905751E-2,1.3310955E-1,2.4882194E-1,1.1215685E-1],"split_indices":[5,5,5,142,5,5,5,4,10,131,123,4,5,10,5,0,36,56,142,123,36,0,52,124,36,3,36,124,127,20,123,0,0,0,0,0,0,0,0,0,0,0,0,0,0,0,0,0,0,0,0,0,0,0,0,0,0,0,0],"split_type":[0,0,0,0,0,0,0,0,0,0,0,0,0,0,0,0,0,0,0,0,0,0,0,0,0,0,0,0,0,0,0,0,0,0,0,0,0,0,0,0,0,0,0,0,0,0,0,0,0,0,0,0,0,0,0,0,0,0,0],"sum_hessian":[6.632606E3,1.6673444E3,4.9652617E3,6.2057697E2,1.0467673E3,3.3293596E3,1.635902E3,4.528291E2,1.6774786E2,4.991483E2,5.476191E2,1.350536E3,1.9788236E3,1.0510516E3,5.848503E2,1.310922E1,4.3971988E2,2.7290657E1,1.4045721E2,4.7470596E2,2.4442316E1,1.3279471E1,5.343396E2,5.2209436E2,8.2844165E2,1.0892494E3,8.895742E2,4.4012686E2,6.109248E2,4.4345264E2,1.4139764E2,2.9477637E2,1.4494351E2,1.3368027E1,1.3922629E1,2.9557592E1,1.1089962E2,3.244049E2,1.5030107E2,1.2012052E1,1.2430264E1,1.9867831E2,3.356613E2,4.9685083E2,2.524354E1,7.214706E2,1.06971085E2,3.3187115E2,7.5737823E2,3.430117E2,5.4656256E2,1.0548246E2,3.346444E2,8.865379E1,5.2227106E2,2.4880621E2,1.9464644E2,8.816307E1,5.323457E1],"tree_param":{"num_deleted":"0","num_feature":"143","num_nodes":"59","size_leaf_vector":"1"}},{"base_weights":[-5.758668E0,-1.41007595E1,1.916107E-1,-2.269201E1,-1.0154218E1,-2.9653838E0,6.0181713E0,-1.992637E1,-4.5224598E1,-1.1780291E1,-7.508673E0,-4.614347E0,-6.973718E-1,3.5409217E0,1.146441E1,-3.0485205E1,-1.8385824E1,-3.0691576E1,-8.946157E-1,-1.4183582E1,-9.992157E0,-1.137993E1,-7.177344E0,-6.769913E0,-4.0270085E0,-1.2283342E0,8.516004E-1,2.60772E0,5.2050505E0,9.644479E0,1.6699936E1,-6.7449147E-1,-3.7554774E-1,-3.09248E-1,-2.2738585E-1,-6.033863E-1,-3.420051E-1,-1.8055628E-1,-3.4147233E-1,-1.6592024E-1,-1.1921635E-1,-9.568197E-2,-2.2986072E-1,-1.3742816E-1,-9.069516E-2,-8.542988E-2,-2.0662297E-1,-6.973445E-2,-4.68093E-2,-7.400424E-2,-1.4272041E-2,-3.9735906E-2,1.739836E-2,4.519046E-2,1.5655272E-2,5.671213E-2,1.01948634E-1,2.8100517E-1,1.238115E-1,2.6899245E-1,1.30356E-1],"categories":[],"categories_nodes":[],"categories_segments":[],"categories_sizes":[],"default_left":[0,0,0,0,0,0,0,0,0,0,0,0,0,0,0,0,0,0,0,0,0,0,0,0,0,0,0,0,0,0,0,0,0,0,0,0,0,0,0,0,0,0,0,0,0,0,0,0,0,0,0,0,0,0,0,0,0,0,0,0,0],"id":3,"left_children":[1,3,5,7,9,11,13,15,17,19,21,23,25,27,29,31,33,35,-1,37,39,41,43,45,47,49,51,53,55,57,59,-1,-1,-1,-1,-1,-1,-1,-1,-1,-1,-1,-1,-1,-1,-1,-1,-1,-1,-1,-1,-1,-1,-1,-1,-1,-1,-1,-1,-1,-1],"loss_changes":[3.338931E5,9.470856E4,7.224732E4,5.402922E4,8.160422E3,9.515943E3,1.856786E4,1.224325E4,2.8240938E4,4.9504844E3,8.464258E2,1.828627E3,8.844193E2,1.4533174E3,3.9340664E3,3.4153828E3,4.1144062E3,3.2666602E3,0E0,3.5467734E3,1.6561875E3,1.2387456E3,7.469219E2,9.238633E2,6.9861523E2,5.406963E2,4.7186505E2,6.6821533E2,7.4898047E2,1.2018574E3,2.4019727E3,0E0,0E0,0E0,0E0,0E0,0E0,0E0,0E0,0E0,0E0,0E0,0E0,0E0,0E0,0E0,0E0,0E0,0E0,0E0,0E0,0E0,0E0,0E0,0E0,0E0,0E0,0E0,0E0,0E0,0E0],"parents":[2147483647,0,0,1,1,2,2,3,3,4,4,5,5,6,6,7,7,8,8,9,9,10,10,11,11,12,12,13,13,14,14,15,15,16,16,17,17,19,19,20,20,21,21,22,22,23,23,24,24,25,25,26,26,27,27,28,28,29,29,30,30],"right_children":[2,4,6,8,10,12,14,16,18,20,22,24,26,28,30,32,34,36,-1,38,40,42,44,46,48,50,52,54,56,58,60,-1,-1,-1,-1,-1,-1,-1,-1,-1,-1,-1,-1,-1,-1,-1,-1,-1,-1,-1,-1,-1,-1,-1,-1,-1,-1,-1,-1,-1,-1],"split_conditions":[1.08E1,6.5E0,1.78E1,-9.3333334E-1,9.8E0,1.42E1,2.29E1,3E0,2.142857E0,2.1358334E1,7.9E0,2.4085E1,1.68E1,2.4285715E0,2.74E1,4E0,3.2128215E0,2.9E0,-8.946157E-1,5.0208335E0,1.7669811E0,1.5098509E-1,1.801E1,4.1163766E-1,1.19E1,5.44E-1,5.0322905E-2,2.6086956E-1,1E1,-7.4E0,7.4E-1,-6.7449147E-1,-3.7554774E-1,-3.09248E-1,-2.2738585E-1,-6.033863E-1,-3.420051E-1,-1.8055628E-1,-3.4147233E-1,-1.6592024E-1,-1.1921635E-1,-9.568197E-2,-2.2986072E-1,-1.3742816E-1,-9.069516E-2,-8.542988E-2,-2.0662297E-1,-6.973445E-2,-4.68093E-2,-7.400424E-2,-1.4272041E-2,-3.9735906E-2,1.739836E-2,4.519046E-2,1.5655272E-2,5.671213E-2,1.01948634E-1,2.8100517E-1,1.238115E-1,2.6899245E-1,1.30356E-1],"split_indices":[5,5,5,140,4,5,5,4,56,3,5,3,5,31,5,46,6,54,0,16,9,118,3,118,5,132,119,131,140,134,123,0,0,0,0,0,0,0,0,0,0,0,0,0,0,0,0,0,0,0,0,0,0,0,0,0,0,0,0,0,0],"split_type":[0,0,0,0,0,0,0,0,0,0,0,0,0,0,0,0,0,0,0,0,0,0,0,0,0,0,0,0,0,0,0,0,0,0,0,0,0,0,0,0,0,0,0,0,0,0,0,0,0,0,0,0,0,0,0,0,0,0,0,0,0],"sum_hessian":[6.7253135E3,2.7995337E3,3.92578E3,8.798387E2,1.9196951E3,2.546301E3,1.3794789E3,7.851281E2,9.471056E1,1.1867937E3,7.3290137E2,1.4735033E3,1.0727979E3,9.493237E2,4.301551E2,9.78277E1,6.873004E2,5.7967358E1,3.6743206E1,5.034747E2,6.8331903E2,5.5228516E1,6.7767285E2,3.13111E2,1.1603922E3,7.9972955E2,2.7306827E2,6.101617E2,3.3916208E2,3.2117825E2,1.0897685E2,8.611569E0,8.921613E1,1.5163396E2,5.3566644E2,1.3358394E1,4.4608967E1,4.7690213E2,2.6572554E1,2.0733638E2,4.7598264E2,3.3213833E1,2.201468E1,7.364632E1,6.0402655E2,3.0152356E2,1.158743E1,3.5294962E2,8.074426E2,2.7480753E1,7.7224884E2,2.7910793E1,2.4515746E2,3.955233E2,2.146384E2,2.4464491E2,9.451715E1,8.90367E0,3.1227457E2,7.184409E1,3.7132763E1],"tree_param":{"num_deleted":"0","num_feature":"143","num_nodes":"61","size_leaf_vector":"1"}},{"base_weights":[-5.6347775E0,-1.3052717E1,3.1939688E-1,-2.1535921E1,-9.679967E0,-2.2900875E0,6.873123E0,-1.9223211E1,-3.4437183E1,-1.2353772E1,-8.072478E0,-4.4012423E0,8.041666E-2,4.396944E0,1.0742204E1,-3.0479946E1,-1.7962893E1,-2.5622486E1,-4.914519E1,-1.3165391E1,-7.7712073E0,-1.9155104E1,-7.919689E0,-7.7706966E0,-3.9521258E0,-1.3948052E0,1.2223378E0,3.3470533E0,6.7482295E0,8.795328E0,1.5916725E1,-6.036668E-1,-3.63207E-1,-2.6114118E-1,-1.5277062E-1,-3.965835E-1,-1.8793087E-1,-6.9719386E-1,-4.3739697E-1,-2.4638836E-1,-1.6135606E-1,-1.9449665E-1,-8.786996E-2,-3.4767112E-1,-1.4019896E-1,-1.1745336E-1,-8.292601E-2,-7.7021234E-2,-1.5159355E-1,-6.7143746E-2,-3.5943225E-2,-1.0659655E-1,-1.7100219E-2,3.1319112E-3,2.5884211E-2,5.6607783E-2,2.3738677E-2,-9.412605E-3,9.685162E-2,7.298223E-2,1.4876938E-1,1.0602171E-1,2.4939083E-1],"categories":[],"categories_nodes":[],"categories_segments":[],"categories_sizes":[],"default_left":[0,0,0,0,0,0,0,0,0,0,0,0,0,0,0,0,0,0,0,0,0,0,0,0,0,0,0,0,0,0,0,0,0,0,0,0,0,0,0,0,0,0,0,0,0,0,0,0,0,0,0,0,0,0,0,0,0,0,0,0,0,0,0],"id":4,"left_children":[1,3,5,7,9,11,13,15,17,19,21,23,25,27,29,31,33,35,37,39,41,43,45,47,49,51,53,55,57,59,61,-1,-1,-1,-1,-1,-1,-1,-1,-1,-1,-1,-1,-1,-1,-1,-1,-1,-1,-1,-1,-1,-1,-1,-1,-1,-1,-1,-1,-1,-1,-1,-1],"loss_changes":[3.029503E5,8.716197E4,6.5099254E4,2.5264156E4,9.2869375E3,1.3629508E4,1.0325031E4,9.94075E3,1.5787359E4,2.931336E3,2.1516328E3,2.1372422E3,2.1622883E3,1.6028125E3,4.101168E3,2.412211E3,6.594047E3,3.4919805E3,8.0578125E2,3.7803672E3,9.104263E2,7.8103955E2,1.9404844E3,1.126877E3,1.6987051E3,4.051211E2,5.071532E2,6.2663477E2,7.638584E2,2.328625E3,2.333086E3,0E0,0E0,0E0,0E0,0E0,0E0,0E0,0E0,0E0,0E0,0E0,0E0,0E0,0E0,0E0,0E0,0E0,0E0,0E0,0E0,0E0,0E0,0E0,0E0,0E0,0E0,0E0,0E0,0E0,0E0,0E0,0E0],"parents":[2147483647,0,0,1,1,2,2,3,3,4,4,5,5,6,6,7,7,8,8,9,9,10,10,11,11,12,12,13,13,14,14,15,15,16,16,17,17,18,18,19,19,20,20,21,21,22,22,23,23,24,24,25,25,26,26,27,27,28,28,29,29,30,30],"right_children":[2,4,6,8,10,12,14,16,18,20,22,24,26,28,30,32,34,36,38,40,42,44,46,48,50,52,54,56,58,60,62,-1,-1,-1,-1,-1,-1,-1,-1,-1,-1,-1,-1,-1,-1,-1,-1,-1,-1,-1,-1,-1,-1,-1,-1,-1,-1,-1,-1,-1,-1,-1,-1],"split_conditions":[8.7E0,5.1E0,1.45E1,-9.3333334E-1,6.6E0,1.1142858E1,1.16E1,2.8E0,2.6E0,2.6263334E1,1.3763333E1,2.275E1,2.75E0,1.66E1,6.4104086E-1,2E0,3.0866666E0,2.711111E-1,1.2957366E0,2.786173E-1,-6.2E0,5.9354862E1,2.1E0,6.846667E1,4.645712E-1,3.4690475E-1,5.2E0,2.4444444E-1,5.8E0,2.4285715E0,1.625E0,-6.036668E-1,-3.63207E-1,-2.6114118E-1,-1.5277062E-1,-3.965835E-1,-1.8793087E-1,-6.9719386E-1,-4.3739697E-1,-2.4638836E-1,-1.6135606E-1,-1.9449665E-1,-8.786996E-2,-3.4767112E-1,-1.4019896E-1,-1.1745336E-1,-8.292601E-2,-7.7021234E-2,-1.5159355E-1,-6.7143746E-2,-3.5943225E-2,-1.0659655E-1,-1.7100219E-2,3.1319112E-3,2.5884211E-2,5.6607783E-2,2.3738677E-2,-9.412605E-3,9.685162E-2,7.298223E-2,1.4876938E-1,1.0602171E-1,2.4939083E-1],"split_indices":[13,13,13,140,13,13,140,13,56,2,2,3,14,13,17,13,123,135,124,17,140,127,14,52,35,35,140,131,140,31,42,0,0,0,0,0,0,0,0,0,0,0,0,0,0,0,0,0,0,0,0,0,0,0,0,0,0,0,0,0,0,0,0],"split_type":[0,0,0,0,0,0,0,0,0,0,0,0,0,0,0,0,0,0,0,0,0,0,0,0,0,0,0,0,0,0,0,0,0,0,0,0,0,0,0,0,0,0,0,0,0,0,0,0,0,0,0,0,0,0,0,0,0,0,0,0,0,0,0],"sum_hessian":[6.8577656E3,3.0531975E3,3.804568E3,8.6715283E2,2.1860447E3,2.7213525E3,1.0832156E3,7.372124E2,1.2994043E2,8.183434E2,1.3677013E3,1.4393418E3,1.2820107E3,6.618205E2,4.2139514E2,7.214294E1,6.6506946E2,8.275711E1,4.7183315E1,6.9361176E2,1.24731636E2,1.7045238E1,1.350656E3,1.6730261E2,1.2720392E3,5.5876245E2,7.232482E2,4.593501E2,2.0247038E2,3.0804617E2,1.1334898E2,1.1255269E1,6.0887665E1,5.348824E2,1.3018707E2,6.0272583E1,2.2484531E1,3.8276432E1,8.906882E0,1.17177155E2,5.7643463E2,1.717022E1,1.0756142E2,8.4893265E0,8.555912E0,8.955359E2,4.551201E2,1.08663574E2,5.863904E1,6.87034E2,5.850052E2,8.47358E0,5.502889E2,3.0456116E2,4.186871E2,2.9219257E2,1.6715752E2,1.24234E1,1.9004698E2,1.2809929E2,1.7994688E2,2.9885303E1,8.346368E1],"tree_param":{"num_deleted":"0","num_feature":"143","num_nodes":"63","size_leaf_vector":"1"}},{"base_weights":[-5.4348135E0,-1.2315859E1,7.1791965E-1,-2.0605536E1,-9.211362E0,-1.8705435E0,6.746646E0,-3.0747375E1,-1.9356314E1,-1.2226134E1,-7.604637E0,-3.7120926E0,4.7074473E-1,4.43771E0,9.750076E0,-6.2215096E-1,-2.7600353E1,-2.079685E1,-1.3642804E1,-4.029009E-1,-1.1989583E1,-7.4335437E0,-1.5667143E1,-3.8187256E0,8.7543964E-2,-1.1407593E0,1.5509884E0,3.6399772E0,7.2107515E0,8.0841675E0,1.3650118E1,-4.1444173E-1,-2.3222838E-1,-3.9870837E-1,-2.6610172E-1,-1.5453057E-1,-2.4450867E-1,-1.739948E-1,-1.1860921E-1,-1.0398666E-1,-5.8640555E-2,-3.3368847E-1,-1.23708405E-1,-9.14391E-2,-4.683103E-2,-2.4477711E-2,2.8462617E-3,-1.8274145E-3,2.5330333E-2,-1.3814277E-3,5.4034796E-2,8.560203E-2,1.9346981E-1,7.926035E-2,1.2627889E-1,9.3262255E-2,2.1544969E-1],"categories":[],"categories_nodes":[],"categories_segments":[],"categories_sizes":[],"default_left":[0,0,0,0,0,0,0,0,0,0,0,0,0,0,0,0,0,0,0,0,0,0,0,0,0,0,0,0,0,0,0,0,0,0,0,0,0,0,0,0,0,0,0,0,0,0,0,0,0,0,0,0,0,0,0,0,0],"id":5,"left_children":[1,3,5,7,9,11,13,15,17,19,21,23,25,27,29,-1,31,33,35,-1,37,39,41,43,-1,45,47,49,51,53,55,-1,-1,-1,-1,-1,-1,-1,-1,-1,-1,-1,-1,-1,-1,-1,-1,-1,-1,-1,-1,-1,-1,-1,-1,-1,-1],"loss_changes":[2.9491512E5,8.4420875E4,5.741233E4,1.0767781E4,1.1489969E4,1.1102521E4,7.6076523E3,3.6094531E3,6.2914688E3,3.1544766E3,2.0272812E3,1.5938457E3,1.975292E3,1.3489961E3,2.991121E3,0E0,2.3511914E3,4.5698438E3,1.3645059E3,0E0,2.4937031E3,1.5605078E3,1.638853E3,1.3280645E3,0E0,4.273761E2,3.9652283E2,7.399551E2,7.071074E2,9.2343164E2,2.2079902E3,0E0,0E0,0E0,0E0,0E0,0E0,0E0,0E0,0E0,0E0,0E0,0E0,0E0,0E0,0E0,0E0,0E0,0E0,0E0,0E0,0E0,0E0,0E0,0E0,0E0,0E0],"parents":[2147483647,0,0,1,1,2,2,3,3,4,4,5,5,6,6,7,7,8,8,9,9,10,10,11,11,12,12,13,13,14,14,16,16,17,17,18,18,20,20,21,21,22,22,23,23,25,25,26,26,27,27,28,28,29,29,30,30],"right_children":[2,4,6,8,10,12,14,16,18,20,22,24,26,28,30,-1,32,34,36,-1,38,40,42,44,-1,46,48,50,52,54,56,-1,-1,-1,-1,-1,-1,-1,-1,-1,-1,-1,-1,-1,-1,-1,-1,-1,-1,-1,-1,-1,-1,-1,-1,-1,-1],"split_conditions":[9E0,5.1E0,1.45E1,2.7E0,6.6E0,1.15E1,1.71E1,-7E-1,1.5E0,-3.4E0,8.020833E0,7E0,2.75E0,5.6E0,7.766373E1,-6.2215096E-1,5.7777777E0,-9E-1,-1.0666667E0,-4.029009E-1,2E0,6E-1,4E-1,2.265E1,8.7543964E-2,1.1502885E2,4.9169132E-1,5.095364E-1,9.29994E0,3.4616665E1,3.2495E1,-4.1444173E-1,-2.3222838E-1,-3.9870837E-1,-2.6610172E-1,-1.5453057E-1,-2.4450867E-1,-1.739948E-1,-1.1860921E-1,-1.0398666E-1,-5.8640555E-2,-3.3368847E-1,-1.23708405E-1,-9.14391E-2,-4.683103E-2,-2.4477711E-2,2.8462617E-3,-1.8274145E-3,2.5330333E-2,-1.3814277E-3,5.4034796E-2,8.560203E-2,1.9346981E-1,7.926035E-2,1.2627889E-1,9.3262255E-2,2.1544969E-1],"split_indices":[13,13,13,13,13,13,13,120,120,120,16,14,14,14,127,0,49,121,142,0,14,35,39,3,0,18,117,117,6,3,3,0,0,0,0,0,0,0,0,0,0,0,0,0,0,0,0,0,0,0,0,0,0,0,0,0,0],"split_type":[0,0,0,0,0,0,0,0,0,0,0,0,0,0,0,0,0,0,0,0,0,0,0,0,0,0,0,0,0,0,0,0,0,0,0,0,0,0,0,0,0,0,0,0,0,0,0,0,0,0,0,0,0,0,0,0,0],"sum_hessian":[6.964455E3,3.2873506E3,3.6771042E3,8.9426227E2,2.3930884E3,2.5728103E3,1.104294E3,9.575864E1,7.985036E2,8.297461E2,1.5633423E3,1.4401494E3,1.132661E3,6.257751E2,4.7851892E2,1.3906833E1,8.18518E1,6.357402E2,1.6276343E2,9.347637E0,8.203985E2,1.5326163E3,3.0725948E1,1.425994E3,1.4155389E1,4.5402426E2,6.786367E2,4.878793E2,1.3789578E2,3.373664E2,1.4115253E2,6.006464E1,2.178716E1,5.4763775E1,5.8097644E2,1.14567E2,4.819643E1,6.153255E2,2.0507297E2,1.3757279E3,1.568884E2,1.1463963E1,1.9261986E1,1.3308948E2,1.2929045E3,3.0121698E2,1.5280728E2,1.1416813E2,5.644686E2,4.696746E1,4.4091183E2,1.2567946E2,1.2216325E1,1.326476E2,2.047188E2,3.9075428E1,1.020771E2],"tree_param":{"num_deleted":"0","num_feature":"143","num_nodes":"57","size_leaf_vector":"1"}},{"base_weights":[-5.315039E0,-1.3765455E1,-7.985026E-1,-1.857891E1,-1.02040415E1,-3.5605416E0,5.4596767E0,-1.7019953E1,-2.71587E1,-1.3273554E1,-8.65914E0,-4.851666E0,-7.519816E-1,3.3628523E0,9.716793E0,-2.2297028E1,-1.5336563E1,-1.939957E1,-3.914846E1,-1.2518207E1,-2.4854763E1,-7.6679263E0,-1.1407027E1,-6.416212E0,-3.55426E0,-1.5342019E0,1.2166833E0,-1.2041384E-2,4.096225E0,7.0597854E0,1.2537019E1,-3.7560633E-1,-2.5906655E-1,-1.6849957E-1,-2.339301E-1,-3.4702677E-1,-1.1003676E-1,-3.2366174E-1,-5.6259096E-1,-1.2711747E-1,-1.8843453E-1,-2.0943768E-1,-4.5758584E-1,-9.669856E-2,-1.744379E-1,-1.2214556E-1,-1.936194E-1,-1.0934857E-1,-7.3010996E-2,-3.918745E-2,-7.400242E-2,-3.9996758E-2,-6.467269E-3,-8.140253E-3,2.7561374E-2,-4.2379554E-2,1.9177502E-2,4.41332E-2,7.900013E-2,3.4037985E-2,1.0766419E-1,1.8040681E-1,2.3084225E-2],"categories":[],"categories_nodes":[],"categories_segments":[],"categories_sizes":[],"default_left":[0,0,0,0,0,0,0,0,0,0,0,0,0,0,0,0,0,0,0,0,0,0,0,0,0,0,0,0,0,0,0,0,0,0,0,0,0,0,0,0,0,0,0,0,0,0,0,0,0,0,0,0,0,0,0,0,0,0,0,0,0,0,0],"id":6,"left_children":[1,3,5,7,9,11,13,15,17,19,21,23,25,27,29,31,33,35,37,39,41,43,45,47,49,51,53,55,57,59,61,-1,-1,-1,-1,-1,-1,-1,-1,-1,-1,-1,-1,-1,-1,-1,-1,-1,-1,-1,-1,-1,-1,-1,-1,-1,-1,-1,-1,-1,-1,-1,-1],"loss_changes":[2.6642472E5,4.148278E4,7.8673625E4,1.3362281E4,6.5093125E3,1.1440328E4,1.2394344E4,7.4441406E3,1.3905609E4,3.767625E3,2.4428828E3,4.3572656E3,1.535574E3,2.3204258E3,3.3392695E3,3.0271094E3,3.7119844E3,6.8897617E3,1.7101016E3,1.9402109E3,1.8543027E3,1.5074727E3,1.5692129E3,1.5919023E3,1.4373213E3,1.0862838E3,4.396464E2,7.7099536E2,1.078831E3,1.0371865E3,2.2469922E3,0E0,0E0,0E0,0E0,0E0,0E0,0E0,0E0,0E0,0E0,0E0,0E0,0E0,0E0,0E0,0E0,0E0,0E0,0E0,0E0,0E0,0E0,0E0,0E0,0E0,0E0,0E0,0E0,0E0,0E0,0E0,0E0],"parents":[2147483647,0,0,1,1,2,2,3,3,4,4,5,5,6,6,7,7,8,8,9,9,10,10,11,11,12,12,13,13,14,14,15,15,16,16,17,17,18,18,19,19,20,20,21,21,22,22,23,23,24,24,25,25,26,26,27,27,28,28,29,29,30,30],"right_children":[2,4,6,8,10,12,14,16,18,20,22,24,26,28,30,32,34,36,38,40,42,44,46,48,50,52,54,56,58,60,62,-1,-1,-1,-1,-1,-1,-1,-1,-1,-1,-1,-1,-1,-1,-1,-1,-1,-1,-1,-1,-1,-1,-1,-1,-1,-1,-1,-1,-1,-1,-1,-1],"split_conditions":[9.8E0,6.4E0,6.1E0,-9.3333334E-1,1.998E1,1.48E1,1.16E1,3.6E0,1.12E1,5E0,4.25E-1,-6E-1,3.8E0,1.66E1,5.8E0,5E-1,3.8423467E-1,5.857143E0,3E-1,1.1E1,3.05E-1,4.6928573E-1,3.3E-1,1.6666666E0,8E-1,3.068E1,1.0016E2,2.8065E1,2.18E1,7.8333335E0,1E0,-3.7560633E-1,-2.5906655E-1,-1.6849957E-1,-2.339301E-1,-3.4702677E-1,-1.1003676E-1,-3.2366174E-1,-5.6259096E-1,-1.2711747E-1,-1.8843453E-1,-2.0943768E-1,-4.5758584E-1,-9.669856E-2,-1.744379E-1,-1.2214556E-1,-1.936194E-1,-1.0934857E-1,-7.3010996E-2,-3.918745E-2,-7.400242E-2,-3.9996758E-2,-6.467269E-3,-8.140253E-3,2.7561374E-2,-4.2379554E-2,1.9177502E-2,4.41332E-2,7.900013E-2,3.4037985E-2,1.0766419E-1,1.8040681E-1,2.3084225E-2],"split_indices":[4,4,140,140,2,4,140,4,54,16,120,140,14,4,14,14,35,54,14,54,36,36,36,11,120,2,21,3,4,54,107,0,0,0,0,0,0,0,0,0,0,0,0,0,0,0,0,0,0,0,0,0,0,0,0,0,0,0,0,0,0,0,0],"split_type":[0,0,0,0,0,0,0,0,0,0,0,0,0,0,0,0,0,0,0,0,0,0,0,0,0,0,0,0,0,0,0,0,0,0,0,0,0,0,0,0,0,0,0,0,0,0,0,0,0,0,0,0,0,0,0,0,0,0,0,0,0,0,0],"sum_hessian":[6.9804956E3,2.4306758E3,4.54982E3,1.0319628E3,1.398713E3,3.1570466E3,1.3927731E3,8.755583E2,1.5640445E2,4.6583826E2,9.3287476E2,2.1620315E3,9.9501514E2,9.343847E2,4.583884E2,2.0904965E2,6.665086E2,9.6369606E1,6.003484E1,4.390806E2,2.6757647E1,6.883014E2,2.4457338E2,9.78116E2,1.1839155E3,7.1271564E2,2.822995E2,1.6661108E2,7.677736E2,2.378023E2,2.2058609E2,6.746474E1,1.4158492E2,2.969138E2,3.6959482E2,5.9947643E1,3.6421967E1,1.1198837E1,4.8836002E1,1.5313358E2,2.8594702E2,1.4722388E1,1.2035258E1,6.3878204E2,4.951931E1,1.4282732E2,1.01746056E2,3.4120203E2,6.36914E2,9.0258514E2,2.8133035E2,2.973638E2,4.1535184E2,8.885752E1,1.9344199E2,5.232483E1,1.14286255E2,5.357517E2,2.3202196E2,4.3654236E1,1.9414807E2,2.0235944E2,1.8226652E1],"tree_param":{"num_deleted":"0","num_feature":"143","num_nodes":"63","size_leaf_vector":"1"}},{"base_weights":[-5.1098304E0,-1.1194697E1,7.756639E-1,-1.5936345E1,-7.659815E0,-2.3157902E0,5.577785E0,-1.9476181E1,-1.3168804E1,-9.83234E0,-6.80678E0,-3.7620146E0,-6.616774E-1,3.298093E0,1.0022165E1,-1.7640947E1,-2.4139202E1,-1.546282E1,-1.1182182E1,-1.8843914E1,-9.39252E0,-5.9533725E0,-7.5970187E0,-9.489377E0,-3.5692823E0,-2.278454E0,-6.0075037E-2,2.1981306E0,4.5954123E0,8.41446E0,1.496672E1,-2.6547298E-1,-1.9717476E-1,-4.0661585E-1,-2.4459566E-1,-2.1292506E-1,-7.9695694E-2,-1.4561762E-1,-2.9641786E-1,-3.2083768E-1,-9.292348E-2,-1.0548849E-1,-1.4766696E-1,-1.0819251E-1,-7.133792E-2,-1.5350118E-1,-9.641304E-2,-7.905957E-2,-2.3908056E-1,-6.629043E-2,-4.0900122E-2,-9.5553905E-2,-2.420231E-2,-3.3444326E-2,3.8957587E-3,-5.5360836E-3,3.5158556E-2,4.123728E-2,7.9255305E-2,2.3662658E-1,1.08203545E-1,4.041278E-1,1.7232004E-1],"categories":[],"categories_nodes":[],"categories_segments":[],"categories_sizes":[],"default_left":[0,0,0,0,0,0,0,0,0,0,0,0,0,0,0,0,0,0,0,0,0,0,0,0,0,0,0,0,0,0,0,0,0,0,0,0,0,0,0,0,0,0,0,0,0,0,0,0,0,0,0,0,0,0,0,0,0,0,0,0,0,0,0],"id":7,"left_children":[1,3,5,7,9,11,13,15,17,19,21,23,25,27,29,31,33,35,37,39,41,43,45,47,49,51,53,55,57,59,61,-1,-1,-1,-1,-1,-1,-1,-1,-1,-1,-1,-1,-1,-1,-1,-1,-1,-1,-1,-1,-1,-1,-1,-1,-1,-1,-1,-1,-1,-1,-1,-1],"loss_changes":[2.5764655E5,5.915047E4,5.4312156E4,1.4528375E4,3.6791953E3,5.315575E3,1.4470832E4,5.2340156E3,3.6912812E3,2.0683984E3,9.273672E2,1.2632754E3,1.0078207E3,1.3356162E3,3.7178828E3,2.7626562E3,6.2087344E3,1.6101719E3,1.2194492E3,1.379542E3,1.2525273E3,8.785625E2,1.0350352E3,1.0148967E3,7.908408E2,6.180088E2,6.549824E2,5.8488086E2,8.4554395E2,9.4356445E2,3.3456562E3,0E0,0E0,0E0,0E0,0E0,0E0,0E0,0E0,0E0,0E0,0E0,0E0,0E0,0E0,0E0,0E0,0E0,0E0,0E0,0E0,0E0,0E0,0E0,0E0,0E0,0E0,0E0,0E0,0E0,0E0,0E0,0E0],"parents":[2147483647,0,0,1,1,2,2,3,3,4,4,5,5,6,6,7,7,8,8,9,9,10,10,11,11,12,12,13,13,14,14,15,15,16,16,17,17,18,18,19,19,20,20,21,21,22,22,23,23,24,24,25,25,26,26,27,27,28,28,29,29,30,30],"right_children":[2,4,6,8,10,12,14,16,18,20,22,24,26,28,30,32,34,36,38,40,42,44,46,48,50,52,54,56,58,60,62,-1,-1,-1,-1,-1,-1,-1,-1,-1,-1,-1,-1,-1,-1,-1,-1,-1,-1,-1,-1,-1,-1,-1,-1,-1,-1,-1,-1,-1,-1,-1,-1],"split_conditions":[1.15E1,7.5E0,1.77E1,1.615E1,8.7E0,1.42E1,2.26E1,-5E-1,2.729264E-1,-1.2E0,4.4416666E-1,1.998E1,3.9448094E-1,1.764E0,2.74E1,3.29672E-1,-3E-1,1E0,1E0,1.1768215E2,4.3585783E-1,2.2196667E1,-2E0,1.02064E2,3.5222074E-1,2E-1,2.561E1,2.797E1,5.1869136E-1,2.6E0,7.5E-1,-2.6547298E-1,-1.9717476E-1,-4.0661585E-1,-2.4459566E-1,-2.1292506E-1,-7.9695694E-2,-1.4561762E-1,-2.9641786E-1,-3.2083768E-1,-9.292348E-2,-1.0548849E-1,-1.4766696E-1,-1.0819251E-1,-7.133792E-2,-1.5350118E-1,-9.641304E-2,-7.905957E-2,-2.3908056E-1,-6.629043E-2,-4.0900122E-2,-9.5553905E-2,-2.420231E-2,-3.3444326E-2,3.8957587E-3,-5.5360836E-3,3.5158556E-2,4.123728E-2,7.9255305E-2,2.3662658E-1,1.08203545E-1,4.041278E-1,1.7232004E-1],"split_indices":[5,5,5,2,5,5,5,142,17,121,35,2,17,132,5,17,142,59,88,18,35,2,120,21,17,28,2,2,17,7,37,0,0,0,0,0,0,0,0,0,0,0,0,0,0,0,0,0,0,0,0,0,0,0,0,0,0,0,0,0,0,0,0],"split_type":[0,0,0,0,0,0,0,0,0,0,0,0,0,0,0,0,0,0,0,0,0,0,0,0,0,0,0,0,0,0,0,0,0,0,0,0,0,0,0,0,0,0,0,0,0,0,0,0,0,0,0,0,0,0,0,0,0,0,0,0,0,0,0],"sum_hessian":[7.1928755E3,3.5362773E3,3.6565984E3,1.5088993E3,2.027378E3,2.2246133E3,1.431985E3,6.5961224E2,8.4928705E2,5.686373E2,1.4587407E3,1.1858702E3,1.038743E3,9.4767236E2,4.8431268E2,4.7644156E2,1.8317067E2,3.9116345E2,4.5812363E2,2.4667784E1,5.4396954E2,7.056506E2,7.530902E2,3.7044857E1,1.1488253E3,2.8043515E2,7.5830786E2,5.1465424E2,4.3301813E2,3.674144E2,1.16898285E2,2.668672E2,2.0957439E2,8.65366E1,9.663407E1,3.723458E2,1.8817652E1,4.480515E2,1.007212E1,1.6530882E1,8.136903E0,2.8778998E2,2.5617957E2,1.5541269E2,5.5023785E2,6.560573E1,6.8748444E2,2.7101185E1,9.943672E0,3.060401E2,8.427853E2,2.3295055E1,2.571401E2,9.527076E1,6.630371E2,7.249788E1,4.4215634E2,2.0466833E2,2.2834981E2,1.06382885E1,3.5677612E2,1.256365E1,1.0433463E2],"tree_param":{"num_deleted":"0","num_feature":"143","num_nodes":"63","size_leaf_vector":"1"}},{"base_weights":[-4.977023E0,-1.04563675E1,1.0607188E0,-1.721619E1,-8.0139065E0,-1.3839713E0,6.56707E0,-1.5748281E1,-2.4449308E1,-1.0338523E1,-6.492263E0,-2.7710779E0,8.850775E-1,5.487048E0,1.3687339E1,-1.5382503E1,-4.3259454E-1,-2.6255283E1,-1.2004689E1,-9.110523E0,-1.1874896E1,-6.994689E0,-5.2028975E0,-3.3778672E0,-1.5606295E0,3.784492E-2,1.9951721E0,3.876177E0,7.5276923E0,1.8766327E1,1.1046026E1,-3.175926E-1,-1.9859535E-1,-3.6723316E-1,-1.7832977E-1,-2.2580099E-1,-7.4290015E-2,-1.1790063E-1,-2.3052585E-1,-1.4733334E-1,-2.4268115E-1,-1.11967124E-1,-8.291737E-2,-1.1355035E-1,-6.387645E-2,-8.4011376E-2,-4.1426737E-2,-1.0662215E-1,-1.8253714E-2,2.068488E-2,-8.541305E-3,5.873731E-2,2.1394843E-2,6.800346E-2,3.1175502E-2,6.6544704E-2,1.1497549E-1,4.348708E-1,1.893185E-1,8.2048506E-2,1.888632E-1],"categories":[],"categories_nodes":[],"categories_segments":[],"categories_sizes":[],"default_left":[0,0,0,0,0,0,0,0,0,0,0,0,0,0,0,0,0,0,0,0,0,0,0,0,0,0,0,0,0,0,0,0,0,0,0,0,0,0,0,0,0,0,0,0,0,0,0,0,0,0,0,0,0,0,0,0,0,0,0,0,0],"id":8,"left_children":[1,3,5,7,9,11,13,15,17,19,21,23,25,27,29,31,-1,33,35,37,39,41,43,45,47,49,51,53,55,57,59,-1,-1,-1,-1,-1,-1,-1,-1,-1,-1,-1,-1,-1,-1,-1,-1,-1,-1,-1,-1,-1,-1,-1,-1,-1,-1,-1,-1,-1,-1],"loss_changes":[2.4048622E5,6.2764844E4,4.657364E4,1.03481875E4,9.827719E3,7.545224E3,8.090375E3,4.6308594E3,3.4740703E3,1.96675E3,1.0507422E3,1.0812275E3,8.522429E2,3.001037E3,1.6531133E3,3.3095312E3,0E0,1.9254922E3,6.1534326E2,1.3084648E3,2.4121172E3,1.2674258E3,6.1860156E2,7.740635E2,6.0334863E2,5.302713E2,3.578849E2,9.4991016E2,1.0570312E3,2.480086E3,1.3185479E3,0E0,0E0,0E0,0E0,0E0,0E0,0E0,0E0,0E0,0E0,0E0,0E0,0E0,0E0,0E0,0E0,0E0,0E0,0E0,0E0,0E0,0E0,0E0,0E0,0E0,0E0,0E0,0E0,0E0,0E0],"parents":[2147483647,0,0,1,1,2,2,3,3,4,4,5,5,6,6,7,7,8,8,9,9,10,10,11,11,12,12,13,13,14,14,15,15,17,17,18,18,19,19,20,20,21,21,22,22,23,23,24,24,25,25,26,26,27,27,28,28,29,29,30,30],"right_children":[2,4,6,8,10,12,14,16,18,20,22,24,26,28,30,32,-1,34,36,38,40,42,44,46,48,50,52,54,56,58,60,-1,-1,-1,-1,-1,-1,-1,-1,-1,-1,-1,-1,-1,-1,-1,-1,-1,-1,-1,-1,-1,-1,-1,-1,-1,-1,-1,-1,-1,-1],"split_conditions":[1.19E1,6.2E0,1.92E1,-1.3E0,8.7E0,1.57E1,2.69E1,6.666667E-1,2.375E0,4.4252118E-1,-2E-1,1.42E1,6E0,2.22E1,3.554762E-1,2.7E0,-4.3259454E-1,1.2E0,1.75E-1,6.9791665E0,-9.3333334E-1,-3.7333333E-1,9.5E0,1.06778564E2,2.2222222E-1,3.1547618E-1,-6.9E0,4.865523E-1,4.5E0,7.8571427E-1,1.095227E2,-3.175926E-1,-1.9859535E-1,-3.6723316E-1,-1.7832977E-1,-2.2580099E-1,-7.4290015E-2,-1.1790063E-1,-2.3052585E-1,-1.4733334E-1,-2.4268115E-1,-1.11967124E-1,-8.291737E-2,-1.1355035E-1,-6.387645E-2,-8.4011376E-2,-4.1426737E-2,-1.0662215E-1,-1.8253714E-2,2.068488E-2,-8.541305E-3,5.873731E-2,2.1394843E-2,6.800346E-2,3.1175502E-2,6.6544704E-2,1.1497549E-1,4.348708E-1,1.893185E-1,8.2048506E-2,1.888632E-1],"split_indices":[5,5,5,140,5,5,5,35,33,35,140,5,140,5,36,5,0,28,122,16,140,123,5,18,33,36,39,35,14,37,18,0,0,0,0,0,0,0,0,0,0,0,0,0,0,0,0,0,0,0,0,0,0,0,0,0,0,0,0,0,0],"split_type":[0,0,0,0,0,0,0,0,0,0,0,0,0,0,0,0,0,0,0,0,0,0,0,0,0,0,0,0,0,0,0,0,0,0,0,0,0,0,0,0,0,0,0,0,0,0,0,0,0,0,0,0,0,0,0,0,0,0,0,0,0],"sum_hessian":[7.267685E3,3.809822E3,3.457863E3,1.0096909E3,2.800131E3,2.3949463E3,1.0629167E3,8.417442E2,1.6794667E2,1.105479E3,1.694652E3,1.4865903E3,9.0835596E2,9.243942E2,1.3852254E2,8.252786E2,1.6465565E1,1.4574594E2,2.2200739E1,6.181574E2,4.8732166E2,1.216E3,4.7865198E2,9.884379E2,4.9815234E2,5.163737E2,3.919822E2,5.183454E2,4.0604883E2,4.5446003E1,9.307653E1,4.673524E1,7.785434E2,1.3229227E2,1.3453678E1,1.1732564E1,1.0468175E1,5.985443E2,1.9613068E1,4.3108563E2,5.623601E1,4.4039325E2,7.7560675E2,5.2618767E1,4.260332E2,8.4728325E1,9.037096E2,1.3525301E1,4.8462704E2,1.6014406E2,3.5622968E2,5.3739616E1,3.3824258E2,2.890792E2,2.2926624E2,1.218959E2,2.8415292E2,1.0039373E1,3.5406628E1,3.702379E1,5.6052746E1],"tree_param":{"num_deleted":"0","num_feature":"143","num_nodes":"61","size_leaf_vector":"1"}},{"base_weights":[-4.8533635E0,-9.406311E0,1.7406154E0,-1.4406375E1,-6.600263E0,-6.4484E-1,6.698964E0,-1.84089E1,-1.2948347E1,-7.863952E0,-4.7739697E0,-1.8762507E0,1.9540449E0,4.9126787E0,1.064752E1,-2.991105E1,-1.757192E1,-1.46388855E1,-1.0905881E1,-1.0298438E1,-7.3306394E0,-7.304213E0,-4.342174E0,-3.1744297E0,-8.71432E-1,1.5046133E0,4.2270746E0,3.3343954E0,6.0283127E0,7.818288E0,1.227283E1,-2.6527706E-1,-4.6936643E-1,-1.9835645E-1,-2.566852E-1,-1.7664328E-1,-2.3400563E-1,-2.3190789E-1,-1.3897759E-1,-1.2096121E-1,-1.8403544E-1,-8.789832E-2,-1.0929434E-1,-8.129169E-2,-1.724482E-1,-1.5583172E-1,-5.61865E-2,-9.100386E-2,-3.740529E-2,-3.160838E-2,-5.821961E-3,1.4090661E-3,2.6140865E-2,3.4689222E-4,6.528373E-2,-2.0828467E-2,4.9326923E-2,1.7205618E-2,8.552103E-2,2.1718736E-1,9.374153E-2,1.3165684E-1,2.0086174E-1],"categories":[],"categories_nodes":[],"categories_segments":[],"categories_sizes":[],"default_left":[0,0,0,0,0,0,0,0,0,0,0,0,0,0,0,0,0,0,0,0,0,0,0,0,0,0,0,0,0,0,0,0,0,0,0,0,0,0,0,0,0,0,0,0,0,0,0,0,0,0,0,0,0,0,0,0,0,0,0,0,0,0,0],"id":9,"left_children":[1,3,5,7,9,11,13,15,17,19,21,23,25,27,29,31,33,35,37,39,41,43,45,47,49,51,53,55,57,59,61,-1,-1,-1,-1,-1,-1,-1,-1,-1,-1,-1,-1,-1,-1,-1,-1,-1,-1,-1,-1,-1,-1,-1,-1,-1,-1,-1,-1,-1,-1,-1,-1],"loss_changes":[2.2136919E5,6.108572E4,3.563743E4,8.8995625E3,6.402414E3,6.5130156E3,6.836785E3,3.4959219E3,3.8062344E3,2.0546875E3,1.2089902E3,1.7935103E3,6.548496E2,1.1596904E3,1.288332E3,7.4221875E2,1.4475234E3,2.3254531E3,1.5396133E3,1.1386719E3,8.0052344E2,1.0396953E3,9.410957E2,7.940967E2,5.0301355E2,3.4232068E2,2.8777637E2,4.976084E2,6.7007227E2,6.436162E2,1.1160176E3,0E0,0E0,0E0,0E0,0E0,0E0,0E0,0E0,0E0,0E0,0E0,0E0,0E0,0E0,0E0,0E0,0E0,0E0,0E0,0E0,0E0,0E0,0E0,0E0,0E0,0E0,0E0,0E0,0E0,0E0,0E0,0E0],"parents":[2147483647,0,0,1,1,2,2,3,3,4,4,5,5,6,6,7,7,8,8,9,9,10,10,11,11,12,12,13,13,14,14,15,15,16,16,17,17,18,18,19,19,20,20,21,21,22,22,23,23,24,24,25,25,26,26,27,27,28,28,29,29,30,30],"right_children":[2,4,6,8,10,12,14,16,18,20,22,24,26,28,30,32,34,36,38,40,42,44,46,48,50,52,54,56,58,60,62,-1,-1,-1,-1,-1,-1,-1,-1,-1,-1,-1,-1,-1,-1,-1,-1,-1,-1,-1,-1,-1,-1,-1,-1,-1,-1,-1,-1,-1,-1,-1,-1],"split_conditions":[1.01E1,7.3333335E0,1.49E1,4E0,1.06E1,1.7E1,2.47E1,2E0,5E0,7.4E0,1.3E0,1.12E1,3E0,2.07E1,4.1E0,-2E0,-1.675E0,-8.333333E-1,8E-1,3.0769232E-1,-3E-1,4.7E0,-4.443333E0,2.4085E1,2.25E0,1.77E1,5.17307E-1,3.2222223E0,-2.33E0,2.5E0,6.6E0,-2.6527706E-1,-4.6936643E-1,-1.9835645E-1,-2.566852E-1,-1.7664328E-1,-2.3400563E-1,-2.3190789E-1,-1.3897759E-1,-1.2096121E-1,-1.8403544E-1,-8.789832E-2,-1.0929434E-1,-8.129169E-2,-1.724482E-1,-1.5583172E-1,-5.61865E-2,-9.100386E-2,-3.740529E-2,-3.160838E-2,-5.821961E-3,1.4090661E-3,2.6140865E-2,3.4689222E-4,6.528373E-2,-2.0828467E-2,4.9326923E-2,1.7205618E-2,8.552103E-2,2.1718736E-1,9.374153E-2,1.3165684E-1,2.0086174E-1],"split_indices":[13,5,13,4,5,5,5,13,13,4,14,13,142,5,34,39,142,142,11,131,39,39,123,3,56,5,117,55,123,7,14,0,0,0,0,0,0,0,0,0,0,0,0,0,0,0,0,0,0,0,0,0,0,0,0,0,0,0,0,0,0,0,0],"split_type":[0,0,0,0,0,0,0,0,0,0,0,0,0,0,0,0,0,0,0,0,0,0,0,0,0,0,0,0,0,0,0,0,0,0,0,0,0,0,0,0,0,0,0,0,0,0,0,0,0,0,0,0,0,0,0,0,0,0,0,0,0,0,0],"sum_hessian":[7.3718955E3,4.360765E3,3.0111306E3,1.5661212E3,2.7946438E3,2.0333475E3,9.777831E2,4.152923E2,1.1508289E3,1.6496375E3,1.1450062E3,1.3801617E3,6.531858E2,6.747718E2,3.030113E2,2.6064167E1,3.8922812E2,6.264364E2,5.243925E2,2.9319012E2,1.3564473E3,1.6448592E2,9.805204E2,6.0078076E2,7.79381E2,5.47037E2,1.0614878E2,2.8135376E2,3.9341806E2,1.12662094E2,1.9034918E2,1.0345635E1,1.5718531E1,1.4855577E2,2.4067236E2,4.2146466E2,2.0497171E2,3.6358788E1,4.8803375E2,2.1793193E2,7.525817E1,7.198132E2,6.3663416E2,1.3659718E2,2.7888739E1,1.6922314E1,9.635981E2,5.478091E1,5.459999E2,1.7463809E2,6.047429E2,1.3422455E2,4.1281244E2,1.4730173E1,9.141861E1,1.8567389E1,2.6278635E2,2.8867582E1,3.6455048E2,8.287287E0,1.0437481E2,1.03449745E2,8.689943E1],"tree_param":{"num_deleted":"0","num_feature":"143","num_nodes":"63","size_leaf_vector":"1"}},{"base_weights":[-4.711602E0,-9.7814455E0,1.1022072E0,-1.3667571E1,-6.815063E0,-1.1587377E0,6.6972713E0,-1.717863E1,-1.2365725E1,-7.573005E0,-5.223412E0,-3.0132713E0,6.042125E-1,5.648466E0,1.1619066E1,-1.8027163E1,-1.2458063E1,-1.1993651E1,-1.8725492E1,-7.3938556E0,-1.3749146E1,-6.107591E0,-4.112983E0,-5.749896E0,-2.6465154E0,-7.4609387E-1,1.3765678E0,3.1747231E0,6.657693E0,7.718706E0,1.4724413E1,-2.4584602E-1,-9.72973E-2,-3.1342295E-1,-1.3817719E-1,-1.8726864E-1,-1.4633712E-1,-1.3721982E-1,-3.0060583E-1,-1.3470426E-1,-9.453146E-2,-7.75189E-2,-2.701328E-1,-2.1281597E-1,-7.838844E-2,-5.1076192E-2,-1.0855798E-1,-6.3533485E-2,-1.4136504E-1,-4.1212503E-2,-1.2448141E-2,-8.6206846E-2,-8.024016E-3,7.922286E-3,2.8826172E-2,-7.998814E-3,4.8129022E-2,8.628584E-2,2.2569594E-1,4.3102488E-2,1.4659381E-1,2.324639E-1,1.1104463E-1],"categories":[],"categories_nodes":[],"categories_segments":[],"categories_sizes":[],"default_left":[0,0,0,0,0,0,0,0,0,0,0,0,0,0,0,0,0,0,0,0,0,0,0,0,0,0,0,0,0,0,0,0,0,0,0,0,0,0,0,0,0,0,0,0,0,0,0,0,0,0,0,0,0,0,0,0,0,0,0,0,0,0,0],"id":10,"left_children":[1,3,5,7,9,11,13,15,17,19,21,23,25,27,29,31,33,35,37,39,41,43,45,47,49,51,53,55,57,59,61,-1,-1,-1,-1,-1,-1,-1,-1,-1,-1,-1,-1,-1,-1,-1,-1,-1,-1,-1,-1,-1,-1,-1,-1,-1,-1,-1,-1,-1,-1,-1,-1],"loss_changes":[2.2063605E5,4.598572E4,4.4127906E4,7.6862812E3,2.686664E3,8.1266543E3,5.1028477E3,1.6322656E3,2.7615312E3,1.5830859E3,6.866699E2,1.1911348E3,1.3302489E3,2.0393086E3,1.9963027E3,1.3689062E3,1.47221E3,2.3644375E3,1.9285E3,1.2126406E3,2.0238169E3,8.685791E2,3.437461E2,6.197964E2,7.9198E2,3.726671E2,4.9086902E2,3.9445557E2,1.1037148E3,1.112898E3,1.4907773E3,0E0,0E0,0E0,0E0,0E0,0E0,0E0,0E0,0E0,0E0,0E0,0E0,0E0,0E0,0E0,0E0,0E0,0E0,0E0,0E0,0E0,0E0,0E0,0E0,0E0,0E0,0E0,0E0,0E0,0E0,0E0,0E0],"parents":[2147483647,0,0,1,1,2,2,3,3,4,4,5,5,6,6,7,7,8,8,9,9,10,10,11,11,12,12,13,13,14,14,15,15,16,16,17,17,18,18,19,19,20,20,21,21,22,22,23,23,24,24,25,25,26,26,27,27,28,28,29,29,30,30],"right_children":[2,4,6,8,10,12,14,16,18,20,22,24,26,28,30,32,34,36,38,40,42,44,46,48,50,52,54,56,58,60,62,-1,-1,-1,-1,-1,-1,-1,-1,-1,-1,-1,-1,-1,-1,-1,-1,-1,-1,-1,-1,-1,-1,-1,-1,-1,-1,-1,-1,-1,-1,-1,-1],"split_conditions":[9.333333E0,6.1E0,1.49E1,3.7E0,8.3E0,1.15E1,6.4104086E-1,2.9383333E0,6.0625E0,8.020833E0,5.9E-1,2.4085E1,5.1315093E-1,3.286E1,4E-1,1E0,1.5670213E0,1.1117963E2,-2E0,-2.425E0,1.12E1,6.991067E-2,1.20044624E2,8.424E1,5.17307E-1,3.4655872E-1,1.33E1,-2.28E0,5.1547617E-1,2.9642856E-1,2.2916667E-1,-2.4584602E-1,-9.72973E-2,-3.1342295E-1,-1.3817719E-1,-1.8726864E-1,-1.4633712E-1,-1.3721982E-1,-3.0060583E-1,-1.3470426E-1,-9.453146E-2,-7.75189E-2,-2.701328E-1,-2.1281597E-1,-7.838844E-2,-5.1076192E-2,-1.0855798E-1,-6.3533485E-2,-1.4136504E-1,-4.1212503E-2,-1.2448141E-2,-8.6206846E-2,-8.024016E-3,7.922286E-3,2.8826172E-2,-7.998814E-3,4.8129022E-2,8.628584E-2,2.2569594E-1,4.3102488E-2,1.4659381E-1,2.324639E-1,1.1104463E-1],"split_indices":[13,13,13,13,13,13,17,123,16,16,123,3,117,3,28,84,9,18,142,123,54,118,18,52,117,17,13,123,36,36,131,0,0,0,0,0,0,0,0,0,0,0,0,0,0,0,0,0,0,0,0,0,0,0,0,0,0,0,0,0,0,0,0],"split_type":[0,0,0,0,0,0,0,0,0,0,0,0,0,0,0,0,0,0,0,0,0,0,0,0,0,0,0,0,0,0,0,0,0,0,0,0,0,0,0,0,0,0,0,0,0,0,0,0,0,0,0,0,0,0,0,0,0,0,0,0,0,0,0],"sum_hessian":[7.483944E3,3.9975776E3,3.4863665E3,1.7289891E3,2.2685884E3,2.4832988E3,1.0030676E3,4.6459717E2,1.264392E3,1.5340355E3,7.34553E2,1.2103037E3,1.2729951E3,8.285963E2,1.7447133E2,3.9153955E2,7.30576E1,1.1970201E3,6.737174E1,1.4928163E3,4.1219162E1,4.061251E2,3.2842786E2,1.4112057E2,1.0691832E3,4.6255457E2,8.104406E2,2.4150711E2,5.870892E2,7.884044E1,9.563088E1,3.7815512E2,1.3384429E1,1.035631E1,6.2701294E1,4.0616263E2,7.9085754E2,2.1797113E1,4.557463E1,1.5768076E2,1.3351355E3,1.9282934E1,2.193623E1,8.436008E0,3.976891E2,3.0790747E2,2.052037E1,1.1854988E2,2.2570684E1,8.5142206E2,2.1776115E2,1.0399477E1,4.521551E2,4.056262E2,4.048144E2,2.4079481E1,2.1742763E2,5.77069E2,1.0020198E1,3.3939747E1,4.4900696E1,6.642748E1,2.9203402E1],"tree_param":{"num_deleted":"0","num_feature":"143","num_nodes":"63","size_leaf_vector":"1"}},{"base_weights":[-4.6280193E0,-9.446752E0,9.456353E-1,-1.3123309E1,-6.738123E0,-1.5721185E0,5.5279865E0,-1.5384507E1,-1.1228771E1,-8.840867E0,-5.9616184E0,-3.1764605E0,7.289878E-2,3.3520076E0,8.495779E0,-1.8953182E1,-1.4157451E1,-1.2911058E1,-9.674356E0,-1.3265758E1,-7.9480505E0,-7.060667E0,-4.61759E0,-6.6629925E0,-2.921725E0,-1.4679058E0,9.675337E-1,5.3276267E0,2.6658351E0,7.1772194E0,1.1451548E1,-2.9627693E-1,-2.0695922E-1,-3.500443E-1,-1.8405767E-1,-1.9317792E-1,-1.4343163E-1,-1.2576374E-1,-2.8498268E-1,-1.5452483E-1,-3.0539116E-1,-8.885458E-2,-1.3061334E-1,-1.075932E-1,-7.15619E-2,-5.6129336E-2,-8.3612025E-2,-1.3584521E-1,-5.357933E-2,-3.631115E-2,-7.975182E-2,-8.669193E-2,-1.6286649E-2,-9.875615E-3,2.1191945E-2,6.408046E-2,1.7026465E-1,2.7705453E-2,5.947338E-2,2.2996531E-1,9.1791175E-2,1.2850769E-1,2.2771432E-1],"categories":[],"categories_nodes":[],"categories_segments":[],"categories_sizes":[],"default_left":[0,0,0,0,0,0,0,0,0,0,0,0,0,0,0,0,0,0,0,0,0,0,0,0,0,0,0,0,0,0,0,0,0,0,0,0,0,0,0,0,0,0,0,0,0,0,0,0,0,0,0,0,0,0,0,0,0,0,0,0,0,0,0],"id":11,"left_children":[1,3,5,7,9,11,13,15,17,19,21,23,25,27,29,31,33,35,37,39,41,43,45,47,49,51,53,55,57,59,61,-1,-1,-1,-1,-1,-1,-1,-1,-1,-1,-1,-1,-1,-1,-1,-1,-1,-1,-1,-1,-1,-1,-1,-1,-1,-1,-1,-1,-1,-1,-1,-1],"loss_changes":[2.023931E5,4.014347E4,4.0329023E4,7.156625E3,3.7376797E3,5.95779E3,7.9643125E3,3.1359844E3,2.3099062E3,2.3540625E3,2.4732695E3,9.849502E2,1.5363326E3,9.487119E2,1.9451914E3,1.8451719E3,2.3849219E3,1.3322188E3,1.3193633E3,1.4234277E3,1.1630508E3,1.5210078E3,4.9163477E2,6.58843E2,6.428633E2,4.952456E2,7.458185E2,6.5102734E2,5.485342E2,1.0074707E3,1.4651855E3,0E0,0E0,0E0,0E0,0E0,0E0,0E0,0E0,0E0,0E0,0E0,0E0,0E0,0E0,0E0,0E0,0E0,0E0,0E0,0E0,0E0,0E0,0E0,0E0,0E0,0E0,0E0,0E0,0E0,0E0,0E0,0E0],"parents":[2147483647,0,0,1,1,2,2,3,3,4,4,5,5,6,6,7,7,8,8,9,9,10,10,11,11,12,12,13,13,14,14,15,15,16,16,17,17,18,18,19,19,20,20,21,21,22,22,23,23,24,24,25,25,26,26,27,27,28,28,29,29,30,30],"right_children":[2,4,6,8,10,12,14,16,18,20,22,24,26,28,30,32,34,36,38,40,42,44,46,48,50,52,54,56,58,60,62,-1,-1,-1,-1,-1,-1,-1,-1,-1,-1,-1,-1,-1,-1,-1,-1,-1,-1,-1,-1,-1,-1,-1,-1,-1,-1,-1,-1,-1,-1,-1,-1],"split_conditions":[1.19E1,7.5E0,1.86E1,1.615E1,2.087E1,1.46E1,2.26E1,3.0349813E0,2.7427346E-1,4.2270532E-1,3.476862E-1,2.2093334E1,4.2865688E-1,1.5384616E-1,2.69E1,5E0,1E-1,7E-1,5.2E-1,4.1915123E1,6.2475425E-1,2.8773333E1,4.748161E-1,1.1E1,4.1875E0,3.3333334E-1,2.5E0,6.5E0,2.11E1,2.6E0,1.9E0,-2.9627693E-1,-2.0695922E-1,-3.500443E-1,-1.8405767E-1,-1.9317792E-1,-1.4343163E-1,-1.2576374E-1,-2.8498268E-1,-1.5452483E-1,-3.0539116E-1,-8.885458E-2,-1.3061334E-1,-1.075932E-1,-7.15619E-2,-5.6129336E-2,-8.3612025E-2,-1.3584521E-1,-5.357933E-2,-3.631115E-2,-7.975182E-2,-8.669193E-2,-1.6286649E-2,-9.875615E-3,2.1191945E-2,6.408046E-2,1.7026465E-1,2.7705453E-2,5.947338E-2,2.2996531E-1,9.1791175E-2,1.2850769E-1,2.2771432E-1],"split_indices":[5,5,5,2,2,5,5,6,17,117,17,2,17,131,5,49,14,134,131,127,124,2,117,46,16,33,14,134,5,7,134,0,0,0,0,0,0,0,0,0,0,0,0,0,0,0,0,0,0,0,0,0,0,0,0,0,0,0,0,0,0,0,0],"split_type":[0,0,0,0,0,0,0,0,0,0,0,0,0,0,0,0,0,0,0,0,0,0,0,0,0,0,0,0,0,0,0,0,0,0,0,0,0,0,0,0,0,0,0,0,0,0,0,0,0,0,0,0,0,0,0,0,0,0,0,0,0,0,0],"sum_hessian":[7.5341235E3,4.0405256E3,3.493598E3,1.7124154E3,2.32811E3,2.2549045E3,1.2386932E3,7.775855E2,9.3482983E2,6.250189E2,1.7030912E3,1.1415914E3,1.1133131E3,7.1599445E2,5.226987E2,1.9554099E2,5.8204456E2,4.4555347E2,4.892764E2,1.02709206E2,5.2230975E2,9.3438965E2,7.687016E2,7.591053E1,1.0656809E3,4.0819894E2,7.051142E2,1.8257936E2,5.334151E2,3.6378366E2,1.5891507E2,9.913625E1,9.640473E1,1.649634E1,5.655482E2,2.583546E2,1.8719887E2,4.7985825E2,9.418143E0,8.886164E1,1.384756E1,3.0720435E2,2.1510538E2,5.8990894E2,3.4448068E2,6.148305E2,1.5387108E2,3.1509989E1,4.4400543E1,1.0000358E3,6.564511E1,1.810259E1,3.9009634E2,1.867265E2,5.183877E2,1.7175255E2,1.0826811E1,4.02071E2,1.3134406E2,9.471112E0,3.5431253E2,1.2141562E2,3.7499454E1],"tree_param":{"num_deleted":"0","num_feature":"143","num_nodes":"63","size_leaf_vector":"1"}},{"base_weights":[-4.469444E0,-8.023364E0,2.5572996E0,-1.2390479E1,-5.4837785E0,6.207227E-1,7.4522023E0,-1.448465E1,-1.061399E1,-6.6817465E0,-3.8209555E0,-1.2646554E0,2.2678156E0,6.229957E0,1.1962789E1,-1.6458147E1,-1.3262524E1,-1.2155157E1,-8.961196E0,-7.617328E0,-5.638798E0,-8.189484E0,-3.5932424E0,-4.194711E-1,-2.473206E0,3.403409E0,1.4472733E0,5.0322394E0,7.8147492E0,1.6433428E1,9.549901E0,-2.322714E-1,-1.2215045E-1,-1.8567953E-1,-1.23218685E-1,-1.3525587E-1,-1.7861094E-1,-9.248498E-2,-1.4561258E-1,-1.24093466E-1,-9.218873E-2,-5.835364E-2,-8.3181486E-2,-1.9821012E-1,-8.882076E-2,-4.2199206E-2,-6.522489E-2,1.339518E-2,-1.3359242E-2,-1.3612369E-1,-3.0034523E-2,2.9379852E-2,6.27545E-2,-1.7422736E-2,2.2932498E-2,-7.1698152E-3,7.1943894E-2,9.508189E-2,1.692746E-1,3.629433E-1,1.8079881E-1,1.05076015E-1,1.9680838E-1],"categories":[],"categories_nodes":[],"categories_segments":[],"categories_sizes":[],"default_left":[0,0,0,0,0,0,0,0,0,0,0,0,0,0,0,0,0,0,0,0,0,0,0,0,0,0,0,0,0,0,0,0,0,0,0,0,0,0,0,0,0,0,0,0,0,0,0,0,0,0,0,0,0,0,0,0,0,0,0,0,0,0,0],"id":12,"left_children":[1,3,5,7,9,11,13,15,17,19,21,23,25,27,29,31,33,35,37,39,41,43,45,47,49,51,53,55,57,59,61,-1,-1,-1,-1,-1,-1,-1,-1,-1,-1,-1,-1,-1,-1,-1,-1,-1,-1,-1,-1,-1,-1,-1,-1,-1,-1,-1,-1,-1,-1,-1,-1],"loss_changes":[1.911436E5,5.62905E4,2.435752E4,6.785125E3,6.3694844E3,5.728259E3,3.9285117E3,1.8357656E3,2.4621953E3,1.7675625E3,1.3008066E3,8.7324243E2,9.065552E2,1.0409004E3,1.4944395E3,1.9892812E3,1.206E3,1.1342031E3,1.8561328E3,1.103043E3,6.208008E2,5.629673E2,6.97125E2,4.1903152E2,5.807715E2,6.2226074E2,4.2513416E2,6.504668E2,7.337207E2,1.2757412E3,7.657959E2,0E0,0E0,0E0,0E0,0E0,0E0,0E0,0E0,0E0,0E0,0E0,0E0,0E0,0E0,0E0,0E0,0E0,0E0,0E0,0E0,0E0,0E0,0E0,0E0,0E0,0E0,0E0,0E0,0E0,0E0,0E0,0E0],"parents":[2147483647,0,0,1,1,2,2,3,3,4,4,5,5,6,6,7,7,8,8,9,9,10,10,11,11,12,12,13,13,14,14,15,15,16,16,17,17,18,18,19,19,20,20,21,21,22,22,23,23,24,24,25,25,26,26,27,27,28,28,29,29,30,30],"right_children":[2,4,6,8,10,12,14,16,18,20,22,24,26,28,30,32,34,36,38,40,42,44,46,48,50,52,54,56,58,60,62,-1,-1,-1,-1,-1,-1,-1,-1,-1,-1,-1,-1,-1,-1,-1,-1,-1,-1,-1,-1,-1,-1,-1,-1,-1,-1,-1,-1,-1,-1,-1,-1],"split_conditions":[1.4E1,7.7E0,2.11E1,1.6276667E1,1.11E1,1.68E1,2.69E1,3.072871E-1,6.5E0,9.8E0,1.998E1,3.6289683E-1,4.626984E-1,2.75E0,3.554762E-1,6.285714E0,1.1899711E2,2.489796E-1,3.0613276E-1,1.9853333E1,4.1051808E-1,6E0,3.952381E-1,4.202042E-1,6.25E-1,1.86E1,1.56E1,1.0422637E2,1.75E0,1.15384616E-1,1.14921326E2,-2.322714E-1,-1.2215045E-1,-1.8567953E-1,-1.23218685E-1,-1.3525587E-1,-1.7861094E-1,-9.248498E-2,-1.4561258E-1,-1.24093466E-1,-9.218873E-2,-5.835364E-2,-8.3181486E-2,-1.9821012E-1,-8.882076E-2,-4.2199206E-2,-6.522489E-2,1.339518E-2,-1.3359242E-2,-1.3612369E-1,-3.0034523E-2,2.9379852E-2,6.27545E-2,-1.7422736E-2,2.2932498E-2,-7.1698152E-3,7.1943894E-2,9.508189E-2,1.692746E-1,3.629433E-1,1.8079881E-1,1.05076015E-1,1.9680838E-1],"split_indices":[5,5,5,2,5,5,5,117,4,4,2,36,35,30,36,49,18,36,36,2,35,46,36,35,31,5,4,18,26,131,18,0,0,0,0,0,0,0,0,0,0,0,0,0,0,0,0,0,0,0,0,0,0,0,0,0,0,0,0,0,0,0,0],"split_type":[0,0,0,0,0,0,0,0,0,0,0,0,0,0,0,0,0,0,0,0,0,0,0,0,0,0,0,0,0,0,0,0,0,0,0,0,0,0,0,0,0,0,0,0,0,0,0,0,0,0,0,0,0,0,0,0,0,0,0,0,0,0,0],"sum_hessian":[7.652325E3,5.0820503E3,2.5702751E3,1.8672568E3,3.2147932E3,1.8425428E3,7.2773224E2,8.538669E2,1.01338995E3,1.8666187E3,1.3481746E3,8.588274E2,9.837154E2,5.744051E2,1.533272E2,3.2208426E2,5.317826E2,5.21189E2,4.922009E2,9.804469E2,8.8617175E2,6.502703E1,1.2831476E3,5.0673233E2,3.520951E2,4.1081747E2,5.728979E2,3.296634E2,2.4474168E2,5.1821915E1,1.0150528E2,2.8515915E2,3.6925102E1,4.5861176E2,7.317087E1,1.9677943E2,3.244096E2,2.4121008E2,2.5099083E2,2.9325174E2,6.871952E2,2.809289E2,6.052428E2,1.0750407E1,5.4276627E1,9.604099E2,3.2273764E2,1.4592963E2,3.608027E2,8.833886E0,3.432612E2,2.1405182E2,1.9676566E2,5.009603E1,5.228019E2,1.9155123E1,3.1050827E2,2.1578322E2,2.8958466E1,9.468744E0,4.235317E1,7.829129E1,2.3213987E1],"tree_param":{"num_deleted":"0","num_feature":"143","num_nodes":"63","size_leaf_vector":"1"}},{"base_weights":[-4.3962197E0,-7.886834E0,2.502208E0,-1.207862E1,-5.6434073E0,3.957541E-1,6.7612286E0,-1.3024161E1,-9.442651E0,-7.114228E0,-4.143481E0,-6.176391E-1,2.0308838E0,4.7011204E0,8.634519E0,-1.7491085E1,-1.2482113E1,-1.1233516E1,-7.883166E0,-8.607624E0,-6.41064E0,-8.846958E0,-3.9651353E0,-1.80969E0,4.4245866E-1,1.6281059E0,4.705771E0,9.618383E0,4.3180895E0,9.085345E0,1.1089077E0,-3.2701147E-1,-2.1215664E-1,-1.4341596E-1,-1.7916402E-1,-1.1779017E-1,-1.8333806E-1,-9.770322E-2,-2.1694274E-1,-8.854427E-2,-1.3412645E-1,-9.8298796E-2,-6.535376E-2,-1.4621453E-1,-9.636783E-3,-6.851302E-2,-4.557026E-2,-3.1381615E-2,1.850946E-4,-6.694368E-3,1.5617626E-2,3.1685755E-2,7.175748E-3,7.8774415E-2,2.8759368E-2,1.6522498E-1,4.0326763E-2,4.0802505E-2,7.551786E-2,1.7242225E-1,1.0937625E-1,3.7823003E-2,-3.167242E-2],"categories":[],"categories_nodes":[],"categories_segments":[],"categories_sizes":[],"default_left":[0,0,0,0,0,0,0,0,0,0,0,0,0,0,0,0,0,0,0,0,0,0,0,0,0,0,0,0,0,0,0,0,0,0,0,0,0,0,0,0,0,0,0,0,0,0,0,0,0,0,0,0,0,0,0,0,0,0,0,0,0,0,0],"id":13,"left_children":[1,3,5,7,9,11,13,15,17,19,21,23,25,27,29,31,33,35,37,39,41,43,45,47,49,51,53,55,57,59,61,-1,-1,-1,-1,-1,-1,-1,-1,-1,-1,-1,-1,-1,-1,-1,-1,-1,-1,-1,-1,-1,-1,-1,-1,-1,-1,-1,-1,-1,-1,-1,-1],"loss_changes":[1.8648705E5,4.8274375E4,2.333392E4,4.3305312E3,7.3529062E3,2.8899617E3,3.269504E3,2.9604688E3,1.2294102E3,1.7087656E3,1.3465625E3,1.3619724E3,7.0376587E2,7.219883E2,1.5025039E3,1.2000117E3,1.7414062E3,1.1846523E3,1.1064082E3,1.442293E3,1.605207E3,9.9107324E2,1.00800977E3,5.00182E2,3.9110858E2,4.658385E2,2.4005322E2,4.6872754E2,6.205249E2,1.3431602E3,1.650679E2,0E0,0E0,0E0,0E0,0E0,0E0,0E0,0E0,0E0,0E0,0E0,0E0,0E0,0E0,0E0,0E0,0E0,0E0,0E0,0E0,0E0,0E0,0E0,0E0,0E0,0E0,0E0,0E0,0E0,0E0,0E0,0E0],"parents":[2147483647,0,0,1,1,2,2,3,3,4,4,5,5,6,6,7,7,8,8,9,9,10,10,11,11,12,12,13,13,14,14,15,15,16,16,17,17,18,18,19,19,20,20,21,21,22,22,23,23,24,24,25,25,26,26,27,27,28,28,29,29,30,30],"right_children":[2,4,6,8,10,12,14,16,18,20,22,24,26,28,30,32,34,36,38,40,42,44,46,48,50,52,54,56,58,60,62,-1,-1,-1,-1,-1,-1,-1,-1,-1,-1,-1,-1,-1,-1,-1,-1,-1,-1,-1,-1,-1,-1,-1,-1,-1,-1,-1,-1,-1,-1,-1,-1],"split_conditions":[1.09E1,5.9E0,1.55E1,1.998E1,8.3E0,1.34E1,5E0,7.6E0,4.4444446E-3,2.076E1,1.8836666E1,2.6E0,5.4E0,3.7E0,1E0,3E-1,1.15E1,1.3971539E-1,1.49E1,1.14E1,4.081847E1,2.6666667E0,1.5E0,3.294E1,-4E-1,2.3684211E-1,2.8E-1,1.0116667E0,1.71E1,1.0344828E-1,4.9943277E-1,-3.2701147E-1,-2.1215664E-1,-1.4341596E-1,-1.7916402E-1,-1.1779017E-1,-1.8333806E-1,-9.770322E-2,-2.1694274E-1,-8.854427E-2,-1.3412645E-1,-9.8298796E-2,-6.535376E-2,-1.4621453E-1,-9.636783E-3,-6.851302E-2,-4.557026E-2,-3.1381615E-2,1.850946E-4,-6.694368E-3,1.5617626E-2,3.1685755E-2,7.175748E-3,7.8774415E-2,2.8759368E-2,1.6522498E-1,4.0326763E-2,4.0802505E-2,7.551786E-2,1.7242225E-1,1.0937625E-1,3.7823003E-2,-3.167242E-2],"split_indices":[13,13,13,2,13,13,14,54,135,2,2,14,14,49,107,132,54,118,54,54,127,14,14,2,120,131,131,123,13,131,125,0,0,0,0,0,0,0,0,0,0,0,0,0,0,0,0,0,0,0,0,0,0,0,0,0,0,0,0,0,0,0,0],"split_type":[0,0,0,0,0,0,0,0,0,0,0,0,0,0,0,0,0,0,0,0,0,0,0,0,0,0,0,0,0,0,0,0,0,0,0,0,0,0,0,0,0,0,0,0,0,0,0,0,0,0,0,0,0,0,0,0,0,0,0,0,0,0,0],"sum_hessian":[7.742712E3,5.1412905E3,2.6014216E3,1.7908354E3,3.350455E3,1.7413983E3,8.600233E2,1.3152037E3,4.7563168E2,1.6895768E3,1.6608782E3,1.0748984E3,6.664999E2,4.1135327E2,4.4867004E2,1.3918686E2,1.1760168E3,2.1853673E2,2.5709497E2,5.374177E2,1.152159E3,5.8890873E1,1.6019873E3,5.062912E2,5.6860724E2,5.8090564E2,8.559424E1,2.7992117E1,3.8336115E2,4.229728E2,2.5697227E1,2.3901114E1,1.15285736E2,4.0783298E2,7.681839E2,1.1271223E2,1.0582449E2,2.4213194E2,1.4963019E1,2.2684366E2,3.105741E2,7.095059E2,4.4265317E2,4.6482323E1,1.2408551E1,5.168896E2,1.0850977E3,3.9145285E2,1.14838356E2,2.4652747E2,3.2207977E2,3.4452625E2,2.3637938E2,5.7336838E1,2.8257402E1,1.9115728E1,8.876389E0,1.9832559E2,1.8503555E2,7.874189E1,3.4423093E2,1.7565111E1,8.132117E0],"tree_param":{"num_deleted":"0","num_feature":"143","num_nodes":"63","size_leaf_vector":"1"}},{"base_weights":[-4.2951283E0,-8.15119E0,1.5938941E0,-1.1569056E1,-5.816532E0,-6.15508E-1,6.101679E0,-1.3201367E1,-9.981231E0,-6.9049835E0,-4.3096924E0,-1.8178309E0,1.5478779E0,4.993562E0,1.0958911E1,-1.3867175E1,-9.539464E0,-1.1324447E1,-8.707334E0,-2.6823038E-1,-6.815717E0,-1.1642682E1,-4.190333E0,-2.6692655E0,-7.70462E-1,1.2007266E0,3.3937912E0,3.010366E0,6.040512E0,1.2424591E1,6.7151303E0,-1.796151E-1,-2.7756563E-1,-1.5113029E-1,-7.991608E-2,-1.3828653E-1,-2.2238351E-1,-1.2946938E-1,-8.448204E-2,-1.1437304E-1,-8.689574E-2,-8.220046E-2,-2.0560288E-1,-6.622352E-2,-4.3492932E-2,-4.3276366E-2,-2.114056E-2,-1.9667802E-2,1.5491223E-3,1.3890512E-2,7.172873E-2,3.0973732E-2,7.4641176E-2,3.6457725E-2,1.1564807E-1,7.760115E-2,1.7281042E-1,2.1167344E-1,1.2966768E-1,6.3901275E-2,1.886242E-1],"categories":[],"categories_nodes":[],"categories_segments":[],"categories_sizes":[],"default_left":[0,0,0,0,0,0,0,0,0,0,0,0,0,0,0,0,0,0,0,0,0,0,0,0,0,0,0,0,0,0,0,0,0,0,0,0,0,0,0,0,0,0,0,0,0,0,0,0,0,0,0,0,0,0,0,0,0,0,0,0,0],"id":14,"left_children":[1,3,5,7,9,11,13,15,17,19,21,23,25,27,29,31,33,35,37,-1,39,41,43,45,47,49,51,53,55,57,59,-1,-1,-1,-1,-1,-1,-1,-1,-1,-1,-1,-1,-1,-1,-1,-1,-1,-1,-1,-1,-1,-1,-1,-1,-1,-1,-1,-1,-1,-1],"loss_changes":[1.7773938E5,3.7659688E4,3.0858477E4,4.8287656E3,4.5715E3,5.410718E3,5.4165703E3,2.1547031E3,1.5596016E3,1.762375E3,9.7156055E2,1.1859814E3,4.6618298E2,1.6986426E3,1.0745723E3,2.095125E3,8.4946387E2,2.276754E3,1.1039688E3,0E0,8.248125E2,2.652671E2,8.0767773E2,4.4375635E2,3.754814E2,4.090846E2,2.5279419E2,4.273623E2,7.9533594E2,1.1238105E3,6.386658E2,0E0,0E0,0E0,0E0,0E0,0E0,0E0,0E0,0E0,0E0,0E0,0E0,0E0,0E0,0E0,0E0,0E0,0E0,0E0,0E0,0E0,0E0,0E0,0E0,0E0,0E0,0E0,0E0,0E0,0E0],"parents":[2147483647,0,0,1,1,2,2,3,3,4,4,5,5,6,6,7,7,8,8,9,9,10,10,11,11,12,12,13,13,14,14,15,15,16,16,17,17,18,18,20,20,21,21,22,22,23,23,24,24,25,25,26,26,27,27,28,28,29,29,30,30],"right_children":[2,4,6,8,10,12,14,16,18,20,22,24,26,28,30,32,34,36,38,-1,40,42,44,46,48,50,52,54,56,58,60,-1,-1,-1,-1,-1,-1,-1,-1,-1,-1,-1,-1,-1,-1,-1,-1,-1,-1,-1,-1,-1,-1,-1,-1,-1,-1,-1,-1,-1,-1],"split_conditions":[1.01E1,7.6E0,1.5E1,4.5E0,1.06E1,1.68E1,2.65E1,3.0866666E0,2.7142856E0,-6.4616666E0,-4.443333E0,1.15E1,3E0,2.07E1,9.3666667E-1,3.630851E1,4E0,2.6666667E0,5.116422E0,-2.6823038E-1,1.4529663E0,4.1E0,9.1E0,1.42E1,2.7142856E0,2.15E1,6.2E0,3.0664396E-1,1.8333334E0,1.01384E2,1.03016E2,-1.796151E-1,-2.7756563E-1,-1.5113029E-1,-7.991608E-2,-1.3828653E-1,-2.2238351E-1,-1.2946938E-1,-8.448204E-2,-1.1437304E-1,-8.689574E-2,-8.220046E-2,-2.0560288E-1,-6.622352E-2,-4.3492932E-2,-4.3276366E-2,-2.114056E-2,-1.9667802E-2,1.5491223E-3,1.3890512E-2,7.172873E-2,3.0973732E-2,7.4641176E-2,3.6457725E-2,1.1564807E-1,7.760115E-2,1.7281042E-1,2.1167344E-1,1.2966768E-1,6.3901275E-2,1.886242E-1],"split_indices":[13,5,13,13,5,5,5,123,56,123,123,13,142,5,123,128,38,56,6,0,9,55,13,5,56,5,7,118,27,25,20,0,0,0,0,0,0,0,0,0,0,0,0,0,0,0,0,0,0,0,0,0,0,0,0,0,0,0,0,0,0],"split_type":[0,0,0,0,0,0,0,0,0,0,0,0,0,0,0,0,0,0,0,0,0,0,0,0,0,0,0,0,0,0,0,0,0,0,0,0,0,0,0,0,0,0,0,0,0,0,0,0,0,0,0,0,0,0,0,0,0,0,0,0,0],"sum_hessian":[7.825293E3,4.7288247E3,3.0964683E3,1.9175919E3,2.811233E3,2.0782695E3,1.01819855E3,9.420693E2,9.7552264E2,1.6299252E3,1.1813076E3,1.3363519E3,7.419177E2,8.306878E2,1.8751076E2,7.9481995E2,1.4724931E2,4.7106537E2,5.0445728E2,9.604694E0,1.6203206E3,1.742663E1,1.163881E3,7.3567444E2,6.006775E2,6.262805E2,1.1563717E2,2.8860043E2,5.4208734E2,1.379206E2,4.9590157E1,7.50302E2,4.451795E1,9.700219E1,5.024713E1,3.9984732E2,7.1218025E1,3.5592136E2,1.485359E2,2.45683E2,1.3746376E3,8.1068535E0,9.319776E0,6.3901056E2,5.2487036E2,4.8161145E2,2.5406302E2,3.36067E2,2.646105E2,6.041847E2,2.2095865E1,7.908422E1,3.6552944E1,2.7620554E2,1.2394884E1,5.2577E2,1.6317327E1,5.9283276E1,7.863732E1,4.0550354E1,9.039804E0],"tree_param":{"num_deleted":"0","num_feature":"143","num_nodes":"61","size_leaf_vector":"1"}},{"base_weights":[-4.185199E0,-7.375699E0,2.5533078E0,-1.0800793E1,-5.098503E0,7.1111685E-1,7.044713E0,-1.2140594E1,-8.956777E0,-6.5028224E0,-3.8978937E0,-9.471239E-1,2.0328815E0,5.800294E0,1.0627291E1,-1.5786085E1,-1.1722178E1,-9.566025E0,-7.0857735E0,-6.325673E0,-1.0732615E1,-4.303161E0,-2.1080513E0,8.2353294E-1,-1.5767273E0,8.8489807E-1,2.9580364E0,1.8968949E0,6.1864176E0,7.227564E0,1.3696622E1,-2.791281E-1,-1.8368533E-1,-1.753773E-1,-1.4407907E-1,-1.3158765E-1,-3.926487E-2,-8.0906354E-2,-1.3584062E-1,-8.206757E-2,-1.4617822E-1,-1.1660009E-1,-2.4997944E-1,-6.2274307E-2,-3.8411774E-2,-1.505525E-2,-4.942935E-2,4.7111113E-2,-1.5150207E-3,-6.594874E-2,-1.694642E-2,-8.396747E-2,1.3994636E-2,1.9211732E-2,4.906138E-2,-9.370855E-3,6.173077E-2,6.598062E-2,9.7981706E-2,8.284147E-2,2.1236698E-1,1.651933E-1,3.4149337E-1],"categories":[],"categories_nodes":[],"categories_segments":[],"categories_sizes":[],"default_left":[0,0,0,0,0,0,0,0,0,0,0,0,0,0,0,0,0,0,0,0,0,0,0,0,0,0,0,0,0,0,0,0,0,0,0,0,0,0,0,0,0,0,0,0,0,0,0,0,0,0,0,0,0,0,0,0,0,0,0,0,0,0,0],"id":15,"left_children":[1,3,5,7,9,11,13,15,17,19,21,23,25,27,29,31,33,35,37,39,41,43,45,47,49,51,53,55,57,59,61,-1,-1,-1,-1,-1,-1,-1,-1,-1,-1,-1,-1,-1,-1,-1,-1,-1,-1,-1,-1,-1,-1,-1,-1,-1,-1,-1,-1,-1,-1,-1,-1],"loss_changes":[1.7014628E5,4.1820594E4,2.102748E4,5.1753125E3,5.406328E3,3.958537E3,3.2215898E3,1.6950781E3,9.521875E2,1.0323867E3,1.2475898E3,8.94601E2,1.0597832E3,8.0927734E2,1.8628691E3,1.0102949E3,1.31875E3,1.200293E3,6.454463E2,1.1556641E3,7.567544E2,6.977793E2,4.9541125E2,5.3614355E2,5.999855E2,5.2029016E2,5.8948145E2,3.6944583E2,6.6791016E2,7.06375E2,1.243375E3,0E0,0E0,0E0,0E0,0E0,0E0,0E0,0E0,0E0,0E0,0E0,0E0,0E0,0E0,0E0,0E0,0E0,0E0,0E0,0E0,0E0,0E0,0E0,0E0,0E0,0E0,0E0,0E0,0E0,0E0,0E0,0E0],"parents":[2147483647,0,0,1,1,2,2,3,3,4,4,5,5,6,6,7,7,8,8,9,9,10,10,11,11,12,12,13,13,14,14,15,15,16,16,17,17,18,18,19,19,20,20,21,21,22,22,23,23,24,24,25,25,26,26,27,27,28,28,29,29,30,30],"right_children":[2,4,6,8,10,12,14,16,18,20,22,24,26,28,30,32,34,36,38,40,42,44,46,48,50,52,54,56,58,60,62,-1,-1,-1,-1,-1,-1,-1,-1,-1,-1,-1,-1,-1,-1,-1,-1,-1,-1,-1,-1,-1,-1,-1,-1,-1,-1,-1,-1,-1,-1,-1,-1],"split_conditions":[1.42E1,7.9E0,2.11E1,5E0,8.3E0,1.68E1,2.65E1,2.5E0,6.6E0,6.0625E0,1.09E1,3.0613276E-1,3.375E0,1.05941185E2,6.3473666E-1,1.375E0,1.1181114E2,5.2E0,1E0,9.813068E-1,3.7911567E-1,2.6666667E0,4.5443222E-1,3.4E0,2.5136667E1,3.8136214E-1,4.7543773E-1,6.708222E-1,4.6E0,3.023783E1,3.5E0,-2.791281E-1,-1.8368533E-1,-1.753773E-1,-1.4407907E-1,-1.3158765E-1,-3.926487E-2,-8.0906354E-2,-1.3584062E-1,-8.206757E-2,-1.4617822E-1,-1.1660009E-1,-2.4997944E-1,-6.2274307E-2,-3.8411774E-2,-1.505525E-2,-4.942935E-2,4.7111113E-2,-1.5150207E-3,-6.594874E-2,-1.694642E-2,-8.396747E-2,1.3994636E-2,1.9211732E-2,4.906138E-2,-9.370855E-3,6.173077E-2,6.598062E-2,9.7981706E-2,8.284147E-2,2.1236698E-1,1.651933E-1,3.4149337E-1],"split_indices":[5,5,5,13,13,5,5,13,13,16,13,36,11,18,17,56,18,34,58,125,17,14,117,34,3,17,17,117,11,128,56,0,0,0,0,0,0,0,0,0,0,0,0,0,0,0,0,0,0,0,0,0,0,0,0,0,0,0,0,0,0,0,0],"split_type":[0,0,0,0,0,0,0,0,0,0,0,0,0,0,0,0,0,0,0,0,0,0,0,0,0,0,0,0,0,0,0,0,0,0,0,0,0,0,0,0,0,0,0,0,0,0,0,0,0,0,0,0,0,0,0,0,0,0,0,0,0,0,0],"sum_hessian":[7.912174E3,5.3698296E3,2.5423442E3,2.1429224E3,3.2269075E3,1.8037905E3,7.385538E2,1.2379762E3,9.0494604E2,1.4850269E3,1.7418805E3,7.9970447E2,1.00408606E3,5.5008234E2,1.8847145E2,1.239213E2,1.1140549E3,6.7947375E2,2.254723E2,1.4276719E3,5.7354946E1,1.418692E3,3.2318848E2,2.0912425E2,5.905802E2,4.4948602E2,5.5460004E2,5.028805E1,4.9979428E2,9.098297E1,9.748848E1,3.3131916E1,9.078938E1,4.454521E2,6.6860284E2,6.517728E2,2.7700901E1,1.7090143E2,5.4570873E1,1.3739364E3,5.373553E1,4.7340065E1,1.0014883E1,1.1347004E3,2.839916E2,2.0116106E2,1.2202741E2,5.364861E1,1.5547565E2,4.8397823E1,5.421824E2,9.029357E0,4.4045667E2,1.7813275E2,3.764673E2,2.5783766E1,2.4504286E1,2.4113367E2,2.586606E2,8.273181E1,8.251163E0,8.922574E1,8.262746E0],"tree_param":{"num_deleted":"0","num_feature":"143","num_nodes":"63","size_leaf_vector":"1"}},{"base_weights":[-4.0478654E0,-7.1821904E0,2.3563168E0,-1.0005668E1,-4.865747E0,3.494303E-1,6.1884446E0,-1.0836516E1,-7.81641E0,-5.725711E0,-3.4087234E0,-6.215616E-1,1.7815142E0,5.058194E0,9.010681E0,-1.1394651E1,-8.004336E0,-8.518604E0,-5.456298E0,-7.916934E0,-5.431961E0,-7.921003E0,-3.217306E0,-1.767301E0,-1.4895096E-1,2.4921484E-1,2.2723486E0,4.0459733E0,6.492777E0,7.290507E0,1.1619524E1,-1.9868736E-1,-1.4766544E-1,-9.521902E-2,-1.701592E-1,-1.0790877E-1,-1.6679886E-1,-1.2566866E-1,-6.4309575E-2,-9.6791044E-2,-1.8209071E-1,-8.3897926E-2,-6.346282E-2,-6.596099E-2,-1.6658217E-1,-7.2409794E-2,-4.0096045E-2,1.5956694E-2,-2.8107684E-2,-3.0069608E-2,2.5144748E-3,-1.0682146E-2,2.4631208E-2,4.457367E-2,2.2251679E-2,9.267719E-2,4.587308E-2,4.326571E-2,9.664062E-2,7.5434685E-2,1.6862676E-1,1.0497584E-1,2.0825937E-1],"categories":[],"categories_nodes":[],"categories_segments":[],"categories_sizes":[],"default_left":[0,0,0,0,0,0,0,0,0,0,0,0,0,0,0,0,0,0,0,0,0,0,0,0,0,0,0,0,0,0,0,0,0,0,0,0,0,0,0,0,0,0,0,0,0,0,0,0,0,0,0,0,0,0,0,0,0,0,0,0,0,0,0],"id":16,"left_children":[1,3,5,7,9,11,13,15,17,19,21,23,25,27,29,31,33,35,37,39,41,43,45,47,49,51,53,55,57,59,61,-1,-1,-1,-1,-1,-1,-1,-1,-1,-1,-1,-1,-1,-1,-1,-1,-1,-1,-1,-1,-1,-1,-1,-1,-1,-1,-1,-1,-1,-1,-1,-1],"loss_changes":[1.6161866E5,3.529278E4,2.0337752E4,4.3318438E3,3.6938906E3,2.418775E3,2.8419414E3,2.6821562E3,1.0573828E3,1.1466953E3,9.179219E2,5.578815E2,5.246968E2,9.09166E2,1.0624512E3,1.6117656E3,1.1191055E3,8.029922E2,3.4289648E2,7.31374E2,9.124961E2,5.2210815E2,4.8487402E2,3.0230127E2,5.23315E2,2.901372E2,3.3151196E2,6.484321E2,6.061914E2,1.3042188E3,1.369791E3,0E0,0E0,0E0,0E0,0E0,0E0,0E0,0E0,0E0,0E0,0E0,0E0,0E0,0E0,0E0,0E0,0E0,0E0,0E0,0E0,0E0,0E0,0E0,0E0,0E0,0E0,0E0,0E0,0E0,0E0,0E0,0E0],"parents":[2147483647,0,0,1,1,2,2,3,3,4,4,5,5,6,6,7,7,8,8,9,9,10,10,11,11,12,12,13,13,14,14,15,15,16,16,17,17,18,18,19,19,20,20,21,21,22,22,23,23,24,24,25,25,26,26,27,27,28,28,29,29,30,30],"right_children":[2,4,6,8,10,12,14,16,18,20,22,24,26,28,30,32,34,36,38,40,42,44,46,48,50,52,54,56,58,60,62,-1,-1,-1,-1,-1,-1,-1,-1,-1,-1,-1,-1,-1,-1,-1,-1,-1,-1,-1,-1,-1,-1,-1,-1,-1,-1,-1,-1,-1,-1,-1,-1],"split_conditions":[1.09E1,6.6E0,1.54E1,2.087E1,9.1E0,1.33E1,7.3746043E-1,4.58747E-1,2.6603333E1,1.85E1,1.998E1,1.1016757E2,5.212059E-1,3.493E1,1.98E1,1.5E0,-4E-1,3.1041667E0,1.8333334E0,3.9583333E0,3.9645776E-1,6.686E1,1.354E1,2.6560634E-1,2.561E1,3E0,3.2403335E-1,-3.2E0,1.0794286E2,3.1780498E0,1.0122E2,-1.9868736E-1,-1.4766544E-1,-9.521902E-2,-1.701592E-1,-1.0790877E-1,-1.6679886E-1,-1.2566866E-1,-6.4309575E-2,-9.6791044E-2,-1.8209071E-1,-8.3897926E-2,-6.346282E-2,-6.596099E-2,-1.6658217E-1,-7.2409794E-2,-4.0096045E-2,1.5956694E-2,-2.8107684E-2,-3.0069608E-2,2.5144748E-3,-1.0682146E-2,2.4631208E-2,4.457367E-2,2.2251679E-2,9.267719E-2,4.587308E-2,4.326571E-2,9.664062E-2,7.5434685E-2,1.6862676E-1,1.0497584E-1,2.0825937E-1],"split_indices":[13,13,13,2,13,13,117,117,2,2,2,18,117,3,13,56,142,16,56,16,117,52,52,124,2,56,124,134,18,9,21,0,0,0,0,0,0,0,0,0,0,0,0,0,0,0,0,0,0,0,0,0,0,0,0,0,0,0,0,0,0,0,0],"split_type":[0,0,0,0,0,0,0,0,0,0,0,0,0,0,0,0,0,0,0,0,0,0,0,0,0,0,0,0,0,0,0,0,0,0,0,0,0,0,0,0,0,0,0,0,0,0,0,0,0,0,0,0,0,0,0,0,0,0,0,0,0,0,0],"sum_hessian":[8.049737E3,5.404693E3,2.6450437E3,2.4342356E3,2.9704575E3,1.7367767E3,9.0826697E2,1.7616837E3,6.725518E2,1.8658E3,1.1046575E3,1.0347222E3,7.020545E2,6.5057574E2,2.5769122E2,1.4691202E3,2.9256348E2,5.161817E2,1.5637009E2,2.1740596E2,1.648394E3,4.3270245E1,1.0613872E3,3.006428E2,7.340794E2,1.7131773E2,5.3073676E2,3.8389764E2,2.666781E2,1.57549E2,1.0014223E2,1.3143675E2,1.3376835E3,2.4851318E2,4.4050297E1,4.6629407E2,4.988766E1,2.0116638E1,1.3625343E2,1.9623721E2,2.116874E1,7.3540125E2,9.1299274E2,2.7339495E1,1.5930749E1,9.357293E1,9.678143E2,2.991088E1,2.7073193E2,1.0141823E2,6.326612E2,1.0306116E2,6.825657E1,1.9112312E2,3.3961365E2,6.553746E1,3.183602E2,5.028944E1,2.1638867E2,1.21809845E2,3.5739143E1,5.2761383E1,4.7380844E1],"tree_param":{"num_deleted":"0","num_feature":"143","num_nodes":"63","size_leaf_vector":"1"}},{"base_weights":[-3.9452453E0,-6.922331E0,2.4743323E0,-9.93187E0,-4.8438807E0,7.255777E-1,6.86392E0,-9.300323E0,-1.3316796E1,-6.038356E0,-3.3002548E0,-5.041647E-1,2.5213306E0,5.714669E0,1.0888167E1,-1.1339649E1,-8.46732E0,-1.5229215E1,-1.072372E1,-2.2884363E-1,-5.9396234E0,-5.471165E0,-2.84345E0,-2.1044068E0,5.547415E-2,5.664014E-1,3.0063622E0,5.0414557E0,8.889281E0,1.4409378E1,8.754322E0,-1.4702682E-1,-2.4421531E-1,-1.1769434E-1,-7.0628375E-2,-1.7632313E-1,-2.3856433E-1,-1.6058974E-1,-6.104405E-2,-1.0190798E-1,-7.506765E-2,-6.76398E-2,-1.665749E-1,-2.7264891E-2,-4.9566343E-2,-9.4708E-2,-2.471384E-2,1.9804848E-2,-7.911895E-3,-3.4298994E-2,1.4841491E-2,4.576214E-2,5.2447594E-3,5.144544E-2,8.786351E-2,5.009283E-2,1.4091296E-1,3.2338387E-1,1.5650329E-1,2.3212694E-1,9.848068E-2],"categories":[],"categories_nodes":[],"categories_segments":[],"categories_sizes":[],"default_left":[0,0,0,0,0,0,0,0,0,0,0,0,0,0,0,0,0,0,0,0,0,0,0,0,0,0,0,0,0,0,0,0,0,0,0,0,0,0,0,0,0,0,0,0,0,0,0,0,0,0,0,0,0,0,0,0,0,0,0,0,0],"id":17,"left_children":[1,3,5,7,9,11,13,15,17,19,21,23,25,27,29,31,33,35,37,-1,39,41,43,45,47,49,51,53,55,57,59,-1,-1,-1,-1,-1,-1,-1,-1,-1,-1,-1,-1,-1,-1,-1,-1,-1,-1,-1,-1,-1,-1,-1,-1,-1,-1,-1,-1,-1,-1],"loss_changes":[1.541124E5,3.4396406E4,1.9597816E4,4.672203E3,5.9816094E3,4.0411685E3,3.2892734E3,3.1168594E3,1.5684102E3,1.8906328E3,1.3881514E3,9.749446E2,6.988076E2,1.1567383E3,1.0666367E3,1.0923047E3,1.3839922E3,8.2471484E2,1.137709E3,0E0,9.4228516E2,6.318989E2,8.048164E2,3.3595667E2,7.441688E2,2.5481125E2,6.4107324E2,8.2433105E2,7.77501E2,1.2703027E3,1.0803955E3,0E0,0E0,0E0,0E0,0E0,0E0,0E0,0E0,0E0,0E0,0E0,0E0,0E0,0E0,0E0,0E0,0E0,0E0,0E0,0E0,0E0,0E0,0E0,0E0,0E0,0E0,0E0,0E0,0E0,0E0],"parents":[2147483647,0,0,1,1,2,2,3,3,4,4,5,5,6,6,7,7,8,8,9,9,10,10,11,11,12,12,13,13,14,14,15,15,16,16,17,17,18,18,20,20,21,21,22,22,23,23,24,24,25,25,26,26,27,27,28,28,29,29,30,30],"right_children":[2,4,6,8,10,12,14,16,18,20,22,24,26,28,30,32,34,36,38,-1,40,42,44,46,48,50,52,54,56,58,60,-1,-1,-1,-1,-1,-1,-1,-1,-1,-1,-1,-1,-1,-1,-1,-1,-1,-1,-1,-1,-1,-1,-1,-1,-1,-1,-1,-1,-1,-1],"split_conditions":[1.42E1,7.9E0,2.13E1,-1.1E0,1.11E1,1.78E1,2.69E1,4.7E0,2.3506306E1,-5.8683333E0,2.3456667E1,3.9448094E-1,4.5387495E-1,1.5E0,3.554762E-1,3.630851E1,2.617E1,4.7E0,2.1216667E1,-2.2884363E-1,1.8723333E1,2.7E0,3.425926E-1,4.175186E-1,3.1214285E-1,3.078E1,3.1E0,1.02056E2,5.21353E-1,1.15384616E-1,2.2857144E0,-1.4702682E-1,-2.4421531E-1,-1.1769434E-1,-7.0628375E-2,-1.7632313E-1,-2.3856433E-1,-1.6058974E-1,-6.104405E-2,-1.0190798E-1,-7.506765E-2,-6.76398E-2,-1.665749E-1,-2.7264891E-2,-4.9566343E-2,-9.4708E-2,-2.471384E-2,1.9804848E-2,-7.911895E-3,-3.4298994E-2,1.4841491E-2,4.576214E-2,5.2447594E-3,5.144544E-2,8.786351E-2,5.009283E-2,1.4091296E-1,3.2338387E-1,1.5650329E-1,2.3212694E-1,9.848068E-2],"split_indices":[5,5,5,140,5,5,5,5,128,123,2,17,17,27,36,128,2,5,2,0,2,15,36,35,36,2,15,20,17,131,15,0,0,0,0,0,0,0,0,0,0,0,0,0,0,0,0,0,0,0,0,0,0,0,0,0,0,0,0,0,0],"split_type":[0,0,0,0,0,0,0,0,0,0,0,0,0,0,0,0,0,0,0,0,0,0,0,0,0,0,0,0,0,0,0,0,0,0,0,0,0,0,0,0,0,0,0,0,0,0,0,0,0,0,0,0,0,0,0,0,0,0,0,0,0],"sum_hessian":[8.061877E3,5.5077847E3,2.554092E3,2.2483594E3,3.2594253E3,1.8273857E3,7.267063E2,1.8978445E3,3.5051498E2,1.8356334E3,1.423792E3,1.084532E3,7.428538E2,5.67134E2,1.5957236E2,5.468169E2,1.3510276E3,1.9905467E2,1.5146033E2,1.4805129E1,1.8208282E3,2.4537361E2,1.1784185E3,2.810428E2,8.034892E2,1.485996E2,5.942542E2,4.7007394E2,9.7060005E1,5.813126E1,1.014411E2,5.2325543E2,2.3561459E1,1.2206772E3,1.3035033E2,1.1490774E2,8.414693E1,1.24430504E2,2.702982E1,2.912892E2,1.5295391E3,2.3326329E2,1.2110321E1,6.1247076E2,5.6594763E2,1.2379206E1,2.6866357E2,2.5118777E2,5.523014E2,2.1138262E1,1.2746133E2,5.1195364E2,8.2300606E1,2.6621375E2,2.0386021E2,2.4447851E1,7.261215E1,1.1029116E1,4.7102142E1,1.26055155E1,8.883559E1],"tree_param":{"num_deleted":"0","num_feature":"143","num_nodes":"61","size_leaf_vector":"1"}},{"base_weights":[-3.9545126E0,-7.026458E0,2.3072767E0,-9.976524E0,-5.0928454E0,1.6189969E-1,5.6458807E0,-1.16545105E1,-8.949459E0,-6.145915E0,-3.6341898E0,-1.5089628E0,1.2828196E0,3.732403E0,7.7539325E0,-1.630155E1,-1.1300245E1,-9.753355E0,-7.630386E0,-6.8580704E0,-4.958996E0,-8.685294E0,-3.4172437E0,-3.2436702E0,-9.866164E-1,6.1409754E-1,2.59681E0,-1.9918349E0,3.9599066E0,8.250788E0,7.5867784E-1,-2.3602866E-1,-1.0073373E-1,-1.4102766E-1,-1.8813016E-1,-9.559376E-2,-1.3650888E-1,-2.0697156E-1,-9.8934084E-2,-7.703663E-2,-9.9881485E-2,-1.0794153E-1,-6.0251217E-2,-8.14523E-2,-2.0725967E-1,-4.809436E-2,-1.8878642E-3,-7.5917326E-2,-2.6195208E-2,2.2045093E-2,-1.689823E-2,-6.7138965E-3,1.6087722E-2,3.1731585E-3,4.2335812E-2,4.395944E-3,-5.8686685E-2,6.7733295E-2,3.635873E-2,9.8912545E-2,1.6425797E-1,-1.3005286E-2,6.780777E-2],"categories":[],"categories_nodes":[],"categories_segments":[],"categories_sizes":[],"default_left":[0,0,0,0,0,0,0,0,0,0,0,0,0,0,0,0,0,0,0,0,0,0,0,0,0,0,0,0,0,0,0,0,0,0,0,0,0,0,0,0,0,0,0,0,0,0,0,0,0,0,0,0,0,0,0,0,0,0,0,0,0,0,0],"id":18,"left_children":[1,3,5,7,9,11,13,15,17,19,21,23,25,27,29,31,33,35,37,39,41,43,45,47,49,51,53,55,57,59,61,-1,-1,-1,-1,-1,-1,-1,-1,-1,-1,-1,-1,-1,-1,-1,-1,-1,-1,-1,-1,-1,-1,-1,-1,-1,-1,-1,-1,-1,-1,-1,-1],"loss_changes":[1.5668222E5,3.1105312E4,1.9193695E4,3.6097812E3,5.040797E3,3.060272E3,4.1891367E3,1.1521641E3,1.33975E3,1.5746719E3,1.4784375E3,5.855614E2,8.5397766E2,7.277407E2,1.7123418E3,5.12916E2,1.4309609E3,9.029297E2,8.0375977E2,7.4715625E2,9.703867E2,8.8584766E2,7.78708E2,4.5143726E2,3.7070804E2,4.2906924E2,4.368225E2,1.2596961E2,7.0618066E2,1.494457E3,2.6464713E2,0E0,0E0,0E0,0E0,0E0,0E0,0E0,0E0,0E0,0E0,0E0,0E0,0E0,0E0,0E0,0E0,0E0,0E0,0E0,0E0,0E0,0E0,0E0,0E0,0E0,0E0,0E0,0E0,0E0,0E0,0E0,0E0],"parents":[2147483647,0,0,1,1,2,2,3,3,4,4,5,5,6,6,7,7,8,8,9,9,10,10,11,11,12,12,13,13,14,14,15,15,16,16,17,17,18,18,19,19,20,20,21,21,22,22,23,23,24,24,25,25,26,26,27,27,28,28,29,29,30,30],"right_children":[2,4,6,8,10,12,14,16,18,20,22,24,26,28,30,32,34,36,38,40,42,44,46,48,50,52,54,56,58,60,62,-1,-1,-1,-1,-1,-1,-1,-1,-1,-1,-1,-1,-1,-1,-1,-1,-1,-1,-1,-1,-1,-1,-1,-1,-1,-1,-1,-1,-1,-1,-1,-1],"split_conditions":[1.09E1,6.1E0,1.5E1,1.5066667E1,8.666667E0,2.6E0,1.16E1,5.8E0,2.076E1,1.9E0,1.941E1,2.7878334E1,6.9E0,3.3E0,1E0,4.5460606E0,5E0,-3.1E0,-1.8E0,1.13E1,1.8723333E1,1.4285715E0,5.1E0,1.1E1,3.5791308E-1,1.21E1,3.2222223E0,5.4993874E-1,1.969697E-1,7.8E0,1.13E1,-2.3602866E-1,-1.0073373E-1,-1.4102766E-1,-1.8813016E-1,-9.559376E-2,-1.3650888E-1,-2.0697156E-1,-9.8934084E-2,-7.703663E-2,-9.9881485E-2,-1.0794153E-1,-6.0251217E-2,-8.14523E-2,-2.0725967E-1,-4.809436E-2,-1.8878642E-3,-7.5917326E-2,-2.6195208E-2,2.2045093E-2,-1.689823E-2,-6.7138965E-3,1.6087722E-2,3.1731585E-3,4.2335812E-2,4.395944E-3,-5.8686685E-2,6.7733295E-2,3.635873E-2,9.8912545E-2,1.6425797E-1,-1.3005286E-2,6.780777E-2],"split_indices":[13,13,13,2,13,14,140,54,2,14,2,3,140,140,107,6,55,141,120,54,2,15,140,46,126,13,55,126,131,14,54,0,0,0,0,0,0,0,0,0,0,0,0,0,0,0,0,0,0,0,0,0,0,0,0,0,0,0,0,0,0,0,0],"split_type":[0,0,0,0,0,0,0,0,0,0,0,0,0,0,0,0,0,0,0,0,0,0,0,0,0,0,0,0,0,0,0,0,0,0,0,0,0,0,0,0,0,0,0,0,0,0,0,0,0,0,0,0,0,0,0,0,0,0,0,0,0,0,0],"sum_hessian":[8.1434146E3,5.4633096E3,2.6801052E3,2.1614314E3,3.301878E3,1.6324185E3,1.0476868E3,8.168269E2,1.3446045E3,1.9153993E3,1.3864788E3,6.5481537E2,9.77603E2,5.507606E2,4.9692612E2,5.4885395E1,7.6194147E2,8.314371E2,5.131675E2,1.1938684E3,7.215308E2,5.5475082E1,1.3310037E3,1.4991127E2,5.0490414E2,6.493995E2,3.2820355E2,2.0569984E1,5.301907E2,4.6364545E2,3.3280663E1,4.667735E1,8.208047E0,6.027254E2,1.5921605E2,1.2650578E2,7.049313E2,1.2907306E1,5.0026016E2,4.3167294E2,7.621955E2,8.9399895E1,6.321309E2,4.149198E1,1.3983099E1,1.2612941E3,6.970954E1,5.041137E1,9.949989E1,4.718262E1,4.577215E2,2.2356868E2,4.2583078E2,6.451889E1,2.6368466E2,1.0530848E1,1.0039138E1,2.7834888E2,2.5184178E2,3.8497623E2,7.866922E1,2.3986538E1,9.294126E0],"tree_param":{"num_deleted":"0","num_feature":"143","num_nodes":"63","size_leaf_vector":"1"}},{"base_weights":[-3.8329916E0,-6.6904793E0,2.2028873E0,-9.588907E0,-4.907083E0,4.4485041E-1,6.5270796E0,-9.064192E0,-1.22887335E1,-5.9729667E0,-3.3211787E0,-7.835112E-1,2.324932E0,5.5510817E0,9.881561E0,-1.0200233E1,-8.0747595E0,-1.0129718E1,-1.3893706E1,-8.019537E0,-5.5319967E0,-6.8827076E0,-3.1293907E0,7.616703E-1,-1.4185258E0,1.6632138E0,3.7368603E0,1.1489862E0,5.829185E0,7.496625E0,1.2708609E1,-1.5487304E-1,-1.1525147E-1,-1.1107846E-1,-4.8354242E-2,-9.676366E-2,-1.5008622E-1,-1.5586466E-1,-2.2899024E-1,-1.5840966E-1,-9.32224E-2,-7.724288E-2,-4.0722262E-2,-1.9885328E-1,-7.1509086E-2,-5.0611556E-2,-3.04262E-2,-4.6607926E-3,2.5576727E-2,2.033671E-2,-2.087838E-2,1.9997174E-2,8.979048E-2,2.8157635E-2,6.441395E-2,-6.266333E-3,8.133235E-2,7.434949E-2,1.3646673E-1,1.19061604E-1,4.2666074E-2,2.9959786E-1,1.49364E-1],"categories":[],"categories_nodes":[],"categories_segments":[],"categories_sizes":[],"default_left":[0,0,0,0,0,0,0,0,0,0,0,0,0,0,0,0,0,0,0,0,0,0,0,0,0,0,0,0,0,0,0,0,0,0,0,0,0,0,0,0,0,0,0,0,0,0,0,0,0,0,0,0,0,0,0,0,0,0,0,0,0,0,0],"id":19,"left_children":[1,3,5,7,9,11,13,15,17,19,21,23,25,27,29,31,33,35,37,39,41,43,45,47,49,51,53,55,57,59,61,-1,-1,-1,-1,-1,-1,-1,-1,-1,-1,-1,-1,-1,-1,-1,-1,-1,-1,-1,-1,-1,-1,-1,-1,-1,-1,-1,-1,-1,-1,-1,-1],"loss_changes":[1.4181008E5,2.8783031E4,2.007216E4,2.8856719E3,5.813133E3,4.3440703E3,2.4314707E3,1.9084375E3,1.035875E3,1.807875E3,9.185996E2,1.1173889E3,6.81802E2,7.113574E2,1.0420078E3,1.6924766E3,9.5191406E2,3.800664E2,1.1941172E3,1.3624668E3,1.0102578E3,7.6352466E2,7.249502E2,4.2587292E2,3.4111084E2,4.106493E2,3.9758252E2,3.0242377E2,5.8591016E2,5.345029E2,8.8416504E2,0E0,0E0,0E0,0E0,0E0,0E0,0E0,0E0,0E0,0E0,0E0,0E0,0E0,0E0,0E0,0E0,0E0,0E0,0E0,0E0,0E0,0E0,0E0,0E0,0E0,0E0,0E0,0E0,0E0,0E0,0E0,0E0],"parents":[2147483647,0,0,1,1,2,2,3,3,4,4,5,5,6,6,7,7,8,8,9,9,10,10,11,11,12,12,13,13,14,14,15,15,16,16,17,17,18,18,19,19,20,20,21,21,22,22,23,23,24,24,25,25,26,26,27,27,28,28,29,29,30,30],"right_children":[2,4,6,8,10,12,14,16,18,20,22,24,26,28,30,32,34,36,38,40,42,44,46,48,50,52,54,56,58,60,62,-1,-1,-1,-1,-1,-1,-1,-1,-1,-1,-1,-1,-1,-1,-1,-1,-1,-1,-1,-1,-1,-1,-1,-1,-1,-1,-1,-1,-1,-1,-1,-1],"split_conditions":[1.4E1,7.5E0,2.11E1,-1.1E0,1.11E1,1.77E1,2.69E1,1.6276667E1,2E-1,1.85E1,1.998E1,3.1214285E-1,2.5E0,1.0422637E2,6.567834E-1,3.1416908E-1,3.3E0,4.7252426E-1,4.7E0,3.6940834E-1,4.3803987E-1,6E0,1.2E0,1.57E1,3.227486E-1,1E0,-6E-1,2.44E1,1.8333334E0,9.375E0,9.3E0,-1.5487304E-1,-1.1525147E-1,-1.1107846E-1,-4.8354242E-2,-9.676366E-2,-1.5008622E-1,-1.5586466E-1,-2.2899024E-1,-1.5840966E-1,-9.32224E-2,-7.724288E-2,-4.0722262E-2,-1.9885328E-1,-7.1509086E-2,-5.0611556E-2,-3.04262E-2,-4.6607926E-3,2.5576727E-2,2.033671E-2,-2.087838E-2,1.9997174E-2,8.979048E-2,2.8157635E-2,6.441395E-2,-6.266333E-3,8.133235E-2,7.434949E-2,1.3646673E-1,1.19061604E-1,4.2666074E-2,2.9959786E-1,1.49364E-1],"split_indices":[5,5,5,140,5,5,5,2,15,2,2,36,30,18,17,17,120,125,5,17,17,46,132,5,126,87,120,5,27,48,54,0,0,0,0,0,0,0,0,0,0,0,0,0,0,0,0,0,0,0,0,0,0,0,0,0,0,0,0,0,0,0,0],"split_type":[0,0,0,0,0,0,0,0,0,0,0,0,0,0,0,0,0,0,0,0,0,0,0,0,0,0,0,0,0,0,0,0,0,0,0,0,0,0,0,0,0,0,0,0,0,0,0,0,0,0,0,0,0,0,0,0,0,0,0,0,0,0,0],"sum_hessian":[8.220162E3,5.5790713E3,2.6410906E3,2.1234697E3,3.4556016E3,1.8785874E3,7.625032E2,1.7814421E3,3.420277E2,2.064705E3,1.3908964E3,1.1360818E3,7.425057E2,5.9270996E2,1.6979323E2,8.249656E2,9.564765E2,1.4884608E2,1.9318163E2,3.6288083E2,1.7018243E3,6.919623E1,1.3217001E3,3.3021866E2,8.058631E2,5.074861E2,2.3501959E2,3.577248E1,5.5693744E2,9.403888E1,7.575435E1,4.3668683E2,3.8827875E2,9.08014E2,4.846257E1,4.2993855E1,1.0585223E2,1.1673806E2,7.644356E1,7.5801544E1,2.8707928E2,1.5476317E3,1.5419263E2,9.818922E0,5.9377308E1,7.4493823E2,5.7676184E2,1.6779071E2,1.6242795E2,3.6552734E1,7.6931036E2,4.925158E2,1.4970284E1,9.516747E1,1.3985211E2,2.7305952E1,8.466527E0,5.268498E2,3.0087664E1,6.9941864E1,2.4097017E1,8.672266E0,6.7082085E1],"tree_param":{"num_deleted":"0","num_feature":"143","num_nodes":"63","size_leaf_vector":"1"}},{"base_weights":[-3.706584E0,-6.352058E0,2.5056496E0,-8.912632E0,-4.5349407E0,7.9372877E-1,6.4044385E0,-8.440025E0,-1.1321935E1,-5.525335E0,-2.9133937E0,-4.2063904E-1,2.4001944E0,4.8808126E0,8.423097E0,-9.148096E0,-7.107038E0,-1.0118516E1,-1.4818133E1,-6.1302752E0,-4.3179674E0,-8.964084E0,-2.7486694E0,-1.8652743E0,2.3759494E-2,8.419702E-2,2.7554255E0,4.2476673E0,7.8759685E0,7.165477E0,1.0894094E1,-9.460738E-2,-1.2806559E-1,-7.0041314E-2,-1.0193359E-1,-1.22255355E-1,-1.6129148E-1,-2.9605207E-1,-1.2930658E-1,-7.928335E-2,-1.9467384E-1,-7.737989E-2,-5.1535673E-2,-4.2123523E-2,-1.5474004E-1,-3.9626256E-2,8.6338795E-4,-2.9215135E-2,7.779314E-2,7.5298813E-3,-1.2213114E-2,1.1590732E-2,-7.6268174E-2,4.662663E-2,1.7589347E-2,7.921046E-2,4.2427137E-2,1.2861682E-1,3.6828082E-2,8.246323E-2,1.4078888E-1,1.7299436E-1,6.949868E-2],"categories":[],"categories_nodes":[],"categories_segments":[],"categories_sizes":[],"default_left":[0,0,0,0,0,0,0,0,0,0,0,0,0,0,0,0,0,0,0,0,0,0,0,0,0,0,0,0,0,0,0,0,0,0,0,0,0,0,0,0,0,0,0,0,0,0,0,0,0,0,0,0,0,0,0,0,0,0,0,0,0,0,0],"id":20,"left_children":[1,3,5,7,9,11,13,15,17,19,21,23,25,27,29,31,33,35,37,39,41,43,45,47,49,51,53,55,57,59,61,-1,-1,-1,-1,-1,-1,-1,-1,-1,-1,-1,-1,-1,-1,-1,-1,-1,-1,-1,-1,-1,-1,-1,-1,-1,-1,-1,-1,-1,-1,-1,-1],"loss_changes":[1.366512E5,2.7079031E4,1.6561658E4,2.6465781E3,5.455586E3,3.3725935E3,2.2763418E3,1.8350938E3,1.4955E3,1.5095938E3,1.2550859E3,6.341276E2,6.0804004E2,7.7802246E2,9.1655664E2,1.0956562E3,6.313828E2,4.3841406E2,3.4963008E3,2.2796094E3,4.516875E2,4.6091162E2,7.683447E2,5.761014E2,3.8031067E2,4.52083E2,6.686958E2,6.2096387E2,6.2449365E2,6.5295703E2,1.1681943E3,0E0,0E0,0E0,0E0,0E0,0E0,0E0,0E0,0E0,0E0,0E0,0E0,0E0,0E0,0E0,0E0,0E0,0E0,0E0,0E0,0E0,0E0,0E0,0E0,0E0,0E0,0E0,0E0,0E0,0E0,0E0,0E0],"parents":[2147483647,0,0,1,1,2,2,3,3,4,4,5,5,6,6,7,7,8,8,9,9,10,10,11,11,12,12,13,13,14,14,15,15,16,16,17,17,18,18,19,19,20,20,21,21,22,22,23,23,24,24,25,25,26,26,27,27,28,28,29,29,30,30],"right_children":[2,4,6,8,10,12,14,16,18,20,22,24,26,28,30,32,34,36,38,40,42,44,46,48,50,52,54,56,58,60,62,-1,-1,-1,-1,-1,-1,-1,-1,-1,-1,-1,-1,-1,-1,-1,-1,-1,-1,-1,-1,-1,-1,-1,-1,-1,-1,-1,-1,-1,-1,-1,-1],"split_conditions":[1.12E1,7.9E0,2.11E1,-1.1E0,9.1E0,1.77E1,2.47E1,6.5E0,4.4E0,-8E-1,1.941E1,1.6E0,4.8E0,1.5E0,6.567834E-1,1.25E0,-1.5476191E-1,5.555556E-1,-8E-1,-9E-1,3.9513242E-1,1.0044E2,5.2E0,1.22E1,3.6107144E-1,3.1E0,2.6086956E-1,8E0,1.9E1,2.9059327E0,2.2916667E-1,-9.460738E-2,-1.2806559E-1,-7.0041314E-2,-1.0193359E-1,-1.22255355E-1,-1.6129148E-1,-2.9605207E-1,-1.2930658E-1,-7.928335E-2,-1.9467384E-1,-7.737989E-2,-5.1535673E-2,-4.2123523E-2,-1.5474004E-1,-3.9626256E-2,8.6338795E-4,-2.9215135E-2,7.779314E-2,7.5298813E-3,-1.2213114E-2,1.1590732E-2,-7.6268174E-2,4.662663E-2,1.7589347E-2,7.921046E-2,4.2427137E-2,1.2861682E-1,3.6828082E-2,8.246323E-2,1.4078888E-1,1.7299436E-1,6.949868E-2],"split_indices":[13,5,5,140,13,5,5,4,13,140,2,140,140,27,17,16,135,27,140,140,117,25,140,38,36,15,131,48,46,9,131,0,0,0,0,0,0,0,0,0,0,0,0,0,0,0,0,0,0,0,0,0,0,0,0,0,0,0,0,0,0,0,0],"split_type":[0,0,0,0,0,0,0,0,0,0,0,0,0,0,0,0,0,0,0,0,0,0,0,0,0,0,0,0,0,0,0,0,0,0,0,0,0,0,0,0,0,0,0,0,0,0,0,0,0,0,0,0,0,0,0,0,0,0,0,0,0,0,0],"sum_hessian":[8.313009E3,5.8303594E3,2.4826501E3,2.4184126E3,3.4119468E3,1.7261058E3,7.565442E2,2.0254794E3,3.929332E2,2.1164136E3,1.2955331E3,9.8288446E2,7.4322144E2,4.3317307E2,3.2337112E2,1.3188965E3,7.065828E2,2.9506076E2,9.787243E1,1.4069042E3,7.095095E2,3.2914997E1,1.262618E3,2.313193E2,7.515651E2,9.9492455E1,6.4372894E2,3.59653E2,7.3520035E1,2.1685875E2,1.0651237E2,2.2971553E2,1.089181E3,1.5565808E2,5.5092474E2,2.002102E2,9.485055E1,3.913194E1,5.8740494E1,1.3757626E3,3.1141497E1,1.6712706E2,5.4238245E2,1.0938161E1,2.1976837E1,1.1733903E3,8.922774E1,2.2283159E2,8.487715E0,4.7816403E2,2.734011E2,8.8485565E1,1.10068865E1,4.2537927E2,2.183497E2,1.3848314E2,2.2116988E2,5.4094345E1,1.9425692E1,1.6940929E2,4.7449463E1,7.741304E1,2.9099325E1],"tree_param":{"num_deleted":"0","num_feature":"143","num_nodes":"63","size_leaf_vector":"1"}},{"base_weights":[-3.6480427E0,-6.289714E0,2.4671974E0,-8.52677E0,-4.1910424E0,6.967433E-1,5.5671906E0,-9.625403E0,-7.308845E0,-5.204921E0,-2.8398798E0,-3.6470515E-1,1.944592E0,3.6015947E0,6.740276E0,-1.0764715E1,-8.79673E0,-1.4912542E1,-7.1887875E0,-7.866102E0,-4.896378E0,-5.0118833E0,-2.5552568E0,-1.5151258E0,5.163358E-1,2.749478E0,7.8922623E-1,3.3045452E0,1.8284234E-1,6.52062E0,2.104096E-1,-1.35006E-1,-1.7827532E-1,-1.6884327E-1,-1.12827875E-1,-8.702141E-2,-2.8374177E-1,-1.0073775E-1,-6.72682E-2,-9.847516E-2,-2.2076303E-1,-7.421027E-2,-5.014777E-2,-5.8434088E-2,-1.4411E-1,-3.5405986E-2,3.6475983E-2,-1.2722361E-1,-1.7454255E-2,-3.7876612E-3,2.056998E-2,3.0878127E-2,6.8404146E-2,-1.515563E-2,1.9132338E-2,1.5033359E-2,5.44803E-2,1.2178753E-1,7.818777E-2],"categories":[],"categories_nodes":[],"categories_segments":[],"categories_sizes":[],"default_left":[0,0,0,0,0,0,0,0,0,0,0,0,0,0,0,0,0,0,0,0,0,0,0,0,0,0,0,0,0,0,0,0,0,0,0,0,0,0,0,0,0,0,0,0,0,0,0,0,0,0,0,0,0,0,0,0,0,0,0],"id":21,"left_children":[1,3,5,7,9,11,13,15,17,19,21,23,25,27,29,31,33,35,37,39,41,43,45,47,49,51,53,55,-1,57,-1,-1,-1,-1,-1,-1,-1,-1,-1,-1,-1,-1,-1,-1,-1,-1,-1,-1,-1,-1,-1,-1,-1,-1,-1,-1,-1,-1,-1],"loss_changes":[1.3529356E5,2.7408312E4,1.3854877E4,3.70325E3,4.1126836E3,2.1344563E3,2.0819844E3,1.2943125E3,1.1075781E3,1.3648555E3,7.804287E2,8.836018E2,6.8187305E2,9.717676E2,1.01575977E3,9.178125E2,1.0676719E3,9.029487E2,9.396328E2,6.3175684E2,1.1285508E3,4.8974414E2,5.691079E2,6.0891656E2,4.046148E2,4.332002E2,3.7923718E2,5.5427124E2,0E0,9.1200586E2,0E0,0E0,0E0,0E0,0E0,0E0,0E0,0E0,0E0,0E0,0E0,0E0,0E0,0E0,0E0,0E0,0E0,0E0,0E0,0E0,0E0,0E0,0E0,0E0,0E0,0E0,0E0,0E0,0E0],"parents":[2147483647,0,0,1,1,2,2,3,3,4,4,5,5,6,6,7,7,8,8,9,9,10,10,11,11,12,12,13,13,14,14,15,15,16,16,17,17,18,18,19,19,20,20,21,21,22,22,23,23,24,24,25,25,26,26,27,27,29,29],"right_children":[2,4,6,8,10,12,14,16,18,20,22,24,26,28,30,32,34,36,38,40,42,44,46,48,50,52,54,56,-1,58,-1,-1,-1,-1,-1,-1,-1,-1,-1,-1,-1,-1,-1,-1,-1,-1,-1,-1,-1,-1,-1,-1,-1,-1,-1,-1,-1,-1,-1],"split_conditions":[1.12E1,6.8E0,1.55E1,5E0,9.1E0,1.33E1,4.5E0,-5.5E-2,-5.8683333E0,1.8723333E1,2.258E1,2.6E0,2.3809524E-1,1E0,6.045871E-1,9.375E0,1.2857143E0,6.7142856E-1,2.6513334E1,1.0151287E0,2.1E0,2.2222223E0,5.7E0,2.2093334E1,8.111111E-1,2.464E0,5.289148E1,1.0911045E2,1.8284234E-1,1.0344828E-1,2.104096E-1,-1.35006E-1,-1.7827532E-1,-1.6884327E-1,-1.12827875E-1,-8.702141E-2,-2.8374177E-1,-1.0073775E-1,-6.72682E-2,-9.847516E-2,-2.2076303E-1,-7.421027E-2,-5.014777E-2,-5.8434088E-2,-1.4411E-1,-3.5405986E-2,3.6475983E-2,-1.2722361E-1,-1.7454255E-2,-3.7876612E-3,2.056998E-2,3.0878127E-2,6.8404146E-2,-1.515563E-2,1.9132338E-2,1.5033359E-2,5.44803E-2,1.2178753E-1,7.818777E-2],"split_indices":[13,13,13,13,13,13,14,123,123,2,2,14,131,70,35,48,56,37,2,125,14,31,14,2,37,132,127,18,0,131,0,0,0,0,0,0,0,0,0,0,0,0,0,0,0,0,0,0,0,0,0,0,0,0,0,0,0,0,0],"split_type":[0,0,0,0,0,0,0,0,0,0,0,0,0,0,0,0,0,0,0,0,0,0,0,0,0,0,0,0,0,0,0,0,0,0,0,0,0,0,0,0,0,0,0,0,0,0,0,0,0,0,0,0,0,0,0,0,0,0,0],"sum_hessian":[8.373014E3,5.8472925E3,2.5257212E3,2.8287588E3,3.0185337E3,1.6085404E3,9.1718085E2,1.4835466E3,1.3452123E3,1.7225449E3,1.2959889E3,8.689148E2,7.396256E2,3.4452405E2,5.726568E2,6.197137E2,8.6383295E2,1.9110592E1,1.3261017E3,1.7634772E2,1.5461971E3,1.4796233E2,1.1480265E3,3.772618E2,4.91653E2,4.3454077E2,3.0508484E2,3.3588007E2,8.643986E0,5.605824E2,1.2074382E1,4.9561453E2,1.2409915E2,7.106955E1,7.9276337E2,9.025257E0,1.0085335E1,1.140738E3,1.8536362E2,1.6831773E2,8.02998E0,9.816033E2,5.6459393E2,1.347015E2,1.3260808E1,1.1288873E3,1.9139158E1,8.509893E0,3.687519E2,2.7543475E2,2.1621825E2,3.683034E2,6.623737E1,7.564057E1,2.2944426E2,8.8680534E1,2.4719954E2,1.1307268E2,4.4750974E2],"tree_param":{"num_deleted":"0","num_feature":"143","num_nodes":"59","size_leaf_vector":"1"}},{"base_weights":[-3.5227993E0,-6.1756034E0,2.2587776E0,-8.257628E0,-4.303984E0,1.8283111E-1,5.3619466E0,-8.940722E0,-6.7999935E0,-5.2992263E0,-3.0578265E0,-4.5288858E-1,2.1469476E0,3.763945E0,7.1723657E0,-9.835456E0,-7.9817758E0,-1.1902817E1,-6.5325255E0,-6.1836767E0,-4.0811768E0,-3.5142412E0,-1.5685555E0,-1.1572535E0,5.5605644E-1,-1.1364902E0,2.5398383E0,-1.043918E0,3.9730093E0,8.738118E0,5.6909328E0,-1.2807216E-1,-1.7279373E-1,-1.00033574E-1,-1.318834E-1,-9.38341E-2,-2.025452E-1,-9.172734E-2,-4.6767734E-2,-2.2917792E-1,-8.111426E-2,-6.1320115E-2,-3.5266567E-2,-5.8514103E-2,-3.7318077E-2,-2.6385799E-2,2.8556295E-2,-3.1024711E-2,-1.9073533E-3,-3.701217E-2,9.710543E-3,8.456446E-3,-5.3721253E-2,2.1389643E-2,5.039188E-2,-5.1723193E-2,1.6192483E-2,2.756317E-2,6.264588E-2,1.0574497E-1,2.1642022E-1,9.1765605E-2,4.574558E-2],"categories":[],"categories_nodes":[],"categories_segments":[],"categories_sizes":[],"default_left":[0,0,0,0,0,0,0,0,0,0,0,0,0,0,0,0,0,0,0,0,0,0,0,0,0,0,0,0,0,0,0,0,0,0,0,0,0,0,0,0,0,0,0,0,0,0,0,0,0,0,0,0,0,0,0,0,0,0,0,0,0,0,0],"id":22,"left_children":[1,3,5,7,9,11,13,15,17,19,21,23,25,27,29,31,33,35,37,39,41,43,45,47,49,51,53,55,57,59,61,-1,-1,-1,-1,-1,-1,-1,-1,-1,-1,-1,-1,-1,-1,-1,-1,-1,-1,-1,-1,-1,-1,-1,-1,-1,-1,-1,-1,-1,-1,-1,-1],"loss_changes":[1.2988973E5,2.2572547E4,1.7151379E4,2.6617031E3,3.7685898E3,1.997438E3,3.0501406E3,1.5107656E3,1.1106797E3,1.7947617E3,9.133506E2,8.590034E2,5.090708E2,5.796382E2,1.0957129E3,6.268281E2,7.668008E2,5.5443994E2,7.999258E2,1.139957E3,5.0307812E2,6.283174E2,4.8544617E2,8.362394E2,2.7945074E2,2.209934E2,3.919292E2,1.6120685E2,7.257949E2,1.3448203E3,6.559199E2,0E0,0E0,0E0,0E0,0E0,0E0,0E0,0E0,0E0,0E0,0E0,0E0,0E0,0E0,0E0,0E0,0E0,0E0,0E0,0E0,0E0,0E0,0E0,0E0,0E0,0E0,0E0,0E0,0E0,0E0,0E0,0E0],"parents":[2147483647,0,0,1,1,2,2,3,3,4,4,5,5,6,6,7,7,8,8,9,9,10,10,11,11,12,12,13,13,14,14,15,15,16,16,17,17,18,18,19,19,20,20,21,21,22,22,23,23,24,24,25,25,26,26,27,27,28,28,29,29,30,30],"right_children":[2,4,6,8,10,12,14,16,18,20,22,24,26,28,30,32,34,36,38,40,42,44,46,48,50,52,54,56,58,60,62,-1,-1,-1,-1,-1,-1,-1,-1,-1,-1,-1,-1,-1,-1,-1,-1,-1,-1,-1,-1,-1,-1,-1,-1,-1,-1,-1,-1,-1,-1,-1,-1],"split_conditions":[1.09E1,6.6E0,1.49E1,1.9853333E1,-6E-1,6.9E0,1.16E1,3.0821082E-1,1.8418595E-1,3.1111112E0,3E0,3E0,5.1346268E1,3.3E0,4.905E1,4.0687283E1,3.652174E-1,-2.8E0,2.3881419E-1,-5.8683333E0,9.3E0,9.1E0,6.1E0,2.7142856E0,-3.0266666E0,5.365581E-1,1.7303572E0,-6E0,9.974E1,9.6E0,3.2E0,-1.2807216E-1,-1.7279373E-1,-1.00033574E-1,-1.318834E-1,-9.38341E-2,-2.025452E-1,-9.172734E-2,-4.6767734E-2,-2.2917792E-1,-8.111426E-2,-6.1320115E-2,-3.5266567E-2,-5.8514103E-2,-3.7318077E-2,-2.6385799E-2,2.8556295E-2,-3.1024711E-2,-1.9073533E-3,-3.701217E-2,9.710543E-3,8.456446E-3,-5.3721253E-2,2.1389643E-2,5.039188E-2,-5.1723193E-2,1.6192483E-2,2.756317E-2,6.264588E-2,1.0574497E-1,2.1642022E-1,9.1765605E-2,4.574558E-2],"split_indices":[13,13,13,2,140,140,140,17,17,56,14,14,127,140,139,127,131,38,135,123,13,13,140,56,123,126,132,38,21,38,15,0,0,0,0,0,0,0,0,0,0,0,0,0,0,0,0,0,0,0,0,0,0,0,0,0,0,0,0,0,0,0,0],"split_type":[0,0,0,0,0,0,0,0,0,0,0,0,0,0,0,0,0,0,0,0,0,0,0,0,0,0,0,0,0,0,0,0,0,0,0,0,0,0,0,0,0,0,0,0,0,0,0,0,0,0,0,0,0,0,0,0,0,0,0,0,0,0,0],"sum_hessian":[8.466859E3,5.8039644E3,2.6628955E3,2.745828E3,3.0581365E3,1.5963296E3,1.0665659E3,1.8660485E3,8.797794E2,1.6980956E3,1.3600408E3,1.2059514E3,3.9037814E2,5.683066E2,4.982593E2,9.605485E2,9.0549994E2,4.1727226E1,8.380522E2,9.8110925E2,7.1698627E2,1.0394154E3,3.2062534E2,7.109006E2,4.950508E2,4.1173347E1,3.492048E2,2.3266497E1,5.4504004E2,2.397679E2,2.584914E2,8.903917E2,7.01568E1,7.192532E2,1.8624675E2,1.7894896E1,2.3832329E1,7.549815E2,8.30707E1,8.950236E0,9.7215906E2,5.2910266E2,1.8788364E2,4.7136908E2,5.680464E2,2.897283E2,3.089703E1,3.300715E2,3.808291E2,2.3087984E1,4.7196283E2,2.562367E1,1.5549679E1,1.9959663E2,1.4960815E2,1.0331781E1,1.2934715E1,1.4938336E2,3.956567E2,2.1747943E2,2.228846E1,1.6892224E2,8.956917E1],"tree_param":{"num_deleted":"0","num_feature":"143","num_nodes":"63","size_leaf_vector":"1"}},{"base_weights":[-3.480174E0,-5.8008895E0,2.6119356E0,-7.8657146E0,-3.8910282E0,5.061124E-1,5.187517E0,-8.844981E0,-6.9360833E0,-4.865983E0,-2.795577E0,-9.0392256E-1,1.2205081E0,4.447438E0,8.435984E0,-7.2975197E0,-9.247352E0,-6.7101088E0,-1.0289163E1,-5.221193E0,-3.0346909E0,-3.8093984E0,-2.257286E0,8.635507E-2,-1.7902935E0,8.226099E-1,2.6322343E0,5.475552E0,3.2431614E0,5.0461226E0,9.582425E0,-1.1306681E-1,-7.759269E-2,-1.22112416E-1,-2.498571E-1,-9.3439534E-2,-6.1288815E-2,-1.5552588E-1,-5.195604E-2,-6.79127E-2,-1.1993931E-1,-3.5479393E-2,-1.16497815E-1,-1.5008849E-1,-4.6741053E-2,-3.758989E-2,-5.6675053E-4,-1.5451798E-2,1.8775182E-2,1.0446615E-2,-2.9683946E-2,9.464562E-3,6.811858E-2,2.7257157E-2,9.190403E-2,5.6045163E-2,1.0260239E-1,4.9586426E-3,5.052523E-2,9.176334E-3,8.918619E-2,7.9450786E-2,1.4862111E-1],"categories":[],"categories_nodes":[],"categories_segments":[],"categories_sizes":[],"default_left":[0,0,0,0,0,0,0,0,0,0,0,0,0,0,0,0,0,0,0,0,0,0,0,0,0,0,0,0,0,0,0,0,0,0,0,0,0,0,0,0,0,0,0,0,0,0,0,0,0,0,0,0,0,0,0,0,0,0,0,0,0,0,0],"id":23,"left_children":[1,3,5,7,9,11,13,15,17,19,21,23,25,27,29,31,33,35,37,39,41,43,45,47,49,51,53,55,57,59,61,-1,-1,-1,-1,-1,-1,-1,-1,-1,-1,-1,-1,-1,-1,-1,-1,-1,-1,-1,-1,-1,-1,-1,-1,-1,-1,-1,-1,-1,-1,-1,-1],"loss_changes":[1.20948484E5,2.4385984E4,1.2789726E4,2.6349062E3,3.4169453E3,1.3105104E3,2.501711E3,8.1991406E2,1.0781562E3,1.0822695E3,8.132969E2,3.8594522E2,4.7850476E2,1.0456895E3,6.9911426E2,4.6339355E2,1.0528359E3,8.072617E2,7.5445996E2,6.998203E2,5.6890845E2,1.1667227E3,1.2172119E3,3.3956506E2,2.590948E2,3.2018594E2,4.5107385E2,1.2702803E3,6.111416E2,3.508507E2,7.2938184E2,0E0,0E0,0E0,0E0,0E0,0E0,0E0,0E0,0E0,0E0,0E0,0E0,0E0,0E0,0E0,0E0,0E0,0E0,0E0,0E0,0E0,0E0,0E0,0E0,0E0,0E0,0E0,0E0,0E0,0E0,0E0,0E0],"parents":[2147483647,0,0,1,1,2,2,3,3,4,4,5,5,6,6,7,7,8,8,9,9,10,10,11,11,12,12,13,13,14,14,15,15,16,16,17,17,18,18,19,19,20,20,21,21,22,22,23,23,24,24,25,25,26,26,27,27,28,28,29,29,30,30],"right_children":[2,4,6,8,10,12,14,16,18,20,22,24,26,28,30,32,34,36,38,40,42,44,46,48,50,52,54,56,58,60,62,-1,-1,-1,-1,-1,-1,-1,-1,-1,-1,-1,-1,-1,-1,-1,-1,-1,-1,-1,-1,-1,-1,-1,-1,-1,-1,-1,-1,-1,-1,-1,-1],"split_conditions":[1.15E1,6.8E0,1.5E1,4.8E0,9E0,5.1346268E1,6.4104086E-1,1.875E0,5.0625E0,1.17693745E-1,2.6348333E1,3.1547618E-1,5E0,1.7857143E-1,3.6666667E0,3.25E0,3.75E0,6.5E0,2.4465E1,6.9791665E0,4.385965E-1,3.7640733E-1,4.182388E-1,1E0,3.66161E-1,1E0,9.047619E-1,3.5351665E1,5.0273806E-1,7.3549065E1,9.9464E1,-1.1306681E-1,-7.759269E-2,-1.22112416E-1,-2.498571E-1,-9.3439534E-2,-6.1288815E-2,-1.5552588E-1,-5.195604E-2,-6.79127E-2,-1.1993931E-1,-3.5479393E-2,-1.16497815E-1,-1.5008849E-1,-4.6741053E-2,-3.758989E-2,-5.6675053E-4,-1.5451798E-2,1.8775182E-2,1.0446615E-2,-2.9683946E-2,9.464562E-3,6.811858E-2,2.7257157E-2,9.190403E-2,5.6045163E-2,1.0260239E-1,4.9586426E-3,5.052523E-2,9.176334E-3,8.918619E-2,7.9450786E-2,1.4862111E-1],"split_indices":[13,13,13,13,13,127,17,16,16,135,3,36,10,131,10,7,10,7,3,16,131,17,17,0,126,92,37,3,17,127,20,0,0,0,0,0,0,0,0,0,0,0,0,0,0,0,0,0,0,0,0,0,0,0,0,0,0,0,0,0,0,0,0],"split_type":[0,0,0,0,0,0,0,0,0,0,0,0,0,0,0,0,0,0,0,0,0,0,0,0,0,0,0,0,0,0,0,0,0,0,0,0,0,0,0,0,0,0,0,0,0,0,0,0,0,0,0,0,0,0,0,0,0,0,0,0,0,0,0],"sum_hessian":[8.552755E3,6.1936323E3,2.3591223E3,2.9744634E3,3.219169E3,1.2987767E3,1.0603457E3,1.4443289E3,1.5301345E3,1.7010538E3,1.518115E3,4.3602283E2,8.627539E2,8.65576E2,1.9476968E2,3.021032E2,1.1422256E3,1.4362896E3,9.3844955E1,1.422765E3,2.7828888E2,5.23828E2,9.94287E2,2.0556593E2,2.304569E2,6.7485986E2,1.8789404E2,4.6470294E2,4.0087305E2,5.0682705E1,1.4408698E2,1.6741458E2,1.3468863E2,1.1303241E3,1.1901558E1,1.2677887E3,1.6850082E2,7.682877E1,1.7016178E1,1.3731267E3,4.96383E1,2.6217407E2,1.6114828E1,1.9881016E1,5.0394702E2,7.9464795E2,1.9963908E2,1.0534293E2,1.00223E2,3.2441254E1,1.9801564E2,6.5848157E2,1.6378275E1,1.6620795E2,2.1686108E1,2.9530447E2,1.6939845E2,6.363687E1,3.3723618E2,1.4313434E1,3.636927E1,4.418699E1,9.9899994E1],"tree_param":{"num_deleted":"0","num_feature":"143","num_nodes":"63","size_leaf_vector":"1"}},{"base_weights":[-3.4470077E0,-5.9420094E0,2.003857E0,-7.8755317E0,-4.339962E0,-1.5209128E-2,5.056239E0,-8.380061E0,-6.2774034E0,-5.1894684E0,-2.9807854E0,-1.0994356E0,1.4689176E0,3.8009708E0,7.7250767E0,-7.7452784E0,-8.961791E0,-6.0098853E0,-1.0489958E1,-4.9637346E0,-7.250072E0,-3.2575834E0,-1.0325378E0,-2.7388325E0,-7.769035E-1,8.715585E-1,3.045034E0,1.8073053E0,4.3484178E0,7.056508E0,1.3230119E1,-1.1019077E-1,-8.647223E-2,-1.17656864E-1,-1.9688939E-1,-8.808127E-2,-5.950815E-2,-6.628231E-2,-1.8372686E-1,-7.556525E-2,-5.7902288E-2,-1.2568714E-1,-6.9693536E-2,-1.4549467E-1,-4.260008E-2,-3.06626E-2,9.754427E-3,-1.6363141E-1,-2.6804531E-2,-8.063101E-3,-4.001976E-2,1.3908249E-2,-4.3902438E-2,-2.1434922E-2,4.384844E-2,-1.1951546E-2,3.347179E-2,6.149049E-2,-0E0,1.1077917E-1,7.052093E-2,6.450634E-2,2.85621E-1],"categories":[],"categories_nodes":[],"categories_segments":[],"categories_sizes":[],"default_left":[0,0,0,0,0,0,0,0,0,0,0,0,0,0,0,0,0,0,0,0,0,0,0,0,0,0,0,0,0,0,0,0,0,0,0,0,0,0,0,0,0,0,0,0,0,0,0,0,0,0,0,0,0,0,0,0,0,0,0,0,0,0,0],"id":24,"left_children":[1,3,5,7,9,11,13,15,17,19,21,23,25,27,29,31,33,35,37,39,41,43,45,47,49,51,53,55,57,59,61,-1,-1,-1,-1,-1,-1,-1,-1,-1,-1,-1,-1,-1,-1,-1,-1,-1,-1,-1,-1,-1,-1,-1,-1,-1,-1,-1,