{"learner":{"attributes":{"scikit_learn":"{\"_estimator_type\": \"regressor\"}"},"feature_names":[],"feature_types":[],"gradient_booster":{"model":{"cats":{"enc":[],"feature_segments":[],"sorted_idx":[]},"gbtree_model_param":{"num_parallel_tree":"1","num_trees":"680"},"iteration_indptr":[0,1,2,3,4,5,6,7,8,9,10,11,12,13,14,15,16,17,18,19,20,21,22,23,24,25,26,27,28,29,30,31,32,33,34,35,36,37,38,39,40,41,42,43,44,45,46,47,48,49,50,51,52,53,54,55,56,57,58,59,60,61,62,63,64,65,66,67,68,69,70,71,72,73,74,75,76,77,78,79,80,81,82,83,84,85,86,87,88,89,90,91,92,93,94,95,96,97,98,99,100,101,102,103,104,105,106,107,108,109,110,111,112,113,114,115,116,117,118,119,120,121,122,123,124,125,126,127,128,129,130,131,132,133,134,135,136,137,138,139,140,141,142,143,144,145,146,147,148,149,150,151,152,153,154,155,156,157,158,159,160,161,162,163,164,165,166,167,168,169,170,171,172,173,174,175,176,177,178,179,180,181,182,183,184,185,186,187,188,189,190,191,192,193,194,195,196,197,198,199,200,201,202,203,204,205,206,207,208,209,210,211,212,213,214,215,216,217,218,219,220,221,222,223,224,225,226,227,228,229,230,231,232,233,234,235,236,237,238,239,240,241,242,243,244,245,246,247,248,249,250,251,252,253,254,255,256,257,258,259,260,261,262,263,264,265,266,267,268,269,270,271,272,273,274,275,276,277,278,279,280,281,282,283,284,285,286,287,288,289,290,291,292,293,294,295,296,297,298,299,300,301,302,303,304,305,306,307,308,309,310,311,312,313,314,315,316,317,318,319,320,321,322,323,324,325,326,327,328,329,330,331,332,333,334,335,336,337,338,339,340,341,342,343,344,345,346,347,348,349,350,351,352,353,354,355,356,357,358,359,360,361,362,363,364,365,366,367,368,369,370,371,372,373,374,375,376,377,378,379,380,381,382,383,384,385,386,387,388,389,390,391,392,393,394,395,396,397,398,399,400,401,402,403,404,405,406,407,408,409,410,411,412,413,414,415,416,417,418,419,420,421,422,423,424,425,426,427,428,429,430,431,432,433,434,435,436,437,438,439,440,441,442,443,444,445,446,447,448,449,450,451,452,453,454,455,456,457,458,459,460,461,462,463,464,465,466,467,468,469,470,471,472,473,474,475,476,477,478,479,480,481,482,483,484,485,486,487,488,489,490,491,492,493,494,495,496,497,498,499,500,501,502,503,504,505,506,507,508,509,510,511,512,513,514,515,516,517,518,519,520,521,522,523,524,525,526,527,528,529,530,531,532,533,534,535,536,537,538,539,540,541,542,543,544,545,546,547,548,549,550,551,552,553,554,555,556,557,558,559,560,561,562,563,564,565,566,567,568,569,570,571,572,573,574,575,576,577,578,579,580,581,582,583,584,585,586,587,588,589,590,591,592,593,594,595,596,597,598,599,600,601,602,603,604,605,606,607,608,609,610,611,612,613,614,615,616,617,618,619,620,621,622,623,624,625,626,627,628,629,630,631,632,633,634,635,636,637,638,639,640,641,642,643,644,645,646,647,648,649,650,651,652,653,654,655,656,657,658,659,660,661,662,663,664,665,666,667,668,669,670,671,672,673,674,675,676,677,678,679,680],"tree_info":[0,0,0,0,0,0,0,0,0,0,0,0,0,0,0,0,0,0,0,0,0,0,0,0,0,0,0,0,0,0,0,0,0,0,0,0,0,0,0,0,0,0,0,0,0,0,0,0,0,0,0,0,0,0,0,0,0,0,0,0,0,0,0,0,0,0,0,0,0,0,0,0,0,0,0,0,0,0,0,0,0,0,0,0,0,0,0,0,0,0,0,0,0,0,0,0,0,0,0,0,0,0,0,0,0,0,0,0,0,0,0,0,0,0,0,0,0,0,0,0,0,0,0,0,0,0,0,0,0,0,0,0,0,0,0,0,0,0,0,0,0,0,0,0,0,0,0,0,0,0,0,0,0,0,0,0,0,0,0,0,0,0,0,0,0,0,0,0,0,0,0,0,0,0,0,0,0,0,0,0,0,0,0,0,0,0,0,0,0,0,0,0,0,0,0,0,0,0,0,0,0,0,0,0,0,0,0,0,0,0,0,0,0,0,0,0,0,0,0,0,0,0,0,0,0,0,0,0,0,0,0,0,0,0,0,0,0,0,0,0,0,0,0,0,0,0,0,0,0,0,0,0,0,0,0,0,0,0,0,0,0,0,0,0,0,0,0,0,0,0,0,0,0,0,0,0,0,0,0,0,0,0,0,0,0,0,0,0,0,0,0,0,0,0,0,0,0,0,0,0,0,0,0,0,0,0,0,0,0,0,0,0,0,0,0,0,0,0,0,0,0,0,0,0,0,0,0,0,0,0,0,0,0,0,0,0,0,0,0,0,0,0,0,0,0,0,0,0,0,0,0,0,0,0,0,0,0,0,0,0,0,0,0,0,0,0,0,0,0,0,0,0,0,0,0,0,0,0,0,0,0,0,0,0,0,0,0,0,0,0,0,0,0,0,0,0,0,0,0,0,0,0,0,0,0,0,0,0,0,0,0,0,0,0,0,0,0,0,0,0,0,0,0,0,0,0,0,0,0,0,0,0,0,0,0,0,0,0,0,0,0,0,0,0,0,0,0,0,0,0,0,0,0,0,0,0,0,0,0,0,0,0,0,0,0,0,0,0,0,0,0,0,0,0,0,0,0,0,0,0,0,0,0,0,0,0,0,0,0,0,0,0,0,0,0,0,0,0,0,0,0,0,0,0,0,0,0,0,0,0,0,0,0,0,0,0,0,0,0,0,0,0,0,0,0,0,0,0,0,0,0,0,0,0,0,0,0,0,0,0,0,0,0,0,0,0,0,0,0,0,0,0,0,0,0,0,0,0,0,0,0,0,0,0,0,0,0,0,0,0,0,0,0,0,0,0,0,0,0,0,0,0,0,0,0,0,0,0,0,0,0,0,0,0,0,0,0,0,0,0,0,0,0,0,0,0,0,0,0,0,0,0,0,0,0,0,0,0,0,0,0,0,0,0,0,0,0,0,0,0,0,0,0,0,0,0,0,0,0,0,0,0,0,0,0,0,0,0,0,0,0,0,0,0,0,0,0,0,0,0,0,0,0,0,0,0,0,0,0,0,0,0,0,0,0,0,0,0,0,0],"trees":[{"base_weights":[-5.107061E-2,-4.0894708E-1,4.6461028E-1,-5.800253E-1,-1.646732E-1,2.328471E-1,7.306856E-1,-8.586678E-1,-5.035151E-1,-6.1472887E-1,-9.2480585E-2,-4.3561994E-3,3.7460464E-1,7.554547E-2,7.6148975E-1,-9.454448E-1,-7.3780775E-1,-6.197363E-1,-4.215425E-1,-8.3400077E-1,-4.138287E-1,-1.5619473E-1,1.805655E-1,-6.310702E-1,7.134005E-2,3.226221E-1,6.039102E-1,-6.0130686E-1,3.7935805E-1,6.0872394E-1,8.445741E-1,-1.7741026E-2,-8.3235436E-4,-1.43917445E-2,-5.768759E-3,-1.2099507E-2,-5.517974E-3,-9.449871E-3,-3.8563297E-3,2.3917677E-3,-1.582117E-2,-1.0705205E-2,-4.5696576E-3,-4.815822E-3,-3.4453813E-4,2.7979177E-3,1.3519474E-2,-1.681827E-2,-7.907167E-3,-8.7669725E-4,3.961478E-3,4.174658E-3,8.475473E-3,1.1654342E-2,-2.050354E-4,1.1450978E-2,-1.386568E-2,-5.9849153E-5,1.2827767E-2,7.041228E-3,1.2446689E-2,1.281324E-2,1.6422842E-2],"categories":[],"categories_nodes":[],"categories_segments":[],"categories_sizes":[],"default_left":[0,0,0,0,0,0,0,0,0,0,0,0,0,0,0,0,0,0,0,0,0,0,0,0,0,0,0,0,0,0,0,0,0,0,0,0,0,0,0,0,0,0,0,0,0,0,0,0,0,0,0,0,0,0,0,0,0,0,0,0,0,0,0],"id":0,"left_children":[1,3,5,7,9,11,13,15,17,19,21,23,25,27,29,31,33,35,37,39,41,43,45,47,49,51,53,55,57,59,61,-1,-1,-1,-1,-1,-1,-1,-1,-1,-1,-1,-1,-1,-1,-1,-1,-1,-1,-1,-1,-1,-1,-1,-1,-1,-1,-1,-1,-1,-1,-1,-1],"loss_changes":[1.0065876E4,1.3450347E3,1.3771406E3,4.023042E2,4.3054303E2,4.0187067E2,2.0936084E2,4.082544E1,1.406377E2,7.955255E1,1.9895226E2,2.1234808E2,8.8362915E1,9.6751976E1,1.2454053E2,6.1984863E0,2.2410278E1,5.352246E1,1.567622E2,1.0602844E1,2.5175125E1,1.2928496E2,3.5682373E1,2.5689331E1,6.632565E1,7.8678894E1,1.666211E1,2.546434E1,3.8536644E1,4.5340088E1,3.2691895E1,0E0,0E0,0E0,0E0,0E0,0E0,0E0,0E0,0E0,0E0,0E0,0E0,0E0,0E0,0E0,0E0,0E0,0E0,0E0,0E0,0E0,0E0,0E0,0E0,0E0,0E0,0E0,0E0,0E0,0E0,0E0,0E0],"parents":[2147483647,0,0,1,1,2,2,3,3,4,4,5,5,6,6,7,7,8,8,9,9,10,10,11,11,12,12,13,13,14,14,15,15,16,16,17,17,18,18,19,19,20,20,21,21,22,22,23,23,24,24,25,25,26,26,27,27,28,28,29,29,30,30],"right_children":[2,4,6,8,10,12,14,16,18,20,22,24,26,28,30,32,34,36,38,40,42,44,46,48,50,52,54,56,58,60,62,-1,-1,-1,-1,-1,-1,-1,-1,-1,-1,-1,-1,-1,-1,-1,-1,-1,-1,-1,-1,-1,-1,-1,-1,-1,-1,-1,-1,-1,-1,-1,-1],"split_conditions":[4.5E0,3.125E0,6.4E0,1.5199576E1,-3.0578146E0,-8.173303E-1,-4.9335856E0,1.3020303E1,2.3E0,1.7770647E1,2.8493273E0,-5.5818734E0,2.800766E0,1.6589862E-1,7.5E0,-6E-1,4.9591836E-1,7.697329E0,2.333049E0,1E0,3.9E0,2.8051342E1,8.849639E0,1.0757946E-1,5.3E0,5.4E0,3.7E0,-7.693327E-2,6E0,-1.8773081E0,2.5624584E1,-7.480672E-2,0E0,-3.740336E-2,-2.805252E-2,-3.740336E-2,-1.870168E-2,-1.870168E-2,-1.870168E-2,1.870168E-2,-5.610504E-2,-3.740336E-2,-1.870168E-2,-1.870168E-2,0E0,0E0,5.610504E-2,-5.610504E-2,-1.870168E-2,0E0,1.870168E-2,1.870168E-2,3.740336E-2,5.610504E-2,0E0,1.870168E-2,-3.740336E-2,0E0,5.610504E-2,3.740336E-2,5.610504E-2,5.610504E-2,9.35084E-2],"split_indices":[11,11,11,286,287,287,287,286,11,286,287,287,287,231,11,228,79,287,287,239,11,286,287,231,11,11,236,266,40,287,286,0,0,0,0,0,0,0,0,0,0,0,0,0,0,0,0,0,0,0,0,0,0,0,0,0,0,0,0,0,0,0,0],"split_type":[0,0,0,0,0,0,0,0,0,0,0,0,0,0,0,0,0,0,0,0,0,0,0,0,0,0,0,0,0,0,0,0,0,0,0,0,0,0,0,0,0,0,0,0,0,0,0,0,0,0,0,0,0,0,0,0,0,0,0,0,0,0,0],"sum_hessian":[5.454E4,3.2197E4,2.2343E4,1.8933E4,1.3264E4,1.1944E4,1.0399E4,4.074E3,1.4859E4,1.831E3,1.1433E4,4.467E3,7.477E3,4.68E2,9.931E3,2.363E3,1.711E3,6.139E3,8.72E3,8.72E2,9.59E2,9.272E3,2.161E3,4.81E2,3.986E3,6.1E3,1.377E3,1.44E2,3.24E2,3.505E3,6.426E3,2.354E3,9E0,1.591E3,1.2E2,5.661E3,4.78E2,6.275E3,2.445E3,1E1,8.62E2,4.92E2,4.67E2,5.34E3,3.932E3,2.047E3,1.14E2,2.07E2,2.74E2,2.163E3,1.823E3,3.468E3,2.632E3,1.336E3,4.1E1,1.4E1,1.3E2,1.44E2,1.8E2,6.93E2,2.812E3,1.126E3,5.3E3],"tree_param":{"num_deleted":"0","num_feature":"288","num_nodes":"63","size_leaf_vector":"1"}},{"base_weights":[-3.0670978E-2,-4.0238178E-1,2.9656023E-1,-7.888823E-1,-3.188068E-1,1.02010936E-1,6.91416E-1,-9.601337E-1,-6.558019E-1,-5.086121E-1,-2.217212E-1,-9.483639E-2,1.8617508E-1,5.418554E-1,8.2137614E-1,-7.393864E-1,-9.775925E-1,-7.8254676E-1,-3.588322E-1,-5.8393705E-1,-3.5711938E-1,-3.0635414E-1,-5.405582E-2,-6.489318E-1,-3.1992894E-2,1.1040441E-1,3.4130874E-1,-4.617049E-1,5.736884E-1,-5.771594E-1,8.309914E-1,6.8517397E-3,-1.5102552E-2,-1.8341992E-2,-5.65587E-3,-1.6073255E-2,-1.2410805E-2,-1.0806826E-2,-4.0868977E-3,-1.1129009E-2,3.4053337E-3,-7.13736E-3,5.572819E-3,-9.598819E-3,-5.136233E-3,-2.5327513E-3,2.0414642E-3,-1.5030968E-2,-5.9062587E-3,-1.0676016E-3,4.896434E-3,1.2080293E-3,5.18126E-3,5.5942056E-3,1.142592E-2,-1.3227013E-2,4.342385E-3,-0E0,1.0982848E-2,6.196636E-3,-1.7292636E-2,1.2510639E-2,1.6221656E-2],"categories":[],"categories_nodes":[],"categories_segments":[],"categories_sizes":[],"default_left":[0,0,0,0,0,0,0,0,0,0,0,0,0,0,0,0,0,0,0,0,0,0,0,0,0,0,0,0,0,0,0,0,0,0,0,0,0,0,0,0,0,0,0,0,0,0,0,0,0,0,0,0,0,0,0,0,0,0,0,0,0,0,0],"id":1,"left_children":[1,3,5,7,9,11,13,15,17,19,21,23,25,27,29,31,33,35,37,39,41,43,45,47,49,51,53,55,57,59,61,-1,-1,-1,-1,-1,-1,-1,-1,-1,-1,-1,-1,-1,-1,-1,-1,-1,-1,-1,-1,-1,-1,-1,-1,-1,-1,-1,-1,-1,-1,-1,-1],"loss_changes":[6.6408486E3,8.247212E2,2.229868E3,1.0174121E2,3.8679663E2,3.2236945E2,1.8487549E2,5.6641846E0,9.5429565E1,8.033142E1,1.9718695E2,2.0245578E2,1.5991214E2,1.4297363E2,6.9718506E1,1.22341385E1,2.8026123E0,1.475769E1,2.306543E1,4.0878784E1,3.824469E1,6.0020386E1,6.2065643E1,2.9580612E1,3.850387E1,6.972883E1,5.0081787E1,2.3915478E1,3.3690674E1,1.1958595E1,2.8343018E1,0E0,0E0,0E0,0E0,0E0,0E0,0E0,0E0,0E0,0E0,0E0,0E0,0E0,0E0,0E0,0E0,0E0,0E0,0E0,0E0,0E0,0E0,0E0,0E0,0E0,0E0,0E0,0E0,0E0,0E0,0E0,0E0],"parents":[2147483647,0,0,1,1,2,2,3,3,4,4,5,5,6,6,7,7,8,8,9,9,10,10,11,11,12,12,13,13,14,14,15,15,16,16,17,17,18,18,19,19,20,20,21,21,22,22,23,23,24,24,25,25,26,26,27,27,28,28,29,29,30,30],"right_children":[2,4,6,8,10,12,14,16,18,20,22,24,26,28,30,32,34,36,38,40,42,44,46,48,50,52,54,56,58,60,62,-1,-1,-1,-1,-1,-1,-1,-1,-1,-1,-1,-1,-1,-1,-1,-1,-1,-1,-1,-1,-1,-1,-1,-1,-1,-1,-1,-1,-1,-1,-1,-1],"split_conditions":[3.7764194E0,1.4940024E1,6.5976467E0,-4.4310246E0,2.3333333E0,-1.275716E0,8.128157E0,-1.065E2,1.9950039E1,3.4262295E0,1.5193155E0,1.4005172E1,5.3E0,-5.5818734E0,-9.445631E0,2.6910883E-1,3.8541667E0,1.9E0,3.1468254E-1,1.39E1,2.9709707E1,-3.1367965E0,4.020906E0,5.233333E-1,6.375E0,2.8493273E0,2.800766E0,8.2E0,1.8252697E1,-4.4828696E0,2.6270128E1,1.9925816E-2,-5.470603E-2,-7.340771E-2,-4.535519E-2,-5.5405535E-2,-3.6703855E-2,-3.6703855E-2,-1.8351926E-2,-3.6703855E-2,6.995054E-4,-3.6703855E-2,3.4975493E-4,-3.6703855E-2,-1.8351926E-2,-1.8351926E-2,3.4975493E-4,-5.505578E-2,-1.8876554E-2,0E0,3.63541E-2,3.4975493E-4,1.870168E-2,3.63541E-2,5.505578E-2,-3.740336E-2,3.63541E-2,1.7487747E-4,5.505578E-2,3.63541E-2,-5.5405535E-2,7.375746E-2,1.1046132E-1],"split_indices":[200,286,200,287,11,287,200,227,211,287,287,286,11,287,287,90,48,11,82,277,286,287,287,82,11,287,287,240,211,94,286,0,0,0,0,0,0,0,0,0,0,0,0,0,0,0,0,0,0,0,0,0,0,0,0,0,0,0,0,0,0,0,0],"split_type":[0,0,0,0,0,0,0,0,0,0,0,0,0,0,0,0,0,0,0,0,0,0,0,0,0,0,0,0,0,0,0,0,0,0,0,0,0,0,0,0,0,0,0,0,0,0,0,0,0,0,0,0,0,0,0,0,0,0,0,0,0,0,0],"sum_hessian":[5.4593E4,2.556E4,2.9033E4,4.541E3,2.1019E4,1.9452E4,9.581E3,1.98E3,2.561E3,7.109E3,1.391E4,5.824E3,1.3628E4,4.46E3,5.121E3,1.52E2,1.828E3,1.792E3,7.69E2,4.743E3,2.366E3,9.241E3,4.669E3,5.91E2,5.233E3,9.16E3,4.468E3,1.36E2,4.324E3,3.4E1,5.087E3,8E0,1.44E2,1.818E3,1E1,1.08E3,7.12E2,2.97E2,4.72E2,4.676E3,6.7E1,2.282E3,8.4E1,1.223E3,8.018E3,3.118E3,1.551E3,4.01E2,1.9E2,4.824E3,4.09E2,7.189E3,1.971E3,3.868E3,6E2,1.01E2,3.5E1,1E2,4.224E3,9E0,2.5E1,9.41E2,4.146E3],"tree_param":{"num_deleted":"0","num_feature":"288","num_nodes":"63","size_leaf_vector":"1"}},{"base_weights":[-4.332219E-2,-2.6858386E-1,4.991398E-1,-5.305333E-1,-1.1476165E-1,2.828885E-1,7.3945695E-1,-8.74756E-1,-4.6422318E-1,-5.7972157E-1,-6.772331E-2,2.535557E-2,3.9399806E-1,1.3374731E-1,7.670274E-1,-9.812471E-1,-7.395945E-1,-5.952342E-1,-3.459947E-1,-9.1696936E-1,-4.251112E-1,-2.0838487E-1,9.8504606E-5,-5.515961E-1,8.222269E-2,3.4154528E-1,5.9360087E-1,-3.815845E-1,6.010834E-1,6.640549E-1,8.6343575E-1,-1.8465692E-2,-4.815411E-3,-1.4250184E-2,-0E0,-1.2676768E-2,-6.7353905E-3,-7.5586587E-3,-1.2747663E-3,-1.7457709E-2,9.872594E-3,-9.75278E-3,-1.4710537E-3,-5.1933806E-3,-2.5566957E-5,-1.5678492E-3,2.0941605E-3,1.2045464E-2,-1.2723789E-2,2.0928204E-4,5.5111796E-3,4.6939314E-3,8.559806E-3,9.460259E-3,1.4258467E-2,-9.250543E-3,1.0139222E-2,-9.7050825E-3,1.2789167E-2,1.098707E-2,1.4033334E-2,1.6352113E-2,7.538952E-3],"categories":[],"categories_nodes":[],"categories_segments":[],"categories_sizes":[],"default_left":[0,0,0,0,0,0,0,0,0,0,0,0,0,0,0,0,0,0,0,0,0,0,0,0,0,0,0,0,0,0,0,0,0,0,0,0,0,0,0,0,0,0,0,0,0,0,0,0,0,0,0,0,0,0,0,0,0,0,0,0,0,0,0],"id":2,"left_children":[1,3,5,7,9,11,13,15,17,19,21,23,25,27,29,31,33,35,37,39,41,43,45,47,49,51,53,55,57,59,61,-1,-1,-1,-1,-1,-1,-1,-1,-1,-1,-1,-1,-1,-1,-1,-1,-1,-1,-1,-1,-1,-1,-1,-1,-1,-1,-1,-1,-1,-1,-1,-1],"loss_changes":[6.663715E3,1.55222E3,8.3067456E2,3.240564E2,5.306332E2,2.4085052E2,1.2589307E2,3.1118652E1,1.8439258E2,1.1496234E2,2.1049011E2,8.32323E1,6.081299E1,8.051912E1,7.027588E1,4.644165E0,1.6906555E1,1.0914917E2,1.0137958E2,1.7601501E1,5.0790344E1,1.028226E2,1.3973297E2,3.5677193E1,3.479155E1,4.8528015E1,1.6838745E1,1.6913921E1,1.6871326E1,2.1856323E1,1.759253E1,0E0,0E0,0E0,0E0,0E0,0E0,0E0,0E0,0E0,0E0,0E0,0E0,0E0,0E0,0E0,0E0,0E0,0E0,0E0,0E0,0E0,0E0,0E0,0E0,0E0,0E0,0E0,0E0,0E0,0E0,0E0,0E0],"parents":[2147483647,0,0,1,1,2,2,3,3,4,4,5,5,6,6,7,7,8,8,9,9,10,10,11,11,12,12,13,13,14,14,15,15,16,16,17,17,18,18,19,19,20,20,21,21,22,22,23,23,24,24,25,25,26,26,27,27,28,28,29,29,30,30],"right_children":[2,4,6,8,10,12,14,16,18,20,22,24,26,28,30,32,34,36,38,40,42,44,46,48,50,52,54,56,58,60,62,-1,-1,-1,-1,-1,-1,-1,-1,-1,-1,-1,-1,-1,-1,-1,-1,-1,-1,-1,-1,-1,-1,-1,-1,-1,-1,-1,-1,-1,-1,-1,-1],"split_conditions":[5.3E0,2.75E0,7.2E0,-2.9954624E0,-3.9286156E0,-1.275716E0,-4.9335856E0,-6.1738E0,2.1E0,-8.133815E0,3.4444444E0,-6.5086446E0,2.333049E0,6.2E0,8.8E0,1E0,1.8666666E1,4.101364E0,3.9392657E0,7.6666665E0,1.3E1,2.469236E0,6.514484E-1,3.2796466E-1,6.6E0,6.2E0,4.203945E0,4.5778382E-1,9.839817E-2,-4.4883117E-2,1.7688103E0,-7.2034866E-2,-3.4631502E-2,-5.3333182E-2,-8.486266E-3,-3.6017433E-2,-1.7665502E-2,-3.6017433E-2,-1.7315751E-2,-7.2034866E-2,1.379392E-3,-3.568076E-2,-1.7315751E-2,-1.800871E-2,-6.5366416E-6,-6.5366416E-6,1.730267E-2,1.4022836E-3,-3.7053604E-2,1.9623301E-5,3.5674218E-2,1.7672047E-2,3.6023967E-2,3.6023967E-2,7.272783E-2,-1.8002175E-2,3.5324465E-2,-5.4369356E-2,5.367639E-2,5.3326648E-2,7.2028324E-2,1.0839551E-1,5.367639E-2],"split_indices":[11,11,11,287,287,287,287,287,11,287,11,287,287,40,11,34,5,287,287,9,5,287,287,263,11,11,287,88,231,287,196,0,0,0,0,0,0,0,0,0,0,0,0,0,0,0,0,0,0,0,0,0,0,0,0,0,0,0,0,0,0,0,0],"split_type":[0,0,0,0,0,0,0,0,0,0,0,0,0,0,0,0,0,0,0,0,0,0,0,0,0,0,0,0,0,0,0,0,0,0,0,0,0,0,0,0,0,0,0,0,0,0,0,0,0,0,0,0,0,0,0,0,0,0,0,0,0,0,0],"sum_hessian":[5.4531E4,3.8532E4,1.5999E4,1.4253E4,2.4279E4,8.424E3,7.575E3,2.298E3,1.1955E4,2.228E3,2.2051E4,2.541E3,5.883E3,3.31E2,7.244E3,1.278E3,1.02E3,5.666E3,6.289E3,6.97E2,1.531E3,7.175E3,1.4876E4,2.26E2,2.315E3,4.664E3,1.219E3,1.57E2,1.74E2,3.511E3,3.733E3,1.266E3,1.2E1,9.9E2,3E1,4.189E3,1.477E3,5.198E3,1.091E3,6.9E2,7E0,1.196E3,3.35E2,5.373E3,1.802E3,8.497E3,6.379E3,2.1E1,2.05E2,1.738E3,5.77E2,2.626E3,2.038E3,8.08E2,4.11E2,1.41E2,1.6E1,1.1E1,1.63E2,1.87E3,1.641E3,3.644E3,8.9E1],"tree_param":{"num_deleted":"0","num_feature":"288","num_nodes":"63","size_leaf_vector":"1"}},{"base_weights":[-3.183554E-2,-2.4668343E-1,4.6730787E-1,-5.846601E-1,-1.2212881E-1,2.816675E-1,7.170843E-1,-9.327747E-1,-4.8278064E-1,-3.0317917E-1,2.2507116E-2,3.9408848E-1,8.617033E-2,3.5006726E-1,7.6527673E-1,-9.7073704E-1,-7.5029683E-1,-6.038915E-1,-1.9299357E-1,-3.566318E-1,-5.5654522E-2,-4.0466882E-2,2.4744743E-1,9.362205E-2,4.6122798E-1,-6.8853396E-1,1.3547692E-1,-3.2962316E-1,4.4003263E-1,6.5837806E-1,8.855376E-1,-0E0,-1.8230634E-2,-1.6360203E-2,-7.108584E-3,-1.25942705E-2,-6.924925E-3,3.345423E-4,-6.1592744E-3,-7.938155E-3,-4.004307E-3,4.063253E-3,-2.7637796E-3,-1.9905514E-3,1.4082984E-3,3.3054666E-3,9.486379E-3,5.7773553E-3,-1.0581993E-3,6.270562E-3,1.054771E-2,-1.49709955E-2,1.1891509E-2,-5.8696856E-4,5.1659923E-3,8.810828E-3,-1.1802317E-2,8.927537E-3,-1.02244625E-2,3.5382947E-4,1.25933E-2,3.5610117E-3,1.6751353E-2],"categories":[],"categories_nodes":[],"categories_segments":[],"categories_sizes":[],"default_left":[0,0,0,0,0,0,0,0,0,0,0,0,0,0,0,0,0,0,0,0,0,0,0,0,0,0,0,0,0,0,0,0,0,0,0,0,0,0,0,0,0,0,0,0,0,0,0,0,0,0,0,0,0,0,0,0,0,0,0,0,0,0,0],"id":3,"left_children":[1,3,5,7,9,11,13,15,17,19,21,23,25,27,29,31,33,35,37,39,41,43,45,47,49,51,53,55,57,59,61,-1,-1,-1,-1,-1,-1,-1,-1,-1,-1,-1,-1,-1,-1,-1,-1,-1,-1,-1,-1,-1,-1,-1,-1,-1,-1,-1,-1,-1,-1,-1,-1],"loss_changes":[5.8460684E3,1.6038796E3,7.5977686E2,3.6251636E2,7.2948895E2,2.0658264E2,1.2267407E2,1.4091797E1,2.7815527E2,1.6342224E2,2.1944032E2,1.20164185E2,1.3125923E2,5.0134804E1,7.7739746E1,7.5703125E0,1.766983E1,9.003992E1,6.758697E1,9.7853516E1,5.533731E1,9.2405914E1,6.1742737E1,3.5554222E1,6.2420288E1,3.1301804E1,7.615726E1,2.356248E1,2.6920868E1,3.105774E1,1.9687744E1,0E0,0E0,0E0,0E0,0E0,0E0,0E0,0E0,0E0,0E0,0E0,0E0,0E0,0E0,0E0,0E0,0E0,0E0,0E0,0E0,0E0,0E0,0E0,0E0,0E0,0E0,0E0,0E0,0E0,0E0,0E0,0E0],"parents":[2147483647,0,0,1,1,2,2,3,3,4,4,5,5,6,6,7,7,8,8,9,9,10,10,11,11,12,12,13,13,14,14,15,15,16,16,17,17,18,18,19,19,20,20,21,21,22,22,23,23,24,24,25,25,26,26,27,27,28,28,29,29,30,30],"right_children":[2,4,6,8,10,12,14,16,18,20,22,24,26,28,30,32,34,36,38,40,42,44,46,48,50,52,54,56,58,60,62,-1,-1,-1,-1,-1,-1,-1,-1,-1,-1,-1,-1,-1,-1,-1,-1,-1,-1,-1,-1,-1,-1,-1,-1,-1,-1,-1,-1,-1,-1,-1,-1],"split_conditions":[5.285714E0,1.7995687E1,7.6666665E0,1.173938E1,3.1666667E0,4.3E-1,2.321268E1,1.0498271E1,1E0,2.2211108E0,5.5E0,-2.397006E0,-5.3398395E0,1.613528E1,9.25E0,1.1E0,1.2633777E-1,3.9285713E-1,2.844119E-1,2.2944663E0,3.8084596E-1,2E-1,2.2E0,-3.9873925E-1,6.3333335E0,2.8051342E1,-1.4E0,3E-1,1.4089069E-1,-4.4310246E0,5.34E-1,-1.6454387E-2,-7.068769E-2,-5.3015642E-2,-3.5343595E-2,-3.6036804E-2,-3.5343844E-2,1.9623301E-5,-1.8691808E-2,-3.502001E-2,-1.7335124E-2,1.3665506E-3,-1.7671918E-2,-1.666808E-2,3.498753E-4,1.8021807E-2,3.6023602E-2,2.5829516E-2,-3.5011608E-4,3.4650758E-2,5.26791E-2,-5.267897E-2,1.937527E-2,-3.301227E-4,1.8351564E-2,5.267909E-2,-2.212763E-2,5.232934E-2,-1.5949197E-2,7.297806E-3,6.8964966E-2,8.834678E-2,1.06368326E-1],"split_indices":[69,286,9,286,69,80,286,286,39,12,74,287,287,286,69,62,264,76,80,287,80,238,238,201,69,286,238,83,215,287,218,0,0,0,0,0,0,0,0,0,0,0,0,0,0,0,0,0,0,0,0,0,0,0,0,0,0,0,0,0,0,0,0],"split_type":[0,0,0,0,0,0,0,0,0,0,0,0,0,0,0,0,0,0,0,0,0,0,0,0,0,0,0,0,0,0,0,0,0,0,0,0,0,0,0,0,0,0,0,0,0,0,0,0,0,0,0,0,0,0,0,0,0,0,0,0,0,0,0],"sum_hessian":[5.4512E4,3.811E4,1.6402E4,1.026E4,2.785E4,9.412E3,6.99E3,2.319E3,7.941E3,1.2369E4,1.5481E4,5.973E3,3.439E3,8.14E2,6.176E3,1.912E3,4.07E2,5.598E3,2.343E3,1.017E4,2.199E3,1.2094E4,3.387E3,1.093E3,4.88E3,2.04E2,3.235E3,9.4E1,7.2E2,3.277E3,2.899E3,8E0,1.904E3,3.02E2,1.05E2,4.31E3,1.288E3,9.19E2,1.424E3,6.886E3,3.284E3,5.53E2,1.646E3,7.707E3,4.387E3,2.666E3,7.21E2,4.5E2,6.43E2,2.198E3,2.682E3,1.89E2,1.5E1,1.479E3,1.756E3,2.5E1,6.9E1,6.95E2,2.5E1,7.6E1,3.201E3,4.3E1,2.856E3],"tree_param":{"num_deleted":"0","num_feature":"288","num_nodes":"63","size_leaf_vector":"1"}},{"base_weights":[-3.3397064E-2,-2.577399E-1,5.047717E-1,-5.277352E-1,-9.829418E-2,2.800316E-1,7.347254E-1,-8.345146E-1,-4.3004215E-1,-8.306757E-1,-6.974019E-2,-2.9911977E-1,3.209207E-1,3.1399906E-1,7.7345484E-1,-9.3893325E-1,-6.847591E-1,-5.299524E-1,-3.3057845E-1,-3.0787155E-1,-8.8760155E-1,-1.9447485E-1,1.7820187E-2,-7.768012E-1,-1.6482148E-1,2.6100263E-1,4.5115414E-1,-3.5465473E-1,4.4215998E-1,6.662175E-1,8.648134E-1,-1.766351E-2,-6.0208834E-4,-1.3844788E-2,-1.9757524E-3,-1.070957E-2,-6.053356E-3,-8.030165E-3,-4.672937E-3,-1.3671231E-2,7.850752E-3,2.3917677E-3,-1.685123E-2,-6.7225564E-3,-2.9147756E-3,-5.525947E-4,2.9391833E-3,-1.7167784E-2,-4.2551427E-4,6.173269E-4,-8.815604E-3,5.811955E-3,2.9663935E-3,9.109127E-3,3.341333E-3,3.5791402E-3,-1.4991749E-2,-2.3126109E-3,9.715394E-3,-1.8277625E-3,1.2609448E-2,1.6265359E-2,-3.8762172E-4],"categories":[],"categories_nodes":[],"categories_segments":[],"categories_sizes":[],"default_left":[0,0,0,0,0,0,0,0,0,0,0,0,0,0,0,0,0,0,0,0,0,0,0,0,0,0,0,0,0,0,0,0,0,0,0,0,0,0,0,0,0,0,0,0,0,0,0,0,0,0,0,0,0,0,0,0,0,0,0,0,0,0,0],"id":4,"left_children":[1,3,5,7,9,11,13,15,17,19,21,23,25,27,29,31,33,35,37,39,41,43,45,47,49,51,53,55,57,59,61,-1,-1,-1,-1,-1,-1,-1,-1,-1,-1,-1,-1,-1,-1,-1,-1,-1,-1,-1,-1,-1,-1,-1,-1,-1,-1,-1,-1,-1,-1,-1,-1],"loss_changes":[6.599329E3,1.6604194E3,8.302446E2,4.2804736E2,5.067373E2,1.9283112E2,1.2854785E2,5.2243896E1,1.07279175E2,2.6028809E1,2.5512883E2,3.3724716E1,5.8764282E1,5.7987816E1,6.9609375E1,9.660034E0,4.53443E1,4.6958252E1,4.2961365E1,2.9082718E1,1.1762512E1,6.1023193E1,9.062126E1,1.1864487E1,2.5817123E1,2.623816E1,2.2915375E1,2.7020737E1,2.5091537E1,2.0973022E1,1.753955E1,0E0,0E0,0E0,0E0,0E0,0E0,0E0,0E0,0E0,0E0,0E0,0E0,0E0,0E0,0E0,0E0,0E0,0E0,0E0,0E0,0E0,0E0,0E0,0E0,0E0,0E0,0E0,0E0,0E0,0E0,0E0,0E0],"parents":[2147483647,0,0,1,1,2,2,3,3,4,4,5,5,6,6,7,7,8,8,9,9,10,10,11,11,12,12,13,13,14,14,15,15,16,16,17,17,18,18,19,19,20,20,21,21,22,22,23,23,24,24,25,25,26,26,27,27,28,28,29,29,30,30],"right_children":[2,4,6,8,10,12,14,16,18,20,22,24,26,28,30,32,34,36,38,40,42,44,46,48,50,52,54,56,58,60,62,-1,-1,-1,-1,-1,-1,-1,-1,-1,-1,-1,-1,-1,-1,-1,-1,-1,-1,-1,-1,-1,-1,-1,-1,-1,-1,-1,-1,-1,-1,-1,-1],"split_conditions":[5.3E0,2.8E0,7.1E0,1.507399E1,1.2139629E1,1.683255E1,2.1453405E1,1.3020303E1,2.2E0,1.25E-2,3.7E0,1.173938E1,6.4E0,-3.73E1,8.7E0,-1.1E0,2.0185596E1,4.41496E-2,2.0664947E-1,2.21E1,-6E0,1.8299345E1,4.9829364E-1,2.4506515E-1,1.0476191E0,2.1E0,1E0,-3.78E1,3.9518481E-1,7.0886075E-1,1.94E2,-6.936571E-2,-3.332236E-2,-5.2697986E-2,-1.61463E-2,-3.468891E-2,-3.4365073E-2,-3.4714825E-2,-1.7004631E-2,-3.5866596E-2,2.7400034E-3,1.9404212E-2,-5.303454E-2,-3.3977084E-2,-1.7341426E-2,-1.8406043E-5,1.7373778E-2,-5.20112E-2,-1.5294386E-2,7.020469E-4,-1.7392965E-2,3.395779E-2,1.7335005E-2,3.601391E-2,1.6311543E-2,3.3777606E-2,-5.338417E-2,-1.0361781E-3,3.4683466E-2,-2.7091214E-3,5.219605E-2,1.0437906E-1,-5.0847316E-3],"split_indices":[11,11,11,286,286,286,286,286,11,77,11,286,11,228,11,228,211,264,76,53,233,286,41,86,48,20,113,228,76,258,106,0,0,0,0,0,0,0,0,0,0,0,0,0,0,0,0,0,0,0,0,0,0,0,0,0,0,0,0,0,0,0,0],"split_type":[0,0,0,0,0,0,0,0,0,0,0,0,0,0,0,0,0,0,0,0,0,0,0,0,0,0,0,0,0,0,0,0,0,0,0,0,0,0,0,0,0,0,0,0,0,0,0,0,0,0,0,0,0,0,0,0,0,0,0,0,0,0,0],"sum_hessian":[5.4658E4,3.8578E4,1.608E4,1.4321E4,2.4257E4,8.135E3,7.945E3,3.455E3,1.0866E4,9.08E2,2.3349E4,5.35E2,7.6E3,6.72E2,7.273E3,2.029E3,1.426E3,5.415E3,5.451E3,9.1E1,8.17E2,9.632E3,1.3717E4,1.15E2,4.2E2,5.211E3,2.389E3,1.07E2,5.65E2,3.354E3,3.919E3,2.016E3,1.3E1,1.3E3,1.26E2,4.482E3,9.33E2,2.445E3,3.006E3,5.8E1,3.3E1,1E1,8.07E2,1.822E3,7.81E3,1.0235E4,3.482E3,9.6E1,1.9E1,2.55E2,1.65E2,3.501E3,1.71E3,2.108E3,2.81E2,4.8E1,5.9E1,6.7E1,4.98E2,3.4E1,3.32E3,3.898E3,2.1E1],"tree_param":{"num_deleted":"0","num_feature":"288","num_nodes":"63","size_leaf_vector":"1"}},{"base_weights":[-3.4504894E-2,-2.524669E-1,5.289473E-1,-4.7270972E-1,-4.7496013E-2,3.17095E-1,7.5993913E-1,-8.650127E-1,-3.9829996E-1,-9.079133E-1,-2.5862338E-2,-1.5875576E-1,3.4610236E-1,2.993347E-1,7.980216E-1,-9.754001E-1,-7.4856114E-1,-5.484799E-1,-3.1285116E-1,6.9873955E-4,-9.3040663E-1,-2.0082834E-1,9.517143E-3,-7.9352295E-1,-2.7507558E-2,2.7674133E-1,5.0790566E-1,-3.9247736E-1,4.4142556E-1,7.035387E-1,8.8217103E-1,-1.0291516E-3,-1.831251E-2,-1.5887313E-2,-8.899365E-3,-7.9572643E-4,-1.0549158E-2,-6.350411E-3,8.317905E-4,-1.7903505E-2,-4.7632214E-3,-7.0555974E-3,-6.735298E-4,-1.202408E-4,6.339256E-3,2.8974803E-3,-1.7087942E-2,3.5508426E-3,-7.4126567E-3,9.912192E-3,4.372988E-3,9.780289E-3,-8.156766E-3,5.6798626E-3,-1.4511698E-2,9.008504E-3,-1.3870496E-2,1.003326E-2,1.3748212E-2,1.2343282E-2,1.683867E-2],"categories":[],"categories_nodes":[],"categories_segments":[],"categories_sizes":[],"default_left":[0,0,0,0,0,0,0,0,0,0,0,0,0,0,0,0,0,0,0,0,0,0,0,0,0,0,0,0,0,0,0,0,0,0,0,0,0,0,0,0,0,0,0,0,0,0,0,0,0,0,0,0,0,0,0,0,0,0,0,0,0],"id":5,"left_children":[1,3,5,7,9,11,13,15,17,19,21,23,25,27,29,31,33,35,37,-1,39,41,43,45,47,49,51,53,55,57,59,-1,-1,-1,-1,-1,-1,-1,-1,-1,-1,-1,-1,-1,-1,-1,-1,-1,-1,-1,-1,-1,-1,-1,-1,-1,-1,-1,-1,-1,-1],"loss_changes":[6.7037515E3,1.7765979E3,7.4414795E2,5.526499E2,3.7901437E2,1.0985278E2,1.2678906E2,3.6866455E1,2.039895E2,1.1147736E1,1.23243484E2,3.755785E1,8.343976E1,5.5273838E1,5.1702637E1,4.756714E0,3.9430725E1,4.525E1,9.727716E1,0E0,7.879608E0,9.713306E1,8.710404E1,9.441925E0,3.0725388E1,5.6454895E1,3.227014E1,2.6081242E1,2.255793E1,1.5514526E1,1.2651855E1,0E0,0E0,0E0,0E0,0E0,0E0,0E0,0E0,0E0,0E0,0E0,0E0,0E0,0E0,0E0,0E0,0E0,0E0,0E0,0E0,0E0,0E0,0E0,0E0,0E0,0E0,0E0,0E0,0E0,0E0],"parents":[2147483647,0,0,1,1,2,2,3,3,4,4,5,5,6,6,7,7,8,8,9,9,10,10,11,11,12,12,13,13,14,14,15,15,16,16,17,17,18,18,20,20,21,21,22,22,23,23,24,24,25,25,26,26,27,27,28,28,29,29,30,30],"right_children":[2,4,6,8,10,12,14,16,18,20,22,24,26,28,30,32,34,36,38,-1,40,42,44,46,48,50,52,54,56,58,60,-1,-1,-1,-1,-1,-1,-1,-1,-1,-1,-1,-1,-1,-1,-1,-1,-1,-1,-1,-1,-1,-1,-1,-1,-1,-1,-1,-1,-1,-1],"split_conditions":[5.4379716E0,3.1303978E0,7.316595E0,1.3822934E1,1.1231546E1,1.683255E1,2.1453405E1,1.0498271E1,2.1135414E0,1.9E0,1.8929329E1,1.0498271E1,6.5976467E0,-3.73E1,9.014868E0,1.2E0,1.813827E1,2.3825397E-1,1.9843262E1,4.72321E-3,1.22492615E2,2.4652437E1,2.4652437E1,-1.8191323E-1,1.1071428E0,3E-1,3.7910503E1,8.136483E-2,2.9486666E1,3.8E1,2.479552E1,-3.2025103E-2,-6.806845E-2,-5.1025063E-2,-3.3992592E-2,-1.5338489E-2,-3.4040168E-2,-1.7035885E-2,9.783962E-4,-5.6798138E-2,-5.919791E-2,-1.8738983E-2,-3.251645E-4,-6.0729235E-6,3.4863316E-2,2.9840663E-3,-5.2209403E-2,1.6229473E-2,-1.6277883E-2,5.0741185E-2,1.8028326E-2,5.001826E-2,-4.4113146E-3,5.170026E-2,-3.4255482E-2,3.37111E-2,-1.895612E-2,5.0063435E-2,6.7379184E-2,6.742017E-2,1.031265E-1],"split_indices":[200,200,200,286,286,286,286,286,200,7,286,286,200,228,200,65,211,80,211,0,72,211,211,265,48,20,204,230,241,64,286,0,0,0,0,0,0,0,0,0,0,0,0,0,0,0,0,0,0,0,0,0,0,0,0,0,0,0,0,0,0],"split_type":[0,0,0,0,0,0,0,0,0,0,0,0,0,0,0,0,0,0,0,0,0,0,0,0,0,0,0,0,0,0,0,0,0,0,0,0,0,0,0,0,0,0,0,0,0,0,0,0,0,0,0,0,0,0,0,0,0,0,0,0,0],"sum_hessian":[5.4584E4,3.936E4,1.5224E4,1.8971E4,2.0389E4,7.944E3,7.28E3,3.021E3,1.595E4,4.98E2,1.9891E4,4.55E2,7.489E3,5.58E2,6.722E3,1.543E3,1.478E3,5.779E3,1.0171E4,1.1E1,4.87E2,3.347E3,1.6544E4,7.6E1,3.79E2,5.247E3,2.242E3,9.4E1,4.64E2,3.176E3,3.546E3,7E0,1.536E3,1.075E3,4.03E2,1.74E2,5.605E3,9.465E3,7.06E2,4.67E2,2E1,1.614E3,1.733E3,1.578E4,7.64E2,8E0,6.8E1,2.38E2,1.41E2,7.56E2,4.491E3,2.208E3,3.4E1,3.3E1,6.1E1,4.5E2,1.4E1,5.12E2,2.664E3,2.75E2,3.271E3],"tree_param":{"num_deleted":"0","num_feature":"288","num_nodes":"61","size_leaf_vector":"1"}},{"base_weights":[-3.491502E-2,-2.57536E-1,5.0242686E-1,-5.099022E-1,-8.343247E-2,2.8318998E-1,7.4311393E-1,-7.0122254E-1,-4.1778305E-1,-2.4340203E-1,-1.7489627E-2,-6.9473076E-1,2.9798722E-1,6.5404063E-1,8.7935394E-1,-6.547221E-1,-9.227749E-1,-3.8128918E-1,-7.217042E-1,-2.87573E-1,-7.7339515E-2,5.9968762E-2,-6.125895E-2,1.3152586E-2,-8.577837E-1,2.3094673E-1,4.3189907E-1,-4.9255466E-1,6.628387E-1,8.871922E-1,-1.4772572E-1,-2.3635458E-3,-1.2512439E-2,-1.1634151E-2,-1.8393772E-2,-7.4937833E-3,-9.365897E-4,-7.0974547E-3,-1.7282385E-2,-4.805722E-3,-1.2364984E-2,-3.925009E-3,6.5257226E-4,1.5784105E-3,-3.6947832E-3,-1.5719132E-3,1.8970377E-3,-7.0492453E-3,-1.7885081E-2,2.2407977E-3,5.640774E-3,9.873136E-3,5.2493457E-3,-1.734395E-2,1.4760259E-2,5.6410856E-3,1.2699329E-2,-6.0208834E-4,1.6671026E-2,1.2184074E-2,-1.5931644E-2],"categories":[],"categories_nodes":[],"categories_segments":[],"categories_sizes":[],"default_left":[0,0,0,0,0,0,0,0,0,0,0,0,0,0,0,0,0,0,0,0,0,0,0,0,0,0,0,0,0,0,0,0,0,0,0,0,0,0,0,0,0,0,0,0,0,0,0,0,0,0,0,0,0,0,0,0,0,0,0,0,0],"id":6,"left_children":[1,3,5,7,9,11,13,15,17,19,21,23,25,27,29,31,33,35,37,39,41,43,45,-1,47,49,51,53,55,57,59,-1,-1,-1,-1,-1,-1,-1,-1,-1,-1,-1,-1,-1,-1,-1,-1,-1,-1,-1,-1,-1,-1,-1,-1,-1,-1,-1,-1,-1,-1],"loss_changes":[6.518162E3,1.6924785E3,8.4139014E2,2.7615918E2,2.4039403E2,1.2101227E2,9.064795E1,5.0894043E1,1.1681433E2,4.857657E1,5.4760967E1,2.9333218E1,7.341614E1,4.7046387E1,2.47417E1,3.1470581E1,1.43349E1,6.072827E1,7.743555E1,5.9318848E1,2.0965588E1,3.662843E1,3.8289642E1,0E0,4.090744E0,4.2858E1,3.9173676E1,2.0906132E1,2.5953125E1,1.2074707E1,1.4119064E1,0E0,0E0,0E0,0E0,0E0,0E0,0E0,0E0,0E0,0E0,0E0,0E0,0E0,0E0,0E0,0E0,0E0,0E0,0E0,0E0,0E0,0E0,0E0,0E0,0E0,0E0,0E0,0E0,0E0,0E0],"parents":[2147483647,0,0,1,1,2,2,3,3,4,4,5,5,6,6,7,7,8,8,9,9,10,10,11,11,12,12,13,13,14,14,15,15,16,16,17,17,18,18,19,19,20,20,21,21,22,22,24,24,25,25,26,26,27,27,28,28,29,29,30,30],"right_children":[2,4,6,8,10,12,14,16,18,20,22,24,26,28,30,32,34,36,38,40,42,44,46,-1,48,50,52,54,56,58,60,-1,-1,-1,-1,-1,-1,-1,-1,-1,-1,-1,-1,-1,-1,-1,-1,-1,-1,-1,-1,-1,-1,-1,-1,-1,-1,-1,-1,-1,-1],"split_conditions":[5.3E0,2.8567333E0,7.2E0,1.8082275E0,3.4601512E0,1.0071942E-1,9.5E0,5.9125964E-2,8E-2,1.3130435E-1,4.951119E-1,2.8420694E0,6.4E0,9.839817E-2,1.94E2,2.3825397E-1,6.2E0,1E0,2.32E1,9.692671E-2,5.58049E-1,1.264911E0,5.233333E-1,3.860663E-2,1E-1,-4E-1,9E-1,6.1E0,9.7232E1,9.839817E-2,5.3132772E0,-1.571299E-2,-3.372776E-2,-4.9734622E-2,-6.679546E-2,-3.337213E-2,-1.433436E-2,-3.187865E-2,-6.679546E-2,-1.7035773E-2,-4.8959725E-2,-1.7035773E-2,3.4901922E-4,6.6205126E-4,-1.0099068E-3,-6.732384E-4,1.6659884E-2,-5.065289E-2,-6.1919477E-2,1.6007077E-2,3.2467294E-2,3.4660004E-2,3.2368105E-2,-5.197985E-2,1.4127555E-1,2.8756712E-2,5.0910406E-2,-5.1299725E-2,1.01884276E-1,6.514215E-2,-9.664572E-3],"split_indices":[11,200,11,200,200,231,11,231,231,230,261,17,11,231,106,80,64,110,65,231,207,254,82,0,42,245,220,40,31,231,17,0,0,0,0,0,0,0,0,0,0,0,0,0,0,0,0,0,0,0,0,0,0,0,0,0,0,0,0,0,0],"split_type":[0,0,0,0,0,0,0,0,0,0,0,0,0,0,0,0,0,0,0,0,0,0,0,0,0,0,0,0,0,0,0,0,0,0,0,0,0,0,0,0,0,0,0,0,0,0,0,0,0,0,0,0,0,0,0,0,0,0,0,0,0],"sum_hessian":[5.4487E4,3.8527E4,1.596E4,1.5726E4,2.2801E4,8.355E3,7.605E3,5.106E3,1.062E4,6.652E3,1.6149E4,1.23E2,8.232E3,4.606E3,2.999E3,4.227E3,8.79E2,9.486E3,1.134E3,5.251E3,1.401E3,5.826E3,1.0323E4,1.2E1,1.11E2,5.491E3,2.741E3,3.4E1,4.572E3,2.977E3,2.2E1,1.13E2,4.114E3,1.52E2,7.27E2,8.959E3,5.27E2,4.24E2,7.1E2,4.857E3,3.94E2,6.44E2,7.57E2,5.324E3,5.02E2,9.058E3,1.265E3,2.1E1,9E1,2.139E3,3.352E3,1.672E3,1.069E3,2.6E1,8E0,1.99E2,4.373E3,1.3E1,2.964E3,1E1,1.2E1],"tree_param":{"num_deleted":"0","num_feature":"288","num_nodes":"61","size_leaf_vector":"1"}},{"base_weights":[-3.1056203E-2,-2.521735E-1,5.015132E-1,-5.2427125E-1,-9.176548E-2,2.786624E-1,7.4833775E-1,-6.214223E-1,-3.6606047E-1,-2.3459746E-1,-2.242139E-2,-6.563052E-1,2.9510996E-1,6.5070117E-1,8.80292E-1,-5.7595086E-1,-9.011766E-1,-3.2738945E-1,-6.9690585E-1,-3.7417725E-1,-1.9434772E-1,-3.7858084E-1,-7.861311E-3,1.3152586E-2,-7.902464E-1,2.2420698E-1,4.3525422E-1,-6.8814826E-1,6.624767E-1,8.8772863E-1,-3.8365263E-1,-1.100177E-2,1.8320185E-3,-1.8504212E-2,-1.1336665E-2,-8.4243445E-3,-4.818272E-3,-1.8168394E-2,-4.6626427E-3,-8.499315E-3,-1.6857268E-3,-4.3715537E-3,-7.127369E-4,-2.0899724E-3,-1.1384297E-2,4.384444E-4,-2.0778114E-3,5.4508727E-3,-1.604067E-2,7.4026186E-4,4.8163645E-3,8.85319E-3,3.8511893E-3,-1.7477676E-2,2.8974803E-3,2.2943115E-3,1.2605048E-2,1.4197971E-2,1.7187221E-2,5.4508727E-3,-1.5709313E-2],"categories":[],"categories_nodes":[],"categories_segments":[],"categories_sizes":[],"default_left":[0,0,0,0,0,0,0,0,0,0,0,0,0,0,0,0,0,0,0,0,0,0,0,0,0,0,0,0,0,0,0,0,0,0,0,0,0,0,0,0,0,0,0,0,0,0,0,0,0,0,0,0,0,0,0,0,0,0,0,0,0],"id":7,"left_children":[1,3,5,7,9,11,13,15,17,19,21,23,25,27,29,31,33,35,37,39,41,43,45,-1,47,49,51,53,55,57,59,-1,-1,-1,-1,-1,-1,-1,-1,-1,-1,-1,-1,-1,-1,-1,-1,-1,-1,-1,-1,-1,-1,-1,-1,-1,-1,-1,-1,-1,-1],"loss_changes":[6.4289937E3,1.6834219E3,8.801328E2,2.1903516E2,2.4027269E2,1.2957861E2,9.6228516E1,1.11153076E2,6.8828E1,4.414377E1,8.454673E1,2.734616E1,8.174542E1,6.9617676E1,3.1074707E1,6.369751E1,3.0414062E1,4.136438E1,6.873392E1,4.0025772E1,3.7774033E1,3.884655E1,5.081106E1,0E0,1.0407112E1,3.367917E1,2.3776428E1,8.617329E0,2.644812E1,1.098291E1,6.6454105E0,0E0,0E0,0E0,0E0,0E0,0E0,0E0,0E0,0E0,0E0,0E0,0E0,0E0,0E0,0E0,0E0,0E0,0E0,0E0,0E0,0E0,0E0,0E0,0E0,0E0,0E0,0E0,0E0,0E0,0E0],"parents":[2147483647,0,0,1,1,2,2,3,3,4,4,5,5,6,6,7,7,8,8,9,9,10,10,11,11,12,12,13,13,14,14,15,15,16,16,17,17,18,18,19,19,20,20,21,21,22,22,24,24,25,25,26,26,27,27,28,28,29,29,30,30],"right_children":[2,4,6,8,10,12,14,16,18,20,22,24,26,28,30,32,34,36,38,40,42,44,46,-1,48,50,52,54,56,58,60,-1,-1,-1,-1,-1,-1,-1,-1,-1,-1,-1,-1,-1,-1,-1,-1,-1,-1,-1,-1,-1,-1,-1,-1,-1,-1,-1,-1,-1,-1],"split_conditions":[5.3E0,2.75E0,7.2E0,2.3E0,3.4444444E0,1.08312346E-1,9.3E0,6.31068E-2,7.178751E-2,7.3170733E-1,5E-1,1.04527555E-1,6.4E0,9.839817E-2,1.94E2,1.1428572E1,1.0071942E-1,1.45E0,-9.46E1,1.0843374E0,9.525687E-2,6.1791635E-1,2.945251E-1,6.2432468E-2,-1.9417115E-1,7.633588E-1,6.3173807E-1,1.1650956E2,2.0164706E-1,9.8576E1,5.3132772E0,-3.3097E-2,3.2761507E-3,-6.5546274E-2,-3.313174E-2,-3.337154E-2,-1.5743898E-2,-6.5546274E-2,-1.5419456E-2,-3.2748293E-2,-1.575789E-2,-1.6717177E-2,-1.5422791E-2,-1.67419E-2,-3.609199E-2,2.9338195E-4,-1.974904E-3,2.2966755E-3,-4.992078E-2,1.4772231E-2,1.7086523E-2,3.3842005E-2,1.6300842E-2,-5.1007744E-2,1.3863347E-1,1.8978497E-2,4.9518604E-2,9.8592944E-2,1.0067838E-1,7.81884E-3,-9.483829E-3],"split_indices":[11,11,11,11,11,231,11,231,231,189,189,209,11,231,106,277,231,222,227,188,266,206,209,0,265,188,261,24,196,26,17,0,0,0,0,0,0,0,0,0,0,0,0,0,0,0,0,0,0,0,0,0,0,0,0,0,0,0,0,0,0],"split_type":[0,0,0,0,0,0,0,0,0,0,0,0,0,0,0,0,0,0,0,0,0,0,0,0,0,0,0,0,0,0,0,0,0,0,0,0,0,0,0,0,0,0,0,0,0,0,0,0,0,0,0,0,0,0,0,0,0,0,0,0,0],"sum_hessian":[5.4592E4,3.8577E4,1.6015E4,1.4305E4,2.4272E4,8.419E3,7.596E3,8.858E3,5.447E3,7.929E3,1.6343E4,1.44E2,8.275E3,4.373E3,3.223E3,7.625E3,1.233E3,4.881E3,5.66E2,1.769E3,6.16E3,6.39E2,1.5704E4,1.2E1,1.32E2,5.5E3,2.775E3,3.7E1,4.336E3,3.205E3,1.8E1,7.489E3,1.36E2,9.45E2,2.88E2,1.76E3,3.121E3,3.49E2,2.17E2,1.377E3,3.92E2,4.916E3,1.244E3,2.98E2,3.41E2,1.2047E4,3.657E3,7E0,1.25E2,8.44E2,4.656E3,2.376E3,3.99E2,2.9E1,8E0,9.2E1,4.244E3,6.38E2,2.567E3,7E0,1.1E1],"tree_param":{"num_deleted":"0","num_feature":"288","num_nodes":"61","size_leaf_vector":"1"}},{"base_weights":[-3.415494E-2,-2.4728698E-1,5.2343327E-1,-4.7172505E-1,-3.8033757E-2,3.1437704E-1,7.525167E-1,-6.469087E-1,-3.5793537E-1,-2.05325E-1,-4.0291697E-3,-6.74146E-1,3.284082E-1,-4.1580355E-1,7.6364994E-1,-6.0209924E-1,-9.0022486E-1,-3.2927495E-1,-6.7414427E-1,-2.7747947E-1,-3.8668975E-2,-6.423851E-2,6.0135964E-2,1.3152586E-2,-8.578748E-1,2.5874326E-1,4.9551293E-1,-1.782361E-2,4.1754967E-1,6.5574247E-1,8.703733E-1,-1.4399352E-2,-1.0249596E-2,-1.0443909E-2,-1.8410077E-2,-6.515709E-3,-1.1884415E-3,-1.7635675E-2,-2.8250497E-3,-4.705171E-3,-1.27058495E-2,5.6541488E-3,-1.7201273E-3,-6.215962E-4,-9.002913E-3,-2.9039232E-4,2.2481577E-3,-1.746257E-2,-0E0,6.4283055E-3,2.6679994E-3,-3.994215E-3,9.785899E-3,1.6879406E-2,-1.4294315E-2,5.945115E-3,1.2538244E-2,1.637941E-2,-1.2771924E-3],"categories":[],"categories_nodes":[],"categories_segments":[],"categories_sizes":[],"default_left":[0,0,0,0,0,0,0,0,0,0,0,0,0,0,0,0,0,0,0,0,0,0,0,0,0,0,0,0,0,0,0,0,0,0,0,0,0,0,0,0,0,0,0,0,0,0,0,0,0,0,0,0,0,0,0,0,0,0,0],"id":8,"left_children":[1,3,5,7,9,11,13,15,17,19,21,23,25,27,29,31,33,35,37,39,41,43,45,-1,47,49,51,-1,53,55,57,-1,-1,-1,-1,-1,-1,-1,-1,-1,-1,-1,-1,-1,-1,-1,-1,-1,-1,-1,-1,-1,-1,-1,-1,-1,-1,-1,-1],"loss_changes":[6.4873286E3,1.8545347E3,7.2202637E2,3.789585E2,1.16171616E2,1.0966315E2,9.4306885E1,8.353223E1,1.03872314E2,4.1307053E1,6.565549E1,2.8917133E1,9.006616E1,3.1516949E1,8.050244E1,5.653833E1,3.0668396E1,5.3626343E1,1.3385898E2,2.4282013E1,1.8950912E1,1.1313695E2,3.7434128E1,0E0,6.4082794E0,5.394214E1,4.533966E1,0E0,1.6820616E1,1.6808472E1,1.8838379E1,0E0,0E0,0E0,0E0,0E0,0E0,0E0,0E0,0E0,0E0,0E0,0E0,0E0,0E0,0E0,0E0,0E0,0E0,0E0,0E0,0E0,0E0,0E0,0E0,0E0,0E0,0E0,0E0],"parents":[2147483647,0,0,1,1,2,2,3,3,4,4,5,5,6,6,7,7,8,8,9,9,10,10,11,11,12,12,13,13,14,14,15,15,16,16,17,17,18,18,19,19,20,20,21,21,22,22,24,24,25,25,26,26,28,28,29,29,30,30],"right_children":[2,4,6,8,10,12,14,16,18,20,22,24,26,28,30,32,34,36,38,40,42,44,46,-1,48,50,52,-1,54,56,58,-1,-1,-1,-1,-1,-1,-1,-1,-1,-1,-1,-1,-1,-1,-1,-1,-1,-1,-1,-1,-1,-1,-1,-1,-1,-1,-1,-1],"split_conditions":[5.4379716E0,3.1303978E0,7.316595E0,2.0892978E0,3.4601512E0,9.952607E-2,1.3212435E-1,7.5294115E-2,9.692671E-2,2.1E-1,4.19E1,2.711419E0,6.5976467E0,6.3E0,9.014868E0,1.2905211E0,6.6E0,1E0,2.8275862E-1,6E-1,4.738889E-2,4.18E1,3.75E-1,3.6717027E-2,5E0,4.0833333E-1,1.8252697E1,-5.0053813E-2,3.75E0,9.7232E1,1E0,-4.8503537E-2,-3.2153826E-2,-3.2168742E-2,-6.4320445E-2,-1.61172E-2,-1.44108785E-2,-6.4320445E-2,-1.5086382E-2,-1.6736202E-2,-3.474084E-2,2.2663956E-3,-1.6404536E-2,-3.8863145E-5,-3.7890933E-2,-2.3819059E-5,2.0110519E-3,-5.1947378E-2,-2.2237344E-2,3.280326E-2,1.5397154E-2,-4.1596405E-3,3.3141468E-2,1.1901508E-1,-1.4896373E-2,2.8288027E-2,6.097935E-2,9.74096E-2,-4.64378E-3],"split_indices":[200,200,200,200,200,231,231,231,231,49,61,17,200,40,200,200,64,110,231,50,223,61,35,0,59,80,211,0,14,31,144,0,0,0,0,0,0,0,0,0,0,0,0,0,0,0,0,0,0,0,0,0,0,0,0,0,0,0,0],"split_type":[0,0,0,0,0,0,0,0,0,0,0,0,0,0,0,0,0,0,0,0,0,0,0,0,0,0,0,0,0,0,0,0,0,0,0,0,0,0,0,0,0,0,0,0,0,0,0,0,0,0,0,0,0,0,0,0,0,0,0],"sum_hessian":[5.4587E4,3.9493E4,1.5094E4,1.9053E4,2.044E4,7.895E3,7.199E3,7.498E3,1.1555E4,3.449E3,1.6991E4,1.09E2,7.786E3,6.7E1,7.132E3,6.377E3,1.121E3,1.0599E4,9.56E2,2.404E3,1.045E3,8.77E3,8.221E3,1.2E1,9.7E1,5.5E3,2.286E3,4.1E1,2.6E1,3.554E3,3.578E3,1.546E3,4.831E3,2.25E2,8.96E2,9.885E3,7.14E2,6.3E2,3.26E2,2.262E3,1.42E2,1.39E2,9.06E2,8.166E3,6.04E2,3.635E3,4.586E3,8.9E1,8E0,3.171E3,2.329E3,8.5E1,2.201E3,1.9E1,7E0,1.51E2,3.403E3,3.558E3,2E1],"tree_param":{"num_deleted":"0","num_feature":"288","num_nodes":"59","size_leaf_vector":"1"}},{"base_weights":[-3.2760873E-2,-2.5668615E-1,5.06263E-1,-5.31327E-1,-9.555352E-2,2.873903E-1,7.5193954E-1,-8.498871E-1,-4.3450457E-1,-7.177294E-1,-5.84012E-2,3.683211E-2,3.927971E-1,-1.4182062E-1,7.7191633E-1,-9.3932176E-1,-7.0520926E-1,-5.781733E-1,-3.571049E-1,-9.2769855E-1,-5.010864E-1,-1.05265714E-1,1.7503528E-1,-5.42816E-1,1.1491091E-1,3.3530053E-1,5.8007115E-1,-6.520774E-1,3.2923695E-1,6.6830164E-1,8.6832815E-1,-1.7704543E-2,-1.4084625E-3,-1.4197134E-2,-2.69033E-3,-1.34881055E-2,-9.735734E-3,-8.58146E-3,-3.6586227E-3,-1.1485048E-2,-1.8261444E-2,-1.1270672E-2,-2.8228937E-3,-5.469397E-3,-6.6468015E-4,1.9757573E-3,8.040764E-3,-1.1726412E-2,6.9531673E-3,8.1421447E-4,6.154056E-3,-4.977817E-3,6.5601026E-3,1.9878568E-3,1.1500283E-2,1.1560916E-2,-1.5562836E-2,-4.172789E-3,1.2522558E-2,9.873972E-4,1.2899644E-2,1.2869932E-2,1.6635632E-2],"categories":[],"categories_nodes":[],"categories_segments":[],"categories_sizes":[],"default_left":[0,0,0,0,0,0,0,0,0,0,0,0,0,0,0,0,0,0,0,0,0,0,0,0,0,0,0,0,0,0,0,0,0,0,0,0,0,0,0,0,0,0,0,0,0,0,0,0,0,0,0,0,0,0,0,0,0,0,0,0,0,0,0],"id":9,"left_children":[1,3,5,7,9,11,13,15,17,19,21,23,25,27,29,31,33,35,37,39,41,43,45,47,49,51,53,55,57,59,61,-1,-1,-1,-1,-1,-1,-1,-1,-1,-1,-1,-1,-1,-1,-1,-1,-1,-1,-1,-1,-1,-1,-1,-1,-1,-1,-1,-1,-1,-1,-1,-1],"loss_changes":[6.581941E3,1.7045698E3,8.597197E2,4.381272E2,5.6086597E2,2.233794E2,1.350918E2,4.1079834E1,1.2072241E2,6.0761536E1,2.5071494E2,1.1348121E2,6.3385437E1,4.0255566E1,7.200049E1,1.2344727E1,3.796936E1,3.0272095E1,1.16317566E2,8.847778E0,2.3557465E1,2.4895888E2,6.740166E1,2.338623E1,3.36279E1,4.2667908E1,2.2567719E1,1.9270199E1,1.6710964E1,4.6611816E1,1.2822998E1,0E0,0E0,0E0,0E0,0E0,0E0,0E0,0E0,0E0,0E0,0E0,0E0,0E0,0E0,0E0,0E0,0E0,0E0,0E0,0E0,0E0,0E0,0E0,0E0,0E0,0E0,0E0,0E0,0E0,0E0,0E0,0E0],"parents":[2147483647,0,0,1,1,2,2,3,3,4,4,5,5,6,6,7,7,8,8,9,9,10,10,11,11,12,12,13,13,14,14,15,15,16,16,17,17,18,18,19,19,20,20,21,21,22,22,23,23,24,24,25,25,26,26,27,27,28,28,29,29,30,30],"right_children":[2,4,6,8,10,12,14,16,18,20,22,24,26,28,30,32,34,36,38,40,42,44,46,48,50,52,54,56,58,60,62,-1,-1,-1,-1,-1,-1,-1,-1,-1,-1,-1,-1,-1,-1,-1,-1,-1,-1,-1,-1,-1,-1,-1,-1,-1,-1,-1,-1,-1,-1,-1,-1],"split_conditions":[5.3E0,2.75E0,7.2E0,1.4940024E1,-5.3398395E0,-1.275716E0,-6.1738E0,1.3020303E1,2.4164726E-1,1.2139629E1,2.8493273E0,-5.5818734E0,2.0450983E0,1.07422695E-1,8.8E0,3.0174562E-1,2.0185596E1,2E0,2.3E0,2.6666667E0,2.1491969E0,3.4E0,4.4E0,1.6571429E0,6.6E0,1.5798345E1,1.903466E1,1.963892E-1,-5E-2,-4.4310246E0,2.5225084E1,-6.311755E-2,-1.05403485E-2,-4.8925195E-2,-1.3824115E-2,-3.1559143E-2,-3.2501508E-2,-3.1552494E-2,-1.4823601E-2,-4.9224667E-2,-6.403635E-2,-3.3866696E-2,-1.6694024E-2,-1.578463E-2,-6.139806E-5,1.8808764E-3,3.5351746E-2,-3.5376824E-2,1.9332489E-2,1.5161772E-2,3.1191869E-2,-2.9831342E-3,3.1438116E-2,1.2801046E-2,5.01159E-2,6.7381896E-2,-4.1957695E-2,-1.4617786E-2,3.0801449E-2,1.0046676E-2,4.7926318E-2,6.2130842E-2,9.586117E-2],"split_indices":[11,11,11,286,287,287,287,286,287,286,287,287,287,264,11,231,211,11,11,66,16,11,11,235,11,286,286,85,51,287,286,0,0,0,0,0,0,0,0,0,0,0,0,0,0,0,0,0,0,0,0,0,0,0,0,0,0,0,0,0,0,0,0],"split_type":[0,0,0,0,0,0,0,0,0,0,0,0,0,0,0,0,0,0,0,0,0,0,0,0,0,0,0,0,0,0,0,0,0,0,0,0,0,0,0,0,0,0,0,0,0,0,0,0,0,0,0,0,0,0,0,0,0,0,0,0,0,0,0],"sum_hessian":[5.4529E4,3.8526E4,1.6003E4,1.4243E4,2.4283E4,8.466E3,7.537E3,3.316E3,1.0927E4,1.366E3,2.2917E4,2.509E3,5.957E3,1.64E2,7.373E3,2.042E3,1.274E3,3.82E3,7.107E3,6.9E2,6.76E2,1.9088E4,3.829E3,2.96E2,2.213E3,4.563E3,1.394E3,7.9E1,8.5E1,3.562E3,3.811E3,2.024E3,1.8E1,1.161E3,1.13E2,1.089E3,2.731E3,4.356E3,2.751E3,9.7E1,5.93E2,5.22E2,1.54E2,5.177E3,1.3911E4,3.013E3,8.16E2,2.72E2,2.4E1,1.663E3,5.5E2,1.13E2,4.45E3,9.7E1,1.297E3,9E0,7E1,3.2E1,5.3E1,1.21E2,3.441E3,4.09E2,3.402E3],"tree_param":{"num_deleted":"0","num_feature":"288","num_nodes":"63","size_leaf_vector":"1"}},{"base_weights":[-4.0573023E-2,-2.6267698E-1,4.9105304E-1,-5.073559E-1,-8.051465E-2,2.7572712E-1,7.313132E-1,-8.8373417E-1,-4.3087342E-1,-5.5578715E-1,-3.648676E-2,1.2236438E-2,3.9026347E-1,3.0567324E-1,7.702203E-1,-9.6967256E-1,-7.558989E-1,-5.477116E-1,-3.097141E-1,-9.3132246E-1,-3.722533E-1,-1.887701E-1,1.9328095E-2,-5.6929475E-1,9.1096066E-2,3.3721107E-1,6.0049736E-1,-7.521475E-1,4.0801066E-1,6.866369E-1,8.3365023E-1,-1.8412083E-2,-1.3490344E-2,-1.5836371E-2,-8.789774E-3,-1.0791119E-2,-2.4910297E-3,-7.1955347E-3,2.2819736E-4,-1.8162224E-2,-9.746249E-3,-1.0955669E-2,-3.8345405E-3,-1.5063293E-3,-5.049705E-3,-5.1099894E-4,4.661175E-3,-1.3132138E-2,-0E0,3.2617204E-4,5.70516E-3,4.374713E-3,8.770647E-3,4.3242495E-3,1.1942102E-2,2.3917677E-3,-1.789921E-2,4.2695464E-3,1.2614074E-2,-1.1095729E-4,1.3184474E-2,1.4462314E-2,1.6880145E-2],"categories":[],"categories_nodes":[],"categories_segments":[],"categories_sizes":[],"default_left":[0,0,0,0,0,0,0,0,0,0,0,0,0,0,0,0,0,0,0,0,0,0,0,0,0,0,0,0,0,0,0,0,0,0,0,0,0,0,0,0,0,0,0,0,0,0,0,0,0,0,0,0,0,0,0,0,0,0,0,0,0,0,0],"id":10,"left_children":[1,3,5,7,9,11,13,15,17,19,21,23,25,27,29,31,33,35,37,39,41,43,45,47,49,51,53,55,57,59,61,-1,-1,-1,-1,-1,-1,-1,-1,-1,-1,-1,-1,-1,-1,-1,-1,-1,-1,-1,-1,-1,-1,-1,-1,-1,-1,-1,-1,-1,-1,-1,-1],"loss_changes":[6.4388184E3,1.7139922E3,8.304573E2,4.712256E2,4.61086E2,2.5562128E2,1.24815186E2,2.843335E1,1.9245972E2,1.27578064E2,1.7165717E2,1.1774545E2,6.5091736E1,6.948821E1,3.5222656E1,4.1279297E0,2.7883057E1,8.3831055E1,1.6216125E2,8.454224E0,4.4342194E1,4.740544E1,1.5854167E2,2.3185692E1,3.5538517E1,6.3737244E1,1.5995026E1,1.080464E1,2.7282333E1,3.8667847E1,1.4490967E1,0E0,0E0,0E0,0E0,0E0,0E0,0E0,0E0,0E0,0E0,0E0,0E0,0E0,0E0,0E0,0E0,0E0,0E0,0E0,0E0,0E0,0E0,0E0,0E0,0E0,0E0,0E0,0E0,0E0,0E0,0E0,0E0],"parents":[2147483647,0,0,1,1,2,2,3,3,4,4,5,5,6,6,7,7,8,8,9,9,10,10,11,11,12,12,13,13,14,14,15,15,16,16,17,17,18,18,19,19,20,20,21,21,22,22,23,23,24,24,25,25,26,26,27,27,28,28,29,29,30,30],"right_children":[2,4,6,8,10,12,14,16,18,20,22,24,26,28,30,32,34,36,38,40,42,44,46,48,50,52,54,56,58,60,62,-1,-1,-1,-1,-1,-1,-1,-1,-1,-1,-1,-1,-1,-1,-1,-1,-1,-1,-1,-1,-1,-1,-1,-1,-1,-1,-1,-1,-1,-1,-1,-1],"split_conditions":[5.3E0,2.916175E0,7.2E0,1.3822934E1,-3.9286156E0,-1.275716E0,2.1453405E1,-3.0578146E0,2.3E0,1.2139629E1,3.4601512E0,-5.5818734E0,2.383647E0,-8.826206E0,8.7E0,-3.71E1,2.2048283E0,7.697329E0,2.9528315E0,1.2113204E2,4E0,-7.495317E-2,2.8493273E0,2.66E1,6.6E0,6.2E0,5.4E0,1.06258644E2,9.795191E-2,-4.4310246E0,3.016459E-3,-6.1937142E-2,-4.648526E-2,-4.7045987E-2,-3.0595148E-2,-3.0980842E-2,-1.3284432E-2,-1.5208148E-2,1.8730288E-3,-5.142959E-2,-5.046637E-2,-3.3785168E-2,-1.6744087E-2,-1.5415296E-2,-1.5827088E-2,-3.499288E-5,1.8162029E-2,-3.713158E-2,-1.5382734E-4,1.3707869E-2,3.0570652E-2,1.4867971E-2,3.1404085E-2,3.0639095E-2,4.9503963E-2,2.1516796E-2,-4.8333045E-2,1.2184969E-2,4.650645E-2,-6.2721977E-3,6.1204076E-2,8.1258245E-2,1.0017543E-1],"split_indices":[11,200,11,286,287,287,286,287,11,286,200,287,287,287,11,228,200,287,287,72,11,193,287,62,11,11,11,72,230,287,287,0,0,0,0,0,0,0,0,0,0,0,0,0,0,0,0,0,0,0,0,0,0,0,0,0,0,0,0,0,0,0,0],"split_type":[0,0,0,0,0,0,0,0,0,0,0,0,0,0,0,0,0,0,0,0,0,0,0,0,0,0,0,0,0,0,0,0,0,0,0,0,0,0,0,0,0,0,0,0,0,0,0,0,0,0,0,0,0,0,0,0,0,0,0,0,0,0,0],"sum_hessian":[5.4529E4,3.8462E4,1.6067E4,1.6412E4,2.205E4,8.476E3,7.591E3,2.768E3,1.3644E4,1.867E3,2.0183E4,2.57E3,5.906E3,6.38E2,6.953E3,1.647E3,1.121E3,6.941E3,6.703E3,6.1E2,1.257E3,5.415E3,1.4768E4,3.05E2,2.265E3,4.721E3,1.185E3,5.5E1,5.83E2,3.011E3,3.942E3,1.548E3,9.9E1,8.47E2,2.74E2,6.481E3,4.6E2,5.437E3,1.266E3,5.53E2,5.7E1,5.49E2,7.08E2,2.326E3,3.089E3,1.2276E4,2.492E3,2.47E2,5.8E1,1.688E3,5.77E2,2.651E3,2.07E3,1.13E2,1.072E3,1E1,4.5E1,3.51E2,2.32E2,7.7E1,2.934E3,2.116E3,1.826E3],"tree_param":{"num_deleted":"0","num_feature":"288","num_nodes":"63","size_leaf_vector":"1"}},{"base_weights":[-3.9019432E-2,-2.6193553E-1,4.9208236E-1,-4.7462702E-1,-5.448378E-2,2.9110962E-1,7.1494126E-1,-8.424978E-1,-4.0839073E-1,-6.4911443E-1,-2.4142561E-2,4.39085E-2,4.0390766E-1,-6.031442E-1,7.2541434E-1,-7.00381E-1,-9.8076653E-1,-5.6294894E-1,-2.749639E-1,-3.9324296E-1,-8.9178365E-1,-7.073733E-2,1.7651352E-1,-5.5408144E-1,1.2304139E-1,3.2342964E-1,5.350681E-1,-8.812203E-1,1.2184074E-2,4.8176432E-1,7.566251E-1,-1.5496576E-2,-1.1410797E-2,2.8974803E-3,-1.8469198E-2,-1.1107417E-2,-1.989191E-3,-6.619815E-3,-6.445952E-4,-1.2703259E-2,-2.2324703E-3,-1.7729007E-3,-1.7098226E-2,-5.0739376E-3,-8.0596854E-4,1.82388E-3,7.275271E-3,3.1440146E-3,-1.2249934E-2,7.992325E-4,6.615468E-3,4.5870147E-3,8.98629E-3,-9.992266E-3,1.0201202E-2,-5.4508727E-3,-1.7843816E-2,5.1572467E-3,1.2446916E-2,1.3036093E-2,1.5649954E-2],"categories":[],"categories_nodes":[],"categories_segments":[],"categories_sizes":[],"default_left":[0,0,0,0,0,0,0,0,0,0,0,0,0,0,0,0,0,0,0,0,0,0,0,0,0,0,0,0,0,0,0,0,0,0,0,0,0,0,0,0,0,0,0,0,0,0,0,0,0,0,0,0,0,0,0,0,0,0,0,0,0],"id":11,"left_children":[1,3,5,7,9,11,13,15,17,19,21,23,25,27,29,31,33,35,37,39,41,43,45,47,49,51,53,55,-1,57,59,-1,-1,-1,-1,-1,-1,-1,-1,-1,-1,-1,-1,-1,-1,-1,-1,-1,-1,-1,-1,-1,-1,-1,-1,-1,-1,-1,-1,-1,-1],"loss_changes":[6.4369272E3,1.6894868E3,7.190654E2,4.5956055E2,3.494564E2,2.3550507E2,1.0588623E2,5.4740356E1,3.298479E2,5.7196594E1,1.7247403E2,1.2538523E2,6.05578E1,2.2053688E1,5.629956E1,1.5022522E1,1.19123535E1,1.0451489E2,1.6330121E2,3.560134E1,7.941345E0,8.285087E1,5.8021385E1,2.2979164E1,4.3199703E1,4.367859E1,2.4929688E1,1.0981445E0,0E0,3.195755E1,3.0325195E1,0E0,0E0,0E0,0E0,0E0,0E0,0E0,0E0,0E0,0E0,0E0,0E0,0E0,0E0,0E0,0E0,0E0,0E0,0E0,0E0,0E0,0E0,0E0,0E0,0E0,0E0,0E0,0E0,0E0,0E0],"parents":[2147483647,0,0,1,1,2,2,3,3,4,4,5,5,6,6,7,7,8,8,9,9,10,10,11,11,12,12,13,13,14,14,15,15,16,16,17,17,18,18,19,19,20,20,21,21,22,22,23,23,24,24,25,25,26,26,27,27,29,29,30,30],"right_children":[2,4,6,8,10,12,14,16,18,20,22,24,26,28,30,32,34,36,38,40,42,44,46,48,50,52,54,56,-1,58,60,-1,-1,-1,-1,-1,-1,-1,-1,-1,-1,-1,-1,-1,-1,-1,-1,-1,-1,-1,-1,-1,-1,-1,-1,-1,-1,-1,-1,-1,-1],"split_conditions":[5.3E0,3.1303978E0,7.2E0,-3.2863467E0,-5.3398395E0,-1.2088491E0,-9.445631E0,9.237875E-2,2.3E0,3.0956686E-1,2.6557407E0,-5.5818734E0,6.3E0,-2.2875E1,-2.9954624E0,2.4E0,1.2E0,7.697329E0,2.5103443E0,9.903382E-2,1.4273211E-1,3.4E0,4.4E0,-2.51E1,6.6E0,1.5511249E0,8.333333E-1,1.7053333E1,1.2925712E-2,8.8E0,9.3E0,-4.588502E-2,-3.1965986E-2,1.8113058E-2,-6.0778815E-2,-3.0707218E-2,-1.2736277E-2,-1.5175344E-2,-1.4242475E-2,-4.557718E-2,-1.5715474E-2,-2.0268446E-2,-5.1737275E-2,-1.58129E-2,-2.906264E-4,2.1783293E-3,3.43386E-2,7.73727E-4,-3.6279183E-2,1.4357301E-2,3.0382209E-2,1.4879025E-2,3.1642936E-2,-5.0449944E-3,4.713661E-2,-1.2216158E-2,-5.4772574E-2,2.6621228E-2,5.5895414E-2,5.7432495E-2,9.422481E-2],"split_indices":[11,200,11,287,287,287,287,231,11,209,287,287,11,229,287,11,62,287,287,231,280,11,11,229,11,287,47,3,0,11,11,0,0,0,0,0,0,0,0,0,0,0,0,0,0,0,0,0,0,0,0,0,0,0,0,0,0,0,0,0,0],"split_type":[0,0,0,0,0,0,0,0,0,0,0,0,0,0,0,0,0,0,0,0,0,0,0,0,0,0,0,0,0,0,0,0,0,0,0,0,0,0,0,0,0,0,0,0,0,0,0,0,0,0,0,0,0,0,0,0,0,0,0,0,0],"sum_hessian":[5.4368E4,3.8296E4,1.6072E4,1.8907E4,1.9389E4,8.454E3,7.618E3,2.881E3,1.6026E4,9.39E2,1.845E4,2.651E3,5.803E3,5.9E1,7.559E3,1.427E3,1.454E3,7.421E3,8.605E3,4.6E2,4.79E2,1.4976E4,3.474E3,3.08E2,2.343E3,3.602E3,2.201E3,4.9E1,1E1,8.63E2,6.696E3,5.82E2,8.45E2,8E0,1.446E3,6.948E3,4.73E2,6.475E3,2.13E3,2.23E2,2.37E2,1.4E1,4.65E2,1.81E3,1.3166E4,2.536E3,9.38E2,3.7E1,2.71E2,1.741E3,6.02E2,2.41E3,1.192E3,2E1,2.181E3,7E0,4.2E1,4.1E2,4.53E2,3.854E3,2.842E3],"tree_param":{"num_deleted":"0","num_feature":"288","num_nodes":"61","size_leaf_vector":"1"}},{"base_weights":[-3.506703E-2,-2.4384832E-1,5.084306E-1,-4.68381E-1,-3.581819E-2,3.1681076E-1,7.163895E-1,-6.2720174E-1,-3.4587014E-1,-1.5343969E-1,2.0061692E-2,3.962371E-1,1.4952707E-1,-3.7158233E-1,7.254487E-1,-5.808803E-1,-8.8857645E-1,-3.1752664E-1,-6.672361E-1,-2.3922066E-1,-4.363198E-2,-3.8791254E-2,8.5553125E-2,3.2930177E-1,5.289439E-1,-1.7424114E-2,1.7506438E-1,1.3222985E-2,-1.6900256E-2,6.339117E-1,7.8656715E-1,-1.4251522E-2,-9.934748E-3,-1.01394495E-2,-1.8355995E-2,-6.317555E-3,-8.793561E-4,-1.7322566E-2,-3.1099678E-3,5.271689E-3,-4.8476816E-3,-3.1098772E-3,7.425052E-4,-1.426704E-3,1.5963444E-3,2.8486128E-4,3.0426267E-3,6.776025E-3,8.2686776E-5,-8.548402E-3,1.01983715E-2,1.5870424E-3,6.535741E-3,1.2535447E-3,1.2210633E-2,1.1818929E-2,1.5152341E-2],"categories":[],"categories_nodes":[],"categories_segments":[],"categories_sizes":[],"default_left":[0,0,0,0,0,0,0,0,0,0,0,0,0,0,0,0,0,0,0,0,0,0,0,0,0,0,0,0,0,0,0,0,0,0,0,0,0,0,0,0,0,0,0,0,0,0,0,0,0,0,0,0,0,0,0,0,0],"id":12,"left_children":[1,3,5,7,9,11,13,15,17,19,21,23,25,27,29,31,33,35,37,39,41,43,45,47,49,-1,51,-1,-1,53,55,-1,-1,-1,-1,-1,-1,-1,-1,-1,-1,-1,-1,-1,-1,-1,-1,-1,-1,-1,-1,-1,-1,-1,-1,-1,-1],"loss_changes":[6.1949893E3,1.8421396E3,6.0288794E2,3.682373E2,1.3466747E2,1.0444696E2,7.217261E1,9.8424805E1,9.674951E1,6.1987198E1,5.3530174E1,4.6778503E1,7.008942E1,3.5736683E1,3.8819336E1,6.1867188E1,3.8281372E1,5.3804504E1,1.1148868E2,3.8652786E1,2.9704014E1,3.4021908E1,3.556478E1,3.799655E1,2.9271088E1,0E0,3.8858025E1,0E0,0E0,3.074524E1,1.4239258E1,0E0,0E0,0E0,0E0,0E0,0E0,0E0,0E0,0E0,0E0,0E0,0E0,0E0,0E0,0E0,0E0,0E0,0E0,0E0,0E0,0E0,0E0,0E0,0E0,0E0,0E0],"parents":[2147483647,0,0,1,1,2,2,3,3,4,4,5,5,6,6,7,7,8,8,9,9,10,10,11,11,12,12,13,13,14,14,15,15,16,16,17,17,18,18,19,19,20,20,21,21,22,22,23,23,24,24,26,26,29,29,30,30],"right_children":[2,4,6,8,10,12,14,16,18,20,22,24,26,28,30,32,34,36,38,40,42,44,46,48,50,-1,52,-1,-1,54,56,-1,-1,-1,-1,-1,-1,-1,-1,-1,-1,-1,-1,-1,-1,-1,-1,-1,-1,-1,-1,-1,-1,-1,-1,-1,-1],"split_conditions":[5.4379716E0,3.1303978E0,7.316595E0,2.1805847E0,3.7764194E0,4.4777057E-1,1.3212435E-1,6.720977E-2,9.692671E-2,2.5444445E1,1.421728E0,6.5976467E0,9.839817E-2,4E0,6.3E0,1.2905211E0,7.9E0,1E0,2.9411766E-1,1.1111111E-2,1.00877196E-1,2.8E-1,4.666754E0,6.454972E-1,1.74341E1,-6.400296E-2,1E0,1.307E-1,-4.628745E-2,3.0647272E-1,1.058E2,-4.439328E-2,-2.9808741E-2,-2.9805632E-2,-5.9642147E-2,-1.4967282E-2,-1.2376351E-2,-5.9642147E-2,-1.3844881E-2,1.879392E-2,-1.7058276E-2,-1.5568279E-2,6.4532616E-4,-3.8468983E-4,1.883944E-3,2.8117369E-5,1.6744878E-2,3.0439785E-2,3.1212243E-4,-4.5631733E-3,4.416933E-2,1.3262231E-2,2.8740901E-2,5.590184E-3,5.5811737E-2,7.377078E-2,8.945999E-2],"split_indices":[200,200,200,200,200,80,231,231,231,2,216,200,231,1,40,200,60,110,231,80,247,49,200,207,211,0,110,0,0,196,60,0,0,0,0,0,0,0,0,0,0,0,0,0,0,0,0,0,0,0,0,0,0,0,0,0,0],"split_type":[0,0,0,0,0,0,0,0,0,0,0,0,0,0,0,0,0,0,0,0,0,0,0,0,0,0,0,0,0,0,0,0,0,0,0,0,0,0,0,0,0,0,0,0,0,0,0,0,0,0,0,0,0,0,0,0,0],"sum_hessian":[5.4593E4,3.9443E4,1.515E4,1.8967E4,2.0476E4,7.888E3,7.262E3,8.255E3,1.0712E4,6.597E3,1.3879E4,5.345E3,2.543E3,5.9E1,7.203E3,7.018E3,1.237E3,9.848E3,8.64E2,3.7E3,2.897E3,7.306E3,6.573E3,3.559E3,1.786E3,5.7E1,2.486E3,1.9E1,4E1,2.894E3,4.309E3,1.503E3,5.515E3,2.65E2,9.72E2,9.159E3,6.89E2,5.68E2,2.96E2,1.35E2,3.565E3,1.174E3,1.723E3,5.615E3,1.691E3,3.443E3,3.13E3,3.229E3,3.3E2,2.8E1,1.758E3,1.642E3,8.44E2,9.5E1,2.799E3,5.8E2,3.729E3],"tree_param":{"num_deleted":"0","num_feature":"288","num_nodes":"57","size_leaf_vector":"1"}},{"base_weights":[-3.8833722E-2,-2.565664E-1,4.8078686E-1,-5.2936953E-1,-9.543528E-2,2.765903E-1,6.899998E-1,-8.8191307E-1,-4.6243346E-1,-5.6268096E-1,-4.8937455E-2,5.3533126E-2,4.0267143E-1,-2.2119768E-1,7.1198076E-1,-9.7965217E-1,-7.544E-1,-5.9581584E-1,-3.4144658E-1,-9.079476E-1,-4.0773913E-1,-9.503652E-2,1.6089937E-1,-5.516221E-1,1.1870945E-1,3.417078E-1,5.7744616E-1,-6.790731E-1,2.2486614E-1,5.3796816E-1,7.5104725E-1,-1.3713714E-2,-1.8670123E-2,9.872594E-3,-1.4303455E-2,-1.2730994E-2,-6.639882E-3,-7.3324847E-3,-1.7552037E-3,-1.7803416E-2,-6.1026267E-3,-1.1342519E-2,-4.334861E-3,-4.994033E-3,-5.747188E-4,1.7270097E-3,7.529698E-3,-1.1260926E-2,1.5137103E-2,-3.9343624E-3,3.138944E-3,4.84961E-3,8.567754E-3,5.537833E-3,1.1833925E-2,-1.706437E-2,-3.2902215E-4,1.1665715E-2,-7.0342203E-3,8.161978E-3,1.4135087E-2,9.205008E-3,1.4328181E-2],"categories":[],"categories_nodes":[],"categories_segments":[],"categories_sizes":[],"default_left":[0,0,0,0,0,0,0,0,0,0,0,0,0,0,0,0,0,0,0,0,0,0,0,0,0,0,0,0,0,0,0,0,0,0,0,0,0,0,0,0,0,0,0,0,0,0,0,0,0,0,0,0,0,0,0,0,0,0,0,0,0,0,0],"id":13,"left_children":[1,3,5,7,9,11,13,15,17,19,21,23,25,27,29,31,33,35,37,39,41,43,45,47,49,51,53,55,57,59,61,-1,-1,-1,-1,-1,-1,-1,-1,-1,-1,-1,-1,-1,-1,-1,-1,-1,-1,-1,-1,-1,-1,-1,-1,-1,-1,-1,-1,-1,-1,-1,-1],"loss_changes":[6.157442E3,1.6855427E3,6.857444E2,3.3473096E2,5.235631E2,2.2854877E2,1.5943091E2,2.6279053E1,1.9240796E2,1.15456604E2,2.1217497E2,1.1588056E2,5.4588623E1,3.8752502E1,5.1402832E1,3.8792725E0,1.399231E1,1.1545056E2,7.845355E1,1.6106873E1,5.2134644E1,1.9878053E2,6.5127945E1,2.0225128E1,4.2997353E1,3.645453E1,2.0079193E1,1.3907192E1,2.3360422E1,3.0479156E1,2.3483643E1,0E0,0E0,0E0,0E0,0E0,0E0,0E0,0E0,0E0,0E0,0E0,0E0,0E0,0E0,0E0,0E0,0E0,0E0,0E0,0E0,0E0,0E0,0E0,0E0,0E0,0E0,0E0,0E0,0E0,0E0,0E0,0E0],"parents":[2147483647,0,0,1,1,2,2,3,3,4,4,5,5,6,6,7,7,8,8,9,9,10,10,11,11,12,12,13,13,14,14,15,15,16,16,17,17,18,18,19,19,20,20,21,21,22,22,23,23,24,24,25,25,26,26,27,27,28,28,29,29,30,30],"right_children":[2,4,6,8,10,12,14,16,18,20,22,24,26,28,30,32,34,36,38,40,42,44,46,48,50,52,54,56,58,60,62,-1,-1,-1,-1,-1,-1,-1,-1,-1,-1,-1,-1,-1,-1,-1,-1,-1,-1,-1,-1,-1,-1,-1,-1,-1,-1,-1,-1,-1,-1,-1,-1],"split_conditions":[5.3E0,2.75E0,7.1E0,-2.9954624E0,-3.9286156E0,-8.666292E-1,-6.1738E0,-6.1738E0,2.1E0,-8.133815E0,2.7580132E0,-5.5818734E0,2.0866234E0,1.07422695E-1,-2.0848877E0,-1E-1,1.2E0,4.101364E0,3.8413622E0,2.982696E1,3.9E0,3.4E0,4.4E0,2.6285715E1,2.1357788E1,6.2E0,9.8632E1,1.139E2,-3.513642E-2,1E1,9.7164E1,-4.7002032E-2,-5.852674E-2,2.6604434E-2,-4.312711E-2,-2.9582005E-2,-1.2629844E-2,-2.7651725E-2,-1.2535125E-2,-5.942836E-2,-1.5129824E-2,-3.199975E-2,-1.6999282E-2,-1.4611628E-2,-1.6160576E-4,2.4628113E-3,3.364884E-2,-3.334284E-2,3.7524465E-2,-4.5265756E-3,1.4786401E-2,1.4301664E-2,2.9534394E-2,2.682068E-2,4.7436874E-2,-4.770852E-2,-3.0295952E-4,2.8044993E-2,-1.1550509E-2,3.2752506E-2,8.884023E-2,5.0715994E-2,6.943904E-2],"split_indices":[11,11,11,287,287,287,287,287,11,287,287,287,287,264,287,233,62,287,287,204,11,11,11,66,204,11,26,60,194,11,27,0,0,0,0,0,0,0,0,0,0,0,0,0,0,0,0,0,0,0,0,0,0,0,0,0,0,0,0,0,0,0,0],"split_type":[0,0,0,0,0,0,0,0,0,0,0,0,0,0,0,0,0,0,0,0,0,0,0,0,0,0,0,0,0,0,0,0,0,0,0,0,0,0,0,0,0,0,0,0,0,0,0,0,0,0,0,0,0,0,0,0,0,0,0,0,0,0,0],"sum_hessian":[5.4422E4,3.8353E4,1.6069E4,1.4239E4,2.4114E4,8.135E3,7.934E3,2.268E3,1.1971E4,2.18E3,2.1934E4,2.94E3,5.195E3,1.86E2,7.748E3,1.276E3,9.92E2,5.689E3,6.282E3,6.72E2,1.508E3,1.7986E4,3.948E3,2.84E2,2.656E3,3.857E3,1.338E3,9.2E1,9.4E1,1.427E3,6.321E3,9.6E1,1.18E3,7E0,9.85E2,4.202E3,1.487E3,5.213E3,1.069E3,6.23E2,4.9E1,7.05E2,8.03E2,4.891E3,1.3095E4,3.079E3,8.69E2,2.75E2,9E0,3.43E2,2.313E3,2.264E3,1.593E3,2.23E2,1.115E3,6.7E1,2.5E1,5.7E1,3.7E1,9.78E2,4.49E2,3.53E2,5.968E3],"tree_param":{"num_deleted":"0","num_feature":"288","num_nodes":"63","size_leaf_vector":"1"}},{"base_weights":[-4.074492E-2,-2.466137E-1,4.9905407E-1,-4.7320384E-1,-3.728587E-2,2.4302419E-1,6.4760673E-1,-8.7435645E-1,-3.9760205E-1,-9.1558397E-1,-1.547649E-2,-2.3801921E-1,2.7307135E-1,2.0267636E-1,6.84706E-1,-9.7788984E-1,-7.6502335E-1,-5.419493E-1,-3.0180302E-1,-1.9882886E-1,-9.454444E-1,-1.1729356E-1,5.4206822E-2,2.239355E-1,-3.9460808E-1,3.5852608E-1,1.4124545E-1,-8.8968235E-1,3.2179847E-1,5.328617E-1,7.313315E-1,-4.4085416E-3,-1.8359162E-2,-1.6082149E-2,-1.0503231E-2,-1.1930384E-2,-8.39852E-3,-6.050774E-3,5.868477E-4,9.872594E-3,-1.1450978E-2,-1.7905205E-2,-1.0291516E-3,-3.3188586E-3,1.359041E-3,3.2323512E-4,2.6361507E-3,1.1007643E-2,-7.6537547E-3,-1.3555297E-2,-3.3913532E-3,6.9838255E-3,-4.1107256E-3,-8.486022E-3,3.4287842E-3,-1.0291516E-3,-1.8132133E-2,7.816318E-3,-1.5236177E-3,1.0326451E-2,-7.878485E-3,1.2860635E-2,1.5762633E-2],"categories":[],"categories_nodes":[],"categories_segments":[],"categories_sizes":[],"default_left":[0,0,0,0,0,0,0,0,0,0,0,0,0,0,0,0,0,0,0,0,0,0,0,0,0,0,0,0,0,0,0,0,0,0,0,0,0,0,0,0,0,0,0,0,0,0,0,0,0,0,0,0,0,0,0,0,0,0,0,0,0,0,0],"id":14,"left_children":[1,3,5,7,9,11,13,15,17,19,21,23,25,27,29,31,33,35,37,39,41,43,45,47,49,51,53,55,57,59,61,-1,-1,-1,-1,-1,-1,-1,-1,-1,-1,-1,-1,-1,-1,-1,-1,-1,-1,-1,-1,-1,-1,-1,-1,-1,-1,-1,-1,-1,-1,-1,-1],"loss_changes":[6.0697827E3,1.875217E3,5.728252E2,5.7463135E2,3.932435E2,8.019528E1,1.5680322E2,3.203174E1,2.2027954E2,9.761047E0,1.4237096E2,2.3762873E1,5.8423157E1,9.607536E1,6.1089844E1,3.3422852E0,2.6960632E1,5.5786743E1,6.977911E1,7.265155E0,4.459015E0,9.328023E1,3.805287E1,1.9486801E1,1.653947E1,2.7457367E1,5.1484848E1,4.204502E0,2.6070679E1,3.865741E1,3.1099121E1,0E0,0E0,0E0,0E0,0E0,0E0,0E0,0E0,0E0,0E0,0E0,0E0,0E0,0E0,0E0,0E0,0E0,0E0,0E0,0E0,0E0,0E0,0E0,0E0,0E0,0E0,0E0,0E0,0E0,0E0,0E0,0E0],"parents":[2147483647,0,0,1,1,2,2,3,3,4,4,5,5,6,6,7,7,8,8,9,9,10,10,11,11,12,12,13,13,14,14,15,15,16,16,17,17,18,18,19,19,20,20,21,21,22,22,23,23,24,24,25,25,26,26,27,27,28,28,29,29,30,30],"right_children":[2,4,6,8,10,12,14,16,18,20,22,24,26,28,30,32,34,36,38,40,42,44,46,48,50,52,54,56,58,60,62,-1,-1,-1,-1,-1,-1,-1,-1,-1,-1,-1,-1,-1,-1,-1,-1,-1,-1,-1,-1,-1,-1,-1,-1,-1,-1,-1,-1,-1,-1,-1,-1],"split_conditions":[5.4379716E0,3.1303978E0,6.5976467E0,1.3822934E1,1.1231546E1,1.683255E1,2.087526E1,1.0498271E1,2.1805847E0,8.506784E-1,2.479552E1,2.94127E-1,4.2833334E-1,1.3212435E-1,7.316595E0,4.9E0,2.2E0,1.8929329E1,1E0,-1.1141159E1,1.2352167E2,5.1853144E-1,4.6871777E0,1.2704724E-1,1.34674015E1,1.3846154E0,3.229681E-1,-1.6745447E1,2.36E1,3.7823334E1,1.0376401E1,-2.782417E-2,-5.7432193E-2,-4.4474516E-2,-3.004266E-2,-2.9028771E-2,-2.8697908E-2,-1.4343978E-2,2.4916823E-3,8.038795E-3,-4.377492E-2,-6.004235E-2,-2.5933377E-2,-1.5550435E-2,5.4653236E-3,3.176023E-5,1.6690606E-2,1.536332E-2,-2.4227925E-2,-3.8877394E-2,-3.9209328E-3,3.0066581E-2,-5.557474E-3,-1.8842801E-2,1.3771081E-2,-4.4160634E-2,-6.256798E-2,2.8172685E-2,-6.0905986E-3,4.239441E-2,-6.729098E-3,5.8679245E-2,1.05189994E-1],"split_indices":[200,200,200,286,286,286,286,286,200,225,286,79,80,231,200,61,10,286,110,95,72,82,200,226,286,260,263,95,241,4,200,0,0,0,0,0,0,0,0,0,0,0,0,0,0,0,0,0,0,0,0,0,0,0,0,0,0,0,0,0,0,0,0],"split_type":[0,0,0,0,0,0,0,0,0,0,0,0,0,0,0,0,0,0,0,0,0,0,0,0,0,0,0,0,0,0,0,0,0,0,0,0,0,0,0,0,0,0,0,0,0,0,0,0,0,0,0,0,0,0,0,0,0,0,0,0,0,0,0],"sum_hessian":[5.4618E4,3.954E4,1.5078E4,1.8985E4,2.0555E4,5.539E3,9.539E3,3.007E3,1.5978E4,4.96E2,2.0059E4,3.24E2,5.215E3,7.36E2,8.803E3,1.536E3,1.471E3,6.369E3,9.609E3,2.1E1,4.75E2,8.153E3,1.1906E4,8.1E1,2.43E2,3.16E3,2.055E3,7.1E1,6.65E2,2.075E3,6.728E3,9E0,1.527E3,9.98E2,4.73E2,3.125E3,3.244E3,9.022E3,5.87E2,7E0,1.4E1,4.68E2,7E0,6.194E3,1.959E3,8.357E3,3.549E3,5.2E1,2.9E1,9.3E1,1.5E2,3.082E3,7.8E1,1.34E2,1.921E3,7E0,6.4E1,5.38E2,1.27E2,2.035E3,4E1,4.846E3,1.882E3],"tree_param":{"num_deleted":"0","num_feature":"288","num_nodes":"63","size_leaf_vector":"1"}},{"base_weights":[-4.521751E-2,-2.6084694E-1,4.7451648E-1,-5.212761E-1,-8.238606E-2,2.7843237E-1,6.920834E-1,-8.8508755E-1,-4.4430143E-1,-9.1805065E-1,-5.850453E-2,-3.1197628E-1,3.220528E-1,3.0134502E-1,7.2641647E-1,-9.8146576E-1,-7.8219867E-1,-5.503577E-1,-3.2335323E-1,1.0291516E-3,-9.298862E-1,-1.991394E-1,6.137958E-3,-8.274464E-1,-1.6457954E-1,2.5242907E-1,4.5814633E-1,4.453958E-1,-3.7309486E-1,6.553086E-1,8.086061E-1,-0E0,-1.8460361E-2,-1.6379215E-2,-9.30812E-3,-1.2203765E-2,-8.604174E-3,-6.5681105E-3,1.3360286E-3,-3.188944E-3,-1.7667053E-2,-4.825678E-3,-1.6686707E-3,-3.9042E-3,6.0070376E-4,-1.7972752E-2,-4.5699254E-3,6.8858475E-3,-5.4038134E-3,6.4941207E-3,3.4320457E-3,1.1501497E-2,6.994664E-3,-4.8643732E-3,1.0066426E-2,-1.7436128E-2,-2.8974477E-3,6.196985E-3,1.2552571E-2,1.2236629E-2,1.5674416E-2],"categories":[],"categories_nodes":[],"categories_segments":[],"categories_sizes":[],"default_left":[0,0,0,0,0,0,0,0,0,0,0,0,0,0,0,0,0,0,0,0,0,0,0,0,0,0,0,0,0,0,0,0,0,0,0,0,0,0,0,0,0,0,0,0,0,0,0,0,0,0,0,0,0,0,0,0,0,0,0,0,0],"id":15,"left_children":[1,3,5,7,9,11,13,15,17,19,21,23,25,27,29,31,33,35,37,-1,39,41,43,45,47,49,51,53,55,57,59,-1,-1,-1,-1,-1,-1,-1,-1,-1,-1,-1,-1,-1,-1,-1,-1,-1,-1,-1,-1,-1,-1,-1,-1,-1,-1,-1,-1,-1,-1],"loss_changes":[6.108154E3,1.7900005E3,6.8099194E2,4.3733203E2,4.5564468E2,2.1672833E2,1.007312E2,2.5032959E1,1.6514917E2,7.849365E0,2.021836E2,4.3221592E1,7.366669E1,6.007515E1,3.911792E1,7.7504883E0,3.408972E1,6.249341E1,6.66803E1,0E0,6.2164307E0,4.511035E1,8.493951E1,8.940491E0,3.0092907E1,3.3519836E1,3.4059753E1,3.3666107E1,1.2440699E1,1.8406006E1,1.3063477E1,0E0,0E0,0E0,0E0,0E0,0E0,0E0,0E0,0E0,0E0,0E0,0E0,0E0,0E0,0E0,0E0,0E0,0E0,0E0,0E0,0E0,0E0,0E0,0E0,0E0,0E0,0E0,0E0,0E0,0E0],"parents":[2147483647,0,0,1,1,2,2,3,3,4,4,5,5,6,6,7,7,8,8,9,9,10,10,11,11,12,12,13,13,14,14,15,15,16,16,17,17,18,18,20,20,21,21,22,22,23,23,24,24,25,25,26,26,27,27,28,28,29,29,30,30],"right_children":[2,4,6,8,10,12,14,16,18,20,22,24,26,28,30,32,34,36,38,-1,40,42,44,46,48,50,52,54,56,58,60,-1,-1,-1,-1,-1,-1,-1,-1,-1,-1,-1,-1,-1,-1,-1,-1,-1,-1,-1,-1,-1,-1,-1,-1,-1,-1,-1,-1,-1,-1],"split_conditions":[5.3E0,2.8567333E0,7.2E0,1.3822934E1,1.1231546E1,1.683255E1,2.1453405E1,1.0498271E1,2.3E0,5E0,3.5231416E0,1.173938E1,6.4E0,2.3588888E1,9.5E0,9.009009E-3,1.7459774E-1,1.8929329E1,1.9574259E-1,1.0356203E-2,1.6239317E-2,2.6823032E1,1.7458118E1,6.381384E-1,3.1007752E-2,3.4564936E-1,2.617037E-1,-3.73E1,1.6943235E1,3.1701956E1,2.7172947E1,3.533804E-3,-5.6358114E-2,-4.3642767E-2,-2.7386844E-2,-2.8796386E-2,-2.816121E-2,-1.3812196E-2,4.1388804E-3,-4.0715348E-2,-5.787623E-2,-1.4920915E-2,-1.40701085E-2,-1.7325262E-2,2.9456356E-4,-4.3387886E-2,-9.943151E-3,1.8262548E-2,-5.971066E-3,2.9189503E-2,1.3669295E-2,4.6398953E-2,2.7022406E-2,-8.513249E-3,2.7712366E-2,-2.9816736E-2,-1.2311983E-2,3.4086864E-2,5.243058E-2,6.719628E-2,9.560744E-2],"split_indices":[11,200,11,286,286,286,286,286,11,54,200,286,11,2,74,232,178,286,178,0,215,286,286,76,232,80,80,228,286,210,286,0,0,0,0,0,0,0,0,0,0,0,0,0,0,0,0,0,0,0,0,0,0,0,0,0,0,0,0,0,0],"split_type":[0,0,0,0,0,0,0,0,0,0,0,0,0,0,0,0,0,0,0,0,0,0,0,0,0,0,0,0,0,0,0,0,0,0,0,0,0,0,0,0,0,0,0,0,0,0,0,0,0,0,0,0,0,0,0,0,0,0,0,0,0],"sum_hessian":[5.4501E4,3.8521E4,1.598E4,1.5661E4,2.286E4,8.408E3,7.572E3,2.731E3,1.293E4,6.33E2,2.2227E4,5.77E2,7.831E3,6.14E2,6.958E3,1.401E3,1.33E3,6.884E3,6.046E3,7E0,6.26E2,7.001E3,1.5226E4,1.26E2,4.51E2,5.186E3,2.645E3,5.07E2,1.07E2,3.741E3,3.217E3,8E0,1.393E3,9.97E2,3.33E2,3.222E3,3.662E3,5.649E3,3.97E2,1.3E1,6.13E2,4.554E3,2.447E3,1.639E3,1.3587E4,1.01E2,2.5E1,8.4E1,3.67E2,2.177E3,3.009E3,9.18E2,1.727E3,5.8E1,4.49E2,2.8E1,7.9E1,1.78E2,3.563E3,5.25E2,2.692E3],"tree_param":{"num_deleted":"0","num_feature":"288","num_nodes":"61","size_leaf_vector":"1"}},{"base_weights":[-4.5390137E-2,-2.6301897E-1,4.7529867E-1,-4.8108828E-1,-5.042606E-2,2.315156E-1,6.391266E-1,-8.147914E-1,-3.9197955E-1,-9.163984E-1,-2.9692365E-2,-3.9137357E-1,2.6846078E-1,-2.0175742E-2,6.618376E-1,-9.164461E-1,-6.541256E-1,-5.2473474E-1,-2.950387E-1,-0E0,-9.328191E-1,-2.2927634E-1,-1.706927E-3,-7.953312E-1,-2.1712093E-1,3.0247858E-1,7.722168E-2,-6.64234E-1,1.6156535E-1,5.9198666E-1,8.213713E-1,-1.7526204E-2,-1.3563081E-2,-1.406836E-2,-3.818323E-3,-1.1231915E-2,-7.7250344E-3,-6.017515E-3,1.6359946E-3,-9.951875E-3,-1.806254E-2,-7.3611164E-3,-1.9485355E-4,-4.1565904E-4,5.7023205E-3,-1.7434554E-2,-2.2537243E-3,5.736578E-3,-7.295249E-3,5.3055575E-3,1.09062735E-2,3.393427E-3,-4.246576E-3,8.919972E-3,-1.6269295E-2,5.2644224E-3,-1.5879001E-2,4.842299E-3,1.1360889E-2,1.199603E-2,1.613455E-2],"categories":[],"categories_nodes":[],"categories_segments":[],"categories_sizes":[],"default_left":[0,0,0,0,0,0,0,0,0,0,0,0,0,0,0,0,0,0,0,0,0,0,0,0,0,0,0,0,0,0,0,0,0,0,0,0,0,0,0,0,0,0,0,0,0,0,0,0,0,0,0,0,0,0,0,0,0,0,0,0,0],"id":16,"left_children":[1,3,5,7,9,11,13,15,17,19,21,23,25,27,29,31,33,35,37,-1,39,41,43,45,47,49,51,53,55,57,59,-1,-1,-1,-1,-1,-1,-1,-1,-1,-1,-1,-1,-1,-1,-1,-1,-1,-1,-1,-1,-1,-1,-1,-1,-1,-1,-1,-1,-1,-1],"loss_changes":[6.175098E3,1.7814089E3,6.408291E2,5.629922E2,3.489172E2,1.4873752E2,1.4417358E2,6.3541504E1,1.9207422E2,6.8386536E0,1.0605785E2,2.4650246E1,3.9443207E1,3.793557E1,1.02008545E2,7.783203E0,6.794153E1,5.2595703E1,8.870929E1,0E0,4.3536987E0,8.377287E1,1.0477726E2,9.20182E0,2.3366127E1,2.6583588E1,2.9387445E1,1.7590284E1,3.0402111E1,3.266992E1,1.938623E1,0E0,0E0,0E0,0E0,0E0,0E0,0E0,0E0,0E0,0E0,0E0,0E0,0E0,0E0,0E0,0E0,0E0,0E0,0E0,0E0,0E0,0E0,0E0,0E0,0E0,0E0,0E0,0E0,0E0,0E0],"parents":[2147483647,0,0,1,1,2,2,3,3,4,4,5,5,6,6,7,7,8,8,9,9,10,10,11,11,12,12,13,13,14,14,15,15,16,16,17,17,18,18,20,20,21,21,22,22,23,23,24,24,25,25,26,26,27,27,28,28,29,29,30,30],"right_children":[2,4,6,8,10,12,14,16,18,20,22,24,26,28,30,32,34,36,38,-1,40,42,44,46,48,50,52,54,56,58,60,-1,-1,-1,-1,-1,-1,-1,-1,-1,-1,-1,-1,-1,-1,-1,-1,-1,-1,-1,-1,-1,-1,-1,-1,-1,-1,-1,-1,-1,-1],"split_conditions":[5.3E0,3.1303978E0,6.5976467E0,1.4940024E1,1.1231546E1,1.5678484E1,1.7770647E1,1.3020303E1,2.3E0,1.3884297E-1,1.7670582E1,1.173938E1,6.707693E-1,1.4005172E1,9.6E0,1.593354E-1,1.9950039E1,2.114411E1,1.9843262E1,-2.6312412E-3,8E0,2.6242237E1,2.447003E1,3.138648E-1,-4.8E-1,7.4444443E-1,2.7083333E0,-1.4E0,1.24E1,6.1E0,2.8051342E1,-5.530412E-2,-4.2550273E-2,-4.3524694E-2,-1.3618812E-2,-2.7965408E-2,-2.6780188E-2,-1.3557031E-2,3.5831677E-3,-2.7725501E-2,-5.7823144E-2,-3.031752E-2,-1.3370242E-4,-5.00548E-5,3.0102858E-2,-3.7901036E-2,-1.8298049E-3,1.9433977E-2,-1.846649E-2,2.5702812E-2,4.4178374E-2,1.3406193E-2,-6.9779586E-3,2.6930874E-2,-4.337236E-2,2.2940367E-2,-1.7437834E-2,2.5371427E-2,4.314645E-2,6.693323E-2,1.0145426E-1],"split_indices":[11,200,200,286,286,286,286,286,11,177,286,286,261,286,11,264,211,286,211,0,1,211,211,264,49,82,21,181,67,54,286,0,0,0,0,0,0,0,0,0,0,0,0,0,0,0,0,0,0,0,0,0,0,0,0,0,0,0,0,0,0],"split_type":[0,0,0,0,0,0,0,0,0,0,0,0,0,0,0,0,0,0,0,0,0,0,0,0,0,0,0,0,0,0,0,0,0,0,0,0,0,0,0,0,0,0,0,0,0,0,0,0,0,0,0,0,0,0,0,0,0,0,0,0,0],"sum_hessian":[5.4492E4,3.8431E4,1.6061E4,1.8969E4,1.9462E4,6.458E3,9.603E3,3.994E3,1.4975E4,4.53E2,1.9009E4,3.6E2,6.098E3,3.19E2,9.284E3,2.44E3,1.554E3,6.315E3,8.66E3,8E0,4.45E2,2.334E3,1.6675E4,1.06E2,2.54E2,5.174E3,9.24E2,7E1,2.49E2,6.464E3,2.82E3,2.194E3,2.46E2,1.274E3,2.8E2,3.754E3,2.561E3,8.096E3,5.64E2,3.7E1,4.08E2,1.331E3,1.003E3,1.5632E4,1.043E3,8.7E1,1.9E1,6.2E1,1.92E2,4.854E3,3.2E2,6.9E2,2.34E2,1E1,6E1,2.24E2,2.5E1,2.9E2,6.174E3,5.34E2,2.286E3],"tree_param":{"num_deleted":"0","num_feature":"288","num_nodes":"61","size_leaf_vector":"1"}},{"base_weights":[-4.753793E-2,-2.5832546E-1,4.5883653E-1,-4.69149E-1,-5.2989528E-2,2.6902E-1,6.510345E-1,-8.2807237E-1,-3.813622E-1,-6.373402E-1,-1.7673897E-2,-3.1203535E-1,3.0895045E-1,2.3847596E-1,6.8978494E-1,-9.140986E-1,-6.794123E-1,-5.211841E-1,-2.7974817E-1,-9.1280174E-1,-3.8537562E-1,2.118253E-1,-3.691922E-2,-7.0564836E-1,-1.5012626E-1,2.3386255E-1,4.136503E-1,3.5305667E-1,-4.609782E-1,6.122497E-1,8.1244385E-1,-1.8153114E-2,-1.5602053E-2,-1.4750712E-2,-7.091043E-3,-1.1167492E-2,-7.60393E-3,-5.732706E-3,1.5562299E-3,8.3235436E-4,-1.7403334E-2,-1.5444288E-4,-1.0235912E-2,5.341772E-3,-1.2998047E-3,-2.1596323E-3,9.533156E-4,-2.2000282E-3,-1.5623175E-2,3.901191E-3,-6.737411E-3,5.6037237E-3,2.4390314E-3,7.913419E-3,-7.4200905E-3,8.06573E-3,-4.0475065E-3,-1.2428832E-2,1.3536368E-2,1.3339639E-2,1.0407054E-2,1.5411973E-2,3.5939403E-3],"categories":[],"categories_nodes":[],"categories_segments":[],"categories_sizes":[],"default_left":[0,0,0,0,0,0,0,0,0,0,0,0,0,0,0,0,0,0,0,0,0,0,0,0,0,0,0,0,0,0,0,0,0,0,0,0,0,0,0,0,0,0,0,0,0,0,0,0,0,0,0,0,0,0,0,0,0,0,0,0,0,0,0],"id":17,"left_children":[1,3,5,7,9,11,13,15,17,19,21,23,25,27,29,31,33,35,37,39,41,43,45,47,49,51,53,55,57,59,61,-1,-1,-1,-1,-1,-1,-1,-1,-1,-1,-1,-1,-1,-1,-1,-1,-1,-1,-1,-1,-1,-1,-1,-1,-1,-1,-1,-1,-1,-1,-1,-1],"loss_changes":[5.8074844E3,1.6628064E3,5.826587E2,5.9612354E2,4.0133658E2,1.8690082E2,1.2625464E2,4.5847412E1,2.1579419E2,7.57272E1,8.100333E1,3.2365444E1,5.8738586E1,5.511517E1,6.755322E1,8.473755E0,4.3989563E1,5.4878784E1,8.597998E1,9.508972E0,3.526967E1,2.959658E1,1.1702131E2,1.074926E1,2.8040394E1,2.9606506E1,2.4417236E1,2.6555305E1,2.3938818E1,2.3854492E1,1.9494507E1,0E0,0E0,0E0,0E0,0E0,0E0,0E0,0E0,0E0,0E0,0E0,0E0,0E0,0E0,0E0,0E0,0E0,0E0,0E0,0E0,0E0,0E0,0E0,0E0,0E0,0E0,0E0,0E0,0E0,0E0,0E0,0E0],"parents":[2147483647,0,0,1,1,2,2,3,3,4,4,5,5,6,6,7,7,8,8,9,9,10,10,11,11,12,12,13,13,14,14,15,15,16,16,17,17,18,18,19,19,20,20,21,21,22,22,23,23,24,24,25,25,26,26,27,27,28,28,29,29,30,30],"right_children":[2,4,6,8,10,12,14,16,18,20,22,24,26,28,30,32,34,36,38,40,42,44,46,48,50,52,54,56,58,60,62,-1,-1,-1,-1,-1,-1,-1,-1,-1,-1,-1,-1,-1,-1,-1,-1,-1,-1,-1,-1,-1,-1,-1,-1,-1,-1,-1,-1,-1,-1,-1,-1],"split_conditions":[5.3E0,3.125E0,7.1E0,1.480341E1,1.4005172E1,1.683255E1,2.1353043E1,1.3020303E1,2.3E0,1.1231546E1,1.9761905E-1,1.3236962E1,6.2E0,4.337955E-1,9.6E0,9.248506E0,1.7040844E-1,2.114411E1,1.9360882E-1,1E0,1.3552778E1,1.2768531E1,2.779294E1,1.0906075E2,1.118263E2,4.4566184E-1,4.8773856E0,2.5133333E1,4.4E1,1.9209173E-1,1.7688103E0,-5.4269843E-2,-4.1213773E-2,-4.2723663E-2,-2.692589E-2,-2.7449058E-2,-1.2335524E-2,-1.3561049E-2,3.2561661E-3,2.7348738E-2,-5.544181E-2,-8.991182E-4,-3.249483E-2,1.9801488E-2,-1.1244629E-3,-1.3287383E-2,3.255903E-4,-8.191208E-3,-3.9506517E-2,1.493356E-2,-6.288419E-3,2.7134193E-2,1.2607523E-2,2.759071E-2,-2.7610525E-2,2.3113066E-2,-6.624392E-3,-3.0353418E-2,2.3814127E-2,5.7816286E-2,3.8704786E-2,9.953739E-2,2.9886195E-2],"split_indices":[11,11,11,286,286,286,286,286,11,286,80,286,11,80,11,286,178,286,178,66,71,212,286,25,25,80,12,71,61,80,196,0,0,0,0,0,0,0,0,0,0,0,0,0,0,0,0,0,0,0,0,0,0,0,0,0,0,0,0,0,0,0,0],"split_type":[0,0,0,0,0,0,0,0,0,0,0,0,0,0,0,0,0,0,0,0,0,0,0,0,0,0,0,0,0,0,0,0,0,0,0,0,0,0,0,0,0,0,0,0,0,0,0,0,0,0,0,0,0,0,0,0,0,0,0,0,0,0,0],"sum_hessian":[5.4407E4,3.8417E4,1.599E4,1.8953E4,1.9464E4,8.048E3,7.942E3,3.721E3,1.5232E4,1.107E3,1.8357E4,5.16E2,7.532E3,6.84E2,7.258E3,2.35E3,1.371E3,6.406E3,8.826E3,5.26E2,5.81E2,1.417E3,1.694E4,1.48E2,3.68E2,4.392E3,3.14E3,5.89E2,9.5E1,4.455E3,2.803E3,1.362E3,9.88E2,1.002E3,3.69E2,3.846E3,2.56E3,8.221E3,6.05E2,9E0,5.17E2,1.76E2,4.05E2,1.124E3,2.93E2,8.948E3,7.992E3,2.8E1,1.2E2,1.35E2,2.33E2,2.68E3,1.712E3,3.105E3,3.5E1,5.19E2,7E1,8.2E1,1.3E1,1.575E3,2.88E3,2.75E3,5.3E1],"tree_param":{"num_deleted":"0","num_feature":"288","num_nodes":"63","size_leaf_vector":"1"}},{"base_weights":[-4.2312607E-2,-2.9146188E-1,3.6548972E-1,-5.9742725E-1,-1.6608831E-1,1.4715427E-1,5.8165073E-1,-8.5008043E-1,-4.9720708E-1,-5.791406E-1,-1.0256081E-1,-8.000934E-2,2.4367209E-1,4.352474E-3,6.146547E-1,-9.3372434E-1,-7.3242056E-1,-5.8038783E-1,-3.2775804E-1,-8.366215E-1,-3.6817214E-1,-2.4259162E-1,3.231184E-3,-7.706883E-1,-2.2647612E-2,1.8025166E-1,4.8208037E-1,-2.8462708E-1,4.6903765E-1,5.236263E-1,7.9560214E-1,-1.7660446E-2,-1.0550201E-2,-1.5316739E-2,-1.0503149E-2,-1.1976819E-2,-7.966719E-3,-6.9291713E-3,1.1738709E-3,-1.7564017E-2,-1.2224325E-2,-9.876525E-3,-2.028061E-3,-6.1837095E-3,-1.91605E-5,-7.1115553E-4,3.3898447E-3,1.5698075E-3,-1.5634414E-2,3.6206043E-3,-1.1693353E-3,1.5820203E-3,4.772093E-3,6.8655596E-3,1.2063912E-2,-1.8017093E-2,-2.9312077E-3,3.3059462E-3,1.3519474E-2,8.697492E-3,1.2312222E-2,1.3367019E-2,1.6166585E-2],"categories":[],"categories_nodes":[],"categories_segments":[],"categories_sizes":[],"default_left":[0,0,0,0,0,0,0,0,0,0,0,0,0,0,0,0,0,0,0,0,0,0,0,0,0,0,0,0,0,0,0,0,0,0,0,0,0,0,0,0,0,0,0,0,0,0,0,0,0,0,0,0,0,0,0,0,0,0,0,0,0,0,0],"id":18,"left_children":[1,3,5,7,9,11,13,15,17,19,21,23,25,27,29,31,33,35,37,39,41,43,45,47,49,51,53,55,57,59,61,-1,-1,-1,-1,-1,-1,-1,-1,-1,-1,-1,-1,-1,-1,-1,-1,-1,-1,-1,-1,-1,-1,-1,-1,-1,-1,-1,-1,-1,-1,-1,-1],"loss_changes":[5.5625557E3,1.3031279E3,9.793823E2,2.4874463E2,6.3221173E2,2.2665857E2,1.9841724E2,2.5682373E1,9.8979126E1,1.7340857E2,3.097365E2,1.2159378E2,1.0919116E2,7.636002E1,1.6120142E2,4.7999268E0,1.5945007E1,4.2984863E1,3.9191254E1,2.5355652E1,7.308008E1,1.9119482E2,8.752452E1,1.3644989E1,2.4493902E1,4.0876083E1,2.762445E1,2.9517157E1,1.5541351E1,5.079065E1,1.6608643E1,0E0,0E0,0E0,0E0,0E0,0E0,0E0,0E0,0E0,0E0,0E0,0E0,0E0,0E0,0E0,0E0,0E0,0E0,0E0,0E0,0E0,0E0,0E0,0E0,0E0,0E0,0E0,0E0,0E0,0E0,0E0,0E0],"parents":[2147483647,0,0,1,1,2,2,3,3,4,4,5,5,6,6,7,7,8,8,9,9,10,10,11,11,12,12,13,13,14,14,15,15,16,16,17,17,18,18,19,19,20,20,21,21,22,22,23,23,24,24,25,25,26,26,27,27,28,28,29,29,30,30],"right_children":[2,4,6,8,10,12,14,16,18,20,22,24,26,28,30,32,34,36,38,40,42,44,46,48,50,52,54,56,58,60,62,-1,-1,-1,-1,-1,-1,-1,-1,-1,-1,-1,-1,-1,-1,-1,-1,-1,-1,-1,-1,-1,-1,-1,-1,-1,-1,-1,-1,-1,-1,-1,-1],"split_conditions":[4.7E0,2.3333333E0,6.4E0,1.507399E1,-3.1367965E0,-1.275716E0,-4.577778E0,1.3020303E1,3.4262295E0,1.6026852E1,3.3E0,-7.5263853E0,2.383647E0,6.2E0,9.1E0,1.22E2,1.9E0,2.3743574E1,9.614264E0,-6.5086446E0,3.9E0,2.469236E0,2.7580132E0,2.0571429E-1,7E0,5.3E0,5.5E0,9.839817E-2,-3.7005976E-1,9.6755844E-1,-2.9962474E-1,-5.325491E-2,-3.8996108E-2,-4.1911703E-2,-2.647905E-2,-2.6935713E-2,-2.6892044E-2,-1.3292925E-2,7.303337E-3,-5.325491E-2,-3.157719E-2,-2.9444415E-2,-1.484847E-2,-1.3309704E-2,-2.4407624E-5,-3.055724E-4,1.6506126E-2,2.532824E-3,-4.17249E-2,1.432522E-2,-1.2309308E-3,1.704239E-2,1.28098205E-2,3.1594053E-2,4.430303E-2,-5.920763E-2,-8.010891E-3,2.126729E-2,4.2278606E-2,3.6009274E-2,5.5473197E-2,7.932797E-2,9.767587E-2],"split_indices":[11,11,11,286,287,287,287,286,287,286,11,287,287,40,11,63,11,286,287,287,11,287,287,83,54,11,11,231,199,287,287,0,0,0,0,0,0,0,0,0,0,0,0,0,0,0,0,0,0,0,0,0,0,0,0,0,0,0,0,0,0,0,0],"split_type":[0,0,0,0,0,0,0,0,0,0,0,0,0,0,0,0,0,0,0,0,0,0,0,0,0,0,0,0,0,0,0,0,0,0,0,0,0,0,0,0,0,0,0,0,0,0,0,0,0,0,0,0,0,0,0,0,0,0,0,0,0,0,0],"sum_hessian":[5.4745E4,3.3984E4,2.0761E4,9.875E3,2.4109E4,1.0331E4,1.043E4,2.8E3,7.075E3,3.211E3,2.0898E4,3.079E3,7.252E3,5.65E2,9.865E3,1.628E3,1.172E3,4.741E3,2.334E3,1.443E3,1.768E3,8.995E3,1.1903E4,2.34E2,2.845E3,5.732E3,1.52E3,3.48E2,2.17E2,6.569E3,3.296E3,1.579E3,4.9E1,7.72E2,4E2,3.408E3,1.333E3,2.105E3,2.29E2,9.19E2,5.24E2,1.092E3,6.76E2,6.59E3,2.405E3,9.662E3,2.241E3,1.6E1,2.18E2,4.4E2,2.405E3,2.522E3,3.21E3,8.96E2,6.24E2,5.3E1,2.95E2,1.03E2,1.14E2,4.586E3,1.983E3,1.527E3,1.769E3],"tree_param":{"num_deleted":"0","num_feature":"288","num_nodes":"63","size_leaf_vector":"1"}},{"base_weights":[-4.6481825E-2,-3.881141E-1,2.553121E-1,-6.1635935E-1,-2.6862377E-1,6.606808E-2,5.552768E-1,-5.6951E-1,-9.038717E-1,-3.2233977E-1,-1.1967928E-1,1.3273934E-2,2.0668125E-1,4.626023E-1,7.8379977E-1,-7.0326185E-1,-5.021312E-1,-6.672313E-1,-9.72536E-1,-2.942197E-1,-6.2879777E-1,-3.7974694E-1,-8.59524E-2,-5.9208754E-2,6.0747452E-2,-5.405518E-1,2.2318918E-1,-7.677028E-1,4.746484E-1,-0E0,7.901633E-1,-1.32363085E-2,7.9847295E-3,-9.689416E-3,1.2878074E-3,8.3626555E-3,-1.3566195E-2,-2.8974803E-3,-1.8303247E-2,-4.5214756E-3,-6.9557703E-3,-1.7929967E-2,-3.805096E-3,1.2045464E-2,-7.98154E-3,-2.6065328E-3,1.5471799E-3,1.2751439E-3,-2.1159844E-3,-3.128377E-3,1.5154963E-3,1.5709313E-2,-1.3500231E-2,3.5662681E-3,8.574493E-3,9.872594E-3,-1.7110845E-2,6.2758406E-3,9.546742E-3,-1.5709313E-2,1.1891509E-2,7.969892E-3,1.5044562E-2],"categories":[],"categories_nodes":[],"categories_segments":[],"categories_sizes":[],"default_left":[0,0,0,0,0,0,0,0,0,0,0,0,0,0,0,0,0,0,0,0,0,0,0,0,0,0,0,0,0,0,0,0,0,0,0,0,0,0,0,0,0,0,0,0,0,0,0,0,0,0,0,0,0,0,0,0,0,0,0,0,0,0,0],"id":19,"left_children":[1,3,5,7,9,11,13,15,17,19,21,23,25,27,29,31,33,35,37,39,41,43,45,47,49,51,53,55,57,59,61,-1,-1,-1,-1,-1,-1,-1,-1,-1,-1,-1,-1,-1,-1,-1,-1,-1,-1,-1,-1,-1,-1,-1,-1,-1,-1,-1,-1,-1,-1,-1,-1],"loss_changes":[5.624197E3,6.9710767E2,1.6437125E3,1.1685376E2,1.3410693E2,1.3173154E2,2.3605322E2,6.700244E1,1.8121399E1,1.0559949E2,3.8801037E1,4.445516E1,5.977646E1,1.1857446E2,1.610254E1,1.3441406E1,4.6235596E1,1.8931656E1,3.939087E0,4.563983E1,1.4426413E2,2.481839E1,3.563685E1,3.5135193E1,3.610598E1,2.696993E1,3.5788437E1,1.5687317E1,3.865674E1,1.5445475E1,1.5495972E1,0E0,0E0,0E0,0E0,0E0,0E0,0E0,0E0,0E0,0E0,0E0,0E0,0E0,0E0,0E0,0E0,0E0,0E0,0E0,0E0,0E0,0E0,0E0,0E0,0E0,0E0,0E0,0E0,0E0,0E0,0E0,0E0],"parents":[2147483647,0,0,1,1,2,2,3,3,4,4,5,5,6,6,7,7,8,8,9,9,10,10,11,11,12,12,13,13,14,14,15,15,16,16,17,17,18,18,19,19,20,20,21,21,22,22,23,23,24,24,25,25,26,26,27,27,28,28,29,29,30,30],"right_children":[2,4,6,8,10,12,14,16,18,20,22,24,26,28,30,32,34,36,38,40,42,44,46,48,50,52,54,56,58,60,62,-1,-1,-1,-1,-1,-1,-1,-1,-1,-1,-1,-1,-1,-1,-1,-1,-1,-1,-1,-1,-1,-1,-1,-1,-1,-1,-1,-1,-1,-1,-1,-1],"split_conditions":[3.7764194E0,2.3E0,6.2E0,6.31068E-2,3.33164E0,5.3E0,9.3E0,1.5363934E0,6.75E0,9.8092645E-2,1.4285714E-2,4.3545455E-1,1.08312346E-1,9.839817E-2,1E-2,3.372222E1,1.1428572E1,1.20270744E-1,-1.1968E1,1E0,-3.58E1,1.1111111E-1,2.992537E1,3.7037037E-2,1.5316667E1,1.04527555E-1,2.008547E-1,1.5491934E0,6.5435843E0,3.054826E-1,-8.4422964E-1,-2.7081035E-2,9.7190635E-3,-2.6400216E-2,8.086473E-3,2.871986E-2,-3.9407812E-2,-4.2908113E-2,-5.2258953E-2,-1.3050909E-2,-1.4666851E-2,-5.2258953E-2,-1.3138079E-2,3.60537E-2,-1.7930914E-2,-1.50825605E-2,6.5599615E-4,5.389653E-4,-1.005546E-3,-1.551236E-2,1.2211192E-3,7.2037205E-2,-3.9992083E-2,1.2564621E-2,2.9128212E-2,1.22674935E-1,-4.8807103E-2,2.6299283E-2,3.86019E-2,-2.1293757E-2,2.6965413E-2,8.201593E-2,8.104066E-2],"split_indices":[200,11,11,231,200,11,11,200,64,231,81,41,231,231,81,2,277,79,214,113,228,20,204,81,2,209,247,12,200,90,223,0,0,0,0,0,0,0,0,0,0,0,0,0,0,0,0,0,0,0,0,0,0,0,0,0,0,0,0,0,0,0,0],"split_type":[0,0,0,0,0,0,0,0,0,0,0,0,0,0,0,0,0,0,0,0,0,0,0,0,0,0,0,0,0,0,0,0,0,0,0,0,0,0,0,0,0,0,0,0,0,0,0,0,0,0,0,0,0,0,0,0,0,0,0,0,0,0,0],"sum_hessian":[5.4546E4,2.5585E4,2.8961E4,8.788E3,1.6797E4,1.776E4,1.1201E4,7.562E3,1.226E3,1.2341E4,4.456E3,1.2916E4,4.844E3,7.974E3,3.227E3,2.526E3,5.036E3,2.81E2,9.45E2,1.1308E4,1.033E3,5.08E2,3.948E3,5.107E3,7.809E3,1.03E2,4.741E3,7.6E1,7.898E3,2.6E1,3.201E3,2.517E3,9E0,4.9E3,1.36E2,1.3E1,2.68E2,8E0,9.37E2,6.759E3,4.549E3,5.8E2,4.53E2,2.1E1,4.87E2,3.001E3,9.47E2,1.516E3,3.591E3,6.35E2,7.174E3,1.1E1,9.2E1,4.17E3,5.71E2,7E0,6.9E1,1.624E3,6.274E3,1.1E1,1.5E1,1.24E2,3.077E3],"tree_param":{"num_deleted":"0","num_feature":"288","num_nodes":"63","size_leaf_vector":"1"}},{"base_weights":[-4.971507E-2,-2.5473583E-1,4.4065747E-1,-4.634382E-1,-5.1348098E-2,3.1125247E-1,6.9082016E-1,-8.307218E-1,-3.8291678E-1,-6.6145873E-1,-1.6341845E-2,-3.5694268E-1,3.537378E-1,3.9546826E-1,7.424185E-1,-9.337804E-1,-7.045639E-1,-5.2507514E-1,-2.770762E-1,-8.081641E-1,-2.6252612E-1,-6.444733E-2,1.7622377E-1,-4.137926E-1,6.05361E-1,2.2859439E-1,4.5641768E-1,-6.3050294E-1,4.3759778E-1,6.2956834E-1,8.231064E-1,1.0291516E-3,-1.7538816E-2,-1.622528E-2,-9.859192E-3,-1.0358865E-2,-2.6534155E-3,-6.7763356E-3,-1.1094667E-3,-1.7763587E-2,-1.1544769E-2,-7.3659415E-3,9.682839E-3,-2.5551058E-3,3.136458E-4,1.882549E-3,6.6512423E-3,-1.4160284E-2,-5.4353424E-3,1.5981797E-2,-2.8974803E-3,2.7255171E-3,9.106433E-3,7.8529315E-3,1.2724819E-2,5.4508727E-3,-1.7237289E-2,3.1525278E-3,9.9004805E-3,-1.5137103E-2,1.191497E-2,1.5568926E-2,5.869964E-3],"categories":[],"categories_nodes":[],"categories_segments":[],"categories_sizes":[],"default_left":[0,0,0,0,0,0,0,0,0,0,0,0,0,0,0,0,0,0,0,0,0,0,0,0,0,0,0,0,0,0,0,0,0,0,0,0,0,0,0,0,0,0,0,0,0,0,0,0,0,0,0,0,0,0,0,0,0,0,0,0,0,0,0],"id":20,"left_children":[1,3,5,7,9,11,13,15,17,19,21,23,25,27,29,31,33,35,37,39,41,43,45,47,49,51,53,55,57,59,61,-1,-1,-1,-1,-1,-1,-1,-1,-1,-1,-1,-1,-1,-1,-1,-1,-1,-1,-1,-1,-1,-1,-1,-1,-1,-1,-1,-1,-1,-1,-1,-1],"loss_changes":[5.4894062E3,1.6341084E3,5.202622E2,5.608696E2,4.1617075E2,3.0148254E2,8.256006E1,4.255786E1,2.3391992E2,6.100656E1,1.7084418E2,3.4972366E1,1.2772754E2,3.576268E1,4.095874E1,8.027344E0,4.3219116E1,7.2960815E1,1.6575012E2,1.9166351E1,2.9690418E1,8.661229E1,4.9670273E1,2.451197E1,7.2854633E0,9.595596E1,4.380078E1,9.443134E0,1.8992203E1,2.1861938E1,1.19696045E1,0E0,0E0,0E0,0E0,0E0,0E0,0E0,0E0,0E0,0E0,0E0,0E0,0E0,0E0,0E0,0E0,0E0,0E0,0E0,0E0,0E0,0E0,0E0,0E0,0E0,0E0,0E0,0E0,0E0,0E0,0E0,0E0],"parents":[2147483647,0,0,1,1,2,2,3,3,4,4,5,5,6,6,7,7,8,8,9,9,10,10,11,11,12,12,13,13,14,14,15,15,16,16,17,17,18,18,19,19,20,20,21,21,22,22,23,23,24,24,25,25,26,26,27,27,28,28,29,29,30,30],"right_children":[2,4,6,8,10,12,14,16,18,20,22,24,26,28,30,32,34,36,38,40,42,44,46,48,50,52,54,56,58,60,62,-1,-1,-1,-1,-1,-1,-1,-1,-1,-1,-1,-1,-1,-1,-1,-1,-1,-1,-1,-1,-1,-1,-1,-1,-1,-1,-1,-1,-1,-1,-1,-1],"split_conditions":[5.3E0,3.125E0,8E0,1.4507694E1,-5.3398395E0,-4.4310246E0,2.479552E1,-2.3494947E0,2.3E0,2.7377777E1,2.383647E0,2.62E1,6.2E0,-9.445631E0,9.5E0,9.009009E-3,1.9E0,7.697329E0,2.333049E0,-8.133815E0,4.2285714E-1,2.7695295E1,4.4E0,1.3822934E1,5.096868E0,1.578962E0,2.333049E0,4.6916E0,2.0068027E-1,5.1E0,1.7688103E0,3.3038814E-2,-5.1281624E-2,-4.0621426E-2,-2.519014E-2,-2.5900796E-2,-9.26689E-3,-1.2809013E-2,-1.2186842E-2,-5.281528E-2,-2.8705671E-2,-1.5963225E-2,2.0256331E-2,-1.3709291E-2,2.5661892E-4,2.3075682E-3,3.1506963E-2,-3.9409943E-2,-1.4668764E-2,3.0970266E-2,-5.0987857E-3,1.1749814E-2,2.7415335E-2,2.6175095E-2,5.973202E-2,2.1062478E-2,-4.2604133E-2,1.8606244E-2,4.0051762E-2,-8.971786E-3,5.2623145E-2,9.433357E-2,4.315729E-2],"split_indices":[11,11,11,286,287,287,286,287,11,70,287,7,11,287,11,232,11,287,287,287,42,286,11,286,92,287,287,8,42,54,196,0,0,0,0,0,0,0,0,0,0,0,0,0,0,0,0,0,0,0,0,0,0,0,0,0,0,0,0,0,0,0,0],"split_type":[0,0,0,0,0,0,0,0,0,0,0,0,0,0,0,0,0,0,0,0,0,0,0,0,0,0,0,0,0,0,0,0,0,0,0,0,0,0,0,0,0,0,0,0,0,0,0,0,0,0,0,0,0,0,0,0,0,0,0,0,0,0,0],"sum_hessian":[5.4599E4,3.8503E4,1.6096E4,1.9001E4,1.9502E4,1.0612E4,5.484E3,3.413E3,1.5588E4,1.056E3,1.8446E4,6.33E2,9.979E3,8.19E2,4.665E3,1.871E3,1.542E3,6.648E3,8.94E3,7.7E2,2.86E2,1.4762E4,3.684E3,5.99E2,3.4E1,4.502E3,5.477E3,3.1E1,7.88E2,1.953E3,2.712E3,7E0,1.864E3,7.99E2,7.43E2,6.181E3,4.67E2,6.422E3,2.518E3,4.37E2,3.33E2,2.46E2,4E1,7.819E3,6.943E3,2.596E3,1.088E3,1.55E2,4.44E2,2.6E1,8E0,3.412E3,1.09E3,4.715E3,7.62E2,7E0,2.4E1,2.03E2,5.85E2,9E0,1.944E3,2.661E3,5.1E1],"tree_param":{"num_deleted":"0","num_feature":"288","num_nodes":"63","size_leaf_vector":"1"}},{"base_weights":[-4.9979705E-2,-2.5383663E-1,4.3707004E-1,-4.655114E-1,-4.8509713E-2,2.9654565E-1,6.310911E-1,-8.265094E-1,-4.0609044E-1,-5.8053285E-1,-7.796193E-3,-0E0,3.841222E-1,5.124552E-1,7.588053E-1,-9.4998574E-1,-6.813534E-1,-5.6354666E-1,-2.7383447E-1,-8.909484E-1,-3.9689523E-1,-4.9537838E-2,2.1361873E-1,-5.358396E-1,9.718609E-2,3.3009252E-1,5.807735E-1,-1.16728745E-1,5.4885954E-1,-6.4242976E-3,7.760646E-1,-1.7934902E-2,-7.3971944E-3,-1.38016E-2,-7.3438208E-3,-1.2122606E-2,-6.928984E-3,-6.731117E-3,-1.176134E-3,-1.7192079E-2,-1.4084625E-3,-1.3198894E-2,-4.599557E-3,-3.8331577E-3,-3.8025272E-4,2.4644386E-3,7.781588E-3,-1.4037571E-2,-3.5618048E-3,6.1395695E-4,5.392586E-3,4.5960173E-3,8.5178325E-3,1.1043409E-2,-1.0373528E-2,-1.3017332E-2,5.4067624E-4,9.6294265E-3,1.4600128E-2,1.1895338E-2,-7.4331304E-3,1.4651659E-2,-5.38384E-3],"categories":[],"categories_nodes":[],"categories_segments":[],"categories_sizes":[],"default_left":[0,0,0,0,0,0,0,0,0,0,0,0,0,0,0,0,0,0,0,0,0,0,0,0,0,0,0,0,0,0,0,0,0,0,0,0,0,0,0,0,0,0,0,0,0,0,0,0,0,0,0,0,0,0,0,0,0,0,0,0,0,0,0],"id":21,"left_children":[1,3,5,7,9,11,13,15,17,19,21,23,25,27,29,31,33,35,37,39,41,43,45,47,49,51,53,55,57,59,61,-1,-1,-1,-1,-1,-1,-1,-1,-1,-1,-1,-1,-1,-1,-1,-1,-1,-1,-1,-1,-1,-1,-1,-1,-1,-1,-1,-1,-1,-1,-1,-1],"loss_changes":[5.4183804E3,1.6717595E3,4.3823218E2,4.051621E2,4.227408E2,2.426278E2,1.0118408E2,4.611902E1,3.381101E2,7.788641E1,1.6763211E2,1.1107416E2,7.5865845E1,8.0754456E1,4.334851E1,5.916504E0,1.9187073E1,1.2043286E2,1.6038763E2,1.1232452E1,4.0055145E1,6.9189865E1,4.7292282E1,2.3578323E1,2.202637E1,5.9342285E1,1.7626587E1,1.6624132E1,2.4864807E1,1.8445324E1,2.5545898E1,0E0,0E0,0E0,0E0,0E0,0E0,0E0,0E0,0E0,0E0,0E0,0E0,0E0,0E0,0E0,0E0,0E0,0E0,0E0,0E0,0E0,0E0,0E0,0E0,0E0,0E0,0E0,0E0,0E0,0E0,0E0,0E0],"parents":[2147483647,0,0,1,1,2,2,3,3,4,4,5,5,6,6,7,7,8,8,9,9,10,10,11,11,12,12,13,13,14,14,15,15,16,16,17,17,18,18,19,19,20,20,21,21,22,22,23,23,24,24,25,25,26,26,27,27,28,28,29,29,30,30],"right_children":[2,4,6,8,10,12,14,16,18,20,22,24,26,28,30,32,34,36,38,40,42,44,46,48,50,52,54,56,58,60,62,-1,-1,-1,-1,-1,-1,-1,-1,-1,-1,-1,-1,-1,-1,-1,-1,-1,-1,-1,-1,-1,-1,-1,-1,-1,-1,-1,-1,-1,-1,-1,-1],"split_conditions":[5.3E0,3.125E0,7.5E0,-3.2863467E0,-4.577778E0,-1.8438208E0,9.3E0,1.8175E1,2.3E0,-8.133815E0,2.8493273E0,-5.5818734E0,2.0450983E0,-4.4310246E0,-5.8622265E0,1E0,1.6366667E0,3.4262295E0,2.333049E0,2.2E0,7.9E0,3.5E0,4.4E0,6.467708E-2,6.75E0,6.4E0,1.3351839E0,2.325E-1,2.383647E0,8.531333E-1,1.94E2,-5.032257E-2,-1.761745E-2,-3.186506E-2,-2.3109343E-2,-2.5728365E-2,-2.2619965E-2,-1.25634475E-2,-1.1958929E-2,-5.087347E-2,-1.44351255E-2,-3.0492935E-2,-1.5223286E-2,-1.3760813E-2,-5.307789E-5,4.00685E-3,3.156137E-2,-3.6551718E-2,-7.515952E-3,8.0500925E-3,2.1656768E-2,1.2411982E-2,2.7756944E-2,4.257882E-2,-2.7242342E-2,-1.3580961E-2,3.1694062E-3,3.744441E-2,7.209708E-2,2.2401793E-2,-1.2571496E-2,7.972459E-2,-2.1644568E-2],"split_indices":[11,11,11,287,287,287,11,241,11,287,287,287,287,287,287,34,216,287,287,234,7,11,11,264,11,11,261,42,287,196,106,0,0,0,0,0,0,0,0,0,0,0,0,0,0,0,0,0,0,0,0,0,0,0,0,0,0,0,0,0,0,0,0],"split_type":[0,0,0,0,0,0,0,0,0,0,0,0,0,0,0,0,0,0,0,0,0,0,0,0,0,0,0,0,0,0,0,0,0,0,0,0,0,0,0,0,0,0,0,0,0,0,0,0,0,0,0,0,0,0,0,0,0,0,0,0,0,0,0],"sum_hessian":[5.457E4,3.847E4,1.61E4,1.894E4,1.953E4,9.341E3,6.759E3,2.673E3,1.6267E4,1.386E3,1.8144E4,2.13E3,7.211E3,3.51E3,3.249E3,1.438E3,1.235E3,7.422E3,8.845E3,5.12E2,8.74E2,1.5269E4,2.875E3,3.26E2,1.804E3,5.662E3,1.549E3,1.91E2,3.319E3,7.1E1,3.178E3,1.413E3,2.5E1,1.029E3,2.06E2,5.155E3,2.267E3,6.279E3,2.566E3,4.94E2,1.8E1,2.84E2,5.9E2,2.411E3,1.2858E4,2.051E3,8.24E2,1.99E2,1.27E2,1.353E3,4.51E2,3.39E3,2.272E3,1.537E3,1.2E1,3.8E1,1.53E2,2.901E3,4.18E2,2.6E1,4.5E1,3.157E3,2.1E1],"tree_param":{"num_deleted":"0","num_feature":"288","num_nodes":"63","size_leaf_vector":"1"}},{"base_weights":[-5.304398E-2,-4.3052694E-1,2.0703863E-1,-6.441036E-1,-3.195784E-1,3.6622588E-2,5.216669E-1,-7.9506135E-1,-5.9400296E-1,-3.7312755E-1,-2.2123744E-1,-5.288702E-2,1.1206823E-1,4.2370084E-1,6.9771034E-1,6.2470604E-2,-8.055324E-1,-6.068558E-1,-5.51126E-2,-3.451254E-1,-7.3970956E-1,3.9378044E-1,-2.3535332E-1,-1.8011653E-1,-2.0985596E-2,1.9494729E-1,3.700042E-2,4.6781304E-1,2.7930796E-1,6.315652E-1,8.0844605E-1,1.5137103E-2,-8.3626555E-3,-1.3201719E-2,-1.6551886E-2,-1.1810291E-2,-6.7551965E-3,1.14871925E-2,-6.556333E-3,-7.7548358E-3,-4.7241766E-3,8.156766E-3,-1.5046775E-2,-3.2126221E-3,1.36116E-2,-4.8151184E-3,1.811861E-3,6.8866196E-3,-3.963311E-3,1.0073527E-3,-1.8859213E-3,4.1799685E-3,-2.3603977E-3,1.3076498E-3,-2.2342564E-3,9.172203E-3,4.998363E-3,9.127939E-3,3.0471461E-3,1.2356047E-2,6.093916E-3,1.5311635E-2,-4.19242E-3],"categories":[],"categories_nodes":[],"categories_segments":[],"categories_sizes":[],"default_left":[0,0,0,0,0,0,0,0,0,0,0,0,0,0,0,0,0,0,0,0,0,0,0,0,0,0,0,0,0,0,0,0,0,0,0,0,0,0,0,0,0,0,0,0,0,0,0,0,0,0,0,0,0,0,0,0,0,0,0,0,0,0,0],"id":22,"left_children":[1,3,5,7,9,11,13,15,17,19,21,23,25,27,29,31,33,35,37,39,41,43,45,47,49,51,53,55,57,59,61,-1,-1,-1,-1,-1,-1,-1,-1,-1,-1,-1,-1,-1,-1,-1,-1,-1,-1,-1,-1,-1,-1,-1,-1,-1,-1,-1,-1,-1,-1,-1,-1],"loss_changes":[5.342681E3,5.2522363E2,1.7271538E3,5.5945312E1,7.6522705E1,1.4119012E2,1.9417065E2,1.7382568E1,3.9108032E1,9.611914E1,4.4842438E1,3.8678837E1,7.045183E1,4.576367E1,2.809497E1,9.651524E0,1.29835205E1,3.2872314E1,2.6962463E1,5.6034912E1,5.168875E1,2.229269E1,3.719574E1,3.338548E1,4.5737984E1,4.9518585E1,3.0678438E1,2.4685425E1,4.1068497E1,2.1780151E1,1.6552185E1,0E0,0E0,0E0,0E0,0E0,0E0,0E0,0E0,0E0,0E0,0E0,0E0,0E0,0E0,0E0,0E0,0E0,0E0,0E0,0E0,0E0,0E0,0E0,0E0,0E0,0E0,0E0,0E0,0E0,0E0,0E0,0E0],"parents":[2147483647,0,0,1,1,2,2,3,3,4,4,5,5,6,6,7,7,8,8,9,9,10,10,11,11,12,12,13,13,14,14,15,15,16,16,17,17,18,18,19,19,20,20,21,21,22,22,23,23,24,24,25,25,26,26,27,27,28,28,29,29,30,30],"right_children":[2,4,6,8,10,12,14,16,18,20,22,24,26,28,30,32,34,36,38,40,42,44,46,48,50,52,54,56,58,60,62,-1,-1,-1,-1,-1,-1,-1,-1,-1,-1,-1,-1,-1,-1,-1,-1,-1,-1,-1,-1,-1,-1,-1,-1,-1,-1,-1,-1,-1,-1,-1,-1],"split_conditions":[3.4601512E0,2.1135414E0,6.1676784E0,1.2905211E0,-2.1094661E-2,4.4339E0,8.721125E0,-1.9523809E0,1.5555556E0,-2.1495866E-2,-1.167E2,1.1111111E-1,4.109524E-1,4.4166666E-1,1.0866315E1,-1.7939167E-1,-4.032143E1,5.4E-1,5.2212334E-1,2.8567333E0,4.1666666E-1,4.42E1,-8.54E1,9.6956E1,-3.75E1,6.738806E-1,1E0,4.45E-1,3.5706264E-1,6.3910717E-1,1.94E2,3.176578E-2,-2.4013022E-2,-2.6676178E-2,-4.0853437E-2,-2.5313582E-2,-2.461711E-2,2.8802019E-2,-2.4379326E-2,-2.5546934E-2,-1.3567032E-2,2.8655274E-2,-4.5789864E-2,-1.036162E-2,2.865342E-2,-1.3010646E-2,3.9777025E-3,5.576665E-3,-1.655309E-2,5.7678507E-4,-1.9264991E-3,1.7081903E-2,-4.31582E-3,8.401547E-3,-9.852404E-4,3.69802E-2,1.877493E-2,2.793329E-2,1.0824866E-2,6.8148926E-2,3.866828E-2,9.1941506E-2,-2.1239778E-2],"split_indices":[200,200,200,200,264,200,200,238,33,264,227,35,80,80,200,223,228,49,206,200,80,64,227,27,228,223,111,42,206,223,106,0,0,0,0,0,0,0,0,0,0,0,0,0,0,0,0,0,0,0,0,0,0,0,0,0,0,0,0,0,0,0,0],"split_type":[0,0,0,0,0,0,0,0,0,0,0,0,0,0,0,0,0,0,0,0,0,0,0,0,0,0,0,0,0,0,0,0,0,0,0,0,0,0,0,0,0,0,0,0,0,0,0,0,0,0,0,0,0,0,0,0,0,0,0,0,0,0,0],"sum_hessian":[5.4415E4,2.2198E4,3.2217E4,7.585E3,1.4613E4,2.09E4,1.1317E4,1.882E3,5.703E3,9.455E3,5.158E3,9.556E3,1.1344E4,7.276E3,4.041E3,2.2E1,1.86E3,5.569E3,1.34E2,8.788E3,6.67E2,1.14E2,5.044E3,1.911E3,7.645E3,5.387E3,5.957E3,5.568E3,1.708E3,2.539E3,1.502E3,9E0,1.3E1,8.35E2,1.025E3,5.057E3,5.12E2,4E1,9.4E1,5.011E3,3.777E3,3.4E1,6.33E2,4.2E1,7.2E1,4.731E3,3.13E2,1.03E2,1.808E3,3.943E3,3.702E3,4.949E3,4.38E2,4.925E3,1.032E3,4.999E3,5.69E2,6.08E2,1.1E3,2.315E3,2.24E2,1.488E3,1.4E1],"tree_param":{"num_deleted":"0","num_feature":"288","num_nodes":"63","size_leaf_vector":"1"}},{"base_weights":[-5.282506E-2,-4.2638665E-1,2.0716771E-1,-7.806218E-1,-3.4306657E-1,3.8420163E-2,5.158226E-1,-9.570976E-1,-6.7040646E-1,-5.230245E-1,-2.4785687E-1,-8.4349847E-1,5.7272553E-2,4.1434214E-1,7.058586E-1,-9.618139E-1,-0E0,-7.619149E-1,-3.614232E-1,-5.9096044E-1,-4.188929E-1,-2.7587417E-1,7.705333E-2,4.815411E-3,-8.769265E-1,1.080261E-2,2.1346076E-1,-6.5912575E-1,4.307216E-1,1.4370029E-1,7.254016E-1,-1.0291516E-3,-1.8053861E-2,-1.4453186E-2,9.981162E-4,-7.6982034E-3,1.0382852E-2,4.6830619E-4,-1.1357893E-2,4.0974267E-4,-8.7541165E-3,-6.824643E-3,-3.301263E-3,2.8911533E-3,-1.0109226E-2,-5.822964E-3,-1.7611984E-2,-3.3853215E-3,6.6544546E-4,-4.056061E-3,4.5589255E-3,1.4294315E-2,-1.4406034E-2,5.3236666E-3,8.892669E-3,5.9652114E-3,-1.6785758E-2,-2.858136E-4,1.36750415E-2],"categories":[],"categories_nodes":[],"categories_segments":[],"categories_sizes":[],"default_left":[0,0,0,0,0,0,0,0,0,0,0,0,0,0,0,0,0,0,0,0,0,0,0,0,0,0,0,0,0,0,0,0,0,0,0,0,0,0,0,0,0,0,0,0,0,0,0,0,0,0,0,0,0,0,0,0,0,0,0],"id":23,"left_children":[1,3,5,7,9,11,13,15,17,19,21,23,25,27,29,31,-1,33,35,37,39,41,43,-1,45,47,49,51,53,55,57,-1,-1,-1,-1,-1,-1,-1,-1,-1,-1,-1,-1,-1,-1,-1,-1,-1,-1,-1,-1,-1,-1,-1,-1,-1,-1,-1,-1],"loss_changes":[5.294386E3,6.592705E2,1.6737026E3,8.1002686E1,3.0976733E2,3.4518512E2,2.1804126E2,7.364502E0,7.3288086E1,4.341565E1,1.0802234E2,1.6650208E1,1.4757431E2,1.3058899E2,4.2784058E1,4.5977783E0,0E0,1.8457397E1,2.807473E1,3.846997E1,5.406967E1,9.615924E1,4.4953304E1,0E0,1.4386475E1,7.449722E1,6.0920532E1,1.850193E1,4.714453E1,2.4829264E1,1.6846191E1,0E0,0E0,0E0,0E0,0E0,0E0,0E0,0E0,0E0,0E0,0E0,0E0,0E0,0E0,0E0,0E0,0E0,0E0,0E0,0E0,0E0,0E0,0E0,0E0,0E0,0E0,0E0,0E0],"parents":[2147483647,0,0,1,1,2,2,3,3,4,4,5,5,6,6,7,7,8,8,9,9,10,10,11,11,12,12,13,13,14,14,15,15,17,17,18,18,19,19,20,20,21,21,22,22,24,24,25,25,26,26,27,27,28,28,29,29,30,30],"right_children":[2,4,6,8,10,12,14,16,18,20,22,24,26,28,30,32,-1,34,36,38,40,42,44,-1,46,48,50,52,54,56,58,-1,-1,-1,-1,-1,-1,-1,-1,-1,-1,-1,-1,-1,-1,-1,-1,-1,-1,-1,-1,-1,-1,-1,-1,-1,-1,-1,-1],"split_conditions":[3.4601512E0,1.4940024E1,6.1676784E0,1.0498271E1,2.3E0,1.1231546E1,8.8E0,3.857945E-1,1.9950039E1,2.114411E1,1.9574259E-1,-3.7443668E-1,5.3E0,1.3822934E1,2.087526E1,9.009009E-3,-8.511945E-3,1.959736E0,3.1862545E1,1.8521978E-1,1.6693333E1,2.5038658E1,4.576E0,9.524092E-3,-2.6931966E-2,1.7670582E1,1.683255E1,1.2266666E1,2.4545467E1,1.34E1,-1.01E0,-1.9305749E-2,-4.8617423E-2,-3.7817582E-2,4.5239268E-4,-2.6325049E-2,1.37872575E-2,1.0225547E-2,-2.4566216E-2,8.500145E-3,-2.4453849E-2,-1.3626981E-2,-1.1717746E-2,4.940243E-3,-3.0764736E-2,-8.437641E-3,-4.627337E-2,-1.5608221E-2,3.3368976E-4,-4.419876E-3,1.316394E-2,6.108193E-3,-3.216323E-2,2.1770593E-2,3.420957E-2,1.5521599E-2,-4.054233E-2,-2.1212695E-3,7.3381804E-2],"split_indices":[200,286,200,286,11,286,11,221,211,286,178,221,11,286,286,232,0,216,211,80,3,286,214,0,266,286,286,3,286,7,49,0,0,0,0,0,0,0,0,0,0,0,0,0,0,0,0,0,0,0,0,0,0,0,0,0,0,0,0],"split_type":[0,0,0,0,0,0,0,0,0,0,0,0,0,0,0,0,0,0,0,0,0,0,0,0,0,0,0,0,0,0,0,0,0,0,0,0,0,0,0,0,0,0,0,0,0,0,0,0,0,0,0,0,0,0,0,0,0,0,0],"sum_hessian":[5.4508E4,2.2369E4,3.2139E4,4.256E3,1.8113E4,2.0781E4,1.1358E4,1.63E3,2.626E3,6.263E3,1.185E4,4.33E2,2.0348E4,7.409E3,3.949E3,1.622E3,8E0,2.023E3,6.03E2,3.783E3,2.48E3,1.0911E4,9.39E2,1.2E1,4.21E2,1.5686E4,4.662E3,1.1E2,7.299E3,1.34E2,3.815E3,7E0,1.615E3,1.997E3,2.6E1,5.73E2,3E1,9.7E1,3.686E3,2.48E2,2.232E3,5.749E3,5.162E3,8.36E2,1.03E2,4.5E1,3.76E2,1.791E3,1.3895E4,3.05E2,4.357E3,7E0,1.03E2,1.718E3,5.581E3,1.16E2,1.8E1,2.9E1,3.786E3],"tree_param":{"num_deleted":"0","num_feature":"288","num_nodes":"59","size_leaf_vector":"1"}},{"base_weights":[-4.7302946E-2,-3.5076666E-1,2.3410322E-1,-6.332638E-1,-2.2629638E-1,8.517231E-2,4.964667E-1,-9.504109E-1,-5.5092585E-1,-3.4920838E-1,-9.001318E-2,-3.3831772E-1,1.3204008E-1,1.8073559E-1,5.573366E-1,-9.5492214E-1,-4.815411E-3,-6.5819895E-1,-2.0811146E-1,-4.1133764E-1,-6.0738474E-2,-1.18061766E-1,3.026503E-1,-8.6040473E-1,-2.016594E-1,3.8614683E-2,2.7884024E-1,-1.384024E-1,3.1319875E-1,4.557894E-1,7.340123E-1,-1.8083699E-2,-1.2241483E-2,-1.3684646E-2,-9.905706E-3,-7.7019795E-3,-1.419366E-3,-9.864445E-3,-5.17649E-3,-3.8240748E-3,1.7722417E-3,-4.779146E-3,-5.051148E-4,1.3848514E-2,4.0629217E-3,2.8974803E-3,-1.6546844E-2,-8.172816E-3,-5.095979E-4,-4.619949E-3,1.3046055E-3,3.8780544E-3,9.305613E-3,-1.3250833E-2,-6.090747E-4,-6.493789E-3,6.644459E-3,3.550919E-3,9.361779E-3,1.1267076E-2,1.4953258E-2],"categories":[],"categories_nodes":[],"categories_segments":[],"categories_sizes":[],"default_left":[0,0,0,0,0,0,0,0,0,0,0,0,0,0,0,0,0,0,0,0,0,0,0,0,0,0,0,0,0,0,0,0,0,0,0,0,0,0,0,0,0,0,0,0,0,0,0,0,0,0,0,0,0,0,0,0,0,0,0,0,0],"id":24,"left_children":[1,3,5,7,9,11,13,15,17,19,21,23,25,27,29,31,-1,33,35,37,39,41,43,45,47,49,51,53,55,57,59,-1,-1,-1,-1,-1,-1,-1,-1,-1,-1,-1,-1,-1,-1,-1,-1,-1,-1,-1,-1,-1,-1,-1,-1,-1,-1,-1,-1,-1,-1],"loss_changes":[4.6659478E3,9.2373486E2,1.1073158E3,2.08344E2,3.0546338E2,3.589356E2,1.9670728E2,4.161743E0,2.3419751E2,1.7166711E2,9.5325745E1,1.2770882E2,2.2318118E2,7.043552E1,1.5321191E2,4.1428223E0,0E0,4.4717285E1,4.0782547E1,1.2266931E2,3.816222E1,1.0104295E2,2.0808647E1,9.807587E0,5.845139E1,8.850559E1,9.846387E1,2.898344E1,3.28853E1,6.463208E1,2.5587158E1,0E0,0E0,0E0,0E0,0E0,0E0,0E0,0E0,0E0,0E0,0E0,0E0,0E0,0E0,0E0,0E0,0E0,0E0,0E0,0E0,0E0,0E0,0E0,0E0,0E0,0E0,0E0,0E0,0E0,0E0],"parents":[2147483647,0,0,1,1,2,2,3,3,4,4,5,5,6,6,7,7,8,8,9,9,10,10,11,11,12,12,13,13,14,14,15,15,17,17,18,18,19,19,20,20,21,21,22,22,23,23,24,24,25,25,26,26,27,27,28,28,29,29,30,30],"right_children":[2,4,6,8,10,12,14,16,18,20,22,24,26,28,30,32,-1,34,36,38,40,42,44,46,48,50,52,54,56,58,60,-1,-1,-1,-1,-1,-1,-1,-1,-1,-1,-1,-1,-1,-1,-1,-1,-1,-1,-1,-1,-1,-1,-1,-1,-1,-1,-1,-1,-1,-1],"split_conditions":[3.8333333E0,1.7670582E1,6.6E0,1.0498271E1,3E0,1.6723915E1,2.3379538E1,-3E-1,1.9950039E1,1.3816243E1,2.1743374E1,1.1231546E1,1.8927969E1,4.7286338E-1,3.0933512E1,1E0,-2.9174587E-2,3.1042168E-1,1.4507694E1,2.487399E1,2.1062578E1,2.5038658E1,-1E0,1.9E0,2.6242237E1,2.3563105E1,2.8493942E1,2.4652437E1,1.4005172E1,1.9120129E1,2.823313E1,-4.77082E-2,-4.761588E-2,-3.5601154E-2,-2.6023634E-2,-2.5138568E-2,-1.2440567E-2,-2.4016023E-2,-1.1149232E-2,-1.1500824E-2,4.7006193E-3,-1.3733123E-2,-4.370454E-4,2.8255913E-2,1.7575165E-2,1.2928929E-2,-4.111413E-2,-2.9026983E-2,-7.2959805E-4,-1.43101625E-2,1.1452677E-3,1.5985701E-2,3.4246482E-2,-2.446113E-2,-1.9217682E-3,-7.741475E-3,3.2465465E-2,1.233467E-2,3.8726848E-2,5.738279E-2,8.866524E-2],"split_indices":[240,286,240,286,69,286,286,229,211,211,211,286,211,76,211,161,0,76,286,286,286,286,180,7,211,286,286,211,286,211,286,0,0,0,0,0,0,0,0,0,0,0,0,0,0,0,0,0,0,0,0,0,0,0,0,0,0,0,0,0,0],"split_type":[0,0,0,0,0,0,0,0,0,0,0,0,0,0,0,0,0,0,0,0,0,0,0,0,0,0,0,0,0,0,0,0,0,0,0,0,0,0,0,0,0,0,0,0,0,0,0,0,0,0,0,0,0,0,0,0,0,0,0,0,0],"sum_hessian":[5.4635E4,2.6288E4,2.8347E4,8.037E3,1.8251E4,1.8085E4,1.0262E4,1.652E3,6.385E3,9.593E3,8.658E3,1.8E3,1.6285E4,1.661E3,8.601E3,1.64E3,1.2E1,4.861E3,1.524E3,7.891E3,1.702E3,8.083E3,5.75E2,3.71E2,1.429E3,9.955E3,6.33E3,4.86E2,1.175E3,5.467E3,3.134E3,1.572E3,6.8E1,3.085E3,1.776E3,5.97E2,9.27E2,4.231E3,3.66E3,8.86E2,8.16E2,3.217E3,4.866E3,9.1E1,4.84E2,8E0,3.63E2,6.06E2,8.23E2,9.76E2,8.979E3,4.775E3,1.555E3,7.4E1,4.12E2,6.9E1,1.106E3,7.91E2,4.676E3,1.05E3,2.084E3],"tree_param":{"num_deleted":"0","num_feature":"288","num_nodes":"61","size_leaf_vector":"1"}},{"base_weights":[-5.3487506E-2,-3.923049E-1,2.1981074E-1,-6.318993E-1,-2.6977018E-1,6.324677E-2,5.162556E-1,-9.518245E-1,-5.5131805E-1,-4.5025483E-1,-1.9035307E-1,-1.4405677E-1,1.5424305E-1,-1.0503601E-1,5.461038E-1,-5.7757995E-3,-9.5630026E-1,-6.4174265E-1,-2.4476683E-1,-5.3218156E-1,-2.9588458E-1,-2.3976175E-1,1.3445973E-1,-7.011194E-1,-8.537467E-2,8.5321076E-2,3.243496E-1,-8.6395806E-1,3.0518359E-2,4.1612843E-1,6.6377115E-1,-9.992266E-3,-1.796631E-2,-1.3511028E-2,-9.292014E-3,-8.030024E-3,-1.6517907E-3,-1.49567E-2,-9.216236E-3,-6.66474E-3,8.264276E-4,-5.4784906E-3,-1.1391122E-3,6.178759E-4,7.429852E-3,-1.4124344E-2,6.0090525E-3,-4.9507245E-3,-4.7972798E-4,7.2181603E-4,5.163708E-3,4.7631315E-3,1.1151294E-2,-0E0,-1.8132133E-2,-4.752483E-3,6.017501E-3,7.158275E-3,1.2885576E-2,3.8417415E-3,1.2777255E-2],"categories":[],"categories_nodes":[],"categories_segments":[],"categories_sizes":[],"default_left":[0,0,0,0,0,0,0,0,0,0,0,0,